701482.9267,3,-0.577,9.581,-2.742,,,,,5,2.925,-32.761,38.01
701482.9466,3,-0.577,9.581,-2.742,4,-0.001,0.012,-0.003,,,,
701482.9665,3,-0.323,9.567,-2.587,,,,,,,,
701482.9863,3,-0.462,9.607,-2.615,,,,,,,,
701483.0062,3,-0.51,9.617,-2.594,4,-0.002,-0.006,0.007,5,3.123,-31.664,35.983
701483.0261,3,-0.5,9.61,-2.524,,,,,,,,
701483.0459,3,-0.502,9.626,-2.462,,,,,,,,
701483.0658,3,-0.495,9.626,-2.493,4,-0.003,-0.018,0.004,5,3.299,-31.7,37.282
701483.0857,3,-0.531,9.633,-2.51,,,,,,,,
701483.1055,3,-0.579,9.665,-2.529,,,,,,,,
701483.1254,3,-0.531,9.641,-2.534,4,-0.001,-0.015,0.006,5,2.39,-32.768,35.831
701483.1453,3,-0.428,9.617,-2.512,,,,,,,,
701483.1651,3,-0.321,9.6,-2.469,,,,,,,,
701483.185,3,-0.321,9.6,-2.512,4,-0.002,-0.014,0.001,5,4.205,-31.39,37.193
701483.2049,3,-0.486,9.638,-2.589,,,,,,,,
701483.2248,3,-0.493,9.629,-2.62,,,,,,,,
701483.2446,3,-0.447,9.583,-2.579,4,-0.002,-0.02,-0.005,5,2.463,-33.247,36.32
701483.2645,3,-0.352,9.624,-2.565,,,,,,,,
701483.2844,3,-0.352,9.593,-2.546,,,,,,,,
701483.3042,3,-0.433,9.622,-2.568,4,-0.001,-0.028,-0.013,,,,
701483.3241,3,-0.555,9.617,-2.651,,,,,,,,
701483.3439,3,-0.579,9.643,-2.649,,,,,,,,
701483.3638,3,-0.648,9.303,-2.85,4,-0.006,-0.025,-0.018,5,2.924,-32.758,36.992
701483.3837,3,-0.739,9.643,-2.311,,,,,,,,
701483.4035,3,-0.713,9.653,-2.457,,,,,,,,
701483.4234,3,-1.266,9.641,-2.979,4,0.002,-0.048,-0.007,5,2.879,-30.896,37.186
701483.4433,3,-0.457,9.643,-2.369,,,,,,,,
701483.4631,3,-0.491,9.521,-2.429,,,,,,,,
701483.483,3,-0.646,9.806,-2.522,4,-0.005,-0.07,0.001,,,,
701483.5029,3,-1.07,9.614,-2.591,,,,,,,,
701483.5228,3,-1.486,9.562,-2.548,,,,,,,,
701483.5426,3,-1.407,9.756,-2.45,4,-0.003,-0.024,0.025,5,2.269,-32.211,36.844
701483.5625,3,-1.61,9.624,-2.321,,,,,,,,
701483.5824,3,-1.737,9.607,-2.388,,,,,,,,
701483.6022,3,-2.9,9.818,-2.816,4,-0.003,-0.018,0.088,5,2.927,-32.99,36.322
701483.6221,3,-2.261,9.818,-2.704,,,,,,,,
701483.6419,3,-1.168,9.471,-2.374,,,,,,,,
701483.6618,3,-0.83,9.55,-2.553,4,-0.017,-0.063,0.171,5,2.383,-33.432,36.508
701483.6817,3,-0.773,9.71,-2.826,,,,,,,,
701483.7015,3,-0.744,9.545,-2.489,,,,,,,,
701483.7214,3,0.471,9.258,-2.498,4,-0.013,0.004,0.184,5,4.257,-32.724,36.42
701483.7413,3,1.405,9.626,-3.001,,,,,,,,
701483.7611,3,0.194,9.468,-2.783,,,,,,,,
701483.781,3,-0.12,9.545,-2.969,4,-0.021,0.092,0.142,5,2.252,-32.828,36.278
701483.8009,3,-0.141,9.641,-2.534,,,,,,,,
701483.8208,3,0.672,9.325,-2.558,,,,,,,,
701483.8406,3,-0.002,9.605,-1.893,4,-0.009,-0.004,0.118,,,,
701483.8605,3,-1.484,9.854,-2.654,,,,,,,,
701483.8804,3,-2.304,9.76,-2.941,,,,,,,,
701483.9002,3,-1.859,9.557,-2.816,4,-0.011,-0.225,0.17,5,1.72,-32.457,35.631
701483.9201,3,-0.924,9.595,-2.658,,,,,,,,
701483.9399,3,0.371,9.533,-2.78,,,,,,,,
701483.9598,3,0.759,9.514,-2.972,4,-0.037,-0.25,0.211,5,-0.769,-32.843,35.062
701483.9797,3,1.345,9.358,-2.685,,,,,,,,
701483.9995,3,0.785,9.578,-2.52,,,,,,,,
701484.0194,3,0.467,9.358,-2.974,4,-0.009,0.126,0.155,,,,
701484.0393,3,0.364,9.607,-2.864,,,,,,,,
701484.0591,3,0.34,9.722,-2.209,,,,,,,,
701484.079,3,-0.34,9.638,-2.213,4,0.005,-0.003,0.127,5,-1.086,-32.848,34.032
701484.0989,3,-0.577,9.547,-3.099,,,,,,,,
701484.1188,3,0.045,9.602,-2.297,,,,,,,,
701484.1386,3,0.653,9.813,-2.096,4,-0.006,-0.457,0.144,5,-1.457,-31.868,33.347
701484.1585,3,0.483,9.598,-2.847,,,,,,,,
701484.1783,3,-0.258,9.555,-3.039,,,,,,,,
701484.1982,3,0.711,9.291,-2.869,4,-0.017,-0.381,0.137,5,0.208,-32.861,34.241
701484.2181,3,1.304,9.624,-2.838,,,,,,,,
701484.2379,3,1.601,9.622,-3.4,,,,,,,,
701484.2578,3,0.596,9.581,-2.867,4,-0.009,0.115,0.095,5,-0.629,-32.359,34.125
701484.2777,3,-0.644,9.48,-2.498,,,,,,,,
701484.2975,3,-1.39,9.818,-2.213,,,,,,,,
701484.3174,3,-0.558,9.622,-2.953,4,0.002,0.013,0.106,5,-1.076,-32.425,33.783
701484.3373,3,0.345,9.351,-3.69,,,,,,,,
701484.3572,3,1.192,9.712,-3.362,,,,,,,,
701484.377,3,1.493,9.595,-2.891,4,-0.022,-0.176,0.11,,,,
701484.3969,3,1.28,8.918,-2.146,,,,,,,,
701484.4168,3,1.589,9.638,-3.618,,,,,,,,
701484.4366,3,1.515,9.406,-3.733,4,0.013,-0.019,0.038,5,-0.023,-33.54,35.735
701484.4565,3,1.115,9.421,-3.508,,,,,,,,
701484.4763,3,0.703,9.09,-3.455,,,,,,,,
701484.4962,3,-0.586,9.504,-2.917,4,0.005,0.069,-0.009,,,,
701484.5161,3,-1.113,9.337,-3.407,,,,,,,,
701484.5359,3,-0.821,9.229,-3.879,,,,,,,,
701484.5558,3,-0.345,9.299,-3.24,4,0.009,-0.157,0.032,5,0.891,-34.093,35.831
701484.5757,3,-0.223,10.313,-3.697,,,,,,,,
701484.5955,3,-0.026,8.81,-3.237,,,,,,,,
701484.6154,3,-0.263,9.078,-4.52,4,0.014,0.07,0.058,5,1.79,-33.739,37.042
701484.6353,3,-0.311,9.619,-3.065,,,,,,,,
701484.6546,3,-0.196,10.198,-3.441,,,,,,,,
701484.675,3,0.031,9.368,-1.876,4,0.003,0.2,0.082,5,-0.575,-33.501,35.153
701484.6949,3,-0.242,9.61,-2.489,,,,,,,,
701484.7148,3,0.404,9.461,-2.969,,,,,,,,
701484.7346,3,1.027,9.399,-4.384,4,0.039,0.092,0.089,5,-1.344,-32.86,36.412
701484.7545,3,1.027,9.121,-3.936,,,,,,,,
701484.7743,3,1.053,9.488,-2.835,,,,,,,,
701484.7942,3,1.146,9.87,-3.551,4,-0.003,-0.027,0.058,5,-0.372,-33.168,37.279
701484.8141,3,1.206,9.243,-2.615,,,,,,,,
701484.8339,3,0.969,8.853,-3.101,,,,,,,,
701484.8538,3,0.407,10.282,-3.4,4,0.02,-0.034,0.016,5,-1.582,-33.389,36.751
701484.8737,3,0.766,9.885,-2.852,,,,,,,,
701484.8935,3,0.144,9.77,-2.745,,,,,,,,
701484.9134,3,-0.002,8.42,-3.058,4,0.035,-0.005,0.014,,,,
701484.9333,3,-0.29,9.892,-3.896,,,,,,,,
701484.9532,3,0.172,9.16,-2.967,,,,,,,,
701484.973,3,-0.529,9.98,-2.615,4,0.004,-0.011,0.044,5,-0.105,-33.206,36.552
701484.9929,3,0.258,9.602,-2.23,,,,,,,,
701485.0128,3,0.967,9.71,-4.587,,,,,,,,
701485.0326,3,1.4,8.418,-3.441,4,0.018,0.025,0.044,,,,
701485.0525,3,0.852,9.791,-3.326,,,,,,,,
701485.0723,3,0.921,9.062,-3.549,,,,,,,,
701485.0922,3,1.314,8.626,-4.307,4,0.013,0.044,0.004,5,-0.719,-32.428,36.893
701485.1121,3,2.079,9.086,-6.808,,,,,,,,
701485.1319,3,2.496,9.105,-3.711,,,,,,,,
701485.1518,3,2.194,9.538,-4.197,4,-0.038,0.212,-0.093,5,0.282,-31.575,36.687
701485.1717,3,1.285,8.229,-3.532,,,,,,,,
701485.1915,3,1.766,6.181,-4.321,,,,,,,,
701485.2114,3,1.663,8.992,-5.728,4,-0.013,0.426,-0.198,,,,
701485.2313,3,1.113,12.979,-3.13,,,,,,,,
701485.2512,3,1.56,11.976,1.869,,,,,,,,
701485.271,3,1.546,7.513,-1.067,4,0.074,0.325,-0.277,5,2.658,-34.428,37.767
701485.2909,3,-1.086,6.997,-6.568,,,,,,,,
701485.3108,3,-2.271,9.997,-5.891,,,,,,,,
701485.3306,3,-0.684,9.224,-4.108,4,0.059,-0.022,-0.266,5,-1.103,-33.859,37.714
701485.3505,3,-1.268,10.691,-4.563,,,,,,,,
701485.3704,3,-0.543,9.042,-0.306,,,,,,,,
701485.3902,3,0.086,9.401,-1.283,4,-0.061,-0.026,-0.209,5,0.447,-32.201,35.3
701485.4101,3,-0.333,10.521,-3.936,,,,,,,,
701485.43,3,-1.168,9.258,-2.493,,,,,,,,
701485.4498,3,-0.569,9.653,-3.879,4,0.046,-0.037,-0.169,5,1.575,-33.412,37.19
701485.4697,3,-0.577,9.6,-2.847,,,,,,,,
701485.4896,3,-1.503,9.425,-2.883,,,,,,,,
701485.5094,3,-1.259,9.138,-2.211,4,-0.014,-0.076,-0.127,5,0.803,-31.813,35.963
701485.5293,3,-0.488,9.5,-1.376,,,,,,,,
701485.5492,3,-0.498,9.267,-0.735,,,,,,,,
701485.569,3,-0.938,9.547,-3.649,4,0.034,0.009,-0.054,,,,
701485.5889,3,-0.971,10.064,-1.826,,,,,,,,
701485.6088,3,-0.325,9.5,-3.8,,,,,,,,
701485.6286,3,0.589,9.356,-3.357,4,0.025,-0.169,-0.02,5,2.028,-32.777,36.067
701485.6485,3,0.328,9.368,-3.905,,,,,,,,
701485.6683,3,0.495,9.425,-2.675,,,,,,,,
701485.6882,3,1.321,8.82,-3.348,4,0.006,-0.248,-0.04,5,2.875,-32.861,37.181
701485.7081,3,1.663,9.693,-3.072,,,,,,,,
701485.7279,3,0.751,10.504,-3.998,,,,,,,,
701485.7478,3,0.505,9.038,-2.725,4,0.006,-0.249,-0.102,5,2.795,-32.471,35.829
701485.7677,3,0.05,8.569,-3.618,,,,,,,,
701485.7876,3,0.218,10.552,-3.706,,,,,,,,
701485.8074,3,0.625,10.234,-2.591,4,-0.065,-0.454,-0.081,5,3.618,-31.7,37.906
701485.8273,3,0.706,10.38,-2.711,,,,,,,,
701485.8472,3,-0.536,6.956,-2.386,,,,,,,,
701485.867,3,-1.764,7.908,-4.034,4,-0.033,-0.619,-0.059,5,3.957,-32.538,35.966
701485.8869,3,-1.405,11.208,-4.257,,,,,,,,
701485.9068,3,-0.447,12.39,-1.847,,,,,,,,
701485.9266,3,1.031,6.848,1.622,4,-0.023,-0.763,0.017,5,6.932,-32.663,36.557
701485.9465,3,-0.421,10.378,-6.887,,,,,,,,
701485.9663,3,0.244,8.679,-1.151,,,,,,,,
701485.9862,3,-0.531,8.2,-1.723,4,0.044,-0.732,0.055,5,8.083,-32.819,35.651
701486.0061,3,0.546,8.471,-3.953,,,,,,,,
701486.0259,3,1.979,11.304,-3.637,,,,,,,,
701486.0458,3,1.34,8.952,-0.067,4,-0.015,-0.596,0.056,5,9.59,-32.97,34.776
701486.0657,3,2.177,9.411,-2.548,,,,,,,,
701486.0856,3,1.823,9.277,-4.281,,,,,,,,
701486.1054,3,0.062,11,-4.46,4,0.059,-0.11,-0.029,,,,
701486.1253,3,-1.132,9.88,-3.941,,,,,,,,
701486.1452,3,-2.658,9.674,-3.948,,,,,,,,
701486.165,3,-3.053,9.447,-3.472,4,-0.008,-0.485,0.013,5,9.656,-31.969,35.751
701486.1849,3,-3.491,7.973,-3.489,,,,,,,,
701486.2048,3,-2.546,10.131,-3.893,,,,,,,,
701486.2246,3,-1.503,10.076,-3.293,4,0.004,-0.73,0.144,,,,
701486.2445,3,-0.323,7.595,-2.709,,,,,,,,
701486.2643,3,-1.297,9.26,-4.707,,,,,,,,
701486.2842,3,-1.905,10.37,-4.276,4,0.1,-0.305,0.194,5,11.589,-33.022,34.395
701486.3041,3,-0.751,7.92,-2.859,,,,,,,,
701486.324,3,-1.017,6.798,-1.596,,,,,,,,
701486.3438,3,-0.342,10.567,-3.752,4,0.109,-0.053,0.208,5,10.489,-33.418,34.535
701486.3637,3,1.472,13.462,-2.85,,,,,,,,
701486.3836,3,2.465,10.002,-0.311,,,,,,,,
701486.4034,3,2.017,7.255,0.357,4,0.06,0.008,0.16,5,12.183,-32.336,36.572
701486.4233,3,0.474,8.849,-3.288,,,,,,,,
701486.4432,3,0.239,10.363,-4.577,,,,,,,,
701486.463,3,0.639,9.626,-2.907,4,-0.02,0.179,0.084,5,11.024,-32.373,35.307
701486.4829,3,-0.184,13.558,-0.117,,,,,,,,
701486.5028,3,0.51,9.368,1.496,,,,,,,,
701486.5226,3,0.5,7.289,-1.591,4,0.018,0.564,0.026,5,9.593,-32.878,36.133
701486.5425,3,0.177,9.794,-4.889,,,,,,,,
701486.5624,3,-1.486,9.545,-4.269,,,,,,,,
701486.5822,3,-2.386,9.947,-3.623,4,-0.05,0.551,-0.018,5,9.125,-34.035,37.535
701486.6021,3,-0.287,9.925,-2.821,,,,,,,,
701486.622,3,0.053,9.753,-1.199,,,,,,,,
701486.6419,3,-0.05,10.191,-1.917,4,-0.073,0.12,-0.036,,,,
701486.6617,3,0.378,9.784,-2.187,,,,,,,,
701486.6816,3,-1.199,8.999,-1.685,,,,,,,,
701486.7015,3,-2.06,10.603,-1.01,4,-0.015,0.1,-0.048,5,8.234,-33.914,36.143
701486.7213,3,-0.897,11.246,-1.216,,,,,,,,
701486.7412,3,0.617,8.791,-0.318,,,,,,,,
701486.7611,3,-0.445,8.727,-2.967,4,0.019,0.271,-0.007,,,,
701486.7809,3,-1.74,12.553,-4.75,,,,,,,,
701486.8008,3,-1.945,9.442,-0.909,,,,,,,,
701486.8206,3,-1.89,9.081,-0.749,4,-0.112,0.422,0.027,5,8.501,-33.665,36.514
701486.8405,3,-1.929,11.241,-2.266,,,,,,,,
701486.8604,3,0.148,9.1,-0.258,,,,,,,,
701486.8802,3,2.216,9.358,-0.802,4,-0.014,0.456,0.035,5,5.699,-33.595,35.445
701486.9001,3,1.728,10.856,-4.037,,,,,,,,
701486.92,3,0.565,9.557,-3.025,,,,,,,,
701486.9399,3,0.182,10.476,-2.902,4,0.026,0.648,-0.019,5,5.592,-32.692,35.837
701486.9597,3,-0.378,9.057,-2.833,,,,,,,,
701486.9796,3,-1.496,9.284,-2.077,,,,,,,,
701486.9995,3,-0.763,10.753,-0.383,4,-0.039,0.306,-0.051,5,4.262,-32.579,36.754
701487.0193,3,-0.043,8.856,-0.828,,,,,,,,
701487.0392,3,-1.163,9.763,-2.969,,,,,,,,
701487.0591,3,-2.089,9.543,-4.369,4,0.087,0.268,-0.026,5,4.932,-34.134,36.523
701487.0789,3,-1.543,8.203,-5.245,,,,,,,,
701487.0988,3,-2.28,10.359,-7.927,,,,,,,,
701487.1186,3,-2.709,9.294,-5.834,4,0.017,0.134,0.05,5,3.558,-34.164,35.985
701487.1385,3,-1.335,8.442,-2.623,,,,,,,,
701487.1584,3,-0.692,8.952,-1.706,,,,,,,,
701487.1782,3,-1.048,9.526,-3.565,4,0.062,0.114,0.055,5,3.59,-32.828,36.559
701487.1981,3,0.443,9.756,-2.824,,,,,,,,
701487.218,3,2.075,11.493,-1.874,,,,,,,,
701487.2379,3,0.476,5.81,0.22,4,0.144,0.246,0.027,5,2.702,-32.524,38.008
701487.2577,3,1.201,11.093,-3.769,,,,,,,,
701487.2776,3,2.079,11.959,-5.176,,,,,,,,
701487.2975,3,-0.218,8.978,-0.938,4,0.048,0.371,-0.073,,,,
701487.3173,3,-0.847,10.648,0.366,,,,,,,,
701487.3372,3,-0.11,9.703,-0.378,,,,,,,,
701487.3571,3,-0.641,10.268,-2.388,4,-0.002,0.145,-0.065,5,2.107,-33.064,35.692
701487.3769,3,-1.783,9.701,-2.127,,,,,,,,
701487.3968,3,-2.67,8.99,-1.302,,,,,,,,
701487.4166,3,-1.871,9.724,-3.025,4,-0.041,0.074,0.013,5,1.588,-32.79,37.282
701487.4365,3,0.278,10.035,-3.57,,,,,,,,
701487.4564,3,1.096,9.251,-2.993,,,,,,,,
701487.4762,3,1.292,8.839,-2.146,4,-0.019,0.475,0.004,5,1.604,-32.17,37.28
701487.4961,3,1.397,9.509,-2.907,,,,,,,,
701487.516,3,2.022,9.1,-3.501,,,,,,,,
701487.5359,3,1.979,9.957,-4.417,4,0.051,0.802,-0.117,5,0.243,-33.255,36.269
701487.5557,3,1.39,9.394,-3.534,,,,,,,,
701487.5756,3,1.646,10.009,-2.917,,,,,,,,
701487.5955,3,0.706,8.406,-2.855,4,0.029,0.438,-0.259,5,-0.201,-33.315,35.593
701487.6153,3,0.507,7.698,-2.797,,,,,,,,
701487.6352,3,-1.077,9.184,-5.559,,,,,,,,
701487.6551,3,-1.436,15.709,-2.857,4,0.004,0.078,-0.307,5,-0.351,-34.215,37.18
701487.6749,3,-2.828,10.749,0.909,,,,,,,,
701487.6948,3,-2.644,4.097,0.254,,,,,,,,
701487.7146,3,-2.067,8.808,-7.475,4,0.115,-0.382,-0.188,5,1.453,-32.933,36.415
701487.7345,3,-2.864,11.457,-8.392,,,,,,,,
701487.7544,3,-3.989,7.719,-4.723,,,,,,,,
701487.7742,3,-1.287,12.28,-3.501,4,-0.072,-0.667,0.026,5,3.191,-34.561,36.9
701487.7941,3,-0.287,6.408,-0.658,,,,,,,,
701487.814,3,-0.747,10.162,-3.723,,,,,,,,
701487.8339,3,0.213,10.763,-4.331,4,0.052,-0.438,0.124,,,,
701487.8531,3,1.244,9.866,-2.185,,,,,,,,
701487.8736,3,0.878,10.024,-1.409,,,,,,,,
701487.8935,3,2.113,8.77,-3.563,4,0.068,-0.339,0.1,5,3.45,-33.456,36.56
701487.9133,3,2.419,9.902,-4.226,,,,,,,,
701487.9332,3,2.383,9.165,-2.024,,,,,,,,
701487.9531,3,2.182,9.6,-1.938,4,-0.035,-0.352,0.024,5,4.964,-31.294,39.452
701487.9729,3,1.34,10.871,-0.799,,,,,,,,
701487.9928,3,0.263,9.26,-0.837,,,,,,,,
701488.0126,3,0.519,10.301,-2.733,4,-0.013,-0.423,-0.049,5,4.407,-33.771,35.493
701488.0325,3,-0.876,9.813,-3.874,,,,,,,,
701488.0524,3,-1.539,9.169,-3.245,,,,,,,,
701488.0723,3,-1.378,9.717,-2.321,4,-0.075,-0.394,0.014,5,7.166,-34.108,37.241
701488.0921,3,-0.881,10.543,-1.948,,,,,,,,
701488.112,3,-0.311,7.097,-2.797,,,,,,,,
701488.1319,3,1.606,8.605,-4.86,4,-0.006,-0.13,0.032,5,6.384,-33.698,35.593
701488.1517,3,1.998,10.418,-5.204,,,,,,,,
701488.1716,3,1.287,10.543,-2.197,,,,,,,,
701488.1915,3,0.232,9.837,-3.757,4,-0.009,0.452,-0.065,5,6.241,-35.483,36.617
701488.2113,3,0.816,9.176,-4.482,,,,,,,,
701488.2312,3,0.55,9.583,-2.788,,,,,,,,
701488.2511,3,-0.952,8.37,-1.129,4,-0.037,0.385,-0.152,5,6.458,-33.864,38.261
701488.2709,3,-1.565,9.756,-2.692,,,,,,,,
701488.2908,3,-0.821,9.069,-2.587,,,,,,,,
701488.3106,3,-1.716,7.932,-2.953,4,-0.011,-0.169,-0.154,5,7.031,-34.373,37.157
701488.3305,3,-1.519,9.074,-3.343,,,,,,,,
701488.3504,3,-2.268,10.225,-4.654,,,,,,,,
701488.3703,3,-2.448,8.868,-4.18,4,0.003,-0.384,-0.097,,,,
701488.3901,3,-1.505,9.447,-3.592,,,,,,,,
701488.41,3,-2.283,9.638,-3.254,,,,,,,,
701488.4299,3,-0.715,9.222,-3.417,4,-0.002,-0.48,0.004,5,12.607,-35.915,40.213
701488.4497,3,-0.756,9.765,-3.288,,,,,,,,
701488.4696,3,-0.395,9.437,-3.946,,,,,,,,
701488.4895,3,-0.593,10.217,-2.936,4,0.023,-0.443,0.054,,,,
701488.5093,3,-0.909,7.202,-3.202,,,,,,,,
701488.5292,3,-0.51,8.918,-4.467,,,,,,,,
701488.5491,3,0.921,11.627,-2.874,4,-0.012,-0.228,0.075,5,9.532,-35.6,37.016
701488.5689,3,0.266,9.59,1.153,,,,,,,,
701488.5888,3,0.165,9.071,-1.373,,,,,,,,
701488.6086,3,-0.524,10.303,-4.034,4,0.025,-0.132,0.023,5,8.658,-35.225,38.272
701488.6285,3,0.845,12.809,-4.733,,,,,,,,
701488.6484,3,-0.565,11.596,-0.237,,,,,,,,
701488.6683,3,0.347,5.109,-0.014,4,0.006,-0.216,-0.026,5,10.341,-33.597,38.025
701488.6881,3,-0.144,9.945,-5.817,,,,,,,,
701488.708,3,-1.11,10.375,-7.214,,,,,,,,
701488.7279,3,-1.874,8.569,-3.819,4,-0.018,-0.365,-0.002,5,11.02,-34.691,38.614
701488.7477,3,-1.082,9.37,-2.673,,,,,,,,
701488.7676,3,-0.682,8.394,-1.919,,,,,,,,
701488.7875,3,0.311,9.839,-3.161,4,0.018,-0.507,0.001,5,11.974,-34.354,39.592
701488.8073,3,-0.014,9.538,-3.482,,,,,,,,
701488.8272,3,0.225,9.995,-2.771,,,,,,,,
701488.8471,3,0.108,7.848,-2.692,4,0.058,-0.338,-0.01,5,12.268,-32.73,38.95
701488.8669,3,-2.438,8.03,-2.96,,,,,,,,
701488.8868,3,-2.663,11.715,-4.345,,,,,,,,
701488.9067,3,-2.386,10.988,-1.357,4,-0.037,-0.574,0.063,,,,
701488.9266,3,-1.254,8.621,1.084,,,,,,,,
701488.9464,3,-0.77,10.086,-1.05,,,,,,,,
701488.9663,3,-1.744,10.26,-4.798,4,0.111,-0.737,0.158,5,14.577,-33.191,38.377
701488.9862,3,-0.4,8.815,-4.807,,,,,,,,
701489.006,3,-0.859,9.289,-4.542,,,,,,,,
701489.0259,3,-0.261,9.574,-2.41,4,0.033,-0.238,0.243,,,,
701489.0458,3,-0.005,8.923,0.038,,,,,,,,
701489.0656,3,-1.335,11.289,-4.321,,,,,,,,
701489.0855,3,-0.706,10.516,-2.9,4,0.045,0.462,0.199,5,13.611,-33.56,38.759
701489.1054,3,1.615,8.985,-0.005,,,,,,,,
701489.1252,3,0.486,8.377,-0.792,,,,,,,,
701489.1451,3,0.555,10.091,-3.941,4,0.023,0.843,0.089,5,12.326,-33.405,38.19
701489.165,3,-0.821,10.875,-3.656,,,,,,,,
701489.1848,3,-1.634,6.724,-2.168,,,,,,,,
701489.2047,3,-2.472,9.224,-4.317,4,-0.042,0.667,-0.022,5,8.984,-34.042,39.432
701489.2246,3,-3.455,11.684,-3.226,,,,,,,,
701489.2444,3,-3.249,10.122,-0.392,,,,,,,,
701489.2643,3,-2.386,9.212,0.325,4,-0.087,0.189,0.043,5,8.492,-32.875,41.891
701489.2842,3,-1.333,10.081,-1.515,,,,,,,,
701489.304,3,-1.773,8.954,-3.757,,,,,,,,
701489.3239,3,-1.625,9.387,-6.083,4,0.064,-0.081,0.104,5,7.344,-32.233,40.633
701489.3438,3,-1.017,8.688,-4.831,,,,,,,,
701489.3636,3,-1.077,9.54,-2.56,,,,,,,,
701489.3835,3,-0.093,10.27,-1.438,4,-0.044,0.152,0.137,5,6.557,-33.197,40.723
701489.4034,3,0.436,10.792,-0.847,,,,,,,,
701489.4232,3,0.684,8.736,-1.271,,,,,,,,
701489.4431,3,0.931,9.626,-3.63,4,0.093,0.532,0.072,5,3.685,-32.658,40.73
701489.4629,3,0.179,8.566,-3.738,,,,,,,,
701489.4828,3,0.261,10.057,-3.319,,,,,,,,
701489.5027,3,-0.031,10.5,-1.024,4,-0.01,0.707,-0.016,5,2.126,-32.64,41.354
701489.5226,3,0.301,5.944,-0.165,,,,,,,,
701489.5424,3,0.158,11.373,-4.877,,,,,,,,
701489.5623,3,0.127,11.672,-4.02,4,0.005,0.299,-0.094,,,,
701489.5822,3,-0.16,8.562,-1.024,,,,,,,,
701489.602,3,0.29,9.186,-2.412,,,,,,,,
701489.6219,3,-0.11,9.662,-3.534,4,0.008,-0.347,-0.135,5,0.948,-31.86,39.212
701489.6418,3,-0.541,9.174,-3.742,,,,,,,,
701489.6616,3,-1.548,9.121,-4.231,,,,,,,,
701489.6815,3,-0.933,9.351,-4.061,4,-0.011,-0.645,-0.076,5,2.383,-31.45,38.889
701489.7014,3,-1.115,9.961,-3.142,,,,,,,,
701489.7212,3,-0.139,10.67,-0.96,,,,,,,,
701489.7411,3,0.548,8.731,-1.323,4,0.013,-0.26,0.024,5,4.144,-32.161,38.582
701489.7609,3,0.412,8.406,-3.903,,,,,,,,
701489.7808,3,-1.189,8.877,-4.563,,,,,,,,
701489.8007,3,-1.747,8.588,-3.917,4,0.01,0.421,-0.004,5,1.515,-31.754,38.179
701489.8206,3,-2.029,16.544,-1.574,,,,,,,,
701489.8404,3,-2.07,5.444,3.778,,,,,,,,
701489.8603,3,-0.869,8.748,-1.402,4,0.022,0.257,0.032,5,1.788,-29.747,39.787
701489.8802,3,0.129,11.596,-6.475,,,,,,,,
701489.9,3,-0.029,9.124,-3.412,,,,,,,,
701489.9199,3,-1.634,8.746,-1.816,4,-0.05,0.206,0.041,5,-0.343,-29.99,38.722
701489.9398,3,-0.402,10.746,-1.859,,,,,,,,
701489.9596,3,0.534,9.435,-0.699,,,,,,,,
701489.9795,3,1.208,9.93,-1.567,4,-0.044,-0.06,0.024,5,-0.653,-29.471,37.994
701489.9994,3,1.797,9.971,-3.23,,,,,,,,
701490.0192,3,1.366,9.497,-3.005,,,,,,,,
701490.0391,3,1.278,9.55,-3.075,4,-0.05,0,-0.049,5,1.34,-30.972,37.656
701490.0589,3,0.577,9.253,-2.752,,,,,,,,
701490.0788,3,0.711,9.734,-2.283,,,,,,,,
701490.0987,3,0.876,9.492,-2.587,4,-0.072,-0.043,-0.114,,,,
701490.1186,3,0.22,9.784,-3.001,,,,,,,,
701490.1384,3,-0.488,10.677,-2.958,,,,,,,,
701490.1583,3,-1.852,7.92,-1.445,4,-0.059,-0.29,-0.136,5,1.622,-31.361,36.507
701490.1782,3,-2.412,7.107,-2.833,,,,,,,,
701490.198,3,-1.761,12.146,-4.649,,,,,,,,
701490.2179,3,-2.517,10.765,-1.228,4,-0.017,-0.6,-0.029,,,,
701490.2378,3,-1.359,9.241,-2.792,,,,,,,,
701490.2576,3,-1.031,13.254,-5.956,,,,,,,,
701490.2775,3,-0.34,7.48,-1.838,4,0.055,-0.24,0.08,5,3.384,-32.034,37.042
701490.2974,3,0.928,8.334,-2.434,,,,,,,,
701490.3172,3,-0.062,8.789,-3.321,,,,,,,,
701490.3371,3,-0.249,9.732,-4.085,4,0.054,0.311,0.055,5,2.135,-32.338,35.829
701490.357,3,-0.215,10.402,-4.111,,,,,,,,
701490.3768,3,-0.78,8.992,-1.338,,,,,,,,
701490.3967,3,-0.132,8.688,-1.244,4,0.016,0.376,-0.014,5,0.436,-32.817,36.354
701490.4166,3,-0.593,10.607,-3.249,,,,,,,,
701490.4364,3,-1.359,9.411,-3.462,,,,,,,,
701490.4563,3,-0.837,10.438,-2.596,4,0.005,0.165,-0.043,5,1.63,-30.922,35.733
701490.4762,3,-1.077,6.949,-1.445,,,,,,,,
701490.496,3,-1.687,8.387,-3.931,,,,,,,,
701490.5159,3,-1.687,12.146,-5.006,4,-0.009,-0.181,-0.001,5,1.622,-31.216,34.955
701490.5358,3,-1.409,10.471,-1.73,,,,,,,,
701490.5556,3,-1.436,7.985,-0.876,,,,,,,,
701490.5755,3,-0.462,9.456,-3.637,4,0.053,-0.283,0.056,5,2.278,-31.575,33.894
701490.5954,3,-0.213,10.277,-4.872,,,,,,,,
701490.6152,3,-0.526,9.102,-3.661,,,,,,,,
701490.6351,3,0.146,8.562,-2.252,4,0.013,0.058,0.077,,,,
701490.655,3,0.804,10.193,-2.792,,,,,,,,
701490.6748,3,-0.091,9.885,-2.23,,,,,,,,
701490.6947,3,0.323,9.04,-2.283,4,0.043,0.262,0.021,5,2.936,-32.039,34.377
701490.7146,3,0.098,8.947,-2.615,,,,,,,,
701490.7344,3,-0.514,10.323,-3.484,,,,,,,,
701490.7543,3,-0.835,11.986,-3.441,4,0.035,0.427,-0.043,,,,
701490.7742,3,-0.404,6.159,-1.637,,,,,,,,
701490.794,3,-0.438,9.863,-3.915,,,,,,,,
701490.8139,3,-0.469,12.668,-3.422,4,-0.026,0.375,-0.073,5,2.007,-29.976,34.369
701490.8338,3,-0.885,9.363,-0.567,,,,,,,,
701490.8536,3,-0.378,9.657,-1.469,,,,,,,,
701490.8735,3,0.184,9.483,-3.927,4,0.049,0.043,-0.13,5,1.285,-32.465,34.375
701490.8934,3,-0.337,7.903,-4.929,,,,,,,,
701490.9132,3,-0.802,5.224,-5.771,,,,,,,,
701490.9331,3,-1.237,12.778,-5.738,4,-0.082,-0.152,-0.117,5,3.616,-31.308,32.921
701490.953,3,-2.424,13.175,-0.165,,,,,,,,
701490.9728,3,-2.012,5.082,2.814,,,,,,,,
701490.9927,3,0.297,9.593,-4.424,4,0.02,-0.694,-0.047,5,3.906,-32.536,32.738
701491.0126,3,-0.172,8.643,-7.523,,,,,,,,
701491.0324,3,-1.079,10.871,-5.235,,,,,,,,
701491.0523,3,-1.196,6.922,-1.732,4,-0.044,-0.397,0.05,5,5.264,-31.609,33.339
701491.0722,3,-0.397,10,-1.73,,,,,,,,
701491.092,3,0.273,11.914,-1.438,,,,,,,,
701491.1119,3,0.586,9.715,-0.581,4,-0.034,-0.193,0.075,5,6.094,-33.383,32.365
701491.1318,3,0.677,9.782,-1.878,,,,,,,,
701491.1516,3,0.488,9.985,-2.568,,,,,,,,
701491.1715,3,-0.124,9.461,-2.709,4,-0.004,-0.052,0.022,5,7.469,-32.689,34.978
701491.1914,3,-1.247,11.043,-3.549,,,,,,,,
701491.2112,3,-1.295,9.459,-2.345,,,,,,,,
701491.2311,3,-0.84,9.464,-0.828,4,-0.106,-0.14,0.038,5,6.007,-33.862,33.421
701491.251,3,-0.687,10.083,-1.393,,,,,,,,
701491.2708,3,0.108,9.925,-1.338,,,,,,,,
701491.2907,3,0.266,6.999,-4.42,4,0.039,-0.139,0.051,,,,
701491.3106,3,-0.524,14.642,-9.004,,,,,,,,
701491.3305,3,-0.1,5.097,-2.252,,,,,,,,
701491.3503,3,0.304,8.973,-1.687,4,-0.103,0.05,0.055,5,6.377,-33.093,33.813
701491.3702,3,-0.318,13.563,-2.005,,,,,,,,
701491.3901,3,-0.684,8.925,1.565,,,,,,,,
701491.4099,3,-1.675,8.43,-1.165,4,0.032,-0.175,0.02,5,7.207,-33.264,34.186
701491.4298,3,-2.378,9.796,-4.597,,,,,,,,
701491.4497,3,-2.752,8.964,-4.214,,,,,,,,
701491.4695,3,-2.716,9.657,-3.745,4,0.042,-0.191,0.116,5,6.099,-32.051,32.93
701491.4894,3,-2.627,9.645,-2.812,,,,,,,,
701491.5093,3,-2.328,10.586,-1.555,,,,,,,,
701491.5291,3,-0.529,9.605,-0.598,4,0.025,0.22,0.237,5,5.829,-33.675,33.084
701491.549,3,-0.139,9.614,-2.249,,,,,,,,
701491.5689,3,-0.251,10.079,-3.525,,,,,,,,
701491.5887,3,-0.014,10.313,-3.376,4,0.1,0.729,0.162,5,5.557,-34.363,34.158
701491.6086,3,0.227,6.688,-2.484,,,,,,,,
701491.6285,3,-0.091,12.581,-4.403,,,,,,,,
701491.6483,3,-1.211,11.612,-0.383,4,-0.028,0.911,0.078,,,,
701491.6682,3,-1.39,7.846,2.091,,,,,,,,
701491.6881,3,-0.349,10.363,-1.821,,,,,,,,
701491.7079,3,-0.361,9.571,-3.625,4,0.101,0.56,-0.012,5,1.552,-34.209,34.091
701491.7278,3,-0.969,8.329,-4.142,,,,,,,,
701491.7477,3,-1.027,9.801,-4.448,,,,,,,,
701491.7675,3,-0.467,10.114,-2.398,4,-0.022,0.413,-0.043,5,1.273,-32.788,33.315
701491.7874,3,-0.615,10.21,-1.017,,,,,,,,
701491.8073,3,0.079,8.557,-0.536,,,,,,,,
701491.8271,3,0.388,7.155,-2.934,4,0.052,0.083,-0.08,,,,
701491.847,3,0.136,11.868,-6.568,,,,,,,,
701491.8669,3,-0.093,10.619,-3.876,,,,,,,,
701491.8867,3,0.715,6.03,0.014,4,-0.038,0.073,-0.1,5,1.643,-35.634,34.717
701491.9066,3,1.067,11.459,-3.381,,,,,,,,
701491.9265,3,0.893,9.428,-2.216,,,,,,,,
701491.9463,3,-0.282,10.737,-1.785,4,-0.026,0.011,-0.13,5,0.893,-34.232,34.383
701491.9662,3,0.017,10.739,-1.285,,,,,,,,
701491.9861,3,-0.002,9.054,-0.893,,,,,,,,
701492.0059,3,0.199,9.823,-2.606,4,0.035,0.007,-0.171,5,1.711,-34.921,34.573
701492.0258,3,-0.304,9.77,-4.7,,,,,,,,
701492.0457,3,-1.445,9.418,-3.565,,,,,,,,
701492.0655,3,-1.326,9.739,-2.745,4,-0.05,0.198,-0.157,5,1.532,-33.807,34.727
701492.0854,3,-1.103,10.057,-1.512,,,,,,,,
701492.1053,3,-1.156,9.392,-1.007,,,,,,,,
701492.1251,3,-0.749,10.866,-3.015,4,-0.006,0.035,-0.14,5,0.23,-33.687,34.633
701492.145,3,-1.12,7.279,-3.898,,,,,,,,
701492.1649,3,-0.182,12.151,-4.92,,,,,,,,
701492.1847,3,-0.184,10.299,1.122,4,-0.017,-0.108,-0.094,5,3.989,-33.487,34.975
701492.2046,3,-1.216,6.827,-0.914,,,,,,,,
701492.2245,3,-0.629,11.543,-5.176,,,,,,,,
701492.2443,3,0.708,6.839,-2.29,4,0.036,-0.379,-0.082,5,2.414,-35.379,34.145
701492.2642,3,1.735,9.633,-2.522,,,,,,,,
701492.2841,3,0.579,11.703,-2.099,,,,,,,,
701492.3039,3,0.514,10.102,-1.292,4,0.005,-0.386,-0.086,5,3.932,-35.439,33.087
701492.3238,3,0.469,10.153,-2.929,,,,,,,,
701492.3437,3,1.462,9.394,-3.462,,,,,,,,
701492.3635,3,0.244,9.681,-2.773,4,-0.013,-0.322,-0.103,,,,
701492.3834,3,-1.17,11.038,-1.534,,,,,,,,
701492.4033,3,-0.979,6.341,-0.952,,,,,,,,
701492.4231,3,-0.888,10.636,-4.443,4,-0.012,-0.364,-0.072,5,3.578,-36.736,33.125
701492.443,3,-1.134,12.933,-2.934,,,,,,,,
701492.4629,3,-0.725,7.966,0.653,,,,,,,,
701492.4827,3,-0.486,10.509,-1.577,4,-0.013,-0.343,-0.008,,,,
701492.5026,3,-0.333,9.945,-3.333,,,,,,,,
701492.5225,3,-1.369,9.279,-2.472,,,,,,,,
701492.5423,3,-0.9,9.746,-2.599,4,0.028,-0.387,0.02,5,5.94,-35.1,34.544
701492.5622,3,-0.469,10.399,-1.775,,,,,,,,
701492.5821,3,-0.481,8.609,-0.998,,,,,,,,
701492.6019,3,0.038,9.05,-3.632,4,0.108,-0.294,0.054,5,7.976,-35.251,34.639
701492.6218,3,-0.017,8.92,-5.216,,,,,,,,
701492.6417,3,0.287,9.897,-4.173,,,,,,,,
701492.6616,3,0.981,8.767,-1.156,4,0.006,0.031,0.032,5,6.876,-34.793,33.615
701492.6814,3,0.675,7.418,-1.156,,,,,,,,
701492.7013,3,-0.246,13.795,-2.938,,,,,,,,
701492.7211,3,-1,11.368,-0.39,4,0.007,-0.188,-0.022,5,6.337,-34.805,32.936
701492.741,3,-0.94,4.896,-0.266,,,,,,,,
701492.7609,3,-0.194,14.9,-5.212,,,,,,,,
701492.7807,3,-1.402,7.344,-1.792,4,0.044,-0.443,0.014,5,7.933,-35.478,32.997
701492.8006,3,-2.039,8.38,-2.907,,,,,,,,
701492.8205,3,-1.955,9.863,-3.998,,,,,,,,
701492.8403,3,-1.752,9.492,-3.479,4,0.017,-0.496,0.122,,,,
701492.8602,3,-1.457,8.952,-2.493,,,,,,,,
701492.8801,3,-0.129,10.263,-2.85,,,,,,,,
701492.8999,3,-1.005,9.669,-2.522,4,0.014,-0.193,0.186,5,8.192,-35.472,32.942
701492.9198,3,-0.94,11.002,-2.371,,,,,,,,
701492.9397,3,-0.074,7.444,-1.024,,,,,,,,
701492.9596,3,0.313,7.537,-2.754,4,0.032,0.222,0.179,5,7.379,-35.641,32.063
701492.9794,3,-0.012,14.314,-4.75,,,,,,,,
701492.9993,3,-0.622,9.567,-0.668,,,,,,,,
701493.0191,3,-0.471,8.798,-0.68,4,0.027,0.458,0.115,,,,
701493.039,3,-0.392,9.904,-2.979,,,,,,,,
701493.0589,3,-0.921,9.325,-4.396,,,,,,,,
701493.0787,3,-1.807,9.248,-3.496,4,0.013,0.428,0.052,5,6.514,-36.598,33.29
701493.0986,3,-1.263,7.377,-0.057,,,,,,,,
701493.1185,3,-1.584,10.241,-3.249,,,,,,,,
701493.1383,3,-2.158,10.359,-1.821,4,-0.015,0.22,0.058,5,6.546,-36.69,34.709
701493.1582,3,-0.61,8.48,-0.313,,,,,,,,
701493.1781,3,-0.4,9.703,-2.194,,,,,,,,
701493.1979,3,-0.969,9.885,-3.714,4,0.049,0.112,0.068,5,5.537,-35.049,33.8
701493.2178,3,-0.759,6.09,-3.884,,,,,,,,
701493.2377,3,0.005,10.658,-5.061,,,,,,,,
701493.2576,3,-0.543,12.555,-2.4,4,-0.06,0.181,0.066,5,4.164,-36.525,33.907
701493.2774,3,-0.392,8.992,1.172,,,,,,,,
701493.2973,3,0.007,9.557,-1.302,,,,,,,,
701493.3171,3,0.34,10.201,-3.965,4,0.065,-0.037,0.02,5,4.561,-36.853,35.12
701493.337,3,0.134,8.966,-4.786,,,,,,,,
701493.3569,3,-0.488,9.49,-4.451,,,,,,,,
701493.3767,3,-0.129,10.435,-2.919,4,-0.031,0.073,0.008,,,,
701493.3966,3,-0.629,9.49,-0.876,,,,,,,,
701493.4165,3,-0.349,9.15,-1.443,,,,,,,,
701493.4363,3,-0.548,9.215,-3.551,4,0.02,-0.015,-0.022,5,4.214,-38.336,36.388
701493.4562,3,-0.364,9.906,-3.974,,,,,,,,
701493.4761,3,-0.627,10.263,-3.017,,,,,,,,
701493.4959,3,-0.232,6.851,-2.532,4,-0.008,0.136,-0.016,5,4.539,-37.274,34.392
701493.5158,3,-0.089,12.038,-3.919,,,,,,,,
701493.5357,3,-0.577,11.624,-0.443,,,,,,,,
701493.5555,3,-0.928,8.624,1.137,4,-0.032,0.161,-0.031,,,,
701493.5754,3,-0.555,9.645,-1.905,,,,,,,,
701493.5953,3,-0.632,9.349,-4.81,,,,,,,,
701493.6151,3,-1.474,8.497,-4.518,4,0.065,0.077,-0.046,5,3.055,-36.079,36.069
701493.635,3,-1.156,10.117,-3.893,,,,,,,,
701493.6549,3,-0.467,10.294,-2.158,,,,,,,,
701493.6747,3,-0.596,9.476,-0.617,4,-0.036,0.098,-0.016,5,4.219,-36.389,35.793
701493.6946,3,0.208,11.282,-1.74,,,,,,,,
701493.7145,3,-0.598,6.748,-2.625,,,,,,,,
701493.7344,3,-1.182,8.037,-6.906,4,0.08,0.032,-0.036,5,4.298,-36.565,34.534
701493.7542,3,-0.78,11.983,-5.178,,,,,,,,
701493.7741,3,-1.534,6.453,-0.744,,,,,,,,
701493.794,3,-0.144,12.139,-1.979,4,-0.068,0.123,-0.013,5,4.543,-35.951,35.559
701493.8138,3,-0.057,9.181,-0.232,,,,,,,,
701493.8337,3,-0.653,10.356,-1.799,,,,,,,,
701493.8536,3,-0.615,9.559,-2.938,4,0.031,0.084,-0.044,5,4.187,-35.77,35.312
701493.8734,3,-0.646,8.528,-2.816,,,,,,,,
701493.8933,3,-0.498,9.375,-3.159,,,,,,,,
701493.9132,3,-0.505,9.567,-3.336,4,-0.041,0.185,-0.055,,,,
701493.933,3,-0.593,10.617,-2.043,,,,,,,,
701493.9529,3,-0.153,8.691,-0.864,,,,,,,,
701493.9728,3,0.024,10.007,-2.316,4,-0.037,0.164,-0.088,5,4.512,-35.381,35.306
701493.9926,3,-0.481,10.303,-3.584,,,,,,,,
701494.0125,3,-0.732,9.571,-3.501,,,,,,,,
701494.0324,3,-0.823,7.207,-3.539,4,-0.052,0.147,-0.097,5,4.176,-36.256,35.463
701494.0516,3,-0.254,13.163,-4.082,,,,,,,,
701494.0721,3,-0.436,10.055,2.508,,,,,,,,
701494.092,3,-0.44,6.949,0.459,4,-0.074,-0.033,-0.096,,,,
701494.1119,3,-0.67,13.472,-5.582,,,,,,,,
701494.1317,3,-0.17,7.14,-2.587,,,,,,,,
701494.1516,3,-0.024,8.076,-3.214,4,-0.014,-0.307,-0.104,5,5.47,-36.215,35.8
701494.1714,3,0,9.918,-3.549,,,,,,,,
701494.1913,3,-0.416,10.012,-2.501,,,,,,,,
701494.2112,3,-0.603,8.889,-2.032,4,-0.036,-0.479,-0.09,,,,
701494.231,3,0.306,10.493,-2.512,,,,,,,,
701494.2509,3,0.275,9.588,-1.675,,,,,,,,
701494.2708,3,-0.292,11.964,-1.73,4,-0.013,-0.839,-0.051,5,7.256,-37.636,33.908
701494.2906,3,-0.67,6.205,-1.369,,,,,,,,
701494.3105,3,-0.835,11.356,-4.951,,,,,,,,
701494.3304,3,-0.285,13.031,-3.558,4,-0.02,-1.157,0.058,5,9.091,-37.291,35.129
701494.3502,3,0.34,7.949,0.632,,,,,,,,
701494.3701,3,0.498,9.557,0.514,,,,,,,,
701494.39,3,1.105,8.92,-3.08,4,0.042,-1.213,0.15,5,10.638,-36.325,33.575
701494.4099,3,1.283,9.215,-5.018,,,,,,,,
701494.4297,3,1.328,10.689,-4.247,,,,,,,,
701494.4496,3,1.364,9.337,-0.455,4,-0.004,-0.309,0.179,5,11.174,-36.922,33.585
701494.4694,3,0.462,9.468,-0.285,,,,,,,,
701494.4893,3,1.204,11,-1.685,,,,,,,,
701494.5092,3,0.017,9.835,-1.842,4,0.076,0.243,0.076,5,11.516,-36.258,34.402
701494.529,3,-0.988,11.268,-3.02,,,,,,,,
701494.5489,3,-2.709,7.001,-2.288,,,,,,,,
701494.5688,3,-3.003,8.112,-4.18,4,0.078,-0.053,0.056,,,,
701494.5886,3,-2.907,12.711,-4.58,,,,,,,,
701494.6085,3,-2.62,10.373,-1.242,,,,,,,,
701494.6284,3,-0.979,9.495,-0.51,4,0.026,-0.468,0.169,5,11.749,-35.863,34.637
701494.6483,3,-0.292,9.578,-1.369,,,,,,,,
701494.6681,3,0.237,9.229,-2.893,,,,,,,,
701494.688,3,-0.285,10.627,-4.96,4,0.153,0.085,0.191,5,9.921,-35.432,34.398
701494.7079,3,-0.301,8.887,-3.596,,,,,,,,
701494.7277,3,-0.249,11.148,-1.986,,,,,,,,
701494.7476,3,-0.782,8.753,0.742,4,0.044,0.897,0.14,,,,
701494.7674,3,-0.792,9.641,-1.015,,,,,,,,
701494.7873,3,-0.924,10.703,-3.486,,,,,,,,
701494.8072,3,-1.46,10.816,-3.474,4,0.124,1.002,0.002,5,10.342,-35.812,36.687
701494.827,3,-1.488,5.623,-2.457,,,,,,,,
701494.8469,3,-1.713,9.5,-4.833,,,,,,,,
701494.8668,3,-3.187,12.428,-3.553,4,-0.005,0.702,-0.045,5,8.104,-37.239,37.245
701494.8866,3,-3.266,8.066,-0.22,,,,,,,,
701494.9065,3,-1.558,9.124,-2.768,,,,,,,,
701494.9264,3,-1.417,15.261,-3.005,4,-0.022,0.133,-0.014,5,6.891,-34.805,36.565
701494.9463,3,-1.677,4.309,1.852,,,,,,,,
701494.9661,3,-0.689,9.243,-4.872,,,,,,,,
701494.986,3,-0.081,10.225,-6.224,4,0.064,0.184,0.002,5,7.57,-35.155,35.12
701495.0059,3,-1.531,7.635,-2.941,,,,,,,,
701495.0257,3,-0.002,10.5,-2.244,,,,,,,,
701495.0456,3,0.467,9.837,-1.153,4,-0.077,0.304,-0.02,5,5.869,-34.486,36.224
701495.0654,3,0.56,10.339,-0.682,,,,,,,,
701495.0853,3,0.735,9.509,-1.491,,,,,,,,
701495.1052,3,1.161,6.628,-3.132,4,0.024,0.275,-0.112,,,,
701495.125,3,0.44,12.976,-5.439,,,,,,,,
701495.1449,3,-0.397,10.576,-1.517,,,,,,,,
701495.1648,3,-0.44,8.66,-0.263,4,-0.08,0.099,-0.178,5,6.169,-34.814,35.117
701495.1846,3,-0.108,10.576,-3.304,,,,,,,,
701495.2045,3,-0.517,9.181,-3.326,,,,,,,,
701495.2244,3,-2.515,8.662,-3.304,4,-0.031,-0.435,-0.172,,,,
701495.2443,3,-2.472,10.662,-3.077,,,,,,,,
701495.2641,3,-1.859,9.354,-3.819,,,,,,,,
701495.284,3,-1.598,11.306,-5.087,4,-0.024,-0.855,-0.037,5,6.873,-35.033,35.12
701495.3039,3,-0.086,8.43,-2.431,,,,,,,,
701495.3237,3,0.553,9.165,-2.259,,,,,,,,
701495.3436,3,0.416,12.007,-2.745,4,-0.013,-0.755,0.087,5,8.618,-34.615,35.121
701495.3634,3,0.426,4.341,-1.306,,,,,,,,
701495.3833,3,1.271,11.737,-5.7,,,,,,,,
701495.4032,3,1.395,13.469,-3.304,4,0.017,-0.44,0.103,5,10.281,-35.942,34.599
701495.423,3,0.55,8.655,1.005,,,,,,,,
701495.4429,3,1.201,9.741,0.115,,,,,,,,
701495.4628,3,1.527,11.067,-2.474,4,0.049,-0.406,0.046,5,10.315,-34.091,34.579
701495.4826,3,-0.651,9.717,-2.962,,,,,,,,
701495.5025,3,-0.476,8.609,-1.761,,,,,,,,
701495.5224,3,-0.103,9.882,-2.718,4,0.011,-0.571,0.067,5,10.881,-34.85,35.126
701495.5423,3,0.285,9.772,-2.448,,,,,,,,
701495.5621,3,1.979,10.203,-3.015,,,,,,,,
701495.582,3,1.991,9.823,-3.295,4,-0.014,-0.303,0.058,5,9.998,-34.711,33.67
701495.6019,3,1.565,10.921,-2.661,,,,,,,,
701495.6217,3,1.091,8.035,-0.833,,,,,,,,
701495.6416,3,0.732,6.937,-1.912,4,0.032,0.234,-0.027,,,,
701495.6614,3,-0.651,12.194,-5.015,,,,,,,,
701495.6813,3,-0.883,10.806,-2.632,,,,,,,,
701495.7012,3,-2.639,8.473,0.227,4,-0.006,0.202,-0.085,5,12.236,-33.954,35.707
701495.721,3,-2.335,8.82,-1.728,,,,,,,,
701495.7409,3,-2.582,10.325,-3.654,,,,,,,,
701495.7608,3,-3.805,9.681,-3.91,4,0.089,-0.191,-0.025,,,,
701495.7806,3,-2.501,8.983,-4.14,,,,,,,,
701495.8005,3,-1.718,10.193,-2.998,,,,,,,,
701495.8204,3,-1.661,8.815,-2.345,4,0.034,-0.067,0.096,5,11.218,-35.735,34.737
701495.8403,3,-0.426,10.009,-2.888,,,,,,,,
701495.8601,3,-0.368,8.841,-1.96,,,,,,,,
701495.88,3,-0.625,10.796,-1.864,4,0.083,0.331,0.078,5,11.072,-34.367,34.595
701495.8999,3,-0.694,5.91,-2.371,,,,,,,,
701495.9197,3,-0.124,10.21,-5.178,,,,,,,,
701495.9396,3,-0.744,11.079,-2.879,4,0.061,0.69,0.018,5,10.939,-32.562,34.401
701495.9594,3,-0.885,6.004,-0.773,,,,,,,,
701495.9793,3,-1.519,14.91,-2.465,,,,,,,,
701495.9992,3,-2.898,9.6,0.014,4,0.02,0.177,-0.06,5,10.913,-35.04,36.577
701496.019,3,-3.063,5.125,-0.622,,,,,,,,
701496.0389,3,-1.945,10.272,-7.676,,,,,,,,
701496.0588,3,-0.986,10.071,-6.394,4,0.004,-0.89,0.051,5,9.872,-34.349,34.741
701496.0786,3,-1.39,7.396,-1.376,,,,,,,,
701496.0985,3,-0.005,10.167,-2.544,,,,,,,,
701496.1184,3,0.842,9.576,-1.962,4,-0.033,-1.209,0.195,5,13.582,-33.356,34.398
701496.1383,3,1.385,10.866,-3.001,,,,,,,,
701496.1581,3,1.9,6.511,-3.477,,,,,,,,
701496.178,3,3.293,8.255,-5.075,4,0.046,-0.718,0.247,5,12.959,-33.269,35.078
701496.1979,3,2.563,13.251,-4.458,,,,,,,,
701496.2177,3,1.194,9.287,0.175,,,,,,,,
701496.2376,3,1.878,7.564,-0.462,4,-0.029,-0.144,0.162,5,13.551,-34.63,33.2
701496.2574,3,3.996,11.04,-4.443,,,,,,,,
701496.2773,3,3.175,18.793,-2.316,,,,,,,,
701496.2972,3,-2.613,2.343,5.812,4,-0.073,0.102,-0.064,,,,
701496.317,3,-1.546,5.953,1.452,,,,,,,,
701496.3369,3,-4.137,22.064,-10.507,,,,,,,,
701496.3568,3,-2.436,3.898,3.84,4,-0.014,-0.283,0.135,5,12.206,-35.088,33.241
701496.3767,3,-0.742,8.097,1.61,,,,,,,,
701496.3965,3,-0.089,12.495,-3.41,,,,,,,,
701496.4164,3,-1.273,10.622,-2.46,4,0.106,-0.321,0.204,5,13.474,-34.018,33.475
701496.4363,3,-0.359,6.394,-2.302,,,,,,,,
701496.4561,3,1.984,6.631,-7.176,,,,,,,,
701496.476,3,-0.263,12.775,-9.49,4,0.113,0.514,0.187,5,12.854,-35.881,32.224
701496.4959,3,-1.725,9.988,-3.001,,,,,,,,
701496.5157,3,-2.457,6.81,1.134,,,,,,,,
701496.5356,3,-2.673,5.063,0.373,4,0.026,0.819,0.12,5,11.798,-35.236,30.768
701496.5554,3,-1.381,18.188,-5.499,,,,,,,,
701496.5753,3,-0.39,6.992,1.917,,,,,,,,
701496.5952,3,-0.644,-0.263,1.826,4,0.284,0.807,0.025,5,8.662,-34.749,32.953
701496.615,3,-0.711,12.273,-9.002,,,,,,,,
701496.6349,3,-1.287,13.735,-13.938,,,,,,,,
701496.6548,3,-2.058,8.581,-1.893,4,0.016,1.165,0.044,5,8.591,-34.702,33.722
701496.6747,3,-0.124,8.191,2.895,,,,,,,,
701496.6945,3,-0.158,14.424,0.83,,,,,,,,
701496.7144,3,-0.601,4.298,0.502,4,0.035,0.785,-0.01,5,7.576,-34.068,36.142
701496.7343,3,1.409,9.796,-7.052,,,,,,,,
701496.7541,3,0.12,11.706,-7.767,,,,,,,,
701496.774,3,-1.615,8.475,-2.051,4,-0.038,0.514,-0.115,5,4.231,-36.012,35.951
701496.7939,3,-1.373,8.966,-1.216,,,,,,,,
701496.8137,3,-0.713,10.627,-2.046,,,,,,,,
701496.8336,3,-0.636,9.37,-3.297,4,0,0.21,-0.124,,,,
701496.8535,3,-0.323,9.849,-4.269,,,,,,,,
701496.8733,3,-1.105,8.6,-2.773,,,,,,,,
701496.8932,3,-1.603,5.992,-0.565,4,0.056,0.137,-0.101,5,5.177,-35.034,36.176
701496.9131,3,-0.335,10.193,-8.786,,,,,,,,
701496.9329,3,-0.474,11.383,-3.714,,,,,,,,
701496.9528,3,-0.636,6.604,3.594,4,-0.072,0.077,-0.071,5,4.871,-34.853,35.835
701496.9727,3,0.069,12.103,-0.998,,,,,,,,
701496.9926,3,-0.05,8.066,-2.209,,,,,,,,
701497.0124,3,0.536,10.595,-4.96,4,0.039,-0.297,-0.055,5,4.527,-34.705,34.923
701497.0323,3,0.402,9.495,-3.639,,,,,,,,
701497.0522,3,0.787,6.683,-0.414,,,,,,,,
701497.072,3,0.522,10.641,-4.008,4,-0.072,-0.274,-0.012,5,6.168,-35.193,36.267
701497.0919,3,0.826,8.329,-2.759,,,,,,,,
701497.1117,3,1.043,7.734,-1.579,,,,,,,,
701497.1316,3,1.199,21.662,-2.685,4,-0.149,-0.235,-0.014,5,6.59,-35.223,35.42
701497.1515,3,-0.955,4.491,5.326,,,,,,,,
701497.1713,3,2.369,6.741,-0.304,,,,,,,,
701497.1912,3,1.089,11.555,-9.349,4,0.106,-0.329,-0.052,5,6.154,-35.437,33.846
701497.2111,3,-0.33,8.535,-6.8,,,,,,,,
701497.231,3,-1.582,10.315,-3.245,,,,,,,,
701497.2508,3,0.251,10.761,-0.845,4,-0.113,-0.079,-0.009,5,8.171,-36.664,35.851
701497.2707,3,0.785,5.58,-0.849,,,,,,,,
701497.2906,3,0.782,11.005,-5.76,,,,,,,,
701497.3104,3,-0.9,13.043,-4.171,4,-0.011,0.011,-0.043,5,7.41,-35.069,33.961
701497.3303,3,-1.299,6.327,1.163,,,,,,,,
701497.3502,3,-1.115,10.337,-2.716,,,,,,,,
701497.37,3,-0.986,10.55,-3.465,4,0.049,0.032,-0.034,,,,
701497.3899,3,-1.608,7.999,-0.995,,,,,,,,
701497.4097,3,-1.926,9.004,-2.091,,,,,,,,
701497.4296,3,-1.637,9.806,-3.429,4,0.113,0.133,0.027,5,5.774,-36.067,35.844
701497.4495,3,-2.043,9.205,-3.089,,,,,,,,
701497.4693,3,-0.974,6.736,-2.297,,,,,,,,
701497.4892,3,-0.792,11.641,-8.231,4,0.103,0.432,0.076,,,,
701497.5091,3,-0.512,11.95,-3.221,,,,,,,,
701497.529,3,1.012,3.534,3.297,,,,,,,,
701497.5488,3,1.254,9.413,-2.221,4,-0.028,0.724,0.054,5,5.687,-34.697,36.855
701497.5687,3,-1.031,13.094,-5.894,,,,,,,,
701497.5886,3,-1.318,9.631,-2.634,,,,,,,,
701497.6084,3,-0.012,8.04,-1.029,4,-0.042,0.462,-0.04,5,4.182,-36.053,37.294
701497.6283,3,0.857,9.246,-2.034,,,,,,,,
701497.6482,3,0.067,8.858,-3.383,,,,,,,,
701497.668,3,-0.938,8.82,-4.582,4,0.005,0.38,-0.098,5,3.493,-34.926,34.579
701497.6879,3,-0.981,9.37,-4.058,,,,,,,,
701497.7077,3,-1.314,10.146,-2.768,,,,,,,,
701497.7276,3,-1.608,9.502,-2.515,4,-0.05,0.001,-0.083,5,2.31,-36.2,37.875
701497.7475,3,-1.668,10.081,-3.182,,,,,,,,
701497.7673,3,-0.849,9.902,-3.293,,,,,,,,
701497.7872,3,-0.467,10.536,-1.996,4,-0.02,-0.477,0.016,5,3.522,-35.588,34.332
701497.8071,3,-0.495,7.073,-1.031,,,,,,,,
701497.827,3,0.041,11.567,-4.561,,,,,,,,
701497.8468,3,0.433,11.586,-2.539,4,0.024,-0.215,0.119,5,3.027,-36.124,35.84
701497.8667,3,0.428,7.444,0.486,,,,,,,,
701497.8866,3,0.988,10.447,-2.096,,,,,,,,
701497.9064,3,1.218,9.495,-3.465,4,0.068,0.271,0.099,,,,
701497.9263,3,0.859,9.966,-3.101,,,,,,,,
701497.9462,3,-0.23,9.669,-1.833,,,,,,,,
701497.966,3,0.057,8.856,-1.223,4,0.019,0.693,0.034,5,3.656,-36.119,36.911
701497.9859,3,-1.29,10.473,-2.472,,,,,,,,
701498.0057,3,-0.404,10.287,-2.663,,,,,,,,
701498.0256,3,-0.916,7.564,-2.675,4,0.089,0.745,-0.033,,,,
701498.0455,3,-1.022,10.526,-5.176,,,,,,,,
701498.0653,3,-0.749,5.566,-4.42,,,,,,,,
701498.0852,3,-0.194,9.681,-4.202,4,-0.008,0.734,-0.064,5,0.908,-34.985,36.217
701498.1051,3,-1.886,13.553,-2.405,,,,,,,,
701498.125,3,-1.591,8.638,1.804,,,,,,,,
701498.1448,3,-0.23,10.342,-0.718,4,0.035,0.462,-0.082,5,-2.362,-36.301,35.257
701498.1647,3,0.211,10.619,-3.197,,,,,,,,
701498.1846,3,-0.711,8.045,-3.666,,,,,,,,
701498.2044,3,-0.632,10.794,-5.02,4,0.09,0.51,-0.096,5,-1.804,-35.051,35.147
701498.2243,3,-1.216,8.997,-2.673,,,,,,,,
701498.2442,3,-0.964,8.727,-1.237,,,,,,,,
701498.264,3,-0.687,10.256,-3.144,4,0.033,0.377,-0.097,5,-2.634,-32.658,36.308
701498.2839,3,-0.148,10.019,-3.704,,,,,,,,
701498.3037,3,-0.256,10.449,-2.546,,,,,,,,
701498.3236,3,0.033,7.841,-1.469,4,-0.001,0.263,-0.097,5,-2.881,-35.611,35.689
701498.3435,3,0.885,7.293,-4.467,,,,,,,,
701498.3633,3,0.782,15.922,-3.13,,,,,,,,
701498.3832,3,-0.897,5.542,1.993,4,-0.062,0.201,-0.105,5,-3.22,-34.723,35.826
701498.4031,3,1.22,10.067,-2.034,,,,,,,,
701498.423,3,0.756,10.485,-3.896,,,,,,,,
701498.4428,3,0.105,9.399,-3.173,4,0.016,0.062,-0.115,5,-4.388,-35.355,37.724
701498.4627,3,0.438,9.689,-3.503,,,,,,,,
701498.4826,3,0.742,10.488,-2.577,,,,,,,,
701498.5024,3,0.273,9.308,-0.368,4,-0.046,0.222,-0.107,5,-3.159,-36.04,36.269
701498.5223,3,0.921,9.734,-1.833,,,,,,,,
701498.5422,3,0.622,8.064,-3.45,,,,,,,,
701498.562,3,0.124,11.002,-4.094,4,0,0.328,-0.18,,,,
701498.5819,3,-0.749,9.033,-2.154,,,,,,,,
701498.6017,3,0.263,6.602,-1.764,,,,,,,,
701498.6216,3,-0.294,12.464,-4.946,4,-0.054,0.42,-0.214,5,-3.789,-34.818,35.834
701498.6415,3,-1.766,11.112,-0.67,,,,,,,,
701498.6614,3,-1.857,8.337,0.134,,,,,,,,
701498.6812,3,-1.12,12.488,-1.28,4,-0.036,0.197,-0.195,5,-3.944,-37.05,35.933
701498.7011,3,-1.034,9.095,-1.33,,,,,,,,
701498.721,3,-1.409,11.246,-5.391,,,,,,,,
701498.7408,3,-0.998,6.918,-3.137,4,0.035,0.142,-0.145,5,-3.543,-35.623,34.946
701498.7607,3,0.089,9.433,-3.728,,,,,,,,
701498.7806,3,-0.601,10.342,-3.79,,,,,,,,
701498.8004,3,-0.366,8.229,-1.555,4,-0.039,0.198,-0.128,5,-3.569,-36.148,35.548
701498.8203,3,0.881,13.941,-2.264,,,,,,,,
701498.8402,3,1.139,16.922,-0.581,,,,,,,,
701498.86,3,1.345,2.926,3.482,4,0.04,0.152,-0.185,5,-3.558,-37.854,35.303
701498.8799,3,2.984,7.99,-3.795,,,,,,,,
701498.8997,3,1.309,14.139,-6.815,,,,,,,,
701498.9196,3,-0.747,6.745,-2.008,4,0.093,0.341,-0.286,5,-3.168,-36.469,35.829
701498.9395,3,-0.943,9.229,-2.656,,,,,,,,
701498.9594,3,-1.306,8.999,-2.582,,,,,,,,
701498.9792,3,-1.704,8.188,-2.453,4,0.029,-0.213,-0.307,5,-2.678,-36.452,34.035
701498.9991,3,-1.443,9.98,-3.826,,,,,,,,
701499.019,3,-2.077,8.856,-2.871,,,,,,,,
701499.0388,3,-2.697,9.423,-1.847,4,-0.035,-0.76,-0.167,5,0.461,-37.473,36.609
701499.0587,3,-0.706,9.488,-1.28,,,,,,,,
701499.0786,3,-0.706,9.002,-1.606,,,,,,,,
701499.0984,3,0.029,9.966,-2.972,4,0.052,-0.89,-0.027,,,,
701499.1183,3,-0.096,10.758,-3.24,,,,,,,,
701499.1382,3,0.45,6.8,-4.345,,,,,,,,
701499.158,3,1.137,11.99,-7.511,4,0.031,-0.481,0.05,5,0.786,-37.047,37.839
701499.1779,3,0.826,13.249,-3.283,,,,,,,,
701499.1978,3,1.421,7.332,2.534,,,,,,,,
701499.2176,3,1.007,11.567,-0.218,4,-0.147,-0.327,0.047,,,,
701499.2375,3,-0.304,9.155,-1.146,,,,,,,,
701499.2574,3,-1.584,9.937,-3.046,,,,,,,,
701499.2773,3,-1.103,9.868,-3.568,4,-0.009,-0.709,0.035,5,2.858,-35.852,35.353
701499.2971,3,0.189,8.992,-2.785,,,,,,,,
701499.317,3,0.541,8.305,-2.314,,,,,,,,
701499.3369,3,0.692,9.212,-3.343,4,-0.035,-0.625,0.118,5,3.36,-37.173,35.985
701499.3567,3,0.299,9.988,-3.594,,,,,,,,
701499.3766,3,0.546,9.633,-1.912,,,,,,,,
701499.3965,3,0.636,10.883,-1.646,4,0.021,-0.143,0.094,5,4.947,-35.657,35.017
701499.4163,3,0.773,6.712,-2.084,,,,,,,,
701499.4362,3,0.4,10.399,-5.654,,,,,,,,
701499.456,3,-1.443,11.6,-4.683,4,0.081,0.463,0.025,5,3.157,-37.56,36.29
701499.4759,3,-0.821,7.659,-0.723,,,,,,,,
701499.4958,3,-1.089,9.567,-1.036,,,,,,,,
701499.5157,3,-0.811,10.047,-0.873,4,0.035,0.623,-0.044,5,2.701,-36.325,35.539
701499.5355,3,-2.185,8.664,-1.725,,,,,,,,
701499.5554,3,-1.828,9.586,-3.967,,,,,,,,
701499.5753,3,-1.708,9.466,-4.967,4,0.069,0.35,-0.079,5,1.926,-37.289,35.605
701499.5951,3,-2.481,8.485,-3.996,,,,,,,,
701499.615,3,-1.981,7.427,-3.479,,,,,,,,
701499.6349,3,-2.084,10.093,-4.896,4,-0.029,0.246,-0.037,,,,
701499.6547,3,-1.704,10.119,-3.12,,,,,,,,
701499.6746,3,-1.572,14.316,-0.797,,,,,,,,
701499.6945,3,-1.376,4.644,1.866,4,-0.008,0.171,-0.019,5,0.937,-37.654,34.973
701499.7143,3,-0.62,11.06,-4.884,,,,,,,,
701499.7342,3,-1.318,11.533,-5.575,,,,,,,,
701499.7541,3,-2.084,8.052,-2.608,4,-0.004,0.215,-0.023,,,,
701499.7739,3,-0.842,9.823,-1.917,,,,,,,,
701499.7938,3,-0.596,9.729,-1.163,,,,,,,,
701499.8137,3,-1.338,9.495,-1.589,4,-0.068,-0.056,-0.02,5,2.156,-37.111,37.013
701499.8335,3,-1.639,10.705,-2.993,,,,,,,,
701499.8534,3,-0.945,9.49,-2.752,,,,,,,,
701499.8733,3,-0.103,9.074,-2.771,4,-0.049,-0.479,0.031,5,1.659,-37.448,35.313
701499.8931,3,1.259,9.15,-2.948,,,,,,,,
701499.913,3,1.347,9.99,-3.288,,,,,,,,
701499.9329,3,0.866,10.612,-2.63,4,-0.077,-0.449,0.036,5,2.791,-38.458,35.126
701499.9527,3,1.362,8.975,-0.931,,,,,,,,
701499.9726,3,2.374,7.143,-0.476,,,,,,,,
701499.9925,3,1.268,11.744,-4.319,4,-0.008,-0.368,-0.023,5,4.294,-37.378,36.572
701500.0123,3,0.811,10.076,-2.036,,,,,,,,
701500.0322,3,0.66,7.947,-2.029,,,,,,,,
701500.052,3,0.589,11.127,-2.445,4,-0.02,-0.444,-0.078,5,4.803,-38.033,35.849
701500.0719,3,1.127,8.227,-0.778,,,,,,,,
701500.0918,3,-0.246,9.641,-1.625,,,,,,,,
701500.1117,3,-1.249,9.947,-2.802,4,0,-0.72,-0.068,5,6.961,-37.079,35.558
701500.1315,3,-1.68,9.772,-3.491,,,,,,,,
701500.1514,3,-1.845,9.87,-2.91,,,,,,,,
701500.1713,3,-0.227,9.428,-2.479,4,-0.015,-1.03,0.052,5,8.119,-36.948,34.398
701500.1911,3,-0.486,8.794,-1.74,,,,,,,,
701500.211,3,-0.191,9.342,-3.108,,,,,,,,
701500.2309,3,0.136,10.938,-3.23,4,0.033,-0.705,0.134,5,9.489,-37.819,35.382
701500.2501,3,0.62,6.415,-1.651,,,,,,,,
701500.2706,3,-0.167,11.148,-4.24,,,,,,,,
701500.2905,3,-0.581,11.904,-1.519,4,0.014,-0.082,0.146,,,,
701500.3103,3,-0.409,8.925,0.79,,,,,,,,
701500.3302,3,-1.237,10.033,-0.701,,,,,,,,
701500.3501,3,-1.397,9.32,-2.668,4,0.118,-0.034,0.114,5,9.476,-38.028,35.564
701500.3699,3,-2.254,9.294,-3.69,,,,,,,,
701500.3898,3,-1.814,9.543,-3.699,,,,,,,,
701500.4097,3,-2.146,10.385,-3.24,4,0.039,0.028,0.159,5,7.555,-38.243,33.972
701500.4295,3,-1.847,8.985,-2.496,,,,,,,,
701500.4494,3,-1.529,9.416,-2.067,,,,,,,,
701500.4693,3,-0.993,8.863,-2.792,4,0.086,-0.008,0.199,5,8.133,-38.237,35.223
701500.4891,3,-1.084,9.945,-3.764,,,,,,,,
701500.509,3,-1.096,10.945,-3.36,,,,,,,,
701500.5289,3,-0.586,7.021,-2.314,4,0.089,0.361,0.227,5,6.923,-38.225,34.688
701500.5487,3,-0.074,11.454,-3.47,,,,,,,,
701500.5686,3,-0.498,10.571,-1.206,,,,,,,,
701500.5885,3,-1.467,9.167,-0.234,4,0.073,0.713,0.144,5,6.339,-38.852,37.543
701500.6083,3,-0.792,10.315,-1.716,,,,,,,,
701500.6282,3,-0.627,9.992,-3.048,,,,,,,,
701500.648,3,-0.878,9.004,-3.639,4,0.112,0.617,0.054,5,3.491,-39.16,37.3
701500.6679,3,-0.84,9.854,-3.333,,,,,,,,
701500.6878,3,-1.086,9.815,-2.273,,,,,,,,
701500.7077,3,-1.201,10.143,-1.749,4,0.003,0.457,0.028,5,3.052,-38.599,36.717
701500.7275,3,-1.017,9.011,-2.197,,,,,,,,
701500.7474,3,-0.546,9.909,-2.752,,,,,,,,
701500.7673,3,-1.189,8.004,-3.501,4,0.026,0.24,0.001,5,1.509,-38.443,36.96
701500.7871,3,-1.397,11.11,-4.805,,,,,,,,
701500.807,3,-1.266,9.83,-3.63,,,,,,,,
701500.8269,3,-0.053,5.805,-1.232,4,-0.036,0.362,0.027,,,,
701500.8467,3,0.529,13.163,-4.424,,,,,,,,
701500.8666,3,-0.371,9.212,-0.77,,,,,,,,
701500.8865,3,-0.237,8.136,-0.574,4,0.01,0.458,-0.029,5,1.482,-37.457,37.158
701500.9063,3,1.06,10.89,-4.778,,,,,,,,
701500.9262,3,0.479,9.791,-3.919,,,,,,,,
701500.9461,3,0.223,8.377,-2.572,4,0.002,0.392,-0.113,5,0.826,-37.096,38.013
701500.9659,3,0.306,10.823,-3.587,,,,,,,,
701500.9858,3,-0.134,9.662,-1.608,,,,,,,,
701501.0057,3,-0.62,9.138,-0.718,4,-0.042,0.048,-0.157,5,-0.182,-38.013,37.1
701501.0255,3,0.304,10.77,-3.032,,,,,,,,
701501.0454,3,-0.412,9.456,-2.656,,,,,,,,
701501.0653,3,-0.881,10.971,-2.393,4,-0.022,-0.374,-0.143,5,0.427,-38.902,36.707
701501.0851,3,-0.263,7.044,-1.548,,,,,,,,
701501.105,3,0.376,8.32,-4.247,,,,,,,,
701501.1249,3,-0.141,12.431,-5.642,4,-0.037,-0.515,-0.076,5,2.257,-38.622,36.719
701501.1447,3,0.68,7.853,1.091,,,,,,,,
701501.1646,3,0.328,7.616,-1.426,,,,,,,,
701501.1845,3,0.491,11.519,-4.329,4,0.014,-0.531,-0.048,5,6.461,-42.438,39.357
701501.2043,3,0.651,7.82,-2.95,,,,,,,,
701501.2242,3,-0.074,8.825,-4.089,,,,,,,,
701501.2441,3,-0.514,10.055,-3.936,4,0.001,-0.316,-0.033,5,4.572,-38.419,36.574
701501.2639,3,-0.373,9.126,-2.079,,,,,,,,
701501.2838,3,-0.385,9.363,-1.842,,,,,,,,
701501.3037,3,0.318,9.744,-2.199,4,-0.006,-0.288,-0.021,5,5.066,-38.406,36.575
701501.3235,3,-0.613,9.858,-3.532,,,,,,,,
701501.3434,3,-0.591,10.193,-3.07,,,,,,,,
701501.3633,3,-0.371,6.93,-2.343,4,-0.004,-0.147,-0.014,,,,
701501.3831,3,0.048,8.894,-4.135,,,,,,,,
701501.403,3,0,13.256,-3.673,,,,,,,,
701501.4229,3,-0.794,10.737,0.112,4,-0.094,-0.029,0.001,5,6.511,-39.615,36.134
701501.4427,3,-0.565,9.473,0.61,,,,,,,,
701501.4626,3,0.294,10.277,-1.902,,,,,,,,
701501.4825,3,-0.256,8.576,-3.391,4,0.038,-0.238,-0.017,,,,
701501.5023,3,-1.321,9.095,-4.357,,,,,,,,
701501.5222,3,-1.424,9.76,-3.843,,,,,,,,
701501.5421,3,-2,10.083,-2.558,4,-0.022,-0.259,0.02,5,8.156,-38.057,38.91
701501.5619,3,-1.182,8.791,-2.041,,,,,,,,
701501.5818,3,0.246,10.263,-2.412,,,,,,,,
701501.6017,3,-0.151,9.433,-2.419,4,0.02,-0.381,0.05,5,6.563,-38.615,37.781
701501.6215,3,-0.366,10.689,-2.965,,,,,,,,
701501.6414,3,-0.696,6.738,-2.682,,,,,,,,
701501.6613,3,0.019,7.657,-5.137,4,0.082,-0.15,0.065,5,5.528,-37.738,37.196
701501.6812,3,-0.117,12.203,-4.752,,,,,,,,
701501.701,3,-0.546,10.416,-1.328,,,,,,,,
701501.7209,3,0.139,9.447,-0.246,4,0.005,0.104,0.044,5,7.745,-38.344,37.608
701501.7408,3,0.244,9.296,-1.563,,,,,,,,
701501.7606,3,-0.438,7.43,-5.274,,,,,,,,
701501.7805,3,-0.467,14.783,-5.185,4,0.071,0.085,-0.02,5,9.477,-40.45,40.558
701501.8004,3,-1.881,5.319,-0.522,,,,,,,,
701501.8202,3,-1.28,10.203,-2.706,,,,,,,,
701501.8401,3,-1.225,10.196,-3.852,4,-0.004,-0.002,0.004,5,5.492,-37.366,38.89
701501.86,3,-2.053,10.251,-2.766,,,,,,,,
701501.8798,3,-1.893,9.078,-1.306,,,,,,,,
701501.8997,3,-1.189,10.057,-2.788,4,-0.008,-0.203,0.056,,,,
701501.9196,3,-1.05,6.296,-3.972,,,,,,,,
701501.9394,3,-0.914,10.347,-5.535,,,,,,,,
701501.9593,3,-0.505,12.988,-1.914,4,-0.073,-0.019,0.127,5,7.97,-37.97,39.296
701501.9792,3,-0.687,8.138,1.242,,,,,,,,
701501.999,3,0.51,10.33,-0.751,,,,,,,,
701502.0189,3,1.156,10.124,-2.347,4,0.041,0.069,0.09,,,,
701502.0388,3,-0.115,7.959,-4.14,,,,,,,,
701502.0586,3,0.033,9.581,-5.341,,,,,,,,
701502.0785,3,0.072,9.198,-4.544,4,0.02,0.337,0.01,5,6.844,-36.568,39.479
701502.0984,3,-0.153,10.607,-0.751,,,,,,,,
701502.1183,3,-0.493,9.344,-2.197,,,,,,,,
701502.1381,3,-1.247,12.883,-3.955,4,-0.031,0.261,-0.061,5,5.356,-37.411,39.334
701502.158,3,-0.818,8.337,0.01,,,,,,,,
701502.1778,3,-0.873,6.542,-2.11,,,,,,,,
701502.1977,3,-0.727,9.241,-6.726,4,0.032,0.083,-0.073,5,5.475,-36.266,38.751
701502.2176,3,-1.369,12.579,-5.408,,,,,,,,
701502.2374,3,-1.766,8.954,-0.464,,,,,,,,
701502.2573,3,-0.486,9.605,0.029,4,-0.066,-0.027,-0.047,5,4.643,-35.571,38.02
701502.2772,3,-0.433,10.32,-2.043,,,,,,,,
701502.297,3,-0.993,8.516,-3.625,,,,,,,,
701502.3169,3,-0.835,10.507,-5.42,4,0.059,-0.198,-0.051,5,6.435,-37.094,39.186
701502.3368,3,-0.916,9.387,-4.204,,,,,,,,
701502.3566,3,-1.005,9.198,-2.376,,,,,,,,
701502.3765,3,-0.56,9.43,-1.847,4,-0.027,-0.168,-0.021,,,,
701502.3964,3,-0.644,9.452,-2.69,,,,,,,,
701502.4162,3,-0.921,11.222,-2.737,,,,,,,,
701502.4361,3,-1.204,6.408,-1.105,4,0.003,-0.217,0.002,5,6.946,-35.8,37.396
701502.456,3,-0.517,9.672,-4.281,,,,,,,,
701502.4758,3,-0.077,12.804,-3.998,,,,,,,,
701502.4957,3,-0.328,8.416,0.172,4,-0.026,-0.069,0.018,5,7.01,-34.802,38.885
701502.5156,3,0.139,9.416,-0.706,,,,,,,,
701502.5354,3,0.538,10.193,-3.149,,,,,,,,
701502.5553,3,-0.294,8.815,-3.458,4,0.046,-0.128,-0.037,,,,
701502.5752,3,-0.531,9.916,-3.589,,,,,,,,
701502.595,3,-0.677,10.146,-3.182,,,,,,,,
701502.6149,3,-1.079,9.574,-2.254,4,-0.02,-0.207,-0.036,5,7.55,-34.789,38.257
701502.6348,3,-0.433,10.155,-2.376,,,,,,,,
701502.6546,3,-1.321,7.829,-3.254,,,,,,,,
701502.6745,3,-0.555,11.301,-4.683,4,-0.025,-0.474,-0.005,5,8.247,-35.483,38.08
701502.6944,3,-1.352,8.652,-1.627,,,,,,,,
701502.7142,3,-0.821,7.65,-0.759,,,,,,,,
701502.7341,3,-0.383,13.333,-2.857,4,-0.014,-0.443,0.059,5,8.344,-34.908,37.584
701502.754,3,-0.431,8.303,-1.048,,,,,,,,
701502.7738,3,0.036,8.837,-2.778,,,,,,,,
701502.7937,3,0.902,9.724,-4.214,4,0.042,-0.329,0.069,5,10.321,-34.723,38.861
701502.8136,3,-0.108,9.715,-3.666,,,,,,,,
701502.8334,3,-0.223,8.116,-1.768,,,,,,,,
701502.8533,3,-0.29,10.083,-2.766,4,-0.02,-0.112,0.051,5,10.764,-34.709,38.028
701502.8732,3,-0.526,9.468,-3.142,,,,,,,,
701502.893,3,-1.273,9.567,-3.032,,,,,,,,
701502.9129,3,-1.249,9.832,-3.137,4,-0.05,-0.186,0.048,,,,
701502.9328,3,-1.11,10.591,-1.953,,,,,,,,
701502.9527,3,-1.256,7.183,-1.326,,,,,,,,
701502.9725,3,-1,12.459,-3.977,4,-0.032,-0.19,0.107,5,11.047,-33.797,36.038
701502.9924,3,-0.768,9.705,0.916,,,,,,,,
701503.0122,3,-1.665,7.774,-1.443,,,,,,,,
701503.0321,3,-0.278,11.225,-3.809,4,0.027,-0.178,0.132,5,10.555,-35.42,35.852
701503.052,3,0.313,7.702,-1.127,,,,,,,,
701503.0718,3,-0.045,10.21,-3.022,,,,,,,,
701503.0917,3,-0.828,9.545,-3.144,4,0.031,0.15,0.126,,,,
701503.1116,3,-1.117,8.353,-2.534,,,,,,,,
701503.1314,3,-0.694,9.071,-3.599,,,,,,,,
701503.1513,3,-1.536,10.114,-3.147,4,0.024,0.21,0.088,5,9.454,-35.272,35.847
701503.1712,3,-1.804,9.406,-1.546,,,,,,,,
701503.191,3,-1.67,6.535,-2.163,,,,,,,,
701503.2109,3,-1.12,10.514,-4.778,4,0.045,0.165,0.093,,,,
701503.2308,3,-1.189,11.969,-2.706,,,,,,,,
701503.25,3,-1.524,8.533,-0.069,,,,,,,,
701503.2705,3,-0.524,9.241,-1.957,4,0.034,0.104,0.09,5,7.532,-35.031,36.821
701503.2904,3,-0.213,8.518,-3.249,,,,,,,,
701503.3103,3,-1.445,7.731,-4.798,,,,,,,,
701503.3301,3,-0.995,10.758,-4.125,4,0.017,0.167,0.096,5,8.009,-32.635,37.601
701503.35,3,-1.536,10.641,-0.761,,,,,,,,
701503.3698,3,-0.416,8.932,-0.359,,,,,,,,
701503.3897,3,-0.861,10.179,-2.311,4,-0.009,0.173,0.077,5,7.382,-33.978,36.896
701503.4096,3,-0.459,11.261,-2.814,,,,,,,,
701503.4294,3,-0.763,7.446,-2.718,,,,,,,,
701503.4493,3,0.122,9.162,-3.833,4,-0.012,0.167,0.074,5,5.081,-33.414,35.017
701503.4692,3,0.187,13.9,-3.498,,,,,,,,
701503.489,3,-0.658,7.513,0.775,,,,,,,,
701503.5089,3,0.294,10.495,-1.479,4,-0.025,0.106,0.036,5,5.458,-32.547,36.562
701503.5288,3,0.491,9.562,-3.202,,,,,,,,
701503.5487,3,-0.323,7.894,-3.029,,,,,,,,
701503.5685,3,-0.191,10.114,-3.228,4,0.002,0.028,-0.002,,,,
701503.5884,3,-0.33,10.909,-2.548,,,,,,,,
701503.6082,3,-0.488,8.459,-0.139,,,,,,,,
701503.6281,3,-0.376,7.442,-0.983,4,-0.004,-0.039,-0.014,5,6.25,-33.151,36.322
701503.648,3,-0.153,10.098,-4.85,,,,,,,,
701503.6678,3,-1.137,14.579,-3.35,,,,,,,,
701503.6877,3,-0.907,15.572,-0.591,4,-0.02,-0.103,0.005,5,5.568,-33.841,36.424
701503.7076,3,0.964,3.613,4.671,,,,,,,,
701503.7274,3,0.227,10.811,-1.725,,,,,,,,
701503.7473,3,-0.045,4.771,-4.018,4,0.308,-0.075,0.056,,,,
701503.7672,3,-0.364,8.904,-8.935,,,,,,,,
701503.787,3,-1.027,10.689,-8.6,,,,,,,,
701503.8069,3,-0.658,8.09,-1.658,4,0.011,0.577,0.005,5,6.979,-32.713,36.621
701503.8268,3,-0.251,9.375,0.837,,,,,,,,
701503.8467,3,-0.225,10.452,0.299,,,,,,,,
701503.8665,3,-0.237,10.043,-0.622,4,0.026,0.402,-0.062,5,4.811,-32.39,38.011
701503.8864,3,-0.376,10.296,-2.426,,,,,,,,
701503.9062,3,-0.756,11.033,-3.29,,,,,,,,
701503.9261,3,-0.491,5.252,-2.584,4,0.063,0.248,-0.089,5,4.93,-32.706,38.742
701503.946,3,-0.866,8.375,-6.765,,,,,,,,
701503.9658,3,-2.036,19.913,-4.678,,,,,,,,
701503.9857,3,-3.58,5.147,1.723,4,-0.135,0.155,-0.055,5,4.46,-31.638,38.202
701504.0056,3,-0.814,12.045,-4.123,,,,,,,,
701504.0254,3,0.67,10.524,-2.587,,,,,,,,
701504.0453,3,0.517,7.434,0.328,4,-0.145,0.115,0.008,5,3.845,-33.495,37.242
701504.0652,3,-0.67,11.323,-1.771,,,,,,,,
701504.0851,3,-1.242,8.035,-1.752,,,,,,,,
701504.1049,3,-0.912,9.945,-4.47,4,0.009,0.194,-0.059,,,,
701504.1248,3,-1.263,8.846,-4.219,,,,,,,,
701504.1447,3,-1.067,8.794,-2.541,,,,,,,,
701504.1645,3,-1.168,7.705,-2.032,4,-0.004,0.212,-0.056,5,3.674,-32.697,37.285
701504.1844,3,-0.739,7.968,-3.675,,,,,,,,
701504.2043,3,-1.043,13.577,-5.293,,,,,,,,
701504.2241,3,-0.969,8.841,-0.342,4,-0.039,-0.107,-0.052,5,3.804,-32.491,36.557
701504.244,3,-0.019,10.521,0.323,,,,,,,,
701504.2639,3,1.775,8.602,0.955,,,,,,,,
701504.2837,3,0.986,6.784,-3.785,4,0.124,-0.432,-0.067,,,,
701504.3036,3,1.125,14.398,-10.232,,,,,,,,
701504.3235,3,1.51,7.32,-1.73,,,,,,,,
701504.3433,3,1.986,7.887,0.036,4,-0.07,-0.241,-0.077,5,5.989,-32.68,35.544
701504.3632,3,1.44,11.124,-2.699,,,,,,,,
701504.3831,3,0.914,9.684,-1.898,,,,,,,,
701504.403,3,1.196,9.815,-1.586,4,-0.059,-0.53,-0.143,5,6.18,-32.158,35.11
701504.4228,3,0.548,7.329,-2.556,,,,,,,,
701504.4427,3,0.139,12.323,-3.896,,,,,,,,
701504.4626,3,-0.754,10.904,-0.531,4,-0.118,-0.666,-0.084,5,6.14,-34.006,33.85
701504.4824,3,-1.201,9.188,0.081,,,,,,,,
701504.5023,3,-0.44,9.846,-1.491,,,,,,,,
701504.5221,3,-0.763,8.308,-1.974,4,-0.013,-0.811,0.001,5,8.9,-33.884,34.531
701504.542,3,-1.295,9.808,-4.101,,,,,,,,
701504.5619,3,-1.287,9.507,-4.496,,,,,,,,
701504.5817,3,-1,9.33,-2.601,4,-0.01,-0.444,0.111,5,10.028,-33.07,34.637
701504.6016,3,0.498,8.94,-1.716,,,,,,,,
701504.6215,3,-0.239,9.729,-2.709,,,,,,,,
701504.6413,3,-0.56,11.837,-1.979,4,0.045,-0.02,0.119,,,,
701504.6612,3,-1.304,5.86,-0.78,,,,,,,,
701504.6811,3,-0.328,9.215,-4.125,,,,,,,,
701504.701,3,-1.283,13.141,-4.606,4,0.078,0.275,0.106,5,8.894,-33.461,34.39
701504.7208,3,-2.132,8.638,0.062,,,,,,,,
701504.7407,3,-1.804,9.617,-0.213,,,,,,,,
701504.7606,3,-0.883,10.784,-2.603,4,0.056,0.219,0.099,,,,
701504.7804,3,-1.137,9.466,-2.792,,,,,,,,
701504.8003,3,-1.208,8.82,-2.95,,,,,,,,
701504.8201,3,-0.625,10.957,-3.304,4,0.036,0.218,0.114,5,9.541,-32.971,34.053
701504.84,3,-0.928,10.002,-1.639,,,,,,,,
701504.8599,3,-0.33,9.523,-1.208,,,,,,,,
701504.8797,3,-0.086,10.045,-2.936,4,0.047,0.228,0.097,5,7.43,-32.126,36.511
701504.8996,3,-0.522,10.93,-3.369,,,,,,,,
701504.9195,3,-0.452,5.623,-1.795,,,,,,,,
701504.9393,3,-0.455,11.524,-4.987,4,0.041,0.425,0.066,5,6.926,-33.382,35.851
701504.9592,3,-1.438,11.866,-2.867,,,,,,,,
701504.9791,3,-0.79,8.018,-0.12,,,,,,,,
701504.999,3,-0.167,5.501,-2.455,4,0.033,0.366,0.011,5,7.28,-33.923,36.412
701505.0188,3,1.414,16.015,-6.523,,,,,,,,
701505.0387,3,-2.376,8.839,-1.563,,,,,,,,
701505.0586,3,-0.802,5.106,1.012,4,0.013,0.469,-0.035,5,5.255,-33.791,35.796
701505.0784,3,-0.156,12.342,-5.922,,,,,,,,
701505.0983,3,-1.022,9.346,-3.948,,,,,,,,
701505.1181,3,-2.812,11.155,-2.374,4,-0.021,0.411,-0.084,5,5.727,-32.686,35.69
701505.138,3,-1.627,9.086,-0.897,,,,,,,,
701505.1579,3,-1.07,7.494,-2.565,,,,,,,,
701505.1777,3,-0.421,9.607,-5.099,4,-0.027,0.069,-0.052,5,4.979,-34.044,36.475
701505.1976,3,-1.072,11.789,-3.747,,,,,,,,
701505.2175,3,-2.376,10.282,0.019,,,,,,,,
701505.2374,3,-1.35,9.437,0.447,4,-0.091,-0.175,0.012,5,5.824,-32.686,36.574
701505.2572,3,-0.069,10.483,-2.465,,,,,,,,
701505.2771,3,-0.428,8.542,-3.984,,,,,,,,
701505.297,3,0.785,10.155,-4.374,4,-0.01,-0.139,0.045,,,,
701505.3168,3,1.563,10.296,-1.479,,,,,,,,
701505.3367,3,0.866,7.844,-0.804,,,,,,,,
701505.3566,3,1.17,13.596,-5.611,4,0.012,0.201,-0.023,5,5.31,-33.258,35.837
701505.3764,3,0.756,7.348,-2.067,,,,,,,,
701505.3963,3,0.904,10.148,-1.704,,,,,,,,
701505.4161,3,-0.337,7.066,-2.292,4,0,0.227,-0.105,5,5.238,-34.035,36.565
701505.436,3,-0.254,10.354,-4.522,,,,,,,,
701505.4559,3,-1.089,12.483,-3.147,,,,,,,,
701505.4757,3,-0.395,6.87,1.802,4,-0.062,-0.203,-0.119,,,,
701505.4956,3,0.117,9.727,-1.764,,,,,,,,
701505.5155,3,0.258,10.052,-3.905,,,,,,,,
701505.5354,3,-0.909,9.05,-3.915,4,0.028,-0.54,-0.094,5,6.65,-33.229,35.974
701505.5552,3,-0.682,10.126,-3.281,,,,,,,,
701505.5751,3,-0.479,9.476,-1.287,,,,,,,,
701505.595,3,0.158,9.102,-1.517,4,-0.027,-0.491,-0.01,5,8.237,-33.817,37.534
701505.6148,3,-0.033,9.765,-3.599,,,,,,,,
701505.6347,3,0,10.624,-3.118,,,,,,,,
701505.6546,3,-0.467,9.124,-2.445,4,-0.025,-0.397,0.029,5,7.654,-34.114,35.066
701505.6744,3,0.546,7.679,-2.84,,,,,,,,
701505.6943,3,0.61,12.816,-3.123,,,,,,,,
701505.7141,3,-0.057,9.559,0.998,4,-0.059,-0.116,0.08,5,9.418,-34.735,34.979
701505.734,3,-0.584,9.607,-0.529,,,,,,,,
701505.7539,3,-0.474,10.002,-3.249,,,,,,,,
701505.7737,3,-0.888,8.554,-3.249,4,0.077,-0.096,0.058,5,8.253,-33.006,34.778
701505.7936,3,-0.591,8.987,-4.053,,,,,,,,
701505.8135,3,-0.28,9.6,-4.264,,,,,,,,
701505.8334,3,-0.495,10.138,-2.297,4,-0.008,0.063,0.076,,,,
701505.8532,3,-0.304,9.413,-0.814,,,,,,,,
701505.8731,3,-0.742,9.65,-1.811,,,,,,,,
701505.893,3,-0.928,10.15,-3.434,4,0.065,0.013,0.062,5,8.401,-34.375,35.255
701505.9128,3,-1.445,1.235,-2.926,,,,,,,,
701505.9327,3,-0.041,19.047,-6.729,,,,,,,,
701505.9526,3,-1.742,10.39,0.347,4,-0.042,0.393,0.087,5,8.195,-35.469,33.676
701505.9724,3,-0.646,5.274,3.482,,,,,,,,
701505.9923,3,0.311,10.16,-3.391,,,,,,,,
701506.0121,3,-0.23,10.158,-5.353,4,0.125,0.461,0.021,5,7.248,-34.074,35.117
701506.032,3,-1.735,9.031,-4.137,,,,,,,,
701506.0519,3,-1.634,8.985,-3.3,,,,,,,,
701506.0718,3,-1.228,10.61,-2.582,4,-0.024,0.468,-0.013,5,6.905,-35.507,34.734
701506.0916,3,-1.467,8.707,-1.388,,,,,,,,
701506.1115,3,-1.146,8.777,-1.33,,,,,,,,
701506.1314,3,-1.393,11.213,-3.762,4,-0.012,0.199,-0.005,5,5.844,-33.112,34.241
701506.1512,3,-1.158,10.141,-2.828,,,,,,,,
701506.1711,3,-0.447,6.891,-3.206,,,,,,,,
701506.191,3,-0.323,12.574,-4.714,4,-0.028,0.171,0.047,5,4.866,-33.511,36.383
701506.2108,3,-1.165,11.565,-0.672,,,,,,,,
701506.2307,3,-0.074,9.602,3.022,,,,,,,,
701506.25,3,-0.244,7.449,-2.166,4,0.06,0.202,0.047,5,5.574,-33.641,36.577
701506.2704,3,0.06,13.01,-7.111,,,,,,,,
701506.2903,3,-0.316,8.375,-2.386,,,,,,,,
701506.3102,3,0.424,9.263,-1.984,4,-0.015,0.475,0.007,5,4.086,-34.579,35.701
701506.33,3,-0.079,10.143,-1.926,,,,,,,,
701506.3499,3,-0.28,10.636,-1.965,,,,,,,,
701506.3698,3,-0.278,8.585,-1.51,4,0.002,0.397,-0.086,,,,
701506.3897,3,0.16,11.253,-2.862,,,,,,,,
701506.4095,3,-0.888,6.272,-1.96,,,,,,,,
701506.4294,3,0.476,9.483,-3.757,4,-0.002,0.181,-0.115,5,3.954,-34.779,36.378
701506.4493,3,-0.227,14.601,-4.537,,,,,,,,
701506.4691,3,-0.629,6.91,0.778,,,,,,,,
701506.489,3,0.598,10.344,-0.708,4,-0.026,-0.071,-0.135,,,,
701506.5089,3,0.555,9.303,-2.395,,,,,,,,
701506.5287,3,0.146,8.38,-4.018,,,,,,,,
701506.5486,3,0.06,10.303,-5.2,4,0.038,-0.254,-0.158,5,2.782,-32.758,35.966
701506.5684,3,0.275,9.751,-3.173,,,,,,,,
701506.5883,3,0.292,9.153,-1.539,,,,,,,,
701506.6082,3,1.237,10.619,-2.795,4,-0.055,-0.421,-0.137,5,5.78,-33.87,35.359
701506.628,3,1.089,8.935,-2.235,,,,,,,,
701506.6479,3,0.51,10.186,-2.922,,,,,,,,
701506.6678,3,0.383,6.446,-2.747,4,-0.009,-0.481,-0.13,5,5.13,-31.934,33.864
701506.6877,3,0.057,12.002,-5.413,,,,,,,,
701506.7075,3,-1.058,11.478,-2.106,,,,,,,,
701506.7274,3,-0.081,8.413,0.725,4,-0.083,-0.404,-0.086,5,7.024,-34.097,35.4
701506.7473,3,0.237,10.799,-1.804,,,,,,,,
701506.7671,3,-0.156,9.138,-2.606,,,,,,,,
701506.787,3,-0.696,9.114,-3.206,4,0.036,-0.282,-0.065,5,7.57,-33.794,35.841
701506.8069,3,-1.644,6.958,-3.46,,,,,,,,
701506.8267,3,-0.636,9.839,-5.456,,,,,,,,
701506.8466,3,-0.713,15.984,-3.699,4,-0.096,0.035,-0.027,5,9.093,-33.313,34.061
701506.8664,3,-1.673,6.351,3.034,,,,,,,,
701506.8863,3,0.749,11.22,-0.713,,,,,,,,
701506.9062,3,-0.005,7.937,-2.008,4,0.019,-0.039,-0.052,,,,
701506.926,3,-0.83,8.576,-4.577,,,,,,,,
701506.9459,3,-1.496,13.694,-5.271,,,,,,,,
701506.9658,3,-1.146,9.148,0.232,4,-0.058,0.013,-0.021,5,8.556,-33.67,35.461
701506.9857,3,-0.584,8.853,0.969,,,,,,,,
701507.0055,3,-0.323,10.351,-2.577,,,,,,,,
701507.0254,3,-1.402,9.143,-3.728,4,0.035,-0.274,-0.034,,,,
701507.0453,3,-1.414,8.614,-3.106,,,,,,,,
701507.0651,3,-0.768,8.913,-3.209,,,,,,,,
701507.085,3,-0.505,9.741,-2.008,4,-0.039,-0.514,0.034,5,8.963,-32.944,35.547
701507.1049,3,-0.78,8.98,-1.445,,,,,,,,
701507.1247,3,-0.916,9.655,-2.232,,,,,,,,
701507.1446,3,0.237,12.246,0.268,4,0,-0.714,0.08,5,8.505,-33.615,34.099
701507.1644,3,-1.225,4.365,-1.165,,,,,,,,
701507.1843,3,0.215,12.349,-6.748,,,,,,,,
701507.2042,3,-0.086,11.663,-4.97,4,0.068,-0.644,0.146,5,8.951,-33.412,32.938
701507.224,3,1.756,7.408,0.361,,,,,,,,
701507.2439,3,1.699,9.93,0.077,,,,,,,,
701507.2638,3,0.924,10.028,-2.237,4,0.057,-0.209,0.116,5,10.661,-34.46,34.152
701507.2837,3,-0.12,9.466,-3.247,,,,,,,,
701507.3035,3,0.275,8.313,-2.185,,,,,,,,
701507.3234,3,-0.505,9.921,-1.72,4,0.02,-0.176,0.084,5,11.812,-35.1,34.54
701507.3433,3,-0.421,8.566,-1.673,,,,,,,,
701507.3631,3,-0.211,10.368,-2.859,,,,,,,,
701507.383,3,-1.036,10.112,-1.905,4,-0.01,-0.284,0.075,5,10.15,-33.487,34.09
701507.4028,3,-1.333,11.876,-1.299,,,,,,,,
701507.4227,3,-1.85,8.021,-0.388,,,,,,,,
701507.4426,3,0.11,7.798,-2.299,4,0.033,-0.342,0.142,5,12.482,-33.414,33.484
701507.4624,3,-0.581,12.96,-5.032,,,,,,,,
701507.4823,3,-0.412,10.906,-1.496,,,,,,,,
701507.5022,3,-0.292,8.763,0.194,4,0.023,-0.104,0.163,5,10.741,-34.697,32.37
701507.522,3,-0.22,10.181,-2.166,,,,,,,,
701507.5419,3,-0.122,9.772,-3.044,,,,,,,,
701507.5618,3,-0.766,9.289,-3.302,4,0.083,0.127,0.136,,,,
701507.5817,3,-0.948,8.81,-3.316,,,,,,,,
701507.6015,3,-1.239,9.911,-2.615,,,,,,,,
701507.6214,3,-0.902,9.047,-1.433,4,0.007,0.262,0.132,5,11.105,-34.689,32.944
701507.6413,3,-1.12,10.27,-2.07,,,,,,,,
701507.6611,3,-1.175,10.658,-1.579,,,,,,,,
701507.681,3,-1.28,11.39,-1.01,4,0.052,0.184,0.115,5,10.759,-35.974,33.574
701507.7009,3,-0.775,6.126,-1.689,,,,,,,,
701507.7207,3,-0.766,11.581,-6.243,,,,,,,,
701507.7406,3,-1.476,10.136,-3.805,4,0.09,0.402,0.132,5,10.088,-34.579,35.135
701507.7604,3,-1.9,2.091,-1.742,,,,,,,,
701507.7803,3,0.696,9.868,-7.344,,,,,,,,
701507.8002,3,0.254,17.757,-4.18,4,-0.064,0.657,0.101,5,8.913,-35.46,35.124
701507.8201,3,-3.094,5.08,5.049,,,,,,,,
701507.8399,3,-0.589,11.143,-1.33,,,,,,,,
701507.8598,3,0.105,10.373,-3.857,4,0.068,0.38,0.041,5,7.05,-35.118,34.453
701507.8797,3,-0.61,8.559,-2.883,,,,,,,,
701507.8995,3,-0.797,10.112,-3.367,,,,,,,,
701507.9194,3,-0.677,9.078,-3.106,4,0.022,0.38,0.007,5,6.847,-36.22,38.014
701507.9393,3,-1.134,11.005,-2.678,,,,,,,,
701507.9591,3,-0.684,6.415,-2.414,,,,,,,,
701507.979,3,0.215,10.373,-4.948,4,-0.003,0.229,-0.012,5,5.725,-34.45,34.387
701507.9989,3,-0.428,12.83,-3.307,,,,,,,,
701508.0187,3,-0.715,8.081,0.462,,,,,,,,
701508.0386,3,0.048,10.993,-1.967,4,-0.024,0.183,-0.028,5,4.837,-34.804,35.838
701508.0584,3,0.493,9.588,-2.771,,,,,,,,
701508.0783,3,-0.045,8.655,-2.546,,,,,,,,
701508.0982,3,0.627,11.119,-0.084,4,0.038,0.155,-0.064,,,,
701508.1181,3,0.184,5.468,-2.536,,,,,,,,
701508.1379,3,0.663,15.295,-9.459,,,,,,,,
701508.1578,3,-0.383,7.037,-2.881,4,0.064,0.184,-0.128,5,7.553,-36.163,35.214
701508.1777,3,1.177,8.566,-1.512,,,,,,,,
701508.1975,3,0.814,12.373,-2.651,,,,,,,,
701508.2174,3,-0.306,6.587,-1.524,4,0.02,0.128,-0.162,,,,
701508.2373,3,-0.845,12.184,-4.525,,,,,,,,
701508.2571,3,-0.969,11.119,-2.276,,,,,,,,
701508.277,3,-0.907,7.391,0.141,4,-0.022,-0.274,-0.146,5,4.909,-33.418,35.35
701508.2969,3,0.005,10.763,-3.685,,,,,,,,
701508.3167,3,-0.519,9.394,-3.592,,,,,,,,
701508.3366,3,-0.988,8.753,-3.053,4,-0.003,-0.444,-0.089,5,7.158,-34.213,34.373
701508.3564,3,-0.883,9.425,-3.166,,,,,,,,
701508.3763,3,-1.134,9.555,-2.701,,,,,,,,
701508.3962,3,-0.079,10.071,-2.709,4,-0.058,-0.228,-0.008,5,7.71,-35.304,36.188
701508.4161,3,0.002,9.09,-1.601,,,,,,,,
701508.4359,3,0.27,9.727,-1.45,,,,,,,,
701508.4558,3,-0.383,8.801,-2.919,4,-0.006,-0.117,-0.023,5,6.575,-34.085,33.032
701508.4757,3,-0.148,8.217,-3.936,,,,,,,,
701508.4955,3,-0.086,12.641,-4.489,,,,,,,,
701508.5154,3,-1.031,9.71,-0.727,4,-0.064,-0.242,-0.008,5,8.879,-34.763,33.669
701508.5353,3,-0.5,9.27,0.486,,,,,,,,
701508.5551,3,-0.416,9.952,-2.989,,,,,,,,
701508.575,3,-0.658,9.689,-3.972,4,0.025,-0.701,0.021,5,9.76,-35.19,32.217
701508.5949,3,-0.591,9.576,-3.453,,,,,,,,
701508.6147,3,0.105,10.057,-3.185,,,,,,,,
701508.6346,3,-0.275,8.581,-2.34,4,-0.002,-0.656,0.126,,,,
701508.6545,3,-0.012,8.538,-2.024,,,,,,,,
701508.6744,3,0.093,4.984,-2.185,,,,,,,,
701508.6942,3,1.228,15.967,-5.788,4,0.029,-0.265,0.177,5,11.415,-34.967,34.842
701508.7141,3,-0.378,8.722,-1.711,,,,,,,,
701508.734,3,0.933,8.832,-0.079,,,,,,,,
701508.7538,3,0.323,11.801,-3.513,4,0.052,0.367,0.143,,,,
701508.7737,3,0.086,8.571,-2.228,,,,,,,,
701508.7936,3,-0.751,9.765,-2.68,,,,,,,,
701508.8134,3,-1.653,8.351,-2.747,4,0.019,0.577,0.054,5,10.182,-33.948,34.059
701508.8333,3,-1.847,10.636,-2.627,,,,,,,,
701508.8532,3,-2.735,10.306,-1.452,,,,,,,,
701508.873,3,-2.955,9.875,-0.816,4,-0.033,0.413,0.065,5,9.698,-33.687,34.592
701508.8929,3,-1.905,10.516,-2.323,,,,,,,,
701508.9127,3,-2.364,9.887,-2.862,,,,,,,,
701508.9326,3,-2.065,9.203,-2.491,4,0.031,0.299,0.121,5,6.891,-34.081,32.935
701508.9525,3,-1.259,5.355,-2.886,,,,,,,,
701508.9724,3,-0.663,11.61,-5.58,,,,,,,,
701508.9922,3,-1.742,13.163,-0.938,4,0.002,0.535,0.132,5,5.905,-34.296,34.888
701509.0121,3,-1.699,4.575,0.761,,,,,,,,
701509.032,3,0.297,16.647,-7.509,,,,,,,,
701509.0518,3,0.505,6.822,-0.605,4,0.077,0.539,0.064,5,4.883,-34.464,34.048
701509.0717,3,1.139,8.095,-1.247,,,,,,,,
701509.0916,3,0.337,11.081,-4.343,,,,,,,,
701509.1114,3,-1.306,9.705,-2.692,4,0.077,0.578,-0.046,5,3.503,-36.444,34.389
701509.1313,3,-0.62,10.098,-2.053,,,,,,,,
701509.1512,3,-0.292,8.978,-2.881,,,,,,,,
701509.171,3,-0.124,12.031,-3.228,4,0.056,0.26,-0.111,5,4.167,-34.819,35.068
701509.1909,3,-0.368,4.996,-1.847,,,,,,,,
701509.2107,3,0.455,12.823,-5.381,,,,,,,,
701509.2306,3,-1.419,10.973,-1.845,4,-0.009,0.215,-0.122,5,3.529,-34.879,35.123
701509.2505,3,-1.395,8.353,1.048,,,,,,,,
701509.2704,3,-0.077,13.089,-2.553,,,,,,,,
701509.2902,3,-0.814,7.585,-1.211,4,0.052,-0.064,-0.094,,,,
701509.3101,3,-0.737,7.523,-3.383,,,,,,,,
701509.33,3,-0.445,11.469,-5.896,,,,,,,,
701509.3498,3,-1.01,9.409,-2.615,4,0,-0.034,-0.019,5,3.534,-35.01,33.089
701509.3697,3,-0.206,8.719,-0.727,,,,,,,,
701509.3896,3,-0.127,7.135,-1.859,,,,,,,,
701509.4094,3,0.206,6.81,-4.144,4,0.005,-0.073,-0.005,5,3.615,-35.487,33.76
701509.4293,3,-0.333,4.723,-6.614,,,,,,,,
701509.4492,3,3.185,26.635,-2.096,,,,,,,,
701509.469,3,-2.816,-1.826,8.638,4,-0.152,0.217,0.019,5,3.056,-34.267,33.752
701509.4889,3,3.984,11.392,-2.438,,,,,,,,
701509.5087,3,1.945,12.024,-7.506,,,,,,,,
701509.5286,3,0.38,7.975,-2.962,4,0.077,0.37,-0.106,5,5.293,-34.119,33.812
701509.5485,3,-0.546,8.885,-1.948,,,,,,,,
701509.5684,3,0.108,11.22,-3.431,,,,,,,,
701509.5882,3,-0.522,9.906,-1.831,4,-0.015,0.349,-0.197,5,3.764,-34.63,32.932
701509.6081,3,-0.495,8.332,-0.627,,,,,,,,
701509.628,3,0.002,9.744,-2.355,,,,,,,,
701509.6478,3,-1.055,8.497,-3.809,4,0.003,-0.093,-0.214,5,4.361,-34.195,35.112
701509.6677,3,-0.794,9.186,-3.233,,,,,,,,
701509.6876,3,-1.4,12.352,-2.632,,,,,,,,
701509.7074,3,-1.797,8.466,0.83,4,-0.044,-0.395,-0.139,5,5.133,-34.834,33.36
701509.7273,3,-0.558,7.75,5.719,,,,,,,,
701509.7472,3,-1.244,14.852,-19.798,,,,,,,,
701509.767,3,-0.077,11.342,-5.671,4,0.052,-0.68,-0.049,5,7.912,-34.386,33.946
701509.7869,3,0.751,1.797,5.377,,,,,,,,
701509.8067,3,0.416,12.431,-2.991,,,,,,,,
701509.8266,3,-0.565,10.71,-3.053,4,0.008,-0.294,0.054,,,,
701509.8465,3,-0.455,9.93,-2.185,,,,,,,,
701509.8664,3,0.321,12.428,-2.017,,,,,,,,
701509.8862,3,0.237,4.338,0.048,4,0.027,0.158,0.044,5,8.083,-32.356,33.269
701509.9061,3,0.948,10.593,-3.771,,,,,,,,
701509.926,3,-0.589,12.833,-2.764,,,,,,,,
701509.9458,3,-1.589,7.695,0.914,4,-0.009,0.364,-0.025,5,8.189,-35.472,33.67
701509.9657,3,-0.799,9.334,-1.823,,,,,,,,
701509.9856,3,-0.081,10.129,-4.137,,,,,,,,
701510.0054,3,-1.103,8.906,-3.613,4,-0.005,-0.063,-0.051,5,6.406,-33.751,32.591
701510.0253,3,-1.306,8.964,-2.278,,,,,,,,
701510.0452,3,-1.821,9.545,-1.668,,,,,,,,
701510.065,3,-0.68,10.442,-3.02,4,-0.049,-0.325,0.012,5,8.907,-35.121,32.262
701510.0849,3,-0.78,9.875,-3.039,,,,,,,,
701510.1048,3,-0.469,10.816,-2.505,,,,,,,,
701510.1246,3,-0.385,5.594,-2.477,4,0.021,-0.336,0.059,5,9.669,-35.007,31.058
701510.1445,3,0.828,10.813,-4.156,,,,,,,,
701510.1644,3,-0.529,12.668,-3.266,,,,,,,,
701510.1842,3,-0.134,8.669,-0.361,4,0.008,0.13,0.076,5,10.21,-34.796,32.217
701510.2041,3,0.794,9.342,-0.668,,,,,,,,
701510.224,3,-0.904,6.542,-1.505,,,,,,,,
701510.2438,3,-1.326,13.993,-3.888,4,0.088,0.25,0.029,5,11.102,-35.387,31.007
701510.2637,3,-2.244,8.772,-2.489,,,,,,,,
701510.2836,3,-1.165,9.835,-1.192,,,,,,,,
701510.3034,3,-1.452,4.865,-0.914,4,0.018,0.314,0.004,5,10.442,-36.415,31.358
701510.3233,3,-0.636,18.437,-4.388,,,,,,,,
701510.3432,3,-3.364,11.263,-0.069,,,,,,,,
701510.363,3,-2.067,0.974,3.876,4,0.039,0.094,0.027,,,,
701510.3829,3,-0.78,7.994,-6.822,,,,,,,,
701510.4028,3,-0.627,13.06,-8.712,,,,,,,,
701510.4226,3,-1.72,9.868,-1.23,4,-0.053,0.322,0.087,5,11.533,-35.39,32.762
701510.4425,3,-0.347,8.107,2.036,,,,,,,,
701510.4624,3,0.938,10.301,-2.23,,,,,,,,
701510.4822,3,0.593,9.811,-3.534,4,0.056,0.403,0.025,,,,
701510.5021,3,0.089,10.203,-4.111,,,,,,,,
701510.522,3,0.05,5.87,-2.364,,,,,,,,
701510.5418,3,1.73,8.837,-1.177,4,-0.013,0.731,-0.065,5,11.371,-36.391,33.101
701510.5617,3,-0.318,10.828,-0.818,,,,,,,,
701510.5816,3,-1.149,13.634,-1.161,,,,,,,,
701510.6014,3,-1.326,5.681,0.431,4,-0.018,0.427,-0.175,5,11.983,-35.382,33.929
701510.6213,3,-0.261,7.238,-0.684,,,,,,,,
701510.6412,3,-0.586,14.766,-10.306,,,,,,,,
701510.661,3,-1.905,10.234,-2.331,4,-0.085,-0.028,-0.164,5,9.514,-34.119,34.291
701510.6809,3,-0.22,6.497,2.833,,,,,,,,
701510.7008,3,1.024,8.664,1.283,,,,,,,,
701510.7206,3,-0.617,13.199,-5.704,4,0.069,-0.424,-0.123,5,11.038,-34.262,34.697
701510.7405,3,-2.18,8.059,-6.305,,,,,,,,
701510.7604,3,-2.079,10.82,-5.642,,,,,,,,
701510.7802,3,-0.199,9.162,-2.517,4,-0.022,-0.387,-0.002,5,12.283,-33.907,35.849
701510.8001,3,0.424,7.784,-0.038,,,,,,,,
701510.82,3,0.383,11.715,-2.232,,,,,,,,
701510.8398,3,-0.179,5.633,-0.469,4,0.042,-0.046,0.013,5,10.893,-34.372,35.712
701510.8597,3,0.936,9.832,-3.24,,,,,,,,
701510.8796,3,-0.433,12.945,-4.85,,,,,,,,
701510.8994,3,-0.201,8.94,-1.027,4,0.03,0.232,-0.018,,,,
701510.9193,3,0.955,9.772,-0.869,,,,,,,,
701510.9392,3,1.038,9.119,-0.613,,,,,,,,
701510.9591,3,0.345,9.6,-2.797,4,0.043,0.104,-0.091,5,10.735,-33.652,36.038
701510.9789,3,-1.285,11.163,-4.204,,,,,,,,
701510.9988,3,-1.237,8.868,-2.024,,,,,,,,
701511.0186,3,0.005,9.691,-1.773,4,-0.037,-0.186,-0.097,,,,
701511.0385,3,-0.718,11.153,-2.455,,,,,,,,
701511.0584,3,-0.715,9.636,-1.134,,,,,,,,
701511.0783,3,-1.089,8.573,-2.166,4,-0.015,-0.378,-0.068,5,12.172,-33.247,37.3
701511.0981,3,-0.223,8.298,-4.245,,,,,,,,
701511.118,3,-0.629,12.967,-4.302,,,,,,,,
701511.1379,3,-0.692,10.488,0.179,4,-0.032,-0.213,0.007,5,12.378,-33.817,38.757
701511.1577,3,-0.928,8.485,0.223,,,,,,,,
701511.1776,3,-0.687,8.564,-2.821,,,,,,,,
701511.1975,3,-0.665,9.811,-4.348,4,0.087,-0.038,0.01,5,11.656,-33.932,38.075
701511.2173,3,-1.007,6.229,-3.053,,,,,,,,
701511.2372,3,0.144,11.529,-4.398,,,,,,,,
701511.2571,3,-1.082,13.395,-2.438,4,-0.017,0.191,0.017,5,10.478,-33.058,38.263
701511.2769,3,0.421,4.381,3.017,,,,,,,,
701511.2968,3,0.574,10.878,-4.353,,,,,,,,
701511.3167,3,0.084,10.335,-5.049,4,0.061,0.169,-0.027,5,11.742,-32.855,40.359
701511.3365,3,-1.029,5.322,-2.857,,,,,,,,
701511.3564,3,-0.584,10.844,-4.226,,,,,,,,
701511.3763,3,-1.309,13.749,-2.785,4,-0.05,0.212,-0.057,5,7.318,-31.949,41.548
701511.3961,3,-0.794,5.953,1.572,,,,,,,,
701511.416,3,-0.239,9.289,-2.936,,,,,,,,
701511.4359,3,-0.412,10.504,-5.271,4,0.029,-0.013,-0.079,5,7.863,-32.553,39.659
701511.4557,3,-1.23,8.291,-3.362,,,,,,,,
701511.4756,3,-1.091,10.1,-2.812,,,,,,,,
701511.4955,3,-0.718,9.48,-1.094,4,-0.068,-0.04,-0.056,5,7.359,-31.082,39.465
701511.5153,3,-0.857,7.688,-0.78,,,,,,,,
701511.5352,3,-1.199,10.411,-4.613,,,,,,,,
701511.5551,3,-0.45,8.454,-1.175,4,-0.011,-0.233,-0.023,,,,
701511.5749,3,-1.632,10.732,-4.893,,,,,,,,
701511.5948,3,-1.292,8.585,-1.62,,,,,,,,
701511.6147,3,0.177,10.385,-1.383,4,-0.042,-0.131,0.059,5,6.75,-31.247,39.946
701511.6345,3,-0.706,11.502,-1.199,,,,,,,,
701511.6544,3,-1.187,9.141,-0.433,,,,,,,,
701511.6743,3,-0.194,9.083,-2.859,4,0.039,-0.217,0.062,5,7.025,-32.767,39.624
701511.6941,3,0.163,9.21,-3.769,,,,,,,,
701511.714,3,0.601,9.82,-3.852,,,,,,,,
701511.7339,3,0.333,9.045,-2.465,4,-0.009,-0.029,0.069,5,7.202,-32.368,40.482
701511.7537,3,-0.342,8.901,-1.271,,,,,,,,
701511.7736,3,0.299,10.55,-2.615,,,,,,,,
701511.7935,3,-0.256,9.468,-2.881,4,0.001,0.01,0.007,5,6.305,-33.118,39.136
701511.8133,3,-0.62,10.26,-2.357,,,,,,,,
701511.8332,3,-0.744,8.126,-1.153,,,,,,,,
701511.8531,3,0.036,7.028,-1.357,4,0,0.056,-0.004,5,5.919,-31.976,38.075
701511.8729,3,-1.354,14.62,-4.967,,,,,,,,
701511.8928,3,-0.522,8.834,-2.285,,,,,,,,
701511.9127,3,0.352,8.179,-1.606,4,-0.013,-0.029,0.005,,,,
701511.9325,3,0.313,9.492,-1.969,,,,,,,,
701511.9524,3,-0.888,9.32,-3.412,,,,,,,,
701511.9723,3,-0.687,9.806,-3.572,4,0.013,0.026,-0.001,5,4.854,-34.094,38.887
701511.9921,3,-1.216,5.178,-1.184,,,,,,,,
701512.012,3,-1.362,12.096,-2.252,,,,,,,,
701512.0319,3,-1.098,9.131,-2.07,4,-0.025,0.049,0.013,5,4.202,-33.441,37.721
701512.0517,3,-0.818,9.054,-2.716,,,,,,,,
701512.0716,3,-0.756,11.397,-3.07,,,,,,,,
701512.0915,3,-0.756,8.911,-1.249,4,-0.041,0.052,0.008,,,,
701512.1114,3,0.201,6.456,-1.816,,,,,,,,
701512.1312,3,0.163,8.865,-5.305,,,,,,,,
701512.1511,3,-0.244,20.722,-4.262,4,-0.094,0.15,0.005,5,5.452,-33.406,35.023
701512.1709,3,-3.754,7.559,1.627,,,,,,,,
701512.1908,3,0.751,6.205,2.745,,,,,,,,
701512.2107,3,0.56,10.323,-4.192,4,0.046,-0.076,0,,,,
701512.2305,3,0.223,8.655,-4.331,,,,,,,,
701512.2504,3,-0.632,9.866,-3.738,,,,,,,,
701512.2703,3,-0.546,8.964,-2.577,4,0.018,0.137,-0.01,5,4.036,-32.726,35.109
701512.2901,3,0.491,9.593,-2.213,,,,,,,,
701512.31,3,-0.11,9.593,-3.072,,,,,,,,
701512.3299,3,0.182,11.383,-3.802,4,0.009,0.086,-0.063,5,2.504,-33.614,34.814
701512.3497,3,-0.096,7.554,-0.541,,,,,,,,
701512.3696,3,0.273,6.453,-2.39,,,,,,,,
701512.3895,3,0.026,13.519,-6.068,4,0.061,-0.006,-0.095,5,2.573,-34.802,34.485
701512.4094,3,-0.608,9.399,-2.551,,,,,,,,
701512.4292,3,-0.081,9.887,-2.142,,,,,,,,
701512.4485,3,0.041,9.624,-1.409,4,0.007,-0.091,-0.114,5,4.921,-32.892,35.742
701512.4689,3,-0.038,9.229,-1.627,,,,,,,,
701512.4888,3,-1.077,9.303,-6.384,,,,,,,,
701512.5087,3,-1.378,13.945,-6.733,4,0.013,-0.121,-0.124,5,5.724,-32.965,33.945
701512.5285,3,-0.806,7.719,0.766,,,,,,,,
701512.5484,3,1.022,7.947,0.603,,,,,,,,
701512.5683,3,-0.871,11.299,-3.266,4,-0.025,-0.054,-0.111,5,6.444,-34.334,34.38
701512.5881,3,-1.314,10.272,-3.604,,,,,,,,
701512.608,3,-1.189,10.095,-3.374,,,,,,,,
701512.6279,3,-0.809,7.198,-2.288,4,-0.062,-0.257,-0.101,,,,
701512.6477,3,-0.033,12.069,-3.063,,,,,,,,
701512.6676,3,-0.639,11.488,-0.84,,,,,,,,
701512.6875,3,-1.12,8.375,-0.089,4,-0.104,-0.427,-0.064,5,8.911,-33.316,33.081
701512.7074,3,-0.182,8.77,-3.013,,,,,,,,
701512.7272,3,-0.019,11.399,-4.135,,,,,,,,
701512.7471,3,-0.378,10.749,-1.309,4,-0.05,-0.693,-0.028,,,,
701512.7669,3,-0.251,9.377,0.077,,,,,,,,
701512.7868,3,0.397,9.287,-1.708,,,,,,,,
701512.8067,3,0.629,6.394,-3.237,4,0.073,-0.79,-0.01,5,11.607,-34.348,33.391
701512.8265,3,0.251,10.792,-6.403,,,,,,,,
701512.8464,3,-1.318,14.577,-4.656,,,,,,,,
701512.8663,3,-0.869,7.387,1.603,4,-0.008,-0.593,0.021,5,11.572,-33.835,34.535
701512.8861,3,0.129,6.298,-1.558,,,,,,,,
701512.906,3,-0.256,11.057,-5.377,,,,,,,,
701512.9259,3,-1.498,13.594,-2.728,4,0.073,-0.412,0.035,5,14.262,-32.483,34.395
701512.9457,3,-1.632,7.504,1.582,,,,,,,,
701512.9656,3,-1.201,8.557,-1.4,,,,,,,,
701512.9855,3,-0.859,10.315,-4.532,4,0.155,-0.515,0.075,5,14.896,-32.838,35.28
701513.0054,3,-1.421,8.928,-4.286,,,,,,,,
701513.0252,3,-1.584,10.045,-3.036,,,,,,,,
701513.0451,3,0.048,8.526,-0.364,4,0.079,-0.247,0.138,5,14.542,-32.516,35.126
701513.0649,3,-0.897,8.593,-1.969,,,,,,,,
701513.0848,3,-0.656,13.991,-4.281,,,,,,,,
701513.1047,3,0.182,7.911,-3.065,4,0.077,-0.082,0.132,,,,
701513.1245,3,0.596,11.727,-2.556,,,,,,,,
701513.1444,3,-0.285,6.104,0.682,,,,,,,,
701513.1643,3,-1.768,8.868,-4.393,4,0.113,0.025,0.116,5,13.469,-30.501,34.296
701513.1841,3,-2.835,17.317,-7.973,,,,,,,,
701513.204,3,-0.969,6.743,1.256,,,,,,,,
701513.2239,3,1.28,8.619,1.362,4,0.004,0.101,0.129,5,11.798,-33.014,33.899
701513.2437,3,1.383,9.337,-2.297,,,,,,,,
701513.2636,3,-0.656,10.387,-5.235,,,,,,,,
701513.2835,3,-1.017,8.595,-5.133,4,0.106,0.265,0.012,,,,
701513.3034,3,0.033,8.832,-3.565,,,,,,,,
701513.3232,3,-0.311,10.167,-1.646,,,,,,,,
701513.3431,3,-1.062,10.485,-1.582,4,-0.013,0.292,-0.042,5,12.358,-34.085,34.537
701513.3629,3,-3.857,6.707,-0.194,,,,,,,,
701513.3828,3,-2.515,12.041,-2.941,,,,,,,,
701513.4027,3,-3.45,6.595,-3.501,4,0.071,-0.276,-0.033,5,11.089,-33.784,34.596
701513.4226,3,-2.163,8.138,-4.944,,,,,,,,
701513.4424,3,-1.577,12.79,-5.001,,,,,,,,
701513.4623,3,-1.232,11.509,-1.201,4,-0.021,-0.326,0.084,5,12.83,-33.13,33.321
701513.4822,3,-1.706,8.605,0.28,,,,,,,,
701513.502,3,0.065,9.399,-2.797,,,,,,,,
701513.5219,3,-0.725,9.897,-4.257,4,0.11,-0.289,0.118,5,11.728,-32.236,32.213
701513.5418,3,-1.065,9.437,-4.932,,,,,,,,
701513.5616,3,-0.404,10.064,-3.541,,,,,,,,
701513.5815,3,-0.299,10.394,-1.146,4,-0.001,0.096,0.133,5,13.164,-32.262,34.149
701513.6014,3,-0.421,9.411,-0.282,,,,,,,,
701513.6212,3,-0.675,9.748,-1.661,,,,,,,,
701513.6411,3,-0.285,9.619,-2.503,4,0.031,-0.112,0.073,,,,
701513.661,3,-1.795,9.921,-2.541,,,,,,,,
701513.6808,3,-1.314,7.064,-2.503,,,,,,,,
701513.7007,3,-0.433,10.225,-4.841,4,-0.008,-0.609,0.114,5,12.909,-33.658,35.126
701513.7206,3,0.091,12.122,-2.572,,,,,,,,
701513.7404,3,-0.096,7.076,-0.067,,,,,,,,
701513.7603,3,0.278,9.253,-3.211,4,-0.023,-0.896,0.168,5,14.275,-32.088,32.164
701513.7802,3,1.565,8.901,-5.07,,,,,,,,
701513.8,3,0.945,6.628,-5.288,,,,,,,,
701513.8199,3,1.091,15.228,-3.309,4,-0.067,-0.615,0.203,,,,
701513.8398,3,0.359,8.152,0.849,,,,,,,,
701513.8597,3,0.955,8.27,-1.271,,,,,,,,
701513.8795,3,0.785,8.727,-4.185,4,0.011,-0.177,0.165,5,15.053,-32.782,32.69
701513.8994,3,-0.744,10.246,-4.75,,,,,,,,
701513.9193,3,-1.711,11.579,-2.051,,,,,,,,
701513.9391,3,-1.326,9.028,0.189,4,-0.033,0.344,0.148,5,14.276,-31.758,30.049
701513.959,3,-1.371,8.009,-1.417,,,,,,,,
701513.9788,3,-2.359,12.665,-5.018,,,,,,,,
701513.9987,3,-1.984,10.213,-2.065,4,-0.002,0.278,0.156,5,13.123,-31.635,31.143
701514.0186,3,-2.596,8.107,-0.644,,,,,,,,
701514.0384,3,-2.048,10.847,-2.843,,,,,,,,
701514.0583,3,-1.685,9.109,-2.053,4,0.013,0.003,0.208,5,13.969,-31.764,31.876
701514.0782,3,-2.388,8.461,-2.556,,,,,,,,
701514.098,3,-1.22,9.191,-3.745,,,,,,,,
701514.1179,3,-0.306,9.246,-3.754,4,0.035,0.194,0.251,5,12.444,-30.373,30.469
701514.1378,3,-0.368,8.741,-2.654,,,,,,,,
701514.1577,3,1.096,5.992,-1.321,,,,,,,,
701514.1775,3,-0.311,10.21,-7.549,4,0.073,0.707,0.179,5,10.46,-31.091,31.526
701514.1974,3,1.058,18.767,-4.601,,,,,,,,
701514.2173,3,-1.082,2.436,3.9,,,,,,,,
701514.2371,3,-0.376,8.887,-0.672,4,0.081,0.85,0.07,5,9.859,-30.676,33.435
701514.257,3,-1.125,10.217,-6.441,,,,,,,,
701514.2768,3,-1.78,14.682,-4.872,,,,,,,,
701514.2967,3,-2.661,7.456,0.584,4,0.068,0.495,0.01,,,,
701514.3166,3,0.371,8.066,-1.094,,,,,,,,
701514.3364,3,0.677,8.722,-4.3,,,,,,,,
701514.3563,3,-0.5,8.339,-4.697,4,0.111,0.409,-0.024,5,8.282,-31.337,34.377
701514.3762,3,-0.598,9.782,-5.07,,,,,,,,
701514.3961,3,-0.615,10.234,-2.821,,,,,,,,
701514.4159,3,-0.421,8.698,0.06,4,-0.025,0.437,-0.058,5,7.658,-29.784,34.03
701514.4358,3,0.483,9.552,-1.577,,,,,,,,
701514.4557,3,-0.201,10.473,-4.082,,,,,,,,
701514.4755,3,-0.392,7.011,-3.63,4,0.081,0.444,-0.101,,,,
701514.4954,3,-0.885,10.957,-4.415,,,,,,,,
701514.5153,3,-1.237,9.382,-3.089,,,,,,,,
701514.5351,3,-1.237,9.497,-2.467,4,-0.011,0.485,-0.124,5,10.307,-31.429,34.103
701514.555,3,-0.837,11.273,-2.259,,,,,,,,
701514.5748,3,-0.457,8.317,-0.912,,,,,,,,
701514.5947,3,-1.412,11.294,-5.518,4,0.026,0.221,-0.13,5,6.554,-29.568,33.417
701514.6146,3,-1.866,10.277,-4.716,,,,,,,,
701514.6344,3,-1.9,8.439,-1.22,,,,,,,,
701514.6543,3,-0.414,10.208,-4.18,4,-0.049,0.006,-0.07,5,7.005,-29.085,33.08
701514.6742,3,-0.146,9.727,-2.579,,,,,,,,
701514.6941,3,0.112,9.703,-1.426,,,,,,,,
701514.7139,3,0.105,6.635,-3.706,4,0.018,-0.057,-0.059,5,8.043,-30.785,35.11
701514.7338,3,0.428,11.419,-5.927,,,,,,,,
701514.7537,3,-0.16,9.459,-2.41,,,,,,,,
701514.7735,3,-0.648,12.263,0.878,4,-0.029,0.157,-0.059,5,8,-30.489,33.711
701514.7934,3,-0.61,8.485,1.074,,,,,,,,
701514.8133,3,-0.885,9.645,-2.718,,,,,,,,
701514.8331,3,-1.484,9.583,-4.563,4,0.149,-0.065,-0.071,,,,
701514.853,3,-1.864,8.748,-3.79,,,,,,,,
701514.8728,3,-2.242,9.394,-1.63,,,,,,,,
701514.8927,3,-2.161,9.679,-2.065,4,0.074,0.015,0.036,5,6.477,-31.047,34.578
701514.9126,3,-2.634,9.325,-1.979,,,,,,,,
701514.9324,3,-1.862,10.93,-2.149,,,,,,,,
701514.9523,3,-0.711,6.456,-1.153,4,0.049,0.171,0.145,5,6.85,-30,36.713
701514.9722,3,0.797,9.911,-2.515,,,,,,,,
701514.9921,3,0.682,13.094,-2.491,,,,,,,,
701515.0119,3,-0.187,8.65,-0.309,4,0.013,0.656,0.12,,,,
701515.0318,3,1.077,9.645,-1.098,,,,,,,,
701515.0517,3,-0.16,9.643,-1.634,,,,,,,,
701515.0715,3,-1.149,7.676,-3.491,4,0.063,0.544,0.011,5,4.597,-31.625,35.831
701515.0914,3,-0.156,15.254,-7.997,,,,,,,,
701515.1112,3,-0.512,8.064,-0.67,,,,,,,,
701515.1311,3,0.859,6.571,1.268,4,-0.125,0.302,0.018,5,4.187,-29.887,35.826
701515.151,3,1.486,10.244,-2.594,,,,,,,,
701515.1708,3,0.952,9.796,-4.216,,,,,,,,
701515.1907,3,0.747,12.596,-4.082,4,-0.043,0.164,-0.046,5,2.977,-32.083,34.468
701515.2106,3,0.392,5.221,-1.235,,,,,,,,
701515.2304,3,1.302,9.337,-2.812,,,,,,,,
701515.2503,3,0.215,14.087,-3.223,4,-0.063,0.209,-0.09,5,3.383,-32.021,34.378
701515.2702,3,-0.51,8.468,-0.177,,,,,,,,
701515.2901,3,0.242,9.339,-1.333,,,,,,,,
701515.3099,3,0.816,9.069,-2.876,4,0.026,0.053,-0.139,5,4.279,-31.721,35.399
701515.3298,3,0.244,9.15,-4.111,,,,,,,,
701515.3497,3,0.055,9.703,-4.152,,,,,,,,
701515.3695,3,0.285,10.172,-3.321,4,0,0.095,-0.165,,,,
701515.3894,3,0.117,9.555,-2.85,,,,,,,,
701515.4092,3,-0.132,9.126,-1.675,,,,,,,,
701515.4291,3,-0.727,9.325,-3.089,4,0.008,0.004,-0.181,5,4.172,-32.629,34.665
701515.4484,3,-0.703,10.77,-3.307,,,,,,,,
701515.4688,3,-1.285,6.834,-3.417,,,,,,,,
701515.4887,3,-0.596,11.332,-4.432,4,0.03,-0.053,-0.125,,,,
701515.5086,3,-0.931,11.742,-2.319,,,,,,,,
701515.5285,3,-1.364,9.31,-0.337,,,,,,,,
701515.5484,3,-1.271,8.164,-0.522,4,0.021,-0.046,-0.057,5,5.299,-33.838,34.528
701515.5682,3,-0.952,8.741,-2.936,,,,,,,,
701515.5881,3,-0.759,10.301,-5.446,,,,,,,,
701515.608,3,-1.165,9.153,-3.594,4,0.057,-0.084,0.005,5,7.133,-33.124,32.936
701515.6278,3,-1.51,9.815,-2.055,,,,,,,,
701515.6477,3,0.366,11.825,-1.79,,,,,,,,
701515.6676,3,-0.28,3.709,-2.134,4,0.049,0.091,0.055,5,8.102,-33.392,35.066
701515.6874,3,0.617,8.597,-5.075,,,,,,,,
701515.7073,3,0.433,16.329,-5.113,,,,,,,,
701515.7271,3,0.491,9.107,-0.646,4,-0.025,0.347,0.049,5,7.324,-32.921,33.217
701515.747,3,-0.385,5.956,-0.904,,,,,,,,
701515.7669,3,-0.278,11.761,-2.855,,,,,,,,
701515.7867,3,-0.687,12.266,-2.218,4,0,0.446,0.005,5,7.613,-34.067,35.561
701515.8066,3,-1.223,9.267,-0.431,,,,,,,,
701515.8265,3,-1.84,8.849,-1.692,,,,,,,,
701515.8464,3,-1.175,8.506,-3.635,4,0.061,0.166,0.002,5,6.918,-32.985,34.778
701515.8662,3,-0.692,9.368,-3.728,,,,,,,,
701515.8861,3,-1.591,10.739,-3.264,,,,,,,,
701515.906,3,-1.79,10.708,-3.288,4,0.02,0.139,0.057,,,,
701515.9258,3,-1.778,8.305,-2.02,,,,,,,,
701515.9457,3,-0.77,9.133,-5.779,,,,,,,,
701515.9656,3,0.909,10.373,-4.353,4,0.021,0.121,0.122,5,6.815,-31.618,38.742
701515.9854,3,-0.043,6.848,0.629,,,,,,,,
701516.0053,3,0.462,7.458,-1.847,,,,,,,,
701516.0251,3,0.187,10.588,-7.758,4,0.114,0.234,0.078,,,,
701516.045,3,1.732,13.089,-8.047,,,,,,,,
701516.0649,3,0.737,5.36,-0.17,,,,,,,,
701516.0847,3,-0.074,5.233,0.081,4,-0.013,0.061,0.025,5,4.927,-31.207,38.736
701516.1046,3,0.134,12.421,-7.241,,,,,,,,
701516.1245,3,-0.696,14.445,-7.724,,,,,,,,
701516.1444,3,-0.723,9.823,-2.943,4,-0.041,-0.39,0.08,5,5.573,-31.898,39.33
701516.1642,3,0.517,5.386,-0.196,,,,,,,,
701516.1841,3,1.235,5.142,0.701,,,,,,,,
701516.204,3,1.737,6.841,-3.561,4,-0.036,-0.845,0.102,,,,
701516.2238,3,-0.249,12.412,-8.619,,,,,,,,
701516.2437,3,1.833,14.4,-5.011,,,,,,,,
701516.2636,3,3.271,9.038,-0.349,4,-0.095,-0.001,0.223,5,6.767,-30.299,39.24
701516.2834,3,3.781,5.214,0.991,,,,,,,,
701516.3033,3,1.761,11.067,-5.171,,,,,,,,
701516.3231,3,1.151,11.014,-3.936,4,0.092,0.331,0.036,5,2.031,-30.922,39.598
701516.343,3,-0.708,10.153,-1.362,,,,,,,,
701516.3629,3,-1.244,9.131,-2.242,,,,,,,,
701516.3827,3,-0.699,6.973,-1.254,4,0.037,0.392,0.003,5,2.324,-30.028,40.082
701516.4026,3,-2.221,13.259,-6.602,,,,,,,,
701516.4225,3,-2.149,9.282,-0.012,,,,,,,,
701516.4424,3,-2.046,7.58,-1.306,4,-0.013,0.006,0.121,5,0.621,-28.198,39.447
701516.4622,3,-1.704,6.037,-1.85,,,,,,,,
701516.4821,3,0.093,15.056,-3.58,,,,,,,,
701516.502,3,-0.754,11.536,-2.094,4,0.022,-0.683,0.266,5,1.134,-29.674,38.589
701516.5218,3,1.184,7.877,0.943,,,,,,,,
701516.5417,3,2.378,5.996,-1.811,,,,,,,,
701516.5616,3,2.551,11.313,-2.534,4,0.13,-0.984,0.379,,,,
701516.5814,3,3.051,11.04,-1.716,,,,,,,,
701516.6013,3,3.101,9.645,-3.649,,,,,,,,
701516.6211,3,4.704,9.133,-5.099,4,0.037,-0.39,0.424,5,2.315,-30.164,40.654
701516.641,3,7.131,6.236,-1.003,,,,,,,,
701516.6609,3,5.676,9.181,-4.132,,,,,,,,
701516.6808,3,4.92,13.515,-1.007,4,-0.09,0.667,0.209,5,-0.209,-30.138,38.203
701516.7006,3,4.159,11.277,-0.249,,,,,,,,
701516.7205,3,4.568,6.65,1.828,,,,,,,,
701516.7404,3,4.041,10.603,-3.508,4,-0.064,0.637,-0.128,5,-2.081,-29.89,39.157
701516.7602,3,2.843,12.634,-2.429,,,,,,,,
701516.7801,3,1.551,10.354,2.063,,,,,,,,
701516.8,3,1.778,6.965,2.477,4,-0.008,0.11,-0.273,5,-2.689,-31.187,37.947
701516.8198,3,0.708,11.957,-6.291,,,,,,,,
701516.8397,3,-0.459,8.423,0.502,,,,,,,,
701516.8596,3,-0.357,9.109,-2.254,4,-0.062,-0.504,-0.22,5,-1.471,-28.59,38.524
701516.8794,3,0.299,8.681,-0.682,,,,,,,,
701516.8993,3,0.361,11.61,-3.005,,,,,,,,
701516.9191,3,1.084,9.33,2.242,4,-0.116,-0.65,-0.077,5,0.305,-30.692,36.559
701516.939,3,2.697,10.184,-3.087,,,,,,,,
701516.9589,3,1.689,10.15,-1.838,,,,,,,,
701516.9788,3,2.606,9.803,0.703,4,-0.03,0.026,-0.076,5,0.951,-31.569,36.934
701516.9986,3,1.859,9.107,-3.175,,,,,,,,
701517.0185,3,1.85,10.012,-2.862,,,,,,,,
701517.0384,3,1.383,8.1,-3.293,4,-0.031,0.447,-0.163,5,0.36,-29.926,36.591
701517.0582,3,0.249,8.774,-0.785,,,,,,,,
701517.0781,3,-0.615,12.938,-1.275,,,,,,,,
701517.098,3,-0.514,11.787,0.258,4,-0.085,0.539,-0.211,,,,
701517.1178,3,0.586,9.744,-0.95,,,,,,,,
701517.1377,3,2.252,7.839,-3.06,,,,,,,,
701517.1576,3,0.976,8.667,-1.055,4,-0.033,0.125,-0.246,5,-1.05,-31.335,34.593
701517.1774,3,1.05,11.249,-2.589,,,,,,,,
701517.1973,3,1.003,11.256,-1.189,,,,,,,,
701517.2171,3,-0.234,7.403,1.172,4,-0.011,-0.09,-0.278,,,,
701517.237,3,-0.971,8.301,-5.154,,,,,,,,
701517.2569,3,-2.407,9.71,-5.087,,,,,,,,
701517.2768,3,-2.615,10.15,0.962,4,-0.091,-0.105,-0.182,5,0.256,-32.594,35.341
701517.2966,3,-1.103,11.684,1.273,,,,,,,,
701517.3165,3,-0.244,11.641,1.113,,,,,,,,
701517.3364,3,0.787,10.064,-4.027,4,0.025,0.193,-0.1,5,1.053,-32.655,37.421
701517.3562,3,0.479,7.224,-2.414,,,,,,,,
701517.3761,3,-0.349,7.454,-3.57,,,,,,,,
701517.396,3,-0.053,9.935,-3.34,4,-0.041,0.122,-0.11,5,0.832,-32.608,35.002
701517.4158,3,0.175,12.849,-1.668,,,,,,,,
701517.4357,3,1.452,11.273,1.957,,,,,,,,
701517.4556,3,1.658,8.849,-1.972,4,-0.015,-0.116,-0.121,5,0.847,-31.996,33.743
701517.4754,3,1.103,7.04,-5.36,,,,,,,,
701517.4953,3,1.175,8.021,-5.183,,,,,,,,
701517.5151,3,-0.593,11.014,-1.496,4,-0.098,0.114,-0.164,5,3.043,-32.886,35.394
701517.535,3,-2.326,13.239,2.443,,,,,,,,
701517.5549,3,-2.302,11.064,5.372,,,,,,,,
701517.5748,3,-0.421,10.004,-2.532,4,0.065,-0.253,-0.126,5,2.245,-33.482,34.625
701517.5946,3,-0.06,9.507,-7.37,,,,,,,,
701517.6145,3,-0.802,7.746,-1.912,,,,,,,,
701517.6344,3,-1.385,9.442,-0.778,4,-0.032,0.146,-0.051,,,,
701517.6542,3,-1.45,9.083,1.991,,,,,,,,
701517.6741,3,0.134,12.354,-4.944,,,,,,,,
701517.694,3,0.043,10.442,-1.122,4,-0.022,-0.088,-0.002,5,6.071,-35.251,35.843
701517.7138,3,-0.608,9.535,2.599,,,,,,,,
701517.7337,3,-0.285,9.284,-0.404,,,,,,,,
701517.7536,3,0.019,10.837,-6.97,4,0.031,0.028,-0.004,,,,
701517.7734,3,-0.148,9.1,-0.833,,,,,,,,
701517.7933,3,0.038,9.703,0.031,,,,,,,,
701517.8132,3,-0.225,9.839,-0.464,4,-0.024,-0.025,0.008,5,2.87,-32.755,35.051
701517.8331,3,0.002,10.457,-2.244,,,,,,,,
701517.8529,3,0.909,9.657,-0.878,,,,,,,,
701517.8728,3,0.747,9.971,-1.969,4,0,-0.072,-0.001,5,2.898,-33.794,34.444
701517.8927,3,0.933,9.586,-1.345,,,,,,,,
701517.9125,3,1.206,9.033,1.012,,,,,,,,
701517.9324,3,1.127,10.361,-3.077,4,0.046,0.245,-0.069,5,3.603,-32.019,32.925
701517.9523,3,0.392,11.031,-4.087,,,,,,,,
701517.9721,3,-0.455,9.835,-0.658,,,,,,,,
701517.992,3,-0.079,8.667,0.926,4,0.008,0.251,-0.115,5,1.955,-32.065,35.295
701518.0119,3,0.227,10.105,-2.584,,,,,,,,
701518.0317,3,-0.785,9.495,-2.254,,,,,,,,
701518.0516,3,-0.414,11.318,-6.511,4,-0.008,0.259,-0.114,5,3.287,-33.835,35.11
701518.0714,3,-1.144,9.638,2.515,,,,,,,,
701518.0913,3,-1.309,9.117,3.412,,,,,,,,
701518.1112,3,-0.371,9.772,-4.972,4,0.018,0.105,-0.086,5,4.506,-33.009,34.961
701518.1311,3,-0.636,9.708,-5.058,,,,,,,,
701518.1509,3,-1.462,9.09,0.56,,,,,,,,
701518.1708,3,-0.821,10.102,1.079,4,-0.038,0.113,-0.047,5,2.307,-32.187,33.698
701518.1907,3,-0.373,10.823,-1.898,,,,,,,,
701518.2105,3,-0.06,10.77,-3.759,,,,,,,,
701518.2304,3,-1.184,8.566,1.713,4,0.02,0.029,-0.025,5,4.002,-33.923,37.033
701518.2503,3,0.151,10.744,-4.75,,,,,,,,
701518.2701,3,-0.38,9.669,-0.627,,,,,,,,
701518.29,3,0.01,10.296,-1.259,4,0.004,0.057,-0.013,,,,
701518.3099,3,-0.134,9.54,-1.17,,,,,,,,
701518.3297,3,0.077,9.921,-2.326,,,,,,,,
701518.3496,3,-0.079,9.708,-1.486,4,0.011,0.023,-0.023,5,2.635,-33.897,34.242
701518.3694,3,-0.026,9.882,-1.625,,,,,,,,
701518.3893,3,0.06,9.923,-1.658,,,,,,,,
701518.4092,3,-0.292,9.574,-0.536,4,-0.002,-0.01,-0.032,5,1.842,-33.591,34.578
701518.4291,3,-0.045,10.26,-2.79,,,,,,,,
701518.4489,3,-0.433,9.614,-1.34,,,,,,,,
701518.4688,3,-0.505,9.894,-1.436,4,-0.001,-0.045,-0.031,5,2.991,-33.562,36.465
701518.4887,3,-0.395,9.768,-1.417,,,,,,,,
701518.5085,3,-0.012,9.918,-2.747,,,,,,,,
701518.5284,3,-0.543,9.485,-1.584,4,0.004,0.008,-0.027,5,3.719,-33.168,35.698
701518.5483,3,-0.747,9.796,-1.522,,,,,,,,
701518.5681,3,-0.713,9.918,-2.091,,,,,,,,
701518.588,3,-0.335,9.789,-1.752,4,-0.006,-0.017,-0.015,5,4.44,-34.621,36.801
701518.6079,3,-0.148,9.782,-1.464,,,,,,,,
701518.6277,3,-0.089,9.916,-1.924,,,,,,,,
701518.6476,3,-0.179,9.844,-2.091,4,-0.001,0.006,-0.013,5,3.061,-32.748,34.483
701518.6674,3,-0.215,9.638,-1.677,,,,,,,,
701518.6873,3,-0.301,9.811,-1.649,,,,,,,,
701518.7072,3,-0.203,9.873,-1.929,4,-0.004,0.008,-0.016,5,2.763,-33.333,35.832
701518.7271,3,-0.22,9.741,-2.015,,,,,,,,
701518.7469,3,-0.395,9.701,-1.893,,,,,,,,
701518.7668,3,-0.584,9.811,-1.864,4,-0.005,-0.017,-0.018,5,3.589,-32.681,34.326
701518.7867,3,-0.703,9.832,-2.065,,,,,,,,
701518.8065,3,-0.694,9.677,-2,,,,,,,,
701518.8264,3,-0.747,9.736,-1.962,4,-0.004,-0.028,-0.004,,,,
701518.8463,3,-0.79,9.844,-2.082,,,,,,,,
701518.8661,3,-0.804,9.76,-2.189,,,,,,,,
701518.886,3,-0.833,9.624,-2.254,4,-0.003,-0.038,0.015,5,2.782,-33.473,36.227
701518.9059,3,-0.735,9.712,-2.357,,,,,,,,
701518.9257,3,-0.699,9.746,-2.4,,,,,,,,
701518.9456,3,-0.739,9.622,-2.453,4,0,-0.023,0.034,5,3.58,-33.446,34.396
701518.9654,3,-0.72,9.617,-2.51,,,,,,,,
701518.9853,3,-0.625,9.665,-2.505,,,,,,,,
701519.0052,3,-0.574,9.638,-2.503,4,0.003,-0.022,0.047,5,4.103,-33.255,36.218
701519.0251,3,-0.555,9.614,-2.599,,,,,,,,
701519.0449,3,-0.55,9.648,-2.637,,,,,,,,
701519.0648,3,-0.598,9.602,-2.498,4,0.005,-0.015,0.054,5,3.59,-32.78,35.535
701519.0847,3,-0.574,9.619,-2.687,,,,,,,,
701519.1045,3,-0.747,9.6,-2.871,,,,,,,,
701519.1244,3,-0.794,9.576,-2.682,4,0.006,0.012,0.067,5,3.076,-31.752,35.248
701519.1443,3,-0.591,9.588,-2.481,,,,,,,,
701519.1641,3,-0.424,9.586,-2.663,,,,,,,,
701519.184,3,-0.498,9.583,-2.773,4,0.011,0.004,0.076,5,2.977,-32.132,35.152
701519.2039,3,-0.569,9.626,-2.646,,,,,,,,
701519.2237,3,-0.359,9.638,-2.78,,,,,,,,
