699485.8173,3,1.101,9.497,-2.637,,,,,5,10.588,-46.053,11.183
699485.8371,3,1.101,9.497,-2.637,4,0.007,-0.024,0.017,5,9.952,-44.643,11.179
699485.857,3,1.283,9.502,-2.524,4,0.007,-0.024,0.017,5,11.957,-44.6,13.362
699485.8768,3,1.29,9.528,-2.661,4,0.007,-0.024,0.017,5,13.945,-45.265,13.368
699485.8967,3,1.223,9.492,-2.711,4,0.013,-0.016,0.037,5,15.269,-45.952,16.277
699485.9166,3,1.285,9.473,-2.582,4,0.013,-0.017,0.036,5,13.96,-44.55,12.64
699485.9364,3,1.433,9.464,-2.603,4,0.011,-0.015,0.039,5,11.96,-44.604,15.541
699485.9563,3,1.548,9.483,-2.713,4,0.011,-0.018,0.04,5,11.928,-46.03,14.816
699485.9762,3,1.335,9.464,-2.637,4,0.012,-0.022,0.039,5,11.925,-46.027,13.365
699485.9961,3,1.29,9.473,-2.728,4,0.011,-0.012,0.034,5,13.928,-45.978,13.37
699486.0159,3,1.381,9.488,-2.663,4,0.012,-0.013,0.031,5,13.31,-43.854,12.637
699486.0358,3,1.417,9.516,-2.697,4,0.012,-0.015,0.031,5,13.263,-45.996,14.095
699486.0557,3,1.359,9.476,-2.673,4,0.012,-0.012,0.029,5,13.28,-45.284,14.093
699486.0755,3,1.366,9.464,-2.591,4,0.013,-0.005,0.028,5,12.595,-46.013,14.093
699486.0954,3,1.369,9.5,-2.646,4,0.013,-0.001,0.026,5,11.295,-44.62,14.813
699486.1153,3,1.295,9.49,-2.627,4,0.013,-0.004,0.024,5,11.278,-45.332,14.09
699486.1351,3,1.225,9.545,-2.594,4,0.013,0,0.022,5,11.263,-46.046,14.816
699486.155,3,1.225,9.519,-2.517,4,0.013,0.002,0.024,5,11.942,-45.314,13.364
699486.1749,3,1.244,9.528,-2.536,4,0.012,-0.003,0.026,5,13.945,-45.265,13.368
699486.1947,3,1.266,9.497,-2.536,4,0.011,-0.01,0.029,5,11.96,-44.603,14.813
699486.2146,3,1.345,9.538,-2.649,4,0.011,-0.013,0.03,5,11.292,-44.617,13.362
699486.2345,3,1.328,9.523,-2.69,4,0.011,-0.018,0.033,5,11.943,-45.316,14.09
699486.2543,3,1.302,9.471,-2.57,4,0.012,-0.017,0.034,5,11.977,-43.89,14.812
699486.2742,3,1.402,9.464,-2.544,4,0.009,-0.015,0.035,5,11.295,-44.62,14.813
699486.2941,3,1.534,9.483,-2.742,4,0.008,-0.017,0.036,5,11.945,-45.317,14.815
699486.3139,3,1.699,9.466,-2.625,4,0.012,-0.009,0.039,5,11.943,-45.316,14.09
699486.3338,3,1.732,9.476,-2.606,4,0.013,0.011,0.04,5,11.276,-45.331,13.364
699486.3537,3,1.697,9.531,-2.898,4,0.014,0.029,0.037,5,11.292,-44.617,13.362
699486.3736,3,1.484,9.449,-2.407,4,0.017,0.046,0.029,5,13.297,-44.572,15.544
699486.3934,3,1.196,9.538,-2.467,4,0.007,0.065,0.018,5,11.945,-45.317,14.815
699486.4133,3,1.438,9.423,-2.685,4,0.008,0.028,0.009,5,11.292,-44.617,13.362
699486.4332,3,1.584,9.523,-2.591,4,0.011,-0.015,0.013,5,12.61,-45.299,13.365
699486.453,3,1.493,9.516,-2.501,4,0.008,-0.015,0.013,5,12.645,-43.875,14.813
699486.4729,3,1.388,9.504,-2.646,4,0.007,-0.004,0.008,5,12.662,-43.161,14.812
699486.4928,3,1.347,9.437,-2.589,4,0.009,-0.003,0.006,5,11.945,-45.317,14.815
699486.5126,3,1.567,9.5,-2.508,4,0.007,-0.013,0.007,5,11.957,-44.6,13.362
699486.5325,3,1.716,9.555,-2.539,4,0.003,-0.028,0.009,5,11.925,-46.027,13.365
699486.5524,3,1.625,9.492,-2.67,4,0.005,-0.031,0.006,5,12.627,-44.586,14.09
699486.5723,3,1.539,9.476,-2.723,4,0.007,-0.015,-0.002,5,12.677,-42.448,14.809
699486.5921,3,1.4,9.411,-2.608,4,0.006,-0.009,-0.008,5,11.926,-46.028,14.091
699486.612,3,1.326,9.447,-2.603,4,0.002,-0.009,-0.009,5,13.293,-44.566,12.639
699486.6319,3,1.388,9.574,-2.711,4,0.002,-0.017,-0.009,5,11.977,-43.89,14.812
699486.6517,3,1.192,9.538,-2.73,4,0.007,-0.013,-0.007,5,11.958,-44.601,14.088
699486.6716,3,0.782,9.449,-2.594,4,0.008,0.018,-0.008,5,11.974,-43.887,13.361
699486.6915,3,0.759,9.452,-2.544,4,0.009,0.054,-0.008,5,11.974,-43.887,13.361
699486.7113,3,0.9,9.495,-2.582,4,0.008,0.052,0.002,5,11.278,-45.332,14.09
699486.7312,3,0.919,9.629,-2.943,4,0.011,0.022,0.014,5,13.278,-45.282,13.367
699486.7511,3,0.976,9.397,-2.644,4,0.012,-0.009,0.025,5,12.66,-43.159,14.087
699486.7709,3,1.216,9.394,-2.587,4,0.007,-0.016,0.031,5,14.615,-45.251,14.095
699486.7908,3,1.285,9.416,-3.001,4,0.006,-0.018,0.035,5,11.993,-43.176,14.81
699486.8107,3,1.761,9.468,-3.977,4,0.012,-0.033,0.041,5,13.278,-45.282,13.367
699486.8305,3,0.395,9.6,-1.807,4,0.008,-0.051,0.036,5,10.574,-46.773,13.365
699486.8504,3,1.239,9.461,-2.661,4,-0.002,0.008,0.047,5,12.643,-43.874,14.088
699486.8703,3,0.969,9.31,-3.063,4,0.012,-0.026,0.058,5,13.297,-44.571,14.816
699486.8901,3,1.072,9.54,-2.259,4,0.022,-0.064,0.056,5,13.264,-45.998,14.819
699486.91,3,2.051,9.547,-2.809,4,0.016,-0.031,0.062,5,11.945,-45.317,14.815
699486.9299,3,2.783,9.313,-3.17,4,0.023,-0.079,0.074,5,11.978,-43.893,16.266
699486.9497,3,1.828,9.538,-2.723,4,0.024,-0.053,0.069,5,11.296,-44.623,16.267
699486.9696,3,1.479,9.514,-2.331,4,0.014,0.085,0.045,5,12.643,-43.874,14.088
699486.9895,3,1.582,9.358,-2.826,4,0.008,0.112,0.025,5,11.928,-46.03,14.816
699487.0093,3,1.369,9.452,-2.879,4,0.009,0.019,0.026,5,11.292,-44.617,13.362
699487.0292,3,1.067,9.394,-2.666,4,0.008,-0.067,0.029,5,11.292,-44.615,12.636
699487.0491,3,0.967,9.622,-2.512,4,0.005,-0.066,0.034,5,11.263,-46.048,15.544
699487.0689,3,1.062,9.648,-2.572,4,0.005,-0.033,0.037,5,12.645,-43.875,14.813
699487.0888,3,0.555,9.44,-2.307,4,0.011,0.005,0.041,,,,
699487.1087,3,0.845,9.543,-2.761,4,0.013,0.002,0.053,5,11.993,-43.176,14.81
699487.1285,3,0.546,9.416,-2.627,4,0.018,-0.048,0.073,5,13.28,-45.284,14.093
699487.1484,3,1.34,9.442,-2.204,4,0.016,-0.1,0.09,5,11.295,-44.62,14.813
699487.1683,3,1.531,9.461,-4.008,4,0.011,-0.158,0.102,5,11.295,-44.62,14.813
699487.1882,3,2.032,9.236,-3.348,4,0.022,-0.116,0.111,5,11.292,-44.615,12.636
699487.208,3,2.704,9.342,-2.599,4,0.003,-0.068,0.11,5,11.276,-45.331,13.364
699487.2279,3,2.299,9.239,-2.929,4,-0.01,-0.033,0.099,5,12.642,-43.871,12.636
699487.2478,3,2.395,9.392,-3.371,4,0.008,0.059,0.081,5,11.942,-45.314,13.364
699487.2676,3,2.34,9.301,-3.589,4,0.029,0.112,0.064,5,11.943,-45.316,14.09
699487.2875,3,2.18,9.303,-3.3,4,0.034,0.176,0.046,5,11.942,-45.313,12.637
699487.3074,3,2.39,9.468,-3.412,4,0.025,0.221,0.025,5,10.609,-45.348,14.088
699487.3272,3,2.608,9.16,-3.202,4,0.02,0.25,0.014,5,10.626,-44.637,15.54
699487.3471,3,1.862,9.071,-3.218,4,0.024,0.321,0,5,10.626,-44.635,14.812
699487.367,3,1.342,9.397,-3.556,4,0.024,0.403,-0.021,5,10.626,-44.635,14.812
699487.3868,3,1.094,9.454,-3.592,4,0.027,0.429,-0.024,5,10.594,-46.063,15.543
699487.4067,3,1.117,9.277,-3.103,4,0.018,0.39,-0.022,5,10.626,-44.635,14.812
699487.4266,3,1.833,9.086,-3.558,4,0.007,0.318,-0.024,5,10.626,-44.635,14.812
699487.4465,3,2.524,9.191,-3.479,4,0.009,0.25,-0.02,5,11.311,-43.909,15.54
699487.4657,3,1.905,9.057,-4.073,4,0.02,0.215,-0.021,5,10.611,-45.351,15.541
699487.4862,3,1.926,9.109,-4.568,4,0.03,0.153,-0.041,5,11.328,-43.195,15.538
699487.506,3,2.539,9.198,-4.554,4,0.025,0.126,-0.049,5,12.645,-43.877,15.541
699487.5259,3,2.163,9.052,-4.278,4,0.017,0.171,-0.063,5,11.311,-43.909,15.54
699487.5458,3,1.39,8.7,-4.398,4,0.016,0.248,-0.092,5,9.258,-46.094,14.088
699487.5656,3,0.799,8.545,-4.219,4,0.009,0.296,-0.108,5,11.96,-44.604,15.541
699487.5855,3,0.916,9.612,-5.559,4,0.014,0.278,-0.098,5,10.626,-44.635,14.812
699487.6054,3,1.747,9.198,-3.522,4,0.013,0.264,-0.094,5,10.66,-43.21,15.536
699487.6252,3,2.768,8.461,-3.833,4,-0.004,0.242,-0.103,5,11.279,-45.335,15.543
699487.6451,3,2.113,9.155,-5.841,4,0.018,0.209,-0.114,5,11.247,-46.764,16.272
699487.665,3,1.235,8.585,-4.47,4,0.066,0.227,-0.136,5,12.646,-43.878,16.267
699487.6848,3,0.854,9.543,-6.078,4,0.067,0.254,-0.148,5,11.911,-46.744,14.818
699487.7047,3,0.366,8.408,-3.635,4,0.062,0.16,-0.153,5,11.963,-44.608,16.994
699487.7246,3,1.094,8.894,-5.111,4,0.042,0.065,-0.158,5,10.646,-43.927,16.991
699487.7445,3,0.94,8.573,-4.905,4,0.047,-0.032,-0.156,5,10.646,-43.927,16.991
699487.7643,3,1.304,9.057,-4.951,4,0.057,-0.073,-0.151,5,10.646,-43.927,16.991
699487.7842,3,1.237,9.315,-5.3,4,0.064,-0.09,-0.148,5,12.63,-44.591,16.269
699487.8041,3,1.074,9.081,-3.455,4,0.04,-0.119,-0.14,5,13.982,-43.845,16.27
699487.8239,3,1.79,8.932,-3.537,4,0.018,-0.214,-0.143,5,12.677,-42.45,15.536
699487.8438,3,1.766,7.892,-4.451,4,0.002,-0.294,-0.16,5,12.613,-45.302,14.816
699487.8637,3,1.878,9.741,-5.704,4,0.023,-0.326,-0.168,5,13.315,-43.861,16.269
699487.8835,3,2.283,10.095,-4.412,4,0.053,-0.315,-0.17,5,13.316,-43.863,16.995
699487.9034,3,1.919,7.234,-2.9,4,0.017,-0.241,-0.173,5,14.014,-42.418,16.266
699487.9233,3,2.335,7.492,-4.776,4,-0.002,-0.131,-0.193,5,13.98,-43.843,15.544
699487.9431,3,2.106,8.686,-5.48,4,0.044,0.007,-0.222,5,13.332,-43.147,16.267
699487.963,3,1.804,10.703,-4.685,4,0.05,0.181,-0.235,5,13.345,-42.433,15.538
699487.9829,3,2.95,8.971,-2.663,4,0.04,0.353,-0.268,5,15.349,-42.384,15.541
699488.0028,3,3.326,8.669,-3.072,4,0.035,0.442,-0.32,5,15.317,-43.811,15.546
699488.0226,3,1.713,9.787,-2.862,4,0.049,0.498,-0.363,5,16.017,-42.369,16.269
699488.0425,3,-1.254,11.524,-1.192,4,0.035,0.563,-0.405,5,15.334,-43.097,15.544
699488.0624,3,-1.419,10.746,-0.23,4,-0.003,0.512,-0.456,5,15.334,-43.097,15.544
699488.0822,3,-1.802,8.229,-0.55,4,-0.033,0.254,-0.456,5,14.665,-43.114,15.543
699488.1021,3,-3.47,9.109,-2.412,4,-0.015,-0.045,-0.396,5,15.337,-43.1,16.997
699488.1219,3,-3.19,9.976,-2.946,4,-0.002,-0.248,-0.362,5,16.016,-42.368,15.543
699488.1418,3,-2.546,11.44,-2.328,4,-0.039,-0.474,-0.318,5,16,-43.08,15.546
699488.1617,3,-1.072,12.426,-0.493,4,-0.092,-0.663,-0.226,5,16.701,-41.638,15.541
699488.1815,3,0.541,12.718,1.56,4,-0.148,-0.749,-0.153,5,18.018,-42.32,15.546
699488.2014,3,0.455,7.394,2.474,4,-0.146,-0.705,-0.12,5,17.319,-43.761,14.821
699488.2213,3,-0.61,7.801,-1.974,4,-0.074,-0.5,-0.098,5,19.351,-42.282,13.368
699488.2411,3,-1.242,11.249,-4.764,4,0.08,-0.303,-0.086,5,18.671,-43.015,14.822
699488.261,3,-1.395,9.866,-4.833,4,0.129,-0.143,-0.054,5,18.701,-41.586,14.093
699488.2809,3,-0.589,8.341,-3.446,4,0.06,-0.101,-0.025,5,19.339,-42.998,14.822
699488.3008,3,0.244,10.05,-3.125,4,-0.043,-0.111,0.001,5,18.015,-42.314,12.64
699488.3206,3,0.569,9.629,-1.627,4,-0.103,-0.142,0.02,5,18.716,-40.871,13.365
699488.3405,3,0.199,9.327,-1.914,4,-0.107,-0.142,0.036,5,17.351,-42.336,15.544
699488.3604,3,0.457,8.942,-1.802,4,-0.043,-0.164,0.034,5,16.666,-43.06,13.367
699488.3802,3,0.708,9.636,-4.716,4,0.045,-0.232,0.023,5,19.354,-42.287,15.547
699488.4001,3,-0.759,11.064,-5.551,4,0.101,-0.257,0.002,5,18.015,-42.314,12.64
699488.42,3,-1.785,8.583,-3.977,4,0.102,-0.189,0.007,5,19.302,-44.421,13.374
699488.4398,3,-0.62,8.157,-3.864,4,0.03,-0.188,0.031,5,18.016,-42.317,14.093
699488.4597,3,-0.33,10.114,-4.345,4,-0.009,-0.297,0.052,5,19.368,-41.568,13.367
699488.4796,3,-0.201,11.143,-4.216,4,-0.003,-0.321,0.069,5,18.697,-41.579,11.186
699488.4994,3,0.658,6.867,-0.914,4,-0.008,-0.248,0.09,5,17.996,-43.022,11.189
699488.5193,3,1.883,7.513,-4.599,4,-0.009,-0.192,0.113,5,18.002,-43.031,14.821
699488.5392,3,2.917,10.646,-7.088,4,0.069,-0.208,0.083,5,17.982,-43.741,12.645
699488.559,3,2.216,10.016,-5.98,4,0.144,-0.095,0.04,5,17.999,-43.028,13.37
699488.5789,3,0.979,7.92,-5.609,4,0.14,0.148,0.018,5,18.681,-42.294,11.916
699488.5988,3,0.739,7.384,-3.73,4,0.085,0.265,0.009,5,20.018,-42.267,13.37
699488.6187,3,0.988,9.59,-6.016,4,0.056,0.137,-0.026,5,18.654,-43.729,14.824
699488.6385,3,0.4,8.767,-4.049,4,0.017,-0.07,-0.058,5,18.669,-43.013,14.098
699488.6584,3,-0.512,7.454,-5.075,4,-0.011,-0.253,-0.071,5,20.006,-42.982,14.824
699488.6783,3,-0.483,8.425,-5.664,4,-0.003,-0.409,-0.08,5,18.681,-42.294,11.916
699488.6981,3,1.084,11.849,-5.391,4,0.006,-0.502,-0.077,5,19.336,-42.995,13.371
699488.718,3,1.216,9.693,-4.144,4,-0.024,-0.497,-0.059,5,18.633,-44.434,11.922
699488.7378,3,0.033,6.753,-4.833,4,-0.055,-0.327,-0.048,5,19.319,-43.709,13.373
699488.7577,3,-1.271,6.578,-7.554,4,-0.008,-0.016,-0.07,5,19.368,-41.568,13.367
699488.7776,3,-0.191,7.683,-5.173,4,0.05,0.225,-0.071,5,19.35,-42.278,11.916
699488.7974,3,-1.278,11.861,-11.409,4,0.006,0.352,-0.061,5,18.651,-43.726,13.373
699488.8173,3,-0.778,15.161,-3.637,4,-0.025,0.452,-0.091,5,18.7,-41.585,13.367
699488.8372,3,1.759,3.51,-2.757,4,-0.064,0.511,-0.115,5,19.385,-40.852,12.639
699488.857,3,3.706,9.925,-0.766,4,-0.239,0.368,-0.096,5,19.319,-43.707,12.646
699488.8769,3,2.158,12.275,-1.778,4,-0.151,0.167,-0.152,5,19.337,-42.996,14.098
699488.8968,3,-1.586,10.421,0.974,4,-0.096,0.001,-0.256,5,18.649,-43.721,11.92
699488.9167,3,-1.682,7.557,-3.125,4,0.008,-0.232,-0.302,5,19.334,-42.99,11.919
699488.9365,3,-2.457,10.567,-5.353,4,0.056,-0.575,-0.262,5,21.341,-42.947,14.101
699488.9564,3,-1.292,12.211,-3.135,4,0.051,-0.795,-0.198,5,20.05,-40.834,11.914
699488.9763,3,-1.266,4.616,1.35,4,-0.107,-0.91,-0.127,5,19.368,-41.568,13.367
699488.9961,3,-2.311,10.916,-1.034,4,-0.179,-0.889,-0.069,5,19.366,-41.563,11.914
699489.016,3,-1.787,15.57,-1.139,4,-0.077,-0.744,0.006,5,22.038,-41.502,12.645
699489.0359,3,-1.192,9.765,0.998,4,-0.011,-0.524,0.068,5,22.003,-42.924,11.195
699489.0557,3,-0.926,6.786,1.156,4,-0.009,-0.343,0.094,5,23.926,-46.449,13.387
699489.0756,3,-0.043,9.765,-2.584,4,0.063,-0.163,0.139,5,23.293,-45.036,12.657
699489.0955,3,0.266,10.406,-4.317,4,0.138,-0.004,0.155,5,20.686,-42.249,12.645
699489.1153,3,0.837,9.062,-3.467,4,0.113,0.051,0.143,5,20.001,-42.975,11.92
699489.1352,3,0.95,7.75,-1.898,4,0.024,0.087,0.155,5,20.032,-41.547,11.188
699489.1551,3,0.895,8.894,-1.905,4,-0.052,0.09,0.156,5,19.984,-43.689,11.922
699489.175,3,1.486,10.201,-2.024,4,-0.078,-0.005,0.107,5,17.996,-43.021,10.464
699489.1948,3,1.194,10.227,-2.139,4,-0.055,-0.079,0.057,5,21.352,-42.227,11.191
699489.2147,3,0.854,8.377,-2.24,4,-0.028,-0.116,0.037,5,20,-42.973,11.192
699489.2346,3,0.424,9.373,-3.065,4,0,-0.165,0.026,5,20.7,-41.53,11.189
699489.2544,3,-1.826,9.686,-3.288,4,0.007,-0.229,0.002,5,20.015,-42.261,11.189
699489.2743,3,-3.245,10.497,-2.137,4,-0.037,-0.248,-0.005,5,20.633,-44.38,9.746
699489.2942,3,-1.275,11.347,-0.11,4,-0.087,-0.336,0.048,5,20.717,-40.816,11.188
699489.314,3,-0.534,4.965,-0.507,4,-0.118,-0.412,0.132,5,19.316,-43.703,11.192
699489.3339,3,-0.421,11.603,-4.836,4,-0.063,-0.301,0.141,5,19.365,-41.562,11.186
699489.3537,3,-0.584,12.055,-2.812,4,0.063,0.077,0.147,5,19.998,-42.97,9.741
699489.3736,3,-0.383,9.674,0.861,4,0.022,0.439,0.172,5,20.683,-42.242,10.466
699489.3935,3,0.438,8.712,-0.816,4,-0.016,0.58,0.166,5,20.7,-41.53,11.189
699489.4133,3,-0.323,10.629,-2.096,4,0.029,0.575,0.156,5,19.365,-41.562,11.186
699489.4332,3,-0.593,9.114,-2.9,4,0.079,0.577,0.139,5,18.7,-41.583,12.64
699489.4531,3,-0.129,10.246,-3.651,4,0.057,0.44,0.125,5,17.332,-43.042,12.642
699489.473,3,-0.1,9.61,-3.173,4,0.042,0.271,0.111,5,20.033,-41.548,11.916
699489.4928,3,-1.852,10.325,-1.692,4,-0.002,0.338,0.103,5,18.015,-42.314,12.64
699489.5127,3,0.648,8.042,2.448,4,-0.048,0.445,0.1,5,19.351,-42.281,12.642
699489.5326,3,-0.904,10.634,-0.77,4,-0.105,0.493,0.081,5,19.336,-42.995,13.371
699489.5524,3,0.703,9.894,-4.432,4,0.024,0.578,0.058,5,17.999,-43.027,12.643
699489.5723,3,-1.44,9.602,-5.221,4,0.141,0.755,0.085,5,18.001,-43.03,14.096
699489.5922,3,-0.933,8.547,-4.934,4,0.143,0.903,0.081,5,17.999,-43.028,13.37
699489.612,3,-0.512,8.88,-3.534,4,0.053,0.845,0.048,5,19.319,-43.709,13.373
699489.6319,3,0.809,11.359,-2.955,4,0.001,0.709,0.03,5,17.351,-42.334,14.816
699489.6518,3,1.993,7.411,-1.967,4,-0.009,0.605,0,5,16.666,-43.059,12.64
699489.6716,3,0.775,4.499,-4.774,4,0.031,0.617,-0.042,5,18.002,-43.031,14.821
699489.6915,3,0.199,15.24,-8.818,4,0.173,0.753,-0.075,5,18.002,-43.033,15.549
699489.7114,3,-0.823,9.899,-2.579,4,0.239,0.869,-0.12,5,18.037,-41.609,16.997
699489.7313,3,-0.823,6.049,0.502,4,0.104,0.853,-0.165,5,16.719,-40.926,16.266
699489.7511,3,-1.62,11.103,-2.589,4,0.072,0.641,-0.233,5,18.021,-42.323,16.998
699489.771,3,0.007,10.076,-3.778,4,0.188,0.511,-0.243,5,16.721,-40.927,16.992
699489.7909,3,-0.385,8.406,-3.833,4,0.234,0.522,-0.217,5,17.354,-42.342,17.723
699489.8107,3,-1.768,9.042,-4.561,4,0.222,0.605,-0.217,5,18.056,-40.9,18.446
699489.8306,3,-2.965,9.82,-4.29,4,0.188,0.656,-0.253,5,18.069,-40.181,16.267
699489.8505,3,-4.018,10.239,-3.175,4,0.112,0.645,-0.262,5,16.704,-41.641,16.994
699489.8703,3,-2.268,10.033,-2.62,4,0.03,0.585,-0.202,5,18.071,-40.186,17.72
699489.8902,3,-0.505,10.167,-1.56,4,-0.006,0.39,-0.156,5,17.372,-41.629,18.446
699489.9101,3,-0.086,7.602,-1.144,4,-0.011,0.165,-0.147,5,15.384,-40.958,16.264
699489.9299,3,0.12,12.39,-4.676,4,0.014,0.06,-0.149,5,18.103,-38.759,17.715
699489.9498,3,-0.402,15.661,-1.761,4,0.074,0.026,-0.149,5,18.723,-40.881,17.723
699489.9697,3,0.802,0.514,1.036,4,0.019,0.01,-0.146,5,19.377,-41.582,19.177
699489.9895,3,0.61,11.483,-7.37,4,0.001,-0.053,-0.146,5,18.723,-40.881,17.723
699490.0094,3,0.421,13.63,-4.424,4,0.157,-0.101,-0.156,5,18.059,-40.903,19.899
699490.0293,3,0.325,6.965,1.29,4,0.025,-0.009,-0.174,5,18.739,-40.169,17.722
699490.0491,3,1.986,9.27,-1.886,4,-0.108,0.056,-0.156,5,18.071,-40.186,17.72
699490.069,3,2.646,10.933,-4.159,4,-0.032,0.04,-0.159,5,20.09,-39.42,16.995
699490.0889,3,1.369,8.774,-2.527,4,0.02,0.125,-0.213,5,18.742,-40.172,19.174
699490.1087,3,0.227,9.078,-1.766,4,-0.004,0.311,-0.269,5,19.408,-40.152,17.722
699490.1286,3,-0.873,8.959,-3.8,4,0.007,0.459,-0.292,5,20.746,-40.123,19.177
699490.1485,3,-2.881,9.076,-4.441,4,0.024,0.453,-0.314,5,20.074,-40.137,17.723
699490.1684,3,-2.955,8.717,-3.893,4,0.007,0.314,-0.329,5,20.058,-40.849,17.725
699490.1882,3,-2.321,8.767,-4.412,4,-0.053,0.087,-0.306,5,19.394,-40.868,19.176
699490.2081,3,-2.716,9.732,-3.972,4,-0.104,-0.242,-0.263,5,21.41,-40.099,16.272
699490.228,3,-1.058,11.222,-2.876,4,-0.137,-0.605,-0.224,5,21.394,-40.813,17
699490.2478,3,-0.467,5.616,-1.687,4,-0.152,-0.876,-0.17,5,21.394,-40.813,17
699490.2671,3,0.026,9.239,-5.001,4,-0.108,-0.916,-0.124,5,21.394,-40.813,17
699490.2876,3,0.062,13.773,-5.243,4,0.02,-0.837,-0.098,5,20.758,-39.403,16.997
699490.3074,3,0.203,5.539,-2.041,4,0.042,-0.696,-0.077,5,20.792,-37.976,16.992
699490.3273,3,0.467,10.308,-6.444,4,-0.016,-0.571,-0.087,5,22.726,-40.779,16.277
699490.3472,3,0.806,8.497,-2.221,4,0.071,-0.485,-0.082,5,21.411,-40.1,16.998
699490.3671,3,0.443,7.509,-1.213,4,-0.02,-0.414,-0.058,5,22.757,-39.351,15.547
699490.3869,3,-0.158,10.775,-3.273,4,-0.103,-0.362,-0.074,,,,
699490.4068,3,-0.026,10.485,-3.551,4,-0.019,-0.414,-0.076,5,20.723,-40.826,15.547
699490.4267,3,-0.366,8.822,-3.537,4,0.003,-0.445,-0.081,5,24.109,-38.606,15.546
699490.4465,3,-0.043,9.842,-3.752,4,0.02,-0.431,-0.064,5,23.425,-39.334,15.549
699490.4664,3,-0.641,9.246,-3.565,4,0.025,-0.417,-0.044,5,23.393,-40.759,14.824
699490.4863,3,-1.228,10.619,-3.295,4,0,-0.37,-0.051,5,22.087,-39.363,13.367
699490.5061,3,-1.515,5.499,-2.938,4,-0.016,-0.356,-0.047,5,22.723,-40.775,14.098
699490.526,3,-1.744,9.133,-3.896,4,-0.022,-0.374,-0.014,5,23.392,-40.758,14.099
699490.5458,3,-1.096,14.845,-2.515,4,-0.003,-0.387,0.023,5,22.075,-40.082,15.547
699490.5657,3,-0.785,8.763,-0.632,4,-0.025,-0.418,0.047,5,22.72,-40.768,11.919
699490.5856,3,-0.869,6.482,-2.678,4,-0.02,-0.473,0.041,5,23.439,-38.615,12.64
699490.6055,3,-1.335,9.535,-6.413,4,0.078,-0.539,0.067,5,22.073,-40.079,14.095
699490.6253,3,-0.672,10.062,-5.819,4,0.124,-0.589,0.089,5,24.057,-40.741,13.373
699490.6452,3,0.682,9.263,-3.309,4,0.042,-0.55,0.101,5,21.405,-40.091,12.64
699490.6651,3,1.208,7.635,-2.577,4,-0.05,-0.384,0.145,5,22.769,-38.629,11.913
699490.6849,3,-0.01,9.031,-4.278,4,-0.067,-0.204,0.162,5,22.722,-40.771,12.645
699490.7048,3,-1.019,10.703,-3.726,4,0.001,-0.093,0.122,5,22.739,-40.06,13.37
699490.7247,3,-1.266,11.067,-2.582,4,0.025,-0.035,0.083,5,22.705,-41.486,12.646
699490.7445,3,-1.433,4.549,-4.912,4,0.029,-0.097,0.072,5,21.419,-39.374,11.913
699490.7644,3,-1.338,8.918,-6.628,4,0.066,-0.159,0.091,5,21.371,-41.518,12.643
699490.7843,3,-1.529,15.247,-1.783,4,0.046,-0.147,0.129,5,22.038,-41.504,13.371
699490.8041,3,-0.706,8.298,1.637,4,-0.105,-0.101,0.147,5,22.054,-40.785,11.917
699490.824,3,-0.268,6.736,-2.261,4,-0.142,-0.143,0.118,5,22.07,-40.073,11.916
699490.8439,3,-0.775,10.134,-6.982,4,0.03,-0.255,0.129,5,22.052,-40.782,10.464
699490.8638,3,-1.314,10.366,-5.106,4,0.115,-0.246,0.121,5,22.038,-41.504,13.371
699490.8836,3,-1.165,9.296,-0.715,4,0.029,-0.17,0.121,5,22.072,-40.076,12.642
699490.9035,3,-0.237,8.267,-0.632,4,-0.069,-0.09,0.156,5,21.317,-43.649,9.018
699490.9234,3,-1.376,5.286,-4.403,4,-0.059,-0.104,0.162,5,22.705,-41.486,12.646
699490.9432,3,-0.811,23.366,-4.396,4,0.036,-0.16,0.125,5,21.368,-41.513,11.189
699490.9631,3,-0.416,-2.149,-0.306,4,0.047,-0.161,0.133,5,20.703,-41.536,13.37
699490.983,3,-0.636,11.194,-5.508,4,-0.044,-0.152,0.139,5,20.654,-43.677,13.376
699491.0028,3,-0.098,17.283,-4.247,4,0.106,-0.176,0.154,5,22.021,-42.218,13.373
699491.0227,3,1.503,4.269,0.519,4,0.051,-0.087,0.184,5,22.005,-42.926,11.923
699491.0426,3,0.687,8.023,-3.135,4,-0.01,0.005,0.151,5,21.388,-40.805,13.368
699491.0624,3,0.06,9.61,-8.633,4,0.185,0.041,0.13,5,22.722,-40.773,13.371
699491.0823,3,-1.01,11.768,-5.879,4,0.271,0.132,0.074,5,21.324,-43.661,14.102
699491.1022,3,-0.469,5.867,-1.232,4,0.196,0.266,0.066,5,20.671,-42.961,12.648
699491.122,3,-1.263,9.313,-2.634,4,0.06,0.355,0.074,5,20.673,-42.964,14.101
699491.1419,3,-1.924,11.71,-4.85,4,0.099,0.274,0.039,5,20.639,-44.391,14.104
699491.1618,3,-1.924,4.948,-6.291,4,0.152,0.1,-0.005,5,22.694,-42.209,17.006
699491.1816,3,-1.921,17.102,-3.278,4,0.135,0.023,0.012,5,21.994,-43.651,16.283
699491.2015,3,-2.158,9.832,-2.922,4,0.078,0.008,0.061,5,21.375,-41.522,14.821
699491.2214,3,0.687,9.153,0.565,4,-0.002,0.012,0.08,5,22.025,-42.221,14.824
699491.2412,3,-1.034,4.616,-2.378,4,0.075,0.029,0.077,5,22.708,-41.492,15.552
699491.2611,3,-1.95,11.797,-8.638,4,0.11,0.192,0.055,5,22.691,-42.206,15.553
699491.281,3,-2.96,9.315,-4.041,4,0.216,0.293,0.045,5,22.691,-42.206,15.553
699491.3008,3,-0.916,7.731,-1.28,4,0.064,0.478,0.064,5,22.662,-43.639,17.737
699491.3207,3,-1.326,9.935,-1.237,4,-0.044,0.533,0.073,5,21.391,-40.81,15.547
699491.3406,3,-1.469,7.226,-4.18,4,-0.031,0.476,0.039,5,20.673,-42.964,14.101
699491.3604,3,-1.565,9.555,-5.468,4,0.008,0.42,0.025,5,21.373,-41.521,14.096
699491.3803,3,-0.988,13.981,-2.907,4,0.006,0.395,0.024,5,20.708,-41.542,16.275
699491.4002,3,-0.447,8.112,1.362,4,-0.099,0.351,0.028,5,23.347,-42.905,17.01
699491.42,3,-0.615,6.695,-2.768,4,-0.155,0.256,0.025,5,22.044,-41.512,17.003
699491.4399,3,-0.215,11.593,-7.322,4,-0.03,0.067,0.007,5,22.009,-42.935,15.555
699491.4598,3,-0.55,10.057,-4.116,4,0.071,-0.053,-0.024,5,23.363,-42.195,17.734
699491.4797,3,-0.191,7.848,-2.675,4,-0.031,-0.044,-0.002,5,22.745,-40.071,17.728
699491.4995,3,0.467,10.744,-1.85,4,-0.114,-0.078,0.015,5,22.742,-40.065,15.549
699491.5194,3,0.648,8.875,-0.976,4,-0.124,-0.143,0.003,5,22.041,-41.508,15.55
699491.5393,3,0.23,6.334,-4.381,4,-0.107,-0.143,-0.021,5,23.427,-39.336,16.275
699491.5591,3,-0.191,15.364,-5.118,4,0.019,-0.104,-0.016,5,22.075,-40.082,15.547
699491.579,3,0.194,10.842,-2.271,4,0.045,-0.092,-0.004,5,22.728,-40.781,17.003
699491.5989,3,0.311,8.32,-0.026,4,-0.021,-0.017,-0.016,5,22.725,-40.778,15.55
699491.6187,3,0.297,7.315,-4.455,4,-0.005,0.01,-0.027,5,22.743,-40.067,16.275
699491.6386,3,-0.316,10.533,-6.7,4,0.101,0.04,-0.081,5,21.41,-40.099,16.272
699491.6585,3,-0.201,7.935,-4.92,4,0.154,0.09,-0.104,5,22.09,-39.368,15.546
699491.6783,3,-0.885,10.54,-4.336,4,0.068,0.145,-0.104,5,23.38,-41.478,17.006
699491.6982,3,-0.459,5.494,-1.539,4,0.009,0.125,-0.129,5,23.412,-40.05,16.277
699491.7181,3,-1.027,7.597,-4.391,4,-0.041,0.043,-0.151,5,22.725,-40.778,15.55
699491.738,3,-1.761,15.604,-4.728,4,0.028,-0.038,-0.146,5,22.723,-40.775,14.098
699491.7578,3,-0.495,7.444,-1.917,4,0.049,-0.18,-0.127,5,23.39,-40.756,13.373
699491.7777,3,-1.323,7.499,-0.955,4,-0.004,-0.345,-0.119,5,23.442,-38.62,14.818
699491.7975,3,-1,8.719,-4.771,4,0.039,-0.521,-0.075,5,24.747,-40.018,16.278
699491.8174,3,-2.168,10.938,-8.006,4,0.11,-0.601,-0.044,5,24.092,-39.317,14.821
699491.8373,3,-2.771,8.942,-2.972,4,0.139,-0.579,0.007,5,24.791,-37.871,13.367
699491.8571,3,-1.046,9.985,-0.871,4,0.005,-0.511,0.085,5,24.695,-42.157,15.556
699491.877,3,-0.309,3.242,-2.615,4,-0.08,-0.433,0.141,5,24.023,-42.169,13.376
699491.8969,3,-0.065,18.896,-4.577,4,-0.044,-0.332,0.185,5,24.04,-41.455,13.374
699491.9167,3,0.692,6.559,-2.244,4,0.035,-0.227,0.213,5,25.424,-39.278,11.92
699491.9366,3,0.294,2.431,-3.482,4,-0.011,-0.101,0.221,5,23.404,-40.038,11.191
699491.9565,3,-0.352,10.586,-7.353,4,0.055,0.038,0.207,5,25.394,-40.707,12.65
699491.9763,3,0.045,23.21,0.625,4,0.058,0.065,0.169,5,24.075,-40.03,14.098
699491.9962,3,2.024,-2.52,3.044,4,-0.133,0.158,0.172,5,24.074,-40.027,12.645
699492.0161,3,0.146,9.418,-5.693,4,-0.146,0.272,0.112,5,22.704,-41.483,11.92
699492.036,3,-0.091,7.449,-7.856,4,0.129,0.203,0.072,5,23.373,-41.47,13.374
699492.0558,3,-0.359,14.156,-4.097,4,0.091,0.028,0.03,5,24.04,-41.454,12.648
699492.0757,3,-0.215,10.019,-0.254,4,-0.038,0.148,0.036,5,24.725,-40.723,12.648
699492.0956,3,-0.967,7.085,-2.297,4,-0.116,0.132,0.045,5,24.04,-41.455,13.374
699492.1154,3,-0.749,10.327,-4.506,4,-0.043,0.071,-0.007,5,24.04,-41.454,12.648
699492.1353,3,-1.699,6.841,-2.319,4,0.042,0.002,-0.033,5,23.355,-42.18,11.923
699492.1552,3,0.022,11.935,1.079,4,-0.004,0.013,-0.013,5,23.372,-41.466,11.922
699492.175,3,-2.632,15.596,-18.028,4,0.04,-0.048,-0.002,5,23.39,-40.756,13.373
699492.1949,3,0.309,12.66,-8.42,4,0.156,-0.089,-0.043,5,22.707,-41.489,14.099
699492.2148,3,0.201,3.261,4.726,4,0.106,-0.037,-0.016,5,25.981,-44.263,14.836
699492.2346,3,1.005,10.181,1.881,4,-0.312,0.274,0.061,5,26.617,-45.673,14.841
699492.2545,3,0.072,11.478,-4.228,4,-0.169,0.261,0.033,5,26.649,-44.247,15.565
699492.2744,3,-0.962,8.224,-6.434,4,0.058,0.056,-0.07,5,22.67,-42.908,11.197
699492.2943,3,-0.861,7.365,-3.048,4,0.115,-0.07,-0.138,5,23.357,-42.184,13.376
699492.3141,3,-1.228,10.627,-4.156,4,0.04,-0.138,-0.088,5,23.355,-42.18,11.923
699492.334,3,-1.524,10.347,-2.73,4,0.006,-0.27,-0.059,5,24.677,-42.865,13.38
699492.3539,3,-1.969,6.523,-3.745,4,-0.047,-0.331,-0.057,5,24.039,-41.451,11.922
699492.3737,3,-0.919,14.809,-2.359,4,-0.039,-0.244,-0.008,5,23.991,-43.594,12.654
699492.3936,3,0.199,7.052,-2.067,4,-0.045,-0.171,0.074,5,24.039,-41.451,11.922
699492.4134,3,-1.417,8.492,-2.804,4,-0.06,-0.099,0.084,5,23.323,-43.607,11.928
699492.4333,3,-0.818,10.141,-3.666,4,0.036,-0.067,0.058,5,23.306,-44.319,11.929
699492.4532,3,-0.127,9.567,-3.12,4,0.053,-0.004,0.056,5,23.991,-43.596,13.38
699492.473,3,-0.419,12.493,-3.226,4,0.022,0.089,0.078,5,22.673,-42.914,13.377
699492.4929,3,-0.857,4.889,-3.577,4,0.033,0.105,0.063,5,23.357,-42.183,12.65
699492.5128,3,-0.957,12.586,-4.396,4,0.027,0.054,0.023,5,23.325,-43.611,13.38
699492.5326,3,-0.062,9.701,-1.938,4,0.024,-0.009,0.047,5,24.641,-44.287,11.931
699492.5525,3,0.225,7.717,-2.036,4,-0.044,-0.086,0.081,5,25.978,-44.258,12.659
699492.5724,3,-0.837,12.816,-4.896,4,0.002,-0.191,0.056,5,23.311,-44.327,14.833
699492.5923,3,0.988,7.743,-2.618,4,0.075,-0.264,0.029,5,23.311,-44.327,14.833
699492.6121,3,-0.598,8.55,-2.79,4,0.049,-0.226,0.066,5,24.643,-44.292,13.383
699492.632,3,-0.78,7.621,-4.259,4,0.051,-0.154,0.078,5,23.973,-44.304,11.929
699492.6519,3,-1.206,3.998,-5.896,4,0.08,-0.147,0.048,5,24.614,-45.721,14.838
699492.6717,3,-0.457,19.298,-2.041,4,0.075,-0.065,0.067,5,22.624,-45.053,12.656
699492.6916,3,1.756,4.36,0.957,4,-0.009,0.035,0.127,5,22.624,-45.053,12.656
699492.7115,3,0.033,6.238,-2.17,4,-0.11,0.22,0.106,5,23.959,-45.023,13.383
699492.7313,3,-0.184,12.203,-6.14,4,0.063,0.366,0.039,5,23.959,-45.023,13.383
699492.7512,3,-1.469,9.138,-3.175,4,0.155,0.382,-0.021,5,23.959,-45.023,13.383
699492.7711,3,-1.96,7.348,-3.34,4,0.067,0.404,-0.04,5,24.631,-45.01,15.564
699492.7909,3,-2.266,8.444,-4.144,4,0.039,0.349,-0.076,5,22.646,-44.348,17.012
699492.8108,3,-2.139,16.231,-2.496,4,0.011,0.258,-0.072,5,23.965,-45.03,17.015
699492.8307,3,-1.531,7.588,2.34,4,-0.072,0.137,-0.04,5,23.947,-45.741,16.29
699492.8505,3,-0.629,-0.517,-2.881,4,-0.144,-0.023,-0.037,5,23.297,-45.044,16.289
699492.8698,3,-0.182,15.077,-9.332,4,-0.006,-0.246,-0.047,5,24.634,-45.013,17.017
699492.8903,3,-0.912,9.313,-2.512,4,0.217,-0.363,-0.052,5,23.965,-45.03,17.015
699492.9102,3,-0.28,5.719,-0.488,4,-0.013,-0.28,0.023,5,23.997,-43.604,17.012
699492.93,3,-1.007,11.878,-5.269,4,-0.104,-0.117,0.045,5,23.361,-42.191,16.281
699492.9499,3,-0.957,12.565,-3.503,4,0.013,-0.073,0.047,5,24.631,-45.01,15.564
699492.9697,3,0.026,7.372,0.55,4,-0.038,-0.023,0.067,5,24.648,-44.298,16.289
699492.9896,3,1,7.26,-3.692,4,-0.074,0.001,0.069,5,24.681,-42.871,16.286
699493.0095,3,0.785,10.203,-6.078,4,0.019,-0.05,0.022,5,24.663,-43.584,15.561
699493.0293,3,0.538,11.143,-3.845,4,0.107,-0.021,-0.024,5,24.666,-43.59,17.74
699493.0492,3,0.479,2.527,-0.479,4,0.038,0.06,-0.024,5,22.662,-43.639,17.737
699493.0691,3,-0.033,13.333,-5.977,4,-0.063,0.1,-0.064,5,24.014,-42.889,17.01
699493.0889,3,-1.283,13.689,-3.383,4,0.052,0.059,-0.093,5,24.049,-41.469,19.185
699493.1088,3,-0.452,5.853,0.61,4,-0.022,-0.027,-0.092,5,24.713,-41.444,16.281
699493.1287,3,-0.979,6.099,-1.991,4,-0.075,-0.09,-0.104,5,25.4,-40.72,17.734
699493.1485,3,-0.625,10.248,-7.308,4,0.008,-0.254,-0.115,5,26.685,-42.822,16.289
699493.1684,3,-1.364,13.177,-5.798,4,0.102,-0.348,-0.101,5,26.031,-42.126,16.284
699493.1883,3,-1.352,1.259,-1.067,4,0.034,-0.318,-0.068,5,25.397,-40.712,14.827
699493.2082,3,-1.407,15.998,-3.271,4,-0.107,-0.214,-0.024,5,28.065,-40.648,15.559
699493.228,3,-0.285,10.244,-1.591,4,-0.044,-0.155,0.041,5,26.767,-39.256,17.006
699493.2479,3,-0.864,6.676,-0.345,4,-0.091,-0.161,0.064,5,26.079,-39.981,14.101
699493.2678,3,-1.314,9.636,-3.958,4,-0.043,-0.147,0.068,5,25.444,-38.571,14.096
699493.2876,3,-0.574,10.074,-5.204,4,0.046,-0.125,0.075,5,26.762,-39.25,14.101
699493.3075,3,-0.091,7.205,-4.118,4,0.067,-0.078,0.09,5,26.096,-39.27,15.552
699493.3274,3,-0.715,7.607,-1.62,4,0.013,-0.038,0.097,5,26.094,-39.267,14.099
699493.3472,3,-0.01,12.407,-2.259,4,-0.072,-0.017,0.124,5,24.774,-38.585,13.368
699493.3671,3,0.4,6.942,-2.146,4,-0.044,-0.011,0.145,5,25.443,-38.568,12.643
699493.387,3,0.084,10.016,-3.025,4,-0.016,-0.064,0.134,5,25.41,-39.996,13.374
699493.4068,3,0.048,8.832,-2.189,4,0.031,-0.101,0.096,5,24.089,-39.314,13.37
699493.4267,3,-0.273,8.717,-3.635,4,0.014,-0.115,0.096,5,24.739,-40.004,10.468
699493.4466,3,-0.486,9.421,-5.609,4,0.062,-0.11,0.106,5,23.419,-39.322,10.464
699493.4665,3,-0.124,10.368,-3.094,4,0.093,-0.098,0.086,5,25.426,-39.282,13.373
699493.4863,3,0.072,7.707,-2.225,4,0.02,0.011,0.108,5,25.394,-40.707,12.65
699493.5062,3,0.725,10.476,-1.732,4,-0.01,0.11,0.129,5,22.072,-40.076,12.642
699493.5261,3,-1.299,4.192,-1.062,4,0.091,0.11,0.074,5,25.374,-41.417,11.197
699493.5459,3,0.335,8.894,-5.092,4,0.051,0.148,0.026,5,24.725,-40.724,13.374
699493.5658,3,-0.907,15.97,-6.808,4,0.121,0.165,0.03,5,24.693,-42.154,14.104
699493.5857,3,-1.345,5.594,-3.86,4,0.129,0.178,-0.002,5,25.327,-43.559,11.931
699493.6055,3,-1.232,12.558,0.072,4,0.03,0.204,-0.024,5,23.358,-42.186,14.102
699493.6254,3,-0.479,9.49,-3.223,4,-0.045,0.233,0.024,5,24.692,-42.151,12.651
699493.6453,3,-2.043,7.813,-3.728,4,-0.006,0.143,0.006,5,23.991,-43.594,12.654
699493.6651,3,-0.337,8.648,-3.407,4,0.055,0.052,-0.042,,,,
699493.685,3,-0.613,10.847,-3.546,4,0.049,0.03,-0.04,5,24.739,-40.005,11.192
699493.7049,3,-1.419,5.767,-3.919,4,0.013,0.046,-0.01,5,22.723,-40.775,14.098
699493.7247,3,-0.967,13.187,-1.661,4,-0.016,0.038,-0.031,5,24.678,-42.867,14.107
699493.7446,3,0.378,8.619,-1.797,4,-0.028,0.043,-0.019,5,24.644,-44.293,14.11
699493.7645,3,-0.39,7.353,-3.065,4,-0.074,0.023,0.002,5,22.656,-43.626,12.653
699493.7844,3,-0.835,10.215,-3.288,4,-0.019,-0.029,-0.01,5,26.666,-43.533,14.836
699493.8042,3,-0.388,7.109,-1.646,4,-0.013,-0.034,-0.029,5,25.314,-44.279,14.836
699493.8241,3,-0.201,9.09,-2.876,4,-0.066,0.027,-0.003,5,23.959,-45.021,12.657
699493.844,3,-0.218,12.457,-4.597,4,-0.036,0.077,-0.022,5,24.643,-44.292,13.383
699493.8638,3,-1.273,10.629,0.692,4,-0.027,0.14,-0.044,5,24.629,-45.007,14.111
699493.8837,3,-0.043,6.989,-0.962,4,-0.104,0.167,-0.024,5,25.314,-44.279,14.836
699493.9036,3,-0.481,4.554,-4.967,4,-0.058,0.083,-0.059,5,25.311,-44.276,13.385
699493.9234,3,-0.191,14.644,-2.697,4,0.042,-0.046,-0.11,5,25.33,-43.565,14.11
699493.9433,3,0.742,5.64,-1.003,4,0.005,-0.121,-0.091,5,25.299,-44.994,14.838
699493.9632,3,-1.05,7.961,-5.102,4,-0.078,-0.147,-0.097,5,25.346,-42.851,14.108
699493.983,3,-0.498,17.793,-4.101,4,0.035,-0.242,-0.093,5,25.978,-44.26,13.385
699494.0029,3,0.072,5.755,-0.211,4,-0.025,-0.291,-0.043,5,25.351,-42.86,17.74
699494.0228,3,-0.696,8.341,-1.85,4,-0.132,-0.294,-0.019,5,24.644,-44.293,14.11
699494.0427,3,-0.514,10.555,-5.03,4,-0.004,-0.36,-0.024,5,25.33,-43.565,14.11
699494.0625,3,0.948,11.852,-0.474,4,0.061,-0.37,-0.008,5,26.013,-42.834,14.108
699494.0824,3,-1.259,7.377,-9.193,4,0.03,-0.301,0.041,5,25.98,-44.261,14.111
699494.1023,3,-1.07,20.447,-5.46,4,0.085,-0.186,0.053,5,24.663,-43.584,15.561
699494.1221,3,0.304,1.177,1.39,4,0.088,-0.075,0.108,5,24.01,-42.883,14.105
699494.142,3,-0.117,8.174,-2.355,4,-0.111,0.122,0.127,5,25.38,-41.428,15.556
699494.1618,3,-0.328,11.634,-6.171,4,0.055,0.171,0.091,5,24.728,-40.729,15.553
699494.1817,3,-0.938,14.213,-3.094,4,0.117,0.16,0.028,5,26.112,-38.556,14.821
699494.2016,3,-0.936,-2.556,-1.342,4,0.036,0.155,0.018,5,25.363,-42.14,14.83
699494.2214,3,-2.625,17.74,-4.908,4,-0.028,0.056,0.018,5,25.414,-40.001,15.553
699494.2413,3,0,13.065,-2.003,4,0.074,-0.103,0.039,5,23.395,-40.762,16.278
699494.2612,3,-0.215,4.405,-0.462,4,-0.042,-0.253,0.062,5,24.026,-42.172,14.827
699494.281,3,0.144,9.332,-4.714,4,-0.036,-0.229,0.062,5,24.042,-41.457,14.101
699494.3009,3,0.658,13.555,-4.537,4,0.094,-0.121,0.084,5,24.059,-40.742,14.099
699494.3208,3,-0.223,-0.636,-1.756,4,0.055,0.054,0.101,5,23.393,-40.759,14.824
699494.3407,3,0.689,22.294,-2.441,4,-0.008,0.242,0.069,5,24.742,-40.01,12.646
699494.3605,3,0.404,4.7,-0.043,4,0.044,0.363,0.059,5,22.057,-40.791,14.096
699494.3804,3,-0.538,5.697,-2.51,4,-0.028,0.344,0,5,23.41,-40.047,14.822
699494.4003,3,-0.055,12.227,-8.112,4,0.055,0.232,-0.059,5,24.728,-40.729,15.553
699494.4201,3,-0.56,13.945,-4.097,4,0.146,0.074,-0.105,5,22.725,-40.778,15.55
699494.44,3,-0.859,-0.254,-0.139,4,0.012,0.012,-0.114,5,24.777,-38.589,15.547
699494.4599,3,-0.526,17.109,-2.752,4,-0.099,-0.072,-0.102,5,24.106,-38.6,12.64
699494.4797,3,-0.89,10.012,0.036,4,-0.027,-0.178,-0.066,5,25.414,-40.001,15.553
699494.4996,3,-2.201,10.268,-3.285,4,-0.049,-0.231,-0.061,5,23.393,-40.761,15.552
699494.5195,3,-0.66,9.535,-3.979,4,0.009,-0.2,-0.083,5,24.759,-39.299,14.098
699494.5393,3,-0.541,14.24,-4.135,4,0.025,-0.134,-0.042,5,24.075,-40.03,14.098
699494.5592,3,-1.369,4.231,-1.728,4,0.029,-0.064,-0.036,5,24.757,-39.296,12.645
699494.5791,3,-1.716,13.151,-3.429,4,0.022,0.017,-0.044,5,25.392,-40.704,11.923
699494.599,3,-0.703,6.975,-3.027,4,0.033,0.111,-0.007,5,24.123,-37.886,12.639
699494.6188,3,-0.4,6.293,-2.381,4,0.006,0.099,-0.008,5,23.441,-38.618,14.093
699494.6387,3,0.385,13.232,-4.4,4,0,0.071,-0.07,5,24.774,-38.585,13.368
699494.6586,3,-0.072,10.954,-2.414,4,-0.008,0.026,-0.061,5,24.725,-40.724,13.374
699494.6784,3,-0.692,5.264,-1,4,-0.085,-0.009,-0.08,5,24.153,-36.458,11.909
699494.6983,3,-1.206,12.479,-2.364,4,-0.061,-0.089,-0.09,5,25.493,-36.432,14.091
699494.7182,3,0.256,8.748,-2.003,4,-0.027,-0.202,-0.051,5,22.791,-37.923,14.815
699494.738,3,-0.304,7.475,-2.522,4,-0.003,-0.286,-0.061,5,24.791,-37.871,13.367
699494.7579,3,-0.306,9.77,-3.235,4,0.023,-0.284,-0.068,5,25.443,-38.57,13.37
699494.7777,3,-0.376,9.174,-3.58,4,0.029,-0.268,-0.043,5,24.156,-36.464,14.088
699494.7976,3,-0.979,11.785,-4.051,4,-0.013,-0.252,-0.036,5,25.461,-37.857,14.095
699494.8175,3,0.94,10.988,-0.914,4,-0.017,-0.199,-0.011,5,24.106,-38.602,13.367
699494.8373,3,0,6.884,0.438,4,-0.102,-0.178,0.046,5,26.141,-37.128,13.367
699494.8572,3,-0.208,8.985,-1.898,4,-0.074,-0.167,0.019,5,25.525,-35.005,14.088
699494.8771,3,-1.187,9.002,-3.704,4,0.039,-0.211,-0.019,5,26.141,-37.128,13.367
699494.897,3,-0.404,7.734,-3.728,4,0.066,-0.238,0,5,26.808,-37.106,11.916
699494.9168,3,-0.359,14.158,-2.845,4,0.058,-0.277,0.002,5,26.19,-34.987,13.362
699494.9367,3,1.79,7.805,-1.244,4,0.038,-0.238,0.031,5,26.126,-37.839,13.368
699494.9566,3,0.261,7.231,-4.03,4,-0.01,-0.219,0.08,5,27.525,-34.953,12.639
699494.9764,3,-0.225,12.163,-5.965,4,0.072,-0.205,0.059,5,27.475,-37.091,11.917
699494.9963,3,-0.354,10.758,-3.596,4,0.122,-0.172,0.045,5,25.49,-36.426,11.913
699495.0162,3,-1.694,3.611,-3.218,4,0.024,-0.12,0.072,5,26.808,-37.106,11.916
699495.036,3,-2.005,3.34,-5.874,4,0.012,-0.106,0.07,5,27.492,-36.377,11.916
699495.0559,3,-1.108,21.483,-5.049,4,0.02,-0.083,0.114,5,26.155,-36.407,11.185
699495.0758,3,0.524,16.367,2.309,4,-0.037,-0.048,0.171,5,26.826,-36.397,13.367
699495.0956,3,1.084,-1.242,4.336,4,-0.248,-0.07,0.146,5,26.138,-37.12,10.461
699495.1155,3,-0.751,10.028,-4.183,4,-0.138,-0.046,0.085,5,26.106,-38.547,11.189
699495.1354,3,-1.314,16.14,-7.624,4,0.135,-0.18,0.138,5,25.47,-37.135,9.735
699495.1553,3,-1.452,12.976,0.258,4,0.184,-0.103,0.125,5,25.47,-37.135,9.735
699495.1751,3,-0.706,4.159,1.598,4,-0.014,0.012,0.184,5,25.47,-37.135,9.735
699495.195,3,1.149,-2.187,9.26,4,-0.07,0.035,0.168,5,24.802,-37.151,9.734
699495.2149,3,-1.78,21.947,-18.82,4,0.047,-0.031,0.149,5,22.784,-37.912,10.458
699495.2347,3,-2.374,7.243,-5.793,4,0.374,-0.035,0.066,5,23.453,-37.895,10.46
699495.2546,3,0.201,2.922,2.824,4,0.072,0.089,0.105,5,22.769,-38.629,11.913
699495.2745,3,1.936,14.831,-1.438,4,-0.186,0.15,0.143,5,22.736,-40.054,11.189
699495.2943,3,0.479,7.157,-2.639,4,-0.038,0.016,0.128,5,22.765,-38.623,9.007
699495.3142,3,-0.033,7.482,-5.958,4,0.047,0.006,0.048,5,21.416,-39.369,9.734
699495.3341,3,-0.502,12.983,-5.035,4,0.146,0.063,0.02,5,23.419,-39.323,11.189
699495.3539,3,-1.266,8.03,-2.589,4,0.102,0.103,0.045,5,23.421,-39.325,11.917
699495.3738,3,-2.974,14.125,-0.948,4,0.002,0.084,0.015,5,22.702,-41.481,11.192
699495.3936,3,-0.603,8.294,-0.727,4,-0.015,0.073,0.037,5,21.436,-38.661,11.909
699495.4135,3,-0.488,5.314,-1.347,4,0.009,-0.01,0.029,5,24.728,-40.729,15.553
699495.4334,3,-0.718,11.593,-7.456,4,0.064,0.018,-0.002,5,23.36,-42.188,14.827
699495.4533,3,-1.304,7.999,-3.249,4,0.16,0.059,-0.005,5,22.691,-42.206,15.553
699495.4731,3,-0.617,11.454,-1.711,4,0.041,0.139,-0.002,5,21.405,-40.092,13.367
699495.493,3,0.177,11.99,-1.972,4,-0.048,0.183,0.011,5,22.104,-38.651,13.364
699495.5129,3,-0.196,5.061,0.378,4,-0.06,0.183,0.02,5,20.738,-40.111,14.093
699495.5327,3,-0.184,8.758,-2.656,4,-0.077,0.127,-0.01,5,22.057,-40.791,14.096
699495.5526,3,-1.199,16.757,-3.18,4,-0.003,0.043,-0.042,5,22.055,-40.79,13.37
699495.5725,3,-1.835,9.842,0.534,4,0.022,-0.055,-0.044,5,20.035,-41.551,12.642
699495.5923,3,-1.01,13.752,-0.684,4,-0.075,-0.167,-0.041,5,21.388,-40.804,12.642
699495.6122,3,-0.089,7.853,-1.472,4,-0.088,-0.291,0.025,5,21.371,-41.518,12.643
699495.6321,3,0.172,6.999,-2.273,4,-0.044,-0.367,0.036,5,21.388,-40.805,13.368
699495.6519,3,0.44,10.732,-3.931,4,-0.005,-0.307,0.031,5,21.368,-41.513,11.189
699495.6712,3,0.967,9.94,-3.917,4,0.011,-0.241,0.052,5,22.673,-42.912,12.651
699495.6917,3,-0.263,9.169,-1.158,4,-0.016,-0.167,0.05,5,22.055,-40.79,13.37
699495.7115,3,0.019,15.924,-2.776,4,-0.063,-0.092,0.045,5,22.038,-41.504,13.371
699495.7314,3,1.426,9.301,0.452,4,-0.097,-0.049,0.105,5,22.021,-42.216,12.646
699495.7513,3,0.024,5.678,1.699,4,-0.171,0.023,0.09,5,21.355,-42.232,12.645
699495.7712,3,-0.919,12.148,-1.761,4,-0.136,0.105,0.024,5,24.706,-41.432,11.195
699495.791,3,-2.539,-0.244,-0.948,4,-0.049,0.148,0.029,5,20.717,-40.816,11.188
699495.8109,3,-1.486,16.532,-4.554,4,-0.005,0.132,-0.027,5,22.037,-41.499,11.919
699495.8308,3,0.964,14.362,-0.16,4,0.051,0.081,0.013,5,22.021,-42.216,12.646
699495.8506,3,0.51,2.611,-0.17,4,-0.1,-0.071,0.039,5,23.341,-42.896,12.653
699495.8705,3,-1.141,9.121,-4.7,4,-0.103,-0.232,-0.013,5,22.006,-42.929,12.65
699495.8904,3,-1.079,16.819,-3.556,4,0.049,-0.286,0.006,5,23.341,-42.897,13.379
699495.9102,3,-2.338,2.18,-1.596,4,0.022,-0.33,0.086,5,23.354,-42.177,10.471
699495.9301,3,0.1,16.247,-3.637,4,-0.042,-0.381,0.096,5,22.705,-41.486,12.646
699495.95,3,0.806,7.193,0.816,4,0.044,-0.277,0.189,5,22.003,-42.924,11.195
699495.9698,3,-0.995,6.477,-2.675,4,-0.019,-0.079,0.221,5,22.672,-42.909,11.925
699495.9897,3,-1.28,13.472,-6.434,4,0.151,0.138,0.184,5,21.32,-43.652,10.471
699496.0095,3,-0.39,12.826,-2.022,4,0.215,0.352,0.173,5,25.281,-45.705,14.114
699496.0294,3,-1.675,6.53,-0.742,4,0.069,0.368,0.173,5,21.986,-43.637,10.472
699496.0493,3,-1.869,15.596,-1.041,4,0.052,0.249,0.11,5,21.356,-42.235,14.098
699496.0692,3,0.991,7.329,0.517,4,0.068,0.165,0.156,5,21.306,-44.373,13.377
699496.089,3,0.014,6.217,-0.761,4,0.001,0.065,0.116,5,21.973,-44.356,12.653
699496.1089,3,1.448,4.884,-2.402,4,0.075,0.072,0.067,5,20.671,-42.963,13.374
699496.1288,3,0.665,14.584,-4.061,4,0.091,0.068,0.062,5,21.973,-44.357,13.379
699496.1486,3,0.089,9.263,-1.125,4,0.017,0.117,0.096,5,21.973,-44.356,12.653
699496.1685,3,-0.306,12.541,-1.192,4,-0.045,0.169,-0.007,5,21.326,-43.663,14.827
699496.1884,3,1.505,9.696,-0.502,4,-0.042,0.253,0.003,5,22.012,-42.938,17.007
699496.2082,3,-1.543,7.777,0.39,4,-0.121,0.205,-0.021,5,21.974,-44.359,14.105
699496.2281,3,-1.548,10.05,-0.823,4,-0.054,0.204,-0.086,5,23.309,-44.325,14.108
699496.248,3,-1.058,8.021,-1.627,4,0.008,0.202,-0.099,5,22.676,-42.917,14.828
699496.2678,3,-1.053,6.106,-1.216,4,0.012,0.133,-0.094,5,23.363,-42.192,17.007
699496.2877,3,-1.261,16.577,-2.594,4,0.019,0.041,-0.099,5,22.659,-43.631,14.83
699496.3076,3,0.727,4.623,0.017,4,0.078,-0.012,-0.065,5,23.376,-41.475,15.553
699496.3275,3,-0.395,10.478,-1.898,4,-0.091,-0.132,-0.075,5,23.329,-43.617,16.286
699496.3473,3,0.029,10.823,-3.541,4,-0.047,-0.299,-0.085,5,23.328,-43.614,14.832
699496.3672,3,0.565,5.262,-1.658,4,-0.036,-0.396,-0.048,5,23.376,-41.473,14.825
699496.3871,3,0.323,12.828,-3.422,4,-0.036,-0.391,-0.014,5,22.688,-42.201,13.374
699496.4069,3,1.268,15.558,-2.393,4,-0.002,-0.367,0.013,5,23.375,-41.472,14.101
699496.4268,3,0.849,5.02,1.866,4,0.002,-0.229,0.091,5,22.021,-42.216,12.646
699496.4467,3,-0.981,10.275,-1.699,4,-0.005,-0.07,0.069,5,22.708,-41.49,14.824
699496.4665,3,-1.608,7.159,-2.85,4,0.119,0.098,0.05,5,19.37,-41.57,14.093
699496.4864,3,-2.142,8.724,-4.319,4,0.123,0.182,0.052,5,21.371,-41.519,13.37
699496.5063,3,-1.871,12.541,-3.379,4,0.121,0.17,0.046,5,20.033,-41.548,11.916
699496.5261,3,-1.747,14.046,-0.68,4,0.034,0.101,0.086,5,19.402,-40.141,13.364
699496.546,3,0.648,3.582,2.374,4,-0.063,0.027,0.136,5,18.03,-41.597,11.913
699496.5659,3,-0.802,11.586,-3.228,4,-0.07,-0.013,0.102,5,20.721,-40.823,14.095
699496.5858,3,-0.481,12.299,-2.584,4,0.097,0.109,0.097,5,18.681,-42.294,11.916
699496.6056,3,0.038,11.029,-2.728,4,0.115,0.21,0.124,5,17.349,-42.332,14.091
699496.6255,3,-0.093,6.245,-0.983,4,0.078,0.219,0.091,5,18.031,-41.6,12.639
699496.6453,3,0.029,16.252,-0.452,4,0.055,0.206,0.09,5,17.38,-40.898,11.909
699496.6652,3,0.663,5.216,0.093,4,-0.009,0.167,0.112,5,18.03,-41.597,11.913
699496.6851,3,1.409,23.763,-4.642,4,-0.03,0.103,0.062,5,18.03,-41.597,11.913
699496.7049,3,1.665,2.733,2.237,4,0.089,0.099,0.009,5,18.748,-39.442,12.636
699496.7248,3,0.414,11.122,-2.95,4,-0.058,0.136,0.011,5,16.714,-40.919,13.361
699496.7447,3,-1.373,6.36,-4.293,4,0.027,0.127,-0.04,5,14.68,-42.4,14.812
699496.7645,3,-0.562,17.255,-2.749,4,0.047,0.219,-0.049,5,15.379,-40.95,12.633
699496.7844,3,0.62,5.276,2.606,4,-0.053,0.264,-0.011,5,16.682,-42.349,14.09
699496.8043,3,-0.275,9.437,-2.218,4,-0.164,0.221,-0.053,5,14.662,-43.108,12.637
699496.8241,3,-0.136,10.564,-1.969,4,0.011,0.184,-0.113,5,17.332,-43.044,13.368
699496.844,3,-1.012,5.602,0.668,4,0.075,0.27,-0.119,5,16.681,-42.346,12.637
699496.8639,3,-1.615,11.466,-4.676,4,0.052,0.277,-0.114,5,18.033,-41.603,14.091
699496.8838,3,-0.376,9.983,-1.529,4,0.102,0.193,-0.158,5,17.365,-41.617,13.364
699496.9036,3,-0.727,12.591,2.431,4,-0.064,0.093,-0.127,5,19.405,-40.144,14.815
699496.9235,3,0.285,6.843,-0.636,4,-0.124,-0.087,-0.105,5,20.036,-41.554,14.095
699496.9434,3,-0.481,10.806,-5.575,4,-0.016,-0.23,-0.125,,,,
699496.9632,3,-0.378,9.925,-4.013,4,0.161,-0.221,-0.12,5,18.719,-40.875,15.544
699496.9831,3,-0.124,14.74,-1.73,4,0.053,-0.194,-0.046,5,19.37,-41.57,14.093
699497.003,3,-0.916,3.601,-0.065,4,-0.031,-0.177,-0.035,5,22.025,-42.221,14.824
699497.0228,3,-0.275,15.407,-2.395,4,-0.066,-0.11,-0.046,5,19.339,-42.999,15.55
699497.0427,3,0.823,9.15,0.376,4,-0.037,-0.012,0.015,5,20.006,-42.982,14.824
699497.0626,3,-0.01,8.475,-0.514,4,-0.109,0.034,0.015,5,19.354,-42.287,15.547
699497.0824,3,-0.144,11.038,-2.307,4,-0.013,0.046,-0.025,5,20.021,-42.27,14.821
699497.1023,3,0.62,7.54,-0.737,4,0.051,0.077,-0.063,5,20.724,-40.828,16.273
699497.1222,3,-0.462,7.322,-3.374,4,0.016,0.1,-0.058,5,20.691,-42.256,16.277
699497.142,3,-1.565,11.952,-4.905,4,0.029,0.099,-0.103,5,21.997,-43.657,18.46
699497.1619,3,-0.687,12.636,-1.342,4,0.039,0.095,-0.11,5,22.647,-44.353,18.463
699497.1818,3,0.081,5.824,2.029,4,-0.077,0.065,-0.063,5,20.674,-42.967,15.553
699497.2017,3,-1.23,10.495,-0.565,4,-0.143,-0.073,-0.093,5,22.043,-41.51,16.277
699497.2215,3,-0.345,10.997,-3.797,4,-0.002,-0.199,-0.13,5,22.711,-41.495,17.004
699497.2414,3,-0.782,8.865,-2.264,4,0.074,-0.325,-0.112,5,22.745,-40.071,17.728
699497.2613,3,-1.096,3.807,-2.022,4,0.061,-0.393,-0.032,5,22.726,-40.779,16.277
699497.2811,3,-0.096,14.465,-4.453,4,-0.01,-0.452,-0.027,5,24.094,-39.32,16.275
699497.301,3,-1.101,16.152,0.117,4,-0.027,-0.395,0.028,5,24.712,-41.441,14.827
699497.3209,3,0.402,3.702,5.415,4,-0.13,-0.263,0.092,5,24.011,-42.886,15.558
699497.3407,3,0.797,6.872,-0.617,4,-0.146,-0.181,0.072,5,24.077,-40.031,14.822
699497.3606,3,-0.148,14.828,-6.281,4,0.096,-0.037,0.004,5,25.365,-42.143,16.284
699497.3805,3,-0.089,9.765,-2.821,4,0.215,0.145,0.023,5,24.728,-40.727,14.825
699497.4003,3,-2.108,2.859,-1.431,4,0.094,0.209,0.001,5,23.425,-39.333,14.821
699497.4202,3,-1.756,16.774,-3.551,4,-0.006,0.219,-0.026,5,24.062,-40.747,16.278
699497.4401,3,-0.586,10.99,1.122,4,-0.036,0.142,-0.009,5,26.08,-39.983,14.825
699497.46,3,-0.057,5.855,2.053,4,-0.151,0.004,0.003,5,24.777,-38.589,15.547
699497.4798,3,-0.651,7.564,0.531,4,-0.098,-0.122,0.002,5,25.414,-40.001,15.553
699497.4997,3,-0.225,17.602,-5.137,4,0.064,-0.136,-0.002,5,25.414,-40.001,15.553
699497.5196,3,-0.261,5.992,-0.512,4,0.184,-0.138,0.011,5,25.414,-40.001,15.553
699497.5394,3,-1.601,2.575,-2.73,4,0.039,-0.089,0.041,5,24.091,-39.316,14.096
699497.5593,3,0.237,21.031,-5.712,4,0.024,-0.116,0.039,5,25.412,-39.998,14.101
699497.5792,3,0.263,3.73,2.185,4,0.035,-0.071,0.072,5,24.077,-40.031,14.822
699497.599,3,-0.002,10.464,-2,4,-0.116,-0.026,0.073,5,24.744,-40.013,14.099
699497.6189,3,-0.641,9.38,-1.63,4,-0.005,-0.056,0.05,5,24.107,-38.603,14.093
699497.6388,3,-0.141,9.87,-2.158,4,0.027,-0.059,0.042,5,24.742,-40.01,12.646
699497.6586,3,-0.754,13.579,-2.673,4,0.036,-0.116,0.029,5,24.71,-41.44,14.102
699497.6785,3,-1.467,1.196,-1.266,4,0.058,-0.087,0.039,5,24.074,-40.028,13.371
699497.6984,3,0.598,13.95,-3.726,4,0.002,-0.051,0.03,5,24.739,-40.005,11.192
699497.7182,3,-0.352,11.474,1.218,4,0.033,0.063,0.075,5,23.407,-40.044,13.371
699497.7381,3,0.811,8.045,-0.28,4,-0.075,0.195,0.091,5,24.074,-40.028,13.371
699497.758,3,-0.103,9.858,-1.213,4,-0.045,0.172,0.007,5,23.407,-40.044,13.371
699497.7779,3,-0.103,7.028,0.483,4,0.071,0.23,-0.022,5,24.725,-40.724,13.374
699497.7977,3,-1.077,11.665,-3.797,4,0.046,0.208,-0.044,5,25.395,-40.71,14.102
699497.8176,3,-1.622,7.793,-4.362,4,0.137,0.089,-0.066,5,24.06,-40.744,14.824
699497.8374,3,-2.029,9.143,-4.219,4,0.084,-0.049,-0.074,5,22.704,-41.483,11.92
699497.8573,3,-1.117,14.869,-2.168,4,-0.026,-0.204,-0.037,5,23.39,-40.755,12.646
699497.8772,3,0.782,5.932,2.773,4,-0.133,-0.34,0.024,5,24.042,-41.457,14.101
699497.897,3,0.519,9.971,-1.242,4,-0.201,-0.397,0.017,5,24.074,-40.028,13.371
699497.9169,3,0.148,8.877,-1.744,4,-0.005,-0.299,0.028,5,23.39,-40.756,13.373
699497.9368,3,-0.495,10.239,-3.482,4,0.101,-0.099,0.053,5,24.055,-40.736,11.92
699497.9566,3,-0.653,15.087,-5.896,4,0.161,0.021,0.056,5,24.725,-40.724,13.374
699497.9765,3,-0.301,3.604,-3.032,4,0.148,0.118,0.039,5,23.39,-40.756,13.373
699497.9964,3,-0.909,16.422,-3.08,4,0.047,0.151,0.011,5,24.023,-42.169,13.376
699498.0163,3,0.191,7.954,0.785,4,-0.011,0.167,0.053,5,23.39,-40.755,12.646
699498.0361,3,0.089,8.337,-2.077,4,-0.087,0.081,0.018,5,24.677,-42.865,13.38
699498.056,3,-0.476,6.86,-2.601,4,0.044,0.027,-0.03,5,22.725,-40.776,14.822
699498.0759,3,-0.83,0.854,-3.101,4,0.112,0.05,-0.04,5,23.358,-42.186,14.102
699498.0957,3,0.89,30.719,-5.128,4,0.095,-0.029,-0.021,5,24.692,-42.151,12.651
699498.1156,3,-2.029,-1.393,2.168,4,0.079,-0.112,0.002,5,25.38,-41.426,14.828
699498.1355,3,-1.065,6.197,-2.874,4,-0.061,-0.172,-0.059,5,24.06,-40.746,15.552
699498.1553,3,-1.235,16.472,-3.936,4,0.055,-0.224,-0.018,5,24.712,-41.441,14.827
699498.1752,3,0.215,8.578,-0.349,4,0.053,-0.264,0.061,5,23.378,-41.476,16.28
699498.1951,3,-0.347,8.136,-2.883,4,-0.05,-0.321,0.056,5,22.705,-41.487,13.373
699498.2149,3,-0.725,9.502,-2.328,4,-0.003,-0.222,0.061,5,23.41,-40.048,15.55
699498.2348,3,-0.11,9.444,-1.316,4,0.003,-0.09,0.091,5,24.709,-41.438,13.376
699498.2547,3,-0.711,11.916,-1.115,4,-0.048,0.018,0.108,5,24.059,-40.742,14.099
699498.2745,3,-0.924,2.701,3.551,4,-0.022,0.155,0.067,5,22.742,-40.063,14.821
699498.2944,3,-0.385,21.301,-6.662,4,0.034,0.219,0.042,5,24.727,-40.726,14.101
699498.3143,3,-0.45,8.284,-1.797,4,0.181,0.177,0.053,5,24.091,-39.316,14.096
699498.3342,3,-1.292,3.584,0.352,4,0.042,0.194,0.053,5,26.112,-38.556,14.821
699498.354,3,-1.146,9.263,-4.628,4,-0.045,0.084,0.034,5,24.06,-40.744,14.824
699498.3739,3,0.249,14.917,-3.039,4,0.016,0,0.018,5,24.742,-40.012,13.373
699498.3938,3,0.45,7.595,0.041,4,-0.015,-0.023,0.028,5,25.41,-39.995,12.648
699498.4136,3,-0.045,5.317,-1.632,4,-0.088,-0.027,0.041,5,23.421,-39.325,11.917
699498.4335,3,-0.641,12.948,-4.778,4,-0.014,-0.056,-0.003,5,24.075,-40.03,14.098
699498.4533,3,-0.952,11.837,-1.842,4,0.058,-0.023,-0.01,5,23.392,-40.758,14.099
699498.4732,3,-0.278,8.399,-1.531,4,0,0.044,0.009,5,23.439,-38.617,13.367
699498.4931,3,0.089,7.324,-3.247,4,-0.028,0.018,0.002,5,22.722,-40.773,13.371
699498.5129,3,-1.031,9.94,-3.874,4,0.03,0.008,-0.016,5,24.712,-41.443,15.555
699498.5328,3,-0.144,11.758,-1.201,4,0.013,0.013,-0.042,5,24.057,-40.741,13.373
699498.5527,3,0.175,12.512,-0.361,4,-0.036,0.005,-0.02,5,25.394,-40.707,12.65
699498.5725,3,-1.053,3.745,-2.259,4,-0.059,-0.048,-0.026,5,24.042,-41.457,14.101
699498.5924,3,-1.299,15.986,-5.683,4,0.022,-0.093,-0.049,5,24.074,-40.028,13.371
699498.6123,3,0.249,7.999,-0.993,4,0.093,-0.083,-0.02,5,24.059,-40.742,14.099
699498.6322,3,0.464,9.301,-1.412,4,-0.026,-0.059,-0.002,5,25.41,-39.996,13.374
699498.652,3,-1.137,10.169,-1.685,4,-0.024,-0.028,-0.011,5,24.757,-39.296,12.645
699498.6719,3,-1.06,8.844,-2.264,4,0.009,0.028,-0.033,5,24.709,-41.437,12.65
699498.6918,3,-1.819,3.568,-2.816,4,0.007,0.011,-0.019,5,24.042,-41.457,14.101
699498.7116,3,-0.493,19.391,-3.979,4,0.04,-0.022,-0.002,5,26.06,-40.692,13.376
699498.7315,3,-0.227,6.652,0.641,4,-0.028,-0.028,0.014,5,25.394,-40.709,13.376
699498.7514,3,-0.146,14.323,-1.278,4,-0.131,-0.07,0.014,5,24.727,-40.726,14.101
699498.7712,3,0.828,7.963,0.433,4,-0.067,-0.048,0.044,5,24.756,-39.293,11.919
699498.7911,3,1.041,10.294,-0.443,4,-0.094,-0.082,0.04,5,24.744,-40.013,14.099
699498.811,3,-0.05,9.59,-1.493,4,-0.043,-0.114,0.02,5,24.057,-40.739,12.646
699498.8308,3,-1.012,8.753,-4.81,4,0.012,-0.093,-0.01,5,26.062,-40.694,14.102
699498.8507,3,-0.797,11.399,-5.369,4,0.046,-0.125,-0.008,5,25.375,-41.418,11.925
699498.8706,3,0.77,7.042,-2.419,4,0.002,-0.154,0.029,5,24.057,-40.741,13.373
699498.8905,3,2.364,7.114,2.835,4,-0.154,-0.121,0.026,5,24.725,-40.724,13.374
699498.9103,3,0.5,18.061,-4.362,4,-0.173,-0.013,0.001,5,24.039,-41.451,11.922
699498.9302,3,0.077,8.767,-3.855,4,-0.039,0.076,0.004,5,24.077,-40.031,14.822
699498.9501,3,-1.833,3.331,-3.034,4,0.151,0.131,-0.046,5,24.04,-41.454,12.648
699498.9699,3,-0.625,9.287,-4.278,4,0.165,0.181,-0.029,5,24.043,-41.458,14.825
699498.9898,3,-0.708,13.239,-4.477,4,0.14,0.106,-0.057,5,24.727,-40.726,14.101
699499.0097,3,-0.847,10.509,-2.991,4,0.046,0.006,-0.061,5,24.091,-39.316,14.096
699499.0295,3,-1.177,2.742,2.063,4,-0.052,-0.115,-0.059,5,24.057,-40.741,13.373
699499.0494,3,0.234,10.536,-0.84,4,-0.105,-0.236,-0.054,5,24.776,-38.586,14.095
699499.0692,3,-0.864,16.489,-0.826,4,-0.009,-0.337,-0.026,5,26.057,-40.686,11.195
699499.0891,3,-0.438,7.511,-0.864,4,0.062,-0.359,0.022,5,24.074,-40.027,12.645
699499.109,3,-0.636,7.724,-1.357,4,0.077,-0.445,0.014,5,25.441,-38.565,11.917
699499.1288,3,-0.543,10.82,-2.527,4,0.139,-0.439,0.074,5,25.443,-38.568,12.643
699499.1487,3,0.541,13.517,-3.367,4,0.094,-0.374,0.103,5,25.409,-39.992,11.922
699499.1686,3,0.16,9.157,-0.426,4,0.031,-0.233,0.143,5,26.027,-42.12,13.379
699499.1885,3,-0.079,5.671,-0.658,4,-0.066,-0.017,0.152,5,26.695,-42.102,12.654
699499.2083,3,0.05,8.638,-2.579,4,-0.063,0.112,0.13,5,24.074,-40.028,13.371
699499.2282,3,0.632,16.513,-2.718,4,0,0.225,0.114,5,25.444,-38.571,14.096
699499.2481,3,0.452,6.896,0.376,4,0.003,0.313,0.111,5,23.438,-38.612,11.914
699499.2679,3,-0.804,7.499,-2.273,4,-0.042,0.336,0.034,5,24.724,-40.72,11.922
699499.2878,3,-1.034,9.296,-2.694,4,0.061,0.347,0.008,5,24.057,-40.741,13.373
699499.3077,3,-0.199,10.72,-2.259,4,0.05,0.338,-0.015,5,24.074,-40.027,12.645
699499.3275,3,-1.534,7.368,-1.699,4,0.002,0.241,-0.04,5,23.439,-38.617,13.367
699499.3474,3,-0.881,13.158,-2.759,4,-0.006,0.092,-0.055,5,22.772,-38.635,14.091
699499.3673,3,-0.12,5.422,-1.737,4,-0.002,-0.087,-0.08,5,23.39,-40.756,13.373
699499.3871,3,-0.208,16.838,-3.508,4,0.008,-0.18,-0.063,5,23.424,-39.331,14.096
699499.407,3,-0.227,7.119,1.553,4,0.009,-0.181,-0.015,5,25.423,-39.276,11.192
699499.4269,3,0.029,5.843,-1.261,4,-0.086,-0.224,-0.026,5,23.422,-39.33,13.37
699499.4468,3,-1.515,13.898,-6.157,4,0.013,-0.268,-0.048,5,24.744,-40.013,14.099
699499.4666,3,-3.328,11.576,-0.761,4,0.122,-0.191,-0.038,5,24.106,-38.602,13.367
699499.4865,3,0.876,2,0.541,4,-0.034,-0.139,0.025,5,25.423,-39.276,11.192
699499.5064,3,0.297,12.301,-3.759,4,-0.076,-0.133,-0.024,5,24.727,-40.726,14.101
699499.5262,3,-0.278,8.664,-2.424,4,0.05,-0.016,0.003,5,22.771,-38.634,13.365
699499.5461,3,-0.672,8.861,-1.713,4,-0.044,-0.021,-0.047,5,24.103,-38.596,11.186
699499.566,3,-0.287,13.218,0.108,4,-0.056,-0.06,-0.043,5,25.407,-39.989,10.469
699499.5858,3,1.491,8.396,1.61,4,-0.1,-0.16,0.009,5,24.725,-40.723,12.648
699499.6057,3,-0.368,8.296,-2.541,4,-0.098,-0.337,-0.031,5,24.725,-40.723,12.648
699499.6256,3,-0.502,12.438,-5.492,4,0.063,-0.345,-0.033,5,23.387,-40.749,10.468
699499.6454,3,-0.4,7.329,-0.275,4,0.112,-0.23,0.006,5,24.088,-39.31,11.917
699499.6653,3,0.548,10.335,1.094,4,-0.008,-0.128,0.022,5,24.739,-40.005,11.192
699499.6851,3,0.055,14.364,-7.59,4,-0.027,-0.056,0.012,5,24.072,-40.024,11.919
699499.705,3,-1.924,2.687,-2.74,4,0.069,-0.029,-0.013,5,23.404,-40.038,11.191
699499.7249,3,-1.627,8.14,-2.816,4,0.063,0.017,0.009,5,24.739,-40.005,11.192
699499.7448,3,-0.328,15.666,-0.869,4,-0.01,0.022,0.033,5,22.736,-40.053,10.464
699499.7646,3,0.1,6.714,0.541,4,-0.05,-0.072,0.036,5,22.736,-40.053,10.464
699499.7845,3,-0.718,9.169,-2.826,4,-0.047,-0.276,-0.026,5,22.736,-40.053,10.464
699499.8044,3,-1.237,9.119,-3.642,4,0.102,-0.34,0.041,5,25.41,-39.995,12.648
699499.8242,3,-0.05,11.16,-2.247,4,0.111,-0.349,0.047,5,25.435,-38.557,8.286
699499.8441,3,0.749,6.587,-0.464,4,0.074,-0.294,0.073,5,24.739,-40.005,11.192
699499.864,3,-0.555,14.646,-3.917,4,0.013,-0.208,0.096,5,24.75,-39.285,8.287
699499.8838,3,-1.084,2.804,-1.524,4,0.088,-0.127,0.062,5,24.721,-40.715,9.743
699499.9037,3,-0.433,11.722,-2.615,4,0.06,0.01,0.075,5,24.738,-40.002,9.741
699499.9236,3,-0.541,14.058,-0.318,4,0.064,0.133,0.086,5,24.739,-40.005,11.192
699499.9434,3,-0.117,6.279,1.713,4,-0.016,0.232,0.094,5,22.719,-40.767,11.191
699499.9633,3,-0.806,9.937,-3.178,4,-0.048,0.204,0.034,5,22.069,-40.071,11.188
699499.9832,3,-1.211,10.275,-4.259,4,0.112,0.134,0.018,5,24.086,-39.307,10.464
699500.003,3,-0.122,9.074,-2.603,4,0.116,0.099,-0.014,5,24.054,-40.735,11.192
699500.0229,3,0.077,9.595,-0.237,4,0.018,0.112,-0.018,5,24.722,-40.717,10.469
699500.0428,3,0.285,10.481,-1.472,4,-0.037,0.106,-0.005,5,24.071,-40.022,11.191
699500.0627,3,-1.266,5.109,-2.39,4,-0.037,0.046,-0.047,5,23.355,-42.18,11.923
699500.0825,3,-0.962,11.313,-3.563,4,0.001,0.026,-0.065,5,24.722,-40.717,10.469
699500.1024,3,1.015,13.517,-2.209,4,0.016,0.028,-0.044,5,25.342,-42.842,10.477
699500.1223,3,0.598,6.827,1.156,4,-0.056,-0.018,-0.027,5,23.338,-42.891,11.198
699500.1421,3,-0.89,7.624,-0.419,4,-0.094,-0.031,-0.044,5,24.706,-41.432,11.195
699500.162,3,-1.419,11.792,-4.19,4,-0.008,-0.032,-0.06,5,27.333,-43.52,15.565
699500.1818,3,-2.075,9.657,-3.163,4,0.083,0.005,-0.081,5,25.359,-42.133,11.926
699500.2017,3,-0.237,9.696,-2.594,4,0.057,0.038,-0.069,5,26.724,-40.666,9.746
699500.2216,3,-0.692,7.674,-1.503,4,-0.011,-0.012,-0.044,,,,
699500.2414,3,-1.022,9.04,-2.833,4,-0.071,-0.042,-0.044,5,24.675,-42.86,11.928
699500.2613,3,-0.502,8.674,-3.113,4,-0.05,-0.055,-0.054,5,24.706,-41.431,10.471
699500.2812,3,-0.921,7.99,-1.632,4,-0.01,-0.023,-0.046,5,25.407,-39.99,11.194
699500.301,3,0.469,19.305,-0.395,4,-0.03,-0.04,-0.024,5,25.308,-44.27,11.205
699500.3209,3,1.283,5.281,1.845,4,-0.032,-0.138,-0.035,5,24.655,-43.57,9.75
699500.3408,3,1.077,6.322,-2.096,4,-0.038,-0.229,-0.052,5,24.706,-41.431,10.471
699500.3607,3,-0.553,12.246,-5.425,4,0.099,-0.249,-0.082,5,26.009,-42.827,11.201
699500.3805,3,-0.737,8.54,-5.585,4,0.161,-0.154,-0.064,5,26.01,-42.828,11.929
699500.4004,3,-1.144,11,-3.424,4,0.084,-0.123,-0.071,5,25.374,-41.415,10.472
699500.4203,3,-0.041,11.155,-0.94,4,-0.015,-0.09,-0.069,5,26.009,-42.825,10.477
699500.4401,3,0.16,5.642,-0.787,4,-0.118,-0.121,-0.077,5,26.709,-41.382,10.474
699500.46,3,-1.378,15.73,-2.276,4,-0.065,-0.142,-0.094,5,26.057,-40.686,11.195
699500.4799,3,-0.668,9.294,-0.495,4,0.016,-0.137,-0.072,5,28.026,-42.064,10.478
699500.4997,3,0.39,10.201,-1.912,4,-0.031,-0.238,-0.099,5,24.672,-42.856,9.749
699500.5196,3,-0.108,7.308,-0.524,4,0.041,-0.319,-0.091,5,26.709,-41.383,11.198
699500.5395,3,-1.055,6.547,-4.556,4,0.052,-0.32,-0.109,5,26.009,-42.825,10.477
699500.5593,3,-1.12,15.254,-7.798,4,0.104,-0.351,-0.141,5,26.727,-40.671,11.925
699500.5792,3,-1.44,6.516,-1.821,4,0.178,-0.356,-0.124,5,27.359,-42.082,11.201
699500.5991,3,-0.759,12.225,0.144,4,-0.071,-0.415,-0.083,5,27.376,-41.368,11.2
699500.619,3,-1.18,5.793,1.369,4,-0.143,-0.601,-0.051,5,27.393,-40.652,10.474
699500.6388,3,-0.928,14.115,-2.051,4,-0.115,-0.679,-0.036,5,25.388,-40.698,9.018
699500.6587,3,0.476,14.998,-1.57,4,0.019,-0.662,-0.032,5,28.023,-42.061,9.026
699500.6786,3,0.179,3.683,-0.349,4,0.063,-0.585,0.009,5,27.39,-40.649,9.021
699500.6984,3,0.057,10.438,-2.941,4,0.047,-0.529,0.009,5,26.073,-39.97,9.743
699500.7183,3,0.44,7.726,-2.331,4,0.134,-0.425,0.031,5,26.721,-40.663,8.293
699500.7382,3,-0.835,9.677,-3.628,4,0.09,-0.305,-0.009,5,26.755,-39.238,9.016
699500.758,3,-1.034,11.297,-3.601,4,0.096,-0.17,-0.009,5,26.726,-40.668,10.472
699500.7779,3,-1.12,9.648,-1.582,4,0.047,-0.095,-0.002,5,27.425,-39.227,11.195
699500.7978,3,-0.701,7.947,0.024,4,-0.054,-0.193,-0.008,5,26.057,-40.685,10.471
699500.8176,3,0.538,6.956,-1.967,4,-0.094,-0.385,-0.002,5,26.703,-41.373,6.842
699500.8375,3,0.084,18.659,-3.34,4,-0.015,-0.496,-0.003,5,27.406,-39.937,9.019
699500.8574,3,-0.625,7.702,0.651,4,0.058,-0.516,0.039,5,26.085,-39.252,7.562
699500.8772,3,0.689,6.059,-2.254,4,-0.017,-0.529,0.025,5,25.369,-41.411,8.293
699500.8971,3,-0.811,12.768,-5.606,4,0.063,-0.496,0.039,5,25.403,-39.984,8.29
699500.917,3,0.167,8.808,-2.125,4,0.111,-0.392,0.057,5,26.735,-39.944,6.113
699500.9368,3,-0.416,8.444,-1.376,4,-0.014,-0.32,0.04,5,26.752,-39.232,6.837
699500.9567,3,-1.464,10.292,-1.529,4,-0.034,-0.247,0.044,5,26.1,-38.536,6.833
699500.9766,3,-1.316,13.771,-2.022,4,0.018,-0.199,0.039,5,26.767,-38.518,6.108
699500.9964,3,-1.163,4.788,0.44,4,0.027,-0.204,0.017,5,24.701,-41.426,8.292
699501.0163,3,-0.991,8.171,-2.879,4,0.03,-0.287,-0.004,5,28.009,-42.775,9.755
699501.0362,3,-1.184,17.118,-4.25,4,0.104,-0.345,0.017,5,24.046,-40.723,6.11
699501.0561,3,-0.632,7.25,-0.799,4,0.089,-0.382,0.062,5,30.698,-42.001,11.206
699501.0753,3,1.027,8.449,-1.941,4,-0.026,-0.451,0.015,5,26.05,-40.674,6.113
699501.0958,3,0.644,9.117,-2.484,4,0.013,-0.419,0.046,5,24.013,-42.151,6.113
699501.1157,3,-0.897,10.038,-1.876,4,0.04,-0.327,0.046,5,24.699,-41.422,6.839
699501.1355,3,-1.17,5.25,-2.886,4,0.05,-0.297,-0.002,5,24.747,-39.278,5.382
699501.1554,3,-0.457,17.3,-3.553,4,0.061,-0.332,-0.002,5,28.049,-40.62,3.938
699501.1753,3,-0.141,7.738,0.136,4,0.072,-0.357,0.05,5,26.079,-39.241,3.204
699501.1951,3,-2.242,3.666,-1.96,4,-0.015,-0.422,-0.002,5,26.047,-40.669,3.934
699501.215,3,-1.144,13.07,-4.556,4,0.064,-0.42,0.017,5,24.73,-39.99,4.657
699501.2349,3,-0.754,14.922,-1.725,4,0.09,-0.4,0.04,5,26.065,-39.958,4.659
699501.2548,3,0.414,5.944,1.354,4,-0.03,-0.446,0.061,5,24.026,-41.432,3.932
699501.2746,3,-0.199,7.363,-1.507,4,-0.064,-0.522,0.022,5,25.348,-42.116,4.663
699501.2945,3,0.39,11.555,-3.695,4,0.052,-0.562,0.075,5,26.031,-41.385,4.662
699501.3144,3,0.177,12.026,-3.221,4,0.094,-0.566,0.07,5,25.363,-41.4,3.935
699501.3342,3,-0.069,5.171,-0.969,4,0.051,-0.525,0.04,5,26.682,-42.081,3.938
699501.3541,3,-0.648,8.978,-2.426,4,0.012,-0.433,0.056,5,25.38,-40.686,3.934
699501.374,3,-0.505,13.536,-2.398,4,0.051,-0.343,0.078,5,24.698,-41.418,5.386
699501.3938,3,-1.165,5.594,1.565,4,0.029,-0.318,0.04,5,24.043,-40.718,3.931
699501.4137,3,-1.735,9.488,-4.613,4,-0.028,-0.325,0.008,5,24.695,-41.415,3.934
699501.4336,3,-0.349,17.145,-1.778,4,0.056,-0.319,0.028,5,26.031,-41.385,4.662
699501.4535,3,0.538,4.039,2.685,4,0.041,-0.36,0.062,5,23.358,-41.444,2.48
699501.4733,3,0.723,9.945,-1.297,4,-0.113,-0.464,-0.009,5,25.378,-40.683,2.481
699501.4932,3,0.172,11.842,-3.082,4,0.042,-0.53,0.034,5,24.695,-41.414,3.207
699501.5131,3,-0.601,8.277,-2.962,4,0.107,-0.562,0.014,5,24.71,-40.698,2.48
699501.5329,3,-0.747,7.982,-3.343,4,0.077,-0.601,-0.04,5,24.01,-42.145,3.207
699501.5528,3,0.081,8.813,-2.85,4,0.069,-0.585,0.017,5,24.728,-39.989,3.931
699501.5726,3,-0.481,12.613,-2.898,4,0.02,-0.602,0.056,5,23.358,-41.444,2.48
699501.5925,3,-0.763,7.604,-0.603,4,-0.002,-0.583,0.028,5,26.028,-41.38,2.483
699501.6124,3,-0.584,6.339,-1.194,4,-0.014,-0.507,0.007,5,26.064,-39.955,3.206
699501.6322,3,-0.246,16.834,-1.785,4,0.04,-0.424,0.026,5,26.077,-39.24,2.478
699501.6521,3,-1.05,6.963,1.144,4,0.084,-0.447,0.075,5,24.742,-39.272,2.477
699501.672,3,-0.842,9.265,-3.348,4,0.038,-0.585,-0.014,5,24.022,-41.425,1.027
699501.6918,3,-0.069,10.449,-5.25,4,0.17,-0.618,0.004,5,23.373,-40.727,1.752
699501.7117,3,-0.428,10.014,-3.525,4,0.171,-0.549,0.052,5,24.706,-40.691,-0.426
699501.7316,3,-1.362,8.014,-1.07,4,0.049,-0.49,0.033,5,22.07,-39.334,1.746
699501.7515,3,0.407,8.215,-0.916,4,-0.025,-0.436,0.033,5,23.387,-40.01,-0.429
699501.7713,3,-0.459,25.73,0.179,4,-0.034,-0.437,0.057,5,24.754,-38.551,-0.432
699501.7912,3,0.548,-3.498,5.726,4,-0.031,-0.418,0.048,5,23.389,-40.013,1.024
699501.8111,3,-2.367,2.886,-2.273,4,-0.047,-0.403,-0.043,5,22.734,-39.313,-0.432
699501.8309,3,-2.096,20.152,-7.439,4,0.289,-0.315,-0.036,5,24.072,-39.285,1.749
699501.8508,3,-2.711,9.698,-2.319,4,0.358,-0.415,0.023,5,22.07,-39.334,1.746
699501.8707,3,-1.979,2.718,-1.101,4,0.113,-0.632,-0.108,5,22.086,-38.62,1.016
699501.8905,3,-0.213,11.529,-3.771,4,0.024,-0.687,-0.016,5,23.372,-40.724,0.299
699501.9104,3,-1.912,12.902,-1.218,4,0.061,-0.681,0.111,5,23.419,-38.583,-0.433
699501.9303,3,-3.003,8.195,1.067,4,-0.019,-0.836,0.047,5,22.083,-38.615,-1.161
699501.9501,3,-0.794,8.176,-1.498,4,-0.038,-1.125,0.031,5,22.067,-39.33,-0.433
699501.97,3,2.713,13.189,-2.367,4,0.061,-1.503,0.158,5,21.399,-39.342,-1.888
699501.9899,3,2.766,13.192,-2.73,4,0.118,-1.681,0.222,5,20.712,-40.067,-4.065
699502.0097,3,2.646,3.297,-3.08,4,0.112,-1.46,0.188,5,22.714,-40.019,-3.336
699502.0296,3,1.756,16.721,-4.716,4,0.182,-0.92,0.182,5,22.714,-40.019,-3.336
699502.0495,3,-0.514,10.122,-3.4,4,0.267,-0.414,0.249,5,22.714,-40.019,-3.336
699502.0694,3,0.62,7.585,0.555,4,0.159,-0.12,0.156,5,20.744,-38.641,-3.343
699502.0892,3,0.785,4.293,2.323,4,0.113,0.087,0.088,5,21.379,-40.048,-4.79
699502.1091,3,-2.644,12.62,-1.62,4,0.019,0.256,0.141,5,22.063,-39.322,-3.339
699502.129,3,-4.104,11.107,-4.065,4,0.149,0.156,0.034,5,22.731,-39.308,-2.611
699502.1488,3,-3.245,7.025,-1.976,4,0.19,-0.122,-0.093,5,20.746,-38.644,-2.617
699502.1687,3,-1.737,10.906,-2.438,4,0.137,-0.463,-0.005,5,21.396,-39.337,-3.34
699502.1885,3,-1.18,12.78,-0.928,4,0.089,-0.852,0.095,5,20.044,-40.085,-3.34
699502.2084,3,-0.507,1.809,-1.333,4,0.047,-1.166,0.101,5,20.073,-38.654,-5.524
699502.2283,3,0.077,15.659,-4.817,4,0.083,-1.279,0.127,5,20.044,-40.085,-3.34
699502.2481,3,0.952,14.974,-1.974,4,0.207,-1.235,0.234,5,20.024,-40.793,-5.518
699502.268,3,1.735,6.066,0.725,4,0.116,-1.174,0.235,5,18.706,-40.112,-5.521
699502.2879,3,3.283,9.574,-1.713,4,0.096,-1.015,0.217,5,20.076,-38.657,-4.071
699502.3078,3,1.378,10.146,-2.424,4,0.203,-0.747,0.262,5,18.021,-40.842,-5.521
699502.3276,3,0.993,10.732,-3.115,4,0.213,-0.422,0.184,5,17.371,-40.144,-5.524
699502.3475,3,0.325,12.043,-1.089,4,0.201,-0.072,0.092,5,19.31,-42.95,-4.785
699502.3674,3,-0.201,5.714,0.94,4,0.15,0.193,0.086,5,20.647,-42.921,-3.331
699502.3872,3,-2.177,5.492,-4.288,4,0.095,0.192,0.02,5,20.628,-43.633,-4.781
699502.4071,3,-2.845,7.322,-4.915,4,0.17,0.019,-0.048,5,18.004,-41.556,-5.519
699502.427,3,-4.388,29.207,-2.979,4,0.182,-0.28,-0.036,5,18.021,-40.842,-5.521
699502.4468,3,1.797,-3.864,8.827,4,-0.024,-0.684,0.008,5,17.355,-40.858,-4.794
699502.4667,3,3.187,7.999,-0.904,4,-0.218,-1.042,-0.053,5,18.037,-40.128,-6.248
699502.4866,3,-1.711,11.325,-6.171,4,0.179,-1.222,0.147,5,16.019,-40.887,-6.25
699502.5064,3,-2.189,11.115,-5.302,4,0.328,-1.299,0.058,5,16,-41.6,-6.975
699502.5263,3,-1.019,9.109,-3.115,4,0.306,-1.379,0.033,5,15.399,-38.763,-6.984
699502.5462,3,0.84,8.09,-4.18,4,0.239,-1.254,0.169,5,16.704,-40.161,-5.525
699502.566,3,-0.017,11.928,-3.099,4,0.221,-1.017,0.263,5,13.994,-41.644,-8.429
699502.5859,3,-0.522,11.361,-1.017,4,0.194,-0.701,0.263,5,14.014,-40.935,-6.979
699502.6058,3,-2.024,4.874,-1.775,4,0.159,-0.348,0.222,5,13.348,-40.953,-6.255
699502.6257,3,0.1,11.184,-2.089,4,0.213,-0.016,0.233,5,14.014,-40.935,-6.979
699502.6455,3,-0.95,12.316,2.077,4,0.248,0.123,0.237,5,13.966,-43.077,-6.247
699502.6654,3,-3.041,3.812,-2.699,4,0.165,0.046,0.209,5,14.015,-40.936,-6.253
699502.6853,3,-1.424,17.511,-10.615,4,0.27,-0.213,0.091,5,14.664,-41.632,-7.704
699502.7051,3,-0.895,4.606,-2.024,4,0.49,-0.468,0.13,5,12.044,-39.56,-5.534
699502.725,3,-0.304,7.279,-0.366,4,0.196,-0.666,0.215,5,13.966,-43.079,-5.521
699502.7449,3,-2.706,10.478,-2.979,4,0.05,-0.888,0.271,5,12.646,-42.398,-6.253
699502.7647,3,-2.213,13.888,-3.302,4,0.118,-1.102,0.281,5,11.963,-43.127,-5.525
699502.7846,3,0.165,11.308,-1.239,4,0.168,-1.212,0.294,5,11.993,-41.698,-6.982
699502.8044,3,0.156,4.587,-0.077,4,0.151,-1.111,0.376,5,11.977,-42.412,-6.981
699502.8243,3,-0.677,10.299,-3.24,4,0.178,-0.813,0.436,5,9.293,-43.19,-6.981
699502.8442,3,1.618,15.592,-2.28,4,0.311,-0.455,0.426,5,9.294,-43.192,-6.255
699502.864,3,1.967,4.52,-2.201,4,0.32,-0.259,0.427,5,7.976,-42.516,-4.082
699502.8839,3,1.577,6.166,-7.296,4,0.304,0.026,0.356,5,10.631,-43.161,-4.799
699502.9038,3,0.842,11.78,-8.054,4,0.425,0.377,0.35,5,8.592,-44.633,-6.253
699502.9237,3,-0.555,8.408,-4.269,4,0.345,0.605,0.276,5,8.624,-43.205,-6.982
699502.9435,3,-0.342,6.501,-2.039,4,0.167,0.744,0.173,5,9.944,-43.89,-5.527
699502.9634,3,-2.632,9.588,-3.352,4,0.083,0.689,0.124,5,8.609,-43.921,-6.255
699502.9833,3,-2.474,13.048,-4.379,4,0.116,0.429,0.063,5,9.296,-43.195,-4.8
699503.0031,3,-1.261,6.927,-1.735,4,0.129,0.101,0,5,9.961,-43.176,-5.528
699503.023,3,-1.749,9.267,-2.118,4,0.079,-0.132,0.001,5,9.245,-45.334,-5.524
699503.0429,3,-1.644,12.931,-1.199,4,0.09,-0.294,0.04,5,10.646,-42.448,-4.802
699503.0627,3,-2.072,9.435,-0.936,4,0.082,-0.469,0.064,5,7.944,-43.942,-4.077
699503.0826,3,-1.563,8.552,-1.165,4,0.046,-0.596,0.066,5,8.595,-44.638,-4.074
699503.1025,3,-0.653,9.375,-2.974,4,0.064,-0.643,0.097,5,7.924,-44.652,-5.528
699503.1223,3,-0.869,9.964,-2.697,4,0.084,-0.517,0.144,5,9.247,-45.335,-4.796
699503.1422,3,-1.091,10.581,-1.785,4,0.051,-0.321,0.169,5,7.924,-44.652,-5.528
699503.1621,3,-1.842,9.181,-2.809,4,0.007,-0.188,0.177,5,9.28,-43.91,-4.074
699503.182,3,0.153,9.239,-3.62,4,0.002,-0.128,0.174,5,7.924,-44.652,-5.528
699503.2018,3,-0.715,7.147,-4.037,4,0.023,-0.126,0.171,5,8.611,-43.924,-4.8
699503.2217,3,0.548,12.603,-4.642,4,0.038,-0.065,0.168,5,8.563,-46.066,-3.345
699503.2416,3,0.098,10.306,-3.044,4,0.012,-0.003,0.177,5,8.58,-45.354,-3.346
699503.2614,3,-0.005,7.485,-2.168,4,-0.044,0.008,0.113,5,8.565,-46.069,-2.618
699503.2813,3,0.342,7.604,-5.166,4,-0.022,-0.064,0.077,5,7.927,-44.655,-4.076
699503.3012,3,0.156,12.412,-6.437,4,0.042,-0.154,0.04,5,8.612,-43.925,-4.076
699503.321,3,-0.416,8.248,-6.353,4,0.082,-0.236,0.013,5,5.925,-44.704,-4.079
699503.3409,3,-0.529,8.454,-2.979,4,0.049,-0.327,-0.008,5,6.575,-45.399,-4.8
699503.3608,3,-0.747,9.028,-2.922,4,-0.002,-0.407,0.022,5,9.28,-43.912,-3.348
699503.3806,3,-2.122,8.971,-4.369,4,-0.033,-0.386,0.012,5,8.595,-44.638,-4.074
699503.4005,3,-1.144,15.534,-2.13,4,0.036,-0.309,0.008,5,7.928,-44.659,-2.623
699503.4203,3,-0.474,9.289,-0.258,4,0.03,-0.253,0.031,5,8.592,-44.635,-5.527
699503.4402,3,0.318,5.86,-1.694,4,0.008,-0.287,0.008,5,7.245,-45.386,-4.076
699503.4601,3,-0.457,7.978,-5.157,4,0.105,-0.351,0.013,5,7.912,-45.369,-4.074
699503.48,3,-1.062,9.509,-7.451,4,0.16,-0.36,-0.003,,,,
699503.4998,3,-0.309,5.408,-6.652,4,0.137,-0.38,-0.019,5,9.297,-43.198,-3.349
699503.5197,3,1.35,44.363,1.871,4,0.028,-0.351,0.011,,,,
699503.5396,3,-0.06,-9.98,11.294,4,-0.155,-0.321,0.055,5,7.93,-44.661,-1.897
699503.5594,3,-3.912,0.373,-2.051,4,-0.262,-0.414,-0.124,5,7.228,-46.1,-3.348
699503.5793,3,0.39,21.411,-7.399,4,0.322,-0.511,0.029,5,7.961,-43.23,-3.352
699503.5992,3,-1.778,12.301,-8.207,4,0.479,-0.971,0.086,5,7.912,-45.37,-3.348
699503.619,3,-0.524,5.046,-2.099,4,0.328,-0.914,0.028,5,6.612,-43.982,-1.172
699503.6389,3,-0.019,6.255,-4.443,4,0.195,-0.707,0.129,5,6.56,-46.115,-3.348
699503.6588,3,-0.191,13.053,-7.537,4,0.161,-0.491,0.196,5,7.309,-42.534,-3.357
699503.678,3,-1.663,10.871,-5.178,4,0.217,-0.426,0.151,5,6.563,-46.12,-1.895
699503.6985,3,1.984,5.207,0.278,4,0.159,-0.363,0.116,5,5.243,-45.436,-3.352
699503.7184,3,-0.203,2.036,-3.343,4,0.138,-0.36,0.141,5,6.609,-43.976,-3.352
699503.7383,3,-0.024,32.597,-17.391,4,0.281,-0.214,0.145,5,6.529,-47.545,-2.617
699503.7581,3,0.603,-1.228,2.618,4,0.466,-0.255,0.133,5,5.229,-46.153,-1.898
699503.778,3,1.895,-1.455,5.846,4,-0.108,-0.18,0.122,5,7.245,-45.387,-3.349
699503.7979,3,-2.118,14.512,-5.025,4,-0.18,-0.031,0.176,5,5.913,-45.425,-1.17
699503.8177,3,-1.917,15.326,-9.265,4,0.168,-0.213,0.056,5,5.229,-46.155,-1.17
699503.8376,3,-1.271,9.456,-3.623,4,0.253,-0.375,-0.003,5,5.247,-45.444,-0.447
699503.8575,3,1.326,2.747,0.883,4,0.073,-0.382,0.091,5,5.276,-44.012,-2.629
699503.8773,3,-0.488,8.892,-2.299,4,-0.053,-0.441,0.144,5,5.228,-46.152,-2.625
699503.8972,3,-2.493,15.587,-4.29,4,0.024,-0.48,0.112,5,3.941,-44.046,-1.904
699503.9171,3,-0.751,9.514,-3.759,4,0.093,-0.567,0.113,5,5.261,-44.728,-1.173
699503.9369,3,0.481,6.891,-3.498,4,0.039,-0.618,0.141,5,3.322,-41.919,-2.638
699503.9568,3,0.782,8.131,-2.623,4,0.024,-0.672,0.206,5,5.209,-46.863,-3.349
699503.9767,3,-2.29,0.675,-3.97,4,0.011,-0.663,0.238,5,3.288,-43.341,-4.086
699503.9965,3,-0.622,22.251,-8.432,4,0.033,-0.602,0.233,5,2.605,-44.077,-2.634
699504.0164,3,-1.024,6.164,0.708,4,0.053,-0.593,0.26,5,2.586,-44.785,-4.085
699504.0363,3,0.933,5.147,1.359,4,-0.164,-0.441,0.256,5,3.273,-44.06,-2.632
699504.0562,3,-0.632,13.232,-3.709,4,-0.093,-0.241,0.315,5,1.953,-43.379,-2.635
699504.076,3,-0.584,11.364,-4.798,4,0.084,-0.219,0.316,5,1.268,-44.106,-3.362
699504.0959,3,-0.022,6.336,-3.23,4,0.116,-0.249,0.266,5,1.955,-43.381,-1.909
699504.1157,3,0.507,6.257,-2.965,4,0.08,-0.169,0.266,5,2.638,-42.651,-1.912
699504.1356,3,-0.373,11.701,-4.178,4,0.075,-0.071,0.296,5,2.62,-43.359,-3.362
699504.1555,3,-0.579,11.892,0.421,4,0.052,-0.021,0.273,5,-0.084,-44.852,-3.362
699504.1753,3,0.234,3.025,4.946,4,-0.002,-0.037,0.233,5,1.97,-42.668,-1.912
699504.1952,3,-3.46,14.412,-8.372,4,0.039,-0.055,0.216,5,1.268,-44.106,-3.362
699504.2151,3,0.993,17.125,-8.492,4,0.216,-0.081,0.241,5,-0.069,-44.136,-4.814
699504.2349,3,-0.665,2.929,-0.297,4,0.253,-0.225,0.229,5,0.604,-44.127,-1.91
699504.2548,3,-0.34,5.999,-2.62,4,0.025,-0.089,0.228,5,0.604,-44.127,-1.91
699504.2747,3,0.057,13.199,-4.317,4,0.05,-0.009,0.238,5,0.604,-44.127,-1.91
699504.2945,3,-1,10.236,-3.405,4,0.093,-0.015,0.204,5,-0.764,-45.584,-2.635
699504.3144,3,0.311,4.941,-2.048,4,0.034,0.051,0.179,5,-0.764,-45.584,-2.635
699504.3343,3,-0.627,9.835,-5.956,4,0.05,0.056,0.167,5,-0.749,-44.87,-2.637
699504.3542,3,-1.062,13.852,-2.445,4,0.132,0.11,0.158,5,-0.081,-44.856,-1.909
699504.374,3,-1.651,8.516,-0.799,4,0.067,0.03,0.166,5,1.254,-44.823,-1.907
699504.3939,3,-0.28,6.497,-3.458,4,0.03,0.027,0.13,5,-0.081,-44.856,-1.909
699504.4138,3,-1.017,10.253,-5.838,4,0.106,-0.021,0.101,5,-0.751,-44.867,-3.363
699504.4336,3,-0.948,8.724,-2.733,4,0.116,0.081,0.122,5,-1.416,-44.89,-1.184
699504.4535,3,-0.749,11.129,-2.142,4,0.028,0.171,0.117,5,-0.061,-44.148,0.269
699504.4734,3,-0.529,7.054,-3.714,4,-0.008,0.243,0.084,5,-0.764,-45.584,-2.635
699504.4932,3,-0.826,13.144,-4.417,4,0.031,0.28,0.066,5,-1.399,-44.176,-1.913
699504.5131,3,-0.488,4.235,0.309,4,0.012,0.314,0.079,5,-1.382,-43.462,-1.915
699504.533,3,-0.646,11.21,-2.838,4,-0.06,0.337,0.051,5,-0.749,-44.87,-2.637
699504.5528,3,-1.618,9.897,-4.123,4,0.027,0.3,0.003,5,-1.418,-44.887,-2.638
699504.5727,3,-1.259,4.661,-3.996,4,0.041,0.253,-0.038,5,-1.434,-45.598,-3.363
699504.5926,3,-0.187,16.716,-2.713,4,0.025,0.238,-0.036,5,-0.766,-45.581,-3.362
699504.6125,3,-0.768,2.771,-2.02,4,-0.028,0.177,-0.042,5,-0.096,-45.57,-1.907
699504.6323,3,-1.905,11.471,-5.937,4,-0.053,0.137,-0.075,5,-0.748,-44.872,-1.91
699504.6522,3,-0.957,9.382,-3.544,4,0.038,0.024,-0.053,5,-0.781,-46.297,-2.634
699504.6721,3,-0.916,6.506,-2.072,4,-0.048,-0.11,-0.046,5,-0.764,-45.584,-2.635
699504.6919,3,-0.335,11.574,-5.259,4,-0.096,-0.185,-0.032,5,-0.116,-46.278,-3.358
699504.7118,3,-0.727,6.97,-2.862,4,-0.032,-0.326,-0.036,5,-0.764,-45.584,-2.635
699504.7316,3,-0.156,13.438,-4.786,4,-0.067,-0.387,-0.009,5,-0.783,-46.294,-3.36
699504.7515,3,-0.165,4.099,-0.648,4,-0.039,-0.403,0.009,5,0.572,-45.554,-1.907
699504.7714,3,0.529,9.466,-5.183,4,-0.102,-0.408,0.033,5,1.938,-44.096,-1.18
699504.7912,3,2.024,16.594,-4.664,4,-0.028,-0.26,0.066,5,-1.45,-46.313,-2.635
699504.8111,3,0.541,1.986,2.675,4,0.013,-0.282,0.08,5,-0.081,-44.858,-1.181
699504.831,3,1.108,11.292,-2.347,4,-0.162,-0.154,0.068,5,1.286,-43.394,-2.637
699504.8509,3,0.026,10.169,-4.305,4,-0.009,-0.1,0.035,5,-0.752,-44.864,-4.814
699504.8707,3,0.005,10.691,-5.506,4,0.051,-0.134,0.011,5,0.587,-44.841,-1.181
699504.8906,3,-0.287,4.104,-2.771,4,0.085,-0.062,-0.007,5,-0.714,-43.446,-1.186
699504.9105,3,0.211,11.344,-4.522,4,0.013,-0.093,-0.004,5,-1.431,-45.602,-1.91
699504.9303,3,-0.699,11.103,-4.719,4,0.005,-0.032,0.018,5,-0.05,-43.423,-4.091
699504.9502,3,-0.285,8.116,-1.929,4,-0.037,-0.088,-0.005,5,-2.087,-44.897,-4.092
699504.9701,3,-1.187,8.607,-3.173,4,-0.07,-0.126,-0.027,5,-0.015,-42.003,-1.917
699504.9899,3,-0.273,8.253,-3.211,4,-0.047,-0.185,-0.021,5,-0.764,-45.584,-2.635
699505.0098,3,-0.993,18.051,-4.731,4,-0.009,-0.294,-0.005,5,-0.764,-45.584,-2.635
699505.0297,3,-1.244,5.704,-0.359,4,0,-0.374,-0.003,5,0.526,-47.697,0.278
699505.0496,3,0.361,5.106,-0.816,4,-0.06,-0.413,0.015,5,-0.113,-46.283,-1.906
699505.0694,3,0.167,16.041,-3.706,4,-0.015,-0.371,0.097,5,-0.731,-44.159,-1.912
699505.0893,3,0.158,3.139,-1.292,4,0.08,-0.412,0.132,5,-0.783,-46.292,-4.086
699505.1092,3,-1.153,6.293,-5.025,4,0.084,-0.411,0.09,5,-2.118,-46.329,-2.637
699505.129,3,0.103,8.983,-7.856,4,0.177,-0.329,0.147,5,-0.047,-43.43,-1.912
699505.1489,3,0.167,14.603,-7.08,4,0.17,-0.32,0.183,5,-2.103,-45.613,-3.365
699505.1688,3,0.081,6.82,0.055,4,0.038,-0.15,0.182,5,-3.455,-46.359,-3.365
699505.1886,3,-0.318,11.823,-2.587,4,-0.098,0.045,0.196,5,-2.766,-45.634,-1.912
699505.2085,3,-0.122,12.249,-2.551,4,-0.059,0.122,0.216,5,-2.101,-45.616,-2.638
699505.2284,3,-0.596,1.407,1.225,4,0.04,0.076,0.154,5,-1.419,-44.884,-3.365
699505.2482,3,1.024,11.316,-6.942,4,0.041,0.032,0.088,5,-0.13,-46.999,-1.176
699505.2681,3,0.55,12.194,-1.606,4,0.157,-0.051,0.086,5,-2.783,-46.347,-1.91
699505.288,3,-1.385,4.427,-2.24,4,0.036,-0.214,0.116,5,-3.406,-44.22,-3.369
699505.3078,3,-0.297,9.823,-1.862,4,-0.01,-0.114,0.073,5,-2.765,-45.638,-0.459
699505.3277,3,0.189,16.901,-3.099,4,0.049,-0.216,0.107,5,-2.068,-44.191,-1.915
699505.3475,3,-1.149,5.604,-3.711,4,0.074,-0.165,0.124,5,-2.734,-44.208,-1.915
699505.3674,3,-1.089,6.628,-4.003,4,0.089,-0.131,0.108,5,-2.068,-44.191,-1.915
699505.3873,3,0.167,14.469,-4.812,4,0.122,-0.149,0.132,5,-4.103,-45.668,-1.187
699505.4071,3,-0.34,5.566,-0.675,4,0.074,-0.117,0.156,5,-2.734,-44.209,-1.187
699505.427,3,-1.163,8.734,-5.994,4,0.002,0.041,0.145,5,-4.753,-44.971,-1.189
699505.4469,3,-0.313,14.395,-2.941,4,0.066,0.155,0.143,5,-2.751,-44.922,-1.186
699505.4668,3,-0.256,6.004,-1.33,4,0.011,0.164,0.171,5,-3.401,-44.228,-0.464
699505.4866,3,-0.876,6.918,-3.754,4,-0.028,0.313,0.146,5,-5.437,-45.702,-1.189
699505.5065,3,0.244,10.947,-4.448,4,0.074,0.266,0.068,5,-4.752,-44.972,-0.464
699505.5264,3,-0.459,11.871,-1.443,4,0.074,0.181,0.046,5,-1.43,-45.605,-0.458
699505.5462,3,-1.316,6.635,-6.162,4,-0.039,0.208,0.056,5,-0.809,-47.731,1.003
699505.5661,3,-0.794,12.596,-2.984,4,-0.002,0.173,0.019,5,-0.777,-46.304,0.998
699505.586,3,0.273,8.655,2.12,4,-0.015,0.093,0.033,5,-3.435,-45.651,-1.913
699505.6058,3,-1.357,3.879,-2.386,4,-0.158,0.088,0.059,5,-4.755,-44.968,-2.643
699505.6257,3,0.419,10.564,-5.999,4,0.017,0.074,0.023,5,-2.765,-45.638,-0.459
699505.6456,3,-0.921,9.701,-5.573,4,0.123,-0.112,-0.018,5,-3.435,-45.651,-1.913
699505.6654,3,-0.189,7.43,-2.302,4,0.018,-0.084,0.009,5,-4.073,-44.238,-2.644
699505.6853,3,-0.366,9.978,-4.01,4,-0.053,-0.024,0.024,5,-2.768,-45.633,-2.638
699505.7052,3,0.859,12.206,-2.027,4,-0.053,-0.007,0.035,5,-4.103,-45.667,-1.915
699505.725,3,0.053,4.085,2.773,4,-0.064,-0.032,0.052,5,-4.071,-44.241,-1.19
699505.7449,3,-3.046,14.711,-9.765,4,-0.08,-0.001,0.044,5,-2.733,-44.211,-0.462
699505.7648,3,0.644,10.15,-0.481,4,0.093,-0.029,0,5,-4.073,-44.238,-2.644
699505.7847,3,-0.409,3.441,-2.309,4,0.019,-0.163,0.013,5,-1.367,-42.749,-1.918
699505.8045,3,-0.323,14.833,-3.259,4,-0.043,0.008,0.004,5,-3.372,-42.796,-2.647
699505.8244,3,-0.976,13.589,-5.362,4,0.069,-0.012,0.018,5,-4.755,-44.968,-2.643
699505.8443,3,-0.479,2.402,-0.246,4,0.049,0.002,0.02,5,-2.731,-44.212,0.264
699505.8641,3,-2.292,13.761,-3.936,4,-0.006,0.094,0.042,5,-2.734,-44.209,-1.187
699505.884,3,-0.266,11.792,-2.611,4,0.064,0.099,0.001,5,-2.718,-43.494,-1.917
699505.9039,3,-1.33,6.185,-2.563,4,0.055,0.039,0.004,5,-5.457,-46.408,-3.368
699505.9237,3,-1.625,10.246,-6.047,4,0.036,0.078,-0.011,5,-2.068,-44.191,-1.915
699505.9436,3,-1.651,14.496,-2.194,4,0.078,-0.032,-0.004,5,-3.386,-43.512,-1.19
699505.9634,3,-0.943,8.877,-0.835,4,-0.038,-0.066,0.045,5,-4.72,-43.542,-1.92
699505.9833,3,-0.421,3.333,0.189,4,-0.089,-0.072,0.062,5,-3.419,-44.937,-1.915
699506.0032,3,-0.364,13.158,-6.303,4,-0.02,-0.15,0.037,5,-3.436,-45.65,-2.64
699506.023,3,-0.646,15.312,-4.831,4,0.106,-0.161,0.057,5,-1.431,-45.604,-1.183
699506.0429,3,-1.756,7.217,-3.173,4,0.035,-0.144,0.092,5,-4.089,-44.951,-2.643
699506.0628,3,-1.639,9.801,-0.725,4,0.003,-0.022,0.113,5,-2.748,-44.926,0.992
699506.0827,3,0.491,12.11,0.703,4,-0.045,-0.026,0.172,5,-4.739,-44.252,-3.371
699506.1025,3,-0.756,4.609,-1.259,4,-0.015,-0.011,0.189,5,-4.752,-44.972,-0.464
699506.1224,3,-0.622,5.712,-7.578,4,0.091,0.046,0.145,5,-6.725,-43.59,-2.65
699506.1423,3,0.321,11.428,-7.781,4,0.235,0.038,0.139,5,-4.785,-46.396,-1.913
699506.1621,3,-0.029,8.03,-5.001,4,0.162,0.096,0.13,5,-4.118,-46.382,-0.461
699506.182,3,-0.84,14.496,-4.149,4,-0.028,0.285,0.125,5,-3.435,-45.653,-1.186
699506.2019,3,0.421,8.238,0.412,4,-0.108,0.387,0.123,5,-2.782,-46.35,-0.458
699506.2217,3,-0.794,2.319,0.627,4,-0.159,0.406,0.077,5,-4.721,-43.541,-2.646
699506.2416,3,0.069,14.283,-4.812,4,-0.111,0.401,-0.002,5,-2.068,-44.193,-1.187
699506.2615,3,-1.467,9.143,-2.725,4,0.071,0.299,-0.048,5,-4.701,-42.834,0.256
699506.2807,3,-0.622,9.629,1.996,4,-0.015,0.139,-0.071,5,-2.769,-45.63,-3.365
699506.3012,3,-1.055,10.091,-1.082,4,-0.059,-0.031,-0.07,5,-4.071,-44.24,-1.918
699506.3211,3,-0.845,9.669,-4.958,4,-0.002,-0.148,-0.036,5,-4.037,-42.816,-0.47
699506.341,3,-1.407,6.836,-3.974,4,0.118,-0.192,-0.037,5,-3.386,-43.51,-1.918
699506.3608,3,-1.048,9.387,-4.458,4,0.099,-0.141,-0.059,5,-3.384,-43.513,-0.465
699506.3807,3,-1.347,9.849,-5.319,4,0.051,-0.105,0,5,-2.734,-44.208,-1.915
699506.4006,3,-1.132,10.126,-1.685,4,0.009,-0.121,0.029,5,-3.386,-43.512,-1.19
699506.4204,3,-0.292,11.299,-1.304,4,-0.065,-0.122,0.064,5,-4.718,-43.546,-0.467
699506.4403,3,-0.053,9.638,-2.874,4,-0.094,-0.081,0.128,5,-4.718,-43.546,-0.467
699506.4602,3,-0.732,7.31,-0.613,4,-0.011,-0.028,0.133,5,-4.718,-43.546,-0.467
699506.48,3,0.452,9.287,-2.295,4,0.003,0.049,0.099,5,-2.734,-44.208,-1.915
699506.4999,3,-0.081,9.112,-5.231,4,0.056,0.153,0.11,5,-4.054,-43.526,-1.92
699506.5198,3,-0.464,8.179,-2.441,4,0.117,0.227,0.068,5,-5.373,-42.848,-1.196
699506.5396,3,1.797,11.024,-2.151,4,0.083,0.299,0.044,5,-4.042,-42.809,-3.375
699506.5595,3,0.62,5.245,-3.965,4,0.033,0.315,0.039,5,-5.388,-43.561,-1.193
699506.5794,3,-0.292,10.533,-4.173,4,0.062,0.27,-0.013,5,-5.388,-43.559,-1.921
699506.5993,3,-0.837,10.725,-3.285,4,0.079,0.199,-0.079,5,-4.071,-44.24,-1.918
699506.6191,3,-0.507,7.616,-4.228,4,0.006,0.165,-0.065,5,-4.72,-43.542,-1.92
699506.639,3,-0.395,12.73,-1.675,4,0.001,0.081,-0.088,5,-5.386,-43.562,-0.468
699506.6588,3,-0.187,7.568,-2.809,4,-0.048,-0.004,-0.071,5,-4.103,-45.667,-1.915
699506.6787,3,0,4.405,-0.476,4,-0.071,-0.056,-0.049,5,-2.051,-43.478,-1.189
699506.6986,3,0.024,10.813,-2.395,4,-0.02,-0.121,-0.075,5,-3.404,-44.223,-2.643
699506.7184,3,0.005,11.902,-2.242,4,0.014,-0.11,-0.061,5,-4.686,-42.119,-0.471
699506.7383,3,-1.177,10.758,-4.86,4,-0.017,-0.055,-0.015,5,-3.419,-44.939,-1.187
699506.7582,3,-1.242,11.833,-1.127,4,0.04,0.028,-0.026,5,-3.4,-44.229,0.262
699506.778,3,-0.579,2.237,-1.663,4,-0.004,0.092,0.004,5,-2.734,-44.208,-1.915
699506.7979,3,-0.916,9.873,-5.635,4,-0.024,0.132,0.007,,,,
699506.8178,3,-0.751,11.792,-3.302,4,0.051,0.093,-0.042,5,-5.405,-44.273,-1.92
699506.8376,3,-0.306,5.104,-0.634,4,-0.047,0.112,-0.031,5,-4.752,-44.972,-0.464
699506.8575,3,-1.098,12.421,-4.709,4,-0.111,0.128,-0.026,5,-6.073,-44.289,-1.921
699506.8774,3,0.4,11.318,-2.572,4,-0.01,0.027,-0.037,5,-0.713,-43.448,-0.461
699506.8973,3,-0.569,6.932,-2.632,4,-0.053,-0.088,-0.011,5,-2.768,-45.633,-2.638
699506.9171,3,-0.203,8.739,-1.419,4,-0.061,-0.141,-0.003,5,-4.054,-43.527,-1.192
699506.937,3,-0.146,12.227,-0.167,4,-0.01,-0.22,0,5,-4.706,-42.828,-2.649
699506.9569,3,-0.359,2.175,-4.278,4,-0.013,-0.181,0.044,5,-2.718,-43.495,-1.189
699506.9767,3,-0.328,25.232,-7.301,4,0.078,-0.101,0.05,5,-2.682,-42.073,0.984
699506.9966,3,0.019,1.909,0.23,4,0.145,-0.026,0.072,5,-4.723,-43.536,-4.099
699507.0165,3,-0.096,5.937,-2.022,4,-0.08,0.106,0.101,5,-4.721,-43.541,-2.646
699507.0363,3,0.577,14.113,-5.176,4,-0.019,0.199,0.055,5,-4.073,-44.238,-2.644
699507.0562,3,0.165,7.525,-1.278,4,0.031,0.16,0.031,5,-2.686,-42.068,-1.193
699507.0761,3,-0.644,9.1,-3.168,4,-0.033,0.231,0.004,5,-2.669,-41.353,-1.923
699507.0959,3,1.084,15.501,-4.085,4,0.008,0.155,-0.022,5,-4.756,-44.965,-3.369
699507.1158,3,-0.077,-0.153,0.881,4,0.024,-0.016,-0.029,5,-4.689,-42.114,-2.65
699507.1357,3,0.055,12.952,-2.989,4,-0.072,-0.099,-0.032,5,-4.721,-43.541,-2.646
699507.1555,3,-0.536,10.895,-2.993,4,0.106,-0.174,-0.064,5,-2.702,-42.783,-1.192
699507.1754,3,-0.12,7.839,-2.139,4,0.022,-0.149,-0.03,5,-3.387,-43.509,-2.644
699507.1953,3,-1.223,13.9,-2.718,4,0.02,-0.06,-0.015,5,-4.056,-43.524,-2.646
699507.2152,3,-0.39,7.734,-1.199,4,0.045,-0.053,0.018,5,-3.403,-44.226,-1.189
699507.235,3,-0.203,9.564,-2.209,4,0.049,-0.034,0.029,5,-3.371,-42.798,-1.921
699507.2549,3,-1.127,9.014,-5.635,4,0.071,0.032,0.001,5,-3.389,-43.506,-3.371
699507.2747,3,-0.878,5.456,-3.331,4,0.1,0.14,0.009,5,-4.088,-44.954,-1.189
699507.2946,3,-0.672,6.918,-5.403,4,0.057,0.202,0.002,5,-4.073,-44.238,-2.644
699507.3145,3,0.357,20.059,-7.64,4,0.036,0.256,-0.03,5,-2.734,-44.209,-1.187
699507.3343,3,-0.419,6.169,1.402,4,-0.021,0.245,0.001,5,-2.734,-44.208,-1.915
699507.3542,3,-0.558,3.656,1.574,4,-0.19,0.285,-0.042,5,-3.369,-42.801,-0.468
699507.3741,3,-0.955,17.518,-5.484,4,-0.141,0.123,-0.088,5,-2.754,-44.916,-3.366
699507.3939,3,-0.1,5.568,0.191,4,0.023,-0.071,-0.102,5,-3.404,-44.223,-2.643
699507.4138,3,-0.167,15.371,-1.534,4,-0.008,-0.133,-0.09,5,-3.386,-43.512,-1.19
699507.4337,3,0.045,2.883,1.833,4,-0.019,-0.161,-0.041,5,-2.737,-44.203,-3.368
699507.4535,3,-0.744,10.158,-4.817,4,-0.058,-0.2,-0.014,5,-2.686,-42.067,-1.921
699507.4734,3,-0.665,11.318,-6.848,4,0.127,-0.182,-0.058,5,-2.705,-42.775,-4.099
699507.4933,3,-0.816,-0.577,-1.902,4,0.155,-0.092,-0.032,5,-1.382,-43.462,-1.915
699507.5132,3,-0.414,11.419,-4.331,4,0.007,0.066,-0.019,5,-1.364,-42.754,0.261
699507.533,3,-0.017,12.706,-4.604,4,0.007,0.092,-0.004,5,-2.051,-43.478,-1.189
699507.5529,3,0.17,9.866,-0.706,4,-0.049,0.081,0.018,5,-3.371,-42.799,-1.193
699507.5728,3,-0.443,7.714,-2.175,4,-0.066,0.103,-0.032,5,-2.702,-42.781,-1.92
699507.5926,3,-0.447,11.105,-4.439,4,-0.041,0.052,-0.049,5,-2.083,-44.907,-0.461
699507.6125,3,-0.572,7.889,-2.307,4,0.012,-0.003,-0.053,5,-2.068,-44.193,-1.187
699507.6324,3,1.479,13.579,-1.476,4,0.007,-0.082,-0.057,5,-2.733,-44.211,-0.462
699507.6522,3,0.768,6.626,-0.158,4,-0.026,-0.147,0.002,5,-2.686,-42.068,-1.193
699507.6721,3,0.462,3.501,-2.323,4,-0.096,-0.16,0.028,5,-4.041,-42.812,-2.649
699507.692,3,-1.668,17.154,-7.688,4,0.086,-0.2,-0.014,5,-1.379,-43.468,0.99
699507.7118,3,-1.689,7.434,-5.59,4,0.15,-0.182,0.034,5,-1.347,-42.039,0.259
699507.7317,3,-1.015,13.187,0.414,4,0.008,-0.086,0.062,5,-3.421,-44.936,-2.641
699507.7516,3,0.553,5.484,2.008,4,-0.114,0.017,0.151,5,-2.049,-43.48,-0.464
699507.7715,3,-0.206,6.437,-4.111,4,-0.142,0.09,0.151,5,-4.039,-42.813,-1.923
699507.7913,3,0.574,14.359,-7.734,4,0.055,0.121,0.053,5,-3.386,-43.51,-1.918
699507.8112,3,-0.811,3.403,-1.175,4,0.1,0.164,0.041,5,-2,-41.339,-0.47
699507.8311,3,0.223,16.204,-1.981,4,-0.033,0.209,0.029,5,-3.403,-44.226,-1.189
699507.8509,3,-0.38,2.393,0.108,4,-0.017,0.149,0.017,5,-3.384,-43.513,-0.465
699507.8708,3,0.244,15.048,-6.662,4,-0.026,0.073,0.001,5,-2.019,-42.052,-1.193
699507.8907,3,-0.505,8.506,-6.202,4,0.101,0.005,-0.044,5,-2.084,-44.905,-1.186
699507.9105,3,-1.105,6.358,-2.151,4,0.041,0.089,-0.024,5,-0.697,-42.735,-0.464
699507.9304,3,-0.969,14.757,-2.335,4,-0.124,0.15,-0.038,5,-1.366,-42.752,-0.465
699507.9503,3,1.017,11.914,0.091,4,-0.146,0.114,-0.026,5,-3.406,-44.22,-3.369
699507.9701,3,-0.522,1.591,1.256,4,-0.165,0.079,0.002,5,-2.034,-42.767,-0.467
699507.99,3,-0.912,12.914,-2.682,4,-0.078,0.033,-0.041,5,-3.354,-42.085,-1.195
699508.0099,3,-0.256,14.462,-8.26,4,0.086,-0.035,-0.065,5,-3.34,-41.365,-3.377
699508.0297,3,-0.553,10.548,-2.055,4,0.057,-0.11,-0.022,5,-2.718,-43.495,-1.189
699508.0496,3,1.084,12.663,-2.237,4,0.074,-0.154,-0.018,5,-2.039,-42.76,-3.372
699508.0695,3,1.103,9.215,-0.491,4,0.008,-0.122,0.034,5,-2.669,-41.353,-1.923
699508.0894,3,-0.139,3.503,-4.755,4,0.011,-0.112,0.056,5,-2.686,-42.067,-1.921
699508.1092,3,-1.371,15.941,-5.216,4,0.094,-0.054,0.009,5,-2.637,-39.928,-1.198
699508.1291,3,0.098,9.167,-1.314,4,0.093,-0.003,0.026,5,-2.702,-42.781,-1.92
699508.149,3,-1.172,16.487,-1.074,4,-0.054,0.046,0.035,5,-2.686,-42.067,-1.921
699508.1688,3,0.529,8.227,-0.225,4,-0.042,0.071,0.055,5,-2.686,-42.068,-1.193
699508.1887,3,-0.136,-0.175,-2.063,4,-0.033,0.067,0.031,5,-2.054,-43.472,-3.369
699508.2086,3,-1.438,15.266,-6.918,4,0.044,0.105,-0.033,5,-2.052,-43.475,-2.643
699508.2284,3,-0.995,2.539,-0.395,4,0.171,0.125,-0.058,5,-2.704,-42.78,-2.646
699508.2483,3,-1.864,4.932,-2.953,4,0.013,0.128,-0.046,5,-1.37,-42.744,-3.371
699508.2682,3,-0.309,22.026,-4.948,4,0.013,0.033,-0.049,5,1.302,-42.682,-2.64
699508.288,3,-0.993,-1.706,0.12,4,0.022,-0.037,-0.004,5,-2.02,-42.049,-2.647
699508.3079,3,-1.859,11.335,-5.468,4,-0.124,-0.018,-0.037,5,-0.034,-42.715,-2.641
699508.3278,3,-0.677,6.008,1.364,4,0.012,-0.11,-0.019,5,-1.334,-41.322,-1.193
699508.3477,3,0.139,16.321,0.948,4,-0.078,-0.133,0.002,5,-1.369,-42.747,-2.644
699508.3675,3,-0.089,7.224,0.328,4,-0.12,-0.159,0.045,5,-2.702,-42.781,-1.92
699508.3874,3,0.067,0.481,0.818,4,0.019,-0.182,0.08,5,-0.682,-42.018,-1.918
699508.4073,3,0.598,16.065,-10.22,4,0.138,-0.142,0.039,5,-0.648,-40.591,-1.921
699508.4271,3,-0.67,8.834,-5.57,4,0.287,-0.034,0.058,5,-2.02,-42.049,-2.647
699508.447,3,-1.11,8.258,-2.553,4,0.122,0.116,0.075,5,-2.719,-43.492,-2.643
699508.4669,3,0.581,10.203,-2.871,4,-0.042,0.227,0.095,5,-2.019,-42.052,-1.193
699508.4867,3,0.163,11.622,-2.809,4,-0.056,0.184,0.113,5,-2.002,-41.336,-1.923
699508.5066,3,0.677,12.859,-0.948,4,-0.066,0.173,0.059,5,-2.689,-42.062,-3.374
699508.5265,3,-0.849,3.07,1.615,4,-0.108,0.183,0.036,5,-2.036,-42.764,-1.92
699508.5463,3,0.522,14.902,-2.173,4,-0.078,0.149,-0.004,5,-2.019,-42.05,-1.921
699508.5662,3,1.766,14.673,-3.367,4,0.113,-0.021,-0.053,5,-2.702,-42.783,-1.192
699508.586,3,0.402,3.692,-1.627,4,0.104,-0.065,-0.019,5,-2.719,-43.492,-2.643
699508.6059,3,0.479,5.434,-2.572,4,0.096,-0.059,-0.033,5,-2.002,-41.336,-1.923
699508.6258,3,0.225,4.659,-4.522,4,0.165,-0.04,-0.06,5,-2.002,-41.336,-1.923
699508.6457,3,-0.227,23.498,-8.605,4,0.166,0.004,-0.048,5,-2.002,-41.336,-1.923
699508.6655,3,-0.586,-3.898,-1.151,4,0.143,0.022,-0.044,5,-1.35,-42.035,-1.92
699508.6854,3,-1.857,6.494,-5.178,4,-0.113,0.046,-0.009,5,-1.334,-41.321,-1.921
699508.7053,3,-0.323,20.164,-6.001,4,-0.047,-0.076,-0.016,5,-0.731,-44.16,-1.184
699508.7251,3,0.175,11.11,1.988,4,-0.131,-0.064,0.014,5,2.641,-42.657,0.993
699508.745,3,-1.352,3.745,1.139,4,-0.284,0.088,0.059,5,1.909,-45.528,1.001
699508.7649,3,-0.708,6.193,1.953,4,-0.17,0.093,0.018,5,1.257,-44.827,0.272
699508.7847,3,-0.11,12.73,-2.51,4,-0.027,0.013,0.022,5,-0.031,-42.72,-0.462
699508.8046,3,-0.189,5.133,1.352,4,0.063,-0.01,0.025,5,-0.047,-43.431,-1.184
699508.8245,3,-0.591,9.255,-2.259,4,-0.036,0.038,0.012,5,1.257,-44.827,0.272
699508.8443,3,-1.098,8.961,-8.454,4,0.034,0.046,0.007,5,1.323,-41.974,0.264
699508.8642,3,-1.175,16.231,-4.372,4,0.15,0.018,-0.002,5,-0.7,-42.731,-2.643
699508.8834,3,-0.05,5.496,1.45,4,0.011,0.059,0.029,5,-3.372,-42.796,-2.647
699508.904,3,-0.955,5.922,2.096,4,-0.234,0.073,0.066,5,-1.382,-43.462,-1.915
699508.9238,3,-0.187,12.747,-0.835,4,-0.157,-0.018,0.028,5,-0.684,-42.017,-2.644
699508.9437,3,-0.347,6.609,-2.154,4,0.005,-0.128,0.012,5,-2.02,-42.049,-2.647
699508.9636,3,-0.605,16.975,-5.14,4,0.063,-0.136,0.003,5,-2.068,-44.191,-1.915
699508.9834,3,-0.124,5.728,0.797,4,0.128,-0.125,0.046,5,-3.386,-43.512,-1.19
699509.0033,3,-0.785,8.42,-2.914,4,0.042,-0.101,0.083,5,-2.069,-44.189,-2.641
699509.0232,3,-0.282,13.893,-7.076,4,0.112,-0.084,0.035,5,-0.716,-43.443,-2.64
699509.043,3,-0.464,3.575,-2.273,4,0.151,-0.022,0.055,5,-0.034,-42.715,-2.641
699509.0629,3,-0.409,16.891,-2.52,4,-0.005,0.136,0.069,5,-2.052,-43.475,-2.643
699509.0828,3,0.916,7.272,1.263,4,-0.005,0.205,0.073,5,-0.7,-42.731,-2.643
699509.1026,3,0,8.064,-2.634,4,-0.034,0.21,0.057,5,-2.721,-43.489,-3.369
699509.1225,3,-0.108,15.302,-2.701,4,0.034,0.175,-0.005,5,-1.384,-43.46,-2.641
699509.1424,3,-1.239,4.802,-3.943,4,0.079,0.16,-0.029,5,-1.352,-42.033,-2.646
699509.1622,3,-0.558,17.295,-3.443,4,0.002,0.154,-0.053,5,-1.367,-42.749,-1.918
699509.1821,3,0.603,7.822,-0.459,4,0.099,0.049,-0.054,5,-1.385,-43.457,-3.368
699509.202,3,0.029,5.898,-3.202,4,0.036,0.028,-0.036,5,-0.699,-42.734,-1.189
699509.2218,3,-0.211,10.761,-5.221,4,0.078,-0.028,-0.076,5,-0.015,-42.004,-1.189
699509.2417,3,-0.081,10.076,-4.192,4,0.097,-0.022,-0.066,5,-0.714,-43.445,-1.913
699509.2616,3,-0.459,1.991,-1.96,4,0.005,0.04,-0.051,5,0.621,-43.413,-1.912
699509.2814,3,2.122,27.139,-5.341,4,-0.03,0.051,-0.048,5,0.636,-42.702,-1.187
699509.3013,3,0.512,-2.225,2.307,4,-0.017,0.018,-0.016,5,-0.665,-41.306,-1.192
699509.3212,3,-0.201,4.941,-2.556,4,-0.088,0.049,-0.049,5,-0.699,-42.732,-1.917
699509.341,3,-0.359,14.113,-5.901,4,0.061,0.001,-0.082,5,-0.015,-42.004,-1.189
699509.3609,3,0.06,12.268,-4.092,4,0.075,0.001,-0.07,5,0.638,-42.703,-0.462
699509.3808,3,0.124,9.856,-4.245,4,0.001,-0.011,-0.06,5,-0.034,-42.715,-2.641
699509.4006,3,-0.431,1.271,3.338,4,-0.016,0.001,-0.031,5,-0.034,-42.715,-2.641
699509.4205,3,0.345,15.503,-6.587,4,-0.056,-0.02,-0.052,5,0.62,-43.411,-2.638
699509.4404,3,-0.739,10.292,-2.063,4,0.046,-0.061,-0.066,5,-0.002,-41.284,-3.371
699509.4603,3,-0.802,7.707,0.653,4,-0.111,-0.031,-0.009,5,-2.022,-42.044,-4.1
699509.4801,3,1.723,15.147,-1.582,4,-0.16,-0.034,-0.015,5,-0.703,-42.725,-4.82
699509.5,3,0.498,8.851,-0.742,4,-0.066,-0.083,0.018,5,-1.419,-44.884,-3.365
699509.5199,3,0.309,8.088,-2.658,4,-0.003,-0.048,-0.005,5,-0.702,-42.726,-4.095
699509.5397,3,-0.445,12.342,-3.831,4,0.057,-0.021,-0.032,5,-0.687,-42.01,-4.822
699509.5596,3,-0.433,12.723,-1.524,4,0.094,0.001,-0.022,5,-2.039,-42.758,-4.099
699509.5795,3,-0.005,7.025,-0.246,4,0.064,-0.032,-0.051,5,-2.023,-42.043,-4.825
699509.5993,3,-0.703,8.009,-4.19,4,0.014,-0.062,-0.009,5,-0.668,-41.299,-3.372
699509.6192,3,-0.366,7.03,-4.68,4,0.094,-0.126,-0.011,5,-0.717,-43.44,-3.366
699509.6391,3,-0.517,12.969,-5.075,4,0.113,-0.149,-0.019,5,-0.035,-42.712,-3.368
699509.6589,3,-2.192,11.206,-6.683,4,0.052,-0.132,0.009,5,-1.37,-42.744,-3.371
699509.6788,3,-0.62,10.493,-0.826,4,-0.047,-0.114,0.033,5,-2.052,-43.475,-2.643
699509.6987,3,-0.785,8.167,0.62,4,-0.209,-0.054,0.123,5,-2.039,-42.76,-3.372
699509.7185,3,-0.038,8.114,0.234,4,-0.215,-0.021,0.127,5,-4.042,-42.809,-3.375
699509.7384,3,-0.893,15.044,-1.637,4,-0.104,-0.013,0.083,5,-4.025,-42.093,-4.103
699509.7583,3,0.215,8.712,2.295,4,-0.037,0.029,0.094,5,-3.389,-43.504,-4.097
699509.7782,3,-0.567,14.969,-0.007,4,-0.011,0.017,0.086,5,-4.057,-43.52,-4.099
699509.798,3,-0.967,6.963,-1.347,4,0.034,0.024,0.111,5,-4.027,-42.091,-4.828
699509.8179,3,-0.603,7.513,-6.315,4,0.145,0.055,0.096,5,-4.042,-42.807,-4.102
699509.8378,3,-0.653,11.22,-6.53,4,0.232,0.134,0.047,5,-5.391,-43.555,-3.374
699509.8576,3,-1.151,6.877,-5.169,4,0.151,0.206,0.051,5,-5.359,-42.128,-3.378
699509.8775,3,-1.024,18.138,-1.321,4,-0.015,0.242,0.028,5,-3.374,-42.793,-3.374
699509.8973,3,-0.127,5.882,1.572,4,-0.136,0.186,0.035,5,-4.723,-43.538,-3.372
699509.9172,3,-0.335,10.426,-0.596,4,-0.213,0.122,0.034,5,-4.056,-43.524,-2.646
699509.9371,3,-0.507,7.411,-0.56,4,-0.053,0.026,-0.035,5,-4.707,-42.825,-3.375
699509.9569,3,-0.292,5.635,-2.142,4,0.061,-0.007,-0.051,5,-3.389,-43.504,-4.097
699509.9768,3,-0.476,17.86,-5.219,4,0.121,-0.02,-0.075,5,-2.704,-42.78,-2.646
699509.9967,3,-0.388,7.815,-1.096,4,0.168,0.008,-0.055,5,-4.022,-42.101,-1.196
699510.0165,3,-1.153,9.045,-5.051,4,0.084,0.131,-0.047,5,-4.005,-41.385,-1.926
699510.0364,3,-1.283,9.564,-4.824,4,0.137,0.225,-0.115,5,-4.688,-42.116,-1.924
699510.0563,3,-1.601,4.226,-4.202,4,0.113,0.267,-0.118,5,-2.718,-43.494,-1.917
699510.0762,3,-1.68,14.847,-0.816,4,-0.013,0.28,-0.171,,,,
699510.096,3,-0.194,6.286,3.259,4,-0.096,0.128,-0.145,5,-3.337,-41.37,-1.924
699510.1159,3,-0.883,4.927,-1.821,4,-0.171,-0.038,-0.143,5,-2.019,-42.05,-1.921
699510.1358,3,-1.024,20.581,-6.887,4,-0.037,-0.222,-0.185,5,-2.704,-42.78,-2.646
699510.1556,3,-1.862,3.142,-7.942,4,0.096,-0.326,-0.159,5,-2.037,-42.763,-2.646
699510.1755,3,0.486,13.907,0.553,4,-0.047,-0.337,-0.129,5,-0.667,-41.302,-2.646
699510.1954,3,0.555,4.755,0.744,4,-0.01,-0.369,-0.055,5,-1.367,-42.751,-1.19
699510.2152,3,0.11,5.551,-3.355,4,-0.059,-0.292,0,5,-1.366,-42.752,-0.465
699510.2351,3,-1.402,13.524,-7.707,4,0.097,-0.248,-0.015,5,-2.686,-42.068,-1.193
699510.255,3,-0.988,3.561,-3.08,4,0.166,-0.158,0.008,5,-2.017,-42.053,-0.468
699510.2748,3,-0.215,13.697,-2.362,4,0.012,-0.067,0.023,5,-1.334,-41.322,-1.193
699510.2947,3,0.031,10.184,-1.548,4,-0.024,-0.028,0.046,5,-3.403,-44.225,-1.917
699510.3146,3,-0.165,6.453,-0.739,4,-0.081,-0.029,0.079,5,-2.019,-42.05,-1.921
699510.3345,3,-0.45,11.316,-1.268,4,-0.071,-0.009,0.047,5,-4.024,-42.097,-2.65
699510.3543,3,0.459,5.011,-0.881,4,0.013,0.028,0.037,5,-2.022,-42.046,-3.374
699510.3742,3,1.603,17.102,-5.671,4,0.05,0.065,0.006,5,-1.35,-42.036,-1.192
699510.3941,3,-0.584,-6.621,-3.159,4,0.126,0.057,-0.014,5,-0.699,-42.732,-1.917
699510.4139,3,0.574,15.438,-3.29,4,0.101,0.089,-0.027,5,-2,-41.339,-0.47
699510.4338,3,1.405,-3.063,1.953,4,0.039,0.051,-0.033,5,-0.699,-42.734,-1.189
699510.4537,3,-1.306,12.199,-5.956,4,-0.053,0.106,-0.104,5,0.002,-41.289,-1.918
699510.4735,3,-0.625,17.848,-6.035,4,0.126,-0.053,-0.103,5,-0.015,-42.004,-1.189
699510.4934,3,0.313,7.734,0.756,4,0.041,-0.139,-0.077,5,-1.349,-42.038,-0.467
699510.5132,3,-0.395,4.714,-2.345,4,-0.081,-0.198,-0.002,5,-0.017,-42.001,-2.643
699510.5331,3,-5.405,-6.111,-5.98,4,0.007,-0.246,-0.005,5,-2.02,-42.049,-2.647
699510.553,3,3.044,15.374,-4.381,4,0.056,-0.22,0.024,5,-0.032,-42.719,-1.187
699510.5728,3,1.113,5.556,0.5,4,0.218,-0.149,0.034,5,-1.35,-42.035,-1.92
699510.5927,3,1.448,13.201,-0.974,4,-0.054,0.055,0.091,5,-0.635,-39.876,-2.649
699510.6126,3,-0.208,11.299,-5.252,4,-0.037,0.133,0.112,5,-1.382,-43.462,-1.915
699510.6325,3,-0.491,6.334,-1.577,4,0.028,0.188,0.047,5,0.621,-43.414,-1.184
699510.6523,3,0.031,7.688,-0.61,4,0.053,0.224,-0.011,5,0.687,-40.561,-1.192
699510.6722,3,-0.392,18.044,-3.644,4,0.05,0.216,-0.035,5,1.32,-41.971,-1.187
699510.6921,3,0.505,4.506,-1.969,4,0.094,0.103,-0.079,5,1.305,-42.686,-0.461
699510.7119,3,-1.603,11.653,-4.824,4,0.05,-0.02,-0.059,5,2.655,-41.937,-1.913
699510.7318,3,-0.737,9.141,-5.176,4,0.145,-0.122,-0.086,5,1.987,-41.956,-1.186
699510.7517,3,-2.173,3.386,-1.732,4,0.072,-0.18,-0.048,5,1.987,-41.956,-1.186
699510.7715,3,-0.392,18.068,-4.458,4,-0.045,-0.132,-0.016,5,1.987,-41.956,-1.186
699510.7914,3,0.694,12.78,-1.352,4,-0.025,-0.156,0.014,5,0.655,-41.989,-0.464
699510.8113,3,-0.471,5.125,1.204,4,-0.153,-0.126,0.053,5,0.67,-41.273,-1.19
699510.8311,3,1.395,9.047,0.979,4,-0.126,-0.09,0.046,5,-0.681,-42.021,-0.465
699510.851,3,0.383,12.45,-9.026,4,0.013,-0.126,0.033,5,-0.047,-43.43,-1.912
699510.8709,3,-1.417,13.407,-6.08,4,0.088,-0.084,0.028,5,0.653,-41.988,-1.189
699510.8908,3,1.172,5.659,-2.041,4,0.195,-0.057,0.025,5,1.303,-42.683,-1.913
699510.9106,3,0.814,9.014,-2.747,4,0.02,0.039,0.078,5,1.323,-41.974,0.264
699510.9305,3,0.081,10.332,-5.745,4,0.012,0.043,0.063,5,-0.015,-42.004,-1.189
699510.9504,3,-0.225,11.414,-2.295,4,-0.014,0.038,0.024,5,-0.035,-42.712,-3.368
699510.9702,3,-0.565,7.095,-0.335,4,-0.094,0.055,0.028,5,1.956,-43.384,-0.456
