704919.4778,3,0.206,9.607,-2.654,,,,,5,7.469,-38.353,38.031
704919.4976,3,0.206,9.607,-2.654,4,-0.002,-0.01,0.026,5,6.129,-38.377,35.126
704919.5175,3,-0.117,9.612,-2.546,4,-0.002,-0.01,0.026,5,4.778,-39.124,35.126
704919.5374,3,-0.211,9.629,-2.637,4,-0.002,-0.01,0.026,5,6.75,-40.504,36.584
704919.5572,3,-0.495,9.583,-2.771,4,-0.004,-0.005,-0.019,5,8.168,-36.911,38.029
704919.5771,3,-0.677,9.629,-2.682,4,-0.002,0.001,-0.024,5,12.778,-39.651,38.773
704919.597,3,-0.608,9.633,-2.515,4,-0.005,-0.007,-0.023,5,12.062,-41.811,40.227
704919.6168,3,-0.589,9.622,-2.556,4,-0.008,-0.019,-0.02,5,11.412,-41.112,39.499
704919.6367,3,-0.596,9.641,-2.56,4,-0.006,-0.021,-0.019,5,8.15,-37.622,37.305
704919.6565,3,-0.677,9.622,-2.505,4,-0.002,-0.008,-0.018,5,8.788,-39.034,38.036
704919.6764,3,-0.849,9.677,-2.512,4,0,0.006,-0.015,5,8.101,-39.76,37.311
704919.6963,3,-0.809,9.66,-2.434,4,-0.001,0.006,-0.012,5,8.118,-39.047,37.308
704919.7162,3,-0.785,9.631,-2.302,4,-0.002,-0.009,-0.004,5,8.771,-39.746,38.039
704919.736,3,-0.833,9.641,-2.35,4,-0.002,-0.016,0.004,5,8.153,-37.628,39.484
704919.7559,3,-0.835,9.665,-2.434,4,0.001,-0.01,0.01,5,6.783,-39.079,37.306
704919.7758,3,-1.012,9.696,-2.462,4,0.005,0.004,0.018,5,8.786,-39.03,37.309
704919.7956,3,-1.041,9.645,-2.288,4,0.006,0.007,0.026,5,7.471,-38.354,38.759
704919.8155,3,-0.969,9.645,-2.299,4,0.004,-0.007,0.037,5,8.138,-38.338,38.76
704919.8354,3,-0.842,9.624,-2.445,4,0.007,-0.014,0.048,5,7.454,-39.069,38.76
704919.8552,3,-0.706,9.662,-2.601,4,0.013,0.008,0.058,5,6.766,-39.79,36.583
704919.8751,3,-0.445,9.662,-2.902,4,0.016,0.025,0.064,5,7.454,-39.07,39.485
704919.8949,3,-0.258,9.574,-2.589,4,0.012,0.017,0.07,5,6.801,-38.368,38.031
704919.9148,3,-0.368,9.689,-2.089,4,0.006,0.011,0.075,5,7.437,-39.781,38.763
704919.9347,3,-0.014,9.734,-2.285,4,0.004,0.014,0.068,5,7.452,-39.067,38.033
704919.9546,3,0.048,9.492,-2.874,4,0.015,0.002,0.067,5,6.752,-40.509,38.037
704919.9744,3,-0.505,9.823,-2.443,4,0.028,-0.018,0.065,5,8.121,-39.052,38.762
704919.9943,3,-0.708,9.674,-2.395,4,0.02,0.02,0.054,5,6.815,-37.653,36.577
704920.0142,3,-0.677,9.638,-2.436,4,0.011,0,0.054,5,7.471,-38.356,39.484
704920.0334,3,-0.048,9.741,-2.41,4,0.006,-0.065,0.064,5,7.437,-39.781,38.763
704920.0539,3,0.665,9.547,-2.577,4,0.005,-0.079,0.07,5,8.101,-39.76,37.311
704920.0738,3,0.187,9.555,-2.503,4,0.012,-0.01,0.064,5,8.138,-38.338,38.76
704920.0936,3,-2.175,9.705,-1.967,4,0.018,0.088,0.048,5,8.82,-37.608,38.033
704920.1135,3,-0.146,9.811,-4.022,4,0.026,0.061,0.041,5,5.469,-38.403,38.756
704920.1333,3,-0.759,9.413,-2.357,4,0.024,-0.058,0.067,5,8.118,-39.047,37.308
704920.1532,3,0.053,9.27,-2.802,4,-0.015,0.013,0.074,5,6.786,-39.085,39.485
704920.1731,3,-0.462,9.935,-2.747,4,-0.021,0.051,0.075,5,9.485,-37.587,35.855
704920.1929,3,-1.094,9.466,-1.065,4,-0.01,0.092,0.078,5,6.133,-38.382,37.303
704920.2128,3,-0.754,9.571,-3.044,4,0.005,0.044,0.076,5,6.847,-36.224,35.847
704920.2327,3,-0.857,9.842,-3.637,4,0.045,-0.154,0.09,5,6.796,-38.361,35.127
704920.2526,3,0.06,9.392,-2.613,4,0.044,-0.211,0.104,5,7.452,-39.067,38.033
704920.2724,3,0.581,9.645,-2.498,4,0.012,-0.16,0.112,5,6.783,-39.079,37.306
704920.2923,3,0.512,9.552,-2.979,4,0.001,-0.052,0.109,5,8.134,-38.332,36.58
704920.3121,3,0.024,9.6,-2.833,4,0.005,0.031,0.098,5,6.116,-39.096,37.305
704920.332,3,-0.019,9.495,-2.407,4,0.002,0.044,0.091,5,7.468,-38.35,37.305
704920.3519,3,0.376,9.519,-2.539,4,0,0.039,0.089,5,5.466,-38.399,37.302
704920.3717,3,0.036,9.689,-2.989,4,0.01,0.042,0.076,5,6.752,-40.509,38.037
704920.3916,3,-0.29,9.633,-3.139,4,0.021,0.04,0.063,5,6.07,-41.241,39.49
704920.4115,3,-0.859,9.526,-2.192,4,0.018,-0.002,0.068,5,6.133,-38.382,37.303
704920.4313,3,-0.924,9.657,-2.316,4,0.007,-0.014,0.079,5,6.133,-38.38,36.577
704920.4512,3,-0.486,9.782,-3.094,4,0.009,-0.052,0.078,5,6.099,-39.809,37.308
704920.4711,3,0.833,8.277,-2.711,4,0.015,-0.118,0.086,5,8.804,-38.319,38.034
704920.4909,3,-0.323,11.086,-5.204,4,0.012,-0.107,0.102,5,5.432,-39.824,36.58
704920.5108,3,-0.44,8.533,-1.283,4,0.034,-0.025,0.081,5,6.799,-38.365,37.305
704920.5307,3,-0.761,9.624,-1.182,4,0.012,0.007,0.095,5,6.799,-38.365,37.305
704920.5506,3,0.397,9.873,-3.249,4,0.01,-0.008,0.103,5,7.402,-41.202,36.586
704920.5704,3,0.589,9.997,-3.661,4,0.023,-0.037,0.113,5,6.084,-40.523,37.309
704920.5903,3,0.854,9.418,-2.668,4,0.028,-0.021,0.113,5,6.1,-39.812,38.034
704920.6102,3,0.648,9.327,-2.517,4,0.015,0.006,0.093,5,6.148,-37.669,36.575
704920.63,3,-0.366,9.818,-3.123,4,0.018,0.026,0.068,5,6.783,-39.079,37.306
704920.6499,3,-0.333,9.224,-1.51,4,0.029,0.08,0.062,5,6.1,-39.812,38.034
704920.6698,3,0.627,9.289,-1.859,4,0.027,0.089,0.079,5,6.784,-39.082,38.033
704920.6896,3,1.031,10.426,-3.723,4,0.035,0.059,0.085,5,6.763,-39.787,35.132
704920.7095,3,1.005,9.746,-3.156,4,0.055,0.1,0.082,5,5.498,-36.974,37.299
704920.7293,3,0.979,9.212,-2.347,4,0.026,0.144,0.068,5,5.428,-39.819,34.401
704920.7492,3,1.318,9.504,-3.058,4,-0.01,0.102,0.037,5,6.149,-37.674,38.028
704920.7691,3,1.072,9.416,-3.154,4,-0.006,0.072,0.018,5,6.116,-39.095,36.578
704920.7889,3,1.172,9.444,-3.599,4,-0.001,0.084,0.01,5,5.464,-38.396,35.849
704920.8088,3,1.278,9.732,-3.077,4,-0.008,0.026,-0.005,5,5.464,-38.396,35.849
704920.8287,3,1.417,9.442,-2.768,4,-0.02,-0.015,-0.024,5,5.464,-38.396,35.849
704920.8486,3,0.359,9.476,-2.869,4,-0.021,-0.022,-0.051,5,6.815,-37.653,36.577
704920.8684,3,-0.084,9.727,-3.264,4,-0.011,-0.019,-0.079,5,6.778,-39.073,34.401
704920.8883,3,0.072,9.626,-3.08,4,-0.008,-0.062,-0.086,5,6.798,-38.362,35.852
704920.9081,3,0.194,9.507,-2.881,4,-0.018,-0.132,-0.081,5,5.479,-37.685,35.847
704920.928,3,0.596,9.464,-2.608,4,-0.028,-0.138,-0.081,5,6.133,-38.38,36.577
704920.9479,3,0.242,9.686,-2.426,4,-0.032,-0.098,-0.085,5,5.463,-38.394,35.124
704920.9677,3,-0.428,9.598,-2.484,4,-0.02,-0.024,-0.096,5,6.779,-39.075,35.129
704920.9876,3,-1.204,9.734,-2.984,4,-0.007,0.03,-0.101,5,6.099,-39.807,36.581
704921.0075,3,-1.022,9.59,-2.704,4,-0.005,0.039,-0.09,5,6.815,-37.653,36.577
704921.0273,3,-0.77,9.667,-2.345,4,-0.018,-0.003,-0.068,5,8.086,-40.472,36.586
704921.0472,3,-0.632,9.478,-2.713,4,-0.027,-0.066,-0.051,5,6.815,-37.654,37.303
704921.0671,3,-1.007,9.416,-3.35,4,-0.022,-0.124,-0.04,5,6.812,-37.65,35.126
704921.0869,3,-0.881,9.763,-2.993,4,-0.012,-0.138,-0.025,5,7.466,-38.347,35.852
704921.1068,3,-0.469,9.511,-2.156,4,-0.018,-0.109,-0.007,5,7.433,-39.774,35.857
704921.1267,3,-0.455,9.753,-2.445,4,-0.016,-0.065,0.001,5,8.148,-37.619,35.852
704921.1465,3,-0.565,9.684,-3.12,4,0.005,-0.052,0.006,5,6.798,-38.362,35.852
704921.1664,3,-1.012,9.394,-3.056,4,0.026,-0.043,0.019,5,6.128,-38.376,34.398
704921.1863,3,-0.694,9.689,-2.986,4,0.023,-0.041,0.031,5,6.796,-38.361,35.127
704921.2061,3,0.029,9.631,-2.197,4,0.009,-0.073,0.045,5,6.783,-39.078,36.58
704921.226,3,0.622,9.629,-2.426,4,-0.002,-0.103,0.054,5,6.747,-40.501,35.133
704921.2459,3,0.754,9.674,-2.735,4,0.011,-0.113,0.051,5,5.429,-39.821,35.129
704921.2657,3,0.502,9.557,-2.761,4,0.029,-0.081,0.039,5,6.114,-39.093,35.852
704921.2856,3,0.206,9.306,-2.728,4,0.032,-0.026,0.028,5,6.812,-37.65,35.126
704921.3055,3,-0.498,9.559,-2.862,4,0.028,0.018,0.019,5,7.497,-36.92,35.124
704921.3253,3,-1.082,9.712,-2.156,4,0.026,0.061,0.015,5,6.796,-38.361,35.127
704921.3452,3,-0.931,9.16,-1.835,4,0.022,0.086,0.024,5,6.799,-38.364,36.578
704921.365,3,-0.467,9.246,-2.692,4,0.022,0.045,0.05,5,6.778,-39.072,33.676
704921.3849,3,-0.519,9.662,-3.266,4,0.038,-0.019,0.073,5,6.143,-37.663,33.672
704921.4048,3,0.175,9.342,-3.659,4,0.051,-0.024,0.09,5,6.795,-38.359,34.399
704921.4247,3,1.651,9.543,-3.955,4,0.046,-0.013,0.107,5,6.81,-37.648,34.398
704921.4445,3,1.759,9.366,-3.711,4,0.04,0.002,0.108,5,5.46,-38.39,32.944
704921.4644,3,0.682,9.82,-3.192,4,0.028,0.07,0.07,5,6.158,-36.948,32.942
704921.4843,3,-0.335,9.844,-2.967,4,0.024,0.133,0.028,5,6.125,-38.37,32.219
704921.5041,3,-0.012,9.504,-3.137,4,0.034,0.138,0.013,5,5.458,-38.387,32.217
704921.524,3,0.278,9.576,-3.295,4,0.048,0.085,0.009,5,6.157,-36.945,32.216
704921.5438,3,-0.541,9.433,-3.084,4,0.054,0.061,-0.001,5,4.189,-35.571,33.664
704921.5637,3,-1.05,9.655,-2.508,4,0.05,0.1,-0.001,5,7.495,-36.917,33.672
704921.5836,3,-0.816,9.851,-2.725,4,0.04,0.096,0.017,5,4.823,-36.98,32.941
704921.6034,3,-0.045,9.571,-2.642,4,0.032,0.028,0.03,5,4.121,-38.417,31.491
704921.6233,3,0.672,9.452,-3.089,4,0.035,-0.013,0.035,5,4.776,-39.12,33.673
704921.6432,3,0.945,9.825,-3.513,4,0.037,-0.002,0.035,5,4.825,-36.981,33.669
704921.6631,3,0.61,9.89,-3.558,4,0.037,0.047,0.028,5,4.124,-38.425,34.395
704921.6829,3,-0.172,10.509,-3.829,4,0.024,0.105,0.01,5,5.461,-38.391,33.672
704921.7028,3,-1.326,10.33,-2.79,4,0.011,0.13,-0.003,5,4.793,-38.406,33.672
704921.7227,3,-2.156,9.392,-1.429,4,-0.018,0.08,0.003,5,5.492,-36.964,32.941
704921.7425,3,-1.029,9.035,-1.996,4,-0.045,-0.036,0.03,5,4.826,-36.984,35.121
704921.7624,3,1.433,8.76,-3.269,4,-0.023,-0.167,0.054,5,4.793,-38.408,34.396
704921.7822,3,1.72,9.136,-3.891,4,0.006,-0.187,0.068,5,4.808,-37.697,34.395
704921.8021,3,0.368,9.48,-3.228,4,0.018,-0.011,0.057,5,5.493,-36.966,33.669
704921.822,3,0.378,8.77,-2.402,4,0.016,0.243,0.051,5,7.48,-37.634,35.126
704921.8418,3,0.5,9.141,-3.206,4,0.002,0.414,0.065,5,3.476,-37.732,35.844
704921.8617,3,0.246,10.091,-3.491,4,0,0.491,0.046,5,4.811,-37.7,35.847
704921.8816,3,0.364,9.337,-3.642,4,0.005,0.5,0.017,,,,
704921.9014,3,0.368,8.315,-2.759,4,-0.016,0.447,0.019,5,4.808,-37.695,33.67
704921.9213,3,0.737,9.89,-4.972,4,-0.021,0.349,0.035,5,4.793,-38.408,34.396
704921.9412,3,0.696,10.251,-3.795,4,-0.02,0.213,0.037,5,2.806,-37.747,35.118
704921.961,3,0.404,9.193,-4.494,4,-0.035,0.085,0.023,5,4.124,-38.423,33.67
704921.9809,3,0.313,8.231,-2.666,4,-0.063,0,0.013,5,2.821,-37.03,33.664
704922.0008,3,1.003,9.047,-2.869,4,-0.077,-0.068,0.006,5,5.428,-39.819,34.401
704922.0206,3,0.983,10.009,-2.508,4,-0.076,-0.169,-0.005,5,4.81,-37.698,35.123
704922.0405,3,-0.17,9.133,-1.866,4,-0.035,-0.218,-0.012,5,4.126,-38.426,35.123
704922.0604,3,-2.039,10.574,-5.707,4,0.023,-0.233,-0.03,5,5.432,-39.824,36.58
704922.0802,3,-1.864,9.045,-4.386,4,0.097,-0.266,-0.036,5,4.109,-39.14,35.124
704922.1001,3,0.995,7.001,-4.278,4,0.078,-0.311,0.006,5,5.446,-39.108,35.126
704922.12,3,0.742,11.605,-5.393,4,0.009,-0.377,0.05,5,4.778,-39.124,35.126
704922.1398,3,1.273,9.284,-1.543,4,0.005,-0.335,0.048,5,4.808,-37.697,34.395
704922.1597,3,0.842,9.143,-2.694,4,-0.065,-0.228,0.025,5,4.796,-38.411,35.849
704922.1795,3,0.742,9.413,-2.728,4,-0.045,-0.143,0.021,5,4.796,-38.411,35.849
704922.1994,3,-0.756,9.421,-5.154,4,0.021,-0.055,0.014,5,5.498,-36.972,36.572
704922.2193,3,-0.086,8.334,-4.92,4,0.053,0.017,-0.009,5,4.793,-38.408,34.396
704922.2392,3,0.108,9.275,-5.391,4,0.04,-0.041,-0.015,5,6.128,-38.376,34.398
704922.259,3,1.146,9.425,-3.582,4,0.016,-0.129,0.002,5,4.794,-38.409,35.124
704922.2789,3,1.242,10.126,-4.391,4,-0.005,-0.134,-0.002,5,5.463,-38.394,35.124
704922.2988,3,-0.017,8.349,-4.443,4,0.004,-0.048,-0.026,5,5.498,-36.972,36.572
704922.3186,3,-0.558,9.229,-4.42,4,0.022,0.07,-0.049,5,4.781,-39.127,36.577
704922.3385,3,-0.34,9.478,-5.058,4,0.046,0.069,-0.058,5,4.778,-39.124,35.126
704922.3584,3,-0.357,8.499,-4.204,4,0.01,-0.004,-0.042,5,4.764,-39.841,37.306
704922.3782,3,0.134,9.179,-5.76,4,-0.005,-0.093,-0.046,5,7.503,-36.929,38.756
704922.3981,3,0.342,9.504,-3.628,4,-0.021,-0.168,-0.053,5,5.498,-36.972,36.572
704922.418,3,0.258,8.253,-3.132,4,-0.039,-0.179,-0.043,5,4.761,-39.836,35.129
704922.4378,3,-0.127,7.734,-3.087,4,-0.04,-0.169,-0.041,5,6.146,-37.668,35.849
704922.4577,3,-0.031,8.334,-2.9,4,-0.011,-0.137,-0.046,5,7.5,-36.923,36.575
704922.4776,3,-0.696,10.459,-2.843,4,0.021,-0.087,-0.043,5,6.85,-36.23,38.026
704922.4974,3,-0.577,10.93,-2.601,4,0.044,-0.007,-0.043,5,6.815,-37.654,37.303
704922.5173,3,0.67,9.849,-1.814,4,0.073,0.091,-0.032,5,6.129,-38.377,35.126
704922.5372,3,0.519,9.227,-1.273,4,0.103,0.249,-0.009,5,6.848,-36.226,36.574
704922.5571,3,1.05,10.792,-1.828,4,0.122,0.476,-0.018,5,4.846,-36.276,37.297
704922.5769,3,0.55,10.27,-4.039,4,0.148,0.631,-0.049,5,4.143,-37.717,35.846
704922.5968,3,-0.407,11.225,-4.838,4,0.133,0.697,-0.07,5,3.508,-36.304,35.117
704922.6166,3,0.345,8.875,-2.252,4,0.07,0.67,-0.078,5,4.175,-36.288,35.118
704922.6365,3,2.276,9.756,-1.316,4,-0.085,0.47,-0.069,5,1.485,-37.061,32.935
704922.6564,3,1.747,10.064,-0.926,4,-0.17,0.111,-0.079,5,1.485,-37.061,32.935
704922.6762,3,-0.433,9.732,-2.043,4,-0.159,-0.291,-0.112,5,2.185,-35.62,33.661
704922.6961,3,-1.639,9.2,-2.941,4,-0.088,-0.572,-0.136,5,1.486,-37.062,33.662
704922.716,3,-0.407,9.332,-4.64,4,-0.04,-0.755,-0.144,5,1.483,-37.057,32.208
704922.7358,3,-0.234,8.906,-5.178,4,-0.05,-0.903,-0.141,5,0.865,-34.935,32.201
704922.7557,3,-0.414,10.385,-3.977,4,-0.109,-1.005,-0.114,5,-0.502,-36.392,31.479
704922.7755,3,1.953,8.698,-0.835,4,-0.171,-1.122,-0.062,5,3.456,-38.437,32.941
704922.7954,3,3.522,9.325,-0.883,4,-0.22,-1.227,-0.019,5,6.126,-38.373,32.945
704922.8153,3,-0.782,10.016,-1.831,4,-0.148,-1.281,-0.06,5,4.153,-36.993,32.213
704922.8352,3,-3.479,9.653,-3.697,4,-0.006,-1.21,-0.124,5,4.17,-36.279,31.487
704922.855,3,-2.737,9.38,-4.269,4,0.072,-1.21,-0.093,5,3.435,-39.143,30.038
704922.8749,3,-2.259,9.569,-2.508,4,0.035,-1.256,-0.018,5,4.854,-35.548,31.487
704922.8948,3,-1.811,8.595,0.079,4,-0.048,-1.206,0.048,5,5.507,-36.249,32.213
704922.9146,3,-0.476,10.665,-0.773,4,-0.078,-1.129,0.114,5,5.458,-38.385,31.493
704922.9345,3,0.057,9.236,-2.24,4,0.004,-1.041,0.163,5,5.476,-37.68,33.67
704922.9544,3,-1.247,9.588,-3.623,4,0.078,-0.763,0.173,5,4.839,-36.264,32.213
704922.9742,3,-1.029,9.361,-4.348,4,0.119,-0.417,0.141,5,5.505,-36.246,30.76
704922.9941,3,-0.55,9.911,-3.754,4,0.098,-0.164,0.142,5,4.822,-36.977,32.214
704923.0139,3,-0.033,9.961,-2.07,4,0.048,-0.018,0.17,5,4.121,-38.419,32.216
704923.0338,3,2.118,10.28,-1.625,4,0.012,0.111,0.201,5,5.475,-37.679,32.942
704923.0537,3,0.94,9.102,-1.584,4,0.037,0.25,0.186,5,5.539,-34.822,32.208
704923.0735,3,-0.933,7.832,-3.611,4,0.089,0.353,0.128,5,4.155,-36.996,32.939
704923.0934,3,-1.134,8.954,-5.372,4,0.12,0.353,0.1,5,3.505,-36.299,32.936
704923.1133,3,1.086,9.727,-4.829,4,0.083,0.241,0.122,5,2.818,-37.024,31.485
704923.1332,3,0.323,10.126,-1.206,4,-0.054,0.051,0.13,5,4.84,-36.267,32.939
704923.153,3,0.809,10.61,-0.208,4,-0.149,-0.074,0.125,5,2.167,-36.33,32.208
704923.1729,3,1.95,9.519,-0.577,4,-0.122,-0.195,0.113,5,4.855,-35.553,32.938
704923.1927,3,0.4,10.359,-1.254,4,-0.038,-0.273,0.069,5,3.503,-36.295,31.485
704923.2126,3,-1.448,10.617,-2.347,4,0.034,-0.209,0.009,5,4.182,-35.562,30.032
704923.2325,3,-1.553,8.834,-2.704,4,0.066,-0.189,-0.016,5,3.519,-35.58,31.483
704923.2523,3,-2.977,9.282,-1.505,4,0.042,-0.198,0.001,5,3.503,-36.295,31.485
704923.2722,3,-3.525,10.026,0.165,4,-0.021,-0.057,0.046,5,4.839,-36.263,31.488
704923.2921,3,-2.905,10.071,1.328,4,-0.038,0.134,0.097,5,2.147,-37.038,30.032
704923.3119,3,-1.244,9.947,-0.091,4,0.018,0.237,0.137,5,2.85,-35.599,32.207
704923.3318,3,0.321,10.435,-2.623,4,0.12,0.369,0.19,5,4.105,-39.133,32.217
704923.3517,3,2.237,9.796,-3.683,4,0.207,0.636,0.205,5,5.475,-37.679,32.942
704923.3715,3,2.749,9.334,-3.013,4,0.196,1.036,0.18,5,5.464,-38.396,35.849
704923.3914,3,2.642,9.612,-1.728,4,0.11,1.48,0.134,5,0.816,-37.074,32.207
704923.4113,3,3.479,9.763,-1.481,4,0.035,1.806,0.057,5,-1.822,-35.715,32.925
704923.4311,3,2.206,9.433,-2.304,4,0.012,1.993,-0.014,5,-3.156,-35.75,33.652
704923.451,3,-0.163,9.471,-1.845,4,0.01,2.141,-0.063,5,-3.156,-35.75,33.652
704923.4709,3,-0.254,10.1,-0.335,4,-0.008,2.127,-0.091,5,-6.493,-35.832,34.37
704923.4907,3,2.02,9.796,-0.926,4,-0.062,1.715,-0.113,5,-5.826,-35.814,33.647
704923.5106,3,2.072,9.698,-2.338,4,-0.059,1.221,-0.108,5,-5.792,-34.387,33.643
704923.5305,3,-0.522,9.696,-1.256,4,-0.035,1.006,-0.123,5,-10.452,-33.781,30.727
704923.5503,3,-0.433,10.241,-1.63,4,-0.05,0.999,-0.128,5,-9.146,-35.182,33.64
704923.5702,3,0.696,9.818,-3.242,4,-0.059,0.781,-0.118,5,-8.434,-33.022,32.181
704923.5901,3,-0.115,9.739,-3.596,4,-0.055,0.535,-0.122,5,-8.434,-33.02,31.456
704923.6099,3,-0.914,9.43,-2.697,4,-0.062,0.498,-0.125,5,-11.008,-28.802,30.713
704923.6298,3,-2.146,9.753,-1.371,4,-0.068,0.494,-0.101,5,-11.058,-30.94,29.265
704923.6496,3,-2.824,9.851,-2.864,4,-0.051,0.321,-0.079,5,-11.76,-32.382,28.543
704923.6695,3,-3.982,9.586,-4.455,4,0.027,0.014,-0.064,5,-11.061,-30.937,27.814
704923.6894,3,-2.824,8.48,-4.97,4,0.105,-0.085,0.006,5,-12.41,-31.685,28.539
704923.7093,3,-2.402,8.964,-4.616,4,0.114,0.013,0.07,5,-11.745,-31.664,27.087
704923.7291,3,-1.565,8.341,-3.419,4,0.089,0.228,0.089,5,-11.71,-30.243,29.263
704923.749,3,-0.742,9.842,-3.754,4,0.076,0.411,0.098,5,-12.422,-32.405,31.448
704923.7689,3,0.093,10.94,-3.838,4,0.092,0.485,0.137,5,-11.787,-33.815,31.453
704923.7887,3,1.976,8.621,-3.455,4,0.108,0.538,0.19,5,-10.448,-33.789,33.633
704923.8086,3,1.821,8.279,-3.982,4,0.093,0.592,0.183,5,-10.432,-33.076,34.357
704923.8279,3,1.737,9.435,-4.843,4,0.079,0.621,0.125,5,-11.801,-34.535,34.358
704923.8483,3,4.312,9.282,-4.41,4,0.061,0.592,0.102,5,-9.129,-34.468,33.638
704923.8682,3,3.855,9.074,-2.972,4,0.01,0.524,0.085,5,-9.781,-33.772,33.635
704923.888,3,1.835,9.696,-2.292,4,-0.041,0.428,0.026,5,-8.447,-33.739,32.909
704923.9079,3,0.689,10.059,-2.419,4,-0.037,0.281,-0.053,5,-7.178,-36.56,32.919
704923.9278,3,-0.517,9.803,-2.383,4,-0.004,0.105,-0.073,5,-7.178,-36.56,32.919
704923.9476,3,-0.136,8.975,-2.52,4,0.037,-0.048,-0.053,5,-7.178,-36.56,32.919
704923.9675,3,1.015,9.174,-3.29,4,0.054,-0.164,-0.042,5,-5.127,-34.366,31.465
704923.9874,3,-0.572,9.49,-2.29,4,0.04,-0.174,-0.059,5,-5.173,-36.513,33.65
704924.0073,3,-1.531,10.203,-1.074,4,-0.012,0.014,-0.048,5,-4.541,-37.918,32.201
704924.0271,3,-1.993,10.454,0.301,4,-0.05,0.228,0.008,5,-4.553,-38.634,33.656
704924.047,3,-1.242,9.677,-0.727,4,-0.054,0.305,0.065,5,-5.209,-37.933,31.474
704924.0668,3,1.237,9.401,-1.677,4,-0.034,0.278,0.091,5,-5.856,-37.244,35.103
704924.0867,3,3.252,10.198,-1.278,4,-0.01,0.23,0.106,5,-5.206,-37.941,34.378
704924.1066,3,3.443,9.765,-0.811,4,-0.011,0.321,0.136,5,-5.89,-38.666,33.653
704924.1264,3,2.237,9.401,-0.931,4,-0.001,0.525,0.157,5,-6.541,-37.973,34.375
704924.1463,3,2.034,9.681,-3.745,4,0.054,0.618,0.115,5,-7.877,-38.007,35.101
704924.1662,3,1.73,9.074,-4.884,4,0.099,0.632,0.053,5,-7.21,-37.99,34.375
704924.186,3,1.692,9.27,-3.97,4,0.103,0.548,0.032,5,-7.193,-37.276,34.373
704924.2059,3,2.161,9.736,-2.893,4,0.057,0.391,0.035,5,-9.21,-38.039,35.1
704924.2258,3,1.603,9.157,-2.993,4,0.039,0.234,0.026,5,-7.893,-38.716,34.375
704924.2456,3,0.601,9.253,-3.628,4,0.056,0.112,-0.023,5,-8.527,-37.309,35.098
704924.2655,3,0.821,9.464,-3.147,4,0.089,0.031,-0.063,5,-7.907,-39.433,35.829
704924.2854,3,2.18,10.306,-3.912,4,0.099,-0.091,-0.06,5,-7.208,-37.991,35.103
704924.3053,3,1.512,8.813,-3.017,4,0.125,-0.043,-0.04,5,-9.21,-38.039,35.1
704924.3251,3,0.627,9.655,-3.594,4,0.111,0.135,-0.063,5,-6.52,-37.263,36.552
704924.345,3,-0.443,9.559,-2.685,4,0.076,0.23,-0.091,5,-7.176,-36.562,33.647
704924.3649,3,-0.749,9.854,-2.228,4,0.033,0.195,-0.082,5,-6.503,-36.551,36.551
704924.3847,3,0.127,9.227,-1.816,4,0,0.147,-0.046,5,-7.89,-38.719,35.828
704924.4046,3,0.849,9.327,-2.237,4,-0.018,0.052,-0.016,5,-7.22,-38.705,36.555
704924.4245,3,1.598,9.375,-2.965,4,-0.015,-0.032,0.007,5,-6.54,-37.975,35.103
704924.4443,3,2.41,9.957,-2.716,4,-0.007,-0.058,0.025,5,-6.537,-37.978,36.554
704924.4642,3,2.244,9.325,-2.599,4,-0.011,-0.016,0.029,5,-8.542,-38.025,35.825
704924.484,3,2.364,9.155,-2.328,4,-0.016,0.048,0.017,5,-6.52,-37.263,36.552
704924.5039,3,2.85,8.834,-3.147,4,0.005,0.069,-0.014,5,-6.535,-37.982,38.007
704924.5238,3,3.58,9.052,-3.606,4,0.016,0.066,-0.038,5,-7.857,-37.296,36.551
704924.5437,3,3.553,8.38,-3.738,4,0.027,0.125,-0.062,5,-7.19,-37.279,35.826
704924.5635,3,3.625,9.248,-3.147,4,0.018,0.224,-0.108,5,-5.87,-37.961,36.555
704924.5834,3,2.998,9.411,-1.074,4,0.012,0.294,-0.163,5,-7.874,-38.01,36.552
704924.6033,3,1.105,9.72,-2.505,4,0.016,0.298,-0.217,5,-5.855,-37.245,35.828
704924.6231,3,0.065,9.255,-4.013,4,0.062,0.188,-0.258,5,-7.207,-37.993,35.828
704924.643,3,-1.146,8.578,-3.829,4,0.099,-0.119,-0.273,5,-5.872,-37.959,35.829
704924.6628,3,-1.086,9.717,-5.224,4,0.078,-0.505,-0.25,5,-5.202,-37.946,36.557
704924.6827,3,-2.01,8.743,-3.644,4,0.022,-0.903,-0.214,5,-5.186,-37.23,35.829
704924.7026,3,-1.57,10.256,-2.381,4,-0.065,-1.211,-0.175,5,-3.2,-37.897,36.56
704924.7224,3,0.759,8.497,-2.067,4,-0.099,-1.431,-0.106,5,-4.469,-35.074,35.825
704924.7423,3,2.106,8.284,-4.128,4,-0.079,-1.579,-0.031,5,-5.206,-37.941,34.378
704924.7622,3,1.613,10.603,-6.678,4,-0.021,-1.481,-0.009,5,-3.168,-36.469,35.831
704924.782,3,0.05,8.731,-4.802,4,0.001,-1.133,-0.016,5,-1.836,-36.43,33.655
704924.8019,3,-0.065,9.909,-3.027,4,-0.056,-0.617,0.007,5,-1.167,-36.415,33.656
704924.8218,3,0.684,9.815,-2.938,4,-0.096,-0.212,0.037,5,-2.502,-36.449,34.38
704924.8417,3,1.259,10.66,-3.199,4,-0.09,-0.009,0.029,5,-3.186,-37.18,35.107
704924.8615,3,0.747,9.279,-3.797,4,-0.045,0.144,-0.007,5,-4.521,-37.21,34.378
704924.8814,3,-0.366,9.772,-3.829,4,-0.017,0.285,-0.013,5,-4.488,-35.785,35.103
704924.9012,3,-0.455,9.294,-2.491,4,-0.002,0.339,-0.025,5,-3.171,-36.465,34.378
704924.9211,3,-0.476,9.421,-2.027,4,-0.033,0.257,-0.026,5,-3.203,-37.894,35.109
704924.941,3,-0.278,9.813,-2.414,4,-0.029,0.081,-0.035,5,-3.868,-37.912,36.559
704924.9608,3,0.713,9.186,-2.168,4,-0.017,-0.112,-0.025,5,-3.804,-35.057,35.825
704924.9807,3,0.632,9.689,-4.628,4,0.01,-0.213,-0.014,5,-3.886,-38.62,35.109
704925.0006,3,-0.306,8.935,-4.027,4,0.055,-0.164,-0.007,5,-3.186,-37.18,35.107
704925.0204,3,-1.082,10.126,-4.853,4,0.075,-0.069,-0.016,5,-4.501,-36.501,35.829
704925.0403,3,0.345,9.693,-4.041,4,0.065,-0.087,-0.008,5,-3.154,-35.753,35.104
704925.0601,3,0.421,10.911,-3.659,4,0.022,-0.09,0.04,5,-3.171,-36.464,33.653
704925.08,3,0.117,8.959,-3.613,4,0.035,0.029,0.037,5,-3.857,-37.19,32.925
704925.0999,3,-0.651,8.882,-3.596,4,0.053,0.221,0.025,5,-2.516,-37.164,35.834
704925.1198,3,0.325,9.404,-5.085,4,0.079,0.289,0.021,,,,
704925.1396,3,1.756,8.729,-5.736,4,0.082,0.252,0.025,5,-4.517,-37.216,37.283
704925.1595,3,1.436,8.203,-5.231,4,0.039,0.229,0.026,5,-1.881,-38.573,35.837
704925.1794,3,-0.002,7.743,-4.599,4,-0.022,0.249,-0.005,5,-3.853,-37.196,35.831
704925.1992,3,0.141,8.349,-4.19,4,-0.073,0.24,-0.024,5,-2.516,-37.164,35.834
704925.2191,3,0.828,9.911,-4.534,4,-0.085,0.166,-0.021,5,-1.212,-38.559,36.565
704925.239,3,1.831,10.528,-3.594,4,-0.076,0.117,-0.032,5,-4.549,-38.641,37.286
704925.2588,3,0.895,9.593,-4.068,4,-0.051,0.141,-0.065,5,-1.831,-36.436,36.559
704925.2787,3,-0.826,7.686,-2.831,4,-0.021,0.189,-0.098,5,-3.185,-37.181,35.832
704925.2985,3,-2.017,9.511,-2.63,4,0.002,0.144,-0.111,5,-1.198,-37.846,35.837
704925.3184,3,-0.885,10.014,-3.087,4,0.038,0.07,-0.102,5,-1.196,-37.848,36.563
704925.3383,3,-0.531,10.684,-2.682,4,0.043,0.007,-0.08,5,-1.865,-37.865,37.288
704925.3581,3,-0.306,7.659,-2.962,4,0.054,-0.008,-0.042,5,-1.178,-37.138,38.014
704925.378,3,-0.065,8.497,-2.146,4,0.027,0.052,-0.014,5,-1.18,-37.134,36.562
704925.3979,3,0.002,9.413,-0.476,4,0.005,0.157,0.003,5,-1.208,-38.565,38.745
704925.4178,3,-0.282,10.885,-0.12,4,-0.034,0.279,0.015,5,-1.848,-37.151,37.286
704925.4376,3,1.771,11.426,-0.902,4,-0.008,0.422,0.021,5,-2.53,-37.885,38.014
704925.4575,3,3.34,11.072,-4.288,4,0.067,0.588,0.054,5,-1.88,-38.574,36.563
704925.4773,3,1.491,8.329,-3.501,4,0.142,0.879,0.019,5,-3.865,-37.918,38.739
704925.4972,3,-0.735,10.169,-3.441,4,0.108,1.212,-0.092,5,-1.851,-37.146,35.109
704925.5171,3,-2.989,11.208,-3.415,4,0.049,1.357,-0.141,5,-4.565,-39.355,37.288
704925.5369,3,-0.811,10.433,-1.122,4,-0.006,1.247,-0.128,5,-5.203,-37.944,35.831
704925.5568,3,0.316,8.753,-2.199,4,-0.057,0.981,-0.103,5,-5.193,-37.219,31.473
704925.5767,3,-0.543,9.882,-3.702,4,-0.043,0.827,-0.129,5,-6.543,-37.97,32.922
704925.5965,3,-1.074,9.768,-5.152,4,-0.004,0.737,-0.153,5,-7.866,-37.282,30.74
704925.6164,3,-0.859,8.066,-4.317,4,-0.039,0.487,-0.137,5,-9.23,-38.741,31.47
704925.6363,3,-0.268,8.564,-3.465,4,-0.107,0.16,-0.107,5,-8.58,-39.439,31.471
704925.6561,3,0.883,9.684,-2.134,4,-0.142,-0.157,-0.09,5,-9.882,-38.051,32.918
704925.676,3,0.584,7.131,-1.414,4,-0.111,-0.411,-0.062,5,-10.568,-38.771,30.014
704925.6959,3,3.285,10.765,-4.795,4,-0.028,-0.462,-0.062,5,-9.912,-39.478,33.649
704925.7157,3,3.491,11.332,-4.386,4,0.084,-0.329,-0.09,5,-9.178,-36.61,34.369
704925.7356,3,3.685,9.751,-2.046,4,0.084,-0.108,-0.111,5,-7.861,-37.291,34.372
704925.7555,3,2.034,8.164,-0.357,4,0.022,0.121,-0.163,5,-9.227,-38.747,33.649
704925.7753,3,0.641,9.148,-1.563,4,0.028,0.261,-0.203,5,-7.877,-38.007,35.101
704925.7952,3,2.166,10.38,-3.809,4,0.086,0.295,-0.245,5,-9.215,-38.031,32.193
704925.8151,3,0.94,9.758,-3.896,4,0.122,0.358,-0.257,5,-7.878,-38.004,33.649
704925.8349,3,-1.622,9.732,-1.764,4,0.082,0.445,-0.3,5,-8.546,-38.019,32.919
704925.8548,3,-3.185,9.076,-0.744,4,-0.012,0.444,-0.339,5,-8.514,-36.589,32.19
704925.8747,3,-2.221,9.679,-2.465,4,-0.05,0.24,-0.304,5,-6.544,-37.965,31.471
704925.8945,3,-1.618,9.464,-2.95,4,-0.051,-0.044,-0.233,5,-7.211,-37.987,32.922
704925.9144,3,-1.876,10.567,-2.656,4,-0.071,-0.256,-0.196,5,-7.884,-37.994,30.017
704925.9342,3,-2.316,11.311,-1.127,4,-0.105,-0.466,-0.173,5,-9.216,-38.028,30.74
704925.9541,3,-3.441,9.098,-1.613,4,-0.105,-0.697,-0.097,5,-7.15,-35.124,29.283
704925.974,3,-1.259,8.837,-4.216,4,-0.072,-0.929,-0.014,5,-8.551,-38.011,30.016
704925.9939,3,0.148,8.722,-5.044,4,0,-1.052,0.039,5,-6.531,-37.248,30.017
704926.0137,3,-0.605,8.846,-5.661,4,0.024,-1.049,0.076,5,-9.203,-37.309,28.56
704926.0336,3,-0.261,10.426,-3.364,4,-0.038,-0.94,0.128,5,-7.884,-37.993,29.289
704926.0535,3,1.608,10.339,0.038,4,-0.101,-0.741,0.188,5,-7.867,-37.279,29.288
704926.0733,3,0.83,6.437,1.311,4,-0.142,-0.478,0.249,5,-7.867,-37.279,29.288
704926.0932,3,1.225,9.957,-2.022,4,-0.06,-0.217,0.249,5,-7.849,-36.569,30.739
704926.1131,3,3.13,11.909,-4.539,4,0.075,0.008,0.211,5,-8.482,-35.161,31.461
704926.1329,3,2.213,12.057,-2.142,4,0.084,0.194,0.188,5,-8.531,-37.3,31.467
704926.1528,3,1.364,9.878,1.773,4,-0.002,0.397,0.177,5,-7.88,-38.002,32.921
704926.1727,3,0.175,8.585,0.16,4,-0.078,0.493,0.139,5,-7.864,-37.283,31.468
704926.1925,3,-1.213,9.076,-4.18,4,-0.013,0.42,0.08,5,-9.195,-37.321,33.646
704926.2124,3,-0.613,8.911,-5.633,4,0.087,0.334,0.065,5,-10.55,-38.063,31.465
704926.2323,3,1.223,9.952,-4.245,4,0.066,0.271,0.09,5,-9.863,-37.338,33.644
704926.2521,3,2.036,10.643,-2.539,4,-0.023,0.226,0.104,5,-10.533,-37.35,32.188
704926.272,3,2.173,8.935,0,4,-0.093,0.255,0.093,5,-9.882,-38.051,32.918
704926.2919,3,1.412,9.114,-0.273,4,-0.105,0.301,0.057,5,-11.201,-37.366,32.187
704926.3117,3,0.83,9.428,-2.737,4,-0.034,0.36,-0.003,5,-9.882,-38.051,32.918
704926.3316,3,0.596,9.909,-3.462,4,0.054,0.492,-0.046,5,-9.883,-38.046,31.467
704926.3515,3,0.033,8.853,-2.024,4,0.07,0.697,-0.056,5,-11.186,-36.65,30.733
704926.3713,3,-1.699,10.342,-0.924,4,0.013,0.911,-0.038,5,-9.184,-36.6,30.013
704926.3912,3,-1.151,11.696,-0.653,4,-0.002,1.093,-0.067,5,-11.855,-36.667,30.733
704926.4111,3,-0.706,9.294,-0.632,4,0.018,1.196,-0.074,5,-11.871,-37.379,30.734
704926.4309,3,-1.153,10.344,-2.149,4,0.051,1.343,-0.059,5,-11.888,-38.094,30.736
704926.4508,3,-3.106,9.586,-2.378,4,0.101,1.48,-0.064,5,-12.553,-38.112,31.462
704926.4707,3,-3.357,11.115,-2.876,4,0.083,1.561,-0.073,5,-15.208,-37.46,30.728
704926.4905,3,-1.333,10.705,-1.168,4,0.05,1.55,-0.034,5,-15.208,-37.46,30.728
704926.5104,3,0.907,7.301,-1.603,4,-0.038,1.503,-0.009,5,-16.528,-36.778,30
704926.5303,3,2.032,10.485,-1.974,4,-0.07,1.527,-0.01,5,-15.878,-37.474,29.274
704926.5501,3,1.397,10.485,-0.936,4,-0.059,1.588,-0.052,5,-13.892,-38.142,30.733
704926.57,3,0.639,10.751,0.479,4,-0.057,1.621,-0.095,5,-17.836,-35.381,27.814
704926.5899,3,0.617,10.289,1.395,4,-0.034,1.579,-0.109,5,-21.205,-36.885,27.086
704926.6097,3,1.752,9.825,-0.586,4,0.034,1.433,-0.142,5,-19.188,-36.125,27.815
704926.6296,3,2.139,8.607,-3.702,4,0.126,1.286,-0.175,5,-19.223,-37.546,25.638
704926.6495,3,1.656,10.677,-4.606,4,0.186,1.242,-0.198,5,-20.509,-35.435,24.178
704926.6693,3,0.031,10.241,-4.183,4,0.152,1.285,-0.224,5,-22.496,-34.77,24.173
704926.6892,3,-1.945,11.086,-1.488,4,0.042,1.314,-0.26,5,-23.199,-36.212,23.45
704926.7091,3,-1.302,9.897,1.094,4,-0.035,1.141,-0.267,5,-23.152,-34.067,21.266
704926.7289,3,0.737,9.406,-0.167,4,-0.061,0.735,-0.262,5,-25.14,-33.398,19.806
704926.7488,3,0.304,9.583,-2.142,4,0.075,0.375,-0.208,5,-23.189,-35.489,19.09
704926.7686,3,-0.29,8.437,-4.585,4,0.175,0.132,-0.212,5,-23.189,-35.489,19.09
704926.7885,3,-0.943,9.756,-5.764,4,0.219,-0.068,-0.222,5,-22.533,-36.191,21.997
704926.8084,3,0.242,9.507,-4.455,4,0.203,-0.355,-0.185,5,-24.504,-34.811,21.265
704926.8283,3,0.443,9.643,-2.606,4,0.112,-0.644,-0.157,5,-22.516,-35.478,21.994
704926.8481,3,0.103,9.088,-2.082,4,0.051,-0.785,-0.135,5,-23.216,-36.922,21.999
704926.868,3,1.807,9.473,-1.603,4,0.037,-0.714,-0.109,5,-22.545,-36.911,24.179
704926.8879,3,2.316,11.134,-3.022,4,0.057,-0.631,-0.081,5,-21.193,-36.168,25.632
704926.9077,3,0.529,8.035,-4.975,4,0.131,-0.569,-0.059,5,-21.225,-37.595,25.635
704926.9276,3,1.639,9.576,-6.977,4,0.166,-0.484,-0.084,5,-21.225,-37.595,25.635
704926.9474,3,3.099,10.524,-5.441,4,0.189,-0.361,-0.104,5,-21.225,-37.595,25.635
704926.9673,3,2.276,7.858,-2.761,4,0.062,-0.11,-0.115,5,-21.225,-37.595,25.635
704926.9872,3,-0.108,8.023,-2.091,4,-0.034,0.129,-0.113,5,-19.203,-36.836,27.089
704927.007,3,0.715,9.641,-4.065,4,-0.038,0.221,-0.119,5,-16.566,-38.196,26.372
704927.0269,3,0.292,11.05,-3.826,4,-0.005,0.099,-0.135,5,-15.196,-36.739,27.095
704927.0468,3,-1.206,11.507,-4.286,4,0.005,-0.055,-0.147,5,-14.561,-38.152,27.827
704927.0666,3,-0.189,7.449,-3.015,4,-0.017,-0.182,-0.129,5,-14.577,-38.863,27.829
704927.0865,3,-0.883,8.64,-3.872,4,-0.041,-0.349,-0.111,5,-13.24,-38.834,29.282
704927.1064,3,-1.247,9.945,-3.642,4,-0.007,-0.516,-0.112,5,-14.539,-37.445,31.458
704927.1263,3,-1.768,9.31,-4.178,4,0.005,-0.647,-0.078,5,-11.871,-37.379,30.734
704927.1461,3,-0.859,7.43,-3.441,4,-0.001,-0.792,-0.034,5,-11.934,-40.237,32.921
704927.166,3,-3.149,8.523,-5.015,4,-0.007,-0.925,0.029,5,-11.899,-38.812,33.644
704927.1858,3,-2.072,9.523,-4.728,4,0.018,-0.94,0.097,5,-10.55,-38.065,32.19
704927.2057,3,5.154,8.997,-3.905,4,0.018,-0.917,0.181,5,-9.244,-39.462,34.375
704927.2256,3,7.47,8.104,-2.333,4,-0.034,-0.616,0.256,5,-9.227,-38.747,33.649
704927.2454,3,6.073,9.028,0.546,4,-0.059,0.256,0.238,5,-11.937,-40.231,30.742
704927.2653,3,0.806,12.845,-1.548,4,0.026,1.445,0.113,5,-10.562,-38.78,33.646
704927.2852,3,-1.199,10.694,-2.625,4,0.165,2.215,-0.031,5,-11.934,-40.237,32.921
704927.305,3,-1.232,8.964,-5.393,4,0.248,2.39,-0.146,5,-13.904,-38.86,32.913
704927.3249,3,-2.474,11.438,-3.508,4,0.196,2.223,-0.241,5,-11.919,-39.522,32.191
704927.3447,3,-2.297,5.379,-1.139,4,0.088,1.964,-0.242,5,-14.572,-38.869,30.733
704927.3646,3,-3.695,11.182,-2.18,4,-0.001,1.642,-0.201,5,-15.208,-37.46,30.728
704927.3845,3,-1.728,12.558,-2.666,4,0.033,1.198,-0.216,5,-13.258,-39.546,28.557
704927.4044,3,-0.347,10.277,-2.95,4,0.04,0.612,-0.23,5,-14.592,-39.578,28.555
704927.4242,3,-1.615,7.394,-1.574,4,0.022,0.23,-0.201,5,-15.23,-38.165,27.098
704927.4441,3,-2.295,10.146,-1.878,4,-0.008,0.081,-0.186,5,-14.574,-38.866,29.28
704927.464,3,0.364,10.926,-2.45,4,0.01,-0.153,-0.144,5,-15.23,-38.168,27.826
704927.4838,3,0.852,10.217,-4.082,4,0.018,-0.375,-0.102,5,-15.915,-38.892,26.373
704927.5037,3,1.775,7.683,-5.678,4,0.031,-0.327,-0.089,5,-16.58,-38.908,27.098
704927.5236,3,0.127,8.069,-4.075,4,-0.023,-0.135,-0.1,5,-16.579,-38.913,28.551
704927.5434,3,1.452,10.777,-2.821,4,-0.074,0.013,-0.076,5,-16.582,-38.907,26.373
704927.5633,3,1.833,9.957,-1.314,4,-0.094,0.03,-0.067,5,-17.233,-38.214,27.095
704927.5831,3,1.036,9.093,-0.488,4,-0.093,0.036,-0.086,5,-16.617,-40.332,25.65
704927.603,3,0.816,9.205,-1.527,4,-0.05,0.014,-0.106,5,-15.93,-39.607,27.1
704927.6229,3,-0.033,9.662,-1.732,4,0.01,-0.027,-0.101,5,-17.265,-39.642,27.826
704927.6427,3,-0.177,10.385,-2.599,4,0.043,-0.083,-0.123,5,-15.91,-38.899,29.277
704927.6626,3,1.886,10.739,-2.503,4,0.067,-0.159,-0.133,5,-17.947,-40.376,30.006
704927.6825,3,2.13,5.57,-3.324,4,0.068,-0.178,-0.102,5,-16.629,-41.049,27.104
704927.7024,3,2.814,9.911,-5.585,4,0.053,-0.037,-0.109,5,-16.597,-39.626,27.827
704927.7222,3,1.539,11.976,-4.049,4,0.05,0.21,-0.153,5,-17.934,-39.656,27.097
704927.7421,3,0.342,10.761,-0.928,4,-0.059,0.461,-0.198,5,-17.934,-39.659,27.824
704927.762,3,0.156,8.368,-0.665,4,-0.107,0.651,-0.218,5,-17.982,-41.798,27.831
704927.7818,3,0.124,9.648,-3.336,4,-0.028,0.659,-0.26,5,-17.268,-39.636,25.645
704927.8017,3,-0.007,8.475,-5.166,4,0.106,0.555,-0.326,5,-15.263,-39.589,26.376
704927.8209,3,-0.842,10.035,-5.628,4,0.139,0.454,-0.359,5,-19.257,-38.969,24.916
704927.8414,3,-3.549,8.868,-2.259,4,0.079,0.362,-0.383,5,-16.617,-40.332,25.65
704927.8613,3,-4.13,9.995,0.081,4,-0.028,0.232,-0.357,5,-16.566,-38.196,26.372
704927.8811,3,-3.17,10.902,-0.122,4,-0.066,-0.02,-0.285,5,-15.95,-40.317,25.65
704927.901,3,-2.285,10.725,-0.744,4,-0.054,-0.334,-0.224,5,-15.279,-40.303,27.104
704927.9209,3,-1.448,8.964,-1.146,4,-0.006,-0.548,-0.159,5,-15.962,-41.034,27.104
704927.9407,3,-0.002,10.258,-1.503,4,0.02,-0.627,-0.068,5,-15.311,-41.733,27.835
704927.9606,3,0.28,8.729,-0.27,4,0.023,-0.635,-0.003,5,-15.279,-40.303,27.104
704927.9805,3,1.519,12.043,-1.498,4,-0.033,-0.6,0.007,5,-13.96,-40.988,27.837
704928.0003,3,3.182,9.921,-1.362,4,-0.024,-0.545,0.019,5,-15.289,-41.026,30.737
704928.0202,3,1.974,7.712,-2.599,4,-0.02,-0.402,0.035,5,-13.927,-39.563,28.557
704928.0401,3,2.048,11.105,-3.546,4,-0.002,-0.173,0.006,5,-15.292,-41.022,28.558
704928.0599,3,1.082,10.213,-2.055,4,0.004,0.012,-0.036,5,-15.947,-40.323,27.831
704928.0798,3,0.651,9.751,-0.632,4,-0.081,0.185,-0.048,5,-15.279,-40.303,27.104
704928.0997,3,-0.213,9.016,-1.211,4,-0.115,0.233,-0.067,5,-14.61,-40.289,27.834
704928.1196,3,-0.967,10.215,-2.158,4,-0.088,0.086,-0.087,5,-14.61,-40.286,27.106
704928.1394,3,-1.429,9.815,-2.845,4,-0.05,-0.151,-0.107,5,-15.26,-39.595,28.554
704928.1593,3,-2.146,8.7,-2.024,4,-0.048,-0.4,-0.096,5,-13.928,-39.558,27.104
704928.1791,3,-1.424,9.145,-2.063,4,-0.044,-0.587,-0.073,5,-13.911,-38.844,27.103
704928.199,3,-0.9,10.729,-2.311,4,-0.022,-0.709,-0.027,5,-15.276,-40.309,29.283
704928.2189,3,0.689,11.598,-2.232,4,0.01,-0.755,0.021,5,-12.608,-40.242,27.837
704928.2387,3,0.345,9.54,-0.933,4,0.028,-0.652,0.065,5,-13.96,-40.988,27.837
704928.2586,3,-0.397,9.16,-2.546,4,0.031,-0.368,0.067,5,-13.954,-40.996,31.468
704928.2785,3,-0.68,8.499,-3.166,4,0.078,-0.029,0.051,5,-11.923,-39.514,28.56
704928.2984,3,0.452,10.292,-3.855,4,0.11,0.212,0.064,5,-14.61,-40.289,27.834
704928.3182,3,-0.294,9.083,-1.866,4,0.095,0.364,0.074,5,-14.59,-39.58,29.282
704928.3381,3,0.268,10.026,-2.295,4,0.027,0.426,0.056,,,,
704928.358,3,0.72,9.846,-1.644,4,-0.008,0.387,0.052,5,-13.96,-40.988,27.837
704928.3778,3,0.625,8.014,-2.819,4,-0.017,0.337,0.05,,,,
704928.3977,3,0.117,11.105,-3.706,4,0.005,0.232,0.014,5,-15.294,-41.02,27.834
704928.4175,3,-0.311,10.325,-2.285,4,0.009,0.103,-0.026,5,-14.59,-39.581,30.009
704928.4374,3,-0.237,10.39,-0.603,4,-0.061,-0.027,-0.027,5,-15.262,-39.59,27.101
704928.4573,3,-0.182,8.822,-0.179,4,-0.098,-0.118,-0.016,5,-14.612,-40.285,26.381
704928.4771,3,0.041,12.301,-1.728,4,-0.057,-0.107,-0.009,5,-13.96,-40.985,27.109
704928.497,3,-0.536,9.502,-2.343,4,0.021,-0.049,-0.01,5,-15.947,-40.323,27.831
704928.5169,3,-0.067,9.784,-1.831,4,0.032,-0.064,-0.012,5,-15.245,-38.876,27.1
704928.5368,3,-1.134,8.997,-1.362,4,0.01,-0.102,-0.016,5,-13.26,-39.545,27.832
704928.5566,3,-1.177,9.425,-1.579,4,-0.002,-0.11,-0.001,5,-13.948,-40.268,25.655
704928.5765,3,-0.455,9.657,-2.723,4,0.013,-0.126,0.021,5,-14.642,-41.716,27.837
704928.5963,3,-0.196,8.897,-2.134,4,0.027,-0.12,0.035,5,-15.26,-39.595,28.554
704928.6162,3,-0.84,10.438,-1.854,4,0.033,-0.019,0.04,5,-13.947,-40.269,26.382
704928.6361,3,-0.682,9.141,-1.732,4,0.032,0.138,0.051,5,-15.279,-40.306,27.832
704928.6559,3,-0.218,10.217,-2.948,4,0.028,0.263,0.062,5,-13.945,-40.274,27.835
704928.6758,3,0.321,9.203,-2.299,4,0.043,0.322,0.056,5,-14.594,-39.577,27.831
704928.6957,3,0.077,9.729,-2.816,4,0.033,0.392,0.041,5,-15.294,-41.017,27.106
704928.7155,3,1.125,12.146,-4.039,4,0.037,0.478,0.023,5,-13.911,-38.847,27.831
704928.7354,3,1.383,10.311,-1.086,4,0.029,0.575,0.008,5,-15.245,-38.876,27.1
704928.7553,3,-0.957,6.891,-0.44,4,-0.037,0.719,-0.015,5,-17.316,-41.777,26.379
704928.7751,3,-2.139,10.607,-2.541,4,-0.007,0.801,-0.057,5,-16.597,-39.622,27.1
704928.795,3,-2.295,9.878,-3.4,4,0.072,0.72,-0.074,5,-15.279,-40.306,27.832
704928.8149,3,-1.247,10.363,-1,4,0.057,0.515,-0.057,5,-16.615,-40.334,26.378
704928.8347,3,0.79,11.129,-1.46,4,-0.005,0.249,-0.031,5,-17.297,-41.066,27.103
704928.8546,3,0.462,8.889,-0.577,4,-0.029,0.003,-0.015,5,-17.935,-39.655,26.372
704928.8745,3,0.163,10.284,-1.491,4,-0.01,-0.132,-0.015,5,-17.284,-40.35,26.376
704928.8943,3,0.354,9.193,-2.347,4,0.031,-0.213,-0.025,5,-16.644,-41.766,28.558
704928.9142,3,-0.361,9.947,-3.017,4,0.026,-0.363,-0.03,5,-17.317,-41.776,25.652
704928.9341,3,0.352,9.638,-1.976,4,0.012,-0.478,-0.041,5,-15.948,-40.318,26.378
704928.9539,3,0.9,9.205,-1.539,4,-0.024,-0.534,-0.024,5,-15.945,-40.324,28.555
704928.9738,3,-0.084,9.392,-2.704,4,-0.034,-0.537,0.003,5,-15.984,-41.742,24.928
704928.9937,3,-0.275,9.643,-1.96,4,-0.018,-0.495,0.017,5,-15.947,-40.323,27.831
704929.0135,3,1.184,10.411,-2.883,4,-0.027,-0.433,0.02,5,-17.297,-41.069,27.831
704929.0334,3,1.062,8.841,-0.536,4,-0.049,-0.382,0.036,5,-13.948,-40.268,25.655
704929.0532,3,0.079,9.401,-1.22,4,-0.07,-0.262,0.042,5,-15.962,-41.037,27.832
704929.0731,3,-0.962,10.715,-2.575,4,-0.049,-0.192,0.02,5,-15.962,-41.034,27.104
704929.093,3,-1.053,9.411,-1.852,4,-0.011,-0.11,0.014,5,-15.315,-41.725,24.93
704929.1129,3,-1.043,10.502,-3.149,4,-0.011,-0.011,0.026,5,-17.25,-38.924,26.372
704929.1327,3,-1.254,10.866,-1.232,4,0.006,0.046,0.034,5,-15.279,-40.303,27.104
704929.1526,3,-2.041,6.882,-1.656,4,-0.005,0.164,0.065,5,-15.948,-40.318,26.378
704929.1725,3,-2.57,6.846,-1.682,4,-0.008,0.238,0.08,5,-17.297,-41.066,27.103
704929.1923,3,-1.065,13.156,-2.704,4,0.017,0.276,0.097,5,-15.981,-41.745,26.381
704929.2122,3,-0.505,10.368,-1.098,4,-0.037,0.358,0.146,5,-16.629,-41.049,27.104
704929.232,3,0.957,10.574,-0.811,4,-0.07,0.463,0.181,5,-17.955,-40.364,24.922
704929.2519,3,0.861,9.897,-0.991,4,-0.038,0.591,0.183,5,-18.652,-41.808,25.65
704929.2718,3,0.112,9.322,-2.685,4,0.037,0.684,0.164,5,-17.316,-41.777,26.379
704929.2916,3,0.151,10.014,-5.748,4,0.109,0.724,0.103,5,-18.602,-39.67,26.372
704929.3115,3,-0.412,9.679,-5.264,4,0.149,0.764,0.068,5,-19.289,-40.398,25.645
704929.3314,3,-0.167,8.997,-4.006,4,0.09,0.836,0.05,5,-20.607,-39.714,24.188
704929.3512,3,0.44,9.057,-2.211,4,0.006,0.905,0.021,5,-19.305,-41.11,24.922
704929.3711,3,0.78,9.59,-3.123,4,-0.008,0.977,0.001,5,-19.989,-41.837,24.196
704929.391,3,0.486,9.916,-3.429,4,0.038,1.071,-0.027,5,-20.638,-41.144,25.644
704929.4109,3,-0.218,8.205,-2.835,4,0.076,1.089,-0.084,5,-20.656,-41.853,24.194
704929.4307,3,-0.287,9.933,-4.656,4,0.092,1.061,-0.126,5,-20.639,-41.141,24.193
704929.4506,3,-1.357,10.112,-3.175,4,0.116,1.066,-0.156,5,-21.992,-41.887,24.919
704929.4704,3,-1.058,7.877,-3.094,4,0.099,1.058,-0.173,5,-21.31,-41.154,22.74
704929.4903,3,-2.311,11.565,-1.9,4,0.087,1.016,-0.183,5,-19.972,-41.125,24.921
704929.5102,3,-2.455,8.238,-3.915,4,0.127,0.911,-0.187,5,-20.009,-42.548,22.745
704929.53,3,-2.962,9.377,-4.281,4,0.141,0.757,-0.189,5,-19.975,-41.121,22.742
704929.5499,3,-1.941,11.241,-4.034,4,0.153,0.568,-0.176,5,-20.659,-41.85,22.742
704929.5698,3,-2.395,7.04,-3.348,4,0.104,0.42,-0.146,5,-20.656,-41.853,24.194
704929.5896,3,-1.878,10.54,-5.413,4,0.057,0.342,-0.104,5,-20.662,-41.844,20.563
704929.6095,3,0.601,10.428,-3.924,4,0.062,0.18,-0.064,5,-20.01,-42.543,21.292
704929.6294,3,1.12,9.973,-1.216,4,-0.013,0.017,-0.047,5,-20.61,-39.711,22.736
704929.6492,3,1.708,11.33,-0.215,4,-0.04,-0.032,-0.026,5,-19.971,-41.127,25.645
704929.6691,3,2.11,6.568,-5.425,4,0.046,-0.057,-0.043,5,-19.991,-41.835,23.468
704929.689,3,2.658,9.779,-7.547,4,0.161,-0.184,-0.081,5,-19.339,-42.535,24.199
704929.7088,3,4.458,7.834,-6.353,4,0.272,-0.35,-0.112,5,-16.014,-43.173,26.384
704929.7287,3,1.433,7.738,-2.57,4,0.095,-0.492,-0.173,5,-16.711,-44.617,27.113
704929.7486,3,-0.785,10.715,-3.565,4,-0.063,-0.424,-0.257,5,-14.693,-43.852,26.39
704929.7684,3,-1.716,8.466,-4.039,4,-0.105,-0.362,-0.317,5,-14.693,-43.852,26.39
704929.7883,3,0.447,9.892,-3.546,4,-0.065,-0.386,-0.29,5,-18.666,-42.528,27.832
704929.8082,3,1.369,10.275,-5.262,4,0.017,-0.357,-0.178,5,-17.317,-41.776,25.652
704929.828,3,-0.699,9.289,-4.03,4,0.077,-0.184,-0.115,5,-17.317,-41.776,25.652
704929.8479,3,-1.912,8.009,-3.099,4,0.07,0.033,-0.128,5,-17.317,-41.776,25.652
704929.8677,3,-1.421,9.622,-3.4,4,0.043,0.14,-0.124,5,-16.663,-42.476,27.107
704929.8876,3,-0.412,11.107,-3.541,4,0.012,0.121,-0.089,5,-16.031,-43.884,25.659
704929.9075,3,-0.782,9.023,-1.149,4,-0.095,0.042,-0.053,5,-15.999,-42.458,25.655
704929.9273,3,-2.67,10.394,-1.795,4,-0.128,-0.007,-0.049,5,-16.666,-42.473,25.655
704929.9472,3,-3.027,8.959,-4.577,4,-0.026,-0.12,-0.063,5,-17.967,-41.081,26.376
704929.9671,3,-1.639,9.614,-6.267,4,0.059,-0.325,-0.037,5,-15.315,-41.725,24.93
704929.987,3,-0.601,8.394,-4.616,4,0.061,-0.424,0.01,5,-16.681,-43.188,26.384
704930.0068,3,-1.299,8.31,-2.486,4,-0.051,-0.333,0.081,5,-15.981,-41.745,26.381
704930.0267,3,-0.273,9.212,-2.924,4,-0.103,-0.142,0.131,5,-15.979,-41.75,27.834
704930.0466,3,0.455,9.959,-4.233,4,-0.041,0.023,0.148,5,-16.026,-43.892,28.564
704930.0664,3,0.696,9.734,-4.929,4,0.005,0.145,0.144,5,-17.969,-41.08,25.648
704930.0863,3,0.421,8.167,-3.747,4,0.006,0.3,0.109,5,-15.964,-41.032,26.379
704930.1061,3,-0.019,9.05,-4.522,4,-0.008,0.414,0.09,5,-17.982,-41.795,27.103
704930.126,3,-0.665,9.93,-4.341,4,0.011,0.492,0.064,5,-17.986,-41.792,25.65
704930.1459,3,-1.814,10.61,-3.991,4,-0.001,0.521,0.032,5,-16.666,-42.473,25.655
704930.1657,3,-1.955,8.786,-3.735,4,-0.033,0.492,0.003,5,-19.322,-41.821,24.197
704930.1856,3,-2.125,10.954,-2.041,4,-0.015,0.443,-0.004,5,-17.267,-39.638,26.373
704930.2055,3,-2.381,8.763,-2.79,4,0.023,0.381,-0.003,5,-18.669,-42.522,25.652
704930.2253,3,-1.967,8.016,-4.982,4,0.065,0.27,0.003,5,-17.986,-41.792,25.65
704930.2452,3,-1.117,8.751,-6.047,4,0.12,0.172,0.01,5,-19.339,-42.537,24.925
704930.2651,3,-0.026,11.328,-2.962,4,0.115,0.175,0.054,5,-19.301,-41.115,27.1
704930.2849,3,0.172,9.102,-2.445,4,0.038,0.278,0.078,5,-17.969,-41.08,25.648
704930.3048,3,1.469,7.693,-4.175,4,-0.011,0.342,0.082,5,-19.304,-41.112,25.647
704930.3247,3,1.445,9.653,-2.414,4,0.013,0.295,0.042,5,-18.002,-42.506,25.652
704930.3445,3,1.388,6.877,-3.24,4,0.027,0.3,0.004,5,-19.952,-40.416,27.097
704930.3644,3,1.027,13.34,-3.955,4,0.029,0.292,-0.048,5,-18.637,-41.092,24.197
704930.3843,3,0.069,10.26,-2.749,4,0.04,0.228,-0.095,5,-19.972,-41.125,24.921
704930.4041,3,0.553,7.784,-3.101,4,-0.031,0.201,-0.101,5,-20.006,-42.552,24.924
704930.424,3,-1.311,11.833,-3.651,4,-0.026,0.119,-0.1,5,-17.339,-42.484,22.749
704930.4439,3,-3.089,6.611,-0.531,4,0.011,0.044,-0.135,5,-20.639,-41.142,24.919
704930.4637,3,-3.398,7.633,-4.951,4,-0.034,-0.041,-0.148,5,-19.305,-41.11,24.922
704930.4836,3,-3.455,12.897,-7.068,4,0.068,-0.159,-0.114,5,-20.009,-42.548,22.745
704930.5034,3,-2.335,7.269,-3.338,4,0.112,-0.104,-0.029,5,-18.007,-42.5,22.748
704930.5233,3,-0.943,9.669,-2.529,4,0.002,0.074,0.075,5,-19.341,-42.534,23.471
704930.5432,3,-1.07,10.421,-3.623,4,-0.015,0.25,0.122,5,-19.327,-41.814,21.292
704930.5631,3,-0.079,7.205,-3.833,4,0.015,0.469,0.125,5,-20.656,-41.855,24.921
704930.5829,3,-0.196,12.689,-2.886,4,0.033,0.676,0.117,5,-19.962,-40.402,21.288
704930.6028,3,-0.668,8.739,-0.12,4,0.029,0.876,0.092,5,-20.659,-41.847,22.014
704930.6227,3,0.019,8.361,-1.275,4,-0.017,1.012,0.074,5,-22.646,-41.183,22.009
704930.6425,3,-0.316,10.926,-6.384,4,0.049,1,0.019,5,-22.012,-42.596,22.742
704930.6624,3,-0.232,9.093,-3.245,4,0.134,0.94,-0.047,5,-21.965,-40.451,21.284
704930.6823,3,-1.862,9.734,-3.233,4,0.056,0.921,-0.089,5,-23.315,-41.199,21.284
704930.7021,3,-1.225,10.303,-0.835,4,-0.04,0.835,-0.12,5,-22.649,-41.18,20.558
704930.722,3,-1.433,7.817,-0.605,4,-0.061,0.735,-0.118,5,-23.315,-41.199,21.284
704930.7418,3,0.407,8.423,-4.032,4,-0.046,0.488,-0.13,5,-22.697,-43.323,21.289
704930.7617,3,0.16,8.605,-6.164,4,0.037,0.189,-0.175,5,-24.652,-41.228,19.827
704930.7816,3,0.28,9.09,-4.135,4,0.068,0.067,-0.173,5,-23.286,-39.767,19.101
704930.8014,3,0.859,11.667,-3.053,4,-0.005,0,-0.136,5,-21.98,-41.165,21.286
704930.8213,3,1.46,7.865,-1.464,4,-0.056,-0.082,-0.135,5,-23.334,-41.908,19.832
704930.8412,3,2.678,8.236,-4.405,4,-0.085,-0.17,-0.108,5,-21.967,-40.45,20.558
704930.8611,3,2.144,12.842,-4.759,4,-0.032,-0.328,-0.136,5,-21.982,-41.164,20.56
704930.8809,3,0.914,10.43,0.799,4,-0.046,-0.404,-0.185,5,-23.985,-41.212,20.557
704930.9008,3,-0.938,8.518,1.862,4,-0.158,-0.346,-0.189,5,-21.33,-41.861,20.563
704930.9206,3,-0.141,11.411,-2.118,4,-0.126,-0.302,-0.163,5,-21.997,-41.878,21.288
704930.9405,3,-1.673,3.742,-2.682,4,0.039,-0.401,-0.158,5,-19.995,-41.827,20.564
704930.9604,3,-3.005,8.796,-7.499,4,0.083,-0.472,-0.151,5,-21.327,-41.864,22.014
704930.9802,3,-1.493,12.823,-4.58,4,0.092,-0.484,-0.109,5,-21.98,-41.165,21.286
704931.0001,3,-0.668,12.907,1,4,-0.048,-0.266,0.029,5,-21.98,-41.165,21.286
704931.02,3,0.481,8.98,2.649,4,-0.234,0.077,0.134,5,-19.992,-41.83,22.015
704931.0398,3,1.132,10.382,-0.962,4,-0.173,0.32,0.155,5,-22.681,-42.609,21.288
704931.0597,3,-0.45,9.763,-3.594,4,0.039,0.325,0.093,5,-21.98,-41.165,21.286
704931.0796,3,-0.455,9.949,-4.917,4,0.193,0.404,0.012,5,-22.65,-41.177,19.106
704931.0994,3,-0.546,7.585,-1.89,4,0.204,0.547,0.003,5,-22.015,-42.59,20.563
704931.1193,3,0.936,13.943,-3.907,4,0.108,0.734,0.015,5,-21.967,-40.45,20.558
704931.1392,3,-0.467,6.085,-2.546,4,0.06,0.907,-0.007,5,-25.336,-41.957,19.827
704931.159,3,0.278,8.267,-2.029,4,0.017,1.093,-0.071,5,-23.318,-41.194,19.106
704931.1789,3,-0.249,10.27,-4.537,4,0.009,1.001,-0.163,5,-24.67,-41.939,19.104
704931.1988,3,-0.651,13.393,-3.01,4,0.024,0.951,-0.195,5,-22.67,-41.887,17.654
704931.2187,3,-3.431,7.805,1.828,4,-0.048,0.931,-0.206,5,-23.99,-41.203,16.925
704931.2385,3,-2.295,9.638,-1.158,4,-0.137,0.805,-0.246,5,-24.657,-41.22,16.924
704931.2584,3,-1.507,11.38,-4.857,4,0.011,0.482,-0.302,5,-24.658,-41.219,16.197
704931.2783,3,-1.153,9.157,-5.48,4,0.152,0.105,-0.29,5,-23.972,-40.495,19.102
704931.2981,3,0.187,9.291,-4.417,4,0.116,-0.167,-0.24,5,-23.959,-39.775,16.194
704931.318,3,0.201,5.704,-2.302,4,0.05,-0.34,-0.191,5,-24.004,-41.922,19.106
704931.3378,3,0.462,11.792,-5.042,4,-0.024,-0.366,-0.146,5,-23.973,-40.494,18.375
704931.3577,3,1.306,11.218,-2.615,4,-0.024,-0.4,-0.137,5,-23.987,-41.209,19.104
704931.3776,3,2.024,5.757,-2.316,4,-0.104,-0.465,-0.13,5,-22.684,-42.604,19.109
704931.3975,3,2.596,15.369,-3.348,4,-0.116,-0.533,-0.125,5,-21.97,-40.445,18.378
704931.4173,3,1.656,7.583,3.766,4,-0.062,-0.556,-0.126,,,,
704931.4372,3,0.756,9.899,-0.189,4,-0.172,-0.421,-0.109,5,-20.665,-41.84,18.382
704931.4571,3,1.417,10.638,-3.398,4,-0.027,-0.354,-0.126,5,-20.662,-41.844,20.563
704931.4769,3,-0.464,6.341,-5.743,4,0.11,-0.472,-0.169,5,-20.66,-41.846,21.289
704931.4968,3,0.845,10.481,-6.08,4,0.112,-0.389,-0.169,5,-20.679,-42.558,20.564
704931.5166,3,0.692,10.169,-2.907,4,0.043,-0.234,-0.109,5,-20.694,-43.274,21.292
704931.5365,3,0.397,10.689,0.56,4,-0.122,0.037,-0.059,5,-18.678,-42.506,19.116
704931.5564,3,-0.739,11.191,0.4,4,-0.21,0.281,-0.067,5,-18.645,-41.08,19.113
704931.5762,3,-1.567,6.872,0.826,4,-0.156,0.336,-0.114,,,,
704931.5961,3,-2.812,12.354,-2.498,4,-0.071,0.208,-0.146,5,-21.35,-42.57,18.384
704931.616,3,-1.67,10.359,-3.441,4,0.034,0.033,-0.139,5,-20.015,-42.537,18.385
704931.6358,3,-0.991,6.867,-1.752,4,0.032,-0.074,-0.089,5,-20.062,-44.679,19.119
704931.6557,3,-0.591,10.38,-3.989,4,-0.017,-0.126,-0.031,5,-20.012,-42.54,19.838
704931.6756,3,-1.68,11.33,-2.553,4,-0.022,-0.197,-0.013,5,-20.012,-42.54,19.838
704931.6955,3,-1.701,7.128,-1.436,4,-0.079,-0.203,0.007,5,-20.012,-42.542,20.566
704931.7153,3,-1.046,10.988,-2.273,4,-0.116,-0.246,0.041,5,-18.678,-42.506,19.116
704931.7352,3,1.462,10.703,-0.95,4,-0.077,-0.33,0.063,5,-20.68,-42.555,19.112
704931.755,3,0.213,8.662,0.089,4,-0.063,-0.317,0.082,5,-20.662,-41.844,20.563
704931.7749,3,0.684,9.605,-3.498,4,-0.021,-0.168,0.086,5,-19.347,-42.523,19.115
704931.7948,3,1.06,7.521,-5.913,4,0.071,-0.121,0.054,5,-20.029,-43.256,20.567
704931.8146,3,2.419,14.895,-4.613,4,0.108,-0.037,0.058,5,-20.679,-42.557,19.836
704931.8345,3,2.316,6.69,1.582,4,0.028,-0.021,0.073,5,-20.66,-41.846,21.289
704931.8544,3,1.429,9.002,-1.094,4,-0.122,0.08,0.054,5,-20.01,-42.543,21.292
704931.8742,3,0.55,12.476,-2.493,4,-0.059,0.134,-0.016,5,-22.034,-43.301,19.112
704931.8941,3,0.373,7.379,-0.876,4,-0.005,-0.076,-0.109,5,-20.695,-43.271,19.838
704931.914,3,0.668,9.892,-1.426,4,-0.037,-0.129,-0.131,5,-20.029,-43.254,19.839
704931.9338,3,0.019,7.947,-2.029,4,0,-0.099,-0.123,5,-18.66,-41.795,20.567
704931.9537,3,-0.68,11.849,-5.054,4,0.01,-0.036,-0.109,5,-20.695,-43.272,20.566
704931.9736,3,0.95,10.897,0.574,4,0.022,0.055,-0.106,5,-19.363,-43.237,19.116
704931.9934,3,-1.577,7.188,-0.869,4,-0.088,0.058,-0.109,5,-19.365,-43.236,18.388
704932.0133,3,-2.481,8.782,-4.07,4,-0.074,0.136,-0.109,5,-18.71,-43.933,19.121
704932.0332,3,-1.29,14.412,-2.187,4,0.001,0.1,-0.091,5,-20.662,-41.843,19.835
704932.053,3,0.179,8.231,-0.134,4,-0.049,-0.284,-0.038,5,-20.03,-43.253,19.115
704932.0729,3,1.251,8.334,-3.391,4,-0.111,-0.472,-0.024,5,-20.013,-42.538,19.113
704932.0928,3,0.675,11.359,-4.836,4,0.018,-0.46,-0.041,5,-20.064,-44.678,18.391
704932.1126,3,0.122,9.119,-4.506,4,0.071,-0.489,-0.069,5,-18.011,-42.491,19.116
704932.1325,3,-0.038,9.04,-3.283,4,0.039,-0.305,-0.059,5,-20.044,-43.967,19.843
704932.1523,3,-1.689,7.839,-2.819,4,0.027,-0.088,-0.047,5,-19.995,-41.826,19.836
704932.1722,3,-1.149,10.93,-2.522,4,0.037,0.007,-0.064,5,-19.377,-43.953,20.572
704932.1921,3,0.062,10.227,0.266,4,0.056,0.04,-0.082,5,-19.394,-44.667,20.573
704932.2119,3,-1.383,5.31,-1.077,4,0.017,0.047,-0.064,5,-19.408,-45.383,22.026
704932.2318,3,-1.943,15.264,-4.245,4,0.073,0.1,-0.049,5,-18.042,-43.919,19.846
704932.2517,3,-1.718,9.287,-0.608,4,0.142,0.091,-0.06,5,-20.012,-42.542,20.566
704932.2716,3,-2.369,10.021,-0.701,4,0.027,0.026,-0.043,5,-18.706,-43.939,22.025
704932.2914,3,-1.194,9.236,-1.869,4,0.027,0.028,-0.018,5,-18.027,-43.207,19.843
704932.3113,3,-3.056,10.978,-1.237,4,0.054,-0.085,0.025,5,-17.407,-45.329,19.85
704932.3312,3,-2.613,13.811,-0.969,4,0.035,-0.171,0.045,5,-17.387,-44.624,22.755
704932.351,3,-1.582,9.619,0.462,4,0.016,-0.316,0.081,5,-18.724,-44.652,21.301
704932.3709,3,-0.876,7.564,-2.955,4,0.016,-0.415,0.12,5,-17.371,-43.91,22.754
704932.3907,3,-1.67,8.152,-5.731,4,0.116,-0.466,0.146,5,-17.355,-43.195,22.023
704932.4106,3,-0.065,10.988,-4.848,4,0.155,-0.509,0.168,5,-16.635,-41.042,23.473
704932.4305,3,-0.802,7.09,-1.385,4,0.048,-0.423,0.189,5,-17.355,-43.198,22.751
704932.4503,3,0.273,12.857,-2.087,4,-0.067,-0.12,0.257,5,-16.685,-43.182,23.477
704932.4702,3,2.12,13.974,-0.022,4,-0.056,0.128,0.277,5,-18.69,-43.23,22.749
704932.4901,3,1.898,7.664,3.606,4,-0.073,0.252,0.256,5,-18.674,-42.513,22.02
704932.5099,3,0.756,8.131,-2.922,4,-0.041,0.376,0.184,5,-18.005,-42.502,23.473
704932.5298,3,0.72,11.706,-6.126,4,0.152,0.387,0.081,5,-18.672,-42.517,23.473
704932.5497,3,0.443,7.284,-1.988,4,0.224,0.395,0.035,5,-19.307,-41.107,23.468
704932.5695,3,0.371,9.578,-1.275,4,0.057,0.5,0.025,5,-18.642,-41.084,21.292
704932.5894,3,-0.95,7.65,-0.598,4,-0.007,0.59,-0.001,5,-18.642,-41.084,21.292
704932.6093,3,-0.632,9.638,-2.874,4,-0.034,0.477,-0.037,5,-18.642,-41.084,21.292
704932.6291,3,0.309,13.89,-3.331,4,-0.024,0.248,-0.065,5,-19.342,-42.532,22.746
704932.649,3,0.273,6.767,-0.641,4,-0.049,0.075,-0.087,5,-19.342,-42.532,22.746
704932.6689,3,-0.28,9.31,0.301,4,-0.162,-0.014,-0.084,5,-19.325,-41.818,22.745
704932.6887,3,-1.519,11.421,-2.024,4,-0.12,-0.007,-0.069,5,-20.676,-42.561,22.015
704932.7086,3,-0.809,9.741,-1.63,4,-0.063,-0.071,-0.068,5,-19.342,-42.529,22.018
704932.7285,3,-0.479,6.927,-1.57,4,-0.027,-0.152,-0.049,5,-19.342,-42.532,22.746
704932.7483,3,0.952,10.684,-4.53,4,-0.018,-0.234,-0.035,5,-20.66,-41.846,21.289
704932.7682,3,0.955,9.121,-3.697,4,0.042,-0.236,-0.031,5,-19.345,-42.526,20.567
704932.788,3,0.493,9.787,-3.068,4,-0.015,-0.151,-0.042,5,-19.325,-41.815,22.017
704932.8079,3,1.242,9.629,0.029,4,-0.067,-0.03,-0.052,5,-20.026,-43.262,22.746
704932.8278,3,0.294,9.528,-1.261,4,-0.118,0.001,-0.074,5,-20.029,-43.256,20.567
704932.8477,3,1.172,10.236,-2.725,4,-0.078,-0.063,-0.1,5,-18.677,-42.508,19.841
704932.8675,3,0.416,9.471,-2.201,4,-0.016,-0.22,-0.118,5,-20.027,-43.257,21.294
704932.8874,3,-0.55,8.755,-2.977,4,-0.013,-0.289,-0.136,5,-18.675,-42.511,21.295
704932.9073,3,-1.472,8.262,-3.281,4,-0.008,-0.374,-0.14,5,-18.008,-42.496,21.295
704932.9271,3,-2.972,13.496,-1.874,4,-0.01,-0.478,-0.134,5,-16.084,-46.019,22.76
704932.947,3,-2.919,8.219,-0.548,4,-0.043,-0.594,-0.079,5,-16.702,-43.89,22.028
704932.9669,3,-1.586,8.985,-0.536,4,-0.103,-0.73,-0.005,5,-18.692,-43.225,21.297
704932.9867,3,-0.995,11.23,-2.235,4,-0.046,-0.856,0.046,5,-18.657,-41.798,22.018
704933.0066,3,-0.625,8.361,-2.883,4,0.048,-0.884,0.098,5,-18.657,-41.801,22.746
704933.0265,3,1.11,10.595,-4.81,4,0.092,-0.711,0.125,5,-17.322,-41.769,22.748
704933.0463,3,2.484,8.619,-3.371,4,0.141,-0.434,0.167,5,-18.024,-43.214,22.749
704933.0662,3,2.02,9.552,-3.364,4,0.097,-0.037,0.177,5,-18.004,-42.503,24.2
704933.0861,3,2.443,9.014,-2.429,4,0.064,0.349,0.128,5,-16.701,-43.895,23.48
704933.1059,3,1.196,10.701,-0.507,4,0.044,0.63,0.053,5,-17.337,-42.485,23.474
704933.1258,3,-0.244,7.734,-0.852,4,0.039,0.81,-0.031,5,-18.657,-41.798,22.018
704933.1457,3,-1.455,9.777,-2.252,4,0.032,0.845,-0.107,5,-18.01,-42.494,20.569
704933.1655,3,-3.08,12.526,-2.453,4,0.067,0.75,-0.162,5,-17.989,-41.788,23.471
704933.1854,3,-3.371,9.062,0.794,4,0.021,0.63,-0.173,5,-18.657,-41.798,22.018
704933.2053,3,-3.797,12.165,-0.223,4,-0.067,0.417,-0.164,5,-16.655,-41.748,21.297
704933.2251,3,-2.539,9.035,-1.498,4,-0.027,0.133,-0.134,5,-17.372,-43.906,21.301
704933.245,3,-3.017,8.459,-4.568,4,0.027,-0.151,-0.09,5,-18.675,-42.511,21.295
704933.2649,3,-1.933,9.753,-5.822,4,0.086,-0.356,-0.058,5,-18.025,-43.21,21.297
704933.2847,3,-1.18,9.66,-4.159,4,0.072,-0.487,0.002,5,-17.357,-43.193,21.298
704933.3046,3,-0.026,8.162,-1.996,4,-0.017,-0.522,0.075,5,-17.357,-43.193,21.298
704933.3245,3,1.031,10.875,-2.443,4,-0.066,-0.506,0.111,5,-17.99,-41.786,22.746
704933.3443,3,2.24,10.454,-3.214,4,-0.033,-0.456,0.109,5,-18.69,-43.23,22.749
704933.3642,3,2.941,9.985,-2.02,4,0.01,-0.349,0.087,5,-18.704,-43.944,23.477
704933.3841,3,1.641,7.305,-4.589,4,0.029,-0.236,0.062,5,-18.036,-43.932,24.931
704933.4039,3,1.61,10.588,-3.785,4,0.076,-0.118,0.004,5,-18.706,-43.939,22.025
704933.4238,3,0.73,11.39,-2.436,4,0.066,-0.037,-0.042,5,-18.021,-43.217,24.202
704933.4437,3,0.455,7.48,0.053,4,-0.049,0.025,-0.057,5,-15.35,-43.15,23.479
704933.4635,3,-0.024,9.961,-2.52,4,-0.088,0.009,-0.081,5,-17.355,-43.198,22.751
704933.4834,3,-0.72,10.457,-1.85,4,-0.023,-0.109,-0.124,5,-16.017,-43.169,24.205
704933.5033,3,-1.342,8.679,-1.962,4,-0.012,-0.207,-0.153,5,-15.318,-41.721,22.751
704933.5231,3,-1.742,10.83,-4.125,4,-0.028,-0.297,-0.141,5,-17.355,-43.195,22.023
704933.543,3,-2.029,8.803,-2.546,4,-0.007,-0.371,-0.102,5,-15.367,-43.858,22.029
704933.5629,3,-2.235,9.526,-1.206,4,-0.062,-0.471,-0.046,5,-15.366,-43.863,23.482
704933.5827,3,-2.204,11.079,-0.251,4,-0.107,-0.66,0.01,5,-14.696,-43.848,24.211
704933.6026,3,-1.058,11.615,-2.01,4,-0.096,-0.886,0.053,5,-15.334,-42.436,23.477
704933.6224,3,-1.247,5.389,-2.292,4,-0.043,-1.121,0.119,5,-14.017,-43.118,23.482
704933.6423,3,-0.957,13.991,-5.453,4,0.053,-1.195,0.186,5,-14.664,-42.421,24.207
704933.6622,3,0.464,10.868,-3.187,4,0.127,-1.12,0.244,5,-14.645,-41.71,25.656
704933.6821,3,1.888,7.353,0.562,4,0.026,-0.911,0.305,5,-13.313,-41.676,24.933
704933.7019,3,1.031,11.967,-1.898,4,-0.027,-0.675,0.349,5,-15.35,-43.15,23.479
704933.7218,3,1.027,8.93,-1.314,4,0.094,-0.437,0.362,5,-14.68,-43.135,24.208
704933.7417,3,1.831,9.708,-2.816,4,0.119,-0.278,0.309,5,-15.359,-43.871,27.113
704933.7615,3,2.008,9.346,-3.443,4,0.158,-0.059,0.274,5,-14.677,-43.14,26.387
704933.7814,3,0.084,7.939,-2.283,4,0.171,0.202,0.268,5,-13.963,-40.982,25.656
704933.8013,3,-0.354,10.454,-2.457,4,0.131,0.434,0.216,5,-17.302,-41.06,24.199
704933.8211,3,-2.278,10.78,-1.137,4,0.105,0.549,0.145,5,-16.684,-43.185,24.931
704933.841,3,-2.694,11.407,-0.62,4,0.042,0.628,0.126,5,-18.004,-42.505,24.927
704933.8608,3,-3.388,4.111,-0.213,4,0.002,0.643,0.122,5,-17.352,-43.201,24.203
704933.8807,3,-3.285,11.493,-3.733,4,0.034,0.643,0.104,5,-16.652,-41.754,23.474
704933.9006,3,-3.654,12.158,-4.731,4,0.131,0.696,0.115,5,-19.974,-41.122,23.466
704933.9204,3,-0.55,9.294,-1.594,4,0.1,0.836,0.175,5,-19.96,-40.404,22.012
704933.9403,3,-0.407,10.153,-0.098,4,-0.028,0.829,0.197,5,-19.293,-40.388,22.014
704933.9602,3,-0.553,8.904,-0.723,4,-0.065,0.868,0.192,5,-19.957,-40.411,24.919
704933.9801,3,-0.474,10.043,-3.115,4,-0.006,0.834,0.155,5,-21.947,-39.74,22.006
704933.9999,3,0.316,10.086,-4.108,4,0.082,0.766,0.103,5,-20.657,-41.852,23.466
704934.0198,3,-0.27,9.753,-3.001,4,0.061,0.63,0.084,5,-21.977,-41.171,23.463
704934.0396,3,-0.141,9.514,-1.649,4,0.015,0.497,0.054,5,-21.964,-40.453,22.009
704934.0595,3,1.347,10.124,-1.536,4,-0.015,0.364,0.031,5,-21.964,-40.453,22.009
704934.0794,3,0.802,8.416,-1.326,4,-0.012,0.26,0.03,5,-19.96,-40.407,22.74
704934.0992,3,1.034,12.163,-1.522,4,0,0.223,0.008,5,-20.641,-41.139,23.465
704934.1191,3,1.486,5.283,-1.058,4,0.009,0.113,-0.037,5,-21.31,-41.154,22.74
704934.139,3,1.153,11.593,-4.398,4,0.022,0.057,-0.054,5,-21.979,-41.17,22.739
704934.1588,3,1.153,10.883,-3.29,4,0.065,0,-0.093,5,-23.972,-40.495,19.102
704934.1787,3,1.041,9.303,0.282,4,-0.018,0.009,-0.12,5,-20.581,-38.28,20.554
704934.1986,3,-0.256,10.689,0.337,4,-0.094,-0.055,-0.131,5,-20.66,-41.846,21.289
704934.2184,3,-1.158,10.356,-1.627,4,-0.072,-0.096,-0.152,5,-20.641,-41.139,23.465
704934.2383,3,-2.673,7.657,-1.531,4,-0.005,-0.258,-0.169,5,-20.63,-40.417,20.56
704934.2582,3,-3.182,9.976,-4.336,4,0.023,-0.388,-0.152,5,-20.628,-40.419,21.286
704934.278,3,-1.302,9.255,-4.006,4,0.07,-0.483,-0.096,5,-17.96,-40.355,21.291
704934.2979,3,-0.878,8.272,-3.223,4,0.068,-0.481,-0.014,5,-20.593,-38.994,22.006
704934.3178,3,0.175,10.043,-3.769,4,0.038,-0.41,0.047,5,-19.994,-41.829,21.291
704934.3376,3,0.421,9.394,-3.618,4,0.028,-0.375,0.074,5,-19.974,-41.122,23.466
704934.3575,3,0.421,9.978,-2.568,4,0,-0.335,0.084,5,-19.942,-39.696,23.462
704934.3774,3,1.113,6.784,-2.357,4,-0.022,-0.294,0.086,5,-20.642,-41.135,22.012
704934.3972,3,0.672,12.452,-3.087,4,-0.002,-0.233,0.08,5,-19.296,-40.385,20.563
704934.4171,3,1.048,10.512,-0.993,4,0.039,-0.152,0.059,5,-19.293,-40.392,22.742
704934.437,3,1.244,8.389,-1.132,4,0.001,-0.037,0.047,5,-19.325,-41.818,22.745
704934.4568,3,0.165,10.234,-3.508,4,0.029,0.048,0.012,5,-18.605,-39.665,24.193
704934.4767,3,-1.027,10.064,-2.929,4,0.097,0.16,-0.043,5,-18.626,-40.37,21.291
704934.4965,3,-1.936,7.222,-1.584,4,0.081,0.255,-0.07,5,-18.007,-42.497,22.02
704934.5164,3,-2.271,8.887,-3.771,4,0.046,0.367,-0.063,5,-19.943,-39.691,22.009
704934.5363,3,-1.266,11.165,-4.001,4,0.075,0.42,-0.046,5,-18.64,-41.089,22.745
704934.5562,3,-0.952,8.428,-1.912,4,0.04,0.41,-0.02,5,-20.012,-42.542,20.566
704934.576,3,-0.567,12.112,-1.555,4,-0.052,0.334,0.004,5,-17.305,-41.054,22.018
704934.5959,3,-0.412,8.463,-1.515,4,-0.071,0.251,0.001,5,-18.642,-41.084,21.292
704934.6158,3,-1.862,11.28,-2.902,4,-0.06,0.184,-0.03,5,-18.625,-40.372,22.015
704934.6356,3,-2.118,7.604,-1.603,4,-0.01,0.117,-0.029,5,-18.008,-42.496,21.295
704934.6555,3,-2.802,10.359,-3.443,4,0,0.077,0.009,5,-17.976,-41.068,20.566
704934.6753,3,-1.766,12.512,-3.429,4,0.049,0.052,0.042,5,-20.657,-41.852,23.466
704934.6952,3,-0.95,6.791,-1.804,4,0.051,0.05,0.093,5,-19.325,-41.818,22.745
704934.7151,3,0.165,10.739,-5.125,4,0.026,0.046,0.139,5,-19.308,-41.103,22.015
704934.7349,3,1.51,8.112,-5.525,4,0.083,0.068,0.152,5,-18.626,-40.37,21.291
704934.7548,3,0.881,9.191,-2.682,4,0.059,0.13,0.145,5,-18.64,-41.089,22.745
704934.7747,3,1.256,9.969,-0.569,4,-0.038,0.219,0.109,5,-18.623,-40.376,23.468
704934.7945,3,1.596,8.94,-0.754,4,-0.092,0.304,0.095,5,-19.975,-41.121,22.742
704934.8144,3,2.213,10.868,-2.041,4,-0.052,0.318,0.075,,,,
704934.8343,3,0.445,7.863,-0.852,4,-0.012,0.288,0.006,5,-19.991,-41.835,23.468
704934.8541,3,-0.062,9.791,-2.118,4,-0.033,0.223,-0.052,5,-19.325,-41.815,22.017
704934.874,3,-0.991,10.514,-2.35,4,-0.026,0.134,-0.09,5,-18.642,-41.084,21.292
704934.8939,3,-2.51,8.191,-1.665,4,-0.041,0.105,-0.078,5,-19.963,-40.401,20.561
704934.9137,3,-3.245,12.184,-1.895,4,-0.061,0.05,-0.053,5,-19.327,-41.814,21.292
704934.9336,3,-3.187,8.98,-0.491,4,-0.057,-0.026,-0.031,5,-19.325,-41.815,22.017
704934.9535,3,-1.656,10.574,-1.352,4,-0.087,-0.085,0.03,5,-19.994,-41.829,21.291
704934.9733,3,-0.28,10.198,-3.606,4,-0.018,-0.108,0.075,5,-20.663,-41.841,19.11
704934.9932,3,0.835,9.088,-3.687,4,0.059,-0.01,0.12,5,-21.298,-40.434,20.56
704935.0131,3,0.653,11.89,-5.283,4,0.071,0.195,0.104,5,-21.982,-41.164,20.56
704935.033,3,0.708,6.992,-1.931,4,0.059,0.526,0.087,5,-20.63,-40.417,20.56
704935.0528,3,-0.323,10.825,-3.563,4,0.001,0.873,0.079,5,-21.297,-40.436,21.286
704935.0727,3,0.646,10.059,-2.302,4,0.028,1.059,0.023,5,-21.95,-39.735,19.827
704935.0925,3,0.146,9.052,-1.414,4,0.032,1.042,-0.041,5,-22.649,-41.18,20.558
704935.1124,3,0.256,10.469,-1.878,4,0.029,0.929,-0.1,5,-20.596,-38.991,20.555
704935.1323,3,-0.246,5.669,-1.699,4,0.051,0.792,-0.17,5,-22.667,-41.89,19.107
704935.1522,3,-0.933,9.772,-4.625,4,0.06,0.579,-0.203,5,-23.317,-41.197,20.558
704935.172,3,-1.986,13.371,-2.778,4,0.086,0.325,-0.25,5,-20.63,-40.417,20.56
704935.1919,3,-1.201,7.123,-1.105,4,0.007,0.11,-0.256,5,-21.298,-40.433,19.832
704935.2111,3,0.371,11.521,-1.936,4,-0.054,-0.105,-0.211,5,-22.667,-41.89,19.107
704935.2316,3,0.196,9.507,-2.563,4,0.022,-0.27,-0.187,5,-20.682,-42.554,18.384
704935.2515,3,-1.036,8.645,-3.649,4,0.06,-0.35,-0.191,5,-19.345,-42.525,19.839
704935.2714,3,-0.696,9.832,-6.233,4,0.076,-0.352,-0.197,5,-20.645,-41.13,19.833
704935.2912,3,-0.163,9.653,-3.532,4,0.082,-0.34,-0.162,5,-20.01,-42.543,21.292
704935.3111,3,-0.084,6.626,-1.902,4,0.015,-0.273,-0.104,5,-20.01,-42.543,21.292
704935.3309,3,0.112,10.222,-3.467,4,-0.051,-0.224,-0.093,5,-20.01,-42.543,21.292
704935.3508,3,0.007,11.809,-1.919,4,-0.005,-0.202,-0.095,5,-19.344,-42.528,21.294
704935.3707,3,0.055,9.806,-0.581,4,-0.031,-0.178,-0.09,5,-19.33,-41.809,19.113
704935.3905,3,-0.115,8.947,-2.338,4,-0.061,-0.182,-0.075,5,-19.345,-42.526,20.567
704935.4104,3,0.014,13.429,-4.094,4,0.006,-0.185,-0.082,5,-20.029,-43.256,20.567
704935.4303,3,0.854,8.1,-0.01,4,0.032,-0.114,-0.074,5,-18.66,-41.794,19.839
704935.4502,3,0.562,10.591,-0.9,4,-0.071,-0.013,-0.051,5,-18.677,-42.509,20.569
704935.47,3,0.144,8.916,-2.651,4,-0.026,-0.013,-0.062,5,-18.694,-43.224,20.57
704935.4899,3,-1.072,7.339,-4.058,4,0.044,-0.043,-0.079,5,-17.976,-41.066,19.838
704935.5097,3,-0.622,8.844,-5.91,4,0.062,-0.104,-0.101,5,-18.655,-41.803,23.471
704935.5296,3,-0.873,10.933,-4.077,4,0.043,-0.135,-0.082,5,-17.976,-41.068,20.566
704935.5495,3,-0.998,9.935,0.388,4,-0.073,-0.126,-0.035,5,-18.677,-42.508,19.841
704935.5693,3,-0.531,9.689,-0.89,4,-0.177,-0.154,-0.012,5,-18.674,-42.513,22.02
704935.5892,3,-1.34,11.017,-3.001,4,-0.117,-0.267,-0.016,5,-18.01,-42.494,20.569
704935.6091,3,-0.703,10.677,-2.486,4,-0.007,-0.344,-0.005,5,-18.677,-42.509,20.569
704935.6289,3,-1.098,5.307,-2.022,4,0.01,-0.388,0.021,5,-18.674,-42.516,22.748
704935.6488,3,-1.429,11.672,-4.676,4,0.04,-0.361,0.04,5,-18.675,-42.511,21.295
704935.6687,3,-0.447,12.227,-3.829,4,0.106,-0.303,0.063,5,-18.675,-42.511,21.295
704935.6886,3,1.299,7.714,-0.66,4,0.038,-0.209,0.114,5,-18.69,-43.227,22.021
704935.7084,3,2.125,12.902,-1.369,4,-0.054,-0.157,0.139,5,-18.674,-42.516,22.748
704935.7283,3,1.931,7.927,-0.589,4,-0.005,-0.071,0.119,5,-18.024,-43.214,22.749
704935.7481,3,0.593,6.827,-2.651,4,0.04,-0.026,0.059,5,-17.322,-41.769,22.748
704935.768,3,-0.821,10.787,-6.781,4,0.133,0.019,-0.014,5,-18.671,-42.519,24.2
704935.7879,3,-0.988,10.148,-3.168,4,0.164,0.128,-0.049,5,-17.325,-41.763,20.569
704935.8077,3,-0.809,8.588,0.321,4,0.037,0.292,-0.03,5,-17.99,-41.783,22.018
704935.8276,3,-2.043,9.595,-0.376,4,-0.077,0.336,-0.005,5,-19.307,-41.107,23.468
704935.8475,3,-1.845,11.916,-3.18,4,-0.038,0.274,-0.02,5,-18.007,-42.5,22.748
704935.8673,3,-2.637,6.532,-3.304,4,0.039,0.152,-0.025,5,-19.345,-42.525,19.839
704935.8872,3,-1.84,11.378,-4.606,4,0.044,0.057,0.006,5,-18.64,-41.086,22.017
704935.9071,3,-2.749,11.05,-3.45,4,0.059,0.033,0.037,5,-18.655,-41.803,23.471
704935.9269,3,-1.488,8.552,-1.029,4,0.026,0.113,0.074,5,-19.992,-41.833,22.743
704935.9468,3,-1.043,9.717,-2.158,4,-0.01,0.128,0.112,5,-20.009,-42.548,22.745
704935.9666,3,-0.146,10.227,-3.431,4,0.032,0.11,0.131,5,-19.342,-42.532,22.746
704935.9865,3,-0.048,7.786,-2.9,4,0.081,0.052,0.12,5,-19.275,-39.68,23.463
704936.0064,3,0.507,10.459,-3.75,4,0.11,0.075,0.111,5,-19.308,-41.106,22.743
704936.0263,3,0.95,8.011,-5.154,4,0.128,0.164,0.101,5,-19.325,-41.818,22.745
704936.0461,3,2.017,10.107,-2.879,4,0.098,0.288,0.078,5,-17.97,-41.077,24.197
704936.066,3,0.761,8.806,1.553,4,0.027,0.378,0.041,5,-19.357,-43.248,23.473
704936.0859,3,0.502,9.815,-1.223,4,-0.057,0.442,-0.004,5,-19.339,-42.535,24.199
704936.1057,3,0.558,8.037,-3.084,4,-0.004,0.417,-0.057,5,-18.686,-43.236,25.653
704936.1256,3,0.273,8.064,-3.57,4,0.068,0.358,-0.085,5,-17.368,-43.913,24.207
704936.1454,3,-0.5,12.292,-2.95,4,0.057,0.317,-0.114,5,-20.724,-44.702,22.021
704936.1653,3,-1.228,10.421,-0.979,4,0.006,0.296,-0.146,5,-20.027,-43.257,21.294
704936.1852,3,-1.417,10.555,-0.134,4,-0.076,0.296,-0.133,5,-19.345,-42.526,20.567
704936.205,3,-0.361,10.557,-1.687,4,-0.073,0.29,-0.109,5,-19.31,-41.101,21.291
704936.2249,3,-0.876,7.511,-2.682,4,-0.015,0.171,-0.12,5,-19.325,-41.815,22.017
704936.2448,3,-1.304,9.93,-5.245,4,0.039,0.045,-0.141,5,-19.958,-40.408,23.465
704936.2647,3,-2.125,8.693,-4.767,4,0.068,-0.058,-0.141,5,-21.347,-42.575,20.564
704936.2845,3,-1.043,8.966,-4.185,4,0.027,-0.073,-0.104,5,-19.345,-42.526,20.567
704936.3044,3,0,8.612,-3.02,4,-0.041,-0.165,-0.063,5,-20.012,-42.54,19.838
704936.3243,3,0.589,9.083,-2.252,4,-0.105,-0.292,-0.032,5,-18.66,-41.794,19.839
704936.3441,3,1.723,9.562,-1.388,4,-0.125,-0.383,-0.032,5,-20.642,-41.135,22.012
704936.364,3,1.986,7.817,-2.943,4,-0.11,-0.43,-0.021,5,-17.973,-41.071,22.017
704936.3838,3,2.17,13.187,-4.034,4,-0.051,-0.412,-0.035,5,-18.695,-43.221,19.118
704936.4037,3,2.199,8.633,-1.876,4,0.007,-0.361,-0.063,5,-19.357,-43.248,23.473
704936.4236,3,1.335,10.208,-1.567,4,-0.046,-0.251,-0.084,5,-18.658,-41.797,21.294
704936.4434,3,0.022,10.835,-0.995,4,-0.027,-0.156,-0.124,5,-20.01,-42.543,21.292
704936.4633,3,-1.352,7.224,-2.541,4,-0.007,-0.126,-0.163,5,-18.66,-41.795,20.567
704936.4832,3,-1.436,10.689,-5.013,4,-0.001,-0.116,-0.2,5,-19.312,-41.1,20.564
704936.503,3,-2.17,8.332,-4.219,4,0.067,-0.079,-0.173,5,-18.027,-43.207,19.843
704936.5229,3,-2.67,8.566,-2.058,4,0.015,-0.037,-0.119,5,-18.675,-42.511,21.295
704936.5428,3,-2.596,8.361,-2.154,4,-0.049,-0.053,-0.092,5,-16.653,-41.75,22.021
704936.5626,3,-3.269,11.375,-1.206,4,-0.067,-0.102,-0.078,5,-17.99,-41.783,22.018
704936.5825,3,-2.797,9.296,-0.615,4,-0.068,-0.119,-0.024,5,-18.008,-42.496,21.295
704936.6024,3,-1.328,7.64,-2.376,4,-0.073,-0.19,0.051,5,-17.992,-41.782,21.294
704936.6222,3,-0.502,13.68,-3.429,4,-0.016,-0.239,0.098,5,-18.694,-43.224,20.57
704936.6421,3,0.751,8.928,-0.739,4,0.021,-0.137,0.139,5,-19.362,-43.239,19.841
704936.662,3,0.584,9.162,-2.591,4,-0.026,0.008,0.163,5,-18.677,-42.509,20.569
704936.6818,3,0.897,9.712,-5.276,4,0.035,0.15,0.131,5,-19.391,-44.67,22.025
704936.7017,3,0.517,8.791,-3.824,4,0.084,0.227,0.104,5,-20.708,-43.988,22.02
704936.7216,3,1.003,8.674,-2.596,4,0.015,0.284,0.068,5,-18.69,-43.227,22.021
704936.7414,3,0.766,9.854,-2.701,4,-0.041,0.282,0.009,5,-18.674,-42.513,22.02
704936.7613,3,0.747,8.294,-2.46,4,-0.049,0.244,-0.027,5,-19.312,-41.1,20.564
704936.7811,3,0.323,9.768,-3.845,4,-0.052,0.138,-0.062,5,-20.029,-43.256,20.567
704936.801,3,-0.022,11.445,-3.723,4,-0.045,-0.048,-0.118,5,-18.741,-45.364,21.303
704936.8209,3,-0.579,10.181,-0.56,4,-0.07,-0.206,-0.137,5,-18.007,-42.497,22.02
704936.8408,3,-0.625,6.398,-0.859,4,-0.134,-0.33,-0.107,5,-18.674,-42.513,22.02
704936.8606,3,-1.146,13.232,-3.869,4,-0.085,-0.457,-0.109,5,-20.692,-43.275,22.017
704936.8805,3,0,9.43,-3.852,4,0.026,-0.602,-0.093,5,-16.704,-43.889,21.303
704936.9004,3,0.629,9.026,-2.13,4,-0.015,-0.683,-0.043,5,-18.008,-42.496,21.295
704936.9202,3,-1.122,9.844,-2.874,4,-0.039,-0.718,-0.023,5,-18.04,-43.922,21.3
704936.9401,3,-1.165,10.77,-2.266,4,-0.023,-0.733,-0.016,5,-17.995,-41.777,19.115
704936.96,3,-0.94,7.492,-0.335,4,-0.027,-0.743,-0.003,5,-16.687,-43.178,22.025
704936.9798,3,-0.718,10.916,-2.649,4,-0.032,-0.705,0.042,5,-17.371,-43.907,22.026
704936.9997,3,-1.134,7.896,-3.297,4,0.05,-0.609,0.081,5,-16.685,-43.182,23.477
704937.0196,3,-0.395,10.251,-3.876,4,0.075,-0.478,0.125,5,-17.355,-43.198,22.751
704937.0394,3,-0.581,10.612,-2.508,4,0.083,-0.301,0.145,5,-16.67,-42.464,22.023
704937.0593,3,-0.775,7.506,-1.543,4,0.044,-0.042,0.166,5,-17.339,-42.484,22.749
704937.0792,3,-0.845,8.746,-1.909,4,0.021,0.162,0.179,5,-17.369,-43.912,23.479
704937.099,3,-1.728,13.019,-4.034,4,0.061,0.292,0.168,5,-17.354,-43.199,23.476
704937.1189,3,-1.003,8.356,-1.783,4,0.079,0.306,0.173,5,-17.32,-41.771,23.473
704937.1388,3,-0.967,8.992,-1.213,4,0.009,0.243,0.186,5,-16.669,-42.468,23.476
704937.1587,3,-0.895,9.794,-3.233,4,0.017,0.229,0.175,5,-18.021,-43.217,24.202
704937.1785,3,-1.381,10.363,-2.831,4,0.065,0.197,0.155,5,-18.005,-42.502,23.473
704937.1984,3,-1.304,8.128,-1.539,4,0.059,0.182,0.145,5,-20.007,-42.549,23.47
704937.2182,3,-0.761,9.507,-2.56,4,0.013,0.151,0.147,5,-17.322,-41.766,22.02
704937.2381,3,0.316,9.724,-3.568,4,0.032,0.132,0.146,5,-17.314,-41.779,27.104
704937.258,3,-0.225,9.784,-2.395,4,0.048,0.086,0.137,5,-18.671,-42.52,24.927
704937.2778,3,0.022,9.026,-2.012,4,0.028,0.085,0.125,5,-19.989,-41.837,24.196
704937.2977,3,-0.431,7.832,-3.182,4,0.004,0.07,0.087,5,-18.636,-41.095,25.648
704937.3176,3,-0.895,10.189,-2.67,4,0.024,0.063,0.079,5,-20.006,-42.551,24.197
704937.3374,3,-0.206,11.495,-2.984,4,0.017,0.096,0.086,5,-19.991,-41.835,23.468
704937.3573,3,-0.263,8.437,-1.096,4,-0.017,0.162,0.089,5,-19.356,-43.25,24.2
704937.3772,3,-0.225,11.481,-1.366,4,-0.033,0.245,0.1,5,-18.654,-41.805,24.199
704937.397,3,-1.28,9.153,-1.551,4,0.002,0.317,0.079,5,-20.656,-41.853,24.194
704937.4169,3,-2.084,8.621,-2.367,4,0.037,0.34,0.045,5,-19.29,-40.396,24.921
704937.4368,3,-2.331,9.119,-4.068,4,0.081,0.304,0.035,5,-19.975,-41.121,22.742
704937.4566,3,-1.795,8.006,-3.058,4,0.098,0.246,0.057,5,-19.958,-40.408,23.465
704937.4765,3,-0.773,9.275,-3.75,4,0.042,0.213,0.097,5,-20.642,-41.135,22.012
704937.4964,3,-0.479,9.909,-3.144,4,0.029,0.191,0.12,5,-22.63,-40.472,22.736
704937.5162,3,-0.22,10.746,-2.182,4,0.002,0.233,0.112,5,-19.989,-41.837,24.196
704937.5361,3,0.782,7.667,-2.661,4,-0.022,0.292,0.12,5,-21.977,-41.171,23.463
704937.556,3,0.981,13.589,-4.484,4,0.005,0.337,0.108,5,-20.659,-41.847,22.014
704937.5758,3,0.526,9.294,-0.474,4,0.029,0.38,0.079,5,-20.674,-42.566,23.468
704937.5957,3,1.78,8.705,-0.869,4,-0.066,0.467,0.045,5,-19.926,-38.98,22.736
704937.6156,3,1.909,10.481,-3.644,4,-0.008,0.46,0.008,5,-20.627,-40.421,22.011
704937.6354,3,0.613,8.212,-3.094,4,0.089,0.402,-0.037,5,-21.278,-39.728,22.736
704937.6553,3,0.151,8.774,-3.441,4,0.064,0.369,-0.119,5,-21.996,-41.879,22.012
704937.6751,3,-0.144,10.88,-3.084,4,0.022,0.303,-0.165,5,-20.627,-40.424,22.739
704937.695,3,-0.266,9.176,-0.749,4,-0.034,0.248,-0.17,5,-19.974,-41.122,23.466
704937.7149,3,-0.431,10.287,-0.66,4,-0.103,0.168,-0.168,5,-18.024,-43.211,22.021
704937.7348,3,-0.268,11.189,-1.385,4,-0.093,-0.016,-0.187,5,-16.669,-42.468,23.476
704937.7546,3,-0.189,5.094,-2.804,4,-0.049,-0.209,-0.2,5,-19.962,-40.402,21.288
704937.7745,3,0.127,11.206,-5.307,4,-0.012,-0.412,-0.168,5,-20.628,-40.419,21.286
704937.7944,3,-0.498,10.44,-2.697,4,0.031,-0.558,-0.146,5,-19.991,-41.835,23.468
704937.8142,3,0.081,8.552,0.033,4,-0.078,-0.654,-0.111,5,-18.64,-41.086,22.017
704937.8341,3,-0.074,11.098,-2.611,4,-0.128,-0.741,-0.064,5,-19.96,-40.404,22.012
704937.8539,3,0.23,10.536,-2.783,4,-0.043,-0.744,-0.052,5,-19.991,-41.835,23.468
704937.8738,3,-0.979,8.188,-2.874,4,0.004,-0.746,-0.038,5,-17.973,-41.071,22.017
704937.8937,3,-1.079,9.172,-3.785,4,0.018,-0.65,-0.003,5,-18.657,-41.798,22.018
704937.9135,3,-1.146,9.243,-2.206,4,0.045,-0.499,0.041,5,-18.637,-41.092,24.197
704937.9334,3,-0.376,10.313,-1.366,4,0.024,-0.286,0.103,5,-18.637,-41.092,24.197
704937.9533,3,-0.766,9.672,-1.352,4,0.033,-0.091,0.136,5,-18.637,-41.092,24.197
704937.9732,3,-0.165,10.253,-2.62,4,0.068,0.097,0.134,5,-18.639,-41.09,23.47
704937.993,3,-0.079,6.922,-3.766,4,0.099,0.222,0.13,5,-19.344,-42.528,21.294
704938.0129,3,0.397,12.512,-5.415,4,0.126,0.353,0.123,5,-19.942,-39.696,23.462
704938.0327,3,0.653,9.581,-1.22,4,0.104,0.491,0.103,5,-20.657,-41.852,23.466
704938.0526,3,0.352,9.997,0.797,4,-0.032,0.643,0.095,,,,
704938.0725,3,0.1,13.371,-2.321,4,-0.035,0.69,0.043,5,-21.326,-41.869,23.466
704938.0923,3,-0.196,8.449,-1.256,4,0.059,0.593,-0.014,5,-19.276,-39.679,22.739
704938.1122,3,-0.912,9.411,-2.857,4,0.056,0.45,-0.069,5,-20.627,-40.421,22.011
704938.1321,3,-1.141,7.853,-4.582,4,0.097,0.273,-0.112,5,-19.279,-39.673,20.56
704938.1519,3,-2.326,10.454,-4.845,4,0.116,0.096,-0.111,5,-20.66,-41.846,21.289
704938.1718,3,-2.776,8.081,-1.251,4,0.061,-0.013,-0.08,5,-19.992,-41.833,22.743
704938.1917,3,-2.075,9.078,-1.263,4,-0.052,-0.131,-0.037,5,-21.326,-41.869,23.466
704938.2115,3,-1.103,9.071,-2.189,4,-0.05,-0.283,0.003,5,-20.627,-40.424,22.739
704938.2314,3,-1.151,8.27,-3.36,4,0.001,-0.338,0.057,5,-21.295,-40.437,22.011
704938.2513,3,-0.309,13.412,-4.601,4,0.05,-0.25,0.103,5,-20.642,-41.135,22.012
704938.2711,3,0.914,9.272,-1.036,4,0.056,-0.103,0.141,5,-19.975,-41.121,22.742
704938.291,3,0.828,8.272,1.125,4,-0.034,0.063,0.167,5,-20.674,-42.566,23.468
704938.3109,3,0.809,11.438,-3.917,4,-0.017,0.271,0.153,5,-19.324,-41.82,23.47
704938.3307,3,0.579,9.756,-4.022,4,0.114,0.406,0.101,5,-21.344,-42.578,22.015
704938.3506,3,0.847,7.734,-3.005,4,0.119,0.559,0.078,5,-19.29,-40.395,24.194
704938.3705,3,0.436,10.674,-3.252,4,0.048,0.651,0.053,5,-21.948,-39.738,21.281
704938.3903,3,0.95,10.655,-1.732,4,0.01,0.668,0.006,5,-19.324,-41.82,23.47
704938.4102,3,0.569,10.308,-0.586,4,-0.07,0.609,-0.037,5,-21.275,-39.731,24.188
704938.4301,3,0.175,10.11,-0.172,4,-0.12,0.491,-0.082,5,-19.943,-39.691,22.009
704938.4499,3,-0.792,5.774,-1.491,4,-0.112,0.321,-0.13,5,-21.326,-41.869,23.466
704938.4698,3,-0.345,11.024,-4.372,4,-0.063,0.158,-0.15,5,-19.974,-41.122,23.466
704938.4896,3,-0.68,10.483,-2.874,4,0.02,-0.029,-0.137,5,-21.964,-40.456,22.737
704938.5095,3,-0.727,7.932,-1.316,4,-0.04,-0.158,-0.13,5,-21.31,-41.151,22.012
704938.5294,3,-0.105,11.897,-2.666,4,-0.071,-0.207,-0.122,5,-21.295,-40.437,22.011
704938.5493,3,-0.093,9.547,-2.692,4,-0.027,-0.275,-0.107,5,-21.982,-41.164,20.56
704938.5691,3,-0.352,8.832,-4.585,4,-0.023,-0.311,-0.086,5,-21.294,-40.442,23.463
704938.589,3,0.084,9.992,-4.403,4,0.001,-0.356,-0.097,5,-21.965,-40.451,21.284
704938.6089,3,0.17,8.719,-1.409,4,0.001,-0.341,-0.085,5,-21.298,-40.434,20.56
704938.6287,3,0.086,8.672,-2.649,4,-0.049,-0.208,-0.052,5,-21.344,-42.578,22.015
704938.6486,3,0.395,11.014,-4.262,4,-0.016,-0.107,-0.051,5,-20.627,-40.421,22.011
704938.6685,3,0.175,11.66,-1.632,4,0.038,-0.075,-0.04,5,-20.645,-41.132,20.561
704938.6883,3,0.072,6.621,-0.206,4,0,-0.04,-0.043,5,-21.297,-40.436,21.286
704938.7082,3,0.352,8.612,-3.142,4,-0.02,-0.048,-0.048,5,-19.975,-41.121,22.742
704938.728,3,-0.325,12.486,-5.19,4,0.092,-0.107,-0.062,5,-19.994,-41.829,21.291
704938.7479,3,0.275,8.535,-1.854,4,0.114,-0.145,-0.059,5,-19.975,-41.118,22.014
704938.7678,3,0.455,9.825,-1.661,4,-0.013,-0.108,-0.04,5,-20.627,-40.421,22.011
704938.7877,3,0.208,10.823,-1.976,4,-0.029,-0.046,-0.051,5,-19.974,-41.122,23.466
704938.8075,3,-0.55,7.966,-1.366,4,0.001,-0.01,-0.056,5,-20.642,-41.135,22.012
704938.8274,3,-0.352,9.626,-2.869,4,-0.006,0.001,-0.075,5,-19.975,-41.121,22.742
704938.8473,3,-0.292,10.208,-3.209,4,0.035,-0.009,-0.082,5,-20.627,-40.424,22.739
704938.8671,3,-0.282,8.763,-1.601,4,0.034,0.006,-0.067,5,-21.964,-40.456,22.737
704938.887,3,-0.359,10.526,-2.922,4,-0.007,0.022,-0.057,5,-18.625,-40.372,22.015
704938.9069,3,-0.342,10.863,-2.591,4,-0.005,-0.008,-0.059,5,-19.96,-40.407,22.74
704938.9267,3,-0.924,10.404,-0.931,4,-0.015,-0.026,-0.059,5,-20.609,-39.713,23.46
704938.9466,3,-1.582,7.77,-1.285,4,-0.048,-0.06,-0.046,5,-18.626,-40.37,21.291
704938.9665,3,-0.955,11.21,-3.462,4,-0.022,-0.091,-0.051,5,-18.625,-40.372,22.015
704938.9863,3,-0.428,10.603,-4.097,4,0.031,-0.132,-0.036,5,-20.644,-41.133,21.288
704939.0056,3,0.268,9.861,-1.484,4,-0.012,-0.116,0.004,5,-17.958,-40.356,22.015
704939.0261,3,-1.359,7.083,-0.95,4,-0.057,-0.094,0.014,5,-20.63,-40.417,20.56
704939.0459,3,-0.237,13.56,-1.115,4,-0.056,-0.035,0.012,5,-19.945,-39.69,21.284
704939.0658,3,-1.177,7.277,-1.644,4,-0.013,-0.01,0.01,5,-21.979,-41.167,22.011
704939.0857,3,-0.084,10.772,-4.049,4,0.005,0.029,0.001,5,-21.277,-39.729,23.46
704939.1055,3,-0.055,9.753,-3.013,4,0.04,-0.026,-0.029,5,-21.295,-40.437,22.011
704939.1254,3,0.629,9.208,-1.735,4,0.004,0.009,-0.024,5,-21.312,-41.15,21.288
704939.1453,3,0.132,9.964,-2.905,4,-0.017,0.052,-0.024,5,-20.644,-41.133,21.288
704939.1651,3,-0.397,10.067,-2.742,4,-0.011,0.044,-0.063,5,-19.994,-41.829,21.291
704939.185,3,-0.775,6.494,-2.089,4,-0.021,0.022,-0.081,5,-20.627,-40.424,22.739
704939.2049,3,-0.732,9.629,-3.257,4,-0.035,-0.007,-0.079,5,-19.96,-40.407,22.74
704939.2247,3,-0.737,12.191,-2.615,4,-0.012,-0.059,-0.078,5,-21.312,-41.15,21.288
704939.2446,3,-0.359,8.138,-0.44,4,-0.028,-0.097,-0.06,5,-20.645,-41.132,20.561
704939.2645,3,-0.543,11.163,-3.051,4,-0.063,-0.127,-0.047,5,-17.973,-41.071,22.017
704939.2843,3,-0.718,10.801,-3.876,4,0.001,-0.196,-0.052,5,-19.962,-40.402,21.288
704939.3042,3,-0.914,7.954,-1.79,4,0.02,-0.313,-0.052,5,-19.292,-40.393,23.466
704939.324,3,-1.531,8.734,-2.642,4,-0.028,-0.357,-0.037,5,-18.637,-41.092,24.197
704939.3439,3,-0.56,9.289,-3.185,4,-0.02,-0.378,-0.021,5,-20.609,-39.713,23.46
704939.3638,3,-1.129,6.944,-2.517,4,-0.001,-0.389,0.004,5,-19.295,-40.387,21.289
704939.3836,3,-0.029,11.923,-3.204,4,-0.008,-0.379,0.036,5,-18.625,-40.372,22.015
704939.4035,3,-0.201,9.272,-2.271,4,-0.007,-0.4,0.045,5,-18.607,-39.664,23.465
704939.4234,3,-0.22,10.481,-2.709,4,-0.043,-0.375,0.052,5,-20.59,-39,24.187
704939.4433,3,-0.971,8.375,-2.814,4,-0.041,-0.338,0.052,5,-18.64,-41.089,22.745
704939.4631,3,-1.28,11.038,-2.402,4,-0.015,-0.269,0.063,5,-19.325,-41.815,22.017
704939.483,3,-1.429,11.624,-2.192,4,0.004,-0.192,0.072,5,-18.625,-40.372,22.015
704939.5029,3,-0.522,7.963,-0.266,4,0.005,-0.063,0.079,5,-18.639,-41.09,23.47
704939.5227,3,-1.132,11.593,-2.74,4,0.018,0.04,0.092,5,-19.972,-41.125,24.921
704939.5426,3,-0.778,9.777,-2.835,4,0.103,0.089,0.118,5,-19.292,-40.393,23.466
704939.5624,3,-0.151,7.825,-2.45,4,0.111,0.068,0.115,5,-18.669,-42.522,25.652
704939.5823,3,0.625,9.825,-1.907,4,0.081,0.085,0.126,5,-18.625,-40.375,22.743
704939.6022,3,1.383,10.318,-2.625,4,0.064,0.145,0.136,5,-19.289,-40.398,25.645
704939.622,3,3.508,8.16,-1.548,4,0.028,0.213,0.117,5,-18.605,-39.667,24.919
704939.6419,3,2.91,9.203,-2.161,4,0.002,0.243,0.086,5,-17.989,-41.788,23.471
704939.6618,3,2.615,10.667,-1.268,4,-0.005,0.241,0.043,5,-17.302,-41.06,24.199
704939.6816,3,1.931,8.684,-0.78,4,-0.045,0.119,-0.057,5,-19.26,-38.965,22.737
704939.7015,3,1.077,7.372,-2.445,4,-0.073,-0.093,-0.157,5,-18.639,-41.09,23.47
704939.7214,3,-1.295,13.673,-4.034,4,-0.034,-0.261,-0.197,5,-16.667,-42.47,24.203
704939.7413,3,-0.96,9.775,-1.304,4,-0.029,-0.423,-0.203,5,-17.973,-41.071,22.017
704939.7611,3,-0.117,6.336,0.5,4,-0.148,-0.615,-0.191,5,-17.305,-41.057,22.746
704939.781,3,-2.28,10.607,-4.197,4,-0.125,-0.825,-0.168,5,-17.973,-41.071,22.017
704939.8008,3,-3.62,10.729,-4.381,4,-0.002,-0.938,-0.133,5,-18.007,-42.497,22.02
704939.8207,3,-2.843,8.602,-3.355,4,0.013,-1.073,-0.114,5,-17.957,-40.361,23.468
704939.8406,3,-2.661,10.976,-3.963,4,-0.013,-1.036,-0.032,5,-16.653,-41.75,22.021
704939.8604,3,-2.821,8.77,-2.388,4,0.021,-0.854,0.081,5,-15.97,-41.025,22.748
704939.8803,3,-2.45,7.796,-3.288,4,0.032,-0.595,0.152,5,-13.983,-41.69,23.479
704939.9002,3,-1.29,10.464,-4.843,4,0.093,-0.346,0.197,5,-16.635,-41.042,23.473
704939.92,3,0.278,10.217,-2.472,4,0.152,-0.065,0.261,5,-16.65,-41.757,24.928
704939.9399,3,0.821,6.195,-1.067,4,0.11,0.185,0.293,5,-16.65,-41.756,24.202
704939.9598,3,1.558,8.837,-3.718,4,0.084,0.402,0.263,5,-15.967,-41.028,24.2
704939.9796,3,1.347,13.06,-3.695,4,0.141,0.548,0.212,5,-17.302,-41.06,24.199
704939.9995,3,0.747,8.241,0.512,4,0.088,0.593,0.164,5,-17.319,-41.772,24.2
704940.0194,3,-0.651,11.115,0.077,4,-0.065,0.564,0.118,5,-17.268,-39.636,25.645
704940.0392,3,-2.077,9.921,-0.347,4,-0.045,0.463,0.063,5,-17.32,-41.771,23.473
704940.0591,3,-2.386,9.358,-3.161,4,0.01,0.234,0.019,5,-17.305,-41.057,22.746
704940.079,3,-1.759,9.014,-3.963,4,0.066,0.012,-0.015,5,-17.336,-42.487,24.202
704940.0988,3,-1.716,10.801,-2.419,4,0.079,-0.057,0.028,5,-17.305,-41.057,22.746
704940.1187,3,-2.223,8.751,-1.919,4,0.023,-0.01,0.074,5,-17.921,-38.936,24.191
704940.1386,3,-2.304,9.129,-1.979,4,-0.01,0.074,0.086,5,-18.654,-41.805,24.199
704940.1584,3,-1.189,9.155,-3.357,4,0.018,0.118,0.114,5,-17.97,-41.077,24.197
704940.1783,3,-0.026,9.279,-4.156,4,0.04,0.094,0.125,5,-20.641,-41.139,23.465
704940.1981,3,0.888,9.351,-3.778,4,0.038,0.066,0.139,5,-17.958,-40.359,22.743
704940.218,3,1.134,7.403,-3.223,4,-0.001,0.185,0.126,5,-19.305,-41.109,24.196
704940.2379,3,0.692,12.278,-4.561,4,-0.023,0.344,0.096,5,-18.64,-41.089,22.745
704940.2577,3,0.847,9.811,-2.678,4,0.015,0.455,0.072,5,-19.276,-39.676,22.011
704940.2776,3,1.105,8.944,-2.288,4,-0.044,0.469,0.046,5,-21.295,-40.44,22.739
704940.2975,3,1.464,9.82,-3.319,4,-0.049,0.41,-0.018,5,-20.642,-41.138,22.74
704940.3174,3,0.715,9.619,-3.522,4,0.006,0.336,-0.07,5,-20.012,-42.542,20.566
704940.3372,3,-0.371,9.387,-4.51,4,0.026,0.273,-0.133,5,-17.975,-41.069,21.292
704940.3571,3,-1.644,10.423,-4.963,4,0.017,0.128,-0.194,5,-19.344,-42.528,21.294
704940.377,3,-0.888,9.093,-2.675,4,0.013,-0.015,-0.184,5,-21.313,-41.147,19.833
704940.3968,3,-0.768,9.363,-0.065,4,-0.044,-0.118,-0.148,5,-21.313,-41.147,19.833
704940.4167,3,-2.785,9.449,-3.673,4,-0.054,-0.245,-0.13,5,-21.313,-41.147,19.833
704940.4365,3,-2.264,12.871,-3.324,4,0.005,-0.405,-0.13,5,-20.009,-42.545,22.017
704940.4564,3,-2.69,6.542,-2.374,4,0.024,-0.538,-0.092,5,-17.961,-40.353,20.564
704940.4763,3,-2.314,13.819,-3.249,4,-0.018,-0.514,-0.019,5,-18.024,-43.211,22.021
704940.4961,3,-2.089,9.959,-1.488,4,0.021,-0.426,0.042,5,-18.675,-42.511,21.295
704940.516,3,-0.065,8.392,-0.909,4,-0.032,-0.329,0.128,5,-17.339,-42.484,22.749
704940.5359,3,-1.01,9.605,-2.491,4,-0.004,-0.34,0.173,5,-18.637,-41.092,24.197
704940.5558,3,-0.706,8.514,-2.206,4,0.065,-0.281,0.185,5,-17.336,-42.488,24.928
704940.5756,3,0.053,9.014,-2.568,4,0.068,-0.184,0.194,5,-18.687,-43.234,24.928
704940.5955,3,0.249,8.691,-4.001,4,0.092,-0.03,0.212,5,-18.004,-42.505,24.927
704940.6153,3,0.182,11.186,-4.12,4,0.083,0.134,0.221,5,-17.986,-41.792,25.65
704940.6352,3,0.694,10.533,-2.242,4,0.055,0.29,0.207,5,-18.668,-42.523,26.379
704940.6551,3,-1.117,9.691,-0.756,4,-0.023,0.399,0.191,5,-18.672,-42.517,23.473
704940.675,3,-0.668,11.359,-2.376,4,-0.024,0.458,0.163,5,-19.969,-41.129,26.373
704940.6948,3,-0.744,5.082,-2.936,4,0.022,0.386,0.142,5,-19.939,-39.7,25.641
704940.7147,3,0.347,11.282,-4.022,4,0.043,0.36,0.134,5,-20.004,-42.554,25.648
704940.7346,3,0.646,11.349,-2.084,4,0.056,0.362,0.123,5,-19.989,-41.837,24.196
704940.7544,3,1.34,9.88,-0.79,4,-0.046,0.469,0.12,5,-19.974,-41.122,23.466
704940.7743,3,1.103,9.875,-0.002,4,-0.103,0.497,0.101,5,-20.607,-39.716,24.915
704940.7942,3,0.275,10.112,-2.584,4,-0.067,0.438,0.053,5,-21.964,-40.453,22.009
704940.814,3,-0.96,9.361,-4.015,4,-0.005,0.282,-0.003,5,-21.994,-41.884,23.465
704940.8339,3,-1.22,9.464,-3.048,4,0.016,0.156,-0.035,5,-22.644,-41.188,23.462
704940.8538,3,-1.429,9.691,-2.139,4,-0.037,0.067,-0.021,5,-20.625,-40.425,23.463
704940.8736,3,-0.94,8.428,-2.223,4,-0.061,0.002,0.013,5,-20.625,-40.425,23.463
704940.8935,3,-0.029,9.267,-2.9,4,-0.059,-0.103,0.036,5,-21.309,-41.156,23.465
704940.9134,3,-0.455,8.944,-1.924,4,-0.038,-0.202,0.051,5,-21.942,-39.749,25.638
704940.9332,3,0.036,8.686,-2.993,4,-0.049,-0.195,0.053,5,-18.019,-43.221,25.653
704940.9531,3,0.67,7.913,-4.049,4,-0.029,-0.157,0.061,5,-20.67,-42.572,26.375
704940.973,3,2.357,11.096,-4.309,4,0.009,0.006,0.067,5,-21.962,-40.457,23.462
704940.9928,3,2.489,12.091,-1.811,4,-0.002,0.272,0.073,5,-23.28,-39.778,23.457
704941.0127,3,1.723,9.299,0.416,4,-0.066,0.609,0.057,5,-21.944,-39.748,24.913
704941.0326,3,0.067,5.427,-0.763,4,-0.066,0.796,-0.026,5,-21.964,-40.456,22.737
704941.0524,3,0.266,10.583,-5.207,4,0.043,0.823,-0.098,5,-21.297,-40.436,21.286
704941.0723,3,-1.151,13.024,-4.19,4,0.147,0.717,-0.162,5,-22.643,-41.19,24.19
704941.0921,3,-0.703,6.721,-0.416,4,0.078,0.675,-0.168,5,-23.984,-41.214,21.283
704941.112,3,0.124,10.287,-1.766,4,-0.052,0.496,-0.168,5,-22.63,-40.469,22.008
704941.1319,3,0.072,11.763,-1.957,4,-0.031,0.188,-0.208,5,-21.98,-41.165,21.286
704941.1518,3,-1.254,8.758,-1.4,4,-0.029,-0.069,-0.211,5,-23.315,-41.199,21.284
704941.1716,3,-1.551,10.954,-1.567,4,-0.083,-0.311,-0.214,5,-21.979,-41.167,22.011
704941.1915,3,-1.874,6.398,-1.682,4,-0.098,-0.534,-0.2,5,-21.982,-41.162,19.832
704941.2114,3,-0.792,9.887,-3.453,4,-0.103,-0.658,-0.14,5,-21.98,-41.165,21.286
704941.2312,3,0.014,11.859,-3.001,4,-0.045,-0.686,-0.075,5,-21.947,-39.74,22.006
704941.2511,3,0.579,8.576,-0.352,4,-0.057,-0.582,-0.014,5,-19.974,-41.122,23.466
704941.2709,3,0.337,9.48,-1.713,4,-0.089,-0.474,0.02,,,,
704941.2908,3,0.206,11.734,-3.773,4,-0.013,-0.372,0.02,5,-21.997,-41.878,21.288
704941.3107,3,0.328,7.975,-1.613,4,0.054,-0.24,0.023,5,-21.344,-42.581,22.743
704941.3305,3,0.057,8.837,-3.845,4,0.02,-0.083,0.014,5,-23.985,-41.211,19.829
704941.3504,3,-0.199,10.493,-4.247,4,0.053,0.084,-0.004,5,-19.994,-41.829,21.291
704941.3703,3,-0.601,4.934,2.079,4,0.072,0.239,-0.015,5,-21.327,-41.867,22.742
704941.3901,3,-0.328,9.87,-5.817,4,0.013,0.377,-0.015,5,-21.994,-41.884,23.465
704941.41,3,0.337,11.39,-5.841,4,0.122,0.375,-0.041,5,-20.657,-41.852,23.466
704941.4299,3,0.117,10.15,-0.73,4,0.115,0.373,-0.065,5,-19.308,-41.106,22.743
704941.4498,3,-0.541,6.207,1.44,4,-0.067,0.369,-0.071,5,-20.007,-42.549,23.47
704941.4696,3,-1.969,12.467,-3.697,4,-0.068,0.327,-0.09,5,-20.642,-41.135,22.012
704941.4895,3,-1.529,11.043,-3.343,4,0.055,0.179,-0.123,5,-21.327,-41.867,22.742
704941.5093,3,-0.438,7.205,-1.328,4,0.027,0.031,-0.098,5,-20.66,-41.846,21.289
704941.5292,3,0.017,10.538,-3.242,4,-0.032,-0.096,-0.073,5,-21.342,-42.583,23.468
704941.5491,3,0.177,11.344,-2.378,4,0.002,-0.164,-0.068,5,-19.342,-42.532,22.746
704941.5689,3,-0.823,9.248,-1.263,4,-0.007,-0.173,-0.065,5,-18.674,-42.516,22.748
704941.5888,3,-0.297,9.086,-2.127,4,-0.022,-0.18,-0.056,5,-20.679,-42.558,20.564
704941.6087,3,-0.842,9.227,-3.668,4,0.017,-0.242,-0.048,5,-20.659,-41.85,22.742
704941.6285,3,0.005,9.464,-4.979,4,0.049,-0.295,-0.035,5,-19.994,-41.829,21.291
704941.6484,3,-0.476,9.315,-2.907,4,0.023,-0.31,-0.021,5,-19.292,-40.393,23.466
704941.6683,3,-0.56,9.492,-0.924,4,-0.043,-0.266,-0.002,5,-20.009,-42.545,22.017
704941.6881,3,0.043,8.906,-0.569,4,-0.089,-0.195,0.002,5,-20.009,-42.545,22.017
704941.708,3,0.266,7.997,-2.261,4,-0.06,-0.179,0.01,5,-17.989,-41.788,23.471
704941.7279,3,-0.012,11.708,-5.195,4,0.018,-0.137,0.013,5,-19.325,-41.818,22.745
704941.7477,3,0.634,9.624,-3.23,4,0.079,-0.083,0.009,5,-19.341,-42.534,23.471
704941.7676,3,-0.065,9.409,-1.541,4,0.016,0.001,0.018,5,-19.989,-41.838,24.922
704941.7875,3,-0.622,9.72,-1.778,4,-0.01,0.092,0.006,5,-19.292,-40.393,23.466
704941.8073,3,-0.763,9.27,-3.063,4,0.02,0.119,-0.025,5,-19.276,-39.676,22.011
704941.8272,3,-0.292,8.729,-2.623,4,0.028,0.112,-0.058,5,-18.639,-41.09,23.47
704941.8471,3,-0.333,8.447,-1.998,4,0.022,0.141,-0.063,5,-19.325,-41.815,22.017
704941.8669,3,-0.871,7.073,-3.896,4,0.01,0.171,-0.056,5,-19.308,-41.106,22.743
704941.8868,3,-0.821,6.796,-5.477,4,0.039,0.186,-0.065,5,-18.657,-41.798,22.018
704941.9066,3,-3.044,17.355,-4.822,4,0.032,0.179,-0.073,5,-18.639,-41.09,23.47
704941.9265,3,2.079,15.056,2.977,4,-0.067,0.204,-0.067,5,-17.957,-40.361,23.468
704941.9464,3,-0.041,-3.087,6.434,4,-0.316,0.062,0.002,5,-18.658,-41.797,21.294
704941.9662,3,-0.916,16.884,-2.895,4,-0.227,-0.076,-0.056,5,-17.99,-41.786,22.746
704941.9861,3,-1.905,11.009,-7.662,4,0.16,-0.343,-0.078,5,-18.672,-42.517,23.473
704942.006,3,-0.67,5.977,-3.613,4,0.203,-0.344,-0.038,5,-18.672,-42.517,23.473
704942.0259,3,-1.168,10.004,-4.637,4,0.068,-0.335,0.002,5,-19.308,-41.103,22.015
704942.0457,3,-0.632,8.722,-2.051,4,0.038,-0.212,0.032,5,-19.974,-41.122,23.466
704942.0656,3,-0.703,8.753,-1.833,4,-0.033,-0.197,0.057,5,-19.29,-40.395,24.194
704942.0855,3,0.12,9.377,-2.606,4,-0.052,-0.264,0.056,5,-20.641,-41.139,23.465
704942.1053,3,0.117,8.908,-1.266,4,-0.034,-0.314,0.074,5,-19.975,-41.121,22.742
704942.1252,3,1.436,8.136,-1.967,4,-0.052,-0.25,0.096,5,-20.624,-40.427,24.191
704942.145,3,1.467,10.88,-3.3,4,-0.037,-0.17,0.079,5,-17.955,-40.363,24.196
704942.1649,3,1.857,11.244,-2.278,4,0.006,-0.06,0.046,5,-17.319,-41.772,24.2
704942.1848,3,0.964,7.992,0.108,4,-0.016,0.061,0.01,5,-18.634,-41.096,26.376
704942.2046,3,-0.299,9.602,-1.271,4,-0.039,0.068,-0.031,5,-19.96,-40.404,22.012
704942.2245,3,-2.292,8.183,-1.838,4,0.031,-0.011,-0.079,5,-17.937,-39.653,25.644
704942.2444,3,0.182,18.786,-15.249,4,0.082,-0.105,-0.087,5,-19.293,-40.392,22.742
704942.2643,3,2.199,4.494,1.318,4,0.16,-0.225,-0.049,5,-18.637,-41.092,24.197
704942.2841,3,-2.192,10.083,1.192,4,-0.195,-0.16,0.002,5,-19.295,-40.387,21.289
704942.304,3,-2.304,10.332,-0.632,4,-0.195,-0.088,-0.019,5,-19.293,-40.392,22.742
704942.3239,3,-2.386,8.375,-2.465,4,-0.049,-0.217,-0.075,5,-19.991,-41.835,23.468
704942.3437,3,-1.077,11.861,-5.707,4,0.053,-0.354,-0.035,5,-17.958,-40.356,22.015
704942.3636,3,-0.904,7.6,-2.501,4,0.097,-0.482,0.032,5,-18.64,-41.089,22.745
704942.3834,3,-0.388,9.165,-1.744,4,0.013,-0.536,0.067,5,-18.639,-41.09,23.47
704942.4033,3,-1.125,11.811,-2.541,4,0.002,-0.548,0.087,5,-18.637,-41.093,24.924
704942.4232,3,0.041,9.44,-2.302,4,0.04,-0.471,0.129,5,-20.006,-42.551,24.197
704942.443,3,0.069,6.925,-2.445,4,0.026,-0.495,0.17,5,-18.585,-38.956,26.37
704942.4629,3,-0.615,10.99,-4.616,4,0.064,-0.494,0.177,5,-17.953,-40.366,25.647
704942.4828,3,0.285,11.706,-3.453,4,0.105,-0.384,0.175,5,-16.583,-38.905,25.645
704942.5026,3,1.091,7.798,-1.907,4,0.045,-0.156,0.197,5,-17.267,-39.638,26.373
704942.5225,3,1.091,12.931,-3.218,4,-0.006,0.092,0.208,5,-19.273,-39.682,24.191
704942.5424,3,0.706,9.674,-1.871,4,0.053,0.293,0.178,5,-18.622,-40.379,24.922
704942.5622,3,0.591,8.763,-1.924,4,0.029,0.438,0.123,5,-19.923,-38.985,24.915
704942.5821,3,0.029,9.564,-3.654,4,0.05,0.536,0.075,5,-19.957,-40.411,24.919
704942.602,3,-1.328,8.416,-3.486,4,0.1,0.59,0.037,5,-19.908,-38.272,24.187
704942.6218,3,-0.878,11.323,-2.962,4,0.077,0.643,0.009,5,-19.257,-38.969,24.916
704942.6417,3,-1.244,7.76,-1.584,4,0.026,0.591,-0.015,5,-20.624,-40.427,24.191
704942.6616,3,-1.551,12.881,-1.78,4,-0.028,0.481,-0.035,5,-20.575,-38.289,24.185
704942.6815,3,-2.283,6.162,-1.467,4,-0.022,0.3,-0.049,5,-19.94,-39.699,24.916
704942.7013,3,-3.386,9.6,-4.278,4,-0.018,0.14,-0.04,5,-20.61,-39.711,22.736
704942.7212,3,-3.874,14.907,-3.903,4,0.027,-0.019,-0.012,5,-21.26,-39.015,23.459
704942.7411,3,-2.522,6.774,1.259,4,-0.017,-0.082,0.061,5,-19.926,-38.98,22.736
704942.7609,3,-1.05,14.816,-1.838,4,-0.126,-0.121,0.135,5,-19.258,-38.966,23.462
704942.7808,3,-0.316,7.614,-1.333,4,-0.005,-0.157,0.178,5,-19.907,-38.275,25.638
704942.8,3,-0.433,6.518,-4.204,4,0.083,-0.107,0.202,5,-20.607,-39.716,24.915
704942.8205,3,0.127,9.65,-7.257,4,0.174,0.022,0.188,5,-20.56,-37.573,23.456
704942.8404,3,0.77,9.789,-5.716,4,0.208,0.227,0.202,5,-21.277,-39.729,23.46
704942.8603,3,1.675,9.354,-1.371,4,0.07,0.482,0.225,5,-21.277,-39.729,23.46
704942.8801,3,1.213,10.473,0.859,4,-0.072,0.661,0.2,5,-21.277,-39.729,23.46
704942.9,3,0.83,11.469,0.234,4,-0.109,0.735,0.123,5,-22.594,-39.05,24.91
704942.9199,3,0.479,6.559,-1.172,4,-0.052,0.679,0.046,5,-24.634,-40.521,22.733
704942.9397,3,0.471,12.282,-4.058,4,0.023,0.507,-0.003,5,-21.277,-39.729,23.46
704942.9596,3,-0.72,10.538,-1.507,4,0.078,0.305,-0.054,5,-21.878,-36.894,24.181
704942.9794,3,-0.66,9.413,-0.558,4,-0.015,0.25,-0.076,5,-25.232,-37.689,24.176
704942.9993,3,-0.172,10.315,-0.739,4,-0.049,0.219,-0.062,5,-25.284,-39.825,22.728
704943.0192,3,-0.002,8.992,-2.166,4,-0.028,0.13,-0.051,5,-23.265,-39.059,22.003
704943.039,3,0.431,9.705,-4.006,4,-0.015,-0.018,-0.064,5,-23.93,-39.081,24.182
704943.0589,3,-1.405,9.404,-2.785,4,0.013,-0.113,-0.058,5,-23.282,-39.774,22.005
704943.0788,3,-1.235,10.064,-3.144,4,-0.032,-0.145,-0.038,5,-25.218,-36.971,21.994
704943.0986,3,0.136,12.086,-2.151,4,-0.066,-0.159,-0.015,5,-23.917,-38.368,23.453
704943.1185,3,0.124,6.803,-0.457,4,-0.088,-0.157,0.01,5,-22.578,-38.339,24.908
704943.1384,3,0.763,7.746,-1.249,4,-0.12,-0.093,0.01,5,-24.568,-37.669,22.725
704943.1583,3,0.201,9.303,-5.243,4,-0.028,-0.059,-0.027,5,-23.26,-39.069,25.635
704943.1781,3,2.297,7.399,-4.082,4,0.073,0.003,-0.012,5,-23.25,-38.351,22.729
704943.198,3,1.893,13.062,-4.609,4,0.06,0.094,0.006,5,-22.58,-38.336,23.454
704943.2178,3,2.503,8.93,-1.577,4,0.021,0.186,-0.029,5,-23.933,-39.078,22.729
704943.2377,3,2.149,10.799,-0.656,4,-0.067,0.261,-0.07,5,-22.598,-39.041,21.278
704943.2576,3,-0.06,10.294,-1.098,4,-0.059,0.248,-0.123,5,-23.918,-38.367,22.728
704943.2774,3,-1.084,9.406,-2.321,4,-0.021,0.164,-0.179,5,-25.301,-40.535,22.003
704943.2973,3,-0.998,9.82,-3.482,4,0.004,-0.063,-0.247,5,-22.549,-36.903,21.274
704943.3172,3,-1.216,8.215,-3.135,4,0.042,-0.223,-0.238,5,-24.6,-39.091,22
704943.337,3,-1.653,9.622,-2.831,4,0.037,-0.295,-0.184,5,-22.581,-38.335,22.729
704943.3569,3,0.031,9.533,-3.132,4,0.016,-0.324,-0.136,5,-23.299,-40.486,22.008
704943.3768,3,-0.167,9.667,-3.068,4,-0.005,-0.38,-0.102,5,-23.283,-39.772,21.28
704943.3966,3,-0.139,9.696,-1.701,4,-0.018,-0.362,-0.085,5,-20.627,-40.421,22.011
704943.4165,3,0.11,7.695,-3.039,4,-0.039,-0.325,-0.071,5,-21.93,-39.029,22.733
704943.4364,3,-0.165,12.498,-4.735,4,0.005,-0.284,-0.062,5,-21.31,-41.151,22.012
704943.4562,3,-0.306,10.378,-1.271,4,0.035,-0.229,-0.067,5,-21.246,-38.3,22.005
704943.4761,3,-0.1,8.526,-1.306,4,-0.032,-0.123,-0.043,5,-21.965,-40.451,21.284
704943.496,3,-0.436,11.201,-3.199,4,-0.006,-0.054,-0.041,5,-21.964,-40.453,22.009
704943.5158,3,-1.07,8.815,-1.917,4,0.07,-0.051,-0.048,5,-20.642,-41.138,22.74
704943.5357,3,-1.431,7.796,-2.991,4,0.045,-0.022,-0.054,5,-19.958,-40.408,23.465
704943.5556,3,-1.73,11.182,-4.113,4,0.049,0.007,-0.053,5,-21.341,-42.584,24.196
704943.5754,3,-1.622,8.538,-1.407,4,0.071,-0.004,-0.036,5,-19.975,-41.121,22.742
704943.5953,3,-0.648,9.942,-2.431,4,0.018,0.023,0.007,5,-20.628,-40.419,21.286
704943.6151,3,-0.916,11.727,-3.462,4,0.034,0,0.03,5,-21.326,-41.869,23.466
704943.635,3,-0.471,8.401,-1.807,4,0.061,0.028,0.028,5,-19.293,-40.392,22.742
704943.6549,3,-0.366,6.705,-3.226,4,0.015,0.055,0.045,5,-21.295,-40.44,22.739
704943.6747,3,-0.354,11.548,-4.573,4,0.044,0.112,0.047,5,-19.305,-41.109,24.196
704943.6946,3,-0.022,9.569,-2.326,4,0.06,0.163,0.047,5,-21.277,-39.729,23.46
704943.7145,3,0.232,9.121,-1.938,4,-0.026,0.229,0.058,5,-22.63,-40.472,22.736
704943.7344,3,0.141,10.938,-3.517,4,-0.05,0.218,0.031,5,-21.994,-41.884,23.465
704943.7542,3,-0.11,9.514,-2.405,4,-0.011,0.129,-0.002,5,-21.962,-40.457,23.462
704943.7741,3,-0.751,9.552,-2.922,4,-0.032,0.031,-0.021,5,-21.31,-41.154,22.74
704943.794,3,-1.084,10.071,-2.658,4,-0.031,-0.038,-0.025,5,-21.292,-40.443,24.191
704943.8138,3,-0.089,8.521,-2.91,4,-0.023,-0.143,-0.01,5,-21.309,-41.156,23.465
704943.8337,3,0.215,10.641,-3.541,4,-0.018,-0.229,0.007,5,-21.294,-40.442,23.463
704943.8535,3,-0.089,8.576,-2.938,4,0.001,-0.274,0.018,5,-19.942,-39.696,23.462
704943.8734,3,0.522,11.624,-4.116,4,-0.016,-0.25,0.013,5,-19.957,-40.41,24.193
704943.8933,3,0.646,6.386,-1.639,4,-0.011,-0.204,0.028,5,-19.958,-40.408,23.465
704943.9131,3,0.022,11.261,-2.73,4,-0.037,-0.103,0.045,5,-21.945,-39.745,23.459
704943.933,3,-0.945,12.459,-2.417,4,-0.026,-0.06,0.028,5,-20.624,-40.427,24.191
704943.9529,3,-0.05,7.87,0.022,4,-0.045,-0.031,0.023,5,-21.976,-41.173,24.191
704943.9727,3,0.127,11.316,-3.539,4,-0.054,-0.052,0.042,5,-20.609,-39.713,23.46
704943.9926,3,-0.364,8.882,-3.587,4,0.055,-0.083,0.025,5,-21.275,-39.731,24.188
704944.0125,3,-1.024,7.892,-2.563,4,0.089,-0.042,0.001,5,-20.607,-39.714,24.188
704944.0324,3,-2.034,9.768,-4.783,4,0.072,0.075,0.008,5,-20.641,-41.139,23.465
704944.0522,3,-1.364,8.207,-3.264,4,0.077,0.123,0.021,5,-20.61,-39.708,22.008
704944.0721,3,0.024,10.461,-4.03,4,0.026,0.103,0.052,5,-20.625,-40.425,23.463
704944.0919,3,-0.28,11.739,-1.938,4,-0.028,0.073,0.07,5,-19.321,-41.824,25.648
704944.1118,3,0.531,9.959,-0.275,4,-0.078,0.096,0.062,5,-17.987,-41.791,24.925
704944.1317,3,-0.354,7.37,-1.589,4,-0.094,0.042,0.056,5,-18.687,-43.234,24.928
704944.1515,3,-1.263,12.797,-4.343,4,-0.005,0.022,0.036,5,-22.61,-39.763,24.185
704944.1714,3,0.06,7.595,-2.998,4,0.072,-0.007,0.014,5,-21.326,-41.869,23.466
704944.1913,3,-0.443,9.787,-2.158,4,0.011,0.034,0.045,5,-20.624,-40.427,24.191
704944.2111,3,-0.421,10.031,-2.572,4,0.011,0.086,0.059,5,-19.94,-39.697,24.19
704944.231,3,-0.904,9.629,-2.733,4,0.012,0.091,0.048,5,-19.241,-38.257,24.188
704944.2509,3,-0.304,10.933,-2.874,4,0.001,0.069,0.024,5,-19.943,-39.694,22.737
704944.2707,3,-0.684,8.404,-1.869,4,-0.006,0.056,0.042,5,-22.644,-41.188,23.462
704944.2906,3,-0.139,10.71,-2.946,4,-0.044,0.088,0.052,5,-21.945,-39.745,23.459
704944.3105,3,-0.766,8.076,-1.661,4,-0.011,0.073,0.042,5,-23.314,-41.203,22.737
704944.3303,3,-0.117,10.457,-2.761,4,-0.01,0.125,0.045,5,-20.592,-38.998,23.459
704944.3502,3,-0.804,5.934,-2.984,4,0.018,0.167,0.024,5,-21.944,-39.746,24.187
704944.3701,3,-0.127,11.557,-3.857,4,0.034,0.199,0.017,5,-22.595,-39.047,23.456
704944.3899,3,-0.524,10.66,-3.017,4,0.046,0.237,0.024,5,-21.26,-39.015,23.459
704944.4098,3,0.352,9.004,-0.876,4,-0.015,0.277,0.024,5,-22.581,-38.335,22.729
