705469.1075,3,1.426,9.425,-2.835,,,,,,,,
705469.146,3,1.426,9.425,-2.835,,,,,5,19.061,-55.124,14.853
705469.1658,3,1.426,9.425,-2.835,4,-0.006,0.006,0.021,5,19.041,-55.832,12.677
705469.1857,3,1.5,9.368,-2.981,4,-0.006,0.006,0.021,5,17.073,-54.457,14.124
705469.2055,3,1.584,9.38,-3.149,4,-0.006,0.006,0.021,5,21.701,-56.491,17.041
705469.2254,3,1.496,9.358,-3.137,4,0,-0.004,0.014,5,20.366,-56.523,17.039
705469.2453,3,1.311,9.418,-3.001,4,0,-0.005,0.008,5,20.364,-56.522,16.313
705469.2651,3,1.316,9.406,-3.039,4,0,-0.018,0.001,5,21.001,-57.932,16.316
705469.285,3,1.498,9.394,-3.051,4,0.001,-0.029,-0.003,5,21.033,-56.505,16.313
705469.3049,3,1.488,9.416,-2.943,4,0.002,-0.031,-0.005,5,21.701,-56.494,17.767
705469.3247,3,1.414,9.416,-2.821,4,0.001,-0.027,-0.012,5,21.066,-55.078,16.31
705469.3446,3,1.417,9.433,-2.922,4,0.002,-0.026,-0.018,5,21.686,-57.207,17.769
705469.3645,3,1.345,9.437,-3.025,4,0.009,-0.024,-0.02,5,21.733,-55.063,16.312
705469.3843,3,1.213,9.452,-2.867,4,0.012,-0.01,-0.026,5,21.034,-56.509,17.766
705469.4036,3,1.211,9.464,-2.826,4,0.01,-0.003,-0.031,5,21.7,-56.49,16.315
705469.4241,3,1.347,9.456,-2.962,4,0.01,-0.008,-0.03,5,20.383,-55.809,17.038
705469.4439,3,1.29,9.454,-2.917,4,0.013,-0.01,-0.031,5,21.066,-55.078,16.31
705469.4638,3,1.539,9.662,-3.293,4,0.013,-0.009,-0.038,5,21.735,-55.064,17.038
705469.4836,3,0.268,10.014,-2.278,4,0.01,-0.007,-0.043,5,21.068,-55.083,17.763
705469.5035,3,1.192,9.507,-3.592,4,0.002,0.024,-0.045,5,23.068,-55.029,16.315
705469.5234,3,0.768,9.504,-2.931,4,0.016,-0.027,-0.042,5,21.698,-56.488,15.588
705469.5432,3,1.036,9.502,-2.759,4,0.018,-0.008,-0.038,5,21.669,-57.918,17.044
705469.5631,3,1.488,9.471,-3.178,4,0.012,-0.031,-0.04,5,21.733,-55.063,16.312
705469.583,3,1.567,9.354,-3.297,4,0.018,-0.053,-0.035,5,22.401,-55.051,17.766
705469.6028,3,0.306,9.624,-2.352,4,0.016,0.014,-0.043,5,21.718,-55.777,17.039
705469.6227,3,0.895,9.593,-3.228,4,0.016,0.09,-0.056,5,22.386,-55.765,18.492
705469.6426,3,1.041,9.351,-3.592,4,0.027,0.052,-0.047,5,22.385,-55.76,17.041
705469.6624,3,0.952,9.346,-2.965,4,0.028,-0.009,-0.032,5,21.065,-55.077,15.584
705469.6823,3,0.479,9.569,-2.462,4,0.009,-0.016,-0.035,5,21.719,-55.782,18.491
705469.7022,3,0.727,9.5,-3.015,4,0,-0.013,-0.036,5,23.004,-57.884,17.047
705469.722,3,1.383,9.265,-3.721,4,0.017,0.006,-0.021,5,22.417,-54.332,16.312
705469.7419,3,1.041,9.437,-3.044,4,0.024,-0.008,-0.015,5,23.051,-55.742,16.316
705469.7617,3,0.974,9.459,-2.529,4,0.006,-0.008,-0.025,5,21.684,-57.202,16.316
705469.7816,3,1.113,9.377,-3.247,4,0,-0.02,-0.021,5,23.718,-55.727,16.316
705469.8015,3,0.416,9.399,-3.628,4,0.012,-0.066,-0.018,5,23.07,-55.031,17.041
705469.8214,3,-0.057,9.545,-3.295,4,0.016,-0.063,-0.018,5,22.401,-55.048,17.039
705469.8412,3,-0.081,9.547,-3.036,4,0.002,-0.082,-0.01,5,22.365,-56.471,15.59
705469.8611,3,-0.579,9.48,-3.706,4,-0.006,-0.147,0.012,5,22.366,-56.473,16.316
705469.8809,3,-0.943,9.476,-3.891,4,-0.005,-0.169,0.037,5,22.383,-55.759,16.315
705469.9008,3,-0.995,9.464,-3.783,4,-0.015,-0.18,0.063,5,22.415,-54.329,14.857
705469.9207,3,-0.811,9.531,-3.795,4,-0.035,-0.164,0.098,5,22.385,-55.76,17.041
705469.9406,3,-1.304,9.418,-3.864,4,-0.05,-0.149,0.133,5,21.017,-57.217,16.315
705469.9604,3,-1.022,9.318,-3.752,4,-0.059,-0.127,0.173,5,24.976,-59.267,17.781
705469.9803,3,-0.467,9.411,-3.101,4,-0.068,-0.129,0.221,,,,
705470.0001,3,0.029,9.614,-3.288,4,-0.07,-0.092,0.254,5,21.75,-54.349,16.31
705470.02,3,1.117,9.444,-3.237,4,-0.06,-0.065,0.28,5,20.416,-54.385,17.761
705470.0399,3,1.845,9.212,-2.981,4,-0.052,-0.02,0.31,5,21.082,-54.361,14.854
705470.0597,3,2.309,9.272,-2.809,4,-0.059,0.04,0.315,5,21.048,-55.789,15.585
705470.0796,3,2.103,9.442,-2.228,4,-0.066,0.108,0.299,5,21.698,-56.487,14.861
705470.0995,3,2.448,9.363,-2.005,4,-0.068,0.167,0.284,5,21.033,-56.505,16.313
705470.1193,3,2.766,9.401,-2.13,4,-0.059,0.168,0.276,5,20.361,-56.517,14.134
705470.1392,3,3.13,9.468,-2.493,4,-0.04,0.153,0.257,5,19.696,-56.538,16.312
705470.159,3,3.039,9.313,-2.441,4,-0.027,0.149,0.236,5,19.046,-55.84,16.309
705470.1789,3,2.266,9.239,-2.524,4,-0.031,0.103,0.214,5,19.048,-55.841,17.035
705470.1988,3,2.099,9.418,-2.881,4,-0.039,0.042,0.188,5,18.375,-55.852,14.13
705470.2187,3,2.185,9.38,-2.759,4,-0.045,-0.013,0.173,5,18.376,-55.855,15.582
705470.2385,3,2.216,9.248,-2.711,4,-0.049,-0.024,0.163,5,18.996,-57.977,14.859
705470.2584,3,1.998,9.373,-3.202,4,-0.048,-0.015,0.151,5,19.728,-55.11,15.582
705470.2782,3,1.304,9.255,-3.726,4,-0.039,0.008,0.145,5,18.343,-57.278,14.133
705470.2981,3,0.964,9.114,-3.455,4,-0.035,0.042,0.144,5,19.061,-55.125,15.581
705470.318,3,0.936,9.411,-3.41,4,-0.045,0.061,0.145,5,18.358,-56.566,14.131
705470.3378,3,0.531,9.299,-4.202,4,-0.051,0.039,0.151,5,17.007,-57.31,14.13
705470.3577,3,0.754,8.94,-4.496,4,-0.052,0.001,0.168,5,19.044,-55.838,15.582
705470.3776,3,0.885,9.167,-3.812,4,-0.066,-0.002,0.197,5,19.041,-55.832,12.677
705470.3974,3,0.407,9.272,-4.164,4,-0.09,0.039,0.208,5,18.391,-55.139,14.128
705470.4173,3,0.507,8.992,-4.489,4,-0.098,0.073,0.212,5,19.008,-57.256,11.954
705470.4371,3,1.199,9.023,-3.144,4,-0.105,0.091,0.243,5,17.688,-56.58,12.677
705470.457,3,2.015,9.299,-3.386,4,-0.116,0.112,0.279,5,18.356,-56.563,12.679
705470.4769,3,2.345,9.09,-3.785,4,-0.095,0.185,0.29,5,18.356,-56.564,13.405
705470.4968,3,2.615,9.016,-3.273,4,-0.067,0.257,0.284,5,18.355,-56.56,11.952
705470.5166,3,2.486,8.851,-3.984,4,-0.052,0.32,0.288,5,17.688,-56.581,13.403
705470.5365,3,3.864,8.952,-3.522,4,-0.038,0.376,0.285,5,17.673,-57.292,12.679
705470.5563,3,4.422,8.734,-3.056,4,-0.044,0.356,0.261,5,16.322,-58.038,12.677
705470.5762,3,4.97,9.26,-2.627,4,-0.048,0.367,0.232,5,17.021,-56.595,12.675
705470.5961,3,4.606,9.007,-2.938,4,-0.029,0.477,0.199,5,16.341,-57.327,14.128
705470.6159,3,3.742,8.806,-3.161,4,0,0.592,0.151,5,14.987,-58.07,12.675
705470.6358,3,3.575,8.428,-3.199,4,0.02,0.675,0.104,5,14.333,-57.368,11.218
705470.6557,3,2.809,8.6,-3.675,4,0.022,0.663,0.076,5,14.304,-58.803,14.13
705470.6755,3,2.436,9.296,-3.797,4,0.024,0.587,0.052,5,13.684,-56.679,14.124
705470.6954,3,2.142,9.165,-3.458,4,0.013,0.493,0.032,5,13,-57.405,12.671
705470.7152,3,2.357,8.064,-2.749,4,-0.006,0.425,0.035,5,13.637,-58.82,14.854
705470.7351,3,3.12,8.236,-2.902,4,-0.013,0.366,0.036,5,14.351,-56.662,13.397
705470.755,3,3.582,10.459,-4.463,4,0.001,0.35,0.034,5,13.004,-57.41,14.848
705470.7749,3,2.321,9.473,-2.967,4,0.045,0.442,0.031,5,15.022,-56.648,14.85
705470.7947,3,2,8.449,-3.288,4,0.04,0.582,0.008,5,14.337,-57.376,14.125
705470.8146,3,1.933,9.263,-2.666,4,0.027,0.625,-0.003,5,13.64,-58.824,17.035
705470.8344,3,2.192,10.091,-2.902,4,0.021,0.614,0.007,5,13.637,-58.821,15.582
705470.8543,3,2.402,9.696,-2.369,4,0.018,0.641,0.013,5,12.286,-59.569,15.581
705470.8742,3,2.768,8.748,-2.816,4,0.027,0.686,0.021,5,13.005,-57.413,16.302
705470.894,3,2.144,8.703,-2.029,4,0.046,0.697,0.028,5,13.67,-57.394,15.578
705470.9139,3,2.68,8.901,-2.716,4,0.053,0.678,0.024,5,11.667,-57.443,15.573
705470.9338,3,3.563,9.93,-2.898,4,0.046,0.613,0.015,5,12.337,-57.43,16.301
705470.9536,3,3.532,9.32,-2.39,4,0.054,0.54,0.023,5,12.338,-57.434,17.754
705470.9735,3,3.422,8.535,-1.72,4,0.05,0.531,0.018,5,11.002,-57.46,15.573
705470.9933,3,3.443,8.841,-1.842,4,0.045,0.566,-0.008,5,12.37,-56.007,17.751
705471.0132,3,3.041,8.164,-1.333,4,0.05,0.615,-0.029,5,10.32,-58.192,17.026
705471.0331,3,4.396,10.78,-3.144,4,0.06,0.623,-0.047,5,11.707,-56.027,19.926
705471.053,3,4.271,9.181,-1.472,4,0.109,0.658,-0.056,5,11.673,-57.452,19.205
705471.0728,3,4.975,9.674,-2.802,4,0.093,0.73,-0.086,5,11.688,-56.74,19.203
705471.0927,3,4.049,8.353,-1.342,4,0.116,0.779,-0.124,5,10.939,-60.32,17.76
705471.1125,3,3.733,9.057,-1.027,4,0.137,0.834,-0.17,5,10.356,-56.773,19.926
705471.1324,3,3.788,8.597,-0.854,4,0.166,0.825,-0.195,5,11.656,-58.167,19.206
705471.1523,3,4.611,8.502,-1.486,4,0.191,0.813,-0.223,5,10.324,-58.2,19.93
705471.1722,3,5.393,9.406,-3.628,4,0.235,0.811,-0.258,5,11.688,-56.74,19.203
705471.192,3,3.508,8.712,-1.711,4,0.269,0.858,-0.295,5,11.691,-56.744,21.382
705471.2119,3,3.18,8.169,-0.912,4,0.259,0.946,-0.341,5,11.024,-56.76,20.656
705471.2318,3,3.529,8.901,-0.919,4,0.253,0.929,-0.368,5,11.061,-55.339,22.832
705471.2516,3,3.57,8.676,-1.584,4,0.305,0.896,-0.382,5,12.361,-56.731,22.108
705471.2715,3,4.793,9.287,-2.484,4,0.365,0.873,-0.409,5,13.049,-56.006,24.289
705471.2913,3,5.204,9.107,-3.209,4,0.408,0.827,-0.401,5,12.379,-56.021,23.56
705471.3112,3,2.955,9.344,-2.864,4,0.43,0.772,-0.433,5,14.368,-56.688,24.292
705471.3311,3,1.811,8.672,-1.098,4,0.415,0.667,-0.509,5,14.418,-54.547,24.287
705471.351,3,4.108,8.42,-1.926,4,0.385,0.463,-0.56,5,14.384,-55.974,24.29
705471.3708,3,1.852,8.696,-2.244,4,0.382,0.189,-0.561,5,13.753,-54.567,26.466
705471.3907,3,-0.402,9.775,-3.75,4,0.384,-0.052,-0.565,5,15.088,-54.533,25.74
705471.4105,3,-3.089,10.287,-2.541,4,0.371,-0.31,-0.541,5,16.423,-54.501,25.742
705471.4304,3,-4.171,11.392,-4.367,4,0.33,-0.599,-0.468,5,17.076,-55.202,27.197
705471.4503,3,-2.886,15.309,-4.089,4,0.243,-1.006,-0.388,5,18.393,-55.881,26.477
705471.4701,3,-3.958,9.696,0.639,4,0.117,-1.306,-0.277,5,19.746,-55.138,27.202
705471.49,3,-3.046,5.848,-0.476,4,-0.006,-1.328,-0.134,5,19.092,-54.434,25.021
705471.5099,3,0.44,9.062,-5.14,4,-0.02,-1.271,-0.045,5,20.43,-54.405,26.477
705471.5297,3,3.147,11.105,-6.757,4,0.039,-1.245,0.032,5,19.725,-55.846,25.026
705471.5496,3,5.456,9.514,-2.532,4,-0.007,-0.77,0.109,5,21.111,-53.673,25.021
705471.5694,3,6.001,9.531,-0.366,4,-0.118,-0.053,0.181,5,20.41,-55.116,25.026
705471.5893,3,3.058,10.875,-1.204,4,-0.144,0.571,0.114,5,19.742,-55.132,24.298
705471.6092,3,1.153,7.942,-1.704,4,-0.045,1.015,-0.002,5,19.759,-54.419,25.023
705471.6291,3,1.419,8.736,-3.522,4,0.027,1.197,-0.018,5,18.439,-53.738,25.018
705471.6489,3,0.601,9.382,-4.743,4,0.071,1.067,0.009,5,19.109,-53.723,25.743
705471.6688,3,0.761,9.176,-4.731,4,0.053,0.783,-0.008,5,18.41,-55.168,26.476
705471.6886,3,1.704,8.88,-3.324,4,-0.006,0.404,-0.019,5,17.758,-54.471,26.472
705471.7085,3,1.488,9.602,-1.211,4,-0.078,0.143,-0.002,5,17.107,-53.773,26.468
705471.7284,3,1.589,8.411,-0.873,4,-0.109,0.026,0.01,5,16.438,-53.789,25.739
705471.7482,3,1.594,9.552,-4.324,4,-0.1,-0.002,0.002,5,16.393,-55.934,27.925
705471.7681,3,1.345,9.657,-3.685,4,-0.033,0.013,0.023,5,17.093,-54.491,27.924
705471.788,3,1.031,8.581,-0.998,4,-0.037,0.299,0.053,5,17.075,-55.2,26.472
705471.8078,3,2.362,10.691,-3.979,4,-0.046,0.524,0.061,5,17.79,-53.044,26.468
705471.8277,3,1.589,9.418,-2.142,4,-0.005,0.595,0.039,5,17.76,-54.472,27.197
705471.8475,3,2.685,8.887,-3.321,4,-0.008,0.687,0.031,5,16.44,-53.79,26.466
705471.8674,3,2.505,8.995,-2.62,4,0.012,0.687,0.043,5,17.107,-53.773,26.468
705471.8873,3,1.874,10.026,-2.568,4,0.011,0.72,0.023,5,16.441,-53.792,27.191
705471.9071,3,1.5,10.313,-2.156,4,0.005,0.709,-0.007,5,18.46,-53.029,27.194
705471.927,3,2.812,9.93,-3.958,4,0.01,0.541,-0.01,5,16.443,-53.796,28.644
705471.9469,3,1.574,9.16,-0.653,4,-0.015,0.309,-0.018,5,15.125,-53.114,28.641
705471.9667,3,1.488,6.894,-0.041,4,-0.044,0.152,-0.045,5,16.457,-53.076,26.465
705471.9866,3,2.69,9.471,-4.087,4,-0.063,0.034,-0.059,5,15.106,-53.827,27.917
705472.0065,3,0.893,11.734,-2.127,4,0.002,-0.029,-0.029,5,17.792,-53.046,27.193
705472.0263,3,2.048,6.702,-1.689,4,-0.001,0.157,0.021,5,16.409,-55.219,27.196
705472.0462,3,2.177,3.845,-3.412,4,-0.052,0.186,0.035,5,15.79,-53.093,27.19
705472.066,3,2.639,14.833,-5.815,4,-0.02,0.227,0.043,5,15.775,-53.812,28.644
705472.0859,3,6.219,8.332,-0.239,4,0.116,0.521,-0.048,5,15.776,-53.815,30.098
705472.1058,3,4.274,9.48,-1.12,4,-0.093,0.84,-0.122,5,15.123,-53.113,27.916
705472.1256,3,4.9,7.614,-2.943,4,0.039,0.795,-0.084,5,14.488,-51.704,28.636
705472.1455,3,3.649,9.071,-1.555,4,0.125,0.805,-0.19,5,15.775,-53.812,28.644
705472.1654,3,3.915,8.853,-4.36,4,0.231,0.687,-0.269,5,13.789,-53.148,29.366
705472.1853,3,2.694,8.645,-2.216,4,0.258,0.492,-0.301,5,15.143,-52.403,29.366
705472.2051,3,2.082,9.83,-1.68,4,0.244,0.257,-0.333,5,16.493,-51.657,29.366
705472.225,3,0.888,9.696,-2.505,4,0.221,-0.06,-0.365,5,16.51,-50.945,29.364
705472.2448,3,1.342,10.227,-3.618,4,0.185,-0.374,-0.387,5,17.159,-51.639,28.641
705472.2647,3,1.165,7.595,0.519,4,0.132,-0.705,-0.37,5,18.512,-50.896,29.369
705472.2846,3,-0.132,11.029,-0.014,4,0.023,-0.908,-0.326,5,19.148,-52.306,29.372
705472.3044,3,0.065,10.727,-0.407,4,0.009,-1.022,-0.268,5,17.809,-52.333,27.191
705472.3243,3,0.979,8.315,-1.613,4,0.007,-1.024,-0.233,5,21.167,-51.543,29.373
705472.3442,3,1.445,9.385,-3.97,4,0.031,-0.947,-0.159,5,19.194,-50.16,27.187
705472.364,3,1.031,10.153,-3.867,4,0.044,-0.729,-0.106,5,19.827,-51.573,27.921
705472.3839,3,-0.256,10.507,-2.797,4,-0.028,-0.438,-0.09,5,19.173,-50.868,25.012
705472.4038,3,-0.105,11,-0.84,4,-0.133,-0.295,-0.071,5,21.182,-50.829,28.645
705472.4236,3,-1.137,11.196,-1.579,4,-0.197,-0.319,-0.036,5,19.827,-51.57,27.193
705472.4435,3,0.11,7.485,-0.041,4,-0.184,-0.435,-0.001,5,19.839,-50.853,25.014
705472.4633,3,2.347,8.81,-4.948,4,-0.164,-0.589,0.04,5,20.526,-50.125,25.737
705472.4832,3,2.496,11.21,-5.559,4,-0.107,-0.758,0.058,5,21.176,-50.819,25.015
705472.5031,3,2.943,8.892,-2.965,4,-0.095,-0.78,0.065,5,21.211,-49.397,26.463
705472.523,3,2.747,7.628,-0.737,4,-0.177,-0.697,0.05,5,21.194,-50.108,25.737
705472.5428,3,1.74,8.975,-2.084,4,-0.154,-0.367,0.025,5,20.493,-51.55,25.742
705472.5627,3,2.534,11.143,-2.355,4,-0.072,-0.042,0.003,5,22.527,-50.073,24.289
705472.5826,3,4.41,8.82,-3.659,4,0.002,0.059,0.01,5,21.178,-50.821,25.74
705472.6024,3,3.675,9.997,-5.762,4,0.028,0.151,0.012,5,20.525,-50.124,25.012
705472.6223,3,2.867,8.358,-1.754,4,0.06,0.254,-0.037,5,21.193,-50.107,25.012
705472.6421,3,0.897,8.284,-2.02,4,-0.028,0.207,-0.107,5,20.528,-50.127,26.465
705472.662,3,-0.156,7.815,-3.561,4,-0.026,0.138,-0.15,5,21.875,-49.377,24.286
705472.6819,3,-2.728,9.409,-4.8,4,0.006,0.05,-0.152,5,21.86,-50.092,25.014
705472.7017,3,-0.873,8.925,-1.421,4,-0.016,-0.102,-0.124,5,21.86,-50.092,25.014
705472.7216,3,-1.165,10.193,-7.088,4,-0.077,-0.066,-0.063,5,21.86,-50.092,25.014
705472.7415,3,-2.197,8.279,-1.175,4,-0.037,0.089,-0.054,5,21.86,-50.092,25.014
705472.7613,3,-0.421,9.543,-5.896,4,-0.033,0.216,-0.037,5,21.848,-50.809,27.194
705472.7812,3,1.443,8.576,-1.682,4,-0.033,0.228,0.035,5,20.508,-50.836,25.015
705472.8011,3,2.288,10.684,-1.57,4,-0.028,0.4,0.086,5,21.909,-47.952,25.009
705472.8209,3,1.661,11.923,-0.924,4,-0.027,0.642,0.052,5,19.839,-50.851,24.287
705472.8408,3,2.752,10.064,-3.419,4,0.059,0.843,0.02,5,20.529,-50.128,27.19
705472.8607,3,2.845,11.163,-2.78,4,0.142,0.838,0.006,5,20.578,-47.992,27.913
705472.8805,3,2.256,9.866,-0.189,4,0.182,0.746,-0.056,5,20.56,-48.7,26.462
705472.9004,3,1.689,6.554,-3.082,4,0.143,0.53,-0.154,5,19.193,-50.159,26.462
705472.9202,3,3.199,12.601,-4.513,4,0.191,0.273,-0.195,5,20.541,-49.413,25.735
705472.9401,3,2.835,12.864,-0.725,4,0.224,0.171,-0.207,5,20.593,-47.273,26.459
705472.96,3,1.122,9.351,1.878,4,0.119,0.061,-0.233,5,20.593,-47.273,26.459
705472.9798,3,0.737,9.373,-1.048,4,0.078,-0.088,-0.264,5,18.575,-48.041,27.91
705472.9997,3,0.634,8.674,-3.482,4,0.164,-0.146,-0.283,5,19.923,-47.289,25.729
705473.0196,3,-0.096,10.349,-4.8,4,0.233,-0.206,-0.28,5,20.592,-47.272,25.731
705473.0394,3,-0.581,9.978,-4.723,4,0.247,-0.225,-0.258,5,21.913,-47.957,27.187
705473.0593,3,-0.931,9.873,-3.955,4,0.191,-0.318,-0.239,5,20.595,-47.275,27.184
705473.0792,3,-1.144,8.791,-3.154,4,0.123,-0.538,-0.213,5,23.311,-45.067,25.729
705473.099,3,-0.146,9.59,-4.683,4,0.092,-0.801,-0.169,5,23.265,-47.209,27.188
705473.1189,3,-0.34,9.543,-4.199,4,0.111,-1.003,-0.131,5,26.604,-47.131,27.921
705473.1388,3,-0.912,9.724,-4.003,4,0.104,-1.054,-0.09,5,25.885,-49.289,27.924
705473.1586,3,0.735,8.949,-2.422,4,0.083,-1.115,-0.037,5,27.254,-47.827,27.196
705473.1785,3,0.002,9.191,-2.099,4,0.067,-1.148,0.02,,,,
705473.1983,3,0.952,8.978,-4.269,4,0.104,-1.08,0.056,5,25.316,-45.021,26.46
705473.2182,3,1.766,10.533,-1.33,4,0.139,-0.97,0.097,5,24.646,-45.035,25.731
705473.2381,3,4.496,6.032,0.323,4,0.13,-0.878,0.152,5,24.596,-47.173,25.012
705473.2579,3,6.023,8.975,-7.473,4,0.057,-0.819,0.161,5,24.629,-45.747,25.732
705473.2778,3,5.69,11.923,-6.626,4,0.159,-0.735,0.062,5,25.98,-45.001,25.008
705473.2977,3,5.104,9.483,-3.46,4,0.138,-0.357,0.014,5,24.66,-44.318,24.278
705473.3175,3,5.106,6.688,-3.745,4,0.02,0.036,-0.032,5,25.966,-45.717,26.462
705473.3374,3,3.979,10.079,-4.427,4,-0.022,0.3,-0.131,5,23.962,-45.766,26.459
705473.3573,3,2.524,11.457,-1.73,4,-0.027,0.471,-0.252,5,25.981,-45.003,25.732
705473.3771,3,1.491,11.174,-1.429,4,-0.079,0.63,-0.335,5,25.331,-44.307,26.459
705473.397,3,-0.845,9.689,0.837,4,-0.072,0.731,-0.387,5,24.661,-44.321,25.729
705473.4169,3,-2.34,7.834,-0.529,4,-0.118,0.742,-0.421,5,25.996,-44.289,25.731
705473.4367,3,-3.63,9.1,0.278,4,-0.114,0.536,-0.453,5,25.365,-42.88,26.456
705473.4566,3,-3.053,9.636,-2.57,4,-0.046,0.164,-0.428,5,26.015,-43.578,26.457
705473.4764,3,0.153,9.571,-3.343,4,0.007,-0.302,-0.363,5,26.701,-42.851,27.91
705473.4963,3,2.85,10.093,-5.568,4,0.043,-0.652,-0.29,5,25.365,-42.88,26.456
705473.5162,3,0.89,10.169,-5.023,4,0.034,-0.725,-0.231,5,27.367,-42.831,26.459
705473.536,3,-1.003,9.227,-3.333,4,0.029,-0.495,-0.235,5,26.68,-43.558,25.006
705473.5559,3,-0.658,8.136,-2.491,4,-0.001,-0.181,-0.282,5,28.047,-42.101,25.729
705473.5757,3,-1.524,11.435,-3.187,4,0.006,-0.015,-0.302,5,27.396,-41.4,24.275
705473.5956,3,-2.405,9.102,-1.208,4,0.04,0.031,-0.28,5,27.379,-42.114,24.277
705473.6155,3,-0.132,10.203,-2.551,4,0.033,-0.02,-0.238,5,26.057,-41.429,22.82
705473.6354,3,-1.108,8.806,-2.424,4,0.028,-0.222,-0.202,5,28.029,-42.809,23.553
705473.6552,3,-2.369,10.007,-3.017,4,0.02,-0.422,-0.192,5,28.711,-42.078,22.826
705473.6751,3,-1.718,10.143,-1.675,4,0.001,-0.659,-0.162,5,28.728,-41.36,22.096
705473.695,3,-2.469,10.241,-0.632,4,-0.049,-0.911,-0.109,5,30.064,-41.333,23.552
705473.7148,3,-0.187,7.99,-2.613,4,-0.072,-1.032,-0.065,5,28.058,-41.376,21.371
705473.7347,3,1.685,10.004,-3.79,4,-0.04,-1.063,-0.02,5,30.077,-40.61,19.919
705473.7546,3,1.646,10.619,-3.505,4,-0.01,-0.845,0.029,5,30.06,-41.325,20.648
705473.7744,3,-0.074,10.615,-0.888,4,-0.045,-0.479,0.024,5,30.696,-42.737,20.653
705473.7943,3,-0.354,10.114,-0.213,4,-0.079,-0.225,-0.004,5,28.674,-43.495,19.199
705473.8142,3,0.029,8.533,-2.711,4,-0.052,-0.251,-0.014,5,29.344,-43.483,20.653
705473.834,3,-1.39,10.526,-4.53,4,0.013,-0.418,-0.003,5,29.376,-42.055,19.92
705473.8539,3,-0.696,8.349,-6.066,4,0.056,-0.518,-0.015,5,30.727,-41.307,19.196
705473.8737,3,0.519,8.806,-5.353,4,0.009,-0.589,-0.019,5,28.723,-41.354,19.193
705473.8936,3,-0.744,9.339,-2.199,4,-0.07,-0.594,-0.015,5,31.41,-40.575,18.468
705473.9135,3,-1.859,8.932,-1.328,4,-0.115,-0.547,0.021,5,30.025,-42.747,18.472
705473.9334,3,-0.747,9.358,-3.223,4,-0.074,-0.645,0.042,5,30.006,-43.46,17.749
705473.9532,3,-1.29,9.801,-5.094,4,0.032,-0.815,0.02,5,30.025,-42.747,18.472
705473.9731,3,-0.869,8.315,-3.943,4,0.089,-0.851,0.015,5,30.707,-42.018,17.744
705473.9929,3,-0.869,9.299,-3.115,4,0.068,-0.749,0.057,5,30.69,-42.726,16.295
705474.0128,3,0.28,10.012,-1.015,4,0.017,-0.658,0.096,5,30.052,-41.313,15.564
705474.0327,3,1.924,9.99,-0.33,4,-0.018,-0.614,0.104,5,30.721,-41.298,15.564
705474.0525,3,0.816,10.009,-0.476,4,-0.031,-0.572,0.108,5,32.722,-41.248,14.841
705474.0724,3,0.292,11.825,-1.232,4,0.004,-0.514,0.074,5,30.02,-42.738,14.841
705474.0923,3,1.457,9.835,-0.4,4,0.023,-0.52,0.043,5,30.704,-42.01,14.838
705474.1121,3,0.955,9.028,-0.909,4,-0.01,-0.528,0.064,5,31.357,-42.708,15.57
705474.132,3,-0.95,11.237,-2.577,4,-0.011,-0.501,0.059,5,30.702,-42.009,14.113
705474.1518,3,-1.261,10.667,-1.866,4,0.009,-0.504,0.045,5,30.67,-43.436,14.117
705474.1717,3,-2.063,9.433,-0.256,4,-0.045,-0.55,0.045,5,30.701,-42.007,13.387
705474.1916,3,-3.142,10.064,-0.636,4,-0.089,-0.603,0.082,5,32.054,-41.261,14.114
705474.2115,3,-1.685,8.547,-1.766,4,-0.041,-0.676,0.126,5,33.356,-42.653,12.668
705474.2313,3,-0.16,9.952,-4.049,4,0.035,-0.674,0.158,5,29.347,-42.744,10.483
705474.2512,3,-0.505,9.504,-4.223,4,0.109,-0.49,0.175,5,29.347,-42.744,10.483
705474.271,3,-0.273,10.227,-3.398,4,0.122,-0.235,0.179,5,29.967,-44.872,11.942
705474.2909,3,0.541,6.973,-1.878,4,0.079,-0.123,0.196,5,29.33,-43.46,11.209
705474.3108,3,0.493,3.989,-4.391,4,0.042,-0.097,0.213,5,29.314,-44.173,11.211
705474.3306,3,-0.601,11.732,-6.135,4,0.053,-0.09,0.172,5,29.347,-42.744,10.483
705474.3505,3,0.148,12.936,-0.759,4,0.027,-0.038,0.101,5,27.997,-43.498,13.388
705474.3704,3,2.266,11.368,3.147,4,-0.136,-0.047,0.131,5,27.992,-43.489,9.756
705474.3902,3,2.68,10.528,2.594,4,-0.198,-0.141,0.156,5,28.662,-43.474,10.483
705474.4101,3,1.481,9.768,-0.907,4,-0.079,-0.204,0.119,5,28.644,-44.185,9.758
705474.4299,3,1.73,9.66,-5.061,4,0.046,-0.335,0.009,5,29.347,-42.744,10.483
705474.4498,3,0.115,10.638,-3.75,4,0.078,-0.564,-0.043,5,28.63,-44.902,11.211
705474.4697,3,-0.565,9.337,-0.811,4,-0.065,-0.709,-0.037,5,27.991,-43.488,9.03
705474.4896,3,-0.988,10.265,0.096,4,-0.199,-0.766,0.006,5,29.991,-43.433,6.854
705474.5094,3,-2.4,10.37,-0.026,4,-0.195,-0.922,-0.003,5,28.641,-44.182,8.305
705474.5293,3,-2.675,9.117,-1.886,4,-0.123,-1.099,-0.034,5,27.971,-44.194,6.853
705474.5491,3,-3.972,8.935,-3.58,4,-0.039,-1.077,-0.004,5,29.974,-44.145,6.856
705474.569,3,-4.616,7.411,-2.898,4,0.02,-0.861,0.056,5,28.638,-44.176,6.126
705474.5883,3,-4.097,8.978,-3.362,4,0.031,-0.639,0.119,5,29.34,-42.734,6.125
705474.6087,3,-2.232,10.347,-3.278,4,0.067,-0.503,0.192,5,29.306,-44.16,6.128
705474.6286,3,0.792,9.961,-1.618,4,0.105,-0.421,0.251,5,29.34,-42.732,5.399
705474.6485,3,1.199,10.789,-2.333,4,0.128,-0.292,0.274,5,28.639,-44.177,6.853
705474.6683,3,-0.584,9.334,-1.754,4,0.202,-0.135,0.245,5,29.308,-44.162,6.854
705474.6882,3,-1.096,9.203,-5.235,4,0.264,-0.009,0.197,5,29.323,-43.448,6.126
705474.708,3,-1.586,9.543,-4.561,4,0.292,0.074,0.15,5,27.307,-44.217,9.03
705474.7279,3,-1.96,8.119,-2.386,4,0.25,0.188,0.142,5,28.625,-44.894,7.581
705474.7478,3,-1.137,9.411,-1.878,4,0.158,0.326,0.202,5,26.672,-42.802,7.573
705474.7677,3,-0.452,10.904,-1.424,4,0.133,0.41,0.221,5,26.657,-43.52,9.027
705474.7869,3,-0.172,9.251,-0.486,4,0.119,0.393,0.203,5,28.011,-42.776,10.481
705474.8074,3,-1.172,8.966,-2.402,4,0.112,0.366,0.188,5,27.994,-43.491,10.483
705474.8272,3,-1.302,9.885,-4.211,4,0.165,0.417,0.195,5,27.975,-44.202,9.758
705474.8471,3,-0.072,10.593,-2.426,4,0.166,0.48,0.175,5,25.308,-44.269,10.48
705474.867,3,1.481,10.1,1.201,4,0.086,0.544,0.173,5,25.96,-44.968,11.206
705474.8868,3,-0.086,6.446,0.773,4,0.032,0.698,0.174,5,27.296,-44.937,11.937
705474.9067,3,-1.232,10.981,-4.625,4,0.1,0.841,0.115,5,25.961,-44.969,11.934
705474.9266,3,-0.811,8.899,-8.571,4,0.314,0.961,0.05,5,26.646,-44.241,12.66
705474.9464,3,0.424,11.378,-6.686,4,0.287,1.081,0.063,5,25.311,-44.276,13.385
705474.9663,3,-1.711,10.382,-0.816,4,0.119,1.207,0.061,5,24.644,-44.293,14.11
705474.9861,3,-2.493,10.5,1.931,4,-0.101,1.262,0.025,5,24.66,-43.579,13.382
705475.006,3,-1.85,8.588,0.61,4,-0.154,1.086,0.009,5,25.311,-44.276,13.385
705475.0259,3,-1.225,10.014,-3.436,4,-0.05,0.814,0.002,5,25.313,-44.278,14.111
705475.0458,3,-0.636,9.631,-3.982,4,0.086,0.656,0.021,5,24.643,-44.29,12.657
705475.0656,3,-0.56,10.179,-3.005,4,0.081,0.595,0.04,5,24.646,-44.295,14.835
705475.0855,3,-1.161,10.323,-2.228,4,0.004,0.593,0.03,5,23.26,-46.466,14.113
705475.1054,3,-0.476,10.081,-1.697,4,-0.04,0.576,0.019,5,25.33,-43.565,14.11
705475.1252,3,-0.407,8.65,-1.268,4,-0.049,0.504,0.026,5,23.296,-45.041,14.835
705475.1451,3,0.179,10.083,-2.12,4,-0.049,0.436,0.019,5,22.626,-45.056,14.108
705475.165,3,0.541,10.5,-3.233,4,-0.01,0.414,0.025,5,23.296,-45.042,15.562
705475.1848,3,0.436,8.925,-1.352,4,0.015,0.465,0.02,5,23.994,-43.599,14.832
705475.2047,3,1.027,10.361,-3.084,4,0,0.509,-0.015,5,23.929,-46.454,15.565
705475.2245,3,0.809,9.358,-3.036,4,0.02,0.537,-0.037,5,22.627,-45.058,14.833
705475.2444,3,1.371,9.531,-3.029,4,0.009,0.56,-0.048,5,23.331,-43.619,17.012
705475.2643,3,2.35,9.279,-3.403,4,-0.01,0.559,-0.079,5,23.299,-45.049,17.741
705475.2841,3,2.158,8.423,-1.563,4,-0.028,0.541,-0.102,5,23.311,-44.328,15.561
705475.304,3,1.309,10.856,-2.902,4,-0.043,0.525,-0.147,5,25.304,-45.003,18.469
705475.3239,3,0.203,9.452,-1.799,4,-0.029,0.421,-0.197,5,24.649,-44.299,17.015
705475.3438,3,0.311,9.878,-2.718,4,-0.029,0.199,-0.245,5,23.981,-44.319,17.74
705475.3636,3,1.45,10.007,-3.245,4,-0.01,-0.098,-0.274,5,25.284,-45.709,16.293
705475.3835,3,1.496,8.339,-3.156,4,0.006,-0.375,-0.273,5,24.599,-46.439,16.293
705475.4033,3,0.727,7.942,-3.297,4,-0.005,-0.504,-0.264,5,25.317,-44.287,17.743
705475.4232,3,0.555,9.681,-3.79,4,0.001,-0.578,-0.277,5,26.001,-43.555,17.015
705475.4431,3,-0.469,10.792,-2.634,4,-0.002,-0.705,-0.266,5,26.634,-44.96,14.839
705475.4629,3,-0.971,9.038,-1.909,4,-0.031,-0.791,-0.247,5,26.633,-44.958,14.114
705475.4828,3,-3.829,8.308,-3.723,4,-0.038,-0.913,-0.263,5,26.683,-42.821,15.562
705475.5026,3,-3.206,11.048,-4.544,4,-0.017,-1.025,-0.269,5,27.333,-43.518,14.838
705475.5225,3,-3.434,9.851,-1.455,4,-0.013,-1.234,-0.196,5,28.014,-42.784,13.387
705475.5424,3,-3.257,9.078,-2.039,4,-0.072,-1.346,-0.089,5,27.98,-44.211,13.39
705475.5622,3,-1.926,9.973,-2.673,4,-0.057,-1.355,0.01,5,29.3,-44.888,11.94
705475.5821,3,-0.723,8.966,-3.797,4,0.01,-1.413,0.075,5,28.014,-42.783,12.66
705475.602,3,2.431,10.653,-4.111,4,0.04,-1.534,0.131,5,27.995,-43.494,11.935
705475.6219,3,3.534,8.731,-4.063,4,0.061,-1.574,0.169,5,27.296,-44.937,11.937
705475.6417,3,2.733,9.021,-3.785,4,0.046,-1.438,0.158,5,27.31,-44.22,10.483
705475.6616,3,2.043,10,-2.529,4,0.045,-1.204,0.114,5,26.639,-44.231,8.302
705475.6814,3,0.993,9.112,-2.027,4,0.024,-1.021,0.095,5,28.627,-44.897,9.033
705475.7013,3,1.005,10.557,-2.445,4,0.007,-0.955,0.068,5,27.322,-43.503,8.302
705475.7212,3,0.495,9.578,-2.139,4,0.015,-0.94,0.05,5,28.641,-44.18,7.579
705475.741,3,0.737,10.138,-2.295,4,0.002,-0.868,0.047,5,27.303,-44.209,6.125
705475.7609,3,0.491,9.425,-1.149,4,-0.022,-0.738,0.056,5,28.609,-45.607,7.582
705475.7807,3,0.574,10.225,-1.146,4,-0.065,-0.647,0.048,5,27.957,-44.911,7.581
705475.8006,3,0.392,10.074,-1.338,4,-0.063,-0.624,0.04,5,28.674,-42.754,7.576
705475.8205,3,-0.995,9.241,-1.606,4,-0.045,-0.588,0.028,5,27.954,-44.905,5.402
705475.8403,3,-3.261,9.971,-2.383,4,-0.027,-0.471,0.006,5,27.937,-45.618,5.403
705475.8602,3,-3.369,9.854,-2.371,4,-0.005,-0.35,0.004,5,27.299,-44.205,3.946
705475.8801,3,-2.563,10.705,-2.493,4,-0.005,-0.329,0.045,5,27.301,-44.206,4.672
705475.8999,3,-3.269,7.834,-1.682,4,-0.005,-0.349,0.097,5,28.603,-45.596,3.224
705475.9198,3,-3.714,9.464,-2.893,4,0.023,-0.412,0.156,5,28.619,-44.884,3.223
705475.9397,3,-2.352,10.753,-2.539,4,0.09,-0.538,0.218,5,25.249,-46.393,3.221
705475.9595,3,0.158,9.744,-1.778,4,0.1,-0.67,0.272,5,27.271,-45.636,6.128
705475.9794,3,1.472,10.363,-2.283,4,0.071,-0.759,0.282,5,26.617,-44.933,3.22
705475.9993,3,0.586,9.212,-1.926,4,0.1,-0.718,0.28,5,26.601,-45.647,3.947
705476.0191,3,0.873,8.652,-3.223,4,0.142,-0.51,0.267,5,23.288,-44.29,-0.418
705476.039,3,0.27,9.44,-3.963,4,0.18,-0.231,0.241,5,25.266,-45.679,3.22
705476.0588,3,-0.952,9.559,-2.52,4,0.194,0.059,0.207,5,25.282,-44.966,3.218
705476.0787,3,-0.371,9.918,-3.589,4,0.16,0.333,0.181,5,25.964,-44.237,3.943
705476.0986,3,1.117,10.064,-3.881,4,0.145,0.595,0.177,5,25.916,-46.378,3.947
705476.1184,3,0.105,9.344,-2.706,4,0.134,0.822,0.167,5,25.932,-45.663,3.946
705476.1383,3,-1.917,9.569,-2.335,4,0.101,0.957,0.108,5,25.951,-44.952,4.671
705476.1582,3,-1.165,10.215,-3.036,4,0.099,0.915,0.069,5,24.551,-47.841,6.129
705476.178,3,-0.768,9.444,-2.847,4,0.082,0.728,0.054,5,24.585,-46.416,6.851
705476.1979,3,-1.115,8.059,-2.51,4,0.044,0.527,0.056,5,25.887,-47.807,5.405
705476.2178,3,-1.275,9.339,-3.001,4,0.018,0.298,0.04,5,25.887,-47.807,5.405
705476.2376,3,-1.857,10.012,-2.285,4,0.012,0.085,0.037,5,25.887,-47.807,5.405
705476.2575,3,-0.976,8.71,-2.151,4,0.004,-0.06,0.04,5,25.966,-44.238,4.669
705476.2774,3,-2.082,9.476,-3.647,4,0.016,-0.107,0.051,5,25.252,-46.399,6.126
705476.2972,3,-3.013,10.655,-4.116,4,0.079,-0.063,0.067,5,27.19,-49.205,6.863
705476.3171,3,-2.673,7.985,-3.812,4,0.093,0.02,0.086,5,27.843,-49.904,7.593
705476.3369,3,-2.699,8.607,-3.86,4,0.066,0.105,0.123,5,27.875,-48.479,8.316
705476.3568,3,-2.627,10.954,-3.199,4,0.068,0.239,0.174,,,,
705476.3767,3,-1.921,10.244,-1.053,4,0.038,0.394,0.212,5,24.567,-47.124,4.675
705476.3965,3,-0.526,11.397,-1.223,4,0.007,0.507,0.245,5,24.583,-46.414,6.125
705476.4164,3,0.385,8.98,-1.907,4,0.054,0.564,0.263,5,23.251,-46.452,8.302
705476.4363,3,0.203,9.648,-3.836,4,0.127,0.642,0.245,5,23.268,-45.737,7.574
705476.4562,3,0.132,8.968,-3.91,4,0.178,0.747,0.221,5,23.251,-46.452,8.302
705476.476,3,0.725,9.179,-3.728,4,0.15,0.792,0.206,5,21.902,-47.2,9.029
705476.4959,3,1.546,9.203,-1.706,4,0.076,0.751,0.181,5,22.537,-48.611,9.76
705476.5158,3,1.948,9.598,-0.529,4,0.013,0.696,0.161,5,20.554,-47.951,11.206
705476.5356,3,0.68,10.95,-1,4,-0.011,0.647,0.104,5,21.904,-47.202,9.755
705476.5555,3,0.498,9.16,-1.572,4,0.005,0.576,0.061,5,21.919,-46.489,9.752
705476.5754,3,0.567,9.878,-2.613,4,0.02,0.515,0.032,5,22.572,-47.186,10.483
705476.5952,3,-0.56,8.873,-3.467,4,0.035,0.498,0.012,5,22.556,-47.9,10.484
705476.6151,3,-0.529,10.495,-3.963,4,0.018,0.522,-0.003,5,22.588,-46.475,11.205
705476.6349,3,-0.459,9.882,-2.95,4,-0.004,0.525,-0.009,5,22.571,-47.185,9.756
705476.6548,3,-0.132,10.064,-2.264,4,-0.046,0.543,-0.014,5,21.889,-47.917,10.483
705476.6747,3,0.498,10.174,-2.431,4,-0.049,0.603,-0.029,5,20.538,-48.665,11.935
705476.6945,3,1.103,11.124,-2.383,4,-0.024,0.675,-0.041,5,21.872,-48.631,11.209
705476.7144,3,-0.117,6.386,-2.725,4,0.002,0.797,-0.058,5,22.574,-47.189,11.935
705476.7343,3,-1.18,10.229,-5.472,4,0.046,0.916,-0.09,5,22.591,-46.48,12.659
705476.7541,3,-0.864,9.224,-3.924,4,0.106,0.965,-0.103,5,21.223,-47.935,11.934
705476.774,3,-0.617,9.959,-1.637,4,0.05,0.929,-0.104,5,21.242,-47.224,12.659
705476.7939,3,0.12,10.512,-1.785,4,-0.024,0.846,-0.126,5,21.924,-46.497,12.657
705476.8137,3,-0.531,7.858,-1.706,4,-0.023,0.695,-0.14,5,21.909,-47.209,12.66
705476.8336,3,-0.086,10.624,-3.257,4,0.023,0.53,-0.135,5,22.61,-45.77,14.835
705476.8535,3,0.146,9.569,-3.331,4,0.072,0.381,-0.131,5,22.577,-47.195,14.114
705476.8733,3,-0.665,8.952,-2.974,4,0.049,0.255,-0.134,5,21.927,-46.501,14.835
705476.8932,3,0.239,9.727,-3.958,4,0.037,0.122,-0.157,5,22.545,-48.624,14.842
705476.913,3,0.692,9.887,-3.101,4,0.034,0.009,-0.156,5,21.927,-46.501,14.835
705476.9329,3,2.051,10.091,-2.417,4,0.005,-0.062,-0.137,5,21.944,-45.787,14.833
705476.9528,3,1.627,8.004,-1.354,4,-0.01,-0.102,-0.133,5,22.609,-45.769,14.11
705476.9726,3,1.95,6.753,-2.682,4,-0.006,-0.109,-0.153,5,22.643,-44.344,14.832
705476.9925,3,-0.089,11.976,-4.874,4,0.034,-0.123,-0.18,5,23.279,-45.755,15.564
705477.0124,3,0.136,11.828,-2.914,4,0.064,-0.181,-0.184,5,22.578,-47.198,15.567
705477.0322,3,-1.074,8.174,-0.445,4,-0.034,-0.25,-0.198,5,22.592,-46.483,14.111
705477.0521,3,-0.424,9.878,-1.859,4,-0.092,-0.284,-0.222,5,23.975,-44.308,13.382
705477.072,3,-0.61,9.6,-1.565,4,-0.029,-0.302,-0.198,5,23.28,-45.757,16.29
705477.0918,3,-1.381,7.037,-3.759,4,0.004,-0.275,-0.156,5,24.596,-46.434,14.114
705477.1117,3,-0.491,11.44,-6.032,4,0.048,-0.24,-0.139,5,25.282,-45.708,15.567
705477.1316,3,-0.5,9.626,-2.321,4,0.066,-0.168,-0.12,5,25.917,-47.118,15.572
705477.1514,3,0.407,10.504,-1.196,4,-0.045,-0.031,-0.087,5,24.648,-44.298,16.289
705477.1713,3,0.541,9.564,-1.598,4,-0.076,0.036,-0.076,5,23.993,-43.597,14.107
705477.1911,3,1.797,10.691,-3.57,4,-0.029,0.024,-0.082,5,23.259,-46.465,13.387
705477.211,3,0.948,9.645,-3.601,4,0.02,0.017,-0.092,5,25.298,-44.992,14.113
705477.2309,3,1.831,8.873,-3.132,4,0.002,0.009,-0.119,5,25.981,-44.263,14.836
705477.2507,3,0.936,10.289,-2.438,4,-0.05,-0.065,-0.157,5,25.299,-44.994,14.838
705477.2706,3,0.428,9.516,-2.395,4,-0.061,-0.202,-0.178,5,23.961,-45.024,14.11
705477.2905,3,-0.201,7.396,-3.151,4,-0.063,-0.375,-0.194,5,25.33,-43.565,14.11
705477.3103,3,-0.443,10.832,-3.855,4,-0.048,-0.576,-0.198,5,23.291,-45.033,11.931
705477.3302,3,-0.574,9.567,-3.79,4,-0.023,-0.764,-0.197,5,25.995,-43.546,12.657
705477.3501,3,-0.613,10.851,-3.015,4,-0.083,-0.872,-0.179,5,27.298,-44.94,12.663
705477.3699,3,-0.318,9.188,-2.221,4,-0.096,-0.941,-0.135,5,27.328,-43.51,11.934
705477.3898,3,-1.055,9.543,-1.689,4,-0.128,-1.034,-0.097,5,25.943,-45.68,11.208
705477.4097,3,-0.33,10.461,-2.259,4,-0.106,-1.069,-0.075,5,27.945,-45.63,10.487
705477.4295,3,-0.031,11.198,-1.95,4,-0.083,-1.127,-0.062,5,25.978,-44.258,12.659
705477.4494,3,-0.268,7.222,-0.333,4,-0.062,-1.094,-0.023,5,26.624,-44.945,8.304
705477.4692,3,-1.517,7.731,-3.508,4,-0.034,-1.038,-0.001,5,29.309,-44.167,8.307
705477.4891,3,-1.139,13.134,-7.463,4,0.078,-0.995,0.019,5,28.642,-44.183,9.032
705477.509,3,-0.34,10.026,-3.218,4,0.112,-0.938,0.058,5,25.94,-45.676,9.03
705477.5288,3,0.727,9.308,-0.208,4,-0.049,-0.852,0.113,5,28.639,-44.177,6.853
705477.5487,3,0.574,8.392,0.144,4,-0.131,-0.777,0.148,5,28.622,-44.89,6.128
705477.5685,3,0.754,10.155,-1.704,4,-0.072,-0.71,0.144,5,26.62,-44.937,5.399
705477.5884,3,0.916,9.66,-3.297,4,0.022,-0.643,0.1,5,27.303,-44.208,5.399
705477.6083,3,0.474,9.818,-3.281,4,0.066,-0.544,0.075,5,28.592,-46.321,7.584
705477.6282,3,-0.091,10.351,-2.591,4,0.056,-0.379,0.069,5,27.271,-45.634,5.402
705477.648,3,0.627,9.088,-1.634,4,0.017,-0.283,0.068,5,27.254,-46.349,5.403
705477.6679,3,-1.177,10.347,-0.567,4,-0.031,-0.347,0.061,5,27.939,-45.621,6.856
705477.6878,3,-1.632,9.488,-1.426,4,-0.029,-0.471,0.047,5,26.604,-45.65,5.4
705477.7076,3,-2.237,8.614,-1.531,4,0.005,-0.639,0.059,5,27.284,-44.917,3.221
705477.7275,3,-3.986,10.169,-2.965,4,0.046,-0.832,0.069,5,27.299,-44.203,3.22
705477.7473,3,-3.343,10.543,-3.343,4,0.081,-0.992,0.115,5,26.617,-44.934,3.946
705477.7672,3,-2.077,9.511,-1.223,4,0.07,-1.071,0.202,5,26.601,-45.647,3.947
705477.7871,3,-0.936,9.866,-1.362,4,0.05,-1.067,0.274,5,26.581,-46.355,1.77
705477.8069,3,-1.62,7.171,-1.529,4,0.089,-0.931,0.322,5,25.916,-46.378,3.947
705477.8268,3,-2.486,8.444,-2.962,4,0.169,-0.7,0.343,5,25.926,-45.653,-0.412
705477.8467,3,-1.369,10.339,-3.465,4,0.249,-0.418,0.351,5,25.214,-47.815,1.773
705477.8665,3,-0.237,10.356,-2.369,4,0.266,-0.044,0.395,5,25.233,-47.107,3.951
705477.8864,3,0.632,10.225,-2.091,4,0.222,0.403,0.423,5,24.593,-45.688,1.039
705477.9063,3,-0.189,9.413,-1.553,4,0.204,0.847,0.414,5,23.212,-47.865,2.496
705477.9262,3,-0.725,9.988,-1.426,4,0.198,1.21,0.381,5,24.548,-47.835,3.224
705477.946,3,-0.438,9.698,-1.213,4,0.178,1.427,0.326,5,25.221,-47.827,6.857
705477.9659,3,1.484,9.638,-2.314,4,0.15,1.461,0.284,5,22.565,-47.174,5.399
705477.9857,3,1.225,9.858,-2.984,4,0.127,1.372,0.235,5,22.597,-45.747,5.394
705478.0056,3,0.94,10.169,-2.309,4,0.104,1.326,0.185,5,21.233,-47.209,6.848
705478.0255,3,-0.153,8.997,-1,4,0.054,1.276,0.137,5,21.217,-47.926,7.576
705478.0453,3,-1.512,9.485,-1.254,4,-0.002,1.137,0.098,5,19.844,-49.382,6.125
705478.0652,3,-1.996,10.301,-1.582,4,-0.008,0.909,0.056,5,19.257,-45.824,3.209
705478.0851,3,-1.577,9.253,-2.029,4,-0.006,0.674,0.037,5,21.214,-47.922,6.123
705478.1049,3,-0.66,10.959,-3.02,4,0.01,0.536,0.062,5,20.546,-47.937,5.397
705478.1248,3,-0.845,9.48,-2.156,4,0.029,0.531,0.095,5,18.541,-47.984,4.668
705478.1446,3,-1.196,9.645,-2.046,4,0.022,0.625,0.102,5,21.898,-47.192,6.123
705478.1645,3,0.543,10.629,-2.256,4,0.026,0.756,0.096,5,19.231,-47.261,7.571
705478.1844,3,1.007,10.49,-1.716,4,0.033,0.812,0.08,5,19.231,-47.261,7.571
705478.2043,3,1.486,6.463,-1.823,4,0.027,0.909,0.072,5,20.549,-47.943,7.576
705478.2241,3,1.711,10.761,-4.585,4,0.046,0.995,0.052,5,19.914,-46.536,9.023
705478.244,3,1.79,9.964,-2.283,4,0.083,1.089,0.024,5,19.199,-48.691,9.027
705478.2638,3,0.196,9.768,-0.56,4,0.012,1.1,-0.03,5,19.882,-47.963,9.027
705478.2837,3,0.175,11.308,-1.06,4,-0.046,1.05,-0.076,5,19.901,-47.25,9.752
705478.3036,3,0.036,9.657,0.237,4,-0.015,0.909,-0.097,5,19.183,-49.406,9.755
705478.3234,3,0.684,9.71,-2.268,4,-0.001,0.737,-0.108,5,19.235,-47.269,11.201
705478.3433,3,-0.38,9.648,-3.273,4,0.035,0.579,-0.117,5,20.604,-45.811,11.928
705478.3632,3,-1.438,10.043,-3.73,4,0.056,0.434,-0.123,5,20.554,-47.951,11.206
705478.383,3,-1.395,10.124,-2.905,4,0.026,0.3,-0.126,5,21.237,-47.217,9.753
705478.4029,3,-0.701,9.801,-2.326,4,-0.008,0.239,-0.101,5,21.255,-46.509,11.929
705478.4227,3,0.416,9.157,-2.981,4,-0.018,0.234,-0.054,5,19.87,-48.682,11.934
705478.4426,3,0.134,8.81,-4.111,4,0.018,0.224,-0.032,5,19.25,-46.556,11.198
705478.4625,3,1.314,8.437,-4.857,4,0.059,0.24,-0.041,5,19.885,-47.968,11.205
705478.4824,3,1.283,9.98,-4.003,4,0.062,0.303,-0.065,5,19.221,-47.987,12.657
705478.5022,3,0.074,9.456,-2.764,4,0.057,0.383,-0.075,5,19.254,-46.562,13.379
705478.5221,3,2.522,10.179,-2.579,4,0.061,0.448,-0.097,5,19.255,-46.564,14.105
705478.5419,3,0.677,8.265,-2.079,4,0.081,0.445,-0.126,5,19.92,-46.547,13.38
705478.5618,3,1.29,9.672,-3.362,4,0.111,0.43,-0.168,5,21.245,-47.229,14.836
705478.5817,3,0.385,10.225,-3.977,4,0.152,0.364,-0.2,5,20.592,-46.535,15.561
705478.6015,3,-0.091,8.904,-3.101,4,0.147,0.303,-0.191,5,20.61,-45.822,16.286
705478.6214,3,0.153,8.576,-3.194,4,0.088,0.206,-0.198,5,20.61,-45.822,16.286
705478.6413,3,-1.027,11.701,-3.383,4,0.065,0.085,-0.214,5,19.96,-45.131,17.735
705478.6611,3,-0.383,9.227,-1.29,4,0.046,-0.053,-0.205,5,21.962,-45.078,16.286
705478.681,3,-0.187,9.677,-1.137,4,-0.008,-0.153,-0.176,5,21.329,-43.671,17.734
705478.7008,3,0,7.114,-3.001,4,0.035,-0.236,-0.164,5,21.964,-45.079,17.012
705478.7207,3,-1.151,10.787,-6.037,4,0.106,-0.3,-0.168,5,21.996,-43.652,17.009
705478.7406,3,0.045,9.578,-3.228,4,0.132,-0.324,-0.142,5,22.63,-45.062,17.014
705478.7604,3,0.672,12.436,-0.574,4,0.005,-0.312,-0.092,5,21.945,-45.79,16.287
705478.7803,3,0.203,8.468,1.125,4,-0.099,-0.355,-0.071,5,23.979,-44.315,16.287
705478.8002,3,1.725,9.363,-2.955,4,-0.07,-0.4,-0.084,5,22.646,-44.348,17.012
705478.82,3,0.153,8.253,-5.441,4,0.073,-0.394,-0.108,5,21.294,-45.091,15.558
705478.8399,3,0.938,8.983,-5.575,4,0.136,-0.332,-0.092,5,23.314,-44.331,17.014
705478.8598,3,1.036,9.784,-3.951,4,0.057,-0.25,-0.089,5,22.614,-45.775,17.015
705478.8796,3,0.043,9.236,-1.902,4,-0.045,-0.163,-0.091,5,23.282,-45.761,17.743
705478.8995,3,0.725,10.198,-1.756,4,-0.103,-0.08,-0.104,5,23.994,-43.6,15.559
705478.9194,3,0.804,10.734,-1.704,4,-0.09,-0.043,-0.102,5,25.317,-44.284,17.017
705478.9392,3,-0.524,9.868,-2.204,4,-0.043,0.02,-0.126,5,24.648,-44.298,16.289
705478.9591,3,-0.486,10.689,-3.522,4,0.009,0.116,-0.157,5,23.329,-43.617,16.286
705478.9789,3,-0.823,9.289,-3.204,4,0.039,0.164,-0.145,5,23.329,-43.617,16.286
705478.9988,3,-1.003,7.755,-2.778,4,-0.01,0.161,-0.124,5,23.282,-45.758,17.017
705479.0187,3,-0.493,9.16,-5.716,4,-0.026,0.101,-0.111,5,23.311,-44.327,14.833
705479.0385,3,-0.464,10.904,-2.914,4,-0.028,0.009,-0.1,5,23.978,-44.313,15.561
705479.0584,3,-0.641,9.837,-0.321,4,-0.094,-0.038,-0.071,5,24.614,-45.721,14.838
705479.0783,3,-1.175,10.093,-0.136,4,-0.16,-0.112,-0.06,5,23.293,-45.038,13.383
705479.0981,3,-1.22,9.184,-2.594,4,-0.089,-0.283,-0.074,5,23.994,-43.6,15.559
705479.118,3,-0.218,9.325,-6.322,4,0.022,-0.493,-0.08,5,23.978,-44.312,14.833
705479.1379,3,1.043,10.043,-5.74,4,0.082,-0.611,-0.062,5,24.648,-44.298,16.289
705479.1577,3,2.795,9.169,-3.41,4,0.026,-0.578,-0.024,5,25.316,-44.283,16.29
705479.1776,3,2.68,9.495,-1.431,4,-0.088,-0.43,-0.015,5,25.98,-44.261,14.111
705479.1975,3,2.508,9.315,-0.481,4,-0.127,-0.306,-0.053,5,24.677,-42.863,12.654
705479.2173,3,3.979,10.528,-2.149,4,-0.088,-0.253,-0.087,5,26.015,-42.836,14.833
705479.2372,3,3.314,9.217,-6.047,4,-0.001,-0.257,-0.14,5,25.311,-44.276,13.385
705479.2571,3,2.304,10.619,-3.778,4,0.04,-0.257,-0.224,5,27.298,-44.942,13.39
705479.2769,3,0.225,8.763,-2.474,4,-0.001,-0.231,-0.299,5,26.68,-42.816,13.383
705479.2968,3,-2.041,9.748,-1.18,4,-0.121,-0.296,-0.327,5,25.995,-43.547,13.383
705479.3167,3,-3.194,7.389,-0.869,4,-0.158,-0.505,-0.335,5,27.328,-43.51,11.934
705479.3366,3,-2.991,8.581,-3.175,4,-0.148,-0.806,-0.308,5,27.994,-43.492,11.208
705479.3564,3,-2.254,12.845,-4.635,4,-0.061,-1.139,-0.247,5,28.68,-42.763,11.934
705479.3763,3,-1.783,8.26,-2.845,4,-0.027,-1.303,-0.162,5,29.312,-44.17,9.76
705479.3961,3,-1.787,9.567,-3.139,4,-0.093,-1.317,-0.101,5,28.024,-42.062,9.752
705479.416,3,-0.988,11.119,-3.156,4,-0.061,-1.226,-0.042,5,27.94,-45.625,8.308
705479.4359,3,-0.541,8.655,-1.606,4,-0.028,-1.107,0.021,5,27.986,-43.478,5.399
705479.4557,3,-1.23,9.454,-2.936,4,-0.037,-0.98,0.048,5,28.659,-43.471,9.03
705479.4756,3,-1.417,10.538,-3.663,4,0.033,-0.835,0.061,5,27.339,-42.789,8.301
705479.4954,3,-1.084,9.595,-2.314,4,0.097,-0.675,0.09,5,27.339,-42.789,8.301
705479.5153,3,-0.766,9.858,-2.345,4,0.071,-0.577,0.119,5,27.339,-42.789,8.301
705479.5352,3,-0.447,9.703,-1.938,4,0.072,-0.544,0.124,5,27.972,-44.197,7.579
705479.555,3,-1.35,9.763,-1.862,4,0.094,-0.531,0.142,,,,
705479.5749,3,0.864,9.787,-2.668,4,0.09,-0.606,0.146,5,28.006,-42.77,7.576
705479.5948,3,-0.024,9.126,-1.847,4,0.066,-0.744,0.152,5,27.336,-42.783,6.122
705479.6146,3,1.022,9.545,-1.907,4,0.022,-0.852,0.172,5,27.336,-42.783,6.122
705479.6345,3,0.261,6.468,-1.366,4,0.009,-0.897,0.189,5,27.303,-44.209,6.125
705479.6544,3,-1.323,8.734,-3.857,4,0.017,-0.908,0.189,5,28.018,-42.052,5.394
705479.6742,3,-2.132,11.866,-4.393,4,0.073,-0.907,0.172,5,25.964,-44.235,3.217
705479.6941,3,-0.213,9.978,-2.709,4,0.045,-0.875,0.201,5,28.003,-42.764,5.397
705479.714,3,0.859,10.54,0.16,4,-0.059,-0.826,0.277,5,25.331,-42.825,3.214
705479.7338,3,0.158,6.757,-0.751,4,-0.065,-0.729,0.317,5,25.966,-44.238,4.669
705479.7537,3,-2.041,11.99,-4.044,4,0.001,-0.677,0.293,5,25.281,-44.965,2.492
705479.773,3,-1.795,10.71,-2.434,4,0.125,-0.588,0.249,5,25.314,-43.539,3.215
705479.7934,3,-0.909,9.681,0.718,4,0.078,-0.433,0.293,5,25.281,-44.965,2.492
705479.8133,3,-1.094,8.396,0.156,4,0.011,-0.322,0.334,5,23.959,-44.283,2.487
705479.8331,3,-1.933,9.739,-2.29,4,0.094,-0.241,0.333,5,23.958,-44.279,1.761
705479.853,3,-1.397,9.552,-4.175,4,0.243,-0.081,0.339,5,22.589,-45.737,1.036
705479.8729,3,-0.689,8.483,-3.905,4,0.288,0.136,0.342,5,22.592,-45.741,2.489
705479.8927,3,-1.247,9.102,-3.773,4,0.226,0.428,0.318,5,21.274,-45.058,1.758
705479.9126,3,-1.673,8.947,-2.187,4,0.175,0.777,0.309,5,23.276,-45.009,1.762
705479.9325,3,-0.916,9.815,-2.163,4,0.137,1.026,0.306,5,21.262,-45.778,4.665
705479.9523,3,-0.967,10.158,-1.235,4,0.127,1.177,0.31,5,23.262,-45.728,3.943
705479.9722,3,-1.323,10.368,-1.845,4,0.133,1.279,0.28,5,21.278,-45.065,4.663
705479.9921,3,-0.742,9.291,-3.027,4,0.15,1.268,0.249,5,21.927,-45.761,3.94
705480.0119,3,-0.122,9.921,-3.723,4,0.165,1.183,0.239,5,21.246,-46.495,6.119
705480.0318,3,-1.228,8.92,-2.812,4,0.152,1.128,0.221,5,21.948,-45.055,6.844
705480.0517,3,-0.931,10.682,-2.591,4,0.097,1.087,0.181,5,19.943,-45.102,6.114
705480.0715,3,0.371,9.275,-1.761,4,0.054,0.988,0.158,5,19.93,-45.821,8.295
705480.0914,3,0.266,7.954,-1.723,4,0.023,0.901,0.158,5,19.244,-46.545,6.842
705480.1112,3,-1,8.885,-1.706,4,0.046,0.917,0.131,5,20.599,-45.805,9.023
705480.1311,3,-0.38,9.095,-1.376,4,0.076,0.979,0.087,5,19.93,-45.819,7.568
705480.151,3,0.546,11.995,-3.185,4,0.121,1.01,0.068,5,19.914,-46.536,9.023
705480.1708,3,1.443,9.291,-2.419,4,0.12,1.006,0.053,5,21.237,-47.217,9.753
705480.1907,3,-0.634,10.402,-2.725,4,0.061,1.038,0.041,5,21.251,-46.503,9.024
705480.2106,3,-1.149,9.966,-1.665,4,0.016,1.089,0.004,5,19.901,-47.25,9.752
705480.2304,3,-0.794,9.452,-0.345,4,-0.024,1.048,-0.016,5,19.214,-47.977,8.299
705480.2503,3,-0.242,9.028,-1.809,4,-0.028,0.966,-0.029,5,20.587,-46.526,11.929
705480.2702,3,-0.584,9.239,-4.154,4,0.033,0.939,-0.036,5,19.267,-45.842,11.197
705480.29,3,-0.153,10.672,-4.69,4,0.103,0.922,-0.042,5,19.934,-45.827,11.198
705480.3099,3,-1.663,9.98,-2.886,4,0.078,0.911,-0.048,5,19.27,-45.848,13.377
705480.3298,3,-1.397,9.559,-2.144,4,-0.001,0.906,-0.056,5,19.904,-47.255,11.931
705480.3496,3,-0.847,8.983,-1.457,4,-0.028,0.83,-0.056,5,20.622,-45.103,13.379
705480.3695,3,1.586,10.167,-2.991,4,0.005,0.706,-0.041,5,20.557,-47.955,12.66
705480.3893,3,0.837,8.588,-3.293,4,0.056,0.609,-0.043,5,19.254,-46.561,12.653
705480.4092,3,1.938,9.586,-3.96,4,0.086,0.619,-0.065,5,20.607,-45.818,14.107
705480.4291,3,0.931,8.514,-1.685,4,0.092,0.628,-0.091,5,20.586,-46.523,10.477
705480.4489,3,2.24,9.791,-2.979,4,0.046,0.595,-0.119,5,19.923,-46.55,14.832
705480.4688,3,1.909,10.725,-2.886,4,0.054,0.458,-0.172,5,18.602,-45.865,13.377
705480.4887,3,0.153,7.382,-1.225,4,0.056,0.304,-0.212,5,20.589,-46.53,13.382
705480.5085,3,0.416,9.299,-3.766,4,0.02,0.153,-0.263,5,19.92,-46.547,13.38
705480.5284,3,0.349,8.932,-3.769,4,0.065,-0.047,-0.277,5,21.24,-47.221,11.932
705480.5483,3,0.718,12.562,-3.683,4,0.056,-0.185,-0.266,5,21.259,-46.515,14.108
705480.5681,3,1.065,11.074,-1.271,4,0.018,-0.186,-0.24,5,20.59,-46.532,14.108
705480.588,3,-0.775,10.21,0.505,4,-0.045,-0.123,-0.208,5,21.942,-45.786,14.108
705480.6079,3,-0.675,7.633,-1.625,4,-0.039,-0.066,-0.227,5,21.228,-47.945,15.565
705480.6277,3,-1.819,8.183,-4.522,4,0.051,-0.12,-0.223,5,21.927,-46.503,15.562
705480.6476,3,0.572,9.55,-5.609,4,0.126,-0.212,-0.189,5,21.944,-45.787,14.833
705480.6675,3,0.847,9.983,-3.872,4,0.103,-0.253,-0.148,5,21.307,-44.374,14.104
705480.6873,3,0.589,10.007,-1.388,4,-0.006,-0.192,-0.13,5,21.927,-46.503,15.562
705480.7072,3,1.457,9.693,-1.866,4,-0.066,-0.107,-0.129,5,21.912,-47.215,15.565
705480.7271,3,0.112,8.104,-2.23,4,-0.045,-0.063,-0.13,5,21.277,-45.802,14.832
705480.7469,3,1.213,10.816,-4.037,4,-0.004,-0.037,-0.14,5,21.912,-47.215,15.565
705480.7668,3,-0.373,8.966,-1.728,4,0.022,-0.079,-0.142,5,22.609,-45.769,14.11
705480.7867,3,0.323,8.471,-2.761,4,-0.034,-0.132,-0.145,5,23.279,-45.753,14.836
705480.8065,3,0.395,12.074,-4.049,4,-0.029,-0.29,-0.13,5,23.279,-45.753,14.836
705480.8264,3,2.654,10.227,-1.878,4,-0.007,-0.488,-0.102,5,22.591,-46.481,13.385
705480.8463,3,3.522,9.861,-1.543,4,-0.063,-0.577,-0.093,5,23.311,-44.327,14.833
705480.8661,3,2.953,9.205,-2.596,4,-0.051,-0.575,-0.118,5,23.259,-46.463,12.66
705480.886,3,2.008,8.265,-4.412,4,0.011,-0.559,-0.139,5,23.961,-45.024,14.11
705480.9058,3,1.283,10.942,-5.259,4,0.045,-0.567,-0.145,5,23.911,-47.16,12.663
705480.9257,3,0.847,9.107,-1.381,4,0.001,-0.614,-0.174,5,24.594,-46.431,12.662
705480.9456,3,-1.247,9.547,0.263,4,-0.121,-0.652,-0.208,5,25.308,-44.27,11.205
705480.9654,3,-1.232,8.186,-0.641,4,-0.134,-0.709,-0.197,5,23.926,-46.449,13.387
705480.9853,3,-1.29,9.04,-3.687,4,-0.044,-0.806,-0.156,5,25.279,-45.703,13.388
705481.0052,3,-1.68,11.273,-6.8,4,0.073,-0.828,-0.129,5,25.293,-44.984,11.206
705481.025,3,-1.484,9.363,-5.515,4,0.109,-0.722,-0.093,5,27.295,-44.934,10.484
705481.0449,3,-2.709,9.961,-2.075,4,0.007,-0.528,-0.042,5,24.608,-45.711,10.481
705481.0648,3,-1.302,9.301,-0.297,4,-0.094,-0.424,0.02,5,25.926,-46.393,10.484
705481.0846,3,-0.543,9.523,-1.192,4,-0.117,-0.471,0.063,5,26.593,-46.375,9.76
705481.1045,3,1.56,10.086,-3.462,4,-0.028,-0.576,0.078,5,29.236,-47.745,12.674
705481.1244,3,2.393,7.731,-4.822,4,0.082,-0.58,0.101,5,28.584,-47.047,13.397
705481.1442,3,1.036,10.315,-4.484,4,0.101,-0.454,0.093,5,27.914,-47.06,11.945
705481.1641,3,1.034,8.975,-1.838,4,0.05,-0.3,0.067,5,24.591,-46.426,11.208
705481.1839,3,1.675,9.583,-0.715,4,-0.056,-0.239,0.051,5,25.946,-45.685,12.662
705481.2038,3,1.251,9.906,-0.921,4,-0.071,-0.266,0.042,5,25.293,-44.983,10.481
705481.2237,3,0.1,9.866,-2.01,4,-0.028,-0.253,0.019,5,24.591,-46.425,10.483
705481.2435,3,-1.338,8.468,-3.326,4,0.012,-0.201,-0.02,5,25.943,-45.679,10.483
705481.2634,3,-1.807,9.94,-4.338,4,0.034,-0.179,-0.035,5,25.272,-45.691,8.304
705481.2833,3,-1.653,11.241,-3.025,4,0.018,-0.163,-0.007,5,25.94,-45.676,9.03
705481.3031,3,-1.429,10.674,-0.29,4,-0.07,-0.163,0.037,5,25.957,-44.963,9.029
705481.323,3,-1.898,9.184,0.275,4,-0.142,-0.187,0.069,5,26.607,-45.657,8.305
705481.3429,3,-2.137,10.966,-1.898,4,-0.09,-0.231,0.078,5,25.891,-47.816,9.036
705481.3627,3,-2.694,8.681,-4.542,4,0.059,-0.225,0.095,5,25.89,-47.815,8.31
705481.3826,3,-2.45,8.423,-5.803,4,0.143,-0.158,0.117,5,24.605,-45.708,9.029
705481.4025,3,-1.579,7.741,-4.877,4,0.164,-0.018,0.157,5,24.588,-46.422,9.03
705481.4223,3,-1.519,8.542,-3.111,4,0.101,0.205,0.207,5,24.59,-46.423,9.756
705481.4422,3,-0.558,9.119,-1.72,4,0.04,0.413,0.238,5,23.221,-47.881,9.033
705481.462,3,0.584,8.033,-1.761,4,0.012,0.551,0.238,5,23.239,-47.168,9.758
705481.4819,3,1.297,12.687,-2.883,4,0.023,0.635,0.219,5,23.254,-46.455,9.755
705481.5018,3,1.225,9.825,-0.696,4,0.045,0.703,0.186,5,24.59,-46.423,9.756
705481.5216,3,1.443,10.765,-1.632,4,-0.007,0.775,0.146,5,22.572,-47.188,11.208
705481.5415,3,0.033,10.024,-2.151,4,0.01,0.73,0.093,5,23.256,-46.457,10.481
705481.5614,3,-0.598,10.189,-2.967,4,0.042,0.623,0.052,5,24.611,-45.717,12.66
705481.5812,3,-0.067,9.552,-3.072,4,0.045,0.444,0.02,5,21.257,-46.512,12.656
705481.6011,3,-1.024,8.655,-2.852,4,0.028,0.248,-0.002,5,23.242,-47.173,11.937
705481.6209,3,-0.742,9.485,-3.161,4,0.027,0.182,-0.001,5,23.273,-45.743,10.48
705481.6408,3,-1.038,9.459,-3.025,4,0.051,0.172,0.007,5,23.241,-47.171,11.209
705481.6607,3,-0.024,9.827,-3.048,4,0.055,0.186,0.01,5,21.956,-45.067,11.928
705481.6806,3,0.065,7.803,-1.524,4,0.039,0.213,0.017,5,21.922,-46.494,11.931
705481.7004,3,0.869,8.657,-3.819,4,0.032,0.277,0.013,5,23.257,-46.46,11.934
705481.7203,3,0.658,9.71,-5.025,4,0.075,0.326,-0.005,5,22.624,-45.055,13.382
705481.7401,3,0.67,11.246,-3.443,4,0.083,0.406,-0.035,5,21.907,-47.206,11.934
705481.76,3,0.689,11.146,-1.321,4,-0.004,0.507,-0.053,5,22.624,-45.053,12.656
705481.7799,3,0.447,6.403,-0.175,4,-0.088,0.544,-0.073,5,23.943,-45.735,13.385
705481.7997,3,-0.211,11.39,-3.695,4,-0.081,0.469,-0.106,5,22.575,-47.192,12.662
705481.8196,3,-0.237,11.019,-2.725,4,0.004,0.321,-0.131,5,22.591,-46.48,12.659
705481.8395,3,0.184,8.755,-0.979,4,-0.028,0.16,-0.129,5,23.244,-47.177,13.39
705481.8593,3,-0.328,8.593,-2.615,4,-0.066,-0.043,-0.13,5,22.591,-46.481,13.385
705481.8792,3,-1.85,10.315,-4.515,4,-0.011,-0.242,-0.151,5,23.259,-46.465,13.387
705481.8991,3,-1.242,11.844,-3.137,4,0.028,-0.417,-0.151,5,19.266,-45.839,9.746
705481.9189,3,-0.412,6.791,-1.704,4,-0.023,-0.615,-0.103,5,23.911,-47.162,13.39
705481.9388,3,-0.072,10.691,-4.006,4,-0.057,-0.713,-0.064,5,23.293,-45.036,12.657
705481.9587,3,0.285,10.1,-4.003,4,0.01,-0.708,-0.051,5,23.274,-45.746,11.932
705481.9785,3,0.873,8.595,-3.522,4,0.018,-0.564,-0.016,5,23.293,-45.038,13.383
705481.9984,3,0.569,10.804,-3.013,4,-0.013,-0.36,0.009,5,24.611,-45.717,12.66
705482.0183,3,1.134,9.342,-1.536,4,-0.016,-0.164,0.015,5,23.941,-45.731,11.932
705482.0381,3,0.218,9.028,-1.704,4,-0.035,-0.011,-0.001,5,23.276,-45.75,13.385
705482.058,3,-0.043,9.952,-3.147,4,-0.001,0.094,-0.021,5,25.276,-45.697,11.208
705482.0779,3,-0.376,9.456,-2.182,4,0.027,0.138,-0.042,5,24.609,-45.714,11.934
705482.0977,3,-0.84,7.284,-1.938,4,-0.004,0.143,-0.053,5,25.928,-46.396,11.937
705482.1176,3,-0.694,12.613,-3.86,4,-0.024,0.112,-0.064,5,23.924,-46.445,11.934
705482.1374,3,-0.055,9.875,-1.323,4,-0.011,0.066,-0.049,5,23.959,-45.021,12.657
705482.1573,3,-0.215,10.727,-0.878,4,-0.077,0.02,-0.029,5,23.973,-44.304,11.929
705482.1772,3,0.385,11.263,-1.984,4,-0.067,-0.075,-0.031,5,25.929,-46.399,12.663
705482.1971,3,0.38,9.167,-2.335,4,-0.018,-0.179,-0.035,5,24.611,-45.717,12.66
705482.2169,3,0.68,7.554,-3.814,4,0.005,-0.269,-0.03,5,25.276,-45.695,10.483
705482.2368,3,0.486,9.243,-5.434,4,0.02,-0.367,-0.04,5,22.604,-45.76,10.478
705482.2567,3,0.347,8.25,-4.032,4,0.022,-0.406,-0.047,5,24.626,-45.001,11.932
705482.2765,3,-0.333,9.22,-2.625,4,-0.039,-0.412,-0.024,5,23.972,-44.301,10.477
705482.2964,3,-0.639,11.447,-1.898,4,-0.085,-0.418,-0.004,5,25.975,-44.254,11.205
705482.3162,3,-0.024,10.591,-1.036,4,-0.105,-0.473,-0.013,5,25.293,-44.984,11.206
705482.3361,3,1.048,8.961,-0.692,4,-0.09,-0.528,0.012,5,25.308,-44.27,11.205
705482.356,3,-0.244,8.681,-2.611,4,-0.048,-0.532,0.008,5,25.941,-45.677,9.756
705482.3758,3,-0.105,9.873,-4.731,4,0.054,-0.459,-0.013,5,25.29,-44.98,9.029
705482.3957,3,0.172,9.303,-3.249,4,0.086,-0.391,-0.016,5,25.273,-45.692,9.03
705482.4155,3,-0.294,7.894,-2.067,4,0.01,-0.308,0.02,5,27.307,-44.217,9.03
705482.4354,3,-0.871,11.909,-2.505,4,-0.051,-0.283,0.031,5,25.29,-44.98,9.029
705482.4553,3,-0.565,10.035,-1,4,-0.06,-0.346,0.026,5,25.293,-44.983,10.481
705482.4751,3,-0.196,10.119,-0.359,4,-0.105,-0.435,0.059,5,25.307,-44.267,9.753
705482.495,3,0.187,9.72,-0.713,4,-0.074,-0.503,0.092,5,23.972,-44.301,10.477
705482.5149,3,-0.603,9.437,-2.544,4,-0.012,-0.543,0.084,5,24.637,-44.281,9.026
705482.5348,3,-0.636,10.16,-4.29,4,0.073,-0.564,0.057,5,25.322,-43.553,9.026
705482.5546,3,-0.658,9.586,-4.161,4,0.111,-0.532,0.058,5,25.288,-44.977,7.576
705482.5745,3,-0.493,8.248,-4.422,4,0.073,-0.407,0.102,5,25.288,-44.978,8.302
705482.5943,3,-0.881,9.76,-3.405,4,0.027,-0.316,0.124,5,25.987,-43.535,8.299
705482.6142,3,-0.83,12.215,-0.955,4,0.005,-0.234,0.131,5,25.32,-43.552,8.299
705482.6341,3,-0.211,8.277,0.522,4,-0.032,-0.13,0.152,5,25.288,-44.978,8.302
705482.6539,3,-0.919,10.835,-1.627,4,-0.026,-0.049,0.15,5,25.288,-44.978,8.302
705482.6738,3,-1.811,9.071,-1.641,4,0.093,0.033,0.125,5,25.288,-44.978,8.302
705482.6936,3,-0.957,9.485,-3.943,4,0.148,0.14,0.108,5,22.598,-45.75,6.847
705482.7135,3,-1.153,8.408,-5.197,4,0.182,0.252,0.109,5,25.29,-44.98,9.029
705482.7334,3,-1.78,9.511,-3.934,4,0.17,0.427,0.146,5,23.268,-45.737,7.574
705482.7532,3,-1.486,11.16,-1.464,4,0.088,0.581,0.183,,,,
705482.7731,3,-0.931,10.792,0.928,4,-0.002,0.615,0.19,5,23.918,-46.437,8.302
705482.793,3,0.718,8.971,-0.852,4,-0.034,0.537,0.185,5,24.635,-44.279,8.299
705482.8129,3,0.653,10.784,-3.675,4,0.057,0.424,0.162,5,23.253,-46.454,9.029
705482.8327,3,-0.371,8.964,-3.568,4,0.174,0.405,0.14,5,23.933,-45.718,6.848
705482.8526,3,0.404,9.466,-3.467,4,0.165,0.41,0.109,5,23.97,-44.299,9.75
705482.8724,3,-0.428,8.241,-2.223,4,0.098,0.402,0.069,5,22.571,-47.185,9.756
705482.8923,3,-0.627,9.811,-2.907,4,0.049,0.403,0.061,5,21.936,-45.775,9.75
705482.9122,3,0.287,9.808,-2.548,4,0.049,0.365,0.057,5,23.303,-44.315,9.75
705482.932,3,0.134,10.043,-2.213,4,0.037,0.356,0.034,5,23.289,-45.032,11.203
705482.9519,3,0.524,9.76,-2.936,4,0.026,0.405,0.021,5,22.603,-45.758,9.752
705482.9717,3,0.416,9.734,-1.893,4,0.024,0.486,0.013,5,21.239,-47.22,11.205
705482.9916,3,-1.168,9.016,-0.871,4,0.017,0.599,-0.001,5,21.32,-43.654,11.195
705483.0115,3,-0.689,11.701,-2.816,4,0.023,0.679,-0.038,5,22.621,-45.049,11.201
705483.0314,3,-0.129,7.104,-3.553,4,0.077,0.659,-0.056,5,21.939,-45.779,11.929
705483.0512,3,0.12,9.858,-4.877,4,0.082,0.639,-0.064,5,22.606,-45.763,11.931
705483.0711,3,-0.584,11.409,-2.697,4,0.062,0.646,-0.082,5,23.274,-45.746,11.932
705483.091,3,-1.452,10.083,0.206,4,-0.029,0.626,-0.101,5,24.677,-42.863,12.654
705483.1108,3,-0.201,10.248,-0.254,4,-0.1,0.511,-0.108,5,23.956,-45.016,11.203
705483.1307,3,0.096,10.289,-2.101,4,-0.026,0.325,-0.106,5,20.654,-43.677,13.376
705483.1506,3,0.048,9.444,-3.572,4,0.071,0.204,-0.107,5,21.957,-45.07,12.654
705483.1704,3,-0.404,9.083,-4.305,4,0.098,0.133,-0.136,5,21.321,-43.655,11.923
705483.1903,3,-1.007,8.435,-3.898,4,0.09,0.106,-0.13,5,21.959,-45.073,14.107
705483.2102,3,-0.091,6.499,-3.989,4,0.053,0.051,-0.111,5,23.343,-42.899,14.105
705483.23,3,1.792,10.129,-4.233,4,0.002,-0.081,-0.093,5,21.991,-43.646,14.104
705483.2499,3,1.122,11.256,-1.828,4,-0.049,-0.192,-0.093,5,21.957,-45.071,13.38
705483.2697,3,1.072,9.851,0.115,4,-0.133,-0.211,-0.104,5,22.591,-46.481,13.385
705483.2896,3,1.263,9.837,-1.297,4,-0.131,-0.229,-0.131,5,23.293,-45.036,12.657
705483.3095,3,0.4,9.37,-2.405,4,-0.033,-0.269,-0.168,5,22.675,-42.915,14.104
705483.3293,3,-0.215,10.497,-3.477,4,0.033,-0.218,-0.192,5,23.975,-44.307,12.656
705483.3492,3,0.273,7.301,-3.683,4,0.043,-0.184,-0.186,5,25.963,-44.974,13.387
705483.3691,3,-0.167,10.715,-5.07,4,0.007,-0.202,-0.169,5,25.294,-44.986,11.934
705483.389,3,-0.522,10.701,-2.441,4,-0.022,-0.27,-0.153,5,24.661,-43.581,14.108
705483.4088,3,-0.744,9.533,0.421,4,-0.129,-0.406,-0.126,5,24.628,-45.004,12.659
705483.4286,3,-1.74,9.571,-0.646,4,-0.192,-0.597,-0.101,5,23.976,-44.31,14.108
705483.4485,3,-1.606,10.024,-2.125,4,-0.131,-0.786,-0.095,5,24.643,-44.292,13.383
705483.4684,3,-1.019,9.296,-3.635,4,-0.043,-0.942,-0.082,5,25.325,-43.558,11.203
705483.4882,3,-0.653,10.318,-3.74,4,-0.004,-0.989,-0.041,5,26.675,-42.807,9.752
705483.5081,3,0.309,10.019,-2.436,4,-0.017,-0.942,0.009,5,25.307,-44.267,9.753
705483.528,3,0.639,9.966,-2.558,4,-0.046,-0.828,0.051,5,25.322,-43.553,9.026
705483.5478,3,1.816,10.004,-2.673,4,-0.04,-0.722,0.081,5,26.021,-42.11,9.021
705483.5677,3,0.091,9.361,-1.603,4,-0.016,-0.581,0.093,5,25.322,-43.553,9.026
705483.5876,3,0.414,9.169,-1.572,4,-0.016,-0.391,0.08,5,25.302,-44.26,6.848
705483.6074,3,0.548,11.414,-1.909,4,-0.001,-0.245,0.057,5,24.62,-44.994,8.301
705483.6273,3,0.916,8.423,-0.452,4,0.016,-0.136,0.045,5,24.669,-42.853,8.296
705483.6472,3,0.129,9.349,-2.199,4,0.01,-0.041,0.021,5,24.681,-42.134,6.114
705483.667,3,0.153,10.284,-3.996,4,0.061,0.008,-0.01,5,25.334,-42.831,6.119
705483.6869,3,-1.412,6.808,-3.309,4,0.079,0.02,-0.031,5,26.624,-44.945,8.304
705483.7068,3,-2.187,10.952,-5.228,4,0.044,-0.019,-0.021,5,25.957,-44.963,9.029
705483.7266,3,-2.709,10.741,-1.443,4,0.009,-0.135,0.009,5,26.689,-42.093,9.023
705483.7465,3,-1.292,10.428,0.213,4,-0.098,-0.325,0.056,5,24.666,-42.847,6.117
705483.7664,3,-0.036,9.284,0.196,4,-0.143,-0.624,0.085,5,26.001,-42.813,5.392
705483.7862,3,-0.304,9.485,-1.835,4,-0.068,-0.845,0.107,5,26.686,-42.087,6.844
705483.8061,3,-1.007,10.275,-3.594,4,0.043,-0.881,0.111,5,25.301,-44.257,5.396
705483.8259,3,-0.754,9.724,-3.625,4,0.098,-0.799,0.104,5,23.297,-44.305,6.119
705483.8458,3,-1.385,8.765,-2.761,4,0.097,-0.608,0.131,5,26.622,-44.94,6.851
705483.8657,3,-1.271,8.193,-2.139,4,0.081,-0.402,0.175,5,25.967,-44.24,5.396
705483.8855,3,-1.993,9.875,-2.137,4,0.076,-0.208,0.191,5,23.964,-44.29,6.119
705483.9054,3,-1.529,9.576,-1.682,4,0.095,-0.013,0.201,5,24.649,-43.561,6.119
705483.9253,3,-0.711,8.782,-2.034,4,0.117,0.182,0.227,5,22.614,-45.035,5.392
705483.9452,3,0.689,9.5,-3.336,4,0.143,0.376,0.232,5,23.332,-42.88,6.842
705483.965,3,1.017,11.275,-2.943,4,0.15,0.573,0.217,5,21.245,-46.492,4.666
705483.9849,3,0.254,9.689,-2.089,4,0.123,0.792,0.189,5,24.622,-44.995,9.027
705484.0047,3,0.048,9.969,-1.433,4,0.071,0.96,0.153,5,25.304,-44.264,8.301
705484.0246,3,-2.223,6.197,-1.33,4,0.048,1.026,0.1,5,23.27,-45.74,9.027
705484.0445,3,-1.323,10.603,-4.02,4,0.037,1.053,0.057,5,22.597,-45.749,6.12
705484.0643,3,-2.814,11.66,-2.953,4,0.099,0.922,0.068,5,23.285,-45.024,7.573
705484.0842,3,-2.036,9.897,-0.656,4,0.045,0.756,0.092,5,22.649,-43.614,7.568
705484.104,3,-1.271,9.629,-1.079,4,-0.055,0.565,0.103,5,21.95,-45.059,8.296
705484.1239,3,-0.029,10.373,-2.321,4,-0.035,0.424,0.126,5,23.921,-46.44,9.755
705484.1438,3,-1.474,5.642,-2.795,4,0.018,0.384,0.136,5,23.938,-45.726,9.753
705484.1636,3,-0.634,8.076,-6.028,4,0.046,0.43,0.129,5,23.923,-46.443,11.206
705484.1835,3,0.376,12.627,-4.709,4,0.072,0.463,0.128,5,22.6,-45.755,8.299
705484.2034,3,1.955,10.682,0.203,4,0.001,0.613,0.151,5,21.281,-45.07,6.842
705484.2232,3,2.749,10.093,0.943,4,-0.136,0.789,0.136,5,22.569,-47.183,9.03
705484.2431,3,1.371,9.559,-1.251,4,-0.099,0.878,0.064,5,21.266,-45.787,8.296
705484.263,3,0.146,10.052,-3.62,4,0.027,0.979,-0.004,5,21.288,-45.079,10.474
705484.2828,3,0.321,9.825,-3.563,4,0.092,1.012,-0.036,5,25.882,-48.541,14.122
705484.3027,3,0.663,10.086,-2.122,4,0.04,0.935,-0.058,5,24.53,-49.287,14.122
705484.3226,3,-0.414,9.645,-1.165,4,-0.046,0.772,-0.097,5,23.894,-47.876,13.391
705484.3424,3,-1.015,9.394,-1.421,4,-0.077,0.602,-0.135,5,21.956,-45.067,11.928
705484.3623,3,-1.45,11.375,-2.563,4,-0.046,0.414,-0.152,5,19.286,-45.131,11.923
705484.3821,3,-1.055,7.482,-2.132,4,-0.015,0.223,-0.135,5,21.956,-45.067,11.928
705484.402,3,-0.596,9.023,-4.242,4,-0.022,0.083,-0.112,5,21.938,-45.776,10.477
705484.4219,3,-1.216,10.897,-3.965,4,0.001,0.033,-0.09,5,22.562,-47.911,14.841
705484.4417,3,-0.057,11.222,-4.477,4,-0.017,0.05,-0.067,5,23.291,-45.033,11.931
705484.4616,3,-1.048,11.316,-0.524,4,-0.059,0.099,-0.054,5,24.644,-44.293,14.11
705484.4815,3,1.158,5.3,0.237,4,-0.072,0.147,-0.043,5,20.557,-47.955,12.66
705484.5014,3,1.888,12.548,-4.345,4,-0.038,0.189,-0.058,5,21.303,-44.366,11.197
705484.5212,3,1.548,7.982,-4.623,4,0.149,0.248,-0.051,5,21.938,-45.776,10.477
705484.5411,3,1.134,9.959,-4.527,4,0.12,0.338,-0.085,5,22.591,-46.481,13.385
705484.5609,3,1.893,8.782,-3.321,4,0.108,0.329,-0.135,5,23.962,-45.026,14.835
705484.5808,3,0.974,8.849,-1.658,4,0.043,0.289,-0.157,5,23.296,-45.042,15.562
705484.6007,3,1.496,11.04,-2.536,4,-0.004,0.195,-0.186,5,23.264,-46.471,16.292
705484.6205,3,1.127,11.11,-0.012,4,-0.012,0.009,-0.224,5,23.244,-47.176,12.663
705484.6404,3,-0.773,7.229,0.091,4,-0.035,-0.16,-0.234,5,22.592,-46.483,14.111
705484.6602,3,1.263,10.538,-4.216,4,0.005,-0.347,-0.238,5,24.663,-43.582,14.833
705484.6801,3,2.091,9.581,-7.635,4,0.154,-0.659,-0.24,5,23.946,-45.74,15.564
705484.7,3,1.309,9.488,-5.793,4,0.152,-0.779,-0.233,5,25.298,-44.992,14.113
705484.7198,3,-1.012,9.976,-1.754,4,0.021,-0.737,-0.238,5,24.608,-45.712,11.206
705484.7397,3,-0.608,9.21,-0.23,4,-0.114,-0.714,-0.214,5,24.591,-46.426,11.208
705484.759,3,0.081,9.062,-1.816,4,-0.15,-0.878,-0.206,5,25.29,-44.98,9.029
705484.7794,3,-0.519,11.158,-3.271,4,-0.068,-1.018,-0.175,5,23.97,-44.299,9.75
705484.7993,3,-0.799,9.806,-3.159,4,0.004,-0.969,-0.142,5,23.972,-44.301,10.477
705484.8192,3,-1.68,8.447,-2.532,4,-0.007,-0.769,-0.106,5,23.956,-45.015,10.478
705484.839,3,-1.041,9.756,-4.008,4,0,-0.594,-0.074,5,26.645,-44.238,11.934
705484.8589,3,-0.541,10.49,-2.905,4,0.017,-0.523,-0.03,5,25.259,-46.411,11.209
705484.8788,3,-0.364,9.509,-1.285,4,-0.011,-0.456,0.008,5,25.311,-44.275,12.659
705484.8986,3,0.017,9.815,-1.661,4,-0.041,-0.402,0.009,5,25.307,-44.267,9.753
705484.9185,3,0.402,8.753,-1.965,4,-0.002,-0.4,0.01,5,23.97,-44.299,9.75
705484.9384,3,0.945,9.516,-4.07,4,0.045,-0.396,0.009,5,25.32,-43.552,8.299
705484.9576,3,0.718,8.607,-4.008,4,0.076,-0.361,-0.009,5,25.958,-44.965,9.755
705484.9781,3,0.916,10.069,-3.718,4,0.051,-0.299,-0.023,5,25.97,-44.247,8.301
705484.998,3,-0.845,8.99,-1.311,4,-0.004,-0.223,-0.023,5,25.288,-44.977,7.576
705485.0178,3,-0.299,9.473,-1.718,4,-0.061,-0.185,-0.031,5,24.623,-44.997,9.753
705485.0377,3,-1.565,9.605,-1.756,4,-0.061,-0.228,-0.035,5,27.962,-44.919,11.211
705485.0576,3,-1.199,10.598,-2.247,4,-0.027,-0.295,-0.04,5,26.608,-45.659,9.032
705485.0774,3,-1.764,10.753,-2.876,4,-0.001,-0.364,-0.036,5,25.972,-44.249,9.027
705485.0973,3,-2.302,7.152,-2.189,4,0.013,-0.401,0.003,5,26.605,-45.653,6.853
705485.1172,3,-4.113,10.253,-3.762,4,0.012,-0.389,0.03,5,27.304,-44.211,6.851
705485.137,3,-2.989,11.107,-2.577,4,0.034,-0.34,0.061,5,26.653,-43.512,6.122
705485.1569,3,-1.649,9.531,-0.017,4,0.001,-0.264,0.135,5,27.272,-45.638,6.854
705485.1768,3,-1.223,9.456,-1.034,4,-0.029,-0.151,0.2,5,25.27,-45.686,6.851
705485.1966,3,-0.412,9.265,-3.608,4,0.05,-0.007,0.219,5,25.319,-43.547,6.847
705485.2165,3,-0.383,9.875,-6.135,4,0.161,0.156,0.208,5,26.627,-44.948,9.756
705485.2363,3,1.603,8.093,-5.207,4,0.185,0.333,0.21,5,25.96,-44.966,10.481
705485.2562,3,1.029,9.576,-1.531,4,0.079,0.482,0.199,5,25.293,-44.984,11.206
705485.2761,3,2.273,9.645,-0.199,4,-0.026,0.587,0.156,5,25.273,-45.692,9.03
705485.2959,3,2.187,9.54,-0.761,4,-0.065,0.554,0.107,5,24.635,-44.279,8.299
705485.3158,3,2.429,8.672,-2.249,4,-0.032,0.419,0.048,5,25.322,-43.553,9.026
705485.3357,3,0.421,11.282,-3.221,4,0,0.287,-0.026,5,25.941,-45.677,9.756
705485.3555,3,-1.402,8.411,-1.768,4,0,0.206,-0.082,5,25.302,-44.26,6.848
705485.3754,3,-2.493,10.361,-2.132,4,-0.063,0.09,-0.108,5,23.936,-45.724,9.027
705485.3953,3,-2.17,8.727,-2.587,4,-0.081,-0.071,-0.092,5,24.6,-45.7,6.123
705485.4151,3,-1.639,9.899,-3.008,4,-0.076,-0.261,-0.057,5,25.958,-44.965,9.755
705485.435,3,-1.67,11.335,-3.326,4,-0.044,-0.397,-0.026,5,25.273,-45.692,9.03
705485.4549,3,-1.534,7.2,-3.101,4,-0.027,-0.461,0.003,5,24.6,-45.7,6.123
705485.4747,3,-1.57,9.167,-4.214,4,-0.004,-0.465,0.047,5,25.237,-47.112,6.129
705485.4946,3,-1.838,10.839,-3.802,4,0.056,-0.452,0.074,5,25.919,-46.382,6.126
705485.5144,3,-1.115,9.308,-2.563,4,0.051,-0.427,0.106,5,24.619,-44.989,6.848
705485.5343,3,0.278,11.093,-1.685,4,0.009,-0.374,0.128,5,25.955,-44.96,7.576
705485.5542,3,1.419,8.542,0.321,4,0.023,-0.289,0.155,5,25.925,-46.391,9.758
705485.574,3,1.352,9.686,-3.553,4,0.031,-0.115,0.166,5,25.275,-45.694,9.756
705485.5939,3,2.194,9.983,-5.343,4,0.123,0.033,0.113,5,24.586,-46.42,8.304
705485.6138,3,1.591,9.318,-4.051,4,0.149,0.195,0.079,5,24.6,-45.699,5.397
705485.6336,3,0.543,10.301,-2.122,4,0.054,0.421,0.058,5,25.24,-47.118,8.308
705485.6535,3,-0.804,9.681,0.089,4,-0.044,0.494,0.008,5,23.935,-45.721,7.574
705485.6734,3,-1.512,9.701,-0.668,4,-0.084,0.388,-0.029,5,25.24,-47.118,8.308
705485.6932,3,-2.072,10.251,-2.527,4,-0.043,0.174,-0.042,5,25.24,-47.118,8.308
705485.7131,3,-2.185,9.196,-3.69,4,0.034,-0.048,-0.046,5,25.24,-47.118,8.308
705485.733,3,-2.706,9.519,-4.659,4,0.049,-0.167,-0.018,5,26.561,-47.801,9.764
705485.7528,3,-2.362,9.612,-3.58,4,0.042,-0.156,0.028,5,25.941,-45.677,9.756
705485.7727,3,-3.159,10.169,-3.051,4,0.006,-0.107,0.059,5,25.925,-46.391,9.758
705485.7925,3,-1.905,7.123,-1.086,4,-0.02,-0.043,0.104,5,24.586,-46.42,8.304
705485.8124,3,-2.462,8.791,-2.864,4,-0.004,0.018,0.144,5,26.61,-45.66,9.758
705485.8323,3,-1.228,11.344,-4.175,4,0.07,0.116,0.167,5,25.92,-46.384,6.853
705485.8521,3,-0.615,10.356,-1.606,4,0.103,0.26,0.191,5,23.918,-46.436,7.576
705485.872,3,0.493,9.088,-2.429,4,0.042,0.438,0.213,5,23.203,-48.59,7.582
705485.8918,3,1.493,10.282,-2.455,4,0.032,0.546,0.211,5,24.591,-46.425,10.483
705485.9117,3,0.94,9.861,-0.885,4,0.05,0.595,0.181,5,23.92,-46.439,9.029
705485.9316,3,1.012,9.023,-1.852,4,0.007,0.619,0.14,,,,
705485.9515,3,1.242,9.954,-1.828,4,-0.006,0.584,0.096,5,25.246,-47.125,11.94
705485.9713,3,1.426,9.205,-2.445,4,0.015,0.537,0.065,5,25.278,-45.699,11.935
705485.9912,3,1.328,10.392,-3.068,4,0.009,0.474,0.024,5,23.271,-45.741,9.753
705486.0111,3,0.048,9.141,-2.218,4,0.011,0.424,-0.015,5,22.585,-46.471,9.027
705486.0309,3,-0.459,9.042,-2.448,4,-0.028,0.378,-0.053,5,23.221,-47.881,9.033
705486.0508,3,-0.4,9.619,-3.491,4,-0.028,0.273,-0.058,5,23.907,-47.156,11.209
705486.0706,3,-0.187,9.564,-3.685,4,-0.018,0.079,-0.048,5,23.891,-47.87,11.211
705486.0905,3,-0.266,9.763,-2.603,4,-0.038,-0.088,-0.053,5,24.574,-47.136,9.76
705486.1104,3,-0.132,10.729,-2.101,4,-0.068,-0.185,-0.058,5,22.588,-46.474,10.48
705486.1302,3,1.158,8.061,-1.838,4,-0.067,-0.219,-0.036,5,24.577,-47.141,11.938
705486.1501,3,0.828,9.315,-3.539,4,-0.039,-0.241,-0.018,5,25.262,-46.417,13.39
705486.17,3,1.639,10.906,-3.623,4,0.028,-0.204,-0.035,5,25.244,-47.124,11.212
705486.1898,3,1.455,9.799,-1.381,4,0.032,-0.09,-0.046,5,23.221,-47.881,9.033
705486.2097,3,1.395,9.94,-2.469,4,-0.024,0.068,-0.051,5,24.574,-47.136,9.76
705486.2296,3,0.682,9.411,-2.984,4,-0.016,0.128,-0.075,5,24.576,-47.139,11.211
705486.2494,3,-0.567,8.92,-2.089,4,0.002,0.124,-0.098,5,23.872,-48.579,9.761
705486.2693,3,-0.39,9.942,-2.326,4,-0.002,0.058,-0.114,5,24.576,-47.137,10.486
705486.2892,3,-0.916,9.332,-3.362,4,0.004,-0.076,-0.12,5,24.59,-46.423,9.756
705486.309,3,-1.187,9.028,-3.963,4,0.029,-0.191,-0.106,5,26.598,-46.384,13.391
705486.3289,3,-1.043,9.595,-4.097,4,0.039,-0.257,-0.087,5,26.613,-45.665,11.937
705486.3488,3,-1.84,9.641,-2.23,4,0.009,-0.302,-0.047,5,27.28,-45.65,11.938
705486.3686,3,0.05,10.047,-1.462,4,-0.045,-0.307,0.003,5,25.243,-47.121,9.761
705486.3885,3,0.826,10.636,-1.376,4,-0.059,-0.307,0.04,5,25.909,-47.104,9.761
705486.4084,3,1.299,9.155,-2.594,4,-0.02,-0.258,0.052,5,27.246,-47.073,10.49
705486.4282,3,0.837,8.375,-2.881,4,0.034,-0.116,0.024,5,26.613,-45.665,11.937
705486.4481,3,-1.247,10.825,-3.316,4,0.059,0.069,-0.004,5,25.224,-47.833,9.036
705486.4679,3,-0.467,8.21,-2.06,4,0.04,0.215,-0.015,5,24.571,-47.133,8.307
705486.4878,3,-0.656,10.234,-3.204,4,-0.002,0.229,-0.03,5,27.261,-46.361,10.487
705486.5077,3,-0.794,10.72,-2.701,4,0.016,0.217,-0.024,5,27.248,-47.076,11.943
705486.5276,3,-0.711,10.21,-1.132,4,-0.001,0.229,-0.018,5,27.916,-47.064,13.397
705486.5474,3,-1.141,10.045,-1.953,4,-0.031,0.228,-0.015,5,25.926,-46.393,10.484
705486.5673,3,-0.335,9.839,-3.199,4,-0.007,0.167,-0.02,5,26.581,-47.092,11.942
705486.5872,3,-0.409,9.665,-3.163,4,0.026,0.116,-0.005,5,26.595,-46.378,11.211
705486.607,3,0.234,9.442,-2.589,4,0.017,0.081,0.014,5,26.563,-47.803,10.49
705486.6269,3,0.579,9.768,-1.993,4,-0.029,0.047,0.014,5,25.929,-46.399,12.663
705486.6467,3,1.127,9.571,-3.321,4,-0.04,0.019,0.014,5,25.244,-47.124,11.212
705486.6666,3,1.957,10.174,-2.929,4,-0.026,-0.007,-0.004,5,25.943,-45.68,11.208
705486.6865,3,1.426,9.839,-1.689,4,-0.017,-0.01,-0.03,5,27.261,-46.362,11.212
705486.7063,3,0.916,8.999,-1.936,4,-0.043,0.011,-0.053,5,27.263,-46.364,11.94
705486.7262,3,0.548,9.191,-2.465,4,-0.045,-0.003,-0.09,5,25.279,-45.703,13.388
705486.746,3,0.129,9.617,-2.929,4,-0.015,-0.094,-0.115,5,27.296,-44.937,11.937
705486.7659,3,0.258,9.837,-2.922,4,-0.008,-0.169,-0.134,5,27.292,-44.931,9.032
705486.7858,3,-0.383,10.703,-2.331,4,-0.016,-0.213,-0.137,5,27.96,-44.916,9.76
705486.8057,3,0.043,7.557,-1.917,4,-0.031,-0.229,-0.128,5,26.628,-44.949,10.483
705486.8255,3,-1.292,10.911,-3.611,4,-0.037,-0.25,-0.13,5,27.94,-45.624,7.582
705486.8454,3,-1.759,11.476,-2.118,4,-0.006,-0.29,-0.128,5,29.277,-45.593,8.31
705486.8653,3,-2.041,9.09,-0.514,4,-0.046,-0.341,-0.102,5,29.282,-45.598,10.489
705486.8851,3,-1.62,8.98,-2.402,4,-0.073,-0.402,-0.067,5,29.263,-46.31,9.764
705486.905,3,-0.785,11.344,-4.353,4,0.012,-0.449,-0.019,5,27.962,-44.917,10.486
705486.9248,3,-0.773,8.619,-4.199,4,0.07,-0.422,0.021,5,25.987,-43.533,7.573
705486.9447,3,0.66,10.196,-3.781,4,0.031,-0.335,0.052,5,28.609,-45.607,7.582
705486.9646,3,0.459,11.033,-1.692,4,-0.013,-0.242,0.068,5,27.324,-43.504,9.029
705486.9844,3,1.589,7.035,0.196,4,-0.05,-0.137,0.092,5,27.274,-45.642,8.307
705487.0043,3,1.019,10.895,-3.984,4,-0.033,-0.079,0.074,5,27.988,-43.481,6.851
705487.0241,3,-0.041,11.203,-3.551,4,0.106,-0.046,0.032,5,27.306,-44.214,7.578
705487.044,3,-1.053,7.822,-1.933,4,0.12,0.05,0.007,5,27.942,-45.627,9.035
705487.0639,3,-0.421,9.375,-3.766,4,0.064,0.122,-0.008,5,29.279,-45.595,9.036
705487.0838,3,-1.661,9.229,-3.321,4,0.075,0.103,0.002,5,27.959,-44.914,9.033
705487.1036,3,-0.66,9.662,-2.838,4,0.045,0.058,0.006,5,27.974,-44.2,9.032
705487.1235,3,-0.077,10.583,-1.9,4,-0.005,-0.029,0.006,5,27.275,-45.644,9.033
705487.1434,3,-0.38,6.09,-0.993,4,-0.022,-0.079,0.03,5,26.608,-45.659,9.032
705487.1632,3,-0.132,9.803,-4.154,4,-0.011,-0.113,0.034,5,27.274,-45.641,7.581
705487.1831,3,-1.005,11.014,-3.068,4,0.061,-0.13,0.021,5,28.625,-44.896,8.307
705487.2029,3,-0.536,10.72,-2.158,4,0.034,-0.076,0.034,5,27.989,-43.484,7.578
705487.2228,3,-1.117,9.198,-1.189,4,-0.029,-0.04,0.041,5,26.604,-45.651,6.126
705487.2427,3,-1.359,10.548,-2.639,4,-0.018,-0.047,0.036,5,29.265,-46.312,10.49
705487.2625,3,-0.95,9.751,-3.178,4,0.027,-0.066,0.035,5,27.94,-45.625,8.308
705487.2824,3,-0.22,10.842,-2.828,4,0.032,-0.082,0.054,5,28.008,-42.773,9.029
705487.3023,3,-0.519,8.722,-1.055,4,0.001,-0.058,0.062,5,27.293,-44.933,9.758
705487.3221,3,-0.065,8.339,-1.876,4,-0.026,-0.03,0.075,5,26.625,-44.946,9.03
705487.342,3,0.629,10.004,-4.116,4,0.024,-0.064,0.067,5,27.957,-44.913,8.307
705487.3619,3,0.495,9.961,-4.855,4,0.077,-0.074,0.059,5,27.292,-44.931,9.032
705487.3817,3,0.931,8.609,-3.951,4,0.062,-0.022,0.072,5,25.955,-44.96,7.576
705487.4016,3,-0.955,10.82,-2.474,4,0.001,0.024,0.059,5,28.625,-44.894,7.581
705487.4215,3,-0.881,8.87,-0.084,4,-0.045,0.023,0.047,5,26.591,-46.373,9.033
705487.4413,3,-0.814,10.65,-2.386,4,-0.076,-0.036,0.03,5,27.94,-45.625,8.308
705487.4612,3,-0.158,10.682,-3.551,4,-0.005,-0.112,0.03,5,31.885,-48.384,9.775
705487.481,3,-0.38,8.399,-2.802,4,0.04,-0.092,0.058,5,30.551,-48.419,10.498
705487.5009,3,-0.883,10.684,-2.606,4,0.018,0.001,0.079,5,29.9,-47.723,11.221
705487.5208,3,-0.084,9.691,-0.828,4,-0.004,0.069,0.072,5,27.924,-46.338,7.584
705487.5406,3,0.577,9.368,-2.302,4,-0.034,0.086,0.074,5,26.608,-45.659,9.032
705487.5605,3,-0.057,9.279,-3.125,4,0.012,0.07,0.086,5,27.293,-44.933,9.758
705487.5804,3,-0.969,9.255,-3.036,4,0.048,0.062,0.07,5,26.61,-45.66,9.758
705487.6002,3,-0.479,8.83,-3.147,4,0.032,0.07,0.053,5,26.607,-45.656,7.579
705487.6201,3,-1.125,10.404,-2.962,4,0.005,0.055,0.057,5,27.962,-44.917,10.486
705487.64,3,-0.129,9.851,-2.271,4,-0.002,0.069,0.075,5,27.96,-44.916,9.76
705487.6598,3,-1,8.93,-1.431,4,-0.024,0.083,0.084,5,27.962,-44.919,11.211
705487.6797,3,-0.524,9.547,-2.704,4,-0.016,0.089,0.082,5,27.945,-45.631,11.212
705487.6996,3,-1.137,10.002,-3.58,4,0.016,0.083,0.079,5,27.275,-45.644,9.033
705487.7194,3,-0.864,10.856,-3.836,4,0.039,0.103,0.09,5,26.627,-44.948,9.756
705487.7393,3,-0.711,9.169,-1.905,4,0.013,0.139,0.104,5,25.96,-44.968,11.206
705487.7592,3,-1.086,9.411,-1.117,4,-0.04,0.21,0.12,5,25.943,-45.679,10.483
705487.779,3,-0.481,10.61,-2.166,4,-0.046,0.251,0.114,5,25.926,-46.393,10.484
705487.7989,3,-0.038,7.375,-2.699,4,0.009,0.262,0.124,5,27.278,-45.648,11.211
705487.8188,3,-1.299,7.478,-4.443,4,0.031,0.305,0.134,5,25.278,-45.699,11.935
705487.8386,3,-0.546,12.194,-3.498,4,0.055,0.359,0.129,5,26.614,-45.668,12.663
705487.8585,3,0.189,9.363,0.412,4,0.001,0.405,0.148,5,24.591,-46.425,10.483
705487.8783,3,0.299,9.954,-0.79,4,-0.101,0.461,0.179,5,23.273,-45.744,11.205
705487.8982,3,0.419,9.502,-2.347,4,-0.041,0.456,0.113,5,23.921,-46.44,9.755
705487.9181,3,-0.278,9.83,-3.166,4,0.046,0.474,0.082,5,24.625,-45,11.205
705487.938,3,0.179,9.466,-3.304,4,0.079,0.518,0.08,5,23.293,-45.036,12.657
705487.9578,3,0.194,9.198,-3.125,4,0.049,0.565,0.057,5,23.94,-45.729,11.205
705487.9777,3,-0.043,9.504,-2.568,4,0.016,0.615,0.042,5,22.607,-45.766,12.657
705487.9976,3,-0.191,8.882,-2.144,4,-0.008,0.603,0.031,5,21.889,-47.917,10.483
705488.0174,3,0.108,11.198,-2.661,4,-0.011,0.535,0.02,5,23.291,-45.033,11.931
705488.0373,3,0.112,9.413,-1.929,4,0.004,0.441,0.004,5,22.591,-46.48,12.659
705488.0571,3,1.419,9.045,-3.139,4,0.012,0.378,-0.003,5,22.591,-46.48,12.659
705488.077,3,1.522,8.442,-3.525,4,0.035,0.343,-0.015,5,23.943,-45.734,12.659
705488.0969,3,0.522,9.724,-3.429,4,0.051,0.397,-0.045,5,21.909,-47.211,13.387
705488.1167,3,0.787,11.244,-2.67,4,0.031,0.482,-0.073,5,23.259,-46.465,13.387
705488.1366,3,0.036,6.595,-0.814,4,-0.004,0.524,-0.081,5,21.257,-46.512,12.656
705488.1564,3,1.053,12.584,-4.309,4,-0.004,0.508,-0.101,5,22.559,-47.908,13.39
705488.1763,3,0.364,9.99,-1.967,4,0.071,0.449,-0.137,5,22.607,-45.767,13.383
705488.1962,3,-0.163,9.473,-0.916,4,0.011,0.456,-0.151,5,23.247,-47.182,15.569
705488.2161,3,0.002,9.047,-2.125,4,-0.005,0.392,-0.168,5,21.243,-47.227,14.111
705488.2359,3,-0.079,9.136,-2.969,4,0.057,0.261,-0.176,5,22.644,-44.347,16.286
705488.2558,3,0.17,9.186,-3.951,4,0.086,0.152,-0.174,5,23.929,-46.454,15.565
705488.2756,3,-0.89,9.777,-4.183,4,0.064,0.055,-0.183,5,23.344,-42.9,14.83
705488.2955,3,-0.866,8.889,-2.886,4,0.032,-0.022,-0.176,5,24.611,-45.718,13.387
705488.3154,3,-1.149,9.899,-2.565,4,-0.018,-0.075,-0.153,5,22.595,-46.487,16.29
705488.3352,3,-0.553,10.43,-1.993,4,-0.052,-0.171,-0.118,5,23.946,-45.738,14.836
705488.3551,3,1.591,9.923,-1.244,4,-0.065,-0.3,-0.071,5,23.926,-46.449,13.387
705488.375,3,2.627,8.987,-1.641,4,-0.046,-0.362,-0.041,5,23.279,-45.753,14.836
705488.3948,3,3.505,11.311,-3.048,4,0,-0.36,-0.048,5,25.264,-46.419,14.116
705488.4147,3,2.63,8.664,-3.297,4,0.061,-0.256,-0.085,5,23.929,-46.452,14.838
705488.4345,3,0.646,13.773,-3.809,4,0.064,-0.138,-0.135,5,23.944,-45.737,14.111
705488.4544,3,0.926,4.372,-0.89,4,0.038,-0.13,-0.174,5,23.247,-47.18,14.841
705488.4743,3,1.39,11.261,-5.25,4,-0.043,-0.143,-0.212,5,24.631,-45.009,14.836
705488.4942,3,-0.579,9.794,-2.223,4,0.009,-0.127,-0.224,5,23.946,-45.738,14.836
705488.5141,3,-2.051,9.471,-0.77,4,-0.056,-0.036,-0.207,5,25.262,-46.416,12.663
705488.5339,3,-2.075,9.808,-1.455,4,-0.079,-0.083,-0.195,5,24.611,-45.718,13.387
705488.5538,3,-2.768,9.894,-2.924,4,-0.008,-0.258,-0.178,5,24.579,-47.145,13.391
705488.5736,3,-2.099,9.655,-3.84,4,0.034,-0.437,-0.146,5,25.296,-44.991,13.387
705488.5935,3,-1.909,9.327,-3.348,4,0.035,-0.572,-0.095,5,25.929,-46.399,12.663
705488.6134,3,-2.06,9.114,-2.768,4,0.004,-0.61,-0.041,5,25.311,-44.275,12.659
705488.6332,3,-1.385,9.653,-2.888,4,-0.008,-0.588,0.019,5,25.299,-44.994,14.838
705488.6531,3,0.139,9.253,-2.491,4,0.007,-0.542,0.067,5,24.66,-43.579,13.382
705488.673,3,1.835,8.667,-2.402,4,0.026,-0.415,0.106,5,24.66,-43.579,13.382
705488.6928,3,2.747,9.107,-2.503,4,0.049,-0.203,0.129,5,24.66,-43.579,13.382
705488.7127,3,1.005,8.545,-2.946,4,0.073,0.006,0.104,5,24.66,-43.579,13.382
705488.7325,3,1.933,10.667,-3.788,4,0.084,0.19,0.052,5,25.282,-45.706,14.839
705488.7524,3,1.455,11.399,-2.606,4,0.065,0.279,0.01,5,24.628,-45.006,13.385
705488.7723,3,0.519,8.155,-0.737,4,0,0.309,-0.02,5,24.626,-45.001,11.932
705488.7922,3,-0.447,10.268,-2.388,4,-0.055,0.27,-0.069,5,24.66,-43.578,12.656
705488.812,3,-1.747,9.004,-2.649,4,-0.043,0.119,-0.104,5,26.631,-44.955,12.662
705488.8319,3,-0.794,11.73,-1.204,4,-0.066,-0.066,-0.09,5,26.012,-42.831,12.656
705488.8517,3,-0.78,7.516,0.653,4,-0.105,-0.23,-0.049,5,25.313,-44.278,14.111
705488.8716,3,0.187,10.387,-2.498,4,-0.133,-0.358,-0.035,5,25.345,-42.848,12.656
705488.8915,3,-0.304,9.758,-3.869,4,-0.033,-0.454,-0.041,5,25.296,-44.989,12.66
705488.9113,3,-0.775,8.43,-3.221,4,0.011,-0.448,-0.018,5,23.958,-45.018,11.931
705488.9312,3,-0.914,9.275,-3.084,4,-0.018,-0.383,-0.003,5,24.626,-45.001,11.932
705488.9511,3,-0.895,9.377,-2.441,4,-0.024,-0.28,0.008,5,26.643,-44.237,11.206
705488.9709,3,-0.998,8.897,-3.168,4,-0.033,-0.176,0.031,5,25.975,-44.252,10.48
705488.9908,3,-0.467,10.002,-2.912,4,-0.018,-0.097,0.048,5,25.975,-44.254,11.205
705489.0106,3,-0.098,10.227,-1.584,4,-0.008,-0.008,0.063,5,26.66,-43.524,11.205
705489.0305,3,1,10.114,-1.426,4,-0.024,0.147,0.075,5,26.009,-42.827,11.201
705489.0504,3,-0.5,8.224,-1.515,4,-0.031,0.245,0.063,5,26.645,-44.238,11.934
705489.0703,3,0.227,10.605,-4.544,4,0.007,0.279,0.015,5,25.294,-44.986,11.934
705489.0901,3,-0.617,10.799,-3.955,4,0.062,0.254,-0.024,5,25.293,-44.983,10.481
705489.11,3,-0.864,6.82,-1.706,4,0.026,0.25,-0.018,5,25.308,-44.27,11.205
705489.1298,3,-1.192,10.122,-2.792,4,-0.05,0.228,-0.02,,,,
705489.1497,3,-0.897,10.782,-1.701,4,-0.031,0.134,-0.02,5,26.631,-44.955,12.662
705489.1696,3,-0.558,11.179,-0.768,4,-0.044,0.009,-0.003,5,24.64,-44.286,11.203
705489.1894,3,0.9,9.899,-1.842,4,-0.066,-0.113,0.004,5,25.308,-44.27,11.205
705489.2093,3,1.213,10.114,-2.91,4,-0.027,-0.207,0.006,5,25.96,-44.966,10.481
705489.2292,3,0.665,9.736,-2.63,4,0.02,-0.207,0.004,5,25.31,-44.272,11.932
705489.249,3,-0.122,8.528,-1.912,4,0.006,-0.189,-0.016,5,26.662,-43.526,11.932
705489.2689,3,0.486,9.44,-2.943,4,-0.028,-0.193,-0.045,5,25.992,-43.539,10.478
705489.2887,3,0.385,9.196,-3.699,4,-0.001,-0.204,-0.045,5,25.323,-43.555,9.752
705489.3086,3,0.218,10.844,-3.788,4,0.018,-0.204,-0.053,5,25.96,-44.968,11.206
705489.3285,3,-0.191,10.404,-1.921,4,0.002,-0.146,-0.063,5,25.943,-45.68,11.208
705489.3484,3,-0.51,8.552,-1.216,4,-0.05,-0.085,-0.052,5,26.628,-44.949,10.483
705489.3682,3,0.495,9.93,-3.08,4,-0.054,-0.103,-0.053,5,25.955,-44.962,8.302
705489.3881,3,-0.297,8.09,-2.508,4,-0.011,-0.23,-0.052,5,25.293,-44.983,10.481
705489.4079,3,0.05,10.682,-2.579,4,-0.016,-0.319,-0.048,5,26.591,-46.373,9.033
705489.4278,3,0.524,11.115,-2.276,4,-0.024,-0.437,-0.063,5,27.292,-44.931,9.032
705489.4477,3,0.538,7.198,-2.362,4,-0.037,-0.54,-0.046,5,25.99,-43.538,9.752
705489.4675,3,0.206,11,-4.482,4,-0.027,-0.6,-0.034,5,25.957,-44.963,9.029
705489.4874,3,-0.069,9.495,-1.326,4,0.002,-0.639,-0.036,5,27.257,-46.356,8.308
705489.5073,3,-0.141,9.89,-0.55,4,-0.076,-0.639,-0.02,5,25.925,-46.391,9.758
705489.5271,3,0.904,9.291,-1.503,4,-0.101,-0.691,-0.005,5,27.242,-47.069,8.311
705489.547,3,0.414,10.665,-2.654,4,-0.033,-0.779,0.009,5,27.275,-45.644,9.033
705489.5668,3,0.177,8.686,-2.486,4,0.029,-0.78,0.021,5,26.625,-44.946,9.03
705489.5867,3,0.096,8.942,-3.479,4,0.033,-0.74,0.013,5,28.624,-44.891,6.854
705489.6066,3,-1.046,10.138,-3.498,4,0.034,-0.648,-0.003,5,27.303,-44.209,6.125
705489.6264,3,-1.271,9.701,-2.07,4,0.024,-0.503,0.026,5,26.639,-44.229,7.576
705489.6463,3,-1.218,10.047,-1.491,4,-0.023,-0.415,0.042,5,27.956,-44.908,6.854
705489.6662,3,-1.488,10.655,-1.424,4,-0.028,-0.377,0.058,5,26.624,-44.943,7.578
705489.6861,3,-1.742,8.621,-1.687,4,0.001,-0.328,0.081,5,27.953,-44.904,4.675
705489.7059,3,-1.589,9.689,-3.295,4,0.045,-0.267,0.095,5,27.303,-44.209,6.125
705489.7258,3,-3.266,9.2,-2.393,4,0.1,-0.212,0.114,5,25.935,-45.668,6.125
705489.745,3,-2.34,9.66,-2.532,4,0.093,-0.124,0.15,5,25.955,-44.96,7.576
705489.7655,3,-0.818,10.976,-2.362,4,0.067,-0.118,0.185,5,26.62,-44.939,6.125
705489.7854,3,-0.491,7.167,-0.873,4,0.051,-0.104,0.232,5,26.602,-45.648,4.674
705489.8052,3,1.031,10.454,-3.453,4,0.051,-0.038,0.246,5,25.272,-45.689,7.578
705489.8251,3,-0.093,9.679,-2.472,4,0.115,0.067,0.24,5,25.287,-44.974,6.85
705489.845,3,0.797,10.045,-2.489,4,0.109,0.227,0.224,5,25.873,-48.528,8.311
705489.8648,3,1.058,9.382,-2.891,4,0.087,0.34,0.191,5,25.253,-46.4,6.853
705489.8847,3,0.452,9.923,-2.673,4,0.084,0.416,0.162,5,24.583,-46.414,6.125
705489.9046,3,-0.912,9.265,-1.895,4,0.077,0.493,0.113,5,24.583,-46.414,6.125
705489.9244,3,-1.469,9.133,-2.407,4,0.051,0.505,0.073,5,24.586,-46.42,8.304
705489.9443,3,-2.596,10.282,-2.553,4,0.051,0.445,0.056,5,25.252,-46.399,6.126
705489.9642,3,-1.878,10.181,-2.151,4,0.065,0.371,0.059,5,23.935,-45.723,8.301
705489.984,3,-1.393,7.791,-1.811,4,0.048,0.251,0.087,5,25.255,-46.405,8.305
705490.0039,3,-0.715,10.54,-4.027,4,0.046,0.147,0.118,5,25.255,-46.405,8.305
705490.0238,3,-1.627,8.49,-2.503,4,0.076,0.106,0.141,5,24.586,-46.419,7.578
705490.0436,3,0.06,9.964,-2.347,4,0.029,0.193,0.147,5,24.571,-47.133,8.307
705490.0635,3,-0.385,10,-1.814,4,0.017,0.251,0.164,5,25.255,-46.405,8.305
705490.0834,3,0.926,9.851,-2.278,4,0.023,0.323,0.173,5,23.285,-45.026,8.299
705490.1032,3,0.751,10.564,-2.936,4,0.038,0.394,0.151,5,23.938,-45.726,9.753
705490.1231,3,0.536,5.645,-2.168,4,0.045,0.47,0.129,5,22.568,-47.182,8.304
705490.1429,3,0.964,11.064,-4.388,4,0.04,0.527,0.109,5,23.254,-46.455,9.755
705490.1628,3,0.206,11.392,-2.931,4,0.079,0.529,0.082,5,23.236,-47.165,8.305
705490.1827,3,0.483,10.062,-0.921,4,0.018,0.541,0.057,5,23.888,-47.865,9.033
705490.2025,3,0.531,8.968,-1.153,4,-0.043,0.509,0.042,5,23.224,-47.884,10.486
705490.2224,3,1.003,10.658,-2.599,4,-0.017,0.417,0.031,5,22.585,-46.471,9.027
705490.2423,3,0.421,11.316,-2.642,4,0.035,0.353,0.008,5,24.591,-46.426,11.208
705490.2621,3,0.249,9.777,-1.886,4,0.034,0.328,-0.016,5,23.242,-47.173,11.937
705490.282,3,0.474,9.129,-2.412,4,0.007,0.307,-0.032,5,23.923,-46.443,11.206
705490.3019,3,-0.378,8.961,-2.194,4,0.024,0.266,-0.035,5,23.225,-47.887,11.938
705490.3217,3,-1.029,9.09,-3.58,4,0.042,0.215,-0.049,5,23.224,-47.884,10.486
705490.3416,3,-1.816,9.32,-4.13,4,0.049,0.151,-0.056,5,23.909,-47.157,11.937
705490.3615,3,-1.883,9.586,-2.422,4,0.026,0.091,-0.034,5,23.256,-46.457,10.481
705490.3813,3,-1.369,9.887,-1.649,4,-0.01,0.045,-0.003,5,22.588,-46.475,11.205
705490.4012,3,-0.292,9.595,-2.713,4,-0.015,0.007,0.023,5,23.227,-47.89,12.665
705490.421,3,-0.912,8.928,-3.063,4,0.026,0.057,0.032,5,23.207,-48.598,11.212
705490.4409,3,-0.766,9.942,-3.07,4,0.048,0.196,0.03,5,22.589,-46.477,11.932
705490.4608,3,0.479,8.676,-2.108,4,0.042,0.332,0.048,5,23.242,-47.173,11.937
705490.4806,3,0.558,10.526,-2.244,4,0.011,0.425,0.058,5,23.242,-47.173,11.937
705490.5005,3,1.323,9.392,-2.613,4,0.037,0.471,0.034,5,22.655,-43.623,11.926
705490.5204,3,0.244,10.77,-2.783,4,0.054,0.511,-0.016,5,23.892,-47.871,11.938
705490.5402,3,0.416,9.547,-2.297,4,0.051,0.564,-0.041,5,23.911,-47.16,12.663
705490.5601,3,-0.376,9.878,-1.354,4,0.015,0.535,-0.058,5,23.959,-45.023,13.383
705490.58,3,-0.713,9.686,-2.261,4,-0.001,0.455,-0.071,5,23.293,-45.038,13.383
705490.5998,3,0.383,10.04,-3.589,4,0.024,0.321,-0.086,5,21.924,-46.498,13.383
705490.6197,3,-0.05,8.576,-2.797,4,0.044,0.182,-0.09,5,23.943,-45.734,12.659
705490.6396,3,0.569,9.485,-2.924,4,0.018,0.129,-0.093,5,22.624,-45.055,13.382
705490.6594,3,-0.416,8.825,-2.515,4,0.009,0.09,-0.096,5,25.23,-47.842,12.668
705490.6793,3,0.948,9.181,-2.926,4,-0.01,0.041,-0.091,5,27.219,-48.511,14.85
705490.6991,3,1.417,11.409,-3.884,4,-0.012,-0.018,-0.095,5,23.911,-47.16,12.663
705490.719,3,0.995,9.299,-1.687,4,-0.021,-0.02,-0.089,5,23.306,-44.319,11.929
705490.7389,3,0.866,11.258,-1.426,4,-0.052,0.058,-0.093,5,23.276,-45.75,13.385
705490.7587,3,-0.172,7.839,-1.362,4,-0.048,0.074,-0.111,5,23.946,-45.738,14.836
705490.7786,3,0.294,11.213,-3.534,4,-0.02,0.059,-0.129,5,21.941,-45.782,12.656
705490.7985,3,-0.048,9.571,-2.766,4,0.035,-0.042,-0.128,5,23.926,-46.449,13.387
705490.8183,3,0.172,6.805,-2.563,4,0.006,-0.093,-0.109,5,23.296,-45.041,14.835
705490.8382,3,-0.799,11.538,-3.706,4,-0.016,-0.136,-0.109,5,25.264,-46.419,14.116
705490.8581,3,-0.598,9.808,-2.223,4,0.002,-0.181,-0.115,5,23.26,-46.466,14.113
705490.8779,3,-0.167,9.899,-1.481,4,-0.061,-0.212,-0.104,5,23.958,-45.018,11.931
705490.8978,3,-0.17,8.882,-2.225,4,-0.063,-0.277,-0.082,5,23.943,-45.734,12.659
705490.9177,3,0.299,10.392,-3.127,4,-0.02,-0.341,-0.082,5,23.943,-45.734,12.659
705490.9375,3,0.28,7.592,-3.034,4,0.002,-0.363,-0.071,5,25.279,-45.702,12.662
705490.9574,3,0.756,10.56,-4.238,4,-0.012,-0.351,-0.052,5,26.614,-45.668,12.663
705490.9772,3,0.5,9.315,-2.486,4,-0.031,-0.343,-0.058,5,24.643,-44.292,13.383
705490.9971,3,0.306,11.442,-1.742,4,-0.084,-0.237,-0.046,5,24.644,-44.293,14.11
705491.017,3,0.601,9.789,-1.586,4,-0.079,-0.179,-0.052,5,25.313,-44.278,14.111
705491.0368,3,-0.347,9.174,-2.323,4,-0.044,-0.126,-0.053,5,25.961,-44.969,11.934
705491.0567,3,-0.404,9.22,-3.446,4,0.006,-0.074,-0.056,5,24.625,-44.998,10.48
705491.0766,3,-0.464,9.476,-3.319,4,0.039,-0.024,-0.065,5,24.628,-45.004,12.659
705491.0965,3,-0.282,9.928,-2.809,4,0.018,0.009,-0.058,5,25.294,-44.986,11.934
705491.1163,3,0.074,8.952,-2.065,4,-0.02,0.025,-0.063,5,25.308,-44.27,11.205
705491.1362,3,0.031,10.303,-2.314,4,-0.044,-0.007,-0.074,5,25.31,-44.272,11.932
705491.156,3,0.153,8.303,-3.159,4,-0.023,-0.047,-0.071,5,24.625,-45,11.205
705491.1759,3,0.048,10.552,-4.207,4,-0.002,-0.087,-0.075,5,25.977,-44.255,11.932
705491.1958,3,0.419,11.031,-1.847,4,-0.001,-0.086,-0.075,5,25.96,-44.968,11.206
705491.2156,3,0.28,9.569,-0.014,4,-0.063,-0.024,-0.051,5,25.294,-44.986,11.934
705491.2355,3,-0.05,11.739,-1.768,4,-0.096,-0.015,-0.063,5,26.643,-44.237,11.206
705491.2554,3,-0.014,9.992,-2.891,4,-0.016,-0.108,-0.085,5,27.333,-43.518,14.838
705491.2752,3,1.163,9.031,-3.915,4,0.035,-0.174,-0.073,5,26.631,-44.955,12.662
705491.2951,3,0.543,8.207,-2.936,4,0.037,-0.211,-0.073,5,27.327,-43.509,11.206
705491.315,3,0.313,9.83,-3.572,4,-0.001,-0.23,-0.091,5,26.677,-42.809,10.478
705491.3348,3,-0.998,10.414,-2.221,4,-0.023,-0.292,-0.113,5,25.259,-46.411,11.209
705491.3547,3,-1.019,9.449,-2.486,4,-0.041,-0.389,-0.124,5,25.293,-44.983,10.481
705491.3746,3,-1.309,9.758,-3.257,4,-0.04,-0.517,-0.133,5,25.975,-44.252,10.48
705491.3944,3,-1.256,9.59,-2.276,4,-0.015,-0.611,-0.128,5,28.661,-43.472,9.756
705491.4143,3,-1.237,8.219,-2.572,4,-0.01,-0.655,-0.073,5,25.955,-44.962,8.302
705491.4342,3,-0.723,10.445,-4.381,4,0.016,-0.731,-0.037,5,27.324,-43.504,9.029
705491.454,3,-0.196,9.662,-3.192,4,0.054,-0.81,-0.026,5,27.972,-44.197,7.579
705491.4739,3,0.608,9.547,-2.847,4,0.012,-0.774,0.008,5,26.657,-43.52,9.027
705491.4938,3,0.141,8.818,-1.498,4,-0.034,-0.719,0.031,5,27.321,-43.498,6.85
705491.5136,3,-0.16,7.748,-2.051,4,-0.049,-0.652,0.036,5,26.637,-44.226,6.85
705491.5335,3,-0.218,11.806,-3.214,4,-0.032,-0.609,0.025,5,26.653,-43.512,6.122
705491.5533,3,1.053,9.741,-1.493,4,0.017,-0.565,0.031,5,28.624,-44.891,6.854
705491.5732,3,0.9,10.088,-0.677,4,-0.028,-0.441,0.041,5,28.624,-44.891,6.854
705491.5931,3,1.031,10.698,-2.24,4,-0.008,-0.338,0.034,5,28.624,-44.891,6.854
705491.6129,3,0.55,9.588,-3.087,4,0.059,-0.31,0.013,5,26.62,-44.937,5.399
705491.6328,3,0.139,8.98,-3.678,4,0.083,-0.296,-0.008,5,27.304,-44.211,6.851
705491.6527,3,-0.747,9.133,-2.948,4,0.061,-0.303,-0.025,5,26.62,-44.939,6.125
705491.6725,3,-3.08,8.885,-2.166,4,0.013,-0.307,-0.027,5,25.951,-44.952,4.671
705491.6924,3,-2.577,10.306,-2.132,4,-0.043,-0.335,-0.021,5,27.953,-44.904,4.675
705491.7123,3,-2.34,9.811,-1.484,4,-0.057,-0.45,0.013,5,26.587,-46.364,5.402
705491.7321,3,-2.034,11.239,-1.23,4,-0.055,-0.52,0.056,5,26.604,-45.65,5.4
705491.752,3,-2.52,7.674,-0.847,4,-0.02,-0.507,0.097,5,27.251,-46.346,3.951
705491.7719,3,-1.405,11.263,-4.786,4,0.037,-0.422,0.128,5,26.602,-45.648,4.674
705491.7917,3,-2.072,8.999,-3.582,4,0.137,-0.301,0.153,5,26.636,-44.223,5.397
705491.8116,3,-0.73,8.664,-1.854,4,0.109,-0.104,0.192,5,25.949,-44.951,3.944
705491.8314,3,-0.031,10.629,-2.505,4,0.056,0.05,0.221,5,26.649,-43.507,3.943
705491.8513,3,0.79,7.497,-1.742,4,0.05,0.158,0.223,5,25.917,-46.379,4.674
705491.8712,3,1.182,11.687,-4.501,4,0.061,0.2,0.197,5,24.615,-44.984,4.669
705491.891,3,1.613,10.804,-1.498,4,0.088,0.234,0.179,5,25.919,-46.382,6.126
705491.9109,3,0.404,9.954,-0.555,4,0.012,0.256,0.153,5,25.952,-44.955,6.123
705491.9308,3,1.05,8.956,-1.603,4,-0.026,0.158,0.096,5,25.935,-45.668,6.125
705491.9506,3,0.464,8.763,-2.898,4,0.016,-0.075,0.04,5,25.967,-44.241,6.122
705491.9705,3,0.507,10.347,-4.554,4,0.049,-0.259,0.026,5,25.935,-45.667,5.399
705491.9904,3,0.163,9.138,-3.063,4,0.038,-0.39,0.004,5,25.932,-45.663,3.946
705492.0102,3,-1.139,7.765,-1.917,4,-0.048,-0.467,-0.019,5,26.619,-44.936,4.672
705492.0301,3,-1.35,10.244,-2.651,4,-0.077,-0.516,-0.008,5,25.934,-45.665,4.672
705492.05,3,-2.4,10.971,-1.95,4,-0.05,-0.602,0.012,5,25.916,-46.378,3.947
705492.0698,3,-1.802,10.122,-1.558,4,-0.046,-0.625,0.037,5,27.267,-45.63,3.223
705492.0897,3,-1.792,9.191,-1.467,4,-0.032,-0.587,0.078,5,25.9,-47.09,3.951
705492.1095,3,-2.288,8.485,-2.577,4,0.027,-0.459,0.125,5,25.25,-46.396,4.674
705492.1294,3,-2.486,10.033,-4.956,4,0.088,-0.36,0.134,5,25.232,-47.104,2.498
705492.1493,3,-1.955,9.035,-3.517,4,0.127,-0.246,0.168,5,25.249,-46.394,3.947
705492.1691,3,-1.005,9.258,-1.876,4,0.086,-0.098,0.225,5,25.949,-44.949,3.218
705492.189,3,0.177,8.956,-2.424,4,0.045,0.04,0.263,5,24.568,-47.125,5.402
705492.2089,3,-0.737,9.473,-2.45,4,0.06,0.179,0.261,5,24.6,-45.699,5.397
705492.2287,3,-0.065,10.543,-2.699,4,0.075,0.34,0.235,5,23.883,-47.856,5.402
705492.2486,3,-0.869,10.076,-1.874,4,0.084,0.469,0.222,5,23.233,-47.157,5.4
705492.2685,3,-0.156,10.095,-1.938,4,0.057,0.544,0.205,5,23.868,-48.572,6.856
705492.2883,3,-0.328,9.382,-2.209,4,0.056,0.544,0.177,5,23.216,-47.871,5.402
705492.3082,3,-0.33,9.923,-2.491,4,0.072,0.502,0.156,5,22.583,-46.468,7.574
705492.3281,3,-0.512,9.904,-3.4,4,0.089,0.452,0.141,,,,
705492.3479,3,-0.706,5.958,-2.316,4,0.082,0.403,0.113,5,23.903,-47.148,7.579
705492.3677,3,-1.567,12.816,-3.596,4,0.062,0.416,0.098,5,21.216,-47.923,6.85
705492.3876,3,-1.859,6.717,-1.22,4,0.048,0.439,0.07,5,23.248,-46.445,5.397
705492.4075,3,-1.354,9.624,-1.931,4,-0.007,0.406,0.098,5,23.903,-47.148,7.579
705492.4273,3,-0.407,10.593,-3.47,4,0.023,0.388,0.159,5,23.918,-46.436,7.576
705492.4472,3,-0.505,8.459,-2.512,4,0.079,0.387,0.164,5,24.602,-45.702,6.85
705492.4671,3,1.469,10.11,-2.56,4,0.05,0.409,0.152,5,22.58,-46.463,6.122
705492.4869,3,1.421,8.301,-2.185,4,0.04,0.476,0.139,5,22.568,-47.18,7.578
705492.5068,3,2.74,10.38,-3.886,4,0.044,0.584,0.112,5,21.933,-45.772,8.298
705492.5267,3,2.364,8.765,-2.855,4,0.068,0.63,0.073,5,22.551,-47.894,7.579
705492.5465,3,1.424,7.765,-3.939,4,0.033,0.656,0.014,5,20.566,-47.231,8.301
705492.5664,3,-0.462,12.239,-3.312,4,0.004,0.602,-0.054,5,23.238,-47.166,9.032
705492.5863,3,-0.653,9.581,-1.175,4,-0.026,0.424,-0.115,5,22.585,-46.471,9.027
705492.6061,3,-0.354,11.332,-2.512,4,-0.103,0.173,-0.134,5,21.886,-47.914,9.03
705492.626,3,-0.304,8.346,-1.804,4,-0.061,-0.12,-0.104,5,22.552,-47.897,9.032
705492.6459,3,-0.158,9.49,-4.652,4,-0.013,-0.379,-0.089,5,21.236,-47.215,9.027
705492.6657,3,-1.043,8.076,-4.202,4,0.046,-0.551,-0.107,5,21.918,-46.487,9.026
705492.6856,3,-2.481,8.643,-4.345,4,0.04,-0.641,-0.109,5,23.904,-47.151,9.032
705492.7055,3,-1.038,9.677,-3.659,4,0.028,-0.591,-0.073,5,23.268,-45.737,7.574
705492.7253,3,-1.373,8.892,-2.225,4,0.015,-0.503,-0.013,5,23.906,-47.153,9.758
705492.7452,3,-1.074,9.385,-2.826,4,0.004,-0.344,0.039,5,24.585,-46.416,6.851
705492.7651,3,-0.904,8.897,-2.687,4,0.037,-0.118,0.07,5,23.25,-46.448,6.85
705492.785,3,-1.122,10.024,1.206,4,0.059,0.144,0.096,5,23.267,-45.734,6.848
705492.8048,3,-1.335,7.568,-3.891,4,0.04,0.378,0.13,5,20.599,-45.805,9.023
705492.8247,3,-1.457,10.519,-1.34,4,0.034,0.516,0.144,5,23.253,-46.454,9.029
705492.8445,3,-0.057,9.653,-2.484,4,0.073,0.514,0.135,5,22.586,-46.472,9.753
705492.8644,3,1.455,8.128,-3.151,4,0.02,0.472,0.151,5,21.935,-45.773,9.024
705492.8843,3,1.45,10.272,-3.357,4,0.02,0.47,0.164,5,22.603,-45.758,9.752
705492.9041,3,0.141,11.103,-1.615,4,-0.008,0.489,0.135,5,22.604,-45.76,10.478
705492.924,3,-0.237,10.083,-0.459,4,-0.063,0.499,0.084,5,21.954,-45.064,10.475
705492.9438,3,0.744,9.564,-1.378,4,-0.076,0.447,0.065,5,21.239,-47.218,10.48
705492.9637,3,-0.127,10.483,-3.58,4,-0.026,0.333,0.056,5,21.252,-46.504,9.75
705492.9836,3,0.44,9.835,-2.587,4,0.005,0.273,0.028,5,21.935,-45.773,9.024
705493.0034,3,-0.744,9.665,-2.256,4,-0.006,0.283,0.015,5,21.219,-47.929,9.029
705493.0233,3,-0.945,10.117,-4.254,4,-0.013,0.328,0.009,5,21.902,-47.2,9.029
705493.0432,3,0.275,9.083,-3.541,4,0.016,0.366,0.009,5,21.919,-46.489,9.752
705493.063,3,-1.354,8.463,-1.694,4,-0.008,0.394,0.012,5,21.904,-47.202,9.755
705493.0829,3,-0.613,11.052,-1.933,4,-0.045,0.426,0.004,5,20.566,-47.229,7.574
705493.1028,3,-1.055,7.501,-1.869,4,-0.037,0.404,0.012,5,22.621,-45.049,11.201
705493.1226,3,-0.572,9.995,-3.582,4,0.004,0.42,0.026,5,21.239,-47.218,10.48
705493.1425,3,-0.065,9.519,-2.958,4,0.066,0.403,0.047,5,20.552,-47.948,9.755
705493.1624,3,0.256,10.438,-2.271,4,0.048,0.47,0.054,5,21.921,-46.49,10.478
705493.1822,3,-0.299,8.215,-1.316,4,0.007,0.52,0.046,5,20.602,-45.81,11.2
705493.2021,3,0.694,8.83,-3.328,4,-0.001,0.564,0.037,5,20.57,-47.235,10.48
705493.2219,3,1.084,11.722,-3.685,4,0.057,0.546,0.036,5,21.288,-45.079,10.474
705493.2418,3,1.488,10.275,-0.459,4,0.065,0.554,0.01,5,19.917,-46.539,10.475
705493.2617,3,1.9,8.521,-0.768,4,-0.007,0.631,-0.005,5,19.267,-45.842,11.197
705493.2815,3,1.531,10.641,-2.859,4,0.015,0.635,-0.054,5,21.255,-46.509,11.929
705493.3014,3,1.354,9.638,-3.561,4,0.099,0.629,-0.101,5,21.257,-46.512,12.656
705493.3213,3,1.108,9.404,-3.398,4,0.106,0.62,-0.137,5,20.573,-47.243,13.385
705493.3411,3,0.586,9.22,-2.173,4,0.06,0.569,-0.186,5,20.575,-47.244,14.111
705493.361,3,0.519,8.629,-2.144,4,0.024,0.532,-0.224,5,20.586,-46.524,11.201
705493.3809,3,-0.826,8.798,-3.206,4,0.029,0.477,-0.24,5,20.573,-47.241,12.659
705493.4007,3,-0.613,10.674,-4.702,4,0.064,0.371,-0.245,5,21.291,-45.087,13.379
705493.4206,3,-1.299,9.222,-2.17,4,0.06,0.262,-0.247,5,21.924,-46.498,13.383
705493.4405,3,-0.536,10.165,-1.637,4,0.005,0.249,-0.22,5,21.941,-45.784,13.382
705493.4603,3,-0.96,10.342,-1.704,4,-0.022,0.194,-0.198,5,23.309,-44.325,14.108
705493.4802,3,-0.34,10.009,-2.422,4,-0.002,0.13,-0.197,5,21.973,-44.356,12.653
705493.5001,3,0.139,8.858,-1.828,4,0.016,0.105,-0.186,5,22.607,-45.766,12.657
705493.5199,3,-0.538,8.65,-2.422,4,0.031,0.119,-0.167,5,22.656,-43.628,13.379
705493.5398,3,0.397,11.361,-4.831,4,0.072,0.143,-0.157,5,21.292,-45.088,14.105
705493.5596,3,1.151,10.562,-2.522,4,0.098,0.117,-0.141,5,21.326,-43.663,14.827
705493.5795,3,1.259,9.038,-1.634,4,0.023,0.124,-0.15,5,23.328,-43.614,14.832
705493.5994,3,3.235,8.779,-2.579,4,-0.013,0.059,-0.173,5,21.292,-45.088,14.105
705493.6192,3,2.84,10.225,-2.575,4,0.012,-0.027,-0.198,5,20.639,-44.391,14.104
705493.6391,3,1.35,8.437,-2.924,4,0.017,-0.087,-0.224,5,21.292,-45.088,14.105
705493.659,3,0.474,9.832,-3.369,4,-0.017,-0.178,-0.28,5,23.961,-45.024,14.11
705493.6788,3,-0.361,9.521,-2.02,4,-0.024,-0.352,-0.324,5,23.294,-45.039,14.11
705493.6987,3,-0.61,9.598,-2.407,4,-0.074,-0.52,-0.312,5,23.959,-45.021,12.657
705493.7186,3,-0.682,11.28,-3.01,4,-0.085,-0.678,-0.268,5,23.325,-43.611,13.38
705493.7384,3,-0.775,8.471,-1.979,4,-0.062,-0.798,-0.228,5,24.644,-44.293,14.11
705493.7583,3,-0.177,10.646,-3.01,4,-0.078,-0.88,-0.197,5,26.027,-42.119,12.653
705493.7782,3,0.01,7.822,-2.048,4,-0.067,-0.968,-0.167,5,23.973,-44.304,11.929
705493.798,3,0.122,9.464,-2.491,4,-0.092,-0.972,-0.129,5,24.64,-44.286,11.203
705493.8179,3,0.28,10.586,-3.202,4,-0.079,-0.951,-0.09,5,25.293,-44.983,10.481
705493.8377,3,0.51,7.566,-2.412,4,-0.071,-0.903,-0.052,5,27.994,-43.492,11.208
705493.8576,3,-0.146,11.517,-2.759,4,-0.082,-0.804,-0.046,5,27.914,-47.06,11.945
705493.8775,3,1.271,11.261,-1.905,4,-0.034,-0.667,-0.019,5,26.646,-44.243,13.387
705493.8973,3,0.625,9.021,-0.876,4,-0.041,-0.549,0.002,5,26.639,-44.231,8.302
705493.9172,3,1.18,9.71,-2.766,4,-0.041,-0.507,-0.008,5,25.975,-44.252,10.48
705493.9371,3,0.806,10.246,-3.948,4,0.015,-0.536,-0.031,5,26.691,-42.094,9.749
705493.9569,3,0.715,8.164,-2.414,4,0.018,-0.523,-0.031,5,26.689,-42.093,9.023
705493.9768,3,0.916,10.593,-2.634,4,-0.051,-0.521,-0.032,5,26.006,-42.822,9.024
705493.9967,3,-0.211,9.045,-0.871,4,-0.085,-0.527,-0.038,5,27.322,-43.501,7.576
705494.0165,3,-0.244,10.229,-1.091,4,-0.11,-0.575,-0.038,5,26.019,-42.107,7.568
705494.0364,3,-0.96,10.485,-2.125,4,-0.078,-0.704,-0.056,5,28.021,-42.059,8.299
705494.0563,3,-1.275,8.648,-2.113,4,-0.029,-0.781,-0.042,5,27.322,-43.503,8.302
705494.0761,3,-2.936,7.93,-3.044,4,0.002,-0.802,-0.012,5,27.338,-42.784,6.848
705494.096,3,-2.747,11.189,-4.159,4,0.032,-0.858,0.021,5,25.986,-43.53,6.847
705494.1159,3,-1.783,9.626,-2.608,4,0.04,-0.881,0.079,5,25.999,-42.812,4.666
705494.1357,3,-0.914,10.708,-2.35,4,-0.027,-0.81,0.15,5,26.016,-42.101,5.389
705494.1556,3,-0.816,7.549,-1.618,4,-0.022,-0.677,0.214,5,25.999,-42.812,4.666
705494.1755,3,-1.381,9.346,-2.051,4,0.013,-0.527,0.239,5,23.932,-45.715,5.396
705494.1953,3,-1.153,11.567,-2.206,4,0.077,-0.361,0.245,5,25.983,-43.526,4.668
705494.2152,3,-0.294,9.988,-1.5,4,0.122,-0.149,0.266,5,24.646,-43.556,3.94
705494.2351,3,1.029,9.31,-2.934,4,0.131,0.08,0.285,5,25.317,-43.544,5.394
705494.2549,3,0.366,9.918,-3.675,4,0.185,0.328,0.278,5,25.334,-42.831,6.119
705494.2748,3,0.093,8.734,-3.371,4,0.205,0.606,0.244,5,24.632,-44.272,5.394
705494.2947,3,-0.512,10.038,-3.496,4,0.158,0.807,0.201,5,23.982,-43.579,6.844
705494.3145,3,-0.593,10.148,-1.488,4,0.114,0.867,0.155,5,23.982,-43.579,6.844
705494.3344,3,-0.206,9.021,-0.845,4,0.057,0.839,0.133,5,23.285,-45.024,7.573
705494.3542,3,-0.969,10.593,-1.783,4,0.038,0.748,0.113,5,24.001,-42.868,7.568
705494.3741,3,-1.364,8.483,-2.445,4,0.066,0.61,0.065,5,24.634,-44.275,6.847
705494.394,3,-1.472,9.203,-3.515,4,0.067,0.488,0.051,5,24.634,-44.275,6.847
