703635.1184,3,0.605,9.633,-2.6,,,,,5,-27.274,-39.151,19.817
703635.1956,3,0.581,9.641,-2.683,,,,,,,,
703635.2552,3,0.596,9.616,-2.574,4,0.015,-0.013,0.036,5,-26.291,-39.131,21.228
703635.3148,3,0.605,9.614,-2.526,4,0.002,-0.009,0.004,5,-25.626,-40.88,21.663
703635.3743,3,0.569,9.638,-2.519,4,0,-0.006,0.003,,,,
703635.4339,3,0.551,9.641,-2.438,4,0,0,0.001,5,-24.693,-41.234,22.006
703635.4936,3,0.35,9.654,-2.432,4,0.002,-0.006,0.002,5,-25.529,-40.54,21.765
703635.5531,3,0.17,9.641,-2.523,4,0.002,-0.002,0.008,,,,
703635.6127,3,0.358,9.605,-2.528,4,0.003,-0.007,0.026,5,-24.229,-40.66,22.301
703635.6723,3,0.528,9.582,-2.792,4,-0.002,0.018,0.062,5,-25.389,-40.344,22.102
703635.7319,3,1.165,9.537,-2.668,4,0.004,0.025,0.063,5,-25.937,-39.122,20.83
703635.7916,3,1.316,9.609,-2.752,4,-0.004,-0.001,0.059,5,-26.321,-38.713,21.272
703635.8512,3,1.078,9.591,-2.593,4,0.007,0.046,0.021,5,-25.949,-39.601,21.031
703635.9107,3,0.68,9.573,-2.668,4,-0.002,0.02,-0.006,,,,
703635.9703,3,0.506,9.585,-2.602,4,-0.004,-0.025,-0.022,5,-25.821,-39.696,20.831
703636.0299,3,0.257,9.531,-2.595,4,0.001,0.011,-0.02,,,,
703636.0895,3,0.461,9.716,-2.761,4,0.007,0.048,-0.008,5,-24.93,-39.813,21.616
703636.1491,3,0.77,9.621,-2.189,4,0.013,0.096,0.004,5,-24.783,-39.287,21.663
703636.2087,3,0.963,9.647,-2.196,4,0.001,-0.031,0.02,5,-26.651,-41.28,22.731
703636.2683,3,0.851,9.767,-2.623,4,0.005,0.02,0.018,5,-25.647,-40.356,21.12
703636.3279,3,0.243,9.692,-2.453,4,0.001,0.064,0.005,5,-26.315,-40.266,22
703636.3875,3,0.79,9.598,-2.536,4,0.008,-0.032,0.008,5,-25.829,-40.268,20.845
703636.4471,3,0.327,9.616,-2.595,4,-0.01,-0.093,0.023,5,-25.336,-41.959,20.648
703636.5067,3,0.139,9.595,-2.707,4,-0.003,-0.009,0.031,5,-24.637,-40.517,20.795
703636.5663,3,0.309,9.571,-2.477,4,0.009,-0.014,0.052,,,,
703636.6259,3,0.822,9.479,-3.073,4,0.009,-0.092,0.088,5,-26.067,-39.127,21.414
703636.6855,3,1.36,9.454,-3.395,4,0.007,-0.233,0.105,5,-26.022,-39.13,22.821
703636.7451,3,0.932,9.387,-3.454,4,0.003,-0.162,0.088,,,,
703636.8047,3,1.062,9.515,-2.977,4,0.012,-0.08,0.051,5,-26.471,-39.426,23.451
703636.8643,3,0.724,9.443,-3.549,4,0.011,-0.122,0.034,5,-26.384,-39.38,22.726
703636.9239,3,0.782,9.343,-2.798,4,0.021,-0.153,0.014,5,-26.524,-37.77,23.499
703636.9835,3,1.101,9.704,-3.115,4,0.007,-0.18,0.02,5,-27.017,-39.587,23.01
703637.0431,3,1.217,9.359,-3.352,4,0.017,-0.141,0.011,5,-25.639,-39.836,24.181
703637.1027,3,0.897,9.341,-3.268,4,0.018,-0.075,-0.01,,,,
703637.1623,3,0.803,9.2,-3.475,4,-0.013,-0.004,-0.034,5,-25.746,-38.797,23.843
703637.2219,3,0.562,9.548,-3.434,4,-0.026,-0.094,-0.041,5,-24.649,-41.232,24.911
703637.2815,3,1.012,9.448,-3.076,4,-0.011,-0.116,-0.051,5,-25.739,-38.416,24.71
703637.3411,3,0.765,8.845,-3.864,4,-0.013,-0.02,-0.063,5,-25.586,-39.453,23.164
703637.4007,3,1.381,9.139,-3.921,4,-0.013,-0.016,-0.085,5,-26.477,-39.566,23.749
703637.4603,3,0.515,9.666,-4.219,4,0.018,0.255,-0.138,5,-25.981,-41.093,22.865
703637.5199,3,0.426,9.543,-3.733,4,-0.007,0.127,-0.172,5,-25.082,-40.54,22.484
703637.5795,3,-1.827,9.519,-2.172,4,-0.051,-0.16,-0.217,5,-24.771,-40.524,23.166
703637.6391,3,-0.987,9.5,-2.491,4,-0.043,-0.548,-0.185,,,,
703637.6987,3,-0.729,9.494,-2.37,4,-0.027,-0.763,-0.053,5,-23.503,-41.92,23.746
703637.7582,3,-1.417,9.827,-2.421,4,-0.007,-0.575,0.02,,,,
703637.8179,3,-0.783,9.49,-2.695,4,0.025,-0.357,0.084,5,-21.187,-41.441,26.221
703637.8775,3,0.479,9.099,-4.109,4,0.043,-0.167,0.176,5,-22.868,-41.193,25.65
703637.937,3,0.647,9.221,-4.443,4,0.068,0.135,0.194,5,-24.097,-40.421,27.666
703637.9966,3,1.501,8.846,-4.904,4,0.054,0.312,0.151,5,-25.381,-38.551,26.215
703638.0563,3,0.345,9.28,-4.954,4,0.069,0.406,0.066,5,-26.279,-38.817,27.081
703638.1158,3,-0.944,9.108,-3.486,4,0.033,0.499,-0.039,5,-24.619,-40.144,26.363
703638.1754,3,-0.252,9.09,-5.036,4,-0.01,0.007,-0.059,,,,
703638.235,3,0.047,8.997,-5.542,4,0.059,-0.369,-0.037,5,-24.135,-38.908,27.469
703638.2946,3,1.345,9.874,-2.128,4,-0.028,-0.174,0.004,,,,
703638.3542,3,-1.062,10.24,-1.483,4,-0.063,0.619,-0.024,5,-27.542,-39.171,24.649
703638.4138,3,-0.923,11.41,1.178,4,-0.024,1.043,-0.097,5,-27.547,-39.461,24.031
703638.4734,3,0.954,8.709,-2.859,4,-0.031,0.705,-0.101,5,-29.869,-39.984,22.095
703638.533,3,-1.596,9.586,-3.367,4,0.112,0.726,-0.106,5,-29.53,-40.637,21.997
703638.5926,3,1.112,9.526,-2.004,4,-0.125,0.845,-0.122,5,-29.318,-41.057,20.964
703638.6522,3,2.493,8.631,-5.692,4,0.124,0.995,-0.149,5,-31.149,-41.484,19.617
703638.7118,3,-0.306,9.189,-3.336,4,0.31,1.339,-0.335,5,-28.865,-42.662,19.006
703638.7714,3,-0.571,8.65,-2.665,4,0.114,0.933,-0.539,5,-29.018,-45.187,17.365
703638.831,3,-2.823,10.067,-4.549,4,0.134,0.295,-0.573,,,,
703638.8906,3,-0.648,10.036,-2.948,4,0.005,-0.147,-0.507,5,-28.104,-46.303,16.687
703638.9502,3,-0.071,8.744,-3.231,4,-0.087,-1.001,-0.33,5,-24.71,-47.594,18.494
703639.0098,3,-0.428,9.304,-4.64,4,-0.05,-1.191,-0.249,5,-22.388,-47.455,21.599
703639.0694,3,-1.642,9.811,-2.997,4,-0.098,-1.265,-0.158,5,-21.42,-48.007,22.084
703639.129,3,-0.856,9.382,-2.849,4,-0.098,-1.376,-0.046,5,-18.14,-48.344,23.685
703639.1886,3,0.068,8.996,-3.849,4,-0.051,-1.398,0.091,5,-16.101,-46.735,24.944
703639.2482,3,-0.878,9.98,-3.789,4,0.032,-0.884,0.16,5,-16.245,-45.506,26.198
703639.3078,3,-0.972,9.57,-4.64,4,0.063,-0.241,0.149,5,-16.754,-46.42,26.393
703639.3674,3,-0.942,9.556,-2.03,4,0.07,-0.097,0.101,,,,
703639.4269,3,-1.727,9.596,-2.395,4,0.025,-0.253,0.083,5,-16.714,-44.707,26.343
703639.4866,3,-0.682,8.574,-3.318,4,0.031,-0.364,0.102,,,,
703639.5462,3,-0.144,10.045,-2.353,4,0.048,-0.243,0.153,5,-17.844,-45.357,27.112
703639.6057,3,-1.819,9.553,-4.011,4,0.044,0.164,0.146,5,-16.983,-44.626,27.406
703639.6653,3,-2.009,9.271,-3.854,4,0.094,0.049,0.068,5,-16.653,-45.853,27.116
703639.7249,3,-0.595,10.432,-2.741,4,0.056,-0.154,0.099,5,-20.091,-44.077,25.847
703639.7845,3,-1.025,10.506,-3.459,4,0.027,-0.065,0.129,5,-17.259,-44.783,27.974
703639.8441,3,-0.467,8.879,-3.514,4,0.106,0.122,0.096,5,-17.142,-43.677,27.6
703639.9037,3,-0.686,9.476,-1.751,4,0.044,0.144,0.077,,,,
703639.9633,3,-1.169,9.446,-3.821,4,-0.029,0.174,0.045,5,-19.504,-43.826,26.83
703640.0229,3,-1.919,9.142,-3.83,4,0.024,0.178,-0.008,,,,
703640.0825,3,-0.31,10.092,-1.996,4,-0.022,0.095,0.006,5,-20.036,-44.032,26.329
703640.1421,3,-0.196,8.471,-2.394,4,-0.017,-0.072,0.028,5,-20.253,-45.412,25.656
703640.2017,3,-0.98,10.642,-2.991,4,0.022,-0.036,0.001,5,-19.398,-44.678,26.392
703640.2613,3,-0.471,10.186,-2.931,4,-0.024,-0.084,-0.013,5,-20.071,-43.987,27.299
703640.3209,3,-1.11,9.041,-1.963,4,-0.012,-0.25,-0.005,5,-19.055,-45.723,27.158
703640.3805,3,-0.969,9.326,-3.517,4,0.028,-0.273,0.019,5,-19.344,-42.978,27.686
703640.4401,3,-1.233,8.96,-2.826,4,0.064,-0.143,0.068,5,-18.758,-44.673,29.15
703640.4997,3,-0.337,10.037,-2.286,4,0.02,0.043,0.099,5,-18.465,-43.95,28.091
703640.5593,3,-0.635,8.53,-3.708,4,0.049,0.024,0.102,,,,
703640.6189,3,-0.518,9.238,-3.378,4,0.082,-0.057,0.073,5,-18.808,-43.094,27.832
703640.6785,3,-0.194,8.408,-3.722,4,-0.023,0.039,0.102,5,-19.27,-43.675,27.933
703640.7381,3,-0.41,10.855,-1.996,4,-0.005,0.124,0.065,5,-19.855,-43.704,27.293
703640.7977,3,0.258,9.338,-4.037,4,-0.047,0.248,0.044,5,-18.935,-42.671,28.418
703640.8573,3,-0.64,10.595,-2.189,4,0.01,0.131,-0.023,5,-20.262,-44.229,27.348
703640.9169,3,-1.006,8.604,-4.239,4,-0.113,0.143,-0.056,5,-19.244,-42.691,28.706
703640.9765,3,-0.684,9.299,-1.469,4,0.005,-0.079,-0.073,5,-19.632,-43.544,27.235
703641.0361,3,-1.033,8.691,-3.616,4,-0.069,-0.073,-0.065,5,-19.312,-43.584,25.937
703641.0957,3,-1.394,9.046,-0.979,4,0.009,-0.096,-0.069,,,,
703641.1553,3,-0.866,9.878,-2.472,4,-0.046,-0.13,-0.036,5,-20.197,-43.141,27.103
703641.2149,3,-0.443,9.288,-4.263,4,-0.027,-0.182,0.035,5,-19.37,-43.983,27.832
703641.2745,3,-0.887,10.812,-2.753,4,0.076,-0.156,0.034,5,-19.547,-44.202,28.178
703641.3341,3,0.178,9.058,-2.509,4,-0.053,-0.02,0.067,5,-20.076,-43.942,27.065
703641.3937,3,-1.075,8.605,-3.149,4,0.012,-0.083,0.034,5,-20.549,-43.289,28.555
703641.4532,3,-0.903,10.366,-3.048,4,0.018,-0.106,0.048,5,-20.642,-43.291,28.554
703641.5129,3,-0.2,10.516,-2.475,4,-0.011,-0.153,0.114,5,-20.029,-43.752,28.072
703641.5725,3,0.136,8.998,-3.613,4,0.052,-0.033,0.137,5,-19.881,-43.41,28.265
703641.6321,3,0.308,10.039,-0.475,4,0.055,0.132,0.123,,,,
703641.6916,3,-0.124,8.585,-3.275,4,-0.042,0.178,0.089,5,-21.355,-43.399,27.641
703641.7512,3,-1.492,11.373,-2.295,4,0.087,0.338,0.01,,,,
703641.8109,3,-0.77,9.739,-2.623,4,-0.033,0.411,-0.031,5,-20.276,-42.996,27.679
703641.8704,3,-0.201,9.293,-4.123,4,0.037,0.025,-0.063,5,-21.568,-43.068,26.857
703641.93,3,0.881,9.958,-1.113,4,0.059,-0.083,-0.054,5,-20.064,-43.224,27.155
703641.9896,3,-0.276,10.118,-3.471,4,-0.059,-0.118,-0.035,5,-20.145,-43.137,27.246
703642.0492,3,-0.555,8.851,-1.803,4,0.061,-0.167,-0.122,5,-19.63,-44.029,28.56
703642.1082,3,-0.971,9.984,-2.548,4,-0.062,-0.064,-0.106,5,-20.052,-44.756,27.974
703642.1684,3,-1.544,8.687,-1.165,4,-0.061,-0.014,-0.092,,,,
703642.228,3,-1.576,8.837,-3.057,4,-0.03,-0.235,-0.071,5,-18.498,-42.9,28.558
703642.2876,3,-0.4,10.155,-2.781,4,-0.011,-0.426,0.071,,,,
703642.3473,3,0.723,9.225,-0.784,4,0.005,-0.158,0.151,5,-18.636,-44.669,28.607
703642.4068,3,-0.395,10.097,-4.761,4,0.071,0.068,0.14,5,-18.973,-44.11,28.56
703642.4664,3,-0.313,9.217,-1.042,4,0.053,0.219,0.076,5,-20.018,-43.367,28.557
703642.526,3,0.218,11.147,-3.246,4,-0.042,0.041,0.032,5,-19.354,-43.497,29.045
703642.5856,3,-1.389,9.216,-3.833,4,0.04,-0.007,0.028,5,-19.473,-42.973,28.113
703642.6452,3,-0.631,9.433,-1.775,4,0.061,0.004,-0.008,5,-21.918,-42.801,27.299
703642.7048,3,-0.147,10.641,-2.599,4,-0.046,-0.007,0.041,5,-19.614,-43.359,28.558
703642.7644,3,-0.217,8.605,-1.293,4,-0.005,0.154,0.058,5,-20.001,-42.56,27.966
703642.824,3,-0.311,9.445,-2.489,4,0.05,0.24,-0.045,,,,
703642.8836,3,-0.89,10.595,-2.437,4,-0.038,0.147,-0.088,5,-20.261,-44.231,26.625
703642.9432,3,-0.483,9.531,-1.854,4,-0.014,-0.175,-0.077,5,-22.565,-43.945,26.375
703643.0028,3,-1.349,10.371,-4.746,4,0.013,-0.23,-0.041,5,-20.135,-42.561,26.958
703643.0624,3,0.021,9.65,-1.528,4,0.037,-0.165,0.01,5,-19.057,-43.962,27.498
703643.122,3,0.012,9.875,-2.372,4,-0.022,-0.115,0.04,5,-20.07,-45.609,28.76
703643.1816,3,-0.682,9.006,-2.162,4,0.034,0.049,0.049,,,,
703643.2412,3,-0.926,8.977,-2.061,4,-0.001,0.043,0.044,5,-18.515,-43.765,29.286
703643.3008,3,-0.256,10.606,-1.791,4,-0.022,-0.059,0.043,5,-20.349,-44.038,27.789
703643.3604,3,-0.759,8.674,-3.189,4,-0.005,-0.132,0.063,,,,
703643.42,3,-0.929,9.705,-3.505,4,0.091,-0.011,0.052,5,-20.613,-43.916,29.237
703643.4796,3,0.266,10.053,-1.671,4,0.016,0.148,0.047,,,,
703643.5392,3,-0.595,9.098,-3.383,4,-0.012,0.151,0.045,5,-19.333,-42.548,29.044
703643.5988,3,-0.302,10.229,-1.981,4,0.068,0.126,-0.02,5,-21.591,-42.024,28.256
703643.6584,3,-0.694,9.104,-2.029,4,-0.04,0.16,-0.062,5,-20.749,-42.064,27.925
703643.7179,3,-0.547,8.908,-2.619,4,0.001,-0.035,-0.067,5,-20.175,-42.659,28.554
703643.7776,3,-0.018,8.745,-2.42,4,-0.004,-0.116,-0.045,5,-20.399,-42.29,28.116
703643.8372,3,-0.828,9.979,-3.833,4,-0.021,-0.003,-0.028,5,-19.098,-41.826,28.554
703643.8968,3,0.084,10.524,-0.605,4,0,0.095,-0.055,,,,
703643.9564,3,-0.42,9.741,-3.014,4,-0.095,-0.031,-0.041,5,-20.946,-42.725,28.256
703644.016,3,-1.273,9.567,-2.624,4,-0.021,-0.192,-0.052,,,,
703644.0756,3,-0.372,10.568,-1.394,4,-0.072,-0.211,0.007,5,-19.342,-42.876,27.779
703644.1352,3,-1.618,8.671,-4.592,4,-0.035,-0.184,0.049,5,-18.781,-45.723,30.551
703644.1948,3,-1.137,10.445,-1.216,4,0.067,-0.116,0.067,5,-20.662,-42.598,31.45
703644.2544,3,-0.313,11.269,-3.556,4,-0.024,-0.075,0.133,5,-19.864,-42.557,28.021
703644.3139,3,-0.654,7.917,-2.749,4,0.088,0.042,0.128,5,-20.969,-41.87,27.826
703644.3736,3,0.035,10.371,-2.402,4,0.038,0.137,0.081,,,,
703644.4332,3,-0.906,10.103,-2.896,4,0.006,0.18,0.041,5,-20.654,-41.956,27.872
703644.4927,3,-0.928,7.26,-0.98,4,0.05,0.17,0.01,5,-21.509,-40.694,27.348
703644.5523,3,-1.296,10.193,-4.685,4,0.079,0.035,0.009,,,,
703644.6119,3,-0.763,10.005,-2.376,4,0.06,0.152,0.039,5,-21.721,-42.027,27.963
703644.6715,3,0.28,8.2,-2.275,4,0.017,0.18,0.043,5,-21.364,-43.823,27.205
703644.7311,3,-0.599,10.463,-2.414,4,0.038,0.185,0.01,5,-21.352,-43.211,26.566
703644.7907,3,-0.32,10.165,-2.56,4,-0.07,0.316,-0.051,5,-21.091,-43.298,26.663
703644.8503,3,-0.724,9.358,-1.748,4,-0.018,0.244,-0.118,5,-22.459,-43.095,26.129
703644.9099,3,-0.928,8.394,-3.862,4,-0.051,0.253,-0.142,,,,
703644.9695,3,-0.711,9.484,-1.955,4,-0.018,-0.102,-0.163,5,-21.12,-44.441,25.511
703645.0291,3,-0.295,10.377,-2.322,4,-0.088,-0.31,-0.105,5,-20.424,-45.37,27.837
703645.0887,3,-0.265,9.539,-3.407,4,0.009,-0.279,-0.037,,,,
703645.1483,3,-0.562,9.584,-1.135,4,0.007,-0.045,-0.043,5,-20.898,-44.719,27.106
703645.2079,3,-0.513,10.791,-2.734,4,-0.083,-0.039,-0.043,5,-19.397,-45.404,28.56
703645.2675,3,-1.88,9.609,-2.88,4,0.028,-0.201,-0.038,5,-19.749,-46.829,26.578
703645.3271,3,-0.578,8.827,-0.914,4,-0.034,-0.265,0.02,5,-18.796,-44.76,28.561
703645.3867,3,-0.298,10.099,-3.408,4,0.009,-0.235,0.069,5,-19.621,-43.837,29.285
703645.4463,3,-1.085,8.699,-2.051,4,0.102,-0.035,0.107,5,-19.264,-43.26,29.283
703645.5059,3,-0.601,9.471,-3.738,4,0.035,0.009,0.108,5,-20.236,-43.047,29.282
703645.5655,3,-0.035,10.413,-0.728,4,0.084,0,0.107,,,,
703645.6251,3,-0.488,10.248,-3.287,4,-0.031,0.206,0.125,5,-20.296,-43.709,28.699
703645.6847,3,-0.731,8.031,-2.872,4,0.097,0.169,0.037,5,-22.325,-42.616,27.193
703645.7443,3,-0.396,11.032,-1.57,4,-0.024,0.246,0.015,,,,
703645.8039,3,-0.127,9.371,-5.175,4,-0.017,0.142,-0.009,5,-20.677,-43.004,27.101
703645.8635,3,-0.317,10.023,-2.531,4,0.075,0.125,-0.061,5,-21.336,-42.599,27.339
703645.9231,3,-0.471,9.874,-1.46,4,-0.065,0.115,-0.099,5,-19.987,-41.945,27.1
703645.9827,3,-0.195,9.182,-3.047,4,-0.044,0.01,-0.103,5,-21.669,-45.027,25.356
703646.0423,3,-0.529,10.351,-2.99,4,0.002,-0.093,-0.096,5,-20.004,-42.555,25.934
703646.1019,3,-0.375,10.109,-1.417,4,-0.044,-0.037,-0.097,,,,
703646.1615,3,-1.092,9.548,-2.493,4,-0.042,-0.177,-0.098,5,-21.028,-44.72,25.99
703646.2211,3,-1.105,8.977,-3.981,4,0.021,-0.36,-0.063,5,-19.191,-44.104,27.64
703646.2807,3,-0.582,11.059,-1.911,4,0.044,-0.356,0.019,,,,
703646.3402,3,-0.073,7.65,-1.778,4,-0.05,-0.1,0.089,5,-19.357,-43.64,28.558
703646.3999,3,-0.603,11.419,-4.504,4,0.059,-0.132,0.067,5,-19.336,-42.693,28.984
703646.4595,3,-0.81,8.536,0.473,4,0.008,0.002,0.08,5,-19.987,-43.945,29.195
703646.5191,3,-0.384,7.764,-4.683,4,-0.075,-0.096,0.095,5,-19.107,-42.54,28.802
703646.5786,3,-0.947,9.626,-1.645,4,0.138,-0.108,0.097,5,-19.603,-42.548,27.103
703646.6383,3,-0.549,11.406,-2.613,4,-0.058,0.184,0.121,,,,
703646.6979,3,0.132,8.926,-2.824,4,0.05,0.086,0.099,5,-19.568,-41.31,27.827
703646.7574,3,-0.221,8.803,-1.92,4,0.035,0.182,0.075,,,,
703646.817,3,-0.857,10.507,-3.373,4,0.005,0.199,0.028,5,-21.167,-41.164,27.824
703646.8766,3,-0.014,9.613,-1.224,4,-0.011,0.189,0.001,5,-21.555,-42.358,28.307
703646.9362,3,-0.806,7.803,-2.347,4,-0.044,0.113,-0.03,5,-21.243,-40.498,26.421
703646.9958,3,-1.115,12.041,-2.98,4,0.018,0.12,-0.061,5,-20.662,-42.294,27.1
703647.0554,3,-0.324,9.994,-1.417,4,-0.026,0.087,-0.053,5,-20.41,-42.516,26.765
703647.115,3,-0.507,8.305,-4.12,4,0.024,-0.057,-0.054,5,-20.186,-42.557,25.122
703647.1746,3,-0.887,11.978,-1.511,4,0.049,0.039,-0.076,,,,
703647.2342,3,-0.721,9.519,-2.414,4,-0.072,0.068,-0.075,5,-20.831,-43.286,24.733
703647.2938,3,-0.894,7.762,-3.533,4,0.055,-0.111,-0.086,,,,
703647.3534,3,-0.046,11.143,-1.007,4,-0.048,-0.108,-0.05,5,-19.815,-44.733,24.719
703647.413,3,-0.331,8.183,-3.371,4,-0.06,-0.214,-0.018,5,-20.142,-44.601,26.382
703647.4726,3,-1.291,11.505,-3.139,4,0.031,-0.101,-0.015,,,,
703647.5322,3,-0.685,8.986,-0.735,4,-0.107,-0.047,0.018,5,-19.377,-44.441,27.354
703647.5918,3,-0.73,9.291,-1.686,4,-0.028,-0.113,0.024,5,-19.115,-44.519,25.38
703647.6514,3,-1.101,10.166,-1.463,4,-0.026,0.055,0.067,5,-18.048,-44.652,27.737
703647.711,3,-0.842,9.64,-2.462,4,0,-0.054,0.05,5,-18.599,-43.427,28.372
703647.7706,3,0.01,9.449,-2.415,4,0.163,-0.251,0.054,5,-19.102,-43.965,27.835
703647.8302,3,0.061,9.254,-3.21,4,0.005,0.004,0.135,,,,
703647.8898,3,-1.13,8.536,-3.495,4,0.078,0.129,0.053,5,-18.478,-43.707,26.627
703647.9494,3,-0.132,9.721,-0.285,4,0.039,0.224,0.029,5,-20.047,-44.6,27.785
703648.009,3,-0.027,10.407,-2.378,4,-0.133,0.139,0.041,5,-21.104,-43.872,26.521
703648.0686,3,0.267,9.683,-3.112,4,0.02,-0.046,0.024,5,-19.319,-43.913,25.992
703648.1282,3,0.333,9.565,-1.011,4,-0.083,0.08,-0.007,5,-20.02,-43.271,26.909
703648.1878,3,-0.669,8.766,-4.22,4,0.004,-0.18,-0.054,5,-19.373,-43.967,26.385
703648.2474,3,-1.49,11.2,-2.158,4,0.105,-0.071,-0.046,5,-20.21,-43.988,27.106
703648.307,3,-0.701,8.672,-1.586,4,-0.02,0.101,-0.025,5,-20.369,-42.952,28.221
703648.3666,3,-0.578,8.956,-3.289,4,0.1,-0.008,-0.046,,,,
703648.4262,3,-0.3,9.323,-1.073,4,0.023,0.081,-0.01,5,-19.498,-44.067,28.514
703648.4858,3,0.092,8.106,-2.404,4,-0.043,-0.093,-0.037,,,,
703648.5454,3,-1.093,10.054,-2.702,4,0.029,-0.15,-0.024,5,-19.826,-44.446,27.597
703648.605,3,-0.562,10.77,-2.384,4,-0.075,-0.074,0.017,5,-19.362,-43.837,29.146
703648.6646,3,0.301,9.641,-1.371,4,-0.033,-0.097,0.02,5,-19.38,-44.592,28.561
703648.7242,3,-1.062,9.079,-3.512,4,-0.026,-0.044,0.032,5,-19.917,-42.746,28.555
703648.7838,3,-0.709,8.814,-1.377,4,-0.004,-0.098,0.025,5,-19.63,-43.977,27.969
703648.8433,3,-0.345,10.162,-3.183,4,-0.032,-0.138,0.045,5,-21.362,-44.017,26.877
703648.903,3,-0.919,10.56,-3.04,4,0.074,-0.024,0.069,,,,
703648.9626,3,-0.677,8.161,-1.149,4,0.031,0.099,0.054,5,-19.475,-42.551,29.128
703649.0222,3,-0.305,9.086,-2.813,4,0.075,-0.044,0.045,,,,
703649.0818,3,-0.42,10.841,-2.81,4,0.071,0.083,0.089,5,-20.699,-41.814,28.941
703649.1414,3,0.12,4.877,-5.425,4,0.042,0.133,0.05,5,-20.345,-41.855,28.162
703649.201,3,0.26,12.018,1.838,4,0.038,0.154,-0.007,5,-20.618,-40.445,28.546
703649.2606,3,-0.076,10.752,-3.377,4,-0.313,0.194,0.006,5,-19.51,-42.549,27.831
703649.3202,3,-1.441,8.87,-3.178,4,-0.017,-0.075,-0.105,5,-21.017,-44.051,27.104
703649.3798,3,-1.943,8.803,0.962,4,-0.095,-0.013,-0.078,5,-20.859,-44.849,26.529
703649.4393,3,-0.738,10.602,-6.346,4,-0.074,-0.202,-0.003,5,-20.728,-43.246,27.783
703649.499,3,-0.549,10.019,-1.368,4,0.198,-0.169,0.078,5,-21.326,-42.113,27.098
703649.5586,3,-0.455,10.244,-1.899,4,-0.028,0.172,0.118,,,,
703649.6181,3,-0.422,10.686,-0.259,4,0.117,0.032,0.093,5,-22.673,-42.622,26.653
703649.6777,3,-0.781,7.148,-4.97,4,0.049,0.184,0.081,5,-22.609,-43.854,27.1
703649.7373,3,-1.047,12.286,-1.922,4,0.144,0.167,0.047,5,-20.833,-41.956,25.836
703649.7969,3,0.763,9.878,-2.925,4,-0.075,0.25,0.069,5,-21.996,-42.178,26.665
703649.8565,3,-0.573,8.024,-6.548,4,0.083,0.09,0.008,5,-20.422,-41.379,25.891
703649.9161,3,0.025,8.766,3.775,4,0.069,0.373,-0.042,5,-22.624,-40.532,26.367
703649.9757,3,0.728,10.535,-8.289,4,-0.178,0.258,-0.122,5,-22.655,-41.766,25.786
703650.0353,3,-1.476,6.917,-0.766,4,0.212,0.076,-0.19,5,-21.42,-41.823,25.256
703650.0949,3,-0.325,11.998,-1.246,4,-0.145,0.195,-0.224,,,,
703650.1545,3,-0.137,8.534,-2.205,4,-0.076,-0.121,-0.201,5,-19.832,-42.741,24.199
703650.2141,3,-0.022,8.774,-2.821,4,-0.025,-0.209,-0.165,5,-19.36,-43.248,24.203
703650.2737,3,0.539,10.149,-1.389,4,-0.007,-0.284,-0.167,5,-19.704,-43.068,24.391
703650.3333,3,-0.908,9.73,-4.369,4,-0.078,-0.312,-0.119,5,-21.436,-43.259,25.607
703650.3929,3,-2.36,8.518,-1.633,4,0.041,-0.419,-0.148,5,-18.806,-42.674,27.242
703650.4525,3,-2.121,9.827,-1.078,4,-0.083,-0.353,-0.026,5,-18.774,-45.244,26.294
703650.5121,3,-1.239,9.337,-3.706,4,0.032,-0.536,0.135,5,-19.342,-42.534,26.378
703650.5717,3,0.904,16.22,-0.577,4,0.109,-0.307,0.278,5,-20.932,-42.577,25.519
703650.6313,3,0.265,4.616,-2.087,4,0.027,0.012,0.313,,,,
703650.6909,3,-0.898,9.328,-2.29,4,0.219,-0.017,0.23,5,-20.961,-41.246,26.466
703650.7505,3,-0.596,8.173,-1.976,4,-0.028,0.421,0.226,,,,
703650.8101,3,0.165,13.858,-6.18,4,0.003,0.389,0.1,5,-21.053,-41.585,25.645
703650.8697,3,-0.464,7.277,1.647,4,0.089,0.354,0.022,5,-21.082,-41.148,25.653
703650.9293,3,-0.522,10.096,-5.495,4,-0.159,0.258,0.021,5,-23.277,-41.823,26.32
703650.9889,3,-0.335,9.882,-1.031,4,0.091,0.111,0.012,5,-22.121,-41.606,24.483
703651.0485,3,-0.019,9.075,-2.855,4,0.005,0.35,-0.005,5,-22.34,-41.518,25.255
703651.1081,3,-1.082,8.564,-2.848,4,0.007,0.446,-0.111,5,-21.167,-42.77,22.942
703651.1677,3,0.288,10.706,-1.158,4,-0.039,0.246,-0.176,,,,
703651.2273,3,0.147,10.413,-3.462,4,-0.037,0.074,-0.162,5,-21.338,-42.397,23.468
703651.2869,3,-0.516,8.867,-2.793,4,-0.005,0.141,-0.194,,,,
703651.3465,3,0.411,9.978,-0.411,4,-0.083,-0.072,-0.219,5,-22.972,-43.285,21.036
703651.4061,3,-0.513,9.145,-3.974,4,-0.046,-0.408,-0.185,5,-18.855,-44.366,21.594
703651.4657,3,-1.876,9.683,-2.992,4,0.025,-0.4,-0.148,5,-18.152,-45.222,23.436
703651.5253,3,0.403,9.886,0.081,4,-0.061,-0.426,-0.075,5,-19.191,-45.859,22.746
703651.5849,3,-0.355,8.793,-3.68,4,0.019,-0.473,-0.005,5,-18.472,-45.502,23.775
703651.6445,3,-0.847,9.204,-1.782,4,0.067,-0.312,0.046,5,-17.984,-45.547,22.954
703651.704,3,0.014,10.827,-0.916,4,-0.057,-0.329,0.069,5,-18.001,-46.161,24.21
703651.7636,3,-0.615,9.298,-4.124,4,0.059,-0.388,0.126,5,-19.02,-45.813,25.374
703651.8233,3,-0.782,8.135,-2.473,4,0.044,-0.089,0.155,,,,
703651.8829,3,-0.458,10.945,-1.179,4,0.023,-0.037,0.146,5,-19.664,-47.295,25.188
703651.9424,3,-1.28,10.684,-5.104,4,0.017,0.045,0.161,5,-20.026,-45.508,25.607
703652.002,3,-1.205,7.535,-1.814,4,0.092,0.123,0.122,5,-21.059,-47.432,25.519
703652.0617,3,-0.993,9.874,-0.027,4,0.011,0.146,0.135,5,-20.438,-47.94,26.053
703652.1213,3,-1.377,10.294,-4.853,4,0.019,0.213,0.154,5,-21.655,-48.433,25.189
703652.1809,3,-1.781,8.838,-0.497,4,0.118,0.287,0.124,5,-22.772,-46.899,25.655
703652.2405,3,0.71,10.246,-1.335,4,-0.05,0.29,0.131,5,-23.938,-47.269,27.451
703652.3,3,0.587,8.972,-3.722,4,0.035,0.241,0.118,5,-24.1,-46.643,27.406
703652.3597,3,-0.391,7.11,-2.195,4,0.058,0.508,-0.013,,,,
703652.4193,3,-0.237,10.831,-1.87,4,-0.014,0.516,-0.144,5,-24.791,-47.618,25.7
703652.4789,3,-0.693,10.36,-3.042,4,-0.045,0.333,-0.207,,,,
703652.5384,3,-1.043,8.829,-3.324,4,0.063,0.03,-0.285,5,-22.801,-48.332,27.84
703652.598,3,-0.467,7.167,-0.753,4,-0.053,-0.139,-0.27,5,-21.896,-49.738,28.711
703652.6577,3,-0.394,10.141,-3.754,4,-0.052,-0.507,-0.159,5,-20.215,-48.082,30.45
703652.7172,3,-0.273,10.464,-2.398,4,0.033,-0.402,-0.072,5,-19.601,-46.837,31.094
703652.7768,3,0.835,9.46,-1.66,4,-0.075,-0.209,-0.008,5,-18.755,-46.529,29.294
703652.8364,3,-0.328,8.797,-1.173,4,-0.008,-0.281,0.006,5,-19.185,-46.344,30.264
703652.896,3,-1.797,9.976,-4.693,4,0.018,-0.171,0.014,,,,
703652.9556,3,-0.022,9.598,0.07,4,0.011,-0.204,0.035,5,-18.57,-44.238,30.598
703653.0152,3,-0.629,9.206,-4.487,4,-0.03,-0.242,0.092,,,,
703653.0748,3,-1.349,8.837,-0.36,4,0.099,-0.038,0.107,5,-19.04,-43.253,28.452
703653.1344,3,-0.629,10.713,-2.885,4,-0.069,0.269,0.076,5,-18.698,-44.095,30.211
703653.194,3,-0.944,10.154,-4.258,4,0.085,0.055,0.036,5,-18.019,-43.227,28.563
703653.2536,3,-0.592,8.997,-1.156,4,0.005,0.127,-0.006,5,-19.838,-43.083,28.94
703653.3132,3,0.644,11.084,-3.495,4,-0.067,-0.155,-0.012,5,-18.336,-41.893,28.513
703653.3728,3,-0.266,9.113,-3.888,4,0.049,-0.268,0.035,5,-18.251,-41.803,27.396
703653.4324,3,-1.55,9.241,-1.894,4,0.009,-0.257,0.024,5,-18.707,-42.485,28.555
703653.492,3,-0.558,9.704,-2.3,4,-0.038,-0.163,0.078,5,-18.66,-42.29,28.075
703653.5516,3,-1.532,9.877,-2.469,4,0.004,0.054,0.104,,,,
703653.6112,3,-1.639,7.526,-0.377,4,0.027,0.106,0.086,5,-19.481,-42.978,27.982
703653.6708,3,-0.084,13.042,-3.499,4,-0.032,0.026,0.142,5,-19.429,-42.639,26.477
703653.7304,3,-0.06,8.821,-2.264,4,0.059,0.092,0.178,5,-20.615,-43.91,27.737
703653.79,3,-0.354,8.313,-2.567,4,0.02,0.311,0.113,5,-19.85,-41.975,26.95
703653.8496,3,-0.014,8.93,-1.469,4,0.035,0.242,0.042,5,-21.805,-43.553,25.412
703653.9092,3,-0.658,11.547,-5,4,0.034,0.237,0.024,,,,
703653.9688,3,-0.528,8.874,-3.132,4,0.097,0.27,-0.031,5,-22.523,-41.466,23.889
703654.0284,3,-0.634,9.762,-1.554,4,-0.024,0.368,-0.093,5,-20.615,-42.241,25.986
703654.088,3,-1.283,9.417,-3.021,4,0.009,0.158,-0.142,,,,
703654.1476,3,-0.546,8.938,-2.028,4,-0.033,0.099,-0.14,5,-21.158,-42.584,26.375
703654.2072,3,0.316,11.141,-2.756,4,-0.009,0.011,-0.144,5,-20.023,-43.28,27.826
703654.2668,3,-0.037,9.349,-2.943,4,0.003,-0.026,-0.137,5,-20.872,-43.666,25.844
703654.3264,3,-0.527,8.558,-2.998,4,-0.057,-0.118,-0.153,5,-19.063,-44.293,25.7
703654.386,3,0.931,9.002,0.428,4,-0.039,-0.275,-0.162,5,-18.697,-43.817,26.236
703654.4456,3,-1.946,10.892,-4.656,4,-0.093,-0.331,-0.117,5,-17.471,-44.72,24.301
703654.5052,3,-0.92,8.376,-1.458,4,0.009,-0.384,-0.081,5,-17.389,-44.632,26.147
703654.5648,3,-0.455,9.012,-1.806,4,-0.054,-0.306,0.026,5,-18.721,-44.948,27.403
703654.6243,3,-1.365,7.885,-2.448,4,0.043,-0.119,0.085,,,,
703654.6834,3,-0.858,11.561,-2.222,4,0.007,-0.082,0.125,5,-16.087,-42.648,27.296
703654.7436,3,0.595,8.499,-3.167,4,0.023,-0.287,0.129,,,,
703654.8032,3,0.621,9.81,-1.279,4,0.053,-0.242,0.181,5,-17.612,-42.635,27.531
703654.8627,3,-1.074,9.843,-3.5,4,-0.017,-0.03,0.141,5,-16.446,-42.474,28.316
703654.9223,3,-1.497,8.676,-1.779,4,0.115,0,0.061,5,-17.438,-43.166,29.81
703654.982,3,-1.071,9.225,-2.221,4,-0.008,0.067,0.11,5,-18.117,-41.945,28.854
703655.0415,3,-1.04,10.769,-4.223,4,0.097,0.167,0.125,5,-18.373,-41.093,27.438
703655.1011,3,0.298,9.57,-0.72,4,0.067,0.266,0.12,,,,
703655.1607,3,0.308,8.737,-3.874,4,0.004,0.096,0.09,5,-19.666,-41.321,28.297
703655.2203,3,-0.073,10.089,-1.929,4,0.055,0.126,0.052,5,-18.166,-41.946,25.844
703655.2799,3,-0.452,9.385,-1.563,4,-0.096,0.263,0.012,,,,
703655.3395,3,-1.54,10.174,-3.119,4,0.007,0.168,-0.046,5,-17.63,-42.189,26.75
703655.3991,3,-0.252,10.213,-2.49,4,0.029,0.094,-0.058,5,-19.542,-39.134,26.941
703655.4587,3,-0.453,8.796,-2.208,4,-0.031,0.043,-0.024,5,-19.983,-39.703,26.369
703655.5183,3,-0.538,9.123,-1.922,4,0.07,0.007,-0.01,5,-20.86,-41.153,26.372
703655.5779,3,-0.169,9.945,-3.108,4,-0.01,0.128,0.008,5,-20.503,-40.855,26.079
703655.6375,3,0.296,10.107,-2.432,4,-0.004,0.147,-0.015,,,,
703655.6971,3,-0.413,10.628,-3.632,4,0.076,0.147,-0.044,5,-19.643,-40.59,24.477
703655.7567,3,-1.048,9.521,-1.644,4,0.001,0.248,-0.09,5,-19.189,-42.108,25.94
703655.8163,3,-0.745,8.667,-3.634,4,-0.025,0.163,-0.133,,,,
703655.8759,3,-0.785,10.749,-1.144,4,0.007,0.022,-0.125,5,-19.536,-41.589,24.924
703655.9355,3,-0.371,12.408,-4.862,4,-0.078,0.019,-0.115,5,-19.292,-42.487,24.977
703655.9951,3,-0.253,8.794,-1.3,4,0.071,-0.136,-0.129,5,-19.78,-44.128,25.653
703656.0547,3,0.108,9.365,-2.665,4,-0.072,-0.1,-0.075,5,-18.694,-43.567,25.266
703656.1143,3,-1.042,10.706,-4.433,4,-0.016,-0.1,-0.074,5,-17.839,-43.216,25.792
703656.1739,3,-0.814,10.114,-0.649,4,0.006,-0.059,-0.058,,,,
703656.2335,3,-0.713,10.186,-2.864,4,-0.094,-0.135,0.002,5,-17.868,-42.877,25.311
703656.2931,3,0.105,10.607,-3.557,4,-0.008,-0.17,0.033,,,,
703656.3527,3,0.328,7.856,-1.335,4,0.024,-0.122,0.045,5,-17.972,-41.808,25.65
703656.4123,3,0.338,10.481,-4.174,4,-0.02,-0.102,0.06,5,-15.498,-41.881,26.482
703656.4719,3,-0.884,11.77,-2.828,4,0.027,-0.048,0.013,,,,
703656.5315,3,-0.835,9.189,-2.545,4,-0.006,-0.066,0.006,5,-18.437,-42.043,25.65
703656.5911,3,-0.699,6.957,-2.335,4,0.012,-0.16,0.036,5,-18.245,-41.376,26.376
703656.6507,3,-1.122,12.927,-2.871,4,-0.008,-0.046,0.042,5,-18.001,-42.509,26.805
703656.7103,3,-0.988,9.395,-3.199,4,-0.035,0.004,0.073,5,-19.73,-41.933,27.452
703656.7699,3,-0.382,9.541,-0.718,4,-0.04,-0.041,0.112,5,-17.842,-41.078,26.088
703656.8295,3,0.288,10.583,-2.553,4,-0.016,0.016,0.12,,,,
703656.8891,3,-0.301,9.598,-2.258,4,0.005,0.126,0.118,5,-18.886,-42.047,25.414
703656.9487,3,-1.007,10.138,-3.63,4,0.067,0.072,0.053,5,-18.619,-40.382,26.375
703657.0083,3,-1.074,8.549,-1.094,4,0.083,0.082,0.002,,,,
703657.0679,3,-0.149,7.407,-3.459,4,-0.041,0.149,0.016,5,-18.935,-40.674,27.153
703657.1275,3,-0.742,14.014,-1.869,4,0.087,0.105,-0.014,5,-18.61,-39.861,24.921
703657.187,3,-1.116,10.201,-2.414,4,-0.095,0.302,-0.028,5,-20.023,-43.265,24.925
703657.2467,3,-0.056,6.631,-4.581,4,0.024,0.062,-0.093,5,-19.009,-42.007,25.995
703657.3063,3,-0.171,8.971,1.271,4,0.003,-0.116,-0.059,5,-18.999,-42.526,24.553
703657.3658,3,0.138,11.206,-4.901,4,-0.114,-0.065,0,,,,
703657.4255,3,-0.16,9.409,-1.829,4,0.106,0.044,-0.011,5,-18.642,-43.185,24.879
703657.4851,3,0.822,13.558,-1.689,4,-0.046,0.121,-0.067,,,,
703657.5447,3,-1.79,8.785,-3.03,4,-0.035,-0.04,-0.094,5,-18.912,-43.24,24.681
703657.6043,3,-2.12,9,-2.264,4,-0.009,0.002,-0.117,5,-17.894,-43.367,25.07
703657.6639,3,-0.913,9.103,-2.989,4,-0.023,-0.209,-0.151,5,-18.408,-43.129,25.027
703657.7235,3,0.073,12.399,-2.521,4,-0.003,-0.409,-0.019,5,-16.098,-42.461,26.274
703657.783,3,-0.479,8.681,-3.829,4,0.036,-0.233,0.071,5,-16.93,-41.94,26.979
703657.8427,3,0.08,8.38,-1.288,4,0.111,-0.068,0.041,5,-16.463,-42.952,25.67
703657.9023,3,-1.161,11.551,-2.04,4,-0.037,0.117,0.018,,,,
703657.9618,3,-0.253,8.528,-3.107,4,-0.027,-0.072,-0.004,5,-16.255,-42.328,26.965
703658.0214,3,-0.389,9.1,-0.868,4,0.064,-0.297,-0.035,,,,
703658.0811,3,0.031,11.251,-2.482,4,-0.072,-0.272,0.056,5,-17.834,-42.45,24.821
703658.1406,3,-1.249,7.947,-3.667,4,0.03,-0.181,0.124,5,-15.689,-42.455,27.306
703658.2002,3,-1.131,7.999,-1.266,4,0.129,-0.013,0.105,5,-16.646,-41.766,27.104
703658.2598,3,-0.862,12.192,-2.404,4,-0.082,0.163,0.14,5,-17.146,-41.962,25.845
703658.3194,3,-0.16,8.18,-3.18,4,-0.067,0.133,0.143,5,-17.999,-42.511,27.147
703658.379,3,-1.417,9.476,-1.808,4,0.073,0.147,0.05,5,-17.184,-42.075,26.23
703658.4386,3,-0.649,10.524,-0.445,4,-0.072,0.299,0.012,5,-18.568,-43.898,25.656
703658.4982,3,0.108,9.991,-4.693,4,-0.046,-0.092,0.018,5,-16.275,-44.601,26.385
703658.5578,3,-0.665,9.188,-3.092,4,0.138,-0.206,0.014,,,,
703658.6174,3,0.289,9.57,-0.827,4,-0.102,0.12,0.027,5,-17.87,-42.216,25.652
703658.6764,3,-0.862,8.68,-4.015,4,0.027,-0.029,-0.003,5,-18.425,-43.848,26.909
703658.7366,3,-0.545,10.78,-0.091,4,0.084,0.095,0.023,5,-18.42,-43.846,26.282
703658.7962,3,-1.73,9.299,-3.233,4,-0.064,0.209,0.006,5,-18.814,-43.533,26.974
703658.8558,3,-1.08,9.153,-2.653,4,0.111,-0.051,0.018,5,-18.459,-43.236,27.588
703658.9154,3,-0.301,12.435,-2.922,4,-0.013,0.045,0.076,5,-18.018,-43.275,26.436
703658.975,3,-0.307,8.216,-2.508,4,0.066,0.109,0.075,5,-17.995,-42.216,25.938
703659.0346,3,-0.274,9.929,-2.422,4,0.024,0.223,0.021,5,-18.694,-43.567,25.655
703659.0942,3,-0.848,9.433,-2.128,4,-0.008,0.165,-0.029,,,,
703659.1538,3,-1.071,9.135,-2.792,4,-0.013,0.185,-0.058,5,-19.652,-42.874,25.848
703659.2134,3,-0.467,8.889,-3.521,4,0.031,0.032,-0.065,5,-18.654,-41.82,26.369
703659.273,3,-0.001,10.519,-1.57,4,-0.004,-0.005,-0.029,5,-18.362,-42.888,24.739
703659.3326,3,-0.187,8.569,-2.645,4,-0.026,0.166,-0.026,5,-18.694,-43.581,25.307
703659.3922,3,-0.635,8.914,-2.196,4,0.043,0.173,-0.097,5,-19.882,-43.266,25.922
703659.4518,3,-0.101,11.574,-2.707,4,-0.02,0.094,-0.105,5,-18.138,-44.551,24.207
703659.5114,3,-0.476,8.192,-2.894,4,-0.045,-0.01,-0.089,5,-18.256,-43.698,25.415
703659.571,3,-0.617,8.876,-3.466,4,0.013,-0.1,-0.102,5,-18.97,-44.238,23.782
703659.6306,3,0.336,11.554,-0.043,4,-0.096,-0.008,-0.089,,,,
703659.6902,3,-1.064,8.342,-4.73,4,-0.096,-0.121,-0.072,5,-17.892,-45.264,25.659
703659.7497,3,-0.57,9.736,0.171,4,0.062,-0.183,-0.07,,,,
703659.8094,3,-0.408,9.53,-4.178,4,-0.121,-0.012,-0.036,5,-16.328,-45.317,25.377
703659.869,3,-0.634,9.717,-1.738,4,0.114,-0.203,-0.056,5,-16.492,-44.376,25.424
703659.9286,3,-0.686,10.062,-3.561,4,-0.053,-0.134,0.024,5,-14.851,-44.569,25.565
703659.9882,3,-0.162,9.542,-2.541,4,0.077,-0.211,0.02,5,-16.196,-45.171,25.369
703660.0478,3,-1.191,6.063,-0.621,4,0.022,-0.071,0.054,5,-16.383,-45.702,25.717
703660.1074,3,0.013,12.044,-3.125,4,0.011,-0.046,0.04,5,-15.715,-43.556,27.643
703660.167,3,-0.455,8.786,-2.067,4,-0.03,-0.035,0.087,,,,
703660.2266,3,-1.229,9.397,-3.34,4,0.03,-0.099,0.072,5,-15.173,-43.343,27.075
703660.2861,3,0.153,11.49,-1.676,4,0.048,0,0.092,,,,
703660.3457,3,-0.83,9.627,-4.806,4,-0.037,0.083,0.108,5,-17.656,-43.582,25.336
703660.4054,3,-1.05,7.966,-1.831,4,0.112,0.114,0.047,5,-17.244,-44.63,26.81
703660.465,3,0.591,10.83,-0.784,4,-0.058,0.185,0.017,5,-16.728,-45.282,27.019
703660.5245,3,-0.617,7.632,-6.045,4,-0.03,0.072,-0.014,5,-17.592,-44.164,27.113
703660.5841,3,-0.246,11.695,-0.77,4,0.106,0.087,-0.063,5,-15.106,-44.426,26.097
703660.6437,3,0.362,9.812,-4.065,4,-0.159,0.063,-0.08,5,-16.519,-43.993,25.034
703660.7033,3,-0.509,7.927,-0.245,4,0.024,-0.141,-0.104,5,-17.134,-45.247,26.295
703660.7629,3,-1.407,10.854,-3.706,4,-0.131,-0.088,-0.1,5,-15.958,-46.17,25.38
703660.8225,3,-0.391,9.827,0.072,4,0.039,-0.3,-0.091,,,,
703660.8821,3,-1.443,8.984,-3.635,4,-0.089,-0.227,0,5,-14.082,-46.219,26.16
703660.9417,3,-0.156,9.998,-1.894,4,0.1,-0.312,0.012,5,-14.647,-45.949,28.522
703661.0013,3,-0.307,9.636,-1.744,4,-0.052,-0.152,0.118,5,-15.001,-45.29,27.261
703661.0609,3,-0.105,10.882,-1.843,4,0.104,-0.164,0.089,5,-15.485,-44.972,27.277
703661.1205,3,-1.559,10.945,-4.538,4,0.057,-0.012,0.12,5,-16.057,-45.27,29.826
703661.1801,3,-0.719,7.597,-1.846,4,0.09,-0.058,0.122,5,-16.026,-43.892,28.566
703661.2397,3,-0.107,10.284,-3.196,4,0.053,-0.048,0.145,5,-17.331,-44.072,28.181
703661.2993,3,-0.144,8.876,-1.586,4,0.018,0.201,0.143,5,-15.691,-43.198,27.838
703661.3589,3,-1.232,10.009,-3.046,4,-0.049,0.224,0.088,,,,
703661.4185,3,-0.581,10.997,-1.95,4,0.035,0.117,0.022,5,-17.419,-42.546,28.464
703661.4781,3,-0.893,9.201,-2.56,4,-0.093,0.18,0,,,,
703661.5377,3,-1.372,10.771,-1.905,4,0.008,0.061,-0.04,5,-18.692,-43.715,28.32
703661.5973,3,-1.282,10.063,-2.413,4,-0.004,0.021,-0.019,5,-17.363,-43.779,25.519
703661.6569,3,-0.339,10.873,-3.131,4,0.056,0.077,-0.011,5,-15.295,-45.107,29.398
703661.7165,3,-0.704,5.622,-1.085,4,0.079,0.104,-0.029,5,-16.438,-43.895,26.224
703661.7761,3,-0.672,13.637,-5.812,4,0.062,0.113,-0.053,5,-18.163,-43.507,26.094
703661.8357,3,-0.283,5.35,-1.017,4,0.008,0.197,-0.058,5,-18.248,-43.477,26.863
703661.8953,3,-0.385,9.988,-2.526,4,-0.113,-0.039,-0.125,,,,
703661.9549,3,0.167,9.09,0.247,4,-0.109,-0.033,-0.096,5,-17.378,-44.492,26.102
703662.0145,3,-0.686,10.472,-6.525,4,-0.134,-0.127,-0.1,,,,
703662.0741,3,-1.363,9.543,-1.279,4,0.121,-0.194,-0.107,5,-15.982,-43.831,25.658
703662.1337,3,-0.615,8.143,-0.307,4,-0.081,-0.186,-0.049,5,-18.233,-44.45,22.557
703662.1933,3,-0.487,11.375,-0.918,4,-0.063,-0.189,0.01,5,-16.045,-44.601,27.112
703662.2529,3,-1.22,10.875,-3.675,4,0.011,-0.263,0.059,5,-15.05,-44.051,26.924
703662.3125,3,-1.574,8.751,-1.213,4,0.112,-0.176,0.129,5,-14.745,-44.569,27.083
703662.3721,3,-0.287,9.183,-2.504,4,0.085,-0.11,0.205,5,-16.431,-43.755,27.258
703662.4317,3,-0.428,10.936,-1.346,4,0.092,0.045,0.26,5,-16.113,-41.846,27.155
703662.4913,3,-0.605,8.829,-6.565,4,0.117,0.318,0.224,5,-18.227,-42.751,26.855
703662.5509,3,-0.679,7.802,-0.424,4,0.177,0.489,0.101,,,,
703662.6105,3,0.091,11.731,-3.647,4,-0.1,0.532,0.009,5,-18.648,-41.096,26.375
703662.6695,3,-0.79,6.582,-0.502,4,0.031,0.306,-0.096,5,-19.972,-41.228,26.175
703662.7297,3,-0.202,11.455,-4.379,4,-0.046,0.084,-0.14,5,-18.828,-41.812,25.555
703662.7893,3,0.357,8.341,-1.691,4,0.026,0.028,-0.135,5,-20.091,-40.271,25.357
703662.8489,3,-0.543,7.937,-3.636,4,-0.056,0.106,-0.168,5,-18.849,-40.393,24.927
703662.9084,3,-0.526,11.762,0.992,4,-0.031,0.114,-0.196,5,-19.403,-43.932,25.551
703662.9681,3,-0.656,9.578,-4.325,4,-0.199,-0.033,-0.19,5,-17.398,-43.767,25.2
703663.0277,3,-0.925,7.915,-2.871,4,0.075,-0.405,-0.174,5,-17.96,-42.833,24.986
703663.0872,3,-0.503,10.958,-0.613,4,-0.129,-0.283,-0.066,,,,
703663.1468,3,0.248,9.217,-2.761,4,-0.12,-0.451,0.016,5,-17.239,-43.396,25.131
703663.2064,3,-1.15,8.833,-2.767,4,-0.002,-0.307,0.08,5,-15.353,-43.161,27.106
703663.266,3,-0.207,10.232,-2.328,4,0.014,-0.182,0.066,5,-17.342,-42.87,26.724
703663.3256,3,-1.09,8.694,-2.032,4,0.047,-0.141,0.102,5,-17.342,-42.865,25.655
703663.3852,3,-1.275,11.094,-5.173,4,0.068,-0.048,0.125,5,-16.676,-43.042,26.534
703663.4448,3,-0.594,8.274,-0.116,4,0.086,0.081,0.142,5,-16.04,-42.459,26.428
703663.5044,3,-0.465,8.653,-3.125,4,0.019,0.067,0.12,5,-18.452,-42.755,25.412
703663.5641,3,0.371,11.036,-1.304,4,0.121,0.091,0.141,5,-17.886,-43.217,25.8
703663.6237,3,0.284,9.427,-3.072,4,-0.027,0.239,0.122,,,,
703663.6832,3,-1.191,8.446,-3.21,4,0.158,0.25,0.001,5,-17.593,-42.589,25.748
703663.7428,3,-0.249,9.854,-1.093,4,-0.031,0.322,-0.047,,,,
703663.8025,3,0.099,9.42,-3.92,4,-0.041,0.094,-0.067,5,-18.922,-42.101,26.682
703663.862,3,-0.696,11.303,-2.276,4,0.044,0.024,-0.096,5,-19.78,-42.072,26.123
703663.9216,3,-0.16,7.828,-2.62,4,-0.058,0.081,-0.121,5,-18.623,-42.575,27.005
703663.9812,3,-0.48,9.618,-3.007,4,0.024,-0.083,-0.119,5,-16.946,-43.195,25.655
703664.0408,3,-0.006,9.516,-0.638,4,-0.026,-0.022,-0.103,5,-16.309,-42.467,26.045
703664.1004,3,-0.216,9.348,-1.992,4,-0.098,-0.134,-0.081,5,-16.029,-43.886,26.387
703664.16,3,-0.736,9.74,-3.486,4,-0.018,-0.316,-0.06,,,,
703664.2196,3,-0.345,10.206,-0.73,4,-0.002,-0.281,-0.007,5,-14.853,-43.106,26.578
703664.2792,3,-0.396,9.941,-2.881,4,-0.048,-0.235,0.05,,,,
703664.3388,3,-0.662,10.283,-3.544,4,0.049,-0.178,0.06,5,-14.696,-42.43,27.493
703664.3984,3,-0.014,9.439,-1.406,4,0.021,-0.014,0.071,5,-17.061,-42.484,25.653
703664.458,3,-0.282,10.082,-2.654,4,-0.002,-0.023,0.067,5,-15.385,-43.115,27.699
703664.5176,3,-1.379,9.422,-1.47,4,0.049,-0.007,0.03,5,-15.788,-42.931,25.899
703664.5772,3,-0.399,9.728,-2.753,4,-0.026,-0.078,0.05,5,-16.142,-43.179,27.557
703664.6368,3,-0.248,6.259,-1.11,4,0.077,-0.279,0.073,,,,
703664.6964,3,-0.244,10.488,-4.602,4,0.06,-0.056,0.106,5,-15.984,-41.942,27.834
703664.756,3,-0.755,10.068,-3.32,4,0.105,0.077,0.122,5,-17.493,-43.64,27.69
703664.8156,3,-0.04,9.342,-3.269,4,-0.026,0.114,0.103,,,,
703664.8752,3,-0.399,8.877,1.621,4,0,0.127,0.069,5,-14.546,-46.948,29.057
703664.9348,3,-0.636,10.796,-3.49,4,-0.158,0.134,0.056,5,-15.488,-43.21,26.436
703664.9944,3,-1.246,9.228,-3.167,4,0.057,0.061,0.026,5,-17.351,-43.347,27.109
703665.054,3,-0.778,9.389,-1.325,4,0.005,0.118,0.048,5,-18.327,-43.231,27.106
703665.1136,3,-0.526,7.84,-2.732,4,-0.011,-0.075,0.082,5,-18.082,-43.744,26.578
703665.1732,3,0.26,10.698,-0.931,4,0.055,-0.044,0.141,,,,
703665.2328,3,-0.427,9.549,-4.302,4,0.011,0.255,0.164,5,-19.003,-41.821,27.637
703665.2924,3,-0.22,8.703,-1.756,4,0.128,0.472,0.067,5,-19.336,-42.542,26.762
703665.352,3,-0.539,10.682,-2.181,4,-0.06,0.538,-0.043,,,,
703665.4116,3,-0.018,7.855,-1.427,4,0.019,0.226,-0.11,5,-19.339,-42.584,25.697
703665.4712,3,-0.434,12.467,-4.175,4,-0.049,0.103,-0.13,,,,
703665.5308,3,0.436,9.071,-1.728,4,-0.001,-0.031,-0.159,5,-20.703,-43.991,25.414
703665.5904,3,-0.347,10.176,-3.789,4,-0.011,-0.078,-0.158,5,-18.855,-44.527,25.656
703665.65,3,0.278,9.737,-0.324,4,-0.022,-0.029,-0.172,5,-17.929,-43.315,25.458
703665.7096,3,-0.558,9.541,-3.536,4,-0.088,-0.088,-0.162,5,-16.22,-44.508,25.475
703665.7692,3,-0.614,9.547,-2.701,4,0.033,-0.187,-0.179,5,-16.727,-45.195,26.39
703665.8288,3,-0.392,11.228,-1.345,4,-0.081,-0.226,-0.131,,,,
703665.8884,3,-0.561,8.55,-3.413,4,-0.017,-0.382,-0.058,5,-15.605,-44.589,25.909
703665.948,3,-0.298,11.597,-2.228,4,0.014,-0.376,0.01,5,-14.716,-44.856,26.828
703666.0076,3,0.127,9.023,-1.429,4,-0.022,-0.31,0.078,,,,
703666.0671,3,-0.649,9.76,-3.628,4,0.073,-0.286,0.117,5,-14.304,-42.421,27.167
703666.1268,3,-0.495,9.982,-0.582,4,0.044,-0.072,0.138,5,-15.033,-42.824,26.582
703666.1864,3,-0.81,9.582,-4.104,4,-0.024,-0.134,0.168,5,-15.349,-43.161,27.843
703666.2459,3,-0.767,8.719,-1.386,4,0.134,-0.12,0.18,5,-16.689,-43.718,28.22
703666.3055,3,-0.254,11.026,-1.143,4,-0.026,0.108,0.228,5,-16.934,-42.146,25.742
703666.3651,3,-0.825,9.425,-2.966,4,0.042,0.146,0.227,,,,
703666.4248,3,-0.465,11.574,-3.342,4,0.09,0.263,0.199,5,-19.177,-41.251,27.827
703666.4843,3,-0.025,8.794,0.059,4,0.031,0.382,0.167,5,-18.884,-42.055,26.857
703666.5439,3,-0.083,10.555,-5.963,4,-0.008,0.371,0.123,,,,
703666.6035,3,-0.468,7.403,0.134,4,0.126,0.571,0.027,5,-20.009,-42.844,26.227
703666.6625,3,-1.368,9.733,-3.904,4,-0.125,0.797,-0.114,5,-22.075,-41.568,25.545
703666.7227,3,-1.069,9.736,-1.855,4,0.017,0.344,-0.255,5,-20.372,-43.367,24.295
703666.7823,3,-0.33,10.429,-2.383,4,-0.112,0.099,-0.258,5,-19.232,-43.962,25.369
703666.8419,3,-0.017,9.57,-3.041,4,0.018,-0.056,-0.242,5,-18.452,-42.516,25.171
703666.9015,3,-0.485,10.326,-2.733,4,0.022,0.038,-0.241,,,,
703666.9611,3,-0.601,9.052,-0.81,4,-0.015,0.105,-0.25,5,-19.008,-45.815,25.375
703667.0207,3,-0.361,8.642,-1.578,4,-0.051,-0.17,-0.247,,,,
703667.0803,3,-0.748,10.522,-0.931,4,-0.059,-0.44,-0.174,5,-17.709,-45.299,25.61
703667.1399,3,-1.007,9.523,-3.261,4,-0.086,-0.483,-0.058,5,-16.391,-46.033,25.861
703667.1995,3,-0.546,10.132,-3.813,4,0.058,-0.584,0.055,5,-14.05,-44.547,24.947
703667.2591,3,0.066,9.355,-1.186,4,0.046,-0.121,0.13,5,-15.654,-42.828,27.647
703667.3187,3,-0.855,10.586,-3.84,4,0.061,0.219,0.078,5,-16.022,-43.555,26.772
703667.3783,3,-1.407,10.071,-0.765,4,0.044,0.195,0.045,5,-14.935,-42.578,26.385
703667.4379,3,0.234,9.098,-4.642,4,-0.021,0.041,0.006,5,-16.014,-43.173,26.384
703667.4975,3,0.27,8.379,-1.017,4,0.09,-0.049,-0.005,5,-15.807,-43.636,25.414
703667.5571,3,0.259,9.689,-2.193,4,-0.101,-0.131,-0.043,,,,
703667.6167,3,0.164,11.646,-1.435,4,0.038,-0.251,-0.046,5,-14.964,-43.861,26.529
703667.6763,3,-1.905,13.035,-4.801,4,-0.08,-0.087,-0.045,5,-15.973,-45.218,26.297
703667.7359,3,-1.027,7.643,-2.059,4,0.068,-0.226,-0.069,,,,
703667.7955,3,-0.729,8.678,-2.226,4,-0.046,-0.187,0.015,5,-14.42,-43.419,27.403
703667.8551,3,-0.729,9.024,-4.333,4,0.084,0.055,-0.013,5,-16.231,-43.17,26.392
703667.9147,3,-0.23,10.101,-3.239,4,0.078,0.025,-0.029,5,-13.464,-44.438,27.118
703667.9743,3,-0.625,11.584,-2.571,4,0.067,-0.432,-0.036,5,-14.13,-42.557,27.696
703668.0339,3,-0.317,9.395,1.76,4,-0.011,-0.667,0.085,5,-11.076,-45.25,28.864
703668.0935,3,0.174,11.263,-4.208,4,0.016,-0.696,0.259,,,,
703668.1531,3,-0.853,8.96,0.916,4,0.101,-0.364,0.366,5,-15.321,-42.455,29.288
703668.2127,3,-0.329,8.777,-4.097,4,-0.074,0.477,0.42,,,,
703668.2723,3,-2.616,7.292,-1.989,4,0.146,0.865,0.215,5,-17.31,-42.68,27.675
703668.3319,3,-2.564,10.741,-3.029,4,-0.037,0.997,0.03,5,-18.349,-42.184,27.06
703668.3915,3,-0.322,9.721,-5.43,4,0.038,0.222,-0.042,5,-18.544,-42.947,26.381
703668.4511,3,1.429,9.904,-3.069,4,0.068,-0.177,-0.014,5,-17.966,-41.133,28.415
703668.5107,3,1.168,11.039,-2.326,4,0.024,-0.057,-0.04,5,-18.217,-42.758,26.628
703668.5703,3,-0.633,7.735,-0.689,4,0.054,0.138,-0.125,5,-18.675,-42.81,25.795
703668.6298,3,-1.904,12.269,-0.332,4,-0.014,0.197,-0.185,,,,
703668.6895,3,-1.512,11.085,-3.947,4,-0.135,0.027,-0.105,5,-16.887,-44.623,27.745
703668.7491,3,-0.614,10.133,-4.526,4,0.052,-0.109,-0.069,,,,
703668.8087,3,0.235,7.612,0.263,4,-0.048,0.211,-0.038,5,-17.763,-43.784,27.686
703668.8682,3,-0.242,8.013,-5.078,4,0.006,0.019,-0.125,5,-16.91,-43.683,27.109
703668.9279,3,-0.939,10.106,-1.363,4,0.067,-0.007,-0.148,5,-16.061,-43.224,26.384
703668.9875,3,-1.103,11.063,-4.461,4,-0.093,-0.219,-0.145,5,-16.15,-43.317,26.385
703669.0471,3,-0.247,7.709,-2.063,4,0.005,-0.544,-0.06,5,-15.967,-43.225,26.437
703669.1067,3,0.753,10.734,-0.505,4,-0.042,-0.402,0.068,5,-16.017,-43.369,26.581
703669.1663,3,-0.198,8.87,-4.298,4,-0.077,-0.184,0.171,,,,
703669.2258,3,-0.903,11.698,-1.022,4,0.135,-0.004,0.091,5,-18.814,-42.717,26.762
703669.2855,3,-2.617,9.44,-4.901,4,-0.056,0.237,0.126,,,,
703669.3451,3,-1.033,10.809,-2.629,4,0.245,-0.116,0.027,5,-16.104,-43.178,27.449
703669.4047,3,-0.491,9.257,-1.916,4,-0.037,0.214,0.178,5,-16.386,-41.907,28.999
703669.4642,3,-0.25,8.671,-2.99,4,0.074,0.149,0.125,5,-18.626,-42.526,27.33
703669.5238,3,0.555,9.57,-1.242,4,0.021,0.29,0.097,5,-18.256,-43.706,26.614
703669.5835,3,-0.841,9.959,-4.743,4,0.018,0.249,0.052,5,-21.451,-41.737,24.78
703669.643,3,-1.666,10.081,-2.173,4,0.018,0.294,-0.02,5,-19.44,-43.062,26.906
703669.7026,3,-0.117,9.992,-2.661,4,-0.062,0.141,-0.054,5,-19.434,-43.076,28.812
703669.7622,3,-1.429,8.644,-3.119,4,0.037,0.097,-0.067,5,-19.321,-41.98,27.979
703669.8219,3,-0.597,9.421,-1.048,4,0.036,0.213,-0.086,,,,
703669.8815,3,-0.28,8.465,-2.949,4,-0.051,0.149,-0.086,5,-18.199,-41.566,25.897
703669.9411,3,-0.692,11.467,-2.823,4,0.042,0.116,-0.145,5,-17.921,-38.991,25.642
703670.0007,3,-0.636,9.101,-2.993,4,-0.115,0.108,-0.141,5,-17.453,-41.931,25.07
703670.0602,3,-0.664,9.928,-4.953,4,0.029,-0.307,-0.175,5,-16.975,-42.482,26.434
703670.1199,3,0.202,9.217,-1.681,4,-0.03,-0.135,-0.085,5,-16.997,-43.582,26.189
703670.1795,3,-0.321,8.311,-0.488,4,-0.087,-0.1,-0.05,5,-15.984,-41.75,26.379
703670.239,3,-0.067,11.087,-1.565,4,-0.109,0.05,-0.058,5,-16.176,-42.461,25.121
703670.2986,3,-1.149,10.615,-3.969,4,-0.048,-0.101,-0.058,5,-15.329,-42.442,26.045
703670.3582,3,-1.692,9.693,-2.434,4,0.029,-0.193,-0.063,,,,
703670.4178,3,0.348,9.165,-2.426,4,-0.019,-0.371,0.024,5,-15.401,-43.831,27.707
703670.4774,3,-0.337,8.997,-2.731,4,0.057,-0.347,0.087,,,,
703670.537,3,-0.105,9.031,-1.251,4,0.045,0.016,0.122,5,-14.455,-42.899,25.641
703670.5966,3,-1.941,8.976,-4.254,4,0.052,0.155,0.054,5,-14.52,-41.861,26.244
703670.6556,3,-1.273,11.107,-0.301,4,0.029,0.157,0.008,5,-15.494,-41.734,27.107
703670.7158,3,0.037,8.684,-3.973,4,-0.013,-0.117,0.025,5,-16.08,-42.371,27.107
703670.7754,3,-0.522,11.567,-2.748,4,0.148,-0.062,0.038,5,-16.127,-42.183,27.547
703670.835,3,0.108,7.608,-1.603,4,-0.007,0.134,0.032,5,-16.91,-43.666,28.081
703670.8946,3,-1.469,9.38,-3.427,4,0.053,-0.046,-0.042,,,,
703670.9542,3,-0.609,9.774,-1.85,4,-0.003,-0.043,-0.029,5,-16.783,-42.05,27.834
703671.0138,3,-0.952,8.656,-3.866,4,0.031,-0.143,0.003,,,,
703671.0734,3,-0.833,10.109,-0.341,4,0.034,0.068,0.008,5,-17.076,-42.822,28.508
703671.133,3,0.3,9.224,-2.597,4,-0.112,-0.082,0.05,5,-16.908,-42.87,27.38
703671.1926,3,-0.704,11.143,-4.183,4,0.107,-0.25,0.047,5,-15.993,-42.471,28.549
703671.2522,3,0.121,8.03,0.092,4,-0.02,0.136,0.08,5,-16.84,-43.906,26.196
703671.3118,3,-0.912,9.02,-3.872,4,-0.04,0.065,0.041,5,-18.568,-42.194,27.493
703671.3714,3,0.05,10.199,-0.611,4,-0.006,0.117,0.023,5,-17.758,-43.785,27.109
703671.431,3,-0.125,10.612,-4.268,4,-0.092,-0.064,0.045,5,-17.934,-43.221,27.106
703671.4906,3,-0.831,10.321,-1.694,4,0.099,0.03,0.055,5,-17.78,-42.503,27.104
703671.5502,3,0.424,8.845,-2.99,4,-0.055,0.215,0.025,,,,
703671.6098,3,-1.012,9.309,-2.161,4,0.036,0.023,-0.034,5,-17.999,-42.511,27.399
703671.6694,3,-0.507,9.346,-2.686,4,-0.047,0.011,-0.036,5,-16.859,-42.999,26.581
703671.729,3,-0.921,8.478,-2.948,4,-0.002,-0.059,-0.024,5,-17.982,-41.798,27.831
703671.7886,3,-0.636,10.745,-1.507,4,0.016,-0.029,-0.034,5,-17.85,-42.078,27.846
703671.8482,3,-0.251,8.785,-2.21,4,-0.05,-0.016,0.007,5,-17.792,-42.979,27.834
703671.9078,3,-0.927,10.681,-2.103,4,0.046,-0.062,-0.021,5,-16.614,-40.44,28.505
703671.9674,3,0.172,10.027,-1.878,4,-0.079,0.069,0,5,-17.72,-41.789,27.248
703672.027,3,-0.541,8.918,-3.776,4,0.035,-0.122,-0.032,5,-17.749,-40.64,26.266
703672.0866,3,0.205,9.87,-1.385,4,0.012,0.074,-0.029,,,,
703672.1462,3,-0.439,10.337,-1.414,4,-0.016,-0.175,-0.027,5,-15.524,-43.167,28.702
703672.2058,3,-0.778,10.006,-4.487,4,0.031,-0.307,0.037,5,-17.973,-41.801,30.006
703672.2654,3,-0.135,9.543,-2.308,4,0.11,-0.135,0.109,5,-16.476,-42.104,29.095
703672.325,3,-1.464,10.321,-4.209,4,0.031,0.204,0.111,5,-17.23,-42.116,28.61
703672.3846,3,-0.28,9.608,2.015,4,0.022,0.282,0.046,5,-18.01,-43.083,28.558
703672.4442,3,-0.232,8.809,-4.387,4,-0.141,0.022,0.047,5,-16.745,-42.485,29.242
703672.5038,3,-1.428,10.075,-0.263,4,0.103,0.042,0.01,5,-17.943,-39.9,28.555
703672.5634,3,-1.385,9.773,-4.249,4,-0.09,0.199,0.01,5,-16.898,-41.06,28.264
703672.6229,3,-0.327,11.232,-3.017,4,0.155,-0.03,-0.016,,,,
703672.6826,3,1.062,8.588,-1.125,4,-0.008,0.301,-0.003,5,-18.19,-39.577,29.088
703672.7422,3,0.037,8.684,-2.404,4,0.054,0.021,-0.097,,,,
703672.8018,3,-0.392,11.35,-1.59,4,-0.002,0.058,-0.104,5,-18.256,-42.087,26.817
703672.8613,3,-0.684,8.798,-4.108,4,-0.035,-0.015,-0.104,5,-19.516,-40.878,26.373
703672.9209,3,-1.456,10.297,-1.678,4,0.014,-0.03,-0.114,5,-15.994,-40.321,27.678
703672.9806,3,-0.382,9.601,-1.561,4,-0.094,-0.114,-0.067,5,-17.151,-40.352,27.983
703673.0401,3,-0.209,8.846,-3.19,4,0.009,-0.297,-0.041,5,-18.881,-40.443,26.195
703673.0997,3,0.739,10.214,-2.638,4,0.014,-0.205,0.005,5,-16.666,-42.613,27.304
703673.1593,3,-1.02,10.328,-4.315,4,0.044,-0.266,0.049,,,,
703673.2189,3,-1.903,9.149,0.211,4,0.053,0.005,0.03,5,-17.322,-42.12,27.834
703673.2785,3,-0.294,8.875,-2.639,4,-0.109,-0.014,0.074,,,,
703673.3381,3,-1.551,8.819,-2.489,4,0.044,-0.157,0.071,5,-15.987,-42.133,28.174
703673.3977,3,-0.009,8.383,-2.627,4,-0.014,-0.035,0.109,5,-17.459,-42.213,28.558
703673.4573,3,-1.006,11.161,-3.076,4,0.01,-0.029,0.155,5,-17.369,-42.412,28.558
703673.5169,3,0.356,9.831,-1.407,4,0.021,0.119,0.14,5,-17.964,-41.087,28.802
703673.5765,3,-0.391,9.5,-3.9,4,0,0.232,0.102,5,-18.393,-42.245,27.972
703673.6361,3,-0.988,9.626,-3.196,4,0.092,0.15,0.001,,,,
703673.6957,3,-0.251,8.881,-1.514,4,-0.027,0.104,0.002,5,-19.713,-41.841,28.651
703673.7553,3,-0.936,9.359,-3.074,4,-0.01,0.128,-0.009,5,-19.588,-41.983,27.391
703673.8149,3,-0.751,10.004,-1.109,4,-0.03,0.228,-0.044,,,,
703673.8745,3,-1.378,5.898,-3.08,4,-0.062,0.132,-0.052,5,-20.238,-43.048,28.076
703673.9341,3,-0.542,13.787,-2.341,4,0.017,0.026,-0.065,5,-19.968,-41.132,27.15
703673.9937,3,0.581,8.444,-0.902,4,-0.138,0.067,-0.015,5,-19.995,-42.279,27.245
703674.0533,3,-0.822,8.493,-4.215,4,-0.026,-0.09,-0.052,5,-19.035,-42.917,26.822
703674.1129,3,-0.956,9.965,-1.622,4,-0.003,0.035,-0.07,5,-20.123,-42.374,28.554
703674.1725,3,-0.437,9.266,-4.377,4,-0.002,-0.065,-0.066,,,,
703674.2321,3,-1.056,10.276,-1.465,4,0.052,0.035,-0.091,5,-18.633,-42.525,26.762
703674.2917,3,-0.416,8.673,-2.171,4,-0.047,-0.024,-0.095,5,-16.983,-42.819,27.835
703674.3513,3,-0.985,7.333,-2.86,4,0.052,-0.278,-0.076,,,,
703674.4109,3,-0.065,8.755,-1.027,4,-0.025,-0.155,-0.01,5,-13.422,-43.166,30.792
703674.4705,3,-0.373,11.787,-4.737,4,-0.143,-0.209,0.041,,,,
703674.5301,3,-0.643,10.063,-2.414,4,0.151,-0.243,0.05,5,-16.199,-41.745,27.345
703674.5897,3,1.223,11.668,-5.673,4,-0.021,-0.103,0.142,5,-17.453,-42.213,28.992
703674.6493,3,-0.284,10.032,-0.394,4,0.156,-0.147,0.123,5,-17.497,-41.785,27.203
703674.7089,3,-0.065,8.784,-0.979,4,-0.048,0.274,0.128,5,-17.485,-41.791,29.727
703674.7685,3,-0.549,7.489,-2.657,4,0.034,0.065,0.057,5,-17.825,-40.521,29.129
703674.8281,3,-1.174,10.985,-3.06,4,0.008,0.067,0.053,,,,
703674.8877,3,-0.881,10.551,-3.375,4,0.003,-0.018,0.076,5,-19.74,-41.132,29.524
703674.9473,3,-0.838,10.09,-4.345,4,0.008,0.124,0.096,5,-21.535,-39.316,28.687
703675.0069,3,-0.119,7.786,-0.14,4,0.075,0.165,0.05,,,,
703675.0665,3,-0.376,9.517,-3.422,4,-0.027,0.193,0.033,5,-19.218,-39.69,27.823
703675.1261,3,-0.526,9.481,-0.404,4,0.022,0.176,-0.026,5,-19.171,-40.724,26.434
703675.1857,3,-0.91,11.147,-4.722,4,-0.055,0.17,-0.052,5,-21.288,-40.451,27.82
703675.2453,3,-0.19,9.755,-2.058,4,0.011,0.119,-0.077,5,-20.816,-41.302,27.632
703675.3049,3,0.093,8.8,-1.812,4,-0.053,0.046,-0.076,5,-19.962,-40.738,26.3
703675.3645,3,-0.445,10.441,-2.457,4,0.001,0.024,-0.09,,,,
703675.4241,3,-0.447,8.625,-2.536,4,0.011,0.072,-0.104,5,-19.247,-40.445,27.184
703675.4837,3,-0.774,9.198,-3.091,4,0.038,-0.027,-0.101,5,-19.563,-42.331,26.616
703675.5433,3,-0.35,10.167,-0.672,4,-0.069,0.035,-0.089,,,,
703675.6029,3,-0.737,9.732,-2.992,4,-0.028,-0.137,-0.103,5,-19.321,-41.969,27.396
703675.6625,3,-0.501,8.707,-3.104,4,0.003,-0.212,-0.069,5,-19.473,-43.161,26.775
703675.7221,3,-0.709,8.772,-1.681,4,-0.01,-0.233,-0.027,5,-17.738,-42.506,28.653
703675.7817,3,-0.448,9.848,-3.045,4,-0.024,-0.229,0.013,5,-16.924,-42.339,28.271
703675.8413,3,0.538,9.514,-0.512,4,-0.024,-0.212,0.066,5,-19.083,-41.353,27.827
703675.9009,3,-0.894,9.729,-3.565,4,0.022,-0.117,0.1,,,,
703675.9605,3,0.291,10.13,-0.815,4,0.062,0.048,0.092,5,-18.921,-41.684,28.554
703676.02,3,-0.305,9.692,-4.389,4,-0.015,0.194,0.078,,,,
703676.0796,3,-1.645,9.57,-2.805,4,0.112,0.29,-0.017,5,-20.01,-41.09,29.23
703676.1393,3,-0.22,9.21,-0.804,4,-0.022,0.097,-0.06,5,-18.468,-41.576,28.069
703676.1989,3,-0.374,9.716,-3.589,4,-0.011,-0.28,-0.011,5,-17.336,-42.491,27.113
703676.2584,3,-0.103,8.436,-1.041,4,0.029,-0.22,0.034,5,-18.156,-41.803,28.746
703676.318,3,-1.025,10.212,-2.961,4,-0.006,0.08,0.054,5,-18.959,-41.878,28.5
703676.3776,3,-0.708,11.74,-2.132,4,0.046,0.182,-0.011,5,-18.533,-42.671,29.573
703676.4372,3,-0.124,6.218,-3.344,4,-0.016,-0.052,-0.026,5,-18.625,-42.575,29.195
703676.4968,3,-0.669,9.347,-4.348,4,0.113,-0.246,-0.022,5,-20.459,-42.574,28.783
703676.5564,3,0.229,10.847,0.233,4,-0.024,0.135,0.056,,,,
703676.616,3,-0.78,7.902,-3.273,4,-0.115,-0.098,0.034,5,-21.011,-40.735,28.13
703676.6756,3,-1.259,10.527,-1.831,4,-0.063,-0.266,0.065,5,-17.995,-42.422,28.934
703676.7352,3,-0.744,8.364,-1.862,4,0,-0.051,0.115,,,,
703676.7948,3,-1.216,8.743,-3.093,4,0.045,0.413,0.116,5,-20.386,-41.859,29.279
703676.8544,3,-0.191,10.429,-0.353,4,0.031,0.321,0.031,5,-20.859,-41.151,29.514
703676.914,3,0.018,10.872,-3.954,4,-0.015,0.035,0.003,5,-21.86,-40.468,28.496
703676.9736,3,0.62,10.044,-0.057,4,0.077,0.048,-0.021,5,-20.631,-41.011,27.824
703677.0332,3,-0.546,9.052,-3.99,4,-0.093,0.278,-0.069,5,-20.938,-40.828,27.823
703677.0928,3,-0.886,10.083,-2.564,4,0.075,0.007,-0.158,,,,
703677.1524,3,-0.613,9.683,-2.737,4,-0.028,-0.2,-0.132,5,-20.413,-39.395,29.272
703677.212,3,-0.942,8.767,-3.438,4,0.026,-0.204,-0.09,5,-20.628,-41.156,29.276
703677.2716,3,-0.887,10.154,-1.737,4,0.007,0.013,-0.057,5,-20.306,-42.381,29.28
703677.3312,3,-0.68,9.077,-2.187,4,-0.068,0.095,-0.026,5,-19.348,-41.014,28.609
703677.3908,3,-0.19,11.9,-2.687,4,0.016,-0.121,-0.072,5,-19.359,-43.686,28.845
703677.4504,3,0.131,7.339,-2.032,4,-0.096,-0.119,-0.023,5,-19.333,-42.546,28.467
703677.51,3,-1.058,9.271,-2.596,4,0.016,-0.307,-0.046,5,-17.775,-42.744,29.047
703677.5696,3,-1.138,10.654,-2.785,4,-0.026,-0.211,0.026,5,-15.596,-43.321,30.019
703677.6292,3,-0.049,9.076,-1.579,4,0.044,-0.284,0.063,,,,
703677.6888,3,-0.29,11.719,-3.451,4,0.014,-0.193,0.105,5,-17.485,-41.789,29.379
703677.7484,3,-0.215,9.212,-1.192,4,0.049,-0.153,0.122,,,,
703677.808,3,0.103,8.349,-1.439,4,0.001,-0.12,0.166,5,-18.895,-41.112,29.718
703677.8676,3,-1.149,10.686,-2.843,4,0.07,0.077,0.167,5,-18.407,-40.872,30.96
703677.9272,3,-1.074,9.176,-3.013,4,0.077,0.403,0.108,5,-20.587,-41.306,31.354
703677.9868,3,-1.024,10.215,-3.385,4,0.067,0.3,0.034,5,-20.509,-41.577,31.757
703678.0464,3,-0.735,9.417,-1.559,4,0.012,0.227,0.019,5,-20.981,-40.836,30.339
703678.106,3,-0.232,8.075,-3.521,4,0.041,0.029,-0.018,5,-21.797,-41.57,29.863
703678.1656,3,0.492,10.123,-1.306,4,-0.015,-0.093,0.036,,,,
703678.2252,3,-0.301,9.668,-4.301,4,-0.04,0.018,0.087,5,-21.98,-41.711,30.154
703678.2848,3,-0.65,11.939,-1.63,4,0.064,0.204,0.027,,,,
703678.3444,3,0.491,8.668,-3.381,4,-0.039,0.369,-0.03,5,-21.619,-41.513,30.437
703678.404,3,-1.526,8.942,-1.827,4,0.102,0.048,-0.137,5,-21.704,-41.47,30.869
703678.4636,3,0.251,8.458,-2.205,4,-0.048,0.055,-0.117,5,-21.898,-41.948,29.906
703678.5232,3,-0.742,11.703,-2.635,4,0.04,-0.1,-0.104,5,-21.538,-41.649,30.003
703678.5828,3,0.214,7.465,-3.092,4,-0.022,-0.005,-0.078,5,-20.641,-41.582,30.87
703678.6423,3,0.726,9.446,-3.935,4,-0.002,-0.215,-0.069,5,-23.332,-41.315,28.02
703678.702,3,-0.697,10.512,-2.233,4,-0.031,-0.25,-0.04,5,-21.028,-40.642,31.171
703678.7616,3,0.014,8.661,-0.218,4,-0.115,-0.17,-0.021,5,-20.256,-42.293,31.023
703678.8212,3,-1.139,11.155,-3.182,4,-0.087,-0.193,0.012,,,,
703678.8807,3,-1.101,10.636,-2.733,4,0.04,-0.242,0.033,5,-20.222,-42.57,30.252
703678.9404,3,-1.183,8.868,-2.91,4,0.022,-0.261,0.136,5,-20.613,-40.443,31.558
703679,3,-0.078,11.373,-2.982,4,0.124,-0.183,0.215,5,-20.052,-39.287,31.737
703679.0596,3,0.723,9.409,-0.548,4,0.074,0.17,0.272,5,-21.356,-39.42,31.114
703679.1192,3,-1.239,7.627,-3.59,4,0.026,0.553,0.184,5,-22.269,-38.538,30.386
703679.1788,3,-0.719,11.014,-0.781,4,0.053,0.523,-0.004,5,-21.927,-39.052,29.993
703679.2383,3,-0.666,9.717,-2.515,4,-0.145,0.127,-0.011,5,-22.961,-39.975,30.148
703679.298,3,-0.261,11.247,-4.469,4,0.068,-0.035,-0.051,5,-23.204,-38.696,28.929
703679.3576,3,-0.854,8.269,-0.642,4,-0.013,0.388,-0.051,,,,
703679.4172,3,-0.954,7.531,-4.35,4,-0.017,0.215,-0.159,5,-23.468,-41.089,29.002
703679.4767,3,-1.02,11.948,-0.622,4,0.014,-0.164,-0.128,,,,
703679.5363,3,0.229,9.87,-3.285,4,-0.071,-0.155,-0.034,5,-22.418,-41.196,28.795
703679.596,3,-0.022,10.853,-2.327,4,0.055,0.055,-0.06,5,-22.757,-40.627,27.527
703679.6555,3,0.181,8.357,-1.929,4,-0.008,0.182,-0.115,5,-24.303,-41.953,28.545
703679.7151,3,-0.644,10.065,-4.136,4,-0.01,-0.021,-0.18,5,-21.419,-42.506,29.816
703679.7747,3,-1.43,9.153,0.025,4,-0.019,-0.231,-0.188,5,-21.33,-42.313,27.962
703679.8344,3,-0.911,8.883,-3.876,4,-0.085,-0.418,-0.07,5,-21.101,-41.878,29.761
703679.8939,3,-0.924,11.273,-1.742,4,0.012,-0.285,0.039,,,,
703679.9536,3,0.048,7.694,-3.253,4,-0.015,-0.047,0.102,5,-20.764,-41.158,29.718
703680.0132,3,-0.278,10.127,-1.247,4,0.07,-0.139,0.083,,,,
703680.0727,3,0.508,10.173,-3.072,4,-0.019,-0.019,0.115,5,-21.292,-40.842,30.002
703680.1324,3,-0.38,8.769,-3.154,4,0.061,-0.018,0.079,5,-21.48,-40.981,28.94
703680.192,3,-1.584,12.578,-2.068,4,0.011,0.076,0.039,5,-23.952,-40.514,27.1
703680.2516,3,-0.705,8.361,-2.38,4,-0.081,-0.009,0.056,5,-22.258,-39.952,28.395
703680.3111,3,-0.542,9.724,-1.829,4,0.031,-0.18,0.063,5,-21.936,-39.76,29.947
703680.3707,3,-0.651,9.875,-4.554,4,-0.016,0.117,0.112,5,-22.334,-39.771,29.851
703680.4304,3,-0.077,11.109,-1.905,4,0.101,0.231,0.08,5,-21.913,-40.424,27.229
703680.4899,3,-1.014,10.419,-3.697,4,-0.01,0.444,0.001,5,-22.383,-40.002,28.543
703680.5495,3,0.028,7.835,-1.794,4,0.071,0.094,-0.084,,,,
703680.6091,3,-1.939,9.935,-4.82,4,0.007,-0.088,-0.071,5,-23.026,-40.633,27.245
703680.6687,3,-0.31,9.437,-1.082,4,-0.014,0,-0.042,5,-24.48,-42.155,29.173
703680.7283,3,0.205,8.178,-2.305,4,-0.039,-0.053,-0.008,5,-23.338,-42.738,29.182
703680.7879,3,0.082,11.456,-0.612,4,0.02,0.055,-0.034,5,-20.142,-43.297,29.572
703680.8475,3,-0.752,9.081,-4.461,4,-0.04,0.045,-0.055,5,-22.466,-43.33,27.826
703680.9071,3,-2.184,9.787,-2.547,4,0.072,-0.09,-0.111,5,-22.652,-41.914,29.175
703680.9667,3,0.334,9.586,-2.481,4,-0.018,-0.119,-0.035,5,-22.133,-42.476,28.993
703681.0263,3,0.045,10.136,-4.164,4,0.035,-0.184,0.015,5,-21.712,-43.317,28.552
703681.0859,3,0.813,9.116,-1.216,4,0.057,-0.068,0.046,,,,
703681.1455,3,-0.035,9.59,-2.902,4,-0.096,0.047,0.059,5,-22.002,-42.613,29.808
703681.2051,3,-2.418,11.541,-2.634,4,0.013,-0.146,-0.027,5,-23.331,-42.65,28.555
703681.2647,3,0.178,6.886,-2.707,4,-0.081,-0.187,0.04,5,-21.861,-44.034,28.938
703681.3243,3,-0.957,8.406,-4.031,4,0.021,-0.127,0.084,5,-23.601,-42.366,28.647
703681.3839,3,0.249,10.126,-0.9,4,0.022,0.253,0.104,5,-23.335,-42.503,29.131
703681.4429,3,-0.372,8.759,-2.597,4,-0.056,0.11,0.081,5,-22.054,-41.235,29.912
703681.5031,3,-1.127,11.426,-2.88,4,0.093,0.13,0.032,5,-21.976,-41.411,28.787
703681.5627,3,-0.132,8.162,-3.829,4,-0.04,0.168,0.019,5,-22.932,-42.206,27.684
703681.6223,3,-0.673,10.199,-0.487,4,0.03,-0.154,-0.009,,,,
703681.6819,3,-0.542,8.711,-1.848,4,-0.12,0.193,0.012,5,-23.73,-42.035,29.272
703681.7415,3,-0.971,8.475,-1.404,4,0.018,0.135,-0.042,,,,
703681.8011,3,-0.117,11.673,-3.431,4,-0.083,0.045,-0.034,5,-22.751,-40.486,27.382
703681.8607,3,-0.252,9.312,-1.419,4,0,-0.164,0.014,5,-23.75,-41.219,27.574
703681.9203,3,-0.25,12.058,-3.741,4,-0.008,0.115,-0.009,5,-23.819,-38.528,27.812
703681.9799,3,0.373,8.241,-2.253,4,0.031,0.092,-0.058,5,-23.726,-41.655,26.654
703682.0395,3,0.131,7.846,-1.468,4,-0.025,-0.167,-0.073,5,-22.701,-39.774,27.478
703682.0991,3,-0.241,11.966,-1.383,4,-0.034,-0.221,-0.049,5,-24.26,-40.196,27.286
703682.1587,3,-0.754,7.982,-1.165,4,-0.081,-0.08,-0.013,,,,
703682.2183,3,-0.652,12.458,-3.948,4,0.022,-0.097,-0.03,5,-23.071,-38.547,27.776
703682.2779,3,-0.913,9.224,-1.522,4,0.028,0.001,0.004,,,,
703682.3375,3,-0.234,7.11,-1.578,4,-0.035,-0.155,0.002,5,-22.624,-40.482,26.709
703682.3971,3,0.402,10.666,-1.999,4,0.007,-0.127,0.056,5,-22.35,-40.482,29.124
703682.4567,3,-0.569,8.999,-0.751,4,-0.02,0.065,0.07,5,-23.82,-41.85,27.867
703682.5163,3,-1.362,11.204,-3.366,4,-0.011,0,-0.001,5,-23.065,-40.253,27.577
703682.5759,3,0.513,9.241,0.711,4,0.049,-0.116,0.037,5,-23.01,-39.929,26.505
703682.6355,3,-0.356,10.968,-6.041,4,-0.02,0.044,0.096,5,-22.838,-41.916,28.151
703682.6951,3,-0.238,9.574,0.09,4,0.171,0.269,0.033,5,-24.007,-42.561,26.277
703682.7547,3,0.091,9.789,-1.438,4,-0.127,0.302,-0.063,5,-22.679,-42.915,26.085
703682.8143,3,-0.246,9.978,-0.599,4,0.021,-0.22,-0.152,,,,
703682.8739,3,-1.077,10.02,-4.801,4,-0.098,-0.333,-0.074,5,-24.208,-41.473,26.115
703682.9334,3,-0.228,9.092,-0.848,4,0.133,-0.395,-0.005,5,-21.889,-43.837,29.384
703682.9931,3,-0.082,10.529,-2.015,4,-0.087,-0.051,0.107,5,-21.051,-41.739,30.148
703683.0527,3,-0.659,8.491,-0.583,4,0.052,0.011,0.058,5,-22.368,-42.899,28.889
703683.1122,3,-1.429,10.971,-2.855,4,0.025,-0.002,0.072,5,-22.626,-40.681,28.407
703683.1718,3,-0.589,9.537,-1.772,4,0.086,-0.075,0.078,,,,
703683.2314,3,-0.067,8.879,-1.531,4,-0.041,0.173,0.135,5,-22.995,-41.399,28.546
703683.2911,3,-0.155,10.256,-3.068,4,0.023,0.199,0.079,5,-23.991,-41.989,28.546
703683.3506,3,-1.142,10.937,0.075,4,-0.01,0.28,0.014,,,,
703683.4102,3,0.151,9.203,-3.294,4,-0.087,0.053,-0.008,5,-25.224,-41.309,28.496
703683.4698,3,-0.852,8.261,-2.02,4,0.081,-0.135,-0.017,,,,
703683.5294,3,-0.171,9.968,0.478,4,-0.021,0.174,-0.008,5,-23.738,-40.979,28.072
703683.589,3,-1.215,10.776,-5.2,4,-0.046,0.187,-0.035,5,-25.047,-41.405,28.397
703683.6486,3,-0.675,8.821,-0.51,4,0.088,0.008,-0.073,5,-27.895,-41.322,26.045
703683.7082,3,0.446,8.885,1.426,4,-0.162,0.103,-0.054,5,-24.516,-43.108,26.648
703683.7678,3,-1.22,11.382,-4.846,4,-0.034,0.027,-0.06,5,-25.052,-41.541,28.107
703683.8274,3,0.371,8.363,-1.665,4,0.032,-0.087,-0.062,5,-22.865,-41.209,27.338
703683.8871,3,-0.18,10.84,-1.44,4,-0.023,-0.252,-0.036,,,,
703683.9466,3,-0.288,8.188,-3.105,4,0.043,-0.048,-0.026,5,-21.213,-43.456,27.545
703684.0062,3,-0.089,12.862,-1.331,4,-0.007,-0.014,-0.019,,,,
703684.0658,3,0.716,10.78,-0.554,4,-0.046,-0.106,-0.029,5,-23.975,-41.229,27.429
703684.1254,3,-1.18,8.299,-2.78,4,0.006,-0.18,-0.029,5,-22.806,-40.549,27.623
703684.185,3,-0.298,9.803,-0.927,4,0.081,-0.217,-0.029,5,-21.95,-40.479,30.717
703684.2446,3,-0.831,11.138,-2.874,4,-0.074,-0.15,0.048,5,-22.784,-41.391,27.821
703684.3042,3,-0.534,8.414,-1.156,4,0.108,-0.105,0.066,5,-21.657,-41.219,28.163
703684.3638,3,0.396,10.477,-1.447,4,-0.021,0.009,0.083,,,,
703684.4234,3,0.261,7.931,-1.14,4,0.005,-0.033,0.085,5,-23.331,-40.459,28.453
703684.483,3,-0.302,12.709,-2.998,4,0.005,0.024,0.031,5,-24.15,-39.345,29.024
703684.5426,3,-0.396,8.924,-2.17,4,0.024,-0.056,0.047,,,,
703684.6022,3,-0.542,10.642,-0.949,4,-0.017,-0.007,0.008,5,-23.262,-39.221,27.669
703684.6618,3,-0.333,9.48,-1.152,4,-0.039,-0.057,0.024,5,-24.232,-39.394,27.188
703684.7214,3,-0.725,7.703,-0.635,4,0.027,-0.11,0.054,5,-23.689,-39.983,27.817
703684.781,3,-0.454,11.335,-1.472,4,-0.021,-0.06,0.087,5,-23.294,-40.649,27.382
703684.8406,3,-1.067,7.627,-2.396,4,0.055,0.12,0.082,5,-23.067,-40.492,27.092
703684.9002,3,-0.552,11.762,-2.262,4,0.085,0.238,0.039,,,,
703684.9598,3,0.001,9.866,-1.415,4,-0.008,0.177,0.079,5,-24.237,-41.235,27.534
703685.0194,3,0.427,10.177,-2.414,4,0.081,0.22,0.025,5,-24.622,-40.198,25.635
703685.079,3,-0.005,8.312,-2.345,4,0.039,0.29,-0.021,,,,
703685.1386,3,-1.33,10.176,0.071,4,0.051,0.362,-0.122,5,-25.232,-40.736,25.575
703685.1982,3,-1.272,9.614,-1.239,4,-0.079,0.22,-0.137,5,-25.316,-41.264,25.632
703685.2578,3,-0.577,9.956,-1.772,4,0.013,-0.069,-0.141,5,-24.515,-41.612,24.724
703685.3174,3,-0.3,8.822,-2.055,4,-0.046,-0.179,-0.06,5,-24.712,-42.291,24.916
703685.377,3,-0.085,10.144,-1.233,4,-0.03,-0.127,-0.035,5,-24.005,-41.937,25.789
703685.4366,3,-0.175,8.779,-1.478,4,-0.071,0.017,-0.014,5,-24.178,-42.613,26.37
703685.4962,3,-0.84,11.672,-4.512,4,0.014,-0.099,-0.054,5,-23.351,-43.361,26.381
703685.5558,3,0.026,8.443,2.839,4,-0.033,-0.158,-0.023,,,,
703685.6154,3,0.376,11.42,-2.201,4,-0.098,-0.177,-0.019,5,-23.36,-43.35,25.645
703685.675,3,0.329,10.532,1.033,4,0.087,-0.218,0.059,5,-22.668,-42.438,26.816
703685.7346,3,0.219,9.124,-2.314,4,-0.092,-0.019,0.072,,,,
703685.7942,3,-0.56,9.488,-0.357,4,0.011,0.086,0.034,5,-22.269,-42.615,27.386
703685.8538,3,-0.507,11.54,-1.113,4,-0.091,0.087,0.031,5,-23.114,-42.162,26.622
703685.9134,3,-0.245,8.907,-2.78,4,0.031,-0.178,0.008,5,-25.624,-41.875,24.541
703685.973,3,0.04,9.229,1.045,4,0.039,-0.146,0.047,5,-22.241,-41.052,28.691
703686.0326,3,0.889,10.02,-1.841,4,-0.058,-0.101,0.071,5,-21.947,-42.229,28.551
703686.0922,3,-1.375,10.337,-0.797,4,0.058,-0.112,0.013,,,,
703686.1518,3,-0.215,9.837,-0.558,4,-0.033,-0.21,0.031,5,-22.67,-42.628,29.08
703686.2114,3,0.427,9.725,-1.629,4,0.057,-0.193,0.078,5,-23.772,-40.184,30.339
703686.271,3,0.571,9.566,0.495,4,0.037,0.039,0.105,,,,
703686.3305,3,0.526,11.094,-1.355,4,0.009,0.099,0.089,5,-23.621,-41.183,28.502
703686.3901,3,-0.233,9.716,0.033,4,0.024,0.078,0.059,5,-24.013,-43.085,30.301
703686.4498,3,-0.497,10.149,-2.046,4,0.022,-0.076,0.062,5,-23.985,-41.953,32.132
703686.5094,3,0.572,9.969,0.45,4,0.006,-0.114,0.09,5,-25.291,-40.802,31.447
703686.5689,3,-0.312,9.867,-2.434,4,-0.005,-0.149,0.114,5,-26.225,-40.581,31.879
703686.6285,3,0.094,10.1,0.482,4,0.075,-0.055,0.098,,,,
703686.6881,3,0.064,10.294,-0.898,4,-0.004,-0.092,0.129,5,-30.249,-39.545,36.237
703686.7477,3,1.668,9.98,-0.224,4,0.069,-0.182,0.155,,,,
703686.8073,3,0.494,9.84,-3.249,4,0.04,-0.186,0.146,5,-34.889,-39.952,39.717
703686.8669,3,0.07,9.809,-2.876,4,0.08,-0.329,0.086,5,-48.75,-44.276,45.711
703686.9265,3,-1.09,9.448,-2.395,4,0.056,-0.24,0.054,5,-73.38,-62.059,38.638
703686.9861,3,0.387,9.12,-3.214,4,0.064,-0.286,0.072,5,-71.266,-67.168,18.022
703687.0457,3,0.676,9.291,-2.615,4,0.061,-0.183,0.13,5,-59.526,-65.483,13.525
703687.1053,3,0.831,9.67,-3.351,4,0.029,0.066,0.102,5,-46.265,-56.837,11.705
703687.1649,3,0.593,9.853,-2.512,4,0.028,0.135,0.057,,,,
703687.2245,3,0.769,9.684,-2.473,4,-0.001,0.148,0.017,5,-30.429,-44.931,18.721
703687.2841,3,0.892,9.629,-2.544,4,0.005,-0.005,-0.014,,,,
703687.3437,3,0.168,9.567,-2.233,4,-0.002,-0.04,-0.046,5,-27.026,-42.044,20.938
703687.4033,3,-0.345,9.817,-2.143,4,-0.017,-0.055,-0.08,5,-25.298,-40.591,24.084
703687.4629,3,-0.402,9.807,-2.55,4,-0.017,-0.11,-0.069,,,,
703687.5225,3,-0.078,9.49,-1.981,4,-0.004,-0.111,-0.049,5,-24.394,-39.807,24.908
703687.5821,3,0.665,10.181,-1.678,4,-0.022,-0.093,-0.016,5,-23.918,-38.663,26.222
703687.6417,3,0.402,9.44,-2.979,4,-0.021,0.01,-0.015,5,-23.244,-38.46,27.713
703687.7013,3,0.667,9.909,-1.617,4,0.024,0.107,-0.053,5,-23.854,-39.709,27.721
703687.7609,3,0.472,9.589,-2.431,4,-0.007,0.426,-0.084,5,-24.709,-38.541,26.369
703687.8205,3,-0.181,9.86,-1.281,4,0.005,0.512,-0.127,,,,
703687.8801,3,0.201,9.381,-2.722,4,-0.033,0.47,-0.152,5,-23.047,-39.548,26.602
703687.9397,3,-0.206,10.001,-1.761,4,-0.013,0.197,-0.158,5,-22.606,-39.72,26.938
703687.9993,3,-0.232,9.626,-2.66,4,-0.032,0.224,-0.17,5,-23.128,-39.067,26.076
703688.0589,3,-1.01,9.796,-1.184,4,-0.012,0.141,-0.168,5,-22.871,-39.825,26.028
703688.1185,3,-0.564,9.84,-2.256,4,-0.035,0.15,-0.154,5,-21.799,-41.367,25.508
703688.1781,3,-0.991,9.77,-1.555,4,-0.008,0.121,-0.123,5,-21.957,-40.462,25.641
703688.2377,3,-0.818,9.815,-1.991,4,-0.005,0.1,-0.093,5,-21.277,-39.925,26.176
703688.2973,3,-0.209,9.89,-1.824,4,-0.01,0.022,-0.063,5,-20.927,-40.062,26.027
703688.3569,3,-0.203,9.69,-1.94,4,-0.011,-0.014,-0.037,,,,
703688.4165,3,-0.156,9.856,-1.72,4,-0.003,-0.009,-0.042,5,-20.125,-40.463,25.012
703688.4761,3,0.063,9.788,-1.782,4,-0.022,-0.013,-0.061,,,,
703688.5357,3,-0.408,9.739,-2.234,4,-0.02,-0.062,-0.069,5,-23.524,-40.495,23.926
703688.5953,3,-0.74,9.736,-1.963,4,-0.012,-0.033,-0.091,5,-20.229,-40.71,26.224
703688.6549,3,-0.947,9.712,-2.012,4,-0.024,-0.069,-0.097,5,-20.552,-41.241,26.808
703688.7145,3,-1.191,9.698,-2.185,4,-0.017,-0.053,-0.095,5,-20.583,-42.477,25.554
703688.7741,3,-0.962,9.715,-2.173,4,-0.015,-0.055,-0.079,5,-19.981,-41.559,25.362
703688.8337,3,-1.339,9.666,-2.254,4,-0.015,-0.095,-0.048,5,-18.877,-42.052,26.857
703688.8933,3,-1.229,9.708,-2.093,4,-0.003,-0.017,-0.038,,,,
703688.9529,3,-1.045,9.699,-2.198,4,-0.002,-0.032,-0.016,5,-19.713,-41.261,25.505
703689.0125,3,-0.668,9.69,-2.296,4,0.002,-0.011,0.012,,,,
703689.0721,3,-0.356,9.66,-2.254,4,0,-0.029,0.016,5,-20.248,-41.847,25.647
703689.1317,3,-0.778,9.615,-2.591,4,-0.003,-0.045,-0.006,5,-19.633,-42.165,26.907
703689.1912,3,-1.038,9.7,-2.139,4,-0.004,-0.085,-0.073,5,-19.334,-42.534,26.382
703689.2508,3,-1.665,9.763,-2.205,4,-0.013,-0.118,-0.092,5,-19.16,-42.502,26.761
