701194.7432,3,0.325,9.66,-2.182,,,,,5,-12.053,-43.004,-3.387
701194.763,3,0.325,9.66,-2.182,,,,,,,,
701194.7829,3,0.328,9.605,-2.599,4,0.001,0.007,0.007,5,-9.546,-44.18,-3.574
701194.8028,3,0.136,9.583,-2.601,,,,,,,,
701194.8227,3,0.048,9.641,-2.517,,,,,,,,
701194.8425,3,0.117,9.648,-2.512,4,-0.002,-0.001,-0.018,5,-8.054,-45.093,-1.579
701194.8624,3,0.177,9.624,-2.436,,,,,,,,
701194.8823,3,0.201,9.638,-2.429,,,,,,,,
701194.9021,3,0.268,9.633,-2.46,4,-0.002,-0.002,-0.006,,,,
701194.922,3,0.266,9.665,-2.484,,,,,,,,
701194.9419,3,0.22,9.631,-2.46,,,,,,,,
701194.9617,3,0.223,9.65,-2.472,4,-0.001,-0.002,0.004,5,-6.871,-43.054,-1.312
701194.9816,3,0.22,9.633,-2.556,,,,,,,,
701195.0015,3,0.249,9.629,-2.572,,,,,,,,
701195.0213,3,0.373,9.605,-2.529,4,0,0.001,0.012,,,,
701195.0412,3,0.436,9.633,-2.558,,,,,,,,
701195.0611,3,0.529,9.614,-2.539,,,,,,,,
701195.0809,3,0.498,9.622,-2.479,4,-0.002,-0.007,0.012,5,-8.313,-44.586,-2.402
701195.1008,3,0.445,9.624,-2.56,,,,,,,,
701195.1207,3,0.388,9.619,-2.515,,,,,,,,
701195.1406,3,0.352,9.602,-2.457,4,0,0,0.006,5,-8.087,-44.897,-0.9
701195.1604,3,0.256,9.607,-2.522,,,,,,,,
701195.1803,3,0.127,9.645,-2.625,,,,,,,,
701195.2002,3,0.024,9.622,-2.515,4,0.003,0.016,0.009,5,-6.281,-45.11,-1.295
701195.22,3,-0.024,9.583,-2.493,,,,,,,,
701195.2399,3,-0.007,9.648,-2.637,,,,,,,,
701195.2598,3,0.041,9.617,-2.673,4,0.004,0.02,0.027,5,-7.397,-43.886,-1.291
701195.2796,3,0.055,9.6,-2.649,,,,,,,,
701195.2995,3,0.218,9.598,-2.704,,,,,,,,
701195.3194,3,0.431,9.562,-2.627,4,0.002,0.018,0.049,5,-7.693,-45.192,-1.768
701195.3392,3,0.421,9.59,-2.606,,,,,,,,
701195.3591,3,0.397,9.612,-2.62,,,,,,,,
701195.379,3,0.51,9.626,-2.692,4,0.004,0.031,0.054,5,-8.524,-44.827,-2.405
701195.3988,3,0.601,9.574,-2.623,,,,,,,,
701195.4187,3,0.646,9.533,-2.539,,,,,,,,
701195.4386,3,0.684,9.641,-2.709,4,0.004,0.041,0.051,,,,
701195.4584,3,1.4,9.421,-4.025,,,,,,,,
701195.4783,3,0.311,9.677,-2.158,,,,,,,,
701195.4982,3,0.077,9.823,-1.606,4,-0.008,0.12,0.032,5,-8.498,-45.064,-0.47
701195.518,3,0.653,9.454,-3.331,,,,,,,,
701195.5379,3,0.067,9.598,-2.558,,,,,,,,
701195.5578,3,0.481,9.768,-2.62,4,0.013,0.04,0.028,,,,
701195.5776,3,0.883,9.504,-2.654,,,,,,,,
701195.5975,3,0.991,9.509,-2.429,,,,,,,,
701195.6174,3,0.61,9.681,-2.132,4,-0.004,0.02,0.027,5,-9.071,-45.073,-2.313
701195.6372,3,0.802,9.619,-3.154,,,,,,,,
701195.6571,3,0.165,9.588,-2.754,,,,,,,,
701195.677,3,-0.067,9.708,-2.237,4,0,0.111,0.022,5,-8.794,-44.22,-1.785
701195.6969,3,0.23,9.607,-2.603,,,,,,,,
701195.7167,3,0.361,9.488,-2.733,,,,,,,,
701195.7366,3,0.383,9.576,-2.364,4,0.005,0.129,0.044,5,-8.748,-44.353,-2.647
701195.7565,3,0.072,9.645,-3.17,,,,,,,,
701195.7763,3,0.201,9.418,-3.245,,,,,,,,
701195.7962,3,0.569,9.514,-2.84,4,-0.002,0.059,0.067,5,-7.959,-45.387,-0.658
701195.8161,3,0.869,9.595,-2.498,,,,,,,,
701195.8359,3,0.933,9.375,-2.735,,,,,,,,
701195.8558,3,1.019,9.533,-3.01,4,0.006,0.146,0.069,5,-9.048,-43.979,-2.699
701195.8756,3,1.216,9.425,-3.34,,,,,,,,
701195.8955,3,1.378,9.433,-3.161,,,,,,,,
701195.9154,3,1.29,9.38,-2.979,4,0.002,0.088,0.048,,,,
701195.9353,3,1.103,9.526,-3.082,4,-0.003,0.259,0.021,5,-8.653,-44.902,-1.141
701195.9551,3,0.859,9.552,-2.941,,,,,,,,
701195.975,3,0.636,9.49,-2.831,,,,,,,,
701195.9949,3,0.543,9.428,-2.73,,,,,,,,
701196.0147,3,0.517,9.344,-3.032,4,0.013,0.267,0.018,,,,
701196.0346,3,0.438,9.497,-3.135,,,,,,,,
701196.0545,3,0.598,9.701,-3.376,,,,,,,,
701196.0743,3,0.809,9.574,-3.3,4,0.005,0.197,0.028,5,-9.006,-45.767,-2.649
701196.0942,3,1.058,9.203,-2.67,,,,,,,,
701196.1141,3,1.108,9.562,-2.522,,,,,,,,
701196.1339,3,0.988,9.509,-2.261,4,0.009,0.245,0.021,5,-9.842,-45.807,-1.924
701196.1538,3,1.046,9.564,-2.95,,,,,,,,
701196.1737,3,1.06,9.645,-2.173,,,,,,,,
701196.1935,3,1.019,9.858,-1.725,4,0,0.206,0.01,5,-7.245,-45.329,-2.24
701196.2134,3,1.17,9.854,-1.591,,,,,,,,
701196.2333,3,1.228,9.648,-1.761,,,,,,,,
701196.2532,3,1.129,9.459,-1.826,4,-0.002,0.125,0.017,5,-9.613,-46.603,-2.905
701196.273,3,0.933,9.782,-1.756,,,,,,,,
701196.2929,3,0.799,9.923,-1.531,,,,,,,,
701196.3127,3,0.778,9.844,-1.752,4,-0.004,0.061,0.025,5,-8.371,-45.633,-2.057
701196.3326,3,1.05,9.791,-1.68,,,,,,,,
701196.3525,3,1.072,9.746,-1.491,,,,,,,,
701196.3723,3,1.139,9.808,-1.472,4,-0.007,0.047,0.038,,,,
701196.3922,3,1.316,9.775,-1.563,,,,,,,,
701196.4121,3,1.352,9.765,-1.955,,,,,,,,
701196.4319,3,1.192,9.72,-2.039,4,-0.006,0.041,0.046,5,-7.01,-46.208,-2.415
701196.4518,3,1.043,9.669,-1.957,,,,,,,,
701196.4717,3,1.089,9.622,-1.981,,,,,,,,
701196.4916,3,1.244,9.641,-2.177,4,-0.002,0.026,0.048,5,-7.806,-44.327,-3.661
701196.5114,3,1.376,9.598,-2.498,,,,,,,,
701196.5313,3,1.488,9.516,-2.733,,,,,,,,
701196.5512,3,1.677,9.547,-2.754,4,0,0.002,0.039,,,,
701196.571,3,1.802,9.478,-2.663,,,,,,,,
701196.5903,3,1.72,9.521,-2.575,,,,,,,,
701196.6108,3,1.584,9.531,-2.424,4,-0.002,0.016,0.006,5,-8.482,-44.632,-2.65
701196.6306,3,1.503,9.521,-2.46,,,,,,,,
701196.6505,3,1.433,9.6,-2.532,,,,,,,,
701196.6704,3,1.524,9.581,-2.457,4,0.005,-0.011,-0.016,5,-8.101,-45.239,-3.178
701196.6903,3,1.563,9.543,-2.378,,,,,,,,
701196.7101,3,1.388,9.586,-2.364,,,,,,,,
701196.73,3,1.292,9.602,-2.347,4,0.004,0,-0.034,5,-10.104,-45.805,-3.38
701196.7498,3,1.28,9.555,-2.419,,,,,,,,
701196.7697,3,1.206,9.576,-2.46,,,,,,,,
701196.7896,3,1.077,9.605,-2.46,4,0.002,-0.007,-0.041,5,-7.602,-45.036,-2.493
701196.8095,3,1.034,9.59,-2.41,,,,,,,,
701196.8293,3,0.974,9.571,-2.314,,,,,,,,
701196.8492,3,0.964,9.571,-2.276,4,0.001,-0.007,-0.036,5,-8.786,-44.353,-2.266
701196.8691,3,0.995,9.619,-2.316,,,,,,,,
701196.8889,3,1.125,9.641,-2.486,,,,,,,,
701196.9088,3,1.048,9.586,-2.575,4,0.003,-0.012,-0.029,,,,
701196.9287,3,0.89,9.578,-2.73,,,,,,,,
701196.9485,3,0.699,9.535,-2.835,,,,,,,,
701196.9684,3,0.462,9.538,-2.807,4,-0.009,0.034,-0.015,5,-8.08,-44.388,-2.757
701196.9883,3,0.318,9.495,-2.788,,,,,,,,
701197.0081,3,0.55,9.514,-2.835,,,,,,,,
701197.028,3,1.079,9.507,-3.075,4,-0.003,0.056,0.011,,,,
701197.0479,3,1.474,9.495,-3.304,,,,,,,,
701197.0677,3,1.842,9.399,-3.096,,,,,,,,
701197.0876,3,2.278,9.377,-2.541,4,-0.003,0.132,-0.016,5,-8.33,-46.01,-3.354
701197.1075,3,2.673,9.399,-2.618,,,,,,,,
701197.1274,3,2.376,9.392,-3.182,,,,,,,,
701197.1472,3,2.166,9.497,-3.379,4,0.02,0.078,-0.092,5,-8.096,-45.197,-1.338
701197.1671,3,1.914,9.54,-3.147,,,,,,,,
701197.1869,3,0.859,9.447,-2.173,,,,,,,,
701197.2068,3,-0.254,9.825,-2.434,4,0.018,0.027,-0.13,5,-6.772,-45.63,-2.646
701197.2267,3,-0.842,9.724,-3.36,,,,,,,,
701197.2465,3,-0.974,9.442,-3.51,,,,,,,,
701197.2664,3,-0.4,9.497,-2.816,4,-0.013,-0.072,-0.054,5,-7.343,-45.027,-3.914
701197.2863,3,0.007,9.397,-1.362,,,,,,,,
701197.3061,3,0.251,9.633,-1.73,,,,,,,,
701197.326,3,0.213,9.062,-2.484,4,0.01,0.145,0.011,5,-7.436,-45.462,-3.084
701197.3459,3,0.916,8.76,-3.807,,,,,,,,
701197.3658,3,0.68,11.476,-4.932,,,,,,,,
701197.3856,3,0.201,9.287,-2.666,4,-0.004,0.207,0.03,5,-5.663,-45.705,-1.678
701197.4055,3,0.067,8.535,-2.199,,,,,,,,
701197.4254,3,0.502,9.476,-2.295,,,,,,,,
701197.4452,3,0.132,9.614,-3.405,4,0.012,0.295,0.073,,,,
701197.4651,3,-0.043,9.332,-4.388,,,,,,,,
701197.485,3,0.766,9.217,-3.967,,,,,,,,
701197.5048,3,1.038,9.447,-3.75,4,-0.009,0.297,0.098,5,-7.808,-43.892,-3.961
701197.5247,3,1.141,8.849,-2.984,,,,,,,,
701197.5446,3,2.005,9.002,-3.395,,,,,,,,
701197.5644,3,1.862,9.586,-3.051,4,-0.002,0.451,0.072,,,,
701197.5843,3,1.625,9.645,-3.06,,,,,,,,
701197.6041,3,1.082,8.573,-2.244,,,,,,,,
701197.624,3,0.524,9.624,-3.654,4,0.059,0.503,0.045,5,-6.114,-43.951,-4.488
701197.6439,3,0.998,8.473,-2.544,,,,,,,,
701197.6638,3,2.424,9.961,-4.616,,,,,,,,
701197.6836,3,2.56,9.421,-2.335,4,0.033,0.314,0.028,5,-6.728,-43.584,-4.828
701197.7035,3,2.675,8.911,-3.132,,,,,,,,
701197.7234,3,2.632,9.992,-3.324,,,,,,,,
701197.7432,3,1.921,9.576,-3.381,4,0.056,0.484,-0.05,5,-6.073,-44.295,-3.377
701197.7631,3,0.845,9.141,-2.96,,,,,,,,
701197.783,3,0.06,9.284,-3.142,,,,,,,,
701197.8028,3,1.23,9.997,-3.111,4,0.046,0.438,-0.067,5,-4.951,-45.871,-3.558
701197.8227,3,1.943,9.619,-2.493,,,,,,,,
701197.8426,3,0.845,9.835,-2.723,,,,,,,,
701197.8624,3,0.266,9.1,-2.701,4,0.031,0.397,-0.065,5,-6.424,-45.717,-4.395
701197.8823,3,0.431,9.392,-3.257,,,,,,,,
701197.9022,3,0.861,9.165,-2.517,,,,,,,,
701197.922,3,1.113,10.677,-3.651,4,-0.01,0.217,-0.042,5,-5.121,-43.547,-3.67
701197.9419,3,1.512,8.746,-1.996,,,,,,,,
701197.9618,3,1.256,10,-3.35,,,,,,,,
701197.9817,3,1.409,9.275,-2.859,4,0.022,0.32,-0.034,5,-4.073,-44.183,-3.471
701198.0015,3,0.854,10.148,-3.357,,,,,,,,
701198.0214,3,0.895,9.098,-3.187,,,,,,,,
701198.0412,3,0.371,9.397,-3.304,4,0.045,0.367,-0.025,5,-4.099,-45.421,-4.094
701198.0611,3,1.452,9.746,-4.041,,,,,,,,
701198.081,3,2.175,9.145,-3.125,,,,,,,,
701198.1008,3,2.256,8.961,-3.869,4,0.032,0.276,-0.046,,,,
701198.1207,3,2.11,9.179,-3.462,,,,,,,,
701198.1406,3,1.586,9.691,-3.106,,,,,,,,
701198.1604,3,1.51,8.813,-4.489,4,0.065,0.169,-0.096,5,-4.234,-45.665,-3.938
701198.1803,3,0.524,8.71,-4.032,,,,,,,,
701198.2002,3,0.385,8.837,-4.405,,,,,,,,
701198.2201,3,0.684,8.073,-3.501,4,0.035,-0.021,-0.095,5,-3.259,-45.839,-3.465
701198.2399,3,0.744,10.835,-4.173,,,,,,,,
701198.2598,3,1.577,9.277,-3.12,,,,,,,,
701198.2797,3,1.505,9.198,-2.969,4,0.011,-0.174,-0.073,5,-0.357,-45.148,-2.832
701198.2995,3,2.125,9.016,-2.462,,,,,,,,
701198.3194,3,2.752,9.078,-3.321,,,,,,,,
701198.3393,3,2.347,9.236,-3.003,4,0.01,-0.282,-0.081,5,-3.165,-45.49,-3.073
701198.3591,3,2.733,9.366,-3.264,,,,,,,,
701198.379,3,3.144,8.37,-4.58,,,,,,,,
701198.3989,3,3.087,7.76,-3.9,4,-0.02,-0.098,-0.167,5,-2.545,-45.628,-2.638
701198.4187,3,3.197,8.858,-3.637,,,,,,,,
701198.4386,3,2.965,11.064,-2.943,,,,,,,,
701198.4585,3,2.254,10.239,-1.778,4,-0.012,0.04,-0.288,5,-0.778,-46.248,-1.959
701198.4783,3,1.412,9.519,-2.678,,,,,,,,
701198.4982,3,0.036,8.377,-2.835,,,,,,,,
701198.5181,3,-1.034,8.973,-4.57,4,0.074,-0.299,-0.306,5,-0.764,-45.584,-2.635
701198.5379,3,-0.828,8.964,-3.881,,,,,,,,
701198.5578,3,-0.672,8.894,-4.094,,,,,,,,
701198.5777,3,-0.024,10.275,-3.015,4,-0.013,-0.824,-0.219,5,-0.398,-45.197,-1.131
701198.5975,3,-0.043,9.401,-1.689,,,,,,,,
701198.6174,3,0.069,9.078,-3.044,,,,,,,,
701198.6373,3,0.014,10.466,-3.613,4,0.017,-0.658,-0.133,,,,
701198.6571,3,-0.615,9.495,-3.874,,,,,,,,
701198.677,3,-0.208,9.854,-2.493,,,,,,,,
701198.6969,3,0.486,10.215,-2.027,4,-0.072,-0.426,-0.083,5,2.956,-47.966,0.224
701198.7167,3,0.742,10.138,-1,,,,,,,,
701198.7366,3,-0.072,10.763,-2.254,,,,,,,,
701198.7565,3,-0.433,9.643,-2.218,4,-0.018,-0.195,-0.049,5,-0.111,-46.286,-1.9
701198.7763,3,-0.983,9.009,-3.19,,,,,,,,
701198.7962,3,-0.378,8.344,-3.19,,,,,,,,
701198.8161,3,0.28,10.366,-2.757,4,-0.03,0.031,0.006,5,0.061,-46.471,0.084
701198.836,3,0.9,11.519,-1.902,,,,,,,,
701198.8558,3,1.024,7.566,-0.256,,,,,,,,
701198.8757,3,0.596,10.942,-2,4,-0.028,-0.14,0.018,5,-0.056,-45.57,-1.137
701198.8956,3,1.579,12.701,-1.098,,,,,,,,
701198.9154,3,2.055,10.406,0.309,,,,,,,,
701198.9353,3,1.163,7.951,-1.206,4,0.051,-0.055,-0.047,5,-3.021,-45.348,-2.061
701198.9551,3,0.199,9.375,-3.68,,,,,,,,
701198.975,3,0.153,8.093,-5.369,,,,,,,,
701198.9949,3,0.335,9.638,-6.312,4,-0.006,0.033,-0.058,5,-2.052,-45.522,-1.283
701199.0147,3,0.127,8.389,-1.931,,,,,,,,
701199.0346,3,-0.656,10.737,-0.292,,,,,,,,
701199.0545,3,-0.333,9.449,-0.105,4,-0.004,0.266,-0.058,5,0.354,-45.32,-1.907
701199.0744,3,-0.352,9.808,-3.103,,,,,,,,
701199.0942,3,-0.366,8.444,-4.18,,,,,,,,
701199.1141,3,0.227,9.921,-5.527,4,0.099,0.693,-0.077,5,-0.51,-46.295,-0.609
701199.134,3,0.196,9.55,-3.039,,,,,,,,
701199.1538,3,-0.124,9.428,-0.826,,,,,,,,
701199.1737,3,0.416,10.99,0.275,4,-0.016,0.522,-0.082,,,,
701199.1936,3,0.625,10.198,-0.866,,,,,,,,
701199.2134,3,-0.23,10.227,-2.701,,,,,,,,
701199.2333,3,-0.153,9.004,-3.046,4,0.072,0.33,-0.117,5,0.67,-45.119,-0.804
701199.2532,3,1.321,8.504,-3.879,,,,,,,,
701199.273,3,1.498,9.93,-2.919,,,,,,,,
701199.2929,3,0.29,9.186,-0.902,4,-0.044,0.514,-0.148,,,,
701199.3127,3,-0.739,11.754,-1.314,,,,,,,,
701199.3326,3,-1.172,6.707,-0.565,,,,,,,,
701199.3525,3,-2.235,9.05,-3.271,4,0.018,0.371,-0.17,5,2.171,-45.515,-1.321
701199.3724,3,-1.242,10.662,-4.441,,,,,,,,
701199.3922,3,-1.708,10.727,-1.976,,,,,,,,
701199.4121,3,-2.232,10.234,0.287,4,-0.078,0.371,-0.076,5,2.991,-46.689,0.034
701199.432,3,-1.565,9.756,1.364,,,,,,,,
701199.4518,3,-0.103,9.672,-1.218,,,,,,,,
701199.4717,3,0.311,9.265,-3.204,4,0.123,0.184,-0.024,5,3.137,-46.158,-1.222
701199.4916,3,0.505,10.904,-5.106,,,,,,,,
701199.5114,3,0.342,11.299,-7.068,,,,,,,,
701199.5313,3,-0.287,8.736,-1.058,4,-0.048,0.125,-0.044,5,1.878,-46.666,-1.317
701199.5512,3,0.447,11.643,-0.045,,,,,,,,
701199.571,3,1.323,8.384,1.742,,,,,,,,
701199.5909,3,1.823,10.524,-1.866,4,0.023,0.293,-0.067,5,2.498,-46.55,-1.228
701199.6108,3,1.507,8.889,-3.721,,,,,,,,
701199.6306,3,0.804,8.547,-2.974,,,,,,,,
701199.6505,3,0.313,10.481,-2.857,4,0.019,0.288,-0.165,5,3.239,-45.685,-0.647
701199.6704,3,0.345,9.98,-1.831,,,,,,,,
701199.6903,3,0.117,9.129,-0.158,,,,,,,,
701199.7101,3,1.038,11.177,0.199,4,-0.027,-0.087,-0.195,,,,
701199.73,3,1.929,9.284,-0.531,,,,,,,,
701199.7499,3,1.163,9.641,-1.857,,,,,,,,
701199.7697,3,0.436,9.196,-3.025,4,0.045,-0.415,-0.241,5,3.943,-45.663,-0.296
701199.789,3,-0.665,9.734,-3.917,,,,,,,,
701199.8095,3,-0.598,9.423,-4.219,,,,,,,,
701199.8293,3,-0.816,10.823,-3.879,4,-0.001,-0.683,-0.205,,,,
701199.8492,3,-1.225,7.088,-2.632,,,,,,,,
701199.8691,3,-1.06,9.624,-3.769,,,,,,,,
701199.8889,3,-0.579,10.27,-3.575,4,-0.025,-0.65,-0.122,5,4.172,-45.885,-2.24
701199.9088,3,-0.687,9.89,-1.46,,,,,,,,
701199.9287,3,-0.847,10,-1.132,,,,,,,,
701199.9486,3,0.055,9.433,-0.761,4,0.036,-0.778,-0.096,5,4.979,-45.592,-2.477
701199.9684,3,-0.019,10.677,-3.257,,,,,,,,
701199.9883,3,-0.024,9.803,-4.262,,,,,,,,
701200.0082,3,-0.706,9.669,-4.07,4,0.066,-0.782,-0.049,5,4.73,-44.839,-1.224
701200.028,3,-0.96,9.212,-2.534,,,,,,,,
701200.0479,3,-1.029,9.705,-1.981,,,,,,,,
701200.0678,3,-0.706,10.143,-1.541,4,-0.02,-0.968,0.018,5,4.332,-46.413,-0.928
701200.0876,3,0.002,8.925,-1.22,,,,,,,,
701200.1075,3,0.488,9.928,-2.891,,,,,,,,
701200.1274,3,1.426,9.935,-4.711,4,0.052,-0.902,0.04,5,3.764,-46.049,-3.195
701200.1472,3,1.239,10.002,-4.58,,,,,,,,
701200.1671,3,1.17,9.339,-2.895,,,,,,,,
701200.1869,3,0.469,9.937,-1.965,4,-0.03,-0.505,0.008,5,4.312,-44.849,-1.903
701200.2068,3,0.165,9.887,-1.941,,,,,,,,
701200.2267,3,0.397,9.653,-2.285,,,,,,,,
701200.2466,3,0.835,10.253,-2.977,4,-0.032,-0.553,-0.05,5,2.6,-44.263,-2.539
701200.2664,3,0.421,10.485,-2.235,,,,,,,,
701200.2863,3,-0.426,9.105,-1.424,,,,,,,,
701200.3062,3,-1.043,8.844,-1.551,4,-0.073,-0.705,-0.083,5,2.861,-44.498,-2.632
701200.326,3,-2.367,9.452,-2.189,,,,,,,,
701200.3459,3,-2.072,9.839,-1.969,,,,,,,,
701200.3658,3,-1.847,5.326,-1.744,4,-0.092,-1.048,-0.015,,,,
701200.3856,3,-2.716,10.5,-3.199,,,,,,,,
701200.4055,3,-2.285,12.505,-2.003,,,,,,,,
701200.4254,3,0.132,11.529,1.711,4,-0.162,-1.153,0.13,5,1.917,-45.042,-1.672
701200.4452,3,1.976,8.765,1.764,,,,,,,,
701200.4651,3,-0.744,10.799,-0.357,,,,,,,,
701200.485,3,-1.603,10.725,-2.041,4,0.02,-1.145,0.076,5,2.428,-45.612,-1.28
701200.5049,3,-1.838,9.009,-1.859,,,,,,,,
701200.5247,3,-2.725,10.423,-2.297,,,,,,,,
701200.5446,3,-1.378,9.789,-1.943,4,-0.027,-1.213,0.184,5,-2.126,-45.891,-4.973
701200.5645,3,-0.546,9.504,-0.919,,,,,,,,
701200.5843,3,-0.304,10.256,-1.359,,,,,,,,
701200.6042,3,0.845,9.43,-1.397,4,0.073,-1.218,0.166,5,-0.78,-44.106,-2.583
701200.624,3,-0.744,9.454,-2.072,,,,,,,,
701200.6439,3,-2.498,9.813,-2.759,,,,,,,,
701200.6638,3,-1.476,9.394,-2.077,4,0.127,-1.192,0.176,5,-2.274,-45.432,-2.103
701200.6836,3,0.086,8.966,-1.216,,,,,,,,
701200.7035,3,-0.129,10.753,-1.62,,,,,,,,
701200.7234,3,0.158,10.043,-1.397,4,0.146,-1.352,0.16,5,-2.788,-46.347,-2.637
701200.7432,3,-0.184,10.028,-1.857,,,,,,,,
701200.7631,3,-0.713,9.519,-1.204,,,,,,,,
701200.783,3,-1.936,9.894,0.512,4,0.203,-0.712,0.172,5,-4.112,-46.039,-2.103
701200.8029,3,-2.311,9.803,0.66,,,,,,,,
701200.8227,3,-4.415,10.217,0.309,,,,,,,,
701200.8426,3,-3.568,10.057,-0.218,4,0.3,0.27,0.259,5,-6.081,-44.669,-0.81
701200.8625,3,-1.536,8.693,-0.567,,,,,,,,
701200.8823,3,-0.936,9.827,-2.709,,,,,,,,
701200.9022,3,-0.093,9.476,-2.747,4,0.285,0.926,0.296,,,,
701200.9221,3,2.311,9.779,-2.539,,,,,,,,
701200.9419,3,3.912,9.83,-3.807,,,,,,,,
701200.9618,3,3.369,9.098,-3.919,4,0.15,1.052,0.138,5,-6.783,-46.317,0.217
701200.9817,3,1.637,9.344,-3.376,,,,,,,,
701201.0015,3,0.34,8.916,-3.278,,,,,,,,
701201.0214,3,-0.108,10.198,-2.649,4,-0.022,0.831,-0.041,,,,
701201.0412,3,-2.627,10.962,-0.677,,,,,,,,
701201.0611,3,-1.63,9.523,0.742,,,,,,,,
701201.081,3,-1.62,11.244,-0.089,4,-0.023,0.464,-0.022,5,-6.566,-46.442,-0.705
701201.1009,3,-2.737,9.935,-1.235,,,,,,,,
701201.1207,3,-3.91,10.366,-2.395,,,,,,,,
701201.1406,3,-4.216,9.184,-2.024,4,0.065,0.494,0.054,5,-5.275,-44.56,0.406
701201.1605,3,-3.986,8.887,-1.754,,,,,,,,
701201.1803,3,-4.123,9.641,-2.386,,,,,,,,
701201.2002,3,-3.821,9.547,-3.123,4,0.124,0.774,0.196,5,-5.396,-43.954,-0.566
701201.2201,3,-2.328,8.815,-3.182,,,,,,,,
701201.2399,3,-0.653,9.574,-3.941,,,,,,,,
701201.2598,3,1.242,9.191,-2.678,4,0.176,1.196,0.249,5,-6.02,-45.811,0.075
701201.2797,3,1.01,9.318,-5.362,,,,,,,,
701201.2995,3,2.252,9.421,-4.599,,,,,,,,
701201.3194,3,1.472,9.835,-5.719,4,0.139,1.146,0.102,5,-4.646,-46.397,0.116
701201.3393,3,1.615,9.823,-2.084,,,,,,,,
701201.3591,3,1.594,9.265,-0.895,,,,,,,,
701201.379,3,0.519,9.796,-1.579,4,0.048,1.068,-0.032,5,-5.464,-47.128,-1.18
701201.3989,3,0.093,9.222,-2.211,,,,,,,,
701201.4188,3,0.273,8.897,-3.486,,,,,,,,
701201.4386,3,-0.692,9.411,-4.343,4,0.072,1.198,-0.109,,,,
701201.4585,3,-1.845,9.693,-3.175,,,,,,,,
701201.4783,3,-2.407,8.894,-2.694,,,,,,,,
701201.4982,3,-2.465,9.966,-3.692,4,0.031,1.102,-0.091,5,-3.444,-46.088,-0.601
701201.5181,3,-2.221,9.105,-2.855,,,,,,,,
701201.5379,3,-1.366,9.217,-3.984,,,,,,,,
701201.5578,3,-1.271,9.382,-4.434,4,0.034,0.827,-0.038,,,,
701201.5777,3,-0.938,9.464,-4.345,,,,,,,,
701201.5975,3,-0.581,9.796,-3.802,,,,,,,,
701201.6174,3,0.124,10.382,-2.465,4,0.019,0.792,-0.033,5,-3.076,-45.549,-0.461
701201.6373,3,0.261,9.047,-1.4,,,,,,,,
701201.6572,3,1.787,8.841,-4.281,,,,,,,,
701201.677,3,2.065,8.925,-5.2,4,0.074,0.533,-0.087,5,-2.412,-45.819,-1.184
701201.6969,3,1.163,8.621,-3.917,,,,,,,,
701201.7168,3,0.402,9.533,-2.02,,,,,,,,
701201.7366,3,0.366,9.93,-0.632,4,-0.01,0.192,-0.174,5,-1.501,-48.447,-1.903
701201.7565,3,0.979,9.868,-1.929,,,,,,,,
701201.7764,3,1.082,10.174,-3.192,,,,,,,,
701201.7962,3,1.216,9.799,-3.527,4,0.016,-0.008,-0.178,5,1.323,-46.78,0.778
701201.8161,3,0.189,9.449,-2.441,,,,,,,,
701201.8359,3,-0.215,9.72,-1.436,,,,,,,,
701201.8558,3,-0.577,9.818,-2.323,4,-0.044,-0.26,-0.157,5,0.952,-46.643,0.38
701201.8757,3,-0.943,9.753,-3.036,,,,,,,,
701201.8955,3,-1.543,9.686,-3.699,,,,,,,,
701201.9154,3,-0.885,9.069,-5.262,4,-0.06,-0.501,-0.031,5,-0.101,-45.57,-1.907
701201.9353,3,-0.311,10.076,-4.848,,,,,,,,
701201.9552,3,-0.297,9.389,-3.264,,,,,,,,
701201.975,3,0.373,10.741,-1.969,4,-0.102,-0.184,0.059,5,-1.501,-44.933,-2.592
701201.9949,3,1.261,8.822,-0.603,,,,,,,,
701202.0148,3,1.558,9.287,-2.579,,,,,,,,
701202.0346,3,1.345,9.765,-4.384,4,0.092,0.223,0.026,5,-1.453,-46.552,-0.697
701202.0545,3,1.45,8.301,-4.321,,,,,,,,
701202.0744,3,3.254,10.024,-4.513,,,,,,,,
701202.0942,3,2.766,9.533,-2.682,4,-0.009,0.281,-0.1,,,,
701202.1141,3,2.381,10.54,-0.476,,,,,,,,
701202.134,3,1.627,8.073,-0.711,,,,,,,,
701202.1538,3,1.491,9.054,-3.35,4,0.002,-0.257,-0.221,5,0.009,-46.707,-1.904
701202.1737,3,0.73,10.335,-4.164,,,,,,,,
701202.1936,3,0.833,10.423,-2.417,,,,,,,,
701202.2134,3,-0.696,10.612,-0.907,4,-0.118,-0.772,-0.234,5,-1.164,-45.891,-0.655
701202.2333,3,-1.364,10.37,-0.266,,,,,,,,
701202.2532,3,-1.828,9.83,-0.433,,,,,,,,
701202.2731,3,-1.656,9.832,-1.625,4,-0.042,-0.972,-0.125,5,0.592,-44.588,-2.541
701202.2929,3,-1.297,10.801,-3.563,,,,,,,,
701202.3128,3,-0.352,8.7,-3.003,,,,,,,,
701202.3326,3,0.194,10.098,-2.706,4,-0.067,-0.382,-0.008,5,1.074,-47.266,-1.311
701202.3525,3,0.12,9.564,-2.046,,,,,,,,
701202.3724,3,-0.335,9.507,-1.129,,,,,,,,
701202.3922,3,-0.474,10.217,-1.034,4,-0.026,-0.13,-0.002,5,0.578,-45.314,-0.945
701202.4121,3,-0.577,9.77,-2.067,,,,,,,,
701202.432,3,-0.22,10.265,-3.056,,,,,,,,
701202.4518,3,-0.208,9.696,-2.345,4,-0.01,-0.375,-0.004,5,-0.208,-46.234,-2.634
701202.4717,3,0.199,8.011,-1.541,,,,,,,,
701202.4916,3,0.026,10.272,-2.331,,,,,,,,
701202.5115,3,0.27,10.835,-2.194,4,-0.061,-0.61,0.021,5,-1.421,-45.027,-2.638
701202.5313,3,0.718,10.545,-2.039,,,,,,,,
701202.5512,3,1.579,9.653,-1.567,,,,,,,,
701202.5711,3,0.782,9.732,-1.228,4,-0.054,-0.654,0.001,5,-1.154,-46.924,-3.313
701202.5909,3,0.548,10.526,-2.646,,,,,,,,
701202.6108,3,0.498,10.162,-3.235,,,,,,,,
701202.6307,3,-0.895,8.152,-2.154,4,-0.018,-0.431,-0.014,,,,
701202.6505,3,-1.641,8.04,-2.948,,,,,,,,
701202.6704,3,-1.184,9.377,-3.785,,,,,,,,
701202.6903,3,-1.165,9.488,-2.902,4,-0.004,-0.196,0.041,5,-1.242,-45.076,-1.912
701202.7101,3,-0.591,10.229,-3.529,,,,,,,,
701202.73,3,2.328,13.498,-0.275,,,,,,,,
701202.7498,3,0.428,10.926,3.642,4,-0.008,-0.155,0.041,5,-1.447,-46.31,-2.625
701202.7697,3,1.515,7.951,1.309,,,,,,,,
701202.7896,3,-0.134,9.672,-4.948,,,,,,,,
701202.8095,3,-0.684,8.227,-6.152,4,0.182,-0.274,-0.014,5,-1.273,-46.12,-3.668
701202.8293,3,-0.541,9.086,-6.396,,,,,,,,
701202.8492,3,-0.452,9.361,-4.314,,,,,,,,
701202.8691,3,0.644,9.856,-1.802,4,-0.071,-0.55,0.019,5,-1.401,-45.937,-1.909
701202.8889,3,0.864,9.387,-1.134,,,,,,,,
701202.9088,3,0.404,9.945,-2.532,,,,,,,,
701202.9287,3,0.347,9.701,-3.405,4,0.022,-0.851,-0.043,5,-2.119,-46.477,-1.328
701202.9485,3,-0.622,8.815,-3.477,,,,,,,,
701202.9684,3,-2.139,9.485,-3.635,,,,,,,,
701202.9883,3,-2.716,9.138,-2.249,4,0.015,-0.734,0.014,5,-2.759,-47.06,-1.909
701203.0081,3,-2.156,8.899,-1.45,,,,,,,,
701203.028,3,-2.268,9.854,-1.61,,,,,,,,
701203.0479,3,-2.809,10.083,-0.988,4,0.073,-0.424,0.104,5,-3.201,-45.413,-0.461
701203.0678,3,-3.264,9.502,-1.309,,,,,,,,
701203.0876,3,-2.247,9.722,-2.422,,,,,,,,
701203.1075,3,-0.658,9.959,-3.223,4,0.165,0.21,0.206,5,-3.424,-45.227,-0.603
701203.1274,3,-0.285,10.416,-2.673,,,,,,,,
701203.1472,3,0.579,7.97,-1.764,,,,,,,,
701203.1671,3,0.718,8.344,-4.171,4,0.163,0.82,0.188,,,,
701203.1864,3,1.601,10.33,-5.798,,,,,,,,
701203.2068,3,2.134,9.937,-3.525,,,,,,,,
701203.2267,3,2.828,10.485,-1.804,4,-0.011,0.959,0.018,5,-2.39,-47.055,-0.456
701203.2466,3,1.424,10.71,-1.417,,,,,,,,
701203.2664,3,0.933,9.567,-0.993,,,,,,,,
701203.2863,3,-0.01,9.5,-2.821,4,0,0.349,-0.147,,,,
701203.3062,3,-2.259,9.511,-4.018,,,,,,,,
701203.326,3,-4.762,8.337,-3.51,,,,,,,,
701203.3459,3,-5.386,9.272,-3.077,4,-0.062,-0.36,-0.049,5,-3.178,-46.078,-0.023
701203.3658,3,-4.376,8.573,-0.754,,,,,,,,
701203.3857,3,-3.501,9.622,-2.204,,,,,,,,
701203.4055,3,-2.685,9.756,-3.881,4,0.048,-0.463,0.142,5,-3.658,-45.656,-0.217
701203.4254,3,-1.275,9.643,-3.383,,,,,,,,
701203.4453,3,0.412,8.454,-4.216,,,,,,,,
701203.4651,3,1.132,9.483,-3.362,4,0.048,0.337,0.209,5,-4.706,-45.073,-0.464
701203.485,3,1.816,8.502,-2.443,,,,,,,,
701203.5048,3,2.761,9.504,-2.434,,,,,,,,
701203.5247,3,2.225,10.495,-2.881,4,0.023,0.802,0.052,5,-3.542,-44.65,-0.464
701203.5446,3,1.854,9.076,-2.4,,,,,,,,
701203.5644,3,1.096,10.002,-1.737,,,,,,,,
701203.5843,3,-0.981,10.134,-1.237,4,-0.046,0.305,-0.102,5,-3.4,-46.317,0.32
701203.6042,3,-1.881,9.854,-1.263,,,,,,,,
701203.624,3,-2.252,7.64,-1.984,,,,,,,,
701203.6439,3,-2.465,10.359,-4.465,4,-0.038,-0.422,-0.064,5,-3.944,-46.567,-2.051
701203.6638,3,-2.041,10.189,-3.821,,,,,,,,
701203.6836,3,-1.175,9.904,-2.644,,,,,,,,
701203.7035,3,-1.05,10.528,-2.4,4,-0.052,-0.511,0.058,,,,
701203.7234,3,-0.826,9.66,-1.632,,,,,,,,
701203.7433,3,-0.703,8.856,-3.259,,,,,,,,
701203.7631,3,-0.627,9.586,-4.288,4,0.071,-0.116,0.103,5,-4.756,-45.163,-0.117
701203.783,3,-0.629,9.289,-4.173,,,,,,,,
701203.8029,3,0.165,9.483,-2.984,,,,,,,,
701203.8227,3,0.56,9.306,-1.603,4,0.011,0.337,0.11,,,,
701203.8426,3,0.538,10.593,-2.079,,,,,,,,
701203.8625,3,0.055,9.978,-1.682,,,,,,,,
701203.8823,3,0.244,9.935,-2.309,4,0.036,0.446,0.039,5,-3.77,-44.904,-0.801
701203.9022,3,-0.61,9.983,-2.355,,,,,,,,
701203.9221,3,-1.529,9.205,-1.701,,,,,,,,
701203.942,3,-1.455,9.229,-2.84,4,-0.02,0.243,0.029,5,-4.504,-45.959,-0.313
701203.9618,3,-1.314,10.287,-3.247,,,,,,,,
701203.9817,3,-1.237,9.401,-2.223,,,,,,,,
701204.0016,3,-0.816,10,-1.716,4,-0.059,0.068,0.075,5,-4.025,-44.244,0.261
701204.0214,3,-1.027,10.394,-1.699,,,,,,,,
701204.0413,3,-1.242,9.471,-1.811,,,,,,,,
701204.0611,3,-0.378,7.688,-3.683,4,0.054,0.181,0.097,5,-5.244,-46.886,-1.18
701204.081,3,0.325,9.823,-5.74,,,,,,,,
701204.1009,3,-0.079,8.959,-3.283,,,,,,,,
701204.1207,3,0.072,10.923,-1.787,4,-0.041,0.524,0.082,5,-3.676,-44.382,-1.189
701204.1406,3,0.955,10.985,0.093,,,,,,,,
701204.1605,3,0.447,8.87,0.428,,,,,,,,
701204.1803,3,-0.218,10.638,-2.852,4,0.072,0.633,-0.007,,,,
701204.2002,3,0.187,9.095,-3.951,,,,,,,,
701204.2201,3,-0.211,8.741,-3.501,,,,,,,,
701204.24,3,-0.558,9.193,-2.517,4,-0.011,0.636,-0.034,5,-4.768,-45.584,-2.208
701204.2598,3,-0.948,9.105,-1.476,,,,,,,,
701204.2797,3,-0.55,8.294,-2.063,,,,,,,,
701204.2996,3,0.29,11.873,-4.099,4,-0.014,0.383,-0.06,5,-2.335,-44.057,-2.641
701204.3194,3,-0.385,11.6,-1.618,,,,,,,,
701204.3393,3,0.12,7.832,-0.055,,,,,,,,
701204.3592,3,0.581,9.787,-3.226,4,0.037,0.334,-0.073,,,,
701204.379,3,0.038,9.126,-4.374,,,,,,,,
701204.3989,3,-0.644,9.442,-3.838,,,,,,,,
701204.4188,3,0.227,9.626,-3.417,4,-0.012,0.275,-0.088,5,-2.983,-45.398,-2.632
701204.4386,3,0.251,10.722,-2.211,,,,,,,,
701204.4585,3,-0.517,11.507,-0.687,,,,,,,,
701204.4784,3,0.242,6.568,-0.397,4,0.013,0.087,-0.101,5,-1.596,-46.368,-2.583
701204.4982,3,-0.357,9.342,-4.185,,,,,,,,
701204.5181,3,-1.213,9.344,-4.829,,,,,,,,
701204.538,3,-1.584,9.997,-3.168,4,0.003,0.031,-0.053,5,-1.846,-46.463,-2.49
701204.5578,3,-0.479,10.859,-1.658,,,,,,,,
701204.5777,3,-0.254,9.203,-0.359,,,,,,,,
701204.5976,3,-0.517,10.933,-2.055,4,0.007,-0.12,-0.003,5,-2.791,-46.678,-1.961
701204.6174,3,0.033,10.557,-2.819,,,,,,,,
701204.6373,3,-0.498,8.832,-2.807,,,,,,,,
701204.6572,3,0.278,9.155,-2.666,4,0.013,-0.149,0.025,5,-1.604,-45.085,-2.638
701204.677,3,0.706,9.581,-3.4,,,,,,,,
701204.6969,3,0.586,10.347,-2.536,,,,,,,,
701204.7168,3,1.058,9.007,-1.744,4,-0.014,0.187,0.014,,,,
701204.7366,3,1.239,11.074,-3.046,,,,,,,,
701204.7565,3,0.467,9.375,-2.154,,,,,,,,
701204.7764,3,-0.23,9.224,-1.881,4,-0.009,0.444,-0.043,5,-1.421,-45.073,-2.829
701204.7963,3,0.237,9.76,-1.965,,,,,,,,
701204.8161,3,-0.172,8.064,-1.094,,,,,,,,
701204.836,3,-0.859,10.39,-3.888,4,0.031,0.285,-0.087,5,-1.756,-45.988,-1.523
701204.8559,3,-1.038,11.641,-5.336,,,,,,,,
701204.8757,3,-1.055,8.468,-1.134,,,,,,,,
701204.8956,3,-0.885,7.767,-0.651,4,-0.065,0.184,-0.04,,,,
701204.9154,3,-1.699,10.904,-2.4,,,,,,,,
701204.9353,3,-1.529,9.985,-1.517,,,,,,,,
701204.9552,3,-0.421,9.509,-1.888,4,0.008,0.252,0.009,5,1.697,-45.486,0.182
701204.975,3,0.122,8.956,-1.823,,,,,,,,
701204.9949,3,1.364,10.215,-3.235,,,,,,,,
701205.0148,3,1.778,9.521,-3.441,4,0.024,0.574,-0.01,,,,
701205.0346,3,1.381,9.394,-2.23,,,,,,,,
701205.0545,3,0.256,9.109,-1.622,,,,,,,,
701205.0744,3,1.029,9.868,-2.503,4,0.008,0.601,-0.119,5,0.307,-47.215,-1.669
701205.0943,3,0.921,9.437,-3.228,,,,,,,,
701205.1141,3,-0.156,10.184,-2.577,,,,,,,,
701205.134,3,0.134,8.92,-2.28,4,-0.009,0.306,-0.171,5,-0.096,-45.57,-1.613
701205.1539,3,-0.089,9.911,-2.118,,,,,,,,
701205.1737,3,-0.715,9.322,-2.678,,,,,,,,
701205.1936,3,0.189,10.466,-3.046,4,-0.011,-0.084,-0.172,5,0.723,-46.875,-2.631
701205.2135,3,0.223,9.241,-2.23,,,,,,,,
701205.2333,3,-0.459,9.456,-2.108,,,,,,,,
701205.2532,3,-0.148,9.466,-2.493,4,-0.025,-0.251,-0.147,5,2.467,-46.217,-2.629
701205.2731,3,0.56,11.043,-1.878,,,,,,,,
701205.2929,3,0.45,7.48,-0.821,,,,,,,,
701205.3128,3,0.194,10.299,-3.063,4,-0.013,-0.255,-0.12,5,0.578,-45.12,-3.65
701205.3327,3,0.919,10.416,-2.845,,,,,,,,
701205.3525,3,0.201,9.337,-1.591,,,,,,,,
701205.3724,3,0.213,9.739,-1.381,4,-0.036,-0.103,-0.124,,,,
701205.3923,3,0.151,9.086,-1.972,,,,,,,,
701205.4121,3,-1.11,10.229,-3.137,,,,,,,,
701205.432,3,-1.103,10.045,-2.914,4,-0.013,-0.213,-0.093,5,2.751,-47.401,-1.656
701205.4519,3,-0.462,9.471,-2.517,,,,,,,,
701205.4717,3,-0.237,9.787,-2.182,,,,,,,,
701205.4916,3,-0.507,9.351,-2.527,4,-0.027,-0.459,-0.062,5,2.574,-45.505,-1.904
701205.5115,3,-0.39,9.552,-3.206,,,,,,,,
701205.5313,3,-0.156,9.289,-3.147,,,,,,,,
701205.5512,3,-0.524,9.636,-2.489,4,-0.021,-0.476,-0.021,,,,
701205.5711,3,-0.579,9.724,-2.311,,,,,,,,
701205.5909,3,-0.036,9.136,-1.955,,,,,,,,
701205.6108,3,0.294,9.665,-3.017,4,0.022,-0.386,0.016,5,1.488,-45.859,-2.182
701205.6307,3,-0.311,9.839,-2.788,,,,,,,,
701205.6505,3,-0.337,9.433,-2.711,,,,,,,,
701205.6704,3,-0.438,10.873,-1.771,4,-0.01,-0.317,0.02,5,1.897,-45.848,-2.568
701205.6903,3,-0.199,9.595,-0.136,,,,,,,,
701205.7102,3,-0.156,8.296,-1.342,,,,,,,,
701205.73,3,-0.816,9.701,-3.996,4,0.048,-0.275,0.027,5,1.234,-45.541,-1.18
701205.7499,3,-0.495,9.947,-3.721,,,,,,,,
701205.7698,3,0.538,11.189,-1.957,,,,,,,,
701205.7896,3,1.4,11.084,0.29,4,-0.046,-0.035,0.042,5,-1.111,-46.828,-2.977
701205.8095,3,0.943,9.708,-0.139,,,,,,,,
701205.8293,3,0.002,10.186,-2.91,,,,,,,,
701205.8492,3,-0.335,8.918,-3.924,4,0.073,0.092,-0.027,5,1.253,-46.538,-3.355
701205.8691,3,-0.56,9.423,-4.25,,,,,,,,
701205.8889,3,-0.12,8.636,-2.96,,,,,,,,
701205.9088,3,-0.541,7.391,-2.127,4,-0.057,0.04,-0.024,,,,
701205.9287,3,-0.572,11.361,-3.51,,,,,,,,
701205.9486,3,-0.811,11.811,-1.866,,,,,,,,
701205.9684,3,-0.062,8.497,-0.352,4,-0.063,-0.191,-0.018,5,1.265,-46.205,-1.949
701205.9883,3,-0.988,9.198,-1.362,,,,,,,,
701206.0082,3,-2.228,10.471,-2.594,,,,,,,,
701206.028,3,-2.032,8.478,-2.749,4,0.04,-0.29,0.006,5,2.147,-44.8,-2.144
701206.0479,3,-1.275,9.538,-3.398,,,,,,,,
701206.0678,3,-1.417,9.576,-2.266,,,,,,,,
701206.0876,3,-0.522,11.23,-1.218,4,-0.014,-0.081,0.1,,,,
701206.1075,3,0.569,8.743,-0.39,,,,,,,,
701206.1274,3,-0.036,8.069,-2.96,,,,,,,,
701206.1472,3,-0.979,10.971,-4.707,4,0.04,0.194,0.09,5,1.369,-45.393,-3.064
701206.1671,3,-0.445,9.768,-3.221,,,,,,,,
701206.1864,3,-0.187,10.83,-0.995,,,,,,,,
701206.2068,3,-0.029,9.837,-0.105,4,-0.035,0.164,0.069,5,-0.192,-45.77,-1.381
701206.2267,3,0.093,10.117,-2.12,,,,,,,,
701206.2466,3,-0.184,9.722,-3.563,,,,,,,,
701206.2664,3,-0.361,8.439,-3.118,4,0.026,-0.078,0.036,5,-0.174,-45.137,-2.003
701206.2863,3,0.144,8.832,-3.321,,,,,,,,
701206.3062,3,0.211,9.461,-3.132,,,,,,,,
701206.326,3,0.431,10.758,-3.151,4,0,-0.054,0.01,5,-0.101,-45.711,-2.199
701206.3459,3,0.397,9.578,-2.113,,,,,,,,
701206.3658,3,0.139,9.918,-1.955,,,,,,,,
701206.3856,3,-0.613,9.918,-2.02,4,0.011,0.092,-0.023,5,1.039,-44.353,-3.116
701206.4055,3,-1.103,9.028,-2.089,,,,,,,,
701206.4254,3,-0.976,10.088,-3.132,,,,,,,,
701206.4452,3,-0.95,9.894,-0.665,4,0.011,0.096,-0.006,,,,
701206.4651,3,-1.244,10.079,-1.898,,,,,,,,
701206.485,3,-0.589,10.122,-4.089,,,,,,,,
701206.5048,3,-1.031,10.662,-1.728,4,-0.001,0.141,0.027,5,-0.23,-45.569,-3.804
701206.5247,3,-1.237,6.963,-0.553,,,,,,,,
701206.5446,3,-1,10.6,-3.175,,,,,,,,
701206.5645,3,-0.852,10.071,-2.898,4,0,0.122,0.062,5,0.6,-46.315,-3.02
701206.5843,3,-0.907,9.708,-1.419,,,,,,,,
701206.6042,3,0.234,9.799,-0.799,,,,,,,,
701206.6241,3,1.031,9.366,-2.032,4,0.016,0.192,0.065,,,,
701206.6439,3,0.869,10.1,-3.391,,,,,,,,
701206.6638,3,0.84,9.023,-2.785,,,,,,,,
701206.6836,3,0.491,9.772,-2.996,4,0.01,0.245,-0.008,5,0.087,-45.369,-2.966
701206.7035,3,0.213,9.973,-2.333,,,,,,,,
701206.7234,3,-0.031,9.069,-2.149,,,,,,,,
701206.7433,3,-0.06,9.196,-2.9,4,0.012,0.006,-0.06,5,0.534,-46.979,-2.625
701206.7631,3,-0.357,10.052,-3.613,,,,,,,,
701206.783,3,-0.572,8.552,-2.103,,,,,,,,
701206.8029,3,-0.366,9.444,-2.929,4,-0.002,-0.089,-0.066,5,-0.154,-48.048,-1.709
701206.8227,3,-0.577,9.444,-3.333,,,,,,,,
701206.8426,3,-0.677,9.418,-2.584,,,,,,,,
701206.8625,3,-0.263,8.638,-1.479,4,-0.013,-0.035,-0.049,5,0.874,-45.921,-2.716
701206.8823,3,-0.371,10.655,-2.127,,,,,,,,
701206.9022,3,-1.062,12.412,-1.661,,,,,,,,
701206.9221,3,-0.505,9.294,0.273,4,0.02,0.023,-0.032,5,1.103,-45.393,-2.484
701206.942,3,-0.177,7.463,-2.154,,,,,,,,
701206.9618,3,-0.919,10.636,-4.812,,,,,,,,
701206.9817,3,-1.187,10.832,-3.494,4,0.019,-0.045,0.003,5,-0.07,-46.19,-2.586
701207.0016,3,-1.543,9.232,-0.94,,,,,,,,
701207.0214,3,-0.761,9.337,-0.849,,,,,,,,
701207.0413,3,-0.189,10.904,-2.331,4,-0.011,-0.249,0.048,5,0.105,-46.512,-2.144
701207.0612,3,0.05,9.583,-2.429,,,,,,,,
701207.081,3,0.261,9.681,-3.505,,,,,,,,
701207.1009,3,0.804,8.93,-3.197,4,0.011,-0.094,0.046,,,,
701207.1208,3,0.68,9.523,-2.675,,,,,,,,
701207.1406,3,1.072,10.497,-2.955,,,,,,,,
701207.1605,3,0.854,9.739,-2.333,4,0.003,0.141,-0.007,5,-0.761,-45.445,-2.202
701207.1804,3,1.105,9.155,-1.761,,,,,,,,
701207.2002,3,0.227,9.818,-2.422,,,,,,,,
701207.2201,3,-0.187,10.198,-2.84,4,-0.001,0.088,-0.064,5,0.499,-44.841,-1.909
701207.24,3,-0.06,9.803,-1.919,,,,,,,,
701207.2598,3,-0.05,9.624,-0.663,,,,,,,,
701207.2797,3,-0.689,9.547,-0.625,4,-0.061,-0.16,-0.072,,,,
701207.2996,3,-0.663,10.674,-1.613,,,,,,,,
701207.3194,3,-0.424,10.823,-1.161,,,,,,,,
701207.3393,3,-0.179,7.64,-0.328,4,-0.012,-0.343,-0.047,5,0.563,-45.837,-2.486
701207.3592,3,-0.952,9.722,-3.592,,,,,,,,
701207.3791,3,-0.744,9.894,-4.106,,,,,,,,
701207.3989,3,-0.187,8.997,-2.376,4,-0.035,-0.17,0,5,0.14,-44.849,-2.391
701207.4188,3,-0.359,10.844,-1.809,,,,,,,,
701207.4387,3,-0.51,10.746,-1.318,,,,,,,,
701207.4585,3,0.079,10,-0.27,4,-0.035,-0.011,0.014,5,-0.084,-44.85,-4.036
701207.4784,3,0.232,9.947,-1.431,,,,,,,,
701207.4983,3,-0.06,9.404,-1.546,,,,,,,,
701207.5181,3,-0.526,10.088,-3.041,4,0.02,0.043,0.001,5,0.952,-46.548,-2.187
701207.538,3,-0.278,9.516,-3.137,,,,,,,,
701207.5578,3,-0.108,8.808,-2.115,,,,,,,,
701207.5777,3,0.036,9.062,-2.103,4,-0.022,-0.026,-0.031,5,0.301,-43.747,-3.31
701207.5976,3,0.211,9.835,-3.829,,,,,,,,
701207.6174,3,0.366,13.242,-2.737,,,,,,,,
701207.6373,3,0.074,10.38,-0.581,4,-0.04,-0.247,-0.043,,,,
701207.6572,3,-0.014,7.497,0.548,,,,,,,,
701207.6771,3,-0.213,10.93,-2.922,,,,,,,,
701207.6969,3,-0.861,9.198,-3.625,4,0.056,-0.521,-0.057,5,0.23,-44.518,-3.891
701207.7168,3,-1.247,9.657,-3.998,,,,,,,,
701207.7367,3,-1.127,9.047,-2.888,,,,,,,,
701207.7565,3,-0.589,10.445,-1.467,4,-0.03,-0.626,-0.005,5,0.253,-45.522,-2.441
701207.7764,3,0.048,10.15,-0.735,,,,,,,,
701207.7963,3,0.493,7.76,-1.936,,,,,,,,
701207.8161,3,0.318,8.499,-3.23,4,0.073,-0.526,0.005,,,,
701207.836,3,-0.282,10.366,-4.439,,,,,,,,
701207.8559,3,0.156,10.545,-2.864,,,,,,,,
701207.8757,3,0.424,10.569,-1.022,4,-0.022,-0.306,0.008,5,-1.071,-45.258,-1.953
701207.8956,3,0.658,9.083,-0.234,,,,,,,,
701207.9155,3,-0.665,10.725,-1.295,,,,,,,,
701207.9353,3,-2.182,9.674,-1.816,4,0.027,-0.389,-0.012,5,-0.652,-45.856,-3.36
701207.9552,3,-2.489,9.894,-2.864,,,,,,,,
701207.9751,3,-1.517,10.382,-2.718,,,,,,,,
701207.9949,3,-1.359,10.093,-2.17,4,-0.005,-0.441,0.078,5,-0.858,-44.164,-1.32
701208.0148,3,-0.816,9.751,-1.876,,,,,,,,
701208.0347,3,-0.208,10.435,-2.601,,,,,,,,
701208.0545,3,-0.639,8.961,-1.546,4,0.03,-0.246,0.131,5,-1.651,-45.126,-2.399
701208.0744,3,-0.873,10.138,-2.113,,,,,,,,
701208.0943,3,-0.301,9.756,-2.527,,,,,,,,
701208.1141,3,0.041,8.569,-2.386,4,0.049,-0.028,0.122,5,-2.113,-45.619,-1.772
701208.134,3,0.378,10.241,-3.68,,,,,,,,
701208.1539,3,0.873,9.94,-3.293,,,,,,,,
701208.1737,3,0.749,9.528,-2.307,4,0.022,0.144,0.054,,,,
701208.1936,3,-0.443,9.028,-2.254,,,,,,,,
701208.2135,3,-0.72,11.062,-3.326,,,,,,,,
701208.2334,3,-0.392,10.871,-3.34,4,0.002,-0.043,0.006,5,-1.472,-44.64,-2.449
701208.2532,3,-0.12,7.772,-1.582,,,,,,,,
701208.2731,3,-0.933,9.669,-2.51,,,,,,,,
701208.293,3,-1.314,9.842,-2.194,4,-0.044,-0.24,-0.001,,,,
701208.3128,3,-0.749,9.983,-1.565,,,,,,,,
701208.3327,3,-0.56,10.603,-0.971,,,,,,,,
701208.3526,3,-1.208,9.842,-0.455,4,0.003,-0.306,0.038,5,-2.469,-44.202,-1.479
701208.3724,3,-2.06,9.555,-1.491,,,,,,,,
701208.3923,3,-2.142,9.708,-2.558,,,,,,,,
701208.4122,3,-1.878,8.837,-2.376,4,0.029,-0.289,0.083,5,-0.963,-44.646,-0.696
701208.432,3,-1.653,9.851,-2.043,,,,,,,,
701208.4519,3,-1.278,9.461,-1.627,,,,,,,,
701208.4717,3,-1.189,8.985,-1.921,4,0.059,-0.175,0.158,5,-2.797,-44.823,-1.186
701208.4916,3,-0.754,9.978,-2.967,,,,,,,,
701208.5115,3,-0.77,9.093,-3.065,,,,,,,,
701208.5314,3,0.005,9.813,-3.29,4,0.062,0.094,0.171,5,-2.365,-45.782,-1.184
701208.5512,3,0.306,9.916,-2.599,,,,,,,,
701208.5711,3,0.471,9.184,-2.213,,,,,,,,
701208.591,3,0.132,9.112,-2.393,4,0.058,0.185,0.123,5,-3.078,-45.644,-1.239
701208.6108,3,0.189,10.411,-3.025,,,,,,,,
701208.6307,3,-0.146,9.459,-1.924,,,,,,,,
701208.6506,3,-0.474,9.076,-2.189,4,0.049,0.205,0.049,5,-3.879,-43.774,-0.662
701208.6704,3,-0.067,9.243,-2.438,,,,,,,,
701208.6903,3,-0.108,10.351,-2.34,,,,,,,,
701208.7102,3,-0.457,7.841,-1.878,4,0.038,0.174,0.028,,,,
701208.73,3,-0.751,9.411,-3.24,,,,,,,,
701208.7499,3,-1.223,10.873,-3.371,,,,,,,,
701208.7698,3,-1.027,9.894,-0.95,4,-0.021,0.211,0.039,5,-2.927,-44.93,-0.116
701208.7896,3,-0.761,10.303,0.033,,,,,,,,
701208.8095,3,-0.692,10.26,-0.447,,,,,,,,
701208.8294,3,-1.077,9.284,-1.802,4,0.062,0.183,0.044,,,,
701208.8492,3,-1.134,9.947,-3.697,,,,,,,,
701208.8691,3,-0.976,8.882,-3.651,,,,,,,,
701208.889,3,-0.749,9.559,-3.226,4,-0.003,0.308,0.055,5,-3.821,-45.326,-1.186
701208.9088,3,-0.144,9.811,-1.979,,,,,,,,
701208.9287,3,0.002,9.447,-1.467,,,,,,,,
701208.9486,3,0.017,10.059,-2.122,4,-0.004,0.25,0.051,5,-4.156,-44.289,-1.871
701208.9684,3,-0.213,9.1,-2.453,,,,,,,,
701208.9883,3,-0.431,9.87,-3.367,,,,,,,,
701209.0082,3,-0.388,9.686,-3.027,4,0.002,0.206,0.033,,,,
701209.028,3,-0.268,9.387,-2.094,,,,,,,,
701209.0479,3,-0.23,8.889,-1.828,,,,,,,,
701209.0678,3,-0.34,10.327,-2.809,4,-0.005,0.122,0.019,5,-3.865,-44.958,-0.217
701209.0877,3,-0.404,8.949,-2.13,,,,,,,,
701209.1075,3,-0.397,9.291,-2.785,,,,,,,,
701209.1274,3,-0.335,9.72,-2.661,4,0.005,0.077,0.016,5,-4.346,-44.536,-1.765
701209.1473,3,-0.333,10.246,-2.362,,,,,,,,
701209.1671,3,0.031,10.019,-1.536,,,,,,,,
701209.187,3,0.254,8.193,-2.161,4,0.02,0.147,0.02,5,-5.223,-44.27,-1.39
701209.2069,3,0.005,10.423,-4.386,,,,,,,,
701209.2267,3,-0.538,9.66,-3.345,,,,,,,,
701209.2466,3,-0.567,10.102,-1.268,4,-0.049,0.226,0.033,5,-4.085,-44.861,-2.01
701209.2665,3,-0.33,10.66,-0.306,,,,,,,,
701209.2863,3,0.124,9.174,0.007,,,,,,,,
701209.3062,3,0.026,9.878,-2.39,4,0.051,0.186,0.025,5,-5.141,-44.411,-0.757
701209.326,3,-0.237,9.442,-3.539,,,,,,,,
701209.3459,3,-0.416,9.255,-3.589,,,,,,,,
701209.3658,3,-0.665,10.165,-3.3,4,0.011,0.268,0.02,,,,
701209.385,3,-0.505,10.141,-1.699,,,,,,,,
701209.4055,3,-0.658,9.399,-0.727,,,,,,,,
701209.4254,3,-0.39,7.882,-1.646,4,0.012,0.257,0.015,5,-4.967,-44.498,-1.92
701209.4453,3,0.045,10.588,-4.214,,,,,,,,
701209.4651,3,-0.077,10.595,-3.563,,,,,,,,
701209.485,3,0.189,9.109,-1.149,4,-0.012,0.322,0.029,5,-3.99,-44.852,-1.967
701209.5049,3,-0.471,8.126,-1.409,,,,,,,,
701209.5247,3,-0.455,10.217,-3.673,,,,,,,,
701209.5446,3,-0.426,9.318,-3.563,4,0.023,0.317,0.008,5,-4.88,-44.119,-1.477
701209.5645,3,-0.014,9.205,-2.926,,,,,,,,
701209.5843,3,0.12,10.241,-2.783,,,,,,,,
701209.6042,3,0.117,9.842,-2.053,4,-0.014,0.4,-0.022,5,-3.813,-44.228,-4.25
701209.6241,3,0.136,10.88,-1.67,,,,,,,,
701209.6439,3,0.524,6.841,-1.4,,,,,,,,
701209.6638,3,0.522,9.748,-4.592,4,0.04,0.591,-0.054,5,-2.904,-43.694,-1.248
701209.6837,3,0.402,10.782,-3.735,,,,,,,,
701209.7036,3,-0.06,9.581,-1.515,,,,,,,,
701209.7234,3,-0.316,10.571,-0.847,4,-0.025,0.764,-0.102,5,-2.748,-44.922,-0.465
701209.7433,3,0.01,9.351,-0.309,,,,,,,,
701209.7631,3,0.024,9.665,-2.39,,,,,,,,
701209.783,3,-0.385,9.806,-3.314,4,0.072,0.656,-0.133,5,-1.082,-44.17,-0.842
701209.8029,3,-0.275,9.746,-3.403,,,,,,,,
701209.8227,3,-0.074,9.514,-2.445,,,,,,,,
701209.8426,3,-0.749,9.693,-1.998,4,0.002,0.601,-0.148,5,-1.439,-44.177,-1.23
701209.8625,3,-0.893,9.016,-2.472,,,,,,,,
701209.8823,3,-0.213,9.933,-2.981,,,,,,,,
701209.9022,3,-0.713,9.377,-2.84,4,0.008,0.353,-0.135,,,,
701209.9221,3,-0.536,10.248,-2.754,,,,,,,,
701209.942,3,-0.596,9.528,-2.01,,,,,,,,
701209.9618,3,-0.069,8.801,-1.981,4,-0.012,-0.075,-0.104,5,-0.211,-44.809,-3.949
701209.9817,3,1.108,10.588,-2.524,,,,,,,,
701210.0016,3,1.878,9.509,-2.151,,,,,,,,
701210.0214,3,0.292,8.404,-0.96,4,0.001,-0.29,-0.136,,,,
701210.0413,3,0.074,10.193,-3.819,,,,,,,,
701210.0612,3,1.216,10.583,-4.293,,,,,,,,
701210.081,3,0.95,9.275,-1.842,4,-0.032,-0.419,-0.141,5,1.277,-43.861,-1.183
701210.1009,3,0.529,7.707,-1.948,,,,,,,,
701210.1208,3,-0.275,10.725,-3.45,,,,,,,,
701210.1407,3,-0.517,10.179,-2.448,4,-0.033,-0.63,-0.118,5,2.08,-44.092,-1.041
701210.1605,3,-0.196,10.382,-1.799,,,,,,,,
701210.1804,3,-0.1,10.325,-1.125,,,,,,,,
701210.2002,3,-0.447,9.557,-1.419,4,-0.024,-0.779,-0.071,5,-0.841,-44.775,-3.163
701210.2201,3,-0.459,9.842,-2.448,,,,,,,,
701210.24,3,-0.383,9.138,-2.453,,,,,,,,
701210.2599,3,-0.51,9.418,-2.701,4,-0.006,-0.721,0,5,-1.952,-42.95,-1.918
701210.2797,3,-0.17,10.114,-2.637,,,,,,,,
701210.2996,3,-0.445,9.543,-1.618,,,,,,,,
701210.3195,3,-0.715,10.246,-1.452,4,-0.015,-0.452,0.07,5,-1.117,-43.457,-1.187
701210.3393,3,-0.845,9.49,-1.488,,,,,,,,
701210.3592,3,-0.175,9.583,-2.206,,,,,,,,
701210.3791,3,-0.182,10.325,-2.68,4,0.027,-0.123,0.093,5,-1.198,-45.114,-2.15
701210.3989,3,-0.024,8.952,-2.565,,,,,,,,
701210.4188,3,0.354,9.354,-3.362,,,,,,,,
701210.4387,3,0.605,9.93,-2.96,4,0.011,0.365,0.076,,,,
701210.4585,3,0.646,9.191,-2.067,,,,,,,,
701210.4784,3,0.598,9.992,-2.496,,,,,,,,
701210.4983,3,0.196,9.779,-2.106,4,0.009,0.68,0,5,-1.135,-44.012,-2.055
701210.5181,3,-0.294,10.5,-1.809,,,,,,,,
701210.538,3,-0.787,7.346,-2.163,,,,,,,,
701210.5579,3,-0.668,9.165,-3.785,4,0.044,0.582,-0.051,,,,
701210.5778,3,-0.768,10.717,-4.341,,,,,,,,
701210.5976,3,-0.756,9.791,-2.292,,,,,,,,
701210.6175,3,-1.373,10.564,-0.809,4,-0.065,0.413,-0.064,5,-0.49,-44.917,-2.637
701210.6373,3,-1.517,10.265,-0.11,,,,,,,,
701210.6572,3,-1.172,9.363,-1.634,,,,,,,,
701210.6771,3,-1.4,10.265,-3.34,4,0.036,0.064,-0.031,5,0.089,-45.175,-3.304
701210.6969,3,-1.096,9.04,-3.132,,,,,,,,
701210.7168,3,-0.593,9.208,-2.627,,,,,,,,
701210.7367,3,-0.543,9.624,-2.027,4,-0.016,0.091,0.017,5,0.62,-43.42,-2.638
701210.7565,3,-0.703,9.452,-2.022,,,,,,,,
701210.7764,3,0.091,9.928,-2.496,,,,,,,,
701210.7963,3,0.866,9.471,-2.845,4,-0.01,0.206,-0.001,5,-0.391,-44.525,-3.171
701210.8162,3,1.493,9.665,-2.91,,,,,,,,
701210.836,3,1.314,10.342,-2.331,,,,,,,,
701210.8559,3,0.775,9.279,-1.809,4,-0.02,0.26,-0.06,5,1.804,-46.44,-1.558
701210.8758,3,0.486,10.024,-2.713,,,,,,,,
701210.8956,3,0.601,9.464,-2.467,,,,,,,,
701210.9155,3,0.395,8.966,-2.201,4,-0.041,0.107,-0.133,5,1.627,-45.807,-1.044
701210.9354,3,-0.031,9.614,-2.522,,,,,,,,
701210.9552,3,-0.68,10.057,-1.816,,,,,,,,
701210.9751,3,-1.283,10.098,-1.328,4,-0.057,-0.143,-0.141,5,0.604,-44.127,-2
701210.995,3,-1.62,7.466,-1.558,,,,,,,,
701211.0148,3,-1.256,9.77,-3.929,,,,,,,,
701211.0347,3,-1.273,10.05,-3.486,4,-0.02,-0.271,-0.063,5,2.164,-44.086,-2.872
701211.0545,3,-1.309,10.138,-1.598,,,,,,,,
701211.0744,3,-1.043,10.88,-0.45,,,,,,,,
701211.0943,3,-0.713,9.765,-0.328,4,-0.017,-0.32,0.001,,,,
701211.1142,3,-0.349,9.988,-2.352,,,,,,,,
701211.134,3,-0.558,9.43,-3.482,,,,,,,,
701211.1539,3,0.199,9.26,-3.276,4,0.033,-0.208,0.04,5,-0.201,-44.434,-2.638
701211.1738,3,0.689,9.507,-2.812,,,,,,,,
701211.1936,3,1.247,9.121,-1.96,,,,,,,,
701211.2135,3,1.46,8.53,-2.644,4,-0.015,0.021,0.009,5,0.69,-44.218,-3.462
701211.2334,3,0.94,12.445,-3.606,,,,,,,,
701211.2532,3,1.156,10.507,-0.397,,,,,,,,
701211.2731,3,1.259,8.483,-0.483,4,-0.02,-0.006,-0.081,5,-0.494,-44.861,-3.456
701211.293,3,1.235,9.129,-3.446,,,,,,,,
701211.3128,3,0.182,9.095,-4.341,,,,,,,,
701211.3327,3,-0.093,9.846,-3.702,4,-0.022,-0.205,-0.149,5,1.506,-45.532,-1.906
701211.3526,3,-0.378,9.586,-2.503,,,,,,,,
701211.3724,3,-0.66,9.454,-1.584,,,,,,,,
701211.3923,3,-1.206,10.102,-1.895,4,-0.085,-0.489,-0.127,5,-0.5,-43.674,-4.095
701211.4122,3,-1.551,10.94,-2.405,,,,,,,,
701211.432,3,-1.493,8.88,-2.651,,,,,,,,
701211.4519,3,-1.675,7.695,-3.144,4,-0.062,-0.671,-0.054,5,0.607,-44.026,-1.91
701211.4718,3,-2.311,10.452,-4.008,,,,,,,,
701211.4916,3,-1.273,10.583,-3.376,,,,,,,,
701211.5115,3,0.005,9.93,-0.89,4,-0.073,-0.573,0.052,5,-0.452,-43.3,-1.915
701211.5314,3,0.146,10.033,0.498,,,,,,,,
701211.5512,3,0.275,9.959,-0.919,,,,,,,,
701211.5711,3,-0.029,9.899,-2.795,4,0.106,-0.408,0.036,5,1.27,-44.107,-3.079
701211.591,3,0.615,8.865,-3.872,,,,,,,,
701211.6108,3,0.275,9.574,-3.474,,,,,,,,
701211.6307,3,0.206,9.83,-2.122,4,0.013,-0.233,0.011,,,,
701211.6506,3,1.058,9.485,-1.323,,,,,,,,
701211.6705,3,0.526,9.789,-1.211,,,,,,,,
701211.6903,3,-0.17,10.131,-1.644,4,0.009,-0.301,-0.051,5,0.13,-43.559,-2.107
701211.7102,3,-0.598,10.234,-2.733,,,,,,,,
701211.7301,3,-0.536,8.846,-2.824,,,,,,,,
701211.7499,3,-0.546,9.629,-2.242,4,-0.022,-0.483,-0.038,5,1.289,-43.404,-0.461
701211.7698,3,-1.747,10.335,-0.806,,,,,,,,
701211.7897,3,-2.797,9.839,-1.515,,,,,,,,
701211.8095,3,-2.364,9.645,-2.419,4,-0.003,-0.749,0.02,5,0.282,-44.324,-1.91
701211.8294,3,-0.957,10.705,-2.115,,,,,,,,
701211.8493,3,-0.62,10.205,-0.218,,,,,,,,
701211.8691,3,-1.732,7.808,0.687,4,0.02,-0.58,0.116,5,-0.388,-44.531,-1.184
701211.889,3,-2.211,8.94,-2.579,,,,,,,,
701211.9089,3,-0.991,9.832,-4.47,,,,,,,,
701211.9287,3,-0.639,10.562,-2.905,4,0.07,-0.259,0.184,5,-1.48,-41.615,-2.214
701211.9486,3,-0.151,11.521,-0.68,,,,,,,,
701211.9685,3,0.55,9.564,0.139,,,,,,,,
701211.9883,3,1.249,10.548,-2.244,4,0.096,-0.001,0.153,5,-2.051,-43.431,-2.01
701212.0082,3,0.83,9.418,-2.977,,,,,,,,
701212.0281,3,-1.149,9.866,-3.316,,,,,,,,
701212.0479,3,-0.227,9.866,-3.438,4,0.061,0.074,0.087,5,-2.04,-43.001,-1.43
701212.0678,3,0.864,9.153,-2.623,,,,,,,,
701212.0877,3,0.909,9.679,-2.154,,,,,,,,
701212.1075,3,0.091,9.744,-2.101,4,0.019,0,0.023,5,-2.451,-43.484,-2.936
701212.1274,3,-1.184,10.059,-1.689,,,,,,,,
701212.1473,3,-1.969,9.856,-1.433,,,,,,,,
701212.1671,3,-1.067,8.892,-1.713,4,0.044,-0.181,0.015,,,,
701212.187,3,-0.842,9.016,-2.434,,,,,,,,
701212.2069,3,-1.531,9.574,-3.051,,,,,,,,
701212.2267,3,-2.221,9.454,-2.137,4,0.044,-0.207,0.053,5,-3.127,-43.602,-0.116
701212.2466,3,-2.022,10.438,-1.433,,,,,,,,
701212.2665,3,-1.091,10.308,-1.098,,,,,,,,
701212.2864,3,-0.785,10.694,-0.699,4,0.059,-0.077,0.113,,,,
701212.3062,3,-0.979,8.011,-0.414,,,,,,,,
701212.3261,3,-2.022,9.172,-3.106,,,,,,,,
701212.346,3,-1.163,9.267,-5.111,4,0.122,0.136,0.136,5,-2.721,-43.629,-1.477
701212.3658,3,-0.077,8.076,-4.154,,,,,,,,
701212.3851,3,0.498,12.146,-3.06,,,,,,,,
701212.4055,3,0.926,11.531,1.378,4,-0.023,0.318,0.126,5,-1.591,-42.747,-1.918
701212.4254,3,0.677,8.983,1.63,,,,,,,,
701212.4453,3,0.179,9.657,-2.938,,,,,,,,
701212.4651,3,0.211,7.906,-5.274,4,0.151,0.123,0.025,5,-2.065,-42.107,0.258
701212.485,3,-0.103,8.085,-5.669,,,,,,,,
701212.5049,3,-0.636,8.844,-4.599,,,,,,,,
701212.5248,3,-0.778,8.944,-2.713,4,-0.064,-0.044,0.008,5,-1.642,-43.332,-0.32
701212.5446,3,-0.488,10.928,-1.182,,,,,,,,
701212.5645,3,-0.23,10.617,-0.517,,,,,,,,
701212.5844,3,-0.759,10.332,-1.61,4,-0.011,-0.327,-0.003,5,-2.043,-43.095,-1.581
701212.6042,3,-1.773,9.098,-1.725,,,,,,,,
701212.6241,3,-2.364,8.411,-2.517,,,,,,,,
701212.644,3,-1.795,10.655,-3.484,4,0.044,-0.333,0.066,5,-3.246,-42.99,-0.858
701212.6638,3,-0.914,9.653,-2.029,,,,,,,,
701212.6837,3,-0.809,9.583,-1.208,,,,,,,,
701212.7036,3,-0.646,10.729,-1.591,4,0.033,-0.033,0.14,,,,
701212.7234,3,-0.558,11.299,-1.677,,,,,,,,
701212.7433,3,0.505,8.908,-1.328,,,,,,,,
701212.7632,3,0.416,7.688,-2.67,4,0.057,0.246,0.142,5,-2.551,-42.249,-2.798
701212.783,3,0.921,9.708,-3.697,,,,,,,,
701212.8029,3,0.029,10.33,-3.388,,,,,,,,
701212.8228,3,0.103,9.906,-1.582,4,-0.023,0.408,0.087,,,,
701212.8426,3,0.488,10.471,-1.184,,,,,,,,
701212.8625,3,0.079,8.818,-0.768,,,,,,,,
701212.8824,3,-0.426,10.349,-3.068,4,0.025,0.205,0.021,5,-3.677,-42.429,-1.151
701212.9022,3,-0.677,9.918,-3.467,,,,,,,,
701212.9221,3,-0.907,9.325,-2.788,,,,,,,,
701212.942,3,-0.636,9.952,-2.187,4,-0.01,0.152,0.027,5,-3.366,-42.651,-1.772
701212.9618,3,-0.847,8.585,-1.85,,,,,,,,
701212.9817,3,-0.366,10.014,-2.436,,,,,,,,
701213.0016,3,-0.256,10.856,-4.432,4,0.023,0.244,0.023,5,-4.607,-42.113,-2.559
701213.0214,3,-0.158,9.15,-2.302,,,,,,,,
701213.0413,3,-0.553,9.928,-1.462,,,,,,,,
701213.0612,3,-0.799,10.184,-1.015,4,-0.041,0.357,0.028,5,-3.58,-42.322,-2.647
701213.081,3,-0.723,8.686,-0.854,,,,,,,,
701213.1009,3,-0.074,9.976,-2.831,,,,,,,,
701213.1208,3,0.739,9.523,-4.152,4,0.081,0.384,0.007,5,-2.17,-42.627,-2.069
701213.1407,3,0.759,8.94,-4.333,,,,,,,,
701213.1605,3,0.572,10.545,-3.864,,,,,,,,
701213.1804,3,0.158,10.82,-1.728,4,-0.041,0.519,-0.045,5,-3.331,-40.941,-3.183
701213.2003,3,-0.45,9.313,-0.124,,,,,,,,
701213.2201,3,-0.445,7.844,-1.318,,,,,,,,
701213.24,3,-0.067,10,-4.915,4,0.037,0.203,-0.1,5,-3.345,-41.554,-3.186
701213.2599,3,0.199,9.492,-4.857,,,,,,,,
701213.2797,3,0.189,9.751,-3.242,,,,,,,,
701213.2996,3,-0.258,11.009,-1.831,4,-0.058,-0.014,-0.107,5,-2.814,-41.49,-2.496
701213.3195,3,-0.536,8.727,-0.715,,,,,,,,
701213.3393,3,-1.268,9.858,-2.577,,,,,,,,
701213.3592,3,-0.574,8.937,-4.027,4,0.084,-0.189,-0.112,,,,
701213.3791,3,-0.522,7.595,-4.211,,,,,,,,
701213.399,3,-0.266,9.545,-6.358,,,,,,,,
701213.4188,3,-1.204,9.208,-4.587,4,0.029,-0.083,-0.095,5,-3.12,-41.603,-3.14
701213.4387,3,-1.165,9.701,-1.644,,,,,,,,
701213.4586,3,-0.502,9.763,-1.742,,,,,,,,
701213.4784,3,-0.345,10.557,-1.4,4,-0.003,-0.046,-0.068,5,-2.054,-41.438,-2.649
701213.4983,3,-1.062,8.873,-2.417,,,,,,,,
701213.5181,3,-0.376,8.822,-3.271,,,,,,,,
701213.538,3,-0.562,10.619,-3.228,4,0.025,0.043,-0.044,5,-1.607,-41.606,-3.23
701213.5579,3,-0.768,8.38,-2.091,,,,,,,,
701213.5777,3,-0.548,10.27,-2.146,,,,,,,,
701213.5976,3,-0.763,10.497,-2.005,4,-0.029,0.039,-0.022,5,-2.362,-43.483,-2.588
701213.6175,3,-0.026,9.586,-1.23,,,,,,,,
701213.6373,3,-0.352,8.102,-2.271,,,,,,,,
701213.6572,3,-0.187,10.583,-3.929,4,-0.031,-0.178,-0.008,5,-1.39,-43.651,-3.368
701213.6771,3,-0.127,10.026,-2.237,,,,,,,,
701213.6969,3,0.608,10.641,-1.29,,,,,,,,
701213.7168,3,0.136,9.578,-1.003,4,-0.067,-0.267,-0.006,5,-2.04,-42.763,-2.647
701213.7367,3,0.617,9.854,-2.089,,,,,,,,
701213.7565,3,0.275,9.576,-3.017,,,,,,,,
701213.7764,3,-0.366,9.387,-2.615,4,-0.027,-0.355,-0.028,5,-3.194,-42.603,-2.838
701213.7963,3,-0.323,9.736,-3.233,,,,,,,,
701213.8161,3,-0.292,9.375,-2.383,,,,,,,,
701213.836,3,-0.333,8.897,-3.465,4,-0.05,-0.429,-0.003,5,-3.735,-43.135,-4.099
701213.8559,3,-0.854,9.923,-2.814,,,,,,,,
701213.8757,3,-1.022,9.6,-2.319,,,,,,,,
701213.8956,3,-0.936,10.169,-1.747,4,-0.052,-0.513,0.038,,,,
701213.9155,3,-0.849,8.562,-1.283,,,,,,,,
701213.9353,3,-0.01,9.942,-3.084,,,,,,,,
701213.9552,3,-0.598,9.799,-3.18,4,0.047,-0.463,0.065,5,-4.704,-42.78,-2.649
701213.9751,3,-0.388,9.921,-2.326,,,,,,,,
701213.995,3,0.019,9.217,-2.177,,,,,,,,
701214.0148,3,-0.349,9.801,-1.955,4,0.054,-0.222,0.083,,,,
701214.0347,3,-0.278,6.92,-2.649,,,,,,,,
701214.0546,3,-0.069,10.016,-5.07,,,,,,,,
701214.0744,3,-0.278,10.629,-2.541,4,0.017,-0.01,0.085,5,-2.502,-43.97,0.262
701214.0943,3,0.395,10.091,-0.601,,,,,,,,
701214.1142,3,0.357,10.591,0.029,,,,,,,,
701214.134,3,0.036,9.973,-1.431,4,0.04,-0.032,0.05,5,-7.138,-44.159,-2.786
701214.1539,3,-0.371,9.724,-3.149,,,,,,,,
701214.1737,3,-1.424,8.607,-3.168,,,,,,,,
701214.1936,3,-1.091,8.932,-3.551,4,0.023,-0.063,0.047,5,-5.586,-44.081,-1.093
701214.2135,3,-1.333,9.961,-1.95,,,,,,,,
701214.2333,3,-1.591,9.253,-0.983,,,,,,,,
701214.2532,3,-1.402,10.438,-1.553,4,0.008,-0.037,0.111,5,-5.53,-42.232,-0.473
701214.2731,3,-0.933,10.227,-1.998,,,,,,,,
701214.293,3,-1.766,9.715,-1.821,,,,,,,,
701214.3128,3,-1.448,8.971,-2.352,4,0.075,0.155,0.158,5,-6.694,-42.308,-1.491
701214.3327,3,-0.823,9.789,-3.362,,,,,,,,
701214.3526,3,-0.127,9.2,-2.426,,,,,,,,
701214.3724,3,0.026,9.851,-2.448,4,0.037,0.517,0.175,5,-7.149,-42.651,-1.927
701214.3923,3,0.244,9.827,-1.455,,,,,,,,
701214.4122,3,-0.089,9.808,-1.601,,,,,,,,
701214.432,3,0.498,7.341,-2.591,4,0.064,0.604,0.101,,,,
701214.4519,3,0.51,10.411,-5.731,,,,,,,,
701214.4718,3,0.187,10.497,-2.943,,,,,,,,
701214.4916,3,0.225,10.105,-1.409,4,-0.063,0.568,0.058,5,-6.551,-41.588,-2.655
701214.5115,3,0.615,10.174,0.129,,,,,,,,
701214.5314,3,0.048,9.026,-0.311,,,,,,,,
701214.5513,3,-0.703,9.593,-2.402,4,0.04,0.393,-0.014,,,,
701214.5711,3,-0.732,9.081,-4.247,,,,,,,,
701214.591,3,-0.581,9.856,-4.264,,,,,,,,
701214.6108,3,-0.852,8.837,-2.163,4,-0.024,0.34,-0.011,5,-7.033,-43.599,-1.978
701214.6307,3,-0.512,10.184,-1.823,,,,,,,,
701214.6506,3,-1.041,9.626,-1.539,,,,,,,,
701214.6704,3,-0.191,9.777,-1.814,4,-0.004,0.343,-0.001,5,-7.317,-42.566,-1.591
701214.6903,3,-0.459,9.992,-2.838,,,,,,,,
701214.7102,3,-1.043,9.035,-2.8,,,,,,,,
701214.73,3,-0.94,9.593,-3.29,4,0.024,0.437,0.015,5,-9.351,-42.218,-5.542
701214.7499,3,0.165,9.387,-2.699,,,,,,,,
701214.7698,3,-0.447,7.193,-2.843,,,,,,,,
701214.7896,3,0.388,11.232,-4.599,4,-0.027,0.538,0.01,5,-5.693,-43.008,-0.471
701214.8095,3,0.392,14.934,-2.912,,,,,,,,
701214.8294,3,0.703,5.255,2.118,,,,,,,,
701214.8493,3,0.61,8.238,-2.395,4,-0.03,0.527,-0.012,5,-5.681,-42.519,-1.495
701214.8691,3,0.502,10.911,-5.154,,,,,,,,
701214.889,3,-0.488,9.332,-2.969,,,,,,,,
701214.9089,3,0.278,9.677,-2.02,4,-0.045,0.493,-0.051,5,-4.333,-43.825,-1.204
701214.9287,3,0.778,10.069,-0.933,,,,,,,,
701214.9486,3,-0.055,9.992,-0.703,,,,,,,,
701214.9685,3,1.213,10.571,-1.649,4,0.019,0.366,-0.093,5,-3.537,-43.619,-1.405
701214.9883,3,0.211,9.133,-3.797,,,,,,,,
701215.0082,3,0.804,9.433,-3.534,,,,,,,,
701215.0281,3,1.012,9.131,-3.367,4,-0.008,0.279,-0.135,5,-4.706,-42.828,-2.396
701215.0479,3,-0.316,9.657,-1.524,,,,,,,,
701215.0678,3,0.847,9.619,-1.115,,,,,,,,
701215.0876,3,-0.01,8.906,-1.814,4,0.003,0.127,-0.156,,,,
701215.1075,3,0.474,9.744,-3.223,,,,,,,,
701215.1274,3,-0.077,10.232,-3.783,,,,,,,,
701215.1473,3,-1.127,8.796,-2.675,4,-0.001,0.002,-0.16,5,-3.401,-44.067,-2.797
701215.1671,3,-0.029,10.074,-3.175,,,,,,,,
701215.187,3,-1.232,10.677,-2.027,,,,,,,,
701215.2069,3,-0.421,8.648,-1.388,4,-0.041,-0.127,-0.108,5,-2.448,-43.904,-1.189
701215.2267,3,-0.385,9.153,-2.398,,,,,,,,
701215.2466,3,-1.18,10.813,-2.931,,,,,,,,
701215.2665,3,-0.117,9.873,-2.015,4,-0.01,-0.182,-0.042,5,-1.291,-43.275,-1.189
701215.2863,3,0.203,10.225,0.031,,,,,,,,
701215.3062,3,0.96,10.024,-2.101,,,,,,,,
701215.3261,3,1.318,12.124,-4.656,4,0.019,-0.07,-0.015,5,-3.517,-43.082,-2.794
701215.3459,3,2.089,9.739,-1.476,,,,,,,,
701215.3658,3,0.828,9.021,-0.282,,,,,,,,
701215.3851,3,0.555,9.361,-0.692,4,-0.007,0.177,-0.077,5,-2.711,-43.494,-1.907
701215.4056,3,0.936,10.021,-1.828,,,,,,,,
701215.4254,3,0.196,9.162,-2.692,,,,,,,,
701215.4453,3,0.821,9.703,-2.321,4,-0.008,0.081,-0.113,,,,
701215.4652,3,0.699,10.689,-1.919,,,,,,,,
701215.485,3,0.196,9.617,-0.818,,,,,,,,
701215.5049,3,-0.019,9.593,-1.448,4,-0.05,-0.163,-0.13,5,-0.307,-43.007,-2.641
701215.5248,3,0.091,9.801,-1.972,,,,,,,,
701215.5446,3,-1.098,9.258,-2.773,,,,,,,,
701215.5645,3,-1.041,10.777,-2.563,4,-0.039,-0.289,-0.111,5,-2.061,-43.805,-3.418
701215.5844,3,-0.531,10.799,-0.201,,,,,,,,
701215.6042,3,-0.172,6.303,-0.005,,,,,,,,
701215.6241,3,-0.495,9.208,-4.81,4,0.02,-0.206,-0.048,,,,
701215.644,3,-0.148,10.782,-4.879,,,,,,,,
701215.6638,3,0.124,10.272,-0.912,,,,,,,,
701215.6837,3,-0.038,10.411,0.656,4,-0.055,-0.048,-0.025,5,-2.33,-42.252,-1.526
701215.7036,3,0.524,9.782,0.132,,,,,,,,
701215.7235,3,-0.179,10.186,-2.089,,,,,,,,
701215.7433,3,0.007,9.291,-3.845,4,0.073,-0.152,-0.043,5,-1.35,-42.035,-3.363
701215.7632,3,0.347,9.969,-3.577,,,,,,,,
701215.7831,3,0.416,9.315,-1.661,,,,,,,,
701215.8029,3,0.124,9.38,-0.617,4,-0.035,-0.221,-0.046,5,-0.688,-42.204,-2.451
701215.8228,3,0.16,10.471,-1.634,,,,,,,,
701215.8427,3,0.23,9.236,-1.921,,,,,,,,
701215.8625,3,0.751,9.552,-3.283,4,0.009,-0.285,-0.066,5,-0.974,-42.651,-2.301
701215.8824,3,-0.06,10.442,-2.926,,,,,,,,
701215.9023,3,-0.622,8.83,-1.85,,,,,,,,
701215.9221,3,-0.653,10.677,-2.733,4,-0.027,-0.4,-0.054,5,-1.724,-41.052,-2.647
701215.942,3,-0.316,9.729,-1.531,,,,,,,,
701215.9619,3,-1.022,9.468,-1.579,,,,,,,,
701215.9817,3,-0.72,10.124,-2.73,4,0.003,-0.557,-0.019,5,-1.933,-42.758,-3.314
701216.0016,3,-0.663,9.794,-2.299,,,,,,,,
701216.0215,3,-0.266,9.83,-1.852,,,,,,,,
701216.0413,3,0.337,8.372,-2.096,4,0,-0.622,0.028,5,-2.466,-42.303,-2.397
701216.0612,3,-0.086,9.823,-3.551,,,,,,,,
701216.0811,3,-0.089,10.208,-2.008,,,,,,,,
701216.1009,3,0.132,10.638,0.268,4,-0.048,-0.429,0.064,5,-2.161,-42.63,-2.646
701216.1208,3,0.656,11.143,0.395,,,,,,,,
701216.1407,3,0.581,9.167,-0.67,,,,,,,,
701216.1605,3,-0.787,9.791,-2.675,4,0.055,-0.18,0.04,,,,
701216.1804,3,-1.271,9.657,-2.508,,,,,,,,
701216.2003,3,-1.213,9.454,-2.053,,,,,,,,
701216.2201,3,-1.242,10.414,-1.933,4,-0.014,-0.068,0.078,5,-2.037,-42.763,-2.646
701216.24,3,-0.948,10.225,-1.144,,,,,,,,
701216.2599,3,-0.342,10.469,-0.993,,,,,,,,
701216.2798,3,-0.737,10.569,-1.555,4,0.028,0.021,0.097,,,,
701216.2996,3,-0.409,9.751,-2.302,,,,,,,,
701216.3195,3,-0.1,9.466,-3.154,,,,,,,,
701216.3394,3,0.366,9.351,-3.173,4,0.032,0.144,0.106,5,-2.715,-43.347,-2.057
701216.3592,3,-0.129,8.047,-2.192,,,,,,,,
701216.3791,3,0.12,12.687,-3.58,,,,,,,,
701216.3989,3,0.854,10.861,0.388,4,-0.036,0.249,0.081,5,-3.133,-41.844,-2.167
701216.4188,3,1.62,9.533,1.357,,,,,,,,
701216.4387,3,0.428,9.15,-2.125,,,,,,,,
701216.4585,3,-0.27,9.849,-5.023,4,0.108,0.253,-0.003,5,-3.912,-43.475,-1.242
701216.4784,3,-0.598,9.959,-4.242,,,,,,,,
701216.4983,3,-0.823,9.849,-1.742,,,,,,,,
701216.5181,3,-0.522,8.078,0.199,4,-0.052,0.306,-0.002,5,-1.485,-42.178,-1.92
701216.538,3,-0.656,10.165,-1.953,,,,,,,,
701216.5579,3,-0.828,10.768,-3.072,,,,,,,,
701216.5778,3,-1.117,10.024,-2.089,4,-0.02,0.279,0.002,5,-1.605,-41.656,-2.698
701216.5976,3,-1.072,10.933,-0.869,,,,,,,,
701216.6175,3,-1.06,9.76,0.333,,,,,,,,
701216.6374,3,-1.244,9.763,-0.352,4,0,0.122,0.025,,,,
701216.6572,3,-0.945,8.815,-1.759,,,,,,,,
701216.6771,3,-1.33,9.253,-3.4,,,,,,,,
701216.697,3,-0.737,9.789,-4.065,4,0.029,0.07,0.048,5,-2.704,-42.781,-2.644
701216.7168,3,-0.201,10.423,-2.73,,,,,,,,
701216.7367,3,0.359,9.992,-1.275,,,,,,,,
701216.7566,3,0.692,10.232,-1.579,4,-0.005,0.038,0.044,5,-1.868,-43.097,-1.917
701216.7764,3,0.189,9.437,-2.591,,,,,,,,
701216.7963,3,0.048,9.696,-3.513,,,,,,,,
701216.8162,3,0.445,9.631,-3.111,4,0.028,0.015,0,,,,
701216.836,3,0.383,9.578,-2.087,,,,,,,,
701216.8559,3,0.077,9.866,-1.716,,,,,,,,
701216.8758,3,0.292,10.033,-1.651,4,0.019,0,-0.032,5,-3.04,-42.076,-1.579
701216.8956,3,-0.141,9.547,-1.67,,,,,,,,
701216.9155,3,-0.727,10.225,-2.833,,,,,,,,
701216.9354,3,-0.55,9.655,-0.316,4,0.009,-0.024,-0.027,5,-1.088,-41.753,-2.496
701216.9552,3,-0.806,10.043,0.359,,,,,,,,
701216.9751,3,-0.55,9.105,-0.313,,,,,,,,
701216.995,3,-0.713,10.567,-1.694,4,0.032,0.003,-0.009,5,-2.08,-42.172,-2.585
701217.0148,3,-0.885,9.811,-2.249,,,,,,,,
701217.0347,3,-0.883,9.916,-2.69,,,,,,,,
701217.0546,3,-0.912,9.373,-2.132,4,0.049,0.063,0.036,5,-1.352,-42.033,-2.394
701217.0744,3,-1.491,8.071,-4.355,,,,,,,,
701217.0943,3,-0.974,11.117,-5.075,,,,,,,,
701217.1142,3,-0.596,10.198,-3.017,4,-0.02,0.16,0.081,5,-2.042,-43.054,-1.622
701217.1341,3,-0.026,10.335,-0.007,,,,,,,,
701217.1539,3,-0.043,10.229,0.56,,,,,,,,
701217.1738,3,0.357,10.035,-1.067,4,0.036,0.156,0.085,,,,
701217.1937,3,0.543,9.454,-2.761,,,,,,,,
701217.2135,3,1.304,9.629,-4.063,,,,,,,,
701217.2334,3,1.103,9.732,-3.319,4,0.047,0.329,0.037,5,0.716,-45.811,1.888
701217.2533,3,1.094,9.33,-1.122,,,,,,,,
701217.2731,3,0.646,10.162,-0.902,,,,,,,,
701217.293,3,1.239,10.162,-1.919,4,0.022,0.471,-0.051,5,-1.764,-42.471,-2.791
701217.3128,3,0.967,9.299,-2.326,,,,,,,,
701217.3327,3,0.474,9.779,-3.089,,,,,,,,
701217.3526,3,-0.869,9.397,-2.106,4,-0.019,0.451,-0.104,,,,
701217.3724,3,-1.175,9.801,-1.429,,,,,,,,
701217.3923,3,-1.771,10.394,-1.132,,,,,,,,
701217.4122,3,-1.017,10.172,0.816,4,-0.071,0.2,-0.074,5,-0.011,-41.537,-1.918
701217.4321,3,-0.608,9.045,-0.409,,,,,,,,
701217.4519,3,-1.108,10.158,-2.292,,,,,,,,
701217.4718,3,-0.993,9.899,-4.013,4,0.038,0.172,-0.025,5,-0.604,-40.64,-1.921
701217.4917,3,-0.735,8.535,-4.338,,,,,,,,
701217.5115,3,-0.397,9.241,-4.216,,,,,,,,
701217.5314,3,0.005,9.799,-3.326,4,-0.028,0.281,0.002,5,-0.024,-42.438,-1.329
701217.5513,3,0.548,9.236,-2.826,,,,,,,,
701217.5711,3,0.553,9.607,-3.115,,,,,,,,
701217.591,3,0.189,8.585,-3.453,4,0.045,0.227,-0.048,5,0.04,-41.725,-1.579
701217.6109,3,0.201,9.545,-4.168,,,,,,,,
701217.6307,3,0.428,9.27,-3.551,,,,,,,,
701217.6506,3,0.574,10.715,-2.601,4,0.008,0.091,-0.087,5,0.122,-41.481,-1.584
701217.6705,3,0.747,9.045,-0.969,,,,,,,,
701217.6903,3,0.668,8.825,-2.077,,,,,,,,
701217.7102,3,0.196,9.727,-2.386,4,0.044,-0.108,-0.112,,,,
701217.7301,3,-0.428,9.885,-2.754,,,,,,,,
701217.75,3,-0.699,10.208,-2.953,,,,,,,,
701217.7698,3,-0.921,10.021,-2.587,4,0.001,-0.369,-0.119,5,0.482,-41.805,-0.845
701217.7897,3,-0.857,10.035,-1.876,,,,,,,,
701217.8095,3,-0.893,9.633,-1.842,,,,,,,,
701217.8294,3,-1.304,9.476,-2.364,4,-0.005,-0.441,-0.053,,,,
701217.8493,3,-1.448,10.205,-3.271,,,,,,,,
701217.8691,3,-1.192,8.904,-2.704,,,,,,,,
701217.889,3,-0.409,10.356,-3.089,4,-0.006,-0.307,0.032,5,0.981,-43.027,-1.912
701217.9089,3,-0.175,9.552,-2.209,,,,,,,,
701217.9287,3,-0.345,9.514,-2.249,,,,,,,,
701217.9486,3,-0.309,9.413,-2.907,4,0.033,-0.141,0.047,5,-0.671,-43.399,-1.817
701217.9685,3,0.163,9.44,-2.773,,,,,,,,
701217.9884,3,0.199,9.1,-2.838,,,,,,,,
701218.0082,3,0.199,9.937,-2.472,4,0.012,-0.029,0.019,,,,
701218.0281,3,0.053,9.662,-2.067,,,,,,,,
701218.048,3,0.294,10,-1.574,,,,,,,,
701218.0678,3,0.55,9.835,-1.541,4,-0.002,-0.099,-0.016,5,0.616,-43.649,-0.945
701218.0877,3,0.644,9.959,-2.625,,,,,,,,
701218.1076,3,0.859,9.363,-2.989,,,,,,,,
701218.1274,3,0.51,9.507,-3.075,4,0.001,-0.156,-0.069,5,-0.702,-42.868,-1.915
701218.1473,3,-0.108,9.519,-3.017,,,,,,,,
701218.1671,3,-0.775,9.598,-2.637,,,,,,,,
701218.1864,3,-1.213,9.205,-2.036,4,-0.048,-0.223,-0.071,5,0.745,-41.986,-0.464
701218.2069,3,-1.256,10.43,-1.871,,,,,,,,
701218.2267,3,-1.168,8.573,-1.292,,,,,,,,
701218.2466,3,-0.9,8.66,-3.565,4,0.017,-0.279,-0.036,5,0.143,-42.616,-2.356
701218.2665,3,-0.749,9.595,-4.697,,,,,,,,
701218.2864,3,-0.402,10.502,-3.058,,,,,,,,
701218.3062,3,-0.694,10.229,-0.725,4,-0.026,-0.093,0.02,5,-1.103,-42.741,-2.206
701218.3261,3,0.124,10.605,0.251,,,,,,,,
701218.346,3,-0.273,12.725,-0.763,,,,,,,,
701218.3658,3,-0.436,6.319,-1.189,4,0.117,-0.338,0.004,,,,
701218.3857,3,-0.806,6.315,-6.566,,,,,,,,
701218.4056,3,-0.005,12.053,-9.308,,,,,,,,
701218.4254,3,1.003,8.188,-3.142,4,-0.035,-0.078,0.086,5,-0.674,-41.791,-0.71
701218.4453,3,0.165,11.77,0.06,,,,,,,,
701218.4652,3,0,13.105,1.22,,,,,,,,
701218.485,3,1.448,8.052,2.024,4,-0.035,-0.18,0.003,5,-0.562,-42.448,-1.773
701218.5049,3,0.5,10.007,-3.194,,,,,,,,
701218.5248,3,-0.493,7.552,-5.276,,,,,,,,
701218.5447,3,-1.421,8.523,-5.666,4,0.065,-0.139,-0.048,,,,
701218.5645,3,-1.058,9.624,-3.924,,,,,,,,
701218.5844,3,-1.295,9.04,-1.228,,,,,,,,
701218.6043,3,-0.95,8.528,-1.206,4,-0.062,-0.121,0.003,5,-1.366,-42.696,-1.863
701218.6241,3,-0.94,9.2,-2.213,,,,,,,,
701218.644,3,-0.849,9.145,-3.295,,,,,,,,
701218.6638,3,-0.725,8.961,-3.817,4,0,-0.136,0.021,5,0.087,-43.04,-2.385
701218.6837,3,-0.847,9.33,-3.465,,,,,,,,
701218.7036,3,-0.502,9.552,-3.07,,,,,,,,
701218.7235,3,-0.373,9.882,-2.618,4,-0.018,0.044,0.041,5,-0.732,-44.156,-2.641
701218.7433,3,-0.388,10.768,-2.575,,,,,,,,
701218.7632,3,-0.246,8.026,-1.881,,,,,,,,
701218.7831,3,-0.041,9.662,-3.293,4,-0.008,0.049,0.02,5,-0.212,-42.909,-1.953
701218.8029,3,-0.251,9.909,-3.271,,,,,,,,
701218.8228,3,0.081,9.861,-1.67,,,,,,,,
701218.8427,3,0.242,10.327,-1.632,4,-0.042,0.001,-0.016,5,-1.007,-42.36,-2.214
701218.8625,3,0.426,10.287,-1.445,,,,,,,,
701218.8824,3,0.249,8.865,-1.931,,,,,,,,
701218.9023,3,-0.514,10.263,-3.283,4,-0.008,-0.101,-0.057,,,,
701218.9222,3,-1.725,9.258,-2.493,,,,,,,,
701218.942,3,-2.055,8.791,-2.046,,,,,,,,
701218.9619,3,-1.828,9.605,-2.192,4,-0.061,-0.212,-0.01,5,0.523,-44.089,0.858
701218.9818,3,-1.467,11.052,-2.984,,,,,,,,
701219.0016,3,-1.204,9.385,-0.979,,,,,,,,
701219.0215,3,-1.383,9.858,-0.177,4,-0.117,-0.218,0.055,,,,
701219.0414,3,-1.469,8.734,1.196,,,,,,,,
701219.0612,3,-1.931,9.052,-4.111,,,,,,,,
701219.0811,3,-0.144,12.072,-6.09,4,0.053,-0.271,0.085,5,-0.706,-42.717,-2.888
701219.1009,3,-0.782,6.279,-3.75,,,,,,,,
701219.1208,3,0.06,11.043,-4.929,,,,,,,,
701219.1407,3,0.431,11.998,-4.537,4,-0.068,-0.046,0.087,5,-0.732,-44.157,-2.2
701219.1606,3,0.632,8.755,-0.053,,,,,,,,
701219.1804,3,0.385,8.992,0.433,,,,,,,,
701219.2003,3,0.249,9.631,-1.464,4,-0.043,-0.127,0.025,5,-0.941,-41.507,-1.387
701219.2202,3,0.055,9.921,-3.077,,,,,,,,
701219.24,3,0.093,10.014,-3.254,,,,,,,,
701219.2599,3,-0.318,7.612,-2.888,4,0.012,-0.152,-0.012,5,-1.512,-41.507,-3.281
701219.2798,3,-1.139,9.59,-3.47,,,,,,,,
701219.2996,3,-1.565,9.16,-2.967,,,,,,,,
701219.3195,3,-1.259,9.05,-2.656,4,-0.011,-0.228,-0.005,5,-1.103,-42.743,-1.898
701219.3394,3,-0.885,9.959,-2.304,,,,,,,,
701219.3592,3,-1.084,11.237,-2.029,,,,,,,,
701219.3791,3,-1.158,9.404,-1.232,4,0.04,-0.379,0.032,5,-1.595,-42.522,-1.918
701219.399,3,-0.79,9.83,-2.977,,,,,,,,
701219.4189,3,-0.196,9.464,-3.336,,,,,,,,
701219.4387,3,-1.06,9.361,-2.723,4,0.057,-0.219,0.068,,,,
701219.4586,3,-0.962,9.717,-2.405,,,,,,,,
701219.4785,3,-0.213,9.832,-1.857,,,,,,,,
701219.4983,3,-0.17,9.638,-1.644,4,0.027,-0.053,0.087,5,-2.04,-42.903,-2.644
701219.5182,3,0.043,9.516,-2.252,,,,,,,,
701219.5381,3,-0.112,9.363,-2.07,,,,,,,,
701219.5579,3,-0.986,9.681,-2.455,4,0.027,-0.029,0.076,,,,
701219.5778,3,-0.306,8.736,-1.663,,,,,,,,
701219.5976,3,-0.916,9.736,-2.326,,,,,,,,
701219.6175,3,-1.385,9.808,-1.833,4,0.012,-0.053,0.078,5,-1.744,-43.523,-2.251
701219.6374,3,-1.914,10.071,-1.5,,,,,,,,
701219.6572,3,-2.204,9.858,-1.85,,,,,,,,
701219.6771,3,-1.5,10.366,-2.244,4,0.03,0.061,0.145,5,-3.059,-42.596,-1.921
701219.697,3,-0.948,8.932,-1.907,,,,,,,,
701219.7169,3,-0.756,7.825,-2.807,,,,,,,,
701219.7367,3,-0.613,10.423,-4.087,4,0.04,0.397,0.173,5,-2.711,-42.789,-1.198
701219.7566,3,-0.012,10.16,-2.486,,,,,,,,
701219.7765,3,0.165,10.38,-0.601,,,,,,,,
701219.7963,3,0.01,9.913,0.215,4,0.003,0.603,0.143,5,-3.705,-42.126,-2.112
701219.8162,3,-0.361,9.081,-0.541,,,,,,,,
701219.8361,3,-0.493,10.387,-3.336,,,,,,,,
701219.8559,3,-0.093,9.212,-3.948,4,0.088,0.531,0.081,5,-3.07,-43.504,-0.848
701219.8758,3,0.842,9.528,-3.194,,,,,,,,
701219.8957,3,0.5,9.476,-1.639,,,,,,,,
701219.9155,3,0.383,9.858,-1.476,4,-0.012,0.532,0.036,5,-3.923,-43.668,-2.646
701219.9354,3,0.297,9.636,-2.244,,,,,,,,
701219.9552,3,0.211,9.913,-3.565,,,,,,,,
701219.9752,3,0.869,9.019,-2.754,4,0.005,0.338,-0.031,5,-3.387,-43.556,-1.962
701219.995,3,0.201,8.973,-1.809,,,,,,,,
701220.0149,3,-0.687,9.712,-1.972,,,,,,,,
701220.0347,3,-1.589,10.201,-2.934,4,0,0.138,-0.065,5,-3.165,-43.259,-3.378
701220.0546,3,-1.005,9.595,-1.606,,,,,,,,
701220.0745,3,-1.239,9.203,-2.721,,,,,,,,
701220.0943,3,-1.242,9.665,-3.02,4,0.017,0.118,-0.025,,,,
701220.1142,3,-1.493,10.323,-1.725,,,,,,,,
701220.1341,3,-1.548,9.057,-0.955,,,,,,,,
701220.1539,3,0.117,5.81,-2.984,4,0.044,0.23,0.016,5,-3.259,-43.504,-3.076
701220.1738,3,-0.23,14.958,-6.609,,,,,,,,
701220.1937,3,-0.313,10.957,-0.033,,,,,,,,
701220.2135,3,0.419,8.277,1.976,4,-0.05,0.379,0.028,5,-3.267,-42.178,-2.649
701220.2334,3,0.586,10.911,-1.266,,,,,,,,
701220.2533,3,0.766,8.404,-2.699,,,,,,,,
701220.2732,3,0.792,9.449,-4.764,4,0.087,0.313,-0.012,5,-3.268,-42.174,-2.016
701220.293,3,0.811,9.148,-4.156,,,,,,,,
701220.3129,3,0.845,9.674,-2.134,,,,,,,,
701220.3328,3,0.926,9.744,-1.149,4,-0.024,0.168,-0.068,5,-3.397,-43.939,-1.334
701220.3526,3,0.347,7.746,-1.797,,,,,,,,
701220.3725,3,0.048,9.933,-4.192,,,,,,,,
701220.3924,3,-0.852,9.885,-3.486,4,-0.002,-0.023,-0.095,5,-1.628,-44.653,-2.632
701220.4122,3,-0.029,10.047,-1.859,,,,,,,,
701220.4321,3,-0.282,10.832,-0.742,,,,,,,,
701220.452,3,-0.629,9.878,-0.299,4,-0.011,-0.048,-0.068,5,-0.314,-44.763,-0.612
701220.4718,3,-1.103,10.167,-1.838,,,,,,,,
701220.4917,3,-0.94,9.744,-2.338,,,,,,,,
701220.5115,3,-0.613,9.509,-2.386,4,0.041,0.078,-0.018,5,-2.31,-43.486,-0.888
701220.5314,3,-0.744,10.007,-2.632,,,,,,,,
701220.5513,3,-0.471,9.768,-1.56,,,,,,,,
701220.5712,3,0.115,9.729,-0.931,4,0.015,0.288,0.025,5,-0.789,-44.493,-1.184
701220.591,3,0.689,7.432,-1.924,,,,,,,,
701220.6109,3,0.682,10.454,-4.743,,,,,,,,
701220.6308,3,0.723,10.454,-3.233,4,0.001,0.452,0.005,,,,
701220.6506,3,0.232,9.93,-0.883,,,,,,,,
701220.6705,3,0.763,10.327,-0.318,,,,,,,,
701220.6904,3,0.342,9.452,-0.763,4,0.003,0.289,-0.049,5,-3.494,-42.667,-1.056
701220.7102,3,0.316,9.267,-2.146,,,,,,,,
701220.7301,3,0.287,7.832,-2.977,,,,,,,,
701220.75,3,0.304,10.557,-5.307,4,0.076,0.132,-0.087,5,-0.714,-43.445,-1.193
701220.7698,3,0.175,10.39,-4.441,,,,,,,,
701220.7897,3,0.689,9.545,-0.952,,,,,,,,
701220.8096,3,0.33,9.306,-0.112,4,-0.05,0.059,-0.093,5,-1.242,-44.841,-3.899
701220.8295,3,-0.945,9.983,-1.854,,,,,,,,
701220.8493,3,-0.648,8.997,-2.618,,,,,,,,
701220.8692,3,-0.062,10.536,-4.266,4,0.044,-0.092,-0.089,5,-0.478,-43.15,-1.274
701220.8891,3,0.062,9.82,-2.819,,,,,,,,
701220.9089,3,0.215,9.26,-1.295,,,,,,,,
701220.9288,3,0.089,9.176,-1.467,4,0.024,0.037,-0.07,5,-0.949,-42.316,-1.917
701220.9486,3,-0.352,8.344,-2.326,,,,,,,,
701220.9685,3,-0.278,8.547,-4.051,,,,,,,,
701220.9884,3,0.16,10.186,-5.374,4,0.054,0.149,-0.089,5,0.638,-42.749,-0.552
701221.0082,3,0.208,10.883,-2.792,,,,,,,,
701221.0281,3,0.079,7.7,0.206,,,,,,,,
701221.048,3,-0.634,9.251,-1.979,4,-0.019,0.181,-0.085,5,0.833,-43.643,-1.184
701221.0678,3,-0.847,10.083,-3.441,,,,,,,,
701221.0877,3,-1.046,9.992,-2.524,,,,,,,,
701221.1076,3,-0.971,10.698,-0.897,4,-0.067,0.05,-0.054,5,0.49,-42.995,-0.754
701221.1275,3,-0.696,10.732,-0.517,,,,,,,,
701221.1473,3,-0.869,9.624,-0.687,,,,,,,,
701221.1672,3,-1.323,9.825,-2.505,4,-0.014,-0.103,-0.007,,,,
701221.1865,3,-0.373,9.265,-2.479,,,,,,,,
701221.2069,3,0.467,11.076,-2.512,,,,,,,,
701221.2268,3,1.649,7.937,-2.299,4,-0.028,-0.169,0.02,5,1.794,-42.764,-1.721
701221.2467,3,1.436,11.285,-4.077,,,,,,,,
701221.2665,3,0.9,8.018,-1.878,,,,,,,,
701221.2864,3,1.043,9.545,-2.996,4,-0.047,0.003,-0.033,,,,
701221.3063,3,-0.065,9.949,-2.941,,,,,,,,
701221.3261,3,-0.041,7.353,-2.623,,,,,,,,
701221.346,3,-0.072,10.715,-3.805,4,-0.054,0.2,-0.067,5,0.876,-43.687,-2.785
701221.3658,3,-0.153,12.62,-1.608,,,,,,,,
701221.3857,3,-0.091,12.014,-0.388,,,,,,,,
701221.4056,3,-0.366,7.26,2.022,4,-0.044,0.081,-0.104,5,1.938,-44.095,-1.431
701221.4255,3,-0.328,9.712,-2.591,,,,,,,,
701221.4453,3,-1.034,8.851,-4.941,,,,,,,,
701221.4652,3,-0.952,9.815,-5.393,4,0.045,-0.047,-0.095,5,1.956,-43.335,-0.607
701221.4851,3,0.014,8.839,-2.599,,,,,,,,
701221.5049,3,-1.383,7.14,-0.167,,,,,,,,
701221.5248,3,-0.73,10.449,-2.223,4,-0.065,-0.188,-0.043,5,1.956,-43.236,-2.637
701221.5447,3,-0.534,10.471,-2.254,,,,,,,,
701221.5645,3,-0.199,9.107,-1.105,,,,,,,,
701221.5844,3,0.304,11.509,-1.883,4,-0.011,-0.408,-0.032,5,1.651,-43.056,-2.689
701221.6043,3,0.304,8.552,-0.888,,,,,,,,
701221.6241,3,0.007,10.653,-2.692,,,,,,,,
701221.644,3,-0.033,8.954,-2.874,4,0.059,-0.349,-0.031,5,2.147,-42.857,-1.91
701221.6639,3,-0.546,9.856,-3.367,,,,,,,,
701221.6838,3,-0.309,9.633,-2.692,,,,,,,,
701221.7036,3,-0.184,10.038,-2.058,4,0.001,-0.257,-0.015,,,,
701221.7235,3,0.105,9.109,-1.943,,,,,,,,
701221.7434,3,-0.01,11.232,-3.998,,,,,,,,
701221.7632,3,0.062,8.274,-2.34,4,0.033,-0.185,-0.014,5,3.168,-42.448,-2.444
701221.7831,3,-0.452,10.203,-2.907,,,,,,,,
701221.803,3,-1.23,9.421,-2.07,,,,,,,,
701221.8228,3,-0.969,9.198,-2.285,4,0.013,-0.108,-0.01,,,,
701221.8427,3,-0.287,9.933,-3.226,,,,,,,,
701221.8625,3,0.112,9.454,-2.515,,,,,,,,
701221.8824,3,0.22,9.842,-2.323,4,-0.008,-0.071,-0.012,5,1.938,-44.048,-2.93
701221.9023,3,0.05,10.481,-1.479,,,,,,,,
701221.9222,3,-0.373,10.464,-1.213,,,,,,,,
701221.942,3,-0.388,7.758,-1.338,4,0.067,-0.101,-0.023,5,2.472,-43.784,-3.938
701221.9619,3,0.392,8.471,-3.527,,,,,,,,
701221.9818,3,-0.388,12.134,-7.296,,,,,,,,
701222.0016,3,-0.421,11.466,-2.855,4,-0.062,-0.077,0.007,5,1.938,-44,-2.679
701222.0215,3,-1.058,8.705,1.333,,,,,,,,
701222.0414,3,-1.412,10.665,1.871,,,,,,,,
701222.0612,3,-0.754,9.468,-0.141,4,-0.028,-0.435,0.023,5,1.97,-42.416,-5.302
701222.0811,3,-0.397,9.576,-3.864,,,,,,,,
701222.101,3,-0.134,10.612,-5.568,,,,,,,,
701222.1209,3,-0.022,8.509,-2.422,4,-0.006,-0.451,0.069,5,1.407,-43.538,-4.228
701222.1407,3,0.866,9.698,-2.627,,,,,,,,
701222.1606,3,0.447,9.107,-1.697,,,,,,,,
701222.1805,3,-0.199,9.679,-1.895,4,-0.019,-0.287,0.058,5,-0.009,-45.459,-5.539
701222.2003,3,-0.024,10.871,-3.113,,,,,,,,
701222.2202,3,-0.187,9.153,-2.752,,,,,,,,
701222.2401,3,-0.395,9.82,-2.737,4,-0.002,-0.192,0.03,5,0.627,-42.975,-3.648
701222.2599,3,-0.182,9.746,-2.733,,,,,,,,
701222.2798,3,-0.337,9.004,-2.204,,,,,,,,
701222.2997,3,-0.706,8.619,-2.249,4,-0.002,-0.168,0.023,5,0.078,-43.703,-4.517
701222.3195,3,-0.581,10.052,-3.063,,,,,,,,
701222.3394,3,-0.991,9.016,-1.869,,,,,,,,
701222.3593,3,-1.567,10.088,-1.713,4,-0.007,-0.198,0.042,,,,
701222.3791,3,-1.517,9.416,-1.302,,,,,,,,
701222.399,3,-1.675,10.213,-1.641,,,,,,,,
701222.4189,3,-0.912,8.463,-0.837,4,0.04,-0.312,0.097,5,0.165,-43.417,-4.57
701222.4387,3,-1.586,8.282,-2.271,,,,,,,,
701222.4586,3,-2.096,10.344,-4.723,,,,,,,,
701222.4785,3,-0.756,10.028,-2.103,4,0.057,-0.064,0.177,5,-1.451,-44.118,-5.545
701222.4983,3,-0.706,9.811,-0.904,,,,,,,,
701222.5182,3,0.218,11.596,-0.747,,,,,,,,
701222.5381,3,0.775,8.679,-0.835,4,0.082,0.384,0.183,5,-2.069,-44.043,-4.961
701222.558,3,0.562,9.863,-3.013,,,,,,,,
701222.5778,3,0.78,9.966,-3.639,,,,,,,,
701222.5977,3,0.971,8.633,-3.048,4,0.093,0.816,0.098,5,-2.393,-44.749,-4.144
701222.6176,3,1.613,9.689,-3.348,,,,,,,,
701222.6374,3,0.687,9.71,-2.639,,,,,,,,
701222.6573,3,0.514,9.588,-2.256,4,0.006,0.954,-0.041,5,-1.697,-43.6,-3.561
701222.6771,3,0.814,10.04,-2.441,,,,,,,,
701222.697,3,0.1,9.002,-2.201,,,,,,,,
701222.7169,3,-1.017,9.361,-2.632,4,0.009,0.573,-0.146,5,-0.723,-43.437,-6.273
701222.7367,3,-1.689,9.791,-2.713,,,,,,,,
701222.7566,3,-1.72,9.449,-2.821,,,,,,,,
701222.7765,3,-1.826,9.576,-3.505,4,0.024,0.213,-0.127,5,1.057,-44.112,-3.78
701222.7963,3,-1.565,9.787,-2.843,,,,,,,,
701222.8162,3,-1.89,8.87,-2.436,,,,,,,,
701222.8361,3,-1.689,9.892,-2.603,4,0.009,0.14,-0.065,5,-1.437,-43.831,-5.634
701222.856,3,-1.117,10.363,-2.084,,,,,,,,
701222.8758,3,-0.727,9.698,-1.232,,,,,,,,
701222.8957,3,-0.342,7.025,-2.177,4,0.041,0.186,-0.023,,,,
701222.9156,3,-0.053,9.358,-4.125,,,,,,,,
701222.9354,3,0.244,10.526,-3.972,,,,,,,,
701222.9553,3,0.385,9.768,-2.082,4,-0.024,0.291,-0.025,5,-2.682,-43.391,-6.865
701222.9752,3,0.747,10.251,-0.744,,,,,,,,
701222.995,3,1.05,7.683,-1.634,,,,,,,,
701223.0149,3,0.727,9.93,-4.049,4,-0.022,0.139,-0.084,,,,
701223.0348,3,-0.06,14.316,-2.34,,,,,,,,
701223.0546,3,-0.569,10.002,1.132,,,,,,,,
701223.0745,3,-0.675,7.609,0.742,4,-0.052,-0.075,-0.11,5,-0.963,-44.383,-5.304
701223.0944,3,-1.529,10.416,-2.962,,,,,,,,
701223.1143,3,-1.809,7.997,-3.52,,,,,,,,
701223.1341,3,-1.141,10.519,-3.644,4,-0.056,-0.049,-0.049,5,-1.021,-44.736,-5.107
701223.154,3,-1.297,10.923,-1.95,,,,,,,,
701223.1739,3,-1.127,10.26,-0.706,,,,,,,,
701223.1937,3,-0.476,8.313,-0.256,4,-0.123,-0.029,0.019,5,-1.115,-44.777,-4.915
701223.2136,3,-0.337,9.844,-2.78,,,,,,,,
701223.2334,3,0.022,9.236,-2.953,,,,,,,,
701223.2533,3,0.424,10.213,-3.364,4,-0.035,0.046,0.037,5,-3.424,-44.833,-6.808
701223.2732,3,0.529,9.813,-2.943,,,,,,,,
701223.293,3,0.665,9.014,-2.477,,,,,,,,
701223.3129,3,0.656,9.916,-2.489,4,-0.053,0.093,0.007,5,-2.881,-44.202,-5.696
701223.3328,3,0.316,10.27,-1.972,,,,,,,,
701223.3526,3,0.416,10.727,-1.448,,,,,,,,
701223.3725,3,0.357,7.205,-1.271,4,-0.008,-0.143,-0.026,5,-3.853,-44.225,-6.03
701223.3924,3,0.802,9.638,-4.259,,,,,,,,
701223.4123,3,0.51,10.227,-4.422,,,,,,,,
701223.4321,3,0.433,9.997,-1.926,4,-0.072,-0.278,-0.054,,,,
701223.452,3,0.687,11.017,-0.077,,,,,,,,
701223.4719,3,0.744,10.631,0.445,,,,,,,,
701223.4917,3,0.727,9.574,-1.261,4,-0.017,-0.555,-0.082,5,-4.337,-43.663,-6.277
701223.5116,3,-0.5,9.935,-3.367,,,,,,,,
701223.5315,3,-0.239,11.349,-3.316,,,,,,,,
701223.5513,3,0.416,9.066,-1.886,4,-0.046,-0.589,-0.057,,,,
701223.5712,3,-0.916,10.332,-1.728,,,,,,,,
701223.5911,3,-0.558,9.523,-1.266,,,,,,,,
701223.6109,3,-0.292,10.203,-1.625,4,-0.049,-0.608,0.011,5,-2.368,-45.778,-5.098
701223.6308,3,-0.132,9.574,-1.218,,,,,,,,
701223.6506,3,-0.055,9.677,-1.773,,,,,,,,
701223.6705,3,-1.134,7.662,-2.864,4,0.055,-0.483,0.014,5,-3.026,-46.483,-3.755
701223.6904,3,-0.852,9.976,-4.475,,,,,,,,
701223.7103,3,0.316,10.028,-3.364,,,,,,,,
701223.7301,3,0.569,9.188,0.232,4,-0.066,-0.336,0.031,5,-6.079,-44.283,-4.1
701223.75,3,-0.136,9.973,0.038,,,,,,,,
701223.7699,3,-0.933,8.935,-2.084,,,,,,,,
701223.7897,3,-0.249,9.923,-2.85,4,0.039,-0.389,0.007,5,-5.267,-44.264,-3.561
701223.8096,3,0.122,8.645,-2.383,,,,,,,,
701223.8295,3,0.163,11.55,-1.862,,,,,,,,
701223.8493,3,-0.129,9.909,-0.16,4,0.007,-0.474,-0.015,5,-5.737,-44.951,-2.304
701223.8692,3,-0.163,10.411,-0.983,,,,,,,,
701223.8891,3,-0.187,7.549,-2.024,,,,,,,,
701223.9089,3,-0.522,9.105,-4.577,4,0.056,-0.683,-0.016,5,-6.772,-45.581,-3.372
701223.9288,3,-0.139,10.263,-3.917,,,,,,,,
701223.9487,3,-0.163,10.416,-1.031,,,,,,,,
701223.9686,3,0.103,10.624,0.921,4,-0.064,-0.662,0.004,5,-7.402,-45.699,-3.372
701223.9878,3,-0.636,11.21,0.773,,,,,,,,
701224.0083,3,0,11.014,0.108,,,,,,,,
701224.0282,3,-2.369,10.275,-1.192,4,0.061,-0.647,0.047,5,-7.201,-44.791,-2.885
701224.048,3,-0.601,9.102,-1.773,,,,,,,,
701224.0679,3,-2.709,9.679,-1.701,,,,,,,,
701224.0878,3,-2.936,10.481,-2.053,4,0.097,-0.473,0.136,,,,
701224.1076,3,-2.316,9.526,-2.556,,,,,,,,
701224.1275,3,-2.331,9.507,-2.905,,,,,,,,
701224.1473,3,-1.802,9.37,-3.166,4,0.156,-0.153,0.241,5,-8.188,-43.628,-1.045
701224.1672,3,-0.591,9.626,-3.036,,,,,,,,
701224.1871,3,-0.019,9.289,-2.812,,,,,,,,
701224.2069,3,0.859,9.715,-3.084,4,0.174,0.305,0.244,5,-9.306,-43.852,-0.375
701224.2268,3,1.266,9.923,-2.39,,,,,,,,
701224.2467,3,1.692,8.404,-1.898,,,,,,,,
701224.2666,3,1.07,10.086,-2.792,4,0.166,0.603,0.148,5,-9.904,-44.479,0.252
701224.2864,3,1.005,10.378,-3.467,,,,,,,,
701224.3063,3,0.665,9.59,-2.618,,,,,,,,
701224.3262,3,0.108,8.77,-1.421,4,0.058,0.697,0.055,5,-9.273,-43.941,0.391
701224.346,3,0.005,10.236,-1.787,,,,,,,,
701224.3659,3,-0.301,9.815,-2.036,,,,,,,,
701224.3858,3,-0.55,10.263,-2.288,4,0.012,0.635,0.01,5,-9.393,-44.124,0.252
701224.4056,3,-0.873,9.076,-1.687,,,,,,,,
701224.4255,3,-1.661,8.246,-2.745,,,,,,,,
701224.4454,3,-1.383,9.746,-4.417,4,0.019,0.73,0.019,5,-8.072,-44.24,-0.42
701224.4652,3,-1.225,10.086,-3.297,,,,,,,,
701224.4851,3,-1.149,10.359,-1.015,,,,,,,,
701224.505,3,-0.761,10.177,0.072,4,-0.039,0.671,0.03,5,-7.507,-42.902,-0.331
701224.5248,3,-0.605,9.825,-0.098,,,,,,,,
701224.5447,3,-0.246,9.066,-2.355,,,,,,,,
701224.5646,3,-0.048,9.294,-4.872,4,0.097,0.604,0.028,5,-8.073,-44.289,-0.471
701224.5844,3,-0.371,8.705,-4.81,,,,,,,,
701224.6043,3,0.112,9.983,-1.572,,,,,,,,
701224.6242,3,-0.457,8.693,0.39,4,-0.039,0.603,0.017,,,,
701224.644,3,0.175,11.069,-2.321,,,,,,,,
701224.6639,3,0.543,9.753,-0.577,,,,,,,,
701224.6838,3,0.5,8.791,-1.993,4,0.041,0.522,-0.019,5,-7.954,-44.531,-0.471
701224.7036,3,0.455,10.483,-2.881,,,,,,,,
701224.7235,3,0.543,9.571,-2.752,,,,,,,,
701224.7434,3,0.689,9.303,-1.826,4,-0.017,0.551,-0.066,5,-7.414,-44.316,-3.368
701224.7632,3,0.687,9.947,-2.149,,,,,,,,
701224.7831,3,-0.005,10.155,-2.28,,,,,,,,
701224.803,3,-0.648,8.992,-2.378,4,-0.034,0.391,-0.105,5,-7.555,-43.088,-1.39
701224.8228,3,-1.216,9.99,-2.51,,,,,,,,
701224.8427,3,-1.278,9.528,-2.144,,,,,,,,
701224.8626,3,-1.665,9.849,-1.988,4,-0.04,0.115,-0.061,5,-7.399,-43.988,-0.81
701224.8825,3,-1.206,9.526,-1.689,,,,,,,,
701224.9023,3,-0.866,9.727,-2.367,,,,,,,,
701224.9222,3,-0.672,9.813,-3.161,4,0.025,0.114,-0.008,5,-6.029,-42.441,-1.05
701224.9421,3,-0.715,9.607,-2.29,,,,,,,,
701224.9619,3,-0.627,10.835,-1.354,,,,,,,,
701224.9818,3,0.562,8.164,-0.852,4,0.043,0.153,0.033,5,-5.399,-42.226,-0.473
701225.0017,3,1.608,7.659,-3.762,,,,,,,,
701225.0215,3,1.56,9.203,-5.413,,,,,,,,
701225.0414,3,1.347,9.492,-4.647,4,-0.004,0.354,-0.027,5,-7.141,-42.657,-0.713
701225.0613,3,0.809,12.189,-0.955,,,,,,,,
701225.0811,3,0.641,11.608,2.902,,,,,,,,
701225.101,3,-0.364,10.866,3.252,4,-0.018,0.277,-0.079,5,-5.507,-43.141,-0.609
701225.1209,3,1.692,9.296,-0.108,,,,,,,,
701225.1408,3,1.677,8.739,-5.224,,,,,,,,
701225.1606,3,-0.148,9.129,-4.984,4,0.057,0.18,-0.129,,,,
701225.1805,3,0.117,9.636,-2.991,,,,,,,,
701225.2004,3,-0.249,9.567,-1.524,,,,,,,,
701225.2202,3,-0.486,9.873,-2.034,4,-0.038,0.049,-0.126,5,-5.884,-43.57,-1.732
701225.2401,3,0.036,9.145,-3.63,,,,,,,,
701225.26,3,-0.529,9.768,-5.025,,,,,,,,
701225.2798,3,-0.969,9.456,-3.438,4,-0.024,0.091,-0.117,,,,
701225.2997,3,-1.749,8.779,-2.094,,,,,,,,
701225.3196,3,-1.074,9.77,-1.685,,,,,,,,
701225.3394,3,-0.799,8.837,-1.335,4,0.014,-0.057,-0.065,5,-3.894,-42.664,-0.908
701225.3593,3,-0.854,9.784,-3.032,,,,,,,,
701225.3792,3,-0.364,9.318,-3.817,,,,,,,,
701225.3991,3,0.139,10.591,-3.123,4,0.014,-0.24,-0.027,5,-3.38,-43.282,-0.229
701225.4189,3,0.883,9.421,-2.008,,,,,,,,
701225.4388,3,1.586,9.59,-0.787,,,,,,,,
701225.4587,3,1.429,9.705,-1.4,4,-0.021,-0.493,-0.051,5,-4.562,-42.831,0.208
701225.4785,3,1.773,9.782,-1.976,,,,,,,,
701225.4984,3,1.909,9.567,-3.283,,,,,,,,
701225.5182,3,1.062,9.521,-3.628,4,-0.017,-0.624,-0.127,5,-3.249,-43.373,0.119
701225.5381,3,0.328,9.906,-2.503,,,,,,,,
701225.558,3,-0.139,9.801,-2.11,,,,,,,,
701225.5778,3,-0.904,10.569,-2.216,4,-0.072,-0.766,-0.13,5,-3.709,-44.237,0.209
701225.5977,3,-1.273,8.42,-1.338,,,,,,,,
701225.6176,3,-1.737,9.332,-3.45,,,,,,,,
701225.6374,3,-1.299,10.394,-3.967,4,-0.029,-0.804,-0.057,5,-3.383,-43.515,0.401
701225.6573,3,-0.823,9.5,-2.687,,,,,,,,
701225.6772,3,-0.782,10.122,-1.651,,,,,,,,
701225.6971,3,-0.251,10.294,-0.756,4,-0.032,-0.589,0.031,,,,
701225.7169,3,0.167,10.213,-0.931,,,,,,,,
701225.7368,3,0.397,9.863,-1.895,,,,,,,,
701225.7567,3,1.077,9.279,-1.799,4,0.055,-0.425,0.032,5,-5.217,-43.744,-0.812
701225.7765,3,0.433,10.325,-2.845,,,,,,,,
701225.7964,3,0.814,10.05,-2.929,,,,,,,,
701225.8163,3,0.914,9.019,-2.45,4,0.018,-0.441,-0.005,,,,
701225.8361,3,0.431,8.246,-3.173,,,,,,,,
701225.856,3,0.689,10.079,-4.247,,,,,,,,
701225.8759,3,0.158,8.078,-2.737,4,-0.044,-0.598,-0.062,5,-3.697,-43.526,1.714
701225.8957,3,0.275,11.392,-2.481,,,,,,,,
701225.9156,3,-0.313,8.818,-0.017,,,,,,,,
701225.9355,3,-1.56,9.753,-1.694,4,-0.044,-0.78,-0.081,5,-3.63,-42.958,1.712
701225.9553,3,-1.931,10.203,-2.663,,,,,,,,
701225.9752,3,-1.586,9.279,-2.4,,,,,,,,
701225.9951,3,-1.895,9.648,-2.405,4,0.032,-0.87,0.008,5,-3.911,-42.859,-0.331
701226.0149,3,-1.622,9.82,-2.084,,,,,,,,
701226.0348,3,-1.417,9.758,-2.223,,,,,,,,
701226.0547,3,-0.94,9.89,-2.546,4,0.037,-0.891,0.085,5,-4.039,-43.057,1.717
701226.0745,3,-0.706,9.89,-2.699,,,,,,,,
701226.0944,3,-0.531,9.83,-2.445,,,,,,,,
701226.1143,3,-0.237,9.681,-2.058,4,0.034,-0.785,0.1,5,-3.383,-43.515,0.122
701226.1341,3,-0.223,10.217,-1.555,,,,,,,,
701226.154,3,-0.115,9.921,-1.242,,,,,,,,
701226.1739,3,-0.309,8.356,-1.426,4,0.079,-0.59,0.086,,,,
701226.1937,3,-1.06,8.885,-3.572,,,,,,,,
701226.2136,3,-1.45,10.057,-4.482,,,,,,,,
701226.2335,3,-0.589,9.964,-2.424,4,0.027,-0.204,0.103,5,-5.142,-44.179,0.356
701226.2533,3,-0.754,11.007,-0.871,,,,,,,,
701226.2732,3,-0.445,10.325,0.608,,,,,,,,
701226.2931,3,-1.328,9.858,-0.053,4,0.078,-0.106,0.062,5,-3.896,-42.97,3.163
701226.313,3,-1.512,8.731,-1.84,,,,,,,,
701226.3328,3,-2.618,9.923,-3.625,,,,,,,,
701226.3527,3,-2.649,8.743,-2.859,4,0.14,0.15,0.114,,,,
701226.3726,3,-2.065,9.179,-2.541,,,,,,,,
701226.3924,3,-1.306,9.988,-1.053,,,,,,,,
701226.4123,3,-0.837,9.708,-0.799,4,0.059,0.343,0.157,5,-3.618,-43.996,1.476
701226.4322,3,-0.754,9.624,-1.833,,,,,,,,
701226.452,3,-0.234,9.299,-3.182,,,,,,,,
701226.4719,3,-1.079,9.444,-3.728,4,0.119,0.319,0.135,5,-5.992,-45.007,1.662
701226.4917,3,-1.134,8.908,-3.711,,,,,,,,
701226.5116,3,-0.084,9.887,-3.211,,,,,,,,
701226.5315,3,0.443,9.741,-2.012,4,0.021,0.215,0.114,5,-5.26,-43.843,0.984
701226.5514,3,0.218,9.961,-2.51,,,,,,,,
701226.5712,3,0.443,9.468,-2.886,,,,,,,,
701226.5911,3,0.074,9.533,-2.785,4,0.036,0.112,0.049,5,-5.116,-43.182,2.773
701226.611,3,-0.127,9.54,-2.783,,,,,,,,
701226.6308,3,-0.258,9.418,-3.001,,,,,,,,
701226.6507,3,-0.325,9.59,-2.448,4,0.022,0.085,0.008,5,-4.21,-42.696,3.496
701226.6706,3,-0.804,9.811,-2.247,,,,,,,,
701226.6904,3,-1.455,11.014,-1.874,,,,,,,,
701226.7103,3,-1.649,9.622,-0.924,4,0.016,-0.11,0.013,,,,
701226.7302,3,-1.893,8.588,-1.871,,,,,,,,
701226.75,3,-1.797,9.902,-3.395,,,,,,,,
701226.7699,3,-1.225,9.148,-3.261,4,0.038,-0.123,0.079,5,-3.587,-44.762,0.99
701226.7898,3,-0.306,9.275,-2.709,,,,,,,,
701226.8096,3,0.275,10.794,-1.685,,,,,,,,
701226.8295,3,0.634,10.342,-0.703,4,0.006,0.061,0.08,5,-3.27,-44.232,2.829
701226.8494,3,0.919,10.158,-2.084,,,,,,,,
701226.8693,3,0.957,9.212,-3.537,,,,,,,,
701226.8891,3,0.371,10.05,-3.886,4,0.063,0.12,0.015,,,,
701226.909,3,0,8.935,-2.434,,,,,,,,
701226.9289,3,0.055,9.825,-2.998,,,,,,,,
701226.9487,3,0.1,9.602,-2.627,4,0.008,-0.027,-0.036,5,-5.298,-43.523,2.437
701226.9686,3,-0.715,9.925,-3.149,,,,,,,,
701226.9878,3,-1.015,9.799,-2.489,,,,,,,,
701227.0083,3,-1.584,9.617,-1.658,4,-0.048,-0.34,-0.054,,,,
701227.0282,3,-2.12,9.251,-1.053,,,,,,,,
701227.048,3,-2.493,9.31,-1.572,,,,,,,,
701227.0679,3,-2.364,9.645,-2.991,4,0.021,-0.575,0.023,5,-5.161,-43.327,1.701
701227.0878,3,-2.625,9.923,-2.701,,,,,,,,
701227.1076,3,-2.328,9.198,-1.838,,,,,,,,
701227.1275,3,-2.223,10.093,-1.965,4,0.024,-0.38,0.144,5,-5.916,-43.294,2.295
701227.1474,3,-1.771,9.526,-1.653,,,,,,,,
701227.1673,3,-1.665,10.241,-1.902,,,,,,,,
701227.1871,3,-1.168,9.722,-2.225,4,0.095,0.015,0.213,5,-6.11,-42.262,3.786
701227.207,3,-0.325,9.858,-2.663,,,,,,,,
701227.2269,3,0.237,6.956,-2.369,,,,,,,,
701227.2467,3,1.003,4.996,-4.965,4,0.121,0.56,0.2,5,-6.703,-42.888,1.895
701227.2666,3,1.625,13.015,-8.624,,,,,,,,
701227.2865,3,3.218,15.386,-2.68,,,,,,,,
701227.3063,3,1.823,10.464,3.434,4,-0.127,1.038,0.104,5,-6.709,-43.172,1.994
701227.3262,3,2.429,7.741,4.458,,,,,,,,
701227.3461,3,-0.66,10.461,-2.381,,,,,,,,
701227.3659,3,-1.555,9.88,-6.614,4,0.183,0.558,-0.083,,,,
701227.3858,3,-0.938,8.413,-6.408,,,,,,,,
701227.4057,3,-0.079,8.282,-4.238,,,,,,,,
701227.4255,3,-0.605,9.983,-2.441,4,-0.038,0.577,-0.039,5,-6.029,-42.632,2.432
701227.4454,3,-0.696,10.239,-1.697,,,,,,,,
701227.4653,3,0.148,8.858,-2.273,,,,,,,,
701227.4851,3,0.581,9.5,-3.958,4,0.027,0.41,-0.078,5,-6.03,-42.732,2.873
701227.505,3,-0.424,8.784,-3.907,,,,,,,,
701227.5249,3,-0.703,9.433,-3.788,,,,,,,,
701227.5447,3,-0.553,9.416,-3.632,4,0.012,0.172,-0.107,,,,
701227.5646,3,-1.283,9.349,-3.403,,,,,,,,
701227.5845,3,-1.515,9.559,-2.785,,,,,,,,
701227.6043,3,-1.256,9.325,-2.063,4,-0.006,-0.083,-0.056,5,-5.698,-43.68,1.656
701227.6242,3,-0.821,9.835,-1.819,,,,,,,,
701227.6441,3,-1.271,9.15,-2.847,,,,,,,,
701227.6639,3,-1.378,9.712,-3.455,4,0.049,0.151,-0.005,5,-5.072,-43.369,1.906
701227.6838,3,-1.141,9.547,-3.036,,,,,,,,
701227.7037,3,-1.07,9.33,-2.359,,,,,,,,
701227.7236,3,-0.962,9.985,-1.893,4,-0.01,0.412,0.025,5,-5.383,-43.576,3.886
701227.7434,3,-0.538,9.823,-1.953,,,,,,,,
701227.7633,3,0.041,10.423,-2.568,,,,,,,,
701227.7832,3,0.345,8.978,-2.407,4,0.024,0.37,0.022,5,-5.565,-43.761,1.903
701227.803,3,0.091,8.145,-4.656,,,,,,,,
701227.8229,3,0.206,9.777,-5.645,,,,,,,,
701227.8428,3,-0.524,8.971,-3.01,4,-0.07,0.359,0.008,5,-4.445,-43.5,0.645
701227.8626,3,-0.349,10.454,-0.725,,,,,,,,
701227.8825,3,-0.22,10.708,-0.122,,,,,,,,
701227.9023,3,0.316,9.555,0.476,4,-0.006,0.229,-0.01,,,,
701227.9222,3,-0.311,4.802,0.912,,,,,,,,
701227.9421,3,1.211,11.655,-7.499,,,,,,,,
701227.9619,3,1.73,12.16,-11.208,4,0.071,0.363,-0.039,5,-5.367,-42.807,1.027
701227.9818,3,1.153,9.712,-0.871,,,,,,,,
701228.0017,3,-0.538,9.169,3.151,,,,,,,,
701228.0216,3,-1.271,9.717,1.244,4,-0.101,0.441,-0.089,5,-5.363,-42.612,0.255
701228.0414,3,-0.871,9.55,-2.465,,,,,,,,
701228.0613,3,-0.232,8.43,-5.111,,,,,,,,
701228.0812,3,-0.096,8.619,-5.669,4,0.05,0.256,-0.064,,,,
701228.101,3,-0.357,10.28,-3.671,,,,,,,,
701228.1209,3,-0.945,9.243,-1.101,,,,,,,,
701228.1408,3,-1.228,9.547,-1.165,4,-0.03,0.031,-0.057,5,-4.578,-43.123,1.559
701228.1606,3,-0.345,10.162,-3.032,,,,,,,,
701228.1805,3,0.392,9.59,-3.884,,,,,,,,
701228.2004,3,0.337,9.387,-3.561,4,-0.019,-0.469,-0.037,5,-4.547,-44.157,0.261
701228.2202,3,0.572,9.868,-2.4,,,,,,,,
701228.2401,3,0.912,10.861,-1.926,,,,,,,,
701228.26,3,1.359,8.377,-1.385,4,0,-0.321,-0.048,5,-2.205,-42.87,1.527
701228.2799,3,0.505,7.992,-3.843,,,,,,,,
701228.2997,3,0,10.277,-5.386,,,,,,,,
701228.3196,3,-0.407,9.698,-2.766,4,0.003,0.215,-0.062,5,-3.65,-43.521,0.111
701228.3395,3,0.124,10.782,-1.326,,,,,,,,
701228.3593,3,0.211,10.177,-0.464,,,,,,,,
701228.3792,3,-0.026,9.294,-1.469,4,0.019,0.37,-0.077,5,-3.612,-43.994,0.751
701228.3991,3,-0.007,10.086,-3.637,,,,,,,,
701228.4189,3,-0.514,8.959,-3.436,,,,,,,,
701228.4388,3,-0.531,9.567,-2.893,4,0.006,0.046,-0.098,,,,
701228.4587,3,-0.505,9.954,-2.496,,,,,,,,
701228.4785,3,-0.555,9.275,-2.084,,,,,,,,
701228.4984,3,-0.627,9.71,-2.613,4,-0.027,-0.295,-0.063,5,-0.581,-43.88,0.266
701228.5183,3,-1.311,9.495,-2.797,,,,,,,,
701228.5381,3,-1.462,9.83,-2.565,,,,,,,,
701228.558,3,-1.129,9.693,-2.63,4,-0.009,-0.415,-0.003,,,,
701228.5779,3,-0.383,9.404,-2.352,,,,,,,,
701228.5978,3,0.404,9.33,-2.474,,,,,,,,
701228.6176,3,1.096,9.71,-2.967,4,0.013,-0.306,0.027,5,-2.776,-43.88,-1.189
701228.6375,3,0.634,9.349,-2.898,,,,,,,,
701228.6574,3,0.799,9.751,-3.211,,,,,,,,
701228.6772,3,0.73,9.071,-3.015,4,0.022,0.07,-0.016,5,-3.198,-43.32,0.986
701228.6971,3,0.627,10.196,-2.824,,,,,,,,
701228.717,3,-0.048,7.698,-2.043,,,,,,,,
701228.7368,3,-0.481,8.016,-3.742,4,0.034,0.262,-0.071,5,-2.069,-44.191,0.267
701228.7567,3,-1.125,7.932,-4.967,,,,,,,,
701228.7766,3,-0.658,13.309,-3.549,,,,,,,,
701228.7964,3,-1.139,12.816,1.134,4,-0.108,0.208,-0.051,5,-3.352,-42.087,-0.621
701228.8163,3,-0.383,7.181,3.443,,,,,,,,
701228.8362,3,-0.234,9.861,-2.845,,,,,,,,
701228.8561,3,-1.902,9.617,-6.016,4,0.108,-0.112,-0.056,5,-1.732,-43.434,1.289
701228.8759,3,-1.297,7.446,-5.319,,,,,,,,
701228.8958,3,-0.402,9.227,-4.317,,,,,,,,
701228.9156,3,-0.45,10.624,-2.311,4,-0.057,-0.063,0.002,5,-3.123,-43.794,-1.328
701228.9355,3,-0.443,7.255,-0.775,,,,,,,,
701228.9554,3,-0.127,12.019,-3.977,,,,,,,,
701228.9752,3,-0.742,11.679,-3.264,4,-0.003,0.01,-0.014,5,1.033,-45.512,3.722
701228.9951,3,0.459,6.351,-1.048,,,,,,,,
701229.015,3,-0.438,11.758,-4.898,,,,,,,,
701229.0348,3,-0.294,8.782,-2.484,4,0.005,0.037,-0.034,5,-2.933,-43.027,-0.226
701229.0547,3,0.323,9.533,-2.378,,,,,,,,
701229.0746,3,-0.036,9.942,-2.596,,,,,,,,
701229.0944,3,-0.881,9.076,-1.847,4,-0.02,-0.134,-0.049,,,,
701229.1143,3,-0.538,9.708,-3.259,,,,,,,,
701229.1342,3,-0.1,10.378,-3.036,,,,,,,,
701229.1541,3,-0.407,8.083,-1.747,4,-0.026,-0.272,-0.034,5,-1.363,-43.179,0.124
701229.1739,3,-0.713,8.968,-3.032,,,,,,,,
701229.1938,3,-1.204,10.22,-3.872,,,,,,,,
701229.2137,3,-0.352,9.772,-2.735,4,-0.056,-0.176,-0.001,5,-2.611,-42.685,-1.094
701229.2335,3,-0.258,10.897,-1.405,,,,,,,,
701229.2534,3,-0.598,9.533,-0.799,,,,,,,,
701229.2733,3,-0.718,9.665,-1.886,4,0.004,-0.141,0.019,,,,
701229.2931,3,-1.074,9.327,-2.917,,,,,,,,
701229.313,3,-1.67,9.373,-2.556,,,,,,,,
701229.3329,3,-0.847,9.133,-5.173,4,0.054,-0.025,0.051,5,-2.588,-43.344,-1.489
701229.3527,3,-0.61,9.734,-5.226,,,,,,,,
701229.3726,3,-0.179,10.777,-1.634,,,,,,,,
701229.3924,3,-1.022,8.463,1.445,4,-0.086,0.176,0.082,5,-2.258,-42.776,0.977
701229.4123,3,-0.799,10.851,-0.144,,,,,,,,
701229.4322,3,-0.768,9.837,-2.79,,,,,,,,
701229.4521,3,-0.486,8.356,-3.931,4,0.085,0.168,0.078,5,-3.354,-44.176,-0.464
701229.4719,3,0.378,10.292,-5.961,,,,,,,,
701229.4918,3,0.421,9.803,-0.806,,,,,,,,
701229.5117,3,-0.098,7.875,-1.261,4,-0.055,0.388,0.048,5,-2.69,-42.351,-0.467
701229.5315,3,0.467,10.794,-0.345,,,,,,,,
701229.5514,3,0.904,9.557,1.22,,,,,,,,
701229.5713,3,0,10.662,-1.747,4,-0.045,0.134,-0.011,5,-1.405,-44.51,-0.513
701229.5911,3,0.366,6.939,-0.12,,,,,,,,
701229.611,3,-0.232,10.837,-3.659,,,,,,,,
701229.6309,3,-0.696,10.181,-3.685,4,-0.03,0.07,-0.035,,,,
701229.6507,3,-0.692,9.916,-2.115,,,,,,,,
701229.6706,3,-0.773,10.935,-2.632,,,,,,,,
701229.6905,3,-0.433,8.15,-0.577,4,-0.083,-0.047,-0.01,5,-2.342,-42.775,-0.662
701229.7104,3,0.572,9.837,-1.902,,,,,,,,
701229.7302,3,-0.258,10.031,-3.111,,,,,,,,
701229.7501,3,-0.426,9.155,-2.563,4,0.027,0.045,-0.009,5,-2.068,-44.191,-1.184
701229.77,3,-0.067,9.6,-2.57,,,,,,,,
701229.7892,3,0.089,9.413,-2.355,,,,,,,,
701229.8097,3,-0.191,9.306,-2.326,4,0.032,0.102,-0.021,5,-2.048,-43.481,0.067
701229.8295,3,0.103,10.205,-2.271,,,,,,,,
701229.8494,3,0.184,9.66,-1.596,,,,,,,,
701229.8693,3,0.589,9.976,-1.491,4,0.014,0.039,-0.045,5,-0.748,-42.68,-1.189
701229.8891,3,0.517,10.33,-1.558,,,,,,,,
701229.909,3,0.368,9.435,-1.608,,,,,,,,
701229.9289,3,0.134,10.56,-2.591,4,0.011,-0.114,-0.073,5,-2.031,-43.202,-1.03
701229.9487,3,-0.16,10.035,-2.577,,,,,,,,
701229.9686,3,-0.502,9.933,-2.216,,,,,,,,
701229.9885,3,-0.613,9.837,-1.4,4,-0.053,-0.23,-0.075,5,-1.292,-44.887,-0.963
701230.0084,3,-0.699,10.179,-1.61,,,,,,,,
701230.0282,3,-0.976,10.301,-1.369,,,,,,,,
701230.0481,3,-0.967,9.176,-1.653,4,0.001,-0.343,-0.037,5,-0.752,-44.398,0.02
701230.068,3,-0.754,8.349,-3.226,,,,,,,,
701230.0878,3,-0.416,9.88,-4.778,,,,,,,,
701230.1077,3,-0.029,9.768,-3.486,4,-0.017,-0.237,0.025,5,-1.093,-42.606,-1.038
701230.1276,3,0.038,10.002,-1.113,,,,,,,,
701230.1474,3,0.012,10.215,-0.373,,,,,,,,
701230.1673,3,-0.323,9.94,-0.811,4,0.008,-0.261,0.026,,,,
701230.1872,3,0.041,9.282,-2.357,,,,,,,,
701230.207,3,-0.134,9.693,-3.829,,,,,,,,
701230.2269,3,-0.352,8.822,-2.914,4,0.057,-0.169,0.012,5,-1.361,-42.661,0.073
701230.2468,3,-0.266,9.799,-2.601,,,,,,,,
701230.2667,3,0.112,9.918,-1.383,,,,,,,,
701230.2865,3,-0.124,9.588,-1.457,4,-0.004,-0.178,-0.006,,,,
701230.3064,3,-0.763,9.433,-1.831,,,,,,,,
701230.3263,3,-0.857,9.775,-2.465,,,,,,,,
701230.3461,3,-1.043,8.918,-2.496,4,0.031,-0.272,-0.014,5,-2.303,-43.06,0.412
701230.366,3,-1.333,9.258,-2.453,,,,,,,,
701230.3858,3,-1.098,8.552,-2.326,,,,,,,,
701230.4057,3,-1.773,9.373,-2.886,4,0.05,-0.322,0.023,5,-1.837,-43.959,1.23
701230.4256,3,-1.965,6.671,-3.336,,,,,,,,
701230.4454,3,-0.983,10.634,-5.228,,,,,,,,
701230.4653,3,-0.636,12.749,-2.51,4,0.003,-0.212,0.088,5,-2.124,-42.769,-1.192
701230.4852,3,-0.105,9.418,1.828,,,,,,,,
701230.505,3,-0.479,8.875,-0.163,,,,,,,,
701230.5249,3,-1.819,10.287,-4.168,4,0.135,-0.03,0.09,5,-2.846,-43.359,-0.607
701230.5448,3,-1.615,9.815,-4.429,,,,,,,,
701230.5647,3,-0.479,8.932,-2.898,,,,,,,,
701230.5845,3,-0.053,7.719,-2.089,4,0.032,0.465,0.147,5,-2.005,-43.816,1.77
701230.6044,3,-0.16,10.301,-2.814,,,,,,,,
701230.6243,3,0.445,9.753,-2.668,,,,,,,,
701230.6441,3,1.165,9.94,-2.211,4,0.001,0.86,0.109,5,-3.865,-43.138,-1.331
701230.664,3,0.828,10.354,-1.9,,,,,,,,
701230.6839,3,0.239,10.368,-1.484,,,,,,,,
701230.7037,3,0.105,9.196,-2.438,4,0.02,0.741,0.016,,,,
701230.7236,3,0.191,9.878,-3.924,,,,,,,,
701230.7435,3,-1.304,7.042,-3.07,,,,,,,,
701230.7633,3,-1.68,10.902,-3.836,4,-0.035,0.54,-0.022,5,-2.348,-43.103,-0.465
701230.7832,3,-2.043,9.727,-2.335,,,,,,,,
701230.8031,3,-0.871,9.277,-1.323,,,,,,,,
701230.8229,3,0.112,9.413,-2.4,4,-0.024,0.276,0.012,,,,
701230.8428,3,-0.364,9.504,-3.714,,,,,,,,
701230.8627,3,0.103,9.16,-3.419,,,,,,,,
701230.8825,3,0.038,9.27,-3.096,4,0.001,0.421,-0.005,5,-2.428,-44.202,-1.242
701230.9024,3,0.627,9.641,-2.965,,,,,,,,
701230.9223,3,0.904,10.131,-2.812,,,,,,,,
701230.9421,3,0.596,9.37,-2.654,4,0.005,0.519,-0.046,5,-1.241,-43.184,-1.485
701230.962,3,0.962,9.969,-2.441,,,,,,,,
701230.9819,3,0.897,9.992,-2.833,,,,,,,,
701231.0017,3,0.773,9.844,-2.639,4,0.009,0.445,-0.113,5,-0.684,-42.194,-0.594
701231.0216,3,0.304,9.042,-2.814,,,,,,,,
701231.0415,3,0.445,9.933,-2.835,,,,,,,,
701231.0613,3,0.522,9.863,-2.455,4,-0.026,0.276,-0.14,5,0.197,-42.723,-0.214
701231.0812,3,0.732,10.215,-2.213,,,,,,,,
701231.1011,3,0.962,7.992,-1.409,,,,,,,,
701231.121,3,0.223,6.516,-3.345,4,0.019,-0.011,-0.175,5,0.351,-43.57,-0.609
701231.1408,3,0.242,11.397,-7.205,,,,,,,,
701231.1607,3,0.572,10.215,-4.642,,,,,,,,
701231.1806,3,-0.146,10.782,-0.251,4,-0.153,-0.272,-0.187,5,-0.639,-44.061,-1.085
701231.2004,3,-0.723,10.275,1.443,,,,,,,,
701231.2203,3,-0.933,9.669,-0.538,,,,,,,,
701231.2402,3,-0.605,9.351,-3.936,4,0.024,-0.747,-0.158,5,-0.034,-42.81,-1.726
701231.26,3,-0.849,9.461,-5.587,,,,,,,,
701231.2799,3,-0.773,8.889,-4.479,,,,,,,,
701231.2998,3,-0.481,8.971,-3.202,4,-0.026,-0.739,-0.07,5,0.783,-42.418,-0.172
701231.3196,3,-0.019,9.913,-3.048,,,,,,,,
701231.3395,3,-0.05,9.193,-2.8,,,,,,,,
701231.3593,3,0.022,9.82,-2.802,4,-0.026,-0.712,-0.019,,,,
701231.3792,3,-0.038,9.016,-2.673,,,,,,,,
701231.3991,3,0.301,9.684,-2.539,,,,,,,,
701231.419,3,0.029,9.839,-2.027,4,-0.025,-0.798,-0.013,5,0.191,-42.48,-1.187
701231.4388,3,-0.574,8.789,-1.931,,,,,,,,
701231.4587,3,0.287,9.6,-3.467,,,,,,,,
701231.4786,3,1.091,9.976,-3.539,4,-0.024,-1,0.009,5,-0.668,-43.445,-1.186
701231.4984,3,0.416,9.722,-2.637,,,,,,,,
701231.5183,3,0.16,10.205,-1.859,,,,,,,,
701231.5382,3,-0.091,9.849,-1.814,4,-0.041,-0.863,0.018,5,-1.131,-44.034,-0.018
701231.558,3,-0.692,10.679,-2,,,,,,,,
701231.5779,3,-2.075,8.076,-1.196,,,,,,,,
701231.5978,3,-2.776,8.435,-2.606,4,0.031,-0.743,0.08,5,-1.096,-42.462,-1.19
701231.6176,3,-3.175,10.225,-3.539,,,,,,,,
701231.6375,3,-2.295,9.581,-1.582,,,,,,,,
701231.6574,3,-1.419,10.007,-1.151,4,0.016,-0.493,0.224,5,-2.399,-43.303,1.134
701231.6773,3,-1.065,10.191,-0.909,,,,,,,,
701231.6971,3,-1.251,9.059,-0.665,,,,,,,,
701231.717,3,-0.627,9.751,-3.738,4,0.147,-0.178,0.256,5,-3.384,-43.513,-0.465
701231.7369,3,0.881,8.832,-5.183,,,,,,,,
701231.7567,3,0.811,9.282,-3.706,,,,,,,,
701231.7766,3,0.45,9.629,-2.122,4,0.057,0.377,0.221,5,-3.857,-43.01,0.06
701231.7965,3,0.72,9.794,-1.022,,,,,,,,
701231.8163,3,0.201,10.059,-1.127,,,,,,,,
701231.8362,3,-0.282,9.89,-2.625,4,0.069,0.582,0.106,5,-3.725,-42.545,0.258
701231.8561,3,-0.392,9.167,-3.075,,,,,,,,
701231.8759,3,-0.837,10.232,-2.412,,,,,,,,
701231.8958,3,-1.574,8.021,-1.673,4,0.016,0.585,0.08,,,,
701231.9157,3,-1.651,10.241,-2.024,,,,,,,,
701231.9355,3,-1.74,10.155,-1.658,,,,,,,,
701231.9554,3,-1.51,9.366,-0.919,4,-0.005,0.452,0.103,5,-4.118,-42.775,-1.152
701231.9753,3,-1.625,9.906,-1.443,,,,,,,,
701231.9952,3,-1.653,9.717,-1.661,,,,,,,,
701232.015,3,-1.084,10.107,-2.34,4,0.058,0.544,0.133,,,,
701232.0349,3,-0.426,9.045,-2.996,,,,,,,,
701232.0548,3,0.261,7.693,-4.441,,,,,,,,
