699330.409,3,0.053,9.588,-2.721,,,,,,,,
699330.4482,3,0.053,9.588,-2.721,,,,,5,6.813,-37.651,35.851
699330.4681,3,0.053,9.588,-2.721,4,0.003,-0.029,0.014,5,6.165,-36.955,36.574
699330.488,3,-0.072,9.629,-2.632,4,0.003,-0.029,0.014,5,8.186,-36.2,38.756
699330.5078,3,-0.093,9.643,-2.577,4,0.003,-0.029,0.014,5,8.186,-36.2,38.756
699330.5277,3,-0.074,9.626,-2.57,4,0.003,-0.024,0.003,5,8.134,-38.332,36.58
699330.5476,3,-0.01,9.636,-2.613,4,0.003,-0.032,0.004,5,8.138,-38.339,39.485
699330.5674,3,0.045,9.624,-2.529,4,0.005,-0.034,0.007,5,10.825,-37.561,38.763
699330.5873,3,-0.014,9.612,-2.565,4,0.005,-0.034,0.009,5,8.151,-37.625,38.031
699330.6071,3,-0.038,9.636,-2.608,4,0.007,-0.032,0.008,5,6.834,-36.945,38.756
699330.6271,3,-0.074,9.61,-2.579,4,0.008,-0.027,0.009,5,8.806,-38.321,38.762
699330.6469,3,-0.043,9.612,-2.601,4,0.007,-0.022,0.012,5,8.803,-38.316,37.308
699330.6668,3,-0.091,9.619,-2.632,4,0.007,-0.022,0.014,5,9.525,-36.171,40.21
699330.6866,3,-0.022,9.61,-2.668,4,0.008,-0.027,0.015,5,6.815,-37.653,36.577
699330.7065,3,-0.041,9.6,-2.627,4,0.008,-0.029,0.018,5,8.183,-36.194,36.575
699330.7264,3,-0.065,9.636,-2.632,4,0.008,-0.023,0.018,5,8.769,-39.743,37.312
699330.7462,3,-0.038,9.617,-2.668,4,0.009,-0.017,0.019,5,8.183,-36.195,37.302
699330.7661,3,-0.033,9.624,-2.637,4,0.011,-0.016,0.02,5,8.833,-36.888,35.852
699330.786,3,0.002,9.641,-2.618,4,0.012,-0.016,0.023,5,9.523,-36.168,38.759
699330.8058,3,-0.043,9.624,-2.608,4,0.012,-0.018,0.024,5,8.151,-37.625,38.031
699330.8257,3,-0.177,9.626,-2.623,4,0.012,-0.018,0.024,5,8.134,-38.332,36.58
699330.8456,3,-0.187,9.662,-2.639,4,0.012,-0.02,0.028,5,8.87,-35.471,39.481
699330.8654,3,-0.237,9.61,-2.584,4,0.012,-0.016,0.033,5,8.804,-38.319,38.034
699330.8853,3,-0.134,9.662,-2.546,4,0.012,-0.001,0.04,5,7.484,-37.642,38.029
699330.9052,3,-0.086,9.607,-2.646,4,0.012,0.001,0.046,5,8.168,-36.911,38.029
699330.9251,3,-0.086,9.629,-2.682,4,0.016,-0.006,0.052,5,7.469,-38.353,38.031
699330.9449,3,-0.055,9.65,-2.68,4,0.017,-0.001,0.057,5,8.82,-37.608,38.033
699330.9648,3,0.053,9.581,-2.692,4,0.017,0.002,0.062,5,9.508,-36.884,40.211
699330.9846,3,0.227,9.576,-2.819,4,0.017,0,0.066,5,6.816,-37.657,38.029
699331.0045,3,0.227,9.605,-2.541,4,0.014,0.006,0.066,5,7.501,-36.928,38.028
699331.0244,3,0.366,9.6,-2.855,4,0.012,0.012,0.062,5,9.521,-36.166,38.031
699331.0442,3,0.361,9.569,-2.706,4,0.016,0.008,0.057,5,8.818,-37.605,37.306
699331.0641,3,0.199,9.662,-2.625,4,0.016,0.016,0.056,5,7.471,-38.354,38.759
699331.084,3,0.196,9.598,-2.74,4,0.014,0.013,0.048,5,7.503,-36.931,39.481
699331.1038,3,0.141,9.61,-2.634,4,0.014,0.006,0.047,5,8.168,-36.911,38.029
699331.1237,3,0.007,9.653,-2.69,4,0.012,0.01,0.047,5,7.469,-38.353,38.031
699331.1436,3,0.091,9.598,-2.551,4,0.007,-0.009,0.041,5,7.501,-36.928,38.028
699331.1634,3,0.141,9.581,-2.625,4,0.006,-0.026,0.041,5,8.821,-37.611,39.485
699331.1833,3,0.036,9.653,-2.716,4,0.007,-0.033,0.042,5,7.5,-36.925,37.302
699331.2032,3,-0.215,9.66,-2.512,4,0.011,-0.02,0.044,5,7.484,-37.642,38.029
699331.2231,3,-0.225,9.653,-2.625,4,0.012,0.007,0.045,5,6.148,-37.671,37.302
699331.2429,3,-0.191,9.653,-2.713,4,0.012,0.008,0.053,5,8.836,-36.894,38.031
699331.2628,3,-0.01,9.607,-2.69,4,0.009,-0.004,0.064,5,8.786,-39.029,36.583
699331.2827,3,0.141,9.583,-2.814,4,0.005,0.001,0.073,5,6.818,-37.659,38.757
699331.3025,3,0.074,9.569,-2.489,4,0.002,0.008,0.078,5,7.501,-36.928,38.028
699331.3224,3,0.089,9.71,-2.733,4,0.005,0.018,0.077,5,8.183,-36.195,37.302
699331.3422,3,0.33,9.612,-2.852,4,0.012,0.018,0.077,5,5.501,-36.98,39.478
699331.3621,3,0.412,9.516,-2.256,4,0.016,0.012,0.084,5,8.185,-36.198,38.028
699331.382,3,0.648,9.399,-3.06,4,0.011,0.028,0.095,5,7.535,-35.504,39.478
699331.4018,3,0.534,9.521,-2.716,4,0.023,0.001,0.092,5,7.503,-36.931,39.481
699331.4217,3,0.287,9.734,-2.414,4,0.019,-0.013,0.064,5,8.136,-38.336,38.033
699331.4416,3,0.754,9.559,-3.005,4,0.014,0.006,0.07,5,6.851,-36.232,38.754
699331.4614,3,0.586,9.576,-2.489,4,0.013,0.004,0.063,5,6.136,-38.387,38.757
699331.4813,3,0.708,9.605,-2.723,4,0.007,0.007,0.058,5,7.469,-38.353,38.031
699331.5012,3,0.823,9.578,-2.857,4,0.012,-0.004,0.058,5,6.851,-36.232,38.754
699331.5211,3,0.548,9.598,-2.599,4,0.013,-0.02,0.052,5,6.151,-37.675,38.756
699331.5409,3,0.73,9.555,-2.761,4,0.008,-0.011,0.044,5,6.834,-36.946,39.481
699331.5608,3,0.773,9.578,-2.761,4,0.008,-0.021,0.035,5,7.506,-36.934,40.933
699331.5807,3,0.708,9.593,-2.8,4,0.008,-0.024,0.028,5,6.148,-37.671,37.302
699331.6005,3,0.857,9.578,-2.654,4,0.006,-0.023,0.019,5,4.831,-36.992,38.025
699331.6204,3,0.773,9.511,-2.656,4,0.003,-0.037,0.012,5,4.831,-36.992,38.025
699331.6402,3,0.507,9.657,-2.984,4,0.003,-0.033,0.003,5,4.831,-36.992,38.025
699331.6601,3,0.522,9.509,-2.73,4,0.008,-0.023,-0.005,5,7.486,-37.645,39.482
699331.68,3,0.371,9.595,-2.529,4,0.003,-0.027,-0.009,5,7.471,-38.356,39.484
699331.6998,3,-0.184,9.33,-2.457,4,0.001,-0.033,-0.014,5,6.818,-37.659,38.757
699331.7197,3,-0.268,10.263,-3.869,4,0.005,-0.029,-0.018,5,6.151,-37.675,38.756
699331.7396,3,-1.172,9.334,-0.811,4,-0.002,-0.048,-0.021,5,6.183,-36.247,38.025
699331.7594,3,0.089,9.72,-3.742,4,-0.013,0.033,0.014,5,6.816,-37.657,38.029
699331.7793,3,-0.045,9.667,-2.565,4,0.018,-0.161,0.034,5,6.183,-36.247,38.025
699331.7992,3,-0.285,9.552,-1.859,4,0.016,-0.087,0.044,5,6.149,-37.674,38.028
699331.8191,3,-0.756,9.705,-3.546,4,0.005,0.032,0.047,5,6.815,-37.654,37.303
699331.8389,3,0.129,9.547,-2.697,4,0.02,-0.02,0.061,5,6.184,-36.25,39.478
699331.8588,3,0.436,9.454,-2.228,4,0.002,-0.101,0.091,5,7.486,-37.643,38.757
699331.8787,3,0.802,9.602,-3.324,4,-0.005,-0.127,0.099,5,5.498,-36.974,37.299
699331.8979,3,0.648,9.523,-3.278,4,0.019,-0.082,0.089,5,6.816,-37.657,38.029
699331.9184,3,0.256,9.471,-2.943,4,0.02,-0.006,0.083,5,5.484,-37.694,39.479
699331.9383,3,0.909,9.514,-2.768,4,0.005,0.015,0.08,5,6.183,-36.247,38.025
699331.9581,3,0.83,9.653,-2.364,4,-0.002,-0.017,0.079,5,7.471,-38.356,39.484
699331.978,3,0.629,9.732,-2.477,4,0.008,0.007,0.069,5,6.149,-37.674,38.028
699331.9979,3,0.663,9.564,-3.228,4,0.024,0.033,0.057,5,4.178,-36.293,37.296
699332.0177,3,0.414,9.686,-2.166,4,0.03,0.024,0.053,5,6.865,-35.516,38.025
699332.0376,3,0.476,9.602,-1.864,4,0.009,0.034,0.053,5,7.516,-36.212,37.3
699332.0575,3,0.337,9.657,-2.807,4,0.002,-0.006,0.053,5,6.166,-36.96,38.026
699332.0774,3,0.299,9.607,-2.73,4,0.018,-0.02,0.055,5,6.151,-37.675,38.756
699332.0972,3,-0.12,9.598,-2.802,4,0.018,0.001,0.053,5,5.469,-38.403,38.756
699332.1171,3,0.584,9.614,-2.625,4,0.008,0.015,0.056,5,6.151,-37.675,38.756
699332.137,3,0.546,9.485,-2.508,4,0.005,-0.026,0.066,5,6.799,-38.365,37.305
699332.1568,3,-0.325,9.607,-3.345,4,0.008,-0.013,0.069,5,6.149,-37.674,38.028
699332.1767,3,-0.151,9.567,-3.348,4,0.023,0.011,0.063,5,6.851,-36.234,39.479
699332.1966,3,0.723,9.509,-2.675,4,0.017,0.001,0.078,5,6.865,-35.516,38.025
699332.2164,3,1.323,9.583,-3.254,4,0,-0.038,0.09,5,6.151,-37.675,38.756
699332.2363,3,1.622,9.354,-3.278,4,0.005,-0.016,0.083,5,4.816,-37.708,38.754
699332.2561,3,0.122,9.346,-3.156,4,0.006,0.083,0.068,5,7.52,-36.217,38.754
699332.276,3,0.026,9.581,-2.893,4,0.005,0.188,0.053,5,3.479,-37.738,38.023
699332.2959,3,0.821,9.459,-2.718,4,0.002,0.155,0.059,5,4.829,-36.989,37.299
699332.3157,3,1.479,9.516,-2.962,4,0.001,0.074,0.068,5,6.184,-36.25,39.478
699332.3356,3,1.263,9.701,-2.871,4,0.008,0.104,0.056,5,6.186,-36.252,40.204
699332.3555,3,0.869,9.545,-2.9,4,0.009,0.177,0.037,5,4.849,-36.282,39.476
699332.3754,3,0.835,9.466,-2.603,4,0.009,0.198,0.033,5,4.149,-37.727,40.204
699332.3952,3,0.787,9.732,-2.094,4,0.001,0.155,0.036,5,5.501,-36.978,38.753
699332.4151,3,0.488,9.837,-2.623,4,-0.002,0.125,0.028,5,4.161,-37.006,37.297
699332.435,3,0.668,9.61,-2.448,4,0.009,0.143,0.017,5,5.481,-37.688,37.3
699332.4548,3,0.761,9.576,-2.393,4,0.007,0.094,0.014,5,4.178,-36.293,37.296
699332.4747,3,1.189,9.547,-2.663,4,0.001,0.034,0.023,5,5.518,-36.266,38.751
699332.4946,3,1.663,9.562,-2.438,4,0.003,-0.004,0.033,5,5.481,-37.688,37.3
699332.5144,3,1.074,9.562,-2.594,4,0.002,0.007,0.022,5,4.8,-38.419,38.756
699332.5343,3,0.775,9.681,-2.603,4,0.008,0.092,0.001,5,4.832,-36.993,38.753
699332.5541,3,0.479,9.633,-2.505,4,0.008,0.115,-0.007,5,4.851,-36.284,40.202
699332.574,3,0.416,9.509,-2.024,4,0.006,0.073,-0.004,5,5.504,-36.984,41.656
699332.5939,3,0.438,9.65,-1.761,4,0.001,0.008,0.001,5,5.515,-36.259,36.571
699332.6137,3,0.5,9.806,-2.197,4,0.005,-0.053,0.007,,,,
699332.6336,3,0.024,9.744,-2.536,4,0.023,-0.071,0.011,5,4.813,-37.703,37.3
699332.6535,3,0.605,9.672,-2.666,4,0.036,-0.065,0.018,5,4.865,-35.568,39.474
699332.6734,3,0.792,9.198,-1.74,4,0.03,-0.081,0.03,5,4.849,-36.281,38.751
699332.6932,3,0.558,9.519,-1.658,4,0.014,-0.048,0.03,5,6.186,-36.252,40.204
699332.7131,3,0.426,9.794,-2.745,4,0.019,0.011,0.026,5,4.846,-36.276,37.297
699332.733,3,0.991,9.727,-3.053,4,0.052,0.033,0.039,5,5.486,-37.695,40.205
699332.7528,3,1.211,9.672,-3.374,4,0.062,-0.001,0.052,5,5.518,-36.267,39.476
699332.7727,3,1.07,9.643,-3.027,4,0.051,-0.024,0.05,5,5.534,-35.555,40.201
699332.7926,3,1.038,9.514,-2.68,4,0.027,-0.023,0.033,5,4.163,-37.009,38.023
699332.8124,3,1,9.641,-2.634,4,0.007,-0.023,0.019,5,3.481,-37.741,39.476
699332.8323,3,0.325,9.653,-2.426,4,0.002,-0.042,0.02,5,6.2,-35.535,38.751
699332.8522,3,0.022,9.712,-2.498,4,0.003,-0.061,0.018,5,4.164,-37.012,39.476
699332.872,3,0.005,9.672,-2.544,4,0.007,-0.076,0.025,5,6.168,-36.961,38.754
699332.8919,3,-0.022,9.674,-2.974,4,0.013,-0.093,0.037,5,5.481,-37.688,37.3
699332.9117,3,0.275,9.598,-3.388,4,0.019,-0.098,0.048,5,4.181,-36.298,38.75
699332.9316,3,0.246,9.528,-3.068,4,0.018,-0.079,0.061,5,2.159,-37.057,38.02
699332.9515,3,-0.069,9.624,-2.778,4,0.008,-0.027,0.073,5,4.816,-37.709,39.479
699332.9714,3,-0.462,9.516,-2.481,4,0.002,0.026,0.081,5,4.8,-38.419,38.756
699332.9912,3,0.136,9.83,-2.926,4,0.005,0.03,0.094,5,4.852,-36.285,40.929
699333.0111,3,0.964,9.624,-3.132,4,0.017,-0.003,0.113,5,4.865,-35.568,39.474
699333.031,3,1.113,9.169,-3.094,4,0.025,-0.001,0.127,5,4.132,-38.437,39.479
699333.0508,3,0.641,9.756,-3.348,4,0.02,0.046,0.122,5,4.15,-37.729,40.93
699333.0707,3,0.859,9.753,-3.702,4,0.019,0.085,0.111,5,4.849,-36.282,39.476
699333.0906,3,1.168,9.054,-3.309,4,0.022,0.094,0.112,5,6.85,-36.23,38.026
699333.1104,3,0.916,9.313,-2.85,4,0.011,0.103,0.119,5,3.481,-37.74,38.751
699333.1303,3,1.036,9.705,-3.252,4,0.005,0.12,0.111,5,3.481,-37.74,38.751
699333.1502,3,1.519,9.598,-3.876,4,0.018,0.111,0.108,5,2.812,-37.758,39.474
699333.17,3,1.869,8.98,-4.161,4,0.034,0.081,0.117,5,4.866,-35.57,40.201
699333.1899,3,1.898,8.839,-4.264,4,0.027,0.046,0.107,5,4.8,-38.419,38.756
699333.2098,3,1.735,9.083,-4.551,4,0.012,0.041,0.08,5,2.18,-36.351,40.924
699333.2296,3,1.326,8.973,-4.566,4,0.006,0.063,0.063,5,3.514,-36.313,38.748
699333.2495,3,0.797,9.133,-4.379,4,0.002,0.095,0.048,5,2.829,-37.044,39.473
699333.2694,3,0.663,9.014,-4.714,4,0.002,0.105,0.033,5,2.814,-37.759,40.201
699333.2892,3,0.213,8.6,-4.637,4,0.008,0.094,0.026,5,4.198,-35.587,40.199
699333.3091,3,-0.084,9.507,-5.113,4,0.014,0.078,0.029,5,2.829,-37.042,38.748
699333.329,3,-0.017,9.047,-4.276,4,0.014,0.046,0.034,5,3.497,-37.027,39.474
699333.3488,3,0.225,8.681,-5.051,4,0.008,0.012,0.047,5,2.177,-36.348,39.471
699333.3687,3,0.507,9.064,-5.329,4,0.023,0.001,0.064,5,4.198,-35.587,40.199
699333.3886,3,0.94,8.389,-4.551,4,0.039,-0.013,0.067,5,5.472,-38.409,41.66
699333.4084,3,1.273,9.411,-5.484,4,0.03,0,0.066,5,1.494,-37.074,38.747
699333.4283,3,1.677,8.76,-4.245,4,0.045,0.054,0.068,5,2.191,-35.631,38.017
699333.4482,3,1.419,9.468,-5.736,4,0.051,0.107,0.055,5,1.495,-37.077,40.198
699333.468,3,1.237,8.033,-4.065,4,0.06,0.175,0.036,5,1.512,-36.365,40.196
699333.4879,3,1.412,8.729,-5.585,4,0.058,0.206,0.019,5,2.177,-36.346,38.747
699333.5078,3,1.505,8.92,-5.489,4,0.067,0.225,0.012,5,2.209,-34.92,38.742
699333.5276,3,1.646,8.705,-4.714,4,0.066,0.238,0.002,5,0.795,-38.516,38.748
699333.5475,3,1.89,8.629,-5.293,4,0.056,0.291,-0.019,5,0.844,-36.38,39.468
699333.5674,3,1.618,9.476,-5.496,4,0.056,0.373,-0.036,5,1.494,-37.076,39.471
699333.5872,3,1.819,8.349,-5.233,4,0.06,0.484,-0.063,5,0.847,-36.383,40.921
699333.6071,3,1.962,9.112,-5.731,4,0.042,0.584,-0.086,5,0.159,-37.109,39.47
699333.627,3,1.376,8.193,-4.221,4,0.046,0.663,-0.103,5,0.175,-36.397,39.468
699333.6468,3,1.01,10.095,-4.843,4,0.028,0.734,-0.143,5,0.827,-37.093,39.47
699333.6667,3,0.653,8.392,-4.216,4,0.022,0.785,-0.174,5,-1.175,-37.143,40.193
699333.6866,3,0.486,9.748,-3.896,4,0.006,0.764,-0.187,5,-2.51,-37.175,40.192
699333.7064,3,0.376,8.841,-5.121,4,0.036,0.688,-0.2,5,-2.492,-36.465,41.643
699333.7263,3,0.842,8.231,-5.915,4,0.063,0.562,-0.213,5,-2.48,-35.747,39.462
699333.7462,3,1.67,6.142,-5.652,4,0.117,0.448,-0.224,5,-1.825,-36.447,40.916
699333.766,3,3.063,9.555,-6.257,4,0.113,0.368,-0.23,5,-2.48,-35.745,38.737
699333.7859,3,3.666,10.189,-3.996,4,0.099,0.293,-0.243,5,-1.193,-37.854,38.744
699333.8058,3,3.18,11.574,-2.838,4,0.019,0.25,-0.294,5,-0.459,-34.984,38.737
699333.8257,3,1.594,9.775,0.498,4,-0.056,0.176,-0.38,5,0.162,-37.114,41.649
699333.8455,3,-1.297,9.61,0.955,4,-0.063,0.107,-0.428,5,-1.144,-35.715,39.464
699333.8654,3,-1.345,10.461,-0.517,4,-0.003,0.023,-0.446,5,-1.128,-35.001,38.736
699333.8852,3,-2.218,11.983,-3.651,4,0.085,-0.046,-0.421,5,0.194,-35.686,40.919
699333.9051,3,-4.147,11.789,-5.135,4,0.115,-0.038,-0.367,5,-0.458,-34.987,40.189
699333.925,3,-5.104,8.346,-1.388,4,0.044,-0.003,-0.274,5,-0.476,-35.696,38.741
699333.9448,3,-3.233,8.217,-2.484,4,-0.067,-0.015,-0.173,5,0.876,-34.953,39.464
699333.9647,3,-1.536,14.381,-1.012,4,-0.108,-0.093,-0.091,5,0.847,-36.383,40.921
699333.9846,3,0.443,11.074,0.768,4,-0.08,-0.101,-0.013,5,0.844,-36.38,39.468
699334.0044,3,2.034,6.229,1.266,4,-0.087,-0.065,0.02,5,-0.508,-37.125,39.468
699334.0243,3,3.431,9.318,-2.166,4,-0.026,-0.001,0.04,5,-0.493,-36.409,38.014
699334.0442,3,2.847,9.894,-4.211,4,0.079,0.061,0.007,5,0.859,-35.664,38.742
699334.0641,3,1.744,10.071,-3.08,4,0.102,0.109,-0.035,5,0.844,-36.378,38.744
699334.0839,3,2.29,5.592,-3.044,4,0.051,0.056,-0.055,5,0.175,-36.395,38.744
699334.1038,3,2.197,8.971,-3.735,4,-0.021,-0.087,-0.072,5,0.827,-37.091,38.745
699334.1237,3,1.292,11.648,-3.159,4,-0.039,-0.182,-0.112,5,0.175,-36.395,38.744
699334.1435,3,1.61,9.794,-1.318,4,-0.077,-0.243,-0.134,5,4.134,-38.438,40.205
699334.1634,3,1.285,10.548,-0.677,4,-0.103,-0.303,-0.129,5,0.844,-36.378,38.744
699334.1832,3,0.373,8.789,-0.991,4,-0.074,-0.353,-0.147,5,1.492,-37.073,38.019
699334.2031,3,1.278,8.674,-2.302,4,-0.011,-0.413,-0.157,5,2.829,-37.042,38.748
699334.223,3,1.314,10.722,-5.413,4,0.049,-0.431,-0.137,5,2.875,-34.898,37.288
699334.2428,3,-0.395,10.414,-6.229,4,0.093,-0.342,-0.132,5,2.829,-37.042,38.748
699334.2627,3,-1.931,7.865,-3.362,4,0.061,-0.243,-0.137,5,2.193,-35.632,38.745
699334.2826,3,-2.268,9.267,-3.068,4,-0.034,-0.27,-0.125,5,3.497,-37.027,39.474
699334.3024,3,-1.295,10.775,-3.814,4,-0.066,-0.386,-0.099,5,3.497,-37.027,39.474
699334.3223,3,-0.962,8.947,-3.565,4,-0.052,-0.485,-0.063,5,3.497,-37.027,39.474
699334.3422,3,0.459,8.901,-5.269,4,-0.017,-0.53,-0.038,5,3.513,-36.311,38.02
699334.3621,3,0.857,8.179,-5.671,4,0.045,-0.568,-0.018,5,5.498,-36.974,37.299
699334.3819,3,-0.103,8.684,-5.035,4,0.071,-0.547,0,5,3.523,-35.59,35.115
699334.4018,3,0.44,9.243,-5.355,4,0.068,-0.481,-0.003,5,4.849,-36.281,38.751
699334.4217,3,2.264,7.655,-5.451,4,0.057,-0.494,0.004,5,6.198,-35.533,38.023
699334.4415,3,1.017,9.37,-5.97,4,0.072,-0.575,0.002,5,5.499,-36.977,38.025
699334.4614,3,0.12,9.409,-5.291,4,0.067,-0.652,-0.004,5,7.52,-36.217,38.754
699334.4813,3,-1.424,7.523,-4.247,4,0.029,-0.712,-0.037,5,6.166,-36.96,38.026
699334.5011,3,1.127,8.313,-6.418,4,-0.013,-0.764,-0.029,5,7.532,-35.498,37.299
699334.521,3,1.625,7.365,-5.358,4,0.005,-0.836,0.015,5,9.503,-36.876,37.306
699334.5409,3,1.376,3.233,-5.795,4,0.013,-0.765,0.028,5,8.136,-38.336,38.033
699334.5607,3,-1.536,13.304,-14.091,4,0.06,-0.555,-0.004,5,9.555,-34.741,38.754
699334.5806,3,-0.756,11.904,-3.896,4,0.116,-0.352,-0.003,5,8.855,-36.183,38.757
699334.6005,3,0.651,7.492,-3.489,4,-0.092,-0.171,0.052,5,8.185,-36.198,38.028
699334.6203,3,2.367,6.571,-0.352,4,-0.234,-0.012,0.056,5,8.884,-34.752,37.299
699334.6402,3,1.113,12.95,-1.718,4,-0.19,0.165,-0.008,5,8.82,-37.608,38.033
699334.6601,3,-1.443,11.045,-1.718,4,-0.088,0.263,-0.06,5,7.532,-35.498,37.299
699334.68,3,-3.491,7.334,-1.249,4,0.027,0.358,-0.097,5,8.151,-37.625,38.031
699334.6998,3,-3.288,12.567,-3.103,4,0.09,0.258,-0.123,5,8.185,-36.198,38.028
699334.7197,3,-1.015,12.254,-1.627,4,0.063,0.045,-0.105,5,7.501,-36.928,38.028
699334.7396,3,-0.256,8.798,-0.043,4,-0.049,-0.049,-0.037,5,8.82,-37.608,38.033
699334.7594,3,-0.55,9.488,1.759,4,-0.136,0.013,0.05,5,7.503,-36.929,38.756
699334.7793,3,-0.806,10.93,0.426,4,-0.118,0.089,0.055,5,7.516,-36.211,36.574
699334.7992,3,-0.179,10.215,-1.022,4,-0.039,0.142,0.033,5,7.5,-36.923,36.575
699334.819,3,-0.306,11.505,-1.496,4,0.027,0.194,0.028,5,8.134,-38.333,37.306
699334.8389,3,0.148,7.219,-1.625,4,0.033,0.269,0.041,5,6.831,-36.938,36.575
699334.8587,3,-0.167,9.133,-3.572,4,0.011,0.346,0.042,5,6.831,-36.94,37.302
699334.8786,3,-0.593,11.23,-3.587,4,0.003,0.434,0.033,5,6.88,-34.801,37.296
699334.8978,3,0.053,9.358,-0.814,4,-0.061,0.436,0.02,5,7.501,-36.928,38.028
699334.9184,3,1.675,7.836,-1.204,4,-0.135,0.291,0.014,5,7.552,-34.79,38.75
699334.9382,3,2.139,15.46,-3.434,4,-0.109,0.076,0.008,5,6.831,-36.938,36.575
699334.9581,3,3.058,21.667,1.498,4,-0.043,-0.059,-0.029,5,7.518,-36.215,38.026
699334.978,3,1.567,-0.112,8.518,4,-0.075,-0.142,-0.055,5,6.146,-37.668,35.849
699334.9978,3,-1.072,2.331,-1.443,4,-0.088,-0.241,-0.136,5,6.828,-36.935,35.124
699335.0177,3,-2.146,14.517,-13.9,4,0.216,-0.411,-0.22,5,7.535,-35.504,39.478
699335.0376,3,-4.147,10.079,-10.191,4,0.325,-0.553,-0.176,5,8.165,-36.905,35.851
699335.0574,3,-2.946,6.336,-1.127,4,0.057,-0.627,-0.088,5,8.867,-35.464,37.302
699335.0773,3,-1.948,9.49,1.807,4,-0.257,-0.629,0.001,5,8.852,-36.179,37.303
699335.0971,3,0.73,12.194,1.507,4,-0.3,-0.678,0.037,5,10.152,-37.57,35.855
699335.117,3,1.103,10.38,1.452,4,-0.164,-0.711,0.041,5,8.833,-36.888,35.852
699335.1368,3,2.118,8.277,0.94,4,-0.082,-0.597,0.091,5,10.149,-37.567,34.402
699335.1567,3,0.622,9.693,-3.807,4,-0.005,-0.4,0.092,5,10.152,-37.57,35.855
699335.1766,3,-1.402,11.021,-7.15,4,0.156,-0.233,0.063,5,10.852,-36.125,35.129
699335.1964,3,-1.352,5.157,-6.133,4,0.184,-0.155,0.072,5,10.15,-37.569,35.13
699335.2163,3,-1.993,9.497,-6.616,4,0.047,-0.127,0.103,5,10.817,-37.55,34.404
699335.2362,3,-1.536,11.244,-2.311,4,-0.056,-0.101,0.139,5,10.835,-36.838,35.13
699335.2561,3,-0.914,9.89,0.914,4,-0.129,-0.078,0.161,5,10.867,-35.411,35.127
699335.2759,3,0.44,9.437,-2.505,4,-0.075,-0.084,0.146,5,10.852,-36.125,35.129
699335.2958,3,1.077,9.095,-5.221,4,0.096,-0.057,0.13,5,10.854,-36.127,35.854
699335.3157,3,-1.022,8.959,-6.073,4,0.235,0.109,0.127,5,8.185,-36.198,38.028
699335.3355,3,-0.543,8.858,-5.417,4,0.257,0.37,0.124,5,9.52,-36.163,37.305
699335.3554,3,0.912,8.547,-4.209,4,0.205,0.463,0.099,5,9.488,-37.593,38.034
699335.3753,3,0.577,7.434,-2.977,4,0.138,0.539,0.07,5,9.52,-36.162,36.578
699335.3951,3,0.428,6.231,-5.484,4,0.127,0.579,0.017,5,8.183,-36.195,37.302
699335.415,3,-2.223,14.582,-11.179,4,0.173,0.586,-0.033,5,7.516,-36.212,37.3
699335.4349,3,-0.529,8.372,1.373,4,0.19,0.655,-0.059,5,6.165,-36.957,37.3
699335.4547,3,0.287,6.386,9.093,4,-0.186,0.684,-0.055,5,8.215,-34.769,37.297
699335.4746,3,0.024,13.156,0.191,4,-0.336,0.503,-0.064,5,6.165,-36.955,36.574
699335.4945,3,-0.632,10.552,-3.711,4,-0.002,0.302,-0.124,5,6.146,-37.668,35.849
699335.5143,3,-1.63,6.767,-4.199,4,0.199,0.291,-0.169,5,5.498,-36.974,37.299
699335.5342,3,-3.221,6.781,-6.867,4,0.183,0.33,-0.163,5,5.547,-34.834,37.292
699335.5541,3,-5.408,12.512,-7.356,4,0.129,0.352,-0.13,5,5.547,-34.834,37.292
699335.5739,3,-4.278,11.072,-0.335,4,-0.021,0.362,-0.075,5,6.215,-34.821,38.02
699335.5938,3,-0.986,8.93,2.989,4,-0.232,0.288,-0.005,5,6.195,-35.527,35.844
699335.6137,3,-1.802,9.784,-1.235,4,-0.218,0.133,0.051,5,6.799,-38.365,37.305
699335.6335,3,-0.962,9.397,-4.228,4,0.009,0.115,0.069,5,6.165,-36.957,37.3
699335.6534,3,0.196,8.171,-6.248,4,0.172,0.195,0.066,5,5.565,-34.123,38.017
699335.6733,3,0.203,8.109,-7.365,4,0.181,0.305,0.046,5,5.53,-35.545,36.569
699335.6931,3,-0.069,6.87,-5.637,4,0.124,0.491,0.039,5,4.195,-35.582,38.02
699335.713,3,-0.287,10.988,-5.346,4,0.016,0.607,0.028,5,5.565,-34.123,38.017
699335.7329,3,0.483,15.613,-0.17,4,-0.054,0.594,0.006,5,2.858,-35.611,37.291
699335.7528,3,1.414,4.333,3.625,4,-0.13,0.487,-0.005,5,4.164,-37.01,38.751
699335.7726,3,1.443,9.619,-5.001,4,-0.076,0.34,-0.036,5,4.196,-35.583,38.748
699335.7925,3,1.271,12.124,-6.418,4,0.194,0.192,-0.109,5,2.844,-36.328,38.019
699335.8124,3,0.33,6.532,-1.859,4,0.204,0.222,-0.154,5,3.546,-34.886,38.744
699335.8322,3,-0.251,6.243,-3.848,4,0.063,0.267,-0.149,5,3.514,-36.314,39.473
699335.8521,3,-0.605,13.175,-6.339,4,0.053,0.232,-0.162,5,4.196,-35.585,39.473
699335.872,3,-0.404,10.705,-0.706,4,0.031,0.143,-0.19,5,4.849,-36.281,38.751
699335.8918,3,0.455,8.468,1.077,4,-0.12,0.114,-0.179,,,,
699335.9117,3,0.799,9.937,-2.654,4,-0.118,-0.005,-0.167,5,2.859,-35.614,38.017
699335.9316,3,0.677,8.344,-4.683,4,0.02,-0.154,-0.189,5,6.216,-34.824,39.473
699335.9514,3,-0.751,9.748,-4.637,4,0.06,-0.233,-0.224,5,3.525,-35.591,35.84
699335.9713,3,-1.627,9.287,-3.608,4,0.018,-0.251,-0.213,5,4.846,-36.275,36.571
699335.9912,3,-1.73,11.493,-2.993,4,-0.066,-0.258,-0.185,5,5.53,-35.547,37.296
699336.011,3,-1.914,7.949,-1.452,4,-0.105,-0.34,-0.169,5,6.248,-33.394,38.017
699336.0309,3,-0.701,8.456,-3.307,4,-0.13,-0.463,-0.134,5,4.877,-34.846,35.84
699336.0508,3,-0.179,10.49,-4.144,4,-0.086,-0.672,-0.086,5,6.181,-36.244,37.299
699336.0707,3,-0.366,8.987,-0.988,4,-0.052,-0.784,-0.059,5,8.867,-35.464,37.302
699336.0905,3,-0.907,6.008,-4.434,4,-0.063,-0.731,-0.027,5,6.847,-36.224,35.847
699336.1104,3,-0.38,10.476,-5.724,4,0.011,-0.608,-0.002,5,8.902,-34.041,38.023
699336.1302,3,-0.857,9.641,-2.489,4,0.034,-0.489,0.033,5,7.532,-35.498,37.299
699336.1501,3,0.225,10.354,-1.579,4,-0.1,-0.343,0.069,5,8.852,-36.179,37.303
699336.17,3,-0.359,10.741,-1.201,4,-0.107,-0.316,0.077,5,9.534,-35.446,35.851
699336.1898,3,0.141,8.88,-2.204,4,-0.025,-0.291,0.08,5,8.867,-35.463,36.575
699336.2097,3,0.431,9.756,-4.41,4,0.055,-0.273,0.064,5,8.853,-36.182,38.029
699336.2296,3,0.345,9.069,-3.857,4,0.113,-0.255,0.05,5,8.832,-36.887,35.127
699336.2494,3,0.541,6.664,-3.96,4,0.091,-0.211,0.046,5,10.219,-34.72,37.3
699336.2693,3,-0.428,7.817,-4.953,4,0.057,-0.191,0.044,5,8.199,-35.48,36.574
699336.2892,3,-0.861,8.004,-4.601,4,0.051,-0.21,0.036,5,8.215,-34.769,37.297
699336.309,3,-2.328,-0.211,-5.322,4,0.011,-0.287,0.034,5,8.232,-34.053,36.569
699336.3289,3,-1.314,26.682,-8.215,4,-0.02,-0.37,0.04,5,10.187,-36.147,37.305
699336.3488,3,0.641,6.212,5.35,4,-0.067,-0.466,0.077,5,10.902,-33.986,35.847
699336.3687,3,0.601,5.561,5.889,4,-0.329,-0.332,0.151,5,8.85,-36.176,35.851
699336.3885,3,-0.438,16.094,-4.161,4,-0.141,-0.233,0.136,5,10.187,-36.145,36.578
699336.4084,3,-1.283,9.71,-2.457,4,0.194,-0.244,0.085,5,10.219,-34.718,36.574
699336.4282,3,-1.639,6.109,-4.759,4,0.194,-0.207,0.042,5,9.532,-35.445,35.126
699336.4481,3,-1.737,10.744,-7.021,4,0.187,-0.101,0.09,5,9.502,-36.873,35.854
699336.468,3,-1.543,9.117,-3.666,4,0.123,-0.02,0.111,5,10.217,-34.717,35.847
699336.4878,3,-1.421,10.301,-1.584,4,-0.039,0.066,0.124,5,10.185,-36.143,35.852
699336.5077,3,-1.182,8.897,-0.474,4,-0.109,0.126,0.167,5,9.55,-34.734,35.847
699336.5276,3,-0.007,9.093,-2.972,4,-0.086,0.123,0.18,5,9.502,-36.873,35.854
699336.5474,3,-0.596,10.636,-4.575,4,-0.002,0.09,0.151,5,11.478,-38.258,39.491
699336.5673,3,-0.366,10.167,-2.757,4,0.053,0.173,0.128,5,10.826,-37.564,40.215
699336.5872,3,-0.371,5.099,-1.723,4,0.023,0.293,0.105,5,8.199,-35.48,36.574
699336.607,3,-1.268,9.358,-4.041,4,0.014,0.392,0.097,5,7.565,-34.071,37.294
699336.6269,3,-1.022,10.914,3.639,4,0.08,0.435,0.083,5,7.516,-36.211,36.574
699336.6468,3,-1.007,9.224,-5.867,4,0.045,0.388,0.066,5,7.567,-34.074,38.02
699336.6667,3,-0.139,14.886,-10.418,4,0.179,0.28,0.037,5,8.234,-34.058,38.022
699336.6865,3,-1.498,3.575,-1.72,4,0.341,0.125,0.007,5,6.897,-34.087,37.294
699336.7064,3,0.34,6.626,-2.335,4,0.007,0.153,0.004,5,8.215,-34.767,36.571
699336.7263,3,0.108,13.799,-4.276,4,-0.053,0.126,0.024,5,6.848,-36.227,37.3
699336.7461,3,-0.203,8.899,0.294,4,-0.041,0.093,0.05,5,7.55,-34.789,38.022
699336.766,3,0.292,8.595,-0.318,4,-0.116,0.074,0.03,5,7.55,-34.789,38.022
699336.7858,3,-0.66,11.648,-3.9,4,-0.036,-0.044,0.012,5,5.563,-34.12,37.291
699336.8057,3,-0.995,11.421,-3.302,4,0.093,-0.082,-0.01,5,6.897,-34.087,37.294
699336.8256,3,-0.861,4.534,-2.891,4,0.075,-0.038,-0.003,5,8.232,-34.053,36.569
699336.8454,3,-1.687,9.277,-6.133,4,0.058,0.063,0.024,5,6.848,-36.226,36.574
699336.8653,3,-0.696,18.875,-1.799,4,0.058,0.167,0.05,5,7.565,-34.07,36.568
699336.8852,3,-0.187,5.245,3.675,4,-0.089,0.304,0.072,5,6.914,-33.374,37.292
699336.905,3,0.175,7.195,-1.742,4,-0.146,0.484,0.094,5,6.882,-34.804,38.022
699336.9249,3,-0.498,9.724,-7.317,4,0.069,0.447,0.033,5,6.882,-34.804,38.022
699336.9448,3,-0.749,9.715,-6.494,4,0.176,0.434,-0.026,5,6.882,-34.804,38.022
699336.9647,3,-1.563,9.842,-2.328,4,0.074,0.534,-0.029,5,6.213,-34.816,36.568
699336.9845,3,-1.306,8.844,-0.493,4,-0.052,0.643,-0.019,5,5.547,-34.834,37.292
699337.0044,3,-1.184,11.313,-0.983,4,-0.111,0.592,-0.057,5,4.178,-36.293,37.296
699337.0243,3,-0.936,12.986,-1.809,4,-0.061,0.414,-0.091,5,4.849,-36.281,38.751
699337.0441,3,-1.292,1.859,-3.443,4,0.012,0.194,-0.104,5,5.548,-34.837,38.019
699337.064,3,-1.309,13.685,-9.16,4,0.091,-0.015,-0.102,5,4.88,-34.853,38.019
699337.0838,3,0.077,12.95,-3.34,4,0.135,-0.199,-0.08,5,5.547,-34.834,37.292
699337.1037,3,-0.605,7.073,3.553,4,-0.08,-0.257,-0.042,5,4.912,-33.423,37.289
699337.1236,3,1.268,10.39,-1.036,4,-0.185,-0.258,-0.002,5,6.215,-34.821,38.02
699337.1434,3,0.361,5.049,-2.735,4,-0.002,-0.385,-0.024,5,5.548,-34.837,38.019
699337.1633,3,-1.414,10.624,-9.657,4,0.122,-0.351,-0.055,5,6.897,-34.087,37.294
699337.1832,3,-0.287,9.61,-4.506,4,0.203,-0.235,-0.052,5,6.213,-34.818,37.294
699337.203,3,0.864,7.76,0.9,4,0.04,-0.108,-0.008,5,5.58,-33.408,37.289
699337.2229,3,0.352,8.049,-0.787,4,-0.131,0.028,0.013,5,5.58,-33.408,37.289
699337.2428,3,-0.524,13.926,-5.183,4,-0.048,0.092,-0.014,5,4.895,-34.134,36.565
699337.2627,3,-0.579,4.022,-2.166,4,0.071,0.139,-0.057,5,6.197,-35.529,36.571
699337.2825,3,-1.268,13.089,-4.68,4,0.041,0.18,-0.06,5,6.198,-35.533,38.023
699337.3024,3,-0.23,12.95,-2.055,4,0.035,0.133,-0.049,5,5.551,-34.842,40.198
699337.3223,3,0.385,6.631,3.541,4,-0.038,0.004,-0.041,5,6.213,-34.816,36.568
699337.3421,3,0.878,9.464,-1.747,4,-0.118,-0.078,-0.02,5,4.895,-34.135,37.291
699337.362,3,-0.132,5.061,-5.783,4,0.017,-0.205,-0.03,5,6.895,-34.084,35.841
699337.3818,3,-0.431,16.214,-7.908,4,0.144,-0.241,-0.068,5,4.228,-34.155,38.016
699337.4017,3,-0.469,6.882,-1.558,4,0.104,-0.225,-0.06,5,5.547,-34.833,36.566
699337.4216,3,-0.06,7.497,-0.239,4,-0.118,-0.15,-0.013,5,6.213,-34.818,37.294
699337.4414,3,-0.318,9.784,-2.634,4,-0.151,-0.199,0.012,5,5.58,-33.408,37.289
699337.4613,3,-0.328,9.272,-3.245,4,-0.074,-0.232,0.008,5,6.812,-37.65,35.126
699337.4812,3,-0.924,6.709,-3.888,4,-0.053,-0.219,-0.005,5,7.565,-34.07,36.568
699337.5011,3,-0.778,16.379,-4.405,4,0.002,-0.196,0.023,5,6.879,-34.798,35.843
699337.5209,3,-0.048,8.743,0.469,4,0.011,-0.199,0.064,5,7.55,-34.789,38.022
699337.5408,3,-0.282,8.497,-1.943,4,-0.085,-0.189,0.059,5,6.862,-35.51,35.846
699337.5607,3,0.06,9.6,-3.867,4,0.014,-0.177,0.077,5,7.565,-34.071,37.294
699337.5805,3,-0.883,8.6,-3.762,4,0.072,-0.161,0.081,5,8.183,-36.195,37.302
699337.6004,3,-0.849,11.742,-3.654,4,0.066,-0.127,0.063,5,7.549,-34.785,37.296
699337.6203,3,-0.397,9.712,-1.467,4,0.03,-0.094,0.094,5,6.863,-35.512,36.572
699337.6401,3,-0.062,7.657,0.514,4,-0.037,-0.097,0.132,5,7.565,-34.07,36.568
699337.66,3,-0.837,11.081,-3.161,4,-0.039,-0.121,0.135,5,6.815,-37.653,36.577
699337.6799,3,-0.337,4.836,-2.785,4,0.034,-0.099,0.106,5,6.848,-36.227,37.3
699337.6991,3,-0.711,8.633,-4.403,4,0.082,-0.064,0.106,5,6.915,-33.377,38.019
699337.7196,3,0.294,13.886,-3.905,4,0.073,0,0.125,5,6.911,-33.369,35.115
699337.7394,3,-0.194,7.827,-0.431,4,0.024,0.051,0.128,5,7.515,-36.209,35.847
699337.7593,3,0.282,9.842,-3.192,4,-0.028,0.139,0.111,5,5.58,-33.408,37.289
699337.7792,3,-0.479,9.296,-3.594,4,0.06,0.154,0.096,5,6.88,-34.801,37.296
699337.7991,3,-0.397,9.801,-3.017,4,0.08,0.197,0.062,5,4.88,-34.853,38.019
699337.8189,3,-1.211,10.213,-1.802,4,0.062,0.241,0.045,5,6.18,-36.241,35.846
699337.8388,3,-0.182,8.875,-1.924,4,0.053,0.266,0.048,5,6.897,-34.087,37.294
699337.8587,3,-1.098,8.686,-3.151,4,0.049,0.192,0.037,5,5.547,-34.833,36.566
699337.8785,3,-0.388,8.014,-3.269,4,0.067,0.131,0.023,5,7.567,-34.074,38.02
699337.8984,3,-0.199,14.556,-3.848,4,0.033,0.099,0.036,5,4.88,-34.853,38.019
699337.9183,3,0.321,11.775,-0.735,4,0.002,0.101,0.066,5,5.547,-34.833,36.566
699337.9381,3,-0.072,6.439,1.697,4,-0.06,0.144,0.09,5,4.208,-34.863,35.838
699337.958,3,-0.112,9.607,-4.164,4,-0.052,0.126,0.057,5,4.877,-34.846,35.84
699337.9779,3,0.512,8.037,-4.305,4,0.099,0.087,0.037,5,6.198,-35.533,38.023
699337.9977,3,-0.167,8.411,-4.152,4,0.091,0.123,0.019,5,5.563,-34.12,37.291
699338.0176,3,-0.167,12.476,-4.307,4,0.041,0.222,0.012,5,5.53,-35.545,36.569
699338.0374,3,0.108,9.406,-1.996,4,0.005,0.282,-0.002,5,5.563,-34.12,37.291
699338.0573,3,-0.014,8.396,-2.216,4,-0.048,0.293,-0.013,5,4.21,-34.866,37.291
699338.0772,3,-0.837,12.512,-3.194,4,-0.017,0.31,-0.031,5,4.895,-34.134,36.565
699338.0971,3,0.091,4.594,-1.869,4,0.025,0.336,-0.079,5,4.86,-35.559,35.843
699338.1169,3,-0.629,12.349,-3.4,4,0.007,0.374,-0.085,5,4.257,-32.722,35.834
699338.1368,3,-0.194,12.519,-1.177,4,0.016,0.402,-0.091,5,4.929,-32.712,38.014
699338.1567,3,-0.218,6.173,2.654,4,-0.033,0.371,-0.112,5,2.843,-36.325,37.292
699338.1765,3,-1.058,12.476,-6.951,4,-0.026,0.285,-0.126,5,4.21,-34.866,37.291
699338.1964,3,-0.859,8.76,-3.57,4,0.126,0.132,-0.158,5,3.593,-32.744,38.011
699338.2163,3,-1.204,7.332,0.845,4,0.05,0.071,-0.163,5,2.908,-33.472,37.285
699338.2361,3,-0.586,11.115,-1.62,4,-0.096,0.026,-0.134,5,4.26,-32.729,38.013
699338.256,3,-0.888,10.205,-1.967,4,-0.036,-0.101,-0.116,5,4.23,-34.157,38.744
699338.2759,3,-1.139,9.71,-3.46,4,0.005,-0.226,-0.115,5,4.243,-33.438,36.562
699338.2957,3,-0.725,6.717,-3.637,4,0.035,-0.281,-0.11,5,3.593,-32.744,38.011
699338.3156,3,-1.117,7.612,-4.664,4,0.031,-0.312,-0.071,5,4.895,-34.135,37.291
699338.3355,3,-0.735,15.003,-4.384,4,0.022,-0.319,-0.011,5,5.548,-34.837,38.019
699338.3554,3,0.002,8.806,0.921,4,-0.05,-0.264,0.035,5,4.912,-33.423,37.289
699338.3752,3,0.273,8.313,-1.878,4,-0.132,-0.203,0.048,5,6.897,-34.087,37.294
699338.3951,3,-0.885,7.753,-4.953,4,0.009,-0.185,0.053,5,6.247,-33.389,36.565
699338.415,3,-1.256,14.307,-5.956,4,0.116,-0.137,0.028,5,4.895,-34.135,37.291
699338.4348,3,-1.165,8.274,0.849,4,0.105,-0.037,0.023,5,5.563,-34.12,37.291
699338.4547,3,-0.072,6.626,-0.156,4,-0.048,0.115,0.067,5,6.197,-35.529,36.571
699338.4746,3,0.01,11.474,-5.585,4,-0.03,0.087,0.051,5,4.944,-31.996,37.286
699338.4944,3,-0.78,12.117,-3.771,4,0.094,0.029,0.024,5,4.245,-33.443,38.014
699338.5143,3,-0.412,5.09,-2.103,4,0.013,0.079,0.015,5,4.895,-34.134,36.565
699338.5342,3,-0.199,16.451,-4.939,4,-0.034,0.106,0.044,5,4.912,-33.421,36.563
699338.554,3,0.857,7.664,1.388,4,-0.019,0.067,0.053,5,5.563,-34.12,37.291
699338.5739,3,0.737,9.248,-0.146,4,-0.12,0.05,0.035,5,5.595,-32.692,36.562
699338.5938,3,0.608,9.126,-3.936,4,-0.02,0.017,0.026,5,6.23,-34.103,37.292
699338.6136,3,-0.098,9.215,-5.03,4,0.108,-0.027,-0.005,5,6.247,-33.389,36.565
699338.6335,3,-0.694,10.71,-5.247,4,0.124,-0.011,-0.037,5,4.26,-32.729,38.013
699338.6534,3,-0.483,7.518,-1.452,4,0.057,0.03,-0.015,5,3.574,-33.45,35.109
699338.6732,3,-0.55,7.549,-0.687,4,-0.069,0.068,0.012,5,4.21,-34.866,37.291
699338.6931,3,-1.127,12.876,-5.7,4,-0.072,0,0.007,5,5.58,-33.408,37.289
699338.713,3,-1.091,3.769,-1.244,4,-0.011,-0.067,-0.011,5,6.245,-33.388,35.838
699338.7328,3,-0.627,9.014,-1.862,4,-0.045,-0.081,0.017,5,6.247,-33.391,37.291
699338.7527,3,0.474,15.312,-2.489,4,-0.056,-0.09,0.044,5,5.565,-34.123,38.017
699338.7726,3,-0.337,7.702,1.393,4,-0.028,-0.122,0.056,5,5.563,-34.12,37.291
699338.7924,3,-0.254,9.684,-2.67,4,-0.038,-0.056,0.053,5,6.247,-33.389,36.565
699338.8123,3,-0.883,9.586,-4.86,4,0.095,-0.062,0.03,5,4.893,-34.132,35.838
699338.8322,3,-1.211,9.846,-4.396,4,0.138,-0.034,0.008,5,4.91,-33.42,35.837
699338.852,3,-1.017,10.327,-3.089,4,0.071,0.028,0.023,5,5.579,-33.405,35.837
699338.8719,3,-0.136,8.77,0.091,4,-0.013,0.078,0.055,5,5.548,-34.837,38.019
699338.8918,3,-0.234,10.062,-1.548,4,-0.069,0.057,0.07,5,5.563,-34.12,37.291
699338.9116,3,-0.359,4.826,-3.077,4,-0.009,0.023,0.047,5,6.262,-32.677,37.289
699338.9315,3,-1.393,13.07,-5.238,4,0.057,0.017,0.042,5,4.259,-32.724,36.56
699338.9514,3,-0.416,12.754,-3.099,4,0.104,0.026,0.069,5,4.893,-34.132,35.838
699338.9713,3,-0.933,4.979,1.196,4,0.016,0.09,0.114,5,6.898,-34.09,38.02
699338.9911,3,-0.625,9.882,-3.936,4,-0.038,0.153,0.09,5,5.53,-35.547,37.296
699339.011,3,-0.273,9.6,-4.264,4,0.089,0.133,0.084,5,4.913,-33.426,38.016
699339.0308,3,-0.876,10.679,-3.312,4,0.079,0.166,0.066,5,3.56,-34.166,36.562
699339.0507,3,-1.759,9.433,-1.756,4,0.036,0.253,0.067,5,3.543,-34.882,37.289
699339.0706,3,-0.029,9.114,-1.498,4,0.005,0.307,0.064,5,4.861,-35.562,37.296
699339.0904,3,0.053,7.736,-0.912,4,0.003,0.253,0.057,5,4.211,-34.869,38.017
699339.1103,3,0.022,11.983,-3.472,4,0.017,0.213,0.03,5,3.561,-34.171,38.014
699339.1302,3,0.294,5.267,-3.01,4,0.045,0.213,0.004,5,4.227,-34.151,36.563
699339.15,3,-0.388,15.79,-5.413,4,0.053,0.239,0.009,,,,
699339.1699,3,0.38,8.923,-0.378,4,0.035,0.238,-0.002,5,3.577,-33.455,37.286
699339.1898,3,1.469,4.824,1.984,4,-0.103,0.287,-0.014,5,4.213,-34.871,38.745
699339.2096,3,0.699,14.015,-5.618,4,-0.087,0.277,-0.024,5,3.578,-33.458,38.013
699339.2295,3,0,6.185,-2.981,4,0.085,0.22,-0.088,5,2.924,-32.758,37.283
699339.2494,3,-0.11,10.612,-2.623,4,0.052,0.238,-0.112,5,2.223,-34.201,37.286
699339.2692,3,-0.593,10.6,-3.711,4,0.034,0.276,-0.115,5,2.892,-34.183,36.56
699339.2891,3,-0.165,8.573,-3.998,4,0.039,0.228,-0.129,,,,
699339.309,3,-0.744,14.027,-2.69,4,0.012,0.187,-0.14,5,4.23,-34.157,38.744
699339.3288,3,-0.893,3.596,-1.165,4,-0.039,0.16,-0.165,5,4.213,-34.872,39.47
699339.3487,3,-0.847,14.012,-3.687,4,-0.08,0.143,-0.163,5,3.58,-33.459,38.741
699339.3686,3,-0.065,10.828,-1.05,4,-0.015,0.038,-0.147,5,2.925,-32.761,38.01
699339.3884,3,-0.337,8.181,-0.495,4,-0.071,-0.076,-0.145,5,3.546,-34.888,39.468
699339.4083,3,-0.055,7.738,-3.29,4,-0.045,-0.193,-0.143,5,4.23,-34.157,38.744
699339.4282,3,-0.881,21.052,-4.573,4,0.051,-0.319,-0.135,5,3.563,-34.174,39.467
699339.448,3,0.818,2.969,1.761,4,0.053,-0.343,-0.147,5,5.583,-33.414,39.468
699339.4679,3,-1.139,-0.024,-2.926,4,-0.063,-0.282,-0.102,5,4.898,-34.14,38.745
699339.4878,3,-1.582,16.039,-11.287,4,0.082,-0.348,-0.118,5,4.898,-34.14,38.745
699339.5077,3,-0.849,12.682,-4.362,4,0.21,-0.455,-0.08,5,6.25,-33.397,39.47
699339.5275,3,-1.314,2.733,1.548,4,-0.027,-0.36,-0.038,5,5.583,-33.414,39.468
699339.5474,3,-0.629,11.318,-2.594,4,-0.169,-0.248,0.034,5,5.566,-34.126,39.47
699339.5673,3,-0.34,13.699,-3.4,4,-0.03,-0.314,0.053,5,6.215,-34.821,38.02
699339.5871,3,-0.677,7.906,-0.306,4,-0.009,-0.315,0.058,5,6.92,-33.383,40.924
699339.607,3,0.318,9.138,-1.988,4,-0.026,-0.181,0.083,5,6.25,-33.397,39.47
699339.6268,3,0.581,9.04,-2.522,4,0.045,-0.142,0.105,5,4.216,-34.877,41.649
699339.6467,3,-0.206,9.811,-2.919,4,0.068,-0.086,0.079,5,4.23,-34.157,38.744
699339.6666,3,0.213,9.748,-2.412,4,0.06,0.015,0.07,5,4.247,-33.446,39.467
699339.6864,3,-0.395,6.133,-2.299,4,0.045,0.114,0.09,5,4.913,-33.426,38.016
699339.7063,3,-1.077,16.57,-9.48,4,0.024,0.129,0.075,5,5.597,-32.697,38.014
699339.7262,3,0.479,1.974,2.457,4,0.068,0.066,0.037,5,6.905,-34.099,42.38
699339.746,3,-1.005,2.718,1.591,4,-0.204,0.035,0.08,5,7.539,-35.51,42.384
699339.7659,3,0.436,21.858,-6.276,4,-0.177,0.011,0.099,5,9.509,-36.885,40.938
699339.7858,3,-0.983,7.566,0.144,4,0.042,-0.167,0.1,5,6.253,-33.4,40.923
699339.8057,3,-0.601,7.576,-1.876,4,-0.024,-0.144,0.078,5,3.595,-32.745,38.739
699339.8255,3,0.337,10.811,-4.391,4,0.038,-0.152,0.091,5,4.279,-32.019,39.464
699339.8454,3,0.213,8.719,-2.711,4,0.079,-0.153,0.09,5,4.23,-34.157,38.744
699339.8653,3,-1.117,9.954,-2.053,4,0.024,-0.056,0.078,5,5.568,-34.128,40.196
699339.8851,3,0.268,10.579,-2.919,4,0.009,0.063,0.088,5,5.582,-33.411,38.016
699339.905,3,-0.239,8.313,-2.335,4,0.017,0.103,0.084,5,3.612,-32.034,39.462
699339.9249,3,-0.574,11.971,-3.316,4,0.023,0.121,0.053,5,3.596,-32.748,40.19
699339.9447,3,-0.242,5.19,-2.223,4,0.033,0.077,0.036,5,3.563,-34.174,39.467
699339.9646,3,-0.141,14.036,-5.037,4,0.018,0.039,0.051,5,3.644,-30.608,39.458
699339.9844,3,0.577,11.316,-1.278,4,0.019,0.004,0.069,5,1.608,-32.082,38.734
699340.0043,3,0.242,6.587,0.412,4,-0.054,0.026,0.069,5,2.255,-32.773,36.557
699340.0242,3,0.175,9.665,-3.477,4,-0.034,0.051,0.068,5,1.608,-32.082,38.734
699340.044,3,1.003,10.772,-5.051,4,0.093,0.026,0.041,5,2.911,-33.476,38.739
699340.0639,3,-0.191,8.157,-3.733,4,0.127,0.088,0.023,5,0.941,-32.1,39.458
699340.0838,3,0.249,10.071,-3.391,4,0.072,0.22,0.029,5,1.639,-30.653,38.002
699340.1037,3,0.069,10.236,-3.178,4,0.031,0.316,0.017,5,1.608,-32.082,38.734
699340.1235,3,-1.476,10.679,-1.809,4,0.005,0.366,-0.004,5,-0.397,-32.126,37.277
699340.1434,3,-1.522,-0.105,-3.692,4,-0.014,0.373,-0.046,5,0.255,-32.826,38.007
699340.1633,3,0.05,23.459,-6.693,4,0.008,0.314,-0.054,5,0.908,-33.524,38.008
699340.1831,3,-0.069,7.578,0.885,4,0.013,0.238,-0.036,5,0.255,-32.826,38.007
699340.203,3,-0.952,4.046,1.63,4,-0.176,0.214,-0.02,5,-1.73,-32.164,39.453
699340.2229,3,-0.445,11.952,-4.836,4,-0.087,0.05,-0.049,5,-0.38,-31.412,37.274
699340.2427,3,0.098,10.055,-4.764,4,0.108,-0.144,-0.043,5,-0.398,-32.123,35.825
699340.2626,3,0.079,10.062,-3.103,4,0.061,-0.147,-0.027,5,-0.365,-30.699,37.273
699340.2824,3,-0.376,8.54,-1.292,4,-0.013,-0.076,0,5,-0.429,-33.551,36.554
699340.3023,3,0.146,10.122,-1.991,4,-0.067,-0.022,0.013,5,-0.398,-32.123,35.825
699340.3222,3,0.514,11.454,-2.505,4,-0.044,-0.065,0.014,5,-1.033,-30.716,37.271
699340.342,3,-0.529,4.857,-1.347,4,-0.006,-0.06,0.006,5,0.319,-29.97,37.273
699340.3619,3,0.081,8.2,-3.204,4,-0.01,-0.006,0.002,5,-0.368,-30.695,35.095
699340.3818,3,0.672,15.51,-4.427,4,0.064,0.006,0.012,5,-0.38,-31.412,37.274
699340.4017,3,-0.022,6.678,1.254,4,0.025,0.055,0.019,5,0.204,-34.962,36.559
699340.4215,3,0.177,6.786,-1.632,4,-0.086,0.156,0.013,5,0.269,-32.108,35.826
699340.4414,3,-0.136,14.213,-8.188,4,0.02,0.144,-0.013,5,-1.082,-32.854,36.551
699340.4613,3,-0.725,6.358,-2.584,4,0.138,0.164,-0.061,5,0.238,-33.536,36.555
699340.4811,3,-0.534,7.157,-0.134,4,-0.013,0.258,-0.07,5,-1.083,-32.852,35.825
699340.501,3,-0.112,10.768,-2.264,4,-0.07,0.311,-0.072,5,-1.736,-32.153,35.097
699340.5209,3,0.069,9.72,-2.627,4,-0.003,0.241,-0.091,5,-0.432,-33.548,35.103
699340.5407,3,-0.914,9.672,-2.821,4,0.039,0.165,-0.135,5,-1.068,-32.138,35.098
699340.5606,3,-1.632,6.217,-3.651,4,0.034,0.068,-0.154,5,-1.082,-32.855,37.277
699340.5805,3,-1.144,16.896,-5.537,4,0.035,-0.05,-0.131,5,-0.398,-32.123,35.825
699340.6003,3,-0.873,7.841,1.567,4,0.003,-0.194,-0.088,5,-2.37,-30.745,35.817
699340.6202,3,-0.632,8.98,-0.634,4,-0.143,-0.303,-0.053,5,0.287,-31.396,37.276
699340.64,3,-0.321,11.225,-3.048,4,-0.072,-0.426,-0.029,5,0.267,-32.106,35.101
699340.6599,3,-0.979,6.908,-2.646,4,0.046,-0.497,-0.026,5,-0.432,-33.548,35.103
699340.6798,3,-0.962,9.827,-3.857,4,0.068,-0.428,-0.007,5,1.601,-32.071,34.375
699340.6991,3,-0.115,9.205,-4.137,4,0.084,-0.323,0.04,5,-0.366,-30.696,35.82
699340.7195,3,-0.093,9.236,-3.032,4,0.039,-0.199,0.07,5,0.267,-32.106,35.101
699340.7394,3,-0.313,12.665,-1.45,4,-0.027,-0.038,0.07,5,0.966,-30.661,34.369
699340.7593,3,-0.22,3.405,-0.79,4,-0.06,0.105,0.057,5,-0.385,-31.404,33.644
699340.7791,3,-0.062,14.931,-6.264,4,-0.017,0.197,0.059,5,-0.385,-31.404,33.644
699340.799,3,0.543,10.859,-2.321,4,0.086,0.211,0.048,5,0.954,-31.377,35.823
699340.8189,3,1.084,6.757,1.072,4,-0.009,0.224,0.018,5,0.919,-32.802,35.103
699340.8387,3,0.278,10.315,-3.044,4,-0.055,0.245,0.013,5,0.266,-32.104,34.373
699340.8586,3,0.309,9.808,-3.747,4,0.047,0.159,-0.019,5,0.284,-31.392,35.098
699340.8785,3,-0.368,7.982,-3.321,4,0.063,0.092,-0.068,5,-1.082,-32.854,36.551
699340.8983,3,-0.782,5.444,-5.082,4,0.029,0.041,-0.065,5,-0.45,-34.259,34.377
699340.9182,3,0.632,21.744,-3.63,4,0.012,-0.071,-0.049,5,0.25,-32.819,35.103
699340.9381,3,-0.526,3.266,3.702,4,-0.08,-0.197,-0.032,5,1.599,-32.068,32.922
699340.958,3,-0.428,2.969,-2.108,4,-0.221,-0.199,-0.04,5,1.569,-33.498,34.378
699340.9778,3,0.881,14.972,-7.571,4,-0.016,-0.325,-0.032,5,0.917,-32.8,34.375
699340.9977,3,0.089,12.768,-3.651,4,0.116,-0.363,-0.011,5,0.917,-32.799,33.65
699341.0176,3,0.055,5.929,0.493,4,-0.002,-0.288,0,5,0.887,-34.229,35.106
699341.0374,3,1.062,9.124,-1.35,4,-0.082,-0.218,0.019,5,2.269,-32.057,35.104
699341.0573,3,0.617,10.198,-3.84,4,-0.022,-0.27,0.012,5,0.917,-32.799,33.65
699341.0772,3,0.167,10.694,-3.075,4,0.017,-0.241,-0.014,5,2.284,-31.342,34.373
699341.097,3,0.455,9.363,-2.197,4,0.008,-0.213,-0.005,5,0.899,-33.508,32.198
699341.1169,3,0.249,9.827,-2.883,4,-0.022,-0.166,0.007,5,2.248,-32.762,32.199
699341.1368,3,0.493,11.868,-2.17,4,-0.02,-0.148,0.006,5,2.199,-34.903,32.204
699341.1566,3,-0.313,5.771,-0.572,4,-0.025,-0.086,-0.01,5,1.584,-32.784,34.377
699341.1765,3,-1,5.554,-5.185,4,-0.047,-0.048,-0.014,5,2.902,-33.463,32.927
699341.1964,3,-0.333,19.956,-9.224,4,0.068,-0.06,-0.011,5,2.252,-32.77,35.106
699341.2163,3,-1.656,5.31,0.5,4,0.152,-0.09,-0.008,5,1.601,-32.071,34.375
699341.2361,3,0.517,8.035,-0.067,4,-0.116,-0.039,0.017,5,1.552,-34.209,33.655
699341.256,3,-0.625,10.653,-2.828,4,-0.12,-0.06,0.02,5,1.584,-32.784,34.377
699341.2758,3,-0.991,8.858,-3.211,4,-0.02,-0.07,-0.014,5,2.266,-32.053,32.924
699341.2957,3,-1.618,9.296,-3.166,4,0.024,-0.082,-0.053,5,4.239,-33.432,33.658
699341.3156,3,0.11,10.473,-3.233,4,0.042,-0.128,-0.03,5,2.919,-32.75,33.653
699341.3354,3,-0.675,9.952,-2.706,4,0.002,-0.22,-0.002,5,2.901,-33.458,31.476
699341.3553,3,0.234,10.643,-1.342,4,-0.03,-0.258,-0.002,5,4.205,-34.86,34.386
699341.3752,3,-0.347,5.3,-1.821,4,-0.053,-0.279,0.007,5,2.917,-32.748,32.925
699341.395,3,0.165,17.602,-5.544,4,-0.026,-0.257,0.033,5,4.906,-33.414,32.932
699341.4149,3,-0.438,8.607,0.242,4,0.039,-0.263,0.061,5,3.621,-31.308,34.375
699341.4348,3,0.029,8.717,-1.362,4,-0.059,-0.194,0.063,5,4.871,-34.837,32.208
699341.4546,3,0.179,9.538,-2.711,4,-0.006,-0.187,0.07,5,5.576,-33.401,34.384
699341.4745,3,0.007,8.88,-1.938,4,0.042,-0.16,0.064,5,4.887,-34.122,31.482
699341.4944,3,-1.847,10.208,-3.628,4,0.036,-0.061,0.046,5,3.554,-34.158,32.93
699341.5143,3,-0.749,9.366,-3.773,4,0.074,0.005,0.045,5,3.572,-33.447,33.656
699341.5341,3,-0.775,8.935,-2.606,4,0.057,-0.018,0.055,5,4.24,-33.435,35.11
699341.554,3,-0.744,14.132,-2.347,4,0.002,-0.044,0.05,5,2.904,-33.466,34.38
699341.5738,3,-0.921,3.027,0.098,4,-0.031,-0.076,0.042,5,4.924,-32.704,35.11
699341.5937,3,-0.273,6.37,-5.389,4,-0.022,-0.076,0.051,5,3.569,-33.443,32.202
699341.6136,3,0.579,24.713,-6.011,4,0.082,-0.134,0.058,5,4.205,-34.86,34.386
699341.6334,3,-0.211,0.495,4.295,4,0.044,-0.161,0.072,5,3.587,-32.735,34.38
699341.6533,3,-0.845,5.42,-3.448,4,-0.104,-0.117,0.075,5,4.907,-33.415,33.659
699341.6732,3,0.893,13.038,-6.473,4,0.072,-0.251,0.045,5,4.218,-34.137,30.753
699341.693,3,0.234,10.734,-2.797,4,0.124,-0.262,0.055,5,4.202,-34.854,32.207
699341.7129,3,0.112,9.308,-0.907,4,0.002,-0.122,0.091,5,4.921,-32.7,32.93
699341.7328,3,-0.534,8.093,-1.895,4,-0.03,-0.061,0.105,5,3.537,-34.872,32.932
699341.7526,3,0.026,13.955,-2.431,4,-0.004,-0.076,0.077,5,3.552,-34.154,31.479
699341.7725,3,-0.203,3.202,-0.871,4,0.006,-0.078,0.051,5,4.236,-33.427,32.204
699341.7924,3,0.184,13.479,-3.991,4,-0.006,-0.024,0.07,5,3.586,-32.732,32.927
699341.8123,3,0.349,12.079,-1.421,4,0.05,-0.01,0.081,5,4.204,-34.857,32.933
699341.8321,3,0.395,8.404,-0.416,4,-0.025,0.017,0.057,5,2.904,-33.466,34.38
699341.852,3,1.156,9.574,-0.883,4,-0.025,0.07,0.047,5,3.569,-33.441,31.477
699341.8719,3,-0.067,6.635,-5.949,4,0.042,0.007,0.019,5,3.555,-34.16,33.658
699341.8917,3,0.419,13.694,-7.918,4,0.1,0.027,-0.041,5,3.554,-34.158,32.93
699341.9116,3,-0.151,7.93,-2.252,4,0.157,0.015,-0.044,5,4.219,-34.14,32.205
699341.9314,3,-0.227,9.368,-0.352,4,-0.067,0.063,-0.01,5,2.901,-33.459,32.201
699341.9513,3,-0.089,12.744,-1.962,4,-0.11,0.055,-0.024,5,3.539,-34.874,33.659
699341.9712,3,-0.759,3.601,-2.137,4,-0.024,-0.034,-0.049,5,3.539,-34.874,33.659
699341.991,3,-1.182,10.923,-5.283,4,0.012,-0.089,-0.064,5,3.539,-34.874,33.659
699342.0109,3,-0.376,13.192,-1.936,4,0.073,-0.115,-0.041,5,4.89,-34.128,33.661
699342.0308,3,-0.412,8.629,1.043,4,-0.025,-0.15,0,5,3.552,-34.155,32.204
699342.0506,3,-0.199,9.007,-1.467,4,-0.063,-0.16,-0.009,5,5.573,-33.395,32.205
699342.0705,3,-1.079,10.265,-4.144,4,0.051,-0.251,-0.014,5,6.207,-34.808,32.936
699342.0904,3,-1.022,11.177,-3.951,4,0.116,-0.258,-0.027,5,6.226,-34.096,33.662
699342.1103,3,-1.137,8.444,-1.306,4,0.088,-0.248,-0.004,5,5.542,-34.827,33.662
699342.1301,3,-0.16,9.49,-1.737,4,0.002,-0.255,0.05,5,5.525,-35.541,34.39
699342.15,3,-0.373,10.557,-2.424,4,-0.005,-0.327,0.075,5,4.189,-35.571,33.664
699342.1699,3,-0.467,6.319,-2.142,4,0.046,-0.353,0.072,5,4.823,-36.98,32.941
699342.1897,3,-1.151,7.456,-5.657,4,0.079,-0.271,0.084,5,4.205,-34.86,34.386
699342.2096,3,-0.014,17.293,-6.647,4,0.166,-0.15,0.108,5,6.857,-35.504,32.941
699342.2294,3,-0.603,7.633,1.108,4,0.115,-0.048,0.144,5,5.574,-33.398,32.932
699342.2493,3,0.201,8.504,0.014,4,-0.064,0.098,0.143,5,2.869,-34.889,32.93
699342.2692,3,-0.438,6.018,-3.496,4,0.002,0.107,0.135,5,5.525,-35.539,33.665
699342.289,3,-0.981,15.577,-6.059,4,0.108,0.101,0.084,5,6.207,-34.808,32.936
699342.3089,3,-0.952,10.031,-0.682,4,0.137,0.105,0.048,5,4.904,-33.411,32.205
699342.3288,3,0.115,3.589,1.598,4,-0.008,0.148,0.074,5,5.591,-32.687,34.383
699342.3486,3,-0.491,10.438,-5.436,4,-0.045,0.061,0.073,5,4.855,-35.553,32.938
699342.3685,3,-0.357,11.39,-4.982,4,0.094,-0.078,0.053,5,4.207,-34.862,35.114
699342.3884,3,-1.11,5.228,-2.728,4,0.028,-0.105,0.04,5,4.871,-34.837,32.208
699342.4083,3,-0.062,16.041,-3.723,4,-0.049,-0.039,0.075,,,,
699342.4281,3,0.172,9.937,1.07,4,-0.063,-0.054,0.108,5,4.857,-35.555,33.665
699342.448,3,0.751,8.523,0.242,4,-0.137,-0.037,0.102,5,5.591,-32.686,33.658
699342.4679,3,0.139,9.186,-2.254,4,-0.049,-0.039,0.094,5,4.175,-36.288,35.118
699342.4877,3,-0.007,9.021,-4.51,4,0.093,-0.022,0.064,5,5.544,-34.83,35.115
699342.5076,3,-0.538,10.627,-5.125,4,0.154,0.039,0.029,5,4.889,-34.126,32.933
699342.5274,3,0.593,9.665,-3.199,4,0.116,0.145,0.028,5,4.889,-34.126,32.933
699342.5473,3,0.4,4.463,1.831,4,0.007,0.225,0.041,5,3.522,-35.587,33.662
699342.5672,3,-1.438,16.869,-6.559,4,-0.088,0.289,0.02,5,4.857,-35.556,34.39
699342.587,3,-0.696,4.463,-1.991,4,0.009,0.27,-0.037,5,4.857,-35.556,34.39
699342.6069,3,-0.502,9.887,-0.936,4,-0.039,0.18,-0.035,5,3.522,-35.588,34.387
699342.6268,3,0.294,10.988,-0.663,4,-0.092,0.1,-0.019,5,3.539,-34.874,33.659
699342.6467,3,0.357,8.334,-0.658,4,-0.067,-0.037,-0.021,5,4.875,-34.845,35.115
699342.6665,3,0.538,10.014,-3.685,4,0.007,-0.094,-0.043,5,4.205,-34.86,34.386
699342.6864,3,-0.208,8.406,-4.104,4,0.102,-0.13,-0.06,5,5.51,-36.255,34.392
699342.7063,3,-0.33,10.141,-4.652,4,0.105,-0.054,-0.08,5,5.51,-36.253,33.667
699342.7261,3,-0.742,10.002,-4.164,4,0.068,0.029,-0.068,5,6.877,-34.796,35.118
699342.746,3,-0.488,9.229,-1.634,4,-0.016,0.081,-0.054,5,6.177,-36.238,34.393
699342.7659,3,-0.591,10.337,0.258,4,-0.099,0.077,-0.053,5,4.855,-35.553,32.938
699342.7857,3,-0.72,6.26,-0.725,4,-0.115,0.065,-0.075,5,4.189,-35.573,34.389
699342.8056,3,-0.694,9.806,-4.032,4,-0.044,0.004,-0.077,5,5.51,-36.255,34.392
699342.8255,3,-0.412,13.476,-3.187,4,0.071,-0.068,-0.057,5,6.195,-35.527,35.844
699342.8453,3,-0.711,8.564,-0.514,4,0.034,-0.097,-0.041,5,4.839,-36.264,32.213
699342.8652,3,0.182,9.571,-1.871,4,-0.033,-0.079,-0.054,5,5.528,-35.544,35.843
699342.885,3,-0.179,8.755,-2.177,4,0,-0.108,-0.04,5,6.192,-35.524,34.392
699342.9049,3,-0.373,9.722,-2.206,4,-0.008,-0.086,-0.065,5,5.493,-36.966,33.669
699342.9248,3,-0.632,9.602,-2.936,4,0.007,-0.07,-0.079,5,8.818,-37.604,36.58
699342.9447,3,0.297,10.134,-4.168,4,0.028,-0.068,-0.072,5,7.544,-34.779,34.39
699342.9645,3,-0.019,8.971,-2.962,4,0.039,-0.131,-0.077,5,5.544,-34.83,35.115
699342.9844,3,0.165,10.478,-2.175,4,-0.004,-0.126,-0.093,5,6.876,-34.795,34.39
699343.0043,3,0.112,10.256,-2.831,4,-0.054,-0.108,-0.087,5,7.562,-34.067,35.117
699343.0241,3,-1.038,5.815,-3.027,4,-0.026,-0.127,-0.08,5,6.827,-36.934,34.396
699343.044,3,-0.337,17.946,-3.955,4,0.002,-0.2,-0.07,5,8.197,-35.478,35.847
699343.0639,3,-0.287,6.903,-0.292,4,-0.011,-0.257,-0.081,5,8.849,-36.174,35.126
699343.0837,3,-0.323,6.219,-2.323,4,-0.077,-0.281,-0.064,5,7.495,-36.919,34.396
699343.1036,3,-0.29,10.222,-4.231,4,-0.015,-0.357,-0.069,5,6.192,-35.524,34.392
699343.1235,3,-0.309,11.079,-3.872,4,0.045,-0.384,-0.061,5,7.529,-35.493,35.121
699343.1433,3,-0.699,8.471,-1.845,4,0.008,-0.362,-0.064,5,7.495,-36.917,33.672
699343.1632,3,-1.28,9.801,-3.503,4,-0.03,-0.348,-0.04,5,9.532,-35.445,35.126
699343.183,3,-0.696,12.156,-2.634,4,-0.021,-0.38,-0.037,5,8.194,-35.474,33.67
699343.2029,3,-0.907,3.936,-0.534,4,-0.054,-0.426,-0.037,5,9.531,-35.442,33.673
699343.2228,3,-0.115,15.003,-3.616,4,-0.081,-0.402,0,5,8.847,-36.172,34.398
699343.2427,3,0.469,10.248,-0.617,4,-0.016,-0.396,0.036,5,9.531,-35.443,34.398
699343.2625,3,0.555,7.269,-0.967,4,-0.075,-0.367,0.023,5,9.531,-35.442,33.673
699343.2824,3,0.067,12.751,-4.257,4,-0.028,-0.304,0.014,5,9.515,-36.156,33.675
699343.3023,3,0.852,3.29,1.847,4,0.056,-0.334,0.02,5,10.199,-35.428,35.126
699343.3221,3,0.103,13.46,-6.138,4,-0.049,-0.277,0.013,5,9.528,-35.437,32.219
699343.342,3,-0.29,9.5,-4.099,4,0.071,-0.224,-0.013,5,9.531,-35.443,34.398
699343.3619,3,-0.96,7.08,-1.881,4,0.029,-0.294,0.008,5,11.517,-36.105,32.95
699343.3817,3,-1.022,13.201,-3.484,4,-0.054,-0.29,0.011,5,8.846,-36.169,32.945
699343.4016,3,-0.45,2.819,-1.5,4,-0.024,-0.402,0.007,5,9.499,-36.868,33.676
699343.4215,3,-1.189,10.392,-4.365,4,-0.041,-0.484,0.015,5,10.849,-36.121,32.948
699343.4413,3,-0.244,15.86,-2.687,4,0.017,-0.524,0.059,5,11.566,-33.965,32.944
699343.4612,3,-0.759,6.528,1.507,4,-0.027,-0.568,0.102,5,11.531,-35.388,32.222
699343.4811,3,0.084,9.117,-2.051,4,-0.055,-0.524,0.099,5,11.534,-35.393,33.676
699343.5003,3,-0.459,11.084,-4.896,4,0.077,-0.549,0.13,5,12.184,-36.092,34.402
699343.5208,3,0.589,10.174,-2.307,4,0.134,-0.512,0.112,5,11.531,-35.387,31.497
699343.5407,3,-0.105,8.707,-1.077,4,0.08,-0.409,0.111,5,12.23,-33.945,32.217
699343.5606,3,0.349,7.844,-2.931,4,0.053,-0.259,0.157,5,14.2,-35.323,32.227
699343.5804,3,-0.735,12.443,-4.022,4,0.095,-0.244,0.145,5,12.868,-35.362,34.402
699343.6003,3,-1.421,6.635,-1.95,4,0.105,-0.292,0.112,5,12.184,-36.09,33.678
699343.6202,3,-1.328,8.174,-3.606,4,0.027,-0.386,0.124,5,11.519,-36.108,34.402
699343.64,3,1.285,16.14,-1.96,4,0.044,-0.511,0.172,5,13.522,-36.061,35.133
699343.6599,3,-0.062,7.037,1.271,4,0.006,-0.602,0.22,5,14.873,-35.315,35.133
699343.6798,3,1.192,8.581,-1.369,4,-0.022,-0.558,0.199,5,12.184,-36.09,33.678
699343.6996,3,-0.823,10.516,-4.053,4,0.107,-0.524,0.22,5,13.553,-34.633,34.401
699343.7195,3,-0.711,10.16,-4.482,4,0.181,-0.437,0.188,5,12.849,-36.07,32.225
699343.7394,3,-0.806,7.317,-2.209,4,0.161,-0.362,0.184,5,12.215,-34.662,32.945
699343.7592,3,0.378,9.478,-3.139,4,0.097,-0.226,0.238,5,14.22,-34.616,34.402
699343.7791,3,-1.182,10.873,-3.57,4,0.062,-0.143,0.251,5,12.215,-34.662,32.945
699343.799,3,-0.605,8.566,-2.335,4,0.061,-0.059,0.226,5,13.553,-34.631,33.676
699343.8188,3,-0.845,7.379,-2.819,4,0.029,-0.001,0.228,5,12.184,-36.09,33.678
699343.8387,3,0.069,14.891,-2.144,4,0.057,0.016,0.24,5,11.534,-35.394,34.401
699343.8586,3,-0.546,8.341,1.524,4,0.039,-0.009,0.263,5,11.551,-34.68,33.673
699343.8784,3,-0.306,9.669,-1.761,4,0.012,-0.009,0.248,5,12.18,-36.082,30.771
699343.8983,3,-0.768,9.284,-3.534,4,0.14,-0.1,0.234,5,11.534,-35.394,34.401
699343.9182,3,-1.464,8.31,-1.692,4,0.183,-0.132,0.221,5,13.524,-36.063,35.858
699343.938,3,-1.558,8.155,-3.264,4,0.138,-0.114,0.215,5,10.182,-36.139,33.675
699343.9579,3,0.995,13.007,-3.704,4,0.112,-0.083,0.256,5,12.201,-35.379,35.129
699343.9778,3,-0.242,7.935,-1.429,4,0.071,-0.078,0.282,5,11.548,-34.676,32.219
699343.9976,3,-0.505,10.136,-1.685,4,-0.014,0.013,0.274,5,9.496,-36.862,31.497
699344.0175,3,-0.581,5.585,-2.958,4,0.014,0.043,0.24,5,12.885,-34.648,33.675
699344.0374,3,-0.048,14.508,-5.652,4,0.082,0.061,0.226,5,9.496,-36.864,32.222
699344.0572,3,0.536,10.421,-0.519,4,0.096,0.107,0.226,5,10.866,-35.41,34.399
699344.0771,3,0.153,6.757,0.258,4,-0.008,0.211,0.239,5,10.213,-34.711,32.942
699344.097,3,0.258,10.571,-4.506,4,-0.009,0.276,0.227,5,10.214,-34.712,33.67
699344.1169,3,-0.196,10.272,-3.805,4,0.104,0.244,0.183,5,8.862,-35.458,34.396
699344.1367,3,-0.914,8.255,-2.914,4,0.086,0.282,0.151,5,9.48,-37.581,32.95
699344.1566,3,-0.218,10.301,-3.237,4,0.041,0.336,0.145,5,8.847,-36.171,33.673
699344.1764,3,-1.225,8.722,-1.644,4,0.019,0.358,0.15,5,8.881,-34.747,35.121
699344.1963,3,-0.852,11.464,-0.62,4,-0.034,0.337,0.15,5,9.515,-36.157,34.399
699344.2162,3,-0.881,3.436,1.754,4,-0.06,0.311,0.123,5,7.561,-34.064,33.664
699344.236,3,-1.072,10.387,-6.19,4,-0.014,0.275,0.133,5,8.192,-35.472,32.942
699344.2559,3,-0.024,16.408,-4.566,4,0.13,0.224,0.139,5,6.909,-33.368,34.387
699344.2758,3,-0.72,5.678,2.512,4,0.086,0.224,0.139,5,8.897,-34.033,35.12
699344.2956,3,0.177,7.92,-1.199,4,-0.093,0.305,0.166,5,7.564,-34.068,35.841
699344.3155,3,0.605,9.741,-5.413,4,0.016,0.236,0.14,5,7.564,-34.068,35.841
699344.3354,3,-0.574,9.007,-4.855,4,0.121,0.238,0.09,5,6.876,-34.795,34.39
699344.3552,3,-0.223,9.595,-3.199,4,0.091,0.315,0.083,5,6.192,-35.522,33.667
699344.3751,3,0.313,11.124,-1.165,4,0.012,0.392,0.088,5,6.859,-35.506,33.669
699344.395,3,-0.34,9.454,0.014,4,-0.031,0.397,0.073,5,5.525,-35.541,34.39
699344.4149,3,0.443,8.131,-1.223,4,-0.013,0.419,0.03,5,4.874,-34.843,34.387
699344.4347,3,-0.596,6.3,-4.034,4,0.045,0.432,-0.005,5,4.19,-35.574,35.117
699344.4546,3,-0.62,17.776,-7.676,4,0.15,0.43,-0.004,5,4.19,-35.574,35.117
699344.4744,3,-0.586,8.961,-1.18,4,0.159,0.43,-0.031,5,4.19,-35.574,35.117
699344.4943,3,-1.129,9.193,-0.39,4,-0.008,0.465,-0.026,5,4.19,-35.574,35.117
699344.5142,3,-1.027,8.844,-1.05,4,-0.022,0.349,-0.035,5,5.559,-34.114,34.386
699344.534,3,0.146,9.586,-3.494,4,0.003,0.202,-0.072,5,4.19,-35.574,35.117
699344.5539,3,-1.223,9.413,-3.197,4,0.102,0.138,-0.054,5,4.861,-35.561,36.569
699344.5738,3,-0.211,10.375,-2.388,4,0.102,0.161,-0.033,5,4.892,-34.131,35.114
699344.5936,3,0.167,9.258,-1.417,4,0.039,0.133,-0.038,5,4.207,-34.862,35.114
699344.6135,3,-1,10.543,-1.938,4,0.023,0.139,-0.036,5,4.208,-34.863,35.838
699344.6334,3,-0.912,6.221,-3.261,4,0.038,0.173,-0.042,5,5.577,-33.403,35.112
699344.6533,3,-0.424,17.85,-6.733,4,0.089,0.184,-0.027,5,3.54,-34.877,35.112
699344.6731,3,-0.364,9.93,0.469,4,0.106,0.193,-0.019,5,4.893,-34.132,35.838
699344.693,3,0.34,10.019,0.785,4,-0.055,0.241,-0.004,5,4.909,-33.418,35.112
699344.7129,3,0.684,8.04,-0.285,4,-0.042,0.193,-0.005,5,3.522,-35.588,34.387
699344.7327,3,-0.237,7.903,-3.852,4,0.066,0.127,-0.046,5,4.892,-34.131,35.114
699344.7526,3,-0.16,9.689,-5.85,4,0.178,0.15,-0.058,5,4.208,-34.863,35.838
699344.7725,3,-1.12,4.539,-5.226,4,0.206,0.224,-0.047,5,3.558,-34.164,35.835
699344.7923,3,0.376,19.291,-6.456,4,0.119,0.275,-0.052,5,3.589,-32.736,35.107
699344.8122,3,0.141,9.514,0.909,4,0.008,0.265,-0.068,5,3.574,-33.45,35.109
699344.832,3,-0.151,-2.826,0.457,4,-0.166,0.341,-0.063,5,4.276,-32.013,37.285
699344.8519,3,-0.38,20.303,-8.093,4,-0.074,0.255,-0.088,5,2.237,-33.484,35.107
699344.8718,3,1.292,11.773,-0.124,4,0.127,0.153,-0.091,5,2.908,-33.47,36.559
699344.8916,3,-0.321,3.826,1.737,4,-0.027,0.199,-0.038,5,2.919,-32.751,34.378
699344.9115,3,0.069,12.057,-4.451,4,-0.039,0.14,-0.043,5,3.557,-34.163,35.11
699344.9314,3,0.258,8.497,-4.245,4,0.111,-0.024,-0.115,5,4.254,-32.719,34.381
699344.9513,3,0.098,9.404,-4.51,4,0.08,-0.015,-0.093,5,3.592,-32.739,36.559
699344.9711,3,-0.464,9.954,-3.594,4,0.014,0.056,-0.044,5,5.627,-31.264,35.831
699344.991,3,-0.55,10.191,-1.606,4,-0.06,0.063,-0.038,5,3.621,-31.308,34.375
699345.0109,3,-0.11,10.571,0.514,4,-0.143,0.005,-0.019,5,2.267,-32.054,33.652
699345.0307,3,0.412,5.85,1.149,4,-0.148,-0.029,-0.013,5,2.904,-33.466,34.38
699345.0506,3,-0.1,7.394,-1.228,4,-0.069,-0.057,0.003,5,4.254,-32.719,34.381
699345.0705,3,1.151,18.513,-7.545,4,0.064,-0.062,0.012,5,4.274,-32.01,35.832
699345.0903,3,0.304,5.858,0.864,4,0.181,-0.033,0.008,5,3.625,-31.313,36.554
699345.1102,3,0.096,6.152,-1.957,4,0.05,0.118,0.05,5,3.653,-29.881,34.372
699345.13,3,1.184,13.072,-7.956,4,0.056,0.143,-0.004,5,2.235,-33.481,33.655
699345.1499,3,-0.335,7.513,-3.616,4,0.172,0.198,-0.048,5,2.269,-32.057,35.104
699345.1698,3,-0.122,8.827,-1.909,4,0.066,0.36,-0.019,5,2.887,-34.178,34.381
699345.1897,3,0.651,13.35,-2.35,4,-0.031,0.395,-0.04,5,2.219,-34.195,34.381
699345.2095,3,0.258,10.756,0.022,4,-0.006,0.3,-0.061,5,2.905,-33.467,35.107
699345.2294,3,0.625,4.283,0.854,4,0.007,0.272,-0.077,5,2.917,-32.748,32.925
699345.2493,3,-1.158,8.294,-5.434,4,0.078,0.27,-0.11,5,2.286,-31.343,35.101
699345.2691,3,-0.763,15.295,-7.528,4,0.237,0.259,-0.112,5,2.251,-32.768,34.378
699345.289,3,-1.153,7.93,-1.955,4,0.222,0.292,-0.085,5,1.601,-32.071,34.375
699345.3089,3,-0.957,10.382,-3.099,4,0.051,0.338,-0.069,5,1.585,-32.785,35.104
699345.3287,3,-1.771,8.978,-2.802,4,0.034,0.291,-0.077,5,1.602,-32.072,35.103
699345.3486,3,-0.742,10.686,-3.142,4,0.019,0.237,-0.094,5,1.602,-32.072,35.103
699345.3685,3,-1.606,10.153,-0.634,4,0.013,0.232,-0.069,5,0.903,-33.516,35.104
699345.3884,3,-0.239,8.849,-1.754,4,0.003,0.282,-0.031,5,0.917,-32.8,34.375
699345.4082,3,-0.206,8.705,-4.274,4,0.046,0.269,-0.043,5,0.934,-32.088,34.373
699345.4281,3,-1.172,13.306,-4.018,4,0.13,0.256,-0.063,5,0.885,-34.227,34.378
699345.4479,3,-0.12,3.68,-2.902,4,0.094,0.304,-0.063,5,1.584,-32.784,34.377
699345.4678,3,-0.294,15.771,-6.059,4,0.03,0.326,-0.043,5,2.252,-32.77,35.106
699345.4877,3,-0.244,9.322,-0.361,4,0.024,0.308,-0.041,5,1.62,-31.36,35.825
699345.5076,3,0.124,8.703,2.304,4,-0.109,0.327,-0.033,5,-0.418,-32.831,33.649
699345.5274,3,0.775,8.925,-0.881,4,-0.125,0.26,-0.035,5,-1.086,-32.849,34.372
699345.5473,3,0.696,8.542,-3.73,4,0.008,0.131,-0.087,5,-0.4,-32.121,35.1
699345.5672,3,1.29,10.509,-5.484,4,0.108,0.084,-0.114,5,0.868,-34.94,33.655
699345.587,3,0.424,8.2,-2.879,4,0.106,0.094,-0.108,5,-0.417,-32.834,35.101
699345.6069,3,-0.108,7.896,-3.36,4,0.008,0.129,-0.105,5,0.22,-34.247,35.831
699345.6268,3,0.074,6.226,-4.525,4,-0.05,0.089,-0.11,5,0.269,-32.108,35.826
699345.6466,3,-0.402,20.523,-5.149,4,-0.053,0.028,-0.131,5,0.267,-32.106,35.101
699345.6665,3,0.199,5.118,2.352,4,-0.096,-0.016,-0.109,5,-0.432,-33.548,35.103
699345.6864,3,-0.598,5.252,1.158,4,-0.25,0.037,-0.057,,,,
699345.7062,3,0.428,12.395,-4.185,4,-0.118,-0.055,-0.104,5,0.934,-32.086,33.649
699345.7261,3,1.161,10.074,-3.053,4,0.08,-0.213,-0.121,5,0.233,-33.531,34.377
699345.746,3,0.287,7.03,-2.922,4,0.057,-0.211,-0.071,5,0.89,-34.232,36.557
699345.7658,3,-0.014,10.148,-4.599,4,0.039,-0.147,-0.081,5,2.87,-34.892,34.383
699345.7857,3,-1.35,11.464,-3.948,4,0.028,-0.094,-0.107,5,1.537,-34.926,35.109
699345.8056,3,0.091,8.353,-0.282,4,-0.025,-0.042,-0.083,5,0.233,-33.53,33.652
699345.8254,3,-0.572,7.791,-1.608,4,-0.102,-0.045,-0.03,5,0.867,-34.938,32.927
699345.8453,3,-0.361,15.226,-2.8,4,-0.074,-0.125,-0.035,5,1.569,-33.498,34.378
699345.8652,3,-0.057,3.314,-1.67,4,-0.002,-0.197,-0.053,5,1.569,-33.496,33.653
699345.885,3,0.129,13.393,-4.386,4,0.005,-0.147,-0.007,5,0.902,-33.513,33.652
699345.9049,3,0.658,12.27,-1.029,4,0.05,-0.138,0.012,5,0.233,-33.531,34.377
699345.9248,3,0.1,6.547,-2.84,4,-0.031,-0.075,0.008,5,0.168,-36.383,33.659
699345.9446,3,0.45,14.182,-3.855,4,-0.003,0.035,0.03,5,0.217,-34.244,34.378
699345.9645,3,-1.218,4.941,-0.598,4,0.121,-0.033,0.003,5,0.851,-35.654,34.383
699345.9844,3,-0.041,10.095,-2.792,4,-0.085,0.054,-0.009,5,2.217,-34.192,32.928
699346.0042,3,-0.562,10.868,-5.085,4,-0.003,0.084,-0.018,5,1.584,-32.782,33.652
699346.0241,3,0.124,8.916,-2.175,4,0.045,0.085,0.006,5,0.217,-34.242,33.653
699346.044,3,-0.735,7.554,-1.409,4,0.001,0.081,0.002,5,0.885,-34.227,34.378
699346.0638,3,-0.203,12.105,-2.989,4,-0.022,0.05,-0.021,5,0.835,-36.365,32.932
699346.0837,3,-0.526,6.03,-1.874,4,-0.006,-0.001,-0.01,5,4.846,-36.275,36.571
699346.1036,3,0.163,13.405,-3.951,4,0.005,-0.027,0.028,5,4.811,-37.7,35.847
699346.1234,3,-0.567,10.174,-1.62,4,0.018,-0.09,0.017,5,0.217,-34.244,34.378
699346.1433,3,0.407,9.232,-1.232,4,-0.034,-0.061,0.026,5,0.851,-35.652,33.658
699346.1632,3,0.211,8.554,-1.397,4,-0.016,-0.066,0.073,5,2.184,-35.619,32.933
699346.183,3,0.196,9.923,-3.099,4,0.018,-0.09,0.047,5,0.186,-35.674,35.835
699346.2029,3,0.007,11.454,-4.542,4,0.08,-0.082,0.011,5,0.87,-34.943,35.107
699346.2228,3,-0.431,8.138,-2.378,4,0.091,0.004,0.042,5,0.868,-34.941,34.38
699346.2426,3,-0.409,7.954,-4.24,4,0.053,0.096,0.064,5,0.217,-34.242,33.653
699346.2625,3,0.294,10.387,-2.725,4,0.061,0.125,0.05,5,0.905,-33.517,35.829
699346.2824,3,0.144,5.245,-2.149,4,0.044,0.176,0.037,5,0.2,-34.958,34.38
699346.3022,3,-1.05,11.746,-5.76,4,0.035,0.267,0.051,5,0.217,-34.242,33.653
699346.3221,3,-0.333,12.634,-2.902,4,0.104,0.298,0.047,5,0.887,-34.229,35.106
699346.342,3,-0.943,7.815,-0.134,4,0.019,0.341,0.048,5,-1.82,-35.718,34.378
699346.3618,3,-0.39,10.77,-1.481,4,-0.022,0.351,0.062,5,-0.464,-34.976,35.831
699346.3817,3,-0.924,7.624,-1.874,4,0.052,0.276,0.039,5,0.888,-34.23,35.831
699346.4016,3,-1.005,9.382,-3.374,4,0.078,0.224,-0.003,5,-1.118,-34.276,34.375
699346.4214,3,-0.625,11.533,-5.042,4,0.133,0.178,0.002,5,-1.131,-34.995,36.555
699346.4413,3,-0.318,9.925,-2.299,4,0.144,0.202,0.028,5,-0.467,-34.973,34.378
699346.4612,3,-1.254,7.956,-2.467,4,0.058,0.227,0.04,5,-1.819,-35.719,35.106
699346.481,3,0.242,12.881,-1.436,4,0.014,0.226,0.012,5,-1.151,-35.704,35.107
699346.5003,3,-0.589,6.403,-0.751,4,-0.009,0.252,0.031,5,-1.151,-35.704,35.107
699346.5208,3,-0.256,16.286,-4.353,4,0,0.314,0.059,5,-2.484,-35.738,35.831
699346.5406,3,-0.294,7.674,-0.187,4,0.086,0.305,0.028,5,-2.466,-35.027,36.554
699346.5605,3,0.488,7.018,-3.242,4,0.056,0.387,0.036,5,-1.784,-34.294,35.826
699346.5804,3,0.849,9.641,-4.508,4,0.11,0.406,0.007,5,-2.454,-34.308,34.373
699346.6002,3,-0.141,8.952,-3.788,4,0.133,0.452,-0.044,5,-1.131,-34.995,36.555
699346.6201,3,-0.909,25.945,-1.589,4,0.069,0.536,-0.06,5,-3.821,-35.77,35.828
699346.64,3,0.368,-2.96,4.625,4,0.014,0.607,-0.046,5,-3.12,-34.326,35.1
699346.6599,3,-0.376,-0.706,-5.286,4,-0.052,0.563,-0.041,5,-5.157,-35.8,34.373
699346.6797,3,0.237,18.169,-13.046,4,0.216,0.275,-0.145,5,-3.821,-35.77,35.828
699346.6996,3,0.467,3.642,-6.296,4,0.325,0.214,-0.179,5,-4.488,-35.785,35.103
699346.7195,3,-0.562,8.629,-3.429,4,0.058,0.355,-0.091,5,-4.437,-33.646,35.097
699346.7393,3,-1.062,14.144,-0.955,4,-0.126,0.39,-0.098,5,-4.439,-33.644,34.369
699346.7592,3,-1.503,8.645,2.07,4,-0.201,0.318,-0.154,5,-3.104,-33.614,35.098
699346.779,3,-0.313,9.957,-1.084,4,-0.182,0.256,-0.105,5,-3.819,-35.771,36.554
699346.7989,3,-0.16,8.882,-2.778,4,-0.056,-0.006,-0.109,5,-3.807,-35.054,34.372
699346.8188,3,0.656,8.652,-1.517,4,0.024,-0.076,-0.137,5,-3.154,-35.753,35.104
699346.8386,3,0.742,10.761,-2.218,4,0.024,-0.083,-0.118,5,-4.489,-35.783,34.375
699346.8585,3,0.065,10.973,-2.029,4,0.028,0.056,-0.093,5,-4.472,-35.071,34.372
699346.8784,3,-0.871,8.258,-2.544,4,0.022,0.221,-0.097,5,-4.486,-35.786,35.828
699346.8982,3,-0.881,16.03,-10.055,4,0.023,0.32,-0.142,5,-4.486,-35.786,35.828
699346.9181,3,0.55,9.894,-0.921,4,0.036,0.321,-0.158,5,-4.486,-35.786,35.828
699346.938,3,0.223,6.731,5.975,4,-0.174,0.346,-0.121,5,-3.151,-35.756,36.555
699346.9579,3,0.139,13.476,0.998,4,-0.39,0.36,-0.123,5,-4.489,-35.783,34.375
699346.9777,3,1.273,9.009,-2.694,4,-0.131,0.325,-0.141,5,-4.518,-37.213,35.831
699346.9976,3,0.622,7.827,-4.752,4,0.11,0.14,-0.165,5,-3.854,-37.195,35.106
699347.0175,3,0.433,9.184,-6.53,4,0.211,0.051,-0.235,5,-3.804,-35.057,35.825
699347.0373,3,0.692,9.622,-5.647,4,0.174,0.06,-0.28,5,-5.19,-37.227,34.377
699347.0572,3,-0.672,8.418,-3.553,4,0.064,0.164,-0.253,5,-3.851,-37.198,36.557
699347.077,3,-0.68,9.641,-2.156,4,-0.074,0.225,-0.248,5,-5.153,-35.805,36.552
699347.0969,3,-0.38,7.6,-2.386,4,-0.114,0.139,-0.256,5,-2.434,-33.598,35.825
699347.1168,3,-1.07,12.33,-3.427,4,-0.076,0.037,-0.274,5,-2.484,-35.738,35.831
699347.1366,3,-0.297,5.829,-3.159,4,-0.011,-0.086,-0.29,5,-1.802,-35.007,35.103
699347.1565,3,0.529,13.713,-4.443,4,0.027,-0.2,-0.263,5,-3.139,-35.039,34.373
699347.1764,3,0.663,10.136,-1.022,4,0.024,-0.338,-0.242,5,-2.483,-35.739,36.557
699347.1962,3,0.428,9.638,-1.213,4,-0.069,-0.346,-0.23,5,-1.163,-36.421,36.56
699347.2161,3,-0.053,9.251,-3.135,4,-0.036,-0.338,-0.212,5,-0.497,-36.401,35.11
699347.236,3,-0.165,9.172,-3.068,4,0.001,-0.406,-0.218,5,-0.481,-35.689,35.834
699347.2559,3,0.436,11.978,-3.857,4,0.003,-0.419,-0.217,5,0.838,-36.369,35.112
699347.2757,3,0.897,8.085,-1.366,4,-0.016,-0.414,-0.182,5,-0.496,-36.403,35.835
699347.2956,3,0.292,9.488,-3.02,4,-0.07,-0.39,-0.157,5,-0.496,-36.403,35.835
699347.3155,3,0.558,10.033,-3.438,4,-0.016,-0.34,-0.163,5,0.824,-37.085,36.565
699347.3353,3,0.074,6.657,-2.63,4,0.006,-0.263,-0.179,5,2.136,-37.762,34.39
699347.3552,3,-1.196,7.779,-5.578,4,-0.013,-0.176,-0.184,5,1.521,-35.64,35.837
699347.3751,3,0.258,15.644,-2.807,4,0.011,-0.159,-0.169,5,2.171,-36.337,35.115
699347.3949,3,-0.584,8.014,1.216,4,-0.067,-0.27,-0.146,5,1.503,-36.351,34.386
699347.4148,3,-0.742,8.396,-2.381,4,-0.157,-0.269,-0.152,5,1.552,-34.21,34.38
699347.4346,3,-0.263,9.411,-2.678,4,-0.032,-0.358,-0.146,5,3.474,-37.73,35.12
699347.4545,3,-0.562,8.774,-3.01,4,0.018,-0.593,-0.143,5,3.49,-37.013,33.665
699347.4744,3,0.017,10.765,-4.3,4,0.012,-0.728,-0.13,5,4.225,-34.149,35.837
699347.4942,3,0.093,9.33,-2.558,4,0.011,-0.881,-0.087,5,5.542,-34.827,33.662
699347.5141,3,0.084,8.712,-2.563,4,-0.038,-0.965,-0.044,5,4.143,-37.717,35.846
699347.534,3,1.608,12.055,-3.309,4,-0.067,-0.997,-0.016,5,5.542,-34.827,33.662
699347.5539,3,0.926,5.831,-1.881,4,-0.041,-0.952,-0.01,5,5.492,-36.964,32.941
699347.5737,3,-0.756,10.16,-4.649,4,-0.042,-0.833,-0.011,5,6.827,-36.934,34.396
699347.5936,3,2.553,16.262,-1.74,4,0.018,-0.655,0,5,8.145,-37.616,34.399
699347.6135,3,0.388,6.171,1.689,4,-0.038,-0.612,0.047,5,7.494,-36.916,32.944
699347.6333,3,0.203,8.432,-2.479,4,-0.078,-0.348,0.007,5,8.145,-37.616,34.399
699347.6532,3,-0.747,11.579,-4.52,4,0.063,-0.305,-0.016,5,7.478,-37.631,33.673
699347.6731,3,-1.065,9.299,-3.285,4,0.117,-0.445,-0.066,5,8.145,-37.614,33.675
699347.6929,3,-1.953,6.765,-3.309,4,0.067,-0.466,-0.081,5,8.829,-36.882,32.947
699347.7128,3,-1.823,8.392,-4.714,4,0.03,-0.508,-0.032,5,8.177,-36.186,32.944
699347.7327,3,-2.13,10.112,-3.391,4,0.014,-0.648,0.014,5,10.165,-36.852,33.676
699347.7525,3,-1.986,13.515,-0.598,4,-0.069,-0.776,0.046,5,10.181,-36.137,32.947
699347.7724,3,-1.953,3.742,0.354,4,-0.12,-0.866,0.085,5,9.496,-36.864,32.222
699347.7923,3,-1.85,12.739,-4.542,4,-0.059,-0.908,0.128,5,10.165,-36.853,34.401
699347.8121,3,0.342,13.424,-1.637,4,0.101,-0.948,0.18,5,11.484,-37.532,32.953
699347.832,3,0.404,6.374,0.687,4,0.068,-0.965,0.223,5,12.146,-37.509,30.774
699347.8519,3,-0.436,8.021,-2.931,4,0.058,-0.767,0.26,5,11.484,-37.532,32.953
699347.8717,3,1.007,11.861,-5.762,4,0.166,-0.688,0.285,5,10.814,-37.544,32.225
699347.8916,3,0.519,8.98,-2.991,4,0.19,-0.655,0.26,5,11.548,-34.676,32.219
699347.9115,3,0.234,9.382,-3.216,4,0.09,-0.544,0.265,5,10.815,-37.547,32.951
699347.9313,3,1.68,12.467,-3.611,4,0.046,-0.403,0.293,5,12.166,-36.801,32.951
699347.9512,3,0.124,10.665,-0.715,4,0.012,-0.406,0.287,5,11.497,-36.812,30.772
699347.9711,3,1.799,8.968,0.172,4,-0.053,-0.369,0.252,5,12.198,-35.374,32.948
699347.991,3,-0.778,5.559,-2.01,4,-0.049,-0.341,0.229,5,12.132,-38.223,32.228
699348.0108,3,0.742,15.836,-4.747,4,0.066,-0.287,0.209,5,12.134,-38.226,32.954
699348.0307,3,-0.816,8.593,-3.496,4,0.149,-0.385,0.211,5,11.47,-38.245,33.682
699348.0505,3,0.562,8.53,-2.972,4,0.084,-0.337,0.19,5,11.499,-36.813,31.5
699348.0704,3,1.156,9.291,-2.713,4,0.061,-0.248,0.209,5,11.516,-36.102,32.224
699348.0903,3,-0.94,9.263,-2.675,4,0.014,-0.177,0.209,5,11.467,-38.24,32.228
699348.1102,3,-0.651,10.521,-2.704,4,0.006,-0.094,0.161,5,12.167,-36.804,34.404
699348.13,3,-0.957,7.834,-1.96,4,0.019,-0.152,0.152,5,11.432,-39.664,30.78
699348.1499,3,-1.933,11.17,-2.343,4,0.024,-0.24,0.173,5,12.164,-36.797,31.5
699348.1698,3,-0.234,12.67,-1.773,4,0.055,-0.39,0.189,5,10.133,-38.278,34.404
699348.1896,3,-0.818,6.386,1.256,4,0.05,-0.461,0.198,5,11.469,-38.243,32.954
699348.2095,3,-1.68,7.973,-2.946,4,0.03,-0.444,0.213,5,11.481,-37.526,30.774
699348.2294,3,0.785,17.86,-3.919,4,0.151,-0.408,0.233,5,11.482,-37.527,31.502
699348.2492,3,-1.409,4.75,0.069,4,0.187,-0.406,0.283,5,10.114,-38.986,32.227
699348.2691,3,0.194,8.449,-4.235,4,0.105,-0.277,0.248,5,11.516,-36.101,31.499
699348.289,3,-0.842,10.421,-4.166,4,0.199,-0.213,0.271,5,9.45,-39.008,33.681
699348.3088,3,-1.177,7.829,-1.85,4,0.182,-0.148,0.271,5,10.802,-38.261,34.406
699348.3287,3,-1.469,9.686,-4.532,4,0.105,-0.034,0.249,5,12.199,-35.376,33.676
699348.3486,3,-0.814,10.77,-4.35,4,0.157,0.038,0.256,5,10.817,-37.549,33.679
699348.3685,3,-0.175,8.14,-1.754,4,0.146,0.054,0.273,5,10.147,-37.564,32.95
699348.3883,3,-0.579,13.385,-1.792,4,0.06,0.096,0.261,5,8.778,-39.018,32.225
699348.4082,3,-1.153,3.663,-0.723,4,0.062,0.129,0.243,5,8.113,-39.041,34.402
699348.428,3,-0.163,11.99,-4.415,4,0.1,0.161,0.239,5,10.117,-38.992,34.406
699348.4479,3,-0.402,12.988,-3.776,4,0.182,0.145,0.235,5,8.8,-38.312,35.13
699348.4678,3,-0.261,8.279,-1.285,4,0.148,0.137,0.239,5,10.117,-38.991,33.681
699348.4876,3,-0.002,7.033,-2.11,4,0.088,0.143,0.23,5,9.467,-38.295,34.404
699348.5075,3,-1.541,3.778,-4.487,4,0.082,0.109,0.204,5,8.145,-37.616,34.399
699348.5274,3,0.266,16.35,-3.63,4,0.097,0.105,0.167,5,8.765,-39.735,33.682
699348.5472,3,-1.582,5.149,0.421,4,0.042,0.115,0.206,5,8.781,-39.023,33.679
699348.5671,3,0.148,10.27,-2.675,4,-0.05,0.228,0.211,5,7.48,-37.634,35.126
699348.587,3,-0.524,10.49,-4.219,4,0.031,0.137,0.195,5,7.481,-37.636,35.851
699348.6068,3,0.531,11.131,-2.438,4,0.051,0.159,0.154,5,6.796,-38.361,35.127
699348.6267,3,-0.203,4.271,-1.247,4,0.016,0.202,0.158,5,6.16,-36.951,34.395
699348.6466,3,-0.251,14.646,-4.443,4,0.027,0.291,0.174,5,7.478,-37.631,33.673
699348.6665,3,-0.05,10.662,-0.964,4,0.08,0.298,0.146,5,6.845,-36.223,35.123
699348.6863,3,0.177,8.767,-1.297,4,0.008,0.36,0.13,5,6.778,-39.073,34.401
699348.7062,3,-0.737,9.715,-3.34,4,0.017,0.38,0.124,5,4.81,-37.698,35.123
699348.726,3,0.141,9.531,-2.443,4,0.061,0.291,0.084,5,6.781,-39.076,35.854
699348.7459,3,0.01,9.038,-2.139,4,0.045,0.235,0.052,5,6.143,-37.665,34.396
699348.7658,3,0.242,10.677,-2.596,4,0.023,0.248,0.069,5,4.126,-38.426,35.123
699348.7856,3,0.079,6.64,-0.16,4,0.031,0.254,0.074,5,4.146,-37.723,38.025
699348.8055,3,-1.122,9.746,-5.587,4,0.025,0.227,0.063,5,6.133,-38.382,37.303
699348.8254,3,-0.227,6.559,-4.075,4,0.095,0.222,0.037,5,4.144,-37.718,36.572
699348.8452,3,-0.627,8.923,-3.852,4,0.094,0.21,0.052,5,4.144,-37.72,37.299
699348.8651,3,-0.56,13.591,-2.371,4,0.019,0.282,0.073,5,4.094,-39.854,35.852
699348.885,3,-0.1,8.839,0.254,4,-0.044,0.325,0.068,5,4.161,-37.004,36.571
699348.9048,3,0.462,10.411,-1.007,4,-0.069,0.399,0.067,5,3.461,-38.443,35.846
699348.9247,3,-0.368,7.2,-2.319,4,0.03,0.353,0.048,,,,
699348.9446,3,0.318,8.928,-5.207,4,0.097,0.304,-0.011,5,3.442,-39.156,35.123
699348.9645,3,0.213,11.074,-4.678,4,0.152,0.292,-0.044,5,3.445,-39.159,36.574
699348.9843,3,0.23,9.777,-3.041,4,0.102,0.346,-0.036,5,2.792,-38.46,35.844
699349.0042,3,-0.555,10.449,-1.641,4,-0.022,0.407,-0.037,5,2.806,-37.747,35.118
699349.0241,3,-1.216,13.457,0.005,4,-0.069,0.395,-0.066,5,2.159,-37.057,38.02
699349.0439,3,-0.239,3.022,-0.462,4,-0.094,0.325,-0.093,5,1.491,-37.068,36.566
699349.0638,3,0.203,16.118,-3.922,4,-0.061,0.236,-0.082,5,3.429,-39.871,36.577
699349.0836,3,0.581,9.399,0.234,4,0.039,0.099,-0.079,5,2.176,-36.345,38.019
699349.1035,3,0.1,7.401,0.146,4,-0.03,0.071,-0.074,5,3.447,-39.163,38.026
699349.1234,3,0.481,11.196,-4.637,4,0.041,0.049,-0.072,5,1.46,-38.498,38.022
699349.1432,3,-0.742,8.449,-5.937,4,0.179,-0.021,-0.11,5,1.472,-37.781,35.841
699349.1631,3,-0.371,8.167,-5.865,4,0.162,0.037,-0.129,5,2.795,-38.466,38.023
699349.183,3,-0.732,8.224,-4.487,4,0.091,0.106,-0.104,5,2.159,-37.057,38.02
699349.2028,3,-0.27,9.902,-2.536,4,-0.008,0.158,-0.072,5,3.481,-37.741,39.476
699349.2227,3,-0.392,10.193,-2.371,4,-0.072,0.142,-0.065,5,1.474,-37.784,37.294
699349.2426,3,-0.893,5.563,-1.271,4,-0.039,0.114,-0.081,5,5.42,-40.544,38.762
699349.2625,3,-1.213,10.861,-5.556,4,0.002,0.101,-0.081,5,4.753,-40.562,40.213
699349.2823,3,-0.601,16.24,-5.465,4,0.107,0.035,-0.072,5,6.122,-39.105,40.936
699349.3016,3,-0.416,4.417,1.797,4,0.046,0.008,-0.035,5,0.761,-39.944,39.478
699349.3221,3,-0.67,11.375,-2.955,4,-0.07,0.054,-0.011,5,2.095,-39.912,39.481
699349.3419,3,-0.665,9.799,-4.034,4,0.029,-0.055,-0.032,5,2.095,-39.912,39.481
699349.3618,3,-0.665,7.222,-3.781,4,0.039,-0.089,-0.032,5,2.095,-39.912,39.481
699349.3816,3,-1.127,10.284,-4.175,4,0.024,-0.068,-0.007,5,2.161,-37.059,38.748
699349.4015,3,0.522,12.421,-2.101,4,-0.004,-0.053,0.004,5,2.129,-38.484,38.751
699349.4214,3,0.132,8.071,0.849,4,-0.085,-0.022,0.037,5,2.777,-39.177,37.299
699349.4412,3,0.038,13.196,-0.919,4,-0.129,0.054,0.046,5,2.158,-37.054,37.294
699349.4611,3,0.395,4.637,-1.833,4,-0.036,0.066,0.013,5,2.161,-37.059,38.748
699349.481,3,0.17,12.055,-5.365,4,0.038,0.09,0.022,5,0.809,-37.804,38.019
699349.5008,3,1.072,12.074,-4.164,4,0.095,0.081,0.013,5,2.161,-37.059,38.748
699349.5207,3,1.249,6.504,2.713,4,0.018,0.136,0.004,5,2.161,-37.059,38.748
699349.5406,3,0.96,8.932,-5.252,4,-0.056,0.265,0.014,5,2.162,-37.062,40.199
699349.5605,3,1.194,9.562,-3.623,4,0.033,0.278,-0.047,5,0.16,-37.111,40.196
699349.5803,3,-0.491,6.104,-2.457,4,0.088,0.275,-0.097,5,1.462,-38.499,38.75
699349.6002,3,-0.136,11.62,-4.771,4,-0.004,0.298,-0.119,5,2.193,-35.634,39.47
699349.6201,3,-0.294,9.669,-2.694,4,0.025,0.187,-0.13,5,1.524,-35.646,38.016
699349.6399,3,-0.373,9.346,-0.44,4,-0.028,0.078,-0.121,5,1.523,-35.643,37.289
699349.6598,3,-1.496,5.405,-1.06,4,-0.075,0.012,-0.152,5,1.543,-34.937,39.465
699349.6796,3,-1.376,11.23,-4.812,4,-0.01,-0.083,-0.145,5,3.546,-34.888,39.468
699349.6995,3,-1.117,13.823,-3.388,4,0.072,-0.189,-0.113,5,2.161,-37.061,39.473
699349.7194,3,-0.818,8.511,-0.849,4,0.002,-0.276,-0.075,5,2.846,-36.33,38.747
699349.7392,3,-0.376,8.609,-0.682,4,-0.06,-0.246,-0.033,5,2.191,-35.631,38.017
699349.7591,3,-0.581,8.26,-3.419,4,-0.01,-0.262,-0.01,5,2.878,-34.903,38.742
699349.779,3,-0.814,11.301,-4.412,4,0.042,-0.231,-0.02,5,3.529,-35.6,39.471
699349.7989,3,-1.395,8.844,-2.96,4,0.074,-0.15,0,5,4.863,-35.565,38.022
699349.8187,3,-0.814,10.344,-2.713,4,0.04,-0.022,0.042,5,3.56,-34.167,37.288
699349.8386,3,-0.56,9.327,-1.699,4,0.009,0.001,0.064,5,2.878,-34.903,38.742
699349.8585,3,-0.708,9.583,-0.316,4,-0.036,0.034,0.07,5,4.181,-36.299,39.474
699349.8783,3,-0.988,5.803,-3.534,4,-0.038,0.068,0.072,5,3.549,-34.891,40.921
699349.8982,3,-0.371,15.943,-5.374,4,0.062,0.076,0.086,5,3.58,-33.461,39.465
699349.9181,3,0.136,8.865,-1.149,4,0.104,0.03,0.096,5,3.563,-34.174,39.467
699349.9379,3,1.065,9.086,-1.534,4,-0.015,0.107,0.106,5,2.861,-35.616,38.745
699349.9578,3,0.613,9.602,-2.01,4,0.005,0.128,0.113,5,2.924,-32.758,37.283
699349.9777,3,-0.572,0.876,-4.24,4,0.042,0.1,0.069,5,1.543,-34.935,38.741
699349.9975,3,0.002,20.652,-5.793,4,0.078,0.101,0.047,5,3.563,-34.174,39.467
699350.0174,3,-0.208,5.331,-0.211,4,0.102,0.076,0.061,5,3.563,-34.172,38.742
699350.0372,3,-0.495,7.588,-2.831,4,-0.032,0.176,0.079,5,2.911,-33.478,39.464
699350.0571,3,-0.763,15.199,-4.577,4,0.022,0.115,0.062,5,2.242,-33.492,38.011
699350.077,3,-0.878,1.909,-1.603,4,0.044,0.071,0.044,5,1.576,-33.51,39.462
699350.0969,3,-0.412,14.568,-4.97,4,-0.028,0.151,0.075,5,2.895,-34.189,38.741
699350.1167,3,-0.534,9.456,-1.744,4,0.038,0.145,0.089,5,2.243,-33.493,38.739
699350.1366,3,-0.68,6.765,-0.787,4,-0.042,0.193,0.092,5,4.262,-32.732,39.465
699350.1565,3,0.318,11.959,-3.467,4,-0.038,0.252,0.103,5,2.208,-34.918,38.014
699350.1763,3,-0.916,8.332,-2.35,4,0.035,0.25,0.083,5,1.559,-34.222,39.464
699350.1962,3,-0.412,10.452,-3.513,4,0.014,0.358,0.066,5,-0.394,-32.132,39.456
699350.2161,3,0.019,9.779,-3.053,4,0.014,0.423,0.063,5,0.241,-33.543,39.461
699350.2359,3,-0.237,11.079,-1.567,4,-0.005,0.493,0.068,5,0.859,-35.666,39.467
699350.2558,3,-0.029,9.38,-2.043,4,-0.033,0.542,0.053,5,0.911,-33.528,40.187
699350.2757,3,-0.184,9.121,-2.455,4,-0.041,0.553,0.008,5,0.243,-33.545,40.187
699350.2955,3,-0.931,7.356,-2.441,4,0.042,0.547,-0.011,5,-0.459,-34.985,39.462
699350.3154,3,-0.285,14.917,-2.67,4,-0.009,0.528,-0.004,5,-0.443,-34.27,38.736
699350.3353,3,-0.639,8.935,-0.201,4,-0.01,0.476,-0.036,5,-0.395,-32.129,38.004
699350.3551,3,0.189,8.916,-1.809,4,-0.036,0.476,-0.029,5,-2.463,-35.033,38.734
699350.375,3,0.876,9.526,-3.429,4,0.016,0.386,-0.057,5,-0.412,-32.841,38.005
699350.3949,3,-0.105,7.963,-2.501,4,0.066,0.36,-0.107,5,-1.747,-32.875,38.73
699350.4147,3,0.285,8.834,-3.429,4,0.055,0.393,-0.12,5,-3.116,-34.334,38.004
699350.4346,3,0.4,10.349,-4.604,4,0.061,0.407,-0.13,5,-0.429,-33.553,37.28
699350.4545,3,-0.065,9.442,-3.546,4,0.077,0.362,-0.152,5,-3.082,-32.91,39.453
699350.4743,3,0.122,9.057,-3.472,4,0.025,0.344,-0.197,5,-1.75,-32.869,36.549
699350.4942,3,0.084,6.231,-2.055,4,-0.024,0.304,-0.218,5,-2.415,-32.89,38.002
699350.5141,3,-0.45,14.62,-3.991,4,-0.034,0.243,-0.198,5,-2.399,-32.178,38
699350.5339,3,0.419,10.122,-0.672,4,-0.033,0.126,-0.223,5,-1.714,-31.448,38.725
699350.5538,3,-0.103,7.439,-1.481,4,-0.064,0.056,-0.225,5,-3.069,-32.191,37.273
699350.5737,3,-0.256,9.255,-3.434,4,-0.017,-0.066,-0.226,5,-2.432,-33.6,36.551
699350.5936,3,-0.045,9.263,-4.032,4,0.03,-0.156,-0.261,5,-1.765,-33.585,37.277
699350.6134,3,-1.51,10.232,-1.61,4,0.014,-0.153,-0.242,5,-1.096,-33.572,38.005
699350.6333,3,-0.495,10.588,-1.271,4,-0.042,-0.097,-0.204,5,-1.096,-33.572,38.005
699350.6532,3,-0.56,9.593,-1.412,4,-0.059,-0.116,-0.184,5,-0.378,-31.415,38
699350.673,3,-1.228,11.119,-2.355,4,-0.044,-0.16,-0.192,5,-1.114,-34.282,37.28
699350.6929,3,-1.132,6.446,-2.685,4,-0.027,-0.218,-0.189,5,-1.082,-32.854,36.551
699350.7128,3,0.081,15.69,-3.848,4,-0.013,-0.264,-0.14,5,0.255,-32.826,38.007
699350.7326,3,-0.27,8.789,-0.596,4,-0.019,-0.351,-0.088,5,0.941,-32.098,38.733
699350.7525,3,0.538,9.523,-1.644,4,-0.096,-0.324,-0.059,5,0.891,-34.236,38.01
699350.7724,3,0.268,8.719,-2.553,4,-0.022,-0.337,-0.053,5,0.253,-32.822,36.554
699350.7922,3,-0.22,6.848,-3.714,4,0.024,-0.334,-0.061,5,0.906,-33.519,36.555
699350.8121,3,-0.036,18.008,-3.663,4,0.057,-0.281,-0.044,5,1.573,-33.502,36.557
699350.832,3,2.319,17.171,-0.014,4,0.046,-0.241,-0.022,5,0.253,-32.823,37.28
699350.8518,3,1.56,-3.192,3.561,4,-0.056,-0.163,-0.004,5,1.605,-32.076,36.554
699350.8717,3,-0.866,12.151,-5.738,4,0.016,-0.175,-0.064,5,0.253,-32.822,36.554
699350.8916,3,-0.146,5.035,-8.303,4,0.289,-0.247,-0.085,5,0.925,-32.811,38.734
699350.9114,3,0.584,15.549,-9.188,4,0.273,-0.244,-0.058,5,3.56,-34.166,36.562
699350.9313,3,0.27,8.401,-1.496,4,0.176,-0.147,0.008,5,1.588,-32.788,36.555
699350.9512,3,0.33,8.504,-0.187,4,-0.1,-0.045,0,5,2.939,-32.042,35.829
699350.9711,3,-0.108,9.952,-2.249,4,-0.124,0.007,-0.009,5,0.922,-32.806,37.28
699350.9909,3,-0.617,11.222,-2.874,4,-0.022,-0.112,-0.032,5,4.277,-32.016,38.011
699351.0108,3,-1.027,10.38,-2.094,4,0.025,-0.193,-0.048,5,3.609,-32.027,36.557
699351.0306,3,-0.084,8.332,-1.443,4,0.039,-0.276,-0.032,5,2.272,-32.062,37.282
699351.0505,3,-0.347,4.877,-3.711,4,0.057,-0.359,0.001,5,0.938,-32.092,36.552
699351.0704,3,-0.708,23.739,-4.3,4,0.083,-0.38,0.015,5,0.969,-30.664,35.822
699351.0902,3,-1.644,-0.033,-3.884,4,0.055,-0.385,0.02,5,0.922,-32.805,36.554
699351.1101,3,-0.656,11.967,-1.589,4,-0.042,-0.243,0.058,5,4.291,-31.296,35.829
699351.13,3,-0.641,11.249,2.826,4,-0.114,-0.27,0.15,5,3.609,-32.028,37.283
699351.1498,3,-0.445,9.693,3.228,4,-0.295,-0.249,0.173,5,2.271,-32.059,35.829
699351.1697,3,0.026,8.121,-1.378,4,-0.163,-0.139,0.183,5,1.604,-32.074,35.828
699351.1896,3,0.112,9.935,-5.372,4,0.079,-0.203,0.16,5,2.957,-31.329,36.552
699351.2094,3,-0.134,9.598,-5.827,4,0.24,-0.134,0.139,5,2.255,-32.773,36.557
699351.2293,3,0.218,8.069,-5.707,4,0.204,0,0.132,5,2.924,-32.756,36.557
699351.2492,3,-0.038,8.461,-4.032,4,0.111,0.248,0.162,5,0.955,-31.378,36.549
699351.2691,3,-0.761,9.112,-4.168,4,0.009,0.429,0.176,5,1.602,-32.072,35.103
699351.2889,3,-1.103,8.061,-3.015,4,-0.05,0.54,0.118,5,0.938,-32.092,36.552
699351.3088,3,-0.763,10.483,-1.316,4,-0.065,0.506,0.09,5,0.25,-32.819,35.103
699351.3286,3,-0.687,11.234,-2.402,4,-0.043,0.431,0.094,5,-1.099,-33.566,35.826
699351.3485,3,-0.562,11.95,-2.989,4,-0.01,0.32,0.067,5,1.587,-32.787,35.829
699351.3684,3,0.026,6.358,-0.127,4,0.084,0.216,0.04,5,-1.082,-32.855,37.277
699351.3882,3,-0.292,9.129,-3.082,4,0.006,0.107,0.048,5,0.937,-32.091,35.826
699351.4081,3,-0.488,10.469,-5.432,4,0.051,0.084,0.015,5,0.237,-33.534,35.829
699351.428,3,-1.101,10.914,-2.905,4,0.077,0.093,0.012,5,-0.415,-32.835,35.826
699351.4478,3,0.144,10.019,-0.787,4,-0.006,0.169,0.029,5,-1.082,-32.855,37.277
699351.4677,3,0.134,9.026,-0.543,4,-0.087,0.188,0.035,5,-1.085,-32.851,35.1
699351.4876,3,0.558,11.419,-1.184,4,-0.08,0.231,0.012,5,0.27,-32.109,36.552
699351.5074,3,0.074,5.314,-2.448,4,-0.017,0.272,-0.015,5,0.27,-32.109,36.552
699351.5273,3,0.412,15.003,-5.549,4,0.062,0.357,-0.02,5,0.24,-33.54,38.008
699351.5472,3,0.129,9.617,-2.369,4,0.107,0.404,-0.04,5,-1.765,-33.583,36.551
699351.5671,3,0.223,8.016,-2.122,4,0.003,0.535,-0.075,5,-1.083,-32.852,35.825
699351.5869,3,-0.794,9.593,-3.403,4,-0.014,0.608,-0.094,5,-1.75,-32.869,36.549
699351.6068,3,-0.866,9.478,-2.678,4,0.009,0.583,-0.153,5,-1.75,-32.869,36.549
699351.6267,3,-1.656,9.799,-1.57,4,0.002,0.52,-0.186,5,-1.733,-32.158,37.274
699351.6465,3,-0.991,8.71,-2.838,4,0.001,0.392,-0.192,5,-3.069,-32.191,37.273
699351.6664,3,-0.622,9.851,-4.367,4,0.035,0.191,-0.197,5,-2.417,-32.886,36.549
699351.6862,3,-0.909,11.337,-1.907,4,0.046,0.029,-0.203,5,-1.082,-32.854,36.551
699351.7061,3,-0.787,4.053,-2.266,4,-0.013,-0.043,-0.201,5,-0.397,-32.124,36.551
699351.726,3,-0.861,14.938,-5.202,4,-0.019,-0.081,-0.185,5,-1.768,-33.58,35.1
699351.7458,3,-0.742,10.461,-1.44,4,0.019,-0.16,-0.173,5,-1.768,-33.58,35.1
699351.7657,3,-0.404,6.997,-0.23,4,-0.093,-0.199,-0.151,5,-1.768,-33.58,35.1
699351.7856,3,0.737,10.619,-1.809,4,-0.094,-0.281,-0.118,5,-1.086,-32.849,34.372
699351.8055,3,0.376,8.014,-2.309,4,-0.032,-0.418,-0.104,5,-0.429,-33.553,37.28
699351.8253,3,0.244,11.452,-4.018,4,-0.009,-0.411,-0.11,5,0.269,-32.108,35.826
699351.8452,3,0.438,8.777,-3.046,4,0.045,-0.357,-0.096,5,0.903,-33.516,35.104
699351.8651,3,-0.218,7.92,-3.572,4,0.012,-0.298,-0.057,5,0.302,-30.682,36.548
699351.8849,3,-0.089,15.659,-3.288,4,-0.021,-0.279,-0.043,5,0.267,-32.106,35.101
699351.9048,3,-0.105,3.515,1.586,4,-0.053,-0.251,-0.059,5,1.622,-31.361,36.551
699351.9247,3,-0.378,8.511,-2.917,4,-0.125,-0.152,-0.042,5,0.887,-34.229,35.106
699351.9445,3,0.357,4.561,-4.965,4,0.006,-0.123,-0.031,5,0.235,-33.533,35.104
699351.9644,3,-3.132,8.801,-9.318,4,0.061,-0.181,-0.042,5,1.573,-33.502,36.557
699351.9842,3,1.161,24.727,-3.044,4,0.055,-0.142,-0.06,5,2.271,-32.059,35.829
699352.0041,3,-0.079,1.723,4.865,4,-0.162,-0.205,-0.018,5,2.257,-32.777,38.01
699352.024,3,0.103,7.303,-0.677,4,-0.324,0.104,-0.042,5,2.953,-31.325,34.373
699352.0438,3,-0.266,14.132,-3.403,4,-0.075,0.099,-0.041,5,1.535,-34.924,34.381
699352.0637,3,0.562,8.669,-1.146,4,0.035,-0.084,-0.091,5,0.27,-32.109,36.552
699352.0836,3,0.069,7.719,-1.924,4,0.001,-0.114,-0.105,5,2.206,-34.914,36.562
699352.1035,3,0.17,12.163,-3.644,4,0.03,-0.156,-0.112,,,,
699352.1233,3,-0.433,6.071,-2.723,4,0.028,-0.235,-0.132,5,2.251,-32.768,34.378
699352.1432,3,-0.579,13.718,-4.051,4,-0.022,-0.18,-0.118,5,2.251,-32.768,34.378
699352.1631,3,-0.045,12.06,-2.139,4,-0.032,-0.198,-0.082,5,3.606,-32.024,35.106
699352.1829,3,0.022,6.26,-0.699,4,-0.097,-0.2,-0.094,,,,
699352.2028,3,1.117,11.742,-2.41,4,-0.115,-0.227,-0.091,5,2.235,-33.482,34.38
699352.2227,3,3.223,12.493,4.077,4,-0.064,-0.291,-0.092,5,2.238,-33.485,35.832
699352.2425,3,-0.182,5.202,-8.279,4,-0.077,-0.303,-0.112,5,2.235,-33.482,34.38
699352.2624,3,0.428,15.357,-9.526,4,0.095,-0.269,-0.198,5,3.586,-32.732,32.927
699352.2823,3,-0.424,6.619,-5.24,4,0.4,-0.437,-0.171,5,3.575,-33.452,35.834
699352.3021,3,-0.371,7.549,-1.874,4,0.102,-0.497,-0.126,5,4.958,-31.277,35.106
699352.322,3,-1.005,6.508,-4.372,4,-0.077,-0.316,-0.116,5,4.926,-32.706,35.835
699352.3418,3,-1.941,13.886,-3.733,4,-0.103,-0.336,-0.104,5,4.875,-34.845,35.115
699352.3617,3,-0.907,11.447,-0.124,4,-0.141,-0.4,-0.079,5,6.262,-32.675,36.563
699352.3816,3,0.385,6.173,1.601,4,-0.204,-0.517,-0.071,5,6.244,-33.386,35.114
699352.4015,3,-0.885,11.49,-2.12,4,-0.118,-0.623,-0.055,5,6.911,-33.369,35.115
699352.4213,3,-0.225,9.712,-2.388,4,0.055,-0.753,-0.015,5,6.242,-33.385,34.386
699352.4412,3,0.153,9.042,-1.749,4,0.086,-0.865,-0.015,5,7.561,-34.064,33.664
699352.4611,3,0.78,9.102,-3.726,4,0.088,-0.802,0.034,5,10.854,-36.127,35.854
699352.4809,3,-1.46,12.421,-6.047,4,0.101,-0.633,0.099,5,9.633,-31.166,35.838
699352.5008,3,0.601,14.618,-1.804,4,0.062,-0.501,0.107,5,8.228,-34.048,34.39
699352.5207,3,-2.177,2.012,1.756,4,-0.074,-0.403,0.111,5,8.247,-33.339,35.841
699352.5405,3,-0.115,13.077,-2.094,4,-0.132,-0.27,0.121,5,6.889,-34.073,31.485
699352.5604,3,0.782,12.888,1.283,4,-0.009,-0.235,0.151,5,6.258,-32.671,34.384
699352.5803,3,-0.385,5.116,1.299,4,-0.036,-0.301,0.116,5,5.573,-33.394,31.48
699352.6001,3,0.787,9.2,-3.809,4,0.009,-0.197,0.057,5,7.559,-34.062,32.936
699352.62,3,-0.182,10.942,-6.47,4,0.176,-0.262,0.083,5,6.891,-34.077,32.936
699352.6398,3,-1.429,9.942,-4.956,4,0.188,-0.296,0.034,5,8.914,-33.321,35.118
699352.6597,3,-1.328,8.061,-1.933,4,0.066,-0.274,0.019,5,8.246,-33.337,35.117
699352.6796,3,-1.082,10.385,-1.44,4,-0.055,-0.273,0.094,5,8.258,-32.619,32.935
699352.6995,3,-1.244,6.324,-1.295,4,-0.061,-0.442,0.1,5,8.926,-32.602,32.936
699352.7193,3,0.278,16.238,-3.568,4,0,-0.623,0.075,5,8.897,-34.033,35.12
699352.7392,3,0.084,1.718,0.51,4,0.058,-0.673,0.117,5,8.26,-32.62,33.662
699352.7591,3,0.479,15.51,-4.238,4,0.056,-0.63,0.13,5,10.263,-32.571,33.665
699352.7789,3,-0.711,8.31,-1.273,4,0.181,-0.612,0.185,5,10.245,-33.281,32.213
699352.7988,3,0.699,9.145,-2.747,4,0.123,-0.503,0.174,5,8.911,-33.316,32.938
699352.8187,3,-0.732,9.978,-3.919,4,0.162,-0.352,0.168,5,8.229,-34.05,35.118
699352.8385,3,-0.641,9.497,-3.264,4,0.168,-0.208,0.18,5,10.263,-32.573,34.39
699352.8584,3,-1.493,8.918,-1.747,4,0.101,-0.127,0.157,5,9.564,-34.015,33.669
699352.8783,3,0.462,9.397,-0.811,4,0.058,-0.109,0.171,5,10.263,-32.571,33.665
699352.8981,3,-0.747,11.273,-2.048,4,0.041,-0.141,0.185,5,9.566,-34.018,35.121
699352.918,3,-0.558,7.078,-2.299,4,0.085,-0.188,0.162,5,10.228,-33.994,32.214
699352.9379,3,-0.706,6.173,-1.811,4,0.107,-0.232,0.147,5,10.931,-32.555,33.667
699352.9578,3,1.5,18.686,-3.685,4,0.13,-0.213,0.172,5,10.93,-32.553,32.939
699352.9776,3,-1.405,6.214,-0.328,4,0.105,-0.219,0.206,5,9.613,-31.876,33.664
699352.9975,3,0.826,12.529,-3.718,4,0.002,-0.112,0.16,5,9.598,-32.591,35.118
699353.0173,3,-0.656,7.274,-1.17,4,0.122,-0.122,0.155,5,10.248,-33.287,34.392
699353.0372,3,-0.323,9.794,-2.228,4,0.038,-0.194,0.146,5,10.248,-33.287,34.392
699353.0571,3,-1.713,10.052,-3.618,4,0.063,-0.189,0.107,5,9.645,-30.45,34.384
699353.0769,3,-0.321,8.92,-2.876,4,0.105,-0.279,0.117,5,10.248,-33.287,34.392
699353.0968,3,-0.196,8.463,-2.063,4,0.082,-0.314,0.129,5,10.916,-33.269,33.669
699353.1167,3,-0.065,12.96,-2.656,4,0.033,-0.269,0.143,5,10.278,-31.857,32.936
699353.1366,3,-0.914,4.515,-2.603,4,0.02,-0.202,0.138,5,10.963,-31.126,32.935
699353.1564,3,0.328,15.446,-3.948,4,0.033,-0.128,0.122,5,10.931,-32.556,34.392
699353.1763,3,0.069,10.21,-0.512,4,0.047,-0.101,0.15,5,9.596,-32.588,33.665
699353.1962,3,0.012,6.942,0.167,4,-0.026,-0.037,0.139,5,10.28,-31.859,33.664
699353.216,3,0.024,9.583,-2.639,4,0.019,-0.017,0.121,5,9.564,-34.016,34.393
699353.2359,3,-0.507,10.076,-4.281,4,0.11,-0.065,0.1,5,12.282,-31.812,34.392
699353.2558,3,-0.684,11.368,-3.697,4,0.135,-0.077,0.067,5,8.961,-31.178,34.384
699353.2756,3,-1.632,8.741,-2.881,4,0.101,-0.065,0.078,5,7.591,-32.635,32.933
699353.2955,3,-0.747,9.555,-2.474,4,0.044,-0.057,0.107,5,8.244,-33.334,33.664
699353.3154,3,-0.617,11.017,-1.067,4,0.007,-0.092,0.117,5,8.943,-31.889,32.935
699353.3352,3,-1.639,4.35,-1.596,4,-0.021,-0.095,0.105,5,10.248,-33.286,33.667
699353.3551,3,-0.663,12.041,-4.884,4,0.017,-0.114,0.105,5,8.243,-33.333,32.936
699353.375,3,-0.278,12.598,-2.189,4,0.097,-0.155,0.125,5,10.915,-33.267,32.941
699353.3948,3,-0.244,7.339,-0.012,4,0.02,-0.132,0.152,5,8.26,-32.622,34.387
699353.4147,3,0.383,9.488,-1.823,4,-0.015,-0.05,0.132,5,8.913,-33.318,33.665
699353.4346,3,-0.041,8.516,-3.182,4,0.073,-0.059,0.13,5,8.244,-33.334,33.664
699353.4544,3,-0.167,9.837,-4.479,4,0.088,0.004,0.095,5,8.926,-32.602,32.936
699353.4743,3,1.333,17.743,-1.699,4,0.102,0.044,0.072,5,8.896,-34.03,33.667
699353.4942,3,-0.215,-3.489,0.885,4,0.04,0.164,0.085,5,8.926,-32.602,32.936
699353.514,3,0.019,9.629,-6.688,4,0.018,0.285,0.029,5,7.626,-31.212,34.381
699353.5339,3,-0.127,11.179,-5.623,4,0.189,0.117,0.006,5,10.281,-31.862,35.117
699353.5538,3,-1.244,5.695,-3.876,4,0.078,0.085,-0.003,5,9.63,-31.163,34.386
699353.5737,3,-0.268,16.326,-3.429,4,-0.025,0.161,0.003,5,8.961,-31.178,34.384
699353.5935,3,-0.902,7.755,-0.091,4,-0.049,0.104,0.029,5,8.911,-33.316,32.938
699353.6134,3,-0.146,7.719,-0.938,4,-0.131,0.132,-0.014,5,8.945,-31.891,33.662
699353.6332,3,-0.51,10.552,-2.752,4,-0.03,0.061,-0.011,5,7.643,-30.501,35.107
699353.6531,3,-0.304,8.985,-2.713,4,0.055,-0.043,-0.021,5,6.909,-33.368,34.387
699353.673,3,-1.409,9.509,-3.498,4,0.061,-0.111,-0.04,5,8.273,-31.903,32.207
699353.6928,3,-0.565,9.655,-3.915,4,0.075,-0.128,-0.027,5,8.212,-34.764,35.12
699353.7127,3,-1.271,10.143,-2.634,4,0.045,-0.133,-0.004,5,8.275,-31.906,32.933
699353.7326,3,-1.634,12.742,-5.427,4,-0.024,-0.115,-0.003,5,8.928,-32.603,33.664
699353.7524,3,-0.421,8.686,-2.055,4,-0.067,-0.122,0.002,5,8.276,-31.908,33.661
699353.7723,3,0.321,8.291,1.895,4,-0.094,-0.139,0.028,5,9.627,-31.157,32.207
699353.7922,3,1.165,12.486,0.091,4,-0.21,-0.156,0.064,5,7.608,-31.923,32.932
699353.8121,3,0.024,8.471,-1.988,4,-0.094,-0.169,0.04,5,7.59,-32.632,32.207
699353.8319,3,0.182,8.578,-4.594,4,0.035,-0.188,-0.004,5,8.244,-33.334,33.664
699353.8518,3,-0.199,9.184,-4.994,4,0.11,-0.275,-0.021,5,8.243,-33.333,32.936
699353.8717,3,0.215,8.923,-3.649,4,0.071,-0.323,-0.019,5,8.307,-30.479,32.928
699353.8915,3,0.124,9.456,-3.19,4,-0.049,-0.314,-0.005,5,8.943,-31.889,32.935
699353.9114,3,0.51,10.303,-2.017,4,-0.097,-0.288,0.009,5,9.628,-31.16,32.933
699353.9312,3,-0.237,10.552,-2.579,4,-0.111,-0.341,0.002,5,8.943,-31.889,32.935
699353.9511,3,0.148,7.724,-1.431,4,-0.104,-0.385,-0.021,5,8.275,-31.906,32.933
699353.971,3,-0.089,6.973,-1.469,4,-0.088,-0.483,-0.008,5,8.928,-32.603,33.664
699353.9908,3,0.826,16.451,-3.288,4,-0.049,-0.566,0.014,5,10.228,-33.994,32.214
699354.0107,3,0.179,8.971,-0.981,4,-0.013,-0.706,0.033,5,12.277,-31.802,30.76
699354.0306,3,0.134,7.566,-0.902,4,-0.036,-0.687,0.031,5,10.277,-31.854,32.21
699354.0504,3,-0.727,10.04,-3.706,4,0.018,-0.656,0.061,5,10.915,-33.267,32.941
699354.0703,3,-0.672,10.325,-3.278,4,0.061,-0.687,0.067,5,12.917,-33.22,32.944
699354.0902,3,-1.498,8.361,-1.711,4,0.033,-0.666,0.081,5,12.918,-33.223,34.396
699354.1101,3,0.105,10.526,-2.347,4,-0.004,-0.596,0.133,5,12.245,-33.229,30.763
699354.1299,3,0.005,9.559,-2.204,4,0.017,-0.562,0.173,5,12.247,-33.231,31.491
699354.1498,3,-1.144,12.096,-2.326,4,0.029,-0.51,0.173,5,14.233,-33.894,31.497
699354.1697,3,-1.218,4.57,-3.46,4,0.067,-0.463,0.165,5,14.233,-33.894,31.497
699354.1895,3,-0.517,15.551,-4.209,4,0.106,-0.401,0.184,5,14.233,-33.894,31.497
699354.2094,3,-0.893,7.729,-0.617,4,0.112,-0.359,0.25,5,13.597,-32.483,30.765
699354.2293,3,1.213,9.782,-4.14,4,0.017,-0.265,0.263,5,11.578,-33.244,30.038
699354.2491,3,-0.416,13.95,-1.687,4,0.089,-0.185,0.267,5,14.919,-33.168,32.22
699354.269,3,-1.027,-0.242,0.127,4,0.088,-0.073,0.309,5,12.28,-31.808,32.939
699354.2888,3,-0.129,12.144,-6.461,4,0.075,0.048,0.234,5,12.898,-33.928,31.494
699354.3087,3,-0.806,10.031,-4.755,4,0.199,-0.001,0.248,5,12.93,-32.501,31.491
699354.3286,3,-0.567,8.899,-2.161,4,0.082,0.063,0.259,5,12.247,-33.232,32.216
699354.3484,3,-0.907,12.964,-1.172,4,0.007,0.171,0.27,5,11.58,-33.246,30.763
699354.3683,3,-1.78,3.484,-1.512,4,0,0.21,0.259,5,12.231,-33.948,32.944
699354.3882,3,-0.596,11.773,-4.774,4,0.011,0.22,0.237,5,10.913,-33.263,31.49
699354.4081,3,-0.189,12.144,-1.534,4,0.079,0.184,0.249,5,10.93,-32.553,32.939
699354.4279,3,-1.038,8.207,-0.031,4,-0.013,0.181,0.268,5,10.211,-34.708,32.216
699354.4478,3,-0.318,10.567,-2.359,4,-0.033,0.241,0.255,5,10.896,-33.977,32.216
699354.4677,3,-1.043,8.425,-2.546,4,0.052,0.198,0.234,5,9.578,-33.296,31.488
699354.4875,3,-0.28,10.739,-0.945,4,0.063,0.254,0.205,5,8.91,-33.311,31.487
699354.5074,3,-1.192,9.507,-6.236,4,0.049,0.324,0.207,5,10.88,-34.691,32.217
699354.5273,3,1.455,11.696,-1.474,4,0.067,0.41,0.216,5,8.894,-34.029,32.939
699354.5471,3,-0.148,5.75,1.177,4,0.044,0.435,0.206,5,9.581,-33.304,34.392
699354.567,3,0.483,8.447,-1.046,4,-0.1,0.529,0.163,5,8.228,-34.047,33.665
699354.5869,3,-0.522,10.481,-5.137,4,0.013,0.503,0.119,5,8.243,-33.333,32.936
699354.6067,3,-0.38,14.034,-4.9,4,0.133,0.452,0.102,5,8.211,-34.761,33.667
699354.6266,3,-0.043,7.784,0.569,4,0.095,0.324,0.066,5,8.26,-32.62,33.662
699354.6464,3,0.718,9.5,-1.637,4,-0.03,0.277,0.055,5,7.574,-33.347,32.208
699354.6663,3,-0.079,8.002,-3.336,4,0.008,0.155,0.033,5,8.879,-34.744,33.669
699354.6862,3,-0.912,8.636,-4.008,4,0.072,0.076,-0.014,5,6.891,-34.077,32.936
699354.7061,3,-0.914,10.854,-4.03,4,0.084,0.044,-0.029,5,7.561,-34.064,33.664
699354.7259,3,-0.005,9.296,-2.383,4,0.063,0.057,-0.016,5,6.941,-31.94,33.659
699354.7458,3,0.079,8.124,-1.216,4,0.003,0.054,0.008,5,6.889,-34.073,31.485
699354.7657,3,-0.309,9.559,-3.345,4,-0.026,0.063,-0.02,5,8.211,-34.761,33.667
699354.7855,3,-0.828,6.899,-3.829,4,0.025,0.083,-0.031,5,6.226,-34.096,33.662
699354.8054,3,-0.514,15.348,-4.92,4,0.062,0.122,0.001,5,6.921,-32.648,32.207
699354.8253,3,-0.352,9.586,0.148,4,0.027,0.12,0.006,5,8.208,-34.756,32.213
699354.8451,3,-0.223,7.269,0.627,4,-0.091,0.15,0.018,5,5.54,-34.825,32.935
699354.865,3,-0.802,9.394,-2.759,4,-0.066,0.117,0.022,5,6.224,-34.094,32.935
699354.8849,3,-0.495,11.237,-3.36,4,0.042,0.061,-0.013,5,8.258,-32.619,32.935
699354.9047,3,-1.058,9.411,-2.192,4,0.063,0.052,0,5,6.874,-34.792,32.938
699354.9246,3,0.464,12.05,-1.926,4,0.019,0.078,0.029,5,5.574,-33.398,32.932
699354.9445,3,0.022,7.365,0.108,4,-0.005,0.063,0.046,5,6.892,-34.079,33.664
699354.9643,3,-0.455,11.732,-1.902,4,-0.027,0.084,0.025,5,6.921,-32.648,32.207
699354.9842,3,-0.857,1.507,-3.465,4,0.025,0.048,0.008,5,5.539,-34.821,31.483
699355.0041,3,0.538,22.871,-8.495,4,0.083,0.023,0.041,5,6.226,-34.096,33.662
699355.0239,3,0.383,9.054,-1.117,4,0.107,-0.064,0.058,5,7.608,-31.923,32.932
699355.0438,3,0.665,1.548,3.867,4,-0.121,0.056,0.095,5,6.189,-35.518,32.213
699355.0637,3,-0.378,9.562,-4.484,4,-0.119,0.071,0.085,5,6.256,-32.668,32.932
699355.0835,3,0.55,10.234,-5.616,4,0.073,-0.029,0.001,5,7.559,-34.062,32.936
699355.1028,3,-0.502,9.045,-3.785,4,0.106,0.088,0.001,5,5.559,-34.113,33.661
699355.1233,3,0.763,11.596,-3.166,4,0.049,0.244,0.026,5,5.525,-35.541,34.39
699355.1432,3,0.608,9.794,-2.412,4,-0.01,0.296,0.007,5,6.876,-34.795,34.39
699355.163,3,0.299,12.227,-1.333,4,-0.037,0.326,-0.032,5,6.242,-33.383,33.661
699355.1829,3,-1.369,4.695,-2.505,4,-0.033,0.32,-0.031,5,6.256,-32.668,32.932
699355.2028,3,-0.297,17.48,-4.788,4,-0.008,0.275,-0.024,5,4.204,-34.857,32.933
699355.2226,3,0.127,9.107,-0.153,4,0.033,0.226,-0.036,5,6.224,-34.094,32.935
699355.2425,3,-0.067,9.294,-0.55,4,-0.077,0.195,-0.032,5,5.557,-34.111,32.933
699355.2624,3,-0.969,6.475,-1.034,4,-0.036,0.093,-0.03,5,5.577,-33.403,35.112
699355.2823,3,-0.505,13.405,-6.37,4,0.014,-0.005,-0.058,5,4.921,-32.7,32.93
699355.3021,3,-1.153,9.303,-3.221,4,0.166,-0.024,-0.053,5,6.239,-33.379,32.207
699355.322,3,-0.589,9.136,-0.345,4,0.029,0.078,0.003,5,6.206,-34.804,31.485
699355.3418,3,-0.964,8.913,-2.496,4,-0.069,0.048,0.003,5,6.223,-34.09,31.483
699355.3617,3,-0.462,13.007,-2.967,4,-0.005,0.032,0.002,5,5.559,-34.113,33.661
699355.3816,3,-0.297,6.401,-3.178,4,0.041,0.1,0.011,5,5.591,-32.687,34.383
699355.4014,3,-0.455,14.522,-6.788,4,0.058,0.206,0.023,5,4.904,-33.411,32.205
699355.4213,3,0.357,9.318,-1.146,4,0.093,0.272,0.015,5,6.223,-34.091,32.208
699355.4412,3,0.16,9.232,-1.247,4,0.017,0.346,0.012,,,,
699355.461,3,-0.38,7.423,-2.699,4,0.062,0.351,-0.005,5,4.889,-34.126,32.933
699355.4809,3,-0.481,7.793,-3.261,4,0.09,0.321,-0.068,5,5.606,-31.972,32.928
699355.5008,3,-1.852,9.844,-2.623,4,0.072,0.319,-0.071,5,6.174,-36.23,31.49
699355.5207,3,-1.019,11.483,-1.378,4,0.05,0.303,-0.068,5,4.872,-34.84,32.935
699355.5405,3,-0.907,8.538,-0.306,4,0.011,0.216,-0.07,5,4.889,-34.126,32.933
699355.5604,3,0.376,10.162,-1.823,4,-0.014,0.083,-0.068,5,4.922,-32.701,33.658
699355.5803,3,-1.01,5.554,-2.142,4,0.014,-0.054,-0.07,5,4.204,-34.857,32.933
699355.6001,3,-0.297,15.797,-4.063,4,0.052,-0.126,-0.052,5,6.876,-34.793,33.665
699355.62,3,-0.833,-2.204,-1.338,4,0.064,-0.197,-0.029,5,7.494,-36.916,32.944
699355.6398,3,-0.129,26.216,-7.513,4,-0.004,-0.219,0.002,5,6.844,-36.221,34.395
699355.6597,3,1.44,4.104,-0.933,4,0.056,-0.31,0.008,5,5.559,-34.113,33.661
699355.6796,3,-0.029,5.429,0.653,4,-0.141,-0.159,0.023,5,2.853,-35.603,33.661
699355.6994,3,-0.62,15.458,-2.986,4,-0.103,-0.071,0.069,5,2.885,-34.175,32.928
699355.7193,3,0.479,8.423,-0.888,4,0.02,-0.088,0.04,5,6.921,-32.646,31.482
699355.7392,3,1,8.703,-2.352,4,0.013,-0.046,0.053,5,5.51,-36.255,34.392
699355.759,3,-0.002,9.461,-3.056,4,0.066,-0.01,0.048,5,4.874,-34.842,33.662
699355.7789,3,-0.313,6.528,-2.847,4,0.078,0.057,0.029,5,5.557,-34.111,32.933
699355.7988,3,0.421,14.331,-4.006,4,0.093,0.166,0.053,5,6.226,-34.097,34.387
699355.8187,3,0.479,9.174,-0.823,4,0.035,0.188,0.046,5,6.241,-33.382,32.933
699355.8385,3,0.282,9.626,-0.335,4,-0.065,0.269,0.051,5,4.904,-33.411,32.205
699355.8584,3,-0.124,8.667,-2.197,4,-0.039,0.209,0.04,5,6.891,-34.077,32.936
