705606.8059,3,-0.067,9.825,-1.641,,,,,,,,
705606.848,3,-0.067,9.825,-1.641,,,,,5,12.018,-43.216,31.517
705606.8678,3,-0.067,9.825,-1.641,4,0.006,-0.024,0.04,5,10.684,-43.25,32.24
705606.8877,3,-0.112,9.825,-1.582,4,0.006,-0.024,0.04,5,12.703,-42.493,32.967
705606.9075,3,-0.01,9.82,-1.668,4,0.006,-0.024,0.04,5,12.703,-42.493,32.967
705606.9274,3,0.043,9.83,-1.517,4,0.005,0.013,0.019,5,11.337,-43.951,32.97
705606.9473,3,0.132,9.846,-1.39,4,0.001,0.014,0.018,5,10.67,-43.968,33.696
705606.9672,3,0.167,9.823,-1.579,4,0.001,0.012,0.015,5,12.688,-43.205,32.97
705606.987,3,0.134,9.808,-1.67,4,0.004,0.007,0.012,5,14.694,-43.161,35.153
705607.0069,3,0.041,9.827,-1.529,4,0.004,0.014,0.008,5,14.694,-43.161,35.153
705607.0267,3,-0.062,9.827,-1.481,4,0.002,0.031,0.003,5,14.694,-43.161,35.153
705607.0466,3,-0.045,9.827,-1.57,4,0.001,0.026,0.001,5,12.053,-41.797,34.416
705607.0665,3,-0.069,9.83,-1.534,4,0.001,0.007,0.001,5,11.368,-42.52,31.514
705607.0863,3,-0.117,9.825,-1.488,4,0.001,-0.004,0.001,5,10.669,-43.967,32.968
705607.1062,3,-0.081,9.837,-1.448,4,0,-0.002,0.001,5,10.016,-43.266,32.239
705607.1261,3,-0.077,9.83,-1.527,4,0,-0.003,0.001,5,11.334,-43.945,30.791
705607.1459,3,-0.189,9.823,-1.558,4,0.002,-0.005,0.003,5,12.05,-41.789,31.512
705607.1658,3,-0.213,9.837,-1.536,4,0.002,-0.003,0.004,5,10.684,-43.25,32.24
705607.1856,3,-0.17,9.825,-1.505,4,0.001,-0.004,0.004,5,12.653,-44.629,32.246
705607.2055,3,-0.077,9.827,-1.433,4,0,-0.007,0.008,5,12.686,-43.202,32.243
705607.2254,3,-0.098,9.832,-1.409,4,0,-0.01,0.012,5,11.99,-44.653,35.876
705607.2453,3,-0.029,9.825,-1.658,4,0.001,-0.01,0.013,5,12.035,-42.508,32.965
705607.2651,3,0.031,9.808,-1.572,4,0.002,-0.018,0.013,5,12.703,-42.493,32.967
705607.285,3,0.053,9.849,-1.457,4,0.002,-0.01,0.013,5,11.354,-43.237,32.968
705607.3048,3,0.057,9.839,-1.5,4,0.001,-0.003,0.012,,,,
705607.3247,3,0.108,9.82,-1.493,4,0.004,0.001,0.01,5,11.337,-43.951,32.97
705607.3446,3,0.053,9.823,-1.548,4,0.004,0.003,0.009,5,12.671,-43.919,32.971
705607.3644,3,0.208,9.823,-1.708,4,0.006,0.011,0.004,5,11.388,-41.812,33.691
705607.3843,3,0.378,9.818,-1.685,4,0.005,0.019,0.002,5,14.008,-43.887,33.702
705607.4042,3,0.316,9.878,-1.417,4,0,0.008,-0.004,5,12.672,-43.922,34.424
705607.424,3,0.299,9.823,-1.622,4,-0.002,-0.015,-0.012,5,14.008,-43.887,33.702
705607.4439,3,0.163,9.823,-1.701,4,0,-0.04,-0.018,5,12.035,-42.508,32.965
705607.4637,3,0.055,9.837,-1.845,4,0,-0.041,-0.026,5,12.018,-43.216,31.517
705607.4836,3,0.112,9.815,-1.56,4,-0.004,-0.047,-0.035,5,11.337,-43.951,32.97
705607.5035,3,0.318,9.844,-1.421,4,-0.012,-0.091,-0.037,5,12.701,-42.488,31.516
705607.5234,3,0.266,9.835,-1.407,4,-0.015,-0.116,-0.038,5,11.986,-44.647,32.971
705607.5432,3,-0.098,9.811,-1.515,4,-0.011,-0.065,-0.048,5,13.338,-43.9,32.246
705607.5631,3,-0.163,9.818,-1.716,4,-0.006,0.019,-0.058,5,12.668,-43.913,30.792
705607.5829,3,-0.182,9.837,-1.524,4,-0.004,0.059,-0.058,5,12.688,-43.205,32.97
705607.6028,3,1.165,8.987,-4.168,4,-0.007,0.073,-0.056,5,14.693,-43.158,33.701
705607.6227,3,-0.699,10.196,-0.282,4,-0.015,0.081,-0.063,5,11.351,-43.231,30.789
705607.6426,3,-0.455,9.832,-1.859,4,-0.034,0.15,-0.065,5,12.018,-43.216,31.517
705607.6624,3,0.175,9.538,-2.666,4,-0.004,0.013,-0.059,5,11.969,-45.358,32.246
705607.6823,3,-0.024,9.87,-0.835,4,-0.01,-0.068,-0.057,5,13.339,-43.903,32.973
705607.7022,3,0.481,10.093,-1.426,4,-0.026,-0.021,-0.069,5,11.353,-43.234,32.242
705607.722,3,0.885,9.693,-2.867,4,-0.012,-0.066,-0.078,5,11.984,-44.644,32.245
705607.7419,3,-0.122,9.581,-2.45,4,-0.02,-0.11,-0.081,5,13.351,-43.181,30.067
705607.7617,3,-0.928,10.155,-0.474,4,-0.04,-0.062,-0.1,5,13.341,-43.906,34.425
705607.7816,3,-0.565,9.897,-0.469,4,-0.062,-0.031,-0.104,5,12.691,-43.21,35.15
705607.8015,3,-0.514,9.6,-1.445,4,-0.054,-0.148,-0.093,5,14.725,-41.733,34.421
705607.8214,3,-0.703,9.904,-2.189,4,-0.029,-0.226,-0.087,5,14.037,-42.455,31.519
705607.8412,3,-1.206,9.837,-1.835,4,-0.023,-0.119,-0.084,5,13.356,-43.188,32.971
705607.8611,3,-1.57,9.435,-1.517,4,-0.029,-0.008,-0.08,5,14.018,-43.164,30.069
705607.8809,3,-0.33,9.526,-2.235,4,-0.024,-0.027,-0.069,5,14.053,-41.74,31.517
705607.9008,3,-1.299,9.61,-1.713,4,-0.01,-0.076,-0.042,5,12.685,-43.199,30.791
705607.9207,3,-1.362,9.77,-1.933,4,-0.001,-0.053,-0.038,5,13.37,-42.473,32.242
705607.9405,3,-1.283,9.899,-1.761,4,0.005,0.046,-0.032,5,17.351,-43.813,36.61
705607.9604,3,-0.859,9.669,-1.383,4,0.007,0.008,-0.01,5,17.3,-45.95,35.889
705607.9803,3,-0.828,9.605,-2.02,4,0.012,-0.019,0.012,5,13.373,-42.477,33.696
705608.0001,3,-1.199,9.808,-2.355,4,0.018,0.025,0.012,5,14.038,-42.459,32.97
705608.02,3,-1.172,9.753,-1.472,4,0.013,0.07,0.015,5,14.052,-41.739,30.789
705608.0398,3,-1.117,9.779,-1.206,4,0.004,0.077,0.039,5,14.023,-43.172,32.973
705608.0597,3,-1.132,9.811,-1.809,4,0.005,0.053,0.051,5,12.669,-43.915,31.52
705608.0796,3,-0.579,9.701,-2.106,4,0.018,0.061,0.056,5,13.338,-43.9,32.246
705608.0995,3,0.474,9.605,-2.168,4,0.024,0.078,0.065,5,12.718,-41.774,31.514
705608.1193,3,0.818,9.741,-2.271,4,0.016,0.077,0.068,5,13.336,-43.896,30.794
705608.1392,3,0.725,9.772,-2.209,4,0.006,0.081,0.058,5,14.038,-42.459,32.97
705608.159,3,0.031,9.693,-1.584,4,-0.001,0.075,0.041,5,14.008,-43.889,34.427
705608.1789,3,0.27,9.531,-2.154,4,-0.005,0.095,0.023,5,13.371,-42.476,32.968
705608.1988,3,0.01,9.708,-2.584,4,0.001,0.105,0.008,5,13.373,-42.477,33.696
705608.2186,3,0.079,10.227,-2.249,4,0.007,0.088,-0.015,5,12.701,-42.49,32.24
705608.2385,3,0.792,9.674,-1.072,4,0.005,0.059,-0.029,5,12.003,-43.935,32.97
705608.2584,3,0.835,9.736,-1.254,4,-0.006,0.019,-0.031,5,14.038,-42.459,32.97
705608.2782,3,0.565,9.949,-2.139,4,0.01,0.017,-0.053,5,13.351,-43.181,30.067
705608.2981,3,0.424,9.758,-2.11,4,0.024,0.047,-0.079,5,12.669,-43.916,32.245
705608.3179,3,0.548,9.82,-1.225,4,0.012,0.07,-0.092,5,12.671,-43.919,32.971
705608.3378,3,0.615,9.942,-1.065,4,-0.008,0.073,-0.109,5,14.024,-43.173,33.701
705608.3577,3,0.299,9.933,-1.388,4,-0.016,0.113,-0.126,5,14.023,-43.172,32.973
705608.3775,3,-0.022,9.861,-1.34,4,-0.011,0.166,-0.144,5,12.001,-43.932,32.243
705608.3974,3,-0.84,9.483,-1.826,4,-0.013,0.179,-0.157,5,12.688,-43.205,32.97
705608.4173,3,-1.567,9.736,-0.96,4,-0.023,0.157,-0.161,5,13.368,-42.47,30.789
705608.4372,3,-1.574,10.016,0.184,4,-0.04,0.112,-0.156,5,15.359,-43.14,32.974
705608.457,3,-1.687,10.435,-1.574,4,-0.046,-0.013,-0.135,5,13.37,-42.473,32.242
705608.4769,3,-1.39,10.05,-1.223,4,-0.01,-0.137,-0.109,5,12.686,-43.202,32.243
705608.4967,3,-1.196,9.61,-0.16,4,-0.004,-0.207,-0.086,5,15.375,-42.427,32.971
705608.5166,3,-1.505,9.868,-0.866,4,-0.022,-0.247,-0.065,5,16.043,-42.413,34.425
705608.5365,3,-1.601,10.047,-1.287,4,-0.011,-0.258,-0.048,5,14.024,-43.173,33.701
705608.5563,3,-0.778,9.906,-1.091,4,-0.004,-0.246,-0.025,5,14.07,-41.026,31.516
705608.5762,3,-0.335,9.983,-1.122,4,-0.015,-0.22,-0.003,5,14.702,-42.436,30.066
705608.596,3,-1.153,9.923,-1.393,4,-0.02,-0.121,-0.001,5,15.392,-41.713,32.97
705608.6159,3,-1.979,9.689,-0.998,4,-0.016,0.011,0.001,5,14.037,-42.455,31.519
705608.6358,3,-2.419,9.815,-0.84,4,-0.011,0.096,0.019,5,15.356,-43.134,30.795
705608.6556,3,-2.462,9.925,-1.115,4,-0.008,0.111,0.041,5,14.037,-42.455,31.519
705608.6755,3,-2.553,9.851,-1.472,4,0.002,0.09,0.062,5,14.67,-43.863,30.07
705608.6954,3,-2.62,9.519,-1.582,4,0.017,0.073,0.096,5,14.676,-43.872,33.702
705608.7153,3,-1.953,9.858,-1.574,4,0.022,0.023,0.142,5,16.042,-42.41,32.973
705608.7351,3,-1.196,9.72,-1.563,4,0.02,-0.025,0.185,5,13.387,-41.757,31.516
705608.755,3,-0.617,6.982,-0.677,4,0.023,-0.026,0.207,5,14.021,-43.169,32.246
705608.7748,3,-0.811,12.017,-5.755,4,0.037,0.03,0.217,5,13.37,-42.471,31.517
705608.7947,3,0.043,9.205,-0.38,4,0.088,0.134,0.201,5,12.686,-43.202,32.243
705608.8146,3,1.072,8.959,-0.538,4,0.062,0.168,0.229,5,11.353,-43.234,32.242
705608.8344,3,0.663,10.808,-2.981,4,0.028,0.182,0.232,5,12.018,-43.217,32.242
705608.8543,3,0.103,10.236,-2.144,4,0.05,0.202,0.205,5,14.038,-42.459,32.97
705608.8742,3,0.292,9.241,-1.768,4,0.044,0.161,0.168,5,14.008,-43.889,34.427
705608.894,3,0.244,9.172,-2.039,4,0.044,0.112,0.15,5,13.339,-43.903,32.973
705608.9139,3,-0.06,10.476,-3.618,4,0.064,0.095,0.147,5,14.676,-43.872,33.702
705608.9337,3,0.232,9.284,-2.572,4,0.075,0.066,0.133,5,12.021,-43.224,34.421
705608.9536,3,0.629,8.901,-1.345,4,0.048,0.059,0.129,5,11.322,-44.667,34.424
705608.9735,3,0.653,9.172,-1.515,4,0.043,0.074,0.124,5,11.356,-43.24,34.421
705608.9934,3,0.534,11.308,-4.769,4,0.046,0.1,0.104,5,12.688,-43.205,32.97
705609.0132,3,0.656,9.562,-1.723,4,0.072,0.161,0.089,5,12.701,-42.49,32.24
705609.0331,3,-0.309,8.937,-0.924,4,0.02,0.248,0.087,5,11.336,-43.947,31.519
705609.053,3,-0.354,9.425,-2.965,4,0.013,0.262,0.058,5,12.656,-44.635,34.425
705609.0728,3,-0.108,9.983,-2.871,4,0.043,0.228,0.04,5,11.356,-43.239,33.696
705609.0927,3,0.019,10.105,-2.974,4,0.054,0.266,0.053,5,12.036,-42.509,33.693
705609.1126,3,-0.316,9.578,-1.737,4,0.038,0.284,0.058,5,10.002,-43.985,33.694
705609.1324,3,-0.787,8.853,-0.983,4,0.026,0.251,0.048,5,10.033,-42.557,32.962
705609.1523,3,-0.696,9.717,-2.826,4,0.011,0.199,0.045,5,10.033,-42.557,32.962
705609.1722,3,-0.33,10.375,-2.52,4,0.034,0.078,0.054,5,8.014,-43.318,32.962
705609.192,3,-0.074,10.294,-1.845,4,0.038,0.007,0.068,5,11.392,-41.818,36.595
705609.2119,3,-0.06,9.133,-0.902,4,0.021,-0.013,0.075,5,10.719,-41.827,33.69
705609.2317,3,0.311,9.882,-2.094,4,0.011,-0.063,0.073,5,9.334,-44,32.967
705609.2516,3,0.988,9.578,-2.431,4,0.039,-0.129,0.076,5,9.349,-43.282,31.514
705609.2715,3,1.484,10.016,-2.694,4,0.045,-0.096,0.08,5,10.033,-42.557,32.962
705609.2914,3,1.335,9.406,-2.393,4,0.056,-0.013,0.056,5,10.049,-41.843,32.961
705609.3112,3,1.055,8.834,-2.546,4,0.039,0.147,0.034,5,10.67,-43.968,33.696
705609.3311,3,0.285,9.459,-3.434,4,0.039,0.27,0.002,5,8.015,-43.32,33.69
705609.3509,3,0,9.945,-3.529,4,0.032,0.371,-0.021,5,10.719,-41.829,34.415
705609.3708,3,0.172,9.756,-2.993,4,0.018,0.411,-0.023,5,9.352,-43.289,34.418
705609.3907,3,0.196,9.605,-2.491,4,-0.006,0.398,-0.031,5,8.699,-42.59,33.688
705609.4105,3,-0.297,9.701,-2.965,4,-0.017,0.426,-0.053,5,8.669,-44.02,35.146
705609.4304,3,-0.754,9.509,-2.328,4,-0.006,0.461,-0.07,5,6.685,-43.358,36.592
705609.4503,3,-1.591,13.199,-2.888,4,0.012,0.453,-0.059,5,9.387,-41.866,35.866
705609.4701,3,-1.919,14.225,0.668,4,0.012,0.392,-0.047,5,7.315,-44.765,34.416
705609.49,3,0.234,12.806,2.544,4,-0.001,0.332,-0.026,5,8.047,-41.895,34.41
705609.5098,3,0.955,9.16,4.676,4,-0.016,0.227,0.004,5,8.014,-43.318,32.962
705609.5297,3,-0.852,8.679,-0.799,4,0.057,0.114,0.048,5,8.684,-43.304,34.416
705609.5496,3,-1.608,7.896,-2.01,4,0.205,0.069,0.003,5,8.698,-42.589,32.961
705609.5695,3,-1.79,9.624,-5.604,4,0.292,0.146,0.003,5,8.032,-42.61,35.139
705609.5893,3,-1.728,8.227,-7.109,4,0.316,0.27,0.065,5,8.051,-41.898,35.863
705609.6092,3,-1.378,9.976,-5.525,4,0.247,0.21,0.101,5,7.385,-41.916,36.588
705609.629,3,0.727,9.198,-2.871,4,0.114,0.077,0.108,5,6.046,-41.942,33.682
705609.6489,3,1.924,10.091,-1.649,4,0.015,-0.037,0.124,5,5.362,-42.673,33.682
705609.6688,3,1.376,10.098,-1.699,4,0.043,-0.032,0.107,5,6.729,-41.211,33.682
705609.6886,3,1.158,8.798,-1.72,4,0.122,0.139,0.068,5,6.049,-41.946,35.86
705609.7085,3,1.539,8.585,-4.685,4,0.221,0.274,0.028,5,7.402,-41.202,36.586
705609.7284,3,1.113,7.97,-6.14,4,0.283,0.375,-0.016,5,8.067,-41.183,35.861
705609.7482,3,0.531,8.557,-5.937,4,0.26,0.475,-0.049,5,6.065,-41.232,35.858
705609.7681,3,0.067,10.031,-3.539,4,0.167,0.535,-0.067,5,6.766,-39.79,36.583
705609.7879,3,0.211,10.825,-2.522,4,0.075,0.571,-0.067,5,4.745,-40.55,35.13
705609.8078,3,-0.584,10.78,-1.043,4,0.034,0.537,-0.073,5,6.05,-41.949,37.312
705609.8277,3,-1.675,10.646,-1.953,4,0.048,0.447,-0.087,5,4.031,-42.715,38.037
705609.8476,3,-2.56,11.28,-1.754,4,0.103,0.273,-0.097,5,5.4,-41.251,36.583
705609.8674,3,-1.644,8.612,-0.773,4,0.148,0.113,-0.089,5,6.049,-41.946,35.86
705609.8873,3,-0.938,7.504,-2.611,4,0.177,0.039,-0.045,5,4.732,-41.267,37.309
705609.9072,3,-1.015,8.296,-2.955,4,0.219,0.004,-0.008,5,4.749,-40.553,36.581
705609.927,3,-1.285,10.007,-3.683,4,0.241,0.012,0.031,5,6.084,-40.521,36.583
705609.9469,3,-0.278,9.782,-2.984,4,0.221,0.019,0.073,5,5.417,-40.538,36.581
705609.9667,3,1.357,9.787,-3.754,4,0.177,-0.004,0.102,5,6.084,-40.523,37.309
705609.9866,3,1.4,9.174,-2.541,4,0.158,-0.071,0.12,5,4.066,-41.289,38.762
705610.0065,3,1.373,9.433,-2.39,4,0.134,-0.062,0.108,5,5.42,-40.544,38.762
705610.0263,3,1.823,9.31,-3.893,4,0.133,0.011,0.08,5,4.752,-40.561,39.487
705610.0462,3,2.151,8.473,-3.85,4,0.137,0.123,0.062,5,4.767,-39.845,38.76
705610.0661,3,2.043,9.543,-4.003,4,0.134,0.238,0.034,5,4.752,-40.559,38.762
705610.0859,3,1.551,10.1,-3.494,4,0.105,0.311,-0.004,5,4.767,-39.847,39.485
705610.1058,3,1.773,10.076,-2.158,4,0.064,0.331,-0.047,5,4.768,-39.848,40.211
705610.1257,3,1.886,9.452,-2.422,4,0.034,0.331,-0.082,5,4.099,-39.862,38.759
705610.1455,3,1.56,9.246,-2.474,4,0.045,0.31,-0.112,5,4.083,-40.576,38.76
705610.1654,3,0.864,9.234,-3.304,4,0.078,0.285,-0.156,5,4.784,-39.134,39.482
705610.1853,3,0.361,9.303,-2.115,4,0.105,0.263,-0.187,5,4.782,-39.131,38.029
705610.2051,3,0.373,9.631,-2.429,4,0.114,0.277,-0.205,5,4.799,-38.417,38.028
705610.225,3,0.565,9.382,-3.211,4,0.136,0.317,-0.206,5,4.099,-39.864,39.484
705610.2448,3,0.603,8.382,-3.788,4,0.171,0.36,-0.218,5,6.119,-39.102,39.484
705610.2647,3,0.45,8.724,-4.056,4,0.213,0.455,-0.23,5,2.78,-39.182,38.753
705610.2846,3,0.94,16.343,-14.29,4,0.229,0.549,-0.25,5,2.798,-38.47,40.202
705610.3044,3,0.318,12.337,-5.123,4,0.238,0.639,-0.289,5,4.085,-40.579,40.211
705610.3243,3,-0.773,6.836,4.266,4,-0.067,0.79,-0.289,5,3.429,-39.873,37.303
705610.3442,3,0.893,5.819,6.913,4,-0.34,0.507,-0.229,5,4.083,-40.578,39.485
705610.364,3,0.761,13.531,0.022,4,-0.327,0.24,-0.186,5,4.097,-39.861,38.031
705610.3839,3,0.45,12.297,-2.122,4,-0.021,0.215,-0.217,5,4.115,-39.149,38.756
705610.4038,3,-1.098,8.657,-5.214,4,0.164,0.388,-0.268,5,3.416,-40.591,38.759
705610.4236,3,-2.144,7.786,-3.75,4,0.208,0.369,-0.294,5,2.095,-39.911,38.756
705610.4435,3,-1.857,9.858,-3.221,4,0.114,0.263,-0.25,5,4.112,-39.145,37.302
705610.4634,3,-1.189,10.088,-2.63,4,-0.011,0.039,-0.187,5,4.115,-39.149,38.756
705610.4832,3,-0.297,8.499,-1.823,4,-0.037,-0.176,-0.14,5,4.765,-39.844,38.033
705610.5031,3,-1.285,9.863,-3.86,4,0.011,-0.382,-0.133,5,4.132,-38.435,38.754
705610.523,3,-1.077,10.105,-5.075,4,0.101,-0.476,-0.144,,,,
705610.5428,3,-0.864,12.012,-4.434,4,0.117,-0.512,-0.122,5,6.136,-38.388,39.482
705610.5627,3,0.273,9.057,-0.816,4,0.062,-0.566,-0.069,5,5.418,-40.543,38.034
705610.5826,3,0.648,8.499,-1.161,4,-0.046,-0.636,-0.026,5,8.072,-41.193,39.493
705610.6024,3,1.388,8.296,-1.955,4,-0.048,-0.672,-0.018,5,9.392,-41.875,39.497
705610.6223,3,2.264,9.516,-3.403,4,0.021,-0.571,-0.021,5,10.043,-42.574,40.225
705610.6422,3,0.706,9.763,-4.219,4,0.072,-0.36,-0.036,5,6.735,-41.222,38.039
705610.662,3,-1.072,10.131,-3.187,4,0.065,-0.081,-0.071,5,6.735,-41.222,38.039
705610.6819,3,-1.443,9.435,-1.574,4,0.018,0.083,-0.095,5,6.735,-41.222,38.039
705610.7018,3,-2.012,9.504,-1.314,4,-0.018,0.103,-0.062,5,6.735,-41.222,38.039
705610.7216,3,-2.905,9.318,-2.359,4,0,0.026,-0.021,5,6.786,-39.084,38.76
705610.7415,3,-2.005,9.693,-2.993,4,0.034,-0.12,0.002,5,7.452,-39.067,38.033
705610.7614,3,-1.058,10.026,-2.764,4,0.049,-0.286,0.051,5,8.105,-39.767,40.216
705610.7812,3,-0.333,10.1,-2.802,4,0.035,-0.384,0.111,5,6.136,-38.387,38.757
705610.8011,3,1.256,8.686,-2.869,4,0.022,-0.378,0.147,5,6.802,-38.371,39.484
705610.8209,3,2.407,8.643,-3.19,4,0.013,-0.273,0.175,5,5.452,-39.119,39.482
705610.8408,3,2.307,9.516,-4.518,4,0.015,-0.042,0.169,5,6.755,-40.514,40.216
705610.8607,3,2.912,10.251,-3.857,4,0.02,0.309,0.135,5,6.75,-40.504,36.584
705610.8805,3,2.249,9.157,-2.216,4,0.024,0.708,0.089,5,7.454,-39.069,38.76
705610.9004,3,1.931,7.602,-2.295,4,-0.006,1.131,0.02,5,5.469,-38.403,38.756
705610.9203,3,0.826,8.064,-4.496,4,0.027,1.463,-0.073,5,4.799,-38.417,38.028
705610.9401,3,-0.601,11.442,-3.896,4,0.09,1.615,-0.144,5,4.132,-38.437,39.479
705610.96,3,0.598,9.023,-0.359,4,0.09,1.502,-0.18,5,3.479,-37.738,38.023
705610.9799,3,0.498,9.59,-1.436,4,0.045,1.103,-0.198,5,2.129,-38.486,39.476
705610.9997,3,-0.421,9.468,-4.503,4,0.12,0.623,-0.268,5,0.795,-38.516,38.748
705611.0196,3,0.871,8.219,-6.93,4,0.2,0.243,-0.319,5,2.127,-38.483,38.023
705611.0395,3,0.845,9.289,-8.99,4,0.198,-0.033,-0.337,5,1.443,-39.212,38.023
705611.0593,3,0.33,9.83,-6.812,4,0.127,-0.154,-0.357,5,2.124,-38.477,35.844
705611.0792,3,-0.735,10.832,-2.256,4,-0.022,-0.236,-0.362,5,3.479,-37.738,38.023
705611.0991,3,-2.845,6.875,-0.474,4,-0.131,-0.437,-0.345,5,3.462,-38.446,37.299
705611.1189,3,-5.312,9.614,-2.216,4,-0.096,-0.622,-0.33,5,2.11,-39.197,38.025
705611.1388,3,-4.154,10.129,-5.286,4,0.084,-0.665,-0.319,5,6.149,-37.674,38.028
705611.1586,3,-4.439,9.722,-4.97,4,0.171,-0.738,-0.266,5,4.097,-39.861,38.031
705611.1785,3,-1.773,8.057,-4.187,4,0.155,-0.697,-0.18,5,6.802,-38.37,38.759
705611.1984,3,-0.859,9.756,-2.931,4,0.106,-0.608,-0.08,5,6.119,-39.101,38.759
705611.2182,3,-1.78,10.1,-2.032,4,0.089,-0.424,-0.036,5,6.168,-36.961,38.754
705611.2375,3,0.878,10.493,-2.381,4,0.061,-0.253,-0.015,5,6.834,-36.945,38.756
705611.258,3,1.261,8.301,-2.508,4,0.057,-0.119,0.017,5,6.802,-38.371,39.484
705611.2778,3,-0.165,8.693,-2.886,4,0.083,0.081,0.019,5,7.474,-38.359,40.936
705611.2977,3,0.213,8.928,-7.293,4,0.153,0.284,-0.04,5,6.837,-36.951,41.66
705611.3176,3,-0.998,10.469,-7.229,4,0.197,0.426,-0.1,5,6.816,-37.657,38.029
705611.3374,3,-0.136,8.404,-4.477,4,0.123,0.579,-0.1,5,6.168,-36.963,39.479
705611.3573,3,-0.313,10.686,-1.362,4,-0.044,0.665,-0.095,5,6.837,-36.949,40.933
705611.3772,3,-1.567,10.418,-0.974,4,-0.112,0.625,-0.119,5,5.518,-36.266,38.751
705611.397,3,-1.888,8.932,-1.697,4,-0.082,0.45,-0.139,5,5.486,-37.695,40.205
705611.4169,3,-1.596,9.954,-3.702,4,-0.016,0.195,-0.152,5,5.452,-39.119,39.482
705611.4367,3,-3.027,8.983,-1.486,4,0.013,-0.005,-0.159,5,6.789,-39.088,40.938
705611.4566,3,-1.732,9.263,-3.151,4,0.006,-0.134,-0.115,5,6.151,-37.675,38.756
705611.4765,3,-1.168,9.916,-2.28,4,-0.022,-0.213,-0.053,5,5.502,-36.981,40.204
705611.4963,3,0.766,8.999,-2.606,4,-0.063,-0.153,-0.029,5,7.486,-37.645,39.482
705611.5162,3,1.584,7.987,-5.544,4,-0.085,0.08,-0.005,5,6.122,-39.105,40.936
705611.5361,3,0.4,11.34,-7.018,4,-0.052,0.397,0.006,5,4.135,-38.44,40.932
705611.5559,3,-2.929,9.973,-2.668,4,-0.021,0.559,-0.036,5,4.819,-37.712,40.932
705611.5758,3,-0.036,9.217,-1.086,4,-0.129,0.543,-0.123,5,5.501,-36.978,38.753
705611.5957,3,0.452,9.165,-2.857,4,-0.161,0.426,-0.137,5,3.468,-38.455,40.93
705611.6155,3,-1.249,8.729,-5.233,4,-0.066,0.292,-0.107,5,5.536,-35.556,40.927
705611.6354,3,-1.299,8.99,-7.023,4,-0.006,0.211,-0.139,5,5.472,-38.408,40.933
705611.6553,3,-1.484,8.423,-5.693,4,-0.059,0.157,-0.173,5,2.846,-36.331,39.471
705611.6751,3,-2.625,8.365,-2.268,4,-0.154,0.07,-0.161,5,4.831,-36.992,38.025
705611.695,3,-2.209,8.786,-2.149,4,-0.214,-0.102,-0.147,5,5.482,-37.691,38.026
705611.7148,3,-1.036,9.511,-2.934,4,-0.189,-0.33,-0.101,5,5.467,-38.402,38.028
705611.7347,3,-0.368,10.366,-5.235,4,-0.114,-0.539,-0.071,5,6.168,-36.961,38.754
705611.7546,3,-1.295,9.691,-4.704,4,-0.078,-0.683,-0.08,5,6.818,-37.659,38.757
705611.7744,3,-1.311,8.619,-3.367,4,-0.09,-0.741,-0.09,5,7.486,-37.643,38.757
705611.7943,3,-2.328,10.277,-2.579,4,-0.115,-0.774,-0.062,5,6.166,-36.96,38.026
705611.8142,3,-1.345,7.968,-1.462,4,-0.09,-0.817,-0.038,5,8.183,-36.194,36.575
705611.834,3,-2.166,10.146,-3.651,4,-0.05,-0.873,-0.027,5,8.134,-38.333,37.306
705611.8539,3,-0.251,10.973,-5.145,4,0.044,-0.856,-0.001,5,9.471,-38.301,37.309
705611.8738,3,-0.12,5.712,-3.221,4,0.071,-0.746,0.064,5,7.468,-38.348,36.578
705611.8936,3,-1.929,10.555,-4.326,4,0.006,-0.539,0.117,5,8.801,-38.313,35.855
705611.9135,3,-1.627,12.368,-1.496,4,-0.004,-0.351,0.118,5,10.106,-39.714,38.04
705611.9334,3,0.313,9.186,1.01,4,-0.067,-0.274,0.123,5,10.136,-38.281,35.857
705611.9532,3,1.189,9.578,-1.917,4,-0.06,-0.261,0.145,5,8.835,-36.891,37.305
705611.9731,3,-1.184,10.016,-3.757,4,0.075,-0.158,0.125,5,9.471,-38.301,37.309
705611.993,3,-1.433,7.619,-4.293,4,0.149,-0.011,0.074,5,10.118,-38.994,35.133
705612.0128,3,-2.347,8.748,-5.322,4,0.13,0.062,0.063,5,8.786,-39.029,36.583
705612.0327,3,-2.405,10.04,-3.692,4,0.088,0.102,0.096,5,8.8,-38.312,35.13
705612.0526,3,-1.886,9.588,-1.256,4,0.002,0.094,0.14,5,9.486,-37.59,37.308
705612.0724,3,-0.512,10.229,-1.359,4,-0.065,0.013,0.169,5,8.131,-38.329,35.129
705612.0923,3,-0.646,9.796,-1.819,4,-0.034,-0.087,0.166,5,7.478,-37.631,33.673
705612.1122,3,-1.328,8.952,-3.931,4,0.05,-0.113,0.162,5,8.786,-39.029,36.583
705612.1321,3,-1.912,8.832,-4.613,4,0.123,-0.044,0.14,5,8.817,-37.602,35.854
705612.1519,3,-1.833,7.545,-3.044,4,0.145,0.097,0.147,5,7.449,-39.061,35.854
705612.1718,3,-1.048,10.002,-5.255,4,0.12,0.25,0.167,5,5.481,-37.688,37.3
705612.1916,3,-0.323,7.415,-5.068,4,0.138,0.487,0.169,5,6.116,-39.095,36.578
705612.2115,3,0.048,8.806,-5.774,4,0.101,0.81,0.148,5,6.099,-39.807,36.581
705612.2314,3,0.203,13.278,-4.494,4,0.066,1.148,0.098,5,6.802,-38.37,38.759
705612.2512,3,-0.057,9.868,-0.304,4,0.004,1.497,0.043,5,4.797,-38.414,37.302
705612.2711,3,-0.632,9.449,-0.629,4,-0.087,1.715,-0.007,5,4.144,-37.72,37.299
705612.2909,3,-2.35,9.557,-2.333,4,-0.012,1.714,-0.086,5,3.477,-37.735,37.297
705612.3108,3,-3.773,8.334,-3.261,4,0.093,1.585,-0.173,5,1.509,-36.36,38.017
705612.3307,3,-5.896,8.435,-4.405,4,0.139,1.287,-0.227,5,1.439,-39.204,35.12
705612.3505,3,-5.599,9.299,-3.927,4,0.139,0.935,-0.224,5,0.824,-37.086,37.291
705612.3704,3,-5.463,9.602,-2.29,4,0.082,0.604,-0.156,5,-0.528,-37.833,37.291
705612.3903,3,-5.716,10.851,-0.347,4,-0.022,0.371,-0.054,5,1.459,-38.493,36.569
705612.4102,3,-5.628,9.112,0.407,4,-0.077,0.262,0.023,5,0.137,-37.814,35.84
705612.43,3,-4.896,9.732,-1.795,4,-0.054,0.251,0.092,5,0.172,-36.389,36.563
705612.4499,3,-2.709,9.509,-3.252,4,0.035,0.356,0.18,5,0.157,-37.106,38.017
705612.4697,3,-0.479,10.222,-2.175,4,0.06,0.537,0.245,5,-2.48,-35.745,38.737
705612.4896,3,2.256,7.583,-1.787,4,0.004,0.799,0.299,5,-1.846,-37.154,38.013
705612.5095,3,3.159,10.428,-2.455,4,-0.049,1.192,0.313,5,-3.163,-36.478,39.462
705612.5293,3,2.687,13.28,-1.462,4,-0.043,1.62,0.263,5,-4.53,-37.935,38.739
705612.5492,3,2.91,10.074,1.304,4,-0.078,1.901,0.157,5,-4.498,-36.507,38.008
705612.5691,3,3.056,9.059,-0.012,4,-0.114,1.945,0.057,5,-7.857,-37.297,37.277
705612.5889,3,2.568,10.689,-3.233,4,-0.02,1.844,-0.056,5,-6.52,-37.263,36.552
705612.6088,3,0.888,8.739,-3.077,4,0.094,1.67,-0.18,5,-9.859,-37.346,37.274
705612.6286,3,-0.857,9.55,-2.821,4,0.095,1.35,-0.289,5,-9.81,-35.205,36.542
705612.6485,3,-0.876,8.894,-2.34,4,0.055,0.907,-0.371,5,-9.193,-37.325,35.098
705612.6684,3,-2.405,9.377,-2.087,4,0.017,0.392,-0.381,5,-11.198,-37.372,34.366
705612.6883,3,-1.094,10.593,-4.329,4,0.009,-0.129,-0.357,5,-11.85,-36.676,34.364
705612.7081,3,-0.641,9.61,-5.013,4,0.012,-0.613,-0.316,5,-11.798,-34.538,35.811
705612.728,3,-1.381,8.77,-3.166,4,-0.056,-0.984,-0.252,5,-13.136,-34.567,34.355
705612.7478,3,0.385,7.511,-4.099,4,-0.175,-1.193,-0.172,5,-11.766,-33.112,35.808
705612.7677,3,1.988,9.1,-5.537,4,-0.085,-1.126,-0.112,5,-11.801,-34.535,34.358
705612.7876,3,2.601,12.553,-5.494,4,0.086,-0.865,-0.114,5,-8.447,-33.739,32.909
705612.8074,3,1.357,5.238,-1.362,4,0.12,-0.625,-0.122,5,-7.127,-34.421,33.641
705612.8273,3,-1.316,11.576,-4.164,4,0.038,-0.213,-0.118,5,-7.176,-36.562,33.647
705612.8472,3,0.318,10.701,-3.63,4,0.061,0.097,-0.146,5,-5.841,-36.528,33.649
705612.867,3,1.797,9.047,-2.252,4,0.024,0.263,-0.129,5,-5.19,-37.227,34.377
705612.8869,3,-0.194,9.272,-1.259,4,-0.022,0.365,-0.124,5,-6.525,-37.259,34.373
705612.9067,3,-1.103,10.28,-2.515,4,-0.001,0.444,-0.174,5,-5.841,-36.528,33.649
705612.9266,3,-1.424,9.988,-3.312,4,0.027,0.469,-0.217,5,-4.556,-38.629,32.202
705612.9465,3,-2.69,10.945,-2.383,4,0.013,0.443,-0.207,5,-5.89,-38.666,33.653
705612.9664,3,-3.008,8.282,0.273,4,-0.037,0.424,-0.174,5,-5.206,-37.941,34.378
705612.9862,3,-3.01,9.851,-0.976,4,-0.092,0.369,-0.131,5,-6.526,-37.256,32.921
705613.0061,3,-3.058,9.54,-2.352,4,-0.034,0.295,-0.1,5,-6.557,-38.683,33.652
705613.026,3,-1.634,9.112,-3.517,4,0.006,0.337,-0.078,5,-5.908,-39.378,32.927
705613.0458,3,-1.469,10.772,-3.269,4,-0.01,0.432,-0.047,5,-5.89,-38.667,34.378
705613.0657,3,0.153,8.971,-1.737,4,-0.045,0.608,0.017,5,-7.881,-37.999,32.195
705613.0856,3,1.232,10.682,-2,4,-0.109,0.803,0.047,5,-8.546,-38.019,32.919
705613.1054,3,0.526,10.622,-0.72,4,-0.136,0.987,0.036,5,-7.863,-37.288,32.919
705613.1253,3,0.804,6.544,-0.498,4,-0.145,1.17,-0.003,5,-10.599,-40.202,32.196
705613.1452,3,-0.345,11.462,-4.896,4,-0.106,1.293,-0.054,5,-9.88,-38.052,33.646
705613.165,3,-0.558,10.323,-4.601,4,-0.026,1.358,-0.142,5,-11.201,-37.366,32.187
705613.1849,3,-1.125,8.459,-2.532,4,-0.073,1.38,-0.206,5,-11.887,-38.097,32.188
705613.2047,3,-1.316,10.117,-3.051,4,-0.155,1.269,-0.263,5,-11.267,-40.218,32.195
705613.2246,3,-1.565,11.347,-4.257,4,-0.172,1.038,-0.301,5,-12.521,-36.684,30.731
705613.2445,3,-1.074,8.65,-0.658,4,-0.18,0.768,-0.279,5,-11.891,-38.089,28.557
705613.2644,3,0.311,9.325,-0.266,4,-0.215,0.382,-0.25,5,-12.54,-37.395,30.008
705613.2842,3,0.67,9.452,-0.902,4,-0.159,-0.013,-0.244,5,-13.927,-39.563,28.557
705613.3041,3,2.242,8.274,-3.604,4,-0.039,-0.335,-0.262,5,-9.267,-40.164,30.022
705613.324,3,1.838,9.662,-5.058,4,0.053,-0.561,-0.293,5,-10.551,-38.062,30.737
705613.3438,3,1.046,8.428,-4.709,4,0.088,-0.653,-0.312,5,-10.548,-38.068,32.916
705613.3637,3,-0.091,1.029,-3.817,4,0.056,-0.636,-0.3,5,-10.565,-38.776,32.191
705613.3835,3,1.558,18.994,-9.772,4,0.016,-0.696,-0.294,5,-8.578,-39.444,32.922
705613.4034,3,-2.139,13.948,-0.321,4,0.012,-0.769,-0.268,5,-8.58,-39.439,31.471
705613.4233,3,1.785,3.467,5.819,4,-0.183,-0.669,-0.206,5,-5.928,-40.085,30.751
705613.4431,3,-0.263,9.791,-0.986,4,-0.272,-0.709,-0.268,5,-5.273,-40.787,32.207
705613.463,3,-2.948,12.409,-4.152,4,-0.011,-0.622,-0.284,5,-6.593,-40.103,31.477
705613.4828,3,-1.546,6.611,-2.623,4,0.09,-0.498,-0.301,5,-5.241,-39.359,31.477
705613.5027,3,-2.264,9.114,-3.97,4,0.016,-0.437,-0.266,5,-4.604,-40.773,32.935
705613.5226,3,-3.352,11.024,-3.819,4,0.002,-0.324,-0.208,5,-3.923,-40.042,32.933
705613.5425,3,-2.498,9.2,-0.725,4,-0.065,-0.215,-0.129,5,-3.256,-40.022,31.483
705613.5623,3,-2.175,9.763,-0.759,4,-0.136,-0.236,-0.071,5,-3.925,-40.038,31.482
705613.5822,3,-3.142,10.024,-1.34,4,-0.106,-0.264,-0.046,5,-3.288,-41.451,32.211
705613.6021,3,-3.479,8.837,-0.969,4,-0.034,-0.202,-0.013,5,-5.258,-40.073,32.205
705613.6219,3,-2.613,9.971,-3.022,4,0.016,-0.136,0.019,5,-4.605,-40.77,32.208
705613.6418,3,-2.015,9.141,-4.032,4,0.061,-0.009,0.041,5,-3.925,-40.038,31.482
705613.6616,3,-1.036,10.466,-3.833,4,0.07,0.188,0.085,5,-5.26,-40.07,30.753
705613.6815,3,0.462,10.162,-2.201,4,0.033,0.402,0.12,5,-4.605,-40.768,31.483
705613.7014,3,1.239,10.174,-0.802,4,-0.043,0.639,0.128,5,-4.59,-40.054,31.482
705613.7212,3,1.228,10.292,-1.546,4,-0.081,0.814,0.106,,,,
705613.7411,3,1.96,7.875,-2.082,4,-0.054,0.845,0.057,5,-6.593,-40.105,32.202
705613.761,3,1.271,4.936,-2.852,4,-0.018,0.751,-0.024,5,-5.942,-40.8,31.48
705613.7808,3,-1.017,10.265,-7.71,4,0.011,0.595,-0.111,5,-5.307,-42.212,31.485
705613.8007,3,-0.218,10.782,-4.776,4,0.094,0.432,-0.168,5,-3.287,-41.454,32.938
705613.8206,3,-0.711,7.104,-1.761,4,-0.043,0.237,-0.234,5,-7.295,-41.545,30.753
705613.8404,3,-1.792,11.411,-4.245,4,-0.156,0.041,-0.236,5,-6.609,-40.817,31.479
705613.8603,3,-3.194,8.499,-2.972,4,-0.06,-0.136,-0.245,5,-5.29,-41.498,31.483
705613.8802,3,-2.764,9.27,-2.386,4,-0.046,-0.428,-0.26,5,-3.958,-41.463,30.757
705613.9,3,-1.9,10.832,-4.458,4,0.006,-0.748,-0.249,5,-4.623,-41.479,30.757
705613.9199,3,-3.101,9.964,-2.965,4,0.067,-0.901,-0.189,5,-5.258,-40.071,31.48
705613.9397,3,-3.015,9.787,-1.4,4,0.055,-0.893,-0.112,5,-3.943,-40.749,30.031
705613.9596,3,-2.747,7.631,-1.493,4,0.045,-0.901,-0.064,5,-3.943,-40.749,30.031
705613.9795,3,-2.491,9.925,-2.292,4,0.072,-0.9,-0.025,5,-3.943,-40.749,30.031
705613.9993,3,-1.462,9.124,-1.283,4,0.108,-0.784,0.034,5,-1.936,-40.704,32.211
705614.0192,3,-0.335,6.53,-1.716,4,0.095,-0.6,0.158,5,-2.637,-42.146,31.49
705614.0391,3,-0.761,11.572,-3.857,4,0.079,-0.444,0.205,5,-2.6,-40.726,33.665
705614.0589,3,1.247,11.167,-1.335,4,0.081,-0.27,0.221,5,-2.603,-40.721,32.211
705614.0788,3,1.249,9.641,1.235,4,-0.021,-0.125,0.263,5,-3.287,-41.454,32.938
705614.0986,3,-0.656,10.476,0.957,4,-0.074,-0.032,0.267,5,-2.6,-40.726,33.665
705614.1185,3,-1.768,10.342,-1.053,4,-0.013,-0.014,0.223,5,-3.304,-42.168,32.939
705614.1384,3,-2.496,10.301,-3.051,4,0.066,-0.147,0.169,5,-3.252,-40.031,35.115
705614.1583,3,-2.862,9.813,-3.568,4,0.11,-0.223,0.172,5,-3.937,-40.758,33.662
705614.1781,3,-1.326,9.705,-3.716,4,0.095,-0.142,0.232,5,-4.602,-40.776,34.387
705614.198,3,-1.022,8.975,-2.572,4,0.065,-0.02,0.294,5,-5.928,-40.085,30.751
705614.2178,3,0.041,9.157,-1.957,4,0.037,0.125,0.317,5,-5.289,-41.502,32.935
705614.2377,3,-0.988,9.351,-2.584,4,0.048,0.263,0.304,5,-5.238,-39.366,34.381
705614.2576,3,-0.294,10.16,-3.386,4,0.098,0.437,0.271,5,-5.27,-40.793,34.386
705614.2774,3,-0.06,7.277,-2.871,4,0.126,0.598,0.244,5,-6.59,-40.109,33.656
705614.2973,3,-0.809,8.605,-3.766,4,0.095,0.777,0.241,5,-6.592,-40.108,32.928
705614.3172,3,-1.364,12.546,-3.47,4,0.088,0.916,0.205,5,-5.927,-40.088,32.204
705614.337,3,-0.584,8.624,0.395,4,0.031,1.009,0.168,5,-8.577,-39.447,34.375
705614.3569,3,-0.663,9.275,-0.368,4,-0.066,1.031,0.172,5,-9.244,-39.461,33.65
705614.3767,3,-1.524,11.859,-1.493,4,-0.007,1.012,0.131,5,-9.897,-38.762,32.919
705614.3966,3,-1.397,8.466,-0.845,4,0.076,1,0.074,5,-9.883,-38.048,32.191
705614.4165,3,-2.273,9.138,-3.245,4,0.1,0.923,0.035,5,-10.548,-38.068,32.916
705614.4364,3,-2.766,9.76,-5.264,4,0.143,0.89,0.015,5,-10.55,-38.063,31.465
705614.4562,3,-1.531,9.935,-4.092,4,0.138,0.878,0.029,5,-11.9,-38.811,32.916
705614.4761,3,-0.878,9.89,-2.424,4,0.049,0.873,0.045,5,-11.919,-39.52,31.467
705614.496,3,0.036,10.303,-1.433,4,-0.04,0.861,0.054,5,-11.899,-38.812,33.644
705614.5158,3,-0.385,8.416,-1.007,4,-0.044,0.819,0.052,5,-11.885,-38.1,32.915
705614.5357,3,-0.615,13.969,-3.647,4,0.006,0.794,0.004,5,-12.585,-39.537,31.465
705614.5556,3,0.022,5.243,-2.314,4,0.071,0.791,-0.041,5,-13.889,-38.148,32.912
705614.5754,3,-0.938,9.854,-4.362,4,0.042,0.838,-0.052,5,-12.589,-39.534,30.013
705614.5953,3,-1.424,11.308,-2.704,4,0.053,0.836,-0.087,5,-12.553,-38.112,31.462
705614.6152,3,-0.711,7.691,-0.239,4,-0.02,0.823,-0.104,5,-15.224,-38.177,32.182
705614.635,3,-0.373,11.624,-1.199,4,-0.085,0.758,-0.1,5,-15.227,-38.173,30.005
705614.6549,3,-1.06,10.38,-1.012,4,-0.029,0.696,-0.12,5,-15.239,-38.887,31.459
705614.6748,3,-0.969,8.774,-2.046,4,0.005,0.658,-0.147,5,-15.875,-37.479,31.454
705614.6946,3,-1.11,10.258,-3.974,4,0.051,0.582,-0.178,5,-14.587,-39.584,31.462
705614.7145,3,-0.964,9.698,-3.582,4,0.101,0.537,-0.181,5,-15.242,-38.882,29.279
705614.7344,3,-1.065,8.93,-2.812,4,0.07,0.543,-0.167,5,-17.882,-37.524,29.999
705614.7542,3,-0.995,9.899,-2.139,4,0.028,0.548,-0.158,5,-15.944,-40.326,29.282
705614.7741,3,-0.876,8.614,-1.864,4,0.009,0.521,-0.148,5,-17.947,-40.375,29.279
705614.794,3,-1.058,11.213,-2.682,4,0.009,0.474,-0.156,5,-15.962,-41.037,27.832
705614.8138,3,-0.318,7.466,-3.156,4,0.034,0.417,-0.18,5,-15.898,-38.185,27.824
705614.8337,3,1.101,13.481,-4.302,4,0.056,0.395,-0.169,5,-16.597,-39.626,27.827
705614.8535,3,1.838,10.356,-0.708,4,0.045,0.336,-0.184,5,-16.562,-38.203,29.276
705614.8734,3,2.292,8.04,-1.675,4,-0.043,0.364,-0.2,5,-14.594,-39.577,27.831
705614.8933,3,2.134,11.926,-4.357,4,-0.02,0.443,-0.235,5,-15.912,-38.898,28.551
705614.9131,3,2.247,8.466,-1.256,4,0.033,0.43,-0.306,5,-15.279,-40.306,27.832
705614.933,3,-0.936,9.559,-3.099,4,-0.041,0.333,-0.377,5,-14.61,-40.286,27.106
705614.9528,3,-1.74,8.894,-2.785,4,-0.021,0.358,-0.438,5,-15.947,-40.323,27.831
705614.9727,3,-2.524,10.081,-1.79,4,-0.021,0.186,-0.445,5,-15.901,-38.179,25.644
705614.9926,3,-3.261,9.751,-2.235,4,-0.05,-0.079,-0.424,5,-15.982,-41.743,25.653
705615.0125,3,-5.264,9.066,-4.458,4,-0.033,-0.171,-0.385,5,-15.28,-40.302,26.379
705615.0323,3,-4.838,11.007,-3.678,4,0.004,-0.119,-0.327,5,-13.281,-40.25,24.93
705615.0522,3,-3.192,5.532,-1.613,4,-0.034,-0.197,-0.249,5,-11.957,-40.939,27.84
705615.0721,3,-5.257,10.189,-3.934,4,-0.094,-0.347,-0.139,5,-13.947,-40.269,26.382
705615.0919,3,-0.529,12.206,-1.529,4,-0.035,-0.45,-0.062,5,-13.309,-41.681,27.11
705615.1118,3,-0.84,8.104,0.622,4,-0.034,-0.659,0.037,5,-13.962,-40.984,26.384
705615.1316,3,0.194,10.897,-3.147,4,-0.016,-0.511,0.112,5,-13.947,-40.269,26.382
705615.1515,3,1.888,10.311,-3.58,4,0.127,-0.201,0.128,5,-13.26,-39.542,27.104
705615.1714,3,1.464,8.432,-2.804,4,0.149,-0.041,0.117,5,-13.928,-39.558,27.104
705615.1912,3,1.529,10.332,-2.864,4,0.098,0.216,0.078,5,-13.943,-40.276,28.56
705615.2111,3,1.089,9.016,-1.914,4,0.064,0.376,0.043,5,-14.626,-41.003,27.835
705615.231,3,0.916,10.239,-2.249,4,0.007,0.445,0.013,5,-13.943,-40.276,28.56
705615.2509,3,1.854,9.945,-1.371,4,-0.02,0.381,-0.036,5,-13.947,-40.269,26.382
705615.2707,3,1.232,9.681,-2.055,4,-0.044,0.25,-0.073,5,-15.962,-41.037,27.832
705615.2906,3,1.426,11.572,-1.45,4,-0.04,0.206,-0.119,5,-14.594,-39.574,27.103
705615.3104,3,-0.488,5.975,-0.878,4,-0.062,0.141,-0.15,5,-13.26,-39.545,27.832
705615.3303,3,-2.23,13.247,-4.74,4,-0.079,0.153,-0.183,5,-15.962,-41.034,27.104
705615.3502,3,-1.814,9.973,-1.072,4,-0.023,0.125,-0.198,5,-14.626,-41,27.107
705615.37,3,-2.773,6.891,-2.122,4,-0.109,0.023,-0.17,5,-15.314,-41.727,25.655
705615.3899,3,-2.371,11.146,-4.367,4,-0.085,0.061,-0.147,5,-15.929,-39.612,28.552
705615.4097,3,-2.232,7.473,-2.907,4,-0.018,-0.032,-0.128,5,-15.962,-41.037,27.832
705615.4296,3,-1.831,12.029,-3.929,4,-0.043,-0.135,-0.098,5,-14.61,-40.286,27.106
705615.4495,3,-1.79,8.6,-2.929,4,-0.017,-0.091,-0.078,5,-14.644,-41.711,26.384
705615.4693,3,-1.452,10.493,-3.209,4,-0.02,0.003,-0.026,5,-15.279,-40.306,27.832
705615.4892,3,-0.17,8.368,-2.871,4,0.017,0.081,0.003,5,-13.979,-41.696,26.385
705615.5091,3,0.041,8.428,-3.606,4,0.032,0.107,0.008,5,-12.608,-40.239,27.109
705615.5289,3,-0.359,12.866,-3.596,4,0.042,0.144,-0.031,5,-13.945,-40.274,27.835
705615.5488,3,0.486,6.099,-1.481,4,0.035,0.179,-0.056,5,-13.309,-41.684,27.838
705615.5687,3,-0.179,9.763,-2.965,4,-0.016,0.197,-0.057,5,-12.608,-40.239,27.109
705615.5885,3,-0.146,12.287,-2.749,4,0.016,0.186,-0.076,5,-13.976,-41.702,28.563
705615.6084,3,0.567,10.715,-0.311,4,-0.022,0.114,-0.107,5,-12.622,-40.958,28.563
705615.6283,3,0,8.952,-0.474,4,-0.089,0.068,-0.101,5,-12.624,-40.956,27.838
705615.6481,3,-1.469,9.701,-2.615,4,-0.044,0.053,-0.106,5,-12.642,-41.664,26.387
705615.668,3,-2.225,9.933,-4.097,4,0.045,-0.055,-0.168,5,-12.593,-39.525,26.381
705615.6879,3,-2.244,7.719,-3.264,4,0.067,-0.126,-0.173,5,-11.353,-43.777,28.572
705615.7077,3,-2.209,9.835,-2.701,4,0.015,-0.132,-0.114,5,-12.622,-40.958,28.563
705615.7276,3,-0.694,8.715,-2.17,4,-0.011,-0.103,-0.063,5,-11.273,-40.208,27.838
705615.7474,3,0.979,10.284,-4.403,4,-0.027,-0.09,-0.015,5,-9.987,-42.314,27.118
705615.7673,3,1.421,11.146,-3.218,4,-0.004,-0.069,-0.015,5,-11.273,-40.208,27.838
705615.7872,3,1.342,7.305,-1.503,4,-0.05,0.004,-0.046,5,-11.975,-41.647,26.389
705615.807,3,-0.359,12.115,-1.594,4,-0.079,0.122,-0.079,5,-10.637,-41.617,27.115
705615.8269,3,-1.606,11.694,-0.696,4,-0.052,0.133,-0.135,5,-11.324,-42.345,26.39
705615.8468,3,-1.673,6.705,-1.165,4,-0.067,0.047,-0.172,5,-10.637,-41.617,27.115
705615.8666,3,-2.039,12.371,-3.695,4,-0.035,-0.041,-0.169,5,-12.657,-42.383,27.841
705615.8865,3,-2.11,9.126,-1.876,4,0.038,-0.103,-0.136,5,-11.322,-42.346,27.115
705615.9064,3,-3.008,8.078,-3.321,4,-0.006,-0.176,-0.109,5,-9.97,-41.603,27.844
705615.9262,3,-1.864,13.436,-5.405,4,0.006,-0.197,-0.085,5,-10.657,-42.328,25.664
705615.9461,3,-1.108,7.212,-0.33,4,0.05,-0.167,-0.001,5,-11.305,-41.632,27.113
705615.966,3,-1.859,9.229,-1.29,4,-0.061,-0.054,0.064,5,-11.324,-42.345,26.39
705615.9858,3,-2.577,10.28,-2.742,4,-0.016,0.006,0.048,5,-9.338,-43.008,25.668
705616.0057,3,-2.556,8.913,-2.053,4,0.054,0.02,0.029,5,-10.637,-41.62,27.843
705616.0256,3,-1.469,6.561,-3.446,4,0.048,0.029,0.058,5,-10.622,-40.903,26.389
705616.0454,3,-0.806,11.617,-4.774,4,0.083,0.084,0.091,5,-12.592,-39.526,27.106
705616.0653,3,0.081,11.048,-1.955,4,0.104,0.161,0.115,5,-10.605,-40.193,27.84
705616.0852,3,1.295,8.631,-1.103,4,-0.001,0.301,0.126,5,-11.307,-41.631,26.389
705616.105,3,1.771,11.763,-2.95,4,-0.031,0.419,0.098,5,-11.324,-42.345,26.39
705616.1249,3,1.172,8.183,-2.254,4,0.037,0.48,0.046,5,-11.339,-43.06,27.116
705616.1448,3,1.017,9.361,-3.355,4,0.011,0.445,-0.031,5,-11.356,-43.771,26.395
705616.1646,3,-0.081,9.497,-3.472,4,0.005,0.394,-0.103,5,-12.66,-42.377,25.661
705616.1845,3,-0.871,9.839,-1.677,4,-0.032,0.328,-0.126,5,-11.975,-41.647,26.389
705616.2044,3,-0.486,9.193,-1.378,4,-0.092,0.212,-0.142,5,-11.31,-41.628,24.936
705616.2236,3,-1.012,10.272,-2.888,4,-0.1,0.031,-0.161,5,-12.012,-43.073,24.939
705616.2441,3,-2.405,10.548,-2.39,4,-0.066,-0.125,-0.183,5,-11.96,-40.933,25.659
705616.264,3,-3.285,6.882,-2.445,4,-0.05,-0.311,-0.174,5,-10.64,-41.614,25.662
705616.2838,3,-3.343,12.806,-4.577,4,-0.037,-0.468,-0.142,5,-9.973,-41.597,25.664
705616.3037,3,-1.694,9.918,-0.9,4,-0.006,-0.554,-0.079,5,-10.658,-42.325,24.213
705616.3235,3,-1.649,8.081,-0.744,4,-0.07,-0.553,0.021,5,-11.992,-42.361,26.39
705616.3434,3,-1.957,9.169,-2.948,4,-0.024,-0.518,0.062,5,-11.343,-43.054,24.213
705616.3633,3,-2.244,9.327,-3.058,4,0.108,-0.498,0.084,5,-9.323,-42.293,24.942
705616.3831,3,-1.321,7.98,-3.17,4,0.116,-0.397,0.107,5,-10.67,-43.045,27.118
705616.403,3,-2.828,10.787,-3.728,4,0.111,-0.222,0.145,5,-11.307,-41.631,26.389
705616.4229,3,-1.431,7.961,-1.608,4,0.117,-0.009,0.201,5,-11.34,-43.059,26.392
705616.4428,3,-1.814,9.184,-0.66,4,0.056,0.167,0.25,5,-11.339,-43.06,27.116
705616.4626,3,-2.005,11.012,-0.904,4,0.046,0.343,0.254,5,-11.99,-42.363,27.115
705616.4825,3,-1.283,7.784,-2.563,4,0.094,0.471,0.221,5,-12.642,-41.664,26.387
705616.5023,3,-1.457,10.605,-3.285,4,0.127,0.579,0.23,5,-12.64,-41.666,27.112
705616.5222,3,-0.024,11.622,-2.931,4,0.148,0.711,0.225,5,-13.309,-41.681,27.11
705616.5421,3,-0.055,9.15,-0.266,4,0.086,0.801,0.205,5,-13.994,-42.415,27.84
705616.5619,3,-0.677,9.368,-1.543,4,0.017,0.929,0.186,5,-13.358,-43.822,27.116
705616.5818,3,-1.555,8.973,-2.876,4,0.037,0.982,0.122,5,-15.294,-41.02,27.834
705616.6017,3,-1.62,9.011,-3.472,4,0.076,0.904,0.053,5,-14.696,-43.849,24.937
705616.6215,3,-1.541,10.909,-3.436,4,0.057,0.827,0.019,5,-15.347,-43.155,25.658
705616.6414,3,-0.744,8.798,-1.754,4,0.001,0.803,0.025,5,-15.95,-40.317,25.65
705616.6612,3,-0.692,9.861,-1.015,4,-0.063,0.807,0.04,5,-16.65,-41.757,24.928
705616.6811,3,-0.306,9.823,-2.177,4,-0.049,0.764,0.028,5,-17.352,-43.202,24.93
705616.701,3,-0.718,7.545,-2.256,4,-0.013,0.702,-0.029,5,-15.349,-43.153,24.933
705616.7209,3,-0.184,8.313,-3.896,4,0.006,0.651,-0.052,5,-17.352,-43.202,24.93
705616.7407,3,-0.132,12.507,-3.852,4,0.045,0.577,-0.078,5,-17.987,-41.789,24.199
705616.7606,3,0.799,6.028,-1.761,4,0.027,0.488,-0.119,5,-16.684,-43.184,24.205
705616.7804,3,0.656,11.091,-4.609,4,-0.039,0.46,-0.13,5,-17.368,-43.913,24.207
705616.8003,3,1.113,10.303,-2.18,4,0.005,0.42,-0.167,5,-17.355,-43.198,22.751
705616.8202,3,0.759,9.114,-1.395,4,-0.056,0.376,-0.212,5,-16.67,-42.467,22.751
705616.84,3,-0.033,10.134,-2.742,4,-0.085,0.325,-0.266,5,-16.687,-43.178,22.025
705616.8599,3,-0.165,8.581,-2.807,4,-0.033,0.219,-0.304,5,-16.052,-44.592,22.757
705616.8798,3,-0.574,4.951,-1.972,4,-0.035,0.105,-0.324,5,-16.034,-43.88,23.48
705616.8996,3,-1.385,9.358,-4.494,4,-0.033,-0.04,-0.343,5,-15.367,-43.861,22.757
705616.9195,3,-1.711,11.842,-3.587,4,-0.037,-0.239,-0.368,,,,
705616.9393,3,1.096,6.286,-0.251,4,-0.125,-0.35,-0.301,5,-14.732,-45.271,22.762
705616.9592,3,0.627,15.36,-1.687,4,-0.221,-0.402,-0.209,5,-12.761,-46.652,23.492
705616.9791,3,0.014,9.846,0.28,4,-0.172,-0.418,-0.206,5,-12.776,-47.368,24.222
705616.999,3,-1.043,8.956,-0.723,4,-0.187,-0.422,-0.211,5,-11.424,-46.622,24.948
705617.0188,3,-2.977,10.418,-3.19,4,-0.085,-0.494,-0.219,5,-12.695,-43.799,23.486
705617.0387,3,-4.637,10.04,-3.065,4,0.018,-0.589,-0.203,5,-12.695,-43.799,23.486
705617.0585,3,-3.501,8.83,-2.063,4,0,-0.632,-0.148,5,-12.695,-43.799,23.486
705617.0784,3,-2.424,10.306,-1.445,4,-0.048,-0.606,-0.043,5,-13.362,-43.816,24.213
705617.0983,3,-0.421,9.933,-1.079,4,-0.052,-0.51,0.072,5,-12.044,-44.498,24.217
705617.1181,3,-0.9,8.66,-1.986,4,-0.027,-0.412,0.13,5,-14.018,-43.117,22.757
705617.138,3,-0.347,12.656,-1.802,4,0.026,-0.262,0.142,5,-12.711,-44.514,24.216
705617.1579,3,-0.876,5.008,-1.306,4,0.045,-0.049,0.12,5,-12.727,-45.227,24.217
705617.1777,3,-1.584,8.456,0.098,4,0.033,0.138,0.108,5,-11.36,-43.765,23.488
705617.1976,3,-3.769,11.11,-4.499,4,0.087,0.238,0.111,5,-12.729,-45.226,23.489
705617.2174,3,-0.754,10.94,-2.847,4,0.109,0.34,0.124,5,-12.695,-43.799,23.486
705617.2373,3,-0.019,9.77,-1.335,4,0.095,0.381,0.134,5,-14.015,-43.12,24.21
705617.2572,3,-0.182,9.842,-0.476,4,0.056,0.499,0.159,5,-14.697,-43.846,23.483
705617.2771,3,-0.577,9.05,-3.178,4,0.084,0.603,0.098,5,-14.664,-42.422,24.933
705617.2969,3,-1.137,9.93,-5.204,4,0.128,0.671,0.015,5,-13.33,-42.39,24.934
705617.3168,3,-2.438,8.794,-2.745,4,0.121,0.761,-0.008,5,-14.665,-42.419,23.479
705617.3367,3,-2.371,8.839,-2.221,4,0.029,0.862,0.008,5,-16.684,-43.184,24.205
705617.3565,3,-2.278,11.28,-2.522,4,-0.021,0.811,-0.004,5,-15.349,-43.153,24.933
705617.3764,3,-2.402,5.202,-0.519,4,-0.032,0.72,-0.018,5,-15.349,-43.153,24.933
705617.3963,3,-1.455,8.487,-4.015,4,-0.055,0.599,-0.002,5,-16.718,-44.609,23.482
705617.4161,3,-1.098,15.785,-4.836,4,0.017,0.402,-0.014,5,-15.334,-42.436,23.477
705617.436,3,-0.328,7.382,0.163,4,0.016,0.285,-0.016,5,-16.702,-43.89,22.028
705617.4559,3,0.51,11.215,-1.701,4,-0.115,0.288,0.013,5,-16.653,-41.753,22.749
705617.4757,3,-0.249,8.404,-1.062,4,-0.039,0.238,-0.01,5,-17.339,-42.484,22.749
705617.4956,3,0.452,11.019,-3.613,4,0.026,0.155,-0.047,5,-18.703,-43.945,24.205
705617.5154,3,1.505,9.351,-4.881,4,0.076,0.068,-0.093,5,-15.298,-41.011,24.202
705617.5353,3,2.608,6.614,-3.771,4,0.068,0.07,-0.1,5,-17.352,-43.201,24.203
705617.5552,3,1.567,11.632,-3.541,4,0.018,0.15,-0.101,5,-17.369,-43.912,23.479
705617.5751,3,1.407,7.557,0.572,4,-0.023,0.226,-0.154,5,-16.699,-43.896,24.208
705617.5949,3,1,6.985,-0.967,4,-0.098,0.252,-0.212,5,-16.035,-43.878,22.755
705617.6148,3,-0.151,9.973,-2.651,4,-0.033,0.16,-0.258,5,-16.037,-43.874,21.303
705617.6347,3,-1.23,12.787,-3.34,4,0.033,0.036,-0.317,5,-16.02,-43.166,22.752
705617.6545,3,-0.179,8.894,-0.603,4,0.012,-0.031,-0.335,5,-15.384,-44.572,22.031
705617.6744,3,-0.983,9.078,-0.431,4,-0.066,-0.069,-0.283,5,-15.384,-44.572,22.031
705617.6942,3,-1.871,11.024,-3.51,4,-0.028,-0.127,-0.277,5,-14.732,-45.271,22.762
705617.7141,3,-1.9,8.32,-3.369,4,0.034,-0.299,-0.305,5,-14.731,-45.273,23.486
705617.734,3,-1.957,11.299,-3.577,4,0.024,-0.419,-0.266,5,-14.734,-45.267,21.309
705617.7538,3,-0.94,8.789,-1.12,4,-0.007,-0.516,-0.191,5,-12.015,-43.068,22.76
705617.7737,3,-1.192,8.212,-2.419,4,-0.045,-0.529,-0.114,5,-13.399,-45.239,22.763
705617.7936,3,-2.634,12.553,-5.137,4,0.005,-0.558,-0.082,5,-12.697,-43.797,22.762
705617.8134,3,-1.029,7.114,-1.134,4,0.067,-0.51,-0.071,5,-12.064,-45.207,22.766
705617.8333,3,-1.689,7.152,-2.082,4,-0.015,-0.45,-0.003,5,-12.729,-45.226,23.489
705617.8532,3,-1.962,14.357,-3.788,4,0.02,-0.327,0.042,5,-13.399,-45.236,22.035
705617.873,3,-0.462,7.411,0.108,4,0.059,-0.174,0.07,5,-12.029,-43.782,23.488
705617.8929,3,-0.505,9.279,-1.838,4,0,0.001,0.124,5,-12.743,-45.943,24.945
705617.9128,3,-0.447,10.256,-2.752,4,0.06,0.14,0.134,5,-12.711,-44.514,24.216
705617.9326,3,-0.916,9.102,-3.326,4,0.11,0.223,0.092,5,-13.379,-44.53,24.214
705617.9525,3,-0.261,11.371,-2.209,4,0.084,0.337,0.061,5,-12.743,-45.943,24.945
705617.9723,3,-1.094,8.346,-1.862,4,0.04,0.489,0.068,5,-13.364,-43.814,23.485
705617.9922,3,-1.4,12.412,-3.135,4,-0.008,0.656,0.065,5,-14.696,-43.849,24.937
705618.0121,3,-1.716,8.322,-2.022,4,0.018,0.679,0.025,5,-12.729,-45.226,23.489
705618.0319,3,-1.172,11.04,-3.135,4,-0.012,0.706,-0.003,5,-13.379,-44.53,24.214
705618.0518,3,-1.058,5.621,-3.635,4,-0.01,0.736,-0.024,5,-14.05,-44.543,22.762
705618.0717,3,-1.979,14.445,-2.52,4,-0.027,0.74,-0.065,5,-14.682,-43.134,23.48
705618.0915,3,-1.56,7.547,0.866,4,-0.068,0.693,-0.09,5,-14.699,-43.842,22.031
705618.1114,3,-1.426,9.165,-0.211,4,-0.154,0.634,-0.084,5,-15.401,-45.285,22.032
705618.1313,3,-1.117,10.837,-2.969,4,-0.066,0.465,-0.118,5,-15.384,-44.576,22.758
705618.1511,3,-1.713,8.55,-3.955,4,0.038,0.263,-0.137,5,-15.387,-44.568,19.852
705618.171,3,-1.012,9.399,-3.57,4,0.043,0.129,-0.168,5,-16.039,-43.872,20.576
705618.1909,3,-0.809,9.547,-1.752,4,0.029,0.009,-0.153,5,-14.684,-43.129,22.028
705618.2107,3,-1.486,7.755,-2.575,4,-0.031,0.007,-0.125,5,-15.388,-44.566,19.127
705618.2306,3,-0.9,10.394,-4.716,4,-0.046,-0.052,-0.117,5,-16.084,-46.016,22.032
705618.2505,3,0.199,10.962,-2.931,4,-0.02,-0.153,-0.113,5,-15.367,-43.858,22.029
705618.2703,3,1.067,5.915,-1.637,4,-0.055,-0.191,-0.093,5,-14.732,-45.268,22.034
705618.2902,3,0.648,11.672,-4.408,4,-0.078,-0.153,-0.089,5,-12.715,-44.507,21.31
705618.31,3,1.318,12.187,-3.072,4,-0.002,-0.118,-0.118,5,-13.379,-44.53,24.214
705618.3299,3,2.331,8.703,0.115,4,-0.037,-0.103,-0.136,5,-14.751,-45.979,20.584
705618.3498,3,1.72,5.604,-1.898,4,-0.09,-0.082,-0.154,5,-14.716,-44.556,22.032
705618.3696,3,0.974,10.832,-6.705,4,-0.026,-0.154,-0.227,5,-12.73,-45.224,22.765
705618.3895,3,0.325,10.402,-3.974,4,0.059,-0.356,-0.294,5,-14.732,-45.268,22.034
705618.4094,3,0.278,10.241,-1.062,4,-0.063,-0.483,-0.295,5,-12.714,-44.508,22.035
705618.4292,3,-0.098,10.337,-0.179,4,-0.191,-0.588,-0.262,5,-12.047,-44.495,22.765
705618.4491,3,-1.137,8.066,-0.782,4,-0.184,-0.742,-0.253,5,-12.746,-45.935,22.038
705618.469,3,-2.115,10.227,-2.345,4,-0.125,-0.907,-0.242,5,-11.378,-44.475,22.037
705618.4888,3,-2.34,10.942,-1.184,4,-0.049,-1.096,-0.235,5,-10.06,-45.155,22.041
705618.5087,3,-2.704,6.619,-1.228,4,-0.034,-1.264,-0.159,5,-8.725,-45.126,22.771
705618.5286,3,-3.388,13.34,-4.092,4,-0.001,-1.314,-0.079,5,-10.043,-44.446,22.768
705618.5484,3,-1.208,8.796,-1.156,4,0.099,-1.275,0.023,5,-10.059,-45.16,23.494
705618.5683,3,-1.117,8.715,-1.158,4,0.056,-1.162,0.146,5,-9.392,-45.142,22.771
705618.5881,3,-1.491,9.681,-2.871,4,0.079,-0.975,0.202,5,-8.737,-45.844,24.225
705618.608,3,-1.56,9.497,-2.862,4,0.17,-0.775,0.221,5,-8.055,-45.114,24.951
705618.6279,3,-0.897,9.598,-3.328,4,0.194,-0.477,0.261,5,-8.737,-45.845,24.951
705618.6477,3,0.428,9.906,-1.266,4,0.183,-0.113,0.29,5,-9.354,-43.721,25.671
705618.6676,3,-1.216,7.614,-0.167,4,0.139,0.271,0.311,5,-10.707,-44.466,24.219
705618.6875,3,-2.278,11.498,-2.364,4,0.122,0.592,0.285,5,-10.707,-44.466,24.219
705618.7073,3,-0.988,11.646,-2.804,4,0.172,0.697,0.2,5,-10.022,-43.738,25.67
705618.7272,3,-0.244,6.525,-0.988,4,0.126,0.714,0.189,5,-9.37,-44.435,25.673
705618.7471,3,-2.252,11.33,-2.941,4,0.064,0.758,0.183,5,-11.375,-44.482,24.944
705618.7669,3,-2.91,9.71,-1.842,4,0.068,0.768,0.148,5,-12.027,-43.785,24.942
705618.7868,3,-2.998,10.406,-0.581,4,-0.001,0.714,0.136,5,-12.714,-44.511,22.763
705618.8067,3,-2.441,9.521,-1.297,4,-0.029,0.546,0.134,5,-12.013,-43.069,23.485
705618.8265,3,-1.89,9.538,-2.754,4,0.007,0.38,0.141,5,-11.998,-42.351,22.031
705618.8464,3,-1.452,9.397,-3.943,4,0.038,0.239,0.12,5,-13.982,-41.692,24.207
705618.8663,3,-1.658,9.772,-4.702,4,0.06,0.196,0.113,5,-12.662,-42.374,24.21
705618.8861,3,-0.211,8.803,-3.319,4,0.05,0.241,0.124,5,-13.333,-42.386,22.755
705618.906,3,-0.084,9.287,-2.39,4,0.002,0.307,0.134,5,-15.384,-44.576,22.758
705618.9259,3,-0.601,9.38,-3.494,4,-0.017,0.408,0.129,5,-14.034,-43.826,22.032
705618.9457,3,-0.27,7.088,-2.654,4,0.001,0.544,0.069,5,-13.347,-43.103,24.21
705618.9656,3,-1.156,7.329,-4.175,4,0.015,0.626,0.042,5,-15.367,-43.858,22.029
705618.9855,3,-1.921,12.833,-4.094,4,0.035,0.679,0.01,5,-13.365,-43.81,22.032
705619.0053,3,-1.065,9.674,-0.79,4,0,0.64,-0.02,5,-15.335,-42.435,22.752
705619.0252,3,-0.766,11.033,0.345,4,-0.118,0.592,-0.024,5,-13.365,-43.813,22.76
705619.0451,3,-0.816,8.325,-0.215,4,-0.128,0.5,-0.041,5,-14.05,-44.543,22.762
705619.0649,3,-1.182,11.938,-2.302,4,-0.049,0.321,-0.069,5,-14.65,-41.704,22.752
705619.0848,3,-2.472,7.545,-4.041,4,0.051,0.133,-0.104,5,-14.037,-43.823,20.581
705619.1047,3,-2.864,9.617,-5.039,4,0.075,0.02,-0.102,5,-14.032,-43.831,23.485
705619.1245,3,-1.883,9.476,-3.958,4,0.078,0.008,-0.069,5,-14.066,-45.258,23.488
705619.1444,3,-1.481,9.294,-2.142,4,0.009,0.012,-0.015,5,-14.034,-43.826,22.032
705619.1642,3,-0.852,11.603,-2.319,4,-0.066,0.041,0.017,5,-13.333,-42.383,22.028
705619.1841,3,0.156,7.023,-1.931,4,-0.067,0.014,0.032,5,-14.699,-43.845,22.758
705619.204,3,1.321,12.971,-3.58,4,-0.027,-0.003,0.039,5,-13.333,-42.383,22.028
705619.2238,3,1.941,8.76,-0.761,4,0.009,-0.037,0.015,5,-14.018,-43.117,22.757
705619.2437,3,1.335,9.813,-1.603,4,-0.043,-0.016,-0.009,5,-15.382,-44.577,23.483
705619.2636,3,0.148,10.801,-2.065,4,0.011,-0.016,-0.062,5,-15.367,-43.858,22.029
705619.2835,3,-0.201,8.023,-1.917,4,0.055,-0.075,-0.113,5,-14.05,-44.54,22.034
705619.3033,3,-0.421,10.229,-4.4,4,0.031,-0.071,-0.146,5,-14.015,-43.12,24.21
705619.3232,3,-0.677,9.959,-3.027,4,0.054,-0.062,-0.142,5,-12.048,-44.49,21.312
705619.343,3,-0.804,9.009,-1.756,4,-0.007,-0.009,-0.12,5,-13.414,-45.953,22.765
705619.3629,3,-2.276,11.347,-2.45,4,-0.081,-0.008,-0.126,5,-12.648,-41.656,22.755
705619.3828,3,-2.618,10.045,0.019,4,-0.09,-0.06,-0.135,5,-12.698,-43.793,21.309
705619.4026,3,-2.819,6.051,-1.251,4,-0.129,-0.107,-0.113,5,-12.682,-43.082,22.031
705619.4225,3,-2.51,12.883,-3.618,4,-0.065,-0.174,-0.089,5,-14.749,-45.981,21.31
705619.4424,3,-1.603,10.67,-1.57,4,0.033,-0.191,-0.052,5,-12.714,-44.508,22.035
705619.4622,3,-0.61,9.399,-1.728,4,-0.024,-0.087,0.009,5,-13.4,-45.235,21.31
705619.4821,3,0.115,9.811,-3.027,4,-0.023,0.028,0.031,5,-11.38,-44.473,21.312
705619.5019,3,-0.651,10.232,-2.701,4,0.035,0.089,0.023,5,-12.717,-44.504,19.856
705619.5218,3,-1.184,7.344,-2.072,4,0.013,0.166,0.002,5,-14.053,-44.537,20.583
705619.5417,3,-0.663,9.765,-3.427,4,-0.001,0.194,-0.024,5,-13.382,-44.524,22.034
705619.5616,3,-0.591,11.088,-3.08,4,0.032,0.186,-0.035,5,-14.052,-44.539,21.309
705619.5814,3,-0.546,7.906,-1.828,4,0.005,0.195,-0.036,5,-13.414,-45.953,22.765
705619.6013,3,0.33,12.352,-2.639,4,-0.034,0.185,-0.049,5,-12.048,-44.49,21.312
705619.6211,3,-0.715,4.769,-0.268,4,-0.007,0.156,-0.08,5,-14.717,-44.554,21.307
705619.641,3,-1.072,10.617,-4.02,4,-0.038,0.15,-0.093,5,-13.431,-46.663,22.038
705619.6609,3,-0.574,12.16,-4.123,4,0.044,0.052,-0.134,5,-12.079,-45.918,22.04
705619.6807,3,0.488,6.698,-1.357,4,0.038,-0.066,-0.126,5,-13.385,-44.521,20.583
705619.7006,3,0.658,9.837,-3.745,4,-0.05,-0.135,-0.115,5,-14.05,-44.543,22.762
705619.7205,3,0.854,11.017,-3.474,4,-0.006,-0.239,-0.152,5,-13.432,-46.661,21.313
705619.7403,3,0.431,7.963,-1.338,4,-0.008,-0.314,-0.165,5,-12.097,-46.629,21.317
705619.7602,3,0.01,9.495,-2.764,4,-0.055,-0.351,-0.173,5,-12.73,-45.224,22.765
705619.78,3,-0.546,9.057,-3.462,4,-0.026,-0.418,-0.203,5,-12.744,-45.94,23.491
705619.7999,3,-0.603,9.622,-3.166,4,0.006,-0.483,-0.194,5,-12.714,-44.511,22.763
705619.8198,3,-0.428,9.004,-2.419,4,-0.017,-0.503,-0.164,5,-11.378,-44.475,22.037
705619.8397,3,-0.663,12.555,-2.185,4,-0.056,-0.5,-0.148,5,-11.409,-45.906,23.492
705619.8595,3,-0.402,9.916,-0.132,4,-0.072,-0.52,-0.115,5,-11.426,-46.619,23.494
705619.8794,3,-1.041,9.88,-1.445,4,-0.089,-0.561,-0.087,5,-12.094,-46.635,23.494
705619.8993,3,-2.273,9.342,-2.29,4,-0.026,-0.633,-0.089,5,-9.39,-45.143,23.495
705619.9191,3,-2.144,8.492,-2.189,4,0.037,-0.704,-0.085,5,-11.409,-45.906,23.492
705619.939,3,-1.878,10.772,-3.893,4,0.031,-0.71,-0.037,5,-10.01,-43.021,23.488
705619.9588,3,-1.012,9.294,-1.091,4,0.034,-0.635,0.03,5,-10.043,-44.446,22.768
705619.9787,3,-1.187,8.973,-1.074,4,-0.02,-0.51,0.079,5,-10.043,-44.446,22.768
705619.9986,3,-1.352,10.471,-1.472,4,-0.013,-0.417,0.106,5,-10.043,-44.446,22.768
705620.0184,3,-0.684,9.126,-2.718,4,0.046,-0.367,0.122,5,-9.372,-44.432,24.222
705620.0383,3,-0.931,12.737,-3.503,4,0.084,-0.362,0.125,5,-8.722,-45.131,24.95
705620.0581,3,-0.373,8.605,-1.419,4,0.108,-0.294,0.114,5,-8.041,-44.397,22.771
705620.078,3,-1.137,7.511,-2.11,4,0.039,-0.217,0.119,5,-10.071,-45.879,25.674
705620.0979,3,-1.893,11.49,-4.369,4,0.086,-0.113,0.113,5,-9.355,-43.718,24.22
705620.1178,3,-0.223,8.533,-1.335,4,0.112,-0.035,0.125,,,,
705620.1376,3,-1.113,9.835,-4.319,4,0.034,0.035,0.137,5,-9.355,-43.718,24.22
705620.1575,3,-0.01,13.015,-2.548,4,0.059,0.099,0.118,5,-10.074,-45.874,23.495
705620.1774,3,-1.378,6.879,0.61,4,0.029,0.147,0.101,5,-8.771,-47.272,24.954
705620.1972,3,-3.094,10.557,-0.148,4,-0.067,0.213,0.072,5,-8.751,-46.561,26.405
705620.2171,3,-3.941,8.361,-1.835,4,0.026,0.169,0.025,5,-10.672,-43.044,26.393
705620.2369,3,-3.127,9.452,-3.762,4,0.094,0.083,0.028,5,-10.709,-44.464,23.491
705620.2568,3,-3.278,10.107,-3.919,4,0.15,0.063,0.065,5,-10.025,-43.733,23.491
705620.2767,3,-2.596,10.263,-2.429,4,0.115,0.143,0.108,5,-11.392,-45.195,24.945
705620.2965,3,-2.089,7.695,-2.034,4,0.033,0.262,0.145,5,-10.707,-44.466,24.219
705620.3164,3,-1.728,11.375,-1.225,4,-0.002,0.361,0.163,5,-11.343,-43.054,24.213
705620.3363,3,-1.862,11.641,-1.627,4,-0.017,0.427,0.172,5,-11.394,-45.192,23.491
705620.3561,3,-0.95,8.372,-0.636,4,-0.032,0.48,0.161,5,-10.69,-43.752,24.217
705620.376,3,-0.684,9.856,-2.311,4,-0.01,0.46,0.142,5,-11.995,-42.357,24.211
705620.3959,3,-0.766,7.662,-3.041,4,0.057,0.434,0.114,5,-12.044,-44.498,24.217
705620.4158,3,-0.538,9.344,-4.501,4,0.068,0.367,0.069,5,-12.694,-43.8,24.214
705620.4356,3,0.211,11.122,-3.151,4,0.049,0.32,0.039,5,-13.365,-43.813,22.76
705620.4555,3,1.429,7.545,-1.172,4,-0.033,0.305,0.034,5,-12.697,-43.797,22.762
705620.4754,3,1.529,10.107,-2.795,4,-0.109,0.255,0.018,5,-12.665,-42.371,22.757
705620.4952,3,0.493,11.069,-2.512,4,-0.07,0.133,-0.041,5,-14.049,-44.545,23.486
705620.5151,3,-0.467,5.905,-2.225,4,-0.054,0.018,-0.118,5,-13.362,-43.816,24.213
705620.5349,3,-0.914,9.523,-3.522,4,-0.068,-0.14,-0.148,5,-14.015,-43.121,24.936
705620.5548,3,-1.517,14.151,-2.532,4,-0.018,-0.264,-0.157,5,-12.045,-44.496,23.489
705620.5747,3,-0.507,8.121,-0.361,4,-0.039,-0.356,-0.125,5,-10.709,-44.464,23.491
705620.5945,3,0.285,8.947,-1.613,4,-0.11,-0.408,-0.09,5,-12.029,-43.782,23.488
705620.6144,3,-0.653,9.787,-2.692,4,-0.018,-0.489,-0.091,5,-12.047,-44.495,22.765
705620.6343,3,-1.381,10.189,-3.06,4,0.06,-0.58,-0.1,5,-11.359,-43.767,24.216
705620.6541,3,-1.517,8.583,-3.108,4,0.055,-0.548,-0.101,5,-10.025,-43.733,23.491
705620.674,3,-1.452,9.832,-2.273,4,0.034,-0.483,-0.048,5,-10.739,-45.892,24.222
705620.6939,3,-1.414,9.827,-1.311,4,0.02,-0.372,-0.001,5,-12.079,-45.921,22.768
705620.7137,3,-1.484,8.181,-1.785,4,-0.005,-0.269,0.019,5,-12.027,-43.785,24.942
705620.7336,3,-1.369,9.813,-3.946,4,0.026,-0.191,0.017,5,-10.707,-44.466,24.219
705620.7535,3,-0.826,8.272,-4.006,4,0.086,-0.137,0.029,5,-10.04,-44.45,24.947
705620.7733,3,-1.062,12.029,-3.3,4,0.064,-0.01,0.051,5,-12.061,-45.212,24.945
705620.7932,3,-0.031,7.688,-0.019,4,0.007,0.129,0.062,5,-10.707,-44.467,24.945
705620.813,3,-1.302,11.112,-1.787,4,-0.068,0.202,0.061,5,-11.345,-43.053,23.485
705620.8329,3,-0.833,10.038,-2.142,4,-0.005,0.183,0.025,5,-10.042,-44.447,23.492
705620.8528,3,-1.479,7.576,-3.644,4,0.034,0.079,-0.01,5,-10.724,-45.18,24.947
705620.8726,3,-2.113,11.883,-5.712,4,0.065,0.018,-0.047,5,-11.392,-45.195,24.945
705620.8925,3,-1.828,8.959,-1.613,4,0.079,-0.013,-0.034,5,-9.357,-43.716,23.492
705620.9124,3,-1.414,6.755,-0.211,4,-0.055,0.002,0.015,5,-12.042,-44.501,25.668
705620.9322,3,-2.675,11.227,-2.986,4,-0.083,-0.073,0.012,5,-10.738,-45.895,25.673
705620.9521,3,-1.507,10.835,-2.005,4,0.017,-0.189,-0.014,5,-12.094,-46.635,23.494
705620.972,3,-0.998,5.281,-1.45,4,0.002,-0.264,0.03,5,-10.707,-44.466,24.219
705620.9918,3,-1.854,15.135,-5.798,4,0.015,-0.247,0.061,5,-10.707,-44.467,24.945
705621.0111,3,-0.079,7.214,0.17,4,0.075,-0.165,0.074,5,-10.04,-44.449,24.22
705621.0316,3,-1.711,11.727,-0.146,4,-0.048,-0.025,0.129,5,-10.69,-43.752,24.217
705621.0514,3,-0.79,8.518,-1.991,4,-0.048,0.09,0.122,5,-10.707,-44.466,24.219
705621.0713,3,-0.672,8.906,-2.855,4,0.034,0.122,0.091,5,-10.693,-43.748,22.765
705621.0912,3,-2.328,9.835,-3.472,4,0.065,0.138,0.047,5,-12.042,-44.501,25.668
705621.111,3,-1.637,8.585,-3.293,4,0.053,0.23,0.046,5,-11.993,-42.36,25.662
705621.1309,3,-0.502,10.399,-1.998,4,-0.004,0.267,0.065,5,-11.343,-43.056,24.939
705621.1507,3,-0.653,8.016,-0.038,4,-0.056,0.254,0.09,5,-12.708,-44.519,26.395
705621.1706,3,0.122,11.895,-2.874,4,-0.115,0.179,0.068,5,-11.392,-45.195,24.945
705621.1905,3,-0.306,8.368,-2.907,4,-0.059,0.001,0.013,5,-11.359,-43.767,24.216
705621.2103,3,0.225,10.457,-1.704,4,-0.017,-0.123,-0.001,5,-10.69,-43.753,24.944
705621.2302,3,-0.211,12.132,-2.28,4,-0.026,-0.222,-0.001,5,-10.692,-43.75,23.489
705621.2501,3,0.012,10.198,-0.223,4,-0.017,-0.27,-0.014,5,-12.044,-44.499,24.944
705621.2699,3,-0.632,6.968,-0.242,4,-0.012,-0.373,-0.036,5,-11.372,-44.485,26.396
705621.2898,3,-1.565,8.449,-3.917,4,0.039,-0.416,-0.047,5,-10.008,-43.024,24.942
705621.3097,3,-2.103,11.61,-5.082,4,0.123,-0.417,-0.086,5,-10.69,-43.753,24.944
705621.3295,3,-1.44,9.844,-2.314,4,0.094,-0.333,-0.046,5,-12.012,-43.073,24.939
705621.3494,3,-0.249,9.808,0.072,4,-0.007,-0.168,0.03,5,-12.061,-45.212,24.945
705621.3693,3,-2.216,7.935,-0.132,4,-0.056,-0.051,0.061,5,-11.342,-43.057,25.664
705621.3891,3,-0.914,13.929,-2.735,4,-0.002,0.014,0.034,5,-11.359,-43.767,24.216
705621.409,3,-0.9,5.597,-2.536,4,0.078,-0.013,-0.018,5,-11.31,-41.628,24.936
705621.4288,3,-1.443,11.766,-5.224,4,0.086,0.073,0.031,5,-10.724,-45.18,24.947
705621.4487,3,-1.07,12.294,-2.345,4,0.114,0.191,0.047,5,-12.041,-44.502,26.396
705621.4686,3,-0.739,8.258,-0.124,4,0.029,0.248,0.051,5,-11.345,-43.053,23.485
705621.4884,3,-0.933,10.428,-1.926,4,-0.048,0.163,0.031,5,-12.679,-43.088,24.211
705621.5083,3,-1.091,8.116,-3.647,4,0.028,0.031,0.006,5,-11.343,-43.054,24.213
705621.5282,3,-0.407,8.81,-5.853,4,0.072,-0.143,-0.013,5,-12.695,-43.799,23.486
705621.5481,3,-0.129,9.701,-5.216,4,0.1,-0.237,-0.021,5,-11.996,-42.355,23.483
705621.5679,3,0.041,8.014,-1.62,4,0.07,-0.192,-0.015,5,-12.012,-43.073,24.939
705621.5878,3,-1.17,9.758,-3.29,4,-0.001,-0.071,-0.024,5,-10.643,-41.609,23.483
705621.6076,3,-1.098,11.785,-2.917,4,0.006,0.003,-0.041,5,-11.31,-41.628,24.936
705621.6275,3,-1.682,5.377,-1.383,4,0.021,0.025,-0.062,5,-11.293,-40.915,24.934
705621.6474,3,-1.132,11.22,-3.185,4,-0.007,-0.022,-0.068,5,-9.993,-42.307,23.486
705621.6672,3,-2.309,12.541,-1.613,4,0.078,-0.075,-0.073,5,-11.327,-42.342,24.937
705621.6871,3,-1.541,8.94,-0.759,4,0.046,-0.054,-0.031,5,-11.327,-42.342,24.937
705621.707,3,-2.658,10.933,-1.929,4,-0.01,-0.131,-0.007,5,-11.343,-43.054,24.213
705621.7268,3,-3.907,8.758,0.278,4,0.021,-0.233,-0.013,5,-10.672,-43.044,26.393
705621.7467,3,-3.697,9.234,-2.024,4,0.001,-0.327,0.012,5,-11.327,-42.34,24.211
705621.7666,3,-2.766,9.547,-3.391,4,0.023,-0.374,0.072,5,-9.323,-42.293,24.942
705621.7864,3,-1.278,9.94,-1.651,4,0.038,-0.334,0.162,5,-10.658,-42.325,24.213
705621.8063,3,-0.091,9.533,-1.347,4,-0.002,-0.245,0.238,5,-10.657,-42.328,25.664
705621.8262,3,0.019,11.1,-1.443,4,-0.002,-0.118,0.269,5,-11.995,-42.357,24.211
705621.846,3,0.337,7.073,-1.687,4,0.034,0.013,0.243,5,-9.988,-42.313,26.393
705621.8659,3,0.479,8.375,-3.876,4,0.053,0.102,0.214,5,-12.01,-43.074,25.664
705621.8858,3,-0.579,12.837,-5.48,4,0.111,0.189,0.177,5,-11.357,-43.77,25.667
705621.9056,3,0.282,7.592,-1.551,4,0.103,0.366,0.164,5,-12.677,-43.091,25.662
705621.9255,3,-0.433,10.461,-1.771,4,-0.032,0.459,0.157,5,-11.307,-41.631,26.389
705621.9454,3,-0.864,10.196,-1.586,4,-0.05,0.491,0.106,5,-11.995,-42.358,24.937
705621.9652,3,-2.043,8.564,-0.672,4,-0.037,0.384,0.051,5,-12.645,-41.661,24.934
705621.9851,3,-2.716,9.957,-2.596,4,-0.027,0.24,0.008,5,-11.992,-42.361,26.39
705622.005,3,-2.771,9.112,-1.333,4,0.017,0.088,0.015,5,-11.308,-41.629,25.661
705622.0248,3,-1.491,10.308,-1.177,4,-0.001,-0.024,0.067,5,-12.662,-42.375,24.936
705622.0447,3,-0.869,9.698,-2.682,4,-0.016,-0.126,0.092,5,-13.327,-42.393,26.387
705622.0645,3,0.586,11.019,-1.945,4,-0.006,-0.142,0.114,5,-13.33,-42.39,24.934
705622.0844,3,1.297,8.861,-1.412,4,-0.011,-0.08,0.139,5,-13.313,-41.675,24.207
705622.1043,3,1.888,12.053,-3.788,4,-0.011,0.07,0.142,5,-13.995,-42.41,26.387
705622.1242,3,1.859,10.303,-2.874,4,0.004,0.248,0.095,5,-12.694,-43.802,24.94
705622.144,3,1.842,7.406,-0.407,4,-0.06,0.394,0.05,5,-12.012,-43.071,24.213
705622.1639,3,-1.424,11.131,-2.07,4,-0.078,0.436,-0.012,5,-14.696,-43.848,24.211
705622.1837,3,-3.529,9.009,-2.201,4,-0.031,0.373,-0.096,5,-12.646,-41.658,23.48
705622.2036,3,-3.467,9.26,-2.527,4,-0.061,0.188,-0.163,5,-14,-42.404,23.48
705622.2235,3,-4.726,10.493,-3.254,4,-0.049,0.036,-0.13,5,-14.68,-43.135,24.208
705622.2433,3,-2.565,9.241,-2.579,4,-0.001,-0.058,-0.051,5,-12.663,-42.372,23.482
705622.2632,3,-2.649,8.322,-2.634,4,-0.002,-0.182,0.002,5,-13.315,-41.673,23.479
705622.2831,3,-1.137,10.138,-3.754,4,0.028,-0.222,0.056,5,-13.365,-43.81,22.032
705622.3029,3,-0.668,6.42,-3.252,4,0.072,-0.154,0.062,5,-13.297,-40.962,24.205
705622.3228,3,0.084,8.846,-3.3,4,0.075,-0.008,0.107,5,-14.001,-42.4,22.028
705622.3426,3,-0.385,13.048,-2.615,4,0.071,0.163,0.123,5,-12.663,-42.372,23.482
705622.3625,3,0.526,7.322,-0.038,4,0.035,0.34,0.109,5,-13.327,-42.393,26.387
705622.3824,3,0.957,10.512,-2.871,4,-0.027,0.458,0.106,5,-13.33,-42.389,24.208
705622.4023,3,0.56,10.538,-3.628,4,0.06,0.489,0.054,5,-14,-42.404,23.48
705622.4222,3,-0.507,8.078,-2.381,4,0.094,0.461,-0.031,5,-14.017,-43.118,23.482
705622.442,3,-1.73,9.557,-2.821,4,0.049,0.452,-0.09,5,-14.647,-41.708,24.931
705622.4619,3,-2.472,10.325,-2.936,4,0.048,0.439,-0.104,5,-14.682,-43.134,23.48
705622.4817,3,-1.771,9.234,-1.929,4,0.035,0.371,-0.091,5,-14.68,-43.135,24.208
705622.5016,3,-2.386,9.1,-2.18,4,-0.012,0.196,-0.092,5,-13.33,-42.39,24.934
705622.5215,3,-2,9.648,-3.228,4,-0.006,0.05,-0.103,5,-14,-42.404,23.48
705622.5413,3,-1.058,7.784,-3.29,4,0.018,-0.049,-0.071,5,-13.312,-41.678,25.658
705622.5612,3,-1.082,12.467,-3.297,4,0.034,-0.053,-0.02,5,-13.997,-42.409,25.659
705622.5811,3,0.368,8.571,-1.357,4,0.031,0.013,0.001,5,-13.364,-43.814,23.485
705622.6009,3,1.132,10.203,-2.189,4,-0.028,0.088,0.032,5,-13.315,-41.673,23.479
705622.6208,3,1.232,9.208,-2.419,4,-0.006,0.177,0.03,5,-12.694,-43.802,24.94
705622.6406,3,1.244,10.399,-3.836,4,0.022,0.248,-0.019,5,-14,-42.404,23.48
705622.6605,3,0.215,10.459,-2.194,4,0.029,0.262,-0.097,5,-13.968,-40.976,22.752
705622.6804,3,-1.149,8.43,-1.507,4,-0.018,0.288,-0.13,5,-13.333,-42.383,22.028
705622.7003,3,-0.826,11.928,-3.199,4,-0.054,0.29,-0.148,5,-12.695,-43.799,23.486
705622.7201,3,-1.838,6.664,-1.407,4,-0.006,0.161,-0.167,5,-13.313,-41.675,24.207
705622.74,3,-3.486,10.028,-3.661,4,-0.021,0.045,-0.18,5,-14.034,-43.829,22.76
705622.7599,3,-1.833,8.04,-3.778,4,0.013,-0.088,-0.178,5,-12.63,-40.945,23.479
705622.7797,3,-2.575,13.486,-2.491,4,-0.024,-0.214,-0.136,5,-13.333,-42.386,22.755
705622.7996,3,-0.553,9.33,0.301,4,-0.095,-0.25,-0.08,5,-12.695,-43.799,23.486
705622.8194,3,-0.112,10.641,-0.502,4,-0.154,-0.278,-0.004,5,-13.333,-42.386,22.755
705622.8393,3,-0.502,9.442,-2.036,4,-0.028,-0.325,0.007,5,-14.682,-43.134,23.48
705622.8592,3,-1.074,8.339,-3.769,4,0.072,-0.363,-0.027,5,-12.013,-43.069,23.485
705622.879,3,-1.283,9.172,-4.896,4,0.116,-0.35,-0.059,5,-12.013,-43.069,23.485
705622.8989,3,-0.663,10.993,-3.781,4,0.112,-0.253,-0.027,5,-12.013,-43.069,23.485
705622.9188,3,1.177,9.042,-0.706,4,0.017,-0.101,0.036,5,-12.746,-45.938,22.766
705622.9386,3,-0.436,11.914,-1.572,4,-0.081,0,0.05,5,-12.663,-42.372,23.482
705622.9585,3,-0.761,9.313,-0.936,4,-0.046,0.019,0.007,5,-12.694,-43.8,24.214
705622.9784,3,-1.28,5.592,-3.788,4,-0.005,0.008,-0.026,5,-12.694,-43.8,24.214
705622.9982,3,-2.8,13.371,-5.776,4,0.065,-0.036,-0.054,5,-10.643,-41.609,23.483
705623.0181,3,-2.299,8.394,-0.491,4,0.092,-0.009,-0.051,5,-12.03,-43.781,22.763
705623.038,3,-1.424,9.186,0.132,4,-0.071,0.058,0.009,5,-13.333,-42.386,22.755
705623.0578,3,-1.024,10.335,-3.041,4,-0.052,0.086,0.037,5,-12.682,-43.085,22.758
705623.0777,3,-0.83,10.179,-4.12,4,0.068,0.057,0.026,5,-12.68,-43.086,23.483
705623.0975,3,-1.251,10.208,-3.86,4,0.109,0.045,0.012,5,-13.348,-43.102,23.482
705623.1174,3,-1.826,8.935,-2.254,4,0.071,0.103,0.003,5,-12.041,-44.502,26.396
705623.1373,3,-2.773,8.758,-1.335,4,0.02,0.172,0.014,5,-12.013,-43.069,23.485
705623.1571,3,-2.797,10.851,-2.072,4,0.001,0.21,0.023,5,-12.682,-43.085,22.758
705623.177,3,-1.61,10.172,-1.622,4,0.026,0.166,0.043,5,-14.68,-43.135,24.208
705623.1969,3,-1.113,8.739,-2.948,4,0.045,0.127,0.064,5,-14.015,-43.12,24.21
705623.2167,3,-0.787,9.98,-4.19,4,0.098,0.128,0.08,5,-14.03,-43.834,24.939
705623.2366,3,-0.225,10.672,-2.477,4,0.115,0.168,0.084,5,-13.347,-43.103,24.21
705623.2564,3,-0.132,8.104,0.627,4,0.04,0.265,0.092,5,-14.648,-41.705,23.477
705623.2763,3,0.318,10.935,-1.677,4,-0.045,0.343,0.084,5,-14.664,-42.422,24.933
705623.2962,3,1.297,9.267,-2.479,4,0.015,0.338,0.051,5,-14.68,-43.137,24.934
705623.3161,3,1.127,6.918,-3.788,4,0.059,0.292,0.003,,,,
705623.3359,3,0.522,10.643,-5.386,4,0.07,0.278,-0.053,5,-13.998,-42.407,24.934
705623.3558,3,0.117,9.839,-3.209,4,0.066,0.263,-0.109,5,-13.329,-42.392,25.659
705623.3757,3,-1.472,9.43,-1.668,4,-0.043,0.3,-0.131,5,-12.057,-45.215,26.398
705623.3955,3,-1.641,11.227,-2.254,4,-0.114,0.3,-0.144,5,-13.344,-43.108,26.389
705623.4154,3,-1.074,7.071,-1.335,4,-0.083,0.217,-0.17,5,-14.018,-43.114,22.029
705623.4352,3,-2.654,9.564,-3.544,4,-0.067,0.051,-0.168,5,-14.017,-43.118,23.482
705623.4551,3,-2.402,12.175,-5.482,4,0.009,-0.11,-0.173,5,-13.348,-43.102,23.482
705623.475,3,-0.878,6.279,-0.835,4,0.027,-0.253,-0.142,5,-13.998,-42.406,24.208
705623.4948,3,-1.773,10.26,-2.694,4,-0.074,-0.313,-0.078,5,-12.665,-42.371,22.757
705623.5147,3,-1.608,9.284,-1.9,4,-0.041,-0.34,-0.062,5,-14,-42.404,23.48
705623.5345,3,-1.517,9.444,-1.519,4,-0.039,-0.405,-0.049,5,-12.68,-43.086,23.483
705623.5544,3,-1.574,10.624,-2.608,4,-0.038,-0.41,-0.016,5,-13.985,-41.685,22.026
705623.5743,3,-0.646,9.681,-2.931,4,0.016,-0.354,0.02,5,-12.677,-43.091,25.662
705623.5942,3,0.713,10.768,-2.264,4,0.033,-0.224,0.056,5,-13.33,-42.389,24.208
705623.614,3,-0.921,7.954,-1.218,4,0.028,-0.076,0.067,5,-13.333,-42.386,22.755
705623.6339,3,-1.151,10.835,-3.051,4,0.012,0.102,0.034,5,-12.662,-42.374,24.21
705623.6538,3,-0.792,7.726,-3.857,4,0.059,0.19,0.01,5,-13.362,-43.817,24.939
705623.6736,3,-1.06,11.67,-3.797,4,0.062,0.283,0.02,5,-12.712,-44.513,23.488
705623.6935,3,-0.861,7.248,-1.701,4,0.012,0.348,0.021,5,-12.694,-43.8,24.214
705623.7133,3,-1.151,12.103,-1.871,4,-0.072,0.361,0.012,5,-13.365,-43.813,22.76
705623.7332,3,-1.615,10.138,-1.546,4,-0.062,0.309,-0.004,5,-13.313,-41.675,24.207
705623.7531,3,-1.419,8.191,-0.747,4,-0.078,0.232,-0.005,5,-13.332,-42.387,23.48
705623.773,3,-2.13,10.744,-2.412,4,-0.051,0.122,-0.021,5,-14.684,-43.132,22.755
705623.7928,3,-2.481,8.372,-2.879,4,0.02,0.069,-0.027,5,-14.03,-43.832,24.213
705623.8127,3,-1.043,10.416,-3.795,4,0.033,0.029,-0.015,5,-15.352,-43.149,22.754
705623.8326,3,-1.866,9.49,-2.835,4,0.035,0.009,0.003,5,-14.03,-43.832,24.213
705623.8524,3,-1.565,9.88,-2.68,4,-0.001,0.09,0.034,5,-12.714,-44.511,22.763
705623.8723,3,-0.928,7.358,-3.161,4,-0.039,0.157,0.034,5,-15.366,-43.863,23.482
705623.8922,3,-0.44,12.053,-3.654,4,-0.027,0.184,0.041,5,-14.717,-44.554,21.307
705623.912,3,0.103,8.88,-1.347,4,-0.035,0.215,0.042,5,-14.648,-41.705,23.477
705623.9319,3,0.749,11.076,-2.747,4,-0.088,0.246,0.028,5,-14.699,-43.842,22.031
705623.9518,3,1.275,11.447,-2.378,4,-0.046,0.263,-0.001,5,-14.067,-45.256,22.763
705623.9716,3,0.213,7.597,-0.828,4,-0.033,0.284,-0.046,5,-15.367,-43.861,22.757
705623.9915,3,-0.258,8.636,-2.362,4,-0.048,0.256,-0.113,5,-14.682,-43.134,23.48
705624.0113,3,-0.73,9.624,-5.432,4,0.033,0.178,-0.176,5,-14.682,-43.134,23.48
705624.0312,3,-1.225,9.162,-5.025,4,0.081,0.095,-0.194,5,-14.684,-43.129,22.028
705624.0511,3,-1.859,8.985,-2.747,4,0.016,0.048,-0.181,5,-14.018,-43.114,22.029
705624.0709,3,-1.649,12.065,-0.876,4,-0.089,0.019,-0.164,5,-13.351,-43.095,21.304
705624.0908,3,-2.319,5.063,-0.502,4,-0.142,-0.04,-0.165,5,-14.697,-43.846,23.483
705624.1107,3,-1.519,11.792,-3.931,4,-0.12,-0.154,-0.154,5,-14.697,-43.846,23.483
705624.1306,3,-1.5,10.409,-3.266,4,0.006,-0.289,-0.137,5,-14.702,-43.839,20.58
705624.1504,3,-0.627,8.03,-1.79,4,-0.013,-0.363,-0.101,5,-14.697,-43.846,23.483
705624.1703,3,-0.108,12.036,-3.747,4,-0.052,-0.401,-0.074,5,-13.414,-45.953,22.765
705624.1901,3,1.271,7.753,-1.218,4,0,-0.383,-0.047,5,-13.365,-43.813,22.76
705624.21,3,0.457,8.059,-2.419,4,-0.06,-0.35,-0.051,5,-14.05,-44.54,22.034
705624.2299,3,0.211,11.009,-4.912,4,-0.02,-0.3,-0.089,5,-12.712,-44.513,23.488
705624.2497,3,0.507,9.765,-3.498,4,0.033,-0.258,-0.129,5,-12.73,-45.224,22.765
705624.2696,3,-1.208,8.523,-2.228,4,-0.021,-0.209,-0.128,5,-12.694,-43.8,24.214
705624.2895,3,-1.938,11.45,-1.015,4,-0.071,-0.12,-0.136,5,-13.429,-46.667,23.491
705624.3093,3,-2.321,5.695,-0.861,4,-0.083,-0.059,-0.137,5,-13.397,-45.241,23.488
705624.3292,3,-3.168,12.086,-3.288,4,-0.073,-0.071,-0.117,5,-10.71,-44.463,22.766
705624.349,3,-2.127,12.943,-2.13,4,0.007,-0.134,-0.1,5,-10.709,-44.464,23.491
705624.3689,3,-1.426,8.069,-0.108,4,-0.031,-0.185,-0.063,5,-12.03,-43.777,22.035
705624.3888,3,-2.012,9.15,-2.606,4,-0.059,-0.214,-0.038,5,-12.03,-43.777,22.035
705624.4087,3,-2.747,8.444,-3.226,4,0.04,-0.267,-0.04,5,-10.727,-45.172,22.04
705624.4285,3,-1.778,9.413,-2.594,4,0.068,-0.305,-0.036,5,-10.709,-44.464,23.491
705624.4484,3,-1.137,9.485,-3.46,4,0.029,-0.302,0.01,5,-10.027,-43.732,22.766
705624.4682,3,-0.084,10.452,-2.673,4,0.013,-0.22,0.061,5,-11.995,-42.357,24.211
705624.4881,3,-1.062,10.177,-1.656,4,-0.012,-0.149,0.078,5,-10.675,-43.039,24.214
705624.508,3,-0.605,11.131,-0.976,4,-0.051,-0.088,0.059,5,-11.377,-44.479,23.489
705624.5278,3,-1.498,5.224,-0.282,4,-0.048,-0.081,0.03,5,-12.714,-44.511,22.763
705624.5477,3,-2.548,11.174,-4.29,4,-0.016,-0.102,0.018,5,-11.377,-44.479,23.489
705624.5676,3,-1.78,11.024,-3.986,4,0.09,-0.145,0.013,5,-10.71,-44.463,22.766
705624.5874,3,-0.232,8.081,-1.541,4,0.053,-0.125,0.057,5,-11.345,-43.053,23.485
705624.6073,3,-0.486,9.059,-2.943,4,-0.023,-0.098,0.092,5,-10.707,-44.466,24.219
705624.6271,3,-0.586,10.49,-4.164,4,0.002,-0.081,0.073,5,-12.711,-44.516,24.942
705624.647,3,0.352,9.648,-2.749,4,0.01,-0.088,0.047,5,-11.343,-43.054,24.213
705624.6669,3,0.488,9.784,-0.797,4,-0.041,-0.075,0.031,5,-10.008,-43.022,24.216
705624.6867,3,1.132,7.475,-2.008,4,-0.067,-0.051,0.019,5,-12.694,-43.8,24.214
705624.7066,3,-0.675,10.607,-4.257,4,-0.024,-0.081,-0.031,5,-10.042,-44.447,23.492
705624.7265,3,-0.378,10.21,-3.857,4,0.035,-0.17,-0.091,5,-12.013,-43.069,23.485
705624.7464,3,-0.723,7.549,-1.924,4,-0.001,-0.291,-0.118,5,-10.692,-43.75,23.489
705624.7662,3,-2.802,11.27,-2.816,4,-0.045,-0.363,-0.107,5,-10.042,-44.447,23.492
705624.7861,3,-1.273,12.077,-2.228,4,-0.049,-0.412,-0.085,5,-10.693,-43.748,22.765
705624.8059,3,-1.199,9.397,-0.014,4,-0.079,-0.561,-0.053,5,-10.69,-43.753,24.944
705624.8258,3,-1.833,9.342,-0.424,4,-0.101,-0.693,-0.019,5,-10.692,-43.75,23.489
705624.8457,3,-2.465,10.507,-2.718,4,-0.017,-0.793,-0.019,5,-8.672,-42.993,25.668
705624.8655,3,-2.426,9.569,-1.811,4,0.077,-0.883,-0.009,5,-8.69,-43.701,23.492
705624.8854,3,-2.343,9.04,-1.943,4,0.111,-0.88,0.061,5,-9.991,-42.308,24.214
705624.9053,3,-1.278,8.906,-3.276,4,0.126,-0.802,0.134,5,-8.052,-45.117,26.404
705624.9251,3,-2.225,10.339,-3.616,4,0.163,-0.715,0.179,5,-8.655,-42.279,25.667
705624.945,3,-0.895,10.603,-2.974,4,0.175,-0.576,0.206,5,-8.636,-41.566,26.393
705624.9648,3,-1.228,7.238,-2.256,4,0.145,-0.372,0.243,5,-9.37,-44.435,25.673
705624.9847,3,-1.845,11.567,-2.747,4,0.148,-0.074,0.268,5,-10.007,-43.025,25.667
705625.0046,3,-1.974,8.992,-1.421,4,0.169,0.197,0.279,5,-9.988,-42.313,26.393
705625.0245,3,-1.67,8.765,-1.366,4,0.133,0.383,0.285,5,-12.022,-43.79,27.119
705625.0443,3,-1.656,9.842,-2.883,4,0.138,0.493,0.274,5,-10.657,-42.328,25.664
705625.0642,3,-1.895,9.198,-2.986,4,0.175,0.608,0.252,5,-11.993,-42.36,25.662
705625.084,3,-1.833,9.456,-2.831,4,0.156,0.696,0.228,5,-11.992,-42.361,26.39
705625.1039,3,-1.752,7.822,-1.563,4,0.111,0.802,0.228,5,-10.654,-42.334,27.844
705625.1238,3,-2.067,12.438,-2.132,4,0.049,0.866,0.213,5,-11.342,-43.057,25.664
705625.1436,3,-1.211,10.134,-0.098,4,0.034,0.854,0.181,5,-13.31,-41.679,26.385
705625.1635,3,-1.412,7.1,-0.474,4,-0.006,0.792,0.148,5,-14.696,-43.849,24.937
705625.1834,3,-0.646,8.224,-3.788,4,0.034,0.687,0.113,5,-14.63,-40.996,24.93
705625.2032,3,-1.481,13.57,-4.247,4,0.128,0.599,0.072,5,-14.664,-42.421,24.207
705625.2231,3,-1.132,6.26,-1.948,4,0.1,0.586,0.054,5,-15.315,-41.724,24.203
705625.243,3,-0.316,10.952,-3.462,4,-0.022,0.573,0.047,5,-15.317,-41.722,23.476
705625.2628,3,-0.574,8.705,-2.127,4,0.002,0.482,0.024,5,-13.982,-41.693,24.933
705625.2827,3,-0.199,9.057,-2.857,4,-0.027,0.391,-0.013,5,-14.648,-41.705,23.477
705625.3026,3,0.208,11.763,-3.515,4,-0.031,0.288,-0.064,5,-14.684,-43.129,22.028
705625.3224,3,0.22,7.911,-1.153,4,-0.018,0.218,-0.076,5,-15.332,-42.438,24.205
705625.3423,3,-0.29,8.188,-2.388,4,-0.056,0.195,-0.087,5,-15.334,-42.436,23.477
705625.3622,3,-0.079,12.51,-4.254,4,-0.012,0.118,-0.123,5,-14.664,-42.422,24.933
705625.382,3,-0.141,4.953,-2.221,4,0.021,0.057,-0.157,5,-15.997,-42.459,26.382
705625.4019,3,-0.366,11.809,-5.291,4,-0.034,-0.014,-0.144,5,-14.68,-43.135,24.208
705625.4218,3,-0.017,12.727,-3.156,4,-0.005,-0.088,-0.152,5,-13.998,-42.407,24.934
705625.4416,3,0.56,7.781,0.098,4,-0.088,-0.17,-0.14,5,-13.313,-41.675,24.207
705625.4615,3,-0.301,10.464,-0.301,4,-0.202,-0.27,-0.129,5,-14.684,-43.132,22.755
705625.4814,3,-0.94,8.992,-1.505,4,-0.137,-0.399,-0.179,5,-13.332,-42.387,23.48
705625.5012,3,-0.708,10.44,-3.441,4,-0.074,-0.609,-0.22,5,-13.332,-42.387,23.48
705625.5211,3,-0.172,8.719,-3.264,4,-0.007,-0.743,-0.209,5,-12.695,-43.799,23.486
705625.5409,3,-1.239,9.205,-3.226,4,-0.008,-0.766,-0.152,5,-13.312,-41.678,25.658
705625.5608,3,-1.993,8.803,-2.41,4,-0.007,-0.74,-0.114,5,-11.31,-41.626,24.21
705625.5807,3,-1.986,10.677,-3.027,4,-0.035,-0.727,-0.084,5,-11.327,-42.34,24.211
705625.6006,3,-2.469,7.167,-2.051,4,-0.026,-0.686,-0.048,5,-10.641,-41.611,24.211
705625.6204,3,-2.668,11.715,-2.144,4,-0.005,-0.647,0.009,5,-10.674,-43.042,25.665
705625.6403,3,-2.548,11.005,-1.35,4,0.018,-0.592,0.053,5,-10.64,-41.614,25.662
705625.6602,3,-1.764,9.339,-0.333,4,0.017,-0.476,0.113,5,-9.291,-40.863,23.485
705625.68,3,-1.591,12.438,-1.787,4,0.05,-0.343,0.173,5,-10.643,-41.609,23.483
705625.6999,3,-1.831,7.557,-1.852,4,0.13,-0.189,0.19,5,-10.643,-41.609,23.483
705625.7197,3,-2.69,8.437,-3.044,4,0.158,-0.041,0.179,5,-10.672,-43.044,26.393
705625.7396,3,-2.182,10.457,-3.888,4,0.208,0.132,0.184,5,-10.672,-43.044,26.393
705625.7595,3,-0.687,8.65,-2.096,4,0.199,0.326,0.225,5,-10.672,-43.044,26.393
705625.7793,3,-1.708,9.655,-1.771,4,0.1,0.535,0.23,5,-11.961,-40.932,24.934
705625.7986,3,-1.637,10.768,-1.062,4,0.057,0.713,0.2,5,-12.007,-43.077,27.116
705625.8191,3,-1.912,5.678,-1.254,4,0.032,0.792,0.17,5,-12.645,-41.661,24.934
705625.8389,3,-2.063,14.512,-3.855,4,0.044,0.797,0.144,5,-12.642,-41.664,26.387
705625.8588,3,-0.476,9.849,-1.888,4,0.081,0.712,0.107,5,-13.933,-39.554,24.927
705625.8787,3,-0.505,9.705,-0.526,4,-0.015,0.665,0.126,5,-13.933,-39.552,24.2
705625.8985,3,-0.644,10.528,-2.869,4,-0.026,0.667,0.091,5,-15.919,-38.885,23.466
705625.9184,3,-1.452,10.54,-2.922,4,0.032,0.63,0.036,5,-14.581,-38.855,24.924
705625.9383,3,-2.11,8.03,-2.216,4,0.049,0.56,-0.024,5,-15.967,-41.029,24.927
705625.9581,3,-1.965,9.428,-4.487,4,0.028,0.485,-0.048,5,-15.97,-41.025,22.748
705625.978,3,-0.416,10.031,-2.989,4,0.035,0.402,-0.042,5,-16.634,-41.043,24.2
705625.9978,3,-1.072,8.868,-0.203,4,-0.022,0.287,-0.038,5,-15.955,-40.311,22.746
705626.0177,3,-0.215,11.062,-1.821,4,-0.09,0.172,-0.058,5,-16.605,-39.613,22.743
705626.0376,3,1.35,6.992,-2.352,4,-0.063,0.034,-0.075,5,-16.62,-40.327,23.471
705626.0574,3,1.192,12.163,-3.8,4,-0.02,-0.07,-0.08,5,-15.953,-40.312,23.471
705626.0773,3,1.105,9.497,-2.991,4,0.004,-0.156,-0.114,5,-15.968,-41.026,23.473
705626.0972,3,1.371,11.208,-0.833,4,-0.057,-0.228,-0.148,5,-15.283,-40.298,24.927
705626.117,3,0.548,9.806,-0.701,4,-0.067,-0.28,-0.153,5,-16.618,-40.329,24.199
705626.1369,3,-1.244,10.047,-3.879,4,-0.043,-0.374,-0.181,5,-15.302,-41.005,22.021
705626.1568,3,-1.582,9.265,-3.388,4,-0.004,-0.499,-0.244,5,-13.982,-41.693,24.933
705626.1766,3,-2.299,9.863,-2.249,4,-0.012,-0.589,-0.227,5,-13.95,-40.266,24.93
705626.1965,3,-1.285,9.677,-3.065,4,-0.041,-0.586,-0.159,5,-14.682,-43.134,23.48
705626.2164,3,-2.209,9.839,-2.874,4,-0.038,-0.594,-0.118,5,-13.983,-41.69,23.479
705626.2362,3,-1.974,10.241,-1.567,4,-0.015,-0.586,-0.091,5,-13.298,-40.961,23.477
705626.2561,3,-1.364,6.432,-1.792,4,-0.02,-0.558,-0.049,5,-13.33,-42.39,24.934
705626.276,3,-1.601,12.079,-4.073,4,0.021,-0.465,0.004,5,-13.3,-40.959,22.752
705626.2958,3,-0.802,9.545,-2.74,4,0.079,-0.366,0.054,5,-11.946,-40.216,24.207
705626.3157,3,-0.053,10.548,-0.897,4,0.016,-0.25,0.089,5,-11.961,-40.932,24.934
705626.3355,3,-0.888,9.392,-0.55,4,-0.012,-0.099,0.106,5,-12.613,-40.234,24.931
705626.3554,3,-2.173,9.583,-1.945,4,0.016,0.028,0.093,5,-11.946,-40.216,24.207
705626.3753,3,-2.768,10.39,-3.462,4,0.056,0.106,0.048,5,-11.308,-41.629,25.661
705626.3951,3,-2.316,9.701,-2.144,4,0.09,0.195,0.056,5,-13.297,-40.962,24.205
705626.415,3,-1.854,10.366,-1.469,4,0.064,0.326,0.101,5,-13.312,-41.678,25.658
705626.4349,3,-2.503,9.638,-2.089,4,0.044,0.425,0.113,5,-12.628,-40.947,24.207
705626.4547,3,-2.039,10.445,-1.905,4,0.042,0.482,0.089,5,-14.645,-41.71,25.656
705626.4746,3,-0.933,7.624,-2.398,4,0.035,0.476,0.086,5,-13.965,-40.979,24.205
705626.4945,3,-1.653,11.797,-3.285,4,0.049,0.463,0.084,5,-13.313,-41.676,24.933
705626.5143,3,-1.12,8.353,-1.362,4,0.054,0.453,0.073,5,-11.339,-43.06,27.116
705626.5342,3,-1.651,10.143,-1.405,4,-0.02,0.432,0.069,,,,
705626.5541,3,-1.232,10.89,-2.132,4,-0.001,0.403,0.051,5,-12.708,-44.519,26.395
705626.5739,3,-1.335,6.949,-1.285,4,0.034,0.339,0.04,5,-11.357,-43.77,25.667
705626.5938,3,-1.998,9.559,-4.08,4,0.028,0.339,0.013,5,-15.334,-42.436,23.477
705626.6136,3,-1.474,10.28,-4.771,4,0.084,0.353,-0.018,5,-15.955,-40.311,22.746
705626.6335,3,-1.141,9.169,-2.266,4,0.067,0.419,-0.005,5,-17.303,-41.058,23.471
705626.6534,3,-1.998,9.99,-2.721,4,-0.017,0.504,0.01,5,-15.935,-39.603,24.922
705626.6732,3,-0.562,12.486,-2.958,4,-0.034,0.52,-0.025,5,-15.285,-40.295,23.473
705626.6931,3,-0.189,6.406,-1.196,4,-0.051,0.45,-0.037,5,-14.633,-40.991,22.751
705626.713,3,0.38,12.912,-4.037,4,-0.081,0.367,-0.056,,,,
705626.7329,3,1.565,9.188,-2.06,4,-0.039,0.245,-0.103,5,-14.633,-40.991,22.751
705626.7527,3,1.259,9.442,-2.28,4,-0.094,0.151,-0.115,5,-15.352,-43.146,22.026
705626.7726,3,0.495,10.531,-3.601,4,-0.087,0.036,-0.158,5,-13.985,-41.685,22.026
705626.7925,3,0.713,8.511,-2.125,4,-0.059,-0.096,-0.22,5,-14.648,-41.705,23.477
705626.8123,3,-0.232,8.71,-1.816,4,-0.106,-0.245,-0.256,5,-14.65,-41.704,22.752
705626.8322,3,-1.235,10.296,-3.343,4,-0.107,-0.378,-0.272,5,-14.017,-43.118,23.482
705626.8521,3,-0.964,10.076,-2.323,4,-0.094,-0.54,-0.282,5,-15.352,-43.149,22.754
705626.8719,3,-1.613,8.76,-0.632,4,-0.125,-0.678,-0.244,5,-14.667,-42.415,22.026
705626.8918,3,-2.211,11.488,-2.378,4,-0.142,-0.774,-0.207,5,-12.665,-42.368,22.029
705626.9116,3,-1.929,6.834,-1.271,4,-0.104,-0.872,-0.184,5,-14.015,-43.12,24.21
705626.9315,3,-1.687,11.56,-1.574,4,-0.073,-0.891,-0.118,5,-12.682,-43.085,22.758
705626.9514,3,-0.562,10.72,-3.281,4,-0.022,-0.87,-0.051,5,-14.018,-43.117,22.757
705626.9712,3,0.103,9.576,-2.814,4,0.015,-0.814,-0.002,5,-12.65,-41.652,21.303
705626.9911,3,-0.56,9.921,-3.874,4,0.033,-0.74,0.021,5,-12.694,-43.802,24.94
705627.011,3,-1.443,9.736,-2.553,4,0.059,-0.594,0.046,5,-11.978,-41.643,24.21
705627.0309,3,-1.725,7.691,-1.323,4,0.027,-0.455,0.054,5,-10.658,-42.325,24.213
705627.0507,3,-2.701,11.002,-3.041,4,0,-0.351,0.075,5,-10.022,-43.738,25.67
705627.0706,3,-2.541,9.119,-2.565,4,0.051,-0.288,0.091,5,-11.996,-42.355,23.483
705627.0904,3,-2.785,9.22,-1.857,4,0.064,-0.264,0.126,5,-10.677,-43.037,23.486
705627.1103,3,-1.957,11.198,-1.383,4,0.057,-0.175,0.174,5,-10.675,-43.039,24.214
705627.1302,3,-2.91,6.284,-1.785,4,0.065,-0.051,0.192,5,-10.675,-43.04,24.94
705627.15,3,-2.905,12.828,-2.395,4,0.086,0.057,0.213,5,-11.978,-41.643,24.21
705627.1699,3,-1.565,10.373,-1.565,4,0.131,0.169,0.233,5,-11.356,-43.771,26.395
705627.1898,3,-0.328,8.339,-1.172,4,0.075,0.317,0.269,5,-12.68,-43.086,23.483
705627.2096,3,-0.522,10.643,-3.51,4,0.081,0.443,0.263,5,-11.31,-41.626,24.21
705627.2295,3,-0.983,11.055,-4.319,4,0.148,0.546,0.224,5,-11.359,-43.768,24.942
705627.2493,3,-0.993,8.042,-0.412,4,0.115,0.641,0.174,5,-13.312,-41.678,25.658
705627.2692,3,-1.091,9.897,-2.015,4,0.023,0.715,0.147,5,-13.362,-43.817,24.939
705627.2891,3,-0.806,9.277,-3.438,4,0.048,0.774,0.117,5,-15.331,-42.441,25.656
705627.309,3,-0.806,9.258,-2.728,4,0.066,0.715,0.075,5,-13.997,-42.409,25.659
705627.3288,3,-1.318,10.581,-3.041,4,0.044,0.64,0.029,5,-15.331,-42.441,25.656
705627.3487,3,-1.524,5.846,-2.656,4,0.005,0.597,-0.019,5,-14.647,-41.708,24.931
705627.3685,3,-2.079,11.859,-3.3,4,-0.007,0.546,-0.04,5,-15.984,-41.74,24.202
705627.3884,3,-1.773,11.737,-1.701,4,-0.002,0.498,-0.047,5,-15.367,-43.861,22.757
705627.4083,3,-0.495,7.889,-0.428,4,-0.068,0.442,-0.047,5,-14.713,-44.562,24.213
705627.4281,3,-0.378,9.969,-3.209,4,-0.082,0.326,-0.062,5,-16.003,-42.448,22.023
705627.448,3,-1.053,8.451,-4.357,4,0.02,0.227,-0.096,5,-15.35,-43.15,23.479
705627.4679,3,-1.053,9.576,-4.628,4,0.034,0.124,-0.137,5,-16,-42.455,24.203
705627.4877,3,0.251,9.756,-1.766,4,-0.018,0.044,-0.147,5,-14.664,-42.422,24.933
705627.5076,3,0.022,7.918,-1.144,4,-0.107,-0.019,-0.104,5,-15.335,-42.435,22.752
705627.5274,3,0.452,10.851,-2.46,4,-0.144,-0.123,-0.097,5,-15.318,-41.721,22.751
705627.5473,3,0.701,10.292,-2.948,4,-0.092,-0.284,-0.133,5,-14.68,-43.135,24.208
705627.5672,3,0.309,7.162,-2.623,4,-0.073,-0.415,-0.156,5,-14.03,-43.834,24.939
705627.5871,3,-0.885,10.859,-3.242,4,-0.07,-0.537,-0.158,5,-14.015,-43.12,24.21
705627.6069,3,-1.053,10.662,-1.297,4,-0.054,-0.613,-0.158,5,-12.694,-43.802,24.94
705627.6268,3,-0.596,7.583,-0.845,4,-0.1,-0.648,-0.123,5,-14.682,-43.134,23.48
705627.6467,3,-0.955,11.208,-3.17,4,-0.096,-0.669,-0.091,5,-14.064,-45.261,24.942
705627.6665,3,-1.172,8.607,-3.12,4,0.005,-0.694,-0.07,5,-12.692,-43.803,25.665
705627.6864,3,-1.4,10.557,-3.551,4,0.009,-0.697,-0.059,5,-13.997,-42.409,25.659
705627.7062,3,-0.543,10.488,-1.608,4,0.012,-0.592,-0.018,5,-12.613,-40.234,24.931
705627.7261,3,-0.749,8.394,-0.349,4,-0.018,-0.441,0.053,5,-11.357,-43.77,25.667
705627.746,3,-2.065,3.472,-2.273,4,-0.02,-0.301,0.081,5,-12.708,-44.519,26.395
705627.7658,3,-3.307,12.488,-5.776,4,0.046,-0.225,0.061,5,-13.347,-43.103,24.21
705627.7857,3,-2.663,9.602,-2.85,4,0.119,-0.126,0.059,5,-11.343,-43.054,24.213
705627.8056,3,-1.065,8.617,0.357,4,-0.011,0.067,0.153,5,-14.014,-43.123,25.661
705627.8254,3,-2.139,13.943,-1.574,4,-0.096,0.245,0.18,5,-12.694,-43.802,24.94
705627.8453,3,-1.417,8.473,1.125,4,-0.026,0.353,0.17,5,-13.315,-41.673,23.479
705627.8652,3,-2.005,9.267,-1.682,4,-0.034,0.367,0.144,5,-13.364,-43.814,23.485
705627.885,3,-2.235,9.835,-4.166,4,0.068,0.351,0.107,5,-14.015,-43.12,24.21
705627.9049,3,-2.307,8.631,-3.436,4,0.13,0.326,0.091,5,-14.017,-43.118,23.482
705627.9248,3,-2.036,9.703,-3.041,4,0.084,0.395,0.111,5,-13.361,-43.819,25.664
705627.9446,3,-1.484,9.026,-1.936,4,0.037,0.453,0.128,5,-15.315,-41.724,24.203
705627.9645,3,-0.426,9.459,-1.917,4,0.004,0.47,0.14,5,-15.367,-43.861,22.757
705627.9843,3,-0.309,10.988,-2.434,4,-0.018,0.43,0.131,5,-15.35,-43.15,23.479
705628.0042,3,-0.634,6.805,-2.154,4,-0.008,0.408,0.084,5,-16.032,-43.881,24.208
705628.0241,3,-1.22,11.651,-2.625,4,-0.012,0.384,0.062,5,-15.332,-42.438,24.205
705628.0439,3,-1.043,8.538,-0.16,4,0.018,0.391,0.035,5,-15.366,-43.863,23.482
705628.0638,3,-1.452,10.703,-4.972,4,-0.018,0.359,0.015,5,-14.684,-43.132,22.755
705628.0837,3,0.969,11.397,-4.659,4,0.081,0.343,-0.003,5,-13.998,-42.406,24.208
705628.1035,3,0.866,8.231,-1.814,4,0.076,0.301,-0.023,5,-15.317,-41.722,23.476
705628.1234,3,0.06,10.083,-3.328,4,-0.022,0.317,-0.057,5,-14.697,-43.846,23.483
705628.1433,3,-0.232,9.464,-3.125,4,-0.008,0.314,-0.133,5,-15.381,-44.579,24.211
705628.1631,3,-0.83,8.786,-3.623,4,-0.005,0.234,-0.17,5,-16.019,-43.167,23.477
705628.183,3,-1.871,10.588,-2.67,4,-0.023,0.089,-0.178,5,-15.35,-43.15,23.479
705628.2029,3,-1.254,11.892,-1.857,4,-0.04,-0.077,-0.184,5,-15.349,-43.152,24.207
705628.2227,3,-0.562,6.14,-1.199,4,-0.084,-0.233,-0.179,5,-14.034,-43.826,22.032
705628.2426,3,-0.811,11.416,-3.314,4,-0.065,-0.334,-0.137,5,-15.349,-43.152,24.207
705628.2625,3,-0.127,10.691,-3.383,4,0.01,-0.441,-0.126,5,-14.032,-43.831,23.485
705628.2823,3,1.022,10.107,-2.192,4,-0.012,-0.509,-0.104,5,-13.347,-43.103,24.21
705628.3022,3,1.898,8.908,-1.163,4,-0.055,-0.485,-0.085,5,-14.03,-43.834,24.939
705628.3221,3,-0.036,8.284,-1.256,4,-0.051,-0.44,-0.085,5,-15.35,-43.15,23.479
705628.3419,3,-0.713,8.925,-3.257,4,-0.017,-0.404,-0.129,5,-14.682,-43.134,23.48
705628.3618,3,-1.725,11.208,-4.269,4,0.04,-0.435,-0.168,5,-11.359,-43.767,24.216
705628.3817,3,-1.469,8.995,-2.539,4,0.043,-0.454,-0.152,5,-11.359,-43.768,24.942
705628.4015,3,-2.189,9.433,-1.323,4,-0.026,-0.411,-0.103,5,-12.027,-43.785,24.942
705628.4214,3,-3.651,12.067,-1.067,4,-0.051,-0.354,-0.069,5,-12.694,-43.802,24.94
705628.4413,3,-3.415,5.444,-0.572,4,-0.039,-0.322,-0.04,5,-12.029,-43.782,23.488
705628.4611,3,-3.972,9.928,-3.525,4,-0.008,-0.329,0.006,5,-11.311,-41.624,23.482
705628.481,3,-4.659,7.566,-3.917,4,0.087,-0.278,0.059,5,-10.04,-44.449,24.22
705628.5009,3,-2.953,23.469,-1.424,4,0.067,-0.118,0.137,5,-10.04,-44.449,24.22
705628.5207,3,0.481,3.352,3.096,4,-0.002,0.08,0.233,5,-11.342,-43.057,25.664
705628.5406,3,-0.081,7.427,0.964,4,-0.117,0.278,0.291,5,-11.342,-43.057,25.664
705628.5605,3,-2.579,10.873,-6.035,4,0.05,0.389,0.177,5,-13.396,-45.242,24.216
705628.5803,3,-1.472,8.332,-4.429,4,0.268,0.416,0.111,5,-11.359,-43.767,24.216
705628.6002,3,-1.835,8.521,-4.271,4,0.194,0.57,0.136,5,-13.985,-41.689,22.754
705628.62,3,-2.316,9.775,-1.967,4,0.093,0.733,0.156,5,-13.985,-41.689,22.754
705628.6399,3,-1.469,9.021,0.053,4,0.016,0.81,0.134,5,-13.982,-41.693,24.933
705628.6598,3,-0.371,8.243,-2.453,4,-0.045,0.731,0.101,5,-14.015,-43.12,24.21
705628.6796,3,0.96,12.414,-3.898,4,0.004,0.63,0.065,5,-14.662,-42.424,25.658
705628.6995,3,1.823,7.82,-1.488,4,0.018,0.54,0.032,5,-16,-42.456,24.93
705628.7194,3,1.881,10.883,-2.027,4,-0.065,0.503,-0.003,5,-15.35,-43.15,23.479
705628.7392,3,2.209,10.775,-2.106,4,-0.048,0.448,-0.076,5,-15.987,-41.737,22.749
705628.7591,3,1.467,7.277,0.775,4,-0.046,0.309,-0.152,5,-15.334,-42.436,23.477
705628.779,3,0.541,8.09,-6.865,4,-0.059,0.174,-0.251,5,-14.632,-40.993,23.476
705628.7988,3,0.007,16.979,-9.497,4,0.066,-0.036,-0.348,5,-14.684,-43.132,22.755
705628.8187,3,2.12,3.776,1.543,4,0.083,-0.207,-0.372,5,-14.665,-42.419,23.479
705628.8386,3,-2.826,11.533,-1.249,4,-0.283,-0.335,-0.371,5,-14.633,-40.991,22.751
705628.8584,3,-2.527,11.73,-1.094,4,-0.237,-0.483,-0.444,5,-13.333,-42.386,22.755
705628.8783,3,-2.443,5.664,-0.761,4,-0.184,-0.839,-0.426,5,-12.651,-41.65,20.576
705628.8981,3,-3.994,14.156,-4.164,4,-0.123,-1.043,-0.335,5,-13.35,-43.1,22.757
705628.918,3,-2.852,8.138,-0.852,4,0.002,-1.187,-0.266,5,-11.346,-43.048,22.032
705628.9379,3,-3.58,9.832,-1.579,4,-0.039,-1.249,-0.146,5,-10.69,-43.752,24.217
705628.9577,3,-2.082,10.44,-3.532,4,0.027,-1.134,-0.038,5,-10.693,-43.748,22.765
705628.9776,3,-0.634,8.621,-2.632,4,0.103,-1.019,0.054,5,-9.325,-42.29,23.488
705628.9975,3,-0.263,6.719,-2.948,4,0.094,-0.869,0.117,5,-10.69,-43.752,24.217
705629.0174,3,0.096,10.263,-3.616,4,0.103,-0.675,0.14,5,-10.689,-43.755,25.668
705629.0372,3,0.112,10.476,-3.683,4,0.142,-0.424,0.168,5,-8.656,-42.278,24.942
705629.0571,3,0.103,11.916,-1.833,4,0.098,-0.159,0.185,5,-11.327,-42.342,24.937
705629.0769,3,-0.026,6.927,1.34,4,0.015,0.055,0.148,5,-10.007,-43.025,25.667
705629.0968,3,-1.529,8.126,-0.263,4,-0.028,0.084,0.118,5,-9.975,-41.595,24.939
705629.1167,3,-2.795,15.302,-4.879,4,0.073,0.057,0.08,5,-9.338,-43.008,25.668
705629.1365,3,-0.699,8.506,-1.787,4,0.154,0.024,0.07,5,-10.686,-43.761,27.849
705629.1564,3,-0.514,8.698,-0.72,4,0.035,0.011,0.122,5,-11.375,-44.481,24.217
705629.1763,3,-1.962,11.194,-2.156,4,0.009,0.023,0.134,5,-11.993,-42.36,25.662
705629.1961,3,-2.838,6.635,-1.11,4,0.051,-0.049,0.089,5,-8.636,-41.566,26.393
705629.216,3,-3.948,11.052,-3.271,4,0.038,-0.159,0.081,5,-6.013,-43.646,27.856
705629.2358,3,-3.161,8.478,-1.905,4,0.079,-0.197,0.128,5,-9.941,-40.17,25.661
705629.2557,3,-2.142,13.261,-1.273,4,0.051,-0.187,0.216,5,-11.305,-41.632,27.113
705629.2756,3,-2.077,8.021,-0.998,4,0.049,-0.103,0.258,5,-12.643,-41.663,25.659
705629.2955,3,-2.455,6.106,-2.386,4,0.068,0.044,0.262,5,-11.961,-40.932,24.934
705629.3153,3,-3.671,9.131,-4.484,4,0.147,0.13,0.247,5,-10.638,-41.615,26.39
705629.3352,3,-3.106,12.799,-5.35,4,0.22,0.322,0.276,5,-11.909,-38.794,26.381
705629.355,3,-1.878,8.2,-0.699,4,0.141,0.577,0.348,5,-13.277,-40.254,27.107
705629.3749,3,-1.12,11.366,0.426,4,0.002,0.789,0.373,5,-13.901,-38.129,24.924
705629.3948,3,-0.543,8.284,-0.447,4,-0.002,0.901,0.348,5,-13.261,-39.54,26.379
705629.4146,3,-0.677,10.732,-4.391,4,0.07,0.896,0.28,5,-16.664,-42.474,26.382
705629.4345,3,-0.881,8.215,-3.089,4,0.161,0.843,0.19,5,-16.602,-39.618,24.922
705629.4544,3,-1.352,9.315,-2.692,4,0.123,0.851,0.173,5,-14.615,-40.282,24.928
705629.4742,3,-0.703,8.286,-1.01,4,0.057,0.922,0.163,5,-17.268,-39.636,25.645
705629.4941,3,-0.318,9.667,-2.209,4,0.013,0.896,0.131,5,-17.302,-41.06,24.199
705629.514,3,0.663,9.712,-4.305,4,0.022,0.822,0.07,5,-17.938,-39.65,24.193
705629.5338,3,2.816,8.851,-4.082,4,0.034,0.715,0.029,5,-17.969,-41.08,25.648
705629.5537,3,1.357,13.797,-2.151,4,-0.016,0.639,-0.002,5,-18.657,-41.801,22.746
705629.5736,3,0.1,6.748,1.184,4,-0.074,0.593,-0.084,5,-17.938,-39.65,24.193
705629.5934,3,-1.175,9.906,-1.137,4,-0.164,0.438,-0.157,5,-17.288,-40.344,23.47
705629.6133,3,-0.885,9.779,-4.295,4,-0.043,0.169,-0.229,5,-18.623,-40.376,23.468
705629.6332,3,-0.223,9.155,-5.724,4,0.065,-0.184,-0.263,5,-18.625,-40.375,22.743
705629.653,3,-0.323,8.925,-4.611,4,0.06,-0.355,-0.25,5,-18.605,-39.667,24.919
705629.6729,3,0.553,9.291,-2.529,4,-0.013,-0.391,-0.208,5,-17.955,-40.363,24.196
705629.6927,3,-0.144,8.09,-1.799,4,-0.098,-0.345,-0.173,5,-15.298,-41.011,24.202
705629.7126,3,-0.651,10.971,-1.5,4,-0.115,-0.336,-0.163,5,-15.97,-41.025,22.748
705629.7325,3,-1.378,6.322,-2.137,4,-0.083,-0.351,-0.176,,,,
705629.7524,3,-1.835,10.801,-3.998,4,-0.044,-0.39,-0.164,5,-15.987,-41.737,22.749
705629.7722,3,-1.811,11.476,-1.802,4,0.031,-0.374,-0.145,5,-15.298,-41.011,24.202
705629.7921,3,-1.632,8.296,-1.436,4,-0.002,-0.261,-0.086,5,-15.3,-41.01,23.474
705629.812,3,-1.146,11,-3.632,4,-0.029,-0.093,-0.043,5,-13.95,-40.265,24.203
705629.8318,3,-1.443,9.04,-1.907,4,0.034,0.006,-0.029,5,-15.335,-42.435,22.752
705629.8517,3,-1.68,10.026,-2.106,4,0.012,0.122,-0.019,5,-15.332,-42.438,24.205
705629.8716,3,-1.541,10.244,-1.323,4,-0.006,0.227,-0.027,5,-17.975,-41.069,21.292
705629.8914,3,-1.704,7.588,-0.445,4,-0.011,0.273,-0.019,5,-15.298,-41.011,24.202
705629.9113,3,-2.094,10.359,-2.68,4,-0.004,0.288,-0.014,5,-15.297,-41.014,25.653
705629.9312,3,-0.936,10.873,-2.615,4,0.043,0.224,-0.03,5,-15.332,-42.438,24.205
705629.951,3,-0.5,6.611,-2.343,4,0.035,0.201,-0.023,5,-16,-42.456,24.93
705629.9709,3,-1.701,12.852,-3.647,4,0.012,0.222,-0.01,5,-16.67,-42.464,22.023
705629.9907,3,-1.17,8.736,-0.919,4,0.024,0.226,-0.035,5,-15.332,-42.438,24.205
705630.0106,3,-1.108,9.413,-0.522,4,-0.068,0.232,-0.021,5,-13.966,-40.977,23.477
705630.0305,3,-1,8.942,-2.634,4,-0.056,0.207,-0.023,5,-16.637,-41.04,22.748
705630.0503,3,-1.012,9.485,-3.666,4,0.033,0.14,-0.052,5,-16.02,-43.166,22.752
705630.0702,3,-0.773,9.521,-4.345,4,0.061,0.099,-0.081,5,-15.334,-42.436,23.477
705630.0901,3,-0.739,9.014,-3.57,4,0.046,0.147,-0.085,5,-16.653,-41.753,22.749
705630.1099,3,-0.306,8.736,-3.326,4,0.005,0.221,-0.079,5,-14.664,-42.421,24.207
705630.1298,3,-0.306,9.949,-2.484,4,-0.035,0.235,-0.082,5,-16.67,-42.467,22.751
705630.1497,3,1.326,12.727,-1.847,4,-0.079,0.155,-0.114,5,-16.019,-43.167,23.477
705630.1695,3,1.323,5.058,-1.357,4,-0.117,0.061,-0.136,5,-16.701,-43.895,23.48
705630.1894,3,0.074,13.055,-3.319,4,-0.111,0.003,-0.169,5,-16.019,-43.167,23.477
705630.2093,3,0.213,11.78,-3.034,4,-0.028,-0.147,-0.236,5,-14.001,-42.403,22.755
705630.2291,3,0.211,7.044,-0.151,4,-0.061,-0.345,-0.253,5,-15.367,-43.861,22.757
705630.249,3,-1.132,10.459,-4.147,4,-0.104,-0.472,-0.256,5,-14.699,-43.845,22.758
705630.2689,3,-1.117,11.584,-3.474,4,-0.013,-0.602,-0.264,5,-14.699,-43.845,22.758
705630.2887,3,-0.94,7.006,-1.07,4,-0.037,-0.699,-0.249,5,-14.03,-43.832,24.213
705630.3086,3,-2.323,11.574,-2.032,4,-0.117,-0.742,-0.206,5,-12.665,-42.368,22.029
705630.3284,3,-1.764,8.059,-1.376,4,-0.066,-0.764,-0.174,5,-13.362,-43.816,24.213
705630.3483,3,-2.273,10.179,-1.627,4,-0.051,-0.799,-0.128,5,-12.692,-43.803,25.665
705630.3682,3,-1.811,10.095,-1.618,4,-0.01,-0.812,-0.092,5,-11.345,-43.053,23.485
705630.3874,3,-1.426,5.702,-1.345,4,0.017,-0.773,-0.041,5,-11.998,-42.354,22.758
705630.4079,3,-2.18,11.61,-4.755,4,0.046,-0.705,0.008,5,-11.993,-42.36,25.662
705630.4278,3,-2.082,10.394,-4.534,4,0.112,-0.577,0.046,5,-12.029,-43.782,23.488
705630.4476,3,-0.739,12.773,-0.759,4,0.054,-0.407,0.112,5,-11.375,-44.482,24.944
705630.4675,3,-0.919,8.09,0.385,4,-0.035,-0.228,0.169,5,-12.024,-43.788,26.395
705630.4874,3,-2.46,9.009,-2.063,4,-0.051,-0.113,0.164,5,-11.327,-42.342,24.937
705630.5072,3,-2.374,9.741,-3.881,4,0.061,-0.114,0.098,5,-10.677,-43.037,23.486
705630.5271,3,-2.79,9.339,-2.295,4,0.139,-0.058,0.108,5,-10.654,-42.331,27.116
705630.547,3,-1.321,8.767,-2.821,4,0.097,0.077,0.153,5,-11.325,-42.343,25.662
705630.5668,3,-1.852,10.579,-1.945,4,0.066,0.173,0.17,5,-12.659,-42.378,26.389
705630.5867,3,-1.754,8.466,-0.964,4,0.044,0.251,0.166,5,-12.012,-43.073,24.939
705630.6065,3,-1.357,8.667,-2.328,4,-0.002,0.274,0.162,5,-11.327,-42.34,24.211
705630.6264,3,-1.306,12.627,-3.465,4,0.044,0.266,0.144,5,-12.675,-43.092,26.39
705630.6463,3,-0.955,8.676,-0.861,4,0.062,0.292,0.146,5,-14.015,-43.121,24.936
705630.6661,3,-1.196,8.495,-0.605,4,-0.005,0.334,0.156,5,-14.015,-43.12,24.21
705630.686,3,-1.725,9.315,-2.197,4,0.026,0.333,0.122,5,-13.965,-40.981,24.931
705630.7059,3,-2.663,9.806,-2.972,4,0.081,0.312,0.08,5,-12.611,-40.236,25.656
705630.7258,3,-1.778,9.377,-4.489,4,0.088,0.31,0.067,5,-14.68,-43.135,24.208
705630.7456,3,-2.225,10.672,-3.249,4,0.07,0.311,0.086,5,-13.998,-42.407,24.934
705630.7655,3,-0.663,9.672,-1.512,4,0.018,0.344,0.104,5,-13.982,-41.692,24.207
705630.7853,3,-0.675,9.186,-0.629,4,-0.052,0.328,0.095,5,-13.982,-41.693,24.933
705630.8052,3,-1.077,9.758,-2.637,4,-0.043,0.295,0.068,5,-15.315,-41.724,24.203
705630.8251,3,-0.223,10.263,-3.45,4,0.017,0.224,0.035,5,-14.015,-43.121,24.936
705630.8449,3,-0.089,10.871,-3.522,4,0.06,0.157,0.013,5,-15.985,-41.739,23.474
705630.8648,3,0.687,8.375,-2.043,4,0.044,0.123,0.024,5,-15.315,-41.724,24.203
705630.8846,3,1.259,11.208,-4.12,4,-0.002,0.073,-0.018,5,-14.615,-40.282,24.928
705630.9045,3,1.723,9.375,-2.17,4,-0.001,-0.004,-0.057,5,-14.68,-43.135,24.208
705630.9244,3,0.837,9.028,-3.223,4,-0.043,-0.091,-0.1,5,-15.315,-41.725,24.93
705630.9442,3,-0.053,10.213,-2.814,4,-0.039,-0.217,-0.153,5,-14.65,-41.701,22.025
705630.9641,3,0.172,8.133,-2.024,4,-0.024,-0.338,-0.183,5,-14.68,-43.137,24.934
705630.984,3,-1.371,10.342,-3.319,4,-0.043,-0.429,-0.183,5,-13.313,-41.675,24.207
705631.0039,3,-1.656,10.196,-2.701,4,-0.007,-0.509,-0.184,5,-13.98,-41.695,25.658
705631.0237,3,-2.084,5.86,-1.015,4,-0.011,-0.567,-0.158,5,-13.345,-43.106,25.661
705631.0436,3,-2.611,10.973,-2.402,4,-0.035,-0.602,-0.107,5,-12.694,-43.8,24.214
705631.0634,3,-2.347,12.294,-1.902,4,0.024,-0.624,-0.067,5,-13.33,-42.39,24.934
705631.0833,3,-0.924,8.279,-1.259,4,0.026,-0.575,0.007,5,-13.998,-42.406,24.208
705631.1032,3,-1.653,11.469,-3.752,4,0.006,-0.504,0.053,5,-12.691,-43.805,26.393
705631.123,3,-1.914,10.122,-0.601,4,0.059,-0.415,0.068,5,-11.327,-42.342,24.937
705631.1429,3,-2.041,6.162,0.053,4,0.035,-0.316,0.084,5,-13.329,-42.392,25.659
705631.1628,3,-3.328,11.507,-4.333,4,0.053,-0.207,0.112,5,-11.992,-42.361,26.39
705631.1826,3,-1.838,8.43,-3.606,4,0.174,-0.107,0.134,5,-11.995,-42.358,24.937
705631.2025,3,-2.63,8.423,-2.005,4,0.116,-0.025,0.185,5,-11.992,-42.361,26.39
705631.2224,3,-1.828,14.594,-1.646,4,0.04,0.127,0.213,5,-11.957,-40.939,27.84
705631.2422,3,-0.988,3.357,0.878,4,0.01,0.248,0.227,5,-12.643,-41.663,25.659
705631.2621,3,-2.115,13.962,-3.668,4,-0.005,0.349,0.244,5,-12.662,-42.374,24.21
705631.282,3,-1.646,9.236,-2.881,4,0.123,0.377,0.206,5,-13.347,-43.105,24.936
705631.3019,3,-1.72,7.54,-1.689,4,0.094,0.436,0.2,5,-14.68,-43.137,24.934
705631.3217,3,-2.24,11.148,-5.322,4,0.072,0.511,0.189,5,-14.68,-43.137,24.934
705631.3416,3,-2.06,9.825,-3.017,4,0.126,0.601,0.172,5,-14.68,-43.137,24.934
705631.3615,3,-1.39,8.681,-0.625,4,0.043,0.657,0.162,5,-15.331,-42.441,25.656
705631.3813,3,-0.955,10.854,-3.103,4,-0.022,0.646,0.141,5,-16.667,-42.47,24.203
705631.4012,3,-0.215,10.227,-3.259,4,0.02,0.606,0.103,5,-16.684,-43.185,24.931
705631.421,3,-1.366,9.751,-2.754,4,0.042,0.509,0.057,5,-16.035,-43.878,22.755
705631.4409,3,-2.249,9.243,-2.034,4,0.016,0.452,0.002,5,-17.336,-42.487,24.202
705631.4608,3,-1.39,8.045,-2.52,4,-0.006,0.37,-0.023,5,-16.667,-42.47,24.203
705631.4806,3,-1.184,12.249,-2.902,4,0.026,0.289,-0.007,5,-15.968,-41.026,23.473
705631.5005,3,0.263,18.638,-1.775,4,0.027,0.212,-0.003,5,-17.969,-41.08,25.648
705631.5204,3,3.905,2.352,0.424,4,-0.026,0.156,-0.003,5,-18.005,-42.502,23.473
705631.5402,3,1.976,2.474,-3.501,4,-0.065,0.143,0.014,5,-15.331,-42.441,25.656
705631.5601,3,-0.625,17.748,-8.104,4,0.121,0.057,-0.108,5,-15.964,-41.032,26.379
705631.58,3,-1.783,2.661,-0.792,4,0.2,-0.107,-0.239,5,-17.27,-39.635,24.921
705631.5998,3,-1.615,7.482,-3.714,4,-0.046,0.022,-0.172,5,-16.615,-40.334,26.378
705631.6197,3,-1.732,13.079,-5.86,4,-0.018,0.028,-0.102,5,-15.933,-39.604,25.647
705631.6396,3,0.093,10.966,-1.18,4,-0.018,-0.037,-0.089,5,-16.684,-43.184,24.205
705631.6594,3,0.287,5.965,0.16,4,-0.148,-0.077,-0.081,5,-16.667,-42.471,24.93
705631.6793,3,-0.548,12.022,-1.618,4,-0.162,-0.076,-0.065,5,-16.684,-43.185,24.931
705631.6991,3,-0.983,10.83,-2.249,4,-0.052,-0.13,-0.102,5,-15.982,-41.743,25.653
705631.719,3,0.632,9.157,-3.683,4,-0.031,-0.206,-0.122,5,-14.648,-41.705,23.477
