704131.6024,3,-1.065,9.674,-2.252,,,,,5,28.709,-41.331,9.75
704131.6223,3,-1.065,9.674,-2.252,,,,,,,,
704131.6421,3,-0.933,9.669,-2.218,4,-0.001,0.002,0.001,5,28.879,-41.71,9.608
704131.662,3,-0.995,9.665,-2.189,,,,,,,,
704131.6819,3,-1.041,9.677,-2.218,,,,,,,,
704131.7017,3,-1.048,9.684,-2.209,4,0.004,0.005,0.01,5,31.354,-42.661,12.624
704131.7216,3,-1.029,9.672,-2.185,,,,,,,,
704131.7415,3,-1.084,9.684,-2.17,,,,,,,,
704131.7613,3,-1.058,9.693,-2.144,4,0.006,-0.002,0.01,,,,
704131.7812,3,-1.091,9.655,-2.161,,,,,,,,
704131.8011,3,-1.067,9.696,-2.244,,,,,,,,
704131.8209,3,-0.976,9.677,-2.228,4,0.008,-0.005,0.017,5,31.339,-43.329,13.258
704131.8408,3,-0.909,9.674,-2.24,,,,,,,,
704131.8607,3,-0.976,9.686,-2.235,,,,,,,,
704131.8805,3,-1.074,9.669,-2.273,4,0.01,0.002,0.018,,,,
704131.9004,3,-1.01,9.701,-2.343,,,,,,,,
704131.9203,3,-0.854,9.641,-2.261,,,,,,,,
704131.9402,3,-0.725,9.681,-2.383,4,0.01,0.013,0.024,5,30.466,-42.242,11.935
704131.96,3,-0.723,9.645,-2.35,,,,,,,,
704131.9799,3,-0.945,9.698,-2.242,,,,,,,,
704131.9997,3,-1.065,9.662,-1.996,4,0.012,0.042,0.017,5,30.29,-42.592,13.095
704132.0196,3,-1.321,9.739,-2.008,,,,,,,,
704132.0395,3,-1.199,9.677,-2.103,,,,,,,,
704132.0593,3,-1.177,9.703,-1.972,4,0.013,0.012,0.019,5,31.943,-42.075,12.764
704132.0792,3,-1.259,9.681,-2.053,,,,,,,,
704132.0991,3,-1.18,9.71,-1.979,,,,,,,,
704132.1189,3,-1.261,9.691,-2.084,4,0.022,0.007,0.035,5,30.772,-42.719,14.024
704132.1388,3,-1.18,9.669,-2.29,,,,,,,,
704132.1586,3,-0.857,9.641,-2.07,,,,,,,,
704132.1785,3,-0.773,9.638,-2.192,4,0.03,-0.008,0.054,5,31.218,-42.85,13.828
704132.1984,3,-0.802,9.607,-2.438,,,,,,,,
704132.2182,3,-0.873,9.665,-2.407,,,,,,,,
704132.2381,3,-0.986,9.605,-2.436,4,0.041,0.016,0.048,5,30.254,-42.258,13.144
704132.258,3,-0.816,9.66,-2.587,,,,,,,,
704132.2779,3,-0.67,9.65,-2.455,,,,,,,,
704132.2977,3,-0.945,9.645,-2.563,4,0.035,-0.007,0.047,,,,
704132.3176,3,-1.101,9.59,-2.745,,,,,,,,
704132.3374,3,-0.782,9.638,-2.453,,,,,,,,
704132.3573,3,-0.761,9.636,-2.249,4,0.025,-0.035,0.054,5,30.034,-42.024,14.413
704132.3772,3,-0.73,9.662,-2.426,,,,,,,,
704132.397,3,-1.381,9.461,-2.701,,,,,,,,
704132.4169,3,-2.699,9.835,-2.055,4,0.03,-0.047,0.05,,,,
704132.4368,3,-1.304,9.65,-1.988,,,,,,,,
704132.4566,3,-0.558,9.519,-2.175,,,,,,,,
704132.4765,3,-0.323,9.643,-2.23,4,0.046,-0.142,0.096,5,29.98,-42.357,13.727
704132.4963,3,-1.33,9.679,-2.18,,,,,,,,
704132.5162,3,-1.527,9.605,-3.214,,,,,,,,
704132.5361,3,-1.412,9.61,-2.599,4,0.075,-0.063,0.096,5,28.848,-43.283,12.129
704132.556,3,-0.388,9.583,-2.867,,,,,,,,
704132.5758,3,0.893,9.377,-3.907,,,,,,,,
704132.5957,3,0.297,9.476,-4.015,4,0.053,0.025,0.115,5,30.043,-41.313,13.38
704132.6156,3,-1.493,9.416,-3.989,,,,,,,,
704132.6354,3,-0.845,9.665,-3.814,,,,,,,,
704132.6553,3,0.696,9.081,-3.508,4,0.002,0.08,0.089,5,29.169,-43.097,13.734
704132.6751,3,0.081,9.421,-4.149,,,,,,,,
704132.695,3,-1.149,9.007,-4.704,,,,,,,,
704132.7149,3,-1.074,9.236,-5.255,4,-0.007,-0.063,0.042,5,28.992,-44.604,13.435
704132.7347,3,0.055,9.136,-4.759,,,,,,,,
704132.7546,3,-0.067,9.2,-5.104,,,,,,,,
704132.7745,3,-0.823,8.975,-4.489,4,-0.019,-0.162,0.019,5,28.951,-42.191,11.934
704132.7944,3,-3.632,8.298,-5.427,,,,,,,,
704132.8142,3,-3.967,8.451,-4.881,,,,,,,,
704132.8341,3,-3.036,8.997,-4.549,4,0.008,-0.176,0.031,5,28,-41.444,11.929
704132.8539,3,-2.328,8.15,-4.116,,,,,,,,
704132.8738,3,-2.323,9.145,-5.226,,,,,,,,
704132.8937,3,-0.5,8.396,-5.302,4,0.07,-0.372,0.128,5,26.915,-41.626,12.416
704132.9135,3,-0.888,9.045,-6.604,,,,,,,,
704132.9334,3,-1.383,8.526,-6.135,,,,,,,,
704132.9533,3,-0.782,9.397,-4.771,4,0.114,-0.11,0.155,,,,
704132.9731,3,0.282,10.787,-3.884,,,,,,,,
704132.993,3,-0.359,9.825,-2.568,,,,,,,,
704133.0129,3,0.129,9.49,-1.405,4,0.077,0.07,0.16,5,26.035,-41.83,12.653
704133.0327,3,1.553,7.913,-2.374,,,,,,,,
704133.0526,3,0.5,11.158,-4.286,,,,,,,,
704133.0724,3,0.089,9.846,-3.726,4,0.133,0.57,0.085,5,24.443,-41.029,14.003
704133.0923,3,-0.931,9.976,-2.496,,,,,,,,
704133.1122,3,-1.893,9.751,-0.239,,,,,,,,
704133.1321,3,-2.11,10.959,-0.421,4,0.067,1.042,0.066,5,21.541,-41.704,14.638
704133.1519,3,-1.926,10.232,-0.567,,,,,,,,
704133.1718,3,-1.318,9.657,-2.309,,,,,,,,
704133.1917,3,-0.687,9.31,-3.182,4,0.139,0.606,0.098,5,20.92,-43.811,16.296
704133.2115,3,-0.775,9.088,-3.608,,,,,,,,
704133.2314,3,-0.313,10.598,-3.297,,,,,,,,
704133.2512,3,0.342,10.119,-2.221,4,0.038,0.581,0.161,5,18.881,-43.498,17.975
704133.2711,3,0.718,9.779,-2.656,,,,,,,,
704133.291,3,1.321,9.038,-2.273,,,,,,,,
704133.3108,3,1.881,9.899,-5.535,4,0.043,0.724,0.122,,,,
704133.3307,3,1.795,9.775,-5.795,,,,,,,,
704133.3506,3,1.012,7.446,-4.886,,,,,,,,
704133.3705,3,-1.086,8.384,-5.781,4,0.047,0.954,0.007,5,17.079,-42.778,18.596
704133.3903,3,-1.644,10.181,-5.913,,,,,,,,
704133.4102,3,0.72,8.308,-3.994,,,,,,,,
704133.4301,3,2.333,7.387,-5.056,4,-0.05,0.616,-0.049,5,19.147,-41.972,20.68
704133.4499,3,2.474,9.133,-4.448,,,,,,,,
704133.4698,3,2.12,10.404,-3.604,,,,,,,,
704133.4897,3,1.036,9.648,-2.675,4,-0.029,0.391,-0.159,,,,
704133.5095,3,0.065,7.652,-3.51,,,,,,,,
704133.5294,3,-1.354,9.066,-4.616,,,,,,,,
704133.5493,3,-3.223,9.126,-4.027,4,0.055,-0.096,-0.229,5,19.269,-40.874,20.432
704133.5691,3,-3.599,9.042,-4.556,,,,,,,,
704133.589,3,-0.821,9.078,-4.556,,,,,,,,
704133.6088,3,2.264,7.88,-4.135,4,-0.092,-1.445,-0.037,5,21.388,-41.533,20.624
704133.6287,3,3.491,4.788,-5.448,,,,,,,,
704133.6486,3,0.132,2.938,-8.987,,,,,,,,
704133.6685,3,1.692,11.509,-10.148,4,-0.063,-1.368,0.063,5,23.21,-41.299,18.112
704133.6883,3,3.912,23.409,-3.068,,,,,,,,
704133.7082,3,4.68,4.621,0.983,,,,,,,,
704133.7281,3,0.014,5.551,-1.074,4,-0.275,-0.15,0.041,5,22.337,-42.258,15.552
704133.7479,3,-2.57,14.591,0.206,,,,,,,,
704133.7678,3,-1.481,10.71,-0.22,,,,,,,,
704133.7876,3,-2.445,9.196,-3.127,4,0.003,0.401,-0.092,5,20.753,-39.549,16.122
704133.8075,3,-3.013,9.409,-3.068,,,,,,,,
704133.8274,3,-2.548,7.966,-2.527,,,,,,,,
704133.8472,3,-1.787,11.378,-2.005,4,-0.047,-0.007,0.028,5,19.469,-40.813,14.864
704133.8671,3,-1.275,9.495,-0.431,,,,,,,,
704133.887,3,0.309,10.67,-1.141,,,,,,,,
704133.9068,3,1.079,11.017,-0.366,4,-0.037,-0.279,0.131,5,18.686,-42.303,15.547
704133.9267,3,-0.249,9.734,-0.483,,,,,,,,
704133.9466,3,0.115,10.495,-1.974,,,,,,,,
704133.9664,3,0.577,8.377,-2.271,4,0.088,0.109,0.138,5,17.076,-42.633,16.719
704133.9863,3,-0.199,9.035,-3.302,,,,,,,,
704134.0062,3,-1.031,9.952,-1.517,,,,,,,,
704134.026,3,-1.414,11.447,-0.67,4,0.02,0.606,0.164,,,,
704134.0453,3,0.426,9.854,-0.206,,,,,,,,
704134.0658,3,2.094,5.793,-2.166,,,,,,,,
704134.0856,3,1.675,11.201,-4.613,4,0.053,0.89,0.157,5,17.406,-43.954,19.087
704134.1055,3,2.134,11.921,-3.348,,,,,,,,
704134.1253,3,1.981,9.751,-1.711,,,,,,,,
704134.1452,3,-0.141,9.43,-0.799,4,-0.04,1.038,0.025,,,,
704134.1651,3,-0.735,9.818,-1.893,,,,,,,,
704134.1849,3,1.412,9.576,-0.129,,,,,,,,
704134.2048,3,2.367,9.724,2.527,4,-0.094,0.576,-0.014,5,17.177,-44.36,22.086
704134.2247,3,0.703,7.284,-2.103,,,,,,,,
704134.2446,3,-1.924,8.736,-6.418,,,,,,,,
704134.2644,3,-1.613,10.72,-10.143,4,0.243,0.889,-0.127,5,18.463,-42.328,22.809
704134.2843,3,-0.098,7.925,-5.176,,,,,,,,
704134.3041,3,1.046,10.694,-1.103,,,,,,,,
704134.324,3,1.357,7.609,2.414,4,-0.131,0.84,-0.074,5,16.696,-44.464,24.89
704134.3439,3,0.275,9.93,3.257,,,,,,,,
704134.3637,3,0.562,11.148,-1.206,,,,,,,,
704134.3836,3,-0.124,9.885,-2.417,4,0.122,0.79,-0.14,5,17.334,-43.787,25.874
704134.4035,3,0.73,10.543,-3.424,,,,,,,,
704134.4233,3,0.603,7.571,-1.405,,,,,,,,
704134.4432,3,-0.232,10.555,-4.455,4,0.06,0.812,-0.175,5,16.693,-42.761,26.826
704134.463,3,-0.897,5.523,-1.062,,,,,,,,
704134.4829,3,0.23,11.763,-4.412,,,,,,,,
704134.5028,3,0.134,10.751,-5.561,4,0.04,1.207,-0.211,,,,
704134.5227,3,-0.28,8.573,-4.116,,,,,,,,
704134.5425,3,-0.426,6.269,-3.618,,,,,,,,
704134.5624,3,1.34,11.392,-5.386,4,0.114,1.322,-0.28,5,17.921,-39.642,29.338
704134.5823,3,1.694,10.146,-4.317,,,,,,,,
704134.6021,3,-0.112,8.724,-2.871,,,,,,,,
704134.622,3,1.225,9.062,-4.606,4,0.2,0.731,-0.394,5,15.279,-40.253,31.895
704134.6419,3,0.098,11.029,-4.604,,,,,,,,
704134.6617,3,1.405,9.519,-1.761,,,,,,,,
704134.6816,3,-0.66,8.272,-0.488,4,0.165,0.27,-0.493,,,,
704134.7014,3,-1.242,7.755,-2.166,,,,,,,,
704134.7213,3,-2.63,9.179,-6.276,,,,,,,,
704134.7412,3,-2.29,9.796,-9.507,4,0.255,-0.049,-0.44,5,16.052,-40.228,31.9
704134.761,3,-3.47,9.753,-5.259,,,,,,,,
704134.7809,3,-2.505,9.495,-0.421,,,,,,,,
704134.8008,3,-1.029,8.846,-2.201,4,-0.018,-0.361,-0.282,5,16.617,-41.113,31.519
704134.8207,3,0.426,11.378,-4.465,,,,,,,,
704134.8405,3,0.467,9.057,-3.68,,,,,,,,
704134.8604,3,2.027,9.418,-3.034,4,0.06,-0.45,-0.173,5,18.755,-40.288,30.161
704134.8802,3,2.914,10.337,-2.563,,,,,,,,
704134.9001,3,1.752,6.65,-3.623,,,,,,,,
704134.92,3,2.572,8.83,-5.054,4,0.018,-0.154,-0.192,5,20.717,-42.061,29.588
704134.9398,3,0.215,11.483,-3.053,,,,,,,,
704134.9597,3,0.433,11.447,-0.584,,,,,,,,
704134.9796,3,-0.419,8.645,-0.68,4,-0.072,-0.122,-0.273,5,20.709,-42.287,29.056
704134.9994,3,-0.802,10.256,-3.778,,,,,,,,
704135.0193,3,-3.355,9.545,-2.656,,,,,,,,
704135.0392,3,-2.166,10.086,-3.549,4,-0.039,-0.597,-0.24,,,,
704135.059,3,-2.156,10.148,-1.996,,,,,,,,
704135.0789,3,-1.481,9.468,-3.919,,,,,,,,
704135.0988,3,-2.419,9.217,-4.137,4,-0.12,-0.828,-0.084,5,24.046,-42.107,26.45
704135.1186,3,-0.402,9.741,-5.334,,,,,,,,
704135.1385,3,-0.72,8.806,-3.845,,,,,,,,
704135.1584,3,1.027,8.808,-3.735,4,-0.092,-0.7,0.02,5,26.741,-40.99,26.015
704135.1782,3,1.797,8.98,-4.386,,,,,,,,
704135.1981,3,1.027,10.079,-4.905,,,,,,,,
704135.218,3,0.656,10.636,-4.604,4,-0.025,-0.81,-0.036,,,,
704135.2378,3,0.249,5.714,-3.441,,,,,,,,
704135.2577,3,0.22,9.744,-6.91,,,,,,,,
704135.2776,3,-0.735,13.077,-4.443,4,-0.016,-0.93,-0.047,5,26.736,-40.218,22.556
704135.2974,3,-0.562,10.473,-0.234,,,,,,,,
704135.3173,3,-0.61,7.224,-1.067,,,,,,,,
704135.3372,3,-0.644,9.689,-4.539,4,0.016,-0.675,0.002,5,30.713,-39.934,20.695
704135.357,3,-2.041,12.278,-4.125,,,,,,,,
704135.3769,3,-2.249,8.085,-2.271,,,,,,,,
704135.3968,3,-1.785,7.207,-3.147,4,0.11,-0.281,0.036,5,28.99,-41.214,21.373
704135.4166,3,-0.804,11.507,-5.405,,,,,,,,
704135.4365,3,-0.038,8.155,-2.84,,,,,,,,
704135.4564,3,0.56,10.16,-3.034,4,0.064,-0.13,0.069,5,29.115,-39.92,19.582
704135.4762,3,-0.134,10.38,-3.486,,,,,,,,
704135.4961,3,0.194,10.863,-2.491,,,,,,,,
704135.516,3,0.103,5.681,-1.424,4,0.027,-0.263,0.025,5,29.898,-40.482,19.724
704135.5358,3,-0.397,8.741,-4.295,,,,,,,,
704135.5557,3,-1.275,11.06,-5.18,,,,,,,,
704135.5755,3,-1.216,9.519,-2.692,4,0.068,-0.351,0,,,,
704135.5954,3,-1.182,7.827,-2.436,,,,,,,,
704135.6153,3,-1.524,10.296,-5.049,,,,,,,,
704135.6351,3,-1.34,10.818,-4.441,4,0.04,-0.313,0.008,5,29.716,-42.383,19.388
704135.655,3,-0.505,7.954,-0.17,,,,,,,,
704135.6749,3,-0.826,6.992,-1.548,,,,,,,,
704135.6948,3,-2.606,11.921,-6.853,4,0.075,-0.142,0.034,,,,
704135.7146,3,-2.675,9.964,-4.776,,,,,,,,
704135.7345,3,-1.826,8.341,-2.335,,,,,,,,
704135.7543,3,-1.22,11.428,-2.276,4,0.018,-0.196,0.055,5,29.391,-41.339,19.534
704135.7742,3,-0.933,6.583,-1.371,,,,,,,,
704135.7941,3,-1.194,10.851,-3.496,,,,,,,,
704135.8139,3,-0.904,11.928,-2.51,4,-0.003,-0.324,0.102,5,30.676,-39.928,19.875
704135.8338,3,0.065,7.987,-2.431,,,,,,,,
704135.8537,3,0.005,7.712,-4.604,,,,,,,,
704135.8735,3,-0.62,10.942,-5.001,4,0.05,-0.283,0.079,,,,
704135.8934,3,-0.644,8.861,-2.979,,,,,,,,
704135.9132,3,-0.656,9.397,-3.513,,,,,,,,
704135.9331,3,-1.062,11.344,-2.936,4,-0.016,-0.226,0.051,5,29.865,-40.134,18.216
704135.953,3,-1.409,7.121,-3.326,,,,,,,,
704135.9729,3,-0.591,10.385,-4.738,,,,,,,,
704135.9927,3,-0.988,10.49,-3.175,4,0.002,-0.332,0.036,5,30.736,-40.88,18.175
704136.0126,3,-1.965,5.293,-2.914,,,,,,,,
704136.0325,3,-2.472,12.522,-6.262,,,,,,,,
704136.0523,3,-1.072,12.73,-1.651,4,0.022,-0.264,0.058,5,30.005,-40.056,16.373
704136.0722,3,-0.038,6.458,0.794,,,,,,,,
704136.092,3,-0.098,9.409,-4.367,,,,,,,,
704136.1119,3,-0.038,10.256,-6.083,4,0.084,-0.351,0.052,5,31.123,-40.681,18.263
704136.1318,3,-1.969,7.226,-4.195,,,,,,,,
704136.1516,3,-1.304,10.741,-2.835,,,,,,,,
704136.1715,3,0.062,8.188,-0.189,4,-0.014,-0.375,0.056,5,30.063,-40.881,15.562
704136.1914,3,0.103,9.488,-2.125,,,,,,,,
704136.2112,3,-0.428,11.502,-4.855,,,,,,,,
704136.2311,3,-0.859,7.109,-5.157,4,0.044,-0.519,0.047,,,,
704136.251,3,-1.261,10.552,-4.19,,,,,,,,
704136.2708,3,-0.651,12.988,-1.223,,,,,,,,
704136.2907,3,-1.228,6.666,1.079,4,-0.043,-0.36,0.119,5,31.19,-40.089,16.748
704136.3106,3,-0.357,8.703,-4.073,,,,,,,,
704136.3304,3,-0.361,11.488,-6.513,,,,,,,,
704136.3503,3,-1.955,9.007,-4.601,4,0.117,-0.367,0.102,5,30.482,-40.012,13.24
704136.3702,3,-0.194,9.748,-3.132,,,,,,,,
704136.39,3,0.084,8.724,-1.864,,,,,,,,
704136.4099,3,0.012,10.186,-3.788,4,0.012,-0.251,0.131,,,,
704136.4298,3,-0.696,7.777,-3.113,,,,,,,,
704136.4496,3,-0.364,7.748,-4.948,,,,,,,,
704136.4695,3,-0.246,12.945,-4.159,4,0.066,-0.419,0.114,5,30.699,-39.923,14.444
704136.4893,3,-0.426,9.1,-0.268,,,,,,,,
704136.5092,3,-0.22,7.767,-1.177,,,,,,,,
704136.5291,3,-0.692,10.95,-4.479,4,0.055,-0.406,0.133,5,29.591,-40.086,12.715
704136.549,3,-0.469,9.911,-3.881,,,,,,,,
704136.5688,3,-1.838,9.466,-4.309,,,,,,,,
704136.5887,3,-0.636,9.045,-3.951,4,0.117,-0.311,0.135,5,31.404,-40.575,12.668
704136.6086,3,-0.873,9.435,-2.855,,,,,,,,
704136.6284,3,-0.794,7.801,-2.761,,,,,,,,
704136.6483,3,-1.285,8.183,-3.673,4,0.066,-0.165,0.155,5,31.509,-43.41,12.167
704136.6681,3,-1.524,10.607,-4.202,,,,,,,,
704136.688,3,-0.919,7.784,-4.348,,,,,,,,
704136.7079,3,-0.177,12.354,-2.501,4,0.047,-0.189,0.192,5,28.752,-41.38,12.271
704136.7277,3,0.548,9.887,0.223,,,,,,,,
704136.7476,3,0.569,9.672,-2.314,,,,,,,,
704136.7675,3,-0.857,8.696,-5.623,4,0.085,-0.26,0.165,,,,
704136.7874,3,-0.708,11.488,-4.841,,,,,,,,
704136.8072,3,0.019,9.794,-1.417,,,,,,,,
704136.8271,3,-0.287,8.308,-2.63,4,0.031,-0.237,0.197,5,27.997,-41.487,11.249
704136.847,3,-0.613,14.218,-2.634,,,,,,,,
704136.8668,3,-0.354,7.825,-0.211,,,,,,,,
704136.8867,3,-0.263,10.485,-3.214,4,0.029,-0.16,0.202,,,,
704136.9066,3,0.069,6.937,-2.127,,,,,,,,
704136.9264,3,0.725,7.834,-3.807,,,,,,,,
704136.9463,3,-0.821,8.602,-6.13,4,0.127,0.149,0.159,5,28.474,-42.047,10.478
704136.9662,3,-2.532,9.193,-8.162,,,,,,,,
704136.986,3,-1.737,10.021,-5.023,,,,,,,,
704137.0059,3,-1.237,3.544,0.084,4,0.029,0.679,0.066,5,27.753,-42.365,12.657
704137.0257,3,-0.613,13.079,-3.747,,,,,,,,
704137.0456,3,-1.78,12.495,-1.737,,,,,,,,
704137.0655,3,-1.998,9.332,-0.904,4,0,0.226,-0.032,5,25.615,-42.844,14.108
704137.0854,3,-1.618,11.117,-2.9,,,,,,,,
704137.1052,3,-1.735,4.264,-1.713,,,,,,,,
704137.1251,3,-1.979,12.955,-5.836,4,0.036,-0.433,0.023,5,27.39,-40.942,13.475
704137.145,3,-2.11,5.444,-2.462,,,,,,,,
704137.1648,3,-1.029,11.526,-5.348,,,,,,,,
704137.1847,3,0.258,10.883,-1.981,4,-0.069,-0.287,0.156,5,26.019,-42.398,11.928
704137.2045,3,1.479,10.452,-0.007,,,,,,,,
704137.2244,3,0.687,7.626,-2.089,,,,,,,,
704137.2443,3,0.759,7.085,-4.57,4,0.031,0.288,0.142,5,23.775,-42.888,13.87
704137.2641,3,0.065,14.383,-7.86,,,,,,,,
704137.284,3,-0.823,9.708,-1.909,,,,,,,,
704137.3039,3,-1.151,8.27,-2.969,4,0.014,0.553,-0.035,,,,
704137.3237,3,-1.596,9.392,-4.235,,,,,,,,
704137.3436,3,-1.816,5.039,-4.135,,,,,,,,
704137.3634,3,-1.622,15.036,-4.984,4,-0.056,0.029,-0.09,5,23.325,-43.611,13.522
704137.3833,3,-0.881,9.77,5.853,,,,,,,,
704137.4032,3,-3.604,9.076,-4.52,,,,,,,,
704137.4231,3,-0.507,14.718,-5.803,4,-0.019,-0.527,0.021,,,,
704137.4429,3,-1.266,4.503,-1.522,,,,,,,,
704137.4628,3,0.859,7.533,-0.651,,,,,,,,
704137.4827,3,1.531,9.916,-5.003,4,0.039,-0.376,0.164,5,25.685,-43.552,12.158
704137.5025,3,-0.194,14.082,-7.686,,,,,,,,
704137.5224,3,0.639,3.008,-3.034,,,,,,,,
704137.5422,3,1.821,14.926,-3.845,4,0.011,0.155,0.118,5,23.997,-43.265,12.123
704137.5621,3,2.139,7.566,3.97,,,,,,,,
704137.582,3,0.055,11.117,-5.752,,,,,,,,
704137.6018,3,-0.526,7.999,-4.996,4,0.048,0.334,-0.03,5,24.638,-44.289,14.108
704137.6217,3,-1.038,10.67,-4.74,,,,,,,,
704137.6416,3,-1.395,10.079,-1.598,,,,,,,,
704137.6615,3,-2.426,8.511,-1.675,4,-0.032,0.058,-0.099,5,24.289,-44.452,13.383
704137.6813,3,-2.52,6.379,-2.981,,,,,,,,
704137.7012,3,-2.685,12.371,-6.81,,,,,,,,
704137.721,3,-0.859,11.811,0.526,4,-0.037,-0.225,-0.015,5,24.66,-45.299,13.004
704137.7409,3,-0.495,7.102,-0.007,,,,,,,,
704137.7608,3,-1.156,9.928,-4.611,,,,,,,,
704137.7806,3,-1.235,11.773,-5.987,4,0.059,-0.301,0.091,5,24.124,-43.738,12.654
704137.8005,3,-0.249,9.459,-2.524,,,,,,,,
704137.8204,3,-0.361,8.471,-2.02,,,,,,,,
704137.8396,3,-0.677,8.334,-5.513,4,0.053,-0.202,0.159,5,24.017,-44.307,13.336
704137.8601,3,-0.412,13.256,-4.946,,,,,,,,
704137.88,3,0.696,8.729,0.28,,,,,,,,
704137.8998,3,1.187,7.731,-1.886,4,0.016,-0.163,0.189,5,23.491,-45.75,11.444
704137.9197,3,-0.787,8.045,-8.088,,,,,,,,
704137.9395,3,-0.278,10.131,-5.31,,,,,,,,
704137.9594,3,0.732,11.165,-1.577,4,0.034,-0.089,0.137,,,,
704137.9793,3,1.187,12.948,0.256,,,,,,,,
704137.9992,3,-0.89,5.98,-4.802,,,,,,,,
704138.019,3,-0.445,14.223,-4.652,4,0.034,0.264,0.095,5,23.834,-44.173,12.363
704138.0389,3,-0.266,8.643,-0.651,,,,,,,,
704138.0588,3,-0.33,5.736,-2.453,,,,,,,,
704138.0786,3,-1.144,12.273,-6.121,4,0.033,0.113,0.058,5,24.306,-47.058,15.07
704138.0985,3,-1.634,8.052,-1.433,,,,,,,,
704138.1183,3,-1.309,8.016,-2.917,,,,,,,,
704138.1382,3,-0.153,6.353,-3.051,4,0.001,0.1,0.054,5,23.172,-46.465,12.566
704138.1581,3,-0.208,11.017,-5.386,,,,,,,,
704138.1779,3,-1.823,10.94,-5.391,,,,,,,,
704138.1978,3,0.983,9.569,-0.66,4,-0.022,0.206,0.069,5,22.047,-46.494,12.657
704138.2177,3,1.141,11.246,-1.089,,,,,,,,
704138.2376,3,0.957,9.023,-1.003,,,,,,,,
704138.2574,3,0.354,10.081,-1.646,4,-0.041,0.265,-0.011,5,21.924,-46.973,14.357
704138.2773,3,-0.457,12.175,-5.676,,,,,,,,
704138.2971,3,-0.703,3.328,-3.386,,,,,,,,
704138.317,3,-0.558,14.271,-4.257,4,0.018,0.045,-0.089,5,22.607,-45.767,13.487
704138.3369,3,-1.364,10.849,-1.455,,,,,,,,
704138.3567,3,-0.871,7.368,-1.677,,,,,,,,
704138.3766,3,-1.141,5.838,-3.17,4,-0.035,-0.055,-0.059,5,22.086,-45.21,14.25
704138.3965,3,-0.201,13.507,-6.669,,,,,,,,
704138.4163,3,-2.113,8.588,-5.09,,,,,,,,
704138.4362,3,-2.003,4.635,-2.228,4,0.046,0.137,-0.014,5,21.567,-46.507,14.5
704138.4561,3,-1.665,10.634,-4.956,,,,,,,,
704138.4759,3,-1.211,13.218,-1.28,,,,,,,,
704138.4958,3,-0.735,10.167,1.876,4,-0.077,0.188,0.029,,,,
704138.5157,3,-0.84,7.683,-1.505,,,,,,,,
704138.5355,3,-1.125,9.227,-5.329,,,,,,,,
704138.5554,3,-0.562,7.81,-5.2,4,0.084,-0.047,-0.005,5,21.146,-45.998,14.502
704138.5753,3,-0.907,11.103,-5.188,,,,,,,,
704138.5952,3,-0.775,7.568,-0.586,,,,,,,,
704138.615,3,0.627,13.419,-0.751,4,-0.074,0.127,0.038,5,21.292,-45.085,13.385
704138.6349,3,0.651,10.928,0.565,,,,,,,,
704138.6547,3,0.72,9.198,-1.831,,,,,,,,
704138.6746,3,0.275,5.506,-5.13,4,0.057,0.013,-0.017,5,21.472,-44.902,15.904
704138.6945,3,-0.17,11.766,-7.683,,,,,,,,
704138.7143,3,-0.182,8.894,-2.194,,,,,,,,
704138.7342,3,-0.677,10.289,-0.328,4,-0.006,0.188,-0.038,5,20.712,-44.814,14.197
704138.7541,3,-0.012,11.533,-0.84,,,,,,,,
704138.7739,3,-0.144,10.923,-1.263,,,,,,,,
704138.7938,3,-1.467,6.48,-3.675,4,0.058,0.036,-0.087,5,22.256,-43.785,15.556
704138.8137,3,-1.187,12.179,-7.214,,,,,,,,
704138.8335,3,-0.759,6.193,-5.894,,,,,,,,
704138.8534,3,-0.436,10.146,-2.965,4,0.074,0.005,-0.076,5,22.655,-45.683,16.245
704138.8733,3,-1.385,10.423,-1.969,,,,,,,,
704138.8931,3,0.237,13.012,0.304,,,,,,,,
704138.913,3,-0.041,7.298,0.804,4,-0.044,0.077,-0.033,5,21.992,-43.639,15.556
704138.9329,3,0.098,7.102,-4.79,,,,,,,,
704138.9527,3,-1.469,7.513,-9.22,,,,,,,,
704138.9726,3,-1.127,10.461,-6.482,4,0.132,-0.117,-0.078,5,21.599,-43.509,16.577
704138.9924,3,-0.376,6.19,0.392,,,,,,,,
704139.0123,3,-1.318,10.536,-0.562,,,,,,,,
704139.0322,3,0.232,12.718,-1.048,4,-0.117,0.014,-0.013,,,,
704139.052,3,-0.258,7.832,-0.182,,,,,,,,
704139.0719,3,-1.12,8.686,-5.046,,,,,,,,
704139.0918,3,-1.211,8.53,-8.028,4,0.062,-0.219,-0.016,5,23.941,-42.107,15.649
704139.1117,3,0.065,9.363,-2.434,,,,,,,,
704139.1315,3,0.639,6.853,3.194,,,,,,,,
704139.1514,3,-1.168,11.933,-2.326,4,-0.096,0.083,0.06,,,,
704139.1712,3,-1.345,11.761,-3.204,,,,,,,,
704139.1911,3,-0.359,8.743,-0.397,,,,,,,,
704139.211,3,0.301,8.873,-3.312,4,0.059,-0.009,0.017,5,22.652,-43.912,14.105
704139.2308,3,-0.715,8.935,-5.932,,,,,,,,
704139.2507,3,-1.627,7.547,-4.128,,,,,,,,
704139.2706,3,-1.005,4.594,-2.142,4,0.026,0.07,0.025,5,22.209,-43.643,15.556
704139.2904,3,-1.23,14.187,-4.496,,,,,,,,
704139.3103,3,-0.589,13.842,-2.718,,,,,,,,
704139.3302,3,-1.058,-1.283,1.852,4,-0.065,0.005,0.061,5,21.465,-43.71,14.78
704139.35,3,0.239,9.476,-6.133,,,,,,,,
704139.3699,3,0.005,16.219,-8.873,,,,,,,,
704139.3898,3,-0.507,10.234,1.17,4,-0.036,-0.023,0.084,5,23.859,-43.739,13.522
704139.4096,3,-0.349,5.743,0.124,,,,,,,,
704139.4295,3,-0.084,16.034,-0.904,,,,,,,,
704139.4494,3,0.495,9.626,-0.928,4,-0.083,0.079,0.107,5,21.649,-45.134,13.716
704139.4692,3,1.318,4.956,-0.357,,,,,,,,
704139.4891,3,0.491,8.724,-7.923,,,,,,,,
704139.509,3,0.608,17.19,-3.762,4,0.107,0.13,0.044,5,21.962,-44.94,14.305
704139.5288,3,-0.828,4.479,1.038,,,,,,,,
704139.5487,3,-0.816,10.772,-6.327,,,,,,,,
704139.5685,3,-1.129,12.493,-5.645,4,0.015,0.335,-0.054,,,,
704139.5884,3,-0.694,8.911,-1.225,,,,,,,,
704139.6083,3,0.256,9.961,-1.328,,,,,,,,
704139.6281,3,-0.445,8.899,-3.08,4,-0.017,0.062,-0.072,5,22.289,-44.539,14.452
704139.648,3,-0.859,7.736,-4.664,,,,,,,,
704139.6679,3,-1.182,4.022,-4.02,,,,,,,,
704139.6878,3,-2.343,19.616,-7.011,4,0.047,0.213,-0.081,,,,
704139.7076,3,-1.881,7.31,1.168,,,,,,,,
704139.7275,3,-1.316,1.984,-0.306,,,,,,,,
704139.7473,3,-0.206,16.415,-6.776,4,-0.019,0.103,-0.1,5,22.701,-43.588,15.173
704139.7672,3,-0.744,8.004,-1.957,,,,,,,,
704139.7871,3,-2.108,11.993,-3.955,,,,,,,,
704139.8069,3,-0.871,10.375,-3.632,4,-0.026,-0.033,-0.1,5,22.208,-46.786,15.714
704139.8268,3,0.098,13.641,-0.167,,,,,,,,
704139.8467,3,0.636,5.961,0.995,,,,,,,,
704139.8665,3,-0.802,8.585,-8.028,4,-0.008,-0.082,-0.034,5,20.326,-45.29,12.88
704139.8864,3,0.763,10.399,-2.788,,,,,,,,
704139.9063,3,0.928,3.879,-1.036,,,,,,,,
704139.9261,3,-2.737,10.452,-8.506,4,0.037,0.158,-0.062,5,23.741,-45.033,15.807
704139.946,3,-0.739,9.143,-2.553,,,,,,,,
704139.9659,3,-1.237,8.485,-1.51,,,,,,,,
704139.9857,3,-0.543,13.304,-2.716,4,-0.087,0.102,-0.073,5,24.326,-46.584,14.261
704140.0056,3,-0.519,11.117,-0.682,,,,,,,,
704140.0255,3,0.591,6.877,1.572,,,,,,,,
704140.0453,3,-0.775,8.064,-4.74,4,-0.058,-0.187,-0.051,5,24.095,-47.159,14.217
704140.0652,3,-1.369,16.857,-8.083,,,,,,,,
704140.0851,3,-0.739,10.646,1.551,,,,,,,,
704140.1049,3,-0.048,5.145,0.558,4,-0.039,-0.1,0.036,5,25.842,-46.494,13.577
704140.1248,3,1.555,5.398,-2.137,,,,,,,,
704140.1447,3,0.419,10.167,-7.712,,,,,,,,
704140.1645,3,-0.62,13.917,-5.173,4,0.088,0.044,0.014,5,24.86,-46.429,14.554
704140.1844,3,-0.194,3.388,-2.29,,,,,,,,
704140.2043,3,0.364,14.206,-0.591,,,,,,,,
704140.2241,3,1.912,6.599,-0.653,4,-0.072,0.225,-0.029,,,,
704140.244,3,-1.043,10.433,-6.753,,,,,,,,
704140.2639,3,-1.78,9.377,-5.18,,,,,,,,
704140.2837,3,-0.514,8.274,-1.127,4,0.007,-0.04,-0.126,5,26.192,-44.965,14.848
704140.3036,3,0.158,5.456,0.625,,,,,,,,
704140.3235,3,-1.608,12.203,-5.413,,,,,,,,
704140.3433,3,-1.699,13.51,-3.666,4,-0.021,-0.166,-0.085,5,27.936,-44.267,14.841
704140.3632,3,-0.299,4.443,0.596,,,,,,,,
704140.3831,3,-0.292,14.859,-4.183,,,,,,,,
704140.4029,3,0.191,11.794,-2.745,4,0.002,-0.224,-0.017,5,27.287,-45.52,15.428
704140.4228,3,0.498,4.573,0.593,,,,,,,,
704140.4426,3,-1.254,6.446,-6.597,,,,,,,,
704140.4625,3,-0.888,17.262,-7.253,4,0.088,-0.051,0.007,5,26.343,-44.203,15.901
704140.4824,3,-0.313,4.008,0.306,,,,,,,,
704140.5022,3,-0.383,9.964,-4.472,,,,,,,,
704140.5221,3,0.636,11.371,-3.905,4,-0.03,0.069,0.005,5,27.24,-45.14,14.645
704140.542,3,-0.486,9.66,-1.165,,,,,,,,
704140.5619,3,-0.828,5.436,-3.326,,,,,,,,
704140.5817,3,-0.263,19.107,-3.709,4,-0.022,0.008,-0.022,5,26.648,-44.243,14.113
704140.6016,3,0.282,4.14,1.905,,,,,,,,
704140.6214,3,-0.361,7.688,-2.383,,,,,,,,
704140.6413,3,-0.412,11.988,-4.865,4,-0.016,-0.193,-0.01,5,26.157,-44.066,12.506
704140.6612,3,-1.814,5.767,-3.257,,,,,,,,
704140.681,3,-1.503,5.702,-5.393,,,,,,,,
704140.7009,3,-0.608,15.833,-3.056,4,-0.017,-0.247,0.057,5,26.303,-43.877,14.111
704140.7208,3,1.309,10.466,1.268,,,,,,,,
704140.7406,3,0.187,3.51,-0.754,,,,,,,,
704140.7605,3,-0.601,10.648,-5.956,4,-0.04,-0.171,0.139,,,,
704140.7804,3,-0.735,8.705,-3.721,,,,,,,,
704140.8002,3,-0.388,8.444,-2.68,,,,,,,,
704140.8201,3,-0.043,17.262,-1.125,4,-0.024,0.088,0.163,5,24.071,-45.689,14.159
704140.84,3,0.34,2.338,2.898,,,,,,,,
704140.8598,3,-0.926,12.134,-6.439,,,,,,,,
704140.8797,3,-0.653,10.146,-5.068,4,0.073,0.219,0.087,,,,
704140.8996,3,-0.397,9.827,-0.725,,,,,,,,
704140.9194,3,-1.804,0.945,-2.11,,,,,,,,
704140.9393,3,0.392,19.049,-4.298,4,0.042,0.242,0.032,5,24.4,-45.486,15.327
704140.9592,3,0.079,7.387,-0.507,,,,,,,,
704140.979,3,-1.627,10.588,-5.02,,,,,,,,
704140.9989,3,-1.431,9.523,-1.584,4,0.049,0.121,-0.03,5,25.401,-46.129,14.857
704141.0187,3,-0.292,4.733,-2.034,,,,,,,,
704141.0386,3,-0.682,9.758,-6.226,,,,,,,,
704141.0585,3,-0.486,15.12,-3.996,4,0.034,-0.017,-0.017,5,24.46,-44.398,14.737
704141.0783,3,0.304,5.393,3.115,,,,,,,,
704141.0982,3,-1.292,8.657,-4.092,,,,,,,,
704141.1181,3,-0.739,13.038,-5.243,4,-0.019,-0.03,-0.01,5,24.464,-44.395,14.738
704141.138,3,-1.06,3.745,-2.926,,,,,,,,
704141.1578,3,-0.708,11.332,-4.266,,,,,,,,
704141.1777,3,-0.51,10.694,-2.266,4,-0.05,0.055,0.004,5,23.799,-46.169,14.403
704141.1975,3,-0.313,10.713,-0.335,,,,,,,,
704141.2174,3,0.038,10.461,-1.149,,,,,,,,
704141.2373,3,-1.811,9.397,-1.953,4,-0.05,0.208,-0.021,5,23.956,-45.268,15.073
704141.2571,3,-0.983,8.298,-1.486,,,,,,,,
704141.277,3,-0.921,6.329,-5.489,,,,,,,,
704141.2969,3,-1.263,14.824,-4.178,4,0.032,0.086,-0.069,,,,
704141.3167,3,-0.948,13.07,-0.273,,,,,,,,
704141.3366,3,-0.459,4.412,1.132,,,,,,,,
704141.3564,3,-1.598,10.315,-4.309,4,-0.053,-0.097,-0.036,5,24.216,-45.883,13.403
704141.3763,3,-0.438,13.625,-3.685,,,,,,,,
704141.3962,3,-1.302,2.376,-0.495,,,,,,,,
704141.4161,3,-1.098,11.007,-5.905,4,0.039,-0.144,-0.001,,,,
704141.4359,3,0.94,16.02,-1.919,,,,,,,,
704141.4558,3,-0.089,4.07,1.094,,,,,,,,
704141.4757,3,-1.558,7.545,-5.874,4,0.024,0.032,0.039,5,24.652,-43.964,14.163
704141.4955,3,0.249,11.28,-5.752,,,,,,,,
704141.5154,3,-0.416,4.104,-2.218,,,,,,,,
704141.5352,3,0.601,15.874,-5.171,4,0.026,0.093,0.012,5,25.127,-44.475,14.505
704141.5551,3,0.828,8.428,-0.589,,,,,,,,
704141.575,3,0.814,4.929,0.026,,,,,,,,
704141.5948,3,-0.227,16.549,-3.934,4,-0.043,0.114,-0.061,5,23.935,-46.454,14.12
704141.6147,3,-0.794,9.026,-2.587,,,,,,,,
704141.634,3,-2.077,-1.926,-1.364,,,,,,,,
704141.6544,3,-1.201,16.668,-7.372,4,0.062,-0.066,-0.107,5,24.953,-46.088,14.497
704141.6743,3,-0.586,9.801,-1.053,,,,,,,,
704141.6942,3,-0.479,2.594,0.625,,,,,,,,
704141.7141,3,0.491,9.054,-3.726,4,-0.036,-0.095,-0.015,5,24.3,-43.97,14.879
704141.7339,3,-1.634,10.452,-6.741,,,,,,,,
704141.7538,3,-2.314,9.832,-4.231,,,,,,,,
704141.7737,3,-0.79,12.328,0.392,4,-0.026,-0.002,0.036,5,25.693,-44.984,15.565
704141.7935,3,1.299,6.729,1.232,,,,,,,,
704141.8134,3,-1.12,0.153,-2.556,,,,,,,,
704141.8333,3,-0.194,16.319,-7.856,4,0.013,-0.092,0.044,5,23.393,-44.37,14.88
704141.8531,3,-0.519,11.316,-2.067,,,,,,,,
704141.873,3,0.828,5.736,0.553,,,,,,,,
704141.8928,3,0.871,10.978,-3.704,4,-0.055,-0.063,0.096,5,23.964,-44.788,13.394
704141.9127,3,-0.167,15.278,-3.144,,,,,,,,
704141.9326,3,-0.534,4.015,0.818,,,,,,,,
704141.9525,3,1.919,11.541,-1.129,4,0.019,0.079,0.034,,,,
704141.9723,3,0.948,9.873,-1.125,,,,,,,,
704141.9922,3,-2.07,8.609,-7.731,,,,,,,,
704142.0121,3,-0.526,12.976,-5.063,4,0.125,0.09,-0.034,5,23.575,-44.47,14.108
704142.0319,3,-0.943,6.173,-1.421,,,,,,,,
704142.0518,3,-0.304,10.591,-2.008,,,,,,,,
704142.0716,3,-1.381,7.109,-3.986,4,-0.013,0.089,-0.04,5,24.754,-43.352,12.854
704142.0915,3,-1.67,8.999,-3.788,,,,,,,,
704142.1114,3,-1.228,11.186,-2.027,,,,,,,,
704142.1312,3,0.383,13.34,-0.218,4,-0.02,0.07,-0.016,5,24.698,-45.811,14.113
704142.1511,3,-1.079,3.996,-0.995,,,,,,,,
704142.171,3,-1.285,11.84,-5.039,,,,,,,,
704142.1908,3,-1.323,13.4,-3.233,4,0.027,0.022,-0.026,5,24.216,-45.453,15.277
704142.2107,3,-1.524,3.501,-0.811,,,,,,,,
704142.2305,3,-0.115,8.877,-4.211,,,,,,,,
704142.2504,3,2.23,9.839,-3.986,4,-0.009,0.044,0.007,5,24.617,-45.499,14.612
704142.2703,3,0.648,12.354,-0.948,,,,,,,,
704142.2902,3,0.438,11.995,-0.763,,,,,,,,
704142.31,3,0.593,5.621,0.526,4,-0.092,0.102,-0.065,5,22.174,-43.718,12.088
704142.3299,3,-0.785,8.337,-6.19,,,,,,,,
704142.3498,3,-0.656,17.683,-6.552,,,,,,,,
704142.3696,3,0.005,1.263,2.713,4,0.018,-0.085,-0.106,5,24.759,-45.007,15.424
704142.3895,3,-0.502,6.032,-1.9,,,,,,,,
704142.4093,3,-0.809,12.969,-6.686,,,,,,,,
704142.4292,3,-1.244,13.326,-5.855,4,0.002,-0.101,-0.079,5,24.681,-45.337,15.961
704142.4491,3,-2.103,5.925,-1.988,,,,,,,,
704142.4689,3,-1.177,11.407,-1.223,,,,,,,,
704142.4888,3,-0.065,10.091,-1.251,4,-0.12,0.006,0.012,,,,
704142.5087,3,-1.826,9.155,-2.041,,,,,,,,
704142.5286,3,-0.237,8.227,-1.35,,,,,,,,
704142.5484,3,0.33,5.436,0.29,4,-0.036,0.008,-0.015,5,23.965,-44.83,14.11
704142.5683,3,-1.098,14.749,-5.556,,,,,,,,
704142.5882,3,-0.586,12.139,-4.061,,,,,,,,
704142.608,3,-0.335,2.565,-0.062,4,0.014,-0.095,-0.005,5,23.961,-45.02,12.657
704142.6279,3,-0.464,11.952,-4.276,,,,,,,,
704142.6477,3,0.27,13.476,-4.092,,,,,,,,
704142.6676,3,-0.055,5.637,-1.419,4,-0.004,-0.174,0.034,5,24.644,-44.292,13.728
704142.6875,3,0.187,13.787,-2.859,,,,,,,,
704142.7073,3,0.699,11.174,-3.111,,,,,,,,
704142.7272,3,-1.204,7.399,-2.295,4,-0.004,-0.051,0.056,5,23.987,-43.936,14.832
704142.7471,3,0.531,9.662,-3.57,,,,,,,,
704142.7669,3,-0.479,13.347,-4.376,,,,,,,,
704142.7868,3,-0.031,4.817,-2.051,4,0,-0.007,0.013,5,24.644,-43.579,13.382
704142.8066,3,-0.553,14.515,-3.577,,,,,,,,
704142.8265,3,-0.639,9.727,-0.512,,,,,,,,
704142.8464,3,0.012,5.054,-0.33,4,-0.022,0.005,0.006,5,23.241,-43.616,14.059
704142.8663,3,-0.457,12.301,-6.028,,,,,,,,
704142.8861,3,-1.558,4.97,-5.226,,,,,,,,
704142.906,3,-1.031,11.78,-3.173,4,0.04,-0.04,-0.026,5,23.537,-43.851,13.142
704142.9259,3,0.529,11.895,-2.197,,,,,,,,
704142.9457,3,-0.301,8.093,-1.481,,,,,,,,
704142.9656,3,-1.108,7.408,-3.836,4,-0.03,-0.079,-0.014,5,25.072,-43.726,13.969
704142.9854,3,-0.708,14.079,-3.441,,,,,,,,
704143.0053,3,-0.347,3.922,-2.067,,,,,,,,
704143.0252,3,0.304,18.233,-0.546,4,0.01,-0.105,0.028,,,,
704143.045,3,-1.44,7.095,-0.543,,,,,,,,
704143.0649,3,-0.266,4.745,-3.752,,,,,,,,
704143.0848,3,-1.426,7.906,-6.961,4,0.077,-0.103,0.026,5,23.978,-44.215,13.1
704143.1047,3,-1.306,10.784,-5.302,,,,,,,,
704143.1245,3,0.333,13.474,-1.893,,,,,,,,
704143.1444,3,0.081,7.516,1.244,4,-0.081,0.001,0.087,,,,
704143.1642,3,-1.12,6.396,-3.446,,,,,,,,
704143.1841,3,-1.144,9.586,-5.145,,,,,,,,
704143.204,3,0.428,16.331,-0.651,4,0.004,-0.05,0.065,5,23.196,-43.048,12.5
704143.2238,3,-1.395,4.802,0.34,,,,,,,,
704143.2437,3,-1.919,9.913,-4.235,,,,,,,,
704143.2636,3,2.821,9.722,-3.07,4,-0.011,0.036,0.098,5,23.535,-44.078,13.623
704143.2834,3,-0.967,9.964,-4.556,,,,,,,,
704143.3033,3,-0.498,7.856,-1.831,,,,,,,,
704143.3232,3,-0.103,10.05,-1.177,4,0.041,0.216,0.054,5,23.918,-44.881,14.061
704143.343,3,-0.251,8.272,-5.137,,,,,,,,
704143.3629,3,0.211,15.886,-4.168,,,,,,,,
704143.3828,3,-0.234,4.534,1.955,4,-0.022,0.167,-0.005,5,25.467,-43.996,13.383
704143.4026,3,-1.819,10.988,-3.982,,,,,,,,
704143.4225,3,-0.747,12.433,-1.775,,,,,,,,
704143.4424,3,-2.768,3.716,-1.424,4,-0.002,-0.048,-0.067,5,21.916,-44.354,11.421
704143.4623,3,-1.158,15.295,-4.683,,,,,,,,
704143.4821,3,0.191,9.959,0.333,,,,,,,,
704143.502,3,-0.555,6.011,-1.649,4,0.017,-0.012,-0.019,5,24.442,-45.343,13.725
704143.5218,3,0.103,5.41,-4.518,,,,,,,,
704143.5417,3,-0.093,13.809,-7.399,,,,,,,,
704143.5616,3,-0.062,8.827,-4.391,4,0.058,0.145,-0.04,,,,
704143.5814,3,-0.299,15.07,-1.991,,,,,,,,
704143.6013,3,0.782,4.472,2.316,,,,,,,,
704143.6212,3,0.041,10.452,-2.723,4,-0.117,0.174,-0.081,5,24.405,-47.119,13.928
704143.641,3,-1.598,15.18,-4.379,,,,,,,,
704143.6609,3,-2.082,2.926,-1.12,,,,,,,,
704143.6808,3,-1.591,11.057,-3.017,4,-0.001,-0.164,-0.13,,,,
704143.7006,3,-1.182,13.831,-2.721,,,,,,,,
704143.7205,3,-0.507,4.293,-0.242,,,,,,,,
704143.7404,3,-0.756,10.835,-4.032,4,-0.003,-0.352,-0.051,5,24.64,-46.051,11.935
704143.7602,3,0.096,8.303,-2.788,,,,,,,,
704143.7801,3,0.5,15.582,-3.295,,,,,,,,
704143.8,3,1.161,8.186,-1.084,4,-0.004,-0.259,0.076,5,24.217,-45.581,12.379
704143.8198,3,1.115,6.843,-1.697,,,,,,,,
704143.8397,3,0.785,7.966,-3.19,,,,,,,,
704143.8596,3,-0.404,19.714,-6.736,4,0.099,0.018,0.07,5,24.651,-45.673,12.068
704143.8794,3,0.366,5.716,-2.969,,,,,,,,
704143.8993,3,-0.648,13.527,-2.426,,,,,,,,
704143.9191,3,0.045,3.778,-1.574,4,0.02,0.216,0.025,5,25.526,-44.977,14.113
704143.939,3,-0.218,7.389,-4.355,,,,,,,,
704143.9589,3,-1.149,11.428,-4.977,,,,,,,,
704143.9788,3,-2.108,7.621,-3.852,4,0.001,0.027,-0.087,5,25.818,-45.113,13.248
704143.9986,3,-1.323,11.115,-1.574,,,,,,,,
704144.0185,3,1.022,8.291,0.907,,,,,,,,
704144.0384,3,-0.263,9.799,-1.993,4,-0.101,-0.278,-0.028,,,,
704144.0582,3,1.06,6.456,-1.263,,,,,,,,
704144.0781,3,0.737,8.564,-3.544,,,,,,,,
704144.0979,3,-0.359,13.589,-6.25,4,0.056,-0.274,0.046,5,25.311,-44.275,13.197
704144.1178,3,0.12,10.67,-3.175,,,,,,,,
704144.1377,3,-0.237,5.879,-2.544,,,,,,,,
704144.1575,3,0.208,10.16,-3.101,4,0.004,-0.006,0.1,5,25.824,-44.977,13.387
704144.1774,3,0.51,10.818,-2.508,,,,,,,,
704144.1973,3,-0.361,11.289,-3.85,,,,,,,,
704144.2171,3,-1.496,9.325,0.041,4,-0.04,0.064,0.06,,,,
704144.237,3,-0.474,6.975,-0.507,,,,,,,,
704144.2569,3,-1.673,10.684,-4.12,,,,,,,,
704144.2767,3,-0.897,7.334,-2.905,4,0.053,-0.014,0.009,5,24.174,-45.012,11.694
704144.2966,3,-2.716,6.389,-3.324,,,,,,,,
704144.3165,3,-1.364,15.171,-2.934,,,,,,,,
704144.3363,3,-0.359,8.724,-0.742,4,0,-0.083,0.068,5,24.049,-45.116,11.931
704144.3562,3,-0.194,7.164,-1.455,,,,,,,,
704144.3761,3,1.213,10.306,-2.943,,,,,,,,
704144.3959,3,-0.227,7.351,-3.826,4,0.061,-0.053,0.106,5,24.185,-46.44,12.52
704144.4158,3,-1.35,12.938,-5.154,,,,,,,,
704144.4356,3,0.581,6.133,-1.831,,,,,,,,
704144.4555,3,0.29,13.034,-2.572,4,0.002,0.063,0.106,5,23.94,-45.786,12.323
704144.4754,3,0.967,8.923,-1.689,,,,,,,,
704144.4952,3,-0.127,10.866,0.132,,,,,,,,
704144.5151,3,-0.132,7.753,-2.594,4,-0.029,0.034,0.08,5,23.576,-45.938,13.387
704144.535,3,-1.273,15.371,-3.348,,,,,,,,
704144.5549,3,-0.641,4.515,-0.349,,,,,,,,
704144.5747,3,0.019,9.945,-3.467,4,0.057,0.088,0.047,,,,
704144.5946,3,-1.371,10.488,-5.369,,,,,,,,
704144.6144,3,-0.969,3.879,-2.9,,,,,,,,
704144.6343,3,-0.483,9.602,-4.159,4,0.03,0.133,-0.023,5,23.909,-45.735,13.576
704144.6542,3,0.61,14.319,-2.151,,,,,,,,
704144.674,3,-1.132,5.166,-0.818,,,,,,,,
704144.6939,3,0.553,15.915,-1.23,4,-0.07,0.125,-0.065,5,23.216,-46.419,13
704144.7138,3,1.46,1.201,1.462,,,,,,,,
704144.7336,3,-0.893,16.726,-7.458,,,,,,,,
704144.7535,3,-1.469,13.285,-5.326,4,0.058,-0.085,-0.085,,,,
704144.7733,3,0.826,0.38,0.747,,,,,,,,
704144.7932,3,-0.675,12.562,-5.819,,,,,,,,
704144.8131,3,-1.565,13.029,-3.872,4,0.027,-0.109,-0.033,5,22.705,-45.053,13.382
704144.833,3,-1.618,13.036,-5.654,,,,,,,,
704144.8528,3,-1.474,10.184,1.094,,,,,,,,
704144.8727,3,0.459,8.514,-1.811,4,-0.044,-0.044,0.052,,,,
704144.8926,3,-0.622,6.185,-2.144,,,,,,,,
704144.9124,3,-1.218,11.588,-4.671,,,,,,,,
704144.9323,3,-1.117,5.413,-4.412,4,0.062,0.034,0.017,5,23.283,-45.508,14.122
704144.9521,3,-0.651,11.849,-1.01,,,,,,,,
704144.972,3,-1.235,7.317,-0.708,,,,,,,,
704144.9919,3,-0.601,11.031,-1.105,4,-0.061,0.038,0.046,5,23.296,-45.041,14.835
704145.0117,3,-0.151,7.293,-2.584,,,,,,,,
704145.0316,3,-1.287,7.267,-3.07,,,,,,,,
704145.0515,3,0.266,13.149,-2.426,4,0.005,0.012,0.023,5,23.196,-45.142,14.108
704145.0714,3,1.572,9.172,-0.96,,,,,,,,
704145.0912,3,-1.388,10.5,-3.013,,,,,,,,
704145.1111,3,-0.244,5.049,-1.687,4,-0.007,0.029,-0.013,5,22.639,-44.528,14.738
704145.131,3,0.062,11.318,-5.125,,,,,,,,
704145.1508,3,-0.723,14.295,-3.053,,,,,,,,
704145.1707,3,1.419,8.801,-0.775,4,-0.018,-0.123,0.012,5,22.643,-44.344,14.832
704145.1906,3,-0.057,5.714,-0.981,,,,,,,,
704145.2104,3,0.505,11.373,-5.051,,,,,,,,
704145.2303,3,-1.816,12.962,-5.027,4,0.052,-0.055,0.041,,,,
704145.2502,3,-1.665,7.516,-2.594,,,,,,,,
704145.27,3,-0.881,17.46,0.33,,,,,,,,
704145.2899,3,0.297,6.853,2.491,4,-0.077,0.133,0.08,5,21.941,-45.784,13.391
704145.3097,3,-1.5,6.269,-2.412,,,,,,,,
704145.3296,3,-0.462,10.201,-4.688,,,,,,,,
704145.3495,3,-1.878,6.755,-5.051,4,0.129,0.057,-0.021,5,22.34,-45.496,13.968
704145.3693,3,-1.795,15.068,-3.223,,,,,,,,
704145.3892,3,-0.208,6.609,0.859,,,,,,,,
704145.4091,3,-1.067,3.8,-4.12,4,-0.036,0.035,0.018,,,,
704145.4283,3,-0.809,11.572,-9.983,,,,,,,,
704145.4488,3,-0.55,10.067,-1.582,,,,,,,,
704145.4687,3,0.567,12.294,3.735,4,-0.142,-0.031,0.051,5,21.286,-45.367,14.832
704145.4886,3,1.945,8.925,0.715,,,,,,,,
704145.5084,3,-0.553,9.04,-3.034,,,,,,,,
704145.5283,3,-1.828,6.528,-6.48,4,0.022,0.028,0.003,5,21.974,-44.357,13.773
704145.5481,3,-0.081,14.991,-2.335,,,,,,,,
704145.568,3,1.206,1.644,3.604,,,,,,,,
704145.5879,3,0.907,25.39,-6.628,4,0.016,0.06,0.033,5,21.262,-46.503,13.385
704145.6077,3,-0.464,-5.838,1.376,,,,,,,,
704145.6276,3,-0.768,6.482,-5.824,,,,,,,,
704145.6475,3,-0.105,25.682,-9.418,4,0.069,0.058,-0.012,5,22.151,-44.167,13.57
704145.6673,3,-0.129,1.005,2.694,,,,,,,,
704145.6872,3,-0.998,13.821,-1.378,,,,,,,,
704145.7071,3,-0.323,8.808,-2.232,4,-0.075,0.109,-0.05,5,21.001,-44.005,14.145
704145.7269,3,-1.496,5.865,-3.226,,,,,,,,
704145.7468,3,0.431,17.628,-4.192,,,,,,,,
704145.7667,3,-1.232,-5.618,-0.026,4,-0.012,-0.019,-0.102,,,,
704145.7865,3,-1.723,25.699,-5.999,,,,,,,,
704145.8064,3,-0.754,8.057,-0.196,,,,,,,,
704145.8263,3,-0.842,3.699,0.567,4,-0.01,-0.035,-0.054,5,23.141,-44.331,14.787
704145.8461,3,0.005,15.752,-3.075,,,,,,,,
704145.866,3,-2.261,-5.113,-0.196,,,,,,,,
704145.8858,3,-1.182,13.072,-5.597,4,0.103,-0.141,-0.033,5,20.865,-44.15,14.098
704145.9057,3,0.493,13.507,-0.976,,,,,,,,
704145.9256,3,-1.072,6.439,-4.616,,,,,,,,
704145.9454,3,-0.579,13.278,-4.47,4,0.013,-0.051,0.046,,,,
704145.9653,3,-0.737,1.05,-1.414,,,,,,,,
704145.9852,3,-0.244,18.492,-5.614,,,,,,,,
704146.0051,3,3.218,8.999,1.898,4,-0.056,0.172,0.075,5,20.518,-44.106,13.669
704146.0249,3,-0.677,5.975,1.395,,,,,,,,
704146.0448,3,-0.12,14.658,-3.986,,,,,,,,
704146.0646,3,-0.873,5.465,-1.053,4,0.029,0.082,-0.04,5,22.441,-45.062,14.833
704146.0845,3,-1.862,14.436,-6.815,,,,,,,,
704146.1044,3,-0.964,10.794,-0.632,,,,,,,,
704146.1242,3,-0.359,0.976,-0.924,4,0.037,-0.182,0.006,5,22.452,-45.059,13.57
704146.1441,3,-0.333,16.582,-5.8,,,,,,,,
704146.164,3,-0.275,9.665,-2.367,,,,,,,,
704146.1838,3,-2.541,7.37,-5.776,4,0.027,-0.017,0.06,5,21.275,-45.799,13.818
704146.2037,3,-0.258,12.196,-1.366,,,,,,,,
704146.2235,3,0.433,7.683,0.706,,,,,,,,
704146.2434,3,-1.586,8.406,-1.914,4,-0.05,0.285,0.051,5,20.644,-44.623,14.349
704146.2633,3,0.043,12.718,0.433,,,,,,,,
704146.2832,3,-0.778,5.709,-2.74,,,,,,,,
704146.303,3,-1.567,14.087,-4.111,4,0.042,0.138,-0.086,,,,
704146.3229,3,-1.775,2.467,-0.182,,,,,,,,
704146.3428,3,-0.194,12.603,-4.898,,,,,,,,
704146.3626,3,-0.56,8.09,-2.352,4,-0.002,-0.033,-0.062,5,22.322,-46.907,13.971
704146.3825,3,-0.172,5.224,-0.809,,,,,,,,
704146.4024,3,-1.548,13.129,-6.748,,,,,,,,
704146.4222,3,0.163,11.459,-3.575,4,-0.044,0.021,-0.06,,,,
704146.4421,3,-0.61,-0.44,0.055,,,,,,,,
704146.4619,3,0.215,13.606,-3.599,,,,,,,,
704146.4818,3,0.692,12.476,-2.28,4,-0.097,0.004,-0.071,5,22.243,-46.109,14.891
704146.5017,3,-0.297,11.488,-0.187,,,,,,,,
704146.5215,3,-0.151,10.605,-2.682,,,,,,,,
704146.5414,3,0.23,7.298,-0.237,4,-0.064,-0.073,-0.064,5,22.495,-45.448,15.033
704146.5613,3,-0.093,7.987,-2.886,,,,,,,,
704146.5812,3,0.055,14.879,-2.206,,,,,,,,
704146.601,3,-0.115,9.033,-2.302,4,0.008,-0.1,-0.06,5,21.976,-44.362,14.108
704146.6209,3,-1.809,16.008,-3.001,,,,,,,,
704146.6407,3,-0.718,9.756,-0.79,,,,,,,,
704146.6606,3,-1.228,6.231,-0.558,4,0.013,-0.089,-0.029,5,23.132,-44.519,14.832
704146.6805,3,-1.969,11.553,-3.941,,,,,,,,
704146.7003,3,-1.586,10.672,-4.092,,,,,,,,
704146.7202,3,0.067,10.89,-0.431,4,0.022,-0.287,0.039,5,22.624,-45.1,14.536
704146.7401,3,-1.792,11.498,-1.819,,,,,,,,
704146.7599,3,-0.648,6.678,-2.448,,,,,,,,
704146.7798,3,0.773,14.28,-4.355,4,0.042,-0.228,0.155,5,24.837,-47.272,14.398
704146.7997,3,-1.464,2.73,-1.129,,,,,,,,
704146.8195,3,0.495,9.88,-2.232,,,,,,,,
704146.8394,3,0.859,10.962,-5.36,4,0.068,0.121,0.172,5,22.714,-43.051,15.375
704146.8593,3,1.697,13.22,-3.312,,,,,,,,
704146.8792,3,0.127,-0.725,-3.151,,,,,,,,
704146.899,3,1.067,14.139,-7.2,4,0.05,0.261,-0.015,5,19.778,-43.222,14.597
704146.9189,3,-0.213,14.302,-2.371,,,,,,,,
704146.9388,3,0.952,7.659,2.161,,,,,,,,
704146.9586,3,0.744,9.133,-0.002,4,-0.101,-0.052,-0.093,,,,
704146.9785,3,-0.311,8.243,-3.642,,,,,,,,
704146.9983,3,-2.218,11.148,-5.381,,,,,,,,
704147.0182,3,-1.347,8.518,0.055,4,0.092,-0.263,-0.073,5,21.33,-43.515,16.281
704147.0381,3,-0.407,11.407,-5.369,,,,,,,,
704147.0579,3,-0.861,11.244,-2.723,,,,,,,,
704147.0778,3,-0.014,8.059,-0.797,4,-0.012,-0.061,0.08,5,21.254,-42.952,14.92
704147.0977,3,-0.818,11.328,-4.35,,,,,,,,
704147.1176,3,-0.574,4.233,-3.872,,,,,,,,
704147.1374,3,-0.213,19.868,-3.527,4,0.039,0.077,0.123,,,,
704147.1573,3,0.73,3.632,2.706,,,,,,,,
704147.1771,3,-2.422,6.25,-3.728,,,,,,,,
704147.197,3,-1.402,13.692,-6.422,4,0.021,0.154,0.052,5,20.268,-42.973,14.099
704147.2169,3,-0.96,10.402,-4.015,,,,,,,,
704147.2367,3,-0.574,13.993,1.565,,,,,,,,
704147.2566,3,1.429,1.701,4.204,4,-0.118,0.007,0.067,5,20.004,-42.99,14.345
704147.2765,3,-1.271,14.168,-5.331,,,,,,,,
704147.2963,3,-1.012,13.295,-2.958,,,,,,,,
704147.3162,3,-2.077,-4.29,0.38,4,0.101,0.062,-0.028,5,19.925,-44.307,13.426
704147.336,3,-1.07,19.767,-6.839,,,,,,,,
704147.3559,3,-1.01,9.531,-1.656,,,,,,,,
704147.3758,3,-0.914,3.905,-0.22,4,0.013,0.017,0.022,5,19.339,-42.998,14.682
704147.3957,3,-1.347,12.335,-5.824,,,,,,,,
704147.4155,3,-1.254,4.338,-2.637,,,,,,,,
704147.4354,3,-0.469,13.426,-3.02,4,-0.02,0.012,0.015,5,20.36,-43.079,14.099
704147.4553,3,2.113,11.318,2.039,,,,,,,,
704147.4751,3,-0.103,2.974,-2.254,,,,,,,,
704147.495,3,-1.326,11.285,-5.403,4,0.005,0.092,0.021,,,,
704147.5148,3,-1.168,7.26,-3.704,,,,,,,,
704147.5347,3,-0.802,15.826,-5.614,,,,,,,,
704147.5546,3,0.17,13.737,-0.919,4,-0.035,0.049,0.009,5,20.508,-42.259,15.549
704147.5744,3,1.015,2.601,3.137,,,,,,,,
704147.5943,3,0.73,4.494,-3.675,,,,,,,,
704147.6142,3,0.677,19.533,-6.183,4,-0.002,0.017,-0.02,5,19.968,-44.408,14.827
704147.634,3,-0.002,8.786,-0.866,,,,,,,,
704147.6539,3,0.665,15.178,0.541,,,,,,,,
704147.6738,3,-1.649,3.769,-3.132,4,-0.035,0.117,-0.057,5,20.094,-45.271,15.366
704147.6936,3,-0.584,10.741,-4.922,,,,,,,,
704147.7135,3,-2.022,11.636,-3.546,,,,,,,,
704147.7334,3,0.167,12.481,1.232,4,0.017,-0.006,-0.112,5,20.648,-44.101,15.555
704147.7532,3,-1.287,10.155,-2.06,,,,,,,,
704147.7731,3,-2.163,6.506,-4.85,,,,,,,,
704147.793,3,-0.864,8.696,-3.781,4,0.028,-0.094,-0.076,5,20.259,-43.837,15.553
704147.8128,3,-0.402,10.205,-3.515,,,,,,,,
704147.8327,3,-2.189,7.784,-2.295,,,,,,,,
704147.8526,3,-1.601,13.742,-1.543,4,-0.068,-0.055,-0.021,5,20.038,-45.076,14.194
704147.8724,3,-1.644,9.641,-2.658,,,,,,,,
704147.8923,3,-0.589,10.308,-1.18,,,,,,,,
704147.9121,3,0.244,4.74,0.787,4,-0.059,-0.069,0.025,5,20.869,-43.907,13.626
704147.932,3,0.062,8.87,-3.106,,,,,,,,
704147.9519,3,-0.316,19.135,-3.041,,,,,,,,
704147.9718,3,0.081,5.599,0.103,4,0.042,-0.034,0.009,5,20.253,-43.837,13.374
704147.9916,3,-0.017,8.368,-2.778,,,,,,,,
704148.0115,3,-0.847,8.794,-3.293,,,,,,,,
704148.0314,3,-0.112,10.028,-3.781,4,0.08,-0.073,0.001,,,,
704148.0512,3,-0.404,15.149,-2.524,,,,,,,,
704148.0711,3,0.869,5.764,-1.567,,,,,,,,
704148.0909,3,-1.998,8.43,-6.288,4,0.043,-0.004,0.014,5,20.898,-44.293,14.197
704148.1108,3,-0.921,17.547,-3.333,,,,,,,,
704148.1307,3,0.498,-0.794,1.895,,,,,,,,
704148.1505,3,-2.254,9.605,-6.915,4,0.029,-0.01,0.012,,,,
704148.1704,3,-0.596,14.757,-6.997,,,,,,,,
704148.1903,3,0.112,7.296,-2.496,,,,,,,,
704148.2101,3,0.05,5.42,-1.775,4,-0.037,-0.013,0.058,5,21.826,-44.795,15.12
704148.23,3,0.292,12.981,-0.426,,,,,,,,
704148.2499,3,-1.108,5.037,-6.011,,,,,,,,
704148.2697,3,0.16,15.45,-1.579,4,-0.057,-0.033,0.064,5,21.532,-44.368,13.861
704148.2896,3,2.311,5.609,2.453,,,,,,,,
704148.3095,3,0.361,11.21,-0.469,,,,,,,,
704148.3293,3,-1.098,7.913,-4.467,4,-0.024,0.02,0.022,5,20.605,-45.816,13.431
704148.3492,3,-1.187,5.968,-6.212,,,,,,,,
704148.3691,3,-1.115,23.222,-3.226,,,,,,,,
704148.3889,3,2.28,5.334,6.604,4,-0.045,0.07,0.035,5,20.609,-45.819,14.691
704148.4088,3,-0.737,2.788,-0.747,,,,,,,,
704148.4287,3,-1.759,15.934,-6.731,,,,,,,,
704148.4485,3,-1.072,8.597,-0.629,4,0.065,0.079,-0.093,5,20.917,-45.869,15.952
704148.4684,3,-0.347,10.117,1.328,,,,,,,,
704148.4883,3,-2.656,-6.544,-1.438,,,,,,,,
704148.5081,3,-3.41,17.489,-13.184,4,0.097,-0.097,-0.075,5,21.472,-45.084,14.107
704148.528,3,-2.73,12.742,-5.264,,,,,,,,
704148.5479,3,0.811,4.929,5.707,,,,,,,,
704148.5677,3,0.431,9.088,1.467,4,-0.194,-0.066,0.048,,,,
704148.5876,3,-0.306,14.73,-5.69,,,,,,,,
704148.6075,3,-0.345,7.827,-1.651,,,,,,,,
704148.6273,3,2.024,3.711,6.078,4,0.043,0.017,0.023,5,22.47,-44.16,14.261
704148.6472,3,-2.536,6.458,-8.344,,,,,,,,
704148.6671,3,-1.285,20.889,-8.978,,,,,,,,
704148.6869,3,0.237,8.432,-3.369,4,0.066,0.068,0.002,,,,
704148.7068,3,-0.122,7.449,1.862,,,,,,,,
704148.7267,3,1.905,5.855,-0.019,,,,,,,,
704148.7465,3,-1.802,9.878,-7.504,4,-0.046,-0.058,-0.015,5,20.325,-44.315,13.42
704148.7664,3,-0.73,16.834,-3.769,,,,,,,,
704148.7862,3,1.321,12.098,4.085,,,,,,,,
704148.8061,3,-1.618,5.216,-1.936,4,-0.033,-0.104,0.051,5,19.958,-44.839,12.086
704148.826,3,-1.869,5.288,-5.142,,,,,,,,
704148.8459,3,-0.443,21.437,-6.322,,,,,,,,
704148.8657,3,-1.122,8.506,-0.055,4,0.031,-0.02,0.04,5,22.443,-45.818,14.2
704148.8856,3,-1.522,-0.213,4.635,,,,,,,,
704148.9055,3,0.225,15.025,-5.999,,,,,,,,
704148.9253,3,-1.395,11.866,-5.635,4,0.045,-0.044,0.052,5,21.523,-45.085,14.832
704148.9452,3,-1.326,7.609,-0.773,,,,,,,,
704148.965,3,0.223,3.881,-0.861,,,,,,,,
704148.9849,3,-0.668,15.125,-4.635,4,0.008,0.053,0.069,5,21.257,-46.513,13.382
704149.0047,3,-0.668,3.403,-2.005,,,,,,,,
704149.0246,3,0.139,14.807,0.644,,,,,,,,
704149.0445,3,-0.742,6.595,-0.447,4,-0.026,0.167,0.021,5,22.15,-44.873,14.934
704149.0643,3,-1.263,2.589,-4.393,,,,,,,,
704149.0842,3,-1.043,22.315,-6.465,,,,,,,,
704149.1041,3,0.89,2.644,2.551,4,0.007,0.052,-0.04,5,22.108,-46.127,14.929
704149.124,3,0.019,9.349,-0.866,,,,,,,,
704149.1438,3,0.392,10.71,-1.35,,,,,,,,
704149.1637,3,-3.02,5.798,-7.442,4,0.06,-0.058,-0.082,5,22.476,-45.642,15.413
704149.1836,3,-2.35,15.651,-4.061,,,,,,,,
704149.2034,3,1.529,9.844,0.806,,,,,,,,
704149.2227,3,0.677,12.282,-1.225,4,-0.008,-0.125,0.017,,,,
704149.2432,3,-1.043,1.622,-3.565,,,,,,,,
704149.263,3,-1.077,9.198,-6.642,,,,,,,,
704149.2829,3,-1.053,18.832,-6.346,4,0.102,0.05,0.019,5,22.366,-46.489,14.111
704149.3028,3,0.893,4.13,1.161,,,,,,,,
704149.3226,3,0.701,6.097,-0.768,,,,,,,,
704149.3425,3,-0.194,19.174,-6.86,4,-0.073,0.111,0.054,5,21.696,-46.306,15.254
704149.3623,3,-1.376,3.929,-2.883,,,,,,,,
704149.3822,3,0.261,8.37,-1.488,,,,,,,,
704149.4021,3,0.426,15.3,-0.053,4,-0.04,-0.016,0.014,5,20.773,-44.821,14.119
704149.422,3,0.012,8.42,-2.319,,,,,,,,
704149.4418,3,-0.658,4.491,-0.457,,,,,,,,
704149.4617,3,-1.577,17.226,-6.068,4,0.031,0,0.003,5,21.628,-45.799,16.597
704149.4816,3,-1.675,8.478,-5.058,,,,,,,,
704149.5014,3,-0.833,12.237,2.505,,,,,,,,
704149.5213,3,-0.141,5.654,-1.759,4,-0.025,0.068,0.008,5,21.567,-46.703,15.903
704149.5411,3,0.739,17.984,0.311,,,,,,,,
704149.561,3,-1.634,-1.012,-0.723,,,,,,,,
704149.5809,3,-1.206,6.446,-6.384,4,0.118,0.043,-0.095,5,20.602,-45.808,14.839
704149.6007,3,-2.907,22.973,-7.803,,,,,,,,
704149.6206,3,-0.041,3.874,3.202,,,,,,,,
704149.6405,3,-0.754,5.446,0.725,4,-0.066,-0.024,-0.024,5,20.937,-45.445,16.098
704149.6603,3,0.56,11.868,-2.288,,,,,,,,
704149.6802,3,-3.62,3.151,-7.064,,,,,,,,
704149.7001,3,-0.574,17.448,-0.498,4,0.08,0.029,-0.059,5,21.614,-44.794,16.67
704149.7199,3,0.799,-0.826,1.835,,,,,,,,
704149.7398,3,-1.651,14.931,-9.136,,,,,,,,
704149.7597,3,-2.144,8.48,-3.797,4,0.035,0.001,-0.033,,,,
704149.7795,3,-1.189,2.661,-1.362,,,,,,,,
704149.7994,3,-0.208,16.357,-4.908,,,,,,,,
704149.8193,3,2.575,12.237,2.094,4,-0.114,-0.012,0.006,5,21.889,-44.498,15.468
704149.8391,3,-0.412,4.475,-1.61,,,,,,,,
704149.859,3,0.833,6.559,-0.397,,,,,,,,
704149.8788,3,0.089,6.339,-5.941,4,0.029,-0.073,-0.042,,,,
704149.8987,3,-0.364,26.072,-6.092,,,,,,,,
704149.9186,3,-0.045,0.897,1.539,,,,,,,,
704149.9384,3,-0.371,2.57,-0.837,4,-0.022,-0.018,-0.002,5,22.63,-44.809,13.622
704149.9583,3,-0.464,23.385,-7.597,,,,,,,,
704149.9782,3,0.479,5.245,1.697,,,,,,,,
704149.9981,3,-0.567,1.84,-1.158,4,-0.034,-0.087,0.005,5,23.396,-45.602,14.978
704150.0179,3,-0.732,23.218,-4.513,,,,,,,,
704150.0378,3,-1.089,10.878,-2.981,,,,,,,,
704150.0576,3,-0.845,3.752,2.759,4,0.004,-0.144,0.036,5,20.157,-44.209,14.201
704150.0775,3,-1.094,8.126,-3.57,,,,,,,,
704150.0974,3,-1.725,12.536,-8.688,,,,,,,,
704150.1172,3,-2.369,10.047,-4.499,4,0.09,-0.14,0.089,5,22.467,-44.157,14.832
704150.1371,3,0.622,6.973,3.539,,,,,,,,
704150.157,3,-1.156,6.659,-3.221,,,,,,,,
704150.1768,3,-0.096,14.623,-7.255,4,0.001,0.068,0.142,5,21.28,-45.657,15.559
704150.1967,3,-0.854,5.465,-0.203,,,,,,,,
704150.2166,3,0.696,12.055,1.603,,,,,,,,
704150.2364,3,0.816,7.32,0.129,4,-0.042,0.229,0.082,5,20.63,-44.865,15.558
704150.2563,3,0.668,6.09,-4.075,,,,,,,,
704150.2762,3,-0.211,12.931,-8.018,,,,,,,,
704150.296,3,-0.66,8.116,-1.957,4,0.087,0.087,-0.054,,,,
704150.3159,3,1.675,9.418,1.017,,,,,,,,
704150.3358,3,-0.203,13.912,-4.74,,,,,,,,
704150.3556,3,-1.656,5.099,-2.934,4,-0.041,-0.018,-0.069,5,22.122,-44.218,15.273
704150.3755,3,-0.031,8.837,-0.759,,,,,,,,
704150.3954,3,-0.634,9.078,-3.383,,,,,,,,
704150.4152,3,-0.713,11.828,-3.972,4,-0.016,-0.079,-0.051,,,,
704150.4351,3,-0.438,7.037,-5.482,,,,,,,,
704150.4549,3,0.354,16.57,-1.524,,,,,,,,
704150.4748,3,-1.22,3.525,-1.658,4,-0.061,-0.007,-0.014,5,20.319,-44.832,13.097
704150.4947,3,-0.459,13.57,0.419,,,,,,,,
704150.5145,3,-0.431,8.133,-3.623,,,,,,,,
704150.5344,3,-0.627,8.916,-0.821,4,0.016,-0.075,-0.005,5,20.941,-44.58,15.164
704150.5543,3,-0.366,13.419,-3.594,,,,,,,,
704150.5742,3,-1.369,6.085,0.814,,,,,,,,
704150.594,3,-0.622,14.737,-5.003,4,0.048,-0.007,-0.007,5,22.598,-45.764,14.113
704150.6139,3,-2.34,2.402,-4.525,,,,,,,,
704150.6337,3,-1.493,19.578,-3.092,,,,,,,,
704150.6536,3,0.725,4.446,1.799,4,-0.017,-0.033,0.044,5,20.958,-44.386,15.366
704150.6735,3,-0.17,8.564,1.017,,,,,,,,
704150.6933,3,-1.948,15.47,-6.071,,,,,,,,
704150.7132,3,-2.953,3.056,-2.969,4,0.073,-0.049,0.028,5,21.605,-45.125,14.79
704150.7331,3,-1.711,14.663,-1.804,,,,,,,,
704150.7529,3,2.371,9.588,2.343,,,,,,,,
704150.7728,3,-1.792,7.647,-5.57,4,0.023,-0.047,0.1,5,21.278,-45.792,16.286
704150.7927,3,0.61,8.167,-2.625,,,,,,,,
704150.8125,3,-1.098,1.802,-4.642,,,,,,,,
704150.8324,3,-0.139,14.13,-8.365,4,0.132,0.004,0.072,5,22.546,-44.928,16.287
704150.8523,3,2.541,10.772,-0.347,,,,,,,,
704150.8721,3,0.249,5.161,-1.503,,,,,,,,
704150.892,3,1.067,13.46,-4.561,4,-0.058,0.141,0.085,5,22.208,-44.121,14.83
704150.9119,3,-0.29,3.123,-2.757,,,,,,,,
704150.9318,3,-0.474,17.051,-5.169,,,,,,,,
704150.9516,3,1.797,8.6,0.639,4,-0.064,0.123,0.006,,,,
704150.9715,3,0.869,5.102,1.259,,,,,,,,
704150.9913,3,0.086,16.231,-6.147,,,,,,,,
704151.0112,3,-1.591,5.932,-2.558,4,0.027,0.142,-0.083,5,21.425,-45.093,17.152
704151.0311,3,-0.632,8.389,-4.613,,,,,,,,
704151.0509,3,-1.673,15.728,-0.23,,,,,,,,
704151.0708,3,-0.574,-0.402,0.797,4,-0.04,0.037,-0.086,5,21.312,-44.279,15.657
704151.0907,3,-0.629,13.055,-2.587,,,,,,,,
704151.1106,3,-1.35,14.402,-4.733,,,,,,,,
704151.1304,3,-2.41,13.888,-2.812,4,0.035,-0.087,-0.093,5,21.893,-44.272,15.652
704151.1503,3,-1.89,8.38,4.434,,,,,,,,
704151.1701,3,0.232,0.105,0.199,,,,,,,,
704151.19,3,-0.455,15.943,-6.305,4,0.057,-0.189,0.014,5,21.696,-45.081,14.97
704151.2099,3,-1.529,18.508,-4.453,,,,,,,,
704151.2297,3,-3.249,-6.619,-2.278,,,,,,,,
704151.2496,3,-2.632,15.101,-5.994,4,0.115,-0.059,0.064,5,20.358,-47.012,15.805
704151.2695,3,-1.687,11.395,-7.774,,,,,,,,
704151.2893,3,0.273,11.043,0.232,,,,,,,,
704151.3092,3,2.264,4.417,3.903,4,-0.147,0.083,0.148,5,19.426,-45.045,16.911
704151.329,3,-0.96,2.45,-3.936,,,,,,,,
704151.3489,3,-0.524,16.867,-10.985,,,,,,,,
704151.3688,3,1.457,14.103,1.577,4,0.011,0.189,0.056,5,20.773,-44.252,15.556
704151.3886,3,1.658,2.862,0.96,,,,,,,,
704151.4085,3,0.285,7.501,-1.433,,,,,,,,
704151.4284,3,-2.232,13.149,-9.358,4,0.006,0.194,-0.061,5,20.586,-44.452,15.556
704151.4483,3,-2.338,11.206,-3.343,,,,,,,,
704151.4681,3,0.622,6.841,4.862,,,,,,,,
704151.488,3,0.376,9.011,-2.043,4,-0.064,0.007,-0.043,,,,
704151.5078,3,-1.153,10.928,-7.016,,,,,,,,
704151.5277,3,-0.328,11.995,-3.8,,,,,,,,
704151.5476,3,-0.06,9.839,-1.292,4,0.049,-0.081,-0.053,5,21.793,-44.501,15.558
704151.5674,3,-0.95,12.529,-0.725,,,,,,,,
704151.5873,3,-0.625,4.286,-1.189,,,,,,,,
704151.6072,3,-1.46,7.738,-4.542,4,0.01,-0.053,-0.014,5,20.677,-42.975,16.278
704151.627,3,-1.553,13.653,-5.432,,,,,,,,
704151.6469,3,-2.493,8.243,-3.63,,,,,,,,
704151.6668,3,-0.811,16.4,1.158,4,-0.073,-0.022,0.06,5,21.8,-44.366,15.558
704151.6866,3,1.33,1.689,1.637,,,,,,,,
704151.7065,3,-0.845,8.961,-5.173,,,,,,,,
704151.7264,3,0.562,9.569,-2.52,4,-0.005,0.107,0.021,5,20.674,-44.687,15.556
704151.7462,3,-0.696,2.613,-2.096,,,,,,,,
704151.7661,3,-0.943,21.65,-5.688,,,,,,,,
704151.786,3,0.936,4.312,0.541,4,-0.021,0.162,-0.039,5,19.444,-44.276,14.679
704151.8058,3,-0.242,8.796,-5.958,,,,,,,,
704151.8257,3,1.082,14.575,-1.067,,,,,,,,
704151.8456,3,0.943,3.642,2.685,4,-0.042,0.067,-0.106,5,19.958,-45.035,15.466
704151.8654,3,-2.137,13.543,-5.532,,,,,,,,
704151.8853,3,1.807,9.528,-2.845,,,,,,,,
704151.9051,3,-2.587,7.528,-6.324,4,0.093,-0.075,-0.137,5,20.186,-44.638,14.581
704151.925,3,-1.4,10.265,-5.133,,,,,,,,
704151.9449,3,-0.364,7.624,-1.586,,,,,,,,
704151.9648,3,-1.452,13.775,-5.654,4,-0.048,-0.126,-0.045,5,21.606,-43.095,15.402
704151.9846,3,-0.428,15.513,-0.974,,,,,,,,
704152.0045,3,-0.148,4.281,2.788,,,,,,,,
704152.0244,3,-0.514,5.693,-1.756,4,-0.073,-0.07,0.008,,,,
704152.0442,3,-0.957,17.212,-6.051,,,,,,,,
704152.0641,3,-1.237,4.812,-3.912,,,,,,,,
704152.0839,3,-2.156,10.16,-4.721,4,0.07,-0.046,0.014,5,21.906,-43.651,15.463
704152.1038,3,0.062,8.913,-2.122,,,,,,,,
704152.1237,3,-1.086,8.334,-3.166,,,,,,,,
704152.1435,3,-1.156,12.234,-3.647,4,-0.071,0.007,0.014,,,,
704152.1634,3,1.543,7.734,1.476,,,,,,,,
704152.1833,3,1,11.696,-0.199,,,,,,,,
704152.2031,3,-0.452,10.454,-2.867,4,-0.056,-0.065,-0.026,5,21.295,-45.091,15.709
704152.223,3,-0.864,5.69,-2.087,,,,,,,,
704152.2428,3,-1.902,5.891,-6.073,,,,,,,,
704152.2627,3,-2.467,10.648,-5.286,4,0.095,-0.129,-0.026,5,21.75,-44.366,15.549
704152.2826,3,-0.407,13.084,-2.256,,,,,,,,
704152.3025,3,-0.878,11.021,-5.597,,,,,,,,
704152.3223,3,1.149,7.81,0.426,4,-0.103,0.002,0.051,5,20.749,-45.766,14.107
704152.3422,3,0.156,5.963,-2.481,,,,,,,,
704152.3621,3,1.199,16.695,-2.52,,,,,,,,
704152.3819,3,0.404,6.786,0.459,4,-0.036,0.001,0.002,5,22.099,-44.495,13.521
704152.4018,3,0.931,11.691,-4.506,,,,,,,,
704152.4216,3,-1.539,6.798,-6.322,,,,,,,,
704152.4415,3,-1.007,10.138,-5.336,4,0.076,-0.067,0.003,5,22.673,-45.058,15.561
704152.4614,3,0.239,18.231,-1.646,,,,,,,,
704152.4812,3,-0.55,2.146,0.019,,,,,,,,
704152.5011,3,-0.522,16.46,-2.946,4,-0.052,-0.075,0.035,5,22.318,-44.873,13.914
704152.521,3,-0.476,10.016,-0.878,,,,,,,,
704152.5409,3,-0.512,5.922,0.27,,,,,,,,
704152.5607,3,0.184,11.017,-2.278,4,0.058,-0.09,0.03,,,,
704152.5806,3,-2.529,8.518,-8.368,,,,,,,,
704152.6005,3,-1.902,13.443,-4.838,,,,,,,,
704152.6203,3,1.369,7.042,1.732,4,0.047,0.024,0.058,5,21.664,-43.837,13.219
704152.6402,3,-0.94,6.432,-3.072,,,,,,,,
704152.6601,3,-1.33,14.099,-5.051,,,,,,,,
704152.6799,3,-2.498,2.568,-2.027,4,0.006,0.038,-0.01,,,,
704152.6998,3,-0.744,16.58,-0.495,,,,,,,,
704152.7197,3,0.117,5.623,1.024,,,,,,,,
704152.7395,3,-1.007,12.701,-4.195,4,-0.016,-0.083,0.027,5,21.628,-45.793,14.493
704152.7594,3,-1.498,8.521,-4.044,,,,,,,,
704152.7792,3,-1.704,4.666,-2.261,,,,,,,,
704152.7991,3,-2.051,13.211,-4.798,4,0.033,-0.001,0.028,5,21.806,-45.79,14.554
704152.8183,3,1.055,10.138,0.727,,,,,,,,
704152.8389,3,-0.019,6.599,-0.665,,,,,,,,
704152.8587,3,-0.112,12.4,-3.9,4,-0.02,0.09,0.055,5,22.525,-45.772,14.926
704152.8786,3,-0.948,6.164,-3.764,,,,,,,,
704152.8985,3,-1.517,9.648,-5.688,,,,,,,,
704152.9183,3,-0.134,7.566,-4.539,4,0.009,0.042,0.036,5,22.36,-46.733,14.352
704152.9382,3,0.304,22.751,-4.499,,,,,,,,
704152.958,3,-0.282,6.047,1.397,,,,,,,,
704152.9779,3,-1.027,4.546,-1.318,4,-0.165,0.089,0.041,5,22.861,-46.477,14.111
704152.9978,3,-0.041,12.763,-4.173,,,,,,,,
704153.0176,3,-0.574,18.875,-1.132,,,,,,,,
704153.0375,3,0.845,0.907,4.601,4,-0.023,0.02,0.025,5,21.298,-44.765,13.68
704153.0574,3,-0.404,2.156,-2.367,,,,,,,,
704153.0772,3,-5.154,15.379,-18.791,,,,,,,,
704153.0971,3,-2.601,14.682,-4.932,4,0.23,0.021,-0.035,5,21.825,-47.215,14.932
704153.117,3,-1.146,-1.787,5.338,,,,,,,,
704153.1368,3,2.759,15.003,2.192,,,,,,,,
704153.1567,3,-0.206,8.148,-4.487,4,-0.138,0.154,0.023,5,22.85,-46.333,16.579
704153.1766,3,-0.782,17.133,-3.264,,,,,,,,
704153.1964,3,0.134,-2.527,2.606,,,,,,,,
704153.2163,3,-0.412,18.315,-4.113,4,0.055,0.149,-0.119,,,,
704153.2362,3,-2.125,9.327,-4.575,,,,,,,,
704153.256,3,-1.438,6.083,-0.651,,,,,,,,
704153.2759,3,-2.297,9.167,-4.838,4,0.029,-0.087,-0.126,5,22.606,-46.005,16.054
704153.2958,3,-1.969,8.81,-3.965,,,,,,,,
704153.3156,3,-0.086,13.077,-3.845,,,,,,,,
704153.3355,3,0.443,9.648,-0.9,4,-0.062,-0.089,-0.044,5,22.626,-45.007,14.16
704153.3553,3,0.163,7.951,-0.026,,,,,,,,
704153.3752,3,-0.342,8.657,-2.192,,,,,,,,
704153.3951,3,-1.551,6.578,-6.441,4,0.026,0.05,-0.102,5,22.107,-44.362,16.583
704153.415,3,-1.924,13.103,-4.8,,,,,,,,
704153.4348,3,1.333,11.141,-0.694,,,,,,,,
704153.4547,3,1.553,3.561,-0.187,4,-0.058,-0.023,-0.064,5,22.937,-45.108,16.573
704153.4746,3,-1.019,6.544,-5.535,,,,,,,,
704153.4944,3,-1.472,14.63,-5.374,,,,,,,,
704153.5143,3,-1.713,13.898,-1.031,4,0.005,-0.155,-0.067,5,23.279,-45.753,15.034
704153.5341,3,1.206,6.607,1.862,,,,,,,,
704153.554,3,-0.909,11.091,-3.58,,,,,,,,
704153.5739,3,-0.254,10.868,-2.718,4,-0.042,-0.119,0.038,,,,
704153.5937,3,0.213,7.1,0.641,,,,,,,,
704153.6136,3,-1.115,14.565,-5.013,,,,,,,,
704153.6335,3,-1.251,9.863,-1.716,4,0.036,-0.015,0.03,5,20.438,-45.442,12.848
704153.6533,3,0.136,4.984,-2.879,,,,,,,,
704153.6732,3,-0.483,9.411,-2.74,,,,,,,,
704153.6931,3,-0.34,13.522,-2.465,4,0.035,-0.027,0.011,5,23.033,-44.716,15.608
704153.7129,3,-0.835,6.698,-3.647,,,,,,,,
704153.7328,3,-1.352,8.736,-2.558,,,,,,,,
704153.7527,3,-0.708,9.791,-3.915,4,-0.001,-0.117,0.035,,,,
704153.7725,3,-1.326,10.619,-3.056,,,,,,,,
704153.7924,3,-0.124,6.786,1.192,,,,,,,,
704153.8123,3,0.184,11.215,-1.321,4,-0.071,-0.053,0.05,5,22.054,-44.398,13.557
704153.8321,3,-1.003,11.782,-2.268,,,,,,,,
704153.852,3,-0.775,8.054,0.902,,,,,,,,
704153.8718,3,0.12,4.185,0.014,4,0.014,-0.011,0.021,,,,
704153.8917,3,-0.357,10.737,-5.011,,,,,,,,
704153.9116,3,-0.806,9.5,-3.575,,,,,,,,
704153.9314,3,-1.553,7.758,-4.068,4,0.11,-0.112,-0.012,5,22.591,-46.251,15.553
704153.9513,3,0.086,8.392,-3.62,,,,,,,,
704153.9712,3,1.326,8.624,-0.672,,,,,,,,
704153.9911,3,-0.23,11.076,-4.317,4,0.011,-0.104,0.037,5,23.573,-44.611,15.268
704154.0109,3,1.211,10.191,0.67,,,,,,,,
704154.0308,3,-0.431,9.452,-0.282,,,,,,,,
704154.0506,3,0.041,15.936,-6.556,4,0.055,0.025,0.019,5,23.877,-44.707,15.462
704154.0705,3,-1.168,-0.323,-0.56,,,,,,,,
704154.0904,3,-0.254,1.802,-7.542,,,,,,,,
704154.1102,3,-2.314,27.915,-8.171,4,0.076,-0.022,0.034,5,23.286,-45.317,14.206
704154.1301,3,-1.082,2.541,2.713,,,,,,,,
704154.15,3,-0.505,13.072,1.792,,,,,,,,
704154.1698,3,0.723,8.057,0.522,4,-0.169,0.007,0.045,5,23.682,-45.746,15.564
704154.1897,3,-0.505,-1.539,-4.348,,,,,,,,
704154.2096,3,1.476,29.092,-4.824,,,,,,,,
704154.2294,3,-2.359,-1.323,0.309,4,0.064,-0.149,0.043,5,22.617,-45.531,15.082
704154.2493,3,-1.015,17.848,-2.23,,,,,,,,
704154.2692,3,-1.876,-0.644,-3.242,,,,,,,,
704154.289,3,-0.268,14.084,-3.728,4,0.137,-0.035,0.079,,,,
704154.3089,3,-1.883,13.354,-4.209,,,,,,,,
704154.3288,3,-0.857,2.501,1.34,,,,,,,,
704154.3487,3,0.148,14.795,-2.996,4,-0.039,-0.112,0.133,5,23.438,-44.464,14.833
704154.3685,3,-2.075,11.186,-7.37,,,,,,,,
704154.3884,3,0.124,12.744,-2.266,,,,,,,,
704154.4082,3,1.452,5.46,2.835,4,-0.015,0.033,0.158,,,,
704154.4281,3,-0.144,9.789,-3.96,,,,,,,,
704154.448,3,-0.019,17.104,-2.441,,,,,,,,
704154.4678,3,0.23,-3.206,0.847,4,-0.015,0.252,0.1,5,21.635,-45.796,15.561
704154.4877,3,1.055,21.827,-3.484,,,,,,,,
704154.5076,3,-0.658,1.876,-2.189,,,,,,,,
704154.5274,3,-0.885,11.428,-6.173,4,0.115,0.201,-0.023,5,21.44,-46.512,15.033
704154.5473,3,-1.606,12.553,-4.477,,,,,,,,
704154.5672,3,-0.61,9.801,-1.204,,,,,,,,
704154.5871,3,-0.861,8.203,-1.567,4,-0.057,0.054,-0.003,5,21.957,-45.078,14.832
704154.6069,3,2.175,13.536,2.867,,,,,,,,
704154.6268,3,-2.745,10.129,-5.86,,,,,,,,
704154.6466,3,-1.845,11.397,-5.781,4,0.077,-0.059,-0.056,5,22.272,-45.256,15.369
704154.6665,3,-1.149,10.906,-3.304,,,,,,,,
704154.6864,3,-0.66,0.713,0.16,,,,,,,,
704154.7062,3,-1.146,2.532,-8.698,4,0.007,-0.044,0.031,5,22.321,-46.494,16.335
704154.7261,3,-1.144,20.002,-10.921,,,,,,,,
704154.746,3,-1.05,15.632,-0.313,,,,,,,,
704154.7658,3,0.897,13.649,8.999,4,-0.243,0.17,0.056,,,,
704154.7857,3,2.032,-0.462,2.893,,,,,,,,
704154.8055,3,-0.519,11.775,-3.046,,,,,,,,
704154.8254,3,-0.491,7.858,-2.871,4,0.088,0.017,-0.081,5,20.686,-44.395,16.962
704154.8453,3,0.103,7.482,-1.809,,,,,,,,
704154.8652,3,-2.17,8.215,-10.067,,,,,,,,
704154.885,3,-1.68,11.203,-10.591,4,0.176,-0.02,-0.078,5,20.384,-45.833,15.799
704154.9049,3,-0.146,5.987,-1.335,,,,,,,,
704154.9248,3,-0.553,3.237,-1.771,,,,,,,,
704154.9446,3,1.713,15.905,-0.684,4,-0.173,0.007,-0.02,,,,
704154.9645,3,0.754,6.437,2.436,,,,,,,,
704154.9843,3,-0.586,15.092,-4.295,,,,,,,,
704155.0042,3,1.038,8.7,-0.05,4,-0.014,-0.014,-0.045,5,21.3,-44.801,14.694
704155.0241,3,-1.467,2.048,-2.053,,,,,,,,
704155.0439,3,-0.397,10.842,-10.571,,,,,,,,
704155.0638,3,-1.957,8.437,-6.7,4,0.152,-0.018,-0.07,5,20.825,-44.492,16.707
704155.0837,3,-2.197,9.878,-4.082,,,,,,,,
704155.1035,3,0.692,-5.683,0.596,,,,,,,,
704155.1234,3,0.957,16.982,-5.642,4,-0.205,-0.037,0.023,5,21.945,-45.695,14.833
704155.1433,3,-0.864,27.862,-1.649,,,,,,,,
704155.1631,3,-0.581,0.242,7.568,,,,,,,,
704155.183,3,-0.282,9.066,6.202,4,-0.257,0.002,-0.015,5,21.719,-44.086,15.118
704155.2029,3,-1.237,7.987,-4.889,,,,,,,,
704155.2227,3,-0.639,15.551,-3.989,,,,,,,,
704155.2426,3,0.881,1.354,5.355,4,0.159,-0.163,-0.057,5,21.96,-45.316,14.589
704155.2625,3,-2.575,12.081,-12.447,,,,,,,,
704155.2823,3,-3.453,18.552,-10.866,,,,,,,,
704155.3022,3,-2.692,3.178,-0.27,4,0.104,-0.078,-0.02,,,,
704155.322,3,3.199,18.353,3.656,,,,,,,,
704155.3419,3,1.553,0.287,3.307,,,,,,,,
704155.3618,3,-3.06,9.04,-7.628,4,-0.043,-0.168,0.022,5,20.93,-43.1,14.542
704155.3816,3,-0.163,24.926,-3.699,,,,,,,,
704155.4015,3,0.05,7.848,0.242,,,,,,,,
704155.4214,3,-0.333,-2.45,-0.335,4,0.105,-0.163,0.068,5,21.033,-42.958,15.163
704155.4413,3,-0.565,10.859,-8.504,,,,,,,,
704155.4611,3,-2.39,18.401,-10.119,,,,,,,,
704155.481,3,-1.323,6.595,0.902,4,0.079,0.022,0.126,,,,
704155.5008,3,0.627,4.094,-0.66,,,,,,,,
704155.5207,3,-0.689,15.812,-8.361,,,,,,,,
704155.5406,3,0.512,12.77,-4.58,4,-0.002,0.06,0.129,5,20.354,-43.492,14.297
704155.5604,3,0.529,4.944,5.472,,,,,,,,
704155.5803,3,-0.38,9.129,-4.405,,,,,,,,
704155.6002,3,0.038,21.368,-1.859,4,-0.033,0.078,0.095,5,20.015,-42.274,14.825
704155.62,3,-0.12,2.467,0.629,,,,,,,,
704155.6399,3,-1.129,6.97,-2.563,,,,,,,,
704155.6598,3,-0.904,15.197,-4.745,4,0.042,-0.005,0.015,5,20.114,-42.981,15.552
704155.6796,3,-1.223,6.049,-2.747,,,,,,,,
704155.6995,3,-0.471,11.361,-2.17,,,,,,,,
704155.7194,3,-1.015,4.996,-1.306,4,0.021,0.001,0.023,5,19.965,-44.743,15.506
704155.7392,3,-1.433,14.74,-4.331,,,,,,,,
704155.7591,3,-0.407,7.583,-0.711,,,,,,,,
704155.779,3,-1.496,-2.606,-1.56,4,-0.008,0.095,-0.026,5,21.573,-43.655,14.104
704155.7988,3,-2.771,13.172,-7.159,,,,,,,,
704155.8187,3,-1.56,11.888,-0.873,,,,,,,,
704155.8386,3,-0.407,3.427,1.149,4,-0.022,0.022,-0.023,5,21.243,-43.665,14.102
704155.8584,3,-0.512,6.688,-3.817,,,,,,,,
704155.8783,3,-2.177,9.751,-6.183,,,,,,,,
704155.8982,3,-2.132,11.342,-5.212,4,0.01,-0.073,0.024,5,21.083,-44.843,14.105
704155.918,3,1.318,11.024,2.991,,,,,,,,
704155.9379,3,0.486,2.197,1.752,,,,,,,,
704155.9578,3,-1.39,7.004,-5.276,4,-0.027,-0.007,0.135,,,,
704155.9776,3,1.4,18.087,-5.006,,,,,,,,
704155.9975,3,-0.9,3.407,-0.998,,,,,,,,
704156.0174,3,-1.704,13.206,-1.921,4,-0.02,0.083,0.183,5,19.165,-44.852,14.102
704156.0372,3,0.974,6.681,1.833,,,,,,,,
704156.0571,3,0.936,9.727,-3.472,,,,,,,,
704156.077,3,0.519,12.57,-1.936,4,-0.015,0.072,0.131,5,20.447,-45.297,14.642
704156.0968,3,2.285,10.16,2.041,,,,,,,,
704156.1167,3,-0.481,8.554,-3.946,,,,,,,,
704156.1366,3,0.378,8.009,-3.931,4,0.097,0.161,0.059,,,,
704156.1564,3,-0.682,5.226,-2.35,,,,,,,,
704156.1763,3,-1.881,9.789,-7.796,,,,,,,,
704156.1962,3,-1.029,9.641,-4.554,4,0.07,0.359,-0.053,5,18.324,-45.721,13.071
704156.216,3,-0.56,16.152,1.07,,,,,,,,
704156.2359,3,-1.5,14.177,0.837,,,,,,,,
704156.2558,3,-0.234,2.434,2.63,4,-0.155,0.274,-0.138,5,20.381,-46.306,15.079
704156.2756,3,-1.948,8.073,-4.231,,,,,,,,
704156.2955,3,-1.747,9.866,-5.173,,,,,,,,
704156.3154,3,-0.531,4.271,0.352,4,0.036,-0.143,-0.181,5,24.551,-48.581,17.076
704156.3352,3,-0.672,13.658,-5.032,,,,,,,,
704156.3551,3,-0.421,14.517,-4.451,,,,,,,,
704156.375,3,-1.153,5.774,-3.144,4,-0.039,-0.035,-0.069,5,22.482,-45.192,16.574
704156.3948,3,1.067,6.87,-1.027,,,,,,,,
704156.4147,3,0.581,14.012,-2.24,,,,,,,,
704156.4345,3,2.034,6.683,-0.672,4,-0.056,0.031,-0.084,5,22.002,-45.404,14.89
704156.4544,3,1.795,11.098,-2.383,,,,,,,,
704156.4743,3,-0.603,9.277,-4.336,,,,,,,,
704156.4941,3,-0.479,14.505,-4.015,4,0.048,0.036,-0.159,,,,
704156.514,3,-2.692,7.391,-5.341,,,,,,,,
704156.5339,3,0.371,16.417,-1.211,,,,,,,,
704156.5538,3,-0.28,0.299,-0.177,4,-0.059,-0.13,-0.136,5,20.595,-46.477,15.758
704156.5736,3,-1.357,7.803,-6.075,,,,,,,,
704156.5935,3,-2.055,16.939,-5.633,,,,,,,,
704156.6133,3,-0.725,14.02,-2.022,4,0.014,-0.222,-0.1,5,23.105,-45.572,15.952
704156.6332,3,-0.785,1.517,1.78,,,,,,,,
704156.6531,3,0.512,9.839,-2.113,,,,,,,,
704156.6729,3,-2.658,14.328,-6.851,4,-0.006,-0.192,0.014,,,,
704156.6928,3,-0.452,8.703,0.538,,,,,,,,
704156.7127,3,-0.385,0.919,0.991,,,,,,,,
704156.7325,3,-1.077,23.191,-7.1,4,0.066,-0.097,0.063,5,22.296,-45.734,14.063
704156.7524,3,0.366,10.866,-1.874,,,,,,,,
704156.7722,3,0.857,1.785,3.706,,,,,,,,
704156.7921,3,-0.725,15.415,-5.795,4,-0.008,0.054,0.076,5,22.607,-45.918,15.564
704156.812,3,-0.957,1.488,-3.307,,,,,,,,
704156.8319,3,-0.457,16.788,-4.81,,,,,,,,
704156.8517,3,0.945,10.39,1.962,4,0.005,0.031,-0.005,5,24.472,-46.44,15.567
704156.8716,3,0.124,4.647,-0.091,,,,,,,,
704156.8915,3,-1.847,8.506,-6.559,,,,,,,,
704156.9113,3,-2.297,2.218,-6.437,4,0.067,-0.148,-0.051,5,23.491,-46.466,15.814
704156.9312,3,-1.067,11.756,-6.877,,,,,,,,
704156.9511,3,1.756,20.248,1.11,,,,,,,,
704156.9709,3,-0.426,-0.792,1.895,4,-0.118,-0.126,0.081,5,23.66,-46.306,14.407
704156.9908,3,-1.677,13.543,-6.334,,,,,,,,
704157.0106,3,-0.94,11.856,-1.572,,,,,,,,
704157.0305,3,-1.244,6.465,-1.156,4,0.03,-0.016,0.073,,,,
704157.0504,3,1.395,10.923,-0.263,,,,,,,,
704157.0702,3,0.352,1.881,-0.395,,,,,,,,
704157.0901,3,-0.297,19.829,-7.758,4,0.07,0.053,0.105,5,23.161,-47.095,16.2
704157.11,3,-2.156,4.767,-2.378,,,,,,,,
704157.1299,3,-0.323,3.718,-4.546,,,,,,,,
704157.1497,3,0.239,14.704,-3.948,4,0.042,0.045,0.09,,,,
704157.1696,3,1.015,7.121,-1.153,,,,,,,,
704157.1894,3,0.639,8.751,-2.314,,,,,,,,
704157.2093,3,-0.814,9.191,-2.132,4,-0.022,0.188,0.023,5,22.772,-44.194,15.271
704157.2292,3,-3.218,10.751,-5.76,,,,,,,,
704157.249,3,-3.809,6.391,-0.282,,,,,,,,
704157.2689,3,-1.558,8.605,0.591,4,-0.016,0.048,-0.019,5,22.617,-45.534,15.562
704157.2888,3,-0.952,9.55,-0.029,,,,,,,,
704157.3086,3,-0.273,10.414,-3.898,,,,,,,,
704157.3285,3,-1.943,1.101,-5.642,4,0.037,-0.056,0.024,5,22.609,-45.717,13.486
704157.3483,3,-1.577,11.402,-2.594,,,,,,,,
704157.3682,3,1.271,8.198,2.465,,,,,,,,
704157.3881,3,0.261,6.822,0.325,4,-0.043,0.033,0.042,5,22.6,-46.207,15.422
704157.408,3,-0.67,10.562,-5.224,,,,,,,,
704157.4278,3,-1.943,5.271,-5.69,,,,,,,,
704157.4477,3,-0.263,17.508,-4.175,4,0.026,0.007,0.024,5,21.643,-45.465,14.781
704157.4676,3,1.907,8.55,1.228,,,,,,,,
704157.4874,3,0.268,3.309,-2.237,,,,,,,,
704157.5073,3,-0.636,10.124,-5.537,4,-0.041,0.129,0.015,5,21.893,-47.926,14.313
704157.5271,3,-1.103,8.435,-4.037,,,,,,,,
704157.547,3,-0.464,18.628,-3.094,,,,,,,,
704157.5669,3,0.9,9.885,2.173,4,-0.1,0.096,-0.028,,,,
704157.5867,3,-1.022,6.645,-1.515,,,,,,,,
704157.6066,3,-0.608,13.139,-6.331,,,,,,,,
704157.6265,3,0.043,11.186,-0.56,4,0.038,-0.105,-0.065,5,23.083,-46.664,16.446
704157.6463,3,-1.455,5.039,-2.716,,,,,,,,
704157.6662,3,-0.648,16.922,-5.259,,,,,,,,
704157.6861,3,-1.027,5.121,-3.738,4,0.055,-0.089,-0.007,,,,
704157.706,3,0.218,21.363,-4.19,,,,,,,,
704157.7258,3,-0.809,12.053,1.309,,,,,,,,
704157.7457,3,-1.345,-0.873,-3.07,4,-0.034,-0.013,0.007,5,21.609,-48.314,15.182
704157.7656,3,-2.867,15.422,-9.617,,,,,,,,
704157.7854,3,-0.641,14.517,-2.323,,,,,,,,
704157.8053,3,0.297,3.735,1.488,4,-0.024,0.017,0.054,5,21.928,-46.504,16.199
704157.8252,3,-0.144,10.938,-2.316,,,,,,,,
704157.845,3,-1.694,12.022,-8.497,,,,,,,,
704157.8649,3,-2.376,17.554,-5.604,4,-0.025,0.114,0.011,,,,
704157.8847,3,0.294,2.508,6.508,,,,,,,,
704157.9046,3,1.663,8.351,1.225,,,,,,,,
704157.9245,3,-2.177,9.43,-8.624,4,-0.035,-0.02,-0.036,5,23.267,-46.465,13.626
704157.9443,3,-1.749,9.712,-4.434,,,,,,,,
704157.9642,3,-0.122,11.873,-0.254,,,,,,,,
704157.9841,3,0.639,9.042,-3.592,4,0.011,-0.095,0.004,5,22.504,-44.926,16.133
704158.004,3,0.732,13.151,-4.35,,,,,,,,
704158.0238,3,-0.562,3.958,-1.969,,,,,,,,
704158.0437,3,-0.4,6.719,-5.843,4,0.033,-0.023,0.01,5,22.443,-45.065,16.087
704158.0635,3,0.61,21.851,-1.716,,,,,,,,
704158.0834,3,0.543,6.633,1.196,,,,,,,,
704158.1033,3,-0.086,7.025,-2.374,4,-0.016,0.027,0.027,5,21.817,-47.562,14.838
704158.1231,3,-0.103,3.111,-4.692,,,,,,,,
704158.143,3,0.029,21.588,-8.585,,,,,,,,
704158.1629,3,-0.33,9.77,2.369,4,0.042,-0.016,0.007,5,22.874,-45.764,14.685
704158.1827,3,1.627,4.733,2.216,,,,,,,,
704158.2026,3,-2.424,14.986,-9.653,,,,,,,,
704158.2225,3,-1.479,6.899,-4.355,4,0.052,-0.082,0.012,,,,
704158.2423,3,0.39,9.193,-1.764,,,,,,,,
704158.2622,3,0.763,9.019,-0.656,,,,,,,,
704158.2821,3,-0.837,10.715,-3.515,4,-0.014,0.011,0.076,5,20.833,-45.815,15.315
704158.3019,3,-1.656,4.728,-5.393,,,,,,,,
704158.3218,3,-0.412,3.886,-3.759,,,,,,,,
704158.3417,3,-1.431,16.099,-5.235,4,0.029,0.215,0.004,5,22.067,-44.456,14.259
704158.3615,3,-1.898,9.107,-2.194,,,,,,,,
704158.3814,3,-0.847,9.873,1.376,,,,,,,,
704158.4013,3,-0.208,5.575,0.866,4,-0.134,0.119,-0.023,5,19.504,-46.414,12.782
704158.4211,3,-0.9,11.868,-1.895,,,,,,,,
704158.441,3,-0.634,12.041,-0.479,,,,,,,,
704158.4608,3,-2.467,2.355,-2.768,4,-0.02,-0.143,-0.029,5,22.992,-46.857,14.449
704158.4807,3,-0.359,18.977,-3.496,,,,,,,,
704158.5006,3,-1.151,10.239,-2.249,,,,,,,,
704158.5204,3,-1.161,3.965,-1.015,4,-0.029,-0.006,0.05,5,22.238,-46.164,14.11
704158.5403,3,0.141,8.193,-2.558,,,,,,,,
704158.5602,3,-0.031,11.129,-2.393,,,,,,,,
704158.5801,3,-0.471,13.773,-4.369,4,-0.01,0.125,-0.002,5,21.93,-46.506,14.111
704158.5999,3,2.247,8.124,0.907,,,,,,,,
704158.6198,3,0.141,4.19,-2.189,,,,,,,,
704158.6396,3,-0.517,16.831,-7.171,4,0.071,0.203,-0.119,5,23.265,-46.318,15.184
704158.6595,3,-1.517,4.25,-2.646,,,,,,,,
704158.6794,3,-0.806,15.477,-3.166,,,,,,,,
704158.6992,3,1.074,13.235,-0.761,4,0.033,-0.023,-0.174,5,24.147,-47.157,14.502
704158.7191,3,-0.821,2.34,-1.893,,,,,,,,
704158.739,3,-2.024,9.839,-7.707,,,,,,,,
704158.7588,3,-2.477,9.074,-2.926,4,0.052,-0.204,-0.162,,,,
704158.7787,3,-0.826,20.48,-5.286,,,,,,,,
704158.7985,3,0.301,6.023,-2.501,,,,,,,,
704158.8184,3,0.555,5.898,0.692,4,-0.103,-0.138,-0.003,5,26.004,-45.064,14.067
704158.8383,3,-0.141,5.915,-4.396,,,,,,,,
704158.8582,3,0.471,13.172,-3.245,,,,,,,,
704158.878,3,0.845,11.337,-2.771,4,0.022,0.022,-0.004,,,,
704158.8979,3,0.72,13.627,-3.142,,,,,,,,
704158.9178,3,-2.094,6.884,-4.903,,,,,,,,
704158.9376,3,0.127,4.848,-2.673,4,0.004,-0.016,-0.004,5,27.536,-44.456,13.388
704158.9575,3,-1.976,17.927,-5.688,,,,,,,,
704158.9773,3,-0.517,7.289,0.534,,,,,,,,
704158.9972,3,-1.074,13.261,-1.29,4,-0.055,-0.193,0.032,5,27.695,-45.645,13.977
704159.0171,3,1.022,12.299,-1.318,,,,,,,,
704159.037,3,0.692,2.835,-1.055,,,,,,,,
704159.0568,3,-2.539,17.348,-9.224,4,0.085,-0.207,0.074,5,27.748,-46.355,13.194
704159.0767,3,-1.304,8.818,-2.455,,,,,,,,
704159.0966,3,-0.916,11.397,-1.271,,,,,,,,
704159.1164,3,0.22,13.448,-1.192,4,-0.006,0,0.151,5,28.355,-45.72,13.205
704159.1363,3,1.072,3.178,-0.543,,,,,,,,
704159.1562,3,-1.436,11.962,-5.736,,,,,,,,
704159.176,3,-0.888,13.306,-3.166,4,0.047,0.183,0.066,5,27.519,-46.793,13.832
704159.1959,3,-1.046,9.655,-0.802,,,,,,,,
704159.2158,3,-1,6.322,-2.649,,,,,,,,
704159.2356,3,-0.713,13.065,0.263,4,-0.037,0.154,-0.022,5,25.784,-46.918,13.971
704159.2555,3,-1.199,1.589,-3.58,,,,,,,,
704159.2754,3,-2.608,12.581,-6.549,,,,,,,,
704159.2952,3,-1.141,10.761,-0.33,4,-0.022,-0.163,-0.028,,,,
704159.3151,3,-0.514,6.276,-2.63,,,,,,,,
704159.3349,3,-0.404,11.021,-2.704,,,,,,,,
704159.3548,3,0.402,4.977,0.256,4,-0.025,-0.083,0.065,5,26.59,-46.96,16.298
704159.3747,3,-0.823,7.401,-3.931,,,,,,,,
704159.3945,3,0.727,13.335,1.699,,,,,,,,
704159.4144,3,0.167,7.683,-2.35,4,-0.017,0.128,0.045,,,,
704159.4343,3,-0.409,10.375,-3.539,,,,,,,,
704159.4542,3,0.677,9.715,0.986,,,,,,,,
704159.474,3,-0.079,1.333,-1.546,4,0.068,0.072,-0.023,5,26.932,-45.621,16.344
704159.4939,3,-0.873,22.387,-8.753,,,,,,,,
704159.5137,3,0.514,6.765,0.708,,,,,,,,
704159.5336,3,-0.048,8.66,-0.871,4,0.016,-0.067,0.01,5,29.807,-46.837,17.819
704159.5535,3,0.364,6.999,-3.606,,,,,,,,
704159.5733,3,-0.634,6.638,-4.209,,,,,,,,
704159.5932,3,-1.819,19.025,-7.719,4,0.077,-0.057,0.001,5,25.966,-44.974,17.737
704159.6131,3,0.263,-0.4,-0.002,,,,,,,,
704159.6329,3,0.938,17.365,-4.238,,,,,,,,
704159.6528,3,-1.28,10.131,-2.407,4,-0.066,0.086,0.043,5,25.327,-43.913,17.361
704159.6727,3,-1.433,7.358,-1.369,,,,,,,,
704159.6925,3,-1.007,4.376,-3.302,,,,,,,,
704159.7124,3,-0.22,18.42,-3.417,4,-0.013,-0.02,0.008,5,23.376,-43.285,17.055
704159.7323,3,-2.575,-4.307,-1.385,,,,,,,,
704159.7521,3,1.125,7.128,-4.673,,,,,,,,
704159.772,3,-1.053,26.969,-6.93,4,-0.004,-0.029,0.055,5,25.316,-43.568,15.562
704159.7919,3,-1.692,7.291,0.794,,,,,,,,
704159.8117,3,-1.519,8.155,0.964,,,,,,,,
704159.8316,3,0.893,6.731,0.043,4,-0.116,0.111,0.028,5,23.268,-44.284,14.88
704159.8515,3,-0.629,12.304,-3.015,,,,,,,,
704159.8713,3,2.194,20.317,1.383,,,,,,,,
704159.8912,3,-2.067,-4.606,0.565,4,0.033,0.002,-0.046,5,20.862,-43.921,15.306
704159.911,3,-1.402,12.835,-6.657,,,,,,,,
704159.9309,3,-3.017,8.863,-6.729,,,,,,,,
704159.9508,3,-3.374,7.925,-2.371,4,0.122,-0.059,-0.057,,,,
704159.9706,3,-1.472,9.444,-1.098,,,,,,,,
704159.9905,3,-0.541,10.004,-1.9,,,,,,,,
704160.0104,3,-1.905,15.182,-6.257,4,-0.041,-0.094,0.02,5,21.7,-44.655,14.677
704160.0303,3,-1.424,5.305,-0.749,,,,,,,,
704160.0501,3,0.668,4.441,1.371,,,,,,,,
704160.07,3,-1.515,3.532,-3.776,4,-0.022,0.014,0.039,5,21.407,-43.951,12.95
704160.0898,3,-1.685,19.607,-7.889,,,,,,,,
704160.1097,3,1.23,12.658,3.058,,,,,,,,
704160.1296,3,-0.514,2.357,1.168,4,-0.057,0.132,0.028,5,22.522,-45.77,14.204
704160.1494,3,-0.854,11.911,-6.925,,,,,,,,
704160.1693,3,-1.658,8.353,-4.915,,,,,,,,
704160.1892,3,-2.374,10.839,-4.609,4,0.09,-0.051,-0.036,5,22.302,-47.633,14.114
704160.209,3,0.385,15.302,0.263,,,,,,,,
704160.2289,3,-0.158,9.988,-3.946,,,,,,,,
704160.2487,3,-3.142,14.773,-6.982,4,-0.029,0.028,0.008,5,22.337,-47.253,14.063
704160.2686,3,-2.048,5.681,0.969,,,,,,,,
704160.2885,3,-1.141,8.617,-1.584,,,,,,,,
704160.3084,3,-0.625,17.587,-2.974,4,-0.096,-0.053,0.011,5,22.517,-49.998,16.852
704160.3282,3,1.639,9.94,-0.187,,,,,,,,
704160.3481,3,-2.079,3.515,-7.552,,,,,,,,
704160.368,3,-0.526,12.074,-6.707,4,0.062,-0.089,0.032,5,21.994,-49.353,15.427
704160.3878,3,-0.818,10.11,-2.855,,,,,,,,
704160.4077,3,-0.89,10.753,-2.807,,,,,,,,
704160.4275,3,1.175,10.105,-2.304,4,-0.033,0.02,0.08,5,25.215,-50.7,15.97
704160.4474,3,1.517,14.3,-0.639,,,,,,,,
704160.4673,3,0.424,7.176,-1.472,,,,,,,,
704160.4871,3,-1.048,9.04,-4.097,4,0.011,0.105,0.032,,,,
704160.507,3,-1.096,11.878,-5.965,,,,,,,,
704160.5269,3,-1.278,14.108,-3.948,,,,,,,,
704160.5467,3,2.314,16.709,2.307,4,-0.04,0.091,-0.023,5,24.583,-47.29,18.474
704160.5666,3,-0.926,-0.773,1.448,,,,,,,,
704160.5865,3,0.297,14.323,-5.013,,,,,,,,
704160.6058,3,-1.017,7.042,-2.422,4,0.027,0.021,-0.098,5,26.559,-48.523,18.484
704160.6262,3,-1.57,9.495,-5.221,,,,,,,,
704160.6461,3,0.333,11.935,0.665,,,,,,,,
704160.666,3,-1.299,1.864,-0.459,4,-0.024,0.037,-0.063,5,26.785,-46.207,19.202
704160.6858,3,-3.041,20.126,-10.507,,,,,,,,
704160.7057,3,-1.5,6.197,-1.622,,,,,,,,
704160.7256,3,-0.342,9.186,2.469,4,0.024,-0.108,-0.058,5,27.344,-44.952,18.518
704160.7454,3,1.694,9.784,0.51,,,,,,,,
704160.7653,3,0.361,5.499,-0.342,,,,,,,,
704160.7852,3,-3.285,13.034,-7.671,4,0.082,-0.156,-0.024,5,27.071,-43.535,19.342
704160.805,3,-1.364,3.994,-2.063,,,,,,,,
704160.8249,3,-0.443,11.935,-2.544,,,,,,,,
704160.8448,3,-0.349,18.879,-2.582,4,-0.008,-0.137,0.042,5,26.218,-44.203,17.934
704160.8646,3,-0.165,1.223,2.364,,,,,,,,
704160.8845,3,-1.299,7.36,-4.214,,,,,,,,
704160.9044,3,-1.706,13.51,-4.068,4,0.01,0.104,0.008,5,24.426,-44.308,17.741
704160.9242,3,-2.039,5.788,-2.158,,,,,,,,
704160.9441,3,0.033,14.891,-1.223,,,,,,,,
704160.9639,3,0.969,10.729,0.359,4,-0.051,0.008,0.015,5,25.473,-42.729,17.441
704160.9838,3,-1.254,8.456,-4.4,,,,,,,,
704161.0037,3,-1.866,6.757,-4.286,,,,,,,,
704161.0235,3,-1.39,8.112,-4.348,4,0.055,-0.071,-0.005,,,,
704161.0434,3,-0.464,9.567,-2.876,,,,,,,,
704161.0633,3,0.325,7.564,-0.246,,,,,,,,
704161.0831,3,-0.747,8.995,-3.355,4,-0.033,-0.075,0.092,5,24.654,-44.211,18.279
704161.103,3,-1.847,7.255,-6.26,,,,,,,,
704161.1229,3,0.098,19.365,-2.651,,,,,,,,
704161.1427,3,1.902,9.232,2.034,4,-0.052,-0.008,0.134,,,,
704161.1626,3,-0.713,3.41,0.246,,,,,,,,
704161.1825,3,1.914,7.186,0.134,,,,,,,,
704161.2023,3,0.871,10.026,-4.439,4,0.089,0.094,0.095,5,22.551,-42.924,17.009
704161.2222,3,-1.172,-3.094,-6.264,,,,,,,,
704161.2421,3,2.043,8.932,-8.83,,,,,,,,
704161.2619,3,-0.342,33.768,0.194,4,-0.087,0.213,0.083,5,23.505,-44.327,16.756
704161.2818,3,0.931,-0.9,9.681,,,,,,,,
704161.3017,3,1.247,-0.579,1.73,,,,,,,,
704161.3215,3,0.625,18.532,0.23,4,-0.14,0.165,-0.091,5,23.343,-43.018,16.168
704161.3414,3,-1.273,7.803,-3.271,,,,,,,,
704161.3612,3,4.482,12.541,8.468,,,,,,,,
704161.3811,3,-6.293,-3.958,-14.474,4,0.218,-0.325,-0.08,5,23.871,-43.173,15.414
704161.401,3,-1.249,34.557,-16.166,,,,,,,,
704161.4209,3,-2.06,-4.92,-1.44,,,,,,,,
704161.4407,3,1.965,18.674,4.996,4,-0.037,0.147,0.084,5,23.935,-44.611,16.33
704161.4606,3,3.266,3.415,6.635,,,,,,,,
704161.4805,3,0.412,11.763,-1.261,,,,,,,,
704161.5003,3,-0.342,4.991,0.234,4,-0.07,0.282,-0.018,5,21.968,-44.888,17.543
704161.5202,3,0.572,8.562,-3.525,,,,,,,,
704161.54,3,-1.962,23.163,-9.165,,,,,,,,
704161.5599,3,-1.61,0.723,-1.546,4,0.165,0.028,-0.133,,,,
704161.5798,3,-1.665,2.996,-4.874,,,,,,,,
704161.5996,3,-2.953,21.6,-4.037,,,,,,,,
704161.6195,3,-1.828,0.041,2.637,4,-0.116,-0.097,-0.087,5,22.769,-45.242,15.75
704161.6394,3,-1.914,15.094,-0.77,,,,,,,,
704161.6592,3,0.323,6.276,1.507,,,,,,,,
704161.6791,3,-1.708,11.414,-4.551,4,-0.039,-0.114,-0.019,,,,
704161.699,3,-2.352,9.772,-4.269,,,,,,,,
704161.7188,3,-0.703,1.043,1.675,,,,,,,,
704161.7387,3,-1.85,17.726,-5.559,4,0.025,-0.045,0.002,5,22.614,-44.014,15.9
704161.7586,3,-0.555,10.138,0.462,,,,,,,,
704161.7784,3,0.05,6.851,-1.845,,,,,,,,
704161.7983,3,0.148,7.387,-2.835,4,0.033,-0.15,0.014,5,23.18,-44.04,13.673
704161.8182,3,0.402,7.942,-3.635,,,,,,,,
704161.838,3,-0.392,9.112,-2.883,,,,,,,,
704161.8579,3,0.388,14.173,-0.847,4,0.025,0.06,0.018,5,22.678,-42.92,16.183
704161.8777,3,-0.029,3.666,-0.83,,,,,,,,
704161.8976,3,-0.278,14.13,-3.63,,,,,,,,
704161.9175,3,-1.821,2.725,-1.397,4,0.035,0.132,-0.082,5,22.418,-44.594,15.32
704161.9373,3,-1.5,7.018,-3.068,,,,,,,,
704161.9572,3,-0.89,11.387,-4.455,,,,,,,,
704161.9771,3,-1.766,15.529,-2.524,4,0.016,-0.061,-0.071,5,23.584,-44.186,14.833
704161.997,3,-2.216,0.306,-2.728,,,,,,,,
704162.0168,3,-1.938,8.923,-4.032,,,,,,,,
704162.0367,3,0.474,18.389,-1.759,4,-0.088,-0.145,0.032,5,23.894,-43.794,13.58
704162.0565,3,1.354,3.943,4.264,,,,,,,,
704162.0764,3,1.89,10.347,-0.493,,,,,,,,
704162.0963,3,-1.431,1.158,-3.924,4,-0.017,-0.11,0.058,5,22.145,-44.447,14.2
704162.1161,3,-3.211,18.339,-12.811,,,,,,,,
704162.136,3,0.684,12.986,1.673,,,,,,,,
704162.1559,3,1.852,-1.074,1.919,4,-0.005,-0.067,0.102,5,23.303,-44.762,16
704162.1757,3,1.445,13.608,-7.702,,,,,,,,
704162.1956,3,0.885,3.015,-1.455,,,,,,,,
704162.2155,3,0.366,10.579,-3.759,4,0.069,0.078,0.092,,,,
704162.2353,3,1.385,12.258,0.189,,,,,,,,
704162.2552,3,0.366,5.616,-3.029,,,,,,,,
704162.2751,3,-1.115,10.122,-7.36,4,0.044,0.173,-0.001,5,21.938,-44.107,13.548
704162.2949,3,0.754,13.692,-0.567,,,,,,,,
704162.3148,3,-2.465,-2.742,-0.694,,,,,,,,
704162.3347,3,0.086,18.36,-5.286,4,-0.015,0.018,-0.054,5,24.493,-44.191,15.677
704162.3545,3,-0.129,6.937,-0.835,,,,,,,,
704162.3744,3,-0.452,10.899,-0.577,,,,,,,,
704162.3943,3,0.045,8.262,-1.921,4,-0.07,-0.063,-0.011,5,23.157,-45.192,15.268
704162.4141,3,-0.163,7.683,-3.697,,,,,,,,
704162.434,3,-1.218,19.506,-9.031,,,,,,,,
704162.4539,3,0.139,7.018,1.835,4,-0.004,-0.022,0.004,5,24.368,-42.827,14.883
704162.4737,3,0.227,-1.539,0.794,,,,,,,,
704162.4936,3,-0.055,16.807,-6.733,,,,,,,,
704162.5135,3,-0.223,14.646,-3.348,4,0.01,0.104,-0.055,5,23.697,-43.282,15.361
704162.5333,3,-1.022,7.104,-1.764,,,,,,,,
704162.5532,3,-1.05,11.998,-0.065,,,,,,,,
704162.5731,3,-0.993,6.307,-2.23,4,-0.063,0.04,-0.092,,,,
704162.593,3,-1.237,8.87,-2.733,,,,,,,,
704162.6128,3,-0.55,11.512,-1.682,,,,,,,,
704162.6327,3,-2.661,6.674,-4.403,4,0.036,-0.19,-0.133,5,23.293,-45.183,14.98
704162.6525,3,-1.854,12.61,-3.594,,,,,,,,
704162.6724,3,-0.234,9.301,-1.213,,,,,,,,
704162.6923,3,0.792,12.818,0.459,4,-0.046,-0.208,-0.009,5,26.23,-45.306,14.798
704162.7121,3,-2.484,2.819,-1.208,,,,,,,,
704162.732,3,-2.005,10.27,-5.346,,,,,,,,
704162.7519,3,-1.464,13.096,-3.336,4,0.071,-0.077,-0.003,,,,
704162.7717,3,-0.538,3.273,-0.792,,,,,,,,
704162.7916,3,0.629,10.239,-1.67,,,,,,,,
704162.8114,3,-0.826,7.135,-3.321,4,0.001,0.024,0.017,5,25.301,-42.894,13.382
704162.8313,3,-2.383,14.438,-8.382,,,,,,,,
704162.8512,3,0.713,9.657,2.12,,,,,,,,
704162.8711,3,-0.742,-3.125,-0.498,4,-0.028,-0.061,0.016,,,,
704162.8909,3,0.952,17.616,-5.049,,,,,,,,
704162.9108,3,-0.268,7.738,0.491,,,,,,,,
704162.9307,3,-0.902,8.782,-4.211,4,0.051,-0.129,0.01,5,24.185,-44.774,14.11
704162.9505,3,0.177,10.193,-2.194,,,,,,,,
704162.9704,3,0.857,16.3,-1.981,,,,,,,,
704162.9902,3,-0.696,8.298,-3.257,4,-0.013,-0.092,0.061,5,23.589,-43.893,13.673
704163.0101,3,1.756,3.532,1.878,,,,,,,,
704163.03,3,-1.163,4.857,-6.286,,,,,,,,
704163.0498,3,-0.519,21.016,-9.454,4,0.084,-0.067,0.035,5,25.116,-44.798,13.486
704163.0697,3,1.311,9.263,0.44,,,,,,,,
704163.0896,3,0.34,3.618,1.527,,,,,,,,
704163.1094,3,-0.5,11.096,-4.106,4,-0.106,0,0.065,5,24.53,-45.445,13.481
704163.1293,3,-0.361,8.71,-3.386,,,,,,,,
704163.1492,3,-1.503,22.461,-7.537,,,,,,,,
704163.169,3,0.28,4.154,2.419,4,0.019,-0.049,0.043,5,23.969,-44.589,12.944
704163.1889,3,0.842,2.948,-1.295,,,,,,,,
704163.2088,3,0.617,20.731,-7.803,,,,,,,,
704163.2286,3,0.024,8.626,0.392,4,0.069,-0.003,0.026,5,23.959,-45.023,13.425
704163.2485,3,-0.696,0.096,-1.943,,,,,,,,
704163.2684,3,0.969,20.569,-4.656,,,,,,,,
704163.2882,3,-2.498,6.236,-4.52,4,0.021,-0.058,0.061,,,,
704163.3081,3,1.144,9.937,-4.86,,,,,,,,
704163.3279,3,-0.371,3.886,1.773,,,,,,,,
704163.3478,3,-0.596,9.148,-6.032,4,0.018,-0.031,0.089,5,22.383,-43.921,14.543
704163.3677,3,-0.948,17.401,-5.456,,,,,,,,
704163.3875,3,2.07,-3.034,3.986,,,,,,,,
704163.4074,3,0.134,14.032,-5.042,4,-0.004,0.086,0.107,,,,
704163.4273,3,-1.388,14.936,-2.914,,,,,,,,
704163.4472,3,-1.984,7.607,-1.641,,,,,,,,
704163.467,3,-1.438,6.542,2.505,4,-0.054,0.118,0.051,5,23.659,-44.699,14.162
704163.4869,3,0.462,1.651,1.46,,,,,,,,
704163.5068,3,-0.469,16.862,-4.42,,,,,,,,
704163.5266,3,-0.445,10.426,-2.225,4,0.025,-0.019,0.021,5,23.801,-44.122,13.911
704163.5465,3,-1.007,5.654,-3.924,,,,,,,,
704163.5663,3,-2.113,16.589,-3.156,,,,,,,,
704163.5862,3,-2.855,2.644,-1.606,4,-0.035,0.074,0.027,5,23.288,-45.042,14.835
704163.6061,3,-0.333,7.662,0.359,,,,,,,,
704163.6259,3,-0.364,9.72,0.474,,,,,,,,
704163.6458,3,0.335,13.838,-0.818,4,-0.037,0.024,-0.001,5,22.934,-45.576,14.835
704163.6657,3,-1.263,13.44,-1.172,,,,,,,,
704163.6855,3,-3.314,7.81,-3.57,,,,,,,,
704163.7054,3,-1.527,8.085,-5.152,4,0.12,-0.003,-0.04,5,22.675,-44.679,15.646
704163.7253,3,-1.914,2.685,-3.446,,,,,,,,
704163.7451,3,-1.043,7.446,-5.006,,,,,,,,
704163.765,3,-0.026,20.55,-5.334,4,0.026,-0.009,0.053,,,,
704163.7849,3,0.258,5.116,0.522,,,,,,,,
704163.8047,3,-0.242,-0.481,-1.74,,,,,,,,
704163.8246,3,0.187,7.6,-6.858,4,-0.019,0.12,0.043,5,22.049,-44.926,13.524
704163.8445,3,-0.976,15.678,-5.451,,,,,,,,
704163.8643,3,1.015,11.227,3.659,,,,,,,,
704163.8842,3,3.628,8.081,2.156,4,-0.119,0.115,0.004,5,22.409,-44.582,13.629
704163.904,3,-1.479,10.385,-8.033,,,,,,,,
704163.9239,3,0.266,10.536,-1.263,,,,,,,,
704163.9438,3,0.9,7.434,2.316,4,0.058,-0.048,-0.095,,,,
704163.9636,3,-0.39,14.472,-3.955,,,,,,,,
704163.9835,3,-0.096,9.801,-6.815,,,,,,,,
704164.0034,3,-1.809,11.268,-6.238,4,0.041,-0.055,-0.045,5,22.374,-44.214,14.246
704164.0233,3,-0.457,0.603,-0.694,,,,,,,,
704164.0431,3,-1.184,9.411,-3.86,,,,,,,,
704164.063,3,-1.228,18.76,-4.558,4,-0.1,0.007,0.012,5,23.203,-44.943,14.308
704164.0829,3,2.07,14.742,1.73,,,,,,,,
704164.1027,3,-1.51,5.939,-0.206,,,,,,,,
704164.1226,3,-0.402,10.222,-1.309,4,-0.066,0.111,-0.023,5,22.032,-45.599,14.296
704164.1425,3,-3.73,7.884,-7.949,,,,,,,,
704164.1623,3,-0.045,21.894,-0.914,,,,,,,,
704164.1822,3,1.668,5.972,3.711,4,0.004,-0.046,-0.035,5,22.777,-44.489,14.107
704164.2021,3,1.115,7.107,-0.816,,,,,,,,
704164.2219,3,-0.33,13.484,-7.686,,,,,,,,
704164.2418,3,-2.615,7.217,-5.769,4,0.132,-0.069,-0.057,5,23.544,-44.324,15.308
704164.2616,3,0.079,9.205,-4.018,,,,,,,,
704164.2815,3,0.036,15.072,0.703,,,,,,,,
704164.3014,3,0.151,4.341,-1.852,4,-0.025,-0.147,0.024,,,,
704164.3213,3,-1.694,11.064,-6.846,,,,,,,,
704164.3411,3,0.23,14.034,-0.522,,,,,,,,
704164.361,3,-0.904,3.867,-2.369,4,0.056,-0.091,0.045,5,23.196,-43.475,13.962
704164.3809,3,0.218,14.278,-0.548,,,,,,,,
704164.4007,3,1.668,8.578,1.024,,,,,,,,
704164.4206,3,-1.146,3.103,-5.661,4,0.07,0.025,0.066,5,22.643,-44.345,15.222
704164.4404,3,0.002,14.797,-5.274,,,,,,,,
704164.4603,3,-0.5,14.905,-3.005,,,,,,,,
704164.4802,3,-0.282,9.282,1.015,4,-0.006,0.026,0.041,,,,
704164.5,3,1.376,-0.122,2.438,,,,,,,,
704164.5199,3,-1.086,3.08,-6.465,,,,,,,,
704164.5398,3,-2.285,21.169,-10.725,4,0.109,0.072,-0.024,5,23.112,-45.045,15.031
704164.5597,3,-0.486,-2.005,2.115,,,,,,,,
704164.5795,3,-1.043,9.114,-3.348,,,,,,,,
704164.5994,3,-2.926,16.802,-6.221,4,-0.098,0.085,-0.012,5,22.603,-45.77,14.835
704164.6192,3,-0.421,3.817,2.027,,,,,,,,
704164.6391,3,1.058,3.625,2.101,,,,,,,,
704164.659,3,1.091,6.803,0.907,4,-0.173,-0.062,-0.002,5,23.27,-44.705,15.372
704164.6788,3,0.175,21.557,-5.709,,,,,,,,
704164.6987,3,-0.361,11.536,0.304,,,,,,,,
704164.7186,3,0.792,0.318,1.07,4,0.036,-0.139,0.012,5,24.338,-43.924,14.45
704164.7384,3,-1.716,2.472,-6.698,,,,,,,,
704164.7583,3,-1.417,17.671,-9.562,,,,,,,,
704164.7782,3,-0.242,8.932,0.711,4,0.058,-0.007,0.032,5,22.231,-45.064,13.53
704164.798,3,3.12,13.357,1.189,,,,,,,,
704164.8179,3,0.036,4.659,-2.486,,,,,,,,
704164.8377,3,-2.204,11.052,-7.458,4,-0.056,0.092,0.001,5,22.06,-44.403,14.786
704164.8576,3,-1.749,8.774,-3.314,,,,,,,,
704164.8775,3,-0.321,10.533,2.252,,,,,,,,
704164.8974,3,0.414,6.202,-3.537,4,-0.059,-0.051,-0.014,5,22.858,-44.328,13.38
704164.9172,3,-1.062,14.393,-4.836,,,,,,,,
704164.9371,3,0.163,9.105,-3.015,,,,,,,,
704164.9569,3,-0.651,11.837,-0.763,4,-0.039,-0.095,0.039,,,,
704164.9768,3,-0.909,12.062,-3.714,,,,,,,,
704164.9967,3,-1.01,7.695,-2.357,,,,,,,,
704165.0165,3,0.043,12.026,-3.441,4,-0.02,-0.051,0.076,5,22.362,-44.781,12.798
704165.0364,3,2.115,4.656,3.204,,,,,,,,
704165.0563,3,-0.201,10.062,-5.322,,,,,,,,
704165.0761,3,-0.33,16.7,-4.439,4,0.021,0.055,0.054,5,20.29,-45.197,10.213
704165.096,3,-0.218,10.631,-1.223,,,,,,,,
704165.1159,3,0.309,7.054,0.491,,,,,,,,
704165.1358,3,-0.613,7.109,-1.864,4,-0.019,0.129,0.001,,,,
704165.1556,3,-1.362,13.041,-3.4,,,,,,,,
704165.1755,3,-1.723,10.248,-4.676,,,,,,,,
704165.1953,3,-1.9,11.799,-1.976,4,0.07,0.028,-0.068,5,21.819,-45.074,13.82
704165.2152,3,-1.972,6.54,-3.285,,,,,,,,
704165.2351,3,-2.075,12.038,-2.393,,,,,,,,
704165.2549,3,-2.18,7.368,-2.898,4,-0.031,-0.048,-0.032,5,21.088,-45.094,14.105
704165.2748,3,-0.849,5.891,-0.837,,,,,,,,
704165.2947,3,-2.271,17.788,-3.8,,,,,,,,
704165.3145,3,-2.087,10.263,0.828,4,-0.03,-0.122,0.046,5,22.638,-44.392,12.038
704165.3344,3,-1.053,4.731,-0.421,,,,,,,,
704165.3542,3,0.73,8.99,-1.759,,,,,,,,
704165.3741,3,1.819,7.868,-4.893,4,0.115,-0.049,0.078,5,23.097,-47.91,15.138
704165.394,3,-0.368,5.76,-4.877,,,,,,,,
704165.4139,3,1.184,14.522,-1.034,,,,,,,,
704165.4337,3,0.952,4.338,-1.938,4,0.06,0.27,0.019,5,22.243,-46.213,14.786
704165.4536,3,-2.192,10.49,-6.193,,,,,,,,
704165.4735,3,-0.368,1.247,1.639,,,,,,,,
704165.4933,3,1.706,12.94,2.247,4,-0.021,0.143,-0.11,,,,
704165.5132,3,0.017,8.2,-0.718,,,,,,,,
704165.533,3,-1.259,4.235,-0.541,,,,,,,,
704165.5529,3,-1.972,13.988,-5.602,4,0.039,-0.185,-0.106,5,22.8,-45.242,13.185
704165.5728,3,-2.644,5.98,-2.362,,,,,,,,
704165.5926,3,-2.426,13.467,-1.965,,,,,,,,
704165.6125,3,-1.637,9.576,-1.546,4,-0.062,-0.185,0.039,5,23.079,-46.655,12.66
704165.6324,3,0.282,1.905,0.486,,,,,,,,
704165.6522,3,1.199,10.438,-3.45,,,,,,,,
704165.6721,3,-0.885,12.234,-6.47,4,0.008,-0.033,0.096,,,,
704165.692,3,0.211,17.87,-1.622,,,,,,,,
704165.7118,3,1.452,8.404,0.407,,,,,,,,
704165.7317,3,-0.603,8.136,-5.161,4,-0.01,0.052,0.08,5,23.254,-46.761,14.073
704165.7516,3,-0.057,9.229,-5.573,,,,,,,,
704165.7714,3,2.223,8.167,-0.94,,,,,,,,
704165.7913,3,2.678,19.037,-2.835,4,0.092,0.085,0.005,5,24.051,-47.017,14.262
704165.8112,3,1.283,2.481,-2.063,,,,,,,,
704165.8311,3,-1.933,12.474,-9.751,,,,,,,,
704165.8509,3,-3.551,8.858,-5.752,4,0.097,0.18,-0.059,5,23.375,-45.129,14.835
704165.8708,3,-1.199,11.622,-0.34,,,,,,,,
704165.8906,3,-2.304,8.557,-1.524,,,,,,,,
704165.9105,3,1.847,14.048,-1.015,4,-0.069,-0.055,-0.03,5,23.236,-47.182,14.833
704165.9304,3,0.438,8.731,-3.45,,,,,,,,
704165.9502,3,-0.146,5.542,-0.625,,,,,,,,
704165.9701,3,-1.347,9.098,-4.644,4,0.048,-0.039,0.001,5,23.524,-46.173,14.838
704165.99,3,-2.914,15.281,-5.453,,,,,,,,
704166.0099,3,0.258,9.626,-0.364,,,,,,,,
704166.0297,3,2.852,3.697,3.285,4,-0.077,-0.005,0.069,,,,
704166.0496,3,1.563,15.178,-2.701,,,,,,,,
704166.0694,3,-0.644,8.607,-0.759,,,,,,,,
704166.0893,3,-1.22,7.119,-2.493,4,-0.041,0.051,-0.021,5,22.896,-44.71,16.006
704166.1092,3,-1.433,10.428,-2.778,,,,,,,,
704166.129,3,0.038,13.864,-0.548,,,,,,,,
704166.1489,3,-0.371,7.492,0.646,4,-0.168,0.026,-0.025,,,,
704166.1688,3,-0.847,9.794,0.957,,,,,,,,
704166.1886,3,-0.833,1.926,0.45,,,,,,,,
704166.2085,3,-0.625,15.824,-2.692,4,-0.132,-0.033,-0.087,5,23.93,-46.304,14.262
704166.2283,3,-0.751,6.891,1.761,,,,,,,,
704166.2482,3,0.534,7.298,1.467,,,,,,,,
704166.2681,3,-3.271,10.363,-4.47,4,-0.061,-0.159,-0.048,5,24.579,-46.19,14.114
704166.288,3,-2.355,17.587,-5.628,,,,,,,,
704166.3078,3,-3.144,7.339,-5.958,,,,,,,,
704166.3277,3,1.149,14.96,-1.869,4,0.044,-0.215,0.041,5,24.414,-47.702,13.501
704166.3476,3,1.646,3.527,2.4,,,,,,,,
704166.3674,3,0.854,13.278,-1.46,,,,,,,,
704166.3873,3,-1.335,14.402,-3.163,4,0.062,0.003,0.142,5,22.597,-46.344,15.421
704166.4072,3,-2.649,7.344,-2.998,,,,,,,,
704166.427,3,-2.656,17.125,-5.219,,,,,,,,
704166.4469,3,1.531,1.472,2.266,4,0.101,0.144,0.178,5,22.591,-46.535,14.502
704166.4667,3,1.316,9.851,-1.091,,,,,,,,
704166.4866,3,1.653,15.977,-2.132,,,,,,,,
704166.5065,3,-1.637,-0.962,-1.567,4,0.059,0.176,0.076,5,21.465,-45.412,14.502
704166.5263,3,0.349,20.636,-5.539,,,,,,,,
704166.5462,3,-0.077,10.248,-0.909,,,,,,,,
704166.5661,3,-0.349,0.51,0.718,4,0.015,0.142,0.013,,,,
704166.586,3,0.586,9.55,-4.549,,,,,,,,
704166.6058,3,0.854,13.385,-4.295,,,,,,,,
704166.6257,3,-2.307,9.902,-3.46,4,0.017,0.292,-0.039,5,21.089,-46.335,15.37
704166.6455,3,0.148,8.217,1.639,,,,,,,,
704166.6654,3,0.065,6.54,0.467,,,,,,,,
704166.6853,3,-2.926,12.101,-3.656,4,0.006,0.246,-0.109,,,,
704166.7051,3,-2.134,6.236,-1.417,,,,,,,,
704166.725,3,-0.505,7.052,-0.761,,,,,,,,
704166.7449,3,-0.132,14.474,-6.25,4,-0.045,-0.042,-0.119,5,22.267,-45.45,16.672
704166.7647,3,0.036,11.842,-2.706,,,,,,,,
704166.7846,3,0.739,5.87,-0.455,,,,,,,,
704166.8044,3,2.434,8.095,-0.981,4,-0.064,-0.112,-0.075,5,22.623,-45.099,12.747
704166.8243,3,2.364,12.17,-2.276,,,,,,,,
704166.8442,3,-1.783,10.94,-4.589,,,,,,,,
704166.8641,3,-2.501,6.666,-3.383,4,-0.021,0.08,-0.162,,,,
704166.8839,3,0.646,9.208,1.342,,,,,,,,
704166.9038,3,-1.261,7.478,-1.902,,,,,,,,
704166.9237,3,-1.45,10.557,-0.802,4,-0.118,-0.198,-0.14,5,23.061,-46.004,14.836
704166.9435,3,0.388,11.189,-0.23,,,,,,,,
704166.9634,3,-2.271,11.143,-7.135,,,,,,,,
704166.9832,3,-1.457,4.099,-3.068,4,0.019,-0.426,-0.057,5,21.954,-45.216,13.67
704167.0031,3,-0.708,10.502,-3.994,,,,,,,,
704167.023,3,0.27,11.139,-1.692,,,,,,,,
704167.0428,3,1.096,10.174,2.886,4,-0.07,-0.244,0.133,5,20.067,-43.774,10.834
704167.0627,3,-0.349,4.987,-0.634,,,,,,,,
704167.0826,3,-0.727,15.75,-3.283,,,,,,,,
704167.1024,3,1.802,14.534,1.043,4,0.064,0.061,0.096,5,23.567,-44.316,12.75
704167.1223,3,-0.677,-1.551,-0.151,,,,,,,,
704167.1422,3,-0.567,13.634,-4.455,,,,,,,,
704167.162,3,-0.988,17.609,-3.872,4,0.091,-0.039,0.059,5,22.783,-44.339,14.133
704167.1819,3,-0.56,4.747,-3.881,,,,,,,,
704167.2018,3,-0.579,19.724,-3.525,,,,,,,,
704167.2216,3,-0.768,3.501,2.477,4,0.009,0.098,0.067,,,,
704167.2415,3,-1.366,6.312,-2.01,,,,,,,,
704167.2614,3,-1.543,15.907,-5.238,,,,,,,,
704167.2812,3,0.897,11.754,1.091,4,0.033,0,0.054,5,23.52,-45.03,12.181
704167.3011,3,0.029,-0.263,0.127,,,,,,,,
704167.321,3,-1.419,18.867,-5.448,,,,,,,,
704167.3408,3,0.668,9.909,1.235,4,0.054,-0.165,0.119,5,22.685,-44.388,11.981
704167.3607,3,-1.105,7.04,-4.685,,,,,,,,
704167.3805,3,1.438,10.734,-3.072,,,,,,,,
704167.4004,3,3.494,9.672,-1.146,4,0.022,0.084,0.149,5,22.729,-46.193,13.242
704167.4203,3,-0.242,6.669,-3.529,,,,,,,,
704167.4402,3,-0.66,18.966,-2.232,,,,,,,,
704167.46,3,0.768,5.058,2.467,4,-0.044,0.538,0.054,5,22.612,-45.483,11.931
704167.4799,3,-0.971,5.353,-0.151,,,,,,,,
704167.4998,3,-1.823,19.513,-4.69,,,,,,,,
704167.5196,3,-1.842,7.449,-1.845,4,-0.012,0.215,-0.108,5,21.953,-45.264,13.184
704167.5395,3,-2.472,6.157,-2.498,,,,,,,,
704167.5594,3,-0.199,15.501,-1.515,,,,,,,,
704167.5792,3,-0.127,7.346,-0.543,4,-0.05,-0.16,-0.055,5,21.306,-44.383,11.201
704167.5991,3,-0.553,9.662,-2.575,,,,,,,,
704167.619,3,-0.378,9.337,-1.251,,,,,,,,
704167.6388,3,-0.395,18.899,-1.893,4,0.032,-0.053,-0.047,5,22.409,-46.669,11.934
704167.6587,3,1.189,8.176,0.01,,,,,,,,
704167.6785,3,1.44,4.125,-0.201,,,,,,,,
704167.6984,3,2.35,14.52,-3.297,4,0.061,-0.16,-0.019,5,22.975,-46.848,12.276
704167.7183,3,-1.206,9.48,-3.97,,,,,,,,
704167.7382,3,-0.455,10.837,-4.032,,,,,,,,
704167.758,3,-0.625,8.597,-1.342,4,0.048,-0.007,-0.052,,,,
704167.7779,3,-2.723,11.45,-3.142,,,,,,,,
704167.7978,3,-1.177,12.457,-1.12,,,,,,,,
704167.8176,3,-1.163,10.172,-5.255,4,0.003,0.073,-0.032,5,22.519,-47.821,14.07
704167.8375,3,-0.95,5.877,3.623,,,,,,,,
704167.8574,3,-1.498,9.04,-0.696,,,,,,,,
704167.8772,3,-1.842,11.983,-2.634,4,0.027,-0.092,0.006,,,,
704167.8971,3,-1.531,3.965,-1.407,,,,,,,,
704167.9169,3,1.015,14.484,-3.594,,,,,,,,
704167.9368,3,2.615,9.98,-1.058,4,0.046,-0.182,0.064,5,23.276,-45.984,12.907
704167.9567,3,0.866,10.253,-2.278,,,,,,,,
704167.9765,3,-0.378,8.672,0.115,,,,,,,,
704167.9964,3,-0.105,-4.07,-3.508,4,0.054,0.038,0.038,5,22.61,-45.63,12.643
704168.0163,3,1.347,25.019,-6.619,,,,,,,,
704168.0362,3,-0.962,11.39,-3.388,,,,,,,,
704168.056,3,-0.187,9.87,0.593,4,0.008,0.074,0.021,5,22.53,-45.255,13.683
704168.0759,3,2.213,-4.781,4.542,,,,,,,,
704168.0957,3,0.213,10.074,-1.531,,,,,,,,
704168.1156,3,-1.524,25.685,-4.391,4,-0.072,0.037,0.015,5,22.519,-45.86,13.034
704168.1355,3,-0.95,4.116,1.429,,,,,,,,
704168.1553,3,0.845,8.71,2.12,,,,,,,,
704168.1752,3,3.917,3.599,6.712,4,-0.248,-0.066,0.051,5,21.664,-46.219,12.082
704168.1951,3,-0.012,22.981,-4.436,,,,,,,,
704168.2149,3,-0.189,6.853,-0.467,,,,,,,,
704168.2348,3,-0.711,4.183,-1.833,4,-0.085,0.146,0.013,5,21.912,-46.982,12.164
704168.2546,3,-0.615,10.77,-3.824,,,,,,,,
704168.2745,3,0.971,1.378,3.276,,,,,,,,
704168.2944,3,0.337,9.83,-4.633,4,-0.03,0.285,-0.084,,,,
704168.3143,3,-2.824,12.636,-8.439,,,,,,,,
704168.3341,3,-1.098,12.38,0.703,,,,,,,,
704168.354,3,-0.313,12.732,-0.893,4,0.023,-0.035,-0.155,5,21.638,-47.078,13.684
704168.3739,3,-1.062,-0.005,3.74,,,,,,,,
704168.3931,3,-3.02,14.283,-0.72,,,,,,,,
704168.4136,3,-1.773,13.168,-3.283,4,0.054,-0.451,-0.095,,,,
704168.4334,3,-0.639,10.83,-2.022,,,,,,,,
704168.4533,3,-0.156,0.378,-3.149,,,,,,,,
704168.4732,3,1.297,23.426,-2.831,4,0.049,-0.393,0.097,5,22.926,-47.461,13.052
704168.493,3,2.022,5.307,2.773,,,,,,,,
704168.5129,3,2.792,11.897,2.307,,,,,,,,
704168.5328,3,2.852,4.384,1.854,4,-0.139,0.421,0.125,5,22.563,-47.713,12.663
704168.5526,3,-0.601,14.642,-3.309,,,,,,,,
704168.5725,3,-4.082,8.327,-1.895,,,,,,,,
704168.5924,3,-2.697,9.43,-2.752,4,-0.002,0.268,-0.074,5,22.621,-45.061,13.379
704168.6122,3,-1.364,8.633,-1.976,,,,,,,,
704168.6321,3,-0.739,15.891,1.512,,,,,,,,
704168.652,3,2.807,3.606,4.752,4,-0.191,-0.355,0.04,5,21.935,-45.969,12.122
704168.6718,3,2.687,8.935,-0.036,,,,,,,,
704168.6917,3,0.541,15.171,-1.737,,,,,,,,
704168.7116,3,-0.397,7.15,-3.663,4,0.077,-0.054,0.003,5,22.617,-45.389,12.657
704168.7314,3,-1.716,9.011,-5.154,,,,,,,,
