703966.7103,3,1.192,9.495,-2.692,,,,,5,-31.268,-38.53,16.905
703966.7302,3,1.192,9.495,-2.692,,,,,,,,
703966.7501,3,1.338,9.466,-2.809,4,0.002,-0.022,0.025,5,-28.613,-37.761,20.158
703966.7699,3,1.287,9.507,-2.795,,,,,,,,
703966.7898,3,1.228,9.492,-2.742,,,,,,,,
703966.8096,3,1.242,9.509,-2.682,4,0,0.002,0.004,,,,
703966.8295,3,1.251,9.523,-2.682,,,,,,,,
703966.8494,3,1.144,9.523,-2.654,,,,,,,,
703966.8693,3,1.065,9.514,-2.584,4,0,0.003,0.004,5,-28.293,-39.18,20.886
703966.8891,3,1.027,9.547,-2.572,,,,,,,,
703966.909,3,1.053,9.533,-2.603,,,,,,,,
703966.9289,3,1.072,9.507,-2.606,4,0.002,0,0.014,5,-27.283,-37.73,21.268
703966.9487,3,1.077,9.521,-2.62,,,,,,,,
703966.9686,3,1.06,9.523,-2.68,,,,,,,,
703966.9885,3,1.113,9.497,-2.651,4,0.004,-0.001,0.024,,,,
703967.0083,3,1.201,9.485,-2.613,,,,,,,,
703967.0282,3,1.196,9.5,-2.663,,,,,,,,
703967.048,3,1.206,9.478,-2.709,4,0.007,0.004,0.033,5,-28.6,-38.246,21.756
703967.0679,3,1.182,9.5,-2.735,,,,,,,,
703967.0878,3,1.172,9.485,-2.735,,,,,,,,
703967.1076,3,1.244,9.488,-2.718,4,0.009,0.013,0.039,5,-28.302,-37.624,21.4
703967.1275,3,1.295,9.468,-2.713,,,,,,,,
703967.1474,3,1.304,9.468,-2.687,,,,,,,,
703967.1673,3,1.33,9.495,-2.8,4,0.009,0.008,0.043,5,-27.432,-38.028,20.74
703967.1871,3,1.314,9.476,-2.797,,,,,,,,
703967.207,3,1.342,9.454,-2.67,,,,,,,,
703967.2269,3,1.431,9.464,-2.68,4,0.009,0.016,0.044,5,-28.595,-38.661,21.362
703967.2467,3,1.472,9.504,-2.747,,,,,,,,
703967.2666,3,1.407,9.511,-2.697,,,,,,,,
703967.2864,3,1.266,9.473,-2.603,4,0.011,0.022,0.042,5,-26.337,-39.569,22.74
703967.3063,3,1.247,9.514,-2.666,,,,,,,,
703967.3262,3,1.316,9.504,-2.627,,,,,,,,
703967.346,3,1.28,9.526,-2.716,4,0.012,0.023,0.047,,,,
703967.3659,3,1.311,9.44,-2.776,,,,,,,,
703967.3858,3,1.493,9.444,-2.809,,,,,,,,
703967.4056,3,1.732,9.392,-2.919,4,0.007,0,0.051,5,-28.558,-36.575,20.055
703967.4255,3,1.819,9.416,-3.194,,,,,,,,
703967.4454,3,1.797,9.373,-2.886,,,,,,,,
703967.4652,3,1.517,9.471,-2.709,4,0.007,0.028,0.038,5,-29.243,-37.724,19.914
703967.4851,3,1.531,9.437,-2.656,,,,,,,,
703967.505,3,1.768,9.54,-2.51,,,,,,,,
703967.5248,3,1.639,9.557,-2.532,4,0.007,0.022,0.028,5,-28.691,-37.051,20.68
703967.5447,3,1.603,9.471,-2.666,,,,,,,,
703967.5646,3,1.692,9.437,-2.649,,,,,,,,
703967.5844,3,1.563,9.514,-2.575,4,0.004,-0.005,0.017,5,-28.877,-37.389,21.263
703967.6043,3,1.711,9.433,-2.804,,,,,,,,
703967.6242,3,1.68,9.346,-2.888,,,,,,,,
703967.644,3,1.67,9.43,-3.237,4,-0.001,-0.035,0.009,5,-29.732,-37.791,21.794
703967.6639,3,1.945,9.27,-3.448,,,,,,,,
703967.6838,3,2.127,9.299,-3.23,,,,,,,,
703967.7036,3,2.043,9.368,-3.259,4,-0.009,-0.038,-0.01,5,-29.301,-39.906,20.543
703967.7235,3,1.816,9.325,-3.228,,,,,,,,
703967.7434,3,1.467,9.399,-3.142,,,,,,,,
703967.7632,3,1.029,9.492,-3.123,4,-0.011,0.013,-0.043,5,-29.617,-38.841,21.614
703967.7831,3,0.857,9.401,-2.855,,,,,,,,
703967.803,3,5.405,7.877,-10.409,,,,,,,,
703967.8229,3,-1.137,10.024,1.07,4,-0.05,0.031,-0.045,5,-28.574,-37.764,21.991
703967.8427,3,1.299,9.464,-1.96,,,,,,,,
703967.8626,3,1.45,9.002,-4.805,,,,,,,,
703967.8825,3,0.646,9.593,-3.106,4,-0.006,-0.169,-0.027,,,,
703967.9023,3,1.225,9.334,-1.972,,,,,,,,
703967.9222,3,1.852,9.533,-2.821,,,,,,,,
703967.942,3,1.931,9.497,-3.771,4,-0.02,-0.216,-0.009,5,-27.809,-37.079,22.63
703967.9619,3,1.165,9.306,-3.328,,,,,,,,
703967.9818,3,0.244,9.215,-3.013,,,,,,,,
703968.0017,3,0.364,9.433,-3.125,4,-0.024,-0.13,-0.021,,,,
703968.0215,3,0.916,9.246,-3.395,,,,,,,,
703968.0414,3,1.199,9.169,-3.494,,,,,,,,
703968.0613,3,0.845,9.303,-3.436,4,-0.019,-0.247,0.011,5,-27.235,-37.485,20.531
703968.0811,3,0.012,9.504,-4.379,,,,,,,,
703968.101,3,-0.285,9.148,-4.183,,,,,,,,
703968.1208,3,0.223,8.961,-3.989,4,-0.014,-0.411,0.031,5,-28.035,-37.752,22.285
703968.1407,3,1.563,9.081,-4.587,,,,,,,,
703968.1606,3,2.489,8.83,-4.039,,,,,,,,
703968.1804,3,2.749,9.272,-5.288,4,-0.02,-0.575,0.047,5,-26.193,-38.327,23.448
703968.2003,3,3.103,8.696,-5.941,,,,,,,,
703968.2202,3,3.039,8.71,-5.972,,,,,,,,
703968.24,3,2.125,8.897,-5.432,4,-0.029,-0.375,-0.036,5,-27.322,-37.741,24.713
703968.2599,3,3.01,8.82,-5.216,,,,,,,,
703968.2798,3,3.06,7.542,-5.57,,,,,,,,
703968.2997,3,1.491,9.04,-6.104,4,-0.074,-0.164,-0.15,5,-26.585,-38.585,25.191
703968.3195,3,1.512,8.748,-4.324,,,,,,,,
703968.3394,3,1.493,8.956,-3.884,,,,,,,,
703968.3592,3,0.474,8.238,-3.886,4,-0.075,0.043,-0.246,5,-26.131,-37.955,25.137
703968.3791,3,-0.651,8.286,-3.159,,,,,,,,
703968.399,3,-1.89,10.476,-5.044,,,,,,,,
703968.4188,3,-0.06,10.983,-3.297,4,-0.001,-0.053,-0.223,,,,
703968.4387,3,0.184,9.72,-4.092,,,,,,,,
703968.4586,3,-0.73,8.913,-2.17,,,,,,,,
703968.4784,3,0.584,8.724,-1.998,4,-0.086,-0.279,-0.172,5,-26.846,-38.441,24.336
703968.4983,3,2.278,10.464,-3.108,,,,,,,,
703968.5182,3,3.182,9.82,-3.915,,,,,,,,
703968.538,3,2.276,9.236,-3.07,4,-0.093,-0.365,-0.173,,,,
703968.5579,3,-0.62,9.622,-3.247,,,,,,,,
703968.5778,3,-1.39,9.77,-2.515,,,,,,,,
703968.5976,3,-1.819,9.229,-2.362,4,-0.104,0.048,-0.234,5,-25.385,-39.827,23.119
703968.6175,3,-2.4,9.717,-1.091,,,,,,,,
703968.6374,3,-2.247,9.344,-1.175,,,,,,,,
703968.6572,3,-1.974,10.347,-2.053,4,-0.053,-0.102,-0.133,5,-26.624,-40.05,22.591
703968.6771,3,-2.194,9.957,-1.761,,,,,,,,
703968.697,3,-1.44,9.418,-2.364,,,,,,,,
703968.7168,3,-1.558,9.315,-2.18,4,0.031,-0.058,0.004,5,-27.319,-41.306,22.733
703968.7367,3,-0.811,10.181,-3.307,,,,,,,,
703968.7566,3,-0.179,9.672,-2.467,,,,,,,,
703968.7764,3,0.957,10.019,-2.285,4,0.007,0.106,0.1,5,-27.141,-41.147,23.454
703968.7963,3,1.208,10.167,-2.137,,,,,,,,
703968.8161,3,0.713,9.861,-1.491,,,,,,,,
703968.836,3,0.634,9.59,-2.201,4,0.004,0.279,0.1,5,-28.323,-40.614,24.179
703968.8553,3,0.598,9.753,-3.675,,,,,,,,
703968.8758,3,0.244,8.554,-4.42,,,,,,,,
703968.8956,3,0.022,9.701,-5.207,4,0.046,0.335,0.054,5,-30.624,-39.955,23.297
703968.9155,3,-0.258,8.722,-4.326,,,,,,,,
703968.9354,3,0.019,9.33,-4.326,,,,,,,,
703968.9552,3,0.258,9.758,-4.228,4,-0.021,0.265,0.044,5,-31.236,-39.304,23.399
703968.9751,3,1.065,7.731,-3.845,,,,,,,,
703968.995,3,1.811,7.944,-5.92,,,,,,,,
703969.0148,3,2.077,10.251,-7.222,4,0.06,0.287,-0.019,5,-29.008,-37.543,22.229
703969.0347,3,1.228,9.028,-6.602,,,,,,,,
703969.0545,3,0.263,7.982,-4.979,,,,,,,,
703969.0744,3,-0.818,8.227,-4.843,4,0.023,0.373,-0.12,,,,
703969.0943,3,-0.955,9.234,-4.967,,,,,,,,
703969.1141,3,-0.256,9.377,-4.441,,,,,,,,
703969.134,3,1.084,9.77,-3.817,4,-0.017,-0.082,-0.115,5,-28.587,-38.342,22.287
703969.1539,3,1.283,8.466,-3.549,,,,,,,,
703969.1738,3,0.383,7.406,-3.848,,,,,,,,
703969.1936,3,-0.232,7.734,-3.982,4,0.01,-0.246,-0.12,5,-27.153,-37.929,22.192
703969.2135,3,-0.086,9.988,-5.408,,,,,,,,
703969.2334,3,1.031,11.842,-5.652,,,,,,,,
703969.2532,3,1.373,8.913,-4.262,4,-0.003,-0.129,-0.131,5,-27.727,-37.305,20.284
703969.2731,3,2.158,5.81,-4.508,,,,,,,,
703969.2929,3,1.996,9.279,-3.577,,,,,,,,
703969.3128,3,0.182,14.173,-0.543,4,-0.076,0.515,-0.191,5,-25.258,-38.681,22.289
703969.3327,3,-1.189,13.027,-0.024,,,,,,,,
703969.3525,3,-2.467,6.386,1.72,,,,,,,,
703969.3724,3,-2.161,9.392,-1.156,4,-0.075,0.32,-0.225,5,-26.82,-38.899,19.33
703969.3923,3,-2.69,11.359,-1.57,,,,,,,,
703969.4122,3,-1.63,9.48,-0.644,,,,,,,,
703969.432,3,-0.278,9.995,-1.201,4,-0.071,-0.232,-0.131,5,-26.913,-42.097,19.203
703969.4519,3,1.089,10.359,-1.905,,,,,,,,
703969.4717,3,1.086,9.303,-0.904,,,,,,,,
703969.4916,3,0.321,9.468,-1.424,4,-0.019,-0.039,-0.081,5,-29.506,-43.488,21.136
703969.5115,3,-0.773,9.342,-2.869,,,,,,,,
703969.5313,3,-0.467,11.701,-4.235,,,,,,,,
703969.5512,3,-1.278,9.825,-2.51,4,0.004,0.049,-0.092,5,-28.423,-44.504,20.892
703969.5711,3,-1.043,7.767,-0.452,,,,,,,,
703969.5909,3,-0.038,9.832,0.462,,,,,,,,
703969.6108,3,0.323,10.624,-1.33,4,-0.096,-0.264,-0.044,,,,
703969.6307,3,0.124,8.947,-3.194,,,,,,,,
703969.6506,3,-0.593,9.488,-4.956,,,,,,,,
703969.6704,3,-0.926,9.784,-5.011,4,0.114,-0.048,-0.054,5,-28.578,-45.738,22.011
703969.6903,3,-0.876,7.652,-4.441,,,,,,,,
703969.7102,3,-0.608,9.052,-4.898,,,,,,,,
703969.73,3,-0.519,9.669,-3.443,4,0.004,0.024,-0.03,5,-26.018,-42.706,24.185
703969.7499,3,-0.093,11.957,-2.579,,,,,,,,
703969.7698,3,-0.294,10.093,-1.33,,,,,,,,
703969.7896,3,-0.639,8.059,-2.429,4,0.07,0.121,-0.039,5,-26.202,-43.265,23.997
703969.8095,3,0.261,10.483,-4.137,,,,,,,,
703969.8294,3,-1.144,8.291,-4.566,,,,,,,,
703969.8492,3,-0.83,9.167,-5.252,4,0.124,0.106,-0.06,5,-25.334,-43.73,24.191
703969.8691,3,-0.33,12.227,-4.616,,,,,,,,
703969.889,3,-0.656,8.258,0.354,,,,,,,,
703969.9088,3,0.402,10.012,-1.345,4,-0.028,0.076,-0.034,5,-24.316,-44.649,24.347
703969.9287,3,-0.452,8.995,-2.68,,,,,,,,
703969.9485,3,0.002,10.866,-4.046,,,,,,,,
703969.9684,3,-1.175,6.82,-3.817,4,0.117,0.187,-0.06,5,-23.947,-43.407,24.919
703969.9883,3,0.438,8.652,-6.915,,,,,,,,
703970.0082,3,-1.199,9.736,-5.226,,,,,,,,
703970.028,3,-0.105,10.516,-2.139,4,-0.036,0.203,-0.076,5,-23.827,-44.31,23.955
703970.0479,3,-0.969,9.89,-0.237,,,,,,,,
703970.0678,3,-0.519,7.238,-1.558,,,,,,,,
703970.0876,3,-0.83,8.81,-5.123,4,-0.039,-0.201,-0.084,5,-22.707,-44.052,25.502
703970.1075,3,-0.684,10.141,-6.851,,,,,,,,
703970.1274,3,-2.015,11.182,-4.202,,,,,,,,
703970.1472,3,-1.618,8.502,-1.529,4,-0.004,-0.299,-0.032,,,,
703970.1671,3,0.318,8.042,-2.78,,,,,,,,
703970.1869,3,-0.775,9.736,-4.585,,,,,,,,
703970.2068,3,-0.024,9.389,-3.673,4,-0.008,-0.171,0.043,5,-22.722,-44.667,25.558
703970.2267,3,-0.297,8.987,-2.644,,,,,,,,
703970.2465,3,-0.486,9.633,-3.072,,,,,,,,
703970.2664,3,0.605,10.148,-3.965,4,0.007,-0.036,0.04,,,,
703970.2863,3,0.67,9.887,-2.436,,,,,,,,
703970.3062,3,1.228,7.332,-3.082,,,,,,,,
703970.326,3,0.77,10.461,-5.068,4,0.029,0.112,-0.019,5,-23.401,-45.053,23.184
703970.3459,3,-0.881,8.782,-4.135,,,,,,,,
703970.3657,3,-0.321,9.779,-2.96,,,,,,,,
703970.3856,3,-0.967,9.346,-2.395,4,-0.07,0.097,-0.085,5,-21.156,-44.243,22.993
703970.4055,3,-1.017,7.382,-2.041,,,,,,,,
703970.4253,3,-0.636,10.569,-4.376,,,,,,,,
703970.4452,3,-1.929,11.431,-2.948,4,-0.053,-0.171,-0.068,5,-22.662,-44.093,24.249
703970.4651,3,-1.357,8.006,-1.012,,,,,,,,
703970.4849,3,-1.488,9.76,-2.359,,,,,,,,
703970.5048,3,-1.378,10.763,-2.883,4,-0.022,-0.222,-0.005,5,-20.471,-45.85,24.348
703970.5247,3,-0.517,8.853,-2.611,,,,,,,,
703970.5445,3,0.072,9.935,-3.249,,,,,,,,
703970.5644,3,0.167,8.944,-2.718,4,-0.015,-0.159,0.019,5,-21.039,-45.045,24.257
703970.5843,3,-0.127,9.069,-3.065,,,,,,,,
703970.6041,3,-0.06,8.92,-3.527,,,,,,,,
703970.624,3,0.005,6.238,-4.898,4,0.023,-0.142,-0.005,5,-21.556,-44.075,24.199
703970.6439,3,-1.182,9.031,-6.544,,,,,,,,
703970.6637,3,-0.727,15.293,-4.35,,,,,,,,
703970.6836,3,-0.115,5.178,1.637,4,-0.095,-0.07,-0.028,,,,
703970.7035,3,-0.553,9.657,-1.658,,,,,,,,
703970.7233,3,-1.065,13.833,-3.795,,,,,,,,
703970.7432,3,-0.9,8.03,-0.201,4,-0.027,-0.15,-0.026,5,-21.899,-45.453,25.653
703970.7631,3,-1.407,8.38,-2.551,,,,,,,,
703970.7829,3,-1.402,10.351,-4.499,,,,,,,,
703970.8028,3,-1.563,9.495,-3.661,4,0.044,-0.2,-0.008,,,,
703970.8226,3,-1.378,8.782,-2.879,,,,,,,,
703970.8425,3,-1.194,8.583,-3.285,,,,,,,,
703970.8624,3,-1.189,10.906,-4.116,4,-0.011,-0.097,0.044,5,-20.358,-44.284,25.27
703970.8823,3,-1.357,9.708,-3.273,,,,,,,,
703970.9021,3,-1.218,8.222,-4.07,,,,,,,,
703970.922,3,-0.658,12.345,-3.967,4,0.008,-0.175,0.069,5,-19.411,-45.816,26.537
703970.9419,3,-0.201,5.984,-1.579,,,,,,,,
703970.9617,3,0.328,8.841,-3.766,,,,,,,,
703970.9816,3,0.641,10.962,-2.443,4,-0.007,-0.246,0.097,5,-20.027,-45.363,25.066
703971.0015,3,0.249,8.717,-3.362,,,,,,,,
703971.0213,3,-0.692,10.225,-4.795,,,,,,,,
703971.0412,3,0.11,9.382,-3.522,4,0.084,-0.242,0.072,5,-20.714,-44.235,26.384
703971.061,3,0.28,8.401,-3.269,,,,,,,,
703971.0809,3,-0.196,8.495,-4.51,,,,,,,,
703971.1008,3,-0.337,12.921,-3.881,4,0.026,-0.051,0.074,5,-20.042,-44.27,26.529
703971.1206,3,0.029,8.521,-0.502,,,,,,,,
703971.1405,3,-0.146,6.343,-2.596,,,,,,,,
703971.1604,3,-1.053,13.103,-5.822,4,0.004,0.012,0.036,5,-19.186,-43.961,25.856
703971.1803,3,-0.68,9.193,-1.754,,,,,,,,
703971.2001,3,-0.976,5.556,-2.67,,,,,,,,
703971.22,3,-0.481,14.833,-5.444,4,-0.021,0.033,0.016,5,-19.809,-45.218,25.845
703971.2399,3,-0.251,8.382,0.603,,,,,,,,
703971.2597,3,-0.613,7.762,-1.041,,,,,,,,
703971.2796,3,-0.447,11.864,-4.695,4,-0.022,-0.119,0.027,5,-20.169,-43.706,26.227
703971.2994,3,-0.053,7.571,-2.771,,,,,,,,
703971.3193,3,-0.826,8.475,-4.326,,,,,,,,
703971.3392,3,-1.474,8.631,-5.322,4,0.017,-0.234,0.019,,,,
703971.359,3,-1.084,10.035,-4.345,,,,,,,,
703971.3789,3,0.273,9.562,-1.558,,,,,,,,
703971.3988,3,0.017,11.375,-0.62,4,-0.109,-0.211,0.057,5,-19.574,-43.016,25.652
703971.4187,3,-0.462,6.458,-2.709,,,,,,,,
703971.4385,3,-0.536,10.392,-5.066,,,,,,,,
703971.4584,3,-0.644,13.551,-2.508,4,0.029,-0.194,0.053,5,-18.951,-42.532,26.848
703971.4782,3,-0.538,7.513,0.007,,,,,,,,
703971.4981,3,-1,10.452,-3.599,,,,,,,,
703971.518,3,-0.019,10.392,-2.881,4,0.001,-0.127,0.07,5,-20.54,-43.141,25.809
703971.5378,3,-0.493,7.789,-1.833,,,,,,,,
703971.5577,3,-0.424,9.042,-4.319,,,,,,,,
703971.5776,3,-0.459,11.064,-5.228,4,0.039,-0.035,0.072,5,-20.37,-43.002,27.103
703971.5974,3,-0.335,9.485,-1.921,,,,,,,,
703971.6173,3,-0.885,10.536,-1.402,,,,,,,,
703971.6372,3,-0.218,7.348,-0.888,4,-0.001,0.158,0.053,5,-20.201,-43.275,26.711
703971.6571,3,-1.388,5.554,-4.975,,,,,,,,
703971.6769,3,-2.197,16.726,-8.846,,,,,,,,
703971.6968,3,-0.983,9.076,-1.041,4,0.108,0.09,0.042,,,,
703971.7167,3,0.127,6.504,0.861,,,,,,,,
703971.7365,3,0.139,14.113,-4.013,,,,,,,,
703971.7564,3,-0.421,7.243,-2.383,4,0.027,-0.012,0.071,5,-19.855,-41.841,27.634
703971.7763,3,-0.991,9.593,-3.249,,,,,,,,
703971.7961,3,-0.67,9.083,-4.874,,,,,,,,
703971.816,3,-0.189,10.411,-4.001,4,0.068,0.018,0.054,5,-19.946,-42.18,27.879
703971.8359,3,0.072,8.126,-0.931,,,,,,,,
703971.8557,3,-0.266,6.061,-3.06,,,,,,,,
703971.8756,3,0.112,9.303,-6.36,4,0.017,0.112,0.032,,,,
703971.8955,3,-0.129,16.199,-4.159,,,,,,,,
703971.9153,3,0.428,6.485,1.804,,,,,,,,
703971.9352,3,0.258,8.37,-0.763,4,-0.07,0.171,-0.001,5,-21.254,-42.497,26.375
703971.955,3,0.572,8.588,-4.745,,,,,,,,
703971.9749,3,-0.634,10.502,-6.109,,,,,,,,
703971.9948,3,-1.917,8.198,-2.613,4,0.016,0.004,-0.066,,,,
703972.0147,3,-0.914,12.383,-2.924,,,,,,,,
703972.0345,3,-0.258,8.964,-0.06,,,,,,,,
703972.0544,3,-0.648,11.375,-0.749,4,-0.118,-0.164,-0.038,5,-20.692,-43.764,25.644
703972.0743,3,-0.699,5.207,-1.967,,,,,,,,
703972.0941,3,-1.153,11.797,-7.317,,,,,,,,
703972.114,3,-0.907,11.191,-3.907,4,-0.004,-0.239,0.009,5,-20.528,-42.145,27.101
703972.1339,3,-0.955,10.507,1,,,,,,,,
703972.1537,3,0.311,6.712,0.069,,,,,,,,
703972.1736,3,0.263,11.11,-4.755,4,-0.059,-0.114,0.056,5,-20.586,-42.767,25.949
703972.1934,3,0.177,9.375,-4.656,,,,,,,,
703972.2133,3,0.182,4.36,-2.515,,,,,,,,
703972.2332,3,-1.062,13.728,-5.714,4,0.024,0.073,0.051,5,-20.036,-43.98,25.304
703972.253,3,-0.569,10.519,-1.998,,,,,,,,
703972.2729,3,-1.29,4.089,-0.022,,,,,,,,
703972.2928,3,-1.144,11.246,-6.109,4,-0.042,0.078,0.03,5,-20.961,-43.726,26.665
703972.3127,3,-0.424,13.036,-2.833,,,,,,,,
703972.3325,3,0.065,5.661,0.957,,,,,,,,
703972.3524,3,0.148,12.799,-2.926,4,-0.013,-0.049,0.04,5,-21.558,-42.365,26.854
703972.3723,3,0.526,6.863,-0.627,,,,,,,,
703972.3921,3,-0.598,8.413,-4.798,,,,,,,,
703972.412,3,-0.924,11.888,-6.951,4,0.078,0.007,0.01,,,,
703972.4318,3,0.007,7.43,-1.802,,,,,,,,
703972.4517,3,-0.723,9.978,-2.512,,,,,,,,
703972.4716,3,-0.517,9.196,-1.29,4,-0.096,0.025,0.018,5,-20.415,-43.419,25.652
703972.4914,3,-1.314,3.747,-0.519,,,,,,,,
703972.5113,3,-0.388,19.219,-7.104,,,,,,,,
703972.5312,3,-0.309,4.666,0.342,4,0.028,-0.048,0.021,,,,
703972.551,3,-0.723,8.406,-3.711,,,,,,,,
703972.5709,3,-0.065,13.407,-4.635,,,,,,,,
703972.5908,3,0.522,6.193,1.606,4,-0.013,0.046,-0.005,5,-20.432,-43.333,25.316
703972.6106,3,-0.206,10.933,-2.95,,,,,,,,
703972.6305,3,-0.636,8.719,-3.561,,,,,,,,
703972.6504,3,-0.067,9.904,-3.168,4,-0.001,-0.018,-0.043,5,-19.713,-43.129,26.378
703972.6702,3,-0.883,5.834,-3.472,,,,,,,,
703972.6901,3,-0.452,11.498,-4.331,,,,,,,,
703972.71,3,-0.663,11.471,-1.141,4,-0.068,-0.043,-0.019,5,-20.691,-43.291,26.37
703972.7298,3,-0.11,8.442,1.419,,,,,,,,
703972.7497,3,0.328,8.873,-1.606,,,,,,,,
703972.7696,3,-0.136,10.05,-5.444,4,0.027,-0.094,-0.032,5,-20.892,-44.53,25.999
703972.7894,3,-0.491,8.858,-4.027,,,,,,,,
703972.8093,3,0.019,9.344,-2.326,,,,,,,,
703972.8291,3,-1.472,9.945,-3.503,4,0.008,0.05,-0.024,5,-19.704,-43.222,26.762
703972.849,3,-1.493,9.531,-2.91,,,,,,,,
703972.8689,3,-0.215,9.842,-3.73,,,,,,,,
703972.8888,3,0.189,16.168,-2.003,4,-0.072,-0.112,-0.016,,,,
703972.9086,3,0.084,6.812,2.773,,,,,,,,
703972.9285,3,-0.732,10.155,-1.792,,,,,,,,
703972.9484,3,-0.16,7.561,-4.408,4,0.035,-0.294,-0.015,5,-19.308,-43.253,26.428
703972.9682,3,-0.79,10.098,-6.676,,,,,,,,
703972.9881,3,-0.773,10.241,-4.056,,,,,,,,
703973.008,3,-0.352,7.229,-1.771,4,0.038,-0.198,0.039,5,-19.368,-43.968,26.625
703973.0278,3,-0.481,14.388,-3.374,,,,,,,,
703973.0477,3,-0.656,2.472,0.876,,,,,,,,
703973.0675,3,-0.641,10.102,-5.575,4,0.011,-0.217,0.065,,,,
703973.0874,3,-0.084,18.609,-3.328,,,,,,,,
703973.1073,3,1.144,1.429,5.549,,,,,,,,
703973.1271,3,-0.677,12.292,-6.714,4,0.059,-0.05,0.079,5,-19.389,-44.971,27.684
703973.147,3,-0.294,9.947,-6.374,,,,,,,,
703973.1669,3,-0.39,7.236,-3.247,,,,,,,,
703973.1868,3,-0.589,11.861,-2.568,4,0.062,0.074,0.06,5,-20.703,-44.101,27.632
703973.2066,3,-0.318,7.332,-0.246,,,,,,,,
703973.2265,3,-0.519,8.899,-3.541,,,,,,,,
703973.2464,3,-1.926,7.592,-4.03,4,-0.006,-0.04,0.028,5,-19.569,-45.309,27.65
703973.2662,3,-0.62,15.561,-3.802,,,,,,,,
703973.2861,3,0.024,8.686,2.678,,,,,,,,
703973.3059,3,-0.182,8.351,0.694,4,-0.038,-0.082,0.08,5,-21.371,-44.151,27.545
703973.3258,3,0.127,9.086,-4.786,,,,,,,,
703973.3457,3,-1.038,11.38,-6.042,,,,,,,,
703973.3655,3,-0.467,8.71,-2.247,4,0.099,0.046,0.063,5,-21.359,-43.553,26.378
703973.3854,3,0.086,8.971,-1.373,,,,,,,,
703973.4053,3,-0.158,13.57,-1.876,,,,,,,,
703973.4252,3,-0.586,4.063,-1.582,4,-0.034,0.142,0.056,,,,
703973.445,3,-1.306,13.079,-5.697,,,,,,,,
703973.4649,3,0.024,10.816,-1.996,,,,,,,,
703973.4848,3,0.646,6.508,-0.067,4,-0.021,0.087,0.049,5,-21.371,-44.014,25.652
703973.5046,3,-0.22,11.797,-4.422,,,,,,,,
703973.5245,3,-0.225,10.586,-3.639,,,,,,,,
703973.5443,3,-0.749,7.155,-2.981,4,0.037,0.059,0.002,5,-21.062,-44.064,27.388
703973.5642,3,-0.328,10.256,-4.671,,,,,,,,
703973.5841,3,0.558,10.225,-1.974,,,,,,,,
703973.6039,3,-0.936,6.772,-2.893,4,-0.017,0.03,-0.003,,,,
703973.6238,3,-1.424,14.477,-5.295,,,,,,,,
703973.6437,3,0.211,7.138,-0.165,,,,,,,,
703973.6636,3,-0.074,8.966,-0.943,4,-0.039,-0.036,0.028,5,-21.866,-44.417,27.437
703973.6834,3,-0.014,9.777,-0.914,,,,,,,,
703973.7033,3,-0.263,5.518,-2.479,,,,,,,,
703973.7232,3,-1.376,12.177,-5.961,4,0.088,-0.026,0.03,5,-18.114,-46.776,27.847
703973.743,3,0.091,7.188,-3.048,,,,,,,,
703973.7629,3,-0.17,12.979,-4.709,,,,,,,,
703973.7828,3,-0.883,4.365,0.462,4,-0.011,0.254,0.019,5,-20.874,-43.819,26.95
703973.8026,3,-0.792,9.717,-3.199,,,,,,,,
703973.8225,3,-0.069,13.847,-2.812,,,,,,,,
703973.8424,3,0.258,7.061,1.297,4,-0.031,0.264,-0.026,5,-21.718,-43.645,25.308
703973.8622,3,-0.526,7.815,-4.13,,,,,,,,
703973.8821,3,-1.074,10.741,-5.626,,,,,,,,
703973.902,3,-1.409,9.511,-2.646,4,0.038,-0.017,-0.062,5,-21.893,-43.756,27.681
703973.9218,3,-0.005,11.856,-2.656,,,,,,,,
703973.9417,3,-0.467,10.849,-1.299,,,,,,,,
703973.9615,3,-0.579,4.589,-0.232,4,-0.057,-0.1,-0.025,5,-20.763,-44.759,26.425
703973.9814,3,-0.079,12.5,-4.46,,,,,,,,
703974.0013,3,0.414,14.233,-3.029,,,,,,,,
703974.0212,3,0.007,4.101,0.668,4,0.015,-0.009,0.031,5,-22.281,-44.749,25.652
703974.041,3,0.744,10.619,-5.396,,,,,,,,
703974.0609,3,0.677,11.907,-4.477,,,,,,,,
703974.0808,3,-0.893,6.623,-1.038,4,0.036,0.115,-0.014,,,,
703974.1006,3,-0.483,8.707,-2.673,,,,,,,,
703974.1205,3,-0.136,13.015,-5.044,,,,,,,,
703974.1404,3,-0.967,6.745,-1.725,4,0.009,0.103,-0.076,5,-20.708,-44.287,27.396
703974.1602,3,-0.548,7.631,-2.919,,,,,,,,
703974.1801,3,-0.474,14.249,-4.089,,,,,,,,
703974.1999,3,-0.005,6.875,1.716,4,-0.044,0.007,-0.073,5,-20.805,-44.716,26.381
703974.2198,3,-0.39,8.932,-1.292,,,,,,,,
703974.2397,3,-0.84,10.861,-4.331,,,,,,,,
703974.2595,3,-0.424,7.537,-0.79,4,0.006,-0.216,-0.086,,,,
703974.2794,3,0.108,9.287,-3.465,,,,,,,,
703974.2993,3,-0.859,10.99,-6.843,,,,,,,,
703974.3192,3,-0.933,8.057,-1.699,4,-0.02,-0.223,-0.037,5,-19.659,-45.255,28.123
703974.339,3,-0.608,8.82,-0.313,,,,,,,,
703974.3589,3,1.316,13.33,-2.67,,,,,,,,
703974.3788,3,0.632,9.098,-1.457,4,-0.055,-0.053,0.011,5,-19.617,-45.41,27.11
703974.3986,3,0.402,6.415,-2.998,,,,,,,,
703974.4185,3,-0.129,12.201,-4.781,,,,,,,,
703974.4383,3,-1.5,7.279,-0.964,4,0.041,0.052,-0.028,5,-20.622,-44.666,27.834
703974.4582,3,-0.794,8.487,-1.589,,,,,,,,
703974.4781,3,-0.278,15.123,-2.902,,,,,,,,
703974.4979,3,-1.445,0.646,1.287,4,-0.017,-0.101,-0.037,5,-20.976,-44.012,28.415
703974.5178,3,-0.768,14.989,-6.327,,,,,,,,
703974.5377,3,-0.024,7.817,-0.562,,,,,,,,
703974.5575,3,-0.184,10.71,-3.434,4,0.024,-0.241,0.012,5,-19.983,-43.988,28.668
703974.5774,3,-0.864,7.717,-3.525,,,,,,,,
703974.5973,3,-0.641,8.763,-3.697,,,,,,,,
703974.6172,3,-0.474,10.794,-2.673,4,0.034,-0.288,0.054,,,,
703974.637,3,-0.067,6.374,-1.749,,,,,,,,
703974.6569,3,0.043,12.507,-5.508,,,,,,,,
703974.6767,3,-0.421,6.652,-2.489,4,0.022,-0.2,0.094,5,-18.387,-43.755,28.363
703974.6966,3,-0.316,12.548,-3.577,,,,,,,,
703974.7165,3,1.266,11.926,-0.782,,,,,,,,
703974.7363,3,1.165,6.714,0.677,4,-0.033,-0.07,0.152,5,-20.827,-41.869,28.706
703974.7562,3,-0.656,10.215,-2.924,,,,,,,,
703974.7761,3,0.407,11.375,-3.948,,,,,,,,
703974.7959,3,0.206,7.446,-3.025,4,0.099,0.04,0.102,,,,
703974.8158,3,-0.608,7.267,-4.477,,,,,,,,
703974.8357,3,-0.505,12.34,-5.336,,,,,,,,
703974.8555,3,-0.507,6.109,-1.945,4,-0.003,0.19,0.071,5,-20.993,-42.963,27.829
703974.8754,3,-1.639,15.288,-2.723,,,,,,,,
703974.8953,3,-0.048,7.92,1.823,,,,,,,,
703974.9151,3,-0.455,8.595,-3.293,4,0,0.075,0.052,5,-20.926,-41.869,27.972
703974.935,3,-0.715,8.255,-5.324,,,,,,,,
703974.9549,3,-0.878,7.341,-4.551,,,,,,,,
703974.9747,3,-0.56,11.801,-3.826,4,0.048,-0.027,0.054,5,-20.721,-41.197,27.87
703974.9946,3,-1.216,6.64,1.098,,,,,,,,
703975.0145,3,-0.452,12.842,-1.098,,,,,,,,
703975.0343,3,-0.328,5.319,-1.548,4,-0.092,-0.091,0.091,5,-21.086,-41.399,28.31
703975.0542,3,0.383,17.523,-4.223,,,,,,,,
703975.074,3,0.493,9.404,0.56,,,,,,,,
703975.0939,3,-0.708,1.706,-0.16,4,0,0.059,0.125,5,-22.145,-43.04,28.262
703975.1138,3,-0.512,16.056,-7.954,,,,,,,,
703975.1337,3,-0.144,8.59,-1.141,,,,,,,,
703975.1535,3,-0.615,5.752,0.967,4,-0.008,0.347,0.078,,,,
703975.1734,3,-0.373,11.093,-4.563,,,,,,,,
703975.1933,3,-0.005,13.326,-1.565,,,,,,,,
703975.2131,3,-1.101,2.278,-0.871,4,-0.012,0.327,-0.013,5,-23.297,-40.779,27.82
703975.233,3,-1.898,15.494,-7.023,,,,,,,,
703975.2529,3,-1.385,9.6,-1.259,,,,,,,,
703975.2727,3,-0.127,8.846,-0.512,4,-0.021,0.136,-0.005,,,,
703975.2926,3,-0.426,7.92,-3.082,,,,,,,,
703975.3124,3,0.273,10.246,-5.587,,,,,,,,
703975.3323,3,0.553,6.549,-0.409,4,0.033,0.086,-0.018,5,-23.868,-42.366,26.37
703975.3522,3,-0.376,14.938,-4.853,,,,,,,,
703975.372,3,-1.182,6.231,-2.632,,,,,,,,
703975.3919,3,-0.641,9.052,-3.587,4,0.016,0.138,-0.047,5,-23.761,-41.46,26.126
703975.4118,3,0.215,13.156,-5.056,,,,,,,,
703975.4317,3,-0.407,11.38,-0.201,,,,,,,,
703975.4515,3,-0.117,8.231,-0.321,4,-0.037,0.102,-0.04,5,-21.481,-42.592,26.375
703975.4714,3,0.512,9.748,-1.055,,,,,,,,
703975.4913,3,-0.033,11.955,-4.269,,,,,,,,
703975.5111,3,-0.27,12,-3.12,4,0.081,0.123,-0.09,5,-24.409,-42.084,23.444
703975.531,3,0.053,7.719,-0.615,,,,,,,,
703975.5508,3,-0.459,6.669,-2.034,,,,,,,,
703975.5707,3,-0.773,9.198,-5.085,4,0.046,0.103,-0.122,5,-22.006,-42.662,27.155
703975.5906,3,-0.093,15.532,-4.642,,,,,,,,
703975.6104,3,0.256,4.149,2.85,,,,,,,,
703975.6303,3,0.11,12.227,-4.068,4,-0.011,-0.074,-0.109,5,-22.568,-43.527,26.572
703975.6502,3,-0.452,6.489,-4.032,,,,,,,,
703975.6701,3,-1.563,9.26,-5.271,,,,,,,,
703975.6899,3,-0.464,9.05,-3.972,4,0.057,-0.097,-0.103,,,,
703975.7098,3,-0.615,14.431,-3.364,,,,,,,,
703975.7297,3,-0.979,1.804,-0.474,,,,,,,,
703975.7495,3,-0.759,14.623,-5.324,4,-0.06,0.015,-0.084,5,-21.521,-42.778,24.922
703975.7694,3,0.211,10.691,-0.464,,,,,,,,
703975.7893,3,0.074,8.277,2.807,,,,,,,,
703975.8091,3,-1.385,9.966,-3.958,4,-0.063,-0.07,-0.061,,,,
703975.829,3,-0.251,8.112,-3.687,,,,,,,,
703975.8489,3,0.026,10.332,-3.817,,,,,,,,
703975.8687,3,-0.835,7.631,-1.888,4,-0.022,-0.095,-0.048,5,-20.053,-44.695,25.615
703975.8886,3,-0.136,13.065,-2.666,,,,,,,,
703975.9085,3,0.426,6.836,-2.371,,,,,,,,
703975.9283,3,-0.333,11.696,-2.972,4,-0.048,-0.062,-0.044,5,-20.694,-45.381,26.382
703975.9482,3,-0.246,8.573,-1.496,,,,,,,,
703975.9681,3,-0.242,11.392,-2.369,,,,,,,,
703975.9879,3,-0.206,8.136,-1.543,4,-0.017,-0.187,-0.044,,,,
703976.0078,3,-0.684,11.021,-4.908,,,,,,,,
703976.0277,3,-0.057,7.076,-2.331,,,,,,,,
703976.0475,3,-0.476,10,-2.065,4,-0.018,-0.388,-0.014,5,-19.402,-45.395,26.627
703976.0674,3,-0.007,10.588,-2.821,,,,,,,,
703976.0873,3,-0.739,7.461,-1.601,,,,,,,,
703976.1071,3,-0.103,11.562,-2.364,4,-0.026,-0.361,0.06,5,-19.255,-45.107,27.116
703976.127,3,1.436,9.466,-1.536,,,,,,,,
703976.1469,3,0.373,7.71,-2.725,,,,,,,,
703976.1667,3,-0.464,11.084,-4.546,4,0.03,-0.142,0.076,5,-19.945,-44.083,27.733
703976.1866,3,-0.534,10.325,-2.326,,,,,,,,
703976.2064,3,-0.385,6.475,-1.742,,,,,,,,
703976.2263,3,-0.703,12.275,-4.298,4,0.019,0.087,0.062,5,-19.981,-45.316,25.844
703976.2462,3,-1.125,5.75,-2.713,,,,,,,,
703976.266,3,-0.112,14.905,-4.551,,,,,,,,
703976.2859,3,-0.926,8.743,-0.081,4,-0.044,0.072,0.046,5,-20.95,-43.297,27.982
703976.3058,3,-0.012,11.177,-0.28,,,,,,,,
703976.3257,3,-0.4,10.074,-0.703,,,,,,,,
703976.3455,3,-0.474,5.714,-2.479,4,0.046,-0.215,0.031,,,,
703976.3654,3,-0.352,12.124,-7.035,,,,,,,,
703976.3853,3,-0.201,7.64,-3.489,,,,,,,,
703976.4051,3,-0.995,10.516,-3.338,4,0.064,-0.185,0.08,5,-19.832,-44.69,29.042
703976.425,3,-0.534,9.471,-0.77,,,,,,,,
703976.4448,3,0.132,10.67,-0.541,,,,,,,,
703976.4647,3,1.287,7.049,0.187,4,-0.019,-0.034,0.128,5,-20.685,-43.393,28.555
703976.4846,3,0.763,9.485,-5.111,,,,,,,,
703976.5044,3,-0.227,10.016,-6.286,,,,,,,,
703976.5243,3,-1.589,7.513,-3.345,4,0.148,0.11,0.085,5,-20.702,-44.148,28.557
703976.5442,3,-0.419,12.993,-3.984,,,,,,,,
703976.564,3,-1.048,8.626,0.804,,,,,,,,
703976.5839,3,0.28,9.756,-1.318,4,-0.049,0.195,0.063,5,-22.362,-42.714,28.503
703976.6038,3,-0.615,14.565,-2.711,,,,,,,,
703976.6237,3,-1.027,7.19,0.184,,,,,,,,
703976.6429,3,-1.505,12.639,-2.747,4,0.052,-0.004,0.057,5,-20.877,-43.816,28.027
703976.6634,3,-0.866,5.484,-2.57,,,,,,,,
703976.6832,3,-0.596,15.326,-3.855,,,,,,,,
703976.7031,3,-0.866,5.039,-0.445,4,0.023,0.016,0.07,5,-21.335,-42.592,28.549
703976.723,3,-0.948,10.873,-5.121,,,,,,,,
703976.7428,3,-0.804,5.511,-2.398,,,,,,,,
703976.7627,3,-0.065,11.833,-4.64,4,0.035,0.103,0.083,5,-22.342,-43.483,27.829
703976.7826,3,-0.871,14.381,-1.311,,,,,,,,
703976.8024,3,0.215,1.115,1.778,,,,,,,,
703976.8223,3,-0.66,15.888,-6.257,4,-0.004,0.2,0.079,5,-21.948,-41.853,27.824
703976.8422,3,0.474,8.66,-2.28,,,,,,,,
703976.862,3,-0.189,7.906,-1.819,,,,,,,,
703976.8819,3,-0.785,9.308,-2.501,4,0.029,0.226,0.024,,,,
703976.9018,3,-1.548,13.5,-5.913,,,,,,,,
703976.9216,3,-0.632,4.108,-0.199,,,,,,,,
703976.9415,3,-0.366,15.833,-4.108,4,-0.025,0.203,0,5,-23.242,-41.919,25.69
703976.9614,3,-1.306,9.636,-0.187,,,,,,,,
703976.9812,3,-0.254,8.516,0.301,,,,,,,,
703977.0011,3,0.244,12.368,-3.826,4,-0.005,0.12,-0.009,,,,
703977.021,3,-0.084,7.99,-1.493,,,,,,,,
703977.0408,3,0.555,8.16,-4.034,,,,,,,,
703977.0607,3,-0.785,10.576,-7.006,4,0.071,0.145,-0.03,5,-24.033,-42.406,25.836
703977.0806,3,-1.28,5.695,-2.615,,,,,,,,
703977.1004,3,0.359,14.503,-0.474,,,,,,,,
703977.1203,3,0.438,11.064,1.697,4,-0.094,0.149,-0.064,5,-23.19,-42.909,27.718
703977.1402,3,0.921,4.178,-0.888,,,,,,,,
703977.16,3,-0.072,8.554,-6.633,,,,,,,,
703977.1799,3,-0.443,12.443,-6.044,4,0.097,-0.008,-0.12,5,-22.873,-43.24,26.373
703977.1998,3,-1.06,6.465,-2.225,,,,,,,,
703977.2196,3,-1.823,9.858,-2.654,,,,,,,,
703977.2395,3,-1.469,12.62,-3.702,4,-0.048,0.088,-0.11,5,-24.01,-42.653,26.37
703977.2594,3,-0.828,5.054,-1.429,,,,,,,,
703977.2792,3,0.024,16.173,-3.025,,,,,,,,
703977.2991,3,-0.491,6.965,0.392,4,-0.055,0.062,-0.082,5,-23.631,-43.793,26.814
703977.3189,3,-0.797,12.313,-4.458,,,,,,,,
703977.3388,3,-1.457,7.82,-2.728,,,,,,,,
703977.3587,3,-1.199,10.275,0.928,4,-0.027,-0.03,-0.075,5,-22,-42.366,26.611
703977.3785,3,0.306,7.518,0.215,,,,,,,,
703977.3984,3,0.292,12.538,-5.621,,,,,,,,
703977.4183,3,-2.218,4.991,-4.032,4,0.022,-0.18,-0.034,,,,
703977.4382,3,-0.479,10.875,-4.13,,,,,,,,
703977.458,3,1.036,11.404,-1.431,,,,,,,,
703977.4779,3,1.211,5.623,0.531,4,-0.092,-0.169,0.051,5,-20.668,-42.432,25.79
703977.4978,3,1.311,14.771,-5.358,,,,,,,,
703977.5176,3,0.823,5.937,-0.806,,,,,,,,
703977.5375,3,1.048,9.779,-2.252,4,0.017,-0.101,-0.006,,,,
703977.5573,3,0.117,11,-4.082,,,,,,,,
703977.5772,3,0.156,5.561,-2.687,,,,,,,,
703977.5971,3,-0.835,9.885,-4.355,4,-0.002,-0.009,-0.044,5,-22.101,-42.279,26.373
703977.617,3,0.737,14.314,-0.95,,,,,,,,
703977.6368,3,1.113,6.106,2.634,,,,,,,,
703977.6567,3,0.22,10.201,-3.611,4,-0.052,-0.059,-0.04,5,-21.346,-42.915,26.044
703977.6766,3,0.304,6.485,-5.937,,,,,,,,
703977.6964,3,-1.723,12.012,-5.47,,,,,,,,
703977.7163,3,-1.184,5.827,-1.07,4,0.019,-0.04,-0.043,5,-21.336,-42.593,27.827
703977.7362,3,-0.593,14.833,-3.269,,,,,,,,
703977.756,3,-1.015,5.054,-2.11,,,,,,,,
703977.7759,3,-1.515,13.847,-3.237,4,-0.057,-0.11,-0.007,5,-22.008,-42.603,25.455
703977.7958,3,-0.754,11.88,1.668,,,,,,,,
703977.8156,3,-0.581,3.022,0.225,,,,,,,,
703977.8355,3,-0.474,15.833,-7.071,4,0.029,-0.224,0.049,5,-21.977,-42.9,25.647
703977.8554,3,-0.881,7.523,-1.323,,,,,,,,
703977.8752,3,-1.048,6.853,-2.991,,,,,,,,
703977.8951,3,0.139,12.488,-1.711,4,0.012,-0.182,0.125,5,-21.063,-41.574,25.497
703977.915,3,1.452,7.829,-0.837,,,,,,,,
703977.9348,3,-0.756,8.841,-3.235,,,,,,,,
703977.9547,3,0.06,12.16,-4.587,4,0.062,-0.061,0.128,5,-20.749,-40.433,25.6
703977.9746,3,1.907,7.171,-3.025,,,,,,,,
703977.9944,3,0.684,7.887,-5.561,,,,,,,,
703978.0143,3,0.608,15.91,-5.157,4,0.06,0.135,0.084,5,-21.991,-42.365,26.373
703978.0342,3,-0.864,6.296,4.247,,,,,,,,
703978.054,3,-1.067,7.619,-0.134,,,,,,,,
703978.0739,3,-1.065,13.584,-4.061,4,-0.011,0.157,0.014,,,,
703978.0938,3,-0.625,5.939,-2.187,,,,,,,,
703978.1136,3,-1.311,14.972,-5.432,,,,,,,,
703978.1335,3,-1.981,5.011,-2.323,4,0.043,0.052,0.021,5,-22.159,-44.035,26.974
703978.1534,3,-0.723,11,-1.95,,,,,,,,
703978.1732,3,-0.079,10.052,-1.888,,,,,,,,
703978.1931,3,-0.747,4.199,0.103,4,-0.052,0.11,0.044,5,-23.375,-43.964,24.922
703978.2129,3,-0.692,14.07,-4.29,,,,,,,,
703978.2328,3,-0.555,11.356,-4.709,,,,,,,,
703978.2527,3,-0.983,2.448,-1.421,4,0.024,0.138,0.034,5,-22.775,-43.336,26.192
703978.2725,3,-1.141,14.345,-4.175,,,,,,,,
703978.2924,3,0.366,7.262,-1.089,,,,,,,,
703978.3123,3,-0.132,17.336,-2.481,4,-0.088,0.171,0.063,5,-22.968,-43.77,24.635
703978.3322,3,0.017,2.283,3.405,,,,,,,,
703978.352,3,0.158,12.806,-3.19,,,,,,,,
703978.3719,3,-0.39,7.021,-4.147,4,0.004,0.038,0.016,5,-24.254,-43.364,24.681
703978.3918,3,-0.897,12.117,-5.693,,,,,,,,
703978.4116,3,-0.617,12.304,-0.299,,,,,,,,
703978.4315,3,0.022,1.979,1.12,4,-0.06,0.131,0.025,5,-22.678,-44.705,24.875
703978.4513,3,-0.045,20.894,-7.238,,,,,,,,
703978.4712,3,-1.019,4.606,3.252,,,,,,,,
703978.4911,3,-0.258,15.467,-1.467,4,0.032,0.124,0.01,5,-23.642,-43.494,24.194
703978.5109,3,-0.029,1.141,1.11,,,,,,,,
703978.5308,3,-0.323,15.438,-10.27,,,,,,,,
703978.5507,3,-1.132,6.899,-4.597,4,0.16,0.129,-0.03,5,-22.975,-42.302,26.707
703978.5706,3,-1.263,11.043,-1.328,,,,,,,,
703978.5904,3,0.428,5.614,-0.498,,,,,,,,
703978.6103,3,0.196,12.419,-3.441,4,-0.037,0.169,-0.038,,,,
703978.6302,3,0.732,10.301,-3.498,,,,,,,,
703978.65,3,-0.103,7.801,-2.103,,,,,,,,
703978.6699,3,-0.249,10.873,-3.733,4,0.059,0.149,-0.067,5,-23.195,-44.06,25.984
703978.6897,3,-1.417,4.142,-2.161,,,,,,,,
703978.7096,3,-1.572,10.756,-7.308,,,,,,,,
703978.7295,3,-0.706,14.041,-1.804,4,-0.038,0.129,-0.062,5,-24.693,-43.381,25.642
703978.7493,3,-0.735,1.505,2.307,,,,,,,,
703978.7692,3,-1.342,17.728,-3.295,,,,,,,,
703978.7891,3,0.167,9.995,3.115,4,-0.135,0.019,-0.024,5,-24.037,-43.701,24.576
703978.8089,3,0.244,4.912,0.596,,,,,,,,
703978.8288,3,-1.027,10.361,-7.147,,,,,,,,
703978.8487,3,-0.182,16.161,-4.946,4,0.056,0.015,-0.035,5,-22.71,-45.851,25.954
703978.8686,3,0.782,2.946,2.953,,,,,,,,
703978.8884,3,-0.285,12.462,-4.099,,,,,,,,
703978.9083,3,0.581,11.445,-2.122,4,-0.077,0.153,-0.058,5,-22.455,-44.467,24.199
703978.9281,3,0.617,4.211,0.541,,,,,,,,
703978.948,3,0.215,19.662,-5.953,,,,,,,,
703978.9679,3,-0.208,2.828,1.85,4,0.027,0.069,-0.115,5,-21.4,-45.303,26.241
703978.9877,3,-0.301,12.239,-5.755,,,,,,,,
703979.0076,3,-1.228,9.258,-6.202,,,,,,,,
703979.0275,3,-0.792,11.28,-1.357,4,0.053,-0.022,-0.154,5,-21.443,-46.39,24.693
703979.0473,3,-0.419,6.358,1.455,,,,,,,,
703979.0672,3,-1.503,14.584,-6.549,,,,,,,,
703979.0871,3,-1.184,3.24,-2.754,4,0.017,-0.267,-0.123,5,-21.399,-45.151,24.495
703979.1069,3,-0.022,14.438,-5.805,,,,,,,,
703979.1268,3,-0.237,9.361,-0.01,,,,,,,,
703979.1467,3,0.316,9.224,-0.395,4,-0.028,-0.127,-0.001,,,,
703979.1665,3,0.385,12.079,-2.986,,,,,,,,
703979.1864,3,-0.407,7.356,-1.752,,,,,,,,
703979.2063,3,-0.103,8.136,-3.829,4,0.068,0.042,-0.023,5,-20.224,-44.702,26.828
703979.2261,3,-0.639,14.993,-4.996,,,,,,,,
703979.246,3,-1.132,0.347,-0.634,,,,,,,,
703979.2659,3,-1.646,13.479,-5.391,4,-0.039,-0.088,-0.036,,,,
703979.2857,3,0.459,12.787,0.232,,,,,,,,
703979.3056,3,-0.12,5.439,4.089,,,,,,,,
703979.3255,3,0.548,11.586,-3.132,4,-0.128,-0.354,0.012,5,-20.447,-44.273,25.79
703979.3453,3,0.208,9.715,-3.97,,,,,,,,
703979.3652,3,0.431,8.573,-3.635,,,,,,,,
703979.385,3,-1.05,6.078,-4.376,4,0.047,-0.233,0.042,5,-19.606,-43.962,25.667
703979.4049,3,0.94,17.719,-4.972,,,,,,,,
703979.4248,3,0.287,1.534,2.941,,,,,,,,
703979.4447,3,-0.141,14.553,-5.104,4,-0.09,0.125,0.052,5,-20.717,-44.609,25.082
703979.4645,3,-0.27,11.201,0.081,,,,,,,,
703979.4844,3,1.158,5.657,2.118,,,,,,,,
703979.5043,3,0.335,13.974,-4.589,4,-0.001,0.11,-0.02,5,-21.225,-43.301,26.52
703979.5241,3,-1.302,4.984,-2.654,,,,,,,,
703979.544,3,-1.055,12.962,-5.925,,,,,,,,
703979.5639,3,-0.9,7.568,-1.974,4,0.05,0.005,-0.071,5,-20.345,-43.99,26.044
703979.5837,3,-1.287,5.408,-3.362,,,,,,,,
703979.6036,3,-0.345,14.958,-3.757,,,,,,,,
703979.6235,3,0.232,11.385,-0.12,4,-0.087,-0.227,-0.031,5,-20.151,-43.466,25.456
703979.6433,3,-0.096,10.729,0.357,,,,,,,,
703979.6632,3,-0.577,6.767,1.369,,,,,,,,
703979.6831,3,0.486,10.705,-4.611,4,0.061,-0.451,0.011,,,,
703979.7029,3,-0.069,9.167,-5.52,,,,,,,,
703979.7228,3,-1.531,8.361,-5.972,,,,,,,,
703979.7427,3,0.701,8.93,-2.493,4,0.108,-0.157,0.098,5,-19.53,-43.257,25.652
703979.7626,3,0.084,8.48,-2.065,,,,,,,,
703979.7824,3,0.96,12.756,-1.845,,,,,,,,
703979.8023,3,0.998,8.971,1.895,4,-0.059,0.128,0.102,,,,
703979.8221,3,0.39,9.736,-1.876,,,,,,,,
703979.842,3,-0.615,-3.972,-4.7,,,,,,,,
703979.8619,3,-3.472,17.786,-14.625,4,0.168,0.016,0.001,5,-20.329,-44.746,26.041
703979.8817,3,-1.761,12.483,-4.207,,,,,,,,
703979.9016,3,-1.462,11.064,3.893,,,,,,,,
703979.9215,3,-1.187,2.223,3.429,4,-0.275,-0.043,0.083,5,-19.37,-43.816,23.772
703979.9413,3,-0.022,16.814,-2.749,,,,,,,,
703979.9612,3,1.23,10.373,1.409,,,,,,,,
703979.9811,3,0.05,3.106,0.014,4,-0.033,-0.296,0.114,5,-20.634,-44.621,26.291
703980.001,3,-0.103,15.388,-7.466,,,,,,,,
703980.0208,3,-0.179,8.502,-3.596,,,,,,,,
703980.0407,3,-0.438,8.337,-3.02,4,0.058,0.052,0.113,5,-20.906,-43.053,25.652
703980.0605,3,-0.335,9.751,1.704,,,,,,,,
703980.0804,3,0.225,6.544,-0.727,,,,,,,,
703980.1003,3,0.06,13.828,-5.961,4,-0.02,0.184,0.083,5,-20.43,-43.562,26.379
703980.1201,3,-1.041,10.478,-2.941,,,,,,,,
703980.14,3,-1.137,8.911,-0.981,,,,,,,,
703980.1599,3,0.895,7.846,-1.316,4,0.004,0.159,0.042,5,-21.657,-44.539,25.751
703980.1797,3,-0.816,14.718,-4.245,,,,,,,,
703980.1996,3,-1.759,5.47,0.73,,,,,,,,
703980.2195,3,-0.754,3.486,-3.427,4,0.027,0.077,0.005,5,-23.36,-43.35,25.739
703980.2393,3,-1.232,21.698,-10.098,,,,,,,,
703980.2592,3,-2.477,2.462,0.708,,,,,,,,
703980.279,3,-0.325,12.045,0.371,4,-0.024,-0.056,0.05,5,-21.75,-42.877,25.055
703980.2989,3,1.431,14.359,-0.837,,,,,,,,
703980.3188,3,1.091,9.389,0.079,,,,,,,,
703980.3387,3,0.062,7.822,-1.811,4,0.07,-0.025,0.054,,,,
703980.3585,3,1.079,8.83,-6.303,,,,,,,,
703980.3784,3,1.45,11.6,-7.389,,,,,,,,
703980.3983,3,0.414,10.165,-4.886,4,0.14,0.156,0.035,5,-24.904,-42.427,22.501
703980.4181,3,-0.191,11.509,-1.646,,,,,,,,
703980.438,3,-0.328,5.19,3.611,,,,,,,,
703980.4579,3,-0.421,12.239,-2.948,4,-0.018,0.205,-0.071,5,-21.962,-42.656,26.271
703980.4777,3,1.125,11.727,-3.793,,,,,,,,
703980.4976,3,-0.469,1.931,-4.008,,,,,,,,
703980.5174,3,-1.89,12.976,-7.071,4,0.187,0.072,-0.12,5,-22.957,-42.763,24.335
703980.5373,3,-1.218,10.784,-3.955,,,,,,,,
703980.5572,3,-1.519,10.265,1.362,,,,,,,,
703980.5771,3,-0.735,8.509,1.177,4,-0.101,0.032,-0.068,5,-21.957,-42.604,26.093
703980.5969,3,-0.715,7.621,-4.192,,,,,,,,
703980.6168,3,-0.749,13.732,-6.15,,,,,,,,
703980.6367,3,-0.412,10.038,-2.099,4,0.032,-0.309,0.004,5,-21.294,-40.643,26.173
703980.6565,3,1.33,8.765,-1.905,,,,,,,,
703980.6764,3,0.876,9.72,-2.448,,,,,,,,
703980.6962,3,-0.244,8.535,-2.503,4,-0.025,-0.026,0.043,5,-20.66,-41.864,24.918
703980.7161,3,1.539,6.633,-0.912,,,,,,,,
703980.736,3,1.634,12.481,-4.738,,,,,,,,
703980.7558,3,-0.517,6.525,-3.324,4,0.029,0.253,-0.036,5,-21.309,-41.194,24.73
703980.7757,3,-2.551,10.969,-3.759,,,,,,,,
703980.7956,3,-0.292,12.641,-0.974,,,,,,,,
703980.8154,3,-0.294,6.748,2.706,4,-0.087,0.258,-0.107,5,-21.356,-41.495,24.152
703980.8353,3,-0.799,9.902,-1.883,,,,,,,,
703980.8552,3,-1.919,7.633,-4.281,,,,,,,,
703980.8751,3,-1.393,12.452,-5.879,4,0.082,-0.221,-0.135,,,,
703980.8949,3,-1.742,8.466,-2.314,,,,,,,,
703980.9148,3,-1.031,8.006,-0.873,,,,,,,,
703980.9346,3,-0.739,8.897,-1.594,4,-0.07,-0.266,0,5,-22.569,-43.372,23.604
703980.9545,3,-0.912,15.242,-4.266,,,,,,,,
703980.9744,3,-0.096,8.057,0.258,,,,,,,,
703980.9942,3,0.079,5.621,-1.321,4,0.017,-0.221,0.096,,,,
703981.0141,3,0.352,11.813,-6.367,,,,,,,,
703981.034,3,0.239,9.265,-3.06,,,,,,,,
703981.0538,3,0.476,9.459,-2.376,4,0.04,0.051,0.102,5,-20.465,-43.28,25.648
703981.0737,3,0.95,9.701,-0.476,,,,,,,,
703981.0936,3,0.112,7.913,-1.905,,,,,,,,
703981.1134,3,0.352,12.364,-3.127,4,-0.044,0.219,0.019,5,-21.758,-43.309,24.919
703981.1333,3,-0.747,9.093,-1.728,,,,,,,,
703981.1532,3,0.129,11.66,-2.273,,,,,,,,
703981.173,3,-0.091,8.645,-1.864,4,-0.043,0.057,-0.045,5,-22.682,-42.708,21.06
703981.1929,3,2.46,19.289,-2.637,,,,,,,,
703981.2128,3,0.388,-7.987,3.415,,,,,,,,
703981.2326,3,-0.239,14.63,-8.815,4,0.044,-0.091,-0.111,5,-21.532,-43.301,23.563
703981.2525,3,-0.359,9.863,-6.367,,,,,,,,
703981.2724,3,-1.972,3.393,-2.304,,,,,,,,
703981.2922,3,-0.668,16.049,-3.927,4,-0.019,-0.064,-0.038,5,-20.95,-43.002,24.051
703981.3121,3,-1.318,5.348,0.12,,,,,,,,
703981.332,3,-0.019,10.981,-3.285,,,,,,,,
703981.3518,3,0.048,7.602,-0.773,4,-0.057,-0.148,-0.022,5,-20.709,-43.753,23.471
703981.3717,3,-0.928,12.268,-3.214,,,,,,,,
703981.3915,3,-0.084,3.17,-1.945,,,,,,,,
703981.4114,3,-2.378,17.518,-9.308,4,0.08,-0.04,-0.02,,,,
703981.4313,3,0.077,3.833,1.909,,,,,,,,
703981.4512,3,1.058,14.362,1.732,,,,,,,,
703981.471,3,-0.919,10.387,-0.426,4,-0.145,0.002,0.038,5,-21.204,-42.163,23.468
703981.4909,3,-0.646,5.87,-1.615,,,,,,,,
703981.5108,3,-0.572,13.797,-5.793,,,,,,,,
703981.5306,3,0.371,2.886,-3.034,4,0.087,-0.264,0.003,,,,
703981.5505,3,0.598,12.144,-5.874,,,,,,,,
703981.5704,3,0.318,12.68,-3.857,,,,,,,,
703981.5902,3,-0.902,2.434,-0.857,4,-0.044,-0.016,0.045,5,-20.427,-42.889,23.697
703981.6101,3,-0.768,17.685,-1.955,,,,,,,,
703981.63,3,0.407,8.88,1.431,,,,,,,,
703981.6498,3,0.488,5.188,-0.507,4,-0.047,-0.03,0.028,5,-22.485,-42.093,24.191
703981.6697,3,-1.261,11.064,-6.217,,,,,,,,
703981.6896,3,-0.806,9.337,-4.355,,,,,,,,
703981.7094,3,-0.787,11.526,-1.773,4,0.035,-0.149,0.026,5,-20.026,-43.265,22.745
703981.7293,3,-1.653,8.023,0.11,,,,,,,,
703981.7492,3,-0.632,8.753,-1.845,,,,,,,,
703981.7691,3,0.225,9.258,-4.353,4,-0.031,-0.163,0.058,5,-21.002,-42.946,22.554
703981.7889,3,-0.574,15.472,-3.79,,,,,,,,
703981.8088,3,-0.189,4.568,1.888,,,,,,,,
703981.8286,3,-0.778,9.643,-5.508,4,0.021,-0.035,0.09,5,-21.66,-44.35,22.746
703981.8485,3,0.311,11.911,-5.905,,,,,,,,
703981.8684,3,-1.204,6.796,0.017,,,,,,,,
703981.8882,3,0.194,12.931,-2.079,4,0.001,0.029,0.075,5,-21.364,-43.44,22.464
703981.9081,3,-0.038,9.722,-0.713,,,,,,,,
703981.928,3,-1.12,6.446,-3.953,,,,,,,,
703981.9478,3,-1.371,14.603,-6.355,4,0.103,-0.058,0.041,5,-21.373,-44.011,24.2
703981.9677,3,2.35,6.518,0.83,,,,,,,,
703981.9876,3,0.342,8.169,-1.091,,,,,,,,
703982.0075,3,-0.914,11.512,-4.958,4,0.014,0.139,0.072,5,-21.164,-44.476,22.748
703982.0273,3,-0.883,11.852,-2.687,,,,,,,,
703982.0472,3,0.261,9.275,0.33,,,,,,,,
703982.067,3,-1.395,4.039,-2.027,4,0.029,0.163,0.019,,,,
703982.0869,3,-1.512,7.968,-6.542,,,,,,,,
703982.1068,3,-1.563,11.605,-6.197,,,,,,,,
703982.1266,3,-1.565,14.539,-1.644,4,0.019,0.029,0.029,5,-20.575,-43.848,22.896
703982.1465,3,-0.546,5.791,3.979,,,,,,,,
703982.1664,3,0.68,10.028,-2.615,,,,,,,,
703982.1862,3,-0.112,9.176,-3.393,4,-0.034,-0.053,0.068,5,-22.368,-45.14,23.149
703982.2061,3,0.598,13.625,-4.491,,,,,,,,
703982.226,3,-0.072,5.137,-0.895,,,,,,,,
703982.2458,3,-0.785,11.818,-5.769,4,0.057,0.081,0.044,5,-23.56,-45.139,23.116
703982.2657,3,-0.519,7.851,-4.999,,,,,,,,
703982.2856,3,0.462,14.034,-2.888,,,,,,,,
703982.3054,3,0.158,8.839,2.39,4,-0.081,0.175,0.043,5,-23.296,-46.341,21.585
703982.3253,3,0.677,7.109,-0.29,,,,,,,,
703982.3452,3,-1.034,9.511,-5.91,,,,,,,,
703982.365,3,-0.773,9.835,-6.087,4,0.075,0.028,-0.032,5,-23.657,-46.675,22.749
703982.3849,3,-0.732,13.062,-3.19,,,,,,,,
703982.4048,3,-0.089,8.528,1.448,,,,,,,,
703982.4246,3,-1.56,2.099,-1.323,4,-0.081,0.083,-0.012,,,,
703982.4445,3,-0.723,16.302,-5.379,,,,,,,,
703982.4644,3,0.309,11.83,1.127,,,,,,,,
703982.4842,3,0.38,4.819,1.924,4,-0.053,0.024,0.003,5,-22.9,-46.611,23.187
703982.5041,3,-0.629,10.605,-5.267,,,,,,,,
703982.5239,3,-0.983,8.772,-5.362,,,,,,,,
703982.5438,3,-0.921,12.419,-4.159,4,0.071,0.018,-0.015,5,-24.155,-48.735,22.807
703982.5637,3,-0.55,8.277,0.167,,,,,,,,
703982.5836,3,0.287,5.934,-1.814,,,,,,,,
703982.6034,3,-0.849,11.237,-6.669,4,0.011,0.096,-0.016,,,,
703982.6233,3,-1.366,14.448,-5.125,,,,,,,,
703982.6432,3,0.261,8.164,2.302,,,,,,,,
703982.663,3,0.258,6.123,0.122,4,-0.069,0.152,0.008,5,-25.287,-47.864,23.476
703982.6829,3,-0.048,15.333,-5.434,,,,,,,,
703982.7028,3,-0.663,2.852,0.481,,,,,,,,
703982.7226,3,0.163,10.428,-5.444,4,0.046,0.046,-0.024,5,-25.473,-48.393,23.483
703982.7425,3,0.39,16.446,-3.618,,,,,,,,
703982.7623,3,0.273,-0.424,-1.144,,,,,,,,
703982.7822,3,-0.261,18.485,-8.102,4,-0.002,-0.033,-0.027,5,-24.162,-49.261,26.007
703982.8021,3,-0.488,9.318,1.744,,,,,,,,
703982.8219,3,0.759,8.358,0.931,,,,,,,,
703982.8418,3,0.792,8.751,-2.273,4,-0.044,-0.16,-0.005,5,-24.15,-46.971,24.585
703982.8617,3,-0.77,6.748,-5.269,,,,,,,,
703982.8816,3,-0.797,14.505,-6.989,,,,,,,,
703982.9014,3,-0.328,10.895,-3.36,4,0.065,-0.088,0.008,5,-26.128,-48.413,27.835
703982.9213,3,0.29,6.02,1.888,,,,,,,,
703982.9412,3,0.313,8.722,-2.02,,,,,,,,
703982.961,3,1.563,18.169,-3.884,4,-0.031,0.001,0.007,5,-24.739,-49.048,27.158
703982.9809,3,0.665,3.85,2.678,,,,,,,,
703983.0007,3,0.041,8.827,-3.943,,,,,,,,
703983.0206,3,0.94,12.768,-4.68,4,0.058,-0.022,-0.042,5,-23.656,-46.925,27.596
703983.0405,3,-0.136,2.149,-2.383,,,,,,,,
703983.0603,3,-1.493,14.936,-7.001,,,,,,,,
703983.0802,3,-0.361,6.693,-0.574,4,-0.006,0,-0.045,5,-23.038,-46.913,28.996
703983.1001,3,-0.701,7.37,-1.51,,,,,,,,
703983.1199,3,-0.366,16.996,-4.518,,,,,,,,
703983.1398,3,-0.373,3.371,0.644,4,-0.015,-0.016,-0.032,,,,
703983.1597,3,0.562,8.279,-4.211,,,,,,,,
703983.1796,3,-1.285,14.359,-5.642,,,,,,,,
703983.1994,3,-1.07,6.93,1.493,4,-0.019,-0.012,-0.021,5,-22.086,-46.272,29.475
703983.2193,3,-0.761,6.011,-0.514,,,,,,,,
703983.2391,3,-0.27,17.281,-6.772,,,,,,,,
703983.259,3,-0.842,4.173,0.605,4,-0.024,-0.18,0.004,,,,
703983.2789,3,1.137,16.64,-2.941,,,,,,,,
703983.2987,3,0.263,4.561,0.177,,,,,,,,
703983.3186,3,0.414,9.176,-5.456,4,0.02,-0.152,0.066,5,-20.981,-44.879,30.605
703983.3385,3,-0.28,9.064,-6.176,,,,,,,,
703983.3583,3,0.424,14.484,-1.893,,,,,,,,
703983.3782,3,0.053,2.347,3.484,4,-0.043,0.132,0.041,5,-21.121,-43.082,28.545
703983.3981,3,0.199,15.417,-5.14,,,,,,,,
703983.4179,3,-2.077,5.085,-3.314,,,,,,,,
703983.4378,3,-1.606,8.361,-3.427,4,0.058,-0.001,-0.026,5,-22.56,-43.997,27.205
703983.4577,3,-0.002,14.57,-2.182,,,,,,,,
703983.4775,3,-0.402,5.645,0.56,,,,,,,,
703983.4974,3,-1.287,13.476,-4.087,4,-0.033,-0.114,0.04,5,-21.208,-42.732,28.552
703983.5173,3,-1.228,5.652,-1.003,,,,,,,,
703983.5371,3,0.031,8.349,-1.919,,,,,,,,
703983.557,3,-0.309,12.909,-3.233,4,0.016,-0.136,0.078,5,-20.689,-43.622,28.947
703983.5769,3,-0.677,9.002,-3.343,,,,,,,,
703983.5967,3,-1.687,3.74,-2.974,,,,,,,,
703983.6166,3,-0.273,17.331,-6.561,4,0.053,-0.031,0.104,,,,
703983.6365,3,-0.354,5.233,0.476,,,,,,,,
703983.6563,3,1.534,10.1,-0.436,,,,,,,,
703983.6762,3,-0.266,8.064,-3.087,4,-0.036,0.186,0.12,5,-20.346,-41.855,28.355
703983.6961,3,0.333,10.019,-3.374,,,,,,,,
703983.7159,3,-0.538,11.16,-2.804,,,,,,,,
703983.7358,3,-0.828,8.195,-1.359,4,0.045,0.245,0.039,5,-21.805,-41.553,27.478
703983.7557,3,-0.045,10.014,-3.36,,,,,,,,
703983.7756,3,-1.137,7.372,-5.238,,,,,,,,
703983.7954,3,-0.431,13.888,-5.563,4,0.008,0.127,0.006,,,,
703983.8153,3,-0.266,4.223,1.479,,,,,,,,
703983.8352,3,1.484,15.807,-1.563,,,,,,,,
703983.855,3,-0.926,4.867,0.132,4,-0.078,0.024,0.011,5,-22.391,-42.235,24.454
703983.8749,3,0.029,12.615,-5.659,,,,,,,,
703983.8947,3,-0.445,6.729,-3.716,,,,,,,,
703983.9146,3,0.002,9.497,-2.735,4,0.042,0.031,0.013,5,-21.982,-41.602,27.246
703983.9345,3,-1.086,8.093,-3.216,,,,,,,,
703983.9543,3,-0.969,12.916,-2.795,,,,,,,,
703983.9742,3,0.754,8.7,0.89,4,-0.084,0.11,0.051,5,-22.604,-41.144,23.732
703983.9941,3,0.534,7.482,0.66,,,,,,,,
703984.014,3,0.452,5.949,-3.147,,,,,,,,
703984.0332,3,-0.751,14.579,-6.552,4,0.082,0.078,0.011,5,-23.793,-42.653,24.191
703984.0537,3,-0.194,5.291,-5.937,,,,,,,,
703984.0736,3,-0.191,16.317,-3.84,,,,,,,,
703984.0934,3,-0.134,2.651,1.28,4,-0.062,0.292,0.001,5,-23.059,-41.913,24.625
703984.1133,3,0.699,17.41,-2.101,,,,,,,,
703984.1331,3,-1.335,7.128,1.314,,,,,,,,
703984.153,3,-0.096,13.424,-0.9,4,-0.016,0.206,-0.063,,,,
703984.1729,3,-0.325,4.558,-1.421,,,,,,,,
703984.1927,3,-0.723,13.603,-6.987,,,,,,,,
703984.2126,3,-0.668,11.849,-3.226,4,0.097,0.012,-0.081,5,-22.205,-42.607,24.709
703984.2325,3,-1.376,2.307,0.246,,,,,,,,
703984.2523,3,-1.476,12.957,-5.14,,,,,,,,
703984.2722,3,-1.247,8.475,-1.668,4,-0.026,-0.022,-0.065,5,-22.845,-43.335,24.754
703984.2921,3,0.562,13.117,-2.017,,,,,,,,
703984.312,3,0.345,6.724,-2.697,,,,,,,,
703984.3318,3,-0.658,11.268,-5.35,4,0.068,-0.023,-0.039,,,,
703984.3517,3,0.292,9.535,-2.749,,,,,,,,
703984.3715,3,-0.074,10.435,-2.359,,,,,,,,
703984.3914,3,-0.596,7.056,-1.213,4,-0.028,0.129,-0.027,5,-22.461,-43.083,24.908
703984.4113,3,-0.931,9.643,-3.455,,,,,,,,
703984.4311,3,-0.754,9.691,-2.668,,,,,,,,
703984.451,3,0.744,11.859,0.335,4,-0.039,0.071,-0.037,5,-22.095,-44.136,24.144
703984.4709,3,0.785,11.261,-0.613,,,,,,,,
703984.4907,3,0.806,8.26,-3.249,,,,,,,,
703984.5106,3,0.579,5.977,-3.924,4,0.04,0.012,-0.076,5,-22.676,-42.599,24.635
703984.5305,3,0.05,13.828,-4.771,,,,,,,,
703984.5503,3,-0.529,6.695,-1.675,,,,,,,,
703984.5702,3,-0.627,15.132,-3.422,4,-0.013,0.138,-0.093,5,-20.349,-44.038,25.214
703984.5901,3,-1.306,1.78,-1.641,,,,,,,,
703984.6099,3,-0.572,17.317,-3.862,,,,,,,,
703984.6298,3,-0.443,11.758,1.084,4,-0.07,-0.014,-0.085,5,-21.225,-45.377,24.203
703984.6497,3,-0.591,4.341,-1.228,,,,,,,,
703984.6695,3,-0.414,8.614,-5.812,,,,,,,,
703984.6894,3,-1.079,13.091,-5.255,4,0.058,-0.147,-0.078,,,,
703984.7093,3,-0.361,10.866,-1.218,,,,,,,,
703984.7291,3,0.759,6.977,1.888,,,,,,,,
703984.749,3,-0.438,7.793,-4.049,4,-0.082,0.02,-0.049,5,-19.594,-44.684,25.278
703984.7689,3,-0.055,10.397,-3.678,,,,,,,,
703984.7887,3,0.043,13.285,-1.232,,,,,,,,
703984.8086,3,0.261,5.365,1.462,4,-0.037,-0.01,-0.052,,,,
703984.8284,3,0.818,13.787,-4.034,,,,,,,,
703984.8483,3,-1.323,5.927,-4.362,,,,,,,,
703984.8682,3,0.378,11.337,-4.465,4,0.046,-0.025,-0.105,5,-20.706,-44.038,24.287
703984.8881,3,-2.228,5.755,-1.804,,,,,,,,
703984.9079,3,-1.409,11.476,-4.18,,,,,,,,
703984.9278,3,-2.101,7.298,-4.807,4,-0.054,-0.096,-0.075,5,-20.024,-43.309,23.471
703984.9477,3,-0.019,17.269,-1.436,,,,,,,,
703984.9675,3,0.541,2.247,5.123,,,,,,,,
703984.9874,3,-0.244,15.257,-2.673,4,-0.095,-0.258,0.016,,,,
703985.0073,3,-1.302,8.272,-3.429,,,,,,,,
703985.0271,3,-1.574,6.377,-2.773,,,,,,,,
703985.047,3,-0.234,8.296,-4.463,4,0.086,-0.165,0.053,5,-18.69,-43.713,24.939
703985.0668,3,0.967,15.958,-4.192,,,,,,,,
703985.0867,3,0.404,6.219,-0.462,,,,,,,,
703985.1066,3,1.625,14.886,-0.826,4,-0.072,0.018,0.083,5,-20.424,-43.411,24.493
703985.1264,3,0.5,7.652,1.823,,,,,,,,
703985.1463,3,1.598,5.336,-0.282,,,,,,,,
703985.1662,3,0.304,14.68,-6.717,4,0.072,-0.109,-0.004,5,-18.114,-43.32,24.93
703985.1861,3,-0.069,6.719,-3.096,,,,,,,,
703985.2059,3,0.01,9.94,-3.194,,,,,,,,
703985.2258,3,-0.727,9.595,-3.716,4,0.01,-0.13,-0.036,5,-19.255,-42.728,24.927
703985.2456,3,-0.254,6.485,-1.941,,,,,,,,
703985.2655,3,-0.531,12.936,-1.072,,,,,,,,
703985.2854,3,0.9,10.72,-0.153,4,-0.048,-0.243,-0.009,5,-19.199,-42.249,24.054
703985.3052,3,-1.505,8.198,-1.845,,,,,,,,
703985.3251,3,-1.144,9.026,-4.491,,,,,,,,
703985.345,3,-0.761,11.703,-4.211,4,0.081,-0.25,0.009,,,,
703985.3648,3,-0.17,8.128,-1.309,,,,,,,,
703985.3847,3,-1.5,6.042,-2.46,,,,,,,,
703985.4046,3,-0.208,15.453,-4.752,4,-0.01,-0.147,0.084,5,-19.11,-43.016,25.652
703985.4244,3,-1.117,4.604,-0.672,,,,,,,,
703985.4443,3,-0.696,13.012,-3.278,,,,,,,,
703985.4642,3,-0.467,5.147,-0.73,4,-0.006,-0.123,0.154,5,-19.592,-41.693,26.093
703985.484,3,-0.187,13.632,-5.58,,,,,,,,
703985.5039,3,-0.065,9.251,-2.556,,,,,,,,
703985.5238,3,-0.266,7.262,-1.563,4,0.027,0.011,0.173,,,,
703985.5436,3,0.38,11.687,-2.711,,,,,,,,
703985.5635,3,0.191,9.849,-1.127,,,,,,,,
703985.5834,3,0.447,10.796,-2.792,4,0.019,0.112,0.152,5,-19.965,-40.744,24.974
703985.6032,3,0.005,6.061,-0.428,,,,,,,,
703985.6231,3,-0.756,15.434,-4.144,,,,,,,,
703985.643,3,-0.402,7.535,1.239,4,-0.002,0.082,0.139,5,-19.678,-41.444,23.801
703985.6629,3,1.151,10.387,-0.249,,,,,,,,
703985.6827,3,1.122,5.738,-2.189,,,,,,,,
703985.7026,3,0.254,10.775,-6.939,4,0.102,0.053,0.095,5,-19.998,-41.835,24.2
703985.7225,3,-0.708,11.289,-6.767,,,,,,,,
703985.7423,3,-0.615,1.586,-1.567,,,,,,,,
703985.7622,3,-1.699,12.359,-4.386,4,0.042,0.256,0.067,5,-21.483,-41.162,24.382
703985.7821,3,-0.007,15.556,-0.766,,,,,,,,
703985.8019,3,0.294,4.865,1.823,,,,,,,,
703985.8218,3,1.117,15.391,-0.153,4,-0.05,0.221,0.045,5,-21.271,-41.156,24.577
703985.8417,3,-0.134,0.768,-0.826,,,,,,,,
703985.8615,3,0.23,16.525,-8.236,,,,,,,,
703985.8814,3,-0.579,3.927,-5.642,4,0.174,0.157,0.016,,,,
703985.9013,3,-0.601,12.227,-5.245,,,,,,,,
703985.9211,3,-0.804,5.712,-1.682,,,,,,,,
703985.941,3,-0.278,15.884,-5.094,4,-0.035,0.291,0.002,5,-22.673,-42.487,24.831
703985.9608,3,0.132,9.641,0.625,,,,,,,,
703985.9807,3,0.232,5.58,0.952,,,,,,,,
703986.0006,3,0.641,15.642,-5.011,4,-0.004,0.173,-0.032,,,,
703986.0205,3,-0.055,3.175,-1.321,,,,,,,,
703986.0403,3,-1.134,12.608,-6.642,,,,,,,,
703986.0602,3,-1.108,6.621,-2.639,4,0.063,0.255,-0.055,5,-22.215,-41.884,23.706
703986.0801,3,-0.627,8.112,-4.405,,,,,,,,
703986.0999,3,-0.519,17.642,-1.965,,,,,,,,
703986.1198,3,0.469,5.267,4.606,4,-0.152,0.287,-0.087,5,-21.86,-41.745,24.042
703986.1397,3,-0.823,8.633,-0.579,,,,,,,,
703986.1595,3,-0.134,9.701,-4.13,,,,,,,,
703986.1794,3,0.603,11.722,-6.183,4,0.125,0.105,-0.165,5,-22.649,-41.284,22.636
703986.1992,3,0.014,7.674,-4.561,,,,,,,,
703986.2191,3,-0.857,11.923,-6.41,,,,,,,,
703986.239,3,-0.474,9.093,-1.941,4,-0.03,0.206,-0.175,5,-22.122,-43.753,23.917
703986.2588,3,-0.806,2.704,-0.084,,,,,,,,
703986.2787,3,0.29,17.623,-3.084,,,,,,,,
703986.2986,3,-0.735,5.432,1.247,4,-0.064,0.125,-0.205,5,-23.735,-41.769,19.983
703986.3185,3,-2.173,8.609,-5.858,,,,,,,,
703986.3383,3,-1.838,10.849,-5.587,,,,,,,,
703986.3582,3,-0.852,8.992,-2.424,4,0.057,-0.172,-0.218,5,-19.815,-43.979,23.23
703986.3781,3,0,6.36,-0.675,,,,,,,,
703986.3979,3,-0.601,12.603,-3.505,,,,,,,,
703986.4178,3,-1.481,6.092,-3.589,4,-0.089,-0.349,-0.117,,,,
703986.4376,3,0.033,16.36,-3.958,,,,,,,,
703986.4575,3,0.029,11.194,1.244,,,,,,,,
703986.4774,3,0.337,5.334,2.192,4,-0.105,-0.407,-0.004,5,-20.331,-44.557,23.619
703986.4972,3,1.065,13.429,-4.094,,,,,,,,
703986.5171,3,0.366,8.916,-3.273,,,,,,,,
703986.537,3,0.234,8.468,-2.008,4,0.039,-0.26,0.007,,,,
703986.5568,3,-0.11,9.976,-2.187,,,,,,,,
703986.5767,3,-1.292,8.069,-3.211,,,,,,,,
703986.5966,3,-0.522,12.266,-2.501,4,-0.052,-0.092,-0.002,5,-19.066,-44.008,23.532
703986.6164,3,0.847,13.175,0.744,,,,,,,,
703986.6363,3,1.871,3.374,1.622,,,,,,,,
703986.6562,3,0.251,12.038,-4.348,4,-0.058,-0.186,-0.021,5,-18.906,-44.797,23.871
703986.676,3,-0.871,9.626,-5.137,,,,,,,,
703986.6959,3,-0.713,8.095,-2.745,,,,,,,,
703986.7158,3,-1.634,9.155,-2.69,4,0.014,-0.29,0.001,5,-18.022,-43.214,22.752
703986.7356,3,0.388,15.893,-2.173,,,,,,,,
703986.7555,3,-0.794,1.563,-0.677,,,,,,,,
703986.7754,3,-1.041,17.561,-6.616,4,-0.026,-0.248,0.056,5,-16.872,-43.715,24.55
703986.7952,3,-1.125,5.611,0.849,,,,,,,,
703986.8151,3,-0.304,11.012,-3.604,,,,,,,,
703986.835,3,-0.596,12.101,-4.716,4,0.023,-0.217,0.118,5,-19.339,-42.622,25.31
703986.8548,3,-1.297,6.018,-0.325,,,,,,,,
703986.8747,3,-1.251,8.291,-3.807,,,,,,,,
703986.8946,3,-0.644,8.413,-4.015,4,0.016,-0.061,0.152,5,-19.35,-43.108,25.934
703986.9144,3,-0.378,9.858,-1.756,,,,,,,,
703986.9343,3,-1.074,14.211,-0.574,,,,,,,,
703986.9542,3,-0.096,10.217,1.074,4,-0.084,0.094,0.151,5,-18.713,-42.52,24.199
703986.974,3,0.301,8.576,-0.024,,,,,,,,
703986.9939,3,0.352,8.193,-2.424,,,,,,,,
703987.0138,3,-0.029,10.978,-4.329,4,0.094,0.037,0.123,5,-19.339,-42.537,24.687
703987.0336,3,-0.857,8.207,-4.539,,,,,,,,
703987.0535,3,-1.716,5.87,-3.919,,,,,,,,
703987.0733,3,-0.057,21.313,-3.86,4,0.038,0.226,0.093,,,,
703987.0932,3,-0.467,-1.596,3.249,,,,,,,,
703987.1131,3,0.321,15.632,-4.3,,,,,,,,
703987.1329,3,-0.77,11.71,-4.286,4,0.035,0.159,0.076,5,-20.668,-42.278,23.903
703987.1528,3,-0.617,8.1,-4.187,,,,,,,,
703987.1727,3,-0.754,12.854,-3.36,,,,,,,,
703987.1926,3,-0.641,5.046,0.806,4,0.049,0.139,0.046,5,-20.84,-41.859,24.821
703987.2124,3,0.189,14.304,-3.769,,,,,,,,
703987.2323,3,-0.38,7.123,-2.936,,,,,,,,
703987.2522,3,-1.847,3.721,-2.838,4,0.024,0.175,0.031,5,-21.428,-42.491,23.564
703987.272,3,-0.761,15.424,-3.829,,,,,,,,
703987.2919,3,-0.407,10.61,-2.962,,,,,,,,
703987.3117,3,-1.06,8.506,-0.024,4,-0.038,0.115,0.031,5,-22.131,-41.89,24.481
703987.3316,3,-0.828,9.94,-0.732,,,,,,,,
703987.3515,3,0.012,6.875,-1.78,,,,,,,,
703987.3713,3,0.634,9.397,-5.216,4,0.093,0.124,0.01,5,-22.693,-42.372,22.249
703987.3912,3,-0.696,7.75,-5.865,,,,,,,,
703987.4111,3,-1.512,10.727,-2.548,,,,,,,,
703987.4309,3,-0.318,9.291,-0.96,4,-0.046,0.404,-0.036,5,-21.123,-41.307,23.987
703987.4508,3,-1.11,14.027,-1.687,,,,,,,,
703987.4707,3,0.424,9.672,2.57,,,,,,,,
703987.4906,3,-0.507,4.35,-0.955,4,-0.077,0.248,-0.095,5,-20.288,-42.696,23.045
703987.5104,3,-1.024,14.941,-4.494,,,,,,,,
703987.5303,3,0.287,7.978,-3.192,,,,,,,,
703987.5501,3,-0.139,12.531,-4.35,4,0.074,-0.059,-0.121,5,-20.66,-41.904,21.962
703987.57,3,0.055,11.375,-1.747,,,,,,,,
703987.5899,3,-0.744,2.443,0.438,,,,,,,,
703987.6097,3,0.505,15.206,-2.364,4,-0.09,-0.129,-0.117,,,,
703987.629,3,0.416,10.918,-0.756,,,,,,,,
703987.6495,3,1.366,11.249,-0.66,,,,,,,,
703987.6694,3,-1.993,-3.226,-3.046,4,0.044,-0.217,-0.118,5,-21.202,-44.33,22.945
703987.6892,3,-0.479,21.59,-11.375,,,,,,,,
703987.7091,3,-1.17,8.54,-3.044,,,,,,,,
703987.729,3,-0.706,6.403,0.682,4,-0.007,-0.036,-0.06,5,-21.405,-45.427,23.47
703987.7488,3,-0.002,10.698,-2.524,,,,,,,,
703987.7687,3,0.22,10.301,-3.829,,,,,,,,
703987.7886,3,0.589,16.348,-2.51,4,-0.042,-0.026,-0.068,5,-20.209,-43.797,24.698
703987.8084,3,-0.246,5.238,3.838,,,,,,,,
703987.8283,3,-0.258,11.012,-3.348,,,,,,,,
703987.8482,3,-1.196,5.554,-3.912,4,0.044,-0.092,-0.083,5,-19.044,-44.957,22.325
703987.868,3,-0.993,17.448,-5.484,,,,,,,,
703987.8879,3,1.644,0.759,2.402,,,,,,,,
703987.9078,3,0.493,15.809,-3.613,4,-0.011,-0.093,-0.075,5,-18.565,-43.796,23.476
703987.9276,3,-1.584,3.235,-2.419,,,,,,,,
703987.9475,3,-2.027,7.212,-4.037,,,,,,,,
703987.9674,3,0.983,22.55,-2.788,4,-0.004,-0.208,-0.075,5,-19.916,-43.932,23.474
703987.9872,3,0.225,-1.543,4.36,,,,,,,,
703988.0071,3,-1.749,11.253,-3.692,,,,,,,,
703988.027,3,-1.273,8.514,-5.147,4,-0.007,-0.35,-0.08,5,-18.692,-43.466,23.965
703988.0468,3,0.502,12.687,-2.879,,,,,,,,
703988.0667,3,0.452,8.746,-1.103,,,,,,,,
703988.0866,3,-1.79,10.282,-4.051,4,-0.015,-0.328,0.011,5,-18.697,-43.66,24.93
703988.1064,3,-2.656,10.923,-3.817,,,,,,,,
703988.1263,3,-1.842,12.101,-2.606,,,,,,,,
703988.1462,3,-0.029,9.772,2.07,4,-0.013,-0.187,0.081,,,,
703988.166,3,0.55,9.002,-0.036,,,,,,,,
703988.1859,3,-0.62,8.626,-6.252,,,,,,,,
703988.2058,3,-1.728,8.894,-4.979,4,0.129,-0.134,0.074,5,-18.094,-42.693,25.372
703988.2256,3,-1.931,6.779,-3.687,,,,,,,,
703988.2455,3,-1.328,15.065,-3.671,,,,,,,,
703988.2653,3,-2.369,2.077,-0.29,4,-0.015,-0.094,0.133,,,,
703988.2852,3,-0.737,15.625,-4.924,,,,,,,,
703988.3051,3,1.51,10.837,0,,,,,,,,
703988.325,3,-0.065,12.144,1.448,4,-0.083,-0.113,0.184,5,-18.164,-43.506,25.807
703988.3448,3,-0.182,5.85,0.723,,,,,,,,
703988.3647,3,-1.086,4.702,-3.403,,,,,,,,
703988.3846,3,-0.591,12.799,-9.947,4,0.104,-0.112,0.146,5,-19.141,-43.719,25.418
703988.4044,3,1.036,17.276,-2.977,,,,,,,,
703988.4243,3,-0.581,5.221,2.276,,,,,,,,
703988.4441,3,0.421,2.288,2.06,4,-0.16,0.164,0.213,5,-19.2,-42.484,24.199
703988.464,3,0.885,21.217,-7.327,,,,,,,,
703988.4839,3,-0.122,7.999,0.053,,,,,,,,
703988.5037,3,0.534,6.14,0.335,4,0.031,0.108,0.164,5,-18.944,-42.387,24.199
703988.5236,3,-0.28,11.734,-5.815,,,,,,,,
703988.5435,3,-0.349,8.928,-5.939,,,,,,,,
703988.5633,3,-1.287,10.347,-5.137,4,0.07,0.209,0.085,5,-17.902,-44.753,25.714
703988.5832,3,-1.213,9.693,0.053,,,,,,,,
703988.6031,3,-2.144,6.353,2.615,,,,,,,,
703988.623,3,-0.735,14.627,-3.544,4,-0.093,0.194,0.032,5,-22.633,-42.94,22.803
703988.6428,3,-1.898,10.074,-2.821,,,,,,,,
703988.6627,3,-0.45,0.273,-2.242,,,,,,,,
703988.6825,3,-0.388,19.327,-6.004,4,0.071,0.064,0.017,,,,
703988.7024,3,-0.869,6.104,0.526,,,,,,,,
703988.7223,3,-0.498,11.38,-1.108,,,,,,,,
703988.7421,3,-2.237,3.333,-2.924,4,-0.017,0.135,0.012,5,-20.689,-43.282,24.007
703988.762,3,-0.407,20.033,-5.367,,,,,,,,
703988.7819,3,-0.237,2.453,1.649,,,,,,,,
703988.8017,3,-1.228,12.208,-2.996,4,0.042,0.102,0.026,,,,
703988.8216,3,-1.065,13.57,-3.979,,,,,,,,
703988.8415,3,-0.38,10.306,-1.771,,,,,,,,
703988.8613,3,-0.036,8.93,-0.124,4,0.016,0.211,0.03,5,-19.984,-43.265,24.583
703988.8812,3,0.306,6.939,2.465,,,,,,,,
703988.9011,3,-0.459,12.703,-5.939,,,,,,,,
703988.9209,3,-0.96,13.476,-6.999,4,0.125,0.241,-0.025,5,-19.656,-44.389,23.476
703988.9408,3,-0.948,3.223,-1.725,,,,,,,,
703988.9607,3,-0.469,10.504,-2.096,,,,,,,,
703988.9805,3,0.94,15.565,-2.496,4,-0.054,0.222,-0.06,5,-21.283,-41.966,26.19
703989.0004,3,0.797,4.877,1.235,,,,,,,,
703989.0203,3,-0.11,8.27,-2.06,,,,,,,,
703989.0401,3,-0.409,11.122,-3.525,4,0.013,0.061,-0.147,5,-19.553,-42.531,23.95
703989.06,3,-0.081,8.791,-4.812,,,,,,,,
703989.0799,3,-0.711,7.169,-4.422,,,,,,,,
703989.0997,3,-0.744,12.926,-4.534,4,0.035,-0.057,-0.133,5,-19.206,-42.973,23.613
703989.1196,3,0.285,8.918,-0.945,,,,,,,,
703989.1394,3,0.907,14.314,-1.826,,,,,,,,
703989.1593,3,-0.967,3.946,-0.84,4,-0.075,-0.045,-0.083,5,-18.797,-43.947,23.677
703989.1792,3,0.354,13.735,-3.632,,,,,,,,
703989.1991,3,-0.392,8.676,-3.927,,,,,,,,
703989.2189,3,0.244,10.141,-1.953,4,0.005,-0.038,-0.08,5,-18.214,-43.927,21.771
703989.2388,3,1.546,12.232,-0.495,,,,,,,,
703989.2587,3,-0.129,7.121,-0.651,,,,,,,,
703989.2785,3,-0.869,6.97,-4.889,4,-0.019,0.088,-0.119,5,-18.964,-43.806,25.368
703989.2984,3,-0.522,15.747,-3.01,,,,,,,,
703989.3183,3,0.644,6.899,1.34,,,,,,,,
703989.3381,3,-0.505,9.411,-2.527,4,-0.044,-0.036,-0.107,,,,
703989.358,3,-1.012,11.957,-5.532,,,,,,,,
703989.3778,3,-0.313,4.589,0.06,,,,,,,,
703989.3977,3,-0.218,12.105,-2.948,4,-0.018,-0.237,-0.095,5,-17.397,-45.107,23.238
703989.4176,3,-1.103,7.442,-2.319,,,,,,,,
703989.4374,3,-1.436,10.074,-4.455,,,,,,,,
703989.4573,3,-2.154,8.495,-6.43,4,0.068,-0.365,-0.049,5,-16.748,-45.935,23.589
703989.4772,3,0.112,18.095,-2.919,,,,,,,,
703989.4971,3,-0.199,4.896,3.884,,,,,,,,
703989.5169,3,0.495,10.729,-2.024,4,-0.074,-0.319,0.078,5,-17.255,-44.624,24.35
703989.5368,3,0.163,8.724,-3.991,,,,,,,,
703989.5567,3,-1.239,9.294,-3.625,,,,,,,,
703989.5765,3,0.476,11.567,-3.321,4,0.079,-0.193,0.092,5,-17.458,-45.674,25.044
703989.5964,3,0.313,11.119,-0.124,,,,,,,,
703989.6162,3,-1.457,2.984,-3.103,,,,,,,,
703989.6361,3,-0.876,10.737,-4.704,4,0.037,-0.048,0.093,5,-15.852,-43.878,24.741
703989.656,3,0.715,12.495,-1.409,,,,,,,,
703989.6758,3,1.017,6.042,-0.756,,,,,,,,
703989.6957,3,1.005,8.947,-3.991,4,-0.021,-0.021,0.117,5,-16.714,-44.617,25.659
703989.7156,3,-0.694,14.012,-5.898,,,,,,,,
703989.7355,3,0.981,5.133,-1.742,,,,,,,,
703989.7553,3,0.397,14.374,-0.818,4,-0.05,0.094,0.074,5,-17.25,-46.388,24.403
703989.7752,3,-0.483,2.52,1.586,,,,,,,,
703989.7951,3,-1.232,10.842,-5.262,,,,,,,,
703989.8149,3,-1.137,18.954,-6.647,4,0.039,0.042,0.027,5,-17.419,-44.334,24.249
703989.8348,3,-1.649,4.365,1.847,,,,,,,,
703989.8547,3,-0.086,13.201,-0.045,,,,,,,,
703989.8745,3,-0.237,8.346,-2.225,4,-0.039,-0.023,0.095,,,,
703989.8944,3,-0.617,10.026,-3.371,,,,,,,,
703989.9143,3,-1.323,9.722,-3.714,,,,,,,,
703989.9341,3,-1.117,6.169,-3.589,4,0.09,0,0.097,5,-19.272,-43.295,24.974
703989.954,3,-0.323,5.049,-4.539,,,,,,,,
703989.9739,3,-0.991,18.568,-6.193,,,,,,,,
703989.9937,3,1.306,11.868,0.964,4,-0.03,0.23,0.105,,,,
703990.0136,3,2.563,0.622,3.336,,,,,,,,
703990.0335,3,-0.043,11.33,-5.113,,,,,,,,
703990.0533,3,0.725,13.302,-4.814,4,0.081,0.224,0.011,5,-17.781,-42.725,24.202
703990.0732,3,-2.084,4.472,-3.867,,,,,,,,
703990.0931,3,-0.742,12.555,-4.427,,,,,,,,
703990.1129,3,-0.636,8.284,-0.325,4,-0.002,0.238,0.017,5,-18.962,-43.376,24.202
703990.1328,3,-0.01,9.502,-2.079,,,,,,,,
703990.1527,3,-0.122,13.201,-1.529,,,,,,,,
703990.1725,3,-0.342,8.92,0.33,4,-0.011,0.181,-0.012,5,-20.308,-42.758,25.349
703990.1924,3,1.196,8.356,-4.336,,,,,,,,
703990.2123,3,0.438,9.176,-7.205,,,,,,,,
703990.2321,3,-0.931,8.873,-4.003,4,0.096,0.133,-0.063,5,-18.604,-43.329,26.009
703990.252,3,-0.299,11.462,-0.742,,,,,,,,
703990.2718,3,-0.134,7.925,-1.371,,,,,,,,
703990.2917,3,-0.211,6.465,-2.319,4,-0.115,0.187,-0.066,5,-17.116,-44.337,23.479
703990.3116,3,-0.682,11.514,-3.221,,,,,,,,
703990.3315,3,-0.352,13.852,-2.189,,,,,,,,
703990.3513,3,1.618,10.409,-2.039,4,0.007,0.021,-0.1,5,-18.286,-44.888,23.724
703990.3712,3,-0.605,4.475,-0.723,,,,,,,,
703990.3911,3,0.041,13.393,-5.166,,,,,,,,
703990.4109,3,0.433,7.339,-3.321,4,0.027,0.085,-0.141,,,,
703990.4308,3,-0.519,10.347,-2.962,,,,,,,,
703990.4507,3,-0.443,11.275,-2.422,,,,,,,,
703990.4705,3,-0.811,4.338,-2.151,4,-0.034,0.094,-0.173,5,-16.84,-44.176,22.899
703990.4904,3,-1.007,16.053,-5.044,,,,,,,,
703990.5102,3,-0.696,8.014,-1.168,,,,,,,,
703990.5301,3,-0.347,8.351,-2.503,4,-0.004,-0.108,-0.16,,,,
703990.55,3,-0.383,9.086,-3.503,,,,,,,,
703990.5698,3,-0.869,11.868,-4.147,,,,,,,,
703990.5897,3,0.483,9.916,-0.22,4,-0.042,-0.219,-0.129,5,-16.725,-44.995,24.602
703990.6096,3,-0.285,7.009,0.424,,,,,,,,
703990.6295,3,-0.89,7.743,-2.737,,,,,,,,
703990.6493,3,-1.814,7.643,-3.568,4,-0.052,-0.3,-0.106,5,-16.011,-45.306,24.014
703990.6692,3,0.129,12.921,-4.161,,,,,,,,
703990.6891,3,0.263,11.804,-1.67,,,,,,,,
703990.7089,3,0.706,8.286,0.459,4,-0.087,-0.282,-0.023,5,-15.378,-44.583,23.482
703990.7288,3,0.756,7.607,-0.067,,,,,,,,
703990.7486,3,0.16,4.197,-4.477,,,,,,,,
703990.7685,3,-0.426,13.146,-7.377,4,0.068,-0.244,-0.035,5,-15.053,-45.47,23.831
703990.7884,3,-0.811,14.448,-4.223,,,,,,,,
703990.8082,3,-0.971,5.226,-1.519,,,,,,,,
703990.8281,3,0.211,14.914,-1.613,4,-0.115,-0.235,0.024,5,-14.752,-46.326,24.985
703990.848,3,-0.904,4.807,2.831,,,,,,,,
703990.8678,3,0.273,11.505,-0.821,,,,,,,,
703990.8877,3,-0.007,7.913,-2.091,4,-0.011,-0.315,0.028,5,-14.731,-45.422,25.072
703990.9076,3,-1.306,6.123,-5.207,,,,,,,,
703990.9275,3,-1.534,17.647,-10.37,,,,,,,,
703990.9473,3,-0.711,11.239,-1.405,4,0.07,-0.224,0.06,5,-14.119,-45.976,25.488
703990.9672,3,0.34,2.374,4.257,,,,,,,,
703990.987,3,-0.026,8.27,-1.496,,,,,,,,
703991.0069,3,0.653,18.398,-3.204,4,-0.067,-0.142,0.089,5,-15.21,-46.248,24.704
703991.0268,3,-0.256,5.458,0.057,,,,,,,,
703991.0466,3,-1.058,7.712,-4.668,,,,,,,,
703991.0665,3,-1.618,9.971,-4.85,4,0.12,-0.246,0.065,,,,
703991.0864,3,-0.486,8.973,-2.242,,,,,,,,
703991.1062,3,-0.672,10.457,-0.986,,,,,,,,
703991.1261,3,0.455,10.394,-0.502,4,-0.021,-0.166,0.142,5,-15.811,-46.014,24.507
703991.146,3,-0.581,7.011,-3.202,,,,,,,,
703991.1659,3,-0.311,16.891,-6.169,,,,,,,,
703991.1857,3,-0.012,9.342,0.601,4,0.112,-0.172,0.143,5,-15.868,-44.688,23.886
703991.2056,3,1.067,7.903,0.837,,,,,,,,
703991.2254,3,-1.306,5.042,-4.242,,,,,,,,
703991.2453,3,-2.295,11.785,-7.576,4,0.158,-0.086,0.155,5,-16.472,-45.323,27.022
703991.2652,3,-0.574,10.983,-3.974,,,,,,,,
703991.285,3,0.622,11.567,-0.407,,,,,,,,
703991.3049,3,-0.888,4.697,0.179,4,-0.005,0.057,0.215,5,-17.659,-44.638,26.099
703991.3248,3,-1.005,10.016,-5.425,,,,,,,,
703991.3446,3,0.019,12.163,-2.725,,,,,,,,
703991.3645,3,-0.01,7.901,-0.065,4,0.048,0.186,0.199,5,-17.151,-44.385,26.376
703991.3844,3,-0.029,12.213,-0.543,,,,,,,,
703991.4042,3,-0.567,8.971,-1.656,,,,,,,,
703991.4241,3,-0.553,9.129,-4.817,4,0.042,0.309,0.12,5,-18.082,-43.884,25.656
703991.444,3,-0.488,7.281,-0.964,,,,,,,,
703991.4638,3,-0.074,11.268,-2.022,,,,,,,,
703991.4837,3,-0.986,7.669,-3.343,4,-0.034,0.314,0.069,5,-18.175,-44.371,26.242
703991.5036,3,-0.818,14.331,-4.439,,,,,,,,
703991.5234,3,-1.972,8.401,0.368,,,,,,,,
703991.5433,3,0.79,8.435,0.706,4,-0.035,0.169,0.036,5,-17.766,-43.597,26.384
703991.5632,3,0.249,9.729,-1.905,,,,,,,,
703991.583,3,-0.325,11.761,-4.826,,,,,,,,
703991.6029,3,-0.694,9.191,-5.087,4,0.076,0.117,0.012,,,,
703991.6228,3,-0.866,10.722,-2.637,,,,,,,,
703991.6426,3,-0.971,3.17,-0.672,,,,,,,,
703991.6625,3,-1.062,17.767,-1.493,4,-0.09,0.174,0.014,5,-18.689,-43.43,25.459
703991.6823,3,1.105,10.5,-1.445,,,,,,,,
703991.7022,3,0.244,6.389,0.141,,,,,,,,
703991.7221,3,0.352,11.234,-3.872,4,0.029,-0.012,0.003,5,-18.698,-43.953,26.379
703991.742,3,0.89,9.672,-4.721,,,,,,,,
703991.7618,3,0.938,10.679,-4.573,,,,,,,,
703991.7817,3,0.871,5.003,-3.022,4,0.105,0.172,0.004,5,-16.106,-45.651,26.01
703991.8016,3,0.615,8.923,-3.888,,,,,,,,
703991.8214,3,-0.029,11.615,-4.245,,,,,,,,
703991.8413,3,0.491,17.018,-0.943,4,-0.012,0.533,-0.104,5,-18.677,-42.902,26.039
703991.8612,3,0.203,6.628,4.759,,,,,,,,
703991.881,3,-1.598,2.338,-2.584,,,,,,,,
703991.9009,3,-2.266,8.183,-8.289,4,0.126,0.426,-0.271,5,-20.419,-43.423,25.075
703991.9208,3,-2.656,7.848,-9.476,,,,,,,,
703991.9406,3,-2.132,19.841,-4.621,,,,,,,,
703991.9605,3,0.321,10.394,0.933,4,-0.156,0.131,-0.234,5,-19.354,-43.298,25.652
703991.9804,3,-1.775,-1.625,4.865,,,,,,,,
703992.0002,3,-1.931,16.953,-4.494,,,,,,,,
703992.0201,3,0.718,13.204,-1.993,4,-0.158,-0.414,-0.174,5,-18.503,-44.653,23.479
703992.04,3,-2.158,5.958,0.328,,,,,,,,
703992.0599,3,0.172,11.641,-4.606,,,,,,,,
703992.0797,3,1.043,10.253,-4.561,4,-0.046,-0.521,-0.045,5,-18.062,-45.071,24.779
703992.0996,3,1.409,7.497,0.103,,,,,,,,
703992.1194,3,0.806,7.195,-1.644,,,,,,,,
703992.1393,3,1.577,11.074,-4.369,4,-0.059,-0.127,0.033,,,,
703992.1592,3,-0.313,6.705,-4.453,,,,,,,,
703992.179,3,1.445,17.515,-8.047,,,,,,,,
703992.1989,3,0.148,9.744,0.287,4,-0.021,0.146,-0.051,5,-17.462,-44.095,22.495
703992.2188,3,0.378,1.787,5.669,,,,,,,,
703992.2386,3,-0.237,13.048,-4.123,,,,,,,,
703992.2585,3,-0.857,7.887,-4.783,4,-0.02,-0.033,-0.184,,,,
703992.2784,3,-1.792,9.074,-4.259,,,,,,,,
703992.2982,3,-0.467,16.123,-4.494,,,,,,,,
703992.3181,3,-1.905,0.77,1.053,4,-0.078,-0.546,-0.147,5,-16.725,-45.044,24.649
703992.338,3,-1.239,8.77,-1.773,,,,,,,,
703992.3578,3,1.752,17.329,-3.159,,,,,,,,
703992.3777,3,0.885,7.253,2.046,4,-0.096,-0.839,0.036,5,-15.388,-44.817,23.248
703992.3976,3,0.024,7.705,-1.429,,,,,,,,
703992.4174,3,-0.84,12.861,-7.293,,,,,,,,
703992.4373,3,0.256,8.573,-2.345,4,0.113,-0.638,0.115,5,-15.35,-45.396,26.442
703992.4572,3,0.756,9.083,-1.242,,,,,,,,
703992.477,3,0.692,10.548,-1.146,,,,,,,,
703992.4969,3,0.306,2.434,-2.101,4,0.072,-0.092,0.173,5,-15.245,-44.424,26.534
703992.5168,3,-0.139,17.463,-8.83,,,,,,,,
703992.5366,3,0.768,6.379,0.292,,,,,,,,
703992.5565,3,1.182,9.703,0.211,4,0.097,0.092,0.153,5,-16.029,-43.887,26.778
703992.5763,3,0.089,12.814,-3.63,,,,,,,,
703992.5962,3,-0.665,9.904,-1.598,,,,,,,,
703992.6161,3,-1.149,4.563,-0.38,4,0.136,0.143,0.045,5,-16.698,-44.038,27.505
703992.636,3,-1.67,10.72,-5.838,,,,,,,,
703992.6558,3,-2.194,6.719,-5.231,,,,,,,,
703992.6757,3,-3.197,14.632,-5.176,4,0.095,0.019,0.083,,,,
703992.6956,3,-1.096,13.249,-0.199,,,,,,,,
703992.7154,3,1.036,2.422,4.214,,,,,,,,
703992.7353,3,-1.436,12.151,-3.101,4,-0.057,-0.134,0.167,5,-17.148,-42.154,28.177
703992.7552,3,-1.898,9.715,-4.314,,,,,,,,
703992.775,3,-1.216,7.234,-3.826,,,,,,,,
703992.7949,3,-0.751,14.589,-5.896,4,0.148,-0.04,0.245,,,,
703992.8147,3,0.486,5.484,-1.175,,,,,,,,
703992.8346,3,0.782,9.65,0.668,,,,,,,,
703992.8545,3,0.993,10.698,-1.531,4,-0.038,0.4,0.236,5,-19.829,-40.036,26.154
703992.8744,3,1.651,6.145,-0.201,,,,,,,,
703992.8942,3,0.368,11.672,-5.054,,,,,,,,
703992.9141,3,-1.689,5.896,-6.114,4,0.14,0.483,0.076,5,-19.427,-40.55,26.373
703992.934,3,-1.924,9.023,-2.967,,,,,,,,
703992.9538,3,-0.541,8.294,-1.362,,,,,,,,
703992.9737,3,0.742,14.955,-1.809,4,-0.037,0.351,0.006,5,-19.345,-41.113,25.693
703992.9935,3,-0.306,4.477,-0.782,,,,,,,,
703993.0134,3,-0.127,16.362,-5.771,,,,,,,,
703993.0333,3,-1.551,10.117,-1.127,4,-0.003,0.23,-0.044,5,-21.104,-41.867,25.645
703993.0531,3,-1.156,0.431,-0.105,,,,,,,,
703993.073,3,-0.902,18.544,-5.149,,,,,,,,
703993.0929,3,-0.665,7.566,-0.536,4,-0.054,0.082,-0.041,5,-21.326,-42.029,25.645
703993.1127,3,-0.912,8.944,-1.775,,,,,,,,
703993.1326,3,-1.278,9.107,-1.462,,,,,,,,
703993.1525,3,0.234,4.936,-2.867,4,-0.005,0.067,-0.017,,,,
703993.1724,3,-0.601,11.99,-4.709,,,,,,,,
703993.1922,3,-0.038,11.861,-2.422,,,,,,,,
703993.2121,3,0.912,5.958,0.093,4,-0.034,0.383,0.001,5,-21.396,-41.066,23.372
703993.2319,3,0.567,8.894,-1.594,,,,,,,,
703993.2518,3,-0.455,13.314,-3.281,,,,,,,,
703993.2717,3,-0.34,2.039,2.721,4,-0.032,0.548,-0.128,5,-22.269,-42.323,23.906
703993.2915,3,-1.237,10.332,-5.365,,,,,,,,
703993.3114,3,-2.197,12.431,-5.803,,,,,,,,
703993.3313,3,-1.878,7.518,-2.632,4,-0.018,0.156,-0.219,,,,
703993.3511,3,-0.933,16.336,-0.579,,,,,,,,
703993.371,3,-1.766,7.655,3.202,,,,,,,,
703993.3909,3,0.103,9.835,-0.869,4,-0.161,-0.345,-0.146,5,-20.444,-42.792,23.953
703993.4107,3,0.323,6.989,-2.898,,,,,,,,
703993.4306,3,1.041,12.747,-4.209,,,,,,,,
703993.4505,3,0.806,9.232,-3.922,4,0.044,-0.491,-0.081,5,-20.642,-42.604,24.887
703993.4703,3,-0.022,6.473,-4.24,,,,,,,,
703993.4902,3,0.794,12.218,-2.477,,,,,,,,
703993.5101,3,0.306,6.561,0.677,4,-0.066,-0.111,-0.047,5,-18.44,-43.224,23.053
703993.5299,3,2.024,13.218,-0.436,,,,,,,,
703993.5498,3,1.259,7.083,-2.388,,,,,,,,
703993.5697,3,-0.45,10.28,-5.719,4,0.079,0.026,-0.129,5,-19.035,-45.053,24.599
703993.5895,3,-1.673,4.264,-4.465,,,,,,,,
703993.6094,3,-0.206,17.853,-5.214,,,,,,,,
703993.6293,3,-0.443,4.494,1.072,4,-0.066,-0.13,-0.131,5,-19.193,-44.154,23.878
703993.6491,3,-0.962,12.376,-2.819,,,,,,,,
703993.669,3,-0.203,9.5,-2.713,,,,,,,,
703993.6888,3,-0.311,12.105,-0.708,4,-0.035,-0.492,-0.077,,,,
703993.7087,3,-0.103,9.712,-2.398,,,,,,,,
703993.7286,3,0.019,9.784,-4.508,,,,,,,,
703993.7485,3,0.16,8.284,-3.19,4,0.058,-0.452,0.008,5,-15.872,-44.594,25.621
703993.7683,3,-0.648,9.133,-1.864,,,,,,,,
703993.7882,3,0.019,10.299,-2.367,,,,,,,,
703993.8081,3,0.007,10.691,0.617,4,-0.009,-0.209,0.052,5,-17.017,-44.246,27.11
703993.8279,3,-1.108,5.393,-3.604,,,,,,,,
703993.8478,3,-0.603,13.979,-4.388,,,,,,,,
703993.8677,3,0.246,8.095,-0.5,4,0.062,-0.283,0.056,,,,
703993.8875,3,0.9,9.035,-2.268,,,,,,,,
703993.9074,3,-0.723,11.084,-3.974,,,,,,,,
703993.9273,3,-0.194,8.77,-1.484,4,0.059,-0.154,0.077,5,-14.165,-44.423,27.116
703993.9471,3,-0.895,7.906,-3.113,,,,,,,,
703993.967,3,-0.993,11.426,-3.647,,,,,,,,
703993.9869,3,-0.897,6.53,-1.919,4,0.031,-0.099,0.096,,,,
703994.0067,3,-1.938,10.995,-3.113,,,,,,,,
703994.0266,3,-0.651,13.376,-1.711,,,,,,,,
703994.0465,3,-0.033,6.686,2.381,4,-0.007,-0.152,0.154,5,-16.238,-43.413,26.385
703994.0664,3,-0.562,12.993,-3.058,,,,,,,,
703994.0862,3,-0.749,6.619,-3.568,,,,,,,,
703994.1061,3,-0.692,8.968,-3.91,4,0.146,-0.103,0.188,5,-17.348,-43.208,27.402
703994.126,3,-1.354,8.191,-4.984,,,,,,,,
703994.1458,3,-1,14.048,-4.441,,,,,,,,
703994.1657,3,-1.412,4.661,-0.065,4,0.005,0.216,0.241,5,-17.415,-42.204,27.834
703994.1855,3,-0.668,15.482,-3.276,,,,,,,,
703994.2054,3,-0.708,8.511,0.952,,,,,,,,
703994.2253,3,-0.534,8.145,-1.316,4,0.025,0.312,0.213,5,-17.979,-41.612,26.566
703994.2451,3,-0.785,10.225,-4.668,,,,,,,,
703994.265,3,-0.718,9.899,-4.886,,,,,,,,
703994.2849,3,-0.782,8.774,-3.18,4,0.095,0.345,0.157,5,-20.529,-41.704,24.907
703994.3048,3,-0.115,11.091,-0.864,,,,,,,,
703994.3246,3,0.122,5.425,0.44,,,,,,,,
703994.3445,3,-0.596,11.373,-2.276,4,-0.063,0.374,0.113,,,,
703994.3643,3,-0.491,11.435,-1.962,,,,,,,,
703994.3842,3,0.526,7.942,-1.555,,,,,,,,
703994.4041,3,-0.4,8.638,-4.271,4,0.083,0.292,0.052,5,-21.291,-40.683,23.236
703994.4239,3,-0.033,9.368,-4.929,,,,,,,,
703994.4438,3,0.735,9.428,-3.582,,,,,,,,
703994.4637,3,0.232,8.48,-1.132,4,-0.003,0.356,0.017,5,-20.535,-42.566,25.073
703994.4835,3,0.419,12.591,-1.677,,,,,,,,
703994.5034,3,-0.378,7.372,-1.761,,,,,,,,
703994.5233,3,0.072,15.137,-4.374,4,-0.01,0.41,-0.059,,,,
703994.5431,3,-0.727,7.762,-0.019,,,,,,,,
703994.563,3,-0.077,9.59,-2.833,,,,,,,,
703994.5829,3,-0.502,8.813,-4.07,4,0.031,0.313,-0.122,5,-20.351,-41.788,23.468
703994.6027,3,-1.519,8.571,-3.97,,,,,,,,
703994.622,3,-1.161,11.617,-3.388,,,,,,,,
703994.6425,3,-0.641,11.096,0.522,4,-0.023,0.271,-0.142,5,-20.345,-41.327,23.596
703994.6623,3,-1.184,4.577,-0.636,,,,,,,,
703994.6822,3,-1.22,15.537,-4.692,,,,,,,,
703994.7021,3,-0.167,9.107,-0.23,4,-0.011,0.137,-0.143,5,-20.006,-42.555,24.922
703994.7219,3,-1.139,10.378,-1.364,,,,,,,,
703994.7418,3,-1.512,6.286,-1.89,,,,,,,,
703994.7617,3,-1.292,10.579,-4.408,4,0.041,-0.035,-0.139,5,-19.519,-42.731,24.736
703994.7815,3,-0.215,12.304,-4.692,,,,,,,,
703994.8014,3,-0.538,8.377,-1.199,,,,,,,,
703994.8212,3,0.172,5.099,-0.323,4,-0.048,-0.135,-0.067,5,-19.038,-43.158,24.158
703994.8411,3,-0.988,11.194,-4.891,,,,,,,,
703994.861,3,-0.452,10.447,-4.367,,,,,,,,
703994.8809,3,3.383,15.84,-0.144,4,-0.028,-0.153,-0.012,,,,
703994.9007,3,1.828,0.715,3.431,,,,,,,,
703994.9206,3,0.73,9.284,-6.039,,,,,,,,
703994.9405,3,0.457,11.026,-7.573,4,0.106,-0.111,-0.078,5,-16.226,-45.227,25.62
703994.9603,3,-0.491,6.753,-4.214,,,,,,,,
703994.9802,3,-0.514,9.222,-3.36,,,,,,,,
703995.0001,3,-1.101,6.116,-3.759,4,-0.042,-0.051,-0.035,5,-18.7,-43.947,25.175
703995.0199,3,0.165,17.527,-4.3,,,,,,,,
703995.0398,3,-0.345,6.765,3.175,,,,,,,,
703995.0596,3,0.491,7.959,0.412,4,-0.134,-0.134,0.022,,,,
703995.0795,3,1.464,8.246,-1.01,,,,,,,,
703995.0994,3,1.244,11.454,-6.559,,,,,,,,
703995.1192,3,-0.079,10.256,-3.379,4,0.071,-0.01,-0.005,5,-19.096,-44.244,25.07
703995.1391,3,-1.091,6.808,-0.558,,,,,,,,
703995.159,3,-0.179,8.514,-2.244,,,,,,,,
703995.1789,3,-0.636,9.253,-0.596,4,-0.126,0.142,-0.021,5,-18.61,-43.848,24.93
703995.1987,3,0.347,13.139,-1.893,,,,,,,,
703995.2186,3,0.586,7.896,-0.132,,,,,,,,
703995.2385,3,0.115,6.994,-2.881,4,-0.03,-0.049,-0.057,5,-18.648,-45.093,23.666
703995.2583,3,-0.668,11.246,-5.434,,,,,,,,
703995.2782,3,-0.498,7.836,-2.91,,,,,,,,
703995.298,3,-0.464,9.038,-2.036,4,0.014,-0.157,-0.05,5,-18.179,-44.649,24.782
703995.3179,3,-0.199,15.056,-3.17,,,,,,,,
703995.3378,3,-0.615,5.721,-1.357,,,,,,,,
703995.3576,3,-0.019,15.561,-2.486,4,-0.039,-0.274,0.006,5,-17.818,-44.164,23.959
703995.3775,3,-0.869,9.626,-0.254,,,,,,,,
703995.3974,3,-0.56,6.207,-1.819,,,,,,,,
703995.4172,3,-1.194,13.969,-5.496,4,0.064,-0.258,0.088,,,,
703995.4371,3,-0.792,9.861,-1.998,,,,,,,,
703995.457,3,0.081,7.016,-0.328,,,,,,,,
703995.4769,3,0.347,17.448,-3.357,4,0.021,0.051,0.136,5,-16.969,-44.185,24.492
703995.4967,3,-1.826,-2.079,-0.275,,,,,,,,
703995.5166,3,-0.634,17.171,-6.334,,,,,,,,
703995.5364,3,-0.098,12.089,-1.819,4,0.048,0.205,0.104,,,,
703995.5563,3,-0.641,7.025,0.706,,,,,,,,
703995.5762,3,0.033,10.902,-3.494,,,,,,,,
703995.596,3,-0.366,9.782,-3.893,4,0.011,0.242,0.063,5,-19.06,-43.904,25.545
703995.6159,3,-0.158,8.897,-0.912,,,,,,,,
703995.6358,3,-0.644,9.602,-2.656,,,,,,,,
703995.6556,3,-0.4,7.86,-3.561,4,0.029,0.253,0.014,5,-18.414,-44.652,24.207
703995.6755,3,-1.015,10.227,-4.041,,,,,,,,
703995.6954,3,-0.424,9.389,-4.242,,,,,,,,
703995.7152,3,1.158,7.267,2.053,4,-0.066,0.167,0.021,5,-19.36,-43.251,24.924
703995.7351,3,0.493,10,-0.835,,,,,,,,
703995.755,3,-0.165,8.243,-3.403,,,,,,,,
703995.7748,3,-1.089,9.05,-5.025,4,0.051,0.08,-0.038,5,-21.021,-43.814,23.663
703995.7947,3,-0.347,8.274,-4.288,,,,,,,,
703995.8146,3,0.519,14.335,-2.503,,,,,,,,
703995.8344,3,-0.194,1.596,-0.211,4,-0.023,0.235,-0.038,5,-19.731,-44.351,25.613
703995.8543,3,-0.022,17.408,-6.772,,,,,,,,
703995.8742,3,-1.436,5.518,1.254,,,,,,,,
703995.894,3,-1.237,12.079,-1.484,4,-0.03,0.276,-0.1,5,-19.518,-44.257,23.476
703995.9139,3,-0.593,10.165,-2,,,,,,,,
703995.9338,3,-0.857,7.674,-2.311,,,,,,,,
703995.9536,3,-0.708,11.005,-5.073,4,0.043,0.097,-0.15,5,-18.149,-43.355,24.841
703995.9735,3,-1.07,8.928,-2.972,,,,,,,,
703995.9934,3,-0.613,6.36,-0.282,,,,,,,,
703996.0132,3,-1.84,10.78,-2.879,4,-0.044,0.024,-0.138,5,-18.947,-44.897,23
703996.0331,3,-0.268,13.292,-3.438,,,,,,,,
703996.053,3,0.335,6.884,1.12,,,,,,,,
703996.0729,3,0.62,10.129,-3.192,4,-0.032,-0.104,-0.1,,,,
703996.0927,3,-0.084,8.913,-2.857,,,,,,,,
703996.1126,3,-0.065,7.992,-3.936,,,,,,,,
703996.1325,3,-0.572,10.906,-4.037,4,0.017,-0.129,-0.083,5,-17.514,-44.63,24.069
703996.1523,3,0.584,9.61,-0.847,,,,,,,,
703996.1722,3,0.505,4.912,-1.874,,,,,,,,
703996.192,3,0.744,16.822,-5.212,4,-0.057,-0.109,-0.07,5,-17.949,-44.023,24.303
703996.2119,3,0.165,8.535,0.227,,,,,,,,
703996.2318,3,0.486,8.296,-0.443,,,,,,,,
703996.2516,3,0.093,10.493,-4.271,4,-0.023,-0.112,-0.092,,,,
703996.2715,3,-0.833,9.09,-2.907,,,,,,,,
703996.2914,3,-0.158,9.533,-2.244,,,,,,,,
703996.3113,3,-0.263,11.715,-1.976,4,-0.032,-0.167,-0.08,5,-15.924,-45.158,24.364
703996.3311,3,-0.847,5.487,-0.787,,,,,,,,
703996.351,3,-0.598,12.211,-3.393,,,,,,,,
703996.3709,3,0.048,9.354,-1.902,4,-0.035,-0.325,-0.037,5,-17.169,-45.094,24.936
703996.3907,3,-0.251,9.289,-1.766,,,,,,,,
703996.4106,3,-0.237,10.148,-1.653,,,,,,,,
703996.4304,3,-0.376,10.756,-2.364,4,-0.013,-0.354,0.02,5,-16.589,-43.288,25.555
703996.4503,3,-0.306,8.736,-2.046,,,,,,,,
703996.4702,3,-0.632,7.478,-2.675,,,,,,,,
703996.49,3,-0.603,10.658,-4.769,4,0.023,-0.286,0.079,5,-18.057,-44.067,23.036
703996.5099,3,0.278,8.65,-3.438,,,,,,,,
703996.5298,3,1.089,14.541,-2.362,,,,,,,,
703996.5496,3,0.663,7.901,1.098,4,-0.063,-0.056,0.132,5,-15.75,-44.974,24.992
703996.5695,3,0.438,10.062,-1.35,,,,,,,,
703996.5894,3,0.306,6.908,-1.33,,,,,,,,
703996.6093,3,-0.842,9.662,-4.833,4,0.095,0.042,0.063,,,,
703996.6291,3,-0.9,11.05,-5.554,,,,,,,,
703996.649,3,-1.275,11.32,-3.06,,,,,,,,
703996.6688,3,-1.357,6.87,-0.471,4,-0.024,0.086,0.058,5,-16.536,-44.609,25.465
703996.6887,3,0.167,14.711,-0.11,,,,,,,,
703996.7086,3,0.323,8.317,1.627,,,,,,,,
703996.7284,3,-1.184,6.08,-1.539,4,0.002,-0.069,0.066,5,-16.704,-43.89,23.483
703996.7483,3,-1.44,10.117,-5.781,,,,,,,,
703996.7682,3,-0.974,12.596,-5.872,,,,,,,,
703996.788,3,-1.019,9.648,-3.338,4,0.092,-0.029,0.065,5,-17.371,-44.067,25.278
703996.8079,3,-0.61,10.112,-0.301,,,,,,,,
703996.8278,3,-0.656,5.379,1.397,,,,,,,,
703996.8476,3,-0.68,7.997,-1.529,4,-0.071,0.012,0.093,5,-17.368,-43.913,24.207
703996.8675,3,0.134,12.486,-4.231,,,,,,,,
703996.8874,3,0.431,6.497,-3.19,,,,,,,,
703996.9072,3,-0.412,10.914,-4.982,4,0.064,0.046,0.089,5,-18.187,-44.65,25.362
703996.9271,3,-0.376,10.028,-1.95,,,,,,,,
703996.947,3,0.725,6.7,2.352,,,,,,,,
703996.9668,3,-1.108,6.975,-3.855,4,-0.061,0.186,0.032,5,-19.333,-44.005,23.523
703996.9867,3,0.682,23.005,-6.195,,,,,,,,
703997.0066,3,-1.299,-2.912,-0.584,,,,,,,,
703997.0264,3,-0.725,19.815,-4.714,4,-0.02,-0.003,0.005,5,-18.715,-44.431,23.956
703997.0463,3,-0.349,11.923,-0.56,,,,,,,,
703997.0662,3,0.4,4.219,3.441,,,,,,,,
703997.086,3,-0.237,9.899,-1.787,4,-0.102,-0.133,0.031,5,-18.452,-44.073,23.772
703997.1059,3,-0.345,15.369,-4.19,,,,,,,,
703997.1257,3,-0.234,5.13,-1.627,,,,,,,,
703997.1456,3,-0.852,10.871,-6.145,4,0.095,-0.075,0.057,,,,
703997.1655,3,-1.254,5.807,-3.845,,,,,,,,
703997.1854,3,-1.225,9.193,1.689,,,,,,,,
703997.2052,3,-0.151,14.512,-3.221,4,-0.02,0.114,0.091,5,-20.915,-42.566,21.127
703997.2251,3,1.105,6.379,0.957,,,,,,,,
703997.245,3,-0.569,7.001,-4.185,,,,,,,,
703997.2648,3,-0.871,13.165,-8.102,4,0.157,0.131,0.031,,,,
703997.2847,3,0.55,8.954,-3.204,,,,,,,,
703997.3046,3,-0.816,6.336,-1.56,,,,,,,,
703997.3244,3,0.098,11.825,-4.101,4,-0.03,0.194,0.041,5,-18.692,-43.517,25.218
703997.3443,3,-0.684,7.537,-2.008,,,,,,,,
703997.3641,3,-0.093,15.91,-2.309,,,,,,,,
703997.384,3,2.158,9.299,2.489,4,-0.061,0.049,0.028,5,-19.337,-42.778,24.921
703997.4039,3,1.271,9.511,-3.027,,,,,,,,
703997.4237,3,1.031,13.735,-5.008,,,,,,,,
703997.4436,3,-1.122,3.101,-1.469,4,0.086,-0.008,-0.033,5,-18.002,-42.555,26.285
703997.4635,3,0.684,11.703,-4.18,,,,,,,,
703997.4834,3,1.383,16.223,-2.8,,,,,,,,
703997.5032,3,-0.66,-0.536,0.534,4,-0.021,0.061,-0.036,5,-18.53,-42.085,24.925
703997.5231,3,-0.677,15.218,-5.001,,,,,,,,
703997.543,3,-0.23,13.816,-2.685,,,,,,,,
703997.5628,3,0.476,3.927,2.142,4,0.023,0.03,-0.035,5,-18.755,-43.95,25.713
703997.5827,3,-0.577,10.744,-4.522,,,,,,,,
703997.6025,3,-0.754,13.338,-3.958,,,,,,,,
703997.6224,3,-1.668,7.375,-1.242,4,0.083,0.118,-0.084,5,-19.55,-43.773,23.672
703997.6423,3,-2.228,13.082,-3.374,,,,,,,,
703997.6621,3,-1.933,0.835,-0.246,,,,,,,,
703997.682,3,-1.103,14.845,-5.169,4,0,0.003,-0.056,,,,
703997.7019,3,-0.826,14.139,-2.857,,,,,,,,
703997.7217,3,0.821,7.379,2.407,,,,,,,,
703997.7416,3,-0.859,7.114,0.368,4,-0.079,-0.065,0.012,5,-19.04,-43.434,26.19
703997.7615,3,-0.397,12.615,-4.408,,,,,,,,
703997.7813,3,-0.34,7.375,-3.685,,,,,,,,
703997.8012,3,-0.069,7.686,-4.446,4,0.118,-0.013,0.019,,,,
703997.8211,3,0.129,11.141,-5.286,,,,,,,,
703997.8409,3,0.419,8.849,-1.352,,,,,,,,
703997.8608,3,0.955,13.819,-0.335,4,-0.088,0.132,0.052,5,-18.388,-43.9,25.316
703997.8807,3,0.852,5.03,4.245,,,,,,,,
703997.9005,3,0.72,10.966,-2.745,,,,,,,,
703997.9204,3,0.031,9.016,-4.853,4,0.052,0.07,-0.034,5,-17.487,-43.057,24.353
703997.9403,3,-0.933,7.509,-4.996,,,,,,,,
703997.9601,3,-0.859,6.894,-5.422,,,,,,,,
703997.98,3,-0.16,14.29,-5.908,4,0.035,0.037,-0.059,5,-17.39,-43.161,26.292
703997.9999,3,0.419,8.559,0.223,,,,,,,,
703998.0197,3,0.718,15.278,1.553,,,,,,,,
703998.0396,3,-0.376,9.334,4.061,4,-0.194,0.006,-0.064,5,-18.243,-43.459,25.177
703998.0595,3,-1.395,2.28,-2.053,,,,,,,,
703998.0794,3,-1.299,14.335,-8.411,,,,,,,,
703998.0992,3,-0.206,12.256,-4.446,4,0.145,-0.17,-0.065,5,-17.9,-43.642,25.224
703998.1191,3,-0.672,4.9,-0.249,,,,,,,,
703998.139,3,-0.83,11.052,-3.331,,,,,,,,
703998.1588,3,-0.818,7.389,-3.185,4,-0.056,-0.008,0.005,5,-15.758,-45.11,26.193
703998.1787,3,0.022,10.962,-0.514,,,,,,,,
703998.1986,3,1.711,18.106,-0.34,,,,,,,,
703998.2184,3,-0.05,-1.251,1.728,4,0.005,0.07,0.015,5,-18.022,-43.312,24.93
703998.2383,3,-2.41,8.681,-6.363,,,,,,,,
703998.2581,3,-0.591,15.35,-8.858,,,,,,,,
703998.278,3,1.189,4.309,0.818,4,0.108,0.042,-0.01,5,-17.773,-44.073,25.221
703998.2979,3,0.775,7.466,-1.397,,,,,,,,
703998.3178,3,0.01,16.405,-6.669,,,,,,,,
703998.3376,3,-0.854,5.408,-0.625,4,-0.008,0.074,-0.032,,,,
703998.3575,3,0.273,9.665,-1.223,,,,,,,,
703998.3774,3,-0.208,10.794,-2.29,,,,,,,,
703998.3972,3,0.744,10.978,-2.565,4,-0.013,-0.051,-0.025,5,-17.802,-43.449,23.232
703998.4171,3,-0.352,9.878,-4.74,,,,,,,,
703998.437,3,-0.089,10.423,0.538,,,,,,,,
703998.4568,3,1.311,7.786,1.28,4,-0.112,-0.062,-0.04,5,-18.64,-43.286,25.449
703998.4767,3,0.933,12.711,-1.986,,,,,,,,
703998.4965,3,-1.919,1.134,-3.656,,,,,,,,
703998.5164,3,-1.893,12.309,-7.884,4,0.072,-0.1,-0.099,5,-16.953,-43.327,22.168
703998.5363,3,-0.246,15.793,-3.568,,,,,,,,
703998.5561,3,0.445,8.485,0.534,,,,,,,,
703998.576,3,-0.1,5.429,2.058,4,-0.153,-0.066,-0.005,5,-17.735,-44.353,24.493
703998.5959,3,1.146,13.412,-1.117,,,,,,,,
703998.6158,3,-0.194,8.688,-0.768,,,,,,,,
703998.6356,3,-1.536,5.862,-4.001,4,0.024,-0.076,-0.039,5,-17.392,-44.962,24.014
703998.6555,3,-1.266,12.471,-5.85,,,,,,,,
703998.6754,3,-2.378,7.446,-4.668,,,,,,,,
703998.6952,3,-1.529,15.654,-3.147,4,-0.003,-0.176,0.024,5,-19.363,-43.953,22.028
703998.7151,3,-0.481,6.989,2.393,,,,,,,,
703998.7349,3,0.814,10.057,0.866,,,,,,,,
703998.7548,3,-0.06,10.059,-2.601,4,-0.064,-0.154,0.099,5,-16.191,-43.172,24.365
703998.7747,3,-1.216,11.581,-5.171,,,,,,,,
703998.7945,3,0.065,7.604,-2.125,,,,,,,,
703998.8144,3,-0.239,11.134,-4.132,4,0.081,-0.013,0.101,5,-18.384,-43.561,23.86
703998.8343,3,-1.01,5.48,-3.151,,,,,,,,
703998.8541,3,-0.603,12.361,-2.828,,,,,,,,
703998.874,3,0.026,11.431,0.287,4,-0.07,0.14,0.097,,,,
703998.8939,3,0.388,7.518,1.058,,,,,,,,
703998.9138,3,-0.349,12.751,-3.57,,,,,,,,
703998.9336,3,-0.079,6.243,-2.204,4,0.058,0,0.02,5,-17.455,-43.962,24.843
703998.9535,3,-0.766,11.399,-4.755,,,,,,,,
703998.9733,3,-1.503,9.724,-2.991,,,,,,,,
703998.9932,3,0.598,9.212,-0.893,4,-0.012,0.021,0.026,,,,
703999.0131,3,-0.933,8.707,-0.928,,,,,,,,
703999.0329,3,-0.057,15.063,-1.945,,,,,,,,
703999.0528,3,0.79,5.822,2.314,4,-0.023,-0.039,0.005,5,-18.466,-43.462,23.476
703999.0727,3,-0.309,5.405,-2.352,,,,,,,,
703999.0925,3,-1.23,10.289,-6.982,,,,,,,,
703999.1124,3,-1.754,13.658,-6.018,4,0.176,-0.057,-0.004,5,-18.433,-43.942,25.656
703999.1322,3,-1.668,4.97,-1.417,,,,,,,,
703999.1521,3,-0.574,11.375,-1.175,,,,,,,,
703999.172,3,-0.701,10.859,-1.132,4,-0.066,0.052,0.074,5,-18.048,-44.548,25.359
703999.1919,3,-0.194,16.113,0.792,,,,,,,,
703999.2117,3,-0.739,-0.474,1.44,,,,,,,,
703999.2316,3,-0.249,13.902,-7.044,4,0.099,0.114,0.054,5,-18.021,-43.314,25.374
703999.2515,3,0.065,11.431,-7.09,,,,,,,,
703999.2713,3,-0.428,8.231,-1.936,,,,,,,,
703999.2912,3,-0.06,15.017,-0.179,4,-0.017,0.282,0.041,5,-18.536,-42.802,26.381
703999.3111,3,-1.263,4.798,1.706,,,,,,,,
703999.3309,3,-1.641,8.49,-3.12,,,,,,,,
703999.3508,3,-0.591,13.369,-4.654,4,0.038,0.103,-0.038,5,-18.254,-43.69,26.146
703999.3707,3,0.883,9.569,-0.907,,,,,,,,
703999.3905,3,-0.603,6.817,-4.599,,,,,,,,
703999.4104,3,-0.132,13.101,-5.783,4,0.024,-0.04,-0.017,,,,
703999.4302,3,0.56,7.169,1.641,,,,,,,,
703999.4501,3,1.149,8.506,-0.053,,,,,,,,
703999.47,3,-0.682,9.574,-3.75,4,-0.07,0.061,-0.045,5,-18.674,-42.661,24.785
703999.4899,3,-0.569,10.466,-5.097,,,,,,,,
703999.5097,3,-1.589,6.286,-4.446,,,,,,,,
703999.5296,3,0.66,18.918,-3.644,4,0.002,-0.005,-0.078,,,,
703999.5495,3,-0.574,5.884,0.833,,,,,,,,
703999.5693,3,0.158,9.751,-0.995,,,,,,,,
703999.5892,3,0.081,8.966,-2.493,4,-0.089,0.01,-0.073,5,-19.235,-42.198,22.128
703999.609,3,-0.909,9.282,-2.826,,,,,,,,
703999.6289,3,-0.225,12.648,-4.075,,,,,,,,
703999.6488,3,-0.883,9.763,-2.328,4,0.001,0.008,-0.083,5,-19.028,-44.664,23.146
703999.6686,3,-1.481,5.827,-2.323,,,,,,,,
703999.6885,3,-0.852,12.572,-1.656,,,,,,,,
703999.7084,3,0.725,10.366,-0.036,4,-0.064,0.004,-0.057,5,-19.351,-43.256,24.2
703999.7282,3,0.065,8.648,-1.61,,,,,,,,
703999.7481,3,-1.11,10.22,-3.747,,,,,,,,
703999.768,3,-0.077,10.835,-3.582,4,0.071,-0.062,-0.074,5,-18.054,-44.643,23.674
703999.7879,3,-0.179,7.839,-3.934,,,,,,,,
703999.8077,3,-0.703,12.507,-3.331,,,,,,,,
703999.8276,3,-0.641,6.87,0.022,4,-0.026,-0.08,-0.041,5,-17.012,-43.904,24.594
703999.8474,3,-1.187,7.81,-3.905,,,,,,,,
703999.8673,3,0.249,16.692,-5.056,,,,,,,,
703999.8872,3,0.342,4.929,1.417,4,0.007,-0.222,-0.012,5,-16.443,-43.893,25.809
703999.907,3,-0.036,10.883,-3.194,,,,,,,,
703999.9269,3,-0.244,10.538,-3.915,,,,,,,,
703999.9468,3,0.141,6.52,-1.534,4,0.046,-0.245,-0.005,5,-16.17,-44.556,25.026
703999.9666,3,0.395,11.78,-4.312,,,,,,,,
703999.9865,3,-0.479,9.672,-2.91,,,,,,,,
704000.0064,3,-0.562,6.654,-2.508,4,-0.007,-0.16,0.03,5,-16.684,-43.184,24.205
704000.0262,3,-0.766,13.192,-4.305,,,,,,,,
704000.0461,3,0.093,10.729,0.01,,,,,,,,
704000.066,3,0.51,9.818,1.658,4,-0.063,-0.073,0.06,,,,
704000.0858,3,-0.237,8.442,-2.572,,,,,,,,
704000.1057,3,-0.773,11.277,-4.604,,,,,,,,
704000.1256,3,0.022,6.461,-3.848,4,0.082,-0.042,0.003,5,-16.835,-43.617,25.8
704000.1454,3,-0.883,13.251,-4.195,,,,,,,,
704000.1653,3,-0.352,3.089,0.584,,,,,,,,
704000.1852,3,-1.637,11.507,-3.829,4,-0.073,-0.023,0.018,5,-17.76,-43.826,24.832
704000.205,3,0.907,13.869,-1.024,,,,,,,,
704000.2249,3,0.639,6.205,2.34,,,,,,,,
704000.2448,3,-0.924,8.562,-2.326,4,-0.016,-0.154,0.017,5,-16.626,-44.424,24.208
704000.2646,3,-1.419,9.069,-5.427,,,,,,,,
704000.2845,3,-0.699,13.692,-7.834,,,,,,,,
704000.3044,3,-0.629,8.751,-0.94,4,0.089,-0.17,0.049,5,-17.535,-45.198,25.648
704000.3242,3,-1.139,9.789,-0.644,,,,,,,,
704000.3441,3,-0.301,6.48,-1.419,,,,,,,,
704000.364,3,0.158,18.592,-3.963,4,-0.038,-0.053,0.095,5,-16.466,-43.175,25.421
704000.3839,3,-0.287,6.887,2.907,,,,,,,,
704000.4037,3,0.177,7.468,-1.79,,,,,,,,
704000.4236,3,-0.129,11.624,-6.109,4,0.106,-0.065,0.085,5,-17.476,-42.491,25.082
704000.4435,3,-1.871,8.672,-5.429,,,,,,,,
704000.4633,3,-0.567,8.861,-3.056,,,,,,,,
704000.4832,3,0.696,10.969,-1.414,4,0.026,0.096,0.104,5,-17.7,-41.353,25.935
704000.5031,3,-0.644,7.554,-1.953,,,,,,,,
704000.5229,3,-1.07,13,-3.869,,,,,,,,
704000.5428,3,-0.072,10.713,-0.029,4,0.006,0.143,0.065,5,-17.732,-41.841,24.815
704000.5626,3,0.144,6.315,0.294,,,,,,,,
704000.5825,3,-0.883,10.579,-5.075,,,,,,,,
704000.6024,3,-0.043,11.218,-5.023,4,0.08,0.055,0.028,,,,
704000.6223,3,-0.608,7.961,-3.415,,,,,,,,
704000.6421,3,-0.067,12.132,-1.498,,,,,,,,
704000.662,3,-0.184,5.745,0.577,4,-0.084,0.083,0.043,5,-17.998,-42.313,25.125
704000.6819,3,-1.23,9.141,-1.799,,,,,,,,
704000.7017,3,-0.909,11.593,-3.089,,,,,,,,
704000.7216,3,0.562,7.626,-2.173,4,0.035,0.053,0.02,5,-19.301,-41.118,25.647
704000.7414,3,-0.682,8.53,-3.264,,,,,,,,
704000.7613,3,-0.074,12.196,-4.231,,,,,,,,
704000.7812,3,0.9,6.128,-1.036,4,-0.009,0.103,0,5,-17.99,-41.98,25.116
704000.801,3,-0.077,8.794,-3.228,,,,,,,,
704000.8209,3,0.299,14.766,-3.166,,,,,,,,
704000.8408,3,-0.218,3.74,-0.914,4,-0.053,0.111,-0.03,5,-18.645,-41.428,24.582
704000.8606,3,-0.345,14.52,-4.886,,,,,,,,
704000.8805,3,-1.165,8.583,-2.13,,,,,,,,
704000.9004,3,-0.175,10.124,-1.218,4,-0.039,-0.039,-0.018,5,-18.156,-43.222,24.78
704000.9203,3,0.254,8.796,-0.802,,,,,,,,
704000.9401,3,-1.151,9.949,-1.921,,,,,,,,
704000.96,3,0.043,10.753,-3.001,4,-0.016,-0.055,-0.009,5,-19.296,-42.583,24.199
704000.9798,3,-0.189,9.894,-4.563,,,,,,,,
704000.9997,3,0.01,8.274,-2.11,,,,,,,,
704001.0196,3,0.318,11.569,-1.72,4,-0.025,0.005,0.003,5,-17.334,-42.49,25.9
704001.0394,3,0.409,11.696,-1.673,,,,,,,,
704001.0593,3,-0.158,7.992,-0.759,,,,,,,,
704001.0792,3,-0.921,8.303,-2.07,4,0.006,0.086,-0.025,5,-17.601,-42.343,26.086
704001.099,3,0.033,10.897,-4.341,,,,,,,,
704001.1189,3,-0.136,10.823,-4.147,,,,,,,,
704001.1388,3,-1.51,7.894,-2.551,4,0.041,0.049,-0.057,,,,
704001.1586,3,-1.493,6.205,-1.603,,,,,,,,
704001.1785,3,-0.816,11.871,-2.783,,,,,,,,
704001.1984,3,0.553,10.878,0.141,4,-0.03,-0.115,-0.046,5,-16.768,-43.097,25.468
704001.2182,3,-0.285,7.71,-0.627,,,,,,,,
704001.2381,3,-0.928,10.978,-4.027,,,,,,,,
704001.258,3,-0.694,8.722,-3.192,4,0.039,-0.25,-0.014,,,,
704001.2778,3,0.256,8.789,-2.74,,,,,,,,
704001.2977,3,-0.096,7.274,-2.859,,,,,,,,
704001.3176,3,0.084,13.029,-3.726,4,0.018,-0.147,0.051,5,-16.386,-41.751,25.079
704001.3374,3,-1.144,-0.022,-1.826,,,,,,,,
704001.3573,3,0.072,20.547,-5.709,,,,,,,,
704001.3772,3,1.352,9.246,0.646,4,-0.01,0.064,0.064,5,-15.625,-45.062,26.147
704001.397,3,0.584,6.808,1.208,,,,,,,,
704001.4169,3,0.129,11.856,-2.859,,,,,,,,
704001.4367,3,-0.445,7.679,-2.089,4,0.029,0.08,0.009,5,-17.287,-42.542,26.434
704001.4566,3,-0.471,10.938,-3.582,,,,,,,,
704001.4765,3,0.179,15.218,-3.132,,,,,,,,
704001.4964,3,-0.811,2.481,-1.594,4,0.038,0.033,-0.025,5,-16.652,-42.044,27.106
704001.5162,3,-1.232,12.251,-3.807,,,,,,,,
704001.5361,3,-1.527,13.448,-3.647,,,,,,,,
704001.556,3,1.503,5.996,3.089,4,-0.02,-0.101,0.007,5,-17.935,-43.875,24.484
704001.5758,3,-1.316,9.791,-3.537,,,,,,,,
704001.5957,3,-1.716,12.024,-5.515,,,,,,,,
704001.615,3,-0.782,6.197,-1.938,4,0.079,-0.13,0.013,5,-16.656,-42.149,26.715
704001.6354,3,0.134,14.606,-3.946,,,,,,,,
704001.6553,3,-0.632,3.771,-0.933,,,,,,,,
704001.6751,3,-1.184,13.503,-5.085,4,0.009,0.009,0.073,,,,
704001.695,3,-0.323,13.022,-1.12,,,,,,,,
704001.7149,3,0.096,7.391,2.661,,,,,,,,
704001.7347,3,-0.244,6.394,-0.979,4,-0.004,0.077,0.067,5,-18.156,-41.609,25.426
704001.7546,3,-0.732,11.019,-6.001,,,,,,,,
704001.7745,3,0.06,10.478,-6.106,,,,,,,,
704001.7944,3,0.12,7.506,-2.845,4,0.098,0.085,0.055,,,,
704001.8142,3,-0.124,7.925,-1.728,,,,,,,,
704001.8341,3,-0.416,9.741,-2.256,,,,,,,,
704001.854,3,0.179,13.957,-1.993,4,-0.052,0.133,0.015,5,-18.347,-42.181,26.465
704001.8738,3,0.565,5.477,2.046,,,,,,,,
704001.8937,3,-0.055,8.219,-3.24,,,,,,,,
704001.9135,3,-0.768,10.641,-6.449,4,0.055,0.02,-0.017,5,-18.15,-43.079,26.381
704001.9334,3,-0.766,10.256,-3.58,,,,,,,,
704001.9533,3,-0.352,7.296,-0.189,,,,,,,,
704001.9731,3,0.136,13.414,-1.412,4,-0.074,0.08,0.011,5,-17.387,-41.153,25.696
704001.993,3,-0.215,6.269,-2.077,,,,,,,,
704002.0129,3,-1.287,15.245,-4.089,,,,,,,,
704002.0328,3,-1.835,8.913,-0.246,4,0.018,0.066,0.012,5,-17.096,-41.997,25.406
704002.0526,3,-0.998,5.185,-1.321,,,,,,,,
704002.0725,3,-0.632,11.603,-5.946,,,,,,,,
704002.0924,3,-1.005,11.342,-2.412,4,0.009,0.046,0.039,5,-18.938,-42.393,25.804
704002.1122,3,-0.16,9.375,0.517,,,,,,,,
704002.1321,3,-0.012,12.091,-0.919,,,,,,,,
704002.1519,3,-0.993,4.922,-1.421,4,-0.037,0.122,0.026,5,-20.493,-42.473,25.648
704002.1718,3,-0.756,8.703,-4.589,,,,,,,,
704002.1917,3,-0.62,13.914,-5.403,,,,,,,,
704002.2115,3,0.318,7.226,-0.852,4,0.03,0.155,0.002,5,-18.756,-42.43,25.021
704002.2314,3,0.254,9.674,-1.067,,,,,,,,
704002.2513,3,0.11,10.588,-2.261,,,,,,,,
704002.2711,3,1.18,8.585,-1.132,4,-0.041,0.106,-0.06,5,-19.614,-43.108,25.519
704002.291,3,-0.285,8.798,-3.455,,,,,,,,
704002.3109,3,-0.215,10.191,-3.766,,,,,,,,
704002.3308,3,-0.68,7.863,-3.797,4,0.031,-0.007,-0.085,,,,
704002.3506,3,0.091,10.964,-2.962,,,,,,,,
704002.3705,3,-0.486,10.012,-1.821,,,,,,,,
704002.3904,3,0.646,8.423,0.409,4,-0.083,0.009,-0.061,5,-18.054,-44.879,26.385
704002.4102,3,0.83,10.679,-2.591,,,,,,,,
704002.4301,3,-0.995,10.033,-2.335,,,,,,,,
704002.45,3,-0.44,7.707,-3.836,4,0.025,-0.018,-0.104,5,-18.048,-44.496,25.71
704002.4698,3,-0.359,14.63,-5.133,,,,,,,,
704002.4897,3,-0.912,2.491,-0.517,,,,,,,,
704002.5096,3,-0.656,13.787,-2.575,4,-0.059,-0.062,-0.083,5,-20.16,-43.134,26.378
704002.5294,3,0.072,11.466,-1.005,,,,,,,,
704002.5493,3,-0.151,10.674,-0.464,,,,,,,,
704002.5691,3,-0.967,7.219,-0.727,4,-0.037,-0.175,-0.056,5,-18.018,-43.222,26.099
704002.589,3,0.098,7.681,-4.219,,,,,,,,
704002.6089,3,-0.232,11.033,-6.614,,,,,,,,
704002.6288,3,-1.567,9.949,-4.941,4,0.056,-0.161,-0.015,5,-17.534,-43.346,26.52
704002.6486,3,-1.247,8.853,-1.651,,,,,,,,
704002.6685,3,-0.689,9.098,0.144,,,,,,,,
704002.6884,3,0.55,11.876,-0.871,4,-0.103,-0.073,0.038,,,,
704002.7082,3,0.304,6.631,0.357,,,,,,,,
704002.7281,3,-0.505,10.081,-4.432,,,,,,,,
704002.748,3,-0.108,11.048,-5.367,4,0.081,-0.047,0.014,5,-17.502,-42.159,25.999
704002.7678,3,-1.082,7.205,-4.144,,,,,,,,
704002.7877,3,-0.129,11.584,-2.022,,,,,,,,
704002.8075,3,-0.206,10.382,0.388,4,-0.08,-0.022,0.041,5,-18.027,-41.835,25.182
704002.8274,3,-0.103,5.53,-1.165,,,,,,,,
704002.8473,3,-0.682,13.957,-4.025,,,,,,,,
704002.8671,3,0.033,9.746,-1.541,4,0.021,-0.137,0.025,,,,
704002.887,3,-0.158,8.724,-2.611,,,,,,,,
704002.9069,3,-0.282,10.406,-4.116,,,,,,,,
704002.9268,3,0.29,10.28,-1.431,4,0.014,-0.135,0.033,5,-18.011,-41.127,26.331
704002.9466,3,0.053,8.377,-1.151,,,,,,,,
704002.9665,3,-0.471,12.101,-3.522,,,,,,,,
704002.9864,3,-0.785,5.231,-1.359,4,0.018,-0.045,0.036,,,,
704003.0062,3,-1.634,10.189,-4.422,,,,,,,,
704003.0261,3,-0.349,14.486,-2.84,,,,,,,,
704003.0459,3,0.876,4.752,0.72,4,0.017,0.021,0.05,5,-17.546,-42.255,26.877
704003.0658,3,-0.792,10.335,-3.159,,,,,,,,
704003.0857,3,-1.239,10.528,-4.063,,,,,,,,
704003.1055,3,-0.888,8.523,-2.125,4,0.062,-0.011,0.028,5,-17.856,-42.368,26.379
704003.1254,3,-0.857,8.92,-2.51,,,,,,,,
704003.1453,3,-0.833,11.811,-3.429,,,,,,,,
704003.1651,3,-0.493,7.446,-2.658,4,0.002,-0.044,0.063,5,-19.135,-41.724,26.376
704003.185,3,-0.256,16.427,-2.539,,,,,,,,
704003.2049,3,-0.45,6.319,2.02,,,,,,,,
704003.2248,3,0.273,9.308,-2.122,4,0.01,0.029,0.103,5,-19.159,-42.352,26.378
704003.2446,3,-0.256,9.677,-5.2,,,,,,,,
704003.2645,3,-0.579,10.208,-4.723,,,,,,,,
704003.2843,3,-0.483,8.818,-1.457,4,0.074,0.149,0.077,5,-18.951,-43.242,25.502
704003.3042,3,0.167,12.756,-2.431,,,,,,,,
704003.3241,3,-0.258,2.759,-0.371,,,,,,,,
704003.3439,3,-1.232,12.799,-4.573,4,-0.007,0.174,0.041,5,-19.106,-42.3,27.588
704003.3638,3,1.314,12.5,-1.376,,,,,,,,
704003.3837,3,0.581,5.934,0.569,,,,,,,,
704003.4035,3,-0.416,11.337,-4.979,4,0.021,0.094,0.004,,,,
704003.4234,3,-0.479,9.416,-3.266,,,,,,,,
704003.4433,3,-0.335,8.858,-3.252,,,,,,,,
704003.4632,3,-0.428,9.557,-1.433,4,0.011,0.058,-0.023,5,-19.849,-41.403,25.929
704003.483,3,-0.091,10.854,-2.589,,,,,,,,
704003.5029,3,-1.01,7.372,-3.154,,,,,,,,
704003.5227,3,-0.603,14.69,-4.044,4,-0.009,0.035,-0.023,,,,
704003.5426,3,0.062,9.129,0.684,,,,,,,,
704003.5625,3,0.215,7.901,-0.337,,,,,,,,
704003.5823,3,-0.292,14.673,-4.003,4,0.003,0.046,-0.021,5,-19.649,-40.405,25.198
704003.6022,3,-0.837,8.191,-1.192,,,,,,,,
704003.6221,3,-1.436,6.578,-2.498,,,,,,,,
