703206.2202,3,1.656,9.562,-2.307,,,,,5,22.636,-44.333,10.475
703206.2401,3,1.656,9.562,-2.307,,,,,,,,
703206.2599,3,1.527,9.55,-2.256,4,-0.001,-0.013,0.014,5,16.591,-46.443,15.211
703206.2798,3,1.488,9.562,-2.271,,,,,,,,
703206.2997,3,1.481,9.562,-2.292,,,,,,,,
703206.3196,3,1.491,9.559,-2.285,4,-0.001,0,0.005,5,16.251,-45.926,15.552
703206.3394,3,1.46,9.564,-2.283,,,,,,,,
703206.3593,3,1.488,9.552,-2.259,,,,,,,,
703206.3791,3,1.493,9.547,-2.276,4,-0.001,0.003,0.008,,,,
703206.399,3,1.515,9.576,-2.299,,,,,,,,
703206.4189,3,1.512,9.569,-2.278,,,,,,,,
703206.4387,3,1.543,9.555,-2.261,4,0,0.006,0.01,5,16.624,-46.593,15.472
703206.4586,3,1.558,9.547,-2.271,,,,,,,,
703206.4785,3,1.565,9.559,-2.266,,,,,,,,
703206.4983,3,1.546,9.562,-2.323,4,0,0.007,0.01,,,,
703206.5182,3,1.558,9.571,-2.28,,,,,,,,
703206.5381,3,1.596,9.55,-2.261,,,,,,,,
703206.5579,3,1.57,9.564,-2.29,4,-0.002,0.003,0.01,5,16.153,-45.93,16.278
703206.5778,3,1.582,9.555,-2.283,,,,,,,,
703206.5977,3,1.536,9.547,-2.268,,,,,,,,
703206.6175,3,1.536,9.557,-2.276,4,-0.001,0.003,0.009,5,17.268,-46.065,16.414
703206.6374,3,1.574,9.564,-2.256,,,,,,,,
703206.6573,3,1.555,9.559,-2.276,,,,,,,,
703206.6771,3,1.555,9.552,-2.276,4,-0.001,-0.003,0.009,5,16.669,-47.241,15.767
703206.697,3,1.531,9.569,-2.264,,,,,,,,
703206.7169,3,1.565,9.564,-2.254,,,,,,,,
703206.7367,3,1.529,9.569,-2.237,4,-0.001,0.005,0.01,5,16.67,-46.632,17.006
703206.7566,3,1.496,9.578,-2.295,,,,,,,,
703206.7764,3,1.548,9.574,-2.328,,,,,,,,
703206.7963,3,1.539,9.569,-2.266,4,-0.001,0.006,0.012,5,17.673,-46.172,16.283
703206.8162,3,1.558,9.552,-2.199,,,,,,,,
703206.836,3,1.589,9.571,-2.256,,,,,,,,
703206.8559,3,1.603,9.557,-2.302,4,-0.001,0.003,0.016,5,16.194,-45.459,15.076
703206.8758,3,1.601,9.576,-2.28,,,,,,,,
703206.8956,3,1.579,9.547,-2.304,,,,,,,,
703206.9155,3,1.546,9.593,-2.292,4,-0.002,0.006,0.016,,,,
703206.9354,3,1.565,9.54,-2.221,,,,,,,,
703206.9552,3,1.608,9.559,-2.276,,,,,,,,
703206.9751,3,1.677,9.557,-2.288,4,-0.002,0.006,0.016,5,16.602,-46.056,15.829
703206.995,3,1.613,9.567,-2.297,,,,,,,,
703207.0148,3,1.634,9.555,-2.295,,,,,,,,
703207.0347,3,1.618,9.569,-2.292,4,-0.002,0.017,0.015,,,,
703207.0546,3,1.653,9.564,-2.254,,,,,,,,
703207.0744,3,1.685,9.543,-2.211,,,,,,,,
703207.0943,3,1.723,9.59,-2.254,4,-0.003,0,0.014,5,15.968,-46.976,15.95
703207.1142,3,1.725,9.545,-2.302,,,,,,,,
703207.134,3,1.689,9.533,-2.268,,,,,,,,
703207.1539,3,1.62,9.535,-2.276,4,-0.002,-0.004,0.01,5,15.742,-46.138,15.03
703207.1738,3,1.61,9.54,-2.252,,,,,,,,
703207.1937,3,1.689,9.562,-2.321,,,,,,,,
703207.2135,3,1.677,9.528,-2.326,4,0,-0.005,0.008,5,15.929,-45.926,14.114
703207.2334,3,1.694,9.533,-2.232,,,,,,,,
703207.2532,3,1.716,9.562,-2.271,,,,,,,,
703207.2731,3,1.689,9.567,-2.237,4,0.002,0.007,0.006,5,14.767,-46.31,16.815
703207.293,3,1.661,9.557,-2.221,,,,,,,,
703207.3128,3,1.637,9.562,-2.285,,,,,,,,
703207.3327,3,1.673,9.562,-2.204,4,0,-0.003,0.003,5,16.58,-47.008,16.281
703207.3526,3,1.694,9.54,-2.201,,,,,,,,
703207.3724,3,1.606,9.552,-2.29,,,,,,,,
703207.3923,3,1.586,9.569,-2.266,4,0.001,-0.007,0.001,5,17.017,-46.321,15.862
703207.4121,3,1.632,9.571,-2.259,,,,,,,,
703207.432,3,1.656,9.574,-2.249,,,,,,,,
703207.4519,3,1.63,9.583,-2.244,4,-0.001,-0.007,0.001,5,16.072,-46.564,16.322
703207.4718,3,1.665,9.545,-2.23,,,,,,,,
703207.4916,3,1.704,9.581,-2.237,,,,,,,,
703207.5115,3,1.701,9.569,-2.228,4,0,-0.007,0.002,5,17.247,-46.112,16.025
703207.5314,3,1.711,9.586,-2.249,,,,,,,,
703207.5512,3,1.665,9.559,-2.252,,,,,,,,
703207.5711,3,1.601,9.555,-2.266,4,0.002,-0.004,-0.001,,,,
703207.5909,3,1.555,9.569,-2.259,,,,,,,,
703207.6108,3,1.534,9.593,-2.216,,,,,,,,
703207.6307,3,1.543,9.581,-2.218,4,0.002,0,0,5,15.553,-45.395,15.12
703207.6505,3,1.563,9.624,-2.101,,,,,,,,
703207.6704,3,1.5,9.607,-2.072,,,,,,,,
703207.6903,3,1.452,9.614,-2.046,4,0,0.011,0.005,5,15.919,-46.542,14.412
703207.7101,3,1.429,9.6,-2.197,,,,,,,,
703207.73,3,1.429,9.55,-2.244,,,,,,,,
703207.7499,3,1.603,9.6,-2.297,4,-0.001,0.042,0.018,5,16.508,-46.548,16.917
703207.7697,3,1.84,9.569,-2.268,,,,,,,,
703207.7896,3,2.024,9.538,-2.113,,,,,,,,
703207.8095,3,1.986,9.626,-2.06,4,0,0.088,0.018,5,17.125,-45.908,16.565
703207.8293,3,2.122,9.523,-2.029,,,,,,,,
703207.8492,3,1.292,9.483,-2.35,,,,,,,,
703207.8691,3,1.371,9.617,-2.118,4,0,0.097,0.001,5,16.148,-46.645,15.823
703207.8889,3,1.529,9.483,-1.905,,,,,,,,
703207.9088,3,1.472,9.633,-2.584,,,,,,,,
703207.9287,3,1.168,9.464,-2.637,4,0.001,0.059,0.016,5,17.273,-45.906,17.677
703207.9485,3,1.476,9.516,-2.244,,,,,,,,
703207.9684,3,1.622,9.567,-2.242,,,,,,,,
703207.9882,3,1.467,9.535,-2.721,4,-0.004,0.064,0.033,5,16.733,-45.92,17.593
703208.0081,3,1.551,9.478,-2.584,,,,,,,,
703208.028,3,1.594,9.538,-2.197,,,,,,,,
703208.0479,3,1.967,9.5,-2.381,4,-0.006,0.106,0.036,5,16.289,-46.252,15.553
703208.0677,3,2.194,9.468,-2.35,,,,,,,,
703208.0876,3,2.158,9.509,-2.247,,,,,,,,
703208.1075,3,2.197,9.466,-2.232,4,-0.001,0.13,0.025,,,,
703208.1273,3,2.077,9.495,-2.304,,,,,,,,
703208.1472,3,1.96,9.531,-2.4,,,,,,,,
703208.167,3,1.883,9.476,-2.261,4,0.005,0.127,0.003,5,15.944,-45.737,17.938
703208.1869,3,1.838,9.543,-2.225,,,,,,,,
703208.2068,3,1.926,9.531,-2.295,,,,,,,,
703208.2266,3,1.871,9.543,-2.283,4,0.002,0.05,-0.007,5,13.943,-45.999,17.728
703208.2465,3,1.656,9.531,-2.297,,,,,,,,
703208.2664,3,1.563,9.531,-2.316,,,,,,,,
703208.2862,3,3.673,8.588,-3.577,4,0.002,0.034,-0.01,5,15.108,-45.619,18.806
703208.3061,3,0.591,9.832,-1.443,,,,,,,,
703208.326,3,1.06,9.224,-0.811,,,,,,,,
703208.3458,3,1.713,9.701,-2.546,4,-0.004,0.09,-0.014,5,15.541,-46.368,18.84
703208.3657,3,1.814,9.492,-2.768,,,,,,,,
703208.3856,3,1.697,9.449,-2.34,,,,,,,,
703208.4054,3,1.632,9.626,-1.976,4,0.008,0.021,0.005,5,15.279,-45.665,18.306
703208.4253,3,2.024,9.564,-1.826,,,,,,,,
703208.4452,3,2.261,9.516,-1.816,,,,,,,,
703208.465,3,2.28,9.511,-2.07,4,-0.006,0.01,0.001,5,16.547,-45.174,17.729
703208.4849,3,2.089,9.535,-1.895,,,,,,,,
703208.5047,3,2.367,9.567,-2.328,,,,,,,,
703208.5246,3,1.823,9.523,-1.749,4,0.007,0.03,-0.018,5,15.959,-45.938,17.471
703208.5445,3,1.45,9.523,-2.649,,,,,,,,
703208.5643,3,1.881,9.535,-2.161,,,,,,,,
703208.5842,3,1.132,9.727,-2.084,4,0.004,0.025,-0.025,5,14.871,-46.225,18.755
703208.6041,3,0.531,9.669,-2.644,,,,,,,,
703208.624,3,2.034,9.26,-1.383,,,,,,,,
703208.6438,3,-0.282,9.799,-3.039,4,0,-0.055,0.007,,,,
703208.6631,3,0.833,9.662,-2.51,,,,,,,,
703208.6835,3,1.431,9.418,-1.917,,,,,,,,
703208.7034,3,2.132,9.631,-2.304,4,-0.023,-0.051,0.057,5,15.138,-44.627,19.815
703208.7233,3,2.486,9.533,-2.209,,,,,,,,
703208.7432,3,2.357,9.452,-2.122,,,,,,,,
703208.763,3,1.905,9.602,-1.852,4,-0.012,0.082,0.059,,,,
703208.7829,3,1.804,9.59,-1.972,,,,,,,,
703208.8028,3,2.17,9.545,-2.615,,,,,,,,
703208.8226,3,2.067,9.543,-1.907,4,0.002,0.117,0.04,5,13.539,-45.569,19.337
703208.8425,3,2.285,9.535,-1.828,,,,,,,,
703208.8623,3,2.503,9.511,-2.122,,,,,,,,
703208.8822,3,2.448,9.476,-1.814,4,-0.004,0.111,0.024,5,13.087,-44.832,20.149
703208.9021,3,2.503,9.433,-1.933,,,,,,,,
703208.922,3,2.68,9.516,-2.563,,,,,,,,
703208.9418,3,2.359,9.509,-2.283,4,0.003,0.056,-0.002,5,11.34,-45.186,21.353
703208.9617,3,2.331,9.318,-2.089,,,,,,,,
703208.9816,3,2.517,9.478,-2.393,,,,,,,,
703209.0014,3,2.094,9.423,-2.419,4,0.002,0.011,-0.042,5,8.226,-42.703,18.988
703209.0213,3,1.831,9.567,-2.333,,,,,,,,
703209.0411,3,1.96,9.54,-2.154,,,,,,,,
703209.061,3,1.878,9.507,-2.134,4,0.01,0.05,-0.06,5,9.56,-41.501,20.947
703209.0809,3,1.742,9.478,-2.414,,,,,,,,
703209.1007,3,1.383,9.478,-2.802,,,,,,,,
703209.1206,3,1.304,9.6,-2.747,4,0.02,0.114,-0.062,5,6.995,-41.377,20.198
703209.1405,3,1.247,9.502,-2.314,,,,,,,,
703209.1604,3,1.577,9.5,-2.505,,,,,,,,
703209.1802,3,1.412,9.399,-2.704,4,0.004,0.132,-0.051,,,,
703209.2001,3,1.34,9.576,-3.02,,,,,,,,
703209.2199,3,1.541,9.533,-2.847,,,,,,,,
703209.2398,3,2.261,9.521,-3.24,4,0.016,0.076,-0.032,5,5.867,-41.029,15.898
703209.2597,3,2.206,9.102,-2.477,,,,,,,,
703209.2795,3,2.082,9.358,-2.788,,,,,,,,
703209.2994,3,1.912,9.633,-3.264,4,0.029,0.162,-0.06,,,,
703209.3193,3,2.24,9.248,-3.17,,,,,,,,
703209.3391,3,2.374,9.033,-3.316,,,,,,,,
703209.359,3,1.967,8.961,-3.357,4,0.055,0.206,-0.097,5,5.983,-41.893,13.8
703209.3788,3,1.689,9.665,-3.745,,,,,,,,
703209.3987,3,1.218,9.294,-3.345,,,,,,,,
703209.4186,3,1.17,9.093,-3.783,4,0.064,0.118,-0.126,5,9.705,-44.652,12.329
703209.4384,3,1.62,9.495,-3.819,,,,,,,,
703209.4583,3,1.297,8.844,-3.4,,,,,,,,
703209.4782,3,0.505,10.579,-3.202,4,0.072,-0.077,-0.144,5,15.068,-44.518,10.504
703209.4981,3,0.981,8.229,-3.367,,,,,,,,
703209.5179,3,0.514,8.27,-3.695,,,,,,,,
703209.5378,3,0.177,8.698,-3.795,4,0.085,-0.418,-0.128,5,18.607,-45.631,12.904
703209.5576,3,1.445,10.414,-5.334,,,,,,,,
703209.5775,3,1.852,8.987,-3.97,,,,,,,,
703209.5974,3,3.795,8.782,-4.487,4,0.066,-0.771,-0.097,5,23.413,-46.034,12.23
703209.6172,3,3.604,7.071,-3.544,,,,,,,,
703209.6371,3,3.998,10.124,-3.393,,,,,,,,
703209.657,3,3.135,10.227,-1.787,4,0.022,-0.32,-0.201,5,27.951,-45.641,14.949
703209.6768,3,1.811,10.471,-1.862,,,,,,,,
703209.6967,3,0.68,9.691,-1.306,,,,,,,,
703209.7165,3,0.684,8.54,-2.29,4,0.073,0.28,-0.286,5,29.756,-43.73,18.758
703209.7364,3,0.347,9.794,-3.202,,,,,,,,
703209.7563,3,0.409,9.21,-2.898,,,,,,,,
703209.7762,3,-0.45,10.177,-1.656,4,0.055,0.358,-0.27,5,27.841,-40.95,21.848
703209.796,3,-0.952,10.263,-1.962,,,,,,,,
703209.8159,3,-1.017,10.44,-2.268,,,,,,,,
703209.8358,3,-0.988,10.404,-1.225,4,-0.006,0.204,-0.203,,,,
703209.8556,3,-1.129,10.143,-0.859,,,,,,,,
703209.8755,3,-0.943,9.935,-1.096,,,,,,,,
703209.8953,3,-0.857,10.263,-1.85,4,-0.011,0.046,-0.077,5,27.699,-39.012,25.494
703209.9152,3,-1.01,9.33,-1.761,,,,,,,,
703209.9351,3,-0.964,10.138,-2.168,,,,,,,,
703209.9549,3,-0.067,9.543,-2.211,4,-0.006,0.115,0.036,5,29.234,-39.716,25.781
703209.9748,3,0.495,9.705,-2.634,,,,,,,,
703209.9947,3,1.187,9.904,-2.84,,,,,,,,
703210.0146,3,1.328,9.129,-2.022,4,-0.023,0.204,0.092,5,27.91,-37.119,27.62
703210.0344,3,1.417,9.619,-2.173,,,,,,,,
703210.0543,3,1.888,9.801,-4.539,,,,,,,,
703210.0741,3,1.732,10.232,-3.783,4,0.028,0.358,0.069,5,28.607,-33.81,30.858
703210.094,3,1.732,8.329,-2.773,,,,,,,,
703210.1139,3,1.024,9.095,-3.943,,,,,,,,
703210.1337,3,0.775,9.894,-5.953,4,0.027,0.24,-0.001,5,29.988,-32.617,36.963
703210.1536,3,0.837,8.559,-3.556,,,,,,,,
703210.1735,3,1.498,8.047,-4.539,,,,,,,,
703210.1933,3,1.522,9.437,-5.649,4,0.034,0.106,-0.044,5,30.264,-34.299,43.855
703210.2132,3,1.694,8.621,-4.951,,,,,,,,
703210.2331,3,1.744,8.327,-4.688,,,,,,,,
703210.2529,3,1.766,8.291,-5.178,4,0.075,0.136,-0.119,5,29.285,-40.66,40.276
703210.2728,3,2.132,9.818,-5.724,,,,,,,,
703210.2927,3,2.11,11.289,-5.381,,,,,,,,
703210.3125,3,1.11,9.337,-3.628,4,0.06,0.128,-0.223,5,25.409,-42.87,36.386
703210.3324,3,0.304,8.176,-3.395,,,,,,,,
703210.3523,3,0.177,8.502,-4.436,,,,,,,,
703210.3721,3,0.809,8.49,-4.561,4,0.068,0.099,-0.282,,,,
703210.392,3,0.517,9.047,-4.018,,,,,,,,
703210.4119,3,-0.402,8.875,-3.714,,,,,,,,
703210.4317,3,-0.311,8.648,-4.64,4,0.053,-0.152,-0.285,5,24.606,-44.946,30.141
703210.4516,3,0.077,8.638,-3.539,,,,,,,,
703210.4715,3,0.835,8.444,-3.099,,,,,,,,
703210.4913,3,1.268,8.655,-3.802,4,0.027,-0.496,-0.265,,,,
703210.5112,3,1.472,7.478,-5.661,,,,,,,,
703210.5311,3,2.051,11.684,-4.35,,,,,,,,
703210.5509,3,2.84,12.488,-1.893,4,-0.044,-0.567,-0.286,5,27.321,-44.975,27.431
703210.5708,3,0.569,9.528,0.584,,,,,,,,
703210.5907,3,-0.775,7.973,-0.546,,,,,,,,
703210.6106,3,-1.034,7.138,-0.383,4,-0.109,-0.243,-0.323,5,29.828,-41.602,27.356
703210.6304,3,-1.785,12.23,-2.759,,,,,,,,
703210.6503,3,-2.144,10.777,-0.328,,,,,,,,
703210.6701,3,-2.778,9.911,-1.486,4,-0.076,-0.21,-0.253,5,35.178,-38.667,29.152
703210.69,3,-0.991,11.282,-0.33,,,,,,,,
703210.7099,3,0.598,10.954,-0.598,,,,,,,,
703210.7297,3,-0.323,7.832,0.392,4,-0.138,-0.248,-0.144,5,33.582,-33.78,28.532
703210.7496,3,-0.01,8.717,-1.048,,,,,,,,
703210.7695,3,0.12,11.005,-3.549,,,,,,,,
703210.7893,3,-0.79,10.856,-4.037,4,-0.034,-0.156,-0.161,5,36.81,-32.213,26.292
703210.8092,3,-2.407,8.009,-2.484,,,,,,,,
703210.829,3,-1.694,10.507,-0.933,,,,,,,,
703210.8489,3,-0.684,9.332,-1.218,4,-0.088,-0.296,-0.111,5,35.883,-30.981,20.837
703210.8688,3,-1.22,10.866,-0.479,,,,,,,,
703210.8887,3,-0.591,9.835,-0.912,,,,,,,,
703210.9085,3,-1.067,9.351,-2.503,4,0.064,-0.289,-0.063,,,,
703210.9284,3,-1.929,9.734,-3.235,,,,,,,,
703210.9483,3,-1.323,10.638,-3.752,,,,,,,,
703210.9681,3,0.55,9.87,-1.644,4,-0.019,-0.232,-0.007,5,36.214,-34.476,14.517
703210.988,3,0.531,9.289,-1,,,,,,,,
703211.0078,3,0.127,8.813,-1.012,,,,,,,,
703211.0277,3,-0.187,8.739,-2.745,4,-0.083,-0.195,-0.03,,,,
703211.0476,3,-0.498,11.464,-3.637,,,,,,,,
703211.0674,3,-0.309,9.062,-1.524,,,,,,,,
703211.0873,3,-2.249,9.564,-2.024,4,-0.022,-0.222,-0.021,5,36.14,-35.133,13.443
703211.1072,3,-1.771,10.234,-2.228,,,,,,,,
703211.127,3,-1.558,9.447,-1.321,,,,,,,,
703211.1469,3,-0.665,9.315,-3.111,4,-0.009,-0.493,0.01,5,35.281,-37.605,9.433
703211.1668,3,-1.311,10.332,-4.18,,,,,,,,
703211.1866,3,-2.539,8.849,-3.534,,,,,,,,
703211.2065,3,-3.36,8.971,-3.115,4,0.067,-0.36,0.056,5,32.127,-38.396,9.015
703211.2264,3,-2.508,9.799,-3.087,,,,,,,,
703211.2462,3,-1.055,9.435,-3.269,,,,,,,,
703211.2661,3,-1.094,8.435,-1.778,4,0.083,-0.158,0.136,5,32.442,-38.916,8.298
703211.286,3,-0.974,8.432,-2.857,,,,,,,,
703211.3058,3,-0.651,8.861,-4.003,,,,,,,,
703211.3257,3,-0.299,9.818,-2.589,4,0.137,0.345,0.138,5,31.421,-40.93,11.172
703211.3455,3,-0.079,11.483,-3.233,,,,,,,,
703211.3654,3,0.392,8.545,-0.419,,,,,,,,
703211.3853,3,0.055,9.55,-1.558,4,0.086,0.76,0.092,5,31.393,-39.438,13.382
703211.4051,3,0.761,11.404,-2.493,,,,,,,,
703211.425,3,0.206,9.765,-2.417,,,,,,,,
703211.4449,3,-0.368,7.884,-0.883,4,0.038,0.589,0.012,5,31.204,-42.584,12.706
703211.4648,3,-1.275,9.918,-3.072,,,,,,,,
703211.4846,3,-0.541,10.002,-2.91,,,,,,,,
703211.5045,3,-0.481,10.715,-3.156,4,-0.039,0.283,-0.033,5,30.502,-41.298,13.62
703211.5243,3,-0.617,8.351,-3.484,,,,,,,,
703211.5442,3,-1.663,8.832,-4.79,,,,,,,,
703211.5641,3,-1.78,9.6,-4.642,4,0.008,0.352,-0.046,,,,
703211.5839,3,-1.56,9.334,-2.572,,,,,,,,
703211.6038,3,-1.417,9.174,-0.845,,,,,,,,
703211.6237,3,-1.187,11.036,-1.338,4,-0.054,0.311,-0.027,5,30.878,-39.575,14.537
703211.6435,3,-1.184,9.148,-1.462,,,,,,,,
703211.6634,3,-1.577,9.153,-2.972,,,,,,,,
703211.6833,3,-0.919,10.438,-3.848,4,0.104,0.147,0.002,5,30.07,-40.497,14.732
703211.7031,3,-0.744,9.212,-2.845,,,,,,,,
703211.723,3,-0.309,9.289,-3.663,,,,,,,,
703211.7429,3,0.055,10.071,-1.933,4,0.005,0.335,0.036,5,30.072,-40.515,16.655
703211.7627,3,-0.048,8.782,-0.737,,,,,,,,
703211.7826,3,0.268,10.442,-2.094,,,,,,,,
703211.8025,3,-0.292,10,-2.367,4,-0.048,0.528,0.003,5,27.887,-40.651,14.673
703211.8223,3,0.218,10.287,-2.247,,,,,,,,
703211.8422,3,-0.44,10.579,-2.096,,,,,,,,
703211.8621,3,-0.687,9.779,-1.807,4,-0.051,0.645,-0.056,5,28.062,-40.877,16.763
703211.8819,3,-0.488,9.681,-1.752,,,,,,,,
703211.9018,3,-0.177,10.543,-1.988,,,,,,,,
703211.9216,3,-0.462,9.588,-1.44,4,-0.097,0.371,-0.086,5,28.722,-41.243,16.341
703211.9415,3,-1.074,10.292,-2.106,,,,,,,,
703211.9614,3,-0.144,9.602,-2.611,,,,,,,,
703211.9812,3,-0.215,11.174,-3.79,4,-0.006,0.199,-0.074,5,28.712,-41.65,16.429
703212.0011,3,-0.359,9.234,-2.582,,,,,,,,
703212.021,3,-0.849,6.355,-3.053,,,,,,,,
703212.0409,3,-1.134,11.174,-5.367,4,0.012,0.253,-0.078,5,28.113,-41.306,18.135
703212.0607,3,-0.443,9.858,-2.745,,,,,,,,
703212.0806,3,0.335,9.988,-1.086,,,,,,,,
703212.1005,3,0.041,11.048,-0.77,4,-0.02,0.202,-0.072,,,,
703212.1203,3,0.476,9.09,-1.254,,,,,,,,
703212.1402,3,1.244,10.201,-4.039,,,,,,,,
703212.1601,3,-0.053,9.835,-3.936,4,0.091,0.107,-0.108,5,28.572,-43.103,19.72
703212.1799,3,-0.859,10.452,-3.604,,,,,,,,
703212.1998,3,-0.352,9.342,-1.409,,,,,,,,
703212.2197,3,-0.402,10.952,-0.799,4,-0.086,-0.006,-0.126,5,30.037,-42.03,19.191
703212.2395,3,-0.328,9.636,-0.479,,,,,,,,
703212.2594,3,-0.756,9.155,-1.431,,,,,,,,
703212.2792,3,-1.206,9.284,-3.639,4,0.002,-0.178,-0.127,5,29.391,-41.339,19.006
703212.2991,3,-1.354,8.696,-4.659,,,,,,,,
703212.319,3,-1.826,10.234,-4.147,,,,,,,,
703212.3389,3,-1.816,9.325,-1.484,4,-0.009,-0.02,-0.088,5,29.063,-40.291,17.738
703212.3587,3,-0.766,10.172,-0.668,,,,,,,,
703212.3786,3,-0.041,9.744,-0.187,,,,,,,,
703212.3985,3,0.737,9.019,-1.57,4,-0.073,-0.022,-0.053,5,30.096,-39.63,18.044
703212.4183,3,0.613,9.136,-2.735,,,,,,,,
703212.4382,3,0.246,10.253,-3.953,,,,,,,,
703212.458,3,-0.29,10.842,-4.12,4,0.044,-0.155,-0.089,5,29.472,-39.316,17.819
703212.4779,3,-0.127,8.92,-2.548,,,,,,,,
703212.4978,3,0.002,6.977,-3.063,,,,,,,,
703212.5176,3,-0.16,10.272,-4.592,4,-0.023,-0.279,-0.113,5,31.453,-39.372,15.326
703212.5375,3,-0.38,9.866,-2.967,,,,,,,,
703212.5574,3,-0.77,9.679,-1.874,,,,,,,,
703212.5772,3,-1.34,11.131,-1.673,4,-0.053,-0.479,-0.104,5,31.993,-38.837,15.99
703212.5971,3,-1.108,10.217,-0.811,,,,,,,,
703212.617,3,-1.266,8.834,-1.357,,,,,,,,
703212.6368,3,-1.378,9.473,-2.838,4,0.007,-0.575,-0.054,,,,
703212.6561,3,-1.67,8.966,-2.271,,,,,,,,
703212.6766,3,-0.689,9.315,-3.02,,,,,,,,
703212.6964,3,-0.854,9.55,-2.608,4,0.002,-0.517,0.006,5,32.706,-38.309,14.743
703212.7163,3,-0.569,9.567,-1.326,,,,,,,,
703212.7362,3,-0.048,10.531,-0.938,,,,,,,,
703212.756,3,-0.072,9.665,-0.761,4,-0.066,-0.425,0.027,,,,
703212.7759,3,-0.029,10.306,-1.634,,,,,,,,
703212.7958,3,-0.304,9.71,-1.979,,,,,,,,
703212.8156,3,-0.273,9.428,-3.996,4,0.017,-0.474,0.002,5,32.635,-39.977,13.794
703212.8355,3,0.364,10.169,-4.58,,,,,,,,
703212.8553,3,-0.129,9.406,-2.802,,,,,,,,
703212.8752,3,0.392,9.799,-1.929,4,-0.06,-0.417,-0.008,5,30.499,-39.865,11.162
703212.8951,3,0.043,9.677,-1.984,,,,,,,,
703212.915,3,-0.275,10.064,-2.359,,,,,,,,
703212.9348,3,-1.517,9.952,-2.646,4,-0.03,-0.474,-0.047,5,31.532,-39.125,10.422
703212.9547,3,-2.467,9.894,-3.003,,,,,,,,
703212.9746,3,-2.969,7.322,-3.625,,,,,,,,
703212.9944,3,-2.503,9.76,-5.453,4,0.072,-0.617,-0.021,5,33.844,-39.069,10.344
703213.0143,3,-1.598,10.129,-4.319,,,,,,,,
703213.0341,3,-0.318,9.947,-1.888,,,,,,,,
703213.054,3,-0.457,10.715,-0.309,4,0.002,-0.538,0.063,5,33.136,-38.698,9.421
703213.0739,3,-0.993,9.114,-0.479,,,,,,,,
703213.0937,3,-0.708,9.696,-2.618,,,,,,,,
703213.1136,3,-0.251,9.813,-2.761,4,0.124,-0.675,0.053,5,33.061,-39.415,9.889
703213.1335,3,-1.017,9.672,-2.307,,,,,,,,
703213.1533,3,0.105,9.957,-2.85,,,,,,,,
703213.1732,3,0.357,9.913,-1.795,4,0.045,-0.667,0.065,,,,
703213.1931,3,0.254,9.574,-0.873,,,,,,,,
703213.2129,3,0.493,9.808,-1.421,,,,,,,,
703213.2328,3,-1.086,9.937,-0.665,4,-0.013,-0.53,0.06,5,33.582,-39.78,6.85
703213.2527,3,-1.448,9.959,-0.443,,,,,,,,
703213.2725,3,-1.766,9.416,-1.548,,,,,,,,
703213.2924,3,-2.524,10.184,-2.319,4,0.032,-0.373,0.062,,,,
703213.3123,3,-2.685,11.292,-2.455,,,,,,,,
703213.3321,3,-1.44,9.693,-1.431,,,,,,,,
703213.352,3,-1.613,8.473,-1.598,4,0.037,-0.353,0.104,5,33.801,-39.059,6.123
703213.3718,3,-2.309,9.643,-3.063,,,,,,,,
703213.3917,3,-1.948,10.232,-3.551,,,,,,,,
703213.4116,3,-2.323,9.488,-2.134,4,0.104,-0.558,0.146,5,34.473,-39.345,5.551
703213.4314,3,-2.807,5.53,-2.986,,,,,,,,
703213.4513,3,-2.886,10.65,-5.836,,,,,,,,
703213.4712,3,-1.12,9.727,-4.068,4,0.143,-0.439,0.212,5,31.488,-41.212,4.755
703213.4911,3,-0.538,10.294,-1.254,,,,,,,,
703213.5109,3,-0.187,10.528,0.696,,,,,,,,
703213.5308,3,0.656,8.26,0.124,4,0.098,-0.046,0.259,5,32.483,-41.714,5.87
703213.5506,3,0.223,10.67,-2.998,,,,,,,,
703213.5705,3,-0.258,9.476,-2.527,,,,,,,,
703213.5904,3,-0.392,9.507,-2.735,4,0.188,0.105,0.183,5,32.033,-41.663,5.829
703213.6102,3,-0.038,9.318,-3.438,,,,,,,,
703213.6301,3,0.904,9.885,-2.599,,,,,,,,
703213.65,3,0.646,9.61,-1.84,4,0.022,0.261,0.152,,,,
703213.6698,3,0.409,9.65,-1.563,,,,,,,,
703213.6897,3,-0.488,10.174,-1.201,,,,,,,,
703213.7096,3,-1.388,9.756,-1.129,4,0.004,0.151,0.077,5,31.276,-41.975,6.763
703213.7294,3,-2.168,9.887,-1.754,,,,,,,,
703213.7493,3,-2.168,8.698,-1.998,,,,,,,,
703213.7692,3,-1.881,10.146,-2.534,4,0.036,-0.072,0.079,5,30.563,-42.548,6.125
703213.789,3,-1.878,9.253,-2.211,,,,,,,,
703213.8089,3,-2.244,9.172,-3.149,,,,,,,,
703213.8288,3,-1.615,9.789,-4.044,4,0.068,0.004,0.13,,,,
703213.8486,3,-0.79,11.148,-2.522,,,,,,,,
703213.8685,3,-0.385,9.756,-0.481,,,,,,,,
703213.8884,3,-0.881,7.87,-1.692,4,0.066,0.279,0.159,5,29.971,-44.373,7.811
703213.9082,3,-0.696,9.942,-3.639,,,,,,,,
703213.9281,3,-0.175,9.739,-3.838,,,,,,,,
703213.948,3,0.476,9.878,-2.618,4,0.091,0.387,0.136,5,29.344,-42.686,8.247
703213.9678,3,0.833,10.112,-1.773,,,,,,,,
703213.9877,3,0.129,8.942,-1.165,,,,,,,,
703214.0076,3,-0.144,10.031,-2.524,4,0.005,0.608,0.087,5,27.725,-42.647,9.338
703214.0275,3,-1.024,9.55,-1.871,,,,,,,,
703214.0473,3,-0.902,10.246,-1.938,,,,,,,,
703214.0672,3,-0.725,9.088,-2.596,4,0.046,0.673,0.013,5,27.977,-44.203,10.547
703214.0871,3,-0.68,9.555,-2.792,,,,,,,,
703214.1069,3,-0.971,8.763,-2.103,,,,,,,,
703214.1268,3,-1.498,8.904,-3.12,4,0.038,0.59,-0.01,5,28.387,-42.386,12.659
703214.1466,3,-1.792,10.079,-3.362,,,,,,,,
703214.1665,3,-1.23,10.059,-2.032,,,,,,,,
703214.1864,3,-1.335,9.985,-1.519,4,0.004,0.576,-0.008,,,,
703214.2062,3,-1.027,9.401,-1.242,,,,,,,,
703214.2261,3,-0.136,10.292,-1.563,,,,,,,,
703214.246,3,0.921,9.55,-2.288,4,0.028,0.454,-0.006,5,27.522,-42.616,14.464
703214.2658,3,0.775,9.074,-3.383,,,,,,,,
703214.2857,3,0.632,10.342,-3.773,,,,,,,,
703214.3055,3,-0.44,10.55,-2.603,4,0.011,0.542,-0.057,5,29.382,-42.789,15.221
703214.3254,3,-0.34,8.643,-0.993,,,,,,,,
703214.3453,3,-0.055,8.049,-3.113,,,,,,,,
703214.3652,3,0.483,11.684,-4.874,4,0.005,0.599,-0.104,,,,
703214.385,3,-0.256,10.973,-2.177,,,,,,,,
703214.4049,3,-0.239,9.756,-0.134,,,,,,,,
703214.4248,3,-0.505,9.389,-0.955,4,-0.028,0.591,-0.165,5,27.444,-42.052,16.933
703214.4446,3,-0.447,9.409,-2.74,,,,,,,,
703214.4645,3,-0.675,10.239,-3.903,,,,,,,,
703214.4843,3,-1.129,8.796,-3.123,4,0.062,0.298,-0.183,,,,
703214.5042,3,-1.39,9.394,-2.615,,,,,,,,
703214.5241,3,-0.11,9.282,-2.177,,,,,,,,
703214.5439,3,-0.081,9.011,-2.649,4,-0.024,0.109,-0.174,5,28.944,-41.847,16.034
703214.5638,3,-0.304,8.999,-3.202,,,,,,,,
703214.5837,3,-0.648,9.906,-3.331,,,,,,,,
703214.6036,3,-0.617,10.15,-3.127,4,0.001,0.131,-0.194,5,29.282,-40.756,17.74
703214.6234,3,-0.467,10.423,-2.139,,,,,,,,
703214.6433,3,-0.928,8.224,-1.452,,,,,,,,
703214.6631,3,-1.084,10.775,-3.173,4,-0.025,-0.011,-0.196,5,30.089,-39.787,16.08
703214.683,3,-0.45,9.239,-1.663,,,,,,,,
703214.7029,3,-0.593,8.717,-1.804,,,,,,,,
703214.7227,3,0.184,10.473,-2.493,4,-0.047,-0.281,-0.175,5,30.09,-39.803,16.743
703214.7426,3,-0.215,9.99,-1.828,,,,,,,,
703214.7625,3,-1.271,9.66,-2.177,,,,,,,,
703214.7823,3,-1.407,7.523,-3.577,4,-0.032,-0.403,-0.158,5,31.219,-38.588,14.265
703214.8022,3,-0.881,10.028,-4.003,,,,,,,,
703214.8221,3,-0.73,10.234,-2.603,,,,,,,,
703214.8419,3,-0.952,10.629,-0.636,4,-0.091,-0.369,-0.097,,,,
703214.8618,3,-0.744,10.086,-0.096,,,,,,,,
703214.8817,3,-0.763,9.638,-1.259,,,,,,,,
703214.9015,3,-0.45,10.65,-2.235,4,-0.057,-0.516,-0.056,5,32.364,-37.712,14.812
703214.9214,3,-0.567,9.425,-2.252,,,,,,,,
703214.9413,3,-0.211,10.28,-2.489,,,,,,,,
703214.9611,3,0.189,10.39,-1.73,4,-0.041,-0.649,-0.026,5,32.396,-37.242,11.615
703214.981,3,-0.084,9.339,-0.998,,,,,,,,
703215.0009,3,-0.261,9.22,-1.546,,,,,,,,
703215.0207,3,-0.747,8.272,-2.618,4,-0.061,-0.742,-0.018,,,,
703215.0406,3,-0.979,9.389,-4.357,,,,,,,,
703215.0604,3,-0.794,10.562,-3.427,,,,,,,,
703215.0803,3,-0.651,9.43,-1.933,4,-0.024,-0.769,-0.005,5,32.761,-39.157,9.09
703215.1002,3,-0.318,9.957,-2.24,,,,,,,,
703215.12,3,-0.68,9.779,-2.673,,,,,,,,
703215.1399,3,-1.074,7.138,-2.785,4,-0.013,-0.588,0.004,5,33.897,-39.774,7.182
703215.1598,3,-1.132,8.87,-5.049,,,,,,,,
703215.1797,3,-1.187,10.727,-4.549,,,,,,,,
703215.1995,3,-1.115,12.768,-0.424,4,-0.011,-0.441,0.041,5,32.071,-39.815,6.122
703215.2194,3,-0.699,8.011,1.682,,,,,,,,
703215.2392,3,-0.445,8.703,-1.826,,,,,,,,
703215.2591,3,-0.613,11.653,-4.207,4,0.022,-0.559,0.03,5,32.375,-40.868,5.045
703215.279,3,-1.345,10.277,-2.41,,,,,,,,
703215.2988,3,-1.445,9.909,-1.965,,,,,,,,
703215.3187,3,-0.529,9.784,-1.598,4,0.037,-0.626,0.051,5,31.435,-39.825,3.973
703215.3386,3,-1.156,8.298,-0.849,,,,,,,,
703215.3584,3,-1.713,10.332,-2.13,,,,,,,,
703215.3783,3,-0.636,9.557,-2.599,4,0.04,-0.63,0.08,,,,
703215.3981,3,-0.294,10.189,-3.295,,,,,,,,
703215.418,3,-0.383,9.736,-1.579,,,,,,,,
703215.4379,3,-1.259,9.827,-1.249,4,0.041,-0.489,0.071,5,31.477,-39.819,1.245
703215.4578,3,-1.984,8.803,-0.957,,,,,,,,
703215.4776,3,-1.261,9.942,-2.783,,,,,,,,
703215.4975,3,-1.318,10.315,-2.424,4,0.088,-0.384,0.07,5,31.836,-39.813,2.725
703215.5174,3,-1.692,8.849,-1.455,,,,,,,,
703215.5372,3,-0.907,9.437,-2.02,,,,,,,,
703215.5571,3,-0.237,9.215,-1.95,4,0.083,-0.404,0.104,,,,
703215.577,3,-0.928,6.793,-2.256,,,,,,,,
703215.5968,3,-1.986,10.215,-3.139,,,,,,,,
703215.6167,3,-0.826,10.95,-2.675,4,0.073,-0.43,0.115,5,31,-40.121,1.169
703215.6366,3,-0.258,10.622,-1.125,,,,,,,,
703215.6564,3,-0.486,7.164,0.424,,,,,,,,
703215.6763,3,-1.536,10.368,-2.106,4,0.017,-0.366,0.14,5,29.797,-39.954,1.665
703215.6962,3,-1.601,10.94,-1.833,,,,,,,,
703215.716,3,-0.445,9.633,-0.38,,,,,,,,
703215.7359,3,-0.16,10.172,-0.849,4,0.032,-0.294,0.145,5,29.182,-41.833,2.937
703215.7558,3,-1.003,10.004,-1.196,,,,,,,,
703215.7756,3,-2.711,10.091,-3.412,,,,,,,,
703215.7955,3,-1.649,9.031,-4.472,4,0.148,-0.21,0.112,5,29.356,-41.57,-0.575
703215.8154,3,-0.818,10.021,-3.221,,,,,,,,
703215.8352,3,-1.735,10.598,-0.725,,,,,,,,
703215.8551,3,-1.192,9.873,-0.17,4,0.031,-0.132,0.162,5,28.873,-42.484,-0.388
703215.875,3,-1.761,9.622,-0.943,,,,,,,,
703215.8948,3,-0.787,10.067,-2.819,,,,,,,,
703215.9147,3,0.065,9.531,-2.264,4,0.091,-0.184,0.154,,,,
703215.9346,3,-1.496,10.122,-2.235,,,,,,,,
703215.9544,3,-1.172,7.903,-3.807,,,,,,,,
703215.9743,3,-0.433,9.717,-4.417,4,0.134,0.061,0.14,5,27.435,-43.649,0.592
703215.9941,3,-0.859,10.098,-3.716,,,,,,,,
703216.014,3,-1.161,9.397,-1.373,,,,,,,,
703216.0339,3,-1.804,9.124,-0.361,4,0.04,0.157,0.138,,,,
703216.0538,3,-0.78,8.865,-1.036,,,,,,,,
703216.0736,3,0.395,11.265,-1.704,,,,,,,,
703216.0935,3,-0.16,6.556,-0.821,4,0.048,0.035,0.12,5,27.362,-41.344,1.096
703216.1134,3,-1.311,10.849,-3.783,,,,,,,,
703216.1332,3,-1.44,10.638,-3.12,,,,,,,,
703216.1531,3,-0.318,9.229,0.074,4,0.031,0.066,0.121,5,27.475,-41.734,2.818
703216.1729,3,1.17,7.217,4.049,,,,,,,,
703216.1928,3,-2.591,15.599,-7.97,,,,,,,,
703216.2127,3,-3.048,11.763,-7.315,4,0.152,0.066,0.091,5,25.999,-42.11,1.764
703216.2325,3,-1.192,8.243,-1.074,,,,,,,,
703216.2524,3,-0.349,10.689,0.919,,,,,,,,
703216.2723,3,0.299,10.531,0.364,4,-0.07,0.182,0.166,5,25.632,-43.712,2.489
703216.2921,3,-0.687,9.528,-1.984,,,,,,,,
703216.312,3,-1.153,9.399,-2.783,,,,,,,,
703216.3319,3,-0.847,9.583,-3.364,4,0.095,0.182,0.118,5,26.302,-43.483,3.217
703216.3517,3,-0.447,9.521,-3.166,,,,,,,,
703216.3716,3,-0.888,9.768,-3.773,,,,,,,,
703216.3915,3,-0.132,8.913,-2.883,4,0.048,0.483,0.105,5,25.186,-42.982,4.82
703216.4113,3,-0.34,9.299,-1.986,,,,,,,,
703216.4312,3,-0.036,10.014,-2.386,,,,,,,,
703216.4511,3,0.026,9.447,-2.175,4,0.021,0.684,0.05,5,25.891,-44.2,4.71
703216.4709,3,-0.732,8.911,-2.532,,,,,,,,
703216.4908,3,-1.015,10.471,-3.297,,,,,,,,
703216.5107,3,-0.842,9.892,-1.524,4,0.016,0.685,-0.022,5,25.748,-44.499,5.888
703216.5305,3,-0.51,6.063,-1.208,,,,,,,,
703216.5504,3,-1.512,10.162,-4.08,,,,,,,,
703216.5702,3,-1.196,10.445,-3.273,4,-0.002,0.554,-0.044,,,,
703216.5901,3,-0.189,11.39,-1.665,,,,,,,,
703216.61,3,-0.01,10.421,0.244,,,,,,,,
703216.6299,3,-0.086,7.131,-0.749,4,-0.035,0.427,-0.055,5,25.864,-43.532,6.252
703216.6491,3,-0.462,8.88,-4.046,,,,,,,,
703216.6696,3,-0.648,10.768,-5.063,,,,,,,,
703216.6895,3,-1.132,9.969,-2.441,4,0.051,0.308,-0.076,5,26.068,-43.437,5.574
703216.7093,3,-0.471,10.519,-0.814,,,,,,,,
703216.7292,3,0.172,9.155,-0.577,,,,,,,,
703216.749,3,-0.502,9.794,-1.756,4,-0.049,0.239,-0.091,,,,
703216.7689,3,-0.928,7.767,-2.032,,,,,,,,
703216.7888,3,-1.172,10.71,-5.381,,,,,,,,
703216.8086,3,-0.897,11.378,-3.706,4,0.056,0.364,-0.106,5,26.518,-42.963,7.291
703216.8285,3,-0.845,8.6,-2.02,,,,,,,,
703216.8484,3,-1.338,10.859,-1.706,,,,,,,,
703216.8682,3,-0.747,9.83,-0.897,4,-0.073,0.396,-0.086,5,26.224,-43.307,9.503
703216.8881,3,-0.081,9.452,-1.292,,,,,,,,
703216.908,3,-0.33,9.636,-2.809,,,,,,,,
703216.9279,3,-0.065,11.105,-3.572,4,0.038,0.219,-0.108,5,25.999,-40.794,9.018
703216.9477,3,0.392,7.578,-2.618,,,,,,,,
703216.9676,3,-0.098,9.389,-4.47,,,,,,,,
703216.9875,3,-1.172,12.562,-3.637,4,0,0.117,-0.124,5,27.53,-41.493,8.434
703217.0073,3,-0.22,8.844,0.132,,,,,,,,
703217.0272,3,0,10.916,-1.412,,,,,,,,
703217.0471,3,0.227,9.48,-1.464,4,-0.055,-0.18,-0.117,5,29.866,-44.034,10.487
703217.0669,3,-0.708,8.832,-1.778,,,,,,,,
703217.0868,3,-0.723,9.186,-2.723,,,,,,,,
703217.1066,3,-0.72,10.215,-3.766,4,0.032,-0.371,-0.107,,,,
703217.1265,3,-0.426,8.593,-3.721,,,,,,,,
703217.1464,3,-0.337,9.504,-3.515,,,,,,,,
703217.1662,3,-0.636,9.552,-2.45,4,-0.038,-0.3,-0.078,5,29.044,-42.552,7.974
703217.1861,3,-1.019,9.873,-1.558,,,,,,,,
703217.206,3,-0.4,9.344,-0.634,,,,,,,,
703217.2259,3,-1.105,10.186,-1.764,4,-0.051,-0.26,-0.056,5,28.021,-42.07,7.562
703217.2457,3,-0.84,8.449,-2.127,,,,,,,,
703217.2656,3,-0.895,10.22,-4.14,,,,,,,,
703217.2854,3,-0.541,8.128,-2.579,4,0.024,-0.325,-0.034,5,29.005,-42.4,7.744
703217.3053,3,-0.574,10.344,-2.144,,,,,,,,
703217.3252,3,-0.091,9.823,-1.149,,,,,,,,
703217.345,3,-0.232,10.442,-0.881,4,-0.043,-0.315,-0.017,5,28.284,-42.726,7.919
703217.3649,3,-0.507,8.875,-2.075,,,,,,,,
703217.3848,3,-0.294,7.841,-4.558,,,,,,,,
703217.4046,3,-0.701,10.835,-5.448,4,0.061,-0.394,-0.032,5,28.38,-43.17,4.823
703217.4245,3,-0.976,10.808,-2.79,,,,,,,,
703217.4444,3,-0.814,9.837,-0.089,,,,,,,,
703217.4642,3,-0.756,9.447,-0.17,4,-0.094,-0.301,0.007,5,29.24,-42.021,4.71
703217.4841,3,-0.622,10.43,-1.864,,,,,,,,
703217.504,3,-0.364,10.966,-1.713,,,,,,,,
703217.5238,3,-1.778,8.911,-2.256,4,0.036,-0.412,0.013,5,28.239,-40.875,5.391
703217.5437,3,-1.378,10.227,-3.558,,,,,,,,
703217.5636,3,-1.522,7.174,-2.479,,,,,,,,
703217.5834,3,-1.275,9.389,-3.022,4,0.015,-0.324,0.052,5,28.802,-42.163,5.229
703217.6033,3,-1.29,11.153,-2.577,,,,,,,,
703217.6232,3,-0.636,10.062,0.117,,,,,,,,
703217.643,3,-0.921,9.645,-0.711,4,-0.034,-0.207,0.095,,,,
703217.6629,3,-1.574,9.626,-1.706,,,,,,,,
703217.6827,3,-1.376,9.624,-3.541,,,,,,,,
703217.7026,3,-1.421,9.473,-3.683,4,0.087,-0.307,0.113,5,28.085,-42.674,4.759
703217.7225,3,-1.259,9.112,-2.864,,,,,,,,
703217.7424,3,-1.862,9.801,-2.187,,,,,,,,
703217.7622,3,-1.086,10.804,-2.103,4,0.031,-0.264,0.172,,,,
703217.7821,3,0.196,7.444,-1.283,,,,,,,,
703217.802,3,-0.38,8.578,-3.187,,,,,,,,
703217.8218,3,-0.321,11.098,-4.209,4,0.084,-0.061,0.189,5,26.616,-44.969,3.787
703217.8417,3,-0.268,9.009,-3.051,,,,,,,,
703217.8615,3,-0.593,10.354,-1.878,,,,,,,,
703217.8814,3,-0.849,9.215,-1.23,4,0.023,0.341,0.162,5,26.195,-43.295,3.734
703217.9013,3,-0.328,10.926,-2.146,,,,,,,,
703217.9211,3,-0.371,9.87,-0.553,,,,,,,,
703217.941,3,-0.069,9.952,-1.005,4,0.033,0.422,0.135,5,27.831,-43.591,5.453
703217.9609,3,-0.01,10.32,-2.422,,,,,,,,
703217.9807,3,-0.572,9.351,-3.563,,,,,,,,
703218.0006,3,-0.357,9.763,-3.391,4,0.079,0.466,0.083,5,26.505,-44.362,5.536
703218.0204,3,-1.402,9.031,-3.125,,,,,,,,
703218.0403,3,-0.907,10.964,-2.548,,,,,,,,
703218.0602,3,-1.024,8.913,-1.072,4,0,0.535,0.069,5,25.555,-43.927,6.184
703218.0801,3,-1.383,10.002,-1.333,,,,,,,,
703218.0999,3,-0.266,9.873,-2.785,,,,,,,,
703218.1198,3,-0.309,8.329,-4.348,4,0.05,0.418,0.057,5,24.606,-45.509,7.05
703218.1397,3,-1.144,9.009,-4.575,,,,,,,,
703218.1595,3,-1.146,11.636,-3.527,,,,,,,,
703218.1794,3,-1.031,9.373,0.024,4,-0.002,0.636,0.027,,,,
703218.1993,3,-0.366,7.379,-0.692,,,,,,,,
703218.2191,3,-0.285,11.428,-3.379,,,,,,,,
703218.239,3,-0.251,10.588,-1.551,4,0,0.672,0.007,5,24.942,-45.169,8.672
703218.2588,3,-0.66,10.117,-0.909,,,,,,,,
703218.2787,3,0.146,9.38,-1.519,,,,,,,,
703218.2986,3,-0.23,8.923,-2.788,4,0.027,0.545,-0.043,,,,
703218.3185,3,-0.948,10.198,-2.486,,,,,,,,
703218.3383,3,-0.22,9.677,-2.441,,,,,,,,
703218.3582,3,-0.144,9.406,-2.548,4,0.022,0.342,-0.063,5,25.664,-43.921,11.203
703218.3781,3,0.227,9.191,-2.465,,,,,,,,
703218.3979,3,0.249,9.789,-3.092,,,,,,,,
703218.4178,3,-1.065,8.528,-3.367,4,0.033,0.249,-0.079,5,24.249,-43.022,11.893
703218.4376,3,0.361,9.581,-4.384,,,,,,,,
703218.4575,3,-0.536,11.414,-3.666,,,,,,,,
703218.4774,3,-0.754,9.677,-0.208,4,-0.016,0.377,-0.091,5,25.157,-44.237,12.451
703218.4972,3,-0.033,10,-1.031,,,,,,,,
703218.5171,3,0.117,9.502,-2.321,,,,,,,,
703218.537,3,-1.105,9.586,-2.534,4,0.013,0.364,-0.104,5,26.672,-43.048,12.17
703218.5568,3,-0.428,10.684,-3.563,,,,,,,,
703218.5767,3,-0.869,9.533,-2.225,,,,,,,,
703218.5966,3,-0.479,6.664,-2.584,4,-0.009,0.286,-0.106,5,25.751,-42.256,12.952
703218.6164,3,0.304,10.682,-4.695,,,,,,,,
703218.6363,3,-0.419,10.751,-2.072,,,,,,,,
703218.6562,3,-0.665,9.416,-0.366,4,-0.048,0.168,-0.111,5,26.027,-42.226,13.898
703218.6761,3,0.383,9.54,-1.452,,,,,,,,
703218.6959,3,-0.041,9.784,-2.79,,,,,,,,
703218.7158,3,-0.065,10.871,-3.419,4,0.031,0.038,-0.128,5,26.025,-42.207,12.654
703218.7357,3,-0.297,10.392,-2.682,,,,,,,,
703218.7555,3,-0.593,10.045,-1.73,,,,,,,,
703218.7754,3,0.529,8.461,-1.641,4,-0.014,0.032,-0.119,5,27.527,-41.37,13.858
703218.7952,3,-0.29,9.342,-2.276,,,,,,,,
703218.8151,3,-0.225,9.911,-3.178,,,,,,,,
703218.835,3,0.158,9.184,-3.785,4,0.005,0.044,-0.124,,,,
703218.8548,3,-1.132,8.487,-3.381,,,,,,,,
703218.8747,3,-0.897,9.33,-2.424,,,,,,,,
703218.8946,3,0.292,10.684,-2.457,4,-0.057,-0.073,-0.111,5,27.556,-42.773,12.659
703218.9145,3,-0.546,9.768,-0.732,,,,,,,,
703218.9343,3,-0.06,9.002,-1.156,,,,,,,,
703218.9542,3,0.713,11.251,-2.639,4,-0.032,-0.233,-0.101,5,26.157,-40.797,12.035
703218.974,3,-0.194,8.396,-2.309,,,,,,,,
703218.9939,3,-0.553,7.506,-4.185,,,,,,,,
703219.0138,3,-0.962,11.036,-5.037,4,0.018,-0.113,-0.095,5,28.456,-41.481,12.794
703219.0336,3,-1.488,9.583,-1.632,,,,,,,,
703219.0535,3,-1.318,10.217,-0.232,,,,,,,,
703219.0734,3,-1.335,8.968,-0.936,4,-0.084,0.059,-0.061,5,27.37,-41.762,13.446
703219.0932,3,-0.127,10.885,-2.417,,,,,,,,
703219.1131,3,-0.668,9.447,-2.977,,,,,,,,
703219.133,3,-1.127,9.433,-2.556,4,0.046,-0.018,-0.051,5,27.773,-39.999,11.925
703219.1528,3,-0.737,9.796,-3.106,,,,,,,,
703219.1727,3,-1.902,9.461,-2.85,,,,,,,,
703219.1926,3,-0.976,9.751,-2.137,4,-0.008,-0.063,-0.028,5,28.699,-42.035,12.646
703219.2124,3,-0.321,9.894,-1.742,,,,,,,,
703219.2323,3,-0.584,9.511,-1.579,,,,,,,,
703219.2522,3,0.182,8.916,-3.226,4,0.01,-0.152,0.006,5,28.262,-39.394,12.28
703219.272,3,0.323,11.426,-4.939,,,,,,,,
703219.2919,3,0.16,10.399,-1.783,,,,,,,,
703219.3118,3,0.122,8.145,-0.45,4,-0.028,-0.031,-0.003,5,27.736,-40.991,12.688
703219.3316,3,-0.869,10.227,-1.699,,,,,,,,
703219.3515,3,-0.002,11.366,-1.211,,,,,,,,
703219.3713,3,-0.55,6.726,-2.189,4,-0.002,-0.01,-0.036,,,,
703219.3912,3,-0.964,8.908,-4.506,,,,,,,,
703219.4111,3,-0.199,11.232,-5.331,,,,,,,,
703219.4309,3,-1.34,9.99,-1.589,4,0.025,-0.04,-0.042,5,28.761,-39.195,11.925
703219.4508,3,-0.692,10.076,-0.299,,,,,,,,
703219.4707,3,-0.39,10.102,-0.625,,,,,,,,
703219.4906,3,-1.256,9.844,-0.84,4,-0.052,-0.066,-0.027,,,,
703219.5104,3,-0.225,9.619,-2.032,,,,,,,,
703219.5303,3,-0.514,9.399,-4.326,,,,,,,,
703219.5501,3,-0.876,8.389,-4.058,4,0.07,-0.156,-0.031,5,27.214,-39.001,10.725
703219.57,3,-0.871,10.253,-3.242,,,,,,,,
703219.5899,3,-1.785,9.87,-2.424,,,,,,,,
703219.6097,3,-0.885,9.062,-1.505,4,-0.013,0.046,-0.011,5,28.349,-40.051,12.057
703219.6296,3,-0.45,9.392,-1.326,,,,,,,,
703219.6495,3,-0.471,9.416,-2.137,,,,,,,,
703219.6693,3,-0.045,9.385,-3.434,4,0.04,0.009,-0.001,5,28.732,-40.417,10.683
703219.6892,3,-0.907,9.619,-3.168,,,,,,,,
703219.7091,3,-0.524,10.05,-3.178,,,,,,,,
703219.7289,3,-0.928,11.057,-1.089,4,0.005,0.072,-0.012,5,28.746,-39.815,10.661
703219.7488,3,0.151,7.004,-0.335,,,,,,,,
703219.7687,3,-0.782,9.89,-3.429,,,,,,,,
703219.7885,3,-1.122,11.072,-3.812,4,0.03,0.004,-0.02,5,28.604,-39.76,11.926
703219.8084,3,-0.5,10.064,-2.027,,,,,,,,
703219.8283,3,-0.438,9.808,-0.737,,,,,,,,
703219.8481,3,-0.266,8.791,-1.51,4,-0.025,-0.04,-0.016,5,28.465,-42.03,11.203
703219.868,3,-1.027,9.514,-1.936,,,,,,,,
703219.8879,3,-0.962,9.894,-2.579,,,,,,,,
703219.9077,3,-0.086,9.863,-3.273,4,0.035,-0.152,-0.02,,,,
703219.9276,3,-0.768,9.011,-2.704,,,,,,,,
703219.9474,3,-0.794,9.291,-3.525,,,,,,,,
703219.9673,3,-1.35,9.971,-3.371,4,0.031,-0.068,-0.023,5,27.426,-39.23,12.234
703219.9872,3,-0.845,10.574,-2.596,,,,,,,,
703220.007,3,-0.72,7.202,-1.563,,,,,,,,
703220.0269,3,-0.34,8.849,-2.891,4,-0.011,0.001,0.002,,,,
703220.0468,3,-0.443,12.517,-4.006,,,,,,,,
703220.0667,3,-1.287,8.731,-1.572,,,,,,,,
703220.0865,3,-0.634,9.966,-2.388,4,0.007,-0.016,-0.005,5,28.357,-40.958,11.201
703220.1064,3,-0.945,11.112,-1.84,,,,,,,,
703220.1262,3,-0.328,7.001,-0.78,,,,,,,,
703220.1461,3,-0.684,9.009,-3.876,4,0.02,-0.043,0.002,5,29.224,-40.225,12.259
703220.166,3,-1.362,11.311,-3.893,,,,,,,,
703220.1858,3,-0.931,9.808,-1.979,,,,,,,,
703220.2057,3,-0.218,10.638,-1.022,4,-0.021,0.028,0.014,5,28.769,-39.912,10.492
703220.2256,3,-0.089,8.691,-0.924,,,,,,,,
703220.2454,3,-0.945,9.557,-2.005,,,,,,,,
703220.2653,3,-0.591,10.567,-2.568,4,0.005,-0.037,0.013,5,29.088,-40.617,12.656
703220.2852,3,-0.818,8.944,-3.032,,,,,,,,
703220.305,3,-0.548,9.296,-3.123,,,,,,,,
703220.3249,3,-0.596,10.002,-2.596,4,-0.001,-0.065,-0.001,5,28.401,-39.543,10.092
703220.3448,3,-1.201,9.126,-2.101,,,,,,,,
703220.3646,3,-0.445,9.768,-1.893,,,,,,,,
703220.3845,3,-0.821,9.741,-2.237,4,-0.032,0.009,-0.006,5,29.99,-37.74,11.772
703220.4044,3,-0.979,8.27,-2.539,,,,,,,,
703220.4243,3,-1.091,11.06,-3.888,,,,,,,,
703220.4441,3,-0.476,9.686,-2.735,4,-0.026,0.01,-0.01,5,28.784,-39.784,10.515
703220.464,3,-1.046,8.54,-1.06,,,,,,,,
703220.4839,3,-1.481,10.988,-1.828,,,,,,,,
703220.5037,3,-0.625,9.947,-0.428,4,-0.047,0.02,-0.015,5,28.099,-38.037,11.194
703220.5236,3,-0.443,6.523,-1.728,,,,,,,,
703220.5434,3,-1.304,10.892,-4.738,,,,,,,,
703220.5633,3,-1.519,11.021,-3.738,4,0.052,-0.025,-0.018,,,,
703220.5832,3,-1.383,9.54,-2.106,,,,,,,,
703220.6031,3,-1.292,9.696,-1.33,,,,,,,,
703220.6229,3,-0.213,9.586,-1.644,4,-0.05,-0.048,0.023,5,26.929,-38.231,9.048
703220.6422,3,-0.026,9.136,-1.766,,,,,,,,
703220.6627,3,-0.345,9.638,-2.766,,,,,,,,
703220.6825,3,-0.132,10.634,-3.398,4,0.033,-0.146,0.019,5,28.76,-39.194,11.302
703220.7024,3,-0.294,8.825,-3.005,,,,,,,,
703220.7222,3,-0.294,8.932,-2.802,,,,,,,,
703220.7421,3,-0.132,10.117,-3.096,4,0.022,-0.052,-0.002,5,28.731,-40.443,10.655
703220.762,3,-1.232,10.277,-2.163,,,,,,,,
703220.7818,3,-0.349,9.456,-1.448,,,,,,,,
703220.8017,3,-0.342,9.89,-2.489,4,-0.003,-0.068,-0.012,5,28.073,-39.92,9.306
703220.8216,3,-0.754,8.679,-2.491,,,,,,,,
703220.8414,3,-0.385,9.543,-3.096,,,,,,,,
703220.8613,3,-1.321,9.586,-2.52,4,-0.004,-0.164,-0.027,5,28.072,-39.684,8.78
703220.8811,3,-1.074,10.753,-3.041,,,,,,,,
703220.901,3,-0.857,6.961,-1.225,,,,,,,,
703220.9209,3,-1.967,9.387,-3.355,4,-0.002,-0.189,-0.001,5,29.533,-38.365,9.744
703220.9408,3,-1.658,11.179,-3.4,,,,,,,,
703220.9606,3,-1.101,9.823,-1.12,,,,,,,,
703220.9805,3,-0.684,10.287,-0.924,4,-0.01,-0.132,0.046,5,29.102,-40.514,8.571
703221.0004,3,-0.615,9.409,-1.06,,,,,,,,
703221.0202,3,-0.601,9.961,-2.457,,,,,,,,
703221.0401,3,-1.058,10.394,-2.146,4,0.026,-0.108,0.06,5,29.06,-39.119,9.088
703221.0599,3,-0.711,8.916,-1.993,,,,,,,,
703221.0798,3,-0.546,5.824,-2.816,,,,,,,,
703221.0997,3,-1.51,7.092,-4.824,4,0.016,-0.05,0.061,,,,
703221.1195,3,-1.505,13.878,-5.941,,,,,,,,
703221.1394,3,0.366,10.043,-1.218,,,,,,,,
703221.1593,3,-0.479,8.363,0.464,4,-0.08,0.105,0.079,5,28.206,-39.4,9.349
703221.1792,3,-0.17,10.806,-2.163,,,,,,,,
703221.199,3,-0.129,10.301,-2.218,,,,,,,,
703221.2189,3,-1.182,8.985,-2.065,4,0.01,0.007,0.041,5,29.381,-40.593,7.584
703221.2387,3,-0.629,9.83,-2.893,,,,,,,,
703221.2586,3,-1.194,11.373,-2.347,,,,,,,,
703221.2785,3,-1.11,7.152,-1.452,4,-0.039,-0.018,0.044,5,29.053,-40.424,7.945
703221.2983,3,-1.062,9.234,-3.125,,,,,,,,
703221.3182,3,-1.038,11.227,-3.419,,,,,,,,
703221.3381,3,0.041,10.665,-1.548,4,-0.023,-0.018,0.064,5,28.084,-40.666,9.37
703221.3579,3,0,9.868,-0.476,,,,,,,,
703221.3778,3,-0.495,7.872,-1.601,,,,,,,,
703221.3977,3,-0.957,10.277,-3.431,4,0.012,0.018,0.042,5,27.519,-41.06,8.871
703221.4175,3,-1.048,10.662,-3.237,,,,,,,,
703221.4374,3,-0.28,9.344,-2.378,,,,,,,,
703221.4572,3,-0.163,9.538,-2.017,4,-0.008,-0.014,0.036,5,28.703,-39.905,8.981
703221.4771,3,-1.113,9.404,-2.355,,,,,,,,
703221.497,3,-1.555,10.184,-2.352,,,,,,,,
703221.5169,3,-0.433,9.624,-2.441,4,0.009,0.051,0.019,5,28.265,-41.801,9.026
703221.5367,3,-1.168,9.069,-2.177,,,,,,,,
703221.5566,3,-1.17,9.141,-3.118,,,,,,,,
703221.5765,3,-0.601,10.928,-2.675,4,0.024,0.076,0.027,5,28.571,-42.046,8.598
703221.5963,3,-1.256,6.578,-1.204,,,,,,,,
703221.6162,3,-1.029,9.382,-2.766,,,,,,,,
703221.636,3,-1.761,12.854,-2.754,4,0.067,0.047,0.021,,,,
703221.6559,3,0.139,5.169,-1.752,,,,,,,,
703221.6758,3,-1.077,10.454,-4.13,,,,,,,,
703221.6956,3,-1.553,11.361,-3.46,4,0.043,0.103,0.051,5,27.615,-41.533,9.114
703221.7155,3,-0.876,9.629,-0.182,,,,,,,,
703221.7354,3,0.311,11.131,-0.333,,,,,,,,
703221.7553,3,-0.057,9.258,-1.311,4,-0.008,0.169,0.072,,,,
703221.7751,3,-0.522,8.545,-2.383,,,,,,,,
703221.795,3,-0.505,9.677,-4.716,,,,,,,,
703221.8148,3,-0.014,10.648,-4.637,4,0.102,0.187,0.032,5,28.305,-41.22,9.592
703221.8347,3,0.103,8.64,-2.632,,,,,,,,
703221.8546,3,-0.689,9.363,-1.792,,,,,,,,
703221.8744,3,0.084,10.588,-2.343,4,-0.041,0.353,0.009,5,28.252,-41.347,11.201
703221.8943,3,-0.66,9.44,-1.153,,,,,,,,
703221.9142,3,-1.003,8.712,-2.087,,,,,,,,
703221.934,3,-1.043,10.689,-3.8,4,0.046,0.233,-0.043,5,28.004,-40.749,10.474
703221.9539,3,-0.282,9.464,-3.448,,,,,,,,
703221.9738,3,-0.878,8.432,-3.032,,,,,,,,
703221.9936,3,-0.699,11.49,-3.185,4,0.019,0.27,-0.062,5,28.453,-41.476,11.066
703222.0135,3,-1.137,9.105,-0.558,,,,,,,,
703222.0334,3,-0.986,6.839,-2.498,,,,,,,,
703222.0532,3,-1.665,11.83,-4.573,4,0.027,0.312,-0.062,5,28.682,-40.298,12.378
703222.0731,3,-0.79,11.373,-3.74,,,,,,,,
703222.093,3,-1.488,8.447,-1.775,,,,,,,,
703222.1128,3,-0.773,9.064,-1.941,4,0.005,0.346,-0.065,5,29.086,-40.811,12.99
703222.1327,3,-1.125,11.297,-1.651,,,,,,,,
703222.1526,3,-0.742,9.473,-0.115,,,,,,,,
703222.1724,3,-0.615,10.086,-1.024,4,-0.028,0.146,-0.044,,,,
703222.1923,3,-0.668,9.138,-2.24,,,,,,,,
703222.2122,3,0.086,9.928,-1.969,,,,,,,,
703222.232,3,0.4,9.842,-1.51,4,-0.011,0.027,-0.039,5,27.534,-41.896,11.929
703222.2519,3,-0.232,10.165,-0.804,,,,,,,,
703222.2718,3,-0.211,9.952,-0.608,,,,,,,,
703222.2916,3,-0.502,10.189,-1.484,4,-0.063,0.066,-0.033,,,,
703222.3115,3,-0.127,9.705,-1.237,,,,,,,,
703222.3314,3,-0.56,8.088,-1.728,,,,,,,,
703222.3513,3,-0.402,10.143,-3.553,4,-0.035,-0.042,-0.042,5,29.399,-40.578,13.036
703222.3711,3,-1.149,11.792,-2.601,,,,,,,,
703222.391,3,-0.914,8.873,-0.483,,,,,,,,
703222.4108,3,-0.514,8.164,-2.259,4,-0.073,0.026,-0.024,5,29.91,-41.159,11.357
703222.4307,3,-0.51,10.914,-4.087,,,,,,,,
703222.4506,3,-0.177,10.002,-2.311,,,,,,,,
703222.4704,3,0.273,9.878,-1.194,4,-0.026,0.132,-0.023,5,28.12,-41.31,11.244
703222.4903,3,-0.117,9.576,-1.874,,,,,,,,
703222.5102,3,0.27,10.119,-2.649,,,,,,,,
703222.53,3,0.342,10.16,-2.512,4,0.003,0.071,-0.068,5,29.143,-42.293,11.934
703222.5499,3,0.407,9.839,-2.701,,,,,,,,
703222.5697,3,0.304,8.339,-2.187,,,,,,,,
703222.5896,3,-0.158,9.342,-3.046,4,-0.007,-0.079,-0.117,5,29.498,-42.87,11.208
703222.6095,3,-0.792,9.741,-2.701,,,,,,,,
703222.6294,3,-1.012,9.988,-2.065,,,,,,,,
703222.6492,3,-1.11,9.418,-2.221,4,-0.02,-0.23,-0.14,5,30.705,-41.695,11.206
703222.6691,3,-1.402,9.925,-1.627,,,,,,,,
703222.689,3,-1.39,9.354,-1.543,,,,,,,,
703222.7088,3,-0.866,9.433,-1.941,4,-0.003,-0.375,-0.081,5,31.314,-40.466,9.297
703222.7287,3,-0.73,9.744,-2.381,,,,,,,,
703222.7486,3,-1.108,9.169,-1.632,,,,,,,,
703222.7684,3,-1.409,10.241,-2.273,4,0.012,-0.281,-0.037,5,30.627,-40.018,10.318
703222.7883,3,-0.943,10.481,-1.364,,,,,,,,
703222.8081,3,-0.768,7.671,-1.67,,,,,,,,
703222.828,3,-1.295,10.902,-3.429,4,0.004,-0.147,0.007,,,,
703222.8479,3,-1.084,10.854,-1.498,,,,,,,,
703222.8677,3,-0.744,9.377,0.1,,,,,,,,
703222.8876,3,-0.61,10.686,-0.318,4,-0.038,-0.07,0.054,5,32.028,-41.252,9.985
703222.9075,3,0.057,7.88,-1.546,,,,,,,,
703222.9274,3,-0.067,9.803,-4.534,,,,,,,,
703222.9472,3,-0.352,9.21,-4.597,4,0.088,-0.105,0.024,5,31.906,-40.706,9.755
703222.9671,3,-0.663,8.949,-3.986,,,,,,,,
703222.9869,3,-0.395,9.715,-2.891,,,,,,,,
703223.0068,3,0.603,10.1,-1.4,4,-0.081,-0.054,0.018,5,29.518,-40.421,6.223
703223.0267,3,0.699,9.578,-0.201,,,,,,,,
703223.0465,3,0.201,9.916,-1.244,,,,,,,,
703223.0664,3,0.196,10.134,-2.039,4,-0.045,-0.145,-0.045,5,31.34,-40.555,10.023
703223.0863,3,-0.357,9.861,-2.907,,,,,,,,
703223.1061,3,-1.95,8.502,-2.596,,,,,,,,
703223.126,3,-2.28,9.973,-2.465,4,-0.025,-0.089,-0.072,5,31.573,-40.742,8.499
703223.1458,3,-1.512,10.313,-1.699,,,,,,,,
703223.1657,3,-1.799,9.739,-0.964,,,,,,,,
703223.1856,3,-1.986,9.21,-1.979,4,-0.058,-0.205,-0.029,,,,
703223.2055,3,-0.976,10.411,-3.003,,,,,,,,
703223.2253,3,-0.933,9.751,-2.288,,,,,,,,
703223.2452,3,-1.854,6.894,-2.692,4,0.024,-0.292,0.006,5,32.735,-40.172,7.227
703223.2651,3,-2.043,10.165,-4.637,,,,,,,,
703223.2849,3,-1.196,10.327,-3.84,,,,,,,,
703223.3048,3,-0.01,10.72,-1.539,4,-0.003,-0.262,0.06,5,32.397,-39.78,8.682
703223.3247,3,0.254,11.067,-0.079,,,,,,,,
703223.3445,3,0.388,8.774,-0.002,,,,,,,,
703223.3644,3,0.196,9.483,-1.984,4,0.018,-0.262,0.046,,,,
703223.3842,3,-0.474,9.167,-3.979,,,,,,,,
703223.4041,3,-0.993,9.916,-4.384,,,,,,,,
703223.424,3,-0.756,9.768,-2.723,4,0.055,-0.253,0.005,5,32.196,-41.202,7.097
703223.4438,3,-0.424,8.868,-1.577,,,,,,,,
703223.4637,3,-1.053,9.712,-1.012,,,,,,,,
703223.4836,3,-1.371,10.308,-1.273,4,-0.062,-0.193,0.016,,,,
703223.5035,3,-0.136,8.806,-2.264,,,,,,,,
703223.5233,3,-0.409,10.074,-3.599,,,,,,,,
703223.5432,3,-1.101,8.844,-3.163,4,0.041,-0.31,-0.003,5,34.073,-39.98,7.088
703223.563,3,-1.268,9.959,-3.575,,,,,,,,
703223.5829,3,-0.699,10.088,-2.833,,,,,,,,
703223.6028,3,-1.51,9.559,-2.223,4,0.032,-0.291,-0.002,5,33.669,-40.491,6.853
703223.6226,3,-2.177,10.528,-2.187,,,,,,,,
703223.6425,3,-0.457,10.969,-1.438,,,,,,,,
703223.6624,3,-1.017,6.772,-0.514,4,0.03,-0.384,0.023,5,32.892,-41.631,6.854
703223.6822,3,-1.802,9.655,-3.757,,,,,,,,
703223.7021,3,-1.476,11.143,-4.487,,,,,,,,
703223.7219,3,-1.565,9.768,-1.816,4,0.061,-0.356,0.063,5,32.309,-40.433,5.577
703223.7418,3,-0.66,10.77,-0.167,,,,,,,,
703223.7617,3,0.404,8.844,-0.543,,,,,,,,
703223.7816,3,-1.17,10.445,-1.974,4,-0.003,-0.226,0.108,5,32.346,-39.25,4.793
703223.8014,3,-0.354,9.433,-1.79,,,,,,,,
703223.8213,3,-0.569,9.543,-3.843,,,,,,,,
703223.8412,3,-1.175,10.409,-3.735,4,0.084,-0.19,0.074,5,32.484,-40.985,5.128
703223.861,3,-1.792,8.868,-2.713,,,,,,,,
703223.8809,3,-1.496,10.047,-2.922,,,,,,,,
703223.9008,3,-0.835,10.229,-2.256,4,-0.003,-0.068,0.086,,,,
703223.9206,3,-1.44,10.019,-0.641,,,,,,,,
703223.9405,3,-0.73,9.093,-1.306,,,,,,,,
703223.9604,3,-0.589,9.751,-2.936,4,0.012,-0.116,0.097,5,30.307,-41.858,3.842
703223.9802,3,-0.383,9.423,-3.02,,,,,,,,
703224.0001,3,-1.881,9.476,-2.276,,,,,,,,
703224.02,3,-0.955,10.229,-2.902,4,0.046,-0.108,0.078,,,,
703224.0399,3,-1.139,11.088,-2.656,,,,,,,,
703224.0597,3,-0.589,8.791,-0.715,,,,,,,,
703224.0796,3,-1.132,8.119,-2.905,4,0.034,-0.104,0.078,5,31.703,-40.208,4.668
703224.0994,3,-1.491,11.234,-3.695,,,,,,,,
703224.1193,3,-0.78,9.452,-1.685,,,,,,,,
703224.1392,3,-1.125,9.255,-1.852,4,0.037,-0.105,0.089,5,31.187,-41.457,5.597
703224.159,3,-0.979,9.363,-2.06,,,,,,,,
703224.1789,3,-0.768,10.552,-2.859,,,,,,,,
703224.1988,3,-0.39,9.782,-1.857,4,0.027,-0.1,0.102,5,30.029,-41.998,3.23
703224.2186,3,-0.177,8.487,-1.464,,,,,,,,
703224.2385,3,-0.555,10.205,-3.209,,,,,,,,
703224.2584,3,-0.68,9.691,-3.367,4,0.05,-0.019,0.087,5,30.846,-42.513,4.674
703224.2782,3,-0.617,9.753,-2.166,,,,,,,,
703224.2981,3,-1.536,8.552,-2.173,,,,,,,,
703224.3179,3,-0.83,10.258,-2.745,4,0.037,0.079,0.081,5,31.046,-41.602,4.292
703224.3378,3,-1.077,10.339,-2.041,,,,,,,,
703224.3577,3,-0.653,9.818,-1.775,,,,,,,,
703224.3776,3,-0.909,8.875,-2.299,4,0.047,0.043,0.084,,,,
703224.3974,3,-1.373,9.452,-3.462,,,,,,,,
703224.4173,3,-0.163,11.012,-3.216,,,,,,,,
703224.4371,3,-1.161,10.076,-0.964,4,0.043,0.102,0.08,5,29.999,-41.335,6.038
703224.457,3,-0.546,7.887,-0.943,,,,,,,,
703224.4769,3,-1.295,7.578,-4.309,,,,,,,,
703224.4967,3,-1.113,11.323,-5.212,4,0.087,0.175,0.062,5,29.16,-41.063,6.12
703224.5166,3,-1.117,9.686,-2.706,,,,,,,,
703224.5365,3,-1.141,10.268,-0.919,,,,,,,,
703224.5563,3,-0.526,8.286,-0.366,4,-0.012,0.299,0.074,,,,
703224.5762,3,-1.23,10.481,-2.556,,,,,,,,
703224.5961,3,-0.735,10.21,-1.976,,,,,,,,
703224.616,3,-0.127,9.1,-1.756,4,0.043,0.233,0.059,5,29.25,-41.441,6.549
703224.6358,3,-0.124,9.016,-2.211,,,,,,,,
703224.6557,3,-0.706,9.327,-2.515,,,,,,,,
703224.6755,3,-1.376,8.841,-3.429,4,0.036,0.251,0.045,5,29.449,-42.122,6.85
703224.6954,3,-0.61,10.031,-2.795,,,,,,,,
703224.7153,3,-1.486,10.801,-2.271,,,,,,,,
703224.7351,3,-0.926,8.7,-1.694,4,0.001,0.32,0.03,5,26.497,-42.802,6.21
703224.755,3,-0.392,10.952,-2.67,,,,,,,,
703224.7749,3,-1.335,10.095,-2.974,,,,,,,,
703224.7947,3,-0.438,8.93,-2.07,4,0.02,0.262,0.019,5,28.02,-42.216,8.745
703224.8146,3,-0.558,10.201,-1.979,,,,,,,,
703224.8345,3,-0.617,10.236,-2.039,,,,,,,,
703224.8543,3,-0.225,6.432,-2.142,4,-0.004,0.226,0.011,5,28.932,-41.55,9.277
703224.8742,3,-1.137,10.095,-4.13,,,,,,,,
703224.8941,3,-0.28,11.098,-2.967,,,,,,,,
703224.9139,3,-0.505,9.787,-1.51,4,-0.023,0.254,0.01,,,,
703224.9338,3,-0.785,10.435,-1.591,,,,,,,,
703224.9537,3,0.237,8.743,-1.613,,,,,,,,
703224.9735,3,-1.079,9.523,-1.912,4,-0.024,0.244,-0.007,5,28.719,-40.749,7.259
703224.9934,3,-0.311,10.198,-2.383,,,,,,,,
703225.0132,3,0.038,9.672,-3.058,,,,,,,,
703225.0331,3,0.22,7.923,-2.302,4,-0.001,0.179,-0.026,5,28.322,-42.381,9.691
703225.053,3,-0.196,9.55,-3.139,,,,,,,,
703225.0728,3,-1.668,9.61,-3.144,,,,,,,,
703225.0927,3,-0.184,9.629,-2.264,4,-0.013,0.223,-0.043,,,,
703225.1126,3,-0.658,10.091,-2.225,,,,,,,,
703225.1324,3,-0.22,9.495,-2.015,,,,,,,,
703225.1523,3,0.184,10.091,-2.443,4,-0.02,0.236,-0.049,5,29.868,-41.112,10.281
703225.1722,3,-0.703,8.66,-3.103,,,,,,,,
703225.1921,3,-0.574,9.976,-3.199,,,,,,,,
703225.2119,3,-0.782,10.643,-2.352,4,-0.004,0.178,-0.073,5,29.373,-41.319,11.192
703225.2318,3,-0.962,8.789,-1.448,,,,,,,,
703225.2516,3,-0.577,8.722,-3.257,,,,,,,,
703225.2715,3,-0.938,11.182,-4.211,4,-0.031,0.099,-0.06,5,28.697,-41.864,10.294
703225.2914,3,-0.739,10.71,-1.551,,,,,,,,
703225.3112,3,-0.318,10.445,-0.263,,,,,,,,
703225.3311,3,-0.502,8.784,-0.651,4,-0.063,0.103,-0.038,5,29.037,-40.988,11.171
703225.351,3,-0.165,10.363,-2.57,,,,,,,,
703225.3708,3,-0.395,9.598,-2.625,,,,,,,,
703225.3907,3,-0.823,8.992,-2.529,4,0.025,0.13,-0.045,5,29.588,-42.851,9.756
703225.4106,3,0.179,9.856,-3.553,,,,,,,,
703225.4304,3,-1.23,8.858,-3.005,,,,,,,,
703225.4503,3,-1.144,9.361,-2.847,4,-0.028,0.27,-0.059,5,28.627,-43.315,11.127
703225.4702,3,-0.306,9.808,-1.665,,,,,,,,
703225.49,3,-0.751,10.38,-1.675,,,,,,,,
703225.5099,3,-0.084,9.406,-2.46,4,-0.04,0.228,-0.068,5,28.702,-42.552,11.249
703225.5298,3,-0.278,9.679,-2.783,,,,,,,,
703225.5496,3,-0.089,9.88,-3.474,,,,,,,,
703225.5695,3,-0.845,8.686,-2.362,4,-0.011,0.131,-0.095,,,,
703225.5894,3,-0.567,11.423,-1.996,,,,,,,,
703225.6092,3,-0.62,9.933,-0.56,,,,,,,,
703225.6291,3,-0.562,6.934,-1.725,4,-0.049,0.083,-0.1,5,29.628,-42.45,12.233
703225.649,3,0.309,11.495,-4.455,,,,,,,,
703225.6688,3,-0.854,9.715,-2.206,,,,,,,,
703225.6887,3,-0.443,9.765,-1.328,4,-0.01,0.032,-0.1,5,30.563,-40.758,12.021
703225.7086,3,-0.132,8.918,-1.752,,,,,,,,
703225.7284,3,-0.955,9.43,-3.3,,,,,,,,
703225.7483,3,-0.026,9.533,-3.295,4,-0.006,-0.046,-0.111,,,,
703225.7682,3,-0.278,9.77,-2.462,,,,,,,,
703225.788,3,-0.574,9.846,-2.125,,,,,,,,
703225.8079,3,-0.773,9.66,-2.369,4,-0.021,-0.211,-0.115,5,30.318,-40.863,11.203
703225.8278,3,-0.301,9.014,-2.103,,,,,,,,
703225.8476,3,-1.094,9.32,-2.189,,,,,,,,
703225.8675,3,-1.371,9.495,-2.173,4,-0.039,-0.31,-0.088,5,31.204,-39.871,11.433
703225.8874,3,-0.952,10.507,-2.247,,,,,,,,
703225.9072,3,-0.725,10.708,-2.185,,,,,,,,
703225.9271,3,-0.493,8.849,-1.907,4,-0.022,-0.369,-0.051,5,31.892,-41.367,10.428
703225.947,3,-0.165,9.741,-2.946,,,,,,,,
703225.9668,3,-0.093,10.662,-2.771,,,,,,,,
703225.9867,3,-0.933,9.813,-1.79,4,0.009,-0.275,-0.05,5,30.038,-41.571,9.755
703226.0065,3,-1.065,6.224,-3.125,,,,,,,,
703226.0264,3,-1.065,10.595,-4.86,,,,,,,,
703226.0463,3,-0.727,11.356,-3.226,4,-0.011,-0.245,-0.028,5,31.371,-41.638,8.304
703226.0662,3,-0.89,10.37,0.144,,,,,,,,
703226.086,3,-0.251,8.607,0.275,,,,,,,,
703226.1059,3,-0.569,10.595,-2.568,4,-0.035,-0.321,-0.018,,,,
703226.1258,3,-0.974,9.736,-2.457,,,,,,,,
703226.1456,3,-0.412,9.667,-3.558,,,,,,,,
703226.1655,3,-0.627,9.296,-3.144,4,0.057,-0.448,-0.017,5,31.726,-41.591,8.498
703226.1853,3,-0.39,9.459,-2.481,,,,,,,,
703226.2052,3,-1.278,9.459,-2.209,,,,,,,,
703226.2251,3,-0.428,10.382,-1.969,4,-0.024,-0.266,0.007,5,28.726,-40.607,5.032
703226.2449,3,-0.471,9.272,-1.06,,,,,,,,
703226.2648,3,-0.462,8.729,-1.821,,,,,,,,
703226.2847,3,-1.78,9.818,-3.745,4,0.039,-0.307,0.008,,,,
703226.3045,3,-1.819,9.052,-3.733,,,,,,,,
703226.3244,3,-0.907,10.794,-2.565,,,,,,,,
703226.3443,3,-1.259,11.361,-0.579,4,0.001,-0.363,0.05,5,31.694,-39.859,6.5
703226.3642,3,-0.912,5.508,-1.149,,,,,,,,
703226.384,3,-2.386,9.717,-4.956,,,,,,,,
703226.4039,3,-1.39,11.636,-4.554,4,0.081,-0.352,0.08,5,31.377,-41.26,6.398
703226.4237,3,-0.895,9.93,-1.134,,,,,,,,
703226.4436,3,-0.175,10.055,0.479,,,,,,,,
703226.4635,3,-0.153,9.5,-0.986,4,-0.012,-0.155,0.144,5,30.099,-41.962,6.041
703226.4833,3,-0.27,9.229,-1.854,,,,,,,,
703226.5032,3,-0.656,8.815,-2.632,,,,,,,,
703226.5231,3,-0.335,9.377,-4.027,4,0.133,-0.161,0.095,5,30.939,-41.499,5.891
703226.5429,3,-1.357,8.511,-4.381,,,,,,,,
703226.5628,3,-1.079,9.521,-4.386,,,,,,,,
703226.5826,3,-1.019,10.208,-2.675,4,0.052,-0.022,0.095,5,30.437,-41.156,6.979
703226.6025,3,-0.022,10.265,-0.569,,,,,,,,
703226.6224,3,0.325,8.741,0.084,,,,,,,,
703226.6423,3,1.302,10.143,-0.976,4,-0.037,-0.009,0.096,,,,
703226.6621,3,-0.699,9.428,-2.077,,,,,,,,
703226.682,3,-1.055,10.026,-3.754,,,,,,,,
703226.7019,3,-1.342,10.631,-2.299,4,0.057,-0.089,0.021,5,28.868,-41.319,6.119
703226.7217,3,-0.603,6.922,-0.849,,,,,,,,
703226.7416,3,-2,9.33,-2.383,,,,,,,,
703226.7614,3,-2.369,10.662,-2.728,4,-0.018,-0.064,0.054,,,,
703226.7813,3,-0.995,10.902,-1.527,,,,,,,,
703226.8012,3,-0.699,10.72,-0.459,,,,,,,,
703226.821,3,-0.701,9.014,-1.354,4,-0.018,-0.191,0.102,5,30.164,-40.729,4.668
703226.8409,3,-1.419,8.7,-2.036,,,,,,,,
703226.8608,3,-0.395,10.433,-3.563,,,,,,,,
703226.8806,3,-0.744,10.189,-4.137,4,0.077,-0.125,0.11,5,28.683,-42.032,4.192
703226.9005,3,-1.211,7.987,-2.996,,,,,,,,
703226.9204,3,-1.474,9.77,-3.601,,,,,,,,
703226.9402,3,-1.208,10.131,-2.235,4,0.026,0.138,0.113,5,29.289,-42.68,5.397
703226.9601,3,-2.254,10.198,-1.254,,,,,,,,
703226.98,3,-1.306,9.875,-1.299,,,,,,,,
703226.9998,3,-0.651,9.332,-1.737,4,0.009,0.241,0.142,5,29.216,-42.604,6.575
703227.0197,3,-0.077,9.76,-2.252,,,,,,,,
703227.0396,3,-0.407,8.559,-1.816,,,,,,,,
703227.0594,3,-1.835,9.842,-3.223,4,0.064,0.367,0.116,5,25.801,-42.877,5.571
703227.0793,3,-0.916,10.057,-3.35,,,,,,,,
703227.0992,3,-1.28,5.444,-2.508,,,,,,,,
703227.119,3,-1.46,11.6,-4.769,4,0.043,0.539,0.1,5,27.507,-43.3,7.048
703227.1389,3,-0.275,10.567,-2.075,,,,,,,,
703227.1587,3,-0.981,10.524,-0.232,,,,,,,,
703227.1786,3,-0.512,9.492,-0.596,4,-0.043,0.56,0.098,,,,
703227.1985,3,-0.397,9.229,-1.414,,,,,,,,
703227.2184,3,-0.122,10.679,-2.515,,,,,,,,
703227.2382,3,0.067,8.798,-2.632,4,0.055,0.555,0.045,5,27.176,-42.426,8.115
703227.2581,3,-0.404,9.002,-3.422,,,,,,,,
703227.278,3,-0.782,8.643,-3.57,,,,,,,,
703227.2978,3,-1.268,10.057,-2.955,4,0.018,0.629,-0.017,,,,
703227.3177,3,-0.538,9.701,-1.512,,,,,,,,
703227.3375,3,-0.471,9.808,-1.184,,,,,,,,
703227.3574,3,-0.488,10.713,-2.615,4,-0.031,0.504,-0.035,5,27.644,-43.466,10.068
703227.3773,3,-0.282,8.449,-1.79,,,,,,,,
703227.3972,3,-1.05,8.81,-3.123,,,,,,,,
703227.417,3,-1.115,11.318,-3.441,4,0.03,0.312,-0.058,5,26.68,-42.659,10.629
703227.4369,3,-0.225,10.26,-1.821,,,,,,,,
703227.4567,3,0.167,7.6,-2.859,,,,,,,,
703227.4766,3,-0.627,11.277,-3.788,4,0.002,0.37,-0.068,5,26.677,-42.766,10.522
703227.4965,3,-0.136,11.462,-2.568,,,,,,,,
703227.5164,3,-0.751,9.461,-0.292,,,,,,,,
703227.5362,3,-0.275,8.394,-1.184,4,-0.024,0.475,-0.089,5,27.097,-43.515,11.459
703227.5561,3,-1.239,11.95,-2.907,,,,,,,,
703227.576,3,0.096,9.143,-1.44,,,,,,,,
703227.5958,3,0.715,9.169,-1.228,4,0.041,0.481,-0.124,5,27.24,-42.087,11.929
703227.6157,3,-0.139,8.935,-3.618,,,,,,,,
703227.6356,3,-0.926,10.416,-4.606,,,,,,,,
703227.6554,3,-1.417,9.538,-3.154,4,0.044,0.54,-0.191,5,26.917,-40.877,12.758
703227.6753,3,-1.608,9.277,-2.299,,,,,,,,
703227.6951,3,-1.232,7.999,-1.299,,,,,,,,
703227.715,3,-0.347,10.318,-2.728,4,-0.026,0.283,-0.195,5,29.214,-41.417,13.383
703227.7349,3,-0.297,9.909,-2.95,,,,,,,,
703227.7548,3,0.182,10.837,-2.912,,,,,,,,
703227.7746,3,-0.981,11.409,-1.845,4,-0.01,0.035,-0.196,5,28.973,-41.46,13.794
703227.7945,3,0.337,6.221,-0.928,,,,,,,,
703227.8144,3,-1.228,10.153,-4.563,,,,,,,,
703227.8342,3,-0.459,11.995,-4.238,4,0.018,-0.081,-0.182,,,,
703227.8541,3,-1.254,9.811,-0.811,,,,,,,,
703227.8739,3,-0.234,9.014,0.139,,,,,,,,
703227.8938,3,-0.299,10.741,-2.422,4,-0.065,-0.189,-0.152,5,28.967,-40.379,14.357
703227.9137,3,0.569,9.272,-2.541,,,,,,,,
703227.9335,3,0.668,9.655,-2.893,,,,,,,,
703227.9534,3,-0.007,9.617,-2.893,4,0.017,-0.338,-0.14,5,30.717,-41.293,13.385
703227.9733,3,0.538,9.354,-3.058,,,,,,,,
703227.9931,3,-0.971,9.523,-2.453,,,,,,,,
703228.013,3,0.029,10.315,-2.288,4,-0.047,-0.213,-0.139,5,29.657,-40.157,10.439
703228.0329,3,-0.388,9.162,-1.316,,,,,,,,
703228.0527,3,-0.093,9.349,-1.893,,,,,,,,
703228.0726,3,-0.244,9.389,-2.412,4,-0.04,-0.287,-0.151,5,31.474,-39.784,12.199
703228.0925,3,-1.598,8.588,-2.489,,,,,,,,
703228.1123,3,-1.316,10.873,-3.293,,,,,,,,
703228.1322,3,-0.5,10.253,-1.247,4,-0.068,-0.494,-0.128,5,31.54,-39.325,11.003
703228.1521,3,-0.756,6.992,-0.234,,,,,,,,
703228.1719,3,-1.409,9.959,-3.395,,,,,,,,
703228.1918,3,-1.139,11.045,-3.46,4,-0.016,-0.594,-0.088,5,33.423,-39.076,9.027
703228.2117,3,-1.292,10.191,-2.127,,,,,,,,
703228.2315,3,-1.421,8.837,-1.747,,,,,,,,
703228.2514,3,-0.502,10.102,-2.101,4,-0.015,-0.571,-0.032,5,31.795,-38.058,9.021
703228.2712,3,-0.615,8.65,-2.125,,,,,,,,
703228.2911,3,-0.651,11.096,-2.958,,,,,,,,
703228.311,3,-0.756,10.37,-2.063,4,0.003,-0.587,0.014,5,32.751,-39.429,6.468
703228.3309,3,-0.763,8.432,-1.756,,,,,,,,
703228.3507,3,-1.45,10.418,-2.386,,,,,,,,
703228.3706,3,-0.39,10.268,-2.804,4,0.004,-0.507,0.028,,,,
703228.3905,3,-0.11,8.253,-1.883,,,,,,,,
703228.4103,3,-0.77,8.686,-2.412,,,,,,,,
703228.4296,3,-1.493,10.191,-2.41,4,0.027,-0.384,0.039,5,32.817,-39.793,4.755
703228.45,3,-0.842,9.27,-2.407,,,,,,,,
703228.4699,3,-1.838,9.918,-2.309,,,,,,,,
703228.4898,3,-0.833,10.54,-2.232,4,0.001,-0.284,0.031,,,,
703228.5096,3,-1.675,6.575,-1.22,,,,,,,,
703228.5295,3,-1.522,11.174,-3.721,,,,,,,,
703228.5494,3,-1.488,11.079,-1.216,4,0.003,-0.316,0.067,5,31.653,-39.345,5.629
703228.5692,3,-1.275,10.895,0.278,,,,,,,,
703228.5891,3,-0.924,8.712,-0.342,,,,,,,,
703228.609,3,-1.117,9.052,-1.716,4,0.032,-0.341,0.089,5,30.75,-39.427,5.391
703228.6288,3,-0.976,10.193,-3.01,,,,,,,,
703228.6487,3,-1.103,9.952,-4.295,,,,,,,,
703228.6686,3,-0.675,9.188,-2.623,4,0.085,-0.369,0.106,5,30.754,-39.233,5.292
703228.6884,3,-0.491,10.906,-2.371,,,,,,,,
703228.7083,3,-1.292,4.788,-0.689,,,,,,,,
703228.7282,3,-2.209,4.704,-5.587,4,0.019,-0.167,0.107,5,31.305,-40.451,4.036
703228.748,3,-0.084,24.699,-6.336,,,,,,,,
703228.7679,3,0.105,4.039,8.459,,,,,,,,
703228.7878,3,-0.897,4.781,-0.914,4,-0.028,-0.082,0.146,5,30.467,-40.288,4.385
703228.8076,3,-1.742,13.29,-5.649,,,,,,,,
703228.8275,3,-1.828,10.174,-3.907,,,,,,,,
703228.8473,3,-1.397,8.085,-1.141,4,0.128,-0.192,0.077,5,30.467,-41.524,4.897
703228.8672,3,-1.775,8.332,-3.541,,,,,,,,
703228.8871,3,-2.601,11.21,-3.84,,,,,,,,
703228.907,3,-0.916,10.624,-1.847,4,0.005,-0.126,0.143,,,,
703228.9268,3,-0.05,9.354,1.534,,,,,,,,
703228.9467,3,-0.579,9.191,-1.072,,,,,,,,
703228.9666,3,-0.471,10.495,-3.029,4,0.055,-0.203,0.155,5,28.987,-41.173,2.351
703228.9864,3,-0.033,9.205,-2.651,,,,,,,,
703229.0063,3,0.16,9.842,-4.807,,,,,,,,
703229.0261,3,-0.022,8.53,-3.336,4,0.112,-0.097,0.11,,,,
703229.046,3,0.065,10.5,-3.285,,,,,,,,
703229.0659,3,-0.158,9.933,-0.553,,,,,,,,
703229.0857,3,-0.471,10.323,-0.416,4,-0.009,0.063,0.087,5,29.303,-41.692,4.213
703229.1056,3,-0.081,9.05,0.153,,,,,,,,
703229.1255,3,-0.548,10.076,-2.716,,,,,,,,
703229.1453,3,-0.969,9.167,-2.819,4,0.061,-0.103,0.04,5,28.683,-42.03,3.542
703229.1652,3,-0.821,10.543,-2.979,,,,,,,,
703229.1851,3,-0.522,8.983,0.852,,,,,,,,
703229.205,3,-0.94,6.13,-1.426,4,0.015,-0.079,0.036,5,28.036,-41.345,2.487
703229.2248,3,-2.484,11.306,-6.901,,,,,,,,
703229.2447,3,-1.139,12.101,-4.709,,,,,,,,
703229.2646,3,-1.479,9.823,0.225,4,0.047,-0.113,0.052,5,29.697,-41.132,3.569
703229.2844,3,-0.108,8.595,1.01,,,,,,,,
703229.3043,3,-1.094,10.229,-1.988,,,,,,,,
703229.3242,3,-0.73,11.007,-3.644,4,0.026,-0.109,0.077,5,27.71,-42.799,2.11
703229.344,3,-0.156,10.079,-2.601,,,,,,,,
703229.3639,3,-1.18,10.426,-2.175,,,,,,,,
703229.3837,3,-0.988,8.901,-2.467,4,0.08,-0.109,0.078,5,28.792,-42.03,3.941
703229.4036,3,-1.783,8.361,-2.568,,,,,,,,
703229.4235,3,-0.77,10.521,-4.149,,,,,,,,
703229.4433,3,-1.481,10.174,-2.264,4,0.043,0.072,0.091,5,27.908,-43.393,3.259
703229.4632,3,-1.144,8.327,-0.632,,,,,,,,
703229.4831,3,-0.148,10.696,-1.665,,,,,,,,
703229.503,3,-0.701,8.32,-2.553,4,0.032,0.094,0.091,5,28.685,-42.01,3.922
703229.5228,3,-0.969,10.605,-3.462,,,,,,,,
703229.5427,3,-0.491,11.498,-2.434,,,,,,,,
703229.5625,3,-1.07,5.587,-1.216,4,0.04,0.17,0.081,,,,
703229.5824,3,-0.845,12.409,-4.216,,,,,,,,
703229.6023,3,-0.837,10.985,-1.941,,,,,,,,
703229.6221,3,-0.646,8.167,-0.361,4,0.013,0.3,0.091,5,27.982,-43.607,4.971
703229.642,3,-0.373,9.839,-1.831,,,,,,,,
703229.6619,3,-0.033,10.153,-3.008,,,,,,,,
703229.6817,3,-0.39,10.497,-2.189,4,0.046,0.29,0.057,5,29.066,-42.128,5.295
703229.7016,3,-1.027,9.349,-2.357,,,,,,,,
703229.7215,3,-0.924,9.033,-2.067,,,,,,,,
703229.7413,3,-0.775,9.406,-2.905,4,0.026,0.279,0.017,5,28.506,-42.754,5.945
703229.7612,3,-1.094,8.968,-2.402,,,,,,,,
703229.7811,3,-0.806,9.897,-2.417,,,,,,,,
703229.8009,3,-0.495,10.957,-3.173,4,-0.002,0.19,0.026,5,28.226,-44.629,9.319
703229.8208,3,-0.792,8.904,-2.579,,,,,,,,
703229.8407,3,-0.514,9.16,-1.668,,,,,,,,
703229.8605,3,0.045,9.586,-2.757,4,-0.014,0.275,0.02,5,27.539,-43.733,6.613
703229.8804,3,0.024,10.351,-2.266,,,,,,,,
703229.9003,3,-0.275,11.294,-2.938,,,,,,,,
703229.9201,3,-1.287,7.267,-2.527,4,0.007,0.45,-0.035,5,28.023,-44.142,6.961
703229.94,3,-1.218,11.622,-3.271,,,,,,,,
703229.9598,3,-1.144,9.528,-2.182,,,,,,,,
703229.9797,3,-0.897,10.186,-0.995,4,-0.019,0.372,-0.061,5,28.127,-42.899,6.534
703229.9996,3,-1.29,8.605,-1.57,,,,,,,,
703230.0194,3,-1.373,10.658,-2.46,,,,,,,,
703230.0393,3,-0.148,10.337,-1.668,4,-0.015,0.023,-0.051,5,28.07,-42.505,6.848
703230.0592,3,-0.919,7.291,-1.96,,,,,,,,
703230.0791,3,-0.268,9.887,-3.742,,,,,,,,
703230.0989,3,-0.529,8.679,-2.613,4,-0.007,-0.066,-0.036,,,,
703230.1188,3,-0.964,9.607,-2.644,,,,,,,,
703230.1386,3,-0.639,10.636,-2.376,,,,,,,,
703230.1585,3,-0.751,9.121,-1.335,4,-0.035,0.108,-0.013,5,28.499,-42.242,7.977
703230.1784,3,-0.94,9.133,-2.273,,,,,,,,
703230.1982,3,-0.823,11.375,-2.534,,,,,,,,
703230.2181,3,0.053,8.262,-1.053,4,-0.015,0.213,-0.021,5,26.656,-43.506,8.308
703230.238,3,-0.519,11.265,-1.783,,,,,,,,
703230.2578,3,-0.885,8.552,-0.787,,,,,,,,
703230.2777,3,-1.003,7.71,-3.319,4,0.017,0.246,-0.032,5,26.677,-42.622,9.024
703230.2976,3,-0.969,10.303,-4.769,,,,,,,,
703230.3174,3,-0.313,10.552,-3.24,,,,,,,,
703230.3373,3,-0.677,10.38,-1.048,4,-0.009,0.213,-0.029,5,28.055,-42.096,9.372
703230.3572,3,-0.555,8.978,-0.414,,,,,,,,
703230.377,3,-0.969,10.399,-2.355,,,,,,,,
703230.3969,3,-0.364,9.928,-1.766,4,0.003,0.065,-0.035,5,26.872,-40.248,9.171
703230.4168,3,0.01,9.248,-2.338,,,,,,,,
703230.4366,3,0.266,9.172,-2.642,,,,,,,,
703230.4565,3,-0.223,10.186,-3.553,4,0.018,0.01,-0.042,5,27.972,-42.696,9.753
703230.4764,3,-0.574,9.203,-3.082,,,,,,,,
703230.4962,3,-1.496,9.813,-2.668,,,,,,,,
703230.5161,3,-0.304,9.243,-2.046,4,-0.005,0.083,-0.047,5,27.603,-41.589,9.261
703230.5359,3,-0.299,10.741,-2.266,,,,,,,,
703230.5558,3,0.904,7.671,-1.787,,,,,,,,
703230.5757,3,-0.742,9.89,-3.888,4,-0.004,0.136,-0.054,5,26.567,-42.227,9.586
703230.5955,3,-0.5,11.414,-2.651,,,,,,,,
703230.6154,3,-0.574,9.535,0.069,,,,,,,,
703230.6353,3,-0.979,6.068,-1.933,4,-0.04,0.178,-0.073,,,,
703230.6552,3,-0.455,11.481,-4.539,,,,,,,,
703230.675,3,0.093,11.864,-2.931,,,,,,,,
703230.6949,3,-0.136,9.933,-0.28,4,-0.029,0.118,-0.083,5,28.123,-41.348,10.298
703230.7147,3,-0.12,8.095,-0.742,,,,,,,,
703230.7346,3,-1.574,10.378,-2.69,,,,,,,,
703230.7545,3,-0.651,9.442,-2.127,4,-0.027,0.034,-0.089,,,,
703230.7743,3,-0.598,9.239,-2.855,,,,,,,,
703230.7942,3,-0.782,10.002,-3.142,,,,,,,,
703230.8141,3,-0.366,9.409,-2.826,4,-0.043,-0.085,-0.085,5,27.649,-40.643,9.305
703230.8339,3,-1.409,10.409,-2.103,,,,,,,,
703230.8538,3,-0.316,9.114,-1.091,,,,,,,,
703230.8737,3,-0.589,8.947,-1.551,4,-0.07,-0.08,-0.071,5,27.852,-40.414,9.021
703230.8935,3,-0.665,10.131,-2.733,,,,,,,,
703230.9134,3,-1.28,10.155,-2.388,,,,,,,,
703230.9333,3,-0.948,8.861,-2.352,4,-0.022,-0.159,-0.056,5,28.122,-39.972,8.519
703230.9532,3,-1.151,10.423,-2.541,,,,,,,,
703230.973,3,0.045,10.849,-1.921,,,,,,,,
703230.9929,3,-0.981,5.432,-1.515,4,-0.041,-0.169,-0.029,5,28.207,-39.474,8.258
703231.0128,3,-0.313,11.474,-4.152,,,,,,,,
703231.0326,3,0.184,10.452,-2.034,,,,,,,,
703231.0525,3,-0.347,8.607,-1,4,-0.022,-0.142,-0.014,5,28.415,-40.622,8.241
703231.0723,3,-1.074,9.892,-2.276,,,,,,,,
703231.0922,3,-0.486,9.693,-2.826,,,,,,,,
703231.1121,3,-0.845,9.172,-2.158,4,0.012,-0.171,-0.029,5,28.732,-40.219,7.495
703231.1319,3,-0.696,10.057,-2.965,,,,,,,,
703231.1518,3,-0.859,9.279,-3.02,,,,,,,,
703231.1717,3,-0.206,9.562,-2.424,4,-0.008,-0.217,-0.016,,,,
703231.1916,3,-0.943,9.282,-1.601,,,,,,,,
703231.2114,3,-0.38,10.203,-2.809,,,,,,,,
703231.2313,3,-1.785,9.054,-2.144,4,-0.005,-0.152,0.002,5,29.048,-40.608,8.838
703231.2511,3,-0.656,9.095,-2.343,,,,,,,,
703231.271,3,-1.024,10.11,-3.316,,,,,,,,
703231.2909,3,-0.636,9.626,-2.91,4,0.024,-0.178,0.008,,,,
703231.3107,3,-0.708,9.801,-1.574,,,,,,,,
703231.3306,3,-0.203,10.272,-0.914,,,,,,,,
703231.3505,3,-0.596,7.655,-2.606,4,-0.017,-0.176,0.027,5,28.044,-39.645,6.807
703231.3703,3,-1.266,12.041,-3.424,,,,,,,,
703231.3902,3,-1.074,10.167,-1.893,,,,,,,,
703231.4101,3,-0.828,10.844,-0.991,4,0.013,-0.164,0.051,5,28.084,-39.198,5.809
703231.4299,3,-0.483,8.533,-1.091,,,,,,,,
703231.4498,3,-0.943,8.751,-1.553,,,,,,,,
703231.4696,3,-0.175,10.112,-2.606,4,0.042,-0.099,0.045,5,28.702,-39.861,7.404
703231.4895,3,-0.51,9.815,-3.338,,,,,,,,
703231.5094,3,-0.014,9.545,-2.742,,,,,,,,
703231.5293,3,-1.431,7.162,-2.359,4,0.007,-0.057,0.032,5,29.385,-41.559,6.848
703231.5491,3,-1.929,11.218,-3.587,,,,,,,,
703231.569,3,-1.335,11.576,-1.718,,,,,,,,
703231.5889,3,-0.634,7.368,-0.141,4,-0.032,-0.06,0.053,5,28.986,-39.601,6.712
703231.6087,3,-1.261,10.655,-2.814,,,,,,,,
703231.6286,3,-0.371,8.798,-3.151,,,,,,,,
703231.6484,3,-1.201,9.674,-2.52,4,0.046,-0.068,0.045,5,29.825,-38.245,7.256
703231.6683,3,-1.199,11.596,-2.704,,,,,,,,
703231.6882,3,-1.522,7.363,-0.455,,,,,,,,
703231.708,3,-1.756,8.018,-3.668,4,0.018,-0.012,0.076,5,26.312,-40.134,6.66
703231.7279,3,-1.572,12.103,-4.149,,,,,,,,
703231.7478,3,-0.337,10.076,-0.203,,,,,,,,
703231.7677,3,0.031,10.047,-0.474,4,-0.002,0.02,0.11,5,28.311,-40.781,7.411
703231.7875,3,-0.105,8.384,-1.752,,,,,,,,
703231.8074,3,-0.069,9.373,-3.005,,,,,,,,
703231.8272,3,-0.735,10.67,-4.57,4,0.084,0.035,0.082,,,,
703231.8471,3,0.309,9.215,-2.56,,,,,,,,
703231.867,3,-1.115,8.758,-1.965,,,,,,,,
703231.8868,3,-0.816,10.067,-2.486,4,-0.002,0.168,0.068,5,27.342,-41.829,7.8
703231.9067,3,-0.881,10.729,-1.531,,,,,,,,
703231.9266,3,-0.163,7.863,-0.179,,,,,,,,
703231.9464,3,-0.725,9.698,-1.172,4,-0.015,0.216,0.054,5,26.808,-41.321,7.625
703231.9663,3,-0.299,9.894,-4.041,,,,,,,,
703231.9862,3,-0.998,8.932,-2.051,,,,,,,,
703232.006,3,-1.354,9.153,-3.505,4,0.051,0.203,0.019,5,27.513,-40.642,7.118
703232.0259,3,-0.814,11,-2.448,,,,,,,,
703232.0457,3,-1.378,7.083,-1.857,,,,,,,,
703232.0656,3,-0.34,10.593,-3.261,4,-0.002,0.215,0.034,5,26.34,-41.385,7.964
703232.0855,3,-1.187,10.636,-2.082,,,,,,,,
703232.1054,3,-0.84,9.818,-1.673,,,,,,,,
703232.1252,3,-1.555,9.689,-0.804,4,-0.015,0.193,0.054,5,27.219,-40.016,9.344
703232.1451,3,-0.227,9.815,-1.275,,,,,,,,
703232.165,3,-0.282,10.323,-1.567,,,,,,,,
703232.1848,3,0.148,8.372,-2.718,4,0.048,0.173,0.046,,,,
703232.2047,3,0.562,8.597,-4.63,,,,,,,,
703232.2239,3,0.636,8.461,-4.068,,,,,,,,
703232.2444,3,0.053,10.382,-3.826,4,0.024,0.358,0.012,5,26.056,-40.683,9.54
703232.2643,3,-0.936,10.851,-1.517,,,,,,,,
703232.2841,3,-0.916,9.669,-1.07,,,,,,,,
703232.304,3,-1.216,10.918,-1.201,4,-0.041,0.448,-0.011,5,25.407,-39.948,10.809
703232.3239,3,-0.019,8.707,-1.871,,,,,,,,
703232.3438,3,-1.132,9.894,-4.07,,,,,,,,
703232.3636,3,-1.433,11.545,-3.568,4,0.068,0.35,-0.054,,,,
703232.3835,3,-0.885,5.623,-0.347,,,,,,,,
703232.4033,3,-1.235,9.191,-3.673,,,,,,,,
703232.4232,3,-1.266,12.756,-2.977,4,-0.02,0.347,-0.049,5,26.123,-39.375,11.154
703232.4431,3,-1.05,9.909,-0.196,,,,,,,,
703232.4629,3,-0.428,8.554,0.089,,,,,,,,
703232.4828,3,-0.249,10.026,-2.575,4,-0.03,0.22,-0.04,,,,
703232.5027,3,-0.033,9.433,-3.288,,,,,,,,
703232.5225,3,0.306,10.615,-2.359,,,,,,,,
703232.5424,3,0.282,9.133,-1.651,4,0.032,0.136,-0.056,5,26.521,-40.196,11.668
703232.5623,3,0.096,9.165,-3.046,,,,,,,,
703232.5821,3,-1.306,10.306,-2.828,,,,,,,,
703232.602,3,-0.608,10.021,-2.579,4,0.021,0.201,-0.078,5,27.005,-40.376,12.355
703232.6219,3,-0.644,9.191,-1.685,,,,,,,,
703232.6417,3,-0.491,9.282,-2.457,,,,,,,,
703232.6616,3,-0.323,8.358,-2.699,4,-0.013,0.175,-0.069,5,26.36,-39.964,10.68
703232.6815,3,-1.472,9.334,-2.967,,,,,,,,
703232.7013,3,-0.907,12.512,-2.424,,,,,,,,
703232.7212,3,-1.062,7.32,-0.89,4,-0.011,0.119,-0.073,5,25.714,-40.602,9.373
703232.7411,3,-0.708,6.602,-3.252,,,,,,,,
703232.7609,3,-0.785,13.512,-5.219,,,,,,,,
703232.7808,3,-0.433,10.729,-0.969,4,-0.01,0.098,-0.056,5,26.477,-40.245,13.094
703232.8007,3,-0.141,9.076,0.151,,,,,,,,
703232.8205,3,0.28,8.853,-1.926,,,,,,,,
703232.8404,3,-0.778,10.914,-2.283,4,-0.037,0.052,-0.052,5,27.603,-40.651,12.155
703232.8603,3,-0.029,8.724,-1.419,,,,,,,,
703232.8801,3,-0.017,9.602,-2.919,,,,,,,,
703232.9,3,-0.976,9.052,-3.759,4,0.02,0.018,-0.069,,,,
703232.9199,3,-0.17,9.519,-3.484,,,,,,,,
703232.9397,3,-1.689,9.456,-2.898,,,,,,,,
703232.9596,3,-0.713,10.509,-2.209,4,-0.038,0.193,-0.091,5,28.954,-40.45,12.206
703232.9795,3,-0.68,8.593,-2.304,,,,,,,,
703232.9993,3,-0.282,10.229,-2.845,,,,,,,,
703233.0192,3,-0.397,9.222,-1.479,4,-0.064,0.159,-0.097,,,,
703233.0391,3,-0.163,10.088,-2.256,,,,,,,,
703233.0589,3,-1.251,10.653,-1.665,,,,,,,,
703233.0788,3,-1.065,5.331,-1.967,4,-0.042,0.066,-0.104,5,28.059,-40.704,12.26
703233.0987,3,-0.955,11.636,-3.934,,,,,,,,
703233.1185,3,-1.158,11.021,-0.974,,,,,,,,
703233.1384,3,-1.23,9.65,-0.057,4,-0.057,0.055,-0.073,5,27.881,-40.448,12.003
703233.1582,3,-1.271,8.442,-0.914,,,,,,,,
703233.1781,3,0.842,10.665,-2.544,,,,,,,,
703233.198,3,-0.179,7.947,-1.972,4,0.011,-0.003,-0.079,5,26.738,-40.66,9.767
703233.2179,3,-0.22,8.499,-3.704,,,,,,,,
703233.2377,3,-0.605,9.607,-4.771,,,,,,,,
703233.2576,3,-0.345,11.359,-3.563,4,0.002,-0.027,-0.084,5,27.573,-40.466,11.926
703233.2775,3,-1.137,9.521,-1.048,,,,,,,,
703233.2973,3,-1,11.328,-0.467,,,,,,,,
703233.3172,3,-0.629,8.54,-1.773,4,-0.048,-0.005,-0.092,5,29.34,-40.239,12.689
703233.337,3,-0.66,10.926,-3.364,,,,,,,,
703233.3569,3,0.127,11.117,-3.764,,,,,,,,
703233.3768,3,-0.481,8.944,-1.369,4,0.002,-0.136,-0.1,,,,
703233.3966,3,-0.625,11.184,-1.491,,,,,,,,
703233.4165,3,-0.419,7.975,0.067,,,,,,,,
703233.4364,3,-0.902,8.004,-4.487,4,-0.031,-0.183,-0.11,5,30.733,-40.489,11.203
703233.4562,3,-1.07,10.844,-3.795,,,,,,,,
703233.4761,3,-0.713,10.062,-1.821,,,,,,,,
703233.496,3,0.273,9.756,-1.984,4,-0.022,-0.27,-0.108,5,29.649,-39.632,9.296
703233.5158,3,0.663,9.172,-0.402,,,,,,,,
703233.5357,3,-0.144,9.722,-2.637,,,,,,,,
703233.5556,3,-1.484,10.648,-2.845,4,-0.003,-0.32,-0.102,,,,
703233.5754,3,-0.773,10.945,-3.343,,,,,,,,
703233.5953,3,-0.847,9.832,-2.079,,,,,,,,
703233.6152,3,-1.223,8.614,-1.56,4,-0.016,-0.32,-0.087,5,30.363,-39.45,10.902
703233.635,3,-0.763,8.638,-2.292,,,,,,,,
703233.6549,3,-1.299,9.777,-3.29,,,,,,,,
703233.6748,3,-0.864,9.514,-1.998,4,-0.028,-0.296,-0.06,5,30.745,-39.854,8.401
703233.6946,3,-0.727,9.756,-1.041,,,,,,,,
703233.7145,3,-1.419,10.153,-2.56,,,,,,,,
703233.7343,3,-1.015,11.088,-2.285,4,-0.01,-0.421,-0.057,5,31.372,-37.965,9.021
703233.7542,3,-0.395,10.019,-0.62,,,,,,,,
703233.7741,3,-0.311,6.903,-1.579,,,,,,,,
703233.794,3,-1.022,10.777,-4.142,4,-0.001,-0.581,-0.011,5,31.825,-39.514,8.743
703233.8138,3,-1.122,11.474,-3.405,,,,,,,,
703233.8337,3,0.316,9.576,-0.79,,,,,,,,
703233.8536,3,-0.246,8.578,-0.189,4,-0.013,-0.594,0.021,5,31.836,-40.292,7.08
703233.8734,3,-1.144,9.502,-1.919,,,,,,,,
703233.8933,3,-0.907,10.715,-2.639,,,,,,,,
703233.9131,3,-0.45,9.373,-2.584,4,0.052,-0.532,0.025,,,,
703233.933,3,-1.261,8.877,-2.221,,,,,,,,
703233.9529,3,-0.78,9.114,-2.989,,,,,,,,
703233.9727,3,-2.041,8.983,-1.759,4,0.025,-0.419,0.027,5,31.511,-40.848,5.536
703233.9926,3,-1.189,10.27,-1.622,,,,,,,,
703234.0125,3,-1.357,9.425,-2.087,,,,,,,,
703234.0323,3,-0.684,10.696,-2.634,4,0.051,-0.432,0.051,5,31.714,-39.822,5.457
703234.0522,3,-1.637,9.892,-2.51,,,,,,,,
703234.0721,3,-1.103,9.322,-1.113,,,,,,,,
703234.0919,3,-0.596,10.715,-1.369,4,0.058,-0.491,0.078,,,,
703234.1118,3,-2.201,5.963,-1.888,,,,,,,,
703234.1317,3,-2.206,10.27,-4.719,,,,,,,,
703234.1515,3,-1.5,11.938,-4.207,4,0.106,-0.494,0.123,5,31.229,-39.439,4.265
703234.1714,3,-1.077,10.308,-0.507,,,,,,,,
703234.1913,3,-0.586,8.097,1.089,,,,,,,,
703234.2111,3,-0.531,9.516,-1.189,4,0.021,-0.324,0.194,5,30.696,-40.564,1.05
703234.231,3,0.251,9.473,-2.149,,,,,,,,
703234.2508,3,0.136,9.689,-3.254,,,,,,,,
703234.2707,3,-2.161,8.66,-3.218,4,0.128,-0.253,0.157,5,28.708,-40.971,3.568
703234.2906,3,-0.897,10.035,-3.862,,,,,,,,
703234.3104,3,-1.11,10.05,-1.407,,,,,,,,
703234.3303,3,-0.672,9.076,-0.759,4,0.022,-0.016,0.164,5,30.052,-40.572,3.908
703234.3502,3,-0.603,9.567,-1.184,,,,,,,,
703234.3701,3,-0.11,10.66,-2.352,,,,,,,,
703234.3899,3,-1.263,8.363,-3.147,4,0.067,-0.068,0.128,5,30.447,-40.146,2.792
703234.4098,3,-1.359,10.875,-3.142,,,,,,,,
703234.4297,3,-1.134,10.11,-1.883,,,,,,,,
703234.4495,3,-1.799,6.989,-1.634,4,0.03,-0.053,0.115,5,29.396,-39.954,1.884
703234.4694,3,-1.62,11.411,-3.592,,,,,,,,
703234.4893,3,-1.139,10.15,-1.395,,,,,,,,
703234.5091,3,-0.591,9.674,-0.452,4,0.011,-0.106,0.142,5,28.021,-40.851,2.956
703234.529,3,-0.455,8.578,-1.347,,,,,,,,
703234.5489,3,-0.632,10.447,-2.807,,,,,,,,
703234.5687,3,-0.337,9.624,-3.721,4,0.077,-0.102,0.126,,,,
703234.5886,3,-0.632,8.416,-2.441,,,,,,,,
703234.6085,3,-1.443,9.806,-3.912,,,,,,,,
703234.6283,3,-0.727,10.241,-3.367,4,0.055,0.04,0.108,5,28.287,-42.039,2.785
703234.6482,3,-0.873,8.301,-1.84,,,,,,,,
703234.6681,3,-1.467,10.375,-2.484,,,,,,,,
703234.6879,3,-0.732,9.385,-1.854,4,0.034,0.027,0.12,5,26.909,-42.874,3.674
703234.7078,3,-0.079,9.576,-2.333,,,,,,,,
703234.7277,3,-0.668,9.459,-1.931,,,,,,,,
703234.7475,3,-2.139,10.177,-2.862,4,0.075,0.031,0.103,,,,
703234.7674,3,-1.314,10.842,-1.878,,,,,,,,
703234.7873,3,-1.129,7.226,-2.333,,,,,,,,
703234.8071,3,-1.546,11.507,-3.84,4,0.068,0.108,0.117,5,28.017,-42.05,4.668
703234.827,3,-0.897,11.533,-1.271,,,,,,,,
703234.8468,3,-0.512,9.952,-0.426,,,,,,,,
703234.8667,3,-0.648,9.485,-0.871,4,0.007,0.205,0.131,5,27.089,-43.498,4.921
703234.8866,3,0.266,10.04,-3.264,,,,,,,,
703234.9064,3,-0.151,9.373,-2.352,,,,,,,,
703234.9263,3,-0.053,8.772,-2.23,4,0.087,0.222,0.089,5,26.637,-44.171,6.068
703234.9462,3,-0.471,8.645,-3.735,,,,,,,,
703234.9661,3,-1.563,9.476,-2.091,,,,,,,,
703234.9859,3,-1.457,9.856,-2.565,4,0.02,0.369,0.066,5,26.653,-43.51,5.396
703235.0058,3,-1.295,8.686,-1.888,,,,,,,,
703235.0256,3,-0.967,10.174,-2.311,,,,,,,,
703235.0455,3,-0.883,8.98,-2.831,4,0.018,0.276,0.058,5,25.615,-43.927,6.453
703235.0654,3,-1.369,9.727,-2.441,,,,,,,,
703235.0852,3,-1.263,11.754,-1.85,,,,,,,,
703235.1051,3,-0.409,6.233,-0.809,4,0.026,0.222,0.037,,,,
703235.125,3,-1.034,9.464,-3.764,,,,,,,,
703235.1448,3,-0.995,11.78,-4.164,,,,,,,,
703235.1647,3,-0.869,10.485,-1.711,4,0.046,0.27,0.05,5,25.769,-44.962,6.323
703235.1845,3,-0.541,9.083,0.412,,,,,,,,
703235.2044,3,-0.493,8.729,-1.507,,,,,,,,
703235.2243,3,-0.9,10.696,-3.228,4,0.024,0.379,0.037,5,24.327,-43.593,7.385
703235.2442,3,-0.469,11.215,-2.778,,,,,,,,
703235.264,3,-0.457,8.148,-2.28,,,,,,,,
703235.2839,3,-0.608,9.198,-3.309,4,0.042,0.454,-0.013,,,,
703235.3038,3,-0.727,10.315,-3.257,,,,,,,,
703235.3236,3,-1.299,8.88,-1.785,,,,,,,,
703235.3435,3,-0.708,9.569,-1.606,4,-0.006,0.434,-0.022,5,26.288,-44.275,8.27
703235.3633,3,-1.017,9.674,-1.967,,,,,,,,
703235.3832,3,-0.371,8.564,-2.646,,,,,,,,
703235.4031,3,-0.725,10.851,-2.766,4,0.011,0.26,-0.046,5,25.986,-43.686,9.178
703235.4229,3,-0.39,8.698,-2.13,,,,,,,,
703235.4428,3,-0.656,7.645,-3.505,,,,,,,,
703235.4627,3,-0.787,12.457,-4.338,4,0.009,0.265,-0.051,5,24.745,-42.935,9.065
703235.4826,3,-0.352,10.911,-0.78,,,,,,,,
703235.5024,3,-0.699,8.571,-0.098,,,,,,,,
703235.5223,3,-0.455,10.354,-2.244,4,-0.042,0.257,-0.047,5,25.049,-45.239,10.225
703235.5421,3,0.38,10.83,-1.95,,,,,,,,
703235.562,3,0.589,8.911,-2.611,,,,,,,,
703235.5819,3,0.074,9.234,-3.642,4,0.027,0.211,-0.073,5,26.663,-43.393,10.611
703235.6017,3,-0.333,9.033,-4.223,,,,,,,,
703235.6216,3,-0.263,9.827,-2.658,,,,,,,,
703235.6415,3,-1.184,9.892,-1.12,4,-0.032,0.284,-0.1,,,,
703235.6613,3,-0.833,8.786,-1.656,,,,,,,,
703235.6812,3,-0.146,11.397,-3.106,,,,,,,,
703235.7011,3,-0.026,8.937,-1.723,4,-0.035,0.187,-0.11,5,27.277,-42.087,12.477
703235.7209,3,-0.519,10.047,-1.886,,,,,,,,
703235.7408,3,-0.132,10.911,-2.328,,,,,,,,
703235.7606,3,-0.447,5.594,-2.091,4,-0.022,0.134,-0.122,,,,
703235.7805,3,-0.593,11.232,-4.558,,,,,,,,
703235.8004,3,-0.144,11.158,-2.563,,,,,,,,
703235.8197,3,-0.636,7.834,-0.641,4,-0.028,0.153,-0.117,5,26.93,-43.115,11.488
703235.8401,3,-0.687,10.71,-2.493,,,,,,,,
703235.86,3,-0.297,10.442,-2.9,,,,,,,,
703235.8799,3,0.05,9.983,-2.311,4,-0.002,0.066,-0.124,5,26.921,-42.096,12.177
703235.8997,3,-0.144,9.165,-2.422,,,,,,,,
703235.9196,3,-0.368,9.686,-3.647,,,,,,,,
703235.9394,3,-0.751,9.861,-3.269,4,-0.001,-0.034,-0.119,5,26.898,-42.038,11.256
703235.9593,3,-1.426,9.787,-1.362,,,,,,,,
703235.9792,3,-1.137,9.078,-1.412,,,,,,,,
703235.999,3,-1.132,9.873,-2.723,4,-0.039,-0.037,-0.084,5,28.296,-41.345,11.34
703236.0189,3,-0.493,9.76,-2.912,,,,,,,,
703236.0388,3,-0.127,9.894,-2.862,,,,,,,,
703236.0587,3,-0.51,10.849,-1.579,4,-0.02,0.018,-0.067,5,30.055,-40.981,11.996
703236.0785,3,-0.089,6.006,-1.541,,,,,,,,
703236.0984,3,-0.823,10.378,-4.362,,,,,,,,
703236.1182,3,-1.058,11.174,-2.721,4,-0.012,0.096,-0.065,5,29.625,-41.71,12.535
703236.1381,3,-0.615,10.375,-1.031,,,,,,,,
703236.158,3,-0.433,9.832,-0.792,,,,,,,,
703236.1779,3,-0.313,9.835,-1.976,4,-0.049,0.056,-0.079,,,,
703236.1977,3,-0.124,9.567,-1.362,,,,,,,,
703236.2176,3,0.246,9.758,-2.041,,,,,,,,
703236.2375,3,-0.854,8.923,-3.115,4,0.002,-0.087,-0.097,5,30.019,-41.649,11.206
703236.2573,3,-1.603,10,-3.168,,,,,,,,
703236.2772,3,-1.175,10.052,-2.591,,,,,,,,
703236.2971,3,-0.469,9.184,-1.948,4,-0.036,-0.176,-0.1,,,,
703236.3169,3,-0.218,9.239,-2.175,,,,,,,,
703236.3368,3,-0.333,9.985,-3.099,,,,,,,,
703236.3567,3,-0.739,9.401,-2.431,4,-0.037,-0.321,-0.083,5,28.018,-39.581,8.673
703236.3765,3,-1.333,12.038,-1.687,,,,,,,,
703236.3964,3,-0.194,6.207,-0.455,,,,,,,,
703236.4163,3,-1.479,9.595,-4.164,4,-0.028,-0.346,-0.065,5,30.046,-41.26,9.836
703236.4361,3,-1.077,11.368,-3.07,,,,,,,,
703236.456,3,-0.323,9.607,-0.759,,,,,,,,
703236.4758,3,-0.656,8.755,-0.924,4,-0.024,-0.375,-0.025,,,,
703236.4957,3,-0.648,10.179,-1.711,,,,,,,,
703236.5156,3,-0.94,10.131,-1.842,,,,,,,,
703236.5354,3,-0.318,9.794,-1.859,4,0.019,-0.416,-0.014,5,30.478,-41.051,6.848
703236.5553,3,-0.754,9.416,-2.089,,,,,,,,
703236.5752,3,-0.462,9.799,-3.226,,,,,,,,
703236.595,3,-0.572,10.217,-3.431,4,0.015,-0.406,-0.013,5,29.895,-40.878,7.277
703236.6149,3,-0.237,8.875,-2.173,,,,,,,,
703236.6348,3,-0.273,10.059,-2.276,,,,,,,,
703236.6547,3,-0.534,9.988,-2.032,4,-0.02,-0.371,0.014,5,30.057,-40.475,6.224
703236.6745,3,-0.531,9.712,-2.12,,,,,,,,
703236.6944,3,-1.019,11.208,-2.103,,,,,,,,
703236.7142,3,-1.012,7.334,-1.448,4,0.002,-0.373,0.006,5,30.058,-40.491,6.847
703236.7341,3,-1.11,8.947,-3.135,,,,,,,,
703236.754,3,-1.493,11.998,-2.864,,,,,,,,
703236.7738,3,-1.031,10.43,-0.438,4,0.011,-0.358,0.038,5,29.633,-41.176,4.544
703236.7937,3,-1.165,8.169,-0.852,,,,,,,,
703236.8136,3,-1.697,9.978,-2.529,,,,,,,,
703236.8334,3,-1.007,10.217,-2.211,4,0.056,-0.444,0.073,,,,
703236.8533,3,-0.627,9.569,-2.589,,,,,,,,
703236.8731,3,-0.809,9.093,-2.376,,,,,,,,
703236.893,3,-1.206,9.198,-2.307,4,0.043,-0.296,0.105,5,29.785,-42.252,4.173
703236.9129,3,-0.577,11.287,-1.601,,,,,,,,
703236.9328,3,-1.553,7.64,-1.376,,,,,,,,
703236.9526,3,-1.192,8.155,-3.728,4,0.056,-0.132,0.115,5,29.933,-41.345,4.669
703236.9725,3,-1.603,11.84,-5.023,,,,,,,,
703236.9924,3,-0.993,9.918,-1.929,,,,,,,,
703237.0122,3,-0.895,10.528,-0.153,4,0.014,-0.038,0.14,5,29.781,-41.432,5.255
703237.0321,3,-1.18,7.245,0.122,,,,,,,,
703237.0519,3,-1.208,9.356,-2.596,,,,,,,,
703237.0718,3,-1.165,11.399,-3.434,4,0.058,-0.046,0.131,5,28.745,-42.036,5.789
703237.0917,3,-0.601,10.538,-1.807,,,,,,,,
703237.1115,3,-0.124,8.365,-1.302,,,,,,,,
703237.1314,3,-1.354,9.77,-2.204,4,0.045,-0.03,0.144,5,28.476,-43.147,5.397
703237.1513,3,-0.613,9.961,-2.024,,,,,,,,
703237.1711,3,-1.283,9.626,-2.058,,,,,,,,
703237.191,3,-1.082,9.054,-2.754,4,0.07,0.024,0.133,5,28.647,-43.463,5.406
703237.2109,3,-0.871,9.971,-3.369,,,,,,,,
703237.2307,3,-0.421,10.012,-3.027,,,,,,,,
703237.2506,3,-0.613,9.495,-1.742,4,0.025,0.259,0.13,5,26.984,-44.034,6.123
703237.2705,3,-1.306,9.763,-1.768,,,,,,,,
703237.2903,3,-1.271,10.461,-2.108,,,,,,,,
703237.3102,3,-2.024,9.454,-2.113,4,0.048,0.379,0.101,5,27.321,-43.5,7.198
703237.3301,3,-1.649,10.895,-2.556,,,,,,,,
703237.3499,3,-0.546,6.195,-0.182,,,,,,,,
703237.3698,3,-0.993,8.83,-2.343,4,0.029,0.424,0.09,,,,
703237.3897,3,-1.369,13.125,-3.848,,,,,,,,
703237.4095,3,-1.242,10.244,-1.022,,,,,,,,
703237.4294,3,-0.529,8.104,-0.723,4,0.044,0.391,0.061,5,26.616,-43.599,7.535
703237.4492,3,-0.919,10.519,-2.063,,,,,,,,
703237.4691,3,-0.809,9.15,-1.467,,,,,,,,
703237.489,3,-0.402,7.662,-3.139,4,0.06,0.229,0.044,,,,
703237.5089,3,-1.216,10.356,-4.549,,,,,,,,
703237.5287,3,-0.945,10.758,-3.005,,,,,,,,
703237.5486,3,0.175,9.296,-1.57,4,-0.009,0.242,0.03,5,26.204,-43.527,7.831
703237.5685,3,-0.782,8.406,-0.641,,,,,,,,
703237.5883,3,-0.244,11.026,-1.498,,,,,,,,
703237.6082,3,-0.404,8.753,-2.151,4,-0.01,0.266,0.008,5,26.66,-43.523,10.48
703237.6281,3,-0.158,10.071,-3.69,,,,,,,,
703237.6479,3,-0.354,12.514,-2.948,,,,,,,,
703237.6678,3,-0.373,3.431,-0.675,4,0.021,0.281,-0.035,5,26.581,-42.709,9.75
703237.6877,3,-0.715,14.266,-4.216,,,,,,,,
703237.7075,3,-0.091,9.952,-0.498,,,,,,,,
703237.7274,3,-0.409,6.224,-0.476,4,-0.026,0.271,-0.039,5,27.164,-43.333,10.391
703237.7473,3,-0.565,12.747,-3.864,,,,,,,,
703237.7671,3,-0.526,9.911,-1.153,,,,,,,,
703237.787,3,-0.675,8.715,-1.558,4,0.027,0.11,-0.049,5,25.996,-43.259,10.034
703237.8069,3,-0.514,10.583,-3.496,,,,,,,,
703237.8267,3,-0.182,8.743,-3.314,,,,,,,,
703237.8466,3,-0.778,8.619,-3.269,4,0.029,0.114,-0.07,5,26.234,-42.816,9.276
703237.8665,3,-0.519,10.828,-3.917,,,,,,,,
703237.8863,3,-0.196,9.186,-1.091,,,,,,,,
703237.9062,3,-0.01,10.088,-0.397,4,-0.052,0.139,-0.068,,,,
703237.9261,3,0.014,8.435,-2.445,,,,,,,,
703237.9459,3,-0.244,10.306,-4.676,,,,,,,,
703237.9658,3,-1.072,12.199,-3.273,4,0.053,0.031,-0.112,5,27.209,-42.929,9.166
703237.9856,3,-0.727,4.405,-1.519,,,,,,,,
703238.0055,3,-0.433,10.722,-4.721,,,,,,,,
703238.0254,3,-0.182,13.058,-3.348,4,-0.017,-0.028,-0.09,,,,
703238.0452,3,0.005,9.255,1.007,,,,,,,,
703238.0651,3,-0.952,8.681,-0.215,,,,,,,,
703238.085,3,-0.127,9.339,-2.457,4,-0.036,-0.164,-0.068,5,27.11,-42.149,10.085
703238.1049,3,-0.337,11.258,-3.106,,,,,,,,
703238.1247,3,-0.443,9.71,-1.527,,,,,,,,
703238.1446,3,0.304,8.217,-1.182,4,0.006,-0.255,-0.059,5,26.862,-42.606,9.024
703238.1644,3,-1.546,11.423,-3.817,,,,,,,,
703238.1843,3,-1.632,9.33,-3.087,,,,,,,,
703238.2042,3,-0.84,9.358,-1.625,4,-0.002,-0.159,-0.036,5,28.679,-42.046,9.026
703238.224,3,-0.304,10.988,-2.252,,,,,,,,
703238.2439,3,-0.373,8.743,-1.074,,,,,,,,
703238.2638,3,-0.866,9.911,-1.749,4,-0.046,-0.129,0.011,5,27.368,-41.548,9.024
703238.2836,3,-1.601,11.354,-2.682,,,,,,,,
703238.3035,3,-1.187,6.128,-1.819,,,,,,,,
703238.3234,3,-1.067,10.66,-5.259,4,0.035,-0.055,0.025,5,26.321,-42.778,7.954
703238.3433,3,-1.247,11.38,-3.013,,,,,,,,
703238.3631,3,-0.141,10.253,-0.493,,,,,,,,
703238.383,3,-0.313,7.183,0.134,4,-0.046,0.094,0.063,5,28.009,-42.775,10.052
703238.4028,3,-1.424,11.486,-1.864,,,,,,,,
703238.4227,3,-0.055,9.456,-3.084,,,,,,,,
703238.4426,3,-0.093,9.119,-2.367,4,0.044,0.001,0.042,5,27.425,-41.478,9.865
703238.4624,3,-0.761,9.148,-3.809,,,,,,,,
703238.4823,3,-0.591,9.516,-3.491,,,,,,,,
703238.5022,3,-0.127,10.26,-2.627,4,0.005,0.069,0.025,5,27.573,-42.786,9.753
703238.522,3,-0.256,8.923,-1.385,,,,,,,,
703238.5419,3,-0.258,9.344,-2.089,,,,,,,,
703238.5617,3,-0.105,10.272,-3.398,4,-0.013,0.051,0.007,,,,
703238.5816,3,-0.962,10.732,-2.716,,,,,,,,
703238.6015,3,-0.5,10.665,-1.038,,,,,,,,
703238.6213,3,-0.617,6.989,-1.627,4,-0.021,0.082,-0.008,5,27.142,-41.664,8.723
703238.6412,3,-0.83,9.72,-4.097,,,,,,,,
703238.6611,3,-0.579,11.904,-2.768,,,,,,,,
703238.681,3,-0.763,8.937,0.012,4,-0.011,0.168,-0.019,5,27.82,-42.468,9.132
703238.7008,3,-0.569,9.801,-1.17,,,,,,,,
703238.7207,3,-1.641,9.148,-1.919,,,,,,,,
703238.7405,3,-0.802,10.981,-2.201,4,0.001,0.124,-0.025,5,26.695,-41.916,9.749
703238.7604,3,-1.201,9.923,-1.976,,,,,,,,
703238.7803,3,-0.737,8.052,-2.23,,,,,,,,
703238.8001,3,-1.122,9.959,-3.297,4,-0.004,0.015,-0.023,5,26.949,-42.22,9.312
703238.82,3,-1.108,9.016,-2.905,,,,,,,,
703238.8399,3,-0.462,8.961,-2.331,,,,,,,,
703238.8597,3,-0.809,9.291,-2.46,4,-0.006,0.025,-0.005,5,27.802,-41.814,9.024
703238.8796,3,-0.625,10.997,-2.575,,,,,,,,
703238.8995,3,-0.943,9.325,-1.211,,,,,,,,
703238.9193,3,-0.873,11.002,-1.85,4,-0.001,0.05,0.003,5,26.025,-42.001,10.419
703238.9392,3,-0.352,7.1,-0.828,,,,,,,,
703238.9591,3,-0.524,9.098,-3.69,,,,,,,,
703238.9789,3,-0.971,12.799,-5.044,4,0.034,0.075,0.014,5,26.569,-41.827,9.16
703238.9988,3,-0.534,9.806,-1.105,,,,,,,,
703239.0187,3,-0.512,9.007,-0.531,,,,,,,,
703239.0385,3,-0.572,10.351,-2.125,4,-0.033,0.117,0.011,5,26.373,-42.754,10.477
703239.0584,3,-0.608,11.256,-1.749,,,,,,,,
703239.0783,3,-0.024,9.421,-2.515,,,,,,,,
703239.0981,3,-0.486,9.301,-3.092,4,0.027,0.037,-0.01,,,,
703239.118,3,-0.694,8.425,-2.505,,,,,,,,
703239.1378,3,-0.514,8.669,-3.015,,,,,,,,
703239.1577,3,-1.263,11.225,-2.4,4,-0.007,0.077,-0.023,5,27.354,-42.278,10.68
703239.1776,3,-1.022,8.59,-1.287,,,,,,,,
703239.1974,3,-0.211,10.201,-2.259,,,,,,,,
703239.2173,3,-1.304,9.002,-2.285,4,-0.012,0.051,-0.019,5,28.043,-40.642,12.648
703239.2372,3,-1.077,10.165,-2.34,,,,,,,,
703239.2571,3,-0.72,10.296,-2.058,,,,,,,,
703239.2769,3,-0.191,7.073,-2.326,4,-0.007,0.083,-0.016,5,26.01,-42.809,11.929
703239.2968,3,-0.804,11.196,-4.231,,,,,,,,
703239.3166,3,-0.756,10.918,-2.142,,,,,,,,
703239.3365,3,-0.558,9.212,-0.167,4,-0.023,0.132,-0.007,5,29.982,-44.193,11.94
703239.3564,3,-0.902,9.507,-1.539,,,,,,,,
703239.3763,3,-0.136,9.344,-3.178,,,,,,,,
703239.3961,3,-0.189,10.114,-2.225,4,0.02,0.089,-0.014,5,27.899,-41.649,11.201
703239.416,3,0.136,9.497,-2.625,,,,,,,,
703239.4359,3,-0.151,9.473,-2.996,,,,,,,,
703239.4557,3,-0.711,10.038,-2.479,4,-0.015,0.144,-0.039,5,27.406,-40.154,12.546
703239.4756,3,0.084,9.844,-2.084,,,,,,,,
703239.4955,3,-0.517,9.119,-0.68,,,,,,,,
703239.5153,3,-0.928,9.928,-1.984,4,-0.017,0.12,-0.054,5,27.376,-41.368,10.713
703239.5352,3,-0.928,8.98,-2.941,,,,,,,,
703239.5551,3,-1.003,10.091,-3.441,,,,,,,,
703239.5749,3,-2.232,11.397,-2.632,4,0.02,0.017,-0.062,5,26.552,-41.09,9.747
703239.5948,3,-0.663,6.181,-1.292,,,,,,,,
703239.614,3,-1.268,9.657,-3.795,,,,,,,,
703239.6345,3,-0.495,12.103,-3.508,4,-0.009,-0.027,-0.024,,,,
703239.6544,3,-0.938,10.562,-0.845,,,,,,,,
703239.6742,3,-0.677,7.406,-0.127,,,,,,,,
703239.6941,3,-1,10.265,-2.893,4,-0.004,0.013,-0.016,5,26.779,-41.917,11.2
703239.714,3,-0.471,9.33,-2.9,,,,,,,,
703239.7338,3,-0.538,9.937,-3.4,,,,,,,,
703239.7537,3,-1.318,10.306,-2.548,4,0.021,0.016,-0.012,,,,
703239.7736,3,-1.06,8.504,-2.091,,,,,,,,
703239.7935,3,-0.806,10.191,-1.953,,,,,,,,
703239.8133,3,-0.347,9.65,-1.63,4,-0.031,0.052,-0.01,5,26.694,-40.669,10.315
703239.8332,3,0.041,9.057,-2.596,,,,,,,,
703239.853,3,-0.541,10.126,-3.206,,,,,,,,
703239.8729,3,-0.593,8.82,-2.56,4,0.017,0.031,-0.029,5,27.852,-40.645,12.154
703239.8928,3,-1.445,10.615,-2.407,,,,,,,,
703239.9126,3,-1.553,7.913,-1.146,,,,,,,,
703239.9325,3,-1.278,7.702,-2.646,4,-0.035,0.07,-0.025,5,27.426,-41.365,10.588
703239.9524,3,-1.192,10.765,-3.57,,,,,,,,
703239.9722,3,-0.986,12.519,-1.182,,,,,,,,
703239.9921,3,-0.412,8.806,0.727,4,-0.098,0.057,-0.003,5,26.968,-41.38,12.512
703240.012,3,-0.407,9.66,-1.237,,,,,,,,
703240.0318,3,-0.254,10.043,-1.936,,,,,,,,
703240.0517,3,0.443,10.737,-3.379,4,0.002,-0.024,-0.027,5,27.701,-40.648,11.536
703240.0716,3,-0.273,7.858,-2.553,,,,,,,,
703240.0914,3,0.189,10.026,-3.714,,,,,,,,
703240.1113,3,-0.017,9.5,-3.379,4,-0.008,-0.015,-0.046,5,26.912,-40.666,11.925
703240.1312,3,-0.792,10.052,-1.388,,,,,,,,
703240.151,3,-0.61,8.396,-0.845,,,,,,,,
703240.1709,3,-0.584,9.399,-2.445,4,-0.037,-0.015,-0.048,,,,
703240.1908,3,-1.208,9.299,-3.73,,,,,,,,
703240.2106,3,-0.45,10.397,-3.596,,,,,,,,
703240.2305,3,-0.945,12.191,-2.247,4,0.019,-0.089,-0.068,5,28.716,-41.151,10.477
703240.2503,3,-0.809,4.848,-0.565,,,,,,,,
703240.2702,3,-1.297,10.32,-4.649,,,,,,,,
703240.2901,3,-0.581,11.864,-3.587,4,0.003,-0.082,-0.046,,,,
703240.3099,3,-0.115,10.215,-0.412,,,,,,,,
703240.3298,3,-0.627,7.181,-0.146,,,,,,,,
703240.3497,3,-0.914,10.21,-2.778,4,-0.028,-0.115,-0.027,5,27.702,-40.956,11.548
703240.3696,3,-0.919,7.994,-0.818,,,,,,,,
703240.3894,3,-0.775,8.722,-2.553,,,,,,,,
703240.4093,3,-1.522,8.222,-5.243,4,0.06,-0.191,-0.053,5,27.002,-40.814,10.893
703240.4291,3,-1.29,11.452,-4.678,,,,,,,,
703240.449,3,-0.199,9.846,-2.003,,,,,,,,
703240.4689,3,-0.11,9.861,0.156,4,-0.084,-0.058,-0.021,5,27.441,-40.021,10.432
703240.4887,3,-0.165,11.852,-0.39,,,,,,,,
703240.5086,3,-0.512,10.129,-0.194,,,,,,,,
703240.5285,3,-0.845,8.461,-1.314,4,-0.013,-0.149,-0.051,5,27.6,-40.88,10.452
703240.5483,3,-1.297,8.612,-4.594,,,,,,,,
703240.5682,3,-0.95,7.853,-5.161,,,,,,,,
703240.588,3,-1.74,10.021,-3.939,4,0.045,-0.193,-0.06,5,27.676,-40.096,10.175
703240.6079,3,-0.718,11.565,-2.551,,,,,,,,
703240.6278,3,-0.316,10.997,0.436,,,,,,,,
703240.6477,3,-1.046,9.007,0.639,4,-0.119,-0.123,-0.021,5,27.977,-39.922,8.501
703240.6675,3,-0.974,9.528,-0.522,,,,,,,,
703240.6874,3,-0.928,9.442,-2.431,,,,,,,,
703240.7073,3,-0.881,10.866,-4.92,4,0.056,-0.438,-0.043,5,28.018,-38.672,9.106
703240.7271,3,-1.194,8.107,-4.374,,,,,,,,
703240.747,3,-1.33,8.686,-3.18,,,,,,,,
703240.7669,3,-0.921,9.528,-2.874,4,-0.015,-0.419,-0.006,5,26.936,-38.988,7.599
703240.7867,3,-0.402,8.858,-1.57,,,,,,,,
703240.8066,3,-0.232,9.854,-1.007,,,,,,,,
703240.8264,3,0.268,10.33,-0.95,4,-0.04,-0.409,0.024,,,,
703240.8463,3,-0.093,9.102,-1.462,,,,,,,,
703240.8662,3,-0.55,11.713,-2.572,,,,,,,,
703240.886,3,-0.826,8.514,-2.168,4,0.051,-0.44,-0.002,5,27.634,-38.988,6.818
703240.9059,3,-1.72,7.87,-4.108,,,,,,,,
703240.9258,3,-0.706,13.744,-3.651,,,,,,,,
703240.9457,3,0.196,10.66,1.405,4,-0.011,-0.356,0.044,5,28.117,-37.83,6.836
703240.9655,3,0.261,8.585,2.206,,,,,,,,
703240.9854,3,-0.723,9.715,-1.05,,,,,,,,
703241.0052,3,-1.579,8.954,-3.881,4,0.035,-0.384,0.024,5,29.195,-37.881,5.077
703241.0251,3,-2.089,8.844,-5.769,,,,,,,,
703241.045,3,-3.151,8.626,-5.889,,,,,,,,
703241.0648,3,-2.319,11.081,-3.47,4,0.094,-0.374,0.058,5,27.095,-39.998,5.45
703241.0847,3,-0.971,9.212,-0.234,,,,,,,,
703241.1046,3,-1.33,9.275,0.696,,,,,,,,
703241.1244,3,-1.024,9.385,-0.67,4,-0.05,-0.221,0.149,5,27.496,-40.637,5.19
703241.1443,3,-0.601,10.469,-3.159,,,,,,,,
703241.1642,3,-1.527,9.095,-3.714,,,,,,,,
703241.184,3,-1.859,9.66,-3.391,4,0.15,-0.296,0.124,5,26.7,-41.364,4.662
703241.2039,3,-1.775,9.437,-2.613,,,,,,,,
703241.2238,3,-1.505,7.033,-2.68,,,,,,,,
703241.2437,3,-1.266,12.471,-3.4,4,0.095,-0.066,0.173,5,26.709,-40.999,5.011
703241.2635,3,-0.309,12.182,0.526,,,,,,,,
703241.2834,3,-0.005,7.535,0.981,,,,,,,,
703241.3033,3,-0.323,9.921,-2.333,4,0.085,-0.048,0.175,5,26.726,-40.286,6.081
703241.3231,3,-0.062,8.191,-3.154,,,,,,,,
703241.343,3,-1.084,9.153,-4.953,,,,,,,,
703241.3628,3,-0.215,12.696,-3.427,4,0.11,-0.064,0.143,,,,
703241.3827,3,0.481,9.358,-0.342,,,,,,,,
703241.4026,3,0.179,10.378,-0.117,,,,,,,,
703241.4224,3,-0.316,9.191,-1.129,4,-0.024,0.142,0.118,5,24.802,-40.07,4.698
703241.4423,3,0.491,8.573,-0.995,,,,,,,,
703241.4622,3,-0.404,10.524,-3.795,,,,,,,,
703241.482,3,-0.83,9.835,-4.365,4,0.095,0.009,0.044,,,,
703241.5019,3,-1.024,10.39,-2.644,,,,,,,,
703241.5218,3,-1.412,7.679,-0.455,,,,,,,,
703241.5416,3,-1.326,9.421,-2.826,4,-0.05,0.127,0.041,5,24.706,-41.171,6.348
703241.5615,3,-1.105,12.672,-2.481,,,,,,,,
703241.5814,3,-0.933,9.081,0.292,,,,,,,,
703241.6012,3,-0.974,8.559,-0.706,4,-0.011,-0.041,0.045,5,23.637,-41.316,5.22
703241.6211,3,-1.342,11.067,-3.321,,,,,,,,
703241.641,3,-1.608,9.375,-4.018,,,,,,,,
703241.6608,3,-1.29,9.351,-3.537,4,0.1,-0.09,0.056,5,25.365,-41.507,5.908
703241.6807,3,-1.661,9.516,-2.749,,,,,,,,
703241.7005,3,-0.613,8.825,-1.541,,,,,,,,
703241.7204,3,-0.474,9.71,-2.824,4,0.006,0.062,0.108,5,25.407,-39.618,5.295
703241.7403,3,-0.847,10.44,-1.094,,,,,,,,
703241.7601,3,-0.007,8.583,-1.28,,,,,,,,
703241.78,3,-0.167,8.617,-3.773,4,0.068,0.179,0.091,5,25.336,-42.833,6.686
703241.7999,3,-1.555,9.38,-4.757,,,,,,,,
703241.8198,3,-0.775,10.174,-4.077,,,,,,,,
703241.8396,3,-0.158,11.624,-1.735,4,0.046,0.332,0.056,5,24.448,-42.387,6.613
703241.8595,3,0.239,6.236,0.022,,,,,,,,
703241.8794,3,0.306,11.744,-2.838,,,,,,,,
703241.8992,3,-0.06,11.512,-1.165,4,-0.035,0.38,0.039,,,,
703241.9191,3,-0.445,8.968,-0.285,,,,,,,,
703241.9389,3,-0.794,7.786,-2.201,,,,,,,,
703241.9588,3,-1.175,10.655,-4.195,4,0.067,0.275,-0.046,5,25.212,-42.705,8.02
703241.9787,3,-1.381,10.643,-3.249,,,,,,,,
703241.9985,3,-1.007,9.976,-2.422,,,,,,,,
703242.0184,3,-0.505,9.121,-1.213,4,-0.025,0.202,-0.047,,,,
703242.0383,3,-0.749,9.823,-1.498,,,,,,,,
703242.0581,3,-0.218,10.126,-2.673,,,,,,,,
703242.078,3,-0.443,9.062,-1.761,4,-0.018,0.147,-0.064,5,25.633,-43.155,7.906
703242.0979,3,-0.818,8.803,-3.513,,,,,,,,
703242.1177,3,-0.964,8.911,-3.793,,,,,,,,
703242.1376,3,-1.673,9.418,-3.211,4,0.003,0.063,-0.071,5,25.362,-41.728,7.445
703242.1575,3,-0.907,10.997,-2.481,,,,,,,,
703242.1773,3,-0.912,7.578,-0.656,,,,,,,,
703242.1972,3,-1.496,9.571,-2.367,4,-0.06,0.011,-0.034,5,25.337,-42.825,8.298
703242.2171,3,-0.804,11.462,-2.292,,,,,,,,
703242.2369,3,-1.125,11.569,-0.278,,,,,,,,
703242.2568,3,-0.78,7.927,-0.809,4,-0.011,0.001,-0.017,5,24.847,-42.48,7.756
703242.2766,3,-1.086,9.863,-3.412,,,,,,,,
703242.2965,3,-0.914,11.421,-3.316,,,,,,,,
703242.3164,3,-0.282,9.251,-1.591,4,0.028,0.045,-0.027,5,26.006,-42.789,8.644
703242.3362,3,-0.354,7.724,-2.166,,,,,,,,
703242.3561,3,-0.828,10.21,-3.168,,,,,,,,
703242.376,3,-0.184,9.782,-1.474,4,-0.029,0.058,-0.022,5,25.366,-41.556,7.846
703242.3959,3,-1.175,9.538,-2.161,,,,,,,,
703242.4157,3,-1.115,9.583,-1.957,,,,,,,,
703242.4356,3,-0.488,7.317,-1.651,4,-0.011,-0.071,-0.012,5,25.351,-42.12,6.801
703242.4554,3,-0.715,9.31,-3.3,,,,,,,,
703242.4753,3,0.299,10.203,-3.422,,,,,,,,
703242.4952,3,-0.395,11.017,-1.388,4,-0.045,-0.083,-0.003,5,28.444,-43.477,9.081
703242.515,3,-0.603,7.143,-0.775,,,,,,,,
703242.5349,3,-0.577,9.787,-3.348,,,,,,,,
703242.5548,3,-0.558,11.751,-2.24,4,-0.024,-0.082,-0.007,,,,
703242.5746,3,-1.072,9.653,-0.627,,,,,,,,
703242.5945,3,-0.081,9.052,-1.201,,,,,,,,
703242.6144,3,-1.57,9.851,-3.206,4,0.017,-0.047,-0.012,5,26.686,-42.216,7.87
703242.6343,3,-0.622,9.88,-3.35,,,,,,,,
703242.6541,3,-0.715,9.425,-2.546,,,,,,,,
703242.674,3,-1.57,9.717,-2.474,4,0.02,0.028,-0.022,5,26.102,-42.818,8.403
703242.6938,3,-0.995,8.952,-2.395,,,,,,,,
703242.7137,3,-0.96,9.904,-1.414,,,,,,,,
703242.7336,3,-0.689,9.466,-2.24,4,-0.019,0.009,-0.016,5,26.112,-41.566,6.479
703242.7534,3,-0.304,9.425,-3.379,,,,,,,,
703242.7733,3,-1.017,10.158,-3.558,,,,,,,,
703242.7932,3,-1.077,8.37,-2.438,4,0.018,-0.111,0,5,26.764,-43.671,7.292
703242.813,3,-0.967,11.521,-1.539,,,,,,,,
703242.8329,3,-0.658,8.573,-0.78,,,,,,,,
703242.8528,3,-0.763,8.128,-3.001,4,-0.024,-0.075,0.023,5,26.009,-42.575,7.57
703242.8726,3,-1.283,11.679,-2.367,,,,,,,,
703242.8925,3,-0.481,10.306,-1.182,,,,,,,,
703242.9124,3,-0.282,8.784,-1.082,4,-0.002,0.005,0.035,,,,
703242.9322,3,-1.225,10.162,-3.304,,,,,,,,
703242.9521,3,-0.761,10.471,-3.814,,,,,,,,
703242.972,3,0.361,8.576,-1.383,4,0.033,0.06,0.012,5,26.648,-43.823,7.713
703242.9918,3,-1.235,10.246,-2.577,,,,,,,,
703243.0117,3,-0.002,9.605,-2.589,,,,,,,,
703243.0316,3,-0.883,10.361,-2.718,4,-0.009,0.067,-0.005,5,26.382,-42.099,8.691
703243.0514,3,-0.467,9.928,-1.912,,,,,,,,
703243.0713,3,-0.493,8.99,-1.634,,,,,,,,
703243.0912,3,-0.938,10.093,-2.548,4,-0.024,-0.016,0.012,,,,
703243.111,3,-0.574,9.277,-3.513,,,,,,,,
703243.1309,3,-0.876,10.143,-3.491,,,,,,,,
703243.1508,3,-1.335,11.634,-2.367,4,-0.003,0.02,0.001,5,26.801,-42.09,8.296
703243.1706,3,-0.727,4.501,-0.526,,,,,,,,
703243.1905,3,-1.802,9.576,-4.152,,,,,,,,
703243.2104,3,-0.998,13.996,-3.436,4,-0.03,0.087,0.025,5,27.315,-43.488,7.593
703243.2302,3,-0.72,10.863,0.483,,,,,,,,
703243.2501,3,-0.553,7.351,0.723,,,,,,,,
703243.27,3,-0.754,10.646,-3.166,4,-0.047,0.047,0.032,5,26.689,-42.091,8.484
703243.2898,3,0.031,10.909,-1.842,,,,,,,,
703243.3097,3,0.11,8.731,-2.192,,,,,,,,
